svm_type c_svc
kernel_type polynomial
degree 2
gamma 0.2
coef0 0.0
nr_class 2
total_sv 14
rho 0.7716162755685152
label 1 -1
nr_sv 8 6
SV
0.07932178945998966 1:6.0 2:0.0 33:1.0 30:1.0 437:1.0 1146:1.0 
0.04315265471045922 1:4.0 2:2.0 5:1.0 22:1.0 3339:1.0 4166:1.0 
0.1573477522993185 1:4.0 2:1.0 5:1.0 24:1.0 23723:1.0 384:1.0 
0.05446324681351583 1:8.0 2:0.0 5:1.0 10:1.0 9151:1.0 20666:1.0 
0.07911134600303224 1:7.0 2:0.0 27:1.0 24:1.0 41921:1.0 678:1.0 
0.3289473725487982 1:4.0 2:0.0 27:1.0 10:1.0 3175:1.0 5088:1.0 
0.08340282529020185 1:4.0 2:1.0 5:1.0 24:1.0 16183:1.0 3728:1.0 
0.09932889482576632 1:5.0 2:1.0 5:1.0 30:1.0 47895:1.0 506:1.0 
-0.11961721614730206 1:4.0 2:0.0 5:1.0 10:1.0 12999:1.0 2466:1.0 
-0.1573477522993185 1:3.0 2:0.0 5:1.0 24:1.0 12999:1.0 100:1.0 
-0.11328627149501232 1:6.0 2:0.0 5:1.0 10:1.0 9393:1.0 1532:1.0 
-0.13075010191881062 1:6.0 2:0.0 27:1.0 4:1.0 41921:1.0 23744:1.0 
-0.2413499253404468 1:4.0 2:0.0 27:1.0 10:1.0 43049:1.0 100:1.0 
-0.1627246147501915 1:6.0 2:1.0 33:1.0 24:1.0 3645:1.0 1968:1.0 
