svm_type c_svc
kernel_type polynomial
degree 2
gamma 0.2
coef0 0.0
nr_class 2
total_sv 1520
rho 0.6276411152535564
label 1 -1
nr_sv 631 889
SV
0.20896453752146796 1:2.0 2:0.0 51:1.0 52:1.0 53:1.0 54:1.0 
1.360883004171161 1:3.0 2:0.0 51:1.0 109:1.0 488:1.0 489:1.0 
0.12761832355322833 1:2.0 2:0.0 51:1.0 92:1.0 865:1.0 866:1.0 
0.8601120713083976 1:3.0 2:0.0 51:1.0 52:1.0 1149:1.0 1150:1.0 
0.06165441707688758 1:6.0 2:0.0 51:1.0 43:1.0 1592:1.0 1591:1.0 
1.347591919721457 1:2.0 2:0.0 51:1.0 92:1.0 1592:1.0 969:1.0 
0.5285056855750604 1:4.0 2:0.0 51:1.0 52:1.0 1975:1.0 651:1.0 
1.3437705962315776 1:2.0 2:0.0 51:1.0 109:1.0 1975:1.0 1915:1.0 
0.8928571884729449 1:2.0 2:0.0 51:1.0 221:1.0 2339:1.0 2340:1.0 
0.46513813285091665 1:4.0 2:0.0 51:1.0 25:1.0 2347:1.0 594:1.0 
0.3453782910829092 1:3.0 2:0.0 51:1.0 52:1.0 53:1.0 936:1.0 
0.6290957067600947 1:8.0 2:0.0 51:1.0 92:1.0 2469:1.0 2463:1.0 
0.2808569160147243 1:6.0 2:0.0 51:1.0 92:1.0 2485:1.0 2479:1.0 
0.6320335123326911 1:6.0 2:0.0 51:1.0 92:1.0 2895:1.0 2894:1.0 
0.9415331774535698 1:4.0 2:0.0 51:1.0 52:1.0 3443:1.0 3442:1.0 
500.0 1:2.0 2:0.0 51:1.0 52:1.0 2347:1.0 1999:1.0 
6.21149634383847 1:2.0 2:0.0 51:1.0 109:1.0 3240:1.0 3966:1.0 
1.3776045503885588 1:2.0 2:0.0 51:1.0 52:1.0 4504:1.0 4505:1.0 
0.49589279529462044 1:2.0 2:0.0 51:1.0 109:1.0 4894:1.0 4895:1.0 
1.5508339630119743 1:2.0 2:1.0 51:1.0 221:1.0 3510:1.0 1819:1.0 
2.3770296758638425 1:2.0 2:0.0 51:1.0 109:1.0 3240:1.0 3667:1.0 
0.997297264863196 1:3.0 2:0.0 51:1.0 52:1.0 6029:1.0 6030:1.0 
0.10696386795726617 1:4.0 2:0.0 51:1.0 92:1.0 1975:1.0 2568:1.0 
1.0517107223701359 1:3.0 2:0.0 51:1.0 52:1.0 6512:1.0 1495:1.0 
0.47142523829652894 1:10.0 2:0.0 51:1.0 92:1.0 543:1.0 4525:1.0 
0.12301831128624444 1:3.0 2:0.0 51:1.0 43:1.0 3510:1.0 2740:1.0 
1.4549597242239065 1:3.0 2:0.0 51:1.0 109:1.0 2144:1.0 7374:1.0 
0.8345229958933778 1:2.0 2:0.0 51:1.0 109:1.0 7447:1.0 489:1.0 
0.6425231417540225 1:3.0 2:0.0 51:1.0 52:1.0 7638:1.0 436:1.0 
1.6784816074756521 1:2.0 2:0.0 51:1.0 109:1.0 2839:1.0 450:1.0 
6.231255005445994 1:2.0 2:0.0 51:1.0 52:1.0 3240:1.0 1502:1.0 
0.7016538476567897 1:4.0 2:1.0 76:1.0 43:1.0 1109:1.0 7854:1.0 
0.49068558138232393 1:8.0 2:0.0 51:1.0 43:1.0 8006:1.0 3054:1.0 
1.5397783040200115 1:1.0 2:0.0 51:1.0 52:1.0 8095:1.0 2486:1.0 
8.67561032682191 1:4.0 2:0.0 51:1.0 25:1.0 2256:1.0 936:1.0 
1.472220555632957 1:2.0 2:0.0 51:1.0 52:1.0 8334:1.0 4857:1.0 
0.7641024355699456 1:2.0 2:0.0 51:1.0 52:1.0 8602:1.0 8603:1.0 
0.7489372115798613 1:2.0 2:0.0 51:1.0 52:1.0 8814:1.0 273:1.0 
0.734310282324089 1:3.0 2:0.0 51:1.0 92:1.0 6790:1.0 2233:1.0 
1.050732092620837 1:2.0 2:0.0 51:1.0 221:1.0 8864:1.0 1660:1.0 
3.058685065709662 1:2.0 2:0.0 51:1.0 52:1.0 5697:1.0 489:1.0 
0.7421935854699733 1:2.0 2:0.0 51:1.0 221:1.0 2398:1.0 6337:1.0 
0.5403672370689654 1:3.0 2:0.0 51:1.0 221:1.0 6790:1.0 7574:1.0 
0.4478903056574412 1:3.0 2:0.0 51:1.0 43:1.0 9225:1.0 5425:1.0 
0.4444116638799965 1:3.0 2:0.0 51:1.0 43:1.0 9322:1.0 3966:1.0 
0.7450924838045978 1:6.0 2:0.0 51:1.0 109:1.0 10102:1.0 539:1.0 
1.265652274891914 1:2.0 2:0.0 51:1.0 109:1.0 10259:1.0 10152:1.0 
0.7590015121873381 1:2.0 2:0.0 51:1.0 52:1.0 10638:1.0 10639:1.0 
0.41970589176118306 1:6.0 2:0.0 51:1.0 25:1.0 10945:1.0 4661:1.0 
0.23503350145421392 1:4.0 2:0.0 51:1.0 43:1.0 3415:1.0 1512:1.0 
0.2732030355038801 1:3.0 2:0.0 51:1.0 92:1.0 2339:1.0 818:1.0 
0.9513760200989576 1:1.0 2:0.0 586:1.0 52:1.0 3004:1.0 9104:1.0 
0.8243130473366962 1:2.0 2:0.0 51:1.0 52:1.0 9782:1.0 335:1.0 
1.6856927060000437 1:2.0 2:1.0 51:1.0 109:1.0 12076:1.0 1079:1.0 
39.892499201024236 1:2.0 2:0.0 51:1.0 52:1.0 505:1.0 4622:1.0 
0.7370608599502062 1:3.0 2:0.0 51:1.0 92:1.0 12707:1.0 1783:1.0 
0.05456597375685564 1:7.0 2:6.0 76:1.0 43:1.0 86:1.0 13060:1.0 
1.5763139267116946 1:7.0 2:5.0 76:1.0 43:1.0 86:1.0 445:1.0 
0.6191460198321043 1:2.0 2:0.0 307:1.0 109:1.0 2664:1.0 1456:1.0 
0.30762760312764587 1:5.0 2:4.0 76:1.0 92:1.0 86:1.0 630:1.0 
1.9990086188971414 1:1.0 2:0.0 51:1.0 52:1.0 8100:1.0 10889:1.0 
3.857555597272007 1:5.0 2:3.0 76:1.0 92:1.0 86:1.0 334:1.0 
1.0807838487851686 1:3.0 2:0.0 51:1.0 92:1.0 9471:1.0 170:1.0 
0.6928628283122025 1:3.0 2:0.0 51:1.0 52:1.0 10102:1.0 4225:1.0 
0.2304143687214923 1:9.0 2:0.0 51:1.0 43:1.0 8864:1.0 2163:1.0 
1.1182102484315866 1:2.0 2:0.0 51:1.0 25:1.0 12076:1.0 774:1.0 
0.9528928286472391 1:3.0 2:0.0 51:1.0 52:1.0 3510:1.0 14722:1.0 
3.206790434285651 1:1.0 2:1.0 51:1.0 52:1.0 319:1.0 2056:1.0 
0.5881289169288081 1:5.0 2:11.0 76:1.0 92:1.0 86:1.0 1660:1.0 
0.9804465215963635 1:2.0 2:0.0 51:1.0 52:1.0 8100:1.0 5872:1.0 
1.3644639627278752 1:3.0 2:1.0 51:1.0 25:1.0 319:1.0 15259:1.0 
1.659293616162898 1:2.0 2:0.0 51:1.0 221:1.0 15507:1.0 5689:1.0 
1.3018116104844464 1:2.0 2:0.0 51:1.0 43:1.0 3510:1.0 3063:1.0 
2.7750814483676343 1:3.0 2:0.0 51:1.0 92:1.0 488:1.0 9588:1.0 
0.2612490207533206 1:5.0 2:0.0 51:1.0 221:1.0 6790:1.0 4768:1.0 
0.5342262654141583 1:2.0 2:0.0 51:1.0 52:1.0 8095:1.0 1936:1.0 
0.9587071771348565 1:3.0 2:0.0 51:1.0 109:1.0 2839:1.0 2332:1.0 
1.0658192230612138 1:2.0 2:0.0 51:1.0 52:1.0 8100:1.0 1936:1.0 
1.7951235095616798 1:1.0 2:0.0 51:1.0 52:1.0 16056:1.0 16057:1.0 
1.8315082411836097 1:5.0 2:3.0 76:1.0 25:1.0 86:1.0 44:1.0 
0.8576863021204445 1:2.0 2:0.0 51:1.0 221:1.0 2256:1.0 2163:1.0 
0.8314384224700851 1:7.0 2:9.0 76:1.0 92:1.0 86:1.0 853:1.0 
0.3629514663736279 1:6.0 2:0.0 51:1.0 92:1.0 9225:1.0 1637:1.0 
0.6964972141900181 1:2.0 2:0.0 51:1.0 221:1.0 2398:1.0 572:1.0 
0.8680519576644259 1:4.0 2:0.0 51:1.0 52:1.0 2543:1.0 1033:1.0 
0.2317518675701289 1:6.0 2:6.0 76:1.0 43:1.0 86:1.0 5714:1.0 
0.09404761361165528 1:4.0 2:0.0 51:1.0 43:1.0 16526:1.0 5104:1.0 
0.3874030888161279 1:10.0 2:0.0 51:1.0 43:1.0 16535:1.0 16534:1.0 
0.6101173765397379 1:10.0 2:2.0 228:1.0 43:1.0 1926:1.0 16534:1.0 
0.4385966086395272 1:5.0 2:0.0 51:1.0 92:1.0 6137:1.0 2201:1.0 
0.4719874503095765 1:3.0 2:0.0 51:1.0 221:1.0 12517:1.0 5918:1.0 
1.2266121697424077 1:2.0 2:0.0 51:1.0 109:1.0 16771:1.0 477:1.0 
0.42991918266548157 1:7.0 2:0.0 51:1.0 92:1.0 11765:1.0 391:1.0 
0.9101898180856631 1:2.0 2:0.0 51:1.0 52:1.0 9782:1.0 2978:1.0 
0.19459270040798304 1:8.0 2:0.0 51:1.0 43:1.0 1975:1.0 484:1.0 
3.6726343305532727 1:2.0 2:0.0 51:1.0 52:1.0 6790:1.0 774:1.0 
0.5895968396568867 1:4.0 2:0.0 51:1.0 52:1.0 17056:1.0 1048:1.0 
0.5332365697767925 1:3.0 2:0.0 51:1.0 52:1.0 3955:1.0 2363:1.0 
42.113595391924264 1:2.0 2:0.0 51:1.0 109:1.0 17105:1.0 6475:1.0 
0.41670927926213286 1:2.0 2:0.0 51:1.0 52:1.0 14833:1.0 17137:1.0 
1.1190437675760894 1:3.0 2:1.0 76:1.0 25:1.0 701:1.0 17226:1.0 
1.584273545447202 1:2.0 2:0.0 51:1.0 109:1.0 2839:1.0 17474:1.0 
1.2435831296897508 1:2.0 2:0.0 51:1.0 52:1.0 17539:1.0 7998:1.0 
0.42719757554921783 1:6.0 2:0.0 51:1.0 25:1.0 2196:1.0 7115:1.0 
0.1518748746005164 1:5.0 2:0.0 51:1.0 92:1.0 11765:1.0 2947:1.0 
2.7629531840860557 1:2.0 2:0.0 51:1.0 221:1.0 5697:1.0 10894:1.0 
1.0579919310292603 1:2.0 2:0.0 51:1.0 109:1.0 17902:1.0 12589:1.0 
1.3494341893507729 1:2.0 2:0.0 51:1.0 52:1.0 3342:1.0 7280:1.0 
20.549817387238974 1:4.0 2:0.0 51:1.0 25:1.0 6173:1.0 115:1.0 
1.666666772630486 1:2.0 2:0.0 51:1.0 221:1.0 9782:1.0 4266:1.0 
0.1665480323582744 1:6.0 2:0.0 51:1.0 43:1.0 3415:1.0 115:1.0 
0.37154394510651023 1:3.0 2:0.0 51:1.0 43:1.0 18079:1.0 18025:1.0 
0.28103404597090736 1:4.0 2:3.0 76:1.0 25:1.0 86:1.0 410:1.0 
0.5838963955384088 1:3.0 2:0.0 51:1.0 52:1.0 2196:1.0 718:1.0 
0.32415912426907556 1:5.0 2:4.0 76:1.0 92:1.0 86:1.0 44:1.0 
0.7964691948220305 1:5.0 2:2.0 76:1.0 92:1.0 86:1.0 3711:1.0 
2.2486406881388166 1:4.0 2:0.0 51:1.0 43:1.0 18380:1.0 18381:1.0 
0.819670853485837 1:2.0 2:0.0 51:1.0 52:1.0 18611:1.0 4992:1.0 
0.02412102463480803 1:3.0 2:0.0 51:1.0 221:1.0 18745:1.0 18077:1.0 
0.3188275523371568 1:4.0 2:0.0 51:1.0 25:1.0 15163:1.0 3687:1.0 
0.7646566419468671 1:5.0 2:2.0 76:1.0 43:1.0 86:1.0 191:1.0 
1.2132353206981756 1:4.0 2:0.0 566:1.0 52:1.0 3501:1.0 18807:1.0 
1.624119482638786 1:3.0 2:0.0 51:1.0 109:1.0 18848:1.0 5215:1.0 
1.4954575289585728 1:2.0 2:0.0 51:1.0 52:1.0 14877:1.0 12326:1.0 
0.4170951681639006 1:3.0 2:0.0 51:1.0 221:1.0 19044:1.0 6170:1.0 
0.3793467066134393 1:2.0 2:0.0 51:1.0 52:1.0 15752:1.0 9588:1.0 
1.0523026382470644 1:5.0 2:0.0 51:1.0 181:1.0 4905:1.0 182:1.0 
0.4618212455726225 1:2.0 2:0.0 51:1.0 52:1.0 3342:1.0 9986:1.0 
1.911192765023162 1:2.0 2:0.0 51:1.0 221:1.0 10102:1.0 3272:1.0 
7.576375689376561 1:1.0 2:1.0 76:1.0 52:1.0 86:1.0 1159:1.0 
0.33201967352187306 1:4.0 2:0.0 51:1.0 25:1.0 6776:1.0 2233:1.0 
0.10854576571098813 1:5.0 2:0.0 51:1.0 221:1.0 19356:1.0 767:1.0 
0.2612341359145054 1:6.0 2:0.0 51:1.0 43:1.0 6839:1.0 767:1.0 
0.6692055827269663 1:1.0 2:0.0 51:1.0 52:1.0 3342:1.0 19455:1.0 
0.704118832013121 1:3.0 2:0.0 51:1.0 109:1.0 9035:1.0 2443:1.0 
5.765285996293277 1:2.0 2:0.0 51:1.0 43:1.0 17056:1.0 1139:1.0 
1.1974799843794381 1:2.0 2:0.0 51:1.0 52:1.0 2144:1.0 2207:1.0 
17.73623819806165 1:2.0 2:0.0 51:1.0 109:1.0 4905:1.0 1819:1.0 
0.8614822253310194 1:1.0 2:0.0 51:1.0 52:1.0 19813:1.0 2090:1.0 
3.0750645336549005 1:1.0 2:0.0 51:1.0 52:1.0 6173:1.0 1651:1.0 
0.3992474852059446 1:4.0 2:0.0 51:1.0 109:1.0 19899:1.0 8348:1.0 
0.5208333747254508 1:3.0 2:0.0 51:1.0 92:1.0 19973:1.0 5128:1.0 
0.06279844585252116 1:4.0 2:0.0 51:1.0 25:1.0 19899:1.0 4895:1.0 
0.5795437007646429 1:2.0 2:0.0 51:1.0 52:1.0 3342:1.0 5501:1.0 
5.1282730082604475 1:2.0 2:0.0 51:1.0 52:1.0 3501:1.0 1860:1.0 
0.18676645763621683 1:2.0 2:0.0 51:1.0 52:1.0 2839:1.0 6337:1.0 
0.24268015885557873 1:8.0 2:0.0 51:1.0 43:1.0 20244:1.0 3716:1.0 
0.64914829511433 1:3.0 2:0.0 51:1.0 221:1.0 20245:1.0 14941:1.0 
0.045889082556036846 1:5.0 2:0.0 51:1.0 43:1.0 15863:1.0 584:1.0 
0.4049602004797806 1:3.0 2:0.0 51:1.0 221:1.0 20250:1.0 2940:1.0 
0.6009154548291606 1:5.0 2:0.0 51:1.0 25:1.0 6173:1.0 1327:1.0 
0.6477553095114644 1:3.0 2:0.0 51:1.0 25:1.0 20356:1.0 2380:1.0 
1.061851450131695 1:2.0 2:2.0 51:1.0 52:1.0 2664:1.0 1016:1.0 
1.047851695525471 1:2.0 2:0.0 51:1.0 221:1.0 1339:1.0 20522:1.0 
0.7306163124397479 1:2.0 2:0.0 51:1.0 52:1.0 53:1.0 1752:1.0 
0.10332229888363094 1:5.0 2:0.0 51:1.0 43:1.0 20540:1.0 14723:1.0 
0.2165184305163839 1:2.0 2:0.0 51:1.0 52:1.0 4758:1.0 273:1.0 
2.0785145288840874 1:2.0 2:0.0 51:1.0 81:1.0 16526:1.0 83:1.0 
0.2753780575185828 1:7.0 2:0.0 51:1.0 43:1.0 11624:1.0 9335:1.0 
0.7562285763502092 1:3.0 2:0.0 51:1.0 52:1.0 9782:1.0 44:1.0 
0.6255235610502446 1:4.0 2:0.0 51:1.0 52:1.0 3955:1.0 758:1.0 
1.3760964595411214 1:2.0 2:0.0 51:1.0 52:1.0 20683:1.0 4230:1.0 
0.303421538120917 1:3.0 2:0.0 51:1.0 109:1.0 4894:1.0 9588:1.0 
0.42996816057394943 1:2.0 2:0.0 51:1.0 52:1.0 11765:1.0 1502:1.0 
1.2011025957160488 1:2.0 2:0.0 51:1.0 109:1.0 20750:1.0 3484:1.0 
1.518712119398728 1:2.0 2:0.0 51:1.0 109:1.0 2839:1.0 44:1.0 
0.7618187622376638 1:3.0 2:1.0 51:1.0 109:1.0 8457:1.0 2026:1.0 
1.018243393128012 1:2.0 2:0.0 51:1.0 221:1.0 16084:1.0 4095:1.0 
0.13251997931703474 1:2.0 2:0.0 51:1.0 52:1.0 9035:1.0 2968:1.0 
0.7325851331757907 1:4.0 2:0.0 51:1.0 25:1.0 4905:1.0 1651:1.0 
1.1366953700442872 1:5.0 2:0.0 51:1.0 92:1.0 3240:1.0 969:1.0 
0.5293673718794628 1:2.0 2:0.0 51:1.0 52:1.0 20907:1.0 12589:1.0 
1.208343545607204 1:3.0 2:0.0 307:1.0 52:1.0 2664:1.0 14520:1.0 
2.4188714258152215 1:1.0 2:0.0 51:1.0 52:1.0 488:1.0 170:1.0 
1.551231334549155 1:2.0 2:0.0 51:1.0 109:1.0 16822:1.0 577:1.0 
0.24488823457824774 1:2.0 2:0.0 51:1.0 52:1.0 17056:1.0 680:1.0 
1.1183129569870327 1:2.0 2:0.0 51:1.0 43:1.0 20980:1.0 557:1.0 
0.6174948224508892 1:3.0 2:0.0 51:1.0 52:1.0 20988:1.0 408:1.0 
0.39670001729773313 1:6.0 2:1.0 62:1.0 43:1.0 20475:1.0 471:1.0 
0.759784047180028 1:7.0 2:2.0 76:1.0 43:1.0 86:1.0 471:1.0 
0.8226387255030014 1:2.0 2:0.0 51:1.0 52:1.0 328:1.0 273:1.0 
0.21647099086008342 1:1.0 2:0.0 586:1.0 52:1.0 3004:1.0 6201:1.0 
0.022176186564308937 1:7.0 2:0.0 51:1.0 43:1.0 7838:1.0 224:1.0 
2.2415799057655277 1:1.0 2:0.0 51:1.0 52:1.0 7984:1.0 489:1.0 
0.767512409024634 1:3.0 2:0.0 51:1.0 221:1.0 3681:1.0 21235:1.0 
0.4559262568915222 1:3.0 2:0.0 51:1.0 52:1.0 7541:1.0 3083:1.0 
7.378431110612229 1:2.0 2:0.0 51:1.0 43:1.0 488:1.0 445:1.0 
0.9341127700881442 1:2.0 2:0.0 51:1.0 52:1.0 15673:1.0 7841:1.0 
4.084435971065936 1:5.0 2:0.0 51:1.0 109:1.0 16771:1.0 4839:1.0 
0.7645364134861946 1:2.0 2:0.0 51:1.0 52:1.0 6790:1.0 1730:1.0 
0.2385516971475714 1:8.0 2:0.0 51:1.0 43:1.0 6776:1.0 21602:1.0 
1.0342140757069236 1:2.0 2:0.0 51:1.0 52:1.0 21693:1.0 680:1.0 
0.5305156340767871 1:1.0 2:0.0 51:1.0 52:1.0 9035:1.0 3310:1.0 
0.5216889526348976 1:1.0 2:0.0 51:1.0 52:1.0 9035:1.0 3352:1.0 
1.5366905569282088 1:1.0 2:0.0 51:1.0 52:1.0 17785:1.0 3352:1.0 
1.2965291029384247 1:2.0 2:0.0 51:1.0 109:1.0 5212:1.0 4266:1.0 
1.4944374502425974 1:2.0 2:0.0 51:1.0 52:1.0 7447:1.0 4857:1.0 
1.6666667726304853 1:2.0 2:0.0 51:1.0 109:1.0 2839:1.0 767:1.0 
0.24966981231351623 1:5.0 2:0.0 51:1.0 43:1.0 15668:1.0 7388:1.0 
0.4233185166809253 1:4.0 2:0.0 51:1.0 52:1.0 7128:1.0 4108:1.0 
0.3638071343442577 1:5.0 2:0.0 51:1.0 92:1.0 145:1.0 22040:1.0 
0.3498689296625249 1:3.0 2:0.0 51:1.0 52:1.0 17902:1.0 3146:1.0 
3.2629570012138345 1:1.0 2:0.0 51:1.0 52:1.0 4136:1.0 3146:1.0 
1.510418431495982 1:2.0 2:0.0 51:1.0 52:1.0 5023:1.0 7137:1.0 
1.0947064139496407 1:2.0 2:0.0 51:1.0 109:1.0 1632:1.0 12589:1.0 
0.5562412927124128 1:4.0 2:0.0 51:1.0 109:1.0 2839:1.0 1730:1.0 
0.25942582105820444 1:5.0 2:2.0 76:1.0 25:1.0 86:1.0 22367:1.0 
0.587537759411709 1:5.0 2:7.0 76:1.0 25:1.0 86:1.0 8879:1.0 
0.8076180746911402 1:3.0 2:0.0 51:1.0 109:1.0 14833:1.0 8171:1.0 
0.7091858081090908 1:7.0 2:1.0 76:1.0 181:1.0 86:1.0 182:1.0 
0.4098902583622721 1:3.0 2:0.0 51:1.0 221:1.0 22444:1.0 1401:1.0 
0.45491199764268575 1:2.0 2:0.0 51:1.0 52:1.0 3342:1.0 391:1.0 
0.28076341094636725 1:6.0 2:0.0 51:1.0 92:1.0 22484:1.0 12752:1.0 
0.16544279960951228 1:2.0 2:0.0 51:1.0 52:1.0 17056:1.0 5554:1.0 
0.9820658829311233 1:2.0 2:0.0 51:1.0 25:1.0 22837:1.0 660:1.0 
0.23598429885696634 1:4.0 2:0.0 51:1.0 221:1.0 22852:1.0 11622:1.0 
0.9643205184110593 1:2.0 2:0.0 51:1.0 52:1.0 12517:1.0 7292:1.0 
0.04872366584961761 1:6.0 2:0.0 51:1.0 92:1.0 19899:1.0 7612:1.0 
0.6248181113906984 1:3.0 2:0.0 51:1.0 52:1.0 7573:1.0 1730:1.0 
0.6145426057427968 1:3.0 2:0.0 51:1.0 221:1.0 9605:1.0 23050:1.0 
0.7129970104922574 1:2.0 2:0.0 51:1.0 109:1.0 505:1.0 1079:1.0 
0.3353270459272285 1:7.0 2:0.0 51:1.0 92:1.0 7838:1.0 3496:1.0 
0.6840934465950245 1:9.0 2:0.0 51:1.0 43:1.0 488:1.0 4114:1.0 
0.5495714181094689 1:8.0 2:0.0 51:1.0 25:1.0 5894:1.0 8102:1.0 
1.3155415034072897 1:2.0 2:0.0 51:1.0 109:1.0 17056:1.0 510:1.0 
3.019315579051181 1:4.0 2:0.0 51:1.0 25:1.0 2839:1.0 758:1.0 
1.5455777752688766 1:1.0 2:0.0 51:1.0 52:1.0 7447:1.0 489:1.0 
7.04787100062294 1:2.0 2:0.0 51:1.0 221:1.0 5697:1.0 12326:1.0 
0.8687102342974439 1:2.0 2:0.0 51:1.0 52:1.0 1870:1.0 1016:1.0 
1.1129854288611745 1:3.0 2:0.0 51:1.0 221:1.0 9148:1.0 4889:1.0 
1.9914458783975841 1:2.0 2:0.0 51:1.0 109:1.0 23550:1.0 461:1.0 
0.9470545256737216 1:2.0 2:0.0 51:1.0 109:1.0 19899:1.0 4857:1.0 
2.089264020197459 1:2.0 2:0.0 51:1.0 52:1.0 17105:1.0 3154:1.0 
0.8770312645472056 1:5.0 2:0.0 51:1.0 25:1.0 12582:1.0 27:1.0 
2.112753476674162 1:7.0 2:7.0 76:1.0 43:1.0 701:1.0 4622:1.0 
14.926972242684686 1:5.0 2:4.0 76:1.0 43:1.0 701:1.0 44:1.0 
3.4918894446156923 1:2.0 2:0.0 51:1.0 109:1.0 2256:1.0 2918:1.0 
0.4145923165435924 1:3.0 2:0.0 51:1.0 43:1.0 23712:1.0 436:1.0 
11.22983429809418 1:2.0 2:0.0 51:1.0 109:1.0 4343:1.0 1819:1.0 
1.1287286342917486 1:3.0 2:0.0 51:1.0 92:1.0 5697:1.0 3496:1.0 
2.3242781329871476 1:6.0 2:10.0 76:1.0 92:1.0 86:1.0 200:1.0 
0.14287746033835882 1:5.0 2:0.0 51:1.0 92:1.0 22444:1.0 1606:1.0 
0.4647448386295385 1:2.0 2:0.0 51:1.0 52:1.0 17056:1.0 9811:1.0 
0.7636939691345435 1:2.0 2:0.0 51:1.0 52:1.0 3342:1.0 5797:1.0 
0.5887346365891646 1:3.0 2:0.0 51:1.0 52:1.0 24000:1.0 7565:1.0 
1.0729531116000148 1:2.0 2:0.0 51:1.0 52:1.0 2347:1.0 2090:1.0 
1.3261551693195492 1:2.0 2:0.0 51:1.0 221:1.0 24167:1.0 8668:1.0 
0.36546071941771124 1:5.0 2:0.0 51:1.0 52:1.0 4758:1.0 2350:1.0 
0.177206281828137 1:6.0 2:0.0 51:1.0 92:1.0 7691:1.0 1606:1.0 
0.48844737390247867 1:3.0 2:0.0 51:1.0 43:1.0 20683:1.0 391:1.0 
0.9300661272302189 1:2.0 2:0.0 51:1.0 109:1.0 24360:1.0 16297:1.0 
1.9902054260168796 1:2.0 2:4.0 76:1.0 92:1.0 701:1.0 44:1.0 
0.30323886475670125 1:5.0 2:2.0 76:1.0 92:1.0 1109:1.0 191:1.0 
0.18937775265683032 1:1.0 2:0.0 586:1.0 109:1.0 3004:1.0 10931:1.0 
0.4159884369188796 1:11.0 2:0.0 51:1.0 43:1.0 17991:1.0 170:1.0 
1.2634539487024155 1:2.0 2:0.0 51:1.0 109:1.0 24660:1.0 273:1.0 
1.7102334048326147 1:2.0 2:0.0 51:1.0 221:1.0 13023:1.0 6777:1.0 
5.140037764922697 1:2.0 2:0.0 51:1.0 109:1.0 3240:1.0 13516:1.0 
0.9596516268094011 1:3.0 2:0.0 51:1.0 52:1.0 24692:1.0 4111:1.0 
0.4253085030393434 1:3.0 2:0.0 586:1.0 92:1.0 21187:1.0 241:1.0 
4.206765247294796 1:3.0 2:0.0 51:1.0 92:1.0 10102:1.0 577:1.0 
0.9796260852389204 1:2.0 2:0.0 51:1.0 109:1.0 18745:1.0 9630:1.0 
1.5120596418460985 1:2.0 2:0.0 51:1.0 52:1.0 319:1.0 6697:1.0 
1.344559089133937 1:2.0 2:0.0 51:1.0 52:1.0 4316:1.0 15733:1.0 
1.1778889449227876 1:2.0 2:0.0 51:1.0 109:1.0 11765:1.0 14982:1.0 
3.980179877140407 1:4.0 2:0.0 51:1.0 43:1.0 4343:1.0 8348:1.0 
0.8546832352330191 1:4.0 2:0.0 59:1.0 43:1.0 21693:1.0 9745:1.0 
0.6191370507994646 1:4.0 2:0.0 51:1.0 109:1.0 11765:1.0 1606:1.0 
0.5536168105066019 1:5.0 2:4.0 76:1.0 92:1.0 1109:1.0 191:1.0 
0.1138448914123202 1:6.0 2:0.0 51:1.0 43:1.0 25345:1.0 3484:1.0 
0.20693159555694446 1:7.0 2:0.0 51:1.0 92:1.0 18745:1.0 8487:1.0 
0.6657357004810706 1:3.0 2:0.0 51:1.0 221:1.0 3443:1.0 1313:1.0 
5.734195303619109 1:3.0 2:1.0 76:1.0 43:1.0 701:1.0 2519:1.0 
3.220071104620011 1:1.0 2:0.0 51:1.0 109:1.0 3240:1.0 1482:1.0 
0.2764632874704358 1:3.0 2:0.0 51:1.0 43:1.0 15163:1.0 1860:1.0 
2.5031082842715566 1:1.0 2:0.0 51:1.0 52:1.0 8344:1.0 1464:1.0 
0.5733439661926104 1:4.0 2:0.0 51:1.0 52:1.0 26147:1.0 1637:1.0 
0.40855138536806895 1:4.0 2:0.0 51:1.0 25:1.0 26205:1.0 4661:1.0 
0.0401869263460172 1:3.0 2:1.0 51:1.0 109:1.0 319:1.0 2201:1.0 
0.779214573385235 1:7.0 2:0.0 51:1.0 109:1.0 2398:1.0 484:1.0 
0.39405452185929973 1:4.0 2:0.0 51:1.0 92:1.0 6790:1.0 3028:1.0 
1.3339533728674517 1:2.0 2:0.0 51:1.0 221:1.0 16526:1.0 3484:1.0 
0.19871016830419738 1:4.0 2:0.0 51:1.0 43:1.0 26387:1.0 7429:1.0 
1.808010126238715 1:1.0 2:0.0 51:1.0 52:1.0 11624:1.0 9335:1.0 
1.3503254053015696 1:2.0 2:0.0 51:1.0 109:1.0 14833:1.0 6212:1.0 
0.2902197653157355 1:4.0 2:0.0 51:1.0 221:1.0 18061:1.0 2496:1.0 
0.564140068709796 1:2.0 2:0.0 51:1.0 109:1.0 1198:1.0 4525:1.0 
1.7140482859539488 1:5.0 2:4.0 76:1.0 181:1.0 701:1.0 1382:1.0 
0.4903012638214581 1:5.0 2:0.0 51:1.0 25:1.0 12707:1.0 4703:1.0 
0.7464184653222317 1:10.0 2:0.0 51:1.0 92:1.0 12608:1.0 3890:1.0 
0.10642511869916635 1:5.0 2:0.0 51:1.0 43:1.0 26664:1.0 11561:1.0 
0.6305798054632572 1:4.0 2:5.0 76:1.0 25:1.0 1109:1.0 44:1.0 
0.2496438822921521 1:8.0 2:0.0 586:1.0 43:1.0 3004:1.0 767:1.0 
0.5208333747254507 1:3.0 2:0.0 51:1.0 221:1.0 8681:1.0 948:1.0 
0.7179947136374702 1:5.0 2:5.0 76:1.0 92:1.0 923:1.0 742:1.0 
1.3202414486735004 1:3.0 2:1.0 51:1.0 92:1.0 12997:1.0 3680:1.0 
1.0658192795874504 1:2.0 2:0.0 51:1.0 52:1.0 8100:1.0 243:1.0 
5.49542360095447 1:1.0 2:0.0 51:1.0 221:1.0 3510:1.0 16062:1.0 
0.10376444384335917 1:4.0 2:0.0 4:1.0 25:1.0 278:1.0 445:1.0 
0.11501893665841709 1:5.0 2:0.0 51:1.0 43:1.0 27453:1.0 3687:1.0 
1.354168663008644 1:1.0 2:0.0 51:1.0 52:1.0 27342:1.0 1663:1.0 
0.25325165151246476 1:6.0 2:4.0 76:1.0 92:1.0 86:1.0 1381:1.0 
0.5556130434161333 1:6.0 2:0.0 51:1.0 92:1.0 9148:1.0 4034:1.0 
3.7300121833729323 1:3.0 2:1.0 76:1.0 109:1.0 701:1.0 8763:1.0 
0.8798003379300608 1:2.0 2:0.0 51:1.0 52:1.0 15673:1.0 3509:1.0 
1.6823810086085615 1:2.0 2:0.0 51:1.0 43:1.0 15507:1.0 222:1.0 
0.8690460231602287 1:3.0 2:0.0 51:1.0 52:1.0 27919:1.0 305:1.0 
0.13000841528047907 1:5.0 2:0.0 51:1.0 43:1.0 13514:1.0 598:1.0 
0.3849276149739547 1:4.0 2:0.0 51:1.0 25:1.0 15799:1.0 4839:1.0 
0.3858936401196305 1:7.0 2:3.0 76:1.0 43:1.0 86:1.0 170:1.0 
0.45907731548956726 1:5.0 2:2.0 76:1.0 181:1.0 84:1.0 1631:1.0 
0.21645208620782977 1:7.0 2:4.0 76:1.0 43:1.0 86:1.0 680:1.0 
0.24578963037852972 1:7.0 2:0.0 51:1.0 43:1.0 9875:1.0 3396:1.0 
4.990523852305083 1:6.0 2:4.0 76:1.0 43:1.0 86:1.0 6969:1.0 
1.0929720526514877 1:2.0 2:0.0 51:1.0 221:1.0 6776:1.0 1456:1.0 
0.522885836823823 1:3.0 2:0.0 51:1.0 92:1.0 28751:1.0 4992:1.0 
0.23237099787987336 1:5.0 2:0.0 51:1.0 92:1.0 16526:1.0 5844:1.0 
0.25778816338471783 1:5.0 2:0.0 51:1.0 43:1.0 9653:1.0 800:1.0 
1.3640470127885376 1:3.0 2:0.0 51:1.0 43:1.0 4905:1.0 11689:1.0 
0.08469165340044453 1:6.0 2:2.0 76:1.0 181:1.0 86:1.0 251:1.0 
2.1750763844027095 1:3.0 2:1.0 76:1.0 92:1.0 267:1.0 1141:1.0 
0.3126690312507078 1:9.0 2:0.0 51:1.0 43:1.0 10412:1.0 2056:1.0 
0.42479491052616425 1:4.0 2:0.0 51:1.0 25:1.0 29110:1.0 7011:1.0 
0.31433854139791834 1:9.0 2:0.0 51:1.0 43:1.0 29113:1.0 2858:1.0 
0.2979189200176234 1:6.0 2:0.0 51:1.0 43:1.0 9653:1.0 2694:1.0 
1.5407934584335232 1:2.0 2:0.0 51:1.0 52:1.0 4365:1.0 4104:1.0 
0.1811632441574312 1:7.0 2:0.0 51:1.0 43:1.0 29479:1.0 1994:1.0 
0.1321877027290332 1:6.0 2:0.0 51:1.0 43:1.0 29486:1.0 8729:1.0 
0.4127454011264912 1:7.0 2:0.0 51:1.0 43:1.0 29583:1.0 15273:1.0 
0.34308478659781744 1:8.0 2:0.0 51:1.0 43:1.0 12517:1.0 4768:1.0 
0.19840514943466755 1:7.0 2:0.0 51:1.0 43:1.0 6790:1.0 15390:1.0 
0.28785054174690117 1:3.0 2:0.0 51:1.0 43:1.0 12608:1.0 3916:1.0 
1.5072497417919675 1:3.0 2:0.0 307:1.0 109:1.0 2664:1.0 3075:1.0 
0.23669447583615738 1:3.0 2:0.0 51:1.0 221:1.0 8095:1.0 16848:1.0 
12.997184104520198 1:6.0 2:2.0 76:1.0 92:1.0 84:1.0 44:1.0 
0.9868698800277729 1:3.0 2:0.0 51:1.0 109:1.0 7447:1.0 3966:1.0 
5.759156655112297 1:1.0 2:0.0 51:1.0 43:1.0 1084:1.0 9537:1.0 
0.4304690974830065 1:3.0 2:0.0 51:1.0 52:1.0 20907:1.0 29894:1.0 
1.4660187043530455 1:2.0 2:0.0 51:1.0 109:1.0 4905:1.0 6475:1.0 
2.4757258713734833 1:2.0 2:1.0 51:1.0 109:1.0 759:1.0 3945:1.0 
2.151061286702926 1:2.0 2:0.0 51:1.0 109:1.0 505:1.0 16221:1.0 
0.4506183760579438 1:3.0 2:0.0 51:1.0 109:1.0 24360:1.0 800:1.0 
0.2430237387146803 1:5.0 2:0.0 51:1.0 92:1.0 30226:1.0 800:1.0 
0.6451510529712624 1:3.0 2:0.0 51:1.0 52:1.0 7691:1.0 5689:1.0 
0.47165663896114907 1:3.0 2:0.0 51:1.0 92:1.0 26240:1.0 30269:1.0 
0.7532046978990825 1:4.0 2:0.0 51:1.0 92:1.0 2895:1.0 1329:1.0 
1.543476195819906 1:2.0 2:0.0 59:1.0 52:1.0 30327:1.0 780:1.0 
1.2158264729509698 1:2.0 2:0.0 51:1.0 109:1.0 9035:1.0 2240:1.0 
4.261336758759619 1:1.0 2:0.0 508:1.0 52:1.0 862:1.0 2619:1.0 
1.682133340619636 1:2.0 2:0.0 51:1.0 52:1.0 1923:1.0 30435:1.0 
2.5689712774912747 1:2.0 2:0.0 51:1.0 109:1.0 3510:1.0 20902:1.0 
0.09403841640494973 1:5.0 2:0.0 51:1.0 43:1.0 26387:1.0 2441:1.0 
0.534039377872668 1:1.0 2:0.0 51:1.0 52:1.0 9035:1.0 6168:1.0 
0.4509543647134757 1:4.0 2:0.0 51:1.0 52:1.0 7128:1.0 1742:1.0 
0.33980610830778574 1:4.0 2:0.0 51:1.0 25:1.0 11765:1.0 3687:1.0 
8.772018290757831 1:6.0 2:0.0 51:1.0 43:1.0 319:1.0 388:1.0 
1.80626898542485 1:2.0 2:0.0 51:1.0 52:1.0 4905:1.0 461:1.0 
1.2532309338437224 1:3.0 2:0.0 51:1.0 52:1.0 4445:1.0 2858:1.0 
1.2136776822181277 1:2.0 2:0.0 51:1.0 52:1.0 25493:1.0 30721:1.0 
0.7280175669590893 1:3.0 2:0.0 51:1.0 109:1.0 30743:1.0 23329:1.0 
0.8868124845760391 1:2.0 2:0.0 51:1.0 52:1.0 14108:1.0 18870:1.0 
1.4899316940780736 1:2.0 2:0.0 51:1.0 52:1.0 18848:1.0 1219:1.0 
0.8928571884729437 1:2.0 2:0.0 51:1.0 52:1.0 30852:1.0 18029:1.0 
1.6257769561419342 1:2.0 2:0.0 51:1.0 221:1.0 15668:1.0 3580:1.0 
0.6037706951760823 1:4.0 2:2.0 51:1.0 25:1.0 9148:1.0 800:1.0 
5.933382173328679 1:5.0 2:9.0 76:1.0 43:1.0 86:1.0 44:1.0 
2.61961925571115 1:1.0 2:0.0 51:1.0 221:1.0 31141:1.0 1036:1.0 
0.31505260627044873 1:5.0 2:0.0 51:1.0 92:1.0 3443:1.0 7265:1.0 
0.24966074330502958 1:6.0 2:0.0 51:1.0 92:1.0 6776:1.0 1829:1.0 
1.7305336875352424 1:2.0 2:0.0 51:1.0 92:1.0 8334:1.0 224:1.0 
36.73826090906704 1:3.0 2:0.0 51:1.0 221:1.0 5697:1.0 1730:1.0 
0.303367006453349 1:3.0 2:0.0 51:1.0 43:1.0 16822:1.0 19550:1.0 
0.5187808410977199 1:1.0 2:0.0 51:1.0 52:1.0 17056:1.0 12674:1.0 
0.20296569729777594 1:4.0 2:0.0 51:1.0 25:1.0 2839:1.0 5648:1.0 
0.15355934003721264 1:6.0 2:0.0 51:1.0 43:1.0 1837:1.0 5897:1.0 
0.11076111374490838 1:5.0 2:0.0 51:1.0 43:1.0 31429:1.0 5425:1.0 
2.9661420767563365 1:2.0 2:1.0 51:1.0 52:1.0 903:1.0 4895:1.0 
6.308961834174014 1:2.0 2:0.0 51:1.0 52:1.0 505:1.0 1651:1.0 
5.220694918016283 1:4.0 2:0.0 51:1.0 52:1.0 3510:1.0 12237:1.0 
1.0752052369006495 1:2.0 2:0.0 51:1.0 221:1.0 7691:1.0 391:1.0 
0.7501771411852458 1:3.0 2:0.0 51:1.0 221:1.0 15668:1.0 2834:1.0 
0.8928571884729437 1:2.0 2:0.0 51:1.0 52:1.0 31657:1.0 9537:1.0 
0.645027610081063 1:5.0 2:0.0 51:1.0 92:1.0 3415:1.0 6475:1.0 
10.776444129573244 1:2.0 2:0.0 51:1.0 109:1.0 488:1.0 4857:1.0 
1.711539652270972 1:10.0 2:2.0 76:1.0 43:1.0 701:1.0 27:1.0 
3.31542712950919 1:8.0 2:2.0 76:1.0 43:1.0 701:1.0 2201:1.0 
0.955677478612946 1:2.0 2:0.0 51:1.0 109:1.0 4758:1.0 363:1.0 
0.404946003168265 1:3.0 2:0.0 51:1.0 221:1.0 12517:1.0 26150:1.0 
0.2598632379459957 1:7.0 2:0.0 51:1.0 43:1.0 3415:1.0 797:1.0 
1.2679698437414575 1:2.0 2:0.0 51:1.0 221:1.0 6776:1.0 12398:1.0 
0.8928571884729437 1:2.0 2:0.0 51:1.0 52:1.0 32000:1.0 4180:1.0 
4.335420646773574 1:3.0 2:0.0 51:1.0 43:1.0 3415:1.0 302:1.0 
24.844325701134075 1:1.0 2:0.0 51:1.0 52:1.0 862:1.0 2619:1.0 
0.6442709549200125 1:4.0 2:0.0 51:1.0 109:1.0 11765:1.0 3761:1.0 
0.4725041351704609 1:4.0 2:0.0 51:1.0 25:1.0 2347:1.0 2056:1.0 
2.612400900471394 1:9.0 2:3.0 76:1.0 43:1.0 1109:1.0 131:1.0 
1.1112641973990556 1:1.0 2:0.0 51:1.0 52:1.0 1975:1.0 1819:1.0 
1.8139531462183331 1:2.0 2:0.0 51:1.0 52:1.0 3240:1.0 1999:1.0 
5.3201788928330265 1:3.0 2:1.0 76:1.0 92:1.0 84:1.0 742:1.0 
1.2867330491208109 1:1.0 2:0.0 51:1.0 52:1.0 7541:1.0 14942:1.0 
0.012388233731853509 1:1.0 2:0.0 586:1.0 52:1.0 3004:1.0 4505:1.0 
1.3106534030102859 1:2.0 2:2.0 51:1.0 221:1.0 12517:1.0 18707:1.0 
0.4691778707842415 1:5.0 2:4.0 76:1.0 43:1.0 86:1.0 1508:1.0 
0.397724272075461 1:3.0 2:0.0 586:1.0 25:1.0 3004:1.0 4331:1.0 
2.4546884848108923 1:3.0 2:0.0 51:1.0 109:1.0 5697:1.0 224:1.0 
0.8928571884729437 1:2.0 2:0.0 51:1.0 52:1.0 32841:1.0 7426:1.0 
2.200073979603396 1:4.0 2:1.0 76:1.0 43:1.0 1109:1.0 6416:1.0 
0.3472568446767041 1:4.0 2:1.0 51:1.0 43:1.0 319:1.0 32860:1.0 
0.08326945514284331 1:6.0 2:0.0 51:1.0 43:1.0 8311:1.0 1439:1.0 
0.34596289830577764 1:5.0 2:0.0 51:1.0 221:1.0 8311:1.0 224:1.0 
3.2924125305293614 1:2.0 2:1.0 76:1.0 43:1.0 701:1.0 2386:1.0 
0.37133636072374465 1:7.0 2:10.0 76:1.0 43:1.0 267:1.0 6417:1.0 
0.5438419182751735 1:3.0 2:0.0 51:1.0 25:1.0 32984:1.0 2201:1.0 
0.18456245875184007 1:7.0 2:0.0 51:1.0 43:1.0 32997:1.0 7900:1.0 
0.2123214954875551 1:2.0 2:0.0 51:1.0 52:1.0 9035:1.0 7115:1.0 
2.8773706515975483 1:2.0 2:0.0 51:1.0 221:1.0 9035:1.0 10444:1.0 
1.3454870589758916 1:2.0 2:0.0 51:1.0 109:1.0 9035:1.0 7378:1.0 
1.1932104991049644 1:5.0 2:2.0 76:1.0 43:1.0 267:1.0 44:1.0 
1.3242528698345355 1:2.0 2:0.0 51:1.0 221:1.0 6900:1.0 33069:1.0 
1.296474969870211 1:2.0 2:0.0 51:1.0 109:1.0 33119:1.0 20784:1.0 
0.8509416998368678 1:3.0 2:0.0 51:1.0 109:1.0 21693:1.0 16300:1.0 
0.4919672069379189 1:2.0 2:0.0 51:1.0 43:1.0 17056:1.0 290:1.0 
0.8928571884729437 1:2.0 2:0.0 51:1.0 52:1.0 33215:1.0 17976:1.0 
1.7800536662971544 1:2.0 2:0.0 51:1.0 52:1.0 4905:1.0 969:1.0 
0.38185875462358043 1:1.0 2:0.0 586:1.0 81:1.0 3004:1.0 83:1.0 
1.1906260628708571 1:5.0 2:0.0 51:1.0 109:1.0 319:1.0 11618:1.0 
1.3679446031028086 1:1.0 2:0.0 51:1.0 52:1.0 10809:1.0 7378:1.0 
1.1218375482634513 1:2.0 2:0.0 51:1.0 109:1.0 4905:1.0 10932:1.0 
0.5085418085903035 1:4.0 2:0.0 51:1.0 25:1.0 7447:1.0 15743:1.0 
0.04921731538347361 1:6.0 2:0.0 51:1.0 25:1.0 17991:1.0 11426:1.0 
1.3770074271506656 1:2.0 2:0.0 51:1.0 109:1.0 2256:1.0 1606:1.0 
0.2680655368085256 1:4.0 2:0.0 51:1.0 92:1.0 3955:1.0 12207:1.0 
2.921933779518014 1:2.0 2:1.0 76:1.0 43:1.0 84:1.0 866:1.0 
0.08857941979343725 1:5.0 2:0.0 51:1.0 43:1.0 15863:1.0 1742:1.0 
0.12057149387364938 1:6.0 2:0.0 51:1.0 43:1.0 33706:1.0 31762:1.0 
1.372058363193624 1:3.0 2:0.0 51:1.0 43:1.0 8344:1.0 2090:1.0 
0.23410924789259643 1:4.0 2:0.0 51:1.0 52:1.0 7128:1.0 803:1.0 
0.42808009369941147 1:3.0 2:0.0 51:1.0 43:1.0 33773:1.0 6697:1.0 
1.4289172253424953 1:2.0 2:0.0 51:1.0 52:1.0 3906:1.0 3442:1.0 
0.4637454203230146 1:8.0 2:0.0 51:1.0 43:1.0 29093:1.0 3553:1.0 
0.2844900060945871 1:7.0 2:0.0 51:1.0 43:1.0 29480:1.0 4525:1.0 
0.415764466798986 1:7.0 2:0.0 51:1.0 92:1.0 24167:1.0 7009:1.0 
0.7402591991643815 1:6.0 2:0.0 51:1.0 92:1.0 3510:1.0 10741:1.0 
0.7205753246850196 1:2.0 2:0.0 51:1.0 46:1.0 3955:1.0 257:1.0 
1.176442905590058 1:3.0 2:2.0 51:1.0 43:1.0 8095:1.0 14504:1.0 
0.16715667167203166 1:2.0 2:0.0 51:1.0 52:1.0 3240:1.0 2081:1.0 
11.660718075328166 1:2.0 2:0.0 51:1.0 221:1.0 5697:1.0 170:1.0 
0.23632557579112545 1:7.0 2:4.0 76:1.0 43:1.0 86:1.0 2295:1.0 
0.12292806579987992 1:5.0 2:0.0 51:1.0 43:1.0 9875:1.0 477:1.0 
0.6028752854189391 1:3.0 2:0.0 51:1.0 43:1.0 5023:1.0 34471:1.0 
369.0196773559488 1:6.0 2:2.0 76:1.0 92:1.0 701:1.0 115:1.0 
0.7881750586989067 1:3.0 2:0.0 51:1.0 221:1.0 4905:1.0 1159:1.0 
0.08769932717739054 1:5.0 2:0.0 51:1.0 221:1.0 3955:1.0 11257:1.0 
1.1998165405315504 1:2.0 2:0.0 51:1.0 52:1.0 10102:1.0 4775:1.0 
0.16332545996816672 1:5.0 2:0.0 51:1.0 92:1.0 14833:1.0 35405:1.0 
2.9684913135298197 1:4.0 2:0.0 51:1.0 52:1.0 6137:1.0 8348:1.0 
0.8708820514067288 1:9.0 2:2.0 76:1.0 43:1.0 701:1.0 471:1.0 
1.389895238608534 1:2.0 2:0.0 51:1.0 43:1.0 3510:1.0 2030:1.0 
0.8891225816977464 1:2.0 2:0.0 51:1.0 221:1.0 8095:1.0 2115:1.0 
1.227141341832093 1:3.0 2:1.0 51:1.0 52:1.0 903:1.0 774:1.0 
1.3815567230574697 1:5.0 2:0.0 51:1.0 43:1.0 4365:1.0 115:1.0 
0.3454822320512028 1:7.0 2:0.0 51:1.0 43:1.0 15668:1.0 697:1.0 
4.667608574438185 1:2.0 2:1.0 51:1.0 221:1.0 453:1.0 2826:1.0 
0.12109629112851866 1:6.0 2:0.0 51:1.0 43:1.0 35709:1.0 18077:1.0 
2.1811438644071304 1:7.0 2:0.0 51:1.0 43:1.0 3510:1.0 539:1.0 
0.10797033895314992 1:1.0 2:1.0 586:1.0 221:1.0 3004:1.0 6568:1.0 
0.6261299046929433 1:3.0 2:0.0 51:1.0 43:1.0 4866:1.0 3676:1.0 
0.587112754831878 1:2.0 2:0.0 51:1.0 52:1.0 11765:1.0 7565:1.0 
0.2682379458918948 1:4.0 2:0.0 51:1.0 221:1.0 35963:1.0 2356:1.0 
0.1757006079037685 1:7.0 2:0.0 51:1.0 43:1.0 36009:1.0 680:1.0 
0.4761229833735458 1:7.0 2:0.0 51:1.0 43:1.0 6790:1.0 774:1.0 
0.9082772476395545 1:8.0 2:0.0 51:1.0 25:1.0 5697:1.0 7565:1.0 
0.5462548435400449 1:2.0 2:0.0 51:1.0 52:1.0 6900:1.0 818:1.0 
0.4650057066376561 1:10.0 2:0.0 51:1.0 92:1.0 36085:1.0 395:1.0 
0.30201091571964445 1:3.0 2:0.0 51:1.0 46:1.0 36102:1.0 61:1.0 
0.4274493013105969 1:7.0 2:0.0 51:1.0 43:1.0 22055:1.0 6217:1.0 
0.6872390895928213 1:1.0 2:0.0 51:1.0 52:1.0 3342:1.0 241:1.0 
0.7248935075195272 1:2.0 2:0.0 51:1.0 92:1.0 11765:1.0 11881:1.0 
0.38998594770737394 1:2.0 2:0.0 51:1.0 43:1.0 36085:1.0 7734:1.0 
0.9251850602499513 1:1.0 2:0.0 586:1.0 109:1.0 3004:1.0 6086:1.0 
500.0 1:2.0 2:0.0 51:1.0 52:1.0 8344:1.0 655:1.0 
0.5317059858297467 1:9.0 2:0.0 51:1.0 92:1.0 8864:1.0 2056:1.0 
1.117424462479752 1:2.0 2:0.0 51:1.0 221:1.0 19356:1.0 2163:1.0 
0.716696337889665 1:3.0 2:0.0 51:1.0 52:1.0 2347:1.0 7316:1.0 
0.45677362366530605 1:4.0 2:0.0 51:1.0 43:1.0 22044:1.0 4655:1.0 
1.2532366025121433 1:2.0 2:0.0 51:1.0 109:1.0 1543:1.0 1314:1.0 
2.2482728673538617 1:1.0 2:7.0 51:1.0 52:1.0 319:1.0 1456:1.0 
0.9307869855005675 1:2.0 2:0.0 51:1.0 221:1.0 29291:1.0 697:1.0 
1.9145941868781355 1:2.0 2:0.0 51:1.0 52:1.0 27840:1.0 834:1.0 
1.054656924053779 1:8.0 2:0.0 51:1.0 92:1.0 2256:1.0 3995:1.0 
0.2901336468286782 1:7.0 2:0.0 51:1.0 43:1.0 26374:1.0 32137:1.0 
0.20448670305748046 1:4.0 2:0.0 51:1.0 221:1.0 13023:1.0 1606:1.0 
2.1320523980245096 1:2.0 2:0.0 51:1.0 221:1.0 3240:1.0 2081:1.0 
0.1992372869453919 1:7.0 2:0.0 51:1.0 43:1.0 6790:1.0 436:1.0 
1.0150231792656703 1:3.0 2:0.0 51:1.0 43:1.0 8006:1.0 11255:1.0 
1.2493679875164792 1:9.0 2:0.0 51:1.0 52:1.0 13023:1.0 7265:1.0 
1.518075365066359 1:1.0 2:0.0 51:1.0 52:1.0 8910:1.0 12243:1.0 
498.7700769743831 1:2.0 2:0.0 51:1.0 52:1.0 6790:1.0 241:1.0 
0.8439969267058147 1:2.0 2:1.0 51:1.0 52:1.0 319:1.0 3202:1.0 
2.6793250262136623 1:2.0 2:1.0 51:1.0 52:1.0 1260:1.0 1860:1.0 
3.392689794463536 1:5.0 2:0.0 51:1.0 52:1.0 505:1.0 11385:1.0 
2.0681913000842522 1:2.0 2:0.0 51:1.0 52:1.0 9148:1.0 12358:1.0 
1.2234345393894919 1:2.0 2:0.0 51:1.0 109:1.0 36177:1.0 4225:1.0 
0.5904835772010815 1:2.0 2:0.0 51:1.0 221:1.0 488:1.0 170:1.0 
1.0035350973428157 1:1.0 2:0.0 51:1.0 52:1.0 2398:1.0 2201:1.0 
0.6287831935219205 1:2.0 2:0.0 51:1.0 52:1.0 7128:1.0 6384:1.0 
1.1596373028740867 1:2.0 2:0.0 51:1.0 109:1.0 36596:1.0 3966:1.0 
0.19551697426330666 1:5.0 2:0.0 51:1.0 43:1.0 6512:1.0 1187:1.0 
1.654149974139199 1:1.0 2:0.0 51:1.0 52:1.0 2144:1.0 12420:1.0 
1.6847486707842563 1:1.0 2:0.0 51:1.0 52:1.0 2839:1.0 31785:1.0 
0.6326854758977773 1:4.0 2:0.0 51:1.0 92:1.0 25117:1.0 115:1.0 
1.8962393035249132 1:2.0 2:1.0 76:1.0 92:1.0 77:1.0 17067:1.0 
0.43944834005177436 1:3.0 2:2.0 76:1.0 181:1.0 86:1.0 1070:1.0 
3.0887417799849417 1:1.0 2:1.0 51:1.0 221:1.0 3549:1.0 5844:1.0 
0.09742016482127885 1:5.0 2:0.0 51:1.0 43:1.0 9782:1.0 10947:1.0 
0.5022775279562949 1:2.0 2:0.0 51:1.0 52:1.0 16802:1.0 5578:1.0 
0.28525671104649925 1:5.0 2:1.0 59:1.0 181:1.0 1181:1.0 182:1.0 
0.4348507948219246 1:2.0 2:0.0 51:1.0 52:1.0 1632:1.0 3310:1.0 
0.10960458096201492 1:6.0 2:0.0 51:1.0 43:1.0 35839:1.0 3981:1.0 
0.6644862930323275 1:4.0 2:0.0 51:1.0 25:1.0 38250:1.0 3054:1.0 
0.20766627699926393 1:2.0 2:0.0 51:1.0 52:1.0 9035:1.0 38268:1.0 
1.5625000349245974 1:1.0 2:0.0 51:1.0 52:1.0 8311:1.0 5051:1.0 
0.7899540282097622 1:5.0 2:1.0 51:1.0 52:1.0 7449:1.0 17954:1.0 
2.3647518886829437 1:2.0 2:0.0 508:1.0 52:1.0 509:1.0 3966:1.0 
0.821897369987619 1:2.0 2:0.0 51:1.0 221:1.0 16802:1.0 2834:1.0 
0.4225451673726715 1:3.0 2:0.0 51:1.0 109:1.0 19899:1.0 2222:1.0 
1.7610142519775547 1:2.0 2:0.0 51:1.0 221:1.0 13023:1.0 155:1.0 
1.8329270929462975 1:2.0 2:0.0 51:1.0 52:1.0 1777:1.0 2831:1.0 
0.6845413997251183 1:5.0 2:7.0 76:1.0 92:1.0 86:1.0 115:1.0 
0.5653915982022683 1:2.0 2:0.0 51:1.0 221:1.0 11765:1.0 11881:1.0 
2.222010916087756 1:2.0 2:0.0 51:1.0 221:1.0 8006:1.0 1401:1.0 
2.949908384959156 1:1.0 2:0.0 51:1.0 52:1.0 6790:1.0 241:1.0 
1.3694263835925666 1:1.0 2:0.0 51:1.0 52:1.0 15277:1.0 2994:1.0 
2.0872054085109037 1:2.0 2:1.0 51:1.0 221:1.0 10102:1.0 4030:1.0 
0.26677585997051323 1:4.0 2:0.0 51:1.0 43:1.0 10758:1.0 4266:1.0 
5.254384431158114 1:1.0 2:0.0 51:1.0 43:1.0 505:1.0 4622:1.0 
0.5536706875946343 1:7.0 2:0.0 51:1.0 43:1.0 4343:1.0 4034:1.0 
0.4098804858201294 1:7.0 2:0.0 51:1.0 92:1.0 3955:1.0 6777:1.0 
1.488235873029806 1:2.0 2:0.0 51:1.0 221:1.0 20167:1.0 27737:1.0 
0.24389364277927425 1:8.0 2:0.0 51:1.0 43:1.0 26088:1.0 16509:1.0 
0.18229909254360996 1:4.0 2:0.0 51:1.0 43:1.0 38977:1.0 14721:1.0 
0.3982603409320816 1:3.0 2:0.0 51:1.0 43:1.0 14833:1.0 1659:1.0 
0.5028516564247114 1:9.0 2:0.0 51:1.0 43:1.0 6790:1.0 3762:1.0 
1.521993276404359 1:2.0 2:0.0 51:1.0 43:1.0 2543:1.0 2380:1.0 
0.3027889263591939 1:8.0 2:0.0 51:1.0 43:1.0 2543:1.0 7002:1.0 
0.06848123515476122 1:7.0 2:0.0 51:1.0 43:1.0 21693:1.0 840:1.0 
0.5140888352282951 1:3.0 2:0.0 51:1.0 25:1.0 39217:1.0 1381:1.0 
0.5217294147796712 1:7.0 2:0.0 51:1.0 92:1.0 31318:1.0 191:1.0 
0.18354761795721497 1:7.0 2:0.0 51:1.0 43:1.0 39306:1.0 6777:1.0 
1.7548937592045868 1:6.0 2:0.0 51:1.0 92:1.0 2256:1.0 1752:1.0 
2.148797143422399 1:8.0 2:2.0 76:1.0 43:1.0 84:1.0 1165:1.0 
0.20054297394522333 1:4.0 2:0.0 51:1.0 43:1.0 4866:1.0 577:1.0 
1.154927613108015 1:2.0 2:0.0 4:1.0 109:1.0 278:1.0 24038:1.0 
1.9497106737883478 1:2.0 2:0.0 51:1.0 221:1.0 5023:1.0 853:1.0 
0.11069533562435208 1:5.0 2:0.0 51:1.0 43:1.0 5697:1.0 445:1.0 
4.720538035224844 1:3.0 2:0.0 51:1.0 221:1.0 8006:1.0 170:1.0 
0.46945271655714804 1:3.0 2:0.0 51:1.0 25:1.0 6173:1.0 5391:1.0 
0.5991741826392534 1:3.0 2:0.0 51:1.0 221:1.0 17056:1.0 5586:1.0 
0.822688338749828 1:2.0 2:0.0 51:1.0 52:1.0 26820:1.0 7565:1.0 
1.3130231164055826 1:2.0 2:0.0 307:1.0 109:1.0 2664:1.0 2750:1.0 
0.032693122377893236 1:5.0 2:0.0 51:1.0 43:1.0 22852:1.0 260:1.0 
0.12019282522956336 1:3.0 2:0.0 51:1.0 43:1.0 3510:1.0 7734:1.0 
0.37646190304326926 1:4.0 2:0.0 51:1.0 43:1.0 15668:1.0 3373:1.0 
0.18646642560359966 1:3.0 2:0.0 51:1.0 52:1.0 7128:1.0 803:1.0 
0.29738458624108666 1:4.0 2:0.0 51:1.0 92:1.0 2144:1.0 23050:1.0 
1.1833794210279387 1:5.0 2:3.0 76:1.0 25:1.0 86:1.0 2235:1.0 
11.142456028205553 1:2.0 2:0.0 51:1.0 43:1.0 5697:1.0 4857:1.0 
1.3590253520542963 1:7.0 2:1.0 59:1.0 181:1.0 1181:1.0 1382:1.0 
0.15273540430684565 1:3.0 2:0.0 51:1.0 43:1.0 29291:1.0 6003:1.0 
1.6251312984974895 1:2.0 2:0.0 51:1.0 221:1.0 4866:1.0 3687:1.0 
1.9448889133768315 1:2.0 2:0.0 51:1.0 52:1.0 8344:1.0 9501:1.0 
0.06803494968407572 1:8.0 2:0.0 51:1.0 92:1.0 36085:1.0 1141:1.0 
0.23446524580084296 1:3.0 2:0.0 51:1.0 43:1.0 4559:1.0 655:1.0 
0.3003674081124265 1:3.0 2:0.0 51:1.0 221:1.0 19356:1.0 2858:1.0 
0.7229168882418351 1:2.0 2:0.0 51:1.0 52:1.0 11765:1.0 477:1.0 
500.0 1:2.0 2:0.0 51:1.0 52:1.0 4905:1.0 969:1.0 
0.9903240883327463 1:1.0 2:0.0 51:1.0 52:1.0 19813:1.0 12463:1.0 
1.465100296354355 1:1.0 2:2.0 51:1.0 52:1.0 1617:1.0 5059:1.0 
0.1975704471488727 1:8.0 2:0.0 51:1.0 43:1.0 4559:1.0 8679:1.0 
0.18906384391338638 1:4.0 2:0.0 51:1.0 43:1.0 40894:1.0 680:1.0 
0.48843945062261 1:3.0 2:0.0 51:1.0 25:1.0 21693:1.0 4625:1.0 
0.5511163345887243 1:3.0 2:0.0 51:1.0 25:1.0 21693:1.0 8479:1.0 
5.585840932501797 1:8.0 2:3.0 76:1.0 25:1.0 86:1.0 200:1.0 
1.2575427404004076 1:2.0 2:0.0 51:1.0 109:1.0 41017:1.0 572:1.0 
1.5674957475441733 1:2.0 2:0.0 51:1.0 109:1.0 2347:1.0 8995:1.0 
1.1327982769532465 1:2.0 2:0.0 4:1.0 52:1.0 278:1.0 155:1.0 
3.125664943078431 1:2.0 2:0.0 51:1.0 221:1.0 4343:1.0 19167:1.0 
0.5479491743380279 1:3.0 2:0.0 51:1.0 43:1.0 6790:1.0 5797:1.0 
0.17157956373422728 1:5.0 2:0.0 51:1.0 43:1.0 14877:1.0 2090:1.0 
1.110619814560274 1:3.0 2:1.0 51:1.0 109:1.0 319:1.0 273:1.0 
0.480718455097262 1:2.0 2:0.0 51:1.0 52:1.0 41230:1.0 335:1.0 
1.9751122593401942 1:2.0 2:0.0 51:1.0 52:1.0 8344:1.0 2619:1.0 
0.16559304321539767 1:3.0 2:0.0 51:1.0 25:1.0 19899:1.0 12326:1.0 
1.5672714485815213 1:2.0 2:0.0 51:1.0 109:1.0 8910:1.0 9127:1.0 
1.0539564030677797 1:2.0 2:0.0 51:1.0 52:1.0 2347:1.0 6162:1.0 
2.0212359734802825 1:2.0 2:0.0 51:1.0 109:1.0 2664:1.0 6099:1.0 
0.8223124414881156 1:3.0 2:0.0 51:1.0 109:1.0 4905:1.0 725:1.0 
1.2119834322954541 1:2.0 2:0.0 51:1.0 52:1.0 6776:1.0 10989:1.0 
0.18556789550089897 1:2.0 2:0.0 51:1.0 52:1.0 2839:1.0 5797:1.0 
0.7980472739492017 1:4.0 2:0.0 51:1.0 52:1.0 2839:1.0 8855:1.0 
1.7176984871101575 1:2.0 2:0.0 51:1.0 52:1.0 4905:1.0 1962:1.0 
2.911884554976028 1:2.0 2:0.0 51:1.0 81:1.0 3240:1.0 83:1.0 
0.33048205323174673 1:2.0 2:0.0 51:1.0 52:1.0 3342:1.0 17137:1.0 
1.5951470828534837 1:2.0 2:5.0 51:1.0 109:1.0 505:1.0 1079:1.0 
1.2485369394428334 1:3.0 2:0.0 51:1.0 109:1.0 3510:1.0 260:1.0 
1.3950061510742087 1:2.0 2:0.0 51:1.0 52:1.0 4866:1.0 2090:1.0 
1.6705904829225033 1:3.0 2:0.0 51:1.0 221:1.0 505:1.0 37909:1.0 
1.6564002686520247 1:1.0 2:0.0 51:1.0 52:1.0 8100:1.0 41927:1.0 
1.6666667726304847 1:2.0 2:0.0 51:1.0 109:1.0 16822:1.0 8090:1.0 
0.2836265332249632 1:6.0 2:0.0 51:1.0 92:1.0 6908:1.0 936:1.0 
41.8731561480976 1:4.0 2:0.0 51:1.0 43:1.0 12365:1.0 1742:1.0 
1.542764273114218 1:2.0 2:2.0 51:1.0 52:1.0 3240:1.0 3075:1.0 
0.9326593857921497 1:2.0 2:0.0 51:1.0 43:1.0 41230:1.0 28647:1.0 
0.050794355639993016 1:5.0 2:3.0 76:1.0 25:1.0 86:1.0 6615:1.0 
0.6984199135606751 1:4.0 2:0.0 51:1.0 109:1.0 8910:1.0 9630:1.0 
9.371564527935186 1:2.0 2:1.0 76:1.0 52:1.0 701:1.0 5923:1.0 
0.33075531913481077 1:4.0 2:0.0 51:1.0 92:1.0 42167:1.0 12275:1.0 
0.6350810649839572 1:2.0 2:0.0 51:1.0 52:1.0 1975:1.0 3509:1.0 
1.4380610920958945 1:1.0 2:1.0 51:1.0 52:1.0 6900:1.0 4831:1.0 
0.1613675873611704 1:3.0 2:0.0 51:1.0 43:1.0 3510:1.0 25613:1.0 
2.200493893843059 1:2.0 2:0.0 51:1.0 109:1.0 4316:1.0 1999:1.0 
1.707181001820696 1:2.0 2:0.0 51:1.0 109:1.0 7447:1.0 445:1.0 
0.9791934414946439 1:2.0 2:0.0 51:1.0 52:1.0 6790:1.0 14718:1.0 
0.2954951356438836 1:4.0 2:0.0 51:1.0 221:1.0 31380:1.0 11532:1.0 
1.0870388550953562 1:3.0 2:0.0 51:1.0 109:1.0 16526:1.0 3420:1.0 
1.3139535083091987 1:1.0 2:0.0 51:1.0 52:1.0 19899:1.0 3966:1.0 
0.011065414755237713 1:5.0 2:0.0 51:1.0 43:1.0 20683:1.0 4586:1.0 
1.2863340924396467 1:4.0 2:0.0 51:1.0 181:1.0 9653:1.0 182:1.0 
1.1209243642861229 1:1.0 2:0.0 51:1.0 52:1.0 15752:1.0 3966:1.0 
2.2699843706722596 1:2.0 2:0.0 51:1.0 109:1.0 3510:1.0 273:1.0 
0.5208333747254509 1:3.0 2:0.0 51:1.0 52:1.0 17056:1.0 2441:1.0 
-0.5243159041394339 1:3.0 2:1.0 51:1.0 221:1.0 505:1.0 493:1.0 
-0.736431563955321 1:2.0 2:0.0 51:1.0 92:1.0 990:1.0 87:1.0 
-0.15821777307875726 1:8.0 2:5.0 76:1.0 43:1.0 86:1.0 1139:1.0 
-0.03458978688017922 1:6.0 2:0.0 51:1.0 92:1.0 1317:1.0 1313:1.0 
-6.224208989109457 1:4.0 2:0.0 51:1.0 92:1.0 2256:1.0 936:1.0 
-0.2570700544748321 1:4.0 2:0.0 51:1.0 25:1.0 1234:1.0 2375:1.0 
-0.8386429316201793 1:3.0 2:1.0 51:1.0 109:1.0 2839:1.0 800:1.0 
-1.841204392292547 1:4.0 2:0.0 51:1.0 25:1.0 2895:1.0 2918:1.0 
-0.20766627699926393 1:2.0 2:0.0 51:1.0 52:1.0 862:1.0 87:1.0 
-0.07230841985796155 1:7.0 2:9.0 76:1.0 43:1.0 86:1.0 3475:1.0 
-2.044596410365404 1:2.0 2:0.0 51:1.0 43:1.0 3510:1.0 4031:1.0 
-0.5208333747254507 1:3.0 2:0.0 51:1.0 221:1.0 4147:1.0 111:1.0 
-0.490074414944415 1:2.0 2:0.0 51:1.0 109:1.0 4823:1.0 4403:1.0 
-2.39522953459757 1:2.0 2:0.0 51:1.0 109:1.0 4905:1.0 4855:1.0 
-0.6654686415357999 1:4.0 2:1.0 51:1.0 221:1.0 1260:1.0 3941:1.0 
-0.759866753202076 1:3.0 2:0.0 51:1.0 52:1.0 5023:1.0 4978:1.0 
-0.053726742434919456 1:2.0 2:2.0 51:1.0 221:1.0 3510:1.0 1567:1.0 
-0.1337875003633107 1:7.0 2:2.0 76:1.0 92:1.0 84:1.0 5395:1.0 
-0.5926319029374231 1:3.0 2:0.0 307:1.0 52:1.0 2664:1.0 388:1.0 
-0.6266751403737276 1:4.0 2:1.0 51:1.0 221:1.0 903:1.0 1456:1.0 
-1.7366828542664385 1:1.0 2:0.0 51:1.0 52:1.0 5649:1.0 2987:1.0 
-0.042570703251810636 1:3.0 2:0.0 51:1.0 181:1.0 5784:1.0 346:1.0 
-0.6178739471347181 1:3.0 2:0.0 51:1.0 43:1.0 1084:1.0 87:1.0 
-0.20886404232388767 1:5.0 2:3.0 76:1.0 92:1.0 86:1.0 2511:1.0 
-8.4560739075523 1:2.0 2:0.0 51:1.0 52:1.0 6173:1.0 115:1.0 
-0.4870477819702147 1:3.0 2:0.0 51:1.0 92:1.0 6358:1.0 5454:1.0 
-0.8218893286941719 1:4.0 2:0.0 51:1.0 92:1.0 6790:1.0 2244:1.0 
-0.49589279529462044 1:2.0 2:0.0 51:1.0 109:1.0 6892:1.0 5501:1.0 
-0.8479248344534431 1:3.0 2:0.0 51:1.0 52:1.0 2144:1.0 7461:1.0 
-0.9584048309683905 1:3.0 2:0.0 51:1.0 109:1.0 7691:1.0 7690:1.0 
-0.17479518741905475 1:6.0 2:0.0 51:1.0 43:1.0 7881:1.0 2714:1.0 
-0.5403672370689654 1:3.0 2:0.0 51:1.0 109:1.0 8100:1.0 964:1.0 
-0.710866168095461 1:2.0 2:0.0 51:1.0 221:1.0 8256:1.0 8257:1.0 
-0.4521269321203038 1:6.0 2:0.0 51:1.0 92:1.0 1975:1.0 191:1.0 
-0.987967535416178 1:2.0 2:0.0 51:1.0 52:1.0 8583:1.0 1197:1.0 
-0.5302471153680118 1:7.0 2:0.0 51:1.0 43:1.0 2398:1.0 598:1.0 
-1.60652045130345 1:6.0 2:3.0 76:1.0 43:1.0 84:1.0 2519:1.0 
-4.184821103176511 1:3.0 2:0.0 51:1.0 25:1.0 3415:1.0 302:1.0 
-3.7304660907228104 1:8.0 2:5.0 76:1.0 43:1.0 701:1.0 6969:1.0 
-1.086785491353191 1:2.0 2:0.0 51:1.0 109:1.0 3240:1.0 4589:1.0 
-0.41382560383785094 1:4.0 2:0.0 51:1.0 109:1.0 3510:1.0 334:1.0 
-0.09529851559538101 1:7.0 2:5.0 76:1.0 25:1.0 84:1.0 3163:1.0 
-0.6170800214552872 1:3.0 2:0.0 51:1.0 43:1.0 9485:1.0 1387:1.0 
-0.1986322857950168 1:2.0 2:0.0 51:1.0 109:1.0 1298:1.0 7165:1.0 
-0.8610307910765786 1:3.0 2:0.0 51:1.0 43:1.0 9605:1.0 260:1.0 
-0.603317013981153 1:3.0 2:0.0 51:1.0 25:1.0 9653:1.0 7009:1.0 
-1.6123386728984457 1:4.0 2:2.0 76:1.0 43:1.0 86:1.0 9588:1.0 
-0.2301824550217355 1:7.0 2:0.0 51:1.0 43:1.0 9875:1.0 598:1.0 
-4.76552244079643 1:3.0 2:0.0 51:1.0 43:1.0 2256:1.0 936:1.0 
-0.027021941766762248 1:3.0 2:3.0 76:1.0 92:1.0 86:1.0 4482:1.0 
-0.2187315472748292 1:5.0 2:1.0 76:1.0 43:1.0 701:1.0 461:1.0 
-0.0807445241860739 1:6.0 2:0.0 51:1.0 109:1.0 5894:1.0 1313:1.0 
-0.534004960919263 1:2.0 2:1.0 51:1.0 52:1.0 962:1.0 817:1.0 
-0.7720110019208622 1:5.0 2:0.0 51:1.0 92:1.0 3510:1.0 2056:1.0 
-0.48843945062261 1:3.0 2:1.0 51:1.0 25:1.0 319:1.0 5049:1.0 
-1.1364445923332487 1:3.0 2:4.0 76:1.0 92:1.0 86:1.0 4895:1.0 
-1.1165167655606427 1:2.0 2:0.0 51:1.0 109:1.0 2543:1.0 44:1.0 
-1.2076397756550543 1:1.0 2:0.0 51:1.0 52:1.0 3415:1.0 3146:1.0 
-0.961788985974521 1:3.0 2:1.0 76:1.0 221:1.0 1109:1.0 1159:1.0 
-1.1981516153933875 1:3.0 2:1.0 51:1.0 43:1.0 453:1.0 10741:1.0 
-0.0723622497235503 1:3.0 2:0.0 508:1.0 92:1.0 3501:1.0 388:1.0 
-1.5862892470095913 1:1.0 2:0.0 51:1.0 52:1.0 10952:1.0 6526:1.0 
-3.5785189971157743 1:2.0 2:0.0 51:1.0 109:1.0 505:1.0 2826:1.0 
-0.4564090927693894 1:3.0 2:1.0 51:1.0 109:1.0 4343:1.0 2337:1.0 
-0.6239324280766284 1:3.0 2:0.0 51:1.0 92:1.0 4445:1.0 11530:1.0 
-0.51533214380307 1:4.0 2:0.0 51:1.0 43:1.0 11624:1.0 11622:1.0 
-0.5790819052821405 1:3.0 2:0.0 51:1.0 81:1.0 3510:1.0 83:1.0 
-1.2549072746082293 1:2.0 2:0.0 51:1.0 109:1.0 12517:1.0 3545:1.0 
-0.32320051507210884 1:4.0 2:0.0 51:1.0 92:1.0 12552:1.0 2519:1.0 
-0.4771367442018877 1:5.0 2:0.0 51:1.0 43:1.0 12582:1.0 4331:1.0 
-0.548814469707988 1:1.0 2:0.0 51:1.0 221:1.0 9148:1.0 2337:1.0 
-0.09979014160176294 1:1.0 2:0.0 551:1.0 109:1.0 2420:1.0 12459:1.0 
-0.147341954552979 1:2.0 2:3.0 59:1.0 25:1.0 3597:1.0 2386:1.0 
-1.3895401610530191 1:2.0 2:0.0 51:1.0 52:1.0 8344:1.0 44:1.0 
-1.1244096726659616 1:4.0 2:0.0 51:1.0 221:1.0 13023:1.0 2386:1.0 
-0.1643365931344662 1:4.0 2:0.0 51:1.0 181:1.0 2839:1.0 1070:1.0 
-0.9156248895195434 1:3.0 2:0.0 51:1.0 43:1.0 6173:1.0 3241:1.0 
-6.473001013297296 1:2.0 2:0.0 51:1.0 52:1.0 4905:1.0 1819:1.0 
-0.014071418346600048 1:3.0 2:3.0 307:1.0 25:1.0 13207:1.0 131:1.0 
-0.676403199672282 1:2.0 2:1.0 51:1.0 109:1.0 505:1.0 4030:1.0 
-0.7514631222203989 1:3.0 2:0.0 51:1.0 109:1.0 3510:1.0 1730:1.0 
-1.0966938731254385 1:1.0 2:0.0 51:1.0 52:1.0 1084:1.0 853:1.0 
-1.474195495714888 1:2.0 2:0.0 51:1.0 92:1.0 4905:1.0 191:1.0 
-7.336750711639639 1:4.0 2:0.0 51:1.0 109:1.0 4905:1.0 1819:1.0 
-2.237178584225264 1:2.0 2:0.0 51:1.0 109:1.0 4905:1.0 155:1.0 
-0.39019554394710854 1:1.0 2:0.0 51:1.0 221:1.0 13891:1.0 2740:1.0 
-0.5839036658195229 1:4.0 2:0.0 51:1.0 25:1.0 2664:1.0 13964:1.0 
-0.3543704387854788 1:2.0 2:1.0 76:1.0 52:1.0 86:1.0 14269:1.0 
-0.021921551151643234 1:4.0 2:5.0 28:1.0 92:1.0 11487:1.0 2277:1.0 
-0.6095877871274189 1:4.0 2:0.0 51:1.0 221:1.0 5697:1.0 1197:1.0 
-0.4982608213855492 1:2.0 2:0.0 51:1.0 109:1.0 14473:1.0 8039:1.0 
-0.04771501891874173 1:3.0 2:8.0 228:1.0 43:1.0 1926:1.0 8879:1.0 
-1.0110233313092907 1:4.0 2:0.0 51:1.0 43:1.0 5697:1.0 948:1.0 
-0.5380658791772621 1:2.0 2:0.0 51:1.0 109:1.0 14862:1.0 6099:1.0 
-0.4012118166385985 1:3.0 2:0.0 51:1.0 52:1.0 14165:1.0 7137:1.0 
-0.11145672369966993 1:3.0 2:0.0 51:1.0 181:1.0 14873:1.0 251:1.0 
-1.0115401120496583 1:4.0 2:0.0 51:1.0 181:1.0 2256:1.0 251:1.0 
-0.5242228658108347 1:2.0 2:2.0 51:1.0 52:1.0 7666:1.0 14950:1.0 
-5.063032860742412 1:3.0 2:0.0 51:1.0 52:1.0 3510:1.0 539:1.0 
-0.9900948574932611 1:3.0 2:0.0 51:1.0 43:1.0 4365:1.0 1036:1.0 
-0.7939625569681223 1:1.0 2:0.0 51:1.0 109:1.0 15224:1.0 9720:1.0 
-0.7180716044066476 1:3.0 2:0.0 51:1.0 109:1.0 6776:1.0 3545:1.0 
-0.5111264616630903 1:2.0 2:0.0 51:1.0 109:1.0 15306:1.0 1456:1.0 
-0.7540032806156031 1:2.0 2:0.0 51:1.0 25:1.0 15461:1.0 5897:1.0 
-1.022341956125579 1:3.0 2:2.0 76:1.0 92:1.0 701:1.0 598:1.0 
-1.6832470600156175 1:2.0 2:0.0 51:1.0 109:1.0 12076:1.0 15501:1.0 
-1.0412929868322236 1:3.0 2:0.0 51:1.0 109:1.0 2839:1.0 273:1.0 
-0.8424797842337441 1:2.0 2:0.0 51:1.0 109:1.0 8100:1.0 44:1.0 
-0.787863095796402 1:4.0 2:0.0 51:1.0 52:1.0 2839:1.0 690:1.0 
-2.5404521691403055 1:2.0 2:0.0 51:1.0 52:1.0 2256:1.0 44:1.0 
-0.20274120335974533 1:3.0 2:0.0 51:1.0 43:1.0 4866:1.0 27:1.0 
-0.4481933313838802 1:3.0 2:2.0 51:1.0 109:1.0 4343:1.0 16062:1.0 
-0.6841182607618984 1:2.0 2:0.0 51:1.0 43:1.0 16101:1.0 7350:1.0 
-0.17421312380476073 1:3.0 2:2.0 76:1.0 25:1.0 701:1.0 16147:1.0 
-3.8864611574573327 1:3.0 2:1.0 51:1.0 109:1.0 3240:1.0 1502:1.0 
-0.8084978234567113 1:2.0 2:0.0 51:1.0 221:1.0 3906:1.0 9720:1.0 
-0.610290619540232 1:2.0 2:0.0 51:1.0 109:1.0 16442:1.0 9986:1.0 
-0.012191977759259228 1:5.0 2:2.0 76:1.0 43:1.0 86:1.0 3454:1.0 
-0.3412551775638107 1:5.0 2:0.0 51:1.0 43:1.0 16545:1.0 191:1.0 
-5.42115255714709 1:3.0 2:1.0 51:1.0 52:1.0 319:1.0 1651:1.0 
-5.749983136326805 1:2.0 2:0.0 51:1.0 109:1.0 2839:1.0 758:1.0 
-1.1236967371847042 1:2.0 2:0.0 51:1.0 221:1.0 3240:1.0 200:1.0 
-3.683705666463311 1:4.0 2:1.0 76:1.0 181:1.0 701:1.0 1382:1.0 
-2.518495148173122E-5 1:1.0 2:2.0 68:1.0 109:1.0 1926:1.0 17145:1.0 
-1.1120555746080116 1:2.0 2:0.0 51:1.0 109:1.0 4316:1.0 4838:1.0 
-1.1705631727707475 1:2.0 2:0.0 51:1.0 221:1.0 17539:1.0 410:1.0 
-0.17405396839535375 1:4.0 2:0.0 51:1.0 52:1.0 6512:1.0 1159:1.0 
-1.16899514971924 1:3.0 2:0.0 51:1.0 43:1.0 3342:1.0 10118:1.0 
-0.8371265433171552 1:8.0 2:3.0 76:1.0 43:1.0 1109:1.0 2235:1.0 
-0.19199393815228993 1:5.0 2:0.0 51:1.0 221:1.0 333:1.0 1439:1.0 
-0.25211314738085244 1:3.0 2:0.0 51:1.0 25:1.0 3240:1.0 44:1.0 
-1.100650346847296 1:2.0 2:0.0 51:1.0 221:1.0 8006:1.0 2337:1.0 
-1.2401528056763067 1:3.0 2:0.0 51:1.0 25:1.0 3955:1.0 241:1.0 
-0.7583065324241851 1:4.0 2:0.0 51:1.0 92:1.0 9782:1.0 191:1.0 
-0.054543299443748694 1:5.0 2:0.0 51:1.0 25:1.0 18216:1.0 18215:1.0 
-0.42585251252218526 1:3.0 2:1.0 51:1.0 92:1.0 1260:1.0 1464:1.0 
-0.39401209333144266 1:2.0 2:3.0 76:1.0 221:1.0 84:1.0 8763:1.0 
-1.4335909544835665 1:2.0 2:0.0 51:1.0 52:1.0 4905:1.0 290:1.0 
-1.1999334065481158 1:1.0 2:0.0 51:1.0 109:1.0 3681:1.0 463:1.0 
-0.25408715628308315 1:3.0 2:2.0 51:1.0 92:1.0 3501:1.0 6939:1.0 
-0.39986786221094417 1:2.0 2:0.0 51:1.0 221:1.0 8344:1.0 655:1.0 
-500.0 1:2.0 2:0.0 51:1.0 52:1.0 8344:1.0 655:1.0 
-1.4331755915879294 1:2.0 2:0.0 51:1.0 52:1.0 8344:1.0 6201:1.0 
-0.8591573354676427 1:4.0 2:5.0 76:1.0 92:1.0 86:1.0 853:1.0 
-0.6094664121462322 1:4.0 2:3.0 76:1.0 25:1.0 86:1.0 1430:1.0 
-0.7958085011558973 1:2.0 2:0.0 307:1.0 109:1.0 451:1.0 5571:1.0 
-17.57326113317173 1:4.0 2:2.0 76:1.0 92:1.0 84:1.0 44:1.0 
-0.5279253334631235 1:2.0 2:1.0 51:1.0 221:1.0 9148:1.0 2277:1.0 
-3.3228727723963702 1:1.0 2:0.0 51:1.0 109:1.0 17105:1.0 1036:1.0 
-2.2742383299802076 1:2.0 2:0.0 51:1.0 109:1.0 4905:1.0 853:1.0 
-1.119712089257889 1:3.0 2:1.0 76:1.0 43:1.0 701:1.0 4580:1.0 
-0.6334649027199911 1:8.0 2:6.0 51:1.0 43:1.0 319:1.0 44:1.0 
-2.7678025049498802 1:1.0 2:0.0 51:1.0 52:1.0 1923:1.0 2277:1.0 
-0.18699232823719536 1:4.0 2:0.0 51:1.0 52:1.0 3510:1.0 4280:1.0 
-2.1458616524014347 1:2.0 2:0.0 51:1.0 52:1.0 6776:1.0 1313:1.0 
-0.6430333416692025 1:4.0 2:0.0 51:1.0 25:1.0 9782:1.0 2197:1.0 
-0.31157775126887305 1:2.0 2:0.0 51:1.0 221:1.0 19249:1.0 16136:1.0 
-0.08382890326981035 1:6.0 2:1.0 51:1.0 43:1.0 903:1.0 3475:1.0 
-0.5208333747254507 1:3.0 2:0.0 51:1.0 221:1.0 19291:1.0 334:1.0 
-0.7125380520043183 1:1.0 2:0.0 51:1.0 109:1.0 7707:1.0 1200:1.0 
-0.2721374327929027 1:5.0 2:2.0 76:1.0 25:1.0 84:1.0 2826:1.0 
-0.016463074560679518 1:7.0 2:10.0 76:1.0 43:1.0 86:1.0 19552:1.0 
-3.903201171170531 1:4.0 2:0.0 51:1.0 221:1.0 17056:1.0 1139:1.0 
-0.14447414212385556 1:1.0 2:0.0 51:1.0 221:1.0 3164:1.0 10966:1.0 
-1.5058847398868787 1:2.0 2:0.0 51:1.0 221:1.0 5023:1.0 4589:1.0 
-0.6417123545752208 1:1.0 2:0.0 51:1.0 109:1.0 3164:1.0 11695:1.0 
-1.3006123765050195 1:5.0 2:2.0 76:1.0 52:1.0 86:1.0 2386:1.0 
-0.11892952512851812 1:3.0 2:1.0 51:1.0 43:1.0 1260:1.0 27:1.0 
-0.2782221407463468 1:2.0 2:0.0 51:1.0 221:1.0 8344:1.0 2386:1.0 
-3.245007560899654 1:5.0 2:0.0 51:1.0 92:1.0 3240:1.0 3966:1.0 
-0.16194503618295325 1:2.0 2:1.0 51:1.0 109:1.0 6512:1.0 1999:1.0 
-0.4928454362991579 1:3.0 2:0.0 51:1.0 92:1.0 5430:1.0 7292:1.0 
-0.6217589195884684 1:3.0 2:0.0 51:1.0 43:1.0 20101:1.0 3010:1.0 
-1.1620510412831218 1:2.0 2:0.0 51:1.0 109:1.0 20167:1.0 1930:1.0 
-0.38359092664810446 1:5.0 2:0.0 51:1.0 43:1.0 6173:1.0 3685:1.0 
-1.323977584226214 1:2.0 2:0.0 51:1.0 221:1.0 3443:1.0 2163:1.0 
-0.17740181446387437 1:3.0 2:1.0 76:1.0 43:1.0 84:1.0 2740:1.0 
-1.9565133519496074 1:3.0 2:0.0 51:1.0 221:1.0 9035:1.0 1160:1.0 
-0.7144795560091469 1:2.0 2:0.0 51:1.0 221:1.0 20305:1.0 10741:1.0 
-0.208263859086866 1:2.0 2:0.0 51:1.0 109:1.0 20312:1.0 4839:1.0 
-3.9299071788860522 1:2.0 2:0.0 51:1.0 221:1.0 4343:1.0 1819:1.0 
-0.6287831935219205 1:3.0 2:0.0 51:1.0 43:1.0 20383:1.0 253:1.0 
-0.948966652848948 1:2.0 2:1.0 51:1.0 109:1.0 1202:1.0 4857:1.0 
-0.3084454867097095 1:2.0 2:0.0 51:1.0 221:1.0 8344:1.0 1502:1.0 
-0.05744694439310902 1:6.0 2:9.0 76:1.0 25:1.0 86:1.0 388:1.0 
-1.2806881074020426 1:1.0 2:0.0 51:1.0 52:1.0 12883:1.0 395:1.0 
-0.1375364120552925 1:2.0 2:3.0 307:1.0 109:1.0 451:1.0 834:1.0 
-0.8278965144402319 1:2.0 2:0.0 51:1.0 221:1.0 11624:1.0 14252:1.0 
-1.8473828208086103 1:2.0 2:0.0 51:1.0 52:1.0 20683:1.0 800:1.0 
-0.43822671111616013 1:1.0 2:0.0 51:1.0 109:1.0 4147:1.0 2386:1.0 
-3.6152700233880317 1:3.0 2:0.0 51:1.0 43:1.0 6137:1.0 18381:1.0 
-0.15697583578807162 1:2.0 2:0.0 307:1.0 221:1.0 3681:1.0 445:1.0 
-2.213299810668163 1:1.0 2:1.0 76:1.0 52:1.0 84:1.0 1159:1.0 
-0.09699929598724154 1:7.0 2:9.0 76:1.0 43:1.0 86:1.0 598:1.0 
-1.7895523872101984 1:2.0 2:0.0 51:1.0 52:1.0 15507:1.0 2386:1.0 
-1.2505427466619699 1:2.0 2:0.0 51:1.0 92:1.0 1006:1.0 7280:1.0 
-0.1891755735718726 1:2.0 2:0.0 51:1.0 52:1.0 5697:1.0 4838:1.0 
-1.2891985639686614 1:3.0 2:1.0 76:1.0 25:1.0 86:1.0 4505:1.0 
-0.6013896215419166 1:8.0 2:4.0 76:1.0 43:1.0 1109:1.0 3075:1.0 
-0.346315668200918 1:3.0 2:0.0 51:1.0 92:1.0 21223:1.0 4123:1.0 
-1.4715232559336473 1:3.0 2:0.0 51:1.0 52:1.0 1975:1.0 1313:1.0 
-0.781057227816856 1:2.0 2:0.0 51:1.0 43:1.0 4866:1.0 2826:1.0 
-4.509235326943169 1:4.0 2:2.0 76:1.0 92:1.0 1109:1.0 131:1.0 
-1.3603350174553934 1:1.0 2:0.0 51:1.0 52:1.0 3415:1.0 217:1.0 
-0.9924482313645095 1:2.0 2:0.0 51:1.0 109:1.0 3240:1.0 767:1.0 
-0.20405321492701398 1:2.0 2:0.0 51:1.0 109:1.0 3164:1.0 10004:1.0 
-1.051292762604568 1:2.0 2:0.0 51:1.0 43:1.0 4316:1.0 3420:1.0 
-0.5284514531331246 1:2.0 2:1.0 59:1.0 52:1.0 1181:1.0 1338:1.0 
-46.92444618145719 1:2.0 2:0.0 51:1.0 221:1.0 5697:1.0 1730:1.0 
-0.5043733444631513 1:3.0 2:0.0 51:1.0 109:1.0 488:1.0 2330:1.0 
-2.1638046374549864 1:3.0 2:0.0 51:1.0 52:1.0 9148:1.0 10444:1.0 
-0.18023772377510078 1:2.0 2:0.0 51:1.0 92:1.0 1084:1.0 742:1.0 
-0.8759137393211712 1:2.0 2:0.0 51:1.0 109:1.0 319:1.0 388:1.0 
-0.17630505158692722 1:2.0 2:3.0 307:1.0 43:1.0 2664:1.0 1651:1.0 
-0.28382289747340184 1:3.0 2:0.0 51:1.0 92:1.0 21913:1.0 2617:1.0 
-1.1813639178286128 1:2.0 2:0.0 51:1.0 109:1.0 3240:1.0 115:1.0 
-0.33750039320140834 1:5.0 2:2.0 76:1.0 43:1.0 1109:1.0 7388:1.0 
-0.3915973633907901 1:3.0 2:0.0 51:1.0 43:1.0 3510:1.0 2386:1.0 
-0.1740304397518906 1:3.0 2:0.0 51:1.0 43:1.0 13510:1.0 1003:1.0 
-0.989006109205756 1:1.0 2:0.0 51:1.0 25:1.0 759:1.0 273:1.0 
-1.7602558347166855 1:3.0 2:0.0 51:1.0 92:1.0 10102:1.0 260:1.0 
-0.5391243421772535 1:3.0 2:0.0 51:1.0 25:1.0 22055:1.0 4753:1.0 
-1.4114756163531776 1:1.0 2:0.0 51:1.0 52:1.0 13510:1.0 1338:1.0 
-0.9221533753753014 1:2.0 2:1.0 51:1.0 221:1.0 16526:1.0 1159:1.0 
-2.000636354358467 1:2.0 2:0.0 51:1.0 109:1.0 9035:1.0 11464:1.0 
-0.42282664717936197 1:1.0 2:0.0 51:1.0 221:1.0 22117:1.0 1272:1.0 
-0.4331863095787879 1:2.0 2:1.0 51:1.0 109:1.0 145:1.0 1272:1.0 
-0.061168503158671166 1:4.0 2:1.0 51:1.0 52:1.0 4136:1.0 2337:1.0 
-0.9968259808716822 1:3.0 2:0.0 51:1.0 92:1.0 8334:1.0 3343:1.0 
-0.7637755648311677 1:2.0 2:0.0 51:1.0 52:1.0 4365:1.0 4992:1.0 
-0.19159841019263302 1:4.0 2:2.0 76:1.0 25:1.0 701:1.0 1299:1.0 
-0.33163997747080753 1:3.0 2:1.0 51:1.0 52:1.0 4136:1.0 5204:1.0 
-0.015205599758526573 1:2.0 2:1.0 51:1.0 221:1.0 759:1.0 5948:1.0 
-0.73440775047202 1:4.0 2:5.0 76:1.0 92:1.0 86:1.0 6416:1.0 
-0.4766576017327883 1:2.0 2:0.0 51:1.0 109:1.0 22414:1.0 7350:1.0 
-0.023476308176474173 1:1.0 2:0.0 51:1.0 221:1.0 22414:1.0 7350:1.0 
-0.2038405012726129 1:3.0 2:1.0 51:1.0 109:1.0 9835:1.0 1651:1.0 
-1.3193781573815757 1:2.0 2:0.0 51:1.0 109:1.0 488:1.0 5298:1.0 
-1.4478297934483553 1:2.0 2:0.0 51:1.0 52:1.0 8344:1.0 217:1.0 
-3.7490769269301296 1:2.0 2:0.0 51:1.0 52:1.0 862:1.0 2619:1.0 
-11.034516995608389 1:6.0 2:0.0 51:1.0 25:1.0 6173:1.0 115:1.0 
-0.5707280071441336 1:1.0 2:0.0 51:1.0 109:1.0 9148:1.0 2380:1.0 
-0.47356281909785286 1:4.0 2:0.0 51:1.0 43:1.0 22615:1.0 363:1.0 
-0.1793525382395286 1:6.0 2:0.0 51:1.0 43:1.0 2060:1.0 363:1.0 
-0.8928571884729437 1:2.0 2:0.0 51:1.0 52:1.0 7856:1.0 13755:1.0 
-0.2035427489294584 1:6.0 2:0.0 51:1.0 43:1.0 22746:1.0 4622:1.0 
-0.018229812222529188 1:3.0 2:1.0 76:1.0 221:1.0 701:1.0 3471:1.0 
-0.04891955438713057 1:6.0 2:7.0 76:1.0 43:1.0 86:1.0 22747:1.0 
-0.29928355281384583 1:3.0 2:1.0 51:1.0 43:1.0 319:1.0 6086:1.0 
-0.7847100863426234 1:1.0 2:0.0 51:1.0 109:1.0 22899:1.0 630:1.0 
-0.913461664007336 1:5.0 2:2.0 76:1.0 43:1.0 701:1.0 8879:1.0 
-0.46690274930751874 1:4.0 2:0.0 51:1.0 43:1.0 11333:1.0 334:1.0 
-0.18960636750763912 1:3.0 2:0.0 51:1.0 109:1.0 23043:1.0 1200:1.0 
-0.2567387149923152 1:2.0 2:1.0 76:1.0 549:1.0 701:1.0 2419:1.0 
-2.799588069312217 1:2.0 2:0.0 508:1.0 52:1.0 509:1.0 2056:1.0 
-0.03473924890727575 1:4.0 2:2.0 76:1.0 43:1.0 266:1.0 6721:1.0 
-1.8168272196738966 1:4.0 2:1.0 76:1.0 25:1.0 701:1.0 3995:1.0 
-0.7655973127165974 1:2.0 2:0.0 51:1.0 109:1.0 9653:1.0 273:1.0 
-0.29180845909991204 1:4.0 2:0.0 51:1.0 109:1.0 12517:1.0 16136:1.0 
-0.019777437332950787 1:3.0 2:1.0 59:1.0 109:1.0 6307:1.0 1730:1.0 
-0.3011459643507972 1:4.0 2:1.0 76:1.0 25:1.0 701:1.0 942:1.0 
-1.6767913096640892 1:1.0 2:0.0 51:1.0 52:1.0 4343:1.0 651:1.0 
-0.7362557168187059 1:1.0 2:0.0 51:1.0 109:1.0 17935:1.0 11695:1.0 
-0.7474195946867997 1:5.0 2:0.0 51:1.0 92:1.0 11765:1.0 3760:1.0 
-0.19781261545213075 1:5.0 2:2.0 51:1.0 43:1.0 754:1.0 23658:1.0 
-12.72383905114068 1:7.0 2:4.0 76:1.0 43:1.0 701:1.0 44:1.0 
-6.788988027040726 1:2.0 2:2.0 76:1.0 43:1.0 701:1.0 5923:1.0 
-7.445358788652182 1:2.0 2:0.0 51:1.0 52:1.0 488:1.0 445:1.0 
-0.04751973626111254 1:2.0 2:4.0 51:1.0 52:1.0 18079:1.0 23831:1.0 
-0.08525697826820944 1:4.0 2:0.0 51:1.0 43:1.0 6790:1.0 115:1.0 
-0.5208333747254508 1:3.0 2:0.0 51:1.0 92:1.0 23992:1.0 758:1.0 
-68.43279945122943 1:4.0 2:4.0 76:1.0 92:1.0 701:1.0 115:1.0 
-0.3079235545279003 1:4.0 2:0.0 51:1.0 92:1.0 24070:1.0 4387:1.0 
-0.9797798901729113 1:3.0 2:1.0 51:1.0 52:1.0 453:1.0 44:1.0 
-0.07353891530877724 1:6.0 2:2.0 76:1.0 92:1.0 701:1.0 3396:1.0 
-0.8536995819169713 1:2.0 2:0.0 51:1.0 221:1.0 22055:1.0 853:1.0 
-0.6627776543401405 1:2.0 2:1.0 76:1.0 92:1.0 86:1.0 388:1.0 
-0.3226657337411407 1:1.0 2:0.0 51:1.0 43:1.0 18380:1.0 2694:1.0 
-0.017895822252854444 1:4.0 2:7.0 28:1.0 43:1.0 208:1.0 200:1.0 
-0.06517084581017149 1:7.0 2:0.0 51:1.0 43:1.0 24248:1.0 948:1.0 
-0.14133075118240374 1:7.0 2:4.0 76:1.0 43:1.0 86:1.0 3685:1.0 
-0.3995635060907753 1:5.0 2:0.0 51:1.0 43:1.0 6173:1.0 584:1.0 
-0.11820807938905663 1:3.0 2:0.0 51:1.0 181:1.0 4092:1.0 182:1.0 
-1.796586837619812 1:1.0 2:0.0 51:1.0 52:1.0 20781:1.0 1313:1.0 
-0.48628565502968263 1:3.0 2:0.0 51:1.0 92:1.0 11624:1.0 1936:1.0 
-1.0404803566864134 1:2.0 2:0.0 51:1.0 25:1.0 18848:1.0 2994:1.0 
-0.22470428701084955 1:7.0 2:4.0 76:1.0 43:1.0 1109:1.0 13650:1.0 
-0.1262897234399357 1:3.0 2:0.0 51:1.0 109:1.0 3240:1.0 5704:1.0 
-1.8050261416740676 1:1.0 2:0.0 51:1.0 109:1.0 8910:1.0 2694:1.0 
-0.7448569470899078 1:3.0 2:0.0 51:1.0 221:1.0 9471:1.0 7758:1.0 
-0.1883043882886704 1:2.0 2:0.0 51:1.0 221:1.0 5367:1.0 853:1.0 
-0.5309662481873146 1:4.0 2:1.0 51:1.0 25:1.0 2685:1.0 2750:1.0 
-0.4385966086395272 1:5.0 2:0.0 51:1.0 92:1.0 6137:1.0 2714:1.0 
-0.13076668824033716 1:4.0 2:0.0 51:1.0 25:1.0 24908:1.0 4978:1.0 
-1.0721428558880293 1:2.0 2:0.0 51:1.0 109:1.0 3240:1.0 5594:1.0 
-1.6109659366867741 1:2.0 2:0.0 51:1.0 109:1.0 2839:1.0 14093:1.0 
-0.04719560063407664 1:6.0 2:3.0 76:1.0 43:1.0 701:1.0 911:1.0 
-1.042577994663772 1:2.0 2:1.0 51:1.0 52:1.0 903:1.0 1999:1.0 
-0.21457732215128367 1:5.0 2:2.0 76:1.0 25:1.0 1379:1.0 5648:1.0 
-0.15136981299647395 1:8.0 2:4.0 228:1.0 43:1.0 771:1.0 15434:1.0 
-0.9381424392807608 1:3.0 2:0.0 51:1.0 43:1.0 25117:1.0 302:1.0 
-0.7327379257225234 1:4.0 2:1.0 76:1.0 92:1.0 84:1.0 1036:1.0 
-0.33739643270007313 1:4.0 2:2.0 76:1.0 92:1.0 923:1.0 2826:1.0 
-0.6520963019872394 1:2.0 2:0.0 51:1.0 81:1.0 1592:1.0 83:1.0 
-1.4155165684805961 1:2.0 2:0.0 51:1.0 221:1.0 15673:1.0 1659:1.0 
-0.3105926079900997 1:4.0 2:0.0 51:1.0 43:1.0 8344:1.0 7628:1.0 
-0.41041285999719196 1:3.0 2:0.0 51:1.0 52:1.0 25327:1.0 2740:1.0 
-0.3411205175813161 1:5.0 2:0.0 51:1.0 43:1.0 25353:1.0 767:1.0 
-0.34038754023123097 1:4.0 2:1.0 51:1.0 43:1.0 5668:1.0 2619:1.0 
-0.11843361450376186 1:4.0 2:0.0 51:1.0 43:1.0 5697:1.0 3898:1.0 
-1.0137567367990306 1:2.0 2:0.0 51:1.0 109:1.0 25493:1.0 9854:1.0 
-0.7953651473460674 1:1.0 2:0.0 51:1.0 109:1.0 25562:1.0 25563:1.0 
-0.9206679630834835 1:2.0 2:2.0 51:1.0 52:1.0 19356:1.0 44:1.0 
-0.20381499641529183 1:6.0 2:0.0 51:1.0 43:1.0 25824:1.0 44:1.0 
-500.0 1:2.0 2:0.0 51:1.0 52:1.0 2347:1.0 1999:1.0 
-0.15320134595464838 1:3.0 2:0.0 51:1.0 109:1.0 25994:1.0 803:1.0 
-0.30764204891823865 1:4.0 2:0.0 51:1.0 43:1.0 26085:1.0 2826:1.0 
-0.9113137478217581 1:2.0 2:0.0 51:1.0 109:1.0 759:1.0 920:1.0 
-1.0932282228369778 1:2.0 2:0.0 51:1.0 52:1.0 1084:1.0 2519:1.0 
-0.7354134278755654 1:2.0 2:0.0 51:1.0 221:1.0 26176:1.0 7647:1.0 
-0.2941913721140636 1:2.0 2:1.0 51:1.0 308:1.0 190:1.0 16591:1.0 
-0.598843120987619 1:3.0 2:2.0 51:1.0 109:1.0 10102:1.0 26178:1.0 
-0.20116885760104325 1:6.0 2:0.0 51:1.0 43:1.0 26181:1.0 484:1.0 
-0.5358229335971585 1:2.0 2:0.0 51:1.0 109:1.0 10098:1.0 2201:1.0 
-0.5937685717969344 1:5.0 2:2.0 76:1.0 43:1.0 86:1.0 2831:1.0 
-1.29842024597916 1:3.0 2:0.0 51:1.0 52:1.0 21693:1.0 758:1.0 
-0.23272262907473903 1:1.0 2:1.0 76:1.0 52:1.0 701:1.0 4661:1.0 
-0.22855906317539285 1:2.0 2:1.0 76:1.0 52:1.0 701:1.0 26222:1.0 
-0.6988160886764587 1:4.0 2:0.0 51:1.0 43:1.0 12582:1.0 2740:1.0 
-0.18686576538370508 1:6.0 2:0.0 51:1.0 43:1.0 26328:1.0 4331:1.0 
-9.776736304659133 1:3.0 2:0.0 51:1.0 43:1.0 12365:1.0 1742:1.0 
-0.7650937975159201 1:2.0 2:0.0 51:1.0 109:1.0 26374:1.0 44:1.0 
-0.3514317799167194 1:3.0 2:5.0 76:1.0 181:1.0 86:1.0 346:1.0 
-0.8565083498536599 1:3.0 2:1.0 51:1.0 181:1.0 319:1.0 251:1.0 
-1.5906332863577544 1:3.0 2:0.0 51:1.0 43:1.0 14833:1.0 44:1.0 
-0.7470700788040623 1:2.0 2:0.0 51:1.0 81:1.0 14833:1.0 83:1.0 
-0.9696337290480956 1:2.0 2:1.0 51:1.0 52:1.0 12997:1.0 27:1.0 
-0.2020588302178492 1:6.0 2:0.0 51:1.0 92:1.0 4866:1.0 388:1.0 
-0.01399903865801111 1:2.0 2:3.0 228:1.0 109:1.0 1926:1.0 1048:1.0 
-0.3609935876046656 1:2.0 2:1.0 51:1.0 221:1.0 2129:1.0 115:1.0 
-2.4614419535952834 1:1.0 2:0.0 51:1.0 109:1.0 3240:1.0 588:1.0 
-0.3616041676562726 1:6.0 2:6.0 76:1.0 25:1.0 176:1.0 1860:1.0 
-10.121829144988324 1:2.0 2:0.0 51:1.0 221:1.0 5697:1.0 4857:1.0 
-0.6931271513671585 1:1.0 2:0.0 51:1.0 109:1.0 8344:1.0 8039:1.0 
-0.06632450318944774 1:5.0 2:4.0 76:1.0 43:1.0 86:1.0 2496:1.0 
-1.130159935926664 1:2.0 2:0.0 51:1.0 109:1.0 2664:1.0 8135:1.0 
-0.1135112719844047 1:4.0 2:1.0 51:1.0 25:1.0 190:1.0 2197:1.0 
-5.291635043433027 1:2.0 2:0.0 51:1.0 109:1.0 2256:1.0 1752:1.0 
-0.3643385995898092 1:6.0 2:5.0 76:1.0 25:1.0 923:1.0 27053:1.0 
-2.5123844388038754 1:2.0 2:0.0 51:1.0 52:1.0 6790:1.0 302:1.0 
-0.5338271212125743 1:2.0 2:0.0 51:1.0 109:1.0 27139:1.0 572:1.0 
-0.03845270901920801 1:4.0 2:2.0 76:1.0 92:1.0 701:1.0 3761:1.0 
-0.6278892830910215 1:4.0 2:2.0 76:1.0 92:1.0 701:1.0 3761:1.0 
-1.9194457199030113 1:3.0 2:0.0 51:1.0 109:1.0 4365:1.0 115:1.0 
-0.23514972491393243 1:3.0 2:0.0 51:1.0 109:1.0 9148:1.0 334:1.0 
-0.14987625154975334 1:3.0 2:0.0 51:1.0 221:1.0 8006:1.0 2386:1.0 
-0.352224198750108 1:3.0 2:2.0 76:1.0 43:1.0 701:1.0 388:1.0 
-2.4014050685343173 1:4.0 2:4.0 76:1.0 92:1.0 86:1.0 445:1.0 
-0.17047650985562787 1:2.0 2:2.0 76:1.0 92:1.0 701:1.0 767:1.0 
-0.9277439255661567 1:2.0 2:2.0 76:1.0 92:1.0 701:1.0 767:1.0 
-0.020169985128584773 1:7.0 2:10.0 76:1.0 43:1.0 86:1.0 18396:1.0 
-0.7582272226530083 1:2.0 2:0.0 51:1.0 52:1.0 3415:1.0 2350:1.0 
-0.1605692117587818 1:4.0 2:2.0 307:1.0 5:1.0 27589:1.0 848:1.0 
-0.2679978598520656 1:2.0 2:0.0 51:1.0 81:1.0 6790:1.0 83:1.0 
-0.051648944403699146 1:5.0 2:2.0 51:1.0 25:1.0 9653:1.0 44:1.0 
-0.24695686264557543 1:5.0 2:2.0 51:1.0 25:1.0 9653:1.0 44:1.0 
-0.9112994324977128 1:3.0 2:0.0 51:1.0 181:1.0 2398:1.0 1382:1.0 
-0.6289595782580362 1:3.0 2:0.0 51:1.0 25:1.0 813:1.0 1159:1.0 
-0.037266988906756754 1:5.0 2:2.0 76:1.0 25:1.0 86:1.0 2222:1.0 
-0.4695694766774509 1:5.0 2:2.0 76:1.0 25:1.0 86:1.0 2222:1.0 
-0.09513115138941095 1:4.0 2:2.0 76:1.0 92:1.0 701:1.0 888:1.0 
-0.57344919894128 1:4.0 2:2.0 76:1.0 92:1.0 701:1.0 888:1.0 
-0.1272731007482763 1:1.0 2:2.0 51:1.0 52:1.0 6859:1.0 4030:1.0 
-0.30776061199631133 1:4.0 2:5.0 108:1.0 92:1.0 3631:1.0 6475:1.0 
-0.4167309049373528 1:4.0 2:0.0 51:1.0 43:1.0 8344:1.0 1482:1.0 
-0.1689182653028132 1:2.0 2:0.0 51:1.0 81:1.0 13023:1.0 83:1.0 
-0.31089041567081344 1:4.0 2:0.0 51:1.0 92:1.0 28422:1.0 191:1.0 
-1.2240190936688613 1:2.0 2:0.0 51:1.0 52:1.0 15668:1.0 241:1.0 
-0.22431921477085412 1:2.0 2:2.0 228:1.0 52:1.0 1926:1.0 241:1.0 
-2.4514179238839637 1:1.0 2:0.0 51:1.0 52:1.0 3510:1.0 3509:1.0 
-0.8110982456585305 1:2.0 2:1.0 51:1.0 52:1.0 1721:1.0 660:1.0 
-0.12234096287616839 1:5.0 2:4.0 76:1.0 43:1.0 86:1.0 5897:1.0 
-0.35971344237235825 1:2.0 2:0.0 51:1.0 81:1.0 10758:1.0 83:1.0 
-0.2073739025073575 1:7.0 2:5.0 76:1.0 43:1.0 86:1.0 572:1.0 
-1.2486878470200462 1:2.0 2:0.0 51:1.0 109:1.0 18380:1.0 191:1.0 
-5.440326737299095 1:3.0 2:0.0 51:1.0 43:1.0 4343:1.0 1819:1.0 
-1.949403614199056 1:2.0 2:0.0 51:1.0 109:1.0 5697:1.0 170:1.0 
-0.31631380451911223 1:5.0 2:2.0 76:1.0 43:1.0 1109:1.0 776:1.0 
-0.06575283860202988 1:2.0 2:0.0 51:1.0 81:1.0 13023:1.0 83:1.0 
-0.3105195850585142 1:2.0 2:1.0 51:1.0 109:1.0 17105:1.0 10118:1.0 
-0.020924079206953532 1:1.0 2:0.0 51:1.0 52:1.0 8006:1.0 2337:1.0 
-0.7401301919151174 1:2.0 2:0.0 51:1.0 109:1.0 13023:1.0 6201:1.0 
-0.16312140994659802 1:2.0 2:0.0 51:1.0 81:1.0 28995:1.0 83:1.0 
-0.3485956832216753 1:5.0 2:6.0 307:1.0 92:1.0 2664:1.0 7378:1.0 
-3.0039800978129514 1:2.0 2:2.0 76:1.0 52:1.0 701:1.0 27:1.0 
-0.04359966525394513 1:5.0 2:8.0 28:1.0 25:1.0 208:1.0 767:1.0 
-0.04975953504555596 1:3.0 2:0.0 51:1.0 181:1.0 29168:1.0 1382:1.0 
-0.6908001235636116 1:2.0 2:0.0 51:1.0 221:1.0 20312:1.0 1482:1.0 
-1.8157228198831876 1:1.0 2:0.0 51:1.0 52:1.0 15668:1.0 1313:1.0 
-0.7995327507096264 1:5.0 2:0.0 51:1.0 43:1.0 5697:1.0 13199:1.0 
-0.015504624164013952 1:2.0 2:3.0 307:1.0 109:1.0 13207:1.0 388:1.0 
-0.018479213111647623 1:2.0 2:3.0 307:1.0 109:1.0 13207:1.0 388:1.0 
-0.7519702765771645 1:2.0 2:0.0 51:1.0 109:1.0 3510:1.0 1439:1.0 
-0.7602447100594258 1:4.0 2:0.0 51:1.0 43:1.0 6790:1.0 44:1.0 
-0.1928021387250793 1:2.0 2:0.0 51:1.0 109:1.0 6301:1.0 29411:1.0 
-0.40300463362587635 1:3.0 2:0.0 51:1.0 52:1.0 29468:1.0 1313:1.0 
-0.044404363089662655 1:3.0 2:0.0 51:1.0 181:1.0 29469:1.0 676:1.0 
-0.13875087361292693 1:2.0 2:1.0 59:1.0 221:1.0 1181:1.0 1752:1.0 
-0.8441931528995347 1:2.0 2:1.0 59:1.0 221:1.0 1181:1.0 1752:1.0 
-0.20302889631022514 1:7.0 2:0.0 51:1.0 43:1.0 29480:1.0 115:1.0 
-0.5710478177617764 1:2.0 2:1.0 51:1.0 52:1.0 962:1.0 2163:1.0 
-0.020457739559822802 1:2.0 2:0.0 51:1.0 221:1.0 5367:1.0 25130:1.0 
-2.527355490435457 1:1.0 2:0.0 51:1.0 52:1.0 18380:1.0 273:1.0 
-0.36902843654327633 1:3.0 2:1.0 51:1.0 25:1.0 319:1.0 4661:1.0 
-0.21882485043920905 1:6.0 2:3.0 51:1.0 43:1.0 2804:1.0 87:1.0 
-0.23335304192019804 1:3.0 2:0.0 51:1.0 25:1.0 3240:1.0 54:1.0 
-0.9649510880813653 1:3.0 2:0.0 51:1.0 25:1.0 1777:1.0 733:1.0 
-0.050813078211786766 1:7.0 2:0.0 51:1.0 43:1.0 4316:1.0 3898:1.0 
-500.0 1:2.0 2:0.0 51:1.0 52:1.0 4905:1.0 969:1.0 
-0.36349950797381836 1:2.0 2:0.0 51:1.0 52:1.0 3240:1.0 3241:1.0 
-5.7443617084760765 1:2.0 2:0.0 51:1.0 52:1.0 8006:1.0 170:1.0 
-0.009281161683113416 1:6.0 2:2.0 76:1.0 25:1.0 923:1.0 10128:1.0 
-0.10778560726541798 1:4.0 2:1.0 76:1.0 43:1.0 923:1.0 14229:1.0 
-0.10436012468277331 1:3.0 2:0.0 51:1.0 109:1.0 3240:1.0 363:1.0 
-1.500020541361328 1:2.0 2:0.0 51:1.0 52:1.0 3240:1.0 1512:1.0 
-0.3330669675424806 1:3.0 2:4.0 59:1.0 221:1.0 1181:1.0 1817:1.0 
-0.10237935106839519 1:5.0 2:0.0 51:1.0 25:1.0 9148:1.0 1930:1.0 
-0.6752960415596704 1:2.0 2:0.0 51:1.0 221:1.0 30108:1.0 2826:1.0 
-0.5757116134638391 1:2.0 2:0.0 51:1.0 109:1.0 1530:1.0 2350:1.0 
-2.217997446959294 1:2.0 2:0.0 51:1.0 52:1.0 10102:1.0 10284:1.0 
-0.5854363516074427 1:3.0 2:0.0 51:1.0 221:1.0 13565:1.0 4857:1.0 
-0.1586763851736328 1:5.0 2:6.0 76:1.0 92:1.0 86:1.0 20620:1.0 
-1.0018237372151233 1:2.0 2:0.0 51:1.0 109:1.0 24692:1.0 26341:1.0 
-0.21479525489872753 1:1.0 2:2.0 307:1.0 109:1.0 2664:1.0 388:1.0 
-0.19769456101892394 1:1.0 2:2.0 307:1.0 109:1.0 2664:1.0 388:1.0 
-0.6052200958413204 1:2.0 2:0.0 51:1.0 109:1.0 30308:1.0 6853:1.0 
-4.567842251253493 1:2.0 2:0.0 51:1.0 109:1.0 6790:1.0 774:1.0 
-0.30595369284353147 1:4.0 2:0.0 51:1.0 43:1.0 8344:1.0 4728:1.0 
-0.1611827808134636 1:7.0 2:1.0 51:1.0 43:1.0 453:1.0 2240:1.0 
-0.5222747829514481 1:3.0 2:1.0 51:1.0 25:1.0 319:1.0 2969:1.0 
-0.66128115675993 1:1.0 2:0.0 51:1.0 109:1.0 3510:1.0 10524:1.0 
-0.9433351436386314 1:2.0 2:1.0 51:1.0 52:1.0 16771:1.0 1567:1.0 
-0.0567702984353943 1:3.0 2:1.0 51:1.0 25:1.0 903:1.0 6463:1.0 
-0.19160083688957474 1:6.0 2:0.0 51:1.0 43:1.0 1577:1.0 388:1.0 
-0.6463122454559936 1:3.0 2:0.0 51:1.0 181:1.0 2196:1.0 182:1.0 
-1.5625000349245977 1:1.0 2:0.0 51:1.0 52:1.0 5367:1.0 27:1.0 
-0.7064483027916959 1:2.0 2:0.0 51:1.0 221:1.0 30777:1.0 2337:1.0 
-7.305305314357066 1:2.0 2:0.0 51:1.0 43:1.0 319:1.0 388:1.0 
-0.34007206395871425 1:4.0 2:0.0 51:1.0 92:1.0 27840:1.0 28132:1.0 
-0.29863616165801654 1:5.0 2:0.0 51:1.0 25:1.0 6173:1.0 3165:1.0 
-0.5166401934199129 1:3.0 2:0.0 51:1.0 43:1.0 1084:1.0 388:1.0 
-0.3107495497425927 1:5.0 2:0.0 51:1.0 43:1.0 31118:1.0 742:1.0 
-0.27553027012178755 1:2.0 2:0.0 51:1.0 221:1.0 8344:1.0 5648:1.0 
-0.9406624993336257 1:3.0 2:0.0 51:1.0 221:1.0 8006:1.0 2386:1.0 
-0.09960369171589627 1:4.0 2:0.0 51:1.0 52:1.0 3510:1.0 1439:1.0 
-0.5617884547616203 1:2.0 2:0.0 51:1.0 109:1.0 488:1.0 4331:1.0 
-0.07653567053906925 1:6.0 2:0.0 51:1.0 43:1.0 11624:1.0 539:1.0 
-0.9539554934975334 1:3.0 2:0.0 51:1.0 43:1.0 5697:1.0 3898:1.0 
-0.344960425730685 1:3.0 2:2.0 51:1.0 43:1.0 8095:1.0 4034:1.0 
-3.731096463631359 1:2.0 2:0.0 51:1.0 52:1.0 505:1.0 853:1.0 
-0.6616751493122772 1:3.0 2:0.0 51:1.0 109:1.0 488:1.0 3496:1.0 
-0.8928571884729437 1:2.0 2:0.0 51:1.0 52:1.0 12085:1.0 11636:1.0 
-1.2702067206982286 1:1.0 2:0.0 51:1.0 52:1.0 1084:1.0 6086:1.0 
-1.666666772630486 1:2.0 2:0.0 51:1.0 221:1.0 9782:1.0 1930:1.0 
-0.23633693327716 1:5.0 2:0.0 51:1.0 43:1.0 8170:1.0 31888:1.0 
-0.3972473403543239 1:4.0 2:0.0 51:1.0 43:1.0 23512:1.0 3927:1.0 
-0.29109265113914706 1:7.0 2:0.0 51:1.0 43:1.0 5697:1.0 131:1.0 
-0.35421119984906363 1:1.0 2:0.0 51:1.0 109:1.0 21913:1.0 2740:1.0 
-0.12086306731966283 1:7.0 2:6.0 76:1.0 43:1.0 86:1.0 17700:1.0 
-0.1014552191979069 1:7.0 2:6.0 76:1.0 43:1.0 86:1.0 17700:1.0 
-0.8092574267186661 1:1.0 2:1.0 51:1.0 52:1.0 11018:1.0 2380:1.0 
-1.038339193883651 1:2.0 2:0.0 51:1.0 43:1.0 13023:1.0 767:1.0 
-0.022905033805235307 1:6.0 2:7.0 76:1.0 43:1.0 86:1.0 12621:1.0 
-0.022614649045796572 1:6.0 2:7.0 76:1.0 43:1.0 86:1.0 12621:1.0 
-0.3427136001058939 1:4.0 2:0.0 51:1.0 43:1.0 8170:1.0 2969:1.0 
-0.040132594253409204 1:5.0 2:6.0 28:1.0 43:1.0 4765:1.0 3802:1.0 
-0.06157737871198294 1:5.0 2:6.0 28:1.0 43:1.0 4765:1.0 3802:1.0 
-0.07251631407140659 1:6.0 2:5.0 28:1.0 43:1.0 4765:1.0 4271:1.0 
-0.05487456387340007 1:6.0 2:5.0 28:1.0 43:1.0 11406:1.0 2337:1.0 
-0.04765566303559811 1:6.0 2:5.0 28:1.0 43:1.0 11406:1.0 2337:1.0 
-1.7581850296291213 1:1.0 2:0.0 51:1.0 52:1.0 14713:1.0 7350:1.0 
-0.5626044460542615 1:2.0 2:0.0 51:1.0 109:1.0 32232:1.0 4443:1.0 
-0.07847951421157719 1:5.0 2:0.0 51:1.0 43:1.0 5697:1.0 3898:1.0 
-43.14534832409865 1:3.0 2:0.0 51:1.0 43:1.0 12365:1.0 1742:1.0 
-1.223774881760762 1:3.0 2:0.0 51:1.0 52:1.0 8910:1.0 969:1.0 
-0.10574751902242473 1:6.0 2:3.0 76:1.0 43:1.0 85:1.0 2026:1.0 
-0.05032358042511471 1:4.0 2:2.0 76:1.0 92:1.0 578:1.0 131:1.0 
-0.7932238714986372 1:5.0 2:0.0 51:1.0 43:1.0 2347:1.0 32448:1.0 
-0.9874762948609296 1:3.0 2:0.0 51:1.0 43:1.0 15668:1.0 25387:1.0 
-0.5599034618138664 1:2.0 2:0.0 51:1.0 109:1.0 8830:1.0 539:1.0 
-0.7436681660319241 1:2.0 2:1.0 59:1.0 52:1.0 521:1.0 8855:1.0 
-0.11275716632571572 1:2.0 2:2.0 228:1.0 109:1.0 1926:1.0 4367:1.0 
-0.11089363151458685 1:2.0 2:2.0 228:1.0 109:1.0 1926:1.0 4367:1.0 
-0.545436525591494 1:4.0 2:0.0 51:1.0 43:1.0 4343:1.0 1930:1.0 
-0.39489195498678226 1:2.0 2:0.0 51:1.0 221:1.0 32697:1.0 31888:1.0 
-0.359184249031135 1:2.0 2:0.0 51:1.0 109:1.0 32728:1.0 200:1.0 
-0.4403963144479036 1:2.0 2:0.0 51:1.0 109:1.0 32728:1.0 4625:1.0 
-0.02250037996185384 1:4.0 2:0.0 51:1.0 109:1.0 32751:1.0 26105:1.0 
-0.3148375565832676 1:2.0 2:0.0 51:1.0 109:1.0 31069:1.0 16866:1.0 
-0.36339907651536085 1:2.0 2:0.0 51:1.0 109:1.0 31069:1.0 4505:1.0 
-1.0870732883279444 1:5.0 2:0.0 51:1.0 25:1.0 2664:1.0 18807:1.0 
-0.41246475570800956 1:3.0 2:0.0 51:1.0 25:1.0 18888:1.0 386:1.0 
-0.6286614628858611 1:2.0 2:0.0 51:1.0 25:1.0 32804:1.0 395:1.0 
-1.242142142752006 1:1.0 2:0.0 51:1.0 109:1.0 2664:1.0 1495:1.0 
-0.5031593749296887 1:1.0 2:0.0 51:1.0 109:1.0 32804:1.0 1495:1.0 
-5.123655327703944 1:2.0 2:0.0 51:1.0 109:1.0 5697:1.0 12326:1.0 
-4.324206494965349 1:3.0 2:0.0 51:1.0 25:1.0 3501:1.0 1860:1.0 
-0.09520212504141257 1:6.0 2:1.0 51:1.0 43:1.0 4136:1.0 334:1.0 
-0.7077984925938926 1:2.0 2:0.0 51:1.0 43:1.0 32915:1.0 1207:1.0 
-0.07855172335169976 1:4.0 2:2.0 76:1.0 43:1.0 923:1.0 16915:1.0 
-0.3866036145274955 1:3.0 2:0.0 51:1.0 221:1.0 32950:1.0 6462:1.0 
-2.2020370351369456 1:2.0 2:0.0 51:1.0 43:1.0 4343:1.0 16062:1.0 
-0.24268003104550384 1:7.0 2:0.0 51:1.0 43:1.0 1149:1.0 572:1.0 
-0.18917560965425273 1:2.0 2:0.0 51:1.0 52:1.0 5697:1.0 3420:1.0 
-1.1104431382645987 1:2.0 2:0.0 51:1.0 221:1.0 8006:1.0 3420:1.0 
-0.2172343362624062 1:2.0 2:0.0 51:1.0 221:1.0 13023:1.0 8348:1.0 
-0.28925871469224795 1:2.0 2:0.0 51:1.0 109:1.0 3415:1.0 697:1.0 
-1.0212131170688472 1:2.0 2:0.0 51:1.0 221:1.0 3240:1.0 7309:1.0 
-0.06599143425256619 1:5.0 2:0.0 51:1.0 25:1.0 33314:1.0 584:1.0 
-8.475425903730395 1:2.0 2:0.0 51:1.0 52:1.0 5697:1.0 170:1.0 
-4.775849489350515 1:6.0 2:1.0 51:1.0 25:1.0 319:1.0 388:1.0 
-1.0816288402683378 1:2.0 2:0.0 51:1.0 181:1.0 17056:1.0 182:1.0 
-0.16000549839393008 1:9.0 2:6.0 76:1.0 43:1.0 86:1.0 4857:1.0 
-0.011659389561390466 1:3.0 2:3.0 307:1.0 43:1.0 451:1.0 2337:1.0 
-0.9761252015091559 1:3.0 2:0.0 51:1.0 109:1.0 17105:1.0 6475:1.0 
-0.08172211944730175 1:4.0 2:3.0 76:1.0 52:1.0 86:1.0 12313:1.0 
-0.10941569403105382 1:8.0 2:4.0 228:1.0 25:1.0 1926:1.0 33506:1.0 
-0.3647347705716059 1:2.0 2:0.0 51:1.0 52:1.0 862:1.0 44:1.0 
-0.3556419034717422 1:4.0 2:2.0 76:1.0 43:1.0 1109:1.0 5948:1.0 
-0.8588183094753494 1:2.0 2:0.0 51:1.0 109:1.0 3240:1.0 3545:1.0 
-0.08077121421815725 1:3.0 2:1.0 76:1.0 52:1.0 86:1.0 22775:1.0 
-0.9785290376525585 1:2.0 2:0.0 51:1.0 109:1.0 3240:1.0 131:1.0 
-0.2181537303229138 1:4.0 2:1.0 51:1.0 92:1.0 903:1.0 388:1.0 
-0.336675494473966 1:4.0 2:0.0 51:1.0 92:1.0 22480:1.0 1860:1.0 
-0.4198827943974833 1:2.0 2:1.0 51:1.0 109:1.0 759:1.0 388:1.0 
-0.19685079935457478 1:6.0 2:3.0 228:1.0 43:1.0 18401:1.0 660:1.0 
-1.041741132458148 1:4.0 2:0.0 51:1.0 92:1.0 3955:1.0 44:1.0 
-0.08121191551669982 1:6.0 2:7.0 76:1.0 43:1.0 86:1.0 334:1.0 
-1.5806090819586036 1:6.0 2:7.0 76:1.0 43:1.0 86:1.0 334:1.0 
-1.8392515095681403 1:2.0 2:0.0 51:1.0 52:1.0 2543:1.0 115:1.0 
-0.6831987929970458 1:4.0 2:0.0 51:1.0 92:1.0 3342:1.0 44:1.0 
-0.13016258221058633 1:4.0 2:0.0 51:1.0 25:1.0 7128:1.0 44:1.0 
-0.48230532491444633 1:3.0 2:0.0 51:1.0 92:1.0 6790:1.0 44:1.0 
-0.8928571884729437 1:2.0 2:0.0 51:1.0 52:1.0 33138:1.0 15987:1.0 
-0.18077656023821753 1:4.0 2:0.0 51:1.0 92:1.0 9959:1.0 3687:1.0 
-1.0825485917837248 1:2.0 2:0.0 51:1.0 109:1.0 3240:1.0 302:1.0 
-0.06522733939299774 1:4.0 2:1.0 51:1.0 109:1.0 474:1.0 1860:1.0 
-0.3373566758417123 1:4.0 2:1.0 51:1.0 109:1.0 474:1.0 1860:1.0 
-0.5124063921541939 1:2.0 2:0.0 51:1.0 52:1.0 20254:1.0 2773:1.0 
-1.3052330296951618 1:3.0 2:0.0 51:1.0 52:1.0 505:1.0 4622:1.0 
-2.2113643850740785 1:2.0 2:0.0 51:1.0 52:1.0 2347:1.0 44:1.0 
-3.9326484436476554 1:2.0 2:0.0 51:1.0 221:1.0 505:1.0 4622:1.0 
-1.090272361822771 1:1.0 2:0.0 51:1.0 109:1.0 18848:1.0 10741:1.0 
-0.2179059065257419 1:4.0 2:2.0 76:1.0 92:1.0 84:1.0 22838:1.0 
-0.2220957978860564 1:4.0 2:1.0 51:1.0 92:1.0 2631:1.0 2277:1.0 
-0.7147254585607133 1:2.0 2:0.0 51:1.0 221:1.0 34140:1.0 359:1.0 
-0.13185644324925333 1:8.0 2:2.0 51:1.0 43:1.0 34146:1.0 28989:1.0 
-11.436298620705207 1:4.0 2:4.0 76:1.0 43:1.0 86:1.0 44:1.0 
-0.6626927794003822 1:2.0 2:0.0 51:1.0 221:1.0 9959:1.0 774:1.0 
-33.01239614723784 1:3.0 2:0.0 51:1.0 52:1.0 505:1.0 4622:1.0 
-0.38025062908981744 1:4.0 2:0.0 51:1.0 43:1.0 8344:1.0 7459:1.0 
-0.22060835057524286 1:2.0 2:0.0 51:1.0 81:1.0 8100:1.0 83:1.0 
-0.4888956352259683 1:3.0 2:0.0 51:1.0 52:1.0 4905:1.0 408:1.0 
-0.09975540545557089 1:3.0 2:0.0 51:1.0 181:1.0 9653:1.0 1382:1.0 
-1.1432834813070492 1:2.0 2:0.0 51:1.0 52:1.0 7449:1.0 4661:1.0 
-0.679883749178739 1:2.0 2:1.0 51:1.0 109:1.0 903:1.0 1660:1.0 
-0.40262968945570965 1:3.0 2:0.0 51:1.0 52:1.0 34456:1.0 3995:1.0 
-0.18827041208536638 1:4.0 2:4.0 76:1.0 25:1.0 86:1.0 11689:1.0 
-0.022730934706345768 1:4.0 2:4.0 76:1.0 25:1.0 86:1.0 11689:1.0 
-0.7152016769573827 1:4.0 2:4.0 76:1.0 25:1.0 86:1.0 11689:1.0 
-1.6777357702062725 1:2.0 2:0.0 51:1.0 52:1.0 3443:1.0 44:1.0 
-0.3995446265958175 1:3.0 2:0.0 51:1.0 52:1.0 34562:1.0 1948:1.0 
-0.9179242627811302 1:2.0 2:0.0 51:1.0 81:1.0 8095:1.0 83:1.0 
-0.6201733177384295 1:5.0 2:0.0 51:1.0 43:1.0 15668:1.0 34591:1.0 
-3.558261739755963 1:1.0 2:0.0 51:1.0 52:1.0 8100:1.0 388:1.0 
-0.4950099880097507 1:3.0 2:0.0 51:1.0 25:1.0 4445:1.0 1209:1.0 
-1.6657077362829034 1:2.0 2:0.0 51:1.0 52:1.0 7984:1.0 273:1.0 
-3.8987529633603546 1:2.0 2:1.0 76:1.0 92:1.0 701:1.0 8857:1.0 
-1.9461352039300575 1:5.0 2:6.0 76:1.0 92:1.0 86:1.0 1165:1.0 
-3.861800725497679 1:1.0 2:0.0 76:1.0 52:1.0 701:1.0 7304:1.0 
-0.2596647385083867 1:3.0 2:0.0 51:1.0 109:1.0 34665:1.0 3197:1.0 
-0.44911666462716343 1:4.0 2:0.0 51:1.0 25:1.0 6839:1.0 853:1.0 
-0.17535514277682115 1:3.0 2:2.0 76:1.0 25:1.0 266:1.0 6475:1.0 
-0.12171456660664012 1:3.0 2:2.0 76:1.0 25:1.0 266:1.0 6475:1.0 
-0.03352170422273599 1:4.0 2:2.0 76:1.0 92:1.0 873:1.0 6240:1.0 
-1.2782717218505302 1:3.0 2:0.0 51:1.0 25:1.0 3510:1.0 44:1.0 
-0.4107928049035959 1:2.0 2:0.0 51:1.0 52:1.0 14877:1.0 44:1.0 
-0.33746045482717046 1:4.0 2:0.0 51:1.0 221:1.0 34823:1.0 1456:1.0 
-0.46687127769153014 1:4.0 2:4.0 228:1.0 221:1.0 1161:1.0 1456:1.0 
-0.038586365422322105 1:1.0 2:0.0 51:1.0 109:1.0 1084:1.0 241:1.0 
-0.2222801208441394 1:5.0 2:2.0 51:1.0 25:1.0 34898:1.0 388:1.0 
-0.0755746762591261 1:4.0 2:2.0 76:1.0 43:1.0 701:1.0 964:1.0 
-0.306068121920824 1:4.0 2:2.0 76:1.0 43:1.0 701:1.0 964:1.0 
-0.0898558642752113 1:3.0 2:2.0 76:1.0 43:1.0 701:1.0 1139:1.0 
-0.011633429151562194 1:5.0 2:2.0 76:1.0 43:1.0 84:1.0 241:1.0 
-0.46798159111582 1:3.0 2:0.0 51:1.0 181:1.0 16771:1.0 251:1.0 
-0.05539536816214905 1:7.0 2:6.0 228:1.0 25:1.0 4624:1.0 1439:1.0 
-0.06023775704697727 1:7.0 2:6.0 228:1.0 25:1.0 4624:1.0 1439:1.0 
-1.2913618725046723 1:2.0 2:0.0 51:1.0 52:1.0 3240:1.0 12047:1.0 
-0.48766826751666703 1:3.0 2:0.0 51:1.0 43:1.0 4343:1.0 44:1.0 
-0.35476625318038923 1:1.0 2:0.0 51:1.0 221:1.0 6173:1.0 12047:1.0 
-0.3763136093623904 1:5.0 2:1.0 59:1.0 43:1.0 1181:1.0 87:1.0 
-0.04271819220358822 1:5.0 2:1.0 76:1.0 43:1.0 77:1.0 87:1.0 
-0.11968346867050743 1:6.0 2:1.0 51:1.0 43:1.0 903:1.0 87:1.0 
-0.7970666186506931 1:4.0 2:0.0 51:1.0 43:1.0 29583:1.0 87:1.0 
-0.20363734281708637 1:1.0 2:1.0 70:1.0 52:1.0 6167:1.0 4225:1.0 
-1.7615352771778534 1:1.0 2:0.0 51:1.0 52:1.0 35285:1.0 5650:1.0 
-0.11146195518127705 1:8.0 2:5.0 307:1.0 25:1.0 13207:1.0 445:1.0 
-1.7798724203463572 1:1.0 2:0.0 51:1.0 52:1.0 35287:1.0 1313:1.0 
-0.3495791556450081 1:4.0 2:0.0 51:1.0 221:1.0 19496:1.0 2375:1.0 
-0.5438699742812532 1:3.0 2:0.0 51:1.0 92:1.0 505:1.0 44:1.0 
-0.946069707738589 1:1.0 2:1.0 51:1.0 52:1.0 903:1.0 27:1.0 
-0.8679439909719554 1:4.0 2:0.0 51:1.0 92:1.0 12517:1.0 191:1.0 
-1.861113239279308 1:2.0 2:0.0 51:1.0 52:1.0 8334:1.0 539:1.0 
-3.34170935605787 1:2.0 2:0.0 51:1.0 109:1.0 5697:1.0 13516:1.0 
-86.29283045594232 1:7.0 2:1.0 76:1.0 92:1.0 701:1.0 115:1.0 
-0.8022453155662977 1:2.0 2:0.0 51:1.0 52:1.0 20254:1.0 18570:1.0 
-1.7034812318923331 1:1.0 2:0.0 51:1.0 52:1.0 411:1.0 1783:1.0 
-1.024417314911674 1:3.0 2:0.0 51:1.0 43:1.0 2144:1.0 44:1.0 
-189.22314158655396 1:7.0 2:2.0 76:1.0 92:1.0 701:1.0 115:1.0 
-1.3137554077660771 1:3.0 2:0.0 51:1.0 52:1.0 8095:1.0 191:1.0 
-0.38150573297196205 1:4.0 2:0.0 51:1.0 43:1.0 21223:1.0 1375:1.0 
-0.3257184792209714 1:6.0 2:1.0 76:1.0 92:1.0 84:1.0 13765:1.0 
-0.8862804292293085 1:3.0 2:0.0 51:1.0 43:1.0 18848:1.0 7309:1.0 
-0.5832219298612894 1:2.0 2:0.0 51:1.0 109:1.0 6790:1.0 9272:1.0 
-0.03370372681038833 1:6.0 2:0.0 51:1.0 92:1.0 35687:1.0 4622:1.0 
-1.050732092620837 1:1.0 2:0.0 51:1.0 221:1.0 1071:1.0 20902:1.0 
-0.5646143626219142 1:2.0 2:0.0 51:1.0 109:1.0 35974:1.0 2142:1.0 
-1.4696853516291617 1:1.0 2:0.0 51:1.0 52:1.0 1071:1.0 539:1.0 
-0.6062138775791549 1:2.0 2:0.0 51:1.0 109:1.0 22415:1.0 7350:1.0 
-0.7294946494155202 1:4.0 2:0.0 51:1.0 43:1.0 6790:1.0 115:1.0 
-0.31517466752865747 1:3.0 2:1.0 76:1.0 52:1.0 1109:1.0 131:1.0 
-1.427083453887102 1:2.0 2:0.0 51:1.0 52:1.0 14877:1.0 44:1.0 
-500.0 1:2.0 2:0.0 51:1.0 52:1.0 6790:1.0 241:1.0 
-1.0988727353534817 1:2.0 2:0.0 51:1.0 109:1.0 3510:1.0 767:1.0 
-0.07909283085042712 1:4.0 2:2.0 76:1.0 92:1.0 86:1.0 690:1.0 
-30.565017956836915 1:3.0 2:0.0 51:1.0 109:1.0 17105:1.0 6475:1.0 
-1.119003439447578 1:2.0 2:0.0 51:1.0 109:1.0 9225:1.0 388:1.0 
-0.06706462650119607 1:3.0 2:6.0 88:1.0 81:1.0 89:1.0 83:1.0 
-0.49712597610789666 1:2.0 2:1.0 59:1.0 52:1.0 1181:1.0 853:1.0 
-0.23271285837599195 1:3.0 2:0.0 51:1.0 181:1.0 26387:1.0 6372:1.0 
-0.39329947778266644 1:3.0 2:2.0 76:1.0 43:1.0 701:1.0 660:1.0 
-0.7484863531316344 1:1.0 2:1.0 51:1.0 52:1.0 2631:1.0 3373:1.0 
-0.5821529468766786 1:3.0 2:2.0 76:1.0 25:1.0 86:1.0 7809:1.0 
-0.15233707156986476 1:3.0 2:1.0 51:1.0 52:1.0 1870:1.0 2619:1.0 
-0.7970602240119053 1:2.0 2:0.0 51:1.0 52:1.0 32697:1.0 6086:1.0 
-0.7545175026002946 1:3.0 2:1.0 51:1.0 221:1.0 1260:1.0 7998:1.0 
-0.844014044319038 1:1.0 2:1.0 51:1.0 52:1.0 15444:1.0 725:1.0 
-0.806164381713016 1:1.0 2:0.0 51:1.0 109:1.0 36795:1.0 363:1.0 
-0.24629284817178315 1:5.0 2:4.0 76:1.0 92:1.0 86:1.0 10077:1.0 
-0.3632422846010562 1:6.0 2:0.0 51:1.0 43:1.0 8006:1.0 1930:1.0 
-0.06652448785939687 1:6.0 2:1.0 51:1.0 43:1.0 190:1.0 1930:1.0 
-0.1410431060937115 1:6.0 2:1.0 51:1.0 43:1.0 190:1.0 1930:1.0 
-0.7854089342524382 1:4.0 2:0.0 51:1.0 25:1.0 7128:1.0 44:1.0 
-2.202423444709044 1:1.0 2:0.0 51:1.0 52:1.0 13023:1.0 8348:1.0 
-3.583259006631478 1:5.0 2:2.0 51:1.0 43:1.0 16771:1.0 4839:1.0 
-0.11464381921178882 1:5.0 2:0.0 51:1.0 25:1.0 3342:1.0 938:1.0 
-1.4077775170034506 1:2.0 2:0.0 51:1.0 52:1.0 3240:1.0 1079:1.0 
-1.8210510106033824 1:2.0 2:0.0 51:1.0 221:1.0 6900:1.0 2750:1.0 
-0.4854597657043023 1:4.0 2:0.0 51:1.0 43:1.0 37254:1.0 1860:1.0 
-0.024172950659948983 1:3.0 2:2.0 51:1.0 25:1.0 37265:1.0 1860:1.0 
-0.9013676760315624 1:3.0 2:0.0 51:1.0 109:1.0 16526:1.0 10549:1.0 
-0.5022775279562949 1:2.0 2:0.0 51:1.0 81:1.0 20245:1.0 83:1.0 
-0.9468126475431229 1:2.0 2:0.0 51:1.0 52:1.0 6783:1.0 2363:1.0 
-1.3282500119338714 1:3.0 2:1.0 51:1.0 221:1.0 11765:1.0 4387:1.0 
-0.447738501103657 1:4.0 2:0.0 51:1.0 109:1.0 17056:1.0 7861:1.0 
-0.5140888352282951 1:3.0 2:0.0 51:1.0 221:1.0 37261:1.0 1730:1.0 
-1.8842213437307103 1:2.0 2:0.0 51:1.0 109:1.0 9035:1.0 1819:1.0 
-0.16737889443178527 1:4.0 2:4.0 76:1.0 43:1.0 84:1.0 471:1.0 
-1.3876410342739847 1:2.0 2:0.0 51:1.0 25:1.0 3342:1.0 3343:1.0 
-0.9242916927680279 1:3.0 2:0.0 51:1.0 43:1.0 4316:1.0 948:1.0 
-0.4789528659849732 1:4.0 2:0.0 51:1.0 92:1.0 9471:1.0 44:1.0 
-0.859964803708463 1:3.0 2:0.0 51:1.0 43:1.0 22044:1.0 8181:1.0 
-0.03808008946432984 1:4.0 2:0.0 51:1.0 43:1.0 5697:1.0 3898:1.0 
-0.536860080867181 1:2.0 2:0.0 51:1.0 221:1.0 21913:1.0 4331:1.0 
-0.023809581560567283 1:2.0 2:1.0 51:1.0 109:1.0 6718:1.0 2375:1.0 
-1.3602328540089699 1:4.0 2:0.0 51:1.0 221:1.0 8864:1.0 11118:1.0 
-0.3293599828100048 1:2.0 2:1.0 51:1.0 221:1.0 12997:1.0 1651:1.0 
-0.27191849693752645 1:6.0 2:1.0 59:1.0 92:1.0 1181:1.0 28938:1.0 
-0.9964181565772722 1:2.0 2:1.0 51:1.0 52:1.0 3510:1.0 7165:1.0 
-0.5109015829271205 1:4.0 2:1.0 51:1.0 92:1.0 453:1.0 1313:1.0 
-1.2904624686488515 1:1.0 2:0.0 51:1.0 52:1.0 12883:1.0 10618:1.0 
-0.045069465814145095 1:4.0 2:0.0 51:1.0 109:1.0 37906:1.0 4225:1.0 
-0.816655974011876 1:3.0 2:0.0 51:1.0 52:1.0 31318:1.0 217:1.0 
-0.38884687446954114 1:3.0 2:0.0 51:1.0 52:1.0 12741:1.0 170:1.0 
-0.5791200525398665 1:3.0 2:0.0 51:1.0 43:1.0 16459:1.0 15501:1.0 
-0.34159842872028345 1:4.0 2:0.0 51:1.0 92:1.0 4445:1.0 9854:1.0 
-1.2279977800384507 1:3.0 2:0.0 51:1.0 25:1.0 24167:1.0 38047:1.0 
-0.7864454826521533 1:2.0 2:0.0 51:1.0 25:1.0 38048:1.0 14240:1.0 
-0.7144795742356665 1:2.0 2:0.0 51:1.0 221:1.0 24386:1.0 853:1.0 
-6.917874095204342 1:3.0 2:0.0 51:1.0 92:1.0 488:1.0 4857:1.0 
-1.0930984916353919 1:1.0 2:1.0 51:1.0 52:1.0 759:1.0 15393:1.0 
-0.2984726469241558 1:3.0 2:0.0 51:1.0 25:1.0 754:1.0 18029:1.0 
-0.11929925002466191 1:2.0 2:1.0 70:1.0 25:1.0 6167:1.0 2858:1.0 
-0.6404984882098317 1:2.0 2:0.0 51:1.0 52:1.0 4410:1.0 12480:1.0 
-1.0458743378985185 1:2.0 2:0.0 51:1.0 221:1.0 319:1.0 388:1.0 
-1.6666667726304847 1:2.0 2:0.0 51:1.0 109:1.0 16822:1.0 818:1.0 
-0.7437586285326349 1:1.0 2:0.0 51:1.0 109:1.0 22387:1.0 1495:1.0 
-0.8336967967033703 1:1.0 2:0.0 51:1.0 221:1.0 13023:1.0 15549:1.0 
-1.4626727062020721 1:2.0 2:0.0 51:1.0 221:1.0 10102:1.0 4622:1.0 
-0.84054959410849 1:2.0 2:0.0 51:1.0 52:1.0 3240:1.0 4992:1.0 
-1.48781780101696 1:2.0 2:0.0 51:1.0 52:1.0 27840:1.0 6086:1.0 
-0.661995029136662 1:2.0 2:0.0 51:1.0 221:1.0 6301:1.0 18654:1.0 
-0.33680708548189764 1:4.0 2:2.0 76:1.0 43:1.0 701:1.0 2233:1.0 
-0.6436784069657108 1:1.0 2:1.0 76:1.0 52:1.0 701:1.0 4298:1.0 
-0.3332771684889447 1:4.0 2:0.0 51:1.0 92:1.0 38727:1.0 4589:1.0 
-0.3437410716883243 1:4.0 2:0.0 51:1.0 109:1.0 2543:1.0 2803:1.0 
-1.0395530942568556 1:4.0 2:0.0 51:1.0 43:1.0 2347:1.0 4331:1.0 
-0.595442042789692 1:6.0 2:0.0 51:1.0 43:1.0 2469:1.0 5918:1.0 
-0.5972413308946388 1:4.0 2:5.0 76:1.0 92:1.0 701:1.0 1456:1.0 
-3.0820004792960236 1:2.0 2:1.0 51:1.0 52:1.0 505:1.0 718:1.0 
-0.5082063610874004 1:2.0 2:0.0 51:1.0 221:1.0 32950:1.0 3553:1.0 
-0.2679482289903593 1:3.0 2:1.0 76:1.0 43:1.0 84:1.0 1742:1.0 
-0.7063992821053546 1:2.0 2:1.0 51:1.0 52:1.0 4136:1.0 2108:1.0 
-1.4296249959604703 1:2.0 2:0.0 51:1.0 221:1.0 8311:1.0 4030:1.0 
-0.3376784371291941 1:4.0 2:0.0 51:1.0 92:1.0 38870:1.0 1036:1.0 
-0.1178830507163179 1:5.0 2:1.0 59:1.0 43:1.0 415:1.0 758:1.0 
-1.323270419480541 1:7.0 2:1.0 76:1.0 92:1.0 86:1.0 11385:1.0 
-0.34778520362864435 1:4.0 2:0.0 51:1.0 92:1.0 22225:1.0 1036:1.0 
-0.7645275412229134 1:5.0 2:0.0 51:1.0 43:1.0 5697:1.0 2851:1.0 
-0.18893622873139165 1:6.0 2:9.0 76:1.0 25:1.0 86:1.0 3545:1.0 
-0.04165790290387373 1:6.0 2:0.0 51:1.0 43:1.0 26085:1.0 191:1.0 
-0.9649271637882545 1:3.0 2:1.0 76:1.0 92:1.0 84:1.0 2735:1.0 
-0.8728235853745289 1:4.0 2:2.0 51:1.0 52:1.0 3510:1.0 11485:1.0 
-4.030208232201881 1:5.0 2:2.0 76:1.0 25:1.0 267:1.0 2201:1.0 
-0.8834448173172017 1:3.0 2:0.0 51:1.0 109:1.0 16822:1.0 6086:1.0 
-1.2955431805335886 1:4.0 2:2.0 51:1.0 221:1.0 3510:1.0 16998:1.0 
-0.41641262181030636 1:4.0 2:1.0 76:1.0 25:1.0 86:1.0 27:1.0 
-0.5037598212028258 1:3.0 2:1.0 76:1.0 92:1.0 157:1.0 1860:1.0 
-0.3067091175969058 1:1.0 2:0.0 51:1.0 109:1.0 13023:1.0 253:1.0 
-0.1645574025456046 1:2.0 2:0.0 51:1.0 109:1.0 6301:1.0 115:1.0 
-0.27690782139040404 1:4.0 2:5.0 76:1.0 25:1.0 86:1.0 4403:1.0 
-0.35286123645057255 1:4.0 2:0.0 51:1.0 181:1.0 16526:1.0 251:1.0 
-6.055900799591078 1:6.0 2:4.0 76:1.0 43:1.0 86:1.0 200:1.0 
-3.6010567622535117 1:6.0 2:4.0 76:1.0 43:1.0 86:1.0 200:1.0 
-0.048934952137891556 1:4.0 2:1.0 59:1.0 25:1.0 1181:1.0 28938:1.0 
-0.244279564905962 1:3.0 2:1.0 51:1.0 52:1.0 1202:1.0 388:1.0 
-0.22634975715364952 1:2.0 2:0.0 51:1.0 109:1.0 8256:1.0 767:1.0 
-0.30001672074575264 1:3.0 2:7.0 4:1.0 52:1.0 657:1.0 577:1.0 
-0.8421311713042805 1:3.0 2:0.0 51:1.0 109:1.0 3510:1.0 131:1.0 
-0.12561851139986324 1:4.0 2:2.0 76:1.0 92:1.0 84:1.0 3927:1.0 
-0.09559819724245347 1:4.0 2:2.0 76:1.0 92:1.0 84:1.0 3927:1.0 
-1.537590778368967 1:2.0 2:1.0 51:1.0 52:1.0 112:1.0 6416:1.0 
-0.9478708107152943 1:2.0 2:0.0 51:1.0 52:1.0 15445:1.0 1860:1.0 
-0.05635501739681323 1:5.0 2:1.0 76:1.0 43:1.0 7189:1.0 2201:1.0 
-1.4311272332725096 1:2.0 2:0.0 51:1.0 52:1.0 3240:1.0 463:1.0 
-0.7681660924641401 1:3.0 2:0.0 51:1.0 109:1.0 23550:1.0 1207:1.0 
-0.34726135517492734 1:5.0 2:0.0 51:1.0 25:1.0 12517:1.0 44:1.0 
-0.713320272662306 1:1.0 2:0.0 51:1.0 109:1.0 27840:1.0 15393:1.0 
-0.15594931635962717 1:5.0 2:3.0 76:1.0 43:1.0 84:1.0 5797:1.0 
-0.7150353207019503 1:2.0 2:0.0 51:1.0 221:1.0 39730:1.0 38302:1.0 
-8.28066606759277 1:2.0 2:1.0 76:1.0 109:1.0 701:1.0 115:1.0 
-0.6314376088042164 1:2.0 2:0.0 51:1.0 109:1.0 39780:1.0 8487:1.0 
-0.33158390471102117 1:3.0 2:0.0 51:1.0 43:1.0 8290:1.0 388:1.0 
-0.5208333747254508 1:3.0 2:0.0 51:1.0 92:1.0 39819:1.0 44:1.0 
-0.7051383541135522 1:2.0 2:0.0 51:1.0 52:1.0 3415:1.0 461:1.0 
-0.212850749054268 1:6.0 2:0.0 51:1.0 43:1.0 39861:1.0 4331:1.0 
-0.5869392573092136 1:2.0 2:0.0 51:1.0 81:1.0 2664:1.0 83:1.0 
-0.12399706155999286 1:5.0 2:3.0 76:1.0 43:1.0 86:1.0 2158:1.0 
-0.8529165797418001 1:3.0 2:1.0 51:1.0 221:1.0 16056:1.0 6240:1.0 
-2.6022919165907203 1:2.0 2:0.0 51:1.0 52:1.0 2839:1.0 32756:1.0 
-0.3151220053479656 1:2.0 2:1.0 62:1.0 52:1.0 25213:1.0 680:1.0 
-0.6414640317558273 1:5.0 2:1.0 51:1.0 221:1.0 6512:1.0 4683:1.0 
-0.10148406410210856 1:6.0 2:6.0 76:1.0 43:1.0 86:1.0 16307:1.0 
-0.346126923646702 1:2.0 2:0.0 51:1.0 109:1.0 3415:1.0 131:1.0 
-1.5625000349245974 1:1.0 2:0.0 51:1.0 52:1.0 19249:1.0 131:1.0 
-0.1991012707341518 1:2.0 2:0.0 51:1.0 221:1.0 17056:1.0 44:1.0 
-1.3188438453778069 1:2.0 2:0.0 51:1.0 221:1.0 17056:1.0 44:1.0 
-0.024490098102913232 1:6.0 2:0.0 51:1.0 92:1.0 9160:1.0 688:1.0 
-0.013936416400561561 1:4.0 2:8.0 228:1.0 92:1.0 2830:1.0 5912:1.0 
-0.2979721724331766 1:2.0 2:0.0 51:1.0 81:1.0 2144:1.0 83:1.0 
-0.8812076170162301 1:4.0 2:0.0 51:1.0 92:1.0 12707:1.0 1512:1.0 
-0.6088123961936635 1:4.0 2:3.0 76:1.0 92:1.0 86:1.0 742:1.0 
-2.811127130011239 1:4.0 2:3.0 76:1.0 92:1.0 86:1.0 742:1.0 
-0.753981211513104 1:2.0 2:0.0 51:1.0 109:1.0 2144:1.0 4280:1.0 
-0.6514583968225953 1:1.0 2:0.0 51:1.0 109:1.0 3510:1.0 40108:1.0 
-0.7657927091604702 1:3.0 2:0.0 51:1.0 181:1.0 2839:1.0 1382:1.0 
-0.534039377872668 1:3.0 2:0.0 51:1.0 181:1.0 2839:1.0 1070:1.0 
-3.8501317724210655 1:1.0 2:1.0 76:1.0 52:1.0 701:1.0 2519:1.0 
-0.519791530146887 1:4.0 2:0.0 51:1.0 43:1.0 40179:1.0 44:1.0 
-1.0058798343960211 1:2.0 2:0.0 51:1.0 52:1.0 15054:1.0 2826:1.0 
-0.032297072077256836 1:1.0 2:2.0 88:1.0 52:1.0 89:1.0 1159:1.0 
-0.4483506839440918 1:1.0 2:2.0 88:1.0 52:1.0 89:1.0 1159:1.0 
-1.736682854266446 1:1.0 2:0.0 51:1.0 52:1.0 20746:1.0 27:1.0 
-2.0296238443656835 1:2.0 2:0.0 51:1.0 221:1.0 19899:1.0 3667:1.0 
-1.6108945346257988 1:2.0 2:0.0 51:1.0 52:1.0 5023:1.0 131:1.0 
-1.1483230597792127 1:2.0 2:0.0 51:1.0 109:1.0 3510:1.0 12240:1.0 
-0.24643205195848192 1:3.0 2:2.0 51:1.0 109:1.0 1592:1.0 334:1.0 
-1.6421009522920933 1:2.0 2:0.0 51:1.0 109:1.0 4343:1.0 273:1.0 
-0.9443308968026989 1:3.0 2:1.0 76:1.0 92:1.0 84:1.0 3647:1.0 
-0.33415179577004944 1:3.0 2:0.0 51:1.0 221:1.0 8290:1.0 388:1.0 
-0.17876715545440097 1:4.0 2:5.0 51:1.0 52:1.0 26085:1.0 2826:1.0 
-0.7415539049102423 1:2.0 2:0.0 51:1.0 52:1.0 4410:1.0 3310:1.0 
-1.5654974973785418 1:2.0 2:0.0 51:1.0 52:1.0 3240:1.0 5377:1.0 
-0.3714506266737215 1:3.0 2:0.0 51:1.0 109:1.0 2144:1.0 27:1.0 
-0.025835220094268516 1:2.0 2:1.0 51:1.0 109:1.0 18100:1.0 3553:1.0 
-0.05073288723590983 1:6.0 2:2.0 76:1.0 92:1.0 701:1.0 30582:1.0 
-0.7104601879204518 1:3.0 2:1.0 51:1.0 25:1.0 13023:1.0 803:1.0 
-2.001727283128385 1:2.0 2:0.0 51:1.0 52:1.0 7447:1.0 4895:1.0 
-0.27320127501187486 1:4.0 2:0.0 51:1.0 92:1.0 24908:1.0 5918:1.0 
-15.125189561641289 1:2.0 2:0.0 51:1.0 52:1.0 862:1.0 2619:1.0 
-0.2124385191981405 1:6.0 2:0.0 51:1.0 43:1.0 40715:1.0 2511:1.0 
-1.3679134396542971 1:4.0 2:0.0 51:1.0 43:1.0 21693:1.0 395:1.0 
-1.04694598123243 1:2.0 2:0.0 51:1.0 52:1.0 3240:1.0 3241:1.0 
-0.5038804913887271 1:2.0 2:0.0 51:1.0 81:1.0 7447:1.0 83:1.0 
-1.2211807779665673 1:4.0 2:0.0 51:1.0 43:1.0 11765:1.0 4331:1.0 
-0.30118735752513087 1:3.0 2:3.0 76:1.0 25:1.0 86:1.0 3054:1.0 
-0.5254525652607956 1:3.0 2:0.0 51:1.0 92:1.0 40975:1.0 2163:1.0 
-0.4505412371162923 1:3.0 2:0.0 51:1.0 25:1.0 40981:1.0 1036:1.0 
-0.30327948668697563 1:3.0 2:0.0 51:1.0 109:1.0 38250:1.0 6094:1.0 
-1.0175703944043066 1:1.0 2:0.0 51:1.0 109:1.0 38250:1.0 8680:1.0 
-0.42852494696059773 1:4.0 2:1.0 51:1.0 92:1.0 77:1.0 115:1.0 
-0.9000158584202154 1:4.0 2:1.0 51:1.0 92:1.0 77:1.0 115:1.0 
-1.4681050447703323 1:3.0 2:0.0 51:1.0 43:1.0 16526:1.0 14837:1.0 
-0.8025369692663706 1:2.0 2:0.0 51:1.0 109:1.0 13023:1.0 742:1.0 
-1.834349092428951 1:1.0 2:0.0 51:1.0 109:1.0 7447:1.0 2222:1.0 
-0.5364864395326525 1:1.0 2:1.0 8:1.0 52:1.0 41068:1.0 5669:1.0 
-0.7637427710700189 1:1.0 2:0.0 51:1.0 109:1.0 41116:1.0 2350:1.0 
-0.2401311873529199 1:3.0 2:0.0 51:1.0 43:1.0 5367:1.0 18984:1.0 
-0.9720270119527343 1:3.0 2:0.0 51:1.0 221:1.0 6029:1.0 320:1.0 
-0.10020272453150741 1:4.0 2:1.0 76:1.0 43:1.0 923:1.0 320:1.0 
-0.3366232806960746 1:4.0 2:1.0 51:1.0 221:1.0 903:1.0 6853:1.0 
-1.4988622795923547 1:3.0 2:0.0 51:1.0 43:1.0 11765:1.0 3916:1.0 
-0.1712060199710294 1:7.0 2:0.0 51:1.0 43:1.0 7541:1.0 15393:1.0 
-1.8601703932396427 1:2.0 2:0.0 51:1.0 52:1.0 7447:1.0 13900:1.0 
-0.5355260378376829 1:3.0 2:1.0 51:1.0 43:1.0 319:1.0 557:1.0 
-0.16744433157520805 1:3.0 2:0.0 51:1.0 52:1.0 40975:1.0 1225:1.0 
-0.735229243834984 1:4.0 2:1.0 76:1.0 92:1.0 84:1.0 27:1.0 
-0.5861554678389834 1:3.0 2:0.0 51:1.0 43:1.0 29506:1.0 5650:1.0 
-2.634511537076835 1:1.0 2:0.0 51:1.0 52:1.0 4136:1.0 9104:1.0 
-5.829060134308061 1:3.0 2:0.0 51:1.0 109:1.0 488:1.0 8348:1.0 
-0.730311755531239 1:2.0 2:0.0 307:1.0 109:1.0 13207:1.0 2386:1.0 
-0.03936859963087086 1:3.0 2:1.0 51:1.0 92:1.0 1260:1.0 1313:1.0 
-0.15724764789067103 1:7.0 2:3.0 76:1.0 43:1.0 1109:1.0 386:1.0 
-0.6731321691245108 1:1.0 2:0.0 51:1.0 109:1.0 3510:1.0 10931:1.0 
-0.9764468896080409 1:2.0 2:1.0 51:1.0 52:1.0 12997:1.0 131:1.0 
-6.063329667997907 1:2.0 2:0.0 51:1.0 221:1.0 10102:1.0 577:1.0 
-0.4427947660666827 1:2.0 2:1.0 51:1.0 109:1.0 6776:1.0 5571:1.0 
-1.236457971594401 1:2.0 2:0.0 51:1.0 109:1.0 6776:1.0 2750:1.0 
-1.264426904201604 1:1.0 2:0.0 51:1.0 52:1.0 1084:1.0 131:1.0 
-0.8127777633934963 1:2.0 2:0.0 51:1.0 221:1.0 4866:1.0 2826:1.0 
-1.3516059544671346 1:2.0 2:0.0 51:1.0 221:1.0 7447:1.0 1225:1.0 
-0.4400978707328299 1:3.0 2:0.0 51:1.0 52:1.0 6790:1.0 115:1.0 
-1.7217577213734974 1:3.0 2:0.0 51:1.0 43:1.0 12608:1.0 489:1.0 
-1.5142853648273353 1:2.0 2:0.0 51:1.0 52:1.0 9148:1.0 44:1.0 
-2.591845445716249 1:8.0 2:0.0 51:1.0 43:1.0 5697:1.0 12237:1.0 
-0.15581046055847214 1:5.0 2:0.0 51:1.0 43:1.0 813:1.0 388:1.0 
-0.2875978367783164 1:4.0 2:0.0 51:1.0 109:1.0 23550:1.0 2486:1.0 
-0.1673627305083129 1:7.0 2:1.0 51:1.0 43:1.0 453:1.0 19017:1.0 
-1.090905059513 1:3.0 2:0.0 51:1.0 43:1.0 29093:1.0 4978:1.0 
-0.439822354055048 1:2.0 2:0.0 51:1.0 109:1.0 6790:1.0 4589:1.0 
-0.46435153407151764 1:2.0 2:0.0 51:1.0 52:1.0 13510:1.0 395:1.0 
-1.1471560598784916 1:2.0 2:0.0 51:1.0 109:1.0 3510:1.0 8548:1.0 
-1.6564002686520247 1:1.0 2:0.0 51:1.0 52:1.0 4141:1.0 2108:1.0 
-1.2389465892279619 1:4.0 2:0.0 51:1.0 43:1.0 3510:1.0 2386:1.0 
-0.667898684196655 1:3.0 2:0.0 51:1.0 109:1.0 4343:1.0 2386:1.0 
-0.9171960595398494 1:2.0 2:0.0 51:1.0 109:1.0 27919:1.0 5425:1.0 
-1.0967011114085294 1:2.0 2:0.0 51:1.0 52:1.0 7449:1.0 3890:1.0 
-0.6615003768031693 1:1.0 2:0.0 51:1.0 109:1.0 3510:1.0 2240:1.0 
-1.5102870757526208 1:1.0 2:0.0 51:1.0 221:1.0 3906:1.0 6475:1.0 
-0.4506511808870278 1:3.0 2:0.0 51:1.0 109:1.0 2144:1.0 13869:1.0 
-0.8178000813261633 1:4.0 2:0.0 51:1.0 43:1.0 9653:1.0 7002:1.0 
-1.0000002288818874 1:3.0 2:0.0 51:1.0 221:1.0 8006:1.0 6551:1.0 
-1.5651261800671399 1:2.0 2:0.0 51:1.0 52:1.0 4905:1.0 1677:1.0 
-0.05892448315799214 1:4.0 2:1.0 51:1.0 109:1.0 12997:1.0 1819:1.0 
-0.19949569985405247 1:4.0 2:0.0 51:1.0 221:1.0 23512:1.0 598:1.0 
-0.014786491169456158 1:2.0 2:1.0 59:1.0 221:1.0 4019:1.0 2375:1.0 
-0.14591802934455342 1:2.0 2:1.0 59:1.0 221:1.0 4019:1.0 2375:1.0 
-0.33341960474855753 1:2.0 2:1.0 59:1.0 221:1.0 4019:1.0 2375:1.0 
-1.1977395086486426 1:1.0 2:1.0 51:1.0 52:1.0 903:1.0 6201:1.0 
-2.565908042754419 1:1.0 2:0.0 51:1.0 52:1.0 4866:1.0 27:1.0 
-1.458010300338224 1:2.0 2:0.0 51:1.0 221:1.0 4905:1.0 388:1.0 
-0.4533664591779951 1:2.0 2:0.0 51:1.0 52:1.0 8006:1.0 2708:1.0 
-1.2813736840654522 1:4.0 2:2.0 76:1.0 25:1.0 84:1.0 334:1.0 
-0.21294178660066815 1:4.0 2:2.0 76:1.0 25:1.0 84:1.0 334:1.0 
-0.028302721322531713 1:4.0 2:0.0 51:1.0 109:1.0 42277:1.0 767:1.0 
-0.08901682018156078 1:5.0 2:7.0 76:1.0 25:1.0 86:1.0 6113:1.0 
-0.18125930954145644 1:5.0 2:7.0 76:1.0 25:1.0 86:1.0 6113:1.0 
-0.26356804523806676 1:2.0 2:2.0 59:1.0 221:1.0 4072:1.0 2375:1.0 
-0.22479894122233468 1:5.0 2:0.0 51:1.0 43:1.0 5697:1.0 2337:1.0 
-3.5420394788413123 1:2.0 2:0.0 51:1.0 221:1.0 4343:1.0 8348:1.0 
-0.06828030736395704 1:3.0 2:1.0 108:1.0 52:1.0 1224:1.0 7002:1.0 
-0.14954032889135638 1:7.0 2:1.0 51:1.0 43:1.0 10532:1.0 1651:1.0 
-0.49504302619251317 1:5.0 2:0.0 51:1.0 43:1.0 18848:1.0 2519:1.0 
-0.49082239050565674 1:6.0 2:0.0 51:1.0 43:1.0 15507:1.0 4331:1.0 
-0.7499798094111597 1:4.0 2:0.0 51:1.0 43:1.0 5697:1.0 2337:1.0 
-0.706241432809018 1:3.0 2:0.0 51:1.0 109:1.0 3510:1.0 24119:1.0 
-0.8908282731376664 1:3.0 2:0.0 51:1.0 52:1.0 8100:1.0 1313:1.0 
-2.1693838503684963 1:1.0 2:0.0 51:1.0 109:1.0 862:1.0 2619:1.0 
