svm_type c_svc
kernel_type polynomial
degree 2
gamma 0.2
coef0 0.0
nr_class 2
total_sv 9
rho -0.4078952016700001
label 1 -1
nr_sv 6 3
SV
0.12510164903573623 87:1.0 220:1.0 24:1.0 4630:1.0 743:1.0 4627:1.0 103:1.0 738:1.0 55:1.0 31:1.0 
0.19632773501372572 93:1.0 52:1.0 24:1.0 460:1.0 89:1.0 196:1.0 531:1.0 738:1.0 55:1.0 1162:1.0 
0.10330578838082885 19100:1.0 52:1.0 24:1.0 427:1.0 89:1.0 19403:1.0 28:1.0 738:1.0 55:1.0 31:1.0 1162:1.0 
0.1369863013674163 527:1.0 52:1.0 111:1.0 3364:1.0 89:1.0 2300:1.0 28:1.0 738:1.0 55:1.0 31:1.0 
0.10330578186710501 154:1.0 52:1.0 24:1.0 12550:1.0 89:1.0 20098:1.0 28:1.0 738:1.0 55:1.0 31:1.0 104:1.0 
0.10320885320076481 87:1.0 52:1.0 94:1.0 3530:1.0 89:1.0 550:1.0 103:1.0 738:1.0 55:1.0 31:1.0 1162:1.0 
-0.36529680360391736 87:1.0 59:1.0 24:1.0 2696:1.0 6314:1.0 3280:1.0 446:1.0 738:1.0 55:1.0 31:1.0 
-0.19632773501372572 109:1.0 59:1.0 24:1.0 2244:1.0 2020:1.0 4936:1.0 446:1.0 738:1.0 55:1.0 31:1.0 1162:1.0 
-0.20661157024793386 93:1.0 59:1.0 24:1.0 460:1.0 2020:1.0 4936:1.0 446:1.0 738:1.0 55:1.0 31:1.0 1162:1.0 
