svm_type c_svc
kernel_type polynomial
degree 2
gamma 0.2
coef0 0.0
nr_class 2
total_sv 978
rho -0.22733369959979724
label 1 -1
nr_sv 537 441
SV
0.23337262859267763 2:1.0 73:1.0 66:1.0 5:1.0 80:1.0 68:1.0 69:1.0 9:1.0 81:1.0 13:1.0 11:1.0 70:1.0 
0.33721389631322174 2:1.0 52:1.0 155:1.0 51:1.0 89:1.0 157:1.0 158:1.0 9:1.0 81:1.0 160:1.0 
0.17068762668855922 2:1.0 59:1.0 4:1.0 5:1.0 2221:1.0 597:1.0 8:1.0 9:1.0 81:1.0 11:1.0 70:1.0 13:1.0 
0.12890800125030225 2:1.0 52:1.0 118:1.0 5:1.0 1247:1.0 2767:1.0 8:1.0 9:1.0 81:1.0 71:1.0 11:1.0 197:1.0 13:1.0 
0.32004344516559674 2:1.0 52:1.0 243:1.0 51:1.0 1247:1.0 3481:1.0 115:1.0 9:1.0 81:1.0 
0.40860643650352363 2:1.0 52:1.0 4:1.0 485:1.0 586:1.0 3458:1.0 8:1.0 9:1.0 81:1.0 13:1.0 11:1.0 224:1.0 46:1.0 
0.1333331814927498 2:1.0 52:1.0 94:1.0 5:1.0 89:1.0 3265:1.0 28:1.0 9:1.0 81:1.0 31:1.0 13:1.0 
0.17837525495966805 2:1.0 39:1.0 24:1.0 5:1.0 4656:1.0 909:1.0 28:1.0 9:1.0 81:1.0 31:1.0 
0.19083969465648853 2:1.0 52:1.0 111:1.0 5:1.0 89:1.0 4663:1.0 115:1.0 9:1.0 81:1.0 635:1.0 
0.25257346425206273 2:1.0 52:1.0 155:1.0 485:1.0 1644:1.0 1125:1.0 158:1.0 9:1.0 81:1.0 70:1.0 
0.14370279444375458 109:1.0 52:1.0 4:1.0 4912:1.0 4232:1.0 3778:1.0 335:1.0 9:1.0 81:1.0 11:1.0 
0.15502943420739818 2:1.0 431:1.0 243:1.0 51:1.0 2795:1.0 5782:1.0 115:1.0 9:1.0 81:1.0 70:1.0 71:1.0 
0.3152031528061402 2:1.0 14:1.0 111:1.0 305:1.0 164:1.0 5498:1.0 115:1.0 9:1.0 81:1.0 346:1.0 
0.21179813349747065 2:1.0 14:1.0 155:1.0 1480:1.0 164:1.0 1177:1.0 158:1.0 9:1.0 81:1.0 
0.1611827815570386 2:1.0 52:1.0 155:1.0 485:1.0 453:1.0 6754:1.0 254:1.0 9:1.0 81:1.0 224:1.0 
0.08956434956014514 2:1.0 52:1.0 4:1.0 202:1.0 599:1.0 2773:1.0 8:1.0 9:1.0 81:1.0 11:1.0 70:1.0 13:1.0 
0.1821074771326326 2:1.0 52:1.0 4:1.0 51:1.0 586:1.0 7:1.0 335:1.0 9:1.0 81:1.0 13:1.0 11:1.0 224:1.0 160:1.0 46:1.0 
0.2795480407777599 2:1.0 220:1.0 4:1.0 5:1.0 5467:1.0 2284:1.0 8:1.0 9:1.0 81:1.0 426:1.0 13:1.0 11:1.0 70:1.0 46:1.0 
0.16348734556131686 2:1.0 52:1.0 118:1.0 51:1.0 415:1.0 1025:1.0 8:1.0 9:1.0 81:1.0 13:1.0 11:1.0 70:1.0 71:1.0 
0.13084726737353314 2:1.0 14:1.0 4:1.0 5:1.0 3349:1.0 331:1.0 8:1.0 9:1.0 81:1.0 11:1.0 70:1.0 13:1.0 
0.2668330463324538 2:1.0 52:1.0 243:1.0 5:1.0 89:1.0 6743:1.0 28:1.0 9:1.0 81:1.0 224:1.0 
0.11106098008027854 1245:1.0 431:1.0 4:1.0 4560:1.0 370:1.0 2700:1.0 146:1.0 9:1.0 81:1.0 11:1.0 690:1.0 71:1.0 32:1.0 
0.13667923011368285 2:1.0 52:1.0 155:1.0 51:1.0 89:1.0 550:1.0 335:1.0 9:1.0 81:1.0 11:1.0 506:1.0 224:1.0 70:1.0 
0.13484254541286234 2:1.0 220:1.0 155:1.0 5:1.0 3564:1.0 1286:1.0 115:1.0 9:1.0 81:1.0 13:1.0 70:1.0 506:1.0 
0.1124367110431255 2:1.0 14:1.0 4:1.0 5:1.0 3349:1.0 1160:1.0 8:1.0 9:1.0 81:1.0 13:1.0 11:1.0 426:1.0 224:1.0 187:1.0 
0.3210280788587883 2:1.0 59:1.0 24:1.0 5:1.0 10707:1.0 2389:1.0 28:1.0 9:1.0 81:1.0 31:1.0 
0.095848810273105 2:1.0 52:1.0 4:1.0 5:1.0 89:1.0 5603:1.0 238:1.0 9:1.0 81:1.0 11:1.0 70:1.0 
0.2320522962211356 2:1.0 14:1.0 4:1.0 5:1.0 164:1.0 3516:1.0 8:1.0 9:1.0 81:1.0 13:1.0 11:1.0 147:1.0 
0.1744308622059667 109:1.0 52:1.0 24:1.0 6434:1.0 471:1.0 1595:1.0 28:1.0 9:1.0 81:1.0 31:1.0 
0.21567789220709227 2:1.0 220:1.0 212:1.0 697:1.0 914:1.0 267:1.0 335:1.0 9:1.0 81:1.0 13:1.0 11:1.0 
0.18423796581834742 2:1.0 52:1.0 111:1.0 5:1.0 89:1.0 3661:1.0 115:1.0 9:1.0 81:1.0 
0.5520062675064713 2:1.0 52:1.0 4:1.0 1237:1.0 493:1.0 8104:1.0 238:1.0 9:1.0 81:1.0 11:1.0 46:1.0 
0.1751226999695366 2:1.0 220:1.0 66:1.0 305:1.0 353:1.0 5097:1.0 8:1.0 9:1.0 81:1.0 13:1.0 11:1.0 70:1.0 
0.1983390422794272 2:1.0 52:1.0 111:1.0 485:1.0 4022:1.0 7840:1.0 115:1.0 9:1.0 81:1.0 
0.09802601719759374 2:1.0 52:1.0 4:1.0 485:1.0 415:1.0 4100:1.0 8:1.0 9:1.0 81:1.0 11:1.0 3266:1.0 197:1.0 13:1.0 
0.09756899931243901 2:1.0 52:1.0 4:1.0 5:1.0 89:1.0 371:1.0 8:1.0 9:1.0 81:1.0 13:1.0 11:1.0 70:1.0 
0.1110580929625544 2:1.0 52:1.0 4:1.0 5:1.0 586:1.0 3554:1.0 8:1.0 9:1.0 81:1.0 13:1.0 11:1.0 147:1.0 
0.29696406311936746 2:1.0 52:1.0 243:1.0 485:1.0 89:1.0 3090:1.0 254:1.0 9:1.0 81:1.0 
0.22483413472031516 2:1.0 220:1.0 118:1.0 305:1.0 404:1.0 13414:1.0 8:1.0 9:1.0 81:1.0 13:1.0 11:1.0 70:1.0 
0.5212862753457993 2:1.0 59:1.0 4:1.0 5:1.0 2379:1.0 3458:1.0 8:1.0 9:1.0 81:1.0 11:1.0 224:1.0 46:1.0 13:1.0 
0.19030573189267652 2:1.0 59:1.0 4:1.0 5:1.0 2379:1.0 223:1.0 8:1.0 9:1.0 81:1.0 13:1.0 11:1.0 70:1.0 46:1.0 224:1.0 
0.30637013937751606 2:1.0 59:1.0 24:1.0 5:1.0 2221:1.0 2389:1.0 28:1.0 9:1.0 81:1.0 31:1.0 
0.0984053969095864 2:1.0 52:1.0 4:1.0 5:1.0 89:1.0 2598:1.0 8:1.0 9:1.0 81:1.0 11:1.0 13:1.0 635:1.0 690:1.0 
0.4163258477687008 2:1.0 220:1.0 4:1.0 51:1.0 5467:1.0 9838:1.0 98:1.0 9:1.0 81:1.0 71:1.0 11:1.0 224:1.0 
0.22661437021994466 2:1.0 52:1.0 4:1.0 5:1.0 855:1.0 1348:1.0 335:1.0 9:1.0 81:1.0 11:1.0 224:1.0 
0.16141558818706062 2:1.0 14:1.0 4:1.0 5:1.0 3349:1.0 140:1.0 335:1.0 9:1.0 81:1.0 11:1.0 70:1.0 
0.2687591123587471 2:1.0 14:1.0 111:1.0 485:1.0 1314:1.0 2815:1.0 115:1.0 9:1.0 81:1.0 
0.08727268246105618 2:1.0 14:1.0 4:1.0 51:1.0 2502:1.0 140:1.0 8:1.0 9:1.0 81:1.0 13:1.0 11:1.0 70:1.0 
0.19199621320769983 2:1.0 52:1.0 118:1.0 697:1.0 453:1.0 223:1.0 335:1.0 9:1.0 81:1.0 11:1.0 13:1.0 70:1.0 
0.12419506600907333 2:1.0 52:1.0 155:1.0 5:1.0 89:1.0 7:1.0 115:1.0 9:1.0 81:1.0 160:1.0 13:1.0 224:1.0 
0.2716861371733915 2:1.0 14:1.0 155:1.0 5:1.0 9621:1.0 7258:1.0 158:1.0 9:1.0 81:1.0 70:1.0 224:1.0 
0.17795170358071064 2:1.0 14:1.0 4:1.0 51:1.0 5832:1.0 597:1.0 8:1.0 9:1.0 81:1.0 13:1.0 11:1.0 70:1.0 
0.22379879802599356 87:1.0 14:1.0 111:1.0 16646:1.0 1924:1.0 4048:1.0 115:1.0 9:1.0 81:1.0 
0.3360416409804492 2:1.0 220:1.0 4:1.0 5:1.0 872:1.0 4858:1.0 238:1.0 9:1.0 81:1.0 11:1.0 70:1.0 
0.11211031627890833 2:1.0 52:1.0 111:1.0 5:1.0 493:1.0 7868:1.0 115:1.0 9:1.0 81:1.0 70:1.0 
0.21950074853332738 2:1.0 52:1.0 4:1.0 485:1.0 493:1.0 10456:1.0 8:1.0 9:1.0 81:1.0 11:1.0 13:1.0 187:1.0 
0.15466142031974847 2:1.0 14:1.0 118:1.0 5:1.0 17154:1.0 2196:1.0 8:1.0 9:1.0 81:1.0 71:1.0 13:1.0 197:1.0 11:1.0 224:1.0 
0.27465211863827677 2:1.0 14:1.0 24:1.0 5:1.0 894:1.0 6951:1.0 103:1.0 9:1.0 81:1.0 31:1.0 
0.17484777003874352 2:1.0 220:1.0 66:1.0 5:1.0 1969:1.0 3793:1.0 335:1.0 9:1.0 81:1.0 11:1.0 70:1.0 
0.5917592744596611 2:1.0 220:1.0 111:1.0 5:1.0 474:1.0 1995:1.0 115:1.0 9:1.0 81:1.0 
0.28252077191781577 109:1.0 220:1.0 243:1.0 1727:1.0 1666:1.0 923:1.0 254:1.0 9:1.0 81:1.0 70:1.0 
0.17963477552278054 2:1.0 14:1.0 155:1.0 5:1.0 2502:1.0 1417:1.0 158:1.0 9:1.0 81:1.0 
0.23009839048958247 2:1.0 220:1.0 155:1.0 5:1.0 1833:1.0 1891:1.0 176:1.0 9:1.0 81:1.0 70:1.0 13:1.0 
0.24320620476373978 2:1.0 52:1.0 118:1.0 5:1.0 54:1.0 7:1.0 335:1.0 9:1.0 81:1.0 11:1.0 160:1.0 635:1.0 
0.10837440649611033 2:1.0 14:1.0 24:1.0 5:1.0 3349:1.0 1595:1.0 28:1.0 9:1.0 81:1.0 31:1.0 
0.1714634559100924 2:1.0 14:1.0 4:1.0 5:1.0 3349:1.0 2880:1.0 335:1.0 9:1.0 81:1.0 11:1.0 224:1.0 
0.17241379310344832 2:1.0 239:1.0 4:1.0 5:1.0 3443:1.0 2120:1.0 8:1.0 9:1.0 81:1.0 11:1.0 224:1.0 13:1.0 
0.16132150599986486 154:1.0 52:1.0 111:1.0 1947:1.0 342:1.0 5461:1.0 115:1.0 9:1.0 81:1.0 197:1.0 
0.2433935521565212 2:1.0 52:1.0 24:1.0 51:1.0 4232:1.0 272:1.0 335:1.0 9:1.0 81:1.0 224:1.0 31:1.0 
0.13279971368476878 2:1.0 52:1.0 111:1.0 697:1.0 415:1.0 1110:1.0 115:1.0 9:1.0 81:1.0 506:1.0 224:1.0 
0.19547941390425305 2:1.0 220:1.0 118:1.0 697:1.0 2864:1.0 1167:1.0 146:1.0 9:1.0 81:1.0 11:1.0 160:1.0 13:1.0 
0.20153748675773062 2:1.0 52:1.0 235:1.0 485:1.0 89:1.0 19041:1.0 589:1.0 9:1.0 81:1.0 581:1.0 
0.19296853588699023 2:1.0 39:1.0 24:1.0 5:1.0 4656:1.0 4543:1.0 103:1.0 9:1.0 81:1.0 31:1.0 
500.0 2:1.0 59:1.0 4:1.0 485:1.0 8556:1.0 3458:1.0 8:1.0 9:1.0 81:1.0 46:1.0 13:1.0 11:1.0 224:1.0 
0.23060921104895854 2:1.0 52:1.0 243:1.0 4207:1.0 89:1.0 2284:1.0 254:1.0 9:1.0 81:1.0 70:1.0 
0.1898010420021598 2:1.0 59:1.0 4:1.0 485:1.0 8556:1.0 3265:1.0 8:1.0 9:1.0 81:1.0 46:1.0 13:1.0 11:1.0 3266:1.0 197:1.0 
0.18393672813249343 2:1.0 14:1.0 4:1.0 697:1.0 1675:1.0 5178:1.0 8:1.0 9:1.0 81:1.0 13:1.0 11:1.0 197:1.0 635:1.0 
0.16406914204540182 2:1.0 59:1.0 4:1.0 5:1.0 8556:1.0 3458:1.0 8:1.0 9:1.0 81:1.0 13:1.0 11:1.0 426:1.0 224:1.0 
0.18810029836567993 2:1.0 59:1.0 155:1.0 51:1.0 8556:1.0 1177:1.0 115:1.0 9:1.0 81:1.0 224:1.0 
0.14580020496714713 2:1.0 52:1.0 24:1.0 4776:1.0 4022:1.0 8203:1.0 28:1.0 9:1.0 81:1.0 31:1.0 
0.18020087979791272 2:1.0 52:1.0 111:1.0 5:1.0 493:1.0 21007:1.0 115:1.0 9:1.0 81:1.0 
0.17173667790915473 58:1.0 14:1.0 4:1.0 21073:1.0 164:1.0 688:1.0 8:1.0 9:1.0 81:1.0 13:1.0 11:1.0 70:1.0 
0.3573151930266932 2:1.0 14:1.0 155:1.0 5:1.0 164:1.0 5958:1.0 115:1.0 9:1.0 81:1.0 70:1.0 224:1.0 
0.21156470800415828 2:1.0 52:1.0 4:1.0 51:1.0 471:1.0 6038:1.0 98:1.0 9:1.0 81:1.0 11:1.0 70:1.0 224:1.0 
0.7876473034252217 2:1.0 59:1.0 4:1.0 5:1.0 8556:1.0 3778:1.0 8:1.0 9:1.0 81:1.0 46:1.0 13:1.0 11:1.0 3266:1.0 197:1.0 
0.4902489771276877 2:1.0 14:1.0 111:1.0 485:1.0 1675:1.0 1693:1.0 446:1.0 9:1.0 81:1.0 
0.13771332329604774 109:1.0 52:1.0 118:1.0 21604:1.0 1247:1.0 4600:1.0 8:1.0 9:1.0 81:1.0 11:1.0 13:1.0 224:1.0 71:1.0 690:1.0 70:1.0 
0.1779359426075811 2:1.0 220:1.0 66:1.0 5:1.0 21668:1.0 296:1.0 8:1.0 9:1.0 81:1.0 13:1.0 11:1.0 635:1.0 
0.28541568321948974 109:1.0 220:1.0 155:1.0 6434:1.0 2868:1.0 906:1.0 115:1.0 9:1.0 81:1.0 
0.12166672608700539 2:1.0 52:1.0 94:1.0 5:1.0 89:1.0 2687:1.0 103:1.0 9:1.0 81:1.0 31:1.0 
0.0838310043341131 2:1.0 14:1.0 4:1.0 51:1.0 1675:1.0 597:1.0 8:1.0 9:1.0 81:1.0 13:1.0 11:1.0 70:1.0 
0.223286890705314 2:1.0 14:1.0 4:1.0 5:1.0 1675:1.0 947:1.0 238:1.0 9:1.0 81:1.0 70:1.0 11:1.0 
0.2906976792540274 2:1.0 52:1.0 4:1.0 51:1.0 1247:1.0 1368:1.0 238:1.0 9:1.0 81:1.0 11:1.0 
0.16339869242852334 2:1.0 431:1.0 4:1.0 5:1.0 4348:1.0 371:1.0 8:1.0 9:1.0 81:1.0 426:1.0 11:1.0 13:1.0 70:1.0 
0.11401829328008642 2:1.0 59:1.0 4:1.0 51:1.0 16586:1.0 7288:1.0 8:1.0 9:1.0 81:1.0 224:1.0 13:1.0 11:1.0 70:1.0 187:1.0 
0.4240969674438065 2:1.0 14:1.0 118:1.0 485:1.0 894:1.0 669:1.0 8:1.0 9:1.0 81:1.0 13:1.0 11:1.0 147:1.0 
0.19604363128557561 2:1.0 59:1.0 4:1.0 485:1.0 16586:1.0 669:1.0 8:1.0 9:1.0 81:1.0 13:1.0 11:1.0 147:1.0 
0.2028046187011733 2:1.0 220:1.0 66:1.0 51:1.0 2975:1.0 7:1.0 8:1.0 9:1.0 81:1.0 13:1.0 11:1.0 224:1.0 160:1.0 
0.10687424617781785 2:1.0 52:1.0 4:1.0 485:1.0 4232:1.0 419:1.0 8:1.0 9:1.0 81:1.0 13:1.0 11:1.0 70:1.0 224:1.0 187:1.0 
0.13181820961666718 2:1.0 52:1.0 4:1.0 5:1.0 54:1.0 223:1.0 8:1.0 9:1.0 81:1.0 11:1.0 70:1.0 13:1.0 224:1.0 
0.14458393917995288 2:1.0 52:1.0 4:1.0 5:1.0 89:1.0 7888:1.0 238:1.0 9:1.0 81:1.0 11:1.0 
0.14548365074869843 2:1.0 52:1.0 118:1.0 5:1.0 586:1.0 7:1.0 8:1.0 9:1.0 81:1.0 11:1.0 160:1.0 13:1.0 
0.1874398256720634 2:1.0 220:1.0 66:1.0 5:1.0 5171:1.0 397:1.0 8:1.0 9:1.0 81:1.0 224:1.0 13:1.0 11:1.0 12:1.0 
1.064963570741313 2:1.0 14:1.0 111:1.0 5:1.0 164:1.0 6282:1.0 115:1.0 9:1.0 81:1.0 346:1.0 
0.21303574341297396 2:1.0 52:1.0 111:1.0 5:1.0 89:1.0 16580:1.0 115:1.0 9:1.0 81:1.0 13:1.0 
0.18616103372835818 2:1.0 239:1.0 155:1.0 5:1.0 2277:1.0 9956:1.0 115:1.0 9:1.0 81:1.0 224:1.0 
0.10901752261879077 109:1.0 52:1.0 4:1.0 21604:1.0 1069:1.0 3265:1.0 146:1.0 9:1.0 81:1.0 11:1.0 3266:1.0 
0.15500043908831632 2:1.0 59:1.0 4:1.0 51:1.0 8698:1.0 23309:1.0 176:1.0 9:1.0 81:1.0 11:1.0 70:1.0 13:1.0 224:1.0 
0.13938008251318007 2:1.0 52:1.0 155:1.0 5:1.0 855:1.0 906:1.0 158:1.0 9:1.0 81:1.0 
0.16109059516073923 2:1.0 14:1.0 111:1.0 51:1.0 2502:1.0 694:1.0 446:1.0 9:1.0 81:1.0 
0.1386767507477482 2:1.0 52:1.0 111:1.0 5:1.0 471:1.0 259:1.0 115:1.0 9:1.0 81:1.0 70:1.0 
0.2930974869945896 2:1.0 328:1.0 243:1.0 2495:1.0 4157:1.0 3090:1.0 115:1.0 9:1.0 81:1.0 
0.22975368477272587 2:1.0 220:1.0 66:1.0 5:1.0 914:1.0 7:1.0 8:1.0 9:1.0 81:1.0 13:1.0 224:1.0 11:1.0 12:1.0 
0.2511867589803943 2:1.0 14:1.0 243:1.0 485:1.0 3885:1.0 4666:1.0 446:1.0 9:1.0 81:1.0 
0.3479733661650899 2:1.0 220:1.0 4:1.0 5:1.0 872:1.0 4431:1.0 335:1.0 9:1.0 81:1.0 11:1.0 71:1.0 
0.22568302608271856 2:1.0 59:1.0 4:1.0 485:1.0 8556:1.0 7668:1.0 8:1.0 9:1.0 81:1.0 13:1.0 11:1.0 3266:1.0 197:1.0 
0.2463203884293144 2:1.0 52:1.0 155:1.0 5:1.0 493:1.0 24331:1.0 158:1.0 9:1.0 81:1.0 70:1.0 71:1.0 
0.0992322068729815 2:1.0 52:1.0 4:1.0 51:1.0 471:1.0 472:1.0 455:1.0 9:1.0 81:1.0 13:1.0 11:1.0 147:1.0 224:1.0 
0.09774059463670166 2:1.0 52:1.0 155:1.0 5:1.0 89:1.0 13141:1.0 158:1.0 9:1.0 81:1.0 70:1.0 187:1.0 
0.31065417653571237 2:1.0 220:1.0 118:1.0 5:1.0 902:1.0 1968:1.0 8:1.0 9:1.0 81:1.0 13:1.0 11:1.0 70:1.0 
0.20902952708657133 2:1.0 52:1.0 111:1.0 5:1.0 89:1.0 13141:1.0 115:1.0 9:1.0 81:1.0 224:1.0 13:1.0 
0.19834423057960215 2:1.0 14:1.0 4:1.0 5:1.0 1675:1.0 7:1.0 8:1.0 9:1.0 81:1.0 224:1.0 13:1.0 11:1.0 160:1.0 
0.17341128020206434 376:1.0 39:1.0 66:1.0 10174:1.0 3031:1.0 2869:1.0 69:1.0 9:1.0 81:1.0 13:1.0 11:1.0 70:1.0 
0.3257457891770723 2:1.0 220:1.0 212:1.0 51:1.0 902:1.0 1361:1.0 8:1.0 9:1.0 81:1.0 13:1.0 11:1.0 
0.12053095374358287 2:1.0 220:1.0 155:1.0 5:1.0 4927:1.0 938:1.0 158:1.0 9:1.0 81:1.0 690:1.0 70:1.0 
0.28764074566751385 2:1.0 59:1.0 243:1.0 5:1.0 10707:1.0 6247:1.0 589:1.0 9:1.0 81:1.0 
0.08128776492444403 2:1.0 14:1.0 4:1.0 5:1.0 3349:1.0 3823:1.0 8:1.0 9:1.0 81:1.0 11:1.0 13:1.0 224:1.0 197:1.0 70:1.0 3266:1.0 
0.23076459405762398 2:1.0 328:1.0 111:1.0 485:1.0 2864:1.0 4617:1.0 115:1.0 9:1.0 81:1.0 
0.2076832271201541 2:1.0 14:1.0 111:1.0 51:1.0 2502:1.0 4994:1.0 115:1.0 9:1.0 81:1.0 
0.1758204095487776 2:1.0 14:1.0 66:1.0 51:1.0 894:1.0 1693:1.0 8:1.0 9:1.0 81:1.0 224:1.0 11:1.0 70:1.0 13:1.0 
0.1255200071415485 2:1.0 52:1.0 111:1.0 5:1.0 4232:1.0 68:1.0 115:1.0 9:1.0 81:1.0 224:1.0 
0.20891648883112357 2:1.0 220:1.0 118:1.0 485:1.0 5607:1.0 3860:1.0 8:1.0 9:1.0 81:1.0 13:1.0 11:1.0 690:1.0 70:1.0 
0.15291374705607694 2:1.0 431:1.0 111:1.0 5:1.0 590:1.0 68:1.0 115:1.0 9:1.0 81:1.0 224:1.0 
0.25917135515484063 2:1.0 52:1.0 243:1.0 5:1.0 493:1.0 906:1.0 115:1.0 9:1.0 81:1.0 
0.13431416619064235 2:1.0 52:1.0 118:1.0 7704:1.0 415:1.0 1160:1.0 335:1.0 9:1.0 81:1.0 11:1.0 
0.1654084501538495 2:1.0 52:1.0 4:1.0 51:1.0 89:1.0 4596:1.0 8:1.0 9:1.0 81:1.0 13:1.0 11:1.0 690:1.0 70:1.0 
0.2788776683695635 2:1.0 220:1.0 243:1.0 5:1.0 6077:1.0 3090:1.0 115:1.0 9:1.0 81:1.0 224:1.0 
0.08515744854718778 2:1.0 14:1.0 4:1.0 51:1.0 1675:1.0 597:1.0 335:1.0 9:1.0 81:1.0 11:1.0 70:1.0 506:1.0 
0.2387821217858632 2:1.0 73:1.0 4:1.0 5:1.0 6158:1.0 6752:1.0 8:1.0 9:1.0 81:1.0 11:1.0 13:1.0 187:1.0 
0.14623760528041585 2:1.0 220:1.0 66:1.0 367:1.0 2582:1.0 6145:1.0 8:1.0 9:1.0 81:1.0 426:1.0 224:1.0 13:1.0 11:1.0 12:1.0 
0.3013038517738839 2:1.0 52:1.0 111:1.0 5:1.0 89:1.0 3483:1.0 115:1.0 9:1.0 81:1.0 71:1.0 
0.37541701341513256 2:1.0 220:1.0 66:1.0 485:1.0 17227:1.0 1177:1.0 335:1.0 9:1.0 81:1.0 11:1.0 
0.43185751232834685 2:1.0 14:1.0 24:1.0 5:1.0 3349:1.0 3293:1.0 28:1.0 9:1.0 81:1.0 31:1.0 3266:1.0 46:1.0 13:1.0 
0.1968008821155787 2:1.0 328:1.0 24:1.0 5:1.0 4157:1.0 2817:1.0 28:1.0 9:1.0 81:1.0 31:1.0 
0.19720967526211436 2:1.0 52:1.0 4:1.0 51:1.0 1247:1.0 1160:1.0 8:1.0 9:1.0 81:1.0 11:1.0 13:1.0 187:1.0 
0.29058903567413924 2:1.0 14:1.0 155:1.0 5:1.0 894:1.0 223:1.0 158:1.0 9:1.0 81:1.0 70:1.0 
0.45048729310467145 2:1.0 220:1.0 243:1.0 697:1.0 5467:1.0 3090:1.0 115:1.0 9:1.0 81:1.0 
0.19902479669510303 2:1.0 220:1.0 66:1.0 1480:1.0 902:1.0 223:1.0 103:1.0 9:1.0 81:1.0 70:1.0 11:1.0 
0.16937797370296512 109:1.0 52:1.0 155:1.0 18642:1.0 453:1.0 369:1.0 158:1.0 9:1.0 81:1.0 
0.3284628207391216 2:1.0 14:1.0 111:1.0 51:1.0 3349:1.0 5148:1.0 115:1.0 9:1.0 81:1.0 
0.394645502739177 2:1.0 220:1.0 4:1.0 5:1.0 345:1.0 140:1.0 115:1.0 9:1.0 81:1.0 70:1.0 
0.3313142823034562 2:1.0 14:1.0 155:1.0 5:1.0 164:1.0 2284:1.0 158:1.0 9:1.0 81:1.0 
0.3140608738829861 2:1.0 14:1.0 111:1.0 5:1.0 5832:1.0 17055:1.0 446:1.0 9:1.0 81:1.0 224:1.0 
0.8383814012625204 2:1.0 52:1.0 111:1.0 5:1.0 493:1.0 1598:1.0 115:1.0 9:1.0 81:1.0 70:1.0 
0.269092217449857 2:1.0 14:1.0 243:1.0 540:1.0 5187:1.0 2196:1.0 115:1.0 9:1.0 81:1.0 224:1.0 
0.09259177657546928 2:1.0 14:1.0 4:1.0 51:1.0 3349:1.0 140:1.0 8:1.0 9:1.0 81:1.0 70:1.0 13:1.0 11:1.0 
0.31031576388653115 2:1.0 220:1.0 243:1.0 5:1.0 4927:1.0 5958:1.0 28:1.0 9:1.0 81:1.0 70:1.0 
0.20211771764852918 2:1.0 14:1.0 4:1.0 5:1.0 164:1.0 472:1.0 8:1.0 9:1.0 81:1.0 13:1.0 11:1.0 70:1.0 71:1.0 
0.0977718892964162 2:1.0 14:1.0 4:1.0 5:1.0 3349:1.0 3265:1.0 8:1.0 9:1.0 81:1.0 11:1.0 3266:1.0 147:1.0 13:1.0 
0.2719469806798272 2:1.0 14:1.0 4:1.0 5:1.0 2502:1.0 6247:1.0 238:1.0 9:1.0 81:1.0 11:1.0 70:1.0 
0.30989183547345944 2:1.0 52:1.0 243:1.0 5:1.0 493:1.0 28654:1.0 115:1.0 9:1.0 81:1.0 
0.22249563482156268 2:1.0 239:1.0 155:1.0 5:1.0 2468:1.0 4314:1.0 115:1.0 9:1.0 81:1.0 426:1.0 70:1.0 
500.0 2:1.0 14:1.0 4:1.0 5:1.0 3349:1.0 3458:1.0 8:1.0 9:1.0 81:1.0 11:1.0 224:1.0 13:1.0 
0.187251859108117 2:1.0 220:1.0 118:1.0 5:1.0 1163:1.0 735:1.0 8:1.0 9:1.0 81:1.0 13:1.0 11:1.0 197:1.0 635:1.0 
0.10706754075573939 2:1.0 52:1.0 66:1.0 485:1.0 599:1.0 29194:1.0 8:1.0 9:1.0 81:1.0 426:1.0 224:1.0 11:1.0 197:1.0 13:1.0 
0.2347692252981832 2:1.0 52:1.0 155:1.0 5:1.0 453:1.0 17722:1.0 115:1.0 9:1.0 81:1.0 
0.34774184985251244 2:1.0 14:1.0 243:1.0 5:1.0 894:1.0 906:1.0 446:1.0 9:1.0 81:1.0 
0.12285524593109158 2:1.0 220:1.0 118:1.0 5:1.0 2511:1.0 7:1.0 8:1.0 9:1.0 81:1.0 13:1.0 635:1.0 160:1.0 
0.14556661288324205 2:1.0 220:1.0 4:1.0 5:1.0 474:1.0 3778:1.0 8:1.0 9:1.0 81:1.0 13:1.0 11:1.0 3266:1.0 187:1.0 
0.10701413409916265 1245:1.0 14:1.0 4:1.0 4560:1.0 3349:1.0 3458:1.0 238:1.0 9:1.0 81:1.0 11:1.0 
0.22531513900562422 2:1.0 39:1.0 111:1.0 485:1.0 6386:1.0 694:1.0 446:1.0 9:1.0 81:1.0 
0.20889282942423454 2:1.0 137:1.0 118:1.0 5:1.0 1905:1.0 11184:1.0 146:1.0 9:1.0 81:1.0 11:1.0 13:1.0 
0.1484725133859442 2:1.0 220:1.0 4:1.0 51:1.0 5467:1.0 6100:1.0 8:1.0 9:1.0 81:1.0 13:1.0 11:1.0 70:1.0 224:1.0 635:1.0 
0.32799946313092826 2:1.0 220:1.0 118:1.0 51:1.0 2275:1.0 2284:1.0 8:1.0 9:1.0 81:1.0 13:1.0 11:1.0 70:1.0 187:1.0 224:1.0 
0.3252797897736454 2:1.0 14:1.0 4:1.0 5:1.0 164:1.0 8919:1.0 238:1.0 9:1.0 81:1.0 11:1.0 
0.2046364977384081 2:1.0 14:1.0 111:1.0 5:1.0 2502:1.0 2307:1.0 589:1.0 9:1.0 81:1.0 187:1.0 
0.14008466914545764 2:1.0 14:1.0 4:1.0 5:1.0 3349:1.0 1490:1.0 8:1.0 9:1.0 81:1.0 11:1.0 70:1.0 147:1.0 13:1.0 
0.23055079588064714 2:1.0 59:1.0 24:1.0 485:1.0 2221:1.0 989:1.0 28:1.0 9:1.0 81:1.0 31:1.0 187:1.0 
0.10636249680248058 2:1.0 14:1.0 4:1.0 51:1.0 3349:1.0 791:1.0 8:1.0 9:1.0 81:1.0 11:1.0 70:1.0 1412:1.0 13:1.0 
0.27465110679627835 2:1.0 52:1.0 24:1.0 51:1.0 342:1.0 8419:1.0 28:1.0 9:1.0 81:1.0 31:1.0 13:1.0 
0.19646243329885055 2:1.0 52:1.0 111:1.0 5:1.0 199:1.0 752:1.0 446:1.0 9:1.0 81:1.0 224:1.0 
0.15097394246561166 2:1.0 14:1.0 4:1.0 5:1.0 164:1.0 3904:1.0 8:1.0 9:1.0 81:1.0 11:1.0 70:1.0 690:1.0 224:1.0 13:1.0 
0.12134815155960961 2:1.0 52:1.0 24:1.0 5:1.0 493:1.0 3265:1.0 146:1.0 9:1.0 81:1.0 31:1.0 13:1.0 
0.23577783470735944 2:1.0 14:1.0 4:1.0 5:1.0 3349:1.0 7:1.0 176:1.0 9:1.0 81:1.0 11:1.0 160:1.0 
0.10517788287144668 2:1.0 59:1.0 4:1.0 5:1.0 2221:1.0 4543:1.0 238:1.0 9:1.0 81:1.0 11:1.0 3266:1.0 187:1.0 224:1.0 
0.21833260451712158 2:1.0 220:1.0 155:1.0 5:1.0 902:1.0 397:1.0 158:1.0 9:1.0 81:1.0 70:1.0 
0.15309666758248716 2:1.0 14:1.0 66:1.0 51:1.0 164:1.0 7:1.0 8:1.0 9:1.0 81:1.0 13:1.0 224:1.0 11:1.0 160:1.0 187:1.0 
0.4776595859661009 2:1.0 220:1.0 111:1.0 485:1.0 1644:1.0 3904:1.0 115:1.0 9:1.0 81:1.0 690:1.0 
0.16460134398644857 2:1.0 14:1.0 111:1.0 5:1.0 2502:1.0 5148:1.0 446:1.0 9:1.0 81:1.0 
0.1905462278709923 2:1.0 52:1.0 4:1.0 51:1.0 89:1.0 140:1.0 8:1.0 9:1.0 81:1.0 11:1.0 70:1.0 13:1.0 
1.000000228881888 2:1.0 14:1.0 4:1.0 5:1.0 3349:1.0 3265:1.0 8:1.0 9:1.0 81:1.0 13:1.0 11:1.0 224:1.0 197:1.0 
499.96052358823584 2:1.0 14:1.0 4:1.0 5:1.0 3349:1.0 7:1.0 8:1.0 9:1.0 81:1.0 11:1.0 160:1.0 13:1.0 
0.18228081754246225 2:1.0 431:1.0 4:1.0 51:1.0 2697:1.0 7:1.0 8:1.0 9:1.0 81:1.0 13:1.0 11:1.0 160:1.0 
0.17888782945397982 2:1.0 39:1.0 4:1.0 5:1.0 6393:1.0 2307:1.0 98:1.0 9:1.0 81:1.0 71:1.0 11:1.0 
0.13270626487799037 2:1.0 14:1.0 4:1.0 51:1.0 10699:1.0 997:1.0 8:1.0 9:1.0 81:1.0 11:1.0 70:1.0 13:1.0 
500.0 2:1.0 14:1.0 4:1.0 5:1.0 1675:1.0 597:1.0 8:1.0 9:1.0 81:1.0 46:1.0 13:1.0 11:1.0 70:1.0 
0.20501092512473698 87:1.0 39:1.0 3655:1.0 15686:1.0 5395:1.0 3656:1.0 69:1.0 9:1.0 81:1.0 13:1.0 
0.1696729086780317 2:1.0 14:1.0 4:1.0 51:1.0 164:1.0 2196:1.0 8:1.0 9:1.0 81:1.0 13:1.0 11:1.0 224:1.0 690:1.0 
0.1421737541157332 2:1.0 52:1.0 4:1.0 5:1.0 89:1.0 558:1.0 98:1.0 9:1.0 81:1.0 71:1.0 11:1.0 
0.17389314889699653 2:1.0 14:1.0 182:1.0 5:1.0 2502:1.0 492:1.0 28:1.0 9:1.0 81:1.0 31:1.0 191:1.0 
0.16851483719679536 2:1.0 52:1.0 243:1.0 697:1.0 54:1.0 15008:1.0 115:1.0 9:1.0 81:1.0 
0.16936700716207817 2:1.0 220:1.0 4:1.0 51:1.0 872:1.0 26567:1.0 8:1.0 9:1.0 81:1.0 11:1.0 224:1.0 187:1.0 13:1.0 
0.11853874890267665 2:1.0 52:1.0 243:1.0 5:1.0 471:1.0 22043:1.0 335:1.0 9:1.0 81:1.0 70:1.0 187:1.0 
0.2534157929441724 2:1.0 52:1.0 4:1.0 5:1.0 415:1.0 6247:1.0 98:1.0 9:1.0 81:1.0 71:1.0 11:1.0 
0.18414082145935895 2:1.0 14:1.0 94:1.0 5:1.0 3349:1.0 3930:1.0 103:1.0 9:1.0 81:1.0 31:1.0 
0.08673727039256529 2:1.0 59:1.0 4:1.0 5:1.0 10707:1.0 2284:1.0 8:1.0 9:1.0 81:1.0 13:1.0 11:1.0 224:1.0 
0.08558789972752424 2:1.0 59:1.0 4:1.0 5:1.0 10707:1.0 7:1.0 8:1.0 9:1.0 81:1.0 46:1.0 13:1.0 11:1.0 12:1.0 
500.0 2:1.0 220:1.0 235:1.0 5:1.0 1044:1.0 6636:1.0 69:1.0 9:1.0 81:1.0 13:1.0 46:1.0 187:1.0 71:1.0 
0.36231884057971003 2:1.0 220:1.0 235:1.0 5:1.0 4580:1.0 6636:1.0 69:1.0 9:1.0 81:1.0 13:1.0 71:1.0 46:1.0 187:1.0 
500.0 2:1.0 220:1.0 235:1.0 5:1.0 4580:1.0 6636:1.0 69:1.0 9:1.0 81:1.0 13:1.0 46:1.0 71:1.0 187:1.0 
0.13913120213013327 109:1.0 14:1.0 243:1.0 6434:1.0 894:1.0 669:1.0 446:1.0 9:1.0 81:1.0 13:1.0 187:1.0 
0.38167938931297707 2:1.0 52:1.0 111:1.0 5:1.0 89:1.0 23531:1.0 115:1.0 9:1.0 81:1.0 
0.2819366095603811 2:1.0 39:1.0 111:1.0 485:1.0 3031:1.0 5702:1.0 335:1.0 9:1.0 81:1.0 
0.2264327888629944 2:1.0 14:1.0 4:1.0 5:1.0 164:1.0 2284:1.0 238:1.0 9:1.0 81:1.0 11:1.0 70:1.0 
0.20942644348925435 2:1.0 52:1.0 4:1.0 305:1.0 89:1.0 3265:1.0 8:1.0 9:1.0 81:1.0 13:1.0 11:1.0 197:1.0 46:1.0 
0.13263509295579895 2:1.0 52:1.0 94:1.0 5:1.0 89:1.0 3021:1.0 28:1.0 9:1.0 81:1.0 31:1.0 
0.33867170990251366 2:1.0 59:1.0 111:1.0 5:1.0 17068:1.0 5702:1.0 115:1.0 9:1.0 81:1.0 
0.39111415123179066 2:1.0 14:1.0 155:1.0 697:1.0 164:1.0 767:1.0 158:1.0 9:1.0 81:1.0 
0.2520647285969998 2:1.0 14:1.0 111:1.0 51:1.0 5832:1.0 694:1.0 446:1.0 9:1.0 81:1.0 
1.0847246699135489 2:1.0 14:1.0 4:1.0 51:1.0 1675:1.0 228:1.0 8:1.0 9:1.0 81:1.0 11:1.0 70:1.0 46:1.0 13:1.0 
0.7363581555860801 2:1.0 220:1.0 4:1.0 1237:1.0 872:1.0 33986:1.0 98:1.0 9:1.0 81:1.0 71:1.0 11:1.0 46:1.0 
0.09916074889098839 2:1.0 14:1.0 4:1.0 51:1.0 3885:1.0 7:1.0 8:1.0 9:1.0 81:1.0 11:1.0 13:1.0 224:1.0 160:1.0 
1.6315082962877903 2:1.0 14:1.0 4:1.0 5:1.0 3349:1.0 3458:1.0 8:1.0 9:1.0 81:1.0 11:1.0 13:1.0 224:1.0 
0.20708344064792675 2:1.0 52:1.0 4:1.0 5:1.0 89:1.0 165:1.0 8:1.0 9:1.0 81:1.0 11:1.0 70:1.0 224:1.0 13:1.0 
0.2947630013203391 2:1.0 14:1.0 24:1.0 485:1.0 3349:1.0 3336:1.0 28:1.0 9:1.0 81:1.0 31:1.0 46:1.0 
0.4464285714285714 2:1.0 14:1.0 111:1.0 5:1.0 894:1.0 5603:1.0 115:1.0 9:1.0 81:1.0 
0.14753126295619098 2:1.0 14:1.0 24:1.0 51:1.0 2493:1.0 1754:1.0 28:1.0 9:1.0 81:1.0 31:1.0 
0.14337747609708992 2:1.0 52:1.0 94:1.0 540:1.0 493:1.0 34853:1.0 28:1.0 9:1.0 81:1.0 31:1.0 
0.14645404215056393 2:1.0 52:1.0 94:1.0 51:1.0 89:1.0 152:1.0 146:1.0 9:1.0 81:1.0 31:1.0 
0.2085691079899981 2:1.0 14:1.0 4:1.0 5:1.0 3885:1.0 7:1.0 238:1.0 9:1.0 81:1.0 11:1.0 160:1.0 
0.1950479108743464 2:1.0 14:1.0 4:1.0 485:1.0 10067:1.0 4241:1.0 8:1.0 9:1.0 81:1.0 11:1.0 70:1.0 13:1.0 
0.32346117133035335 2:1.0 59:1.0 4:1.0 485:1.0 2379:1.0 3458:1.0 238:1.0 9:1.0 81:1.0 11:1.0 224:1.0 
0.7033204681920922 2:1.0 220:1.0 4:1.0 5:1.0 20454:1.0 3090:1.0 8:1.0 9:1.0 81:1.0 11:1.0 46:1.0 13:1.0 
0.15102281068516588 2:1.0 521:1.0 4:1.0 2495:1.0 522:1.0 4601:1.0 8:1.0 9:1.0 81:1.0 11:1.0 13:1.0 187:1.0 224:1.0 
0.2427317735915232 2:1.0 14:1.0 243:1.0 5:1.0 3349:1.0 12618:1.0 589:1.0 9:1.0 81:1.0 690:1.0 70:1.0 
0.0669080449108312 109:1.0 52:1.0 118:1.0 6434:1.0 586:1.0 7:1.0 8:1.0 9:1.0 81:1.0 224:1.0 13:1.0 11:1.0 160:1.0 
0.08342325707779963 2:1.0 14:1.0 4:1.0 51:1.0 3349:1.0 228:1.0 8:1.0 9:1.0 81:1.0 11:1.0 70:1.0 46:1.0 224:1.0 13:1.0 
0.07371813013027559 109:1.0 14:1.0 4:1.0 6434:1.0 3349:1.0 228:1.0 8:1.0 9:1.0 81:1.0 11:1.0 70:1.0 46:1.0 224:1.0 13:1.0 
500.0 2:1.0 14:1.0 111:1.0 5:1.0 3349:1.0 228:1.0 446:1.0 9:1.0 81:1.0 
0.1940239211002668 2:1.0 52:1.0 4:1.0 485:1.0 1247:1.0 3090:1.0 8:1.0 9:1.0 81:1.0 11:1.0 224:1.0 13:1.0 
0.11731148494449424 2:1.0 52:1.0 155:1.0 5:1.0 54:1.0 1598:1.0 158:1.0 9:1.0 81:1.0 70:1.0 
0.4464285714285714 2:1.0 59:1.0 111:1.0 5:1.0 2379:1.0 3554:1.0 115:1.0 9:1.0 81:1.0 
0.20901110624592723 2:1.0 52:1.0 111:1.0 51:1.0 89:1.0 17882:1.0 115:1.0 9:1.0 81:1.0 690:1.0 224:1.0 
500.0 2:1.0 14:1.0 4:1.0 5:1.0 3349:1.0 7:1.0 2870:1.0 9:1.0 81:1.0 11:1.0 13:1.0 160:1.0 46:1.0 
0.9120481102435039 2:1.0 14:1.0 4:1.0 5:1.0 3349:1.0 3778:1.0 8:1.0 9:1.0 81:1.0 11:1.0 3266:1.0 13:1.0 197:1.0 
0.09102590265419508 2:1.0 52:1.0 4:1.0 305:1.0 415:1.0 893:1.0 8:1.0 9:1.0 81:1.0 13:1.0 11:1.0 224:1.0 426:1.0 
0.18959897892492927 2:1.0 52:1.0 4:1.0 5:1.0 493:1.0 196:1.0 8:1.0 9:1.0 81:1.0 11:1.0 3266:1.0 13:1.0 
0.24322814819862656 2:1.0 137:1.0 111:1.0 5:1.0 214:1.0 1693:1.0 446:1.0 9:1.0 81:1.0 
0.24086970374524622 109:1.0 14:1.0 4:1.0 1727:1.0 3349:1.0 3458:1.0 8:1.0 9:1.0 81:1.0 224:1.0 13:1.0 11:1.0 187:1.0 
0.3325530443343795 2:1.0 52:1.0 243:1.0 51:1.0 89:1.0 6591:1.0 115:1.0 9:1.0 81:1.0 
0.19650286303826262 2:1.0 52:1.0 118:1.0 5:1.0 599:1.0 1933:1.0 238:1.0 9:1.0 81:1.0 11:1.0 13:1.0 70:1.0 
0.40048268900460765 2:1.0 14:1.0 111:1.0 51:1.0 3349:1.0 997:1.0 115:1.0 9:1.0 81:1.0 
0.24106973861354722 2:1.0 14:1.0 4:1.0 5:1.0 3349:1.0 7:1.0 8:1.0 9:1.0 81:1.0 13:1.0 11:1.0 160:1.0 
0.1962538861989037 2:1.0 35:1.0 66:1.0 5:1.0 788:1.0 16157:1.0 8:1.0 9:1.0 81:1.0 11:1.0 506:1.0 13:1.0 
0.30717345427438764 2:1.0 59:1.0 94:1.0 5:1.0 12930:1.0 3454:1.0 103:1.0 9:1.0 81:1.0 31:1.0 
0.21829745412041096 109:1.0 52:1.0 4:1.0 1727:1.0 415:1.0 68:1.0 238:1.0 9:1.0 81:1.0 11:1.0 70:1.0 
0.08214993769792886 2:1.0 52:1.0 4:1.0 5:1.0 3382:1.0 3265:1.0 8:1.0 9:1.0 81:1.0 13:1.0 11:1.0 3266:1.0 197:1.0 
0.24594839974745739 2:1.0 220:1.0 212:1.0 5:1.0 2511:1.0 1576:1.0 8:1.0 9:1.0 81:1.0 13:1.0 224:1.0 187:1.0 
0.35201180291588025 2:1.0 220:1.0 118:1.0 5:1.0 3357:1.0 7:1.0 335:1.0 9:1.0 81:1.0 11:1.0 160:1.0 
0.5011660675698411 2:1.0 52:1.0 24:1.0 5:1.0 89:1.0 1595:1.0 28:1.0 9:1.0 81:1.0 31:1.0 
0.17966508484470345 2:1.0 220:1.0 66:1.0 5:1.0 14175:1.0 2196:1.0 8:1.0 9:1.0 81:1.0 13:1.0 11:1.0 224:1.0 
0.19956833781763098 2:1.0 14:1.0 4:1.0 485:1.0 3349:1.0 694:1.0 115:1.0 9:1.0 81:1.0 70:1.0 506:1.0 13:1.0 224:1.0 
0.11734712914527157 2:1.0 52:1.0 243:1.0 51:1.0 415:1.0 12283:1.0 115:1.0 9:1.0 81:1.0 13:1.0 224:1.0 
0.09485272046096783 2:1.0 52:1.0 4:1.0 5:1.0 89:1.0 3479:1.0 238:1.0 9:1.0 81:1.0 11:1.0 70:1.0 224:1.0 
0.12752755257623855 2:1.0 52:1.0 212:1.0 5:1.0 415:1.0 215:1.0 146:1.0 9:1.0 81:1.0 13:1.0 11:1.0 
500.0 2:1.0 14:1.0 4:1.0 5:1.0 3349:1.0 3458:1.0 8:1.0 9:1.0 81:1.0 11:1.0 224:1.0 13:1.0 
0.18358100074622644 2:1.0 52:1.0 94:1.0 51:1.0 89:1.0 5474:1.0 103:1.0 9:1.0 81:1.0 31:1.0 
0.2093983462861901 2:1.0 52:1.0 4:1.0 51:1.0 89:1.0 2604:1.0 335:1.0 9:1.0 81:1.0 224:1.0 13:1.0 11:1.0 3266:1.0 197:1.0 
0.18330058755332612 2:1.0 14:1.0 155:1.0 5:1.0 164:1.0 1083:1.0 158:1.0 9:1.0 81:1.0 70:1.0 
0.15095523098623687 2:1.0 52:1.0 118:1.0 697:1.0 599:1.0 6591:1.0 8:1.0 9:1.0 81:1.0 46:1.0 13:1.0 11:1.0 
0.25770500010603237 2:1.0 220:1.0 4:1.0 5:1.0 872:1.0 8892:1.0 8:1.0 9:1.0 81:1.0 13:1.0 11:1.0 70:1.0 
1.1748820710282435 2:1.0 14:1.0 4:1.0 51:1.0 3349:1.0 6247:1.0 8:1.0 9:1.0 81:1.0 11:1.0 46:1.0 635:1.0 13:1.0 
0.2545744483521668 2:1.0 431:1.0 155:1.0 5:1.0 370:1.0 121:1.0 115:1.0 9:1.0 81:1.0 
0.14772709418075683 2:1.0 431:1.0 4:1.0 5:1.0 590:1.0 2196:1.0 176:1.0 9:1.0 81:1.0 11:1.0 690:1.0 224:1.0 71:1.0 
0.12615628566371 2:1.0 52:1.0 4:1.0 697:1.0 1247:1.0 3479:1.0 8:1.0 9:1.0 81:1.0 11:1.0 13:1.0 506:1.0 70:1.0 
0.18518306156865896 109:1.0 431:1.0 155:1.0 1227:1.0 6347:1.0 1461:1.0 158:1.0 9:1.0 81:1.0 187:1.0 
0.11756204595273954 1245:1.0 14:1.0 4:1.0 4560:1.0 1675:1.0 2720:1.0 238:1.0 9:1.0 81:1.0 11:1.0 70:1.0 197:1.0 3266:1.0 
0.28133627747918943 2:1.0 220:1.0 24:1.0 5:1.0 4927:1.0 1754:1.0 146:1.0 9:1.0 81:1.0 31:1.0 
0.2201362517402628 2:1.0 52:1.0 4:1.0 697:1.0 89:1.0 3778:1.0 238:1.0 9:1.0 81:1.0 11:1.0 187:1.0 
0.38167938931297707 2:1.0 14:1.0 111:1.0 5:1.0 164:1.0 564:1.0 115:1.0 9:1.0 81:1.0 187:1.0 
0.2620871985334984 2:1.0 14:1.0 111:1.0 5:1.0 2502:1.0 14038:1.0 176:1.0 9:1.0 81:1.0 
0.18108488296547154 2:1.0 14:1.0 155:1.0 51:1.0 894:1.0 27:1.0 158:1.0 9:1.0 81:1.0 70:1.0 
0.3268955643953703 2:1.0 14:1.0 4:1.0 5:1.0 3349:1.0 140:1.0 8:1.0 9:1.0 81:1.0 13:1.0 11:1.0 70:1.0 
0.11673692971472754 2:1.0 52:1.0 111:1.0 1480:1.0 829:1.0 6613:1.0 115:1.0 9:1.0 81:1.0 346:1.0 
0.25436221208338633 2:1.0 14:1.0 111:1.0 5:1.0 2502:1.0 33978:1.0 115:1.0 9:1.0 81:1.0 224:1.0 
1.6523995676760148 2:1.0 14:1.0 4:1.0 5:1.0 3349:1.0 3458:1.0 8:1.0 9:1.0 81:1.0 13:1.0 11:1.0 46:1.0 224:1.0 
0.15351365423828064 2:1.0 431:1.0 111:1.0 5:1.0 5280:1.0 906:1.0 115:1.0 9:1.0 81:1.0 690:1.0 71:1.0 13:1.0 
0.20041346341752944 2:1.0 59:1.0 4:1.0 5:1.0 2221:1.0 2284:1.0 8:1.0 9:1.0 81:1.0 13:1.0 11:1.0 224:1.0 
0.10321484799479677 2:1.0 59:1.0 4:1.0 5:1.0 2221:1.0 7:1.0 8:1.0 9:1.0 81:1.0 46:1.0 13:1.0 11:1.0 12:1.0 
0.19398756286252716 2:1.0 59:1.0 4:1.0 5:1.0 2221:1.0 3265:1.0 8:1.0 9:1.0 81:1.0 46:1.0 13:1.0 11:1.0 3266:1.0 197:1.0 
0.36231884057971037 2:1.0 14:1.0 4:1.0 5:1.0 3349:1.0 3778:1.0 8:1.0 9:1.0 81:1.0 13:1.0 11:1.0 3266:1.0 197:1.0 
0.11442891889385659 2:1.0 14:1.0 4:1.0 5:1.0 5832:1.0 140:1.0 8:1.0 9:1.0 81:1.0 11:1.0 70:1.0 13:1.0 
0.13615463216021065 2:1.0 14:1.0 155:1.0 1480:1.0 894:1.0 2196:1.0 158:1.0 9:1.0 81:1.0 
0.16609990391217647 2:1.0 14:1.0 4:1.0 5:1.0 3349:1.0 494:1.0 8:1.0 9:1.0 81:1.0 426:1.0 13:1.0 11:1.0 70:1.0 
0.11440984957991918 2:1.0 14:1.0 4:1.0 51:1.0 1675:1.0 4824:1.0 146:1.0 9:1.0 81:1.0 11:1.0 70:1.0 
0.3780249057223161 2:1.0 52:1.0 111:1.0 5:1.0 89:1.0 19825:1.0 446:1.0 9:1.0 81:1.0 
0.15832190851895947 2:1.0 52:1.0 155:1.0 51:1.0 342:1.0 1110:1.0 158:1.0 9:1.0 81:1.0 70:1.0 
0.19013617592715792 2:1.0 52:1.0 111:1.0 5:1.0 89:1.0 16053:1.0 446:1.0 9:1.0 81:1.0 13:1.0 71:1.0 
0.14377884819394787 2:1.0 52:1.0 4:1.0 5:1.0 89:1.0 791:1.0 8:1.0 9:1.0 81:1.0 13:1.0 11:1.0 70:1.0 
0.19562728739753033 2:1.0 220:1.0 212:1.0 7794:1.0 902:1.0 674:1.0 8:1.0 9:1.0 81:1.0 13:1.0 11:1.0 
0.26214877534397113 2:1.0 14:1.0 243:1.0 672:1.0 1675:1.0 2748:1.0 254:1.0 9:1.0 81:1.0 
0.2285119156090785 2:1.0 52:1.0 4:1.0 4583:1.0 415:1.0 12364:1.0 238:1.0 9:1.0 81:1.0 11:1.0 
0.1468589860519629 2:1.0 59:1.0 4:1.0 51:1.0 16586:1.0 1713:1.0 8:1.0 9:1.0 81:1.0 11:1.0 70:1.0 224:1.0 
0.31998795305563665 2:1.0 73:1.0 111:1.0 5:1.0 6158:1.0 7:1.0 115:1.0 9:1.0 81:1.0 160:1.0 
0.16133243596135474 2:1.0 431:1.0 4:1.0 485:1.0 214:1.0 6818:1.0 238:1.0 9:1.0 81:1.0 11:1.0 70:1.0 
0.1703939708525229 2:1.0 14:1.0 4:1.0 5:1.0 3885:1.0 16154:1.0 28:1.0 9:1.0 81:1.0 31:1.0 11:1.0 224:1.0 70:1.0 
0.1850183040379149 2:1.0 431:1.0 243:1.0 5:1.0 9127:1.0 223:1.0 115:1.0 9:1.0 81:1.0 70:1.0 13:1.0 
0.2002456985676724 2:1.0 14:1.0 243:1.0 305:1.0 894:1.0 6818:1.0 115:1.0 9:1.0 81:1.0 70:1.0 
0.119810667227578 2:1.0 52:1.0 24:1.0 485:1.0 89:1.0 2389:1.0 103:1.0 9:1.0 81:1.0 31:1.0 
0.12826828792104114 2:1.0 52:1.0 4:1.0 5:1.0 453:1.0 1368:1.0 176:1.0 9:1.0 81:1.0 
0.27730427822982356 1245:1.0 35:1.0 155:1.0 4560:1.0 4446:1.0 6752:1.0 158:1.0 9:1.0 81:1.0 
0.32090842954314464 2:1.0 14:1.0 111:1.0 5:1.0 2502:1.0 3258:1.0 115:1.0 9:1.0 81:1.0 
0.24400661519936453 2:1.0 59:1.0 24:1.0 485:1.0 8556:1.0 2389:1.0 28:1.0 9:1.0 81:1.0 31:1.0 
0.11974420923910598 2:1.0 52:1.0 118:1.0 679:1.0 586:1.0 4439:1.0 8:1.0 9:1.0 81:1.0 13:1.0 11:1.0 506:1.0 
0.13508231145500815 2:1.0 52:1.0 4:1.0 485:1.0 4232:1.0 369:1.0 28:1.0 9:1.0 81:1.0 224:1.0 11:1.0 160:1.0 13:1.0 187:1.0 
0.09138675529482534 2:1.0 52:1.0 243:1.0 15632:1.0 4232:1.0 68:1.0 115:1.0 9:1.0 81:1.0 70:1.0 635:1.0 
0.1589131033557953 2:1.0 14:1.0 155:1.0 5:1.0 1675:1.0 22380:1.0 115:1.0 9:1.0 81:1.0 224:1.0 
0.07972322370735804 2:1.0 14:1.0 4:1.0 51:1.0 1675:1.0 9269:1.0 8:1.0 9:1.0 81:1.0 13:1.0 11:1.0 70:1.0 147:1.0 
0.19589129201229838 2:1.0 14:1.0 243:1.0 7704:1.0 3885:1.0 1160:1.0 446:1.0 9:1.0 81:1.0 
0.9944897913031783 2:1.0 52:1.0 111:1.0 5:1.0 89:1.0 419:1.0 446:1.0 9:1.0 81:1.0 
0.2585447142937184 2:1.0 52:1.0 94:1.0 485:1.0 855:1.0 3845:1.0 28:1.0 9:1.0 81:1.0 31:1.0 
0.17925332062228017 2:1.0 328:1.0 4:1.0 5:1.0 330:1.0 18052:1.0 8:1.0 9:1.0 81:1.0 224:1.0 13:1.0 11:1.0 70:1.0 
0.16997215980304053 2:1.0 52:1.0 4:1.0 5:1.0 493:1.0 1446:1.0 8:1.0 9:1.0 81:1.0 13:1.0 11:1.0 506:1.0 70:1.0 
0.5865612193891723 2:1.0 220:1.0 4:1.0 5:1.0 5467:1.0 997:1.0 8:1.0 9:1.0 81:1.0 13:1.0 11:1.0 70:1.0 
0.1552555555057649 109:1.0 52:1.0 111:1.0 24463:1.0 108:1.0 40366:1.0 115:1.0 9:1.0 81:1.0 
0.10511295079924167 2:1.0 110:1.0 66:1.0 5:1.0 113:1.0 223:1.0 8:1.0 9:1.0 81:1.0 11:1.0 12:1.0 187:1.0 
0.07550259915621063 2:1.0 59:1.0 4:1.0 5:1.0 8556:1.0 140:1.0 8:1.0 9:1.0 81:1.0 70:1.0 13:1.0 11:1.0 
0.18620850764642188 2:1.0 220:1.0 66:1.0 358:1.0 1969:1.0 223:1.0 8:1.0 9:1.0 81:1.0 13:1.0 11:1.0 70:1.0 
0.27865502429972966 2:1.0 59:1.0 4:1.0 5:1.0 8556:1.0 3458:1.0 8:1.0 9:1.0 81:1.0 11:1.0 224:1.0 13:1.0 46:1.0 
0.2611354543089353 2:1.0 52:1.0 155:1.0 5:1.0 89:1.0 669:1.0 158:1.0 9:1.0 81:1.0 
0.13048938278164354 2:1.0 59:1.0 4:1.0 5:1.0 12930:1.0 140:1.0 8:1.0 9:1.0 81:1.0 426:1.0 11:1.0 13:1.0 70:1.0 
0.1283454081064601 2:1.0 52:1.0 111:1.0 5:1.0 4232:1.0 15461:1.0 115:1.0 9:1.0 81:1.0 70:1.0 13:1.0 
0.28892522003748095 2:1.0 52:1.0 111:1.0 5:1.0 471:1.0 732:1.0 115:1.0 9:1.0 81:1.0 426:1.0 13:1.0 187:1.0 
1.168542336377186 2:1.0 220:1.0 4:1.0 5:1.0 330:1.0 3090:1.0 28:1.0 9:1.0 81:1.0 46:1.0 11:1.0 71:1.0 
0.3413618990111813 2:1.0 52:1.0 111:1.0 51:1.0 89:1.0 3207:1.0 115:1.0 9:1.0 81:1.0 
0.1700416628045715 2:1.0 52:1.0 155:1.0 485:1.0 5248:1.0 1125:1.0 158:1.0 9:1.0 81:1.0 70:1.0 
0.12131064589342908 2:1.0 52:1.0 111:1.0 697:1.0 1247:1.0 21168:1.0 254:1.0 9:1.0 81:1.0 
0.10063048661448826 109:1.0 52:1.0 24:1.0 24110:1.0 89:1.0 425:1.0 3268:1.0 9:1.0 81:1.0 31:1.0 13:1.0 187:1.0 
0.4119846129967676 2:1.0 52:1.0 111:1.0 51:1.0 89:1.0 165:1.0 115:1.0 9:1.0 81:1.0 
0.2080143456605065 2:1.0 14:1.0 60:1.0 5:1.0 1675:1.0 1554:1.0 28:1.0 9:1.0 81:1.0 31:1.0 127:1.0 
0.20379188282061556 2:1.0 52:1.0 4:1.0 5:1.0 89:1.0 767:1.0 8:1.0 9:1.0 81:1.0 13:1.0 11:1.0 70:1.0 
0.2853319777420322 2:1.0 283:1.0 111:1.0 697:1.0 7743:1.0 3115:1.0 115:1.0 9:1.0 81:1.0 
0.18867924528301885 450:1.0 220:1.0 118:1.0 28753:1.0 902:1.0 1167:1.0 8:1.0 9:1.0 81:1.0 13:1.0 11:1.0 70:1.0 
0.18561184755415663 154:1.0 52:1.0 155:1.0 1947:1.0 413:1.0 4692:1.0 158:1.0 9:1.0 81:1.0 160:1.0 
0.21767402432505964 2:1.0 52:1.0 111:1.0 5:1.0 89:1.0 3115:1.0 115:1.0 9:1.0 81:1.0 
0.3402525226617145 2:1.0 52:1.0 4:1.0 5:1.0 471:1.0 3458:1.0 8:1.0 9:1.0 81:1.0 11:1.0 224:1.0 13:1.0 
0.21061350404082174 2:1.0 59:1.0 155:1.0 5:1.0 16586:1.0 997:1.0 158:1.0 9:1.0 81:1.0 70:1.0 
0.18966879463572714 2:1.0 52:1.0 4:1.0 5:1.0 471:1.0 2284:1.0 8:1.0 9:1.0 81:1.0 13:1.0 11:1.0 635:1.0 224:1.0 
0.1308861636752169 2:1.0 220:1.0 118:1.0 51:1.0 4190:1.0 7:1.0 8:1.0 9:1.0 81:1.0 13:1.0 11:1.0 160:1.0 
0.2020306994551928 2:1.0 59:1.0 243:1.0 485:1.0 2221:1.0 4617:1.0 28:1.0 9:1.0 81:1.0 11:1.0 13:1.0 690:1.0 635:1.0 
0.6557698304984617 2:1.0 59:1.0 4:1.0 5:1.0 8556:1.0 3458:1.0 8:1.0 9:1.0 81:1.0 11:1.0 224:1.0 13:1.0 
0.09643214273864113 2:1.0 59:1.0 4:1.0 5:1.0 2379:1.0 7239:1.0 8:1.0 9:1.0 81:1.0 13:1.0 11:1.0 70:1.0 
0.09896265840422332 2:1.0 59:1.0 4:1.0 51:1.0 2379:1.0 11033:1.0 335:1.0 9:1.0 81:1.0 11:1.0 70:1.0 506:1.0 224:1.0 
0.3383773535195501 2:1.0 39:1.0 111:1.0 51:1.0 3786:1.0 1025:1.0 115:1.0 9:1.0 81:1.0 
0.11335416418634614 2:1.0 52:1.0 4:1.0 5:1.0 4232:1.0 8919:1.0 8:1.0 9:1.0 81:1.0 11:1.0 13:1.0 187:1.0 
500.0 2:1.0 59:1.0 4:1.0 5:1.0 2379:1.0 4543:1.0 8:1.0 9:1.0 81:1.0 11:1.0 3266:1.0 197:1.0 46:1.0 13:1.0 
0.15816129474927262 2:1.0 137:1.0 118:1.0 5:1.0 422:1.0 42090:1.0 8:1.0 9:1.0 81:1.0 11:1.0 70:1.0 13:1.0 
0.2460861554527835 2:1.0 14:1.0 155:1.0 51:1.0 894:1.0 7864:1.0 158:1.0 9:1.0 81:1.0 70:1.0 506:1.0 
0.8625280901087812 2:1.0 59:1.0 4:1.0 5:1.0 8556:1.0 3458:1.0 8:1.0 9:1.0 81:1.0 46:1.0 13:1.0 11:1.0 224:1.0 
0.17890504995465265 2:1.0 52:1.0 24:1.0 5:1.0 89:1.0 3293:1.0 28:1.0 9:1.0 81:1.0 31:1.0 
0.08689922044626786 2:1.0 59:1.0 4:1.0 5:1.0 8556:1.0 4187:1.0 8:1.0 9:1.0 81:1.0 11:1.0 224:1.0 13:1.0 
0.3862243313154345 2:1.0 52:1.0 4:1.0 5:1.0 471:1.0 3265:1.0 8:1.0 9:1.0 81:1.0 13:1.0 11:1.0 3266:1.0 197:1.0 
0.0835185118357678 2:1.0 52:1.0 4:1.0 4207:1.0 855:1.0 7803:1.0 8:1.0 9:1.0 81:1.0 224:1.0 13:1.0 11:1.0 70:1.0 635:1.0 
0.20289095373090263 2:1.0 220:1.0 4:1.0 5:1.0 10388:1.0 4057:1.0 8:1.0 9:1.0 81:1.0 13:1.0 11:1.0 70:1.0 187:1.0 
0.38836499282740977 2:1.0 220:1.0 24:1.0 485:1.0 872:1.0 19628:1.0 103:1.0 9:1.0 81:1.0 31:1.0 
0.3473296114901066 2:1.0 220:1.0 243:1.0 1237:1.0 2868:1.0 21168:1.0 115:1.0 9:1.0 81:1.0 
0.17361111111111113 2:1.0 220:1.0 66:1.0 5:1.0 5607:1.0 4617:1.0 8:1.0 9:1.0 81:1.0 13:1.0 11:1.0 224:1.0 71:1.0 
0.15478509350738873 2:1.0 52:1.0 66:1.0 5:1.0 599:1.0 4617:1.0 8:1.0 9:1.0 81:1.0 13:1.0 11:1.0 71:1.0 224:1.0 
0.31144112053901973 2:1.0 52:1.0 94:1.0 5:1.0 199:1.0 4678:1.0 28:1.0 9:1.0 81:1.0 
0.0951820032003955 2:1.0 220:1.0 155:1.0 5:1.0 5771:1.0 735:1.0 8:1.0 9:1.0 81:1.0 13:1.0 11:1.0 635:1.0 690:1.0 224:1.0 
0.12490136011202298 1245:1.0 52:1.0 118:1.0 4560:1.0 89:1.0 465:1.0 115:1.0 9:1.0 81:1.0 70:1.0 
0.41103934112552104 2:1.0 52:1.0 111:1.0 5:1.0 855:1.0 1598:1.0 446:1.0 9:1.0 81:1.0 
0.13313164979917064 2:1.0 220:1.0 155:1.0 5:1.0 902:1.0 369:1.0 146:1.0 9:1.0 81:1.0 70:1.0 13:1.0 187:1.0 
0.262775190296868 2:1.0 220:1.0 155:1.0 367:1.0 902:1.0 369:1.0 176:1.0 9:1.0 81:1.0 70:1.0 
0.0945533007611211 1245:1.0 220:1.0 155:1.0 4560:1.0 12801:1.0 648:1.0 158:1.0 9:1.0 81:1.0 70:1.0 
0.2701149327778402 2:1.0 52:1.0 4:1.0 5:1.0 493:1.0 3090:1.0 455:1.0 9:1.0 81:1.0 13:1.0 187:1.0 
0.08570401586174183 2:1.0 52:1.0 66:1.0 51:1.0 599:1.0 33710:1.0 8:1.0 9:1.0 81:1.0 11:1.0 13:1.0 
0.20422275418322577 154:1.0 14:1.0 111:1.0 15206:1.0 164:1.0 68:1.0 446:1.0 9:1.0 81:1.0 690:1.0 346:1.0 
0.249994554809721 2:1.0 14:1.0 4:1.0 51:1.0 1675:1.0 11184:1.0 238:1.0 9:1.0 81:1.0 11:1.0 
0.22972499586311512 2:1.0 52:1.0 4:1.0 51:1.0 89:1.0 13198:1.0 8:1.0 9:1.0 81:1.0 11:1.0 13:1.0 
0.20847800421894114 2:1.0 220:1.0 66:1.0 8984:1.0 902:1.0 223:1.0 8:1.0 9:1.0 81:1.0 13:1.0 11:1.0 70:1.0 
0.08941656132857376 109:1.0 52:1.0 155:1.0 1727:1.0 599:1.0 397:1.0 115:1.0 9:1.0 81:1.0 70:1.0 13:1.0 187:1.0 
0.13557282298433523 2:1.0 52:1.0 639:1.0 5:1.0 89:1.0 642:1.0 28:1.0 9:1.0 81:1.0 426:1.0 
0.2210433615360197 2:1.0 14:1.0 4:1.0 5:1.0 1675:1.0 3813:1.0 8:1.0 9:1.0 81:1.0 11:1.0 70:1.0 
0.2287823313187267 2:1.0 14:1.0 111:1.0 5:1.0 2502:1.0 11595:1.0 115:1.0 9:1.0 81:1.0 
0.3135796819662688 2:1.0 59:1.0 111:1.0 5:1.0 10707:1.0 12271:1.0 115:1.0 9:1.0 81:1.0 224:1.0 
0.32667188508819106 2:1.0 220:1.0 24:1.0 5:1.0 872:1.0 4543:1.0 28:1.0 9:1.0 81:1.0 31:1.0 
0.12601822214330985 2:1.0 52:1.0 155:1.0 5:1.0 342:1.0 7:1.0 115:1.0 9:1.0 81:1.0 160:1.0 
0.17530238796575992 2:1.0 220:1.0 155:1.0 5:1.0 1247:1.0 223:1.0 115:1.0 9:1.0 81:1.0 70:1.0 
0.2090862584057201 2:1.0 239:1.0 155:1.0 5:1.0 2697:1.0 165:1.0 158:1.0 9:1.0 81:1.0 70:1.0 224:1.0 
0.1881774782049364 2:1.0 110:1.0 24:1.0 5:1.0 113:1.0 196:1.0 146:1.0 9:1.0 81:1.0 31:1.0 71:1.0 
500.0 2:1.0 14:1.0 4:1.0 5:1.0 3349:1.0 3265:1.0 8:1.0 9:1.0 81:1.0 11:1.0 3266:1.0 197:1.0 13:1.0 
0.1702127825609468 2:1.0 52:1.0 155:1.0 485:1.0 89:1.0 1125:1.0 158:1.0 9:1.0 81:1.0 70:1.0 
0.730486644050897 2:1.0 14:1.0 155:1.0 51:1.0 1675:1.0 3554:1.0 115:1.0 9:1.0 81:1.0 70:1.0 
0.19448898099123402 2:1.0 220:1.0 4:1.0 51:1.0 5467:1.0 7:1.0 176:1.0 9:1.0 81:1.0 13:1.0 11:1.0 12:1.0 
0.2170252269318307 2:1.0 220:1.0 4:1.0 1480:1.0 872:1.0 4650:1.0 238:1.0 9:1.0 81:1.0 11:1.0 70:1.0 46:1.0 
0.10286754174930074 2:1.0 220:1.0 4:1.0 51:1.0 872:1.0 4650:1.0 238:1.0 9:1.0 81:1.0 11:1.0 70:1.0 46:1.0 
0.1790108800989897 2:1.0 52:1.0 155:1.0 5:1.0 89:1.0 1368:1.0 115:1.0 9:1.0 81:1.0 187:1.0 
0.25046090303567886 2:1.0 220:1.0 155:1.0 5:1.0 902:1.0 2300:1.0 8:1.0 9:1.0 81:1.0 11:1.0 506:1.0 13:1.0 
0.2434806214814866 2:1.0 220:1.0 66:1.0 51:1.0 902:1.0 7:1.0 176:1.0 9:1.0 81:1.0 11:1.0 224:1.0 1636:1.0 
0.13391353548199264 2:1.0 14:1.0 24:1.0 5:1.0 17401:1.0 3280:1.0 103:1.0 9:1.0 81:1.0 31:1.0 1162:1.0 
0.3034637582646188 2:1.0 52:1.0 111:1.0 51:1.0 54:1.0 20546:1.0 115:1.0 9:1.0 81:1.0 
0.17793594260758108 2:1.0 431:1.0 4:1.0 5:1.0 4609:1.0 9467:1.0 8:1.0 9:1.0 81:1.0 11:1.0 70:1.0 13:1.0 
0.21215140687007616 2:1.0 220:1.0 118:1.0 5:1.0 4190:1.0 7:1.0 8:1.0 9:1.0 81:1.0 426:1.0 13:1.0 11:1.0 12:1.0 
0.22484637517991915 2:1.0 35:1.0 155:1.0 485:1.0 214:1.0 1160:1.0 158:1.0 9:1.0 81:1.0 13:1.0 635:1.0 
0.22564949844848628 2:1.0 220:1.0 66:1.0 5:1.0 5171:1.0 27219:1.0 8:1.0 9:1.0 81:1.0 13:1.0 11:1.0 690:1.0 224:1.0 
0.2021726486556292 2:1.0 14:1.0 243:1.0 5:1.0 894:1.0 6247:1.0 254:1.0 9:1.0 81:1.0 
0.16852835640234462 2:1.0 14:1.0 4:1.0 5:1.0 3349:1.0 592:1.0 8:1.0 9:1.0 81:1.0 13:1.0 11:1.0 70:1.0 147:1.0 
0.12322036427587618 2:1.0 52:1.0 4:1.0 51:1.0 415:1.0 5148:1.0 238:1.0 9:1.0 81:1.0 11:1.0 70:1.0 
0.11761636862494818 2:1.0 14:1.0 243:1.0 5:1.0 3349:1.0 6247:1.0 115:1.0 9:1.0 81:1.0 635:1.0 
0.1722697290405243 2:1.0 52:1.0 155:1.0 5:1.0 89:1.0 5030:1.0 158:1.0 9:1.0 81:1.0 224:1.0 
0.12932223686368213 2:1.0 52:1.0 4:1.0 5:1.0 89:1.0 6282:1.0 8:1.0 9:1.0 81:1.0 13:1.0 11:1.0 70:1.0 187:1.0 
0.2784211142259439 2:1.0 52:1.0 4:1.0 5:1.0 493:1.0 7:1.0 176:1.0 9:1.0 81:1.0 1636:1.0 224:1.0 
0.26517775393237786 2:1.0 220:1.0 4:1.0 51:1.0 872:1.0 369:1.0 8:1.0 9:1.0 81:1.0 11:1.0 70:1.0 13:1.0 
0.2336757906021329 109:1.0 52:1.0 155:1.0 6434:1.0 829:1.0 1693:1.0 115:1.0 9:1.0 81:1.0 70:1.0 
0.20969864906370245 2:1.0 220:1.0 66:1.0 5:1.0 5607:1.0 223:1.0 8:1.0 9:1.0 81:1.0 13:1.0 11:1.0 70:1.0 
0.222550520209345 2:1.0 220:1.0 66:1.0 5:1.0 404:1.0 7:1.0 335:1.0 9:1.0 81:1.0 11:1.0 224:1.0 160:1.0 
0.19109053226576012 34:1.0 283:1.0 4:1.0 307:1.0 1833:1.0 4241:1.0 28:1.0 9:1.0 81:1.0 11:1.0 70:1.0 
0.5680263619434474 2:1.0 14:1.0 111:1.0 485:1.0 164:1.0 15168:1.0 115:1.0 9:1.0 81:1.0 346:1.0 
0.8965402737997402 2:1.0 59:1.0 4:1.0 5:1.0 10707:1.0 3458:1.0 8:1.0 9:1.0 81:1.0 46:1.0 13:1.0 11:1.0 224:1.0 426:1.0 
0.2421252940546588 2:1.0 14:1.0 4:1.0 5:1.0 1675:1.0 14236:1.0 146:1.0 9:1.0 81:1.0 11:1.0 70:1.0 
0.09696480480278667 2:1.0 52:1.0 4:1.0 51:1.0 471:1.0 6247:1.0 455:1.0 9:1.0 81:1.0 11:1.0 224:1.0 13:1.0 187:1.0 
0.10307743304754563 1245:1.0 220:1.0 66:1.0 4560:1.0 3148:1.0 893:1.0 5020:1.0 9:1.0 81:1.0 11:1.0 690:1.0 
0.1337736497898221 2:1.0 52:1.0 4:1.0 5:1.0 89:1.0 465:1.0 8:1.0 9:1.0 81:1.0 11:1.0 71:1.0 70:1.0 13:1.0 
0.20937777791375833 2:1.0 52:1.0 111:1.0 697:1.0 415:1.0 7359:1.0 115:1.0 9:1.0 81:1.0 224:1.0 13:1.0 
0.16419025231859002 2:1.0 52:1.0 243:1.0 51:1.0 89:1.0 906:1.0 254:1.0 9:1.0 81:1.0 
0.20099250548858127 109:1.0 52:1.0 118:1.0 3077:1.0 415:1.0 2628:1.0 8:1.0 9:1.0 81:1.0 11:1.0 13:1.0 
0.31028963427127615 2:1.0 59:1.0 155:1.0 1480:1.0 16586:1.0 735:1.0 115:1.0 9:1.0 81:1.0 
0.18917949938695186 2:1.0 14:1.0 66:1.0 485:1.0 10067:1.0 2720:1.0 8:1.0 9:1.0 81:1.0 13:1.0 11:1.0 197:1.0 
0.20056830571120898 2:1.0 52:1.0 4:1.0 51:1.0 586:1.0 2196:1.0 8:1.0 9:1.0 81:1.0 13:1.0 11:1.0 
0.27468507090290617 87:1.0 59:1.0 155:1.0 2293:1.0 10707:1.0 1461:1.0 158:1.0 9:1.0 81:1.0 
0.12422495322439141 1245:1.0 220:1.0 4:1.0 4560:1.0 1247:1.0 7:1.0 185:1.0 9:1.0 81:1.0 11:1.0 160:1.0 
0.2138587205642915 2:1.0 14:1.0 4:1.0 5:1.0 5187:1.0 1348:1.0 238:1.0 9:1.0 81:1.0 11:1.0 70:1.0 
0.13410157721171678 2:1.0 52:1.0 111:1.0 5:1.0 4022:1.0 1598:1.0 115:1.0 9:1.0 81:1.0 70:1.0 
0.10557974923174088 2:1.0 52:1.0 94:1.0 5:1.0 3382:1.0 296:1.0 28:1.0 9:1.0 81:1.0 31:1.0 32:1.0 
0.18402687152143668 2:1.0 14:1.0 4:1.0 485:1.0 3885:1.0 22586:1.0 8:1.0 9:1.0 81:1.0 11:1.0 70:1.0 71:1.0 13:1.0 187:1.0 
0.20041372864207851 2:1.0 52:1.0 118:1.0 697:1.0 493:1.0 2971:1.0 8:1.0 9:1.0 81:1.0 224:1.0 13:1.0 11:1.0 70:1.0 
0.16339869242852334 2:1.0 431:1.0 4:1.0 5:1.0 19077:1.0 3904:1.0 8:1.0 9:1.0 81:1.0 13:1.0 11:1.0 690:1.0 1343:1.0 
0.2574602963468697 2:1.0 52:1.0 4:1.0 5:1.0 415:1.0 4100:1.0 8:1.0 9:1.0 81:1.0 11:1.0 13:1.0 
0.08564615664113354 2:1.0 59:1.0 4:1.0 5:1.0 8556:1.0 2284:1.0 8:1.0 9:1.0 81:1.0 13:1.0 11:1.0 224:1.0 
500.0 2:1.0 59:1.0 4:1.0 5:1.0 8556:1.0 7:1.0 8:1.0 9:1.0 81:1.0 46:1.0 13:1.0 11:1.0 1636:1.0 
0.21496230427672133 2:1.0 52:1.0 4:1.0 697:1.0 89:1.0 7:1.0 8:1.0 9:1.0 81:1.0 11:1.0 13:1.0 160:1.0 
0.38167938931297707 2:1.0 14:1.0 111:1.0 5:1.0 3349:1.0 3104:1.0 115:1.0 9:1.0 81:1.0 224:1.0 
0.11107637523324802 2:1.0 14:1.0 155:1.0 51:1.0 2502:1.0 228:1.0 115:1.0 9:1.0 81:1.0 70:1.0 
0.39533331587465914 2:1.0 52:1.0 111:1.0 51:1.0 493:1.0 7422:1.0 115:1.0 9:1.0 81:1.0 
0.8300337321753251 2:1.0 14:1.0 4:1.0 5:1.0 3349:1.0 4187:1.0 8:1.0 9:1.0 81:1.0 46:1.0 13:1.0 11:1.0 197:1.0 147:1.0 
0.1759041970154845 2:1.0 14:1.0 4:1.0 5:1.0 3349:1.0 7668:1.0 8:1.0 9:1.0 81:1.0 13:1.0 11:1.0 197:1.0 224:1.0 
0.18974760070803562 2:1.0 52:1.0 4:1.0 51:1.0 89:1.0 228:1.0 8:1.0 9:1.0 81:1.0 11:1.0 70:1.0 46:1.0 13:1.0 
1.7757817612586537 2:1.0 14:1.0 4:1.0 5:1.0 3349:1.0 3458:1.0 8:1.0 9:1.0 81:1.0 46:1.0 13:1.0 11:1.0 224:1.0 
500.0 2:1.0 14:1.0 4:1.0 485:1.0 3349:1.0 3458:1.0 8:1.0 9:1.0 81:1.0 46:1.0 13:1.0 11:1.0 224:1.0 
0.24630541958705107 2:1.0 220:1.0 94:1.0 5:1.0 39235:1.0 10684:1.0 8:1.0 9:1.0 81:1.0 31:1.0 13:1.0 
0.09874655715510124 2:1.0 52:1.0 4:1.0 2251:1.0 54:1.0 2748:1.0 8:1.0 9:1.0 81:1.0 11:1.0 197:1.0 71:1.0 13:1.0 
0.17910133805963024 2:1.0 14:1.0 4:1.0 2251:1.0 10067:1.0 2748:1.0 8:1.0 9:1.0 81:1.0 11:1.0 197:1.0 71:1.0 13:1.0 
0.20018295925788035 2:1.0 14:1.0 4:1.0 5:1.0 3349:1.0 3265:1.0 8:1.0 9:1.0 81:1.0 13:1.0 11:1.0 3266:1.0 147:1.0 
0.15729670894178985 109:1.0 52:1.0 4:1.0 3989:1.0 493:1.0 4100:1.0 8:1.0 9:1.0 81:1.0 13:1.0 11:1.0 46:1.0 187:1.0 
0.11906289233105813 2:1.0 52:1.0 4:1.0 5:1.0 4022:1.0 7:1.0 8:1.0 9:1.0 81:1.0 13:1.0 11:1.0 160:1.0 224:1.0 
0.42945852108760063 2:1.0 59:1.0 4:1.0 485:1.0 8556:1.0 10731:1.0 335:1.0 9:1.0 81:1.0 11:1.0 
0.16590284625184348 2:1.0 14:1.0 4:1.0 5:1.0 3349:1.0 4858:1.0 8:1.0 9:1.0 81:1.0 13:1.0 11:1.0 70:1.0 197:1.0 
1.4405666335502914 2:1.0 14:1.0 4:1.0 5:1.0 3349:1.0 3458:1.0 8:1.0 9:1.0 81:1.0 13:1.0 11:1.0 224:1.0 
500.0 2:1.0 14:1.0 4:1.0 5:1.0 3349:1.0 3458:1.0 8:1.0 9:1.0 81:1.0 13:1.0 11:1.0 224:1.0 
0.20300565138011367 2:1.0 52:1.0 66:1.0 51:1.0 1247:1.0 2105:1.0 8:1.0 9:1.0 81:1.0 224:1.0 13:1.0 11:1.0 690:1.0 70:1.0 
0.1564745202137939 2:1.0 52:1.0 243:1.0 5:1.0 2977:1.0 7196:1.0 115:1.0 9:1.0 81:1.0 70:1.0 
0.08623615127309321 2:1.0 52:1.0 4:1.0 485:1.0 586:1.0 3778:1.0 8:1.0 9:1.0 81:1.0 11:1.0 3266:1.0 197:1.0 224:1.0 46:1.0 13:1.0 
0.1737059328149818 2:1.0 14:1.0 243:1.0 5:1.0 3349:1.0 28654:1.0 446:1.0 9:1.0 81:1.0 
0.26889106586648626 2:1.0 220:1.0 24:1.0 5:1.0 4927:1.0 4010:1.0 28:1.0 9:1.0 81:1.0 31:1.0 
0.19083969465648853 2:1.0 52:1.0 111:1.0 5:1.0 89:1.0 1083:1.0 115:1.0 9:1.0 81:1.0 346:1.0 
0.12386241648688498 2:1.0 14:1.0 4:1.0 5:1.0 1675:1.0 5148:1.0 69:1.0 9:1.0 81:1.0 13:1.0 11:1.0 70:1.0 187:1.0 
0.3511099305738312 2:1.0 52:1.0 243:1.0 5:1.0 342:1.0 22055:1.0 28:1.0 9:1.0 81:1.0 
0.1130798152344905 2:1.0 52:1.0 94:1.0 5:1.0 4022:1.0 3930:1.0 103:1.0 9:1.0 81:1.0 31:1.0 
0.16707123287818604 2:1.0 14:1.0 4:1.0 5:1.0 3349:1.0 3265:1.0 8:1.0 9:1.0 81:1.0 11:1.0 3266:1.0 197:1.0 71:1.0 13:1.0 
0.15021982844501938 2:1.0 23:1.0 4:1.0 5:1.0 522:1.0 33986:1.0 8:1.0 9:1.0 81:1.0 11:1.0 13:1.0 224:1.0 
1.3680311076492424 2:1.0 59:1.0 24:1.0 51:1.0 2379:1.0 10726:1.0 28:1.0 9:1.0 81:1.0 31:1.0 
0.17459713052088208 2:1.0 52:1.0 4:1.0 5:1.0 89:1.0 24623:1.0 238:1.0 9:1.0 81:1.0 70:1.0 11:1.0 
0.2791052732659372 2:1.0 14:1.0 155:1.0 7678:1.0 894:1.0 47064:1.0 115:1.0 9:1.0 81:1.0 
0.16068799469744174 2:1.0 52:1.0 24:1.0 7678:1.0 493:1.0 405:1.0 531:1.0 9:1.0 81:1.0 
0.21252895069187283 2:1.0 220:1.0 66:1.0 5:1.0 353:1.0 7:1.0 8:1.0 9:1.0 81:1.0 13:1.0 11:1.0 12:1.0 
0.17216218427385585 2:1.0 52:1.0 111:1.0 485:1.0 54:1.0 121:1.0 115:1.0 9:1.0 81:1.0 
0.4424778761061943 2:1.0 52:1.0 4:1.0 51:1.0 471:1.0 7:1.0 8:1.0 9:1.0 81:1.0 11:1.0 160:1.0 13:1.0 224:1.0 
0.16262975569522636 2:1.0 14:1.0 111:1.0 485:1.0 164:1.0 1025:1.0 115:1.0 9:1.0 81:1.0 224:1.0 
0.11746417045137444 109:1.0 52:1.0 118:1.0 6434:1.0 4232:1.0 1713:1.0 8:1.0 9:1.0 81:1.0 11:1.0 
0.08747082000103935 2:1.0 52:1.0 4:1.0 305:1.0 199:1.0 569:1.0 335:1.0 9:1.0 81:1.0 13:1.0 11:1.0 147:1.0 
0.11193667819660919 109:1.0 14:1.0 111:1.0 1727:1.0 164:1.0 7:1.0 115:1.0 9:1.0 81:1.0 160:1.0 13:1.0 224:1.0 
0.4139769867084867 2:1.0 14:1.0 4:1.0 485:1.0 3349:1.0 7:1.0 8:1.0 9:1.0 81:1.0 11:1.0 160:1.0 13:1.0 224:1.0 
0.10591571921097394 2:1.0 14:1.0 4:1.0 51:1.0 10067:1.0 767:1.0 8:1.0 9:1.0 81:1.0 13:1.0 11:1.0 70:1.0 224:1.0 
0.2066725731721575 2:1.0 52:1.0 4:1.0 51:1.0 54:1.0 18133:1.0 8:1.0 9:1.0 81:1.0 13:1.0 11:1.0 70:1.0 71:1.0 
0.1966789208126843 2:1.0 14:1.0 4:1.0 5:1.0 3349:1.0 4030:1.0 8:1.0 9:1.0 81:1.0 13:1.0 11:1.0 70:1.0 
0.14437077299599888 2:1.0 14:1.0 155:1.0 5:1.0 3349:1.0 735:1.0 115:1.0 9:1.0 81:1.0 197:1.0 
0.1805112405451278 2:1.0 52:1.0 118:1.0 5:1.0 415:1.0 22823:1.0 238:1.0 9:1.0 81:1.0 11:1.0 70:1.0 
500.0 2:1.0 14:1.0 4:1.0 5:1.0 3349:1.0 3458:1.0 8:1.0 9:1.0 81:1.0 13:1.0 11:1.0 224:1.0 
0.26253202578177276 2:1.0 14:1.0 4:1.0 51:1.0 3349:1.0 597:1.0 8:1.0 9:1.0 81:1.0 11:1.0 70:1.0 13:1.0 
0.10772348059424564 2:1.0 52:1.0 4:1.0 51:1.0 4232:1.0 5030:1.0 8:1.0 9:1.0 81:1.0 13:1.0 11:1.0 3266:1.0 
0.20577397779872728 2:1.0 220:1.0 118:1.0 5:1.0 2511:1.0 7:1.0 8:1.0 9:1.0 81:1.0 224:1.0 13:1.0 160:1.0 
0.33264476081499117 2:1.0 59:1.0 111:1.0 5:1.0 8556:1.0 1987:1.0 446:1.0 9:1.0 81:1.0 
0.24055786337038626 2:1.0 220:1.0 4:1.0 51:1.0 5467:1.0 3788:1.0 8:1.0 9:1.0 81:1.0 13:1.0 11:1.0 224:1.0 
0.228466797704033 2:1.0 14:1.0 243:1.0 5:1.0 10699:1.0 2598:1.0 115:1.0 9:1.0 81:1.0 635:1.0 
0.1536276269027307 2:1.0 52:1.0 4:1.0 485:1.0 415:1.0 223:1.0 8:1.0 9:1.0 81:1.0 11:1.0 70:1.0 187:1.0 13:1.0 
0.30342935987634306 2:1.0 14:1.0 4:1.0 5:1.0 3349:1.0 9838:1.0 8:1.0 9:1.0 81:1.0 13:1.0 11:1.0 147:1.0 
0.315647161245732 2:1.0 23:1.0 111:1.0 5:1.0 522:1.0 6752:1.0 115:1.0 9:1.0 81:1.0 
0.14262166792343298 1245:1.0 220:1.0 118:1.0 4560:1.0 902:1.0 3021:1.0 238:1.0 9:1.0 81:1.0 11:1.0 70:1.0 224:1.0 
0.19230146852390687 2:1.0 14:1.0 4:1.0 485:1.0 5832:1.0 140:1.0 8:1.0 9:1.0 81:1.0 224:1.0 13:1.0 11:1.0 70:1.0 
0.25945951914628995 2:1.0 14:1.0 4:1.0 5:1.0 1675:1.0 2072:1.0 146:1.0 9:1.0 81:1.0 11:1.0 70:1.0 
0.18318714629504493 2:1.0 14:1.0 155:1.0 5:1.0 3349:1.0 3823:1.0 158:1.0 9:1.0 81:1.0 70:1.0 147:1.0 
0.1603343344381888 2:1.0 52:1.0 4:1.0 5:1.0 89:1.0 3793:1.0 8:1.0 9:1.0 81:1.0 13:1.0 11:1.0 70:1.0 224:1.0 
0.17458369083182732 1245:1.0 52:1.0 111:1.0 4560:1.0 493:1.0 7:1.0 115:1.0 9:1.0 81:1.0 160:1.0 
0.1645867033316839 2:1.0 52:1.0 4:1.0 540:1.0 4232:1.0 2847:1.0 8:1.0 9:1.0 81:1.0 11:1.0 71:1.0 13:1.0 
0.2028743637582116 2:1.0 220:1.0 639:1.0 5:1.0 19448:1.0 642:1.0 28:1.0 9:1.0 81:1.0 426:1.0 13:1.0 31:1.0 
0.09270923159014298 109:1.0 14:1.0 4:1.0 2293:1.0 3349:1.0 1461:1.0 176:1.0 9:1.0 81:1.0 11:1.0 635:1.0 
0.1297698386800424 2:1.0 52:1.0 111:1.0 51:1.0 599:1.0 17665:1.0 115:1.0 9:1.0 81:1.0 70:1.0 
0.4464285714285714 2:1.0 14:1.0 111:1.0 5:1.0 894:1.0 1286:1.0 446:1.0 9:1.0 81:1.0 
0.19037216126292195 2:1.0 52:1.0 4:1.0 4556:1.0 471:1.0 48572:1.0 146:1.0 9:1.0 81:1.0 11:1.0 
0.10197421954207357 2:1.0 52:1.0 4:1.0 51:1.0 89:1.0 5148:1.0 8:1.0 9:1.0 81:1.0 13:1.0 11:1.0 506:1.0 70:1.0 
0.21930116553746706 2:1.0 52:1.0 24:1.0 5:1.0 54:1.0 196:1.0 531:1.0 9:1.0 81:1.0 
0.09344488677478718 2:1.0 14:1.0 4:1.0 51:1.0 2502:1.0 1125:1.0 238:1.0 9:1.0 81:1.0 11:1.0 70:1.0 224:1.0 
0.15340347401331772 2:1.0 14:1.0 4:1.0 51:1.0 2502:1.0 22043:1.0 238:1.0 9:1.0 81:1.0 11:1.0 70:1.0 
0.24974951037045878 109:1.0 14:1.0 111:1.0 1947:1.0 164:1.0 5954:1.0 446:1.0 9:1.0 81:1.0 
0.18941924813694805 2:1.0 14:1.0 4:1.0 51:1.0 3349:1.0 140:1.0 8:1.0 9:1.0 81:1.0 13:1.0 70:1.0 11:1.0 46:1.0 
0.14583078722975476 109:1.0 14:1.0 4:1.0 6434:1.0 3349:1.0 140:1.0 8:1.0 9:1.0 81:1.0 13:1.0 70:1.0 11:1.0 46:1.0 
0.2593593938393948 2:1.0 52:1.0 155:1.0 5:1.0 493:1.0 7:1.0 115:1.0 9:1.0 81:1.0 160:1.0 
0.08010733255505179 2:1.0 52:1.0 4:1.0 5:1.0 415:1.0 1286:1.0 8:1.0 9:1.0 81:1.0 13:1.0 11:1.0 70:1.0 147:1.0 
0.31271846229971234 154:1.0 52:1.0 243:1.0 473:1.0 493:1.0 1160:1.0 446:1.0 9:1.0 81:1.0 
0.1771115993562799 109:1.0 52:1.0 4:1.0 6434:1.0 453:1.0 1598:1.0 238:1.0 9:1.0 81:1.0 11:1.0 70:1.0 
0.2809568284098279 2:1.0 14:1.0 111:1.0 51:1.0 10067:1.0 22298:1.0 115:1.0 9:1.0 81:1.0 635:1.0 
0.17476111169564484 2:1.0 52:1.0 4:1.0 5:1.0 415:1.0 3454:1.0 8:1.0 9:1.0 81:1.0 13:1.0 11:1.0 70:1.0 197:1.0 224:1.0 
0.27866624437932036 2:1.0 14:1.0 155:1.0 5:1.0 894:1.0 6247:1.0 158:1.0 9:1.0 81:1.0 224:1.0 635:1.0 
500.0 2:1.0 52:1.0 111:1.0 5:1.0 493:1.0 7:1.0 115:1.0 9:1.0 81:1.0 160:1.0 
500.0 2:1.0 14:1.0 4:1.0 5:1.0 3349:1.0 3458:1.0 8:1.0 9:1.0 81:1.0 13:1.0 11:1.0 224:1.0 
0.1596624116045604 2:1.0 52:1.0 111:1.0 485:1.0 493:1.0 223:1.0 115:1.0 9:1.0 81:1.0 70:1.0 
0.24747892161765475 2:1.0 39:1.0 155:1.0 51:1.0 4656:1.0 472:1.0 115:1.0 9:1.0 81:1.0 224:1.0 
0.17361111111111116 2:1.0 14:1.0 4:1.0 5:1.0 2502:1.0 371:1.0 8:1.0 9:1.0 81:1.0 224:1.0 13:1.0 11:1.0 70:1.0 
0.28194011668032437 2:1.0 14:1.0 24:1.0 5:1.0 3349:1.0 23511:1.0 28:1.0 9:1.0 81:1.0 
500.0 2:1.0 59:1.0 4:1.0 5:1.0 10707:1.0 3265:1.0 8:1.0 9:1.0 81:1.0 46:1.0 13:1.0 11:1.0 3266:1.0 197:1.0 
0.4764248420608173 2:1.0 52:1.0 111:1.0 5:1.0 89:1.0 6236:1.0 446:1.0 9:1.0 81:1.0 71:1.0 
0.17944484332347901 2:1.0 52:1.0 118:1.0 51:1.0 3382:1.0 1461:1.0 335:1.0 9:1.0 81:1.0 11:1.0 
0.3140240621424335 2:1.0 59:1.0 24:1.0 5:1.0 2379:1.0 3457:1.0 103:1.0 9:1.0 81:1.0 31:1.0 46:1.0 
0.1302394398058525 2:1.0 52:1.0 24:1.0 5:1.0 855:1.0 3265:1.0 103:1.0 9:1.0 81:1.0 31:1.0 
500.0 2:1.0 14:1.0 4:1.0 5:1.0 3349:1.0 3458:1.0 8:1.0 9:1.0 81:1.0 13:1.0 11:1.0 224:1.0 
0.06969741076082217 2:1.0 59:1.0 4:1.0 5:1.0 8556:1.0 3458:1.0 8:1.0 9:1.0 81:1.0 13:1.0 11:1.0 224:1.0 
-0.3644234737035776 2:1.0 14:1.0 4:1.0 5:1.0 164:1.0 165:1.0 8:1.0 9:1.0 81:1.0 11:1.0 70:1.0 
-0.14556661288324205 2:1.0 220:1.0 4:1.0 5:1.0 872:1.0 873:1.0 8:1.0 9:1.0 81:1.0 13:1.0 11:1.0 224:1.0 
-0.10687424617781785 2:1.0 73:1.0 118:1.0 5:1.0 2766:1.0 2767:1.0 8:1.0 9:1.0 81:1.0 11:1.0 197:1.0 71:1.0 13:1.0 
-0.3031938836755551 2:1.0 59:1.0 4:1.0 5:1.0 2221:1.0 3796:1.0 8:1.0 9:1.0 81:1.0 11:1.0 197:1.0 13:1.0 
-0.4464285714285714 2:1.0 59:1.0 111:1.0 5:1.0 2379:1.0 997:1.0 446:1.0 9:1.0 81:1.0 
-0.16348734556131686 2:1.0 52:1.0 4:1.0 485:1.0 54:1.0 669:1.0 8:1.0 9:1.0 81:1.0 224:1.0 13:1.0 11:1.0 187:1.0 
-0.5408443585581428 2:1.0 52:1.0 4:1.0 5:1.0 54:1.0 893:1.0 176:1.0 9:1.0 81:1.0 
-0.20902952708657133 2:1.0 73:1.0 4:1.0 697:1.0 5832:1.0 5833:1.0 8:1.0 9:1.0 81:1.0 11:1.0 13:1.0 
-0.2028046187011733 2:1.0 220:1.0 4:1.0 485:1.0 1438:1.0 4617:1.0 238:1.0 9:1.0 81:1.0 11:1.0 
-0.4793693642935456 2:1.0 14:1.0 111:1.0 5:1.0 164:1.0 1348:1.0 446:1.0 9:1.0 81:1.0 
-0.18966879463572714 2:1.0 220:1.0 118:1.0 51:1.0 2275:1.0 223:1.0 8:1.0 9:1.0 81:1.0 13:1.0 11:1.0 70:1.0 
-0.16720855562252013 2:1.0 220:1.0 4:1.0 5:1.0 5467:1.0 1083:1.0 8:1.0 9:1.0 81:1.0 11:1.0 70:1.0 13:1.0 187:1.0 
-0.1386610075217486 2:1.0 220:1.0 118:1.0 5:1.0 902:1.0 6752:1.0 8:1.0 9:1.0 81:1.0 11:1.0 224:1.0 13:1.0 
-0.2840303598591413 2:1.0 52:1.0 4:1.0 5:1.0 586:1.0 7:1.0 335:1.0 9:1.0 81:1.0 46:1.0 13:1.0 11:1.0 224:1.0 160:1.0 
-0.2795480407777599 2:1.0 220:1.0 4:1.0 51:1.0 5467:1.0 2284:1.0 8:1.0 9:1.0 81:1.0 426:1.0 46:1.0 13:1.0 11:1.0 70:1.0 
-0.3573151930266932 2:1.0 14:1.0 155:1.0 5:1.0 164:1.0 165:1.0 158:1.0 9:1.0 81:1.0 70:1.0 
-0.2002456985676724 2:1.0 220:1.0 243:1.0 5:1.0 404:1.0 1110:1.0 446:1.0 9:1.0 81:1.0 70:1.0 
-0.16132150599986486 2:1.0 220:1.0 111:1.0 51:1.0 6246:1.0 7530:1.0 115:1.0 9:1.0 81:1.0 224:1.0 
-0.3135796819662688 2:1.0 39:1.0 111:1.0 51:1.0 7059:1.0 4994:1.0 115:1.0 9:1.0 81:1.0 
-0.4369199991881594 2:1.0 52:1.0 4:1.0 672:1.0 855:1.0 2284:1.0 8:1.0 9:1.0 81:1.0 13:1.0 11:1.0 70:1.0 
-0.31271846229971234 2:1.0 220:1.0 4:1.0 5:1.0 353:1.0 6591:1.0 335:1.0 9:1.0 81:1.0 11:1.0 
-0.2593593938393948 2:1.0 52:1.0 4:1.0 697:1.0 89:1.0 223:1.0 146:1.0 9:1.0 81:1.0 11:1.0 70:1.0 
-0.13508231145500815 2:1.0 220:1.0 4:1.0 5:1.0 5467:1.0 419:1.0 8:1.0 9:1.0 81:1.0 11:1.0 70:1.0 224:1.0 13:1.0 
-2.378987896521601 2:1.0 14:1.0 4:1.0 5:1.0 3349:1.0 3458:1.0 8:1.0 9:1.0 81:1.0 13:1.0 11:1.0 224:1.0 46:1.0 
-0.7479509816590789 2:1.0 14:1.0 4:1.0 485:1.0 3349:1.0 3458:1.0 8:1.0 9:1.0 81:1.0 13:1.0 11:1.0 46:1.0 224:1.0 
-0.748758446981127 2:1.0 52:1.0 4:1.0 5:1.0 493:1.0 8104:1.0 238:1.0 9:1.0 81:1.0 11:1.0 46:1.0 
-0.2791052732659372 2:1.0 14:1.0 4:1.0 7678:1.0 3349:1.0 4189:1.0 8:1.0 9:1.0 81:1.0 13:1.0 11:1.0 
-0.5513540068326874 2:1.0 14:1.0 111:1.0 305:1.0 164:1.0 12814:1.0 115:1.0 9:1.0 81:1.0 
-0.2460861554527835 2:1.0 39:1.0 155:1.0 12873:1.0 12874:1.0 6247:1.0 115:1.0 9:1.0 81:1.0 635:1.0 
-0.18867924528301885 376:1.0 14:1.0 24:1.0 339:1.0 1924:1.0 9203:1.0 28:1.0 9:1.0 81:1.0 31:1.0 13:1.0 
-0.3210280788587883 2:1.0 59:1.0 24:1.0 485:1.0 12930:1.0 8203:1.0 28:1.0 9:1.0 81:1.0 31:1.0 
-0.30429901506393847 2:1.0 59:1.0 182:1.0 5:1.0 2379:1.0 928:1.0 2857:1.0 9:1.0 81:1.0 
-0.14583078722975476 2:1.0 220:1.0 118:1.0 5:1.0 2582:1.0 2196:1.0 8:1.0 9:1.0 81:1.0 11:1.0 690:1.0 13:1.0 
-0.48419421274220464 2:1.0 52:1.0 243:1.0 51:1.0 493:1.0 3090:1.0 115:1.0 9:1.0 81:1.0 
-0.30164407955935163 2:1.0 59:1.0 4:1.0 5:1.0 2379:1.0 223:1.0 8:1.0 9:1.0 81:1.0 46:1.0 13:1.0 11:1.0 70:1.0 224:1.0 
-0.1613324359613557 2:1.0 59:1.0 4:1.0 4583:1.0 2379:1.0 68:1.0 146:1.0 9:1.0 81:1.0 11:1.0 224:1.0 70:1.0 
-0.1057984248298951 2:1.0 220:1.0 4:1.0 5:1.0 3990:1.0 7:1.0 8:1.0 9:1.0 81:1.0 13:1.0 11:1.0 160:1.0 187:1.0 
-0.23009839048958247 2:1.0 220:1.0 5001:1.0 5:1.0 1756:1.0 11671:1.0 28:1.0 9:1.0 81:1.0 31:1.0 
-0.40048268900460765 2:1.0 14:1.0 111:1.0 5:1.0 3349:1.0 3207:1.0 115:1.0 9:1.0 81:1.0 
-1.2614986603315774 2:1.0 52:1.0 111:1.0 5:1.0 89:1.0 6282:1.0 115:1.0 9:1.0 81:1.0 
-0.1714634559100924 2:1.0 14:1.0 4:1.0 485:1.0 3885:1.0 893:1.0 8:1.0 9:1.0 81:1.0 11:1.0 224:1.0 635:1.0 13:1.0 
-0.15291374705607694 2:1.0 604:1.0 66:1.0 672:1.0 605:1.0 14177:1.0 146:1.0 9:1.0 81:1.0 11:1.0 70:1.0 
-500.0 2:1.0 14:1.0 4:1.0 5:1.0 3349:1.0 3458:1.0 8:1.0 9:1.0 81:1.0 13:1.0 11:1.0 224:1.0 
-0.42873073495620095 2:1.0 52:1.0 155:1.0 5:1.0 89:1.0 505:1.0 158:1.0 9:1.0 81:1.0 197:1.0 
-0.09270923159014298 2:1.0 220:1.0 118:1.0 672:1.0 902:1.0 223:1.0 8:1.0 9:1.0 81:1.0 11:1.0 70:1.0 13:1.0 
-0.1771115993562799 2:1.0 137:1.0 66:1.0 5:1.0 13367:1.0 4603:1.0 146:1.0 9:1.0 81:1.0 11:1.0 71:1.0 690:1.0 13:1.0 
-0.17361111111111113 2:1.0 220:1.0 66:1.0 5:1.0 5607:1.0 4603:1.0 146:1.0 9:1.0 81:1.0 71:1.0 11:1.0 690:1.0 13:1.0 
-0.2170252269318307 2:1.0 220:1.0 1537:1.0 5:1.0 5607:1.0 1539:1.0 455:1.0 9:1.0 81:1.0 10540:1.0 
-0.10591571921097394 2:1.0 220:1.0 118:1.0 5:1.0 902:1.0 7:1.0 8:1.0 9:1.0 81:1.0 11:1.0 160:1.0 13:1.0 
-0.3112364304825654 2:1.0 73:1.0 4:1.0 51:1.0 1675:1.0 9838:1.0 98:1.0 9:1.0 81:1.0 71:1.0 11:1.0 224:1.0 
-0.25257346425206273 87:1.0 604:1.0 66:1.0 2293:1.0 605:1.0 369:1.0 98:1.0 9:1.0 81:1.0 11:1.0 
-0.18414082145935895 2:1.0 220:1.0 4:1.0 697:1.0 2358:1.0 7:1.0 238:1.0 9:1.0 81:1.0 11:1.0 160:1.0 
-0.23500213075847456 109:1.0 52:1.0 4:1.0 6434:1.0 493:1.0 1348:1.0 8:1.0 9:1.0 81:1.0 11:1.0 70:1.0 13:1.0 187:1.0 
-0.19570818195638917 2:1.0 14:1.0 118:1.0 5:1.0 2493:1.0 68:1.0 238:1.0 9:1.0 81:1.0 11:1.0 690:1.0 70:1.0 
-0.1517012350173741 2:1.0 220:1.0 4:1.0 697:1.0 872:1.0 1111:1.0 8:1.0 9:1.0 81:1.0 13:1.0 635:1.0 
-0.16937797370296512 109:1.0 220:1.0 4:1.0 6434:1.0 3357:1.0 228:1.0 8:1.0 9:1.0 81:1.0 11:1.0 70:1.0 13:1.0 
-0.28133627747918943 2:1.0 220:1.0 24:1.0 5:1.0 3357:1.0 4885:1.0 335:1.0 9:1.0 81:1.0 31:1.0 
-0.20889282942423454 2:1.0 328:1.0 4:1.0 5:1.0 4157:1.0 6247:1.0 8:1.0 9:1.0 81:1.0 13:1.0 11:1.0 224:1.0 
-0.10063048661448826 2:1.0 220:1.0 4:1.0 51:1.0 330:1.0 8919:1.0 8:1.0 9:1.0 81:1.0 13:1.0 11:1.0 506:1.0 224:1.0 
-0.25572725676010305 2:1.0 431:1.0 118:1.0 5:1.0 370:1.0 2196:1.0 8:1.0 9:1.0 81:1.0 13:1.0 197:1.0 11:1.0 71:1.0 224:1.0 
-0.2245195254350416 2:1.0 14:1.0 4:1.0 5:1.0 3349:1.0 3605:1.0 8:1.0 9:1.0 81:1.0 13:1.0 11:1.0 70:1.0 224:1.0 
-1.0274507071702645 2:1.0 52:1.0 155:1.0 51:1.0 89:1.0 3554:1.0 115:1.0 9:1.0 81:1.0 70:1.0 
-0.23577783470735944 2:1.0 14:1.0 4:1.0 5:1.0 3349:1.0 669:1.0 8:1.0 9:1.0 81:1.0 11:1.0 224:1.0 13:1.0 
-0.1077635263699128 2:1.0 59:1.0 24:1.0 2495:1.0 12930:1.0 8203:1.0 28:1.0 9:1.0 81:1.0 31:1.0 
-0.17458369083182732 2:1.0 59:1.0 24:1.0 5:1.0 12930:1.0 3695:1.0 8:1.0 9:1.0 81:1.0 426:1.0 13:1.0 31:1.0 224:1.0 
-0.2128489820681842 2:1.0 220:1.0 243:1.0 5:1.0 404:1.0 3481:1.0 28:1.0 9:1.0 81:1.0 11:1.0 
-0.16109059516073923 2:1.0 604:1.0 155:1.0 5:1.0 605:1.0 15897:1.0 115:1.0 9:1.0 81:1.0 70:1.0 
-0.2863950381440973 2:1.0 52:1.0 4:1.0 5:1.0 1247:1.0 7:1.0 146:1.0 9:1.0 81:1.0 13:1.0 11:1.0 160:1.0 187:1.0 
-0.22249563482156268 2:1.0 59:1.0 243:1.0 485:1.0 8556:1.0 3458:1.0 589:1.0 9:1.0 81:1.0 426:1.0 224:1.0 46:1.0 
-0.289224340825164 2:1.0 52:1.0 118:1.0 51:1.0 599:1.0 19228:1.0 238:1.0 9:1.0 81:1.0 11:1.0 13:1.0 187:1.0 
-0.25917135515484063 2:1.0 220:1.0 243:1.0 5:1.0 1438:1.0 19233:1.0 115:1.0 9:1.0 81:1.0 70:1.0 
-0.4551545564905176 2:1.0 52:1.0 111:1.0 51:1.0 4022:1.0 9838:1.0 115:1.0 9:1.0 81:1.0 70:1.0 
-0.20211771764852918 2:1.0 14:1.0 4:1.0 5:1.0 164:1.0 887:1.0 238:1.0 9:1.0 81:1.0 11:1.0 70:1.0 
-0.14370279444375458 2:1.0 220:1.0 4:1.0 4776:1.0 2275:1.0 140:1.0 8:1.0 9:1.0 81:1.0 13:1.0 11:1.0 70:1.0 
-0.269092217449857 2:1.0 220:1.0 66:1.0 2251:1.0 2275:1.0 1511:1.0 8:1.0 9:1.0 81:1.0 13:1.0 
-0.936646180916372 2:1.0 59:1.0 4:1.0 51:1.0 8556:1.0 3458:1.0 8:1.0 9:1.0 81:1.0 46:1.0 13:1.0 11:1.0 224:1.0 
-0.13108473595509967 2:1.0 220:1.0 4:1.0 5:1.0 1666:1.0 5603:1.0 8:1.0 9:1.0 81:1.0 11:1.0 70:1.0 13:1.0 
-0.14868108809259406 2:1.0 220:1.0 111:1.0 5:1.0 5467:1.0 5680:1.0 446:1.0 9:1.0 81:1.0 224:1.0 
-0.2819366095603811 2:1.0 220:1.0 243:1.0 5:1.0 5854:1.0 3887:1.0 589:1.0 9:1.0 81:1.0 70:1.0 
-0.32686251673756456 2:1.0 52:1.0 4:1.0 5:1.0 89:1.0 906:1.0 238:1.0 9:1.0 81:1.0 11:1.0 13:1.0 635:1.0 
-0.2066725731721575 2:1.0 220:1.0 243:1.0 5:1.0 10388:1.0 7:1.0 28:1.0 9:1.0 81:1.0 160:1.0 
-0.12273991719745635 2:1.0 220:1.0 4:1.0 5:1.0 11534:1.0 2548:1.0 8:1.0 9:1.0 81:1.0 11:1.0 224:1.0 13:1.0 
-0.22561454646416854 2:1.0 220:1.0 118:1.0 5:1.0 914:1.0 1125:1.0 176:1.0 9:1.0 81:1.0 11:1.0 70:1.0 
-0.421080126889567 2:1.0 52:1.0 94:1.0 5:1.0 855:1.0 887:1.0 28:1.0 9:1.0 81:1.0 31:1.0 
-0.15466142031974847 2:1.0 14:1.0 66:1.0 51:1.0 10067:1.0 8919:1.0 8:1.0 9:1.0 81:1.0 13:1.0 11:1.0 197:1.0 224:1.0 
-0.2080143456605065 2:1.0 14:1.0 118:1.0 697:1.0 894:1.0 2300:1.0 8:1.0 9:1.0 81:1.0 13:1.0 11:1.0 187:1.0 
-0.08515744854718778 2:1.0 14:1.0 4:1.0 5:1.0 5832:1.0 6247:1.0 8:1.0 9:1.0 81:1.0 71:1.0 13:1.0 11:1.0 506:1.0 224:1.0 
-0.17459713052088208 2:1.0 52:1.0 4:1.0 51:1.0 89:1.0 7:1.0 8:1.0 9:1.0 81:1.0 11:1.0 160:1.0 13:1.0 224:1.0 
-0.14772709418075683 109:1.0 52:1.0 155:1.0 6434:1.0 1247:1.0 9838:1.0 8:1.0 9:1.0 81:1.0 13:1.0 426:1.0 70:1.0 147:1.0 635:1.0 
-0.4464285714285714 2:1.0 14:1.0 111:1.0 5:1.0 894:1.0 2662:1.0 115:1.0 9:1.0 81:1.0 
-0.1380191250347283 2:1.0 604:1.0 4:1.0 51:1.0 605:1.0 6038:1.0 98:1.0 9:1.0 81:1.0 11:1.0 70:1.0 224:1.0 71:1.0 
-0.7813948665128725 2:1.0 59:1.0 4:1.0 485:1.0 8556:1.0 3778:1.0 8:1.0 9:1.0 81:1.0 46:1.0 13:1.0 11:1.0 3266:1.0 197:1.0 
-0.20501092512473698 2:1.0 59:1.0 4:1.0 4583:1.0 16586:1.0 3778:1.0 8:1.0 9:1.0 81:1.0 11:1.0 3266:1.0 13:1.0 
-0.5629252681704348 2:1.0 59:1.0 4:1.0 5:1.0 8556:1.0 3458:1.0 8:1.0 9:1.0 81:1.0 11:1.0 426:1.0 71:1.0 13:1.0 
-0.19287947571385589 109:1.0 220:1.0 118:1.0 21604:1.0 1411:1.0 4600:1.0 8:1.0 9:1.0 81:1.0 13:1.0 224:1.0 690:1.0 70:1.0 71:1.0 
-0.19114673767204526 2:1.0 14:1.0 4:1.0 485:1.0 3349:1.0 597:1.0 8:1.0 9:1.0 81:1.0 13:1.0 426:1.0 11:1.0 70:1.0 
-0.2426610171426323 2:1.0 52:1.0 118:1.0 305:1.0 1069:1.0 10587:1.0 8:1.0 9:1.0 81:1.0 13:1.0 11:1.0 70:1.0 224:1.0 
-0.2421252940546588 2:1.0 14:1.0 4:1.0 697:1.0 1675:1.0 1869:1.0 335:1.0 9:1.0 81:1.0 11:1.0 224:1.0 
-0.2974437988573293 2:1.0 59:1.0 111:1.0 5:1.0 10707:1.0 680:1.0 115:1.0 9:1.0 81:1.0 224:1.0 
-0.27865502429972966 2:1.0 59:1.0 4:1.0 5:1.0 8556:1.0 3458:1.0 238:1.0 9:1.0 81:1.0 11:1.0 224:1.0 13:1.0 
-0.20708344064792675 2:1.0 52:1.0 4:1.0 51:1.0 89:1.0 7368:1.0 8:1.0 9:1.0 81:1.0 13:1.0 11:1.0 187:1.0 
-0.13391353548199264 2:1.0 14:1.0 118:1.0 5:1.0 894:1.0 669:1.0 8:1.0 9:1.0 81:1.0 11:1.0 46:1.0 13:1.0 
-0.5536426358358446 2:1.0 14:1.0 155:1.0 5:1.0 894:1.0 2300:1.0 115:1.0 9:1.0 81:1.0 
-0.36370137511974854 2:1.0 14:1.0 111:1.0 51:1.0 894:1.0 767:1.0 115:1.0 9:1.0 81:1.0 71:1.0 
-0.11906289233105813 2:1.0 220:1.0 66:1.0 485:1.0 5171:1.0 1678:1.0 8:1.0 9:1.0 81:1.0 224:1.0 13:1.0 11:1.0 70:1.0 
-500.0 2:1.0 59:1.0 4:1.0 5:1.0 8556:1.0 7:1.0 8:1.0 9:1.0 81:1.0 46:1.0 13:1.0 11:1.0 1636:1.0 
-0.4537128403846964 2:1.0 52:1.0 111:1.0 485:1.0 493:1.0 1286:1.0 115:1.0 9:1.0 81:1.0 506:1.0 
-0.262775190296868 2:1.0 220:1.0 4:1.0 5:1.0 5467:1.0 1482:1.0 238:1.0 9:1.0 81:1.0 11:1.0 70:1.0 
-0.1940239211002668 2:1.0 52:1.0 4:1.0 51:1.0 471:1.0 228:1.0 8:1.0 9:1.0 81:1.0 13:1.0 11:1.0 70:1.0 224:1.0 
-0.15351365423828064 2:1.0 52:1.0 4:1.0 51:1.0 4232:1.0 228:1.0 8:1.0 9:1.0 81:1.0 71:1.0 13:1.0 11:1.0 70:1.0 224:1.0 
-0.3473296114901066 2:1.0 220:1.0 243:1.0 51:1.0 2975:1.0 10489:1.0 115:1.0 9:1.0 81:1.0 
-0.1564745202137939 2:1.0 220:1.0 24:1.0 5:1.0 1644:1.0 9094:1.0 589:1.0 9:1.0 81:1.0 31:1.0 
-0.5163148125323184 2:1.0 14:1.0 4:1.0 485:1.0 3349:1.0 140:1.0 8:1.0 9:1.0 81:1.0 11:1.0 13:1.0 70:1.0 
-0.38167938931297707 2:1.0 52:1.0 111:1.0 5:1.0 89:1.0 405:1.0 115:1.0 9:1.0 81:1.0 690:1.0 
-0.2701149327778402 2:1.0 52:1.0 4:1.0 5:1.0 493:1.0 7:1.0 335:1.0 9:1.0 81:1.0 11:1.0 160:1.0 
-0.3627366185794967 2:1.0 14:1.0 155:1.0 51:1.0 894:1.0 165:1.0 115:1.0 9:1.0 81:1.0 70:1.0 635:1.0 
-0.19230146852390687 2:1.0 14:1.0 4:1.0 5:1.0 164:1.0 2284:1.0 8:1.0 9:1.0 81:1.0 11:1.0 70:1.0 13:1.0 
-0.43644915538268464 2:1.0 14:1.0 155:1.0 5:1.0 9621:1.0 669:1.0 115:1.0 9:1.0 81:1.0 70:1.0 
-0.13048938278164354 84:1.0 604:1.0 4:1.0 6108:1.0 605:1.0 7:1.0 28:1.0 9:1.0 81:1.0 11:1.0 160:1.0 46:1.0 13:1.0 
-0.31031576388653115 2:1.0 220:1.0 155:1.0 51:1.0 6369:1.0 12598:1.0 158:1.0 9:1.0 81:1.0 
-0.2201362517402628 2:1.0 52:1.0 4:1.0 485:1.0 89:1.0 397:1.0 8:1.0 9:1.0 81:1.0 11:1.0 70:1.0 13:1.0 
-0.21567789220709227 2:1.0 52:1.0 4:1.0 4207:1.0 471:1.0 4543:1.0 8:1.0 9:1.0 81:1.0 11:1.0 187:1.0 13:1.0 
-0.2930974869945896 2:1.0 604:1.0 243:1.0 4583:1.0 605:1.0 11184:1.0 115:1.0 9:1.0 81:1.0 
-0.18167598816590863 2:1.0 220:1.0 4:1.0 51:1.0 423:1.0 8919:1.0 238:1.0 9:1.0 81:1.0 11:1.0 506:1.0 635:1.0 
-0.09483109867580937 2:1.0 220:1.0 4:1.0 202:1.0 872:1.0 19817:1.0 8:1.0 9:1.0 81:1.0 11:1.0 70:1.0 197:1.0 635:1.0 13:1.0 
-0.18561184755415663 2:1.0 431:1.0 4:1.0 5:1.0 4704:1.0 25028:1.0 146:1.0 9:1.0 81:1.0 11:1.0 70:1.0 187:1.0 13:1.0 
-0.12615628566371 2:1.0 220:1.0 66:1.0 51:1.0 4190:1.0 4267:1.0 8:1.0 9:1.0 81:1.0 11:1.0 70:1.0 147:1.0 13:1.0 
-0.15502943420739818 2:1.0 220:1.0 118:1.0 5:1.0 353:1.0 223:1.0 8:1.0 9:1.0 81:1.0 11:1.0 70:1.0 13:1.0 
-0.38577894167612675 2:1.0 52:1.0 24:1.0 51:1.0 89:1.0 2722:1.0 28:1.0 9:1.0 81:1.0 31:1.0 
-0.30342935987634306 2:1.0 14:1.0 4:1.0 51:1.0 3943:1.0 9838:1.0 8:1.0 9:1.0 81:1.0 11:1.0 13:1.0 224:1.0 70:1.0 
-0.26253202578177276 2:1.0 52:1.0 4:1.0 5:1.0 413:1.0 12935:1.0 8:1.0 9:1.0 81:1.0 11:1.0 224:1.0 
-0.315647161245732 2:1.0 73:1.0 111:1.0 5:1.0 3941:1.0 648:1.0 115:1.0 9:1.0 81:1.0 70:1.0 
-0.46431742516319746 2:1.0 59:1.0 4:1.0 5:1.0 8556:1.0 331:1.0 176:1.0 9:1.0 81:1.0 224:1.0 
-0.17888782945397982 2:1.0 14:1.0 4:1.0 5:1.0 2502:1.0 8703:1.0 8:1.0 9:1.0 81:1.0 13:1.0 11:1.0 70:1.0 224:1.0 
-0.3511099305738312 2:1.0 220:1.0 66:1.0 5:1.0 902:1.0 6752:1.0 176:1.0 9:1.0 81:1.0 
-0.16339869242852334 2:1.0 431:1.0 4:1.0 5:1.0 8140:1.0 26521:1.0 8:1.0 9:1.0 81:1.0 224:1.0 13:1.0 11:1.0 70:1.0 
-0.264328454484624 2:1.0 14:1.0 4:1.0 51:1.0 1675:1.0 6267:1.0 8:1.0 9:1.0 81:1.0 11:1.0 70:1.0 224:1.0 13:1.0 
-0.2958396697036727 2:1.0 14:1.0 4:1.0 51:1.0 1675:1.0 8676:1.0 8:1.0 9:1.0 81:1.0 11:1.0 70:1.0 13:1.0 
-0.20577397779872728 2:1.0 220:1.0 118:1.0 5:1.0 404:1.0 5942:1.0 238:1.0 9:1.0 81:1.0 11:1.0 70:1.0 
-0.6268204352928191 2:1.0 14:1.0 111:1.0 5:1.0 2502:1.0 3104:1.0 115:1.0 9:1.0 81:1.0 
-0.6098092159090575 2:1.0 14:1.0 24:1.0 5:1.0 3349:1.0 3293:1.0 28:1.0 9:1.0 81:1.0 31:1.0 46:1.0 3266:1.0 13:1.0 
-0.13484254541286234 2:1.0 52:1.0 4:1.0 4583:1.0 415:1.0 2259:1.0 8:1.0 9:1.0 81:1.0 224:1.0 13:1.0 11:1.0 71:1.0 70:1.0 197:1.0 
-0.20300565138011367 2:1.0 220:1.0 66:1.0 51:1.0 404:1.0 1160:1.0 8:1.0 9:1.0 81:1.0 13:1.0 11:1.0 
-0.3551630173004494 2:1.0 52:1.0 66:1.0 5:1.0 89:1.0 223:1.0 335:1.0 9:1.0 81:1.0 11:1.0 70:1.0 
-0.17484777003874352 2:1.0 220:1.0 66:1.0 51:1.0 4190:1.0 6360:1.0 8:1.0 9:1.0 81:1.0 11:1.0 70:1.0 187:1.0 13:1.0 
-0.08128776492444403 2:1.0 220:1.0 4:1.0 51:1.0 872:1.0 27418:1.0 8:1.0 9:1.0 81:1.0 13:1.0 11:1.0 690:1.0 70:1.0 506:1.0 
-0.08564615664113354 2:1.0 220:1.0 66:1.0 51:1.0 5607:1.0 4418:1.0 8:1.0 9:1.0 81:1.0 224:1.0 13:1.0 11:1.0 70:1.0 8435:1.0 8436:1.0 
-0.2947630013203391 2:1.0 73:1.0 111:1.0 485:1.0 17566:1.0 923:1.0 115:1.0 9:1.0 81:1.0 
-0.15021982844501938 2:1.0 137:1.0 118:1.0 485:1.0 559:1.0 4600:1.0 8:1.0 9:1.0 81:1.0 13:1.0 11:1.0 197:1.0 506:1.0 
-0.15102281068516588 2:1.0 137:1.0 118:1.0 485:1.0 7255:1.0 21465:1.0 8:1.0 9:1.0 81:1.0 13:1.0 11:1.0 187:1.0 70:1.0 
-0.2545744483521668 204:1.0 52:1.0 4:1.0 205:1.0 415:1.0 16577:1.0 8:1.0 9:1.0 81:1.0 13:1.0 11:1.0 
-0.12285524593109158 2:1.0 14:1.0 4:1.0 4583:1.0 1924:1.0 19542:1.0 8:1.0 9:1.0 81:1.0 11:1.0 224:1.0 70:1.0 13:1.0 
-0.29247577402421676 2:1.0 59:1.0 4:1.0 5:1.0 3885:1.0 680:1.0 8:1.0 9:1.0 81:1.0 13:1.0 11:1.0 70:1.0 
-0.33264476081499117 2:1.0 59:1.0 111:1.0 5:1.0 13134:1.0 694:1.0 446:1.0 9:1.0 81:1.0 346:1.0 
-0.2491413038349919 2:1.0 14:1.0 4:1.0 51:1.0 3349:1.0 1678:1.0 8:1.0 9:1.0 81:1.0 11:1.0 70:1.0 13:1.0 
-0.31028963427127615 2:1.0 14:1.0 155:1.0 485:1.0 2502:1.0 1083:1.0 115:1.0 9:1.0 81:1.0 70:1.0 
-0.2788776683695635 2:1.0 220:1.0 155:1.0 5:1.0 6607:1.0 2322:1.0 115:1.0 9:1.0 81:1.0 197:1.0 
-0.17361111111111116 2:1.0 14:1.0 4:1.0 5:1.0 2502:1.0 228:1.0 238:1.0 9:1.0 81:1.0 11:1.0 70:1.0 13:1.0 224:1.0 
-0.3313142823034562 2:1.0 14:1.0 4:1.0 5:1.0 164:1.0 6282:1.0 238:1.0 9:1.0 81:1.0 11:1.0 
-0.31366157336199024 2:1.0 220:1.0 243:1.0 485:1.0 5644:1.0 1097:1.0 589:1.0 9:1.0 81:1.0 187:1.0 
-0.2287315624468495 2:1.0 14:1.0 4:1.0 5:1.0 3349:1.0 7:1.0 146:1.0 9:1.0 81:1.0 11:1.0 224:1.0 160:1.0 
-0.17944484332347901 2:1.0 604:1.0 118:1.0 51:1.0 605:1.0 8919:1.0 98:1.0 9:1.0 81:1.0 11:1.0 
-0.19199621320769983 2:1.0 52:1.0 118:1.0 5:1.0 493:1.0 5963:1.0 8:1.0 9:1.0 81:1.0 13:1.0 11:1.0 70:1.0 
-0.14379604267601137 2:1.0 14:1.0 4:1.0 5:1.0 164:1.0 732:1.0 8:1.0 9:1.0 81:1.0 13:1.0 224:1.0 11:1.0 70:1.0 635:1.0 
-0.14580020496714713 2:1.0 39:1.0 60:1.0 485:1.0 2197:1.0 3208:1.0 8:1.0 9:1.0 81:1.0 13:1.0 71:1.0 426:1.0 
-0.12490136011202298 2:1.0 39:1.0 60:1.0 485:1.0 2545:1.0 17168:1.0 8:1.0 9:1.0 81:1.0 13:1.0 71:1.0 426:1.0 
-0.0838310043341131 2:1.0 14:1.0 60:1.0 485:1.0 29817:1.0 17168:1.0 8:1.0 9:1.0 81:1.0 13:1.0 71:1.0 426:1.0 
-0.08747082000103935 2:1.0 39:1.0 60:1.0 485:1.0 5395:1.0 17729:1.0 8:1.0 9:1.0 81:1.0 13:1.0 71:1.0 32:1.0 426:1.0 
-0.15816129474927262 2:1.0 39:1.0 1444:1.0 485:1.0 29868:1.0 17729:1.0 8:1.0 9:1.0 81:1.0 13:1.0 71:1.0 426:1.0 
-0.1337736497898221 2:1.0 14:1.0 1444:1.0 485:1.0 29817:1.0 17729:1.0 8:1.0 9:1.0 81:1.0 13:1.0 71:1.0 426:1.0 
-0.20937777791375833 2:1.0 39:1.0 60:1.0 485:1.0 3031:1.0 15338:1.0 8:1.0 9:1.0 81:1.0 13:1.0 71:1.0 426:1.0 
-0.08941656132857376 2:1.0 14:1.0 60:1.0 485:1.0 29817:1.0 15338:1.0 8:1.0 9:1.0 81:1.0 13:1.0 71:1.0 426:1.0 
-0.13771332329604774 2:1.0 39:1.0 60:1.0 485:1.0 2193:1.0 29816:1.0 8:1.0 9:1.0 81:1.0 13:1.0 71:1.0 426:1.0 
-0.12422495322439141 2:1.0 14:1.0 60:1.0 485:1.0 29817:1.0 29816:1.0 8:1.0 9:1.0 81:1.0 13:1.0 71:1.0 426:1.0 
-0.11614876335120991 2:1.0 39:1.0 60:1.0 485:1.0 5475:1.0 22640:1.0 8:1.0 9:1.0 81:1.0 13:1.0 71:1.0 426:1.0 
-0.1850183040379149 2:1.0 39:1.0 1444:1.0 485:1.0 29894:1.0 22640:1.0 8:1.0 9:1.0 81:1.0 13:1.0 71:1.0 426:1.0 
-0.17966508484470345 2:1.0 14:1.0 1444:1.0 485:1.0 29817:1.0 22640:1.0 8:1.0 9:1.0 81:1.0 13:1.0 71:1.0 426:1.0 
-0.1881774782049364 2:1.0 39:1.0 60:1.0 485:1.0 7159:1.0 3054:1.0 8:1.0 9:1.0 81:1.0 13:1.0 71:1.0 426:1.0 
-0.1744308622059667 2:1.0 14:1.0 60:1.0 485:1.0 29817:1.0 3054:1.0 8:1.0 9:1.0 81:1.0 13:1.0 71:1.0 426:1.0 
-500.0 2:1.0 14:1.0 111:1.0 5:1.0 3349:1.0 228:1.0 446:1.0 9:1.0 81:1.0 
-0.19956833781763098 2:1.0 14:1.0 4:1.0 5:1.0 1675:1.0 17374:1.0 8:1.0 9:1.0 81:1.0 11:1.0 13:1.0 
-0.25945951914628995 109:1.0 604:1.0 243:1.0 2183:1.0 605:1.0 10274:1.0 98:1.0 9:1.0 81:1.0 
-0.4046634030385252 2:1.0 52:1.0 243:1.0 5:1.0 493:1.0 17762:1.0 115:1.0 9:1.0 81:1.0 13:1.0 
-0.27468507090290617 2:1.0 52:1.0 243:1.0 5:1.0 493:1.0 735:1.0 115:1.0 9:1.0 81:1.0 160:1.0 13:1.0 
-0.17341128020206434 2:1.0 52:1.0 4:1.0 485:1.0 54:1.0 17882:1.0 8:1.0 9:1.0 81:1.0 13:1.0 11:1.0 690:1.0 224:1.0 
-0.16262975569522636 2:1.0 14:1.0 4:1.0 697:1.0 164:1.0 1151:1.0 238:1.0 9:1.0 81:1.0 70:1.0 11:1.0 1412:1.0 
-0.12419506600907333 2:1.0 220:1.0 118:1.0 202:1.0 5607:1.0 3199:1.0 8:1.0 9:1.0 81:1.0 426:1.0 11:1.0 46:1.0 13:1.0 
-0.6304811726942675 2:1.0 52:1.0 94:1.0 51:1.0 855:1.0 1595:1.0 28:1.0 9:1.0 81:1.0 31:1.0 
-0.3152031528061402 2:1.0 14:1.0 155:1.0 485:1.0 2502:1.0 30518:1.0 115:1.0 9:1.0 81:1.0 13:1.0 
-0.18616103372835818 2:1.0 604:1.0 155:1.0 51:1.0 605:1.0 30764:1.0 115:1.0 9:1.0 81:1.0 70:1.0 
-0.34248985685295985 2:1.0 52:1.0 155:1.0 485:1.0 415:1.0 3090:1.0 158:1.0 9:1.0 81:1.0 70:1.0 506:1.0 
-0.25046090303567886 2:1.0 220:1.0 243:1.0 5:1.0 902:1.0 31394:1.0 446:1.0 9:1.0 81:1.0 
-0.27401976514701776 2:1.0 220:1.0 24:1.0 5:1.0 1644:1.0 623:1.0 446:1.0 9:1.0 81:1.0 31:1.0 
-0.1696729086780317 2:1.0 14:1.0 4:1.0 5:1.0 3349:1.0 1167:1.0 8:1.0 9:1.0 81:1.0 11:1.0 160:1.0 71:1.0 13:1.0 
-500.0 2:1.0 14:1.0 4:1.0 5:1.0 3349:1.0 3458:1.0 8:1.0 9:1.0 81:1.0 13:1.0 11:1.0 224:1.0 
-0.1354121174747447 2:1.0 220:1.0 4:1.0 5:1.0 872:1.0 165:1.0 8:1.0 9:1.0 81:1.0 11:1.0 70:1.0 13:1.0 
-0.7940196446139393 2:1.0 52:1.0 111:1.0 5:1.0 415:1.0 5958:1.0 115:1.0 9:1.0 81:1.0 
-0.14623760528041585 109:1.0 220:1.0 66:1.0 7658:1.0 353:1.0 7:1.0 8:1.0 9:1.0 81:1.0 11:1.0 160:1.0 13:1.0 
-0.18917949938695186 2:1.0 14:1.0 4:1.0 5:1.0 10067:1.0 7:1.0 8:1.0 9:1.0 81:1.0 11:1.0 224:1.0 160:1.0 13:1.0 
-0.24747892161765475 2:1.0 14:1.0 111:1.0 5:1.0 164:1.0 6282:1.0 446:1.0 9:1.0 81:1.0 346:1.0 
-0.1654084501538495 2:1.0 59:1.0 4:1.0 51:1.0 6470:1.0 6247:1.0 8:1.0 9:1.0 81:1.0 13:1.0 11:1.0 224:1.0 46:1.0 
-0.10307743304754563 109:1.0 59:1.0 4:1.0 6434:1.0 6470:1.0 6247:1.0 8:1.0 9:1.0 81:1.0 13:1.0 11:1.0 224:1.0 46:1.0 
-0.3257457891770723 2:1.0 220:1.0 212:1.0 5:1.0 330:1.0 1361:1.0 8:1.0 9:1.0 81:1.0 426:1.0 13:1.0 11:1.0 
-0.1603343344381888 2:1.0 52:1.0 4:1.0 5:1.0 415:1.0 3454:1.0 8:1.0 9:1.0 81:1.0 71:1.0 13:1.0 11:1.0 70:1.0 147:1.0 
-0.11106098008027854 2:1.0 14:1.0 4:1.0 5:1.0 3349:1.0 3454:1.0 8:1.0 9:1.0 81:1.0 71:1.0 13:1.0 11:1.0 70:1.0 147:1.0 
-500.0 2:1.0 14:1.0 4:1.0 5:1.0 1675:1.0 597:1.0 8:1.0 9:1.0 81:1.0 46:1.0 13:1.0 11:1.0 70:1.0 
-0.23076459405762398 2:1.0 220:1.0 60:1.0 5:1.0 902:1.0 12334:1.0 238:1.0 9:1.0 81:1.0 127:1.0 13:1.0 
-0.34774184985251244 2:1.0 14:1.0 24:1.0 485:1.0 3349:1.0 2389:1.0 28:1.0 9:1.0 81:1.0 
-0.21829745412041096 109:1.0 604:1.0 66:1.0 6434:1.0 605:1.0 7642:1.0 98:1.0 9:1.0 81:1.0 11:1.0 
-0.36231884057971037 2:1.0 14:1.0 4:1.0 5:1.0 3349:1.0 3778:1.0 8:1.0 9:1.0 81:1.0 11:1.0 3266:1.0 147:1.0 13:1.0 
-0.24974951037045878 2:1.0 220:1.0 24:1.0 51:1.0 902:1.0 1471:1.0 238:1.0 9:1.0 81:1.0 31:1.0 
-0.17793594260758108 2:1.0 431:1.0 4:1.0 5:1.0 10698:1.0 2880:1.0 8:1.0 9:1.0 81:1.0 13:1.0 11:1.0 690:1.0 187:1.0 
-0.36231884057968955 2:1.0 220:1.0 235:1.0 5:1.0 1044:1.0 6636:1.0 69:1.0 9:1.0 81:1.0 13:1.0 46:1.0 187:1.0 71:1.0 
-500.0 2:1.0 220:1.0 235:1.0 5:1.0 1044:1.0 6636:1.0 69:1.0 9:1.0 81:1.0 13:1.0 46:1.0 187:1.0 71:1.0 
-500.0 2:1.0 220:1.0 235:1.0 5:1.0 4580:1.0 6636:1.0 69:1.0 9:1.0 81:1.0 13:1.0 46:1.0 71:1.0 187:1.0 
-0.3948352087649264 2:1.0 52:1.0 243:1.0 5:1.0 89:1.0 1177:1.0 28:1.0 9:1.0 81:1.0 11:1.0 32:1.0 
-0.26889106586648626 2:1.0 220:1.0 4:1.0 51:1.0 872:1.0 33413:1.0 238:1.0 9:1.0 81:1.0 11:1.0 70:1.0 
-0.12993822158618695 2:1.0 220:1.0 118:1.0 5:1.0 914:1.0 7:1.0 8:1.0 9:1.0 81:1.0 11:1.0 160:1.0 13:1.0 224:1.0 
-0.28093336034801925 2:1.0 14:1.0 243:1.0 5:1.0 894:1.0 7864:1.0 115:1.0 9:1.0 81:1.0 70:1.0 13:1.0 224:1.0 
-0.09981546318653892 2:1.0 220:1.0 118:1.0 5:1.0 1644:1.0 1598:1.0 8:1.0 9:1.0 81:1.0 13:1.0 11:1.0 70:1.0 
-0.28352384342680603 109:1.0 220:1.0 4:1.0 6434:1.0 1438:1.0 17374:1.0 335:1.0 9:1.0 81:1.0 11:1.0 
-0.39111415123179066 2:1.0 14:1.0 155:1.0 697:1.0 164:1.0 15497:1.0 158:1.0 9:1.0 81:1.0 70:1.0 
-1.1113225980900605 2:1.0 14:1.0 4:1.0 5:1.0 1675:1.0 228:1.0 8:1.0 9:1.0 81:1.0 11:1.0 70:1.0 46:1.0 13:1.0 
-0.23273339421825714 2:1.0 604:1.0 4:1.0 1237:1.0 605:1.0 33986:1.0 98:1.0 9:1.0 81:1.0 11:1.0 71:1.0 46:1.0 
-0.602799923443262 2:1.0 220:1.0 4:1.0 5:1.0 872:1.0 33986:1.0 98:1.0 9:1.0 81:1.0 71:1.0 11:1.0 46:1.0 
-0.1751226999695366 2:1.0 14:1.0 66:1.0 5:1.0 1314:1.0 2322:1.0 8:1.0 9:1.0 81:1.0 224:1.0 13:1.0 11:1.0 
-0.15095523098623687 109:1.0 604:1.0 4:1.0 1227:1.0 605:1.0 4617:1.0 98:1.0 9:1.0 81:1.0 224:1.0 11:1.0 690:1.0 635:1.0 
-0.19391852640029583 2:1.0 220:1.0 111:1.0 51:1.0 1247:1.0 1693:1.0 115:1.0 9:1.0 81:1.0 
-1.4280995409977133 2:1.0 14:1.0 4:1.0 5:1.0 3349:1.0 3458:1.0 8:1.0 9:1.0 81:1.0 13:1.0 46:1.0 11:1.0 224:1.0 
-0.17817999030788575 2:1.0 220:1.0 66:1.0 5:1.0 5607:1.0 11384:1.0 238:1.0 9:1.0 81:1.0 70:1.0 11:1.0 
-0.12062573759215925 2:1.0 220:1.0 4:1.0 5:1.0 5854:1.0 7366:1.0 238:1.0 9:1.0 81:1.0 11:1.0 187:1.0 32:1.0 
-0.16590284625184348 2:1.0 14:1.0 4:1.0 5:1.0 164:1.0 767:1.0 8:1.0 9:1.0 81:1.0 11:1.0 426:1.0 70:1.0 197:1.0 13:1.0 
-0.45508287363823474 2:1.0 52:1.0 94:1.0 5:1.0 89:1.0 2338:1.0 146:1.0 9:1.0 81:1.0 31:1.0 
-0.5805805509946358 154:1.0 220:1.0 4:1.0 3077:1.0 20454:1.0 3090:1.0 8:1.0 9:1.0 81:1.0 11:1.0 46:1.0 13:1.0 
-0.34846634091890016 2:1.0 431:1.0 4:1.0 51:1.0 2283:1.0 3090:1.0 8:1.0 9:1.0 81:1.0 13:1.0 11:1.0 
-0.6910679319120915 2:1.0 52:1.0 4:1.0 51:1.0 199:1.0 3265:1.0 8:1.0 9:1.0 81:1.0 13:1.0 11:1.0 3266:1.0 197:1.0 
-0.2007207766971748 2:1.0 52:1.0 4:1.0 51:1.0 54:1.0 7:1.0 8:1.0 9:1.0 81:1.0 13:1.0 11:1.0 160:1.0 
-0.354702704807606 2:1.0 52:1.0 243:1.0 5:1.0 89:1.0 10243:1.0 115:1.0 9:1.0 81:1.0 70:1.0 690:1.0 
-0.5558320402925405 2:1.0 52:1.0 4:1.0 51:1.0 471:1.0 7:1.0 8:1.0 9:1.0 81:1.0 13:1.0 11:1.0 160:1.0 
-0.3191470688861894 2:1.0 59:1.0 4:1.0 5:1.0 2379:1.0 4692:1.0 238:1.0 9:1.0 81:1.0 11:1.0 160:1.0 13:1.0 
-0.4335652219940721 2:1.0 14:1.0 111:1.0 51:1.0 3349:1.0 2662:1.0 115:1.0 9:1.0 81:1.0 46:1.0 
-0.18620850764642188 2:1.0 220:1.0 66:1.0 51:1.0 856:1.0 7:1.0 8:1.0 9:1.0 81:1.0 11:1.0 160:1.0 13:1.0 
-0.5841467972706235 2:1.0 52:1.0 111:1.0 51:1.0 342:1.0 767:1.0 115:1.0 9:1.0 81:1.0 
-0.1790108800989897 2:1.0 14:1.0 4:1.0 4583:1.0 3349:1.0 35354:1.0 8:1.0 9:1.0 81:1.0 11:1.0 506:1.0 13:1.0 
-0.20379188282061556 2:1.0 52:1.0 4:1.0 5:1.0 54:1.0 3090:1.0 238:1.0 9:1.0 81:1.0 11:1.0 224:1.0 13:1.0 
-0.3801887432307691 2:1.0 52:1.0 24:1.0 51:1.0 54:1.0 2209:1.0 446:1.0 9:1.0 81:1.0 31:1.0 
-500.0 2:1.0 14:1.0 4:1.0 5:1.0 3349:1.0 7:1.0 2870:1.0 9:1.0 81:1.0 11:1.0 13:1.0 160:1.0 46:1.0 
-0.13355823214281798 2:1.0 220:1.0 4:1.0 4207:1.0 1044:1.0 7:1.0 146:1.0 9:1.0 81:1.0 13:1.0 11:1.0 160:1.0 
-0.0984053969095864 2:1.0 604:1.0 4:1.0 697:1.0 605:1.0 8416:1.0 98:1.0 9:1.0 81:1.0 11:1.0 197:1.0 
-0.3309010146868389 2:1.0 52:1.0 4:1.0 51:1.0 471:1.0 1598:1.0 8:1.0 9:1.0 81:1.0 13:1.0 11:1.0 
-0.1124367110431255 2:1.0 59:1.0 2318:1.0 5:1.0 8698:1.0 5497:1.0 8:1.0 9:1.0 81:1.0 426:1.0 13:1.0 31:1.0 1165:1.0 1162:1.0 187:1.0 
-0.13615463216021065 2:1.0 604:1.0 118:1.0 5:1.0 605:1.0 2196:1.0 238:1.0 9:1.0 81:1.0 11:1.0 224:1.0 
-0.47227246424074276 2:1.0 14:1.0 4:1.0 5:1.0 3349:1.0 7:1.0 8:1.0 9:1.0 81:1.0 46:1.0 13:1.0 11:1.0 160:1.0 224:1.0 
-0.17925332062228017 2:1.0 220:1.0 66:1.0 5:1.0 404:1.0 7:1.0 146:1.0 9:1.0 81:1.0 11:1.0 160:1.0 13:1.0 187:1.0 
-0.328960151076894 2:1.0 52:1.0 66:1.0 5:1.0 89:1.0 6247:1.0 98:1.0 9:1.0 81:1.0 71:1.0 11:1.0 224:1.0 
-0.5737085708343272 2:1.0 52:1.0 111:1.0 51:1.0 89:1.0 5792:1.0 115:1.0 9:1.0 81:1.0 
-0.31951743938807803 2:1.0 52:1.0 4:1.0 485:1.0 89:1.0 3265:1.0 335:1.0 9:1.0 81:1.0 11:1.0 3266:1.0 187:1.0 
-0.15279479597645196 2:1.0 220:1.0 111:1.0 697:1.0 4385:1.0 24297:1.0 115:1.0 9:1.0 81:1.0 635:1.0 
-0.26517775393237786 2:1.0 220:1.0 4:1.0 5:1.0 330:1.0 4241:1.0 176:1.0 9:1.0 81:1.0 70:1.0 
-0.2950356797188482 2:1.0 52:1.0 4:1.0 5:1.0 493:1.0 7:1.0 8:1.0 9:1.0 81:1.0 13:1.0 11:1.0 160:1.0 
-0.1484725133859442 109:1.0 52:1.0 4:1.0 7658:1.0 586:1.0 7:1.0 335:1.0 9:1.0 81:1.0 11:1.0 160:1.0 13:1.0 224:1.0 
-1.0879523072589883 2:1.0 14:1.0 4:1.0 5:1.0 3349:1.0 3778:1.0 8:1.0 9:1.0 81:1.0 11:1.0 3266:1.0 197:1.0 13:1.0 
-0.19448898099123402 2:1.0 220:1.0 4:1.0 5:1.0 474:1.0 140:1.0 8:1.0 9:1.0 81:1.0 13:1.0 11:1.0 70:1.0 
-0.11523997194683276 2:1.0 220:1.0 4:1.0 5:1.0 872:1.0 68:1.0 8:1.0 9:1.0 81:1.0 13:1.0 11:1.0 690:1.0 70:1.0 
-1.277934541996419 2:1.0 14:1.0 4:1.0 5:1.0 3349:1.0 6247:1.0 8:1.0 9:1.0 81:1.0 11:1.0 46:1.0 635:1.0 13:1.0 
-0.5120832863345319 2:1.0 52:1.0 24:1.0 51:1.0 89:1.0 14520:1.0 531:1.0 9:1.0 81:1.0 
-0.21343805566000273 2:1.0 220:1.0 111:1.0 5:1.0 330:1.0 14038:1.0 115:1.0 9:1.0 81:1.0 
-500.0 2:1.0 14:1.0 4:1.0 5:1.0 3349:1.0 7:1.0 8:1.0 9:1.0 81:1.0 11:1.0 160:1.0 13:1.0 
-0.4805160886698253 2:1.0 14:1.0 4:1.0 51:1.0 3349:1.0 3265:1.0 8:1.0 9:1.0 81:1.0 11:1.0 13:1.0 224:1.0 
-0.16609990391217647 2:1.0 220:1.0 66:1.0 672:1.0 5607:1.0 7:1.0 8:1.0 9:1.0 81:1.0 11:1.0 160:1.0 13:1.0 
-0.2320522962211356 2:1.0 14:1.0 4:1.0 5:1.0 5832:1.0 5954:1.0 8:1.0 9:1.0 81:1.0 13:1.0 11:1.0 
-500.0 2:1.0 14:1.0 4:1.0 5:1.0 3349:1.0 3458:1.0 8:1.0 9:1.0 81:1.0 13:1.0 11:1.0 224:1.0 
-1.3486790904765917 2:1.0 14:1.0 4:1.0 51:1.0 3349:1.0 3458:1.0 8:1.0 9:1.0 81:1.0 46:1.0 13:1.0 11:1.0 224:1.0 
-0.21061350404082174 2:1.0 59:1.0 111:1.0 5:1.0 10707:1.0 906:1.0 115:1.0 9:1.0 81:1.0 690:1.0 13:1.0 71:1.0 
-0.09802601719759374 2:1.0 59:1.0 4:1.0 4583:1.0 2379:1.0 7:1.0 8:1.0 9:1.0 81:1.0 11:1.0 160:1.0 13:1.0 224:1.0 
-0.17530238796575992 2:1.0 14:1.0 118:1.0 5:1.0 894:1.0 21543:1.0 98:1.0 9:1.0 81:1.0 71:1.0 11:1.0 70:1.0 
-0.4902489771276877 2:1.0 220:1.0 111:1.0 540:1.0 1411:1.0 1693:1.0 446:1.0 9:1.0 81:1.0 
-0.1645867033316839 2:1.0 35:1.0 118:1.0 5:1.0 6347:1.0 7:1.0 146:1.0 9:1.0 81:1.0 13:1.0 71:1.0 11:1.0 160:1.0 
-0.09774059463670166 2:1.0 220:1.0 118:1.0 5:1.0 1044:1.0 7:1.0 146:1.0 9:1.0 81:1.0 71:1.0 13:1.0 11:1.0 160:1.0 
-0.16339869242852334 2:1.0 431:1.0 4:1.0 5:1.0 38565:1.0 2307:1.0 8:1.0 9:1.0 81:1.0 13:1.0 11:1.0 70:1.0 506:1.0 
-0.16699590616841423 2:1.0 14:1.0 4:1.0 51:1.0 3885:1.0 839:1.0 8:1.0 9:1.0 81:1.0 11:1.0 690:1.0 635:1.0 13:1.0 
-0.8600126614596986 2:1.0 52:1.0 111:1.0 5:1.0 89:1.0 15168:1.0 115:1.0 9:1.0 81:1.0 
-0.08673727039256529 2:1.0 59:1.0 4:1.0 697:1.0 8556:1.0 419:1.0 8:1.0 9:1.0 81:1.0 13:1.0 11:1.0 224:1.0 
-0.32667188508819106 2:1.0 220:1.0 24:1.0 5:1.0 1438:1.0 24111:1.0 531:1.0 9:1.0 81:1.0 
-0.2433935521565212 109:1.0 220:1.0 4:1.0 1727:1.0 1644:1.0 6752:1.0 335:1.0 9:1.0 81:1.0 11:1.0 
-0.22661437021994466 2:1.0 220:1.0 66:1.0 485:1.0 404:1.0 4474:1.0 28:1.0 9:1.0 81:1.0 70:1.0 11:1.0 
-0.13913120213013327 2:1.0 14:1.0 118:1.0 51:1.0 2493:1.0 791:1.0 8:1.0 9:1.0 81:1.0 11:1.0 70:1.0 13:1.0 187:1.0 
-0.2534157929441724 2:1.0 52:1.0 4:1.0 51:1.0 415:1.0 15317:1.0 8:1.0 9:1.0 81:1.0 13:1.0 11:1.0 224:1.0 
-0.1721510142491015 2:1.0 220:1.0 111:1.0 5:1.0 5467:1.0 1348:1.0 115:1.0 9:1.0 81:1.0 224:1.0 
-0.31018085036036663 2:1.0 52:1.0 4:1.0 51:1.0 1247:1.0 14554:1.0 8:1.0 9:1.0 81:1.0 13:1.0 11:1.0 
-0.22531513900562422 2:1.0 73:1.0 111:1.0 5:1.0 1675:1.0 1177:1.0 115:1.0 9:1.0 81:1.0 13:1.0 224:1.0 
-0.228466797704033 2:1.0 14:1.0 118:1.0 485:1.0 1675:1.0 14748:1.0 8:1.0 9:1.0 81:1.0 13:1.0 11:1.0 224:1.0 
-0.12627570958014067 2:1.0 220:1.0 111:1.0 485:1.0 3357:1.0 7:1.0 115:1.0 9:1.0 81:1.0 160:1.0 13:1.0 
-0.1805112405451278 2:1.0 52:1.0 4:1.0 51:1.0 415:1.0 906:1.0 8:1.0 9:1.0 81:1.0 13:1.0 11:1.0 187:1.0 
-0.15340347401331772 2:1.0 14:1.0 4:1.0 485:1.0 164:1.0 11425:1.0 8:1.0 9:1.0 81:1.0 13:1.0 11:1.0 224:1.0 70:1.0 
-0.10286754174930074 2:1.0 220:1.0 4:1.0 5:1.0 872:1.0 10863:1.0 8:1.0 9:1.0 81:1.0 13:1.0 11:1.0 224:1.0 70:1.0 
-0.17910133805963024 2:1.0 14:1.0 66:1.0 5:1.0 3885:1.0 2108:1.0 146:1.0 9:1.0 81:1.0 13:1.0 11:1.0 1636:1.0 
-0.31144112053901973 2:1.0 604:1.0 111:1.0 1480:1.0 605:1.0 494:1.0 115:1.0 9:1.0 81:1.0 
-0.187251859108117 2:1.0 52:1.0 4:1.0 485:1.0 471:1.0 371:1.0 8:1.0 9:1.0 81:1.0 13:1.0 11:1.0 224:1.0 
-0.18393672813249343 2:1.0 220:1.0 66:1.0 5:1.0 5467:1.0 223:1.0 8:1.0 9:1.0 81:1.0 13:1.0 11:1.0 12:1.0 
-0.16954075185991077 2:1.0 220:1.0 118:1.0 540:1.0 914:1.0 17122:1.0 335:1.0 9:1.0 81:1.0 11:1.0 
-0.3480351612032153 2:1.0 52:1.0 4:1.0 5:1.0 89:1.0 369:1.0 8:1.0 9:1.0 81:1.0 11:1.0 13:1.0 
-0.14262166792343298 109:1.0 220:1.0 4:1.0 6434:1.0 872:1.0 40329:1.0 8:1.0 9:1.0 81:1.0 11:1.0 70:1.0 13:1.0 
-0.2138587205642915 2:1.0 14:1.0 4:1.0 5:1.0 5832:1.0 32727:1.0 8:1.0 9:1.0 81:1.0 11:1.0 224:1.0 13:1.0 
-0.6557698304984617 2:1.0 59:1.0 4:1.0 485:1.0 8556:1.0 3458:1.0 8:1.0 9:1.0 81:1.0 11:1.0 224:1.0 13:1.0 46:1.0 
-0.14784940207361205 2:1.0 220:1.0 111:1.0 5:1.0 1644:1.0 5963:1.0 115:1.0 9:1.0 81:1.0 
-1.0374576004220863 2:1.0 220:1.0 4:1.0 5:1.0 423:1.0 3090:1.0 28:1.0 9:1.0 81:1.0 46:1.0 11:1.0 71:1.0 
-0.21215140687007616 2:1.0 220:1.0 118:1.0 697:1.0 902:1.0 5437:1.0 238:1.0 9:1.0 81:1.0 11:1.0 
-0.13313164979917064 2:1.0 604:1.0 4:1.0 1071:1.0 605:1.0 4600:1.0 238:1.0 9:1.0 81:1.0 11:1.0 187:1.0 
-0.2993765038686726 2:1.0 59:1.0 4:1.0 5:1.0 8556:1.0 3917:1.0 8:1.0 9:1.0 81:1.0 11:1.0 426:1.0 13:1.0 
-0.28541568321948974 109:1.0 23:1.0 111:1.0 6675:1.0 304:1.0 27388:1.0 115:1.0 9:1.0 81:1.0 224:1.0 
-0.30717345427438764 2:1.0 59:1.0 94:1.0 5:1.0 16586:1.0 7139:1.0 28:1.0 9:1.0 81:1.0 31:1.0 
-0.30989183547345944 2:1.0 14:1.0 243:1.0 51:1.0 894:1.0 68:1.0 115:1.0 9:1.0 81:1.0 70:1.0 
-0.4464285714285714 2:1.0 14:1.0 111:1.0 5:1.0 894:1.0 6654:1.0 115:1.0 9:1.0 81:1.0 
-0.20891648883112357 2:1.0 220:1.0 118:1.0 5:1.0 4190:1.0 757:1.0 176:1.0 9:1.0 81:1.0 70:1.0 
-0.08570401586174183 2:1.0 220:1.0 66:1.0 5:1.0 914:1.0 1598:1.0 8:1.0 9:1.0 81:1.0 11:1.0 70:1.0 13:1.0 187:1.0 
-0.223286890705314 2:1.0 14:1.0 118:1.0 5:1.0 1675:1.0 465:1.0 8:1.0 9:1.0 81:1.0 11:1.0 70:1.0 13:1.0 
-500.0 2:1.0 59:1.0 4:1.0 5:1.0 2379:1.0 4543:1.0 8:1.0 9:1.0 81:1.0 11:1.0 3266:1.0 197:1.0 46:1.0 13:1.0 
-0.16852835640234462 2:1.0 14:1.0 4:1.0 5:1.0 2502:1.0 1111:1.0 8:1.0 9:1.0 81:1.0 13:1.0 46:1.0 70:1.0 224:1.0 
-500.0 2:1.0 59:1.0 4:1.0 485:1.0 8556:1.0 3458:1.0 8:1.0 9:1.0 81:1.0 46:1.0 13:1.0 11:1.0 224:1.0 
-0.35635363635387884 2:1.0 73:1.0 66:1.0 485:1.0 2766:1.0 1097:1.0 158:1.0 9:1.0 81:1.0 
-0.23060921104895854 2:1.0 14:1.0 111:1.0 4583:1.0 1675:1.0 165:1.0 115:1.0 9:1.0 81:1.0 690:1.0 346:1.0 
-0.3552256710127932 2:1.0 59:1.0 4:1.0 5:1.0 8698:1.0 7888:1.0 8:1.0 9:1.0 81:1.0 13:1.0 11:1.0 
-0.2511867589803943 2:1.0 14:1.0 4:1.0 5:1.0 1864:1.0 14236:1.0 8:1.0 9:1.0 81:1.0 11:1.0 70:1.0 13:1.0 187:1.0 
-0.28252077191781577 637:1.0 220:1.0 243:1.0 638:1.0 902:1.0 3090:1.0 446:1.0 9:1.0 81:1.0 
-0.2611354543089353 2:1.0 52:1.0 155:1.0 5:1.0 89:1.0 3265:1.0 158:1.0 9:1.0 81:1.0 71:1.0 
-0.32090842954314464 2:1.0 14:1.0 155:1.0 5:1.0 894:1.0 3265:1.0 158:1.0 9:1.0 81:1.0 71:1.0 
-0.20969864906370245 2:1.0 14:1.0 182:1.0 5:1.0 1675:1.0 1179:1.0 28:1.0 9:1.0 81:1.0 31:1.0 191:1.0 
-0.07550259915621063 2:1.0 220:1.0 4:1.0 5:1.0 872:1.0 7:1.0 146:1.0 9:1.0 81:1.0 224:1.0 13:1.0 11:1.0 160:1.0 187:1.0 
-0.9991915804349011 2:1.0 14:1.0 111:1.0 5:1.0 164:1.0 419:1.0 446:1.0 9:1.0 81:1.0 
-0.19902479669510303 2:1.0 220:1.0 66:1.0 5:1.0 2275:1.0 7:1.0 8:1.0 9:1.0 81:1.0 13:1.0 11:1.0 160:1.0 
-0.222550520209345 2:1.0 220:1.0 66:1.0 5:1.0 902:1.0 906:1.0 8:1.0 9:1.0 81:1.0 11:1.0 13:1.0 
-0.22972499586311512 2:1.0 52:1.0 4:1.0 5:1.0 89:1.0 2307:1.0 8:1.0 9:1.0 81:1.0 13:1.0 11:1.0 70:1.0 
-0.20422275418322577 2:1.0 328:1.0 4:1.0 5:1.0 330:1.0 2284:1.0 8:1.0 9:1.0 81:1.0 13:1.0 11:1.0 70:1.0 
-0.10479313204952337 2:1.0 220:1.0 118:1.0 5:1.0 914:1.0 228:1.0 146:1.0 9:1.0 81:1.0 11:1.0 70:1.0 
-0.07371813013027559 2:1.0 220:1.0 4:1.0 5:1.0 872:1.0 1678:1.0 8:1.0 9:1.0 81:1.0 13:1.0 11:1.0 70:1.0 3266:1.0 197:1.0 
-500.0 2:1.0 14:1.0 4:1.0 485:1.0 3349:1.0 3458:1.0 8:1.0 9:1.0 81:1.0 46:1.0 13:1.0 11:1.0 224:1.0 
-0.42172493372224973 2:1.0 52:1.0 155:1.0 5:1.0 493:1.0 732:1.0 115:1.0 9:1.0 81:1.0 70:1.0 147:1.0 
-0.11673692971472754 2:1.0 604:1.0 111:1.0 5:1.0 605:1.0 564:1.0 115:1.0 9:1.0 81:1.0 
-0.10012111426411462 2:1.0 220:1.0 118:1.0 5:1.0 902:1.0 1770:1.0 8:1.0 9:1.0 81:1.0 11:1.0 13:1.0 
-0.15345444970027186 2:1.0 220:1.0 111:1.0 5:1.0 2582:1.0 1064:1.0 176:1.0 9:1.0 81:1.0 
-0.19030573189267652 2:1.0 59:1.0 155:1.0 5:1.0 2221:1.0 121:1.0 158:1.0 9:1.0 81:1.0 70:1.0 13:1.0 46:1.0 
-0.19109053226576012 109:1.0 59:1.0 155:1.0 6434:1.0 2221:1.0 121:1.0 158:1.0 9:1.0 81:1.0 70:1.0 13:1.0 46:1.0 
-0.20847800421894114 2:1.0 220:1.0 24:1.0 2495:1.0 872:1.0 43837:1.0 446:1.0 9:1.0 81:1.0 31:1.0 
-0.18810029836567993 2:1.0 39:1.0 4:1.0 697:1.0 2545:1.0 4692:1.0 8:1.0 9:1.0 81:1.0 11:1.0 160:1.0 13:1.0 
-0.1779359426075811 2:1.0 220:1.0 66:1.0 5:1.0 3148:1.0 7:1.0 146:1.0 9:1.0 81:1.0 11:1.0 13:1.0 224:1.0 160:1.0 
-0.11331997766808864 2:1.0 52:1.0 118:1.0 5:1.0 54:1.0 7:1.0 69:1.0 9:1.0 81:1.0 13:1.0 11:1.0 160:1.0 187:1.0 
-0.10508941728613541 2:1.0 220:1.0 118:1.0 697:1.0 404:1.0 223:1.0 8:1.0 9:1.0 81:1.0 11:1.0 13:1.0 224:1.0 70:1.0 
-0.16936700716207817 2:1.0 14:1.0 4:1.0 5:1.0 3349:1.0 909:1.0 8:1.0 9:1.0 81:1.0 11:1.0 3266:1.0 197:1.0 224:1.0 13:1.0 
-0.2210433615360197 2:1.0 14:1.0 4:1.0 5:1.0 3349:1.0 612:1.0 8:1.0 9:1.0 81:1.0 13:1.0 11:1.0 70:1.0 
-0.14008466914545764 2:1.0 14:1.0 4:1.0 5:1.0 1675:1.0 419:1.0 8:1.0 9:1.0 81:1.0 13:1.0 71:1.0 11:1.0 224:1.0 70:1.0 
-0.17241379310344832 2:1.0 239:1.0 4:1.0 5:1.0 3443:1.0 419:1.0 8:1.0 9:1.0 81:1.0 71:1.0 13:1.0 11:1.0 224:1.0 70:1.0 
-0.25212209750096937 2:1.0 52:1.0 4:1.0 5:1.0 89:1.0 2456:1.0 8:1.0 9:1.0 81:1.0 13:1.0 11:1.0 690:1.0 224:1.0 
-0.38167938931297707 2:1.0 14:1.0 111:1.0 5:1.0 3349:1.0 419:1.0 446:1.0 9:1.0 81:1.0 
-0.30800663958774394 109:1.0 52:1.0 4:1.0 1727:1.0 493:1.0 7262:1.0 8:1.0 9:1.0 81:1.0 426:1.0 13:1.0 11:1.0 
-0.19834423057960215 2:1.0 14:1.0 4:1.0 4776:1.0 10067:1.0 1461:1.0 8:1.0 9:1.0 81:1.0 11:1.0 224:1.0 13:1.0 
-0.24320620476373978 2:1.0 52:1.0 118:1.0 5:1.0 54:1.0 7:1.0 8:1.0 9:1.0 81:1.0 13:1.0 11:1.0 1636:1.0 187:1.0 
-500.0 2:1.0 14:1.0 4:1.0 5:1.0 3349:1.0 3265:1.0 8:1.0 9:1.0 81:1.0 11:1.0 3266:1.0 197:1.0 13:1.0 
-0.35121663018922045 2:1.0 14:1.0 4:1.0 5:1.0 1675:1.0 20546:1.0 238:1.0 9:1.0 81:1.0 11:1.0 
-0.24106973861354722 2:1.0 14:1.0 4:1.0 5:1.0 2502:1.0 3516:1.0 176:1.0 9:1.0 81:1.0 11:1.0 147:1.0 
-0.20056830571120898 2:1.0 52:1.0 4:1.0 5:1.0 89:1.0 452:1.0 8:1.0 9:1.0 81:1.0 11:1.0 224:1.0 70:1.0 13:1.0 
-0.8965402737997402 2:1.0 59:1.0 4:1.0 485:1.0 10707:1.0 3458:1.0 8:1.0 9:1.0 81:1.0 46:1.0 13:1.0 11:1.0 224:1.0 426:1.0 
-0.18518306156865896 2:1.0 52:1.0 4:1.0 485:1.0 415:1.0 14520:1.0 8:1.0 9:1.0 81:1.0 13:1.0 11:1.0 690:1.0 70:1.0 
-0.15500043908831632 2:1.0 283:1.0 4:1.0 5:1.0 1833:1.0 465:1.0 8:1.0 9:1.0 81:1.0 11:1.0 70:1.0 71:1.0 13:1.0 
-0.5402609542365923 2:1.0 52:1.0 111:1.0 51:1.0 471:1.0 2105:1.0 8:1.0 9:1.0 81:1.0 13:1.0 
-0.24322814819862656 2:1.0 604:1.0 66:1.0 5:1.0 2873:1.0 1177:1.0 146:1.0 9:1.0 81:1.0 11:1.0 
-500.0 2:1.0 52:1.0 111:1.0 5:1.0 493:1.0 7:1.0 115:1.0 9:1.0 81:1.0 160:1.0 
-0.20901110624592723 109:1.0 220:1.0 118:1.0 3779:1.0 902:1.0 2628:1.0 8:1.0 9:1.0 81:1.0 13:1.0 11:1.0 
-1.2200607905754974 2:1.0 52:1.0 111:1.0 5:1.0 89:1.0 1598:1.0 115:1.0 9:1.0 81:1.0 
-0.43800912633108574 2:1.0 52:1.0 155:1.0 5:1.0 493:1.0 21837:1.0 158:1.0 9:1.0 81:1.0 70:1.0 
-0.2809568284098279 2:1.0 14:1.0 111:1.0 697:1.0 164:1.0 959:1.0 115:1.0 9:1.0 81:1.0 346:1.0 
-0.33385165733910593 2:1.0 14:1.0 111:1.0 5:1.0 5187:1.0 4603:1.0 115:1.0 9:1.0 81:1.0 690:1.0 
-0.11619305762644139 2:1.0 220:1.0 4:1.0 5:1.0 856:1.0 938:1.0 254:1.0 9:1.0 81:1.0 690:1.0 70:1.0 
-1.528396785278736 2:1.0 59:1.0 24:1.0 5:1.0 2379:1.0 10726:1.0 28:1.0 9:1.0 81:1.0 31:1.0 
-0.2762809468790449 2:1.0 52:1.0 4:1.0 697:1.0 89:1.0 419:1.0 8:1.0 9:1.0 81:1.0 13:1.0 11:1.0 224:1.0 
-0.2620871985334984 2:1.0 52:1.0 66:1.0 4207:1.0 89:1.0 1110:1.0 176:1.0 9:1.0 81:1.0 11:1.0 70:1.0 
-0.8300337321753251 2:1.0 14:1.0 4:1.0 485:1.0 3349:1.0 4187:1.0 8:1.0 9:1.0 81:1.0 46:1.0 13:1.0 11:1.0 197:1.0 147:1.0 
-0.17476111169564484 2:1.0 52:1.0 4:1.0 5:1.0 342:1.0 223:1.0 146:1.0 9:1.0 81:1.0 426:1.0 13:1.0 11:1.0 70:1.0 
-0.47681787937483044 2:1.0 14:1.0 155:1.0 4556:1.0 2502:1.0 2284:1.0 158:1.0 9:1.0 81:1.0 
-500.0 2:1.0 14:1.0 4:1.0 5:1.0 3349:1.0 3458:1.0 8:1.0 9:1.0 81:1.0 13:1.0 11:1.0 224:1.0 
-0.46262226442933313 2:1.0 14:1.0 243:1.0 5:1.0 164:1.0 3293:1.0 115:1.0 9:1.0 81:1.0 
-0.3201579378811845 2:1.0 52:1.0 4:1.0 1480:1.0 872:1.0 4711:1.0 8:1.0 9:1.0 81:1.0 13:1.0 70:1.0 
-0.25770500010603237 2:1.0 220:1.0 243:1.0 1237:1.0 914:1.0 21168:1.0 28:1.0 9:1.0 81:1.0 11:1.0 
-0.3204462462984624 2:1.0 52:1.0 4:1.0 5:1.0 493:1.0 4100:1.0 8:1.0 9:1.0 81:1.0 46:1.0 13:1.0 11:1.0 187:1.0 
-0.19037216126292195 2:1.0 220:1.0 155:1.0 51:1.0 914:1.0 30518:1.0 8:1.0 9:1.0 81:1.0 11:1.0 13:1.0 
-0.20041346341752944 2:1.0 59:1.0 4:1.0 5:1.0 8556:1.0 419:1.0 8:1.0 9:1.0 81:1.0 11:1.0 70:1.0 635:1.0 13:1.0 
-0.14377884819394787 2:1.0 220:1.0 243:1.0 51:1.0 902:1.0 1160:1.0 28:1.0 9:1.0 81:1.0 11:1.0 
-0.2853319777420322 2:1.0 220:1.0 155:1.0 485:1.0 856:1.0 9688:1.0 158:1.0 9:1.0 81:1.0 690:1.0 
-0.2427317735915232 2:1.0 59:1.0 111:1.0 51:1.0 2221:1.0 767:1.0 115:1.0 9:1.0 81:1.0 71:1.0 
-0.3312197718646717 2:1.0 52:1.0 111:1.0 697:1.0 89:1.0 4666:1.0 115:1.0 9:1.0 81:1.0 197:1.0 32:1.0 
-0.2906976792540274 2:1.0 52:1.0 4:1.0 51:1.0 1247:1.0 1368:1.0 8:1.0 9:1.0 81:1.0 13:1.0 11:1.0 224:1.0 
-0.14437077299599888 2:1.0 220:1.0 243:1.0 5:1.0 902:1.0 9838:1.0 254:1.0 9:1.0 81:1.0 70:1.0 
-0.24630541958705107 2:1.0 220:1.0 94:1.0 51:1.0 1666:1.0 5736:1.0 28:1.0 9:1.0 81:1.0 31:1.0 
-0.31698010375127506 2:1.0 14:1.0 118:1.0 51:1.0 894:1.0 669:1.0 8:1.0 9:1.0 81:1.0 11:1.0 70:1.0 13:1.0 
-1.000000228881888 2:1.0 14:1.0 4:1.0 5:1.0 3349:1.0 3265:1.0 8:1.0 9:1.0 81:1.0 13:1.0 11:1.0 197:1.0 224:1.0 
-0.44316594399307374 2:1.0 52:1.0 243:1.0 51:1.0 342:1.0 3588:1.0 254:1.0 9:1.0 81:1.0 197:1.0 
-0.2687591123587471 2:1.0 604:1.0 243:1.0 5:1.0 605:1.0 7837:1.0 115:1.0 9:1.0 81:1.0 
-0.3140608738829861 2:1.0 14:1.0 155:1.0 485:1.0 3349:1.0 3090:1.0 115:1.0 9:1.0 81:1.0 
-0.6353045686258857 2:1.0 59:1.0 4:1.0 5:1.0 2221:1.0 3458:1.0 8:1.0 9:1.0 81:1.0 11:1.0 224:1.0 13:1.0 
-0.38167938931297707 2:1.0 14:1.0 111:1.0 5:1.0 164:1.0 47447:1.0 115:1.0 9:1.0 81:1.0 
-0.5277360067079562 2:1.0 14:1.0 111:1.0 51:1.0 1675:1.0 1083:1.0 446:1.0 9:1.0 81:1.0 
-0.4987868935377411 2:1.0 220:1.0 4:1.0 5:1.0 5467:1.0 997:1.0 8:1.0 9:1.0 81:1.0 11:1.0 70:1.0 13:1.0 
-0.32861081070138953 2:1.0 52:1.0 4:1.0 485:1.0 586:1.0 223:1.0 8:1.0 9:1.0 81:1.0 13:1.0 11:1.0 70:1.0 
-0.1536276269027307 2:1.0 52:1.0 4:1.0 697:1.0 586:1.0 223:1.0 8:1.0 9:1.0 81:1.0 224:1.0 13:1.0 11:1.0 71:1.0 70:1.0 
-0.12782112893890066 2:1.0 14:1.0 4:1.0 485:1.0 3349:1.0 3090:1.0 8:1.0 9:1.0 81:1.0 11:1.0 224:1.0 13:1.0 
-1.3283715721779663 2:1.0 14:1.0 4:1.0 5:1.0 3349:1.0 3458:1.0 8:1.0 9:1.0 81:1.0 11:1.0 224:1.0 13:1.0 
-0.3435280207009711 2:1.0 52:1.0 235:1.0 51:1.0 471:1.0 44994:1.0 8:1.0 9:1.0 81:1.0 13:1.0 426:1.0 
-0.19547941390425305 2:1.0 52:1.0 4:1.0 5:1.0 89:1.0 7:1.0 8:1.0 9:1.0 81:1.0 13:1.0 11:1.0 12:1.0 
-0.32486478998964896 2:1.0 14:1.0 111:1.0 5:1.0 1675:1.0 419:1.0 446:1.0 9:1.0 81:1.0 
-0.3140240621424335 2:1.0 59:1.0 155:1.0 5:1.0 10707:1.0 165:1.0 158:1.0 9:1.0 81:1.0 70:1.0 
-0.2489572253288308 2:1.0 59:1.0 111:1.0 51:1.0 10707:1.0 767:1.0 115:1.0 9:1.0 81:1.0 71:1.0 
-0.45025144727869965 2:1.0 52:1.0 111:1.0 5:1.0 89:1.0 68:1.0 115:1.0 9:1.0 81:1.0 197:1.0 
-0.5962886665940035 2:1.0 52:1.0 111:1.0 5:1.0 89:1.0 10716:1.0 589:1.0 9:1.0 81:1.0 
-0.14360380160773678 2:1.0 220:1.0 4:1.0 51:1.0 2358:1.0 906:1.0 8:1.0 9:1.0 81:1.0 11:1.0 224:1.0 13:1.0 
-0.45458082573812086 2:1.0 14:1.0 155:1.0 5:1.0 1372:1.0 17722:1.0 158:1.0 9:1.0 81:1.0 
-0.11440984957991918 2:1.0 14:1.0 4:1.0 5:1.0 3349:1.0 3458:1.0 176:1.0 9:1.0 81:1.0 224:1.0 13:1.0 
-0.24721867086635688 2:1.0 220:1.0 4:1.0 51:1.0 1644:1.0 906:1.0 238:1.0 9:1.0 81:1.0 11:1.0 
-0.2668330463324538 2:1.0 14:1.0 243:1.0 5:1.0 3349:1.0 3458:1.0 589:1.0 9:1.0 81:1.0 224:1.0 46:1.0 
-0.3080688366023493 2:1.0 52:1.0 111:1.0 5:1.0 4232:1.0 4692:1.0 115:1.0 9:1.0 81:1.0 160:1.0 13:1.0 
-0.19646243329885055 2:1.0 52:1.0 4:1.0 4583:1.0 415:1.0 16577:1.0 8:1.0 9:1.0 81:1.0 11:1.0 197:1.0 13:1.0 187:1.0 
-0.43698815289827986 2:1.0 52:1.0 155:1.0 51:1.0 493:1.0 6558:1.0 158:1.0 9:1.0 81:1.0 70:1.0 
-500.0 2:1.0 14:1.0 4:1.0 5:1.0 3349:1.0 3458:1.0 8:1.0 9:1.0 81:1.0 11:1.0 224:1.0 13:1.0 
-0.18228081754246225 2:1.0 14:1.0 4:1.0 51:1.0 3349:1.0 223:1.0 8:1.0 9:1.0 81:1.0 11:1.0 70:1.0 13:1.0 187:1.0 
-0.19112200909672572 2:1.0 14:1.0 4:1.0 305:1.0 2502:1.0 452:1.0 8:1.0 9:1.0 81:1.0 13:1.0 11:1.0 147:1.0 
-0.2520647285969998 2:1.0 239:1.0 155:1.0 5:1.0 2468:1.0 1708:1.0 115:1.0 9:1.0 81:1.0 426:1.0 70:1.0 
-0.3780249057223161 2:1.0 59:1.0 111:1.0 5:1.0 2221:1.0 121:1.0 115:1.0 9:1.0 81:1.0 
-0.2264327888629944 2:1.0 14:1.0 4:1.0 5:1.0 5832:1.0 735:1.0 8:1.0 9:1.0 81:1.0 11:1.0 160:1.0 13:1.0 
-0.08558789972752424 2:1.0 220:1.0 4:1.0 5:1.0 37345:1.0 669:1.0 8:1.0 9:1.0 81:1.0 224:1.0 13:1.0 11:1.0 147:1.0 
-0.19296853588699023 2:1.0 328:1.0 4:1.0 5:1.0 4157:1.0 752:1.0 335:1.0 9:1.0 81:1.0 11:1.0 13:1.0 70:1.0 
-0.4380450649560648 2:1.0 52:1.0 24:1.0 5:1.0 89:1.0 1052:1.0 103:1.0 9:1.0 81:1.0 31:1.0 
-0.16512128737792908 2:1.0 604:1.0 111:1.0 485:1.0 605:1.0 1770:1.0 115:1.0 9:1.0 81:1.0 
-0.2336757906021329 109:1.0 14:1.0 155:1.0 3523:1.0 10067:1.0 17722:1.0 158:1.0 9:1.0 81:1.0 13:1.0 
-0.12131064589342908 2:1.0 220:1.0 4:1.0 485:1.0 330:1.0 4893:1.0 8:1.0 9:1.0 81:1.0 13:1.0 11:1.0 
-500.0 2:1.0 14:1.0 4:1.0 5:1.0 3349:1.0 3458:1.0 8:1.0 9:1.0 81:1.0 11:1.0 224:1.0 13:1.0 
-0.39338367530517526 2:1.0 14:1.0 111:1.0 5:1.0 1675:1.0 694:1.0 446:1.0 9:1.0 81:1.0 
-0.4693787640770607 2:1.0 52:1.0 243:1.0 697:1.0 493:1.0 23348:1.0 115:1.0 9:1.0 81:1.0 70:1.0 
-500.0 2:1.0 59:1.0 4:1.0 5:1.0 10707:1.0 3265:1.0 8:1.0 9:1.0 81:1.0 46:1.0 13:1.0 11:1.0 3266:1.0 197:1.0 
-0.4764248420608173 2:1.0 220:1.0 111:1.0 5:1.0 5171:1.0 6236:1.0 446:1.0 9:1.0 81:1.0 
-0.21833260451712158 2:1.0 220:1.0 66:1.0 485:1.0 914:1.0 7:1.0 146:1.0 9:1.0 81:1.0 11:1.0 160:1.0 
