svm_type c_svc
kernel_type polynomial
degree 2
gamma 0.2
coef0 0.0
nr_class 2
total_sv 4319
rho -0.07713251246590776
label 1 -1
nr_sv 2435 1884
SV
0.16854693034933516 87:1.0 283:1.0 155:1.0 667:1.0 671:1.0 669:1.0 158:1.0 90:1.0 117:1.0 13:1.0 
0.11823016974736766 84:1.0 283:1.0 155:1.0 753:1.0 671:1.0 752:1.0 115:1.0 90:1.0 117:1.0 187:1.0 13:1.0 
0.26067647794105886 84:1.0 220:1.0 155:1.0 854:1.0 855:1.0 121:1.0 158:1.0 90:1.0 117:1.0 71:1.0 
0.1796443501324898 84:1.0 686:1.0 4:1.0 888:1.0 855:1.0 887:1.0 238:1.0 90:1.0 117:1.0 11:1.0 
0.16434619156064376 87:1.0 52:1.0 66:1.0 1281:1.0 696:1.0 1278:1.0 238:1.0 90:1.0 117:1.0 11:1.0 
0.1573507774250628 87:1.0 52:1.0 4:1.0 1305:1.0 696:1.0 1301:1.0 8:1.0 90:1.0 117:1.0 11:1.0 224:1.0 46:1.0 13:1.0 
0.2496102669222675 58:1.0 52:1.0 4:1.0 150:1.0 199:1.0 1422:1.0 8:1.0 90:1.0 117:1.0 224:1.0 13:1.0 11:1.0 
0.0889942902221685 84:1.0 52:1.0 4:1.0 1551:1.0 734:1.0 1546:1.0 8:1.0 90:1.0 117:1.0 11:1.0 506:1.0 13:1.0 
0.2688019630603303 84:1.0 220:1.0 155:1.0 2131:1.0 1225:1.0 2213:1.0 158:1.0 90:1.0 117:1.0 46:1.0 
0.08751077423022421 84:1.0 52:1.0 66:1.0 194:1.0 199:1.0 2262:1.0 238:1.0 90:1.0 117:1.0 11:1.0 71:1.0 32:1.0 
0.15273234561637494 87:1.0 14:1.0 4:1.0 2312:1.0 2308:1.0 2307:1.0 8:1.0 90:1.0 117:1.0 426:1.0 11:1.0 690:1.0 13:1.0 
0.14720190790356066 87:1.0 52:1.0 155:1.0 2551:1.0 696:1.0 223:1.0 176:1.0 90:1.0 117:1.0 
0.29848401568970495 87:1.0 220:1.0 4:1.0 2464:1.0 368:1.0 2703:1.0 8:1.0 90:1.0 117:1.0 71:1.0 13:1.0 11:1.0 
0.13324252639999343 87:1.0 52:1.0 243:1.0 2781:1.0 355:1.0 2782:1.0 176:1.0 90:1.0 117:1.0 71:1.0 
0.16472774474180898 437:1.0 52:1.0 66:1.0 438:1.0 199:1.0 2796:1.0 238:1.0 90:1.0 117:1.0 11:1.0 506:1.0 
0.17851482419751608 436:1.0 239:1.0 118:1.0 2835:1.0 2836:1.0 2830:1.0 8:1.0 90:1.0 117:1.0 13:1.0 11:1.0 
0.20629520937738463 376:1.0 239:1.0 118:1.0 339:1.0 2874:1.0 140:1.0 8:1.0 90:1.0 117:1.0 224:1.0 13:1.0 11:1.0 
0.23782843605720005 84:1.0 52:1.0 4:1.0 793:1.0 493:1.0 3019:1.0 8:1.0 90:1.0 117:1.0 11:1.0 13:1.0 
0.3206359934881553 87:1.0 220:1.0 155:1.0 793:1.0 3357:1.0 3358:1.0 115:1.0 90:1.0 117:1.0 
0.24630541958705118 87:1.0 283:1.0 4:1.0 309:1.0 3419:1.0 3418:1.0 238:1.0 90:1.0 117:1.0 11:1.0 
0.09911943197314435 58:1.0 52:1.0 118:1.0 3461:1.0 54:1.0 3283:1.0 8:1.0 90:1.0 117:1.0 11:1.0 13:1.0 
0.14565558646641863 87:1.0 52:1.0 118:1.0 3510:1.0 493:1.0 380:1.0 146:1.0 90:1.0 117:1.0 11:1.0 
0.35787321341053213 84:1.0 328:1.0 155:1.0 3555:1.0 3556:1.0 3557:1.0 176:1.0 90:1.0 117:1.0 
0.21582608665560887 87:1.0 52:1.0 155:1.0 3590:1.0 493:1.0 2971:1.0 158:1.0 90:1.0 117:1.0 
0.2367765800748626 87:1.0 52:1.0 4:1.0 3608:1.0 108:1.0 3605:1.0 238:1.0 90:1.0 117:1.0 11:1.0 
0.20827489907064445 87:1.0 52:1.0 155:1.0 427:1.0 696:1.0 1688:1.0 115:1.0 90:1.0 117:1.0 13:1.0 
0.09018252425979727 87:1.0 52:1.0 4:1.0 3795:1.0 3325:1.0 3793:1.0 146:1.0 90:1.0 117:1.0 11:1.0 71:1.0 13:1.0 
0.21945896437903645 87:1.0 52:1.0 66:1.0 2188:1.0 3833:1.0 2524:1.0 146:1.0 90:1.0 117:1.0 11:1.0 13:1.0 
0.14487359587892948 84:1.0 52:1.0 4:1.0 3858:1.0 599:1.0 612:1.0 8:1.0 90:1.0 117:1.0 71:1.0 13:1.0 11:1.0 147:1.0 
0.17652016076599703 84:1.0 220:1.0 4:1.0 793:1.0 2195:1.0 3793:1.0 8:1.0 90:1.0 117:1.0 11:1.0 13:1.0 
0.16857478997509825 22:1.0 283:1.0 155:1.0 2950:1.0 3038:1.0 3733:1.0 158:1.0 90:1.0 117:1.0 224:1.0 13:1.0 
0.18434103443045893 84:1.0 239:1.0 66:1.0 3238:1.0 421:1.0 223:1.0 8:1.0 90:1.0 117:1.0 224:1.0 13:1.0 11:1.0 
0.09870385367718873 87:1.0 52:1.0 4:1.0 4377:1.0 493:1.0 1598:1.0 8:1.0 90:1.0 117:1.0 11:1.0 13:1.0 
0.07852862179866851 87:1.0 52:1.0 4:1.0 4447:1.0 199:1.0 1099:1.0 8:1.0 90:1.0 117:1.0 71:1.0 11:1.0 13:1.0 224:1.0 
0.09235671154684613 87:1.0 239:1.0 4:1.0 4447:1.0 3970:1.0 1099:1.0 8:1.0 90:1.0 117:1.0 71:1.0 11:1.0 224:1.0 13:1.0 
0.1661114652455732 87:1.0 14:1.0 155:1.0 4590:1.0 3943:1.0 4589:1.0 254:1.0 90:1.0 117:1.0 13:1.0 
0.1716480066415497 84:1.0 239:1.0 4:1.0 4654:1.0 571:1.0 4650:1.0 8:1.0 90:1.0 117:1.0 11:1.0 13:1.0 
0.10785573288647858 436:1.0 239:1.0 4:1.0 377:1.0 4716:1.0 140:1.0 8:1.0 90:1.0 117:1.0 11:1.0 13:1.0 
0.7982568896194261 2:1.0 220:1.0 4:1.0 307:1.0 1044:1.0 1358:1.0 8:1.0 90:1.0 117:1.0 11:1.0 13:1.0 12:1.0 
0.1443805707902744 87:1.0 52:1.0 118:1.0 5170:1.0 696:1.0 735:1.0 176:1.0 90:1.0 117:1.0 71:1.0 
0.29005099426984365 84:1.0 686:1.0 155:1.0 793:1.0 743:1.0 165:1.0 158:1.0 90:1.0 117:1.0 224:1.0 
0.1400767838477944 84:1.0 52:1.0 118:1.0 4758:1.0 696:1.0 5212:1.0 8:1.0 90:1.0 117:1.0 426:1.0 11:1.0 506:1.0 13:1.0 
0.18801408566350244 87:1.0 220:1.0 155:1.0 5234:1.0 1044:1.0 380:1.0 115:1.0 90:1.0 117:1.0 71:1.0 1412:1.0 13:1.0 187:1.0 
0.23527281107966788 860:1.0 52:1.0 155:1.0 2244:1.0 599:1.0 380:1.0 158:1.0 90:1.0 117:1.0 13:1.0 
0.07592865333537677 87:1.0 52:1.0 4:1.0 5578:1.0 586:1.0 369:1.0 8:1.0 90:1.0 117:1.0 11:1.0 71:1.0 224:1.0 13:1.0 
0.16368446763990785 84:1.0 110:1.0 118:1.0 5625:1.0 113:1.0 1101:1.0 176:1.0 90:1.0 117:1.0 
0.14527167761780915 87:1.0 52:1.0 118:1.0 5749:1.0 199:1.0 1468:1.0 8:1.0 90:1.0 117:1.0 11:1.0 13:1.0 
0.2722195843201543 87:1.0 52:1.0 155:1.0 1663:1.0 493:1.0 1400:1.0 115:1.0 90:1.0 117:1.0 
0.2296325163866547 87:1.0 52:1.0 118:1.0 3820:1.0 199:1.0 5863:1.0 8:1.0 90:1.0 117:1.0 11:1.0 13:1.0 187:1.0 
0.17565455645192096 87:1.0 239:1.0 4:1.0 3062:1.0 5875:1.0 68:1.0 8:1.0 90:1.0 117:1.0 11:1.0 13:1.0 
0.18161450788030956 87:1.0 52:1.0 118:1.0 5940:1.0 5033:1.0 1286:1.0 176:1.0 90:1.0 117:1.0 13:1.0 
0.13105430902484771 84:1.0 52:1.0 118:1.0 3671:1.0 493:1.0 5970:1.0 335:1.0 90:1.0 117:1.0 11:1.0 
0.16254187731447087 84:1.0 110:1.0 155:1.0 4090:1.0 113:1.0 5586:1.0 158:1.0 90:1.0 117:1.0 
0.17967190541336517 87:1.0 14:1.0 4:1.0 6268:1.0 2308:1.0 2370:1.0 8:1.0 90:1.0 117:1.0 11:1.0 13:1.0 
0.1756523130107959 87:1.0 14:1.0 4:1.0 5496:1.0 418:1.0 5236:1.0 8:1.0 90:1.0 117:1.0 11:1.0 224:1.0 13:1.0 
0.5250898895767999 2:1.0 52:1.0 4:1.0 307:1.0 493:1.0 331:1.0 8:1.0 90:1.0 117:1.0 224:1.0 13:1.0 11:1.0 
0.10838184403929761 87:1.0 52:1.0 4:1.0 6396:1.0 586:1.0 6395:1.0 335:1.0 90:1.0 117:1.0 11:1.0 
0.14064536480247902 142:1.0 52:1.0 4:1.0 1102:1.0 471:1.0 6471:1.0 8:1.0 90:1.0 117:1.0 13:1.0 11:1.0 
0.18268322295424497 87:1.0 52:1.0 4:1.0 770:1.0 199:1.0 6491:1.0 8:1.0 90:1.0 117:1.0 224:1.0 13:1.0 11:1.0 187:1.0 71:1.0 
0.22265992411875846 84:1.0 52:1.0 4:1.0 1973:1.0 471:1.0 228:1.0 455:1.0 90:1.0 117:1.0 187:1.0 
0.23405842112574293 142:1.0 220:1.0 155:1.0 1102:1.0 1493:1.0 6532:1.0 158:1.0 90:1.0 117:1.0 197:1.0 13:1.0 187:1.0 
0.1381849800353869 142:1.0 110:1.0 4:1.0 5131:1.0 113:1.0 2034:1.0 335:1.0 90:1.0 117:1.0 11:1.0 71:1.0 
0.17516927034759117 84:1.0 239:1.0 118:1.0 6488:1.0 439:1.0 4714:1.0 8:1.0 90:1.0 117:1.0 11:1.0 13:1.0 224:1.0 506:1.0 
0.14282044933525698 87:1.0 52:1.0 118:1.0 6569:1.0 471:1.0 6568:1.0 8:1.0 90:1.0 117:1.0 11:1.0 13:1.0 
0.11624562849311078 84:1.0 52:1.0 4:1.0 5892:1.0 734:1.0 3823:1.0 146:1.0 90:1.0 117:1.0 11:1.0 
0.22932571174620597 109:1.0 52:1.0 4:1.0 359:1.0 108:1.0 2241:1.0 146:1.0 90:1.0 117:1.0 11:1.0 71:1.0 13:1.0 
0.3107206978154873 376:1.0 239:1.0 4:1.0 339:1.0 421:1.0 597:1.0 8:1.0 90:1.0 117:1.0 13:1.0 11:1.0 70:1.0 71:1.0 
0.07347742962643347 87:1.0 239:1.0 4:1.0 6783:1.0 421:1.0 597:1.0 8:1.0 90:1.0 117:1.0 13:1.0 70:1.0 11:1.0 71:1.0 
0.13288827909115714 87:1.0 52:1.0 4:1.0 5450:1.0 695:1.0 6790:1.0 8:1.0 90:1.0 117:1.0 11:1.0 506:1.0 13:1.0 
0.10788328058560374 87:1.0 52:1.0 66:1.0 6808:1.0 89:1.0 555:1.0 8:1.0 90:1.0 117:1.0 11:1.0 71:1.0 13:1.0 
0.11963432569965071 87:1.0 239:1.0 4:1.0 2750:1.0 421:1.0 6818:1.0 8:1.0 90:1.0 117:1.0 11:1.0 13:1.0 
0.19379844907513388 450:1.0 239:1.0 4:1.0 339:1.0 421:1.0 371:1.0 8:1.0 90:1.0 117:1.0 13:1.0 11:1.0 70:1.0 46:1.0 
0.3150546431068991 87:1.0 220:1.0 4:1.0 6848:1.0 6850:1.0 735:1.0 8:1.0 90:1.0 117:1.0 71:1.0 13:1.0 11:1.0 
0.208925283990644 436:1.0 220:1.0 4:1.0 5810:1.0 743:1.0 371:1.0 8:1.0 90:1.0 117:1.0 13:1.0 11:1.0 46:1.0 
0.24212525431150947 142:1.0 220:1.0 155:1.0 6854:1.0 6859:1.0 6768:1.0 158:1.0 90:1.0 117:1.0 
0.11562781360057656 87:1.0 52:1.0 4:1.0 6883:1.0 199:1.0 369:1.0 238:1.0 90:1.0 117:1.0 11:1.0 
0.23182179560981192 297:1.0 52:1.0 118:1.0 6892:1.0 3559:1.0 140:1.0 8:1.0 90:1.0 117:1.0 11:1.0 13:1.0 
0.11472640368868522 87:1.0 52:1.0 4:1.0 5630:1.0 199:1.0 767:1.0 335:1.0 90:1.0 117:1.0 11:1.0 
0.13894365892111493 87:1.0 52:1.0 118:1.0 7449:1.0 586:1.0 1064:1.0 8:1.0 90:1.0 117:1.0 11:1.0 13:1.0 
0.10068898613885387 84:1.0 52:1.0 4:1.0 565:1.0 89:1.0 7486:1.0 98:1.0 90:1.0 117:1.0 71:1.0 11:1.0 
0.10723629059157595 84:1.0 52:1.0 118:1.0 3870:1.0 199:1.0 7196:1.0 146:1.0 90:1.0 117:1.0 11:1.0 
0.2051174039008671 87:1.0 239:1.0 66:1.0 7531:1.0 4264:1.0 7530:1.0 8:1.0 90:1.0 117:1.0 224:1.0 13:1.0 11:1.0 
0.09099427224803391 87:1.0 52:1.0 4:1.0 7624:1.0 199:1.0 6282:1.0 8:1.0 90:1.0 117:1.0 11:1.0 71:1.0 13:1.0 
0.15273239009980297 84:1.0 110:1.0 111:1.0 7636:1.0 113:1.0 2284:1.0 115:1.0 90:1.0 117:1.0 224:1.0 71:1.0 
0.16658892658963648 87:1.0 52:1.0 4:1.0 1784:1.0 89:1.0 1110:1.0 146:1.0 90:1.0 117:1.0 11:1.0 13:1.0 
0.18555285219374093 436:1.0 239:1.0 4:1.0 339:1.0 590:1.0 7725:1.0 8:1.0 90:1.0 117:1.0 11:1.0 71:1.0 13:1.0 
0.17445916902136366 154:1.0 52:1.0 111:1.0 463:1.0 108:1.0 3605:1.0 115:1.0 90:1.0 117:1.0 
0.07416542334266223 84:1.0 52:1.0 66:1.0 7795:1.0 54:1.0 223:1.0 8:1.0 90:1.0 117:1.0 11:1.0 46:1.0 13:1.0 187:1.0 
0.10084205123407701 84:1.0 52:1.0 4:1.0 7857:1.0 493:1.0 7854:1.0 238:1.0 90:1.0 117:1.0 506:1.0 11:1.0 
0.166720571892003 84:1.0 220:1.0 4:1.0 5614:1.0 1044:1.0 228:1.0 8:1.0 90:1.0 117:1.0 11:1.0 13:1.0 224:1.0 71:1.0 12:1.0 
0.09474079679527793 84:1.0 52:1.0 4:1.0 6108:1.0 89:1.0 648:1.0 8:1.0 90:1.0 117:1.0 71:1.0 13:1.0 11:1.0 
0.20071884151006747 142:1.0 220:1.0 118:1.0 143:1.0 1812:1.0 938:1.0 8:1.0 90:1.0 117:1.0 426:1.0 11:1.0 13:1.0 
0.1608132263303905 87:1.0 110:1.0 4:1.0 8024:1.0 113:1.0 4858:1.0 8:1.0 90:1.0 117:1.0 224:1.0 11:1.0 506:1.0 46:1.0 
0.0871459194271884 87:1.0 52:1.0 4:1.0 8491:1.0 471:1.0 6568:1.0 8:1.0 90:1.0 117:1.0 11:1.0 13:1.0 187:1.0 
0.1132893556525736 84:1.0 52:1.0 4:1.0 2802:1.0 199:1.0 8496:1.0 8:1.0 90:1.0 117:1.0 11:1.0 13:1.0 
0.1291545446662546 84:1.0 52:1.0 4:1.0 2271:1.0 696:1.0 5958:1.0 455:1.0 90:1.0 117:1.0 11:1.0 
0.14274003574308247 84:1.0 52:1.0 66:1.0 8600:1.0 199:1.0 799:1.0 238:1.0 90:1.0 117:1.0 11:1.0 
0.28422495668505365 637:1.0 52:1.0 4:1.0 638:1.0 199:1.0 8624:1.0 238:1.0 90:1.0 117:1.0 46:1.0 11:1.0 224:1.0 
0.1224505312541486 87:1.0 52:1.0 4:1.0 8871:1.0 586:1.0 68:1.0 238:1.0 90:1.0 117:1.0 11:1.0 
0.1058973974213501 84:1.0 110:1.0 4:1.0 1357:1.0 113:1.0 759:1.0 8:1.0 90:1.0 117:1.0 224:1.0 11:1.0 
0.35610860441136805 87:1.0 220:1.0 4:1.0 8015:1.0 345:1.0 985:1.0 8:1.0 90:1.0 117:1.0 11:1.0 13:1.0 
0.11602245384710187 87:1.0 52:1.0 4:1.0 8970:1.0 696:1.0 8966:1.0 455:1.0 90:1.0 117:1.0 11:1.0 
0.24164494128049074 87:1.0 220:1.0 111:1.0 427:1.0 2195:1.0 8996:1.0 115:1.0 90:1.0 117:1.0 71:1.0 13:1.0 
0.1877387366347665 109:1.0 239:1.0 155:1.0 1164:1.0 1487:1.0 1110:1.0 115:1.0 90:1.0 117:1.0 71:1.0 13:1.0 
0.1645327077557907 87:1.0 52:1.0 155:1.0 7395:1.0 1958:1.0 9138:1.0 115:1.0 90:1.0 117:1.0 13:1.0 
0.223026259592866 84:1.0 328:1.0 111:1.0 2342:1.0 461:1.0 196:1.0 115:1.0 90:1.0 117:1.0 506:1.0 
0.1587018211239227 87:1.0 17:1.0 4:1.0 427:1.0 4152:1.0 4256:1.0 8:1.0 90:1.0 117:1.0 71:1.0 13:1.0 11:1.0 
0.5352908326883744 87:1.0 220:1.0 4:1.0 270:1.0 3564:1.0 2370:1.0 115:1.0 90:1.0 117:1.0 
0.08876747669126075 87:1.0 14:1.0 155:1.0 1597:1.0 2308:1.0 1598:1.0 115:1.0 90:1.0 117:1.0 71:1.0 13:1.0 
0.16337582383334903 84:1.0 52:1.0 155:1.0 5496:1.0 493:1.0 380:1.0 115:1.0 90:1.0 117:1.0 
0.23620208292768582 297:1.0 239:1.0 4:1.0 1673:1.0 9330:1.0 140:1.0 8:1.0 90:1.0 117:1.0 11:1.0 13:1.0 
0.09007982976762466 142:1.0 110:1.0 66:1.0 9481:1.0 113:1.0 1915:1.0 8:1.0 90:1.0 117:1.0 11:1.0 506:1.0 187:1.0 
0.21717825329051893 87:1.0 52:1.0 66:1.0 9483:1.0 586:1.0 1286:1.0 176:1.0 90:1.0 117:1.0 
0.1424673498829113 87:1.0 110:1.0 118:1.0 9543:1.0 113:1.0 397:1.0 455:1.0 90:1.0 117:1.0 
0.09582627851112883 84:1.0 239:1.0 4:1.0 9581:1.0 788:1.0 9579:1.0 8:1.0 90:1.0 117:1.0 46:1.0 13:1.0 11:1.0 
0.13640368931255428 437:1.0 220:1.0 66:1.0 1369:1.0 2347:1.0 9882:1.0 146:1.0 90:1.0 117:1.0 13:1.0 224:1.0 11:1.0 
0.4140576482591204 87:1.0 220:1.0 4:1.0 8467:1.0 3357:1.0 9302:1.0 238:1.0 90:1.0 117:1.0 46:1.0 11:1.0 
0.2409603239319686 142:1.0 52:1.0 4:1.0 4620:1.0 586:1.0 2442:1.0 8:1.0 90:1.0 117:1.0 11:1.0 13:1.0 
0.45119578942093275 58:1.0 220:1.0 243:1.0 9930:1.0 1050:1.0 10021:1.0 115:1.0 90:1.0 117:1.0 
0.12493242956135249 142:1.0 52:1.0 4:1.0 143:1.0 855:1.0 10194:1.0 8:1.0 90:1.0 117:1.0 11:1.0 13:1.0 
0.4226339217916968 87:1.0 220:1.0 111:1.0 1888:1.0 1044:1.0 228:1.0 115:1.0 90:1.0 117:1.0 187:1.0 
0.21318026656651665 84:1.0 239:1.0 66:1.0 10318:1.0 1714:1.0 9110:1.0 8:1.0 90:1.0 117:1.0 224:1.0 13:1.0 11:1.0 
0.21582109580692588 87:1.0 52:1.0 243:1.0 1607:1.0 1069:1.0 2300:1.0 28:1.0 90:1.0 117:1.0 
0.24785795539040323 436:1.0 14:1.0 155:1.0 10453:1.0 5840:1.0 10452:1.0 158:1.0 90:1.0 117:1.0 13:1.0 
0.09540552845259118 84:1.0 52:1.0 4:1.0 4829:1.0 696:1.0 680:1.0 8:1.0 90:1.0 117:1.0 11:1.0 71:1.0 13:1.0 
0.17535663468589252 87:1.0 52:1.0 66:1.0 3062:1.0 696:1.0 380:1.0 8:1.0 90:1.0 117:1.0 11:1.0 71:1.0 13:1.0 
0.09692396760743796 84:1.0 52:1.0 66:1.0 10533:1.0 696:1.0 10531:1.0 8:1.0 90:1.0 117:1.0 11:1.0 71:1.0 690:1.0 13:1.0 
0.11415008487680688 87:1.0 52:1.0 118:1.0 1483:1.0 586:1.0 68:1.0 98:1.0 90:1.0 117:1.0 71:1.0 11:1.0 13:1.0 
0.11493424191476086 84:1.0 52:1.0 66:1.0 3374:1.0 696:1.0 228:1.0 335:1.0 90:1.0 117:1.0 11:1.0 
0.13420543191689857 87:1.0 239:1.0 243:1.0 1866:1.0 4393:1.0 1490:1.0 115:1.0 90:1.0 117:1.0 197:1.0 
0.1375953255908264 87:1.0 239:1.0 4:1.0 1888:1.0 10018:1.0 228:1.0 8:1.0 90:1.0 117:1.0 11:1.0 224:1.0 13:1.0 
0.1902825568682837 87:1.0 52:1.0 66:1.0 10690:1.0 599:1.0 1693:1.0 8:1.0 90:1.0 117:1.0 11:1.0 147:1.0 13:1.0 
0.1170479967529536 87:1.0 52:1.0 66:1.0 3870:1.0 599:1.0 1693:1.0 8:1.0 90:1.0 117:1.0 11:1.0 147:1.0 13:1.0 
0.10801800153792795 84:1.0 52:1.0 118:1.0 2138:1.0 493:1.0 3104:1.0 238:1.0 90:1.0 117:1.0 11:1.0 13:1.0 224:1.0 
0.07856952810422714 87:1.0 239:1.0 4:1.0 3870:1.0 4171:1.0 2720:1.0 335:1.0 90:1.0 117:1.0 11:1.0 197:1.0 506:1.0 13:1.0 
0.2632875969650849 297:1.0 239:1.0 4:1.0 661:1.0 10774:1.0 10133:1.0 8:1.0 90:1.0 117:1.0 13:1.0 11:1.0 
0.23583568949952702 84:1.0 220:1.0 155:1.0 3065:1.0 3556:1.0 10695:1.0 115:1.0 90:1.0 117:1.0 
0.631704017840629 436:1.0 239:1.0 4:1.0 2101:1.0 3138:1.0 140:1.0 8:1.0 90:1.0 117:1.0 13:1.0 11:1.0 
0.2107438984518698 87:1.0 52:1.0 118:1.0 10845:1.0 585:1.0 7338:1.0 176:1.0 90:1.0 117:1.0 
0.17065295852915383 58:1.0 52:1.0 4:1.0 10940:1.0 199:1.0 1110:1.0 8:1.0 90:1.0 117:1.0 11:1.0 13:1.0 
0.309241880517842 87:1.0 220:1.0 155:1.0 516:1.0 10969:1.0 2300:1.0 158:1.0 90:1.0 117:1.0 506:1.0 
0.10892734311184513 142:1.0 52:1.0 111:1.0 5957:1.0 696:1.0 10978:1.0 115:1.0 90:1.0 117:1.0 224:1.0 635:1.0 13:1.0 
0.1890092551699231 84:1.0 52:1.0 4:1.0 5793:1.0 3325:1.0 2341:1.0 8:1.0 90:1.0 117:1.0 11:1.0 13:1.0 
0.10869195271319407 637:1.0 239:1.0 4:1.0 638:1.0 421:1.0 2341:1.0 176:1.0 90:1.0 117:1.0 11:1.0 13:1.0 224:1.0 
0.11847554533413486 637:1.0 239:1.0 118:1.0 638:1.0 1714:1.0 223:1.0 146:1.0 90:1.0 117:1.0 11:1.0 13:1.0 
0.2022672866267825 87:1.0 110:1.0 4:1.0 3494:1.0 113:1.0 11116:1.0 8:1.0 90:1.0 117:1.0 71:1.0 11:1.0 224:1.0 
0.16159062801108395 34:1.0 52:1.0 118:1.0 307:1.0 54:1.0 397:1.0 8:1.0 90:1.0 117:1.0 426:1.0 11:1.0 13:1.0 
0.13089283023752946 87:1.0 52:1.0 243:1.0 11163:1.0 585:1.0 11164:1.0 28:1.0 90:1.0 117:1.0 
0.125005288579587 87:1.0 52:1.0 66:1.0 11203:1.0 586:1.0 4474:1.0 8:1.0 90:1.0 117:1.0 426:1.0 11:1.0 506:1.0 13:1.0 
0.20753332097862964 87:1.0 52:1.0 118:1.0 11152:1.0 696:1.0 11257:1.0 238:1.0 90:1.0 117:1.0 11:1.0 71:1.0 
0.2015864324255566 87:1.0 17:1.0 66:1.0 9571:1.0 11279:1.0 11278:1.0 8:1.0 90:1.0 117:1.0 11:1.0 13:1.0 
0.1219825095501422 87:1.0 52:1.0 243:1.0 11345:1.0 471:1.0 68:1.0 115:1.0 90:1.0 117:1.0 
0.19179618478234517 87:1.0 110:1.0 155:1.0 382:1.0 113:1.0 2971:1.0 158:1.0 90:1.0 117:1.0 
0.1613009748234501 84:1.0 52:1.0 155:1.0 11158:1.0 586:1.0 11425:1.0 115:1.0 90:1.0 117:1.0 46:1.0 
0.13295870484926356 87:1.0 52:1.0 4:1.0 3078:1.0 586:1.0 9555:1.0 8:1.0 90:1.0 117:1.0 11:1.0 187:1.0 13:1.0 
0.2921099666789745 87:1.0 52:1.0 155:1.0 3494:1.0 89:1.0 3554:1.0 115:1.0 90:1.0 117:1.0 13:1.0 
0.1645019345017942 87:1.0 52:1.0 118:1.0 4794:1.0 599:1.0 1286:1.0 335:1.0 90:1.0 117:1.0 11:1.0 
0.1798733548485499 34:1.0 52:1.0 66:1.0 1240:1.0 586:1.0 1693:1.0 455:1.0 90:1.0 117:1.0 11:1.0 
0.16224045057380018 87:1.0 52:1.0 155:1.0 3009:1.0 696:1.0 3165:1.0 115:1.0 90:1.0 117:1.0 
0.28664855491392643 87:1.0 239:1.0 4:1.0 3318:1.0 6772:1.0 331:1.0 8:1.0 90:1.0 117:1.0 11:1.0 13:1.0 
0.21285263171090532 84:1.0 220:1.0 155:1.0 789:1.0 1225:1.0 223:1.0 146:1.0 90:1.0 117:1.0 11:1.0 13:1.0 
0.11005413680274709 22:1.0 110:1.0 4:1.0 11926:1.0 113:1.0 612:1.0 8:1.0 90:1.0 117:1.0 11:1.0 187:1.0 
0.2012487695909057 87:1.0 220:1.0 111:1.0 1433:1.0 7188:1.0 1368:1.0 115:1.0 90:1.0 117:1.0 506:1.0 46:1.0 13:1.0 224:1.0 
0.12213358347325022 84:1.0 52:1.0 118:1.0 2314:1.0 696:1.0 1283:1.0 8:1.0 90:1.0 117:1.0 11:1.0 13:1.0 
0.11586628901763367 84:1.0 52:1.0 118:1.0 270:1.0 586:1.0 1283:1.0 8:1.0 90:1.0 117:1.0 426:1.0 11:1.0 224:1.0 13:1.0 
0.14316482516520515 84:1.0 52:1.0 118:1.0 2314:1.0 493:1.0 3090:1.0 238:1.0 90:1.0 117:1.0 11:1.0 
0.12591765118401474 87:1.0 52:1.0 118:1.0 1715:1.0 586:1.0 7186:1.0 8:1.0 90:1.0 117:1.0 11:1.0 224:1.0 13:1.0 
0.13168512052441117 22:1.0 110:1.0 4:1.0 3176:1.0 113:1.0 612:1.0 8:1.0 90:1.0 117:1.0 11:1.0 
0.11488539165359664 87:1.0 52:1.0 4:1.0 753:1.0 199:1.0 767:1.0 8:1.0 90:1.0 117:1.0 71:1.0 13:1.0 11:1.0 
0.29151163732998947 84:1.0 220:1.0 4:1.0 12064:1.0 1225:1.0 223:1.0 8:1.0 90:1.0 117:1.0 11:1.0 13:1.0 187:1.0 
0.22107556499508285 87:1.0 220:1.0 155:1.0 12148:1.0 1153:1.0 9816:1.0 115:1.0 90:1.0 117:1.0 13:1.0 224:1.0 
0.1394501750815071 87:1.0 52:1.0 118:1.0 213:1.0 696:1.0 688:1.0 146:1.0 90:1.0 117:1.0 11:1.0 
0.20853863494983635 109:1.0 52:1.0 4:1.0 12180:1.0 586:1.0 2105:1.0 146:1.0 90:1.0 117:1.0 11:1.0 690:1.0 
0.22123893875328515 58:1.0 220:1.0 118:1.0 12126:1.0 3325:1.0 3283:1.0 8:1.0 90:1.0 117:1.0 11:1.0 224:1.0 13:1.0 
0.095744680467796 87:1.0 52:1.0 118:1.0 258:1.0 586:1.0 12270:1.0 8:1.0 90:1.0 117:1.0 11:1.0 13:1.0 
0.19575749811644416 142:1.0 17:1.0 118:1.0 143:1.0 788:1.0 228:1.0 455:1.0 90:1.0 117:1.0 11:1.0 147:1.0 13:1.0 
0.1103574862790442 87:1.0 52:1.0 118:1.0 2816:1.0 54:1.0 3283:1.0 238:1.0 90:1.0 117:1.0 11:1.0 
0.36412675767498004 87:1.0 17:1.0 4:1.0 5496:1.0 4152:1.0 6311:1.0 8:1.0 90:1.0 117:1.0 13:1.0 
0.11117468754679644 637:1.0 52:1.0 4:1.0 638:1.0 199:1.0 1468:1.0 146:1.0 90:1.0 117:1.0 11:1.0 690:1.0 224:1.0 
0.15737951573103287 637:1.0 239:1.0 155:1.0 638:1.0 421:1.0 1968:1.0 115:1.0 90:1.0 117:1.0 70:1.0 13:1.0 224:1.0 
0.17044873878471478 87:1.0 17:1.0 243:1.0 6484:1.0 4152:1.0 165:1.0 115:1.0 90:1.0 117:1.0 224:1.0 13:1.0 
0.1344580753370328 87:1.0 239:1.0 4:1.0 794:1.0 571:1.0 4030:1.0 8:1.0 90:1.0 117:1.0 11:1.0 13:1.0 
0.11822482865309587 87:1.0 52:1.0 118:1.0 1777:1.0 493:1.0 397:1.0 238:1.0 90:1.0 117:1.0 11:1.0 
0.08890634569836917 87:1.0 239:1.0 4:1.0 12557:1.0 12558:1.0 228:1.0 8:1.0 90:1.0 117:1.0 71:1.0 13:1.0 11:1.0 
0.17891964201383848 87:1.0 52:1.0 243:1.0 1755:1.0 734:1.0 12565:1.0 589:1.0 90:1.0 117:1.0 
0.12293655089679402 87:1.0 52:1.0 155:1.0 1973:1.0 585:1.0 791:1.0 115:1.0 90:1.0 117:1.0 690:1.0 
0.16864148025796874 87:1.0 52:1.0 4:1.0 6306:1.0 586:1.0 3612:1.0 8:1.0 90:1.0 117:1.0 11:1.0 224:1.0 13:1.0 
0.1277219452125947 22:1.0 110:1.0 4:1.0 12771:1.0 113:1.0 612:1.0 455:1.0 90:1.0 117:1.0 11:1.0 187:1.0 
0.24503681112626324 87:1.0 52:1.0 4:1.0 265:1.0 586:1.0 4474:1.0 8:1.0 90:1.0 117:1.0 224:1.0 13:1.0 11:1.0 
0.09369324385852032 87:1.0 239:1.0 4:1.0 12881:1.0 1150:1.0 3402:1.0 8:1.0 90:1.0 117:1.0 11:1.0 13:1.0 
0.19414474602131243 2:1.0 239:1.0 4:1.0 307:1.0 439:1.0 140:1.0 8:1.0 90:1.0 117:1.0 11:1.0 13:1.0 71:1.0 
0.09822239499694356 58:1.0 239:1.0 4:1.0 12921:1.0 2283:1.0 4739:1.0 8:1.0 90:1.0 117:1.0 11:1.0 224:1.0 13:1.0 
0.20585095827363623 87:1.0 239:1.0 118:1.0 3211:1.0 6283:1.0 669:1.0 8:1.0 90:1.0 117:1.0 71:1.0 13:1.0 
0.30475826101757364 84:1.0 220:1.0 118:1.0 5418:1.0 2195:1.0 223:1.0 146:1.0 90:1.0 117:1.0 11:1.0 147:1.0 13:1.0 
0.2548456496020839 84:1.0 220:1.0 243:1.0 7395:1.0 4248:1.0 3967:1.0 103:1.0 90:1.0 117:1.0 13:1.0 224:1.0 
0.25070718709110046 2:1.0 52:1.0 243:1.0 307:1.0 586:1.0 10851:1.0 238:1.0 90:1.0 117:1.0 70:1.0 13:1.0 
0.27951100438059717 84:1.0 220:1.0 155:1.0 13051:1.0 10142:1.0 6818:1.0 115:1.0 90:1.0 117:1.0 13:1.0 
0.16850639391412292 87:1.0 52:1.0 155:1.0 427:1.0 493:1.0 752:1.0 158:1.0 90:1.0 117:1.0 
0.18166644195721704 637:1.0 14:1.0 111:1.0 638:1.0 3376:1.0 6733:1.0 115:1.0 90:1.0 117:1.0 346:1.0 13:1.0 
1.7963893539689046 2:1.0 52:1.0 118:1.0 307:1.0 599:1.0 4057:1.0 8:1.0 90:1.0 117:1.0 11:1.0 13:1.0 
0.09524652288398884 84:1.0 239:1.0 4:1.0 664:1.0 1934:1.0 1490:1.0 8:1.0 90:1.0 117:1.0 11:1.0 147:1.0 13:1.0 
0.13413322410152612 87:1.0 52:1.0 4:1.0 7011:1.0 199:1.0 550:1.0 146:1.0 90:1.0 117:1.0 224:1.0 71:1.0 
0.09823679079675376 637:1.0 52:1.0 4:1.0 638:1.0 54:1.0 3336:1.0 8:1.0 90:1.0 117:1.0 11:1.0 13:1.0 224:1.0 
0.234023389089281 84:1.0 52:1.0 66:1.0 294:1.0 89:1.0 13234:1.0 335:1.0 90:1.0 117:1.0 11:1.0 
0.2099763315908623 450:1.0 239:1.0 111:1.0 2951:1.0 1714:1.0 597:1.0 115:1.0 90:1.0 117:1.0 70:1.0 13:1.0 
0.10178415746899772 87:1.0 52:1.0 4:1.0 5479:1.0 54:1.0 3283:1.0 8:1.0 90:1.0 117:1.0 11:1.0 13:1.0 
1.066219298834007 84:1.0 52:1.0 4:1.0 13269:1.0 89:1.0 13268:1.0 238:1.0 90:1.0 117:1.0 224:1.0 11:1.0 
0.1521103892642703 87:1.0 52:1.0 155:1.0 793:1.0 493:1.0 752:1.0 158:1.0 90:1.0 117:1.0 
0.08000756873913241 87:1.0 239:1.0 4:1.0 8555:1.0 139:1.0 1598:1.0 8:1.0 90:1.0 117:1.0 11:1.0 71:1.0 635:1.0 13:1.0 
0.09309422462528978 84:1.0 52:1.0 66:1.0 5496:1.0 585:1.0 380:1.0 8:1.0 90:1.0 117:1.0 224:1.0 13:1.0 11:1.0 
0.25885934974837294 376:1.0 52:1.0 118:1.0 339:1.0 342:1.0 13011:1.0 8:1.0 90:1.0 117:1.0 71:1.0 147:1.0 1343:1.0 13:1.0 
0.1443723241272789 87:1.0 52:1.0 66:1.0 10459:1.0 696:1.0 5586:1.0 238:1.0 90:1.0 117:1.0 11:1.0 
0.08481152249789715 87:1.0 52:1.0 4:1.0 429:1.0 696:1.0 419:1.0 8:1.0 90:1.0 117:1.0 11:1.0 71:1.0 13:1.0 187:1.0 
0.0986809775284734 87:1.0 239:1.0 4:1.0 4117:1.0 1062:1.0 397:1.0 8:1.0 90:1.0 117:1.0 426:1.0 11:1.0 13:1.0 
0.19996090396717195 87:1.0 220:1.0 118:1.0 13712:1.0 1438:1.0 1962:1.0 8:1.0 90:1.0 117:1.0 426:1.0 71:1.0 13:1.0 11:1.0 
0.12488126077947423 437:1.0 52:1.0 4:1.0 13732:1.0 199:1.0 13731:1.0 238:1.0 90:1.0 117:1.0 11:1.0 635:1.0 
0.3870340435967157 87:1.0 52:1.0 155:1.0 270:1.0 695:1.0 1151:1.0 158:1.0 90:1.0 117:1.0 
2.2404568014517645 376:1.0 52:1.0 118:1.0 339:1.0 108:1.0 140:1.0 8:1.0 90:1.0 117:1.0 13:1.0 11:1.0 
0.09703205964665015 58:1.0 52:1.0 118:1.0 13818:1.0 586:1.0 3733:1.0 8:1.0 90:1.0 117:1.0 11:1.0 13:1.0 
0.3473776424945655 87:1.0 52:1.0 4:1.0 812:1.0 586:1.0 2370:1.0 8:1.0 90:1.0 117:1.0 11:1.0 224:1.0 13:1.0 
0.12167587904470384 87:1.0 52:1.0 4:1.0 753:1.0 199:1.0 887:1.0 146:1.0 90:1.0 117:1.0 11:1.0 
0.22053698382210893 12343:1.0 52:1.0 111:1.0 12344:1.0 199:1.0 1678:1.0 115:1.0 90:1.0 117:1.0 
0.08868228748113648 87:1.0 52:1.0 4:1.0 3318:1.0 696:1.0 223:1.0 8:1.0 90:1.0 117:1.0 46:1.0 13:1.0 11:1.0 71:1.0 
0.18217348763490301 84:1.0 17:1.0 4:1.0 3453:1.0 5294:1.0 3688:1.0 8:1.0 90:1.0 117:1.0 11:1.0 13:1.0 71:1.0 
0.11506238581340349 87:1.0 52:1.0 155:1.0 645:1.0 696:1.0 196:1.0 158:1.0 90:1.0 117:1.0 3266:1.0 13:1.0 197:1.0 71:1.0 
0.11952882220072589 87:1.0 239:1.0 155:1.0 1777:1.0 2468:1.0 5461:1.0 115:1.0 90:1.0 117:1.0 197:1.0 13:1.0 635:1.0 
0.09768188296849922 87:1.0 52:1.0 4:1.0 3905:1.0 54:1.0 8104:1.0 8:1.0 90:1.0 117:1.0 426:1.0 11:1.0 224:1.0 13:1.0 
0.08617631969676567 22:1.0 52:1.0 4:1.0 14152:1.0 2195:1.0 1748:1.0 8:1.0 90:1.0 117:1.0 11:1.0 71:1.0 13:1.0 
0.16698010629375487 22:1.0 17:1.0 4:1.0 14163:1.0 4152:1.0 1748:1.0 146:1.0 90:1.0 117:1.0 71:1.0 13:1.0 11:1.0 187:1.0 
0.25835465370243454 142:1.0 52:1.0 66:1.0 1297:1.0 89:1.0 2700:1.0 8:1.0 90:1.0 117:1.0 11:1.0 13:1.0 224:1.0 71:1.0 70:1.0 
0.2299638592269063 436:1.0 52:1.0 4:1.0 339:1.0 1347:1.0 140:1.0 115:1.0 90:1.0 117:1.0 71:1.0 13:1.0 
0.15661329373634342 436:1.0 239:1.0 4:1.0 10030:1.0 6070:1.0 140:1.0 8:1.0 90:1.0 117:1.0 13:1.0 11:1.0 
0.3089503103729214 87:1.0 52:1.0 4:1.0 3318:1.0 471:1.0 223:1.0 8:1.0 90:1.0 117:1.0 11:1.0 13:1.0 
0.11508622300962612 142:1.0 52:1.0 111:1.0 143:1.0 696:1.0 2322:1.0 115:1.0 90:1.0 117:1.0 197:1.0 71:1.0 
0.24051831341611513 84:1.0 52:1.0 155:1.0 2768:1.0 493:1.0 2748:1.0 146:1.0 90:1.0 117:1.0 11:1.0 224:1.0 
0.3500707072383504 84:1.0 220:1.0 155:1.0 2367:1.0 1351:1.0 1286:1.0 115:1.0 90:1.0 117:1.0 
0.21782162778180383 436:1.0 220:1.0 4:1.0 329:1.0 2195:1.0 140:1.0 8:1.0 90:1.0 117:1.0 11:1.0 13:1.0 
0.15358866777183397 142:1.0 220:1.0 155:1.0 143:1.0 2975:1.0 2748:1.0 176:1.0 90:1.0 117:1.0 
0.1674044048741028 84:1.0 52:1.0 4:1.0 432:1.0 471:1.0 2869:1.0 8:1.0 90:1.0 117:1.0 11:1.0 13:1.0 
0.27574646619813875 87:1.0 283:1.0 155:1.0 8056:1.0 3679:1.0 397:1.0 115:1.0 90:1.0 117:1.0 
0.15370054192445318 142:1.0 52:1.0 118:1.0 1102:1.0 1958:1.0 2142:1.0 146:1.0 90:1.0 117:1.0 11:1.0 147:1.0 13:1.0 
0.165552785947282 87:1.0 14:1.0 111:1.0 2154:1.0 13346:1.0 10151:1.0 176:1.0 90:1.0 117:1.0 224:1.0 71:1.0 13:1.0 
0.1339786434645372 142:1.0 52:1.0 118:1.0 1102:1.0 586:1.0 11683:1.0 238:1.0 90:1.0 117:1.0 11:1.0 
0.22433494100915305 87:1.0 220:1.0 155:1.0 14652:1.0 1044:1.0 11595:1.0 115:1.0 90:1.0 117:1.0 13:1.0 187:1.0 
0.273366950896303 84:1.0 220:1.0 155:1.0 2579:1.0 1225:1.0 223:1.0 115:1.0 90:1.0 117:1.0 13:1.0 
0.22497811835835846 450:1.0 283:1.0 118:1.0 339:1.0 1949:1.0 140:1.0 8:1.0 90:1.0 117:1.0 13:1.0 11:1.0 
0.20028062098628285 87:1.0 239:1.0 4:1.0 14743:1.0 2795:1.0 5736:1.0 176:1.0 90:1.0 117:1.0 224:1.0 
0.14905265471925375 87:1.0 52:1.0 66:1.0 14756:1.0 668:1.0 5859:1.0 2870:1.0 90:1.0 117:1.0 11:1.0 13:1.0 187:1.0 
0.7692307692307686 450:1.0 52:1.0 118:1.0 339:1.0 586:1.0 140:1.0 8:1.0 90:1.0 117:1.0 13:1.0 11:1.0 506:1.0 
0.08082812079616605 87:1.0 239:1.0 4:1.0 14927:1.0 1707:1.0 2105:1.0 8:1.0 90:1.0 117:1.0 426:1.0 11:1.0 4496:1.0 13:1.0 187:1.0 
0.32275517620749544 84:1.0 220:1.0 118:1.0 5301:1.0 323:1.0 1519:1.0 238:1.0 90:1.0 117:1.0 11:1.0 224:1.0 187:1.0 
0.15245128235247338 84:1.0 52:1.0 155:1.0 270:1.0 585:1.0 2105:1.0 115:1.0 90:1.0 117:1.0 4496:1.0 
0.16083013245803335 87:1.0 52:1.0 66:1.0 14984:1.0 493:1.0 7242:1.0 8:1.0 90:1.0 117:1.0 11:1.0 13:1.0 
0.20051730986998142 84:1.0 521:1.0 155:1.0 10965:1.0 522:1.0 2142:1.0 115:1.0 90:1.0 117:1.0 506:1.0 
0.1396215070649074 87:1.0 52:1.0 118:1.0 15001:1.0 493:1.0 5298:1.0 8:1.0 90:1.0 117:1.0 11:1.0 635:1.0 13:1.0 
0.22324541004942935 87:1.0 52:1.0 66:1.0 812:1.0 493:1.0 4739:1.0 98:1.0 90:1.0 117:1.0 71:1.0 11:1.0 
0.1264193944291936 87:1.0 52:1.0 155:1.0 12220:1.0 493:1.0 15130:1.0 158:1.0 90:1.0 117:1.0 224:1.0 13:1.0 506:1.0 
0.13448199951497297 637:1.0 52:1.0 4:1.0 638:1.0 493:1.0 380:1.0 335:1.0 90:1.0 117:1.0 11:1.0 1412:1.0 71:1.0 
0.11886192267075577 637:1.0 52:1.0 118:1.0 638:1.0 493:1.0 3104:1.0 176:1.0 90:1.0 117:1.0 71:1.0 
0.13836801280756925 22:1.0 289:1.0 155:1.0 544:1.0 5333:1.0 6282:1.0 158:1.0 90:1.0 117:1.0 
0.1738224920743592 84:1.0 52:1.0 118:1.0 5737:1.0 493:1.0 1631:1.0 238:1.0 90:1.0 117:1.0 11:1.0 
0.15562174889257765 87:1.0 52:1.0 66:1.0 2426:1.0 471:1.0 9838:1.0 238:1.0 90:1.0 117:1.0 11:1.0 
0.10492337969550412 84:1.0 52:1.0 4:1.0 5488:1.0 696:1.0 419:1.0 146:1.0 90:1.0 117:1.0 11:1.0 224:1.0 
0.15819007436849453 142:1.0 52:1.0 66:1.0 143:1.0 199:1.0 3361:1.0 335:1.0 90:1.0 117:1.0 11:1.0 
0.15783168021685146 84:1.0 52:1.0 118:1.0 15285:1.0 599:1.0 1770:1.0 8:1.0 90:1.0 117:1.0 11:1.0 13:1.0 
0.20038186487342188 637:1.0 220:1.0 4:1.0 638:1.0 3325:1.0 3793:1.0 146:1.0 90:1.0 117:1.0 11:1.0 13:1.0 
0.3206598653171053 87:1.0 220:1.0 4:1.0 427:1.0 3325:1.0 1598:1.0 8:1.0 90:1.0 117:1.0 11:1.0 13:1.0 
0.11763855289797771 87:1.0 52:1.0 4:1.0 1642:1.0 199:1.0 1678:1.0 8:1.0 90:1.0 117:1.0 11:1.0 197:1.0 13:1.0 
0.2600072089548697 278:1.0 52:1.0 155:1.0 15476:1.0 199:1.0 799:1.0 115:1.0 90:1.0 117:1.0 
0.0643134482591369 84:1.0 52:1.0 4:1.0 1921:1.0 586:1.0 15490:1.0 8:1.0 90:1.0 117:1.0 71:1.0 13:1.0 11:1.0 197:1.0 32:1.0 
0.07876550089659835 87:1.0 52:1.0 4:1.0 15494:1.0 585:1.0 8640:1.0 8:1.0 90:1.0 117:1.0 426:1.0 71:1.0 13:1.0 11:1.0 
0.1755667461538057 154:1.0 52:1.0 111:1.0 850:1.0 696:1.0 2209:1.0 115:1.0 90:1.0 117:1.0 224:1.0 13:1.0 
0.22677496123566268 84:1.0 220:1.0 155:1.0 15517:1.0 12203:1.0 767:1.0 115:1.0 90:1.0 117:1.0 13:1.0 12:1.0 
0.12168556990946316 87:1.0 52:1.0 118:1.0 2806:1.0 199:1.0 7381:1.0 335:1.0 90:1.0 117:1.0 11:1.0 
0.24651568908416907 58:1.0 52:1.0 4:1.0 3303:1.0 108:1.0 3605:1.0 8:1.0 90:1.0 117:1.0 11:1.0 13:1.0 
0.2348803052343644 87:1.0 52:1.0 4:1.0 3494:1.0 586:1.0 4650:1.0 8:1.0 90:1.0 117:1.0 11:1.0 13:1.0 224:1.0 
0.13304398530748188 87:1.0 17:1.0 4:1.0 3494:1.0 231:1.0 4650:1.0 8:1.0 90:1.0 117:1.0 11:1.0 224:1.0 13:1.0 
0.09170683984296549 142:1.0 239:1.0 4:1.0 143:1.0 2277:1.0 8703:1.0 146:1.0 90:1.0 117:1.0 11:1.0 13:1.0 
0.18141367661671065 87:1.0 52:1.0 66:1.0 9447:1.0 199:1.0 1753:1.0 8:1.0 90:1.0 117:1.0 11:1.0 13:1.0 
0.31489341713180624 84:1.0 220:1.0 155:1.0 3240:1.0 1351:1.0 3847:1.0 115:1.0 90:1.0 117:1.0 635:1.0 
0.4379772136408361 87:1.0 220:1.0 4:1.0 12761:1.0 1050:1.0 366:1.0 176:1.0 90:1.0 117:1.0 13:1.0 
0.2182533788827611 87:1.0 52:1.0 243:1.0 4758:1.0 585:1.0 8640:1.0 176:1.0 90:1.0 117:1.0 46:1.0 
0.17817118050596098 84:1.0 52:1.0 118:1.0 3578:1.0 199:1.0 3967:1.0 455:1.0 90:1.0 117:1.0 11:1.0 
0.23311437474674956 84:1.0 52:1.0 243:1.0 2486:1.0 199:1.0 752:1.0 28:1.0 90:1.0 117:1.0 13:1.0 
0.27851999640106717 87:1.0 220:1.0 155:1.0 8889:1.0 1153:1.0 1693:1.0 158:1.0 90:1.0 117:1.0 13:1.0 224:1.0 
0.08179346742734249 22:1.0 52:1.0 4:1.0 16008:1.0 199:1.0 694:1.0 8:1.0 90:1.0 117:1.0 11:1.0 71:1.0 32:1.0 13:1.0 
0.2168641471225441 297:1.0 239:1.0 4:1.0 7041:1.0 4400:1.0 140:1.0 8:1.0 90:1.0 117:1.0 13:1.0 11:1.0 
0.25267211151214203 84:1.0 52:1.0 4:1.0 650:1.0 471:1.0 16051:1.0 8:1.0 90:1.0 117:1.0 11:1.0 13:1.0 
0.229626561247277 376:1.0 239:1.0 4:1.0 7842:1.0 6772:1.0 140:1.0 8:1.0 90:1.0 117:1.0 13:1.0 11:1.0 
0.28681514280375425 84:1.0 52:1.0 155:1.0 9668:1.0 89:1.0 1125:1.0 158:1.0 90:1.0 117:1.0 
0.19755026391244326 637:1.0 52:1.0 111:1.0 638:1.0 471:1.0 16112:1.0 115:1.0 90:1.0 117:1.0 13:1.0 224:1.0 
0.24333553165613667 58:1.0 52:1.0 4:1.0 16131:1.0 355:1.0 11191:1.0 455:1.0 90:1.0 117:1.0 224:1.0 13:1.0 11:1.0 
0.12487582222775362 84:1.0 52:1.0 4:1.0 3240:1.0 599:1.0 2142:1.0 8:1.0 90:1.0 117:1.0 11:1.0 147:1.0 13:1.0 
0.1271687816186564 87:1.0 52:1.0 243:1.0 7395:1.0 493:1.0 16155:1.0 28:1.0 90:1.0 117:1.0 
0.14044295747391491 84:1.0 39:1.0 4:1.0 13926:1.0 16159:1.0 3815:1.0 8:1.0 90:1.0 117:1.0 426:1.0 11:1.0 13:1.0 187:1.0 
0.10871425358909206 84:1.0 52:1.0 4:1.0 4090:1.0 696:1.0 4036:1.0 8:1.0 90:1.0 117:1.0 71:1.0 13:1.0 11:1.0 
0.12645770766727407 84:1.0 52:1.0 66:1.0 16179:1.0 54:1.0 1286:1.0 8:1.0 90:1.0 117:1.0 11:1.0 13:1.0 
0.12439513133096186 87:1.0 52:1.0 118:1.0 16254:1.0 345:1.0 223:1.0 8:1.0 90:1.0 117:1.0 635:1.0 13:1.0 11:1.0 187:1.0 
0.3229567229586345 436:1.0 239:1.0 118:1.0 377:1.0 10774:1.0 140:1.0 8:1.0 90:1.0 117:1.0 13:1.0 11:1.0 
0.19839019558437418 87:1.0 52:1.0 118:1.0 2718:1.0 599:1.0 1962:1.0 8:1.0 90:1.0 117:1.0 224:1.0 13:1.0 11:1.0 
0.08292150556399575 87:1.0 52:1.0 4:1.0 3826:1.0 696:1.0 4044:1.0 8:1.0 90:1.0 117:1.0 11:1.0 147:1.0 71:1.0 13:1.0 
0.14237217009414294 84:1.0 52:1.0 243:1.0 8030:1.0 199:1.0 16301:1.0 28:1.0 90:1.0 117:1.0 224:1.0 
0.15595671681865916 87:1.0 239:1.0 4:1.0 812:1.0 2655:1.0 5298:1.0 8:1.0 90:1.0 117:1.0 11:1.0 71:1.0 13:1.0 
0.1291471442508506 87:1.0 52:1.0 118:1.0 1483:1.0 493:1.0 2300:1.0 238:1.0 90:1.0 117:1.0 11:1.0 
0.32114269875876245 87:1.0 110:1.0 118:1.0 213:1.0 113:1.0 5236:1.0 69:1.0 90:1.0 117:1.0 11:1.0 224:1.0 
0.10545635772234031 87:1.0 52:1.0 4:1.0 16401:1.0 3559:1.0 561:1.0 69:1.0 90:1.0 117:1.0 13:1.0 11:1.0 
0.516110579611109 87:1.0 52:1.0 118:1.0 11313:1.0 696:1.0 16402:1.0 335:1.0 90:1.0 117:1.0 224:1.0 11:1.0 
0.17681041558967248 87:1.0 110:1.0 155:1.0 16438:1.0 113:1.0 688:1.0 335:1.0 90:1.0 117:1.0 11:1.0 224:1.0 187:1.0 
0.2766791160831185 87:1.0 110:1.0 155:1.0 10348:1.0 113:1.0 16482:1.0 115:1.0 90:1.0 117:1.0 224:1.0 
0.12093688859776945 87:1.0 273:1.0 155:1.0 1715:1.0 274:1.0 2105:1.0 115:1.0 90:1.0 117:1.0 4496:1.0 13:1.0 
0.24212045288184342 84:1.0 52:1.0 4:1.0 4736:1.0 696:1.0 5603:1.0 8:1.0 90:1.0 117:1.0 46:1.0 13:1.0 11:1.0 
0.2545793589040402 637:1.0 52:1.0 118:1.0 638:1.0 1958:1.0 7433:1.0 8:1.0 90:1.0 117:1.0 11:1.0 224:1.0 13:1.0 
0.17700341319314442 637:1.0 52:1.0 111:1.0 638:1.0 493:1.0 16549:1.0 115:1.0 90:1.0 117:1.0 
0.1650636880929725 637:1.0 52:1.0 111:1.0 638:1.0 493:1.0 6374:1.0 115:1.0 90:1.0 117:1.0 
0.255721999334674 278:1.0 52:1.0 111:1.0 3346:1.0 493:1.0 2598:1.0 115:1.0 90:1.0 117:1.0 224:1.0 
0.26762386660206644 87:1.0 220:1.0 155:1.0 11998:1.0 368:1.0 13011:1.0 115:1.0 90:1.0 117:1.0 
0.13725488016267712 84:1.0 52:1.0 118:1.0 3374:1.0 493:1.0 228:1.0 335:1.0 90:1.0 117:1.0 11:1.0 
0.15218185682079616 154:1.0 110:1.0 4:1.0 7820:1.0 113:1.0 7819:1.0 8:1.0 90:1.0 117:1.0 11:1.0 71:1.0 
0.16336365010419135 22:1.0 52:1.0 155:1.0 3118:1.0 493:1.0 165:1.0 158:1.0 90:1.0 117:1.0 1412:1.0 
0.25907244903421806 34:1.0 52:1.0 155:1.0 1114:1.0 493:1.0 3090:1.0 158:1.0 90:1.0 117:1.0 
0.21899163240979908 22:1.0 289:1.0 4:1.0 544:1.0 2623:1.0 6487:1.0 8:1.0 90:1.0 117:1.0 11:1.0 506:1.0 187:1.0 13:1.0 
0.35682142516835813 142:1.0 52:1.0 155:1.0 143:1.0 586:1.0 1693:1.0 158:1.0 90:1.0 117:1.0 
0.09321658582101022 58:1.0 52:1.0 118:1.0 16833:1.0 493:1.0 228:1.0 8:1.0 90:1.0 117:1.0 11:1.0 13:1.0 
0.19120845278262186 87:1.0 52:1.0 4:1.0 647:1.0 471:1.0 648:1.0 8:1.0 90:1.0 117:1.0 11:1.0 224:1.0 13:1.0 
0.16232419414904375 84:1.0 52:1.0 118:1.0 11353:1.0 493:1.0 16873:1.0 8:1.0 90:1.0 117:1.0 11:1.0 13:1.0 
0.08926795423001008 87:1.0 52:1.0 4:1.0 6397:1.0 586:1.0 4474:1.0 8:1.0 90:1.0 117:1.0 426:1.0 11:1.0 13:1.0 
0.11651778472514196 87:1.0 52:1.0 4:1.0 16922:1.0 696:1.0 16921:1.0 455:1.0 90:1.0 117:1.0 11:1.0 
0.4940615014466972 84:1.0 220:1.0 243:1.0 240:1.0 2975:1.0 5885:1.0 446:1.0 90:1.0 117:1.0 
0.13842279441103106 142:1.0 220:1.0 155:1.0 9481:1.0 3521:1.0 1693:1.0 115:1.0 90:1.0 117:1.0 224:1.0 13:1.0 
0.12081462154785254 87:1.0 52:1.0 118:1.0 14265:1.0 734:1.0 906:1.0 8:1.0 90:1.0 117:1.0 426:1.0 506:1.0 13:1.0 11:1.0 
0.06647747554012125 87:1.0 239:1.0 4:1.0 7827:1.0 16977:1.0 228:1.0 8:1.0 90:1.0 117:1.0 426:1.0 11:1.0 46:1.0 13:1.0 187:1.0 
0.1764637885343965 87:1.0 239:1.0 4:1.0 6727:1.0 11259:1.0 17055:1.0 8:1.0 90:1.0 117:1.0 426:1.0 71:1.0 13:1.0 11:1.0 
0.11026737471260857 84:1.0 52:1.0 4:1.0 458:1.0 585:1.0 223:1.0 8:1.0 90:1.0 117:1.0 11:1.0 13:1.0 
0.2666757645262149 142:1.0 52:1.0 4:1.0 600:1.0 696:1.0 5059:1.0 455:1.0 90:1.0 117:1.0 224:1.0 11:1.0 
0.25581393257515217 297:1.0 52:1.0 243:1.0 7529:1.0 17159:1.0 140:1.0 115:1.0 90:1.0 117:1.0 13:1.0 
0.12155370975968148 87:1.0 52:1.0 66:1.0 5015:1.0 89:1.0 223:1.0 238:1.0 90:1.0 117:1.0 11:1.0 
0.20275595471242014 87:1.0 52:1.0 4:1.0 265:1.0 493:1.0 7530:1.0 8:1.0 90:1.0 117:1.0 11:1.0 13:1.0 
0.18603851891146292 637:1.0 52:1.0 111:1.0 638:1.0 696:1.0 8966:1.0 115:1.0 90:1.0 117:1.0 
0.16084988607008313 87:1.0 52:1.0 155:1.0 3147:1.0 493:1.0 6342:1.0 158:1.0 90:1.0 117:1.0 
0.20232419348558017 637:1.0 52:1.0 118:1.0 638:1.0 493:1.0 1434:1.0 238:1.0 90:1.0 117:1.0 11:1.0 
0.25569589795453457 84:1.0 220:1.0 243:1.0 3890:1.0 1050:1.0 3904:1.0 115:1.0 90:1.0 117:1.0 147:1.0 
0.08471806600429144 87:1.0 52:1.0 4:1.0 12822:1.0 471:1.0 3454:1.0 335:1.0 90:1.0 117:1.0 11:1.0 197:1.0 187:1.0 
0.15835446882308535 87:1.0 17:1.0 4:1.0 5473:1.0 4152:1.0 331:1.0 8:1.0 90:1.0 117:1.0 11:1.0 13:1.0 
0.14784047746256918 87:1.0 52:1.0 155:1.0 3106:1.0 355:1.0 5958:1.0 115:1.0 90:1.0 117:1.0 
0.3509788612368047 87:1.0 52:1.0 4:1.0 1645:1.0 54:1.0 2858:1.0 238:1.0 90:1.0 117:1.0 224:1.0 11:1.0 
0.1389121162818498 87:1.0 52:1.0 66:1.0 4725:1.0 89:1.0 1598:1.0 238:1.0 90:1.0 117:1.0 11:1.0 
0.21998042626251976 450:1.0 239:1.0 4:1.0 4845:1.0 370:1.0 2858:1.0 8:1.0 90:1.0 117:1.0 11:1.0 13:1.0 
0.10079740366651863 87:1.0 52:1.0 4:1.0 17281:1.0 734:1.0 2415:1.0 238:1.0 90:1.0 117:1.0 11:1.0 32:1.0 
0.08751062466783087 87:1.0 52:1.0 4:1.0 15212:1.0 17407:1.0 6818:1.0 146:1.0 90:1.0 117:1.0 11:1.0 506:1.0 13:1.0 
0.18948644003586934 87:1.0 52:1.0 4:1.0 1755:1.0 696:1.0 3772:1.0 98:1.0 90:1.0 117:1.0 71:1.0 11:1.0 
0.5093756098287758 142:1.0 220:1.0 243:1.0 143:1.0 5182:1.0 369:1.0 28:1.0 90:1.0 117:1.0 
0.12828789228373563 84:1.0 52:1.0 66:1.0 5886:1.0 108:1.0 3605:1.0 8:1.0 90:1.0 117:1.0 11:1.0 13:1.0 
0.1998296372485829 142:1.0 39:1.0 118:1.0 143:1.0 3031:1.0 8994:1.0 176:1.0 90:1.0 117:1.0 71:1.0 
0.0853047598559389 84:1.0 52:1.0 4:1.0 1739:1.0 199:1.0 752:1.0 8:1.0 90:1.0 117:1.0 71:1.0 13:1.0 11:1.0 
0.18040797692364696 87:1.0 52:1.0 4:1.0 1447:1.0 493:1.0 8703:1.0 8:1.0 90:1.0 117:1.0 11:1.0 13:1.0 
0.12083786125753476 87:1.0 52:1.0 118:1.0 1447:1.0 108:1.0 11038:1.0 335:1.0 90:1.0 117:1.0 11:1.0 
0.16409513814920063 84:1.0 52:1.0 118:1.0 6593:1.0 199:1.0 13731:1.0 8:1.0 90:1.0 117:1.0 11:1.0 13:1.0 
0.08670432014962644 84:1.0 239:1.0 4:1.0 3541:1.0 6772:1.0 3605:1.0 8:1.0 90:1.0 117:1.0 71:1.0 13:1.0 46:1.0 11:1.0 224:1.0 
0.17896295860291278 84:1.0 273:1.0 4:1.0 1970:1.0 611:1.0 10225:1.0 238:1.0 90:1.0 117:1.0 147:1.0 
0.1897827025020865 84:1.0 52:1.0 118:1.0 6612:1.0 471:1.0 5437:1.0 335:1.0 90:1.0 117:1.0 11:1.0 13:1.0 
0.1171588721562756 87:1.0 52:1.0 4:1.0 1930:1.0 696:1.0 419:1.0 8:1.0 90:1.0 117:1.0 11:1.0 
0.12695037671734336 637:1.0 52:1.0 66:1.0 2191:1.0 89:1.0 694:1.0 335:1.0 90:1.0 117:1.0 11:1.0 71:1.0 13:1.0 224:1.0 
0.14350883076486687 637:1.0 220:1.0 66:1.0 2191:1.0 2195:1.0 694:1.0 335:1.0 90:1.0 117:1.0 11:1.0 71:1.0 13:1.0 224:1.0 
0.06529353907114516 87:1.0 52:1.0 4:1.0 17961:1.0 696:1.0 419:1.0 8:1.0 90:1.0 117:1.0 71:1.0 13:1.0 11:1.0 224:1.0 
0.08893628148047535 87:1.0 52:1.0 4:1.0 17961:1.0 471:1.0 419:1.0 8:1.0 90:1.0 117:1.0 13:1.0 11:1.0 224:1.0 
0.25303898201885605 2:1.0 239:1.0 4:1.0 307:1.0 421:1.0 494:1.0 8:1.0 90:1.0 117:1.0 635:1.0 13:1.0 11:1.0 506:1.0 
0.30723586490740534 87:1.0 52:1.0 118:1.0 458:1.0 695:1.0 223:1.0 238:1.0 90:1.0 117:1.0 11:1.0 
0.25234567825091103 87:1.0 220:1.0 66:1.0 6828:1.0 11700:1.0 767:1.0 8:1.0 90:1.0 117:1.0 71:1.0 13:1.0 11:1.0 224:1.0 
0.16386157863394604 87:1.0 52:1.0 66:1.0 6828:1.0 199:1.0 767:1.0 8:1.0 90:1.0 117:1.0 71:1.0 13:1.0 11:1.0 224:1.0 
0.1274674018471221 142:1.0 14:1.0 243:1.0 5957:1.0 683:1.0 14798:1.0 115:1.0 90:1.0 117:1.0 13:1.0 
0.17879013068142274 376:1.0 239:1.0 4:1.0 377:1.0 13031:1.0 140:1.0 8:1.0 90:1.0 117:1.0 13:1.0 11:1.0 
0.3454959199655282 34:1.0 220:1.0 66:1.0 332:1.0 2237:1.0 985:1.0 238:1.0 90:1.0 117:1.0 11:1.0 
0.21306634749801712 84:1.0 52:1.0 4:1.0 4131:1.0 493:1.0 6282:1.0 146:1.0 90:1.0 117:1.0 11:1.0 
0.08986634031933752 87:1.0 52:1.0 4:1.0 16166:1.0 734:1.0 1490:1.0 8:1.0 90:1.0 117:1.0 71:1.0 13:1.0 11:1.0 
0.09324158986326637 84:1.0 52:1.0 4:1.0 18246:1.0 599:1.0 959:1.0 8:1.0 90:1.0 117:1.0 11:1.0 13:1.0 224:1.0 
0.18451697198483952 87:1.0 52:1.0 4:1.0 6366:1.0 199:1.0 6282:1.0 8:1.0 90:1.0 117:1.0 11:1.0 13:1.0 
0.18087023052380014 154:1.0 110:1.0 4:1.0 12882:1.0 113:1.0 8219:1.0 146:1.0 90:1.0 117:1.0 11:1.0 635:1.0 
0.18274098677992906 84:1.0 52:1.0 4:1.0 15517:1.0 493:1.0 767:1.0 8:1.0 90:1.0 117:1.0 11:1.0 224:1.0 13:1.0 
0.09838304237058526 84:1.0 52:1.0 4:1.0 11559:1.0 586:1.0 6553:1.0 8:1.0 90:1.0 117:1.0 11:1.0 224:1.0 13:1.0 
0.26081776289579983 87:1.0 328:1.0 155:1.0 8951:1.0 3556:1.0 5461:1.0 158:1.0 90:1.0 117:1.0 13:1.0 46:1.0 
0.24075238883996536 2:1.0 239:1.0 4:1.0 9607:1.0 571:1.0 4817:1.0 8:1.0 90:1.0 117:1.0 11:1.0 13:1.0 
500.0 297:1.0 52:1.0 4:1.0 298:1.0 599:1.0 140:1.0 8:1.0 90:1.0 117:1.0 11:1.0 13:1.0 
0.48731028034777213 87:1.0 220:1.0 243:1.0 3799:1.0 4248:1.0 17665:1.0 115:1.0 90:1.0 117:1.0 
0.10153914555512225 87:1.0 52:1.0 4:1.0 270:1.0 734:1.0 405:1.0 238:1.0 90:1.0 117:1.0 11:1.0 71:1.0 
0.10256101473003654 84:1.0 239:1.0 4:1.0 15075:1.0 6772:1.0 68:1.0 8:1.0 90:1.0 117:1.0 11:1.0 13:1.0 
0.09833022661097619 87:1.0 52:1.0 118:1.0 4725:1.0 3559:1.0 145:1.0 335:1.0 90:1.0 117:1.0 11:1.0 71:1.0 13:1.0 
0.0929233775114918 84:1.0 52:1.0 66:1.0 7909:1.0 2195:1.0 1368:1.0 146:1.0 90:1.0 117:1.0 11:1.0 71:1.0 13:1.0 
0.20368545671477556 87:1.0 52:1.0 155:1.0 427:1.0 89:1.0 68:1.0 115:1.0 90:1.0 117:1.0 
0.2661357496866649 84:1.0 14:1.0 243:1.0 3240:1.0 418:1.0 8452:1.0 28:1.0 90:1.0 117:1.0 224:1.0 
0.15180211211053288 87:1.0 137:1.0 4:1.0 13124:1.0 370:1.0 2184:1.0 8:1.0 90:1.0 117:1.0 11:1.0 224:1.0 13:1.0 
0.221242611251535 142:1.0 52:1.0 66:1.0 143:1.0 493:1.0 18372:1.0 8:1.0 90:1.0 117:1.0 13:1.0 11:1.0 224:1.0 
0.19677141172897789 142:1.0 110:1.0 66:1.0 143:1.0 113:1.0 6105:1.0 8:1.0 90:1.0 117:1.0 11:1.0 
0.2024646184934663 87:1.0 17:1.0 118:1.0 18634:1.0 18759:1.0 223:1.0 8:1.0 90:1.0 117:1.0 11:1.0 46:1.0 13:1.0 
0.189688652342023 87:1.0 52:1.0 66:1.0 18828:1.0 586:1.0 10587:1.0 335:1.0 90:1.0 117:1.0 11:1.0 
0.2077512335059117 87:1.0 211:1.0 118:1.0 18839:1.0 18837:1.0 228:1.0 8:1.0 90:1.0 117:1.0 13:1.0 
0.2098518026080061 87:1.0 52:1.0 155:1.0 213:1.0 585:1.0 648:1.0 115:1.0 90:1.0 117:1.0 
0.40077858061738925 87:1.0 52:1.0 243:1.0 7303:1.0 855:1.0 2025:1.0 589:1.0 90:1.0 117:1.0 224:1.0 
0.2478164957536923 87:1.0 52:1.0 118:1.0 2871:1.0 586:1.0 1286:1.0 238:1.0 90:1.0 117:1.0 11:1.0 
0.1389049194264944 84:1.0 52:1.0 66:1.0 7608:1.0 89:1.0 14851:1.0 238:1.0 90:1.0 117:1.0 11:1.0 
0.18494492889317718 87:1.0 52:1.0 66:1.0 5249:1.0 586:1.0 1693:1.0 8:1.0 90:1.0 117:1.0 11:1.0 13:1.0 
0.12399046833923294 84:1.0 52:1.0 66:1.0 349:1.0 586:1.0 1286:1.0 8:1.0 90:1.0 117:1.0 11:1.0 71:1.0 13:1.0 187:1.0 
0.15667429445596975 87:1.0 137:1.0 66:1.0 349:1.0 5884:1.0 327:1.0 8:1.0 90:1.0 117:1.0 426:1.0 11:1.0 147:1.0 13:1.0 
0.20459346223659322 34:1.0 220:1.0 155:1.0 5595:1.0 5182:1.0 2105:1.0 8:1.0 90:1.0 117:1.0 13:1.0 187:1.0 
0.11626157313403875 58:1.0 52:1.0 66:1.0 19215:1.0 493:1.0 6568:1.0 335:1.0 90:1.0 117:1.0 11:1.0 
0.07558563447064011 84:1.0 52:1.0 4:1.0 4494:1.0 8158:1.0 1101:1.0 335:1.0 90:1.0 117:1.0 71:1.0 13:1.0 11:1.0 187:1.0 224:1.0 
0.17393014269612017 84:1.0 220:1.0 4:1.0 4494:1.0 1044:1.0 1101:1.0 335:1.0 90:1.0 117:1.0 71:1.0 13:1.0 11:1.0 224:1.0 187:1.0 
0.24826698378214013 87:1.0 220:1.0 155:1.0 16342:1.0 345:1.0 16402:1.0 115:1.0 90:1.0 117:1.0 13:1.0 
0.1159898670854499 142:1.0 52:1.0 4:1.0 143:1.0 471:1.0 3115:1.0 176:1.0 90:1.0 117:1.0 224:1.0 
0.15627924379049302 87:1.0 52:1.0 118:1.0 19390:1.0 493:1.0 791:1.0 238:1.0 90:1.0 117:1.0 11:1.0 690:1.0 
0.11582002868980516 637:1.0 52:1.0 4:1.0 638:1.0 471:1.0 3793:1.0 8:1.0 90:1.0 117:1.0 224:1.0 13:1.0 11:1.0 
0.30168399976840293 2:1.0 17:1.0 66:1.0 9607:1.0 788:1.0 4817:1.0 8:1.0 90:1.0 117:1.0 11:1.0 224:1.0 13:1.0 
0.18511429857254003 87:1.0 52:1.0 118:1.0 4880:1.0 89:1.0 1693:1.0 8:1.0 90:1.0 117:1.0 224:1.0 13:1.0 11:1.0 
0.12401142788684281 87:1.0 239:1.0 118:1.0 4880:1.0 3138:1.0 1693:1.0 8:1.0 90:1.0 117:1.0 224:1.0 13:1.0 11:1.0 
0.17844566928414698 84:1.0 17:1.0 155:1.0 19534:1.0 4152:1.0 223:1.0 115:1.0 90:1.0 117:1.0 13:1.0 
0.146753978676164 84:1.0 239:1.0 4:1.0 5551:1.0 421:1.0 7422:1.0 455:1.0 90:1.0 117:1.0 11:1.0 187:1.0 13:1.0 
0.11673738213038072 84:1.0 52:1.0 118:1.0 12064:1.0 493:1.0 6568:1.0 8:1.0 90:1.0 117:1.0 11:1.0 13:1.0 
0.3141529045293776 87:1.0 110:1.0 155:1.0 3078:1.0 113:1.0 6768:1.0 115:1.0 90:1.0 117:1.0 
0.21567427209177661 84:1.0 110:1.0 118:1.0 7045:1.0 113:1.0 7864:1.0 335:1.0 90:1.0 117:1.0 11:1.0 
0.10714763342309631 87:1.0 52:1.0 4:1.0 16288:1.0 471:1.0 2105:1.0 8:1.0 90:1.0 117:1.0 11:1.0 13:1.0 
0.3491983927392915 87:1.0 52:1.0 118:1.0 5186:1.0 89:1.0 648:1.0 8:1.0 90:1.0 117:1.0 11:1.0 224:1.0 13:1.0 
0.19147107617950057 87:1.0 52:1.0 155:1.0 981:1.0 734:1.0 1546:1.0 158:1.0 90:1.0 117:1.0 
0.11494934608953006 87:1.0 239:1.0 4:1.0 1677:1.0 421:1.0 893:1.0 8:1.0 90:1.0 117:1.0 224:1.0 13:1.0 11:1.0 506:1.0 
0.2152797813185244 84:1.0 632:1.0 155:1.0 6306:1.0 633:1.0 7849:1.0 115:1.0 90:1.0 117:1.0 71:1.0 
0.10142614958159739 87:1.0 52:1.0 118:1.0 5985:1.0 599:1.0 145:1.0 335:1.0 90:1.0 117:1.0 11:1.0 147:1.0 13:1.0 
0.12186472668638997 84:1.0 52:1.0 4:1.0 9125:1.0 471:1.0 6280:1.0 335:1.0 90:1.0 117:1.0 11:1.0 
0.23754624595962867 87:1.0 48:1.0 118:1.0 213:1.0 50:1.0 4474:1.0 146:1.0 90:1.0 117:1.0 11:1.0 
0.2503677622786503 87:1.0 52:1.0 118:1.0 1525:1.0 1069:1.0 2971:1.0 8:1.0 90:1.0 117:1.0 11:1.0 13:1.0 
0.19213933150482657 22:1.0 52:1.0 4:1.0 650:1.0 493:1.0 380:1.0 8:1.0 90:1.0 117:1.0 11:1.0 13:1.0 
0.09184974309798244 87:1.0 52:1.0 4:1.0 19683:1.0 3325:1.0 3793:1.0 146:1.0 90:1.0 117:1.0 11:1.0 71:1.0 13:1.0 
0.31547127722527935 142:1.0 52:1.0 118:1.0 600:1.0 586:1.0 16278:1.0 176:1.0 90:1.0 117:1.0 224:1.0 
0.08626120809994346 87:1.0 239:1.0 4:1.0 5826:1.0 6552:1.0 2876:1.0 8:1.0 90:1.0 117:1.0 11:1.0 71:1.0 13:1.0 
0.10174228332605573 87:1.0 239:1.0 4:1.0 9318:1.0 12263:1.0 1490:1.0 8:1.0 90:1.0 117:1.0 11:1.0 13:1.0 71:1.0 224:1.0 
0.14295721343328138 87:1.0 52:1.0 155:1.0 13432:1.0 668:1.0 19817:1.0 115:1.0 90:1.0 117:1.0 635:1.0 
0.15791146097877246 87:1.0 110:1.0 243:1.0 1642:1.0 113:1.0 8586:1.0 28:1.0 90:1.0 117:1.0 
0.2774003632987489 87:1.0 52:1.0 4:1.0 19899:1.0 89:1.0 2700:1.0 176:1.0 90:1.0 117:1.0 
0.21390388296771767 142:1.0 220:1.0 4:1.0 5957:1.0 743:1.0 4622:1.0 28:1.0 90:1.0 117:1.0 71:1.0 11:1.0 
0.3735400255930815 376:1.0 52:1.0 4:1.0 339:1.0 3559:1.0 140:1.0 8:1.0 90:1.0 117:1.0 426:1.0 11:1.0 13:1.0 
0.23459129163569134 84:1.0 220:1.0 155:1.0 2342:1.0 2195:1.0 923:1.0 115:1.0 90:1.0 117:1.0 71:1.0 13:1.0 
0.5052990522186538 87:1.0 110:1.0 243:1.0 213:1.0 113:1.0 8452:1.0 176:1.0 90:1.0 117:1.0 224:1.0 
0.0925229596715543 87:1.0 239:1.0 4:1.0 213:1.0 459:1.0 196:1.0 8:1.0 90:1.0 117:1.0 11:1.0 187:1.0 
0.20552510485261452 87:1.0 239:1.0 4:1.0 13344:1.0 20003:1.0 16112:1.0 8:1.0 90:1.0 117:1.0 11:1.0 13:1.0 
0.3237822255814399 34:1.0 52:1.0 66:1.0 1114:1.0 493:1.0 648:1.0 176:1.0 90:1.0 117:1.0 
0.15053283717333676 87:1.0 52:1.0 118:1.0 10801:1.0 493:1.0 14375:1.0 335:1.0 90:1.0 117:1.0 11:1.0 187:1.0 13:1.0 
0.3122438493550601 2:1.0 137:1.0 155:1.0 307:1.0 214:1.0 6395:1.0 115:1.0 90:1.0 117:1.0 13:1.0 
0.2868598335433612 376:1.0 110:1.0 4:1.0 339:1.0 113:1.0 4824:1.0 8:1.0 90:1.0 117:1.0 11:1.0 71:1.0 
0.11465791931199987 87:1.0 52:1.0 155:1.0 2368:1.0 493:1.0 223:1.0 158:1.0 90:1.0 117:1.0 3937:1.0 71:1.0 
0.2200468714179007 87:1.0 52:1.0 118:1.0 2154:1.0 54:1.0 3813:1.0 8:1.0 90:1.0 117:1.0 11:1.0 
0.488202302119812 84:1.0 239:1.0 4:1.0 153:1.0 421:1.0 223:1.0 8:1.0 90:1.0 117:1.0 11:1.0 71:1.0 13:1.0 
0.27254949480996044 87:1.0 220:1.0 66:1.0 427:1.0 4205:1.0 223:1.0 238:1.0 90:1.0 117:1.0 11:1.0 13:1.0 
0.17018853197714687 87:1.0 52:1.0 4:1.0 6321:1.0 342:1.0 5461:1.0 8:1.0 90:1.0 117:1.0 11:1.0 13:1.0 
0.8028657222494929 87:1.0 52:1.0 4:1.0 3318:1.0 471:1.0 223:1.0 8:1.0 90:1.0 117:1.0 13:1.0 11:1.0 224:1.0 
0.1246353745430611 34:1.0 52:1.0 111:1.0 528:1.0 493:1.0 9838:1.0 115:1.0 90:1.0 117:1.0 224:1.0 
0.07636714254016534 84:1.0 52:1.0 4:1.0 7434:1.0 89:1.0 1368:1.0 238:1.0 90:1.0 117:1.0 11:1.0 13:1.0 224:1.0 71:1.0 
0.14330230769540295 154:1.0 110:1.0 155:1.0 463:1.0 113:1.0 20275:1.0 158:1.0 90:1.0 117:1.0 
0.18344099301803185 87:1.0 52:1.0 243:1.0 7424:1.0 1958:1.0 68:1.0 115:1.0 90:1.0 117:1.0 
0.3721844442539646 87:1.0 110:1.0 155:1.0 5015:1.0 113:1.0 6768:1.0 115:1.0 90:1.0 117:1.0 224:1.0 
0.2144327958993057 58:1.0 52:1.0 118:1.0 20266:1.0 1347:1.0 2662:1.0 8:1.0 90:1.0 117:1.0 224:1.0 13:1.0 11:1.0 426:1.0 
0.18197564222773485 58:1.0 220:1.0 118:1.0 20266:1.0 3564:1.0 2662:1.0 8:1.0 90:1.0 117:1.0 224:1.0 13:1.0 11:1.0 426:1.0 
0.28214054486225665 87:1.0 220:1.0 155:1.0 821:1.0 1493:1.0 1891:1.0 115:1.0 90:1.0 117:1.0 13:1.0 187:1.0 
0.17507335376598562 84:1.0 52:1.0 4:1.0 4721:1.0 696:1.0 397:1.0 176:1.0 90:1.0 117:1.0 11:1.0 224:1.0 
0.3396604396180468 450:1.0 52:1.0 4:1.0 3524:1.0 108:1.0 140:1.0 8:1.0 90:1.0 117:1.0 13:1.0 11:1.0 
0.1698537764835383 58:1.0 137:1.0 4:1.0 2454:1.0 214:1.0 887:1.0 8:1.0 90:1.0 117:1.0 11:1.0 13:1.0 
0.20652822954491706 245:1.0 110:1.0 4:1.0 13110:1.0 113:1.0 20418:1.0 176:1.0 90:1.0 117:1.0 224:1.0 
0.21668538838728157 84:1.0 220:1.0 155:1.0 20427:1.0 9368:1.0 121:1.0 115:1.0 90:1.0 117:1.0 506:1.0 13:1.0 46:1.0 
0.100270657450033 84:1.0 52:1.0 4:1.0 20433:1.0 696:1.0 2869:1.0 8:1.0 90:1.0 117:1.0 11:1.0 13:1.0 
0.1805949531595169 436:1.0 239:1.0 4:1.0 10030:1.0 2884:1.0 10029:1.0 8:1.0 90:1.0 117:1.0 13:1.0 11:1.0 71:1.0 
0.14034832001544842 245:1.0 52:1.0 4:1.0 7516:1.0 471:1.0 3519:1.0 8:1.0 90:1.0 117:1.0 11:1.0 690:1.0 13:1.0 187:1.0 
0.21352531484516646 699:1.0 52:1.0 4:1.0 1531:1.0 89:1.0 140:1.0 8:1.0 90:1.0 117:1.0 13:1.0 11:1.0 
0.1157503816997954 87:1.0 52:1.0 66:1.0 2441:1.0 586:1.0 1708:1.0 238:1.0 90:1.0 117:1.0 11:1.0 224:1.0 
0.23247758635137883 87:1.0 239:1.0 4:1.0 6816:1.0 3138:1.0 10276:1.0 8:1.0 90:1.0 117:1.0 224:1.0 13:1.0 11:1.0 
0.16671884110821808 84:1.0 14:1.0 155:1.0 13280:1.0 1126:1.0 1490:1.0 158:1.0 90:1.0 117:1.0 
0.17890913946610787 867:1.0 52:1.0 4:1.0 868:1.0 1818:1.0 7975:1.0 8:1.0 90:1.0 117:1.0 71:1.0 13:1.0 11:1.0 
0.1068546890624972 87:1.0 52:1.0 118:1.0 13124:1.0 471:1.0 2184:1.0 146:1.0 90:1.0 117:1.0 11:1.0 13:1.0 
0.3703415394619483 87:1.0 52:1.0 4:1.0 5139:1.0 493:1.0 752:1.0 8:1.0 90:1.0 117:1.0 11:1.0 71:1.0 13:1.0 224:1.0 
0.10108954423919526 58:1.0 52:1.0 118:1.0 20596:1.0 586:1.0 5498:1.0 8:1.0 90:1.0 117:1.0 11:1.0 13:1.0 
0.10483005415610866 84:1.0 52:1.0 4:1.0 11755:1.0 471:1.0 228:1.0 8:1.0 90:1.0 117:1.0 11:1.0 13:1.0 
0.09489383150786523 637:1.0 52:1.0 4:1.0 638:1.0 1958:1.0 380:1.0 335:1.0 90:1.0 117:1.0 11:1.0 71:1.0 13:1.0 
0.07568766765530113 84:1.0 239:1.0 4:1.0 11032:1.0 1934:1.0 5461:1.0 146:1.0 90:1.0 117:1.0 11:1.0 3266:1.0 71:1.0 13:1.0 
0.3126092753974193 34:1.0 220:1.0 111:1.0 1240:1.0 222:1.0 862:1.0 115:1.0 90:1.0 117:1.0 
0.2040022418410569 84:1.0 52:1.0 111:1.0 2342:1.0 493:1.0 10133:1.0 115:1.0 90:1.0 117:1.0 13:1.0 224:1.0 
0.16911970914263308 84:1.0 17:1.0 4:1.0 3314:1.0 4152:1.0 223:1.0 335:1.0 90:1.0 117:1.0 11:1.0 71:1.0 13:1.0 224:1.0 
0.16220018649514834 84:1.0 52:1.0 4:1.0 3314:1.0 586:1.0 223:1.0 335:1.0 90:1.0 117:1.0 11:1.0 71:1.0 13:1.0 224:1.0 
0.11965464630296874 58:1.0 52:1.0 118:1.0 20783:1.0 471:1.0 20782:1.0 335:1.0 90:1.0 117:1.0 11:1.0 
0.21333886821471426 87:1.0 52:1.0 4:1.0 4021:1.0 199:1.0 1678:1.0 8:1.0 90:1.0 117:1.0 11:1.0 224:1.0 13:1.0 
0.1945328368579792 84:1.0 220:1.0 4:1.0 20800:1.0 743:1.0 550:1.0 8:1.0 90:1.0 117:1.0 426:1.0 13:1.0 71:1.0 11:1.0 
0.08705260592790805 87:1.0 239:1.0 118:1.0 1591:1.0 10637:1.0 786:1.0 8:1.0 90:1.0 117:1.0 11:1.0 13:1.0 
0.23182731887705868 376:1.0 239:1.0 118:1.0 339:1.0 2304:1.0 592:1.0 8:1.0 90:1.0 117:1.0 13:1.0 11:1.0 
0.27063880241514154 87:1.0 220:1.0 118:1.0 20839:1.0 743:1.0 11204:1.0 8:1.0 90:1.0 117:1.0 11:1.0 224:1.0 13:1.0 187:1.0 
0.21011389158475308 450:1.0 220:1.0 118:1.0 20851:1.0 108:1.0 669:1.0 8:1.0 90:1.0 117:1.0 13:1.0 11:1.0 46:1.0 
0.08019308485173025 58:1.0 52:1.0 4:1.0 3606:1.0 493:1.0 20897:1.0 8:1.0 90:1.0 117:1.0 11:1.0 46:1.0 13:1.0 
0.07384418635945333 87:1.0 52:1.0 4:1.0 1690:1.0 696:1.0 17051:1.0 8:1.0 90:1.0 117:1.0 71:1.0 13:1.0 11:1.0 635:1.0 
0.39310846522006637 84:1.0 220:1.0 4:1.0 3065:1.0 2195:1.0 3823:1.0 176:1.0 90:1.0 117:1.0 197:1.0 
0.16810191159202165 84:1.0 239:1.0 4:1.0 3065:1.0 459:1.0 7270:1.0 8:1.0 90:1.0 117:1.0 11:1.0 13:1.0 
0.126841548576765 84:1.0 110:1.0 118:1.0 10690:1.0 113:1.0 20910:1.0 238:1.0 90:1.0 117:1.0 11:1.0 
0.1271509470188027 142:1.0 52:1.0 111:1.0 600:1.0 89:1.0 4306:1.0 115:1.0 90:1.0 117:1.0 
0.2353928816654783 84:1.0 52:1.0 4:1.0 3062:1.0 493:1.0 752:1.0 98:1.0 90:1.0 117:1.0 71:1.0 11:1.0 
0.11510365683976408 87:1.0 52:1.0 4:1.0 5985:1.0 342:1.0 14798:1.0 238:1.0 90:1.0 117:1.0 11:1.0 71:1.0 
0.2269903848325522 34:1.0 220:1.0 66:1.0 1114:1.0 345:1.0 3554:1.0 146:1.0 90:1.0 117:1.0 11:1.0 147:1.0 187:1.0 
0.13171795961190494 84:1.0 52:1.0 155:1.0 8324:1.0 89:1.0 8452:1.0 254:1.0 90:1.0 117:1.0 71:1.0 
0.14477418305822734 87:1.0 52:1.0 66:1.0 21008:1.0 696:1.0 2307:1.0 98:1.0 90:1.0 117:1.0 71:1.0 11:1.0 13:1.0 187:1.0 
0.17578587921581132 87:1.0 52:1.0 66:1.0 12037:1.0 493:1.0 7542:1.0 98:1.0 90:1.0 117:1.0 71:1.0 11:1.0 
0.11198067525319984 84:1.0 110:1.0 4:1.0 3203:1.0 113:1.0 114:1.0 8:1.0 90:1.0 117:1.0 11:1.0 
0.25770321498820203 437:1.0 220:1.0 118:1.0 1369:1.0 403:1.0 608:1.0 103:1.0 90:1.0 117:1.0 11:1.0 
0.20270973763442904 2:1.0 239:1.0 155:1.0 307:1.0 1076:1.0 4441:1.0 115:1.0 90:1.0 117:1.0 13:1.0 
0.11281211643088326 87:1.0 52:1.0 155:1.0 753:1.0 585:1.0 16876:1.0 158:1.0 90:1.0 117:1.0 
0.07326483600766368 58:1.0 239:1.0 111:1.0 7757:1.0 788:1.0 6529:1.0 115:1.0 90:1.0 117:1.0 690:1.0 13:1.0 506:1.0 187:1.0 
0.24441167303254227 58:1.0 52:1.0 4:1.0 7730:1.0 89:1.0 5206:1.0 8:1.0 90:1.0 117:1.0 224:1.0 13:1.0 11:1.0 
0.12912165642506787 84:1.0 52:1.0 66:1.0 5413:1.0 89:1.0 223:1.0 455:1.0 90:1.0 117:1.0 11:1.0 
0.10679958572151808 22:1.0 52:1.0 4:1.0 3057:1.0 696:1.0 893:1.0 8:1.0 90:1.0 117:1.0 224:1.0 13:1.0 11:1.0 
0.14367829754408118 87:1.0 14:1.0 4:1.0 11464:1.0 21232:1.0 7295:1.0 8:1.0 90:1.0 117:1.0 224:1.0 13:1.0 11:1.0 71:1.0 
0.0948766697196073 87:1.0 17:1.0 4:1.0 11152:1.0 4152:1.0 2300:1.0 8:1.0 90:1.0 117:1.0 11:1.0 71:1.0 13:1.0 
0.1678649909036488 87:1.0 52:1.0 4:1.0 5479:1.0 586:1.0 5478:1.0 8:1.0 90:1.0 117:1.0 11:1.0 13:1.0 224:1.0 
0.22615707902005355 84:1.0 52:1.0 66:1.0 3251:1.0 342:1.0 7295:1.0 176:1.0 90:1.0 117:1.0 11:1.0 71:1.0 
0.2260721493773934 87:1.0 220:1.0 4:1.0 1777:1.0 21312:1.0 2322:1.0 335:1.0 90:1.0 117:1.0 11:1.0 224:1.0 
0.13879006583524964 87:1.0 52:1.0 4:1.0 1777:1.0 89:1.0 2322:1.0 335:1.0 90:1.0 117:1.0 11:1.0 224:1.0 
0.25886384042133814 84:1.0 110:1.0 243:1.0 3009:1.0 113:1.0 12828:1.0 115:1.0 90:1.0 117:1.0 71:1.0 
0.1025580883314578 84:1.0 52:1.0 66:1.0 2487:1.0 471:1.0 228:1.0 238:1.0 90:1.0 117:1.0 11:1.0 224:1.0 
0.14157872594755 84:1.0 52:1.0 66:1.0 2487:1.0 493:1.0 228:1.0 238:1.0 90:1.0 117:1.0 11:1.0 224:1.0 
0.278595416745531 87:1.0 220:1.0 155:1.0 1777:1.0 21312:1.0 2322:1.0 115:1.0 90:1.0 117:1.0 224:1.0 
0.14565406913495815 142:1.0 52:1.0 4:1.0 143:1.0 586:1.0 1286:1.0 176:1.0 90:1.0 117:1.0 426:1.0 
0.08733981833236823 58:1.0 239:1.0 111:1.0 21348:1.0 2157:1.0 3823:1.0 115:1.0 90:1.0 117:1.0 506:1.0 224:1.0 13:1.0 
0.10693753366921457 87:1.0 52:1.0 66:1.0 3078:1.0 54:1.0 3283:1.0 8:1.0 90:1.0 117:1.0 11:1.0 13:1.0 
0.30674846760370306 87:1.0 220:1.0 155:1.0 4923:1.0 3556:1.0 11116:1.0 158:1.0 90:1.0 117:1.0 
0.13526610020573654 87:1.0 52:1.0 155:1.0 5937:1.0 54:1.0 669:1.0 158:1.0 90:1.0 117:1.0 71:1.0 224:1.0 
0.4464285714285714 84:1.0 220:1.0 155:1.0 240:1.0 743:1.0 11858:1.0 158:1.0 90:1.0 117:1.0 
0.17203626555635584 84:1.0 52:1.0 118:1.0 3346:1.0 493:1.0 16580:1.0 8:1.0 90:1.0 117:1.0 11:1.0 13:1.0 224:1.0 
0.40051558866452436 436:1.0 220:1.0 66:1.0 2951:1.0 1153:1.0 140:1.0 8:1.0 90:1.0 117:1.0 11:1.0 13:1.0 
0.09314993599247161 87:1.0 52:1.0 118:1.0 3799:1.0 493:1.0 397:1.0 8:1.0 90:1.0 117:1.0 11:1.0 13:1.0 
0.21145648928323307 84:1.0 328:1.0 118:1.0 3240:1.0 2348:1.0 3823:1.0 98:1.0 90:1.0 117:1.0 71:1.0 11:1.0 
0.1710865203367083 87:1.0 52:1.0 66:1.0 21437:1.0 108:1.0 4858:1.0 146:1.0 90:1.0 117:1.0 71:1.0 13:1.0 11:1.0 
0.12132100614361598 87:1.0 52:1.0 4:1.0 4829:1.0 89:1.0 11116:1.0 455:1.0 90:1.0 117:1.0 11:1.0 
0.12164490316651415 637:1.0 220:1.0 155:1.0 638:1.0 2195:1.0 12683:1.0 158:1.0 90:1.0 117:1.0 690:1.0 224:1.0 13:1.0 
0.24630541958705107 87:1.0 220:1.0 155:1.0 21498:1.0 1050:1.0 68:1.0 158:1.0 90:1.0 117:1.0 13:1.0 71:1.0 
0.0958503860246751 87:1.0 239:1.0 4:1.0 17108:1.0 571:1.0 2707:1.0 8:1.0 90:1.0 117:1.0 11:1.0 13:1.0 
0.2722687145783521 637:1.0 110:1.0 118:1.0 638:1.0 113:1.0 2322:1.0 8:1.0 90:1.0 117:1.0 11:1.0 224:1.0 
0.22775978140089997 637:1.0 52:1.0 118:1.0 638:1.0 199:1.0 2322:1.0 8:1.0 90:1.0 117:1.0 11:1.0 224:1.0 13:1.0 
0.12351427294566114 87:1.0 17:1.0 155:1.0 21532:1.0 4787:1.0 2284:1.0 158:1.0 90:1.0 117:1.0 71:1.0 
0.1198039504149874 58:1.0 239:1.0 4:1.0 2454:1.0 7380:1.0 887:1.0 8:1.0 90:1.0 117:1.0 11:1.0 13:1.0 
0.08317224616886588 87:1.0 239:1.0 66:1.0 2944:1.0 3889:1.0 1151:1.0 455:1.0 90:1.0 117:1.0 11:1.0 224:1.0 13:1.0 187:1.0 
0.09911231058704743 87:1.0 239:1.0 66:1.0 2104:1.0 3889:1.0 1151:1.0 176:1.0 90:1.0 117:1.0 11:1.0 224:1.0 13:1.0 
0.08513275823953761 87:1.0 239:1.0 4:1.0 7331:1.0 21621:1.0 20502:1.0 8:1.0 90:1.0 117:1.0 11:1.0 224:1.0 13:1.0 
0.1829396308124292 154:1.0 52:1.0 66:1.0 359:1.0 471:1.0 9838:1.0 8:1.0 90:1.0 117:1.0 224:1.0 13:1.0 11:1.0 
0.14431967581000874 84:1.0 52:1.0 66:1.0 2179:1.0 734:1.0 15393:1.0 176:1.0 90:1.0 117:1.0 
0.9408143520136147 87:1.0 52:1.0 118:1.0 427:1.0 471:1.0 9838:1.0 8:1.0 90:1.0 117:1.0 11:1.0 13:1.0 224:1.0 187:1.0 
0.10066182541971323 306:1.0 52:1.0 4:1.0 451:1.0 4519:1.0 6282:1.0 238:1.0 90:1.0 117:1.0 11:1.0 71:1.0 
0.43336851275158156 58:1.0 52:1.0 4:1.0 3351:1.0 108:1.0 3605:1.0 8:1.0 90:1.0 117:1.0 11:1.0 13:1.0 224:1.0 506:1.0 
0.12301109108158598 437:1.0 220:1.0 66:1.0 1369:1.0 743:1.0 369:1.0 103:1.0 90:1.0 117:1.0 11:1.0 
0.22297895928153905 142:1.0 52:1.0 155:1.0 600:1.0 585:1.0 909:1.0 115:1.0 90:1.0 117:1.0 
0.20175212269652829 87:1.0 52:1.0 4:1.0 5071:1.0 586:1.0 21812:1.0 8:1.0 90:1.0 117:1.0 11:1.0 46:1.0 13:1.0 
0.09777368743578836 84:1.0 52:1.0 66:1.0 11158:1.0 471:1.0 3115:1.0 8:1.0 90:1.0 117:1.0 11:1.0 13:1.0 
0.24793272317651333 1245:1.0 52:1.0 155:1.0 6035:1.0 585:1.0 1688:1.0 115:1.0 90:1.0 117:1.0 
0.10931426941533977 84:1.0 52:1.0 4:1.0 21959:1.0 471:1.0 228:1.0 455:1.0 90:1.0 117:1.0 426:1.0 11:1.0 
0.1959780907009342 142:1.0 220:1.0 155:1.0 143:1.0 1352:1.0 68:1.0 158:1.0 90:1.0 117:1.0 
0.15480443996582055 87:1.0 52:1.0 4:1.0 7493:1.0 586:1.0 6395:1.0 8:1.0 90:1.0 117:1.0 11:1.0 224:1.0 13:1.0 
0.10537840482499604 87:1.0 52:1.0 4:1.0 5630:1.0 54:1.0 3283:1.0 8:1.0 90:1.0 117:1.0 11:1.0 13:1.0 
0.18923617887263414 87:1.0 289:1.0 4:1.0 3534:1.0 2623:1.0 228:1.0 335:1.0 90:1.0 117:1.0 11:1.0 13:1.0 
0.427273660911566 142:1.0 52:1.0 155:1.0 143:1.0 734:1.0 68:1.0 115:1.0 90:1.0 117:1.0 
0.2027205195340098 2:1.0 239:1.0 66:1.0 307:1.0 6070:1.0 962:1.0 146:1.0 90:1.0 117:1.0 13:1.0 11:1.0 
0.1172859051172514 87:1.0 52:1.0 111:1.0 194:1.0 1347:1.0 3847:1.0 115:1.0 90:1.0 117:1.0 13:1.0 
0.1460403654887104 154:1.0 52:1.0 118:1.0 14041:1.0 696:1.0 10587:1.0 8:1.0 90:1.0 117:1.0 71:1.0 13:1.0 11:1.0 46:1.0 224:1.0 
0.3162729588056845 87:1.0 52:1.0 4:1.0 3318:1.0 3559:1.0 331:1.0 8:1.0 90:1.0 117:1.0 11:1.0 71:1.0 13:1.0 
0.22781254299918283 87:1.0 137:1.0 4:1.0 7795:1.0 214:1.0 223:1.0 115:1.0 90:1.0 117:1.0 13:1.0 
0.11498853685203095 376:1.0 239:1.0 118:1.0 377:1.0 6070:1.0 140:1.0 8:1.0 90:1.0 117:1.0 11:1.0 13:1.0 
0.20705108783870543 306:1.0 52:1.0 118:1.0 8387:1.0 108:1.0 2241:1.0 589:1.0 90:1.0 117:1.0 11:1.0 
0.13470286006966736 87:1.0 52:1.0 155:1.0 1122:1.0 89:1.0 735:1.0 115:1.0 90:1.0 117:1.0 
0.30674846760370306 87:1.0 220:1.0 155:1.0 13429:1.0 1050:1.0 10452:1.0 115:1.0 90:1.0 117:1.0 
0.1336998120382975 87:1.0 52:1.0 118:1.0 12105:1.0 1347:1.0 223:1.0 335:1.0 90:1.0 117:1.0 11:1.0 
0.21466898601496062 87:1.0 52:1.0 4:1.0 4192:1.0 493:1.0 3258:1.0 8:1.0 90:1.0 117:1.0 224:1.0 13:1.0 11:1.0 
0.10954452098814318 87:1.0 239:1.0 4:1.0 5625:1.0 7062:1.0 223:1.0 8:1.0 90:1.0 117:1.0 11:1.0 71:1.0 13:1.0 
0.20287395739315325 84:1.0 239:1.0 118:1.0 7608:1.0 10881:1.0 140:1.0 8:1.0 90:1.0 117:1.0 11:1.0 147:1.0 13:1.0 
0.11883431612458945 84:1.0 52:1.0 4:1.0 17103:1.0 471:1.0 6280:1.0 146:1.0 90:1.0 117:1.0 11:1.0 
0.09855905271188277 84:1.0 52:1.0 4:1.0 5625:1.0 355:1.0 419:1.0 146:1.0 90:1.0 117:1.0 71:1.0 11:1.0 224:1.0 13:1.0 
0.07735121803613106 84:1.0 52:1.0 4:1.0 5625:1.0 493:1.0 419:1.0 146:1.0 90:1.0 117:1.0 71:1.0 11:1.0 224:1.0 13:1.0 
0.2062783832497167 84:1.0 239:1.0 4:1.0 981:1.0 3257:1.0 18052:1.0 8:1.0 90:1.0 117:1.0 11:1.0 71:1.0 13:1.0 
0.10598624932527652 87:1.0 239:1.0 4:1.0 6640:1.0 7267:1.0 592:1.0 8:1.0 90:1.0 117:1.0 11:1.0 13:1.0 147:1.0 
0.10747071193650919 58:1.0 52:1.0 118:1.0 22507:1.0 696:1.0 3104:1.0 8:1.0 90:1.0 117:1.0 11:1.0 13:1.0 
0.19996675335519498 87:1.0 52:1.0 155:1.0 10331:1.0 1347:1.0 17539:1.0 115:1.0 90:1.0 117:1.0 
0.15044985154310286 84:1.0 52:1.0 118:1.0 17085:1.0 471:1.0 7196:1.0 8:1.0 90:1.0 117:1.0 11:1.0 224:1.0 13:1.0 
0.10904670604299159 84:1.0 52:1.0 118:1.0 2994:1.0 199:1.0 7840:1.0 238:1.0 90:1.0 117:1.0 11:1.0 
0.13812538684189263 87:1.0 52:1.0 4:1.0 17191:1.0 734:1.0 3904:1.0 8:1.0 90:1.0 117:1.0 11:1.0 13:1.0 
0.2499999999441206 320:1.0 52:1.0 155:1.0 5154:1.0 734:1.0 1546:1.0 176:1.0 90:1.0 117:1.0 
0.22626066190230937 87:1.0 52:1.0 118:1.0 4059:1.0 599:1.0 4057:1.0 8:1.0 90:1.0 117:1.0 11:1.0 13:1.0 
0.16490209688729537 87:1.0 52:1.0 66:1.0 3289:1.0 586:1.0 1286:1.0 146:1.0 90:1.0 117:1.0 11:1.0 13:1.0 187:1.0 
0.2747252758049386 87:1.0 220:1.0 155:1.0 2500:1.0 1225:1.0 4911:1.0 158:1.0 90:1.0 117:1.0 13:1.0 
0.2019280446587321 84:1.0 52:1.0 118:1.0 22786:1.0 841:1.0 228:1.0 176:1.0 90:1.0 117:1.0 11:1.0 
0.2144227032009982 84:1.0 52:1.0 243:1.0 516:1.0 493:1.0 6282:1.0 115:1.0 90:1.0 117:1.0 
0.27782416128544285 87:1.0 52:1.0 4:1.0 4829:1.0 696:1.0 680:1.0 176:1.0 90:1.0 117:1.0 
0.11354704840059614 87:1.0 52:1.0 4:1.0 11544:1.0 199:1.0 369:1.0 335:1.0 90:1.0 117:1.0 11:1.0 
0.11184753721549258 87:1.0 52:1.0 66:1.0 798:1.0 199:1.0 1753:1.0 8:1.0 90:1.0 117:1.0 11:1.0 13:1.0 
0.13498020062986052 34:1.0 289:1.0 66:1.0 307:1.0 9107:1.0 397:1.0 8:1.0 90:1.0 117:1.0 11:1.0 13:1.0 
0.10316767220213945 84:1.0 110:1.0 118:1.0 21142:1.0 113:1.0 1490:1.0 8:1.0 90:1.0 117:1.0 11:1.0 
0.21021183571922608 142:1.0 686:1.0 66:1.0 600:1.0 4519:1.0 1417:1.0 238:1.0 90:1.0 117:1.0 11:1.0 
0.07654753129933803 87:1.0 52:1.0 4:1.0 3597:1.0 471:1.0 228:1.0 8:1.0 90:1.0 117:1.0 13:1.0 11:1.0 46:1.0 224:1.0 
0.07358729799344661 87:1.0 239:1.0 4:1.0 3597:1.0 590:1.0 228:1.0 8:1.0 90:1.0 117:1.0 71:1.0 13:1.0 11:1.0 224:1.0 46:1.0 
0.22110031239231664 87:1.0 52:1.0 4:1.0 427:1.0 493:1.0 6282:1.0 8:1.0 90:1.0 117:1.0 71:1.0 13:1.0 11:1.0 
0.18171382166311842 87:1.0 14:1.0 66:1.0 516:1.0 8731:1.0 397:1.0 146:1.0 90:1.0 117:1.0 11:1.0 224:1.0 13:1.0 
0.09959963437549263 87:1.0 239:1.0 4:1.0 2454:1.0 1931:1.0 19540:1.0 8:1.0 90:1.0 117:1.0 11:1.0 13:1.0 
0.2625141248440037 87:1.0 52:1.0 155:1.0 3485:1.0 3559:1.0 223:1.0 115:1.0 90:1.0 117:1.0 13:1.0 
0.12557691399731333 245:1.0 52:1.0 111:1.0 246:1.0 586:1.0 5298:1.0 115:1.0 90:1.0 117:1.0 635:1.0 
0.2761011756383464 84:1.0 52:1.0 4:1.0 3314:1.0 54:1.0 3813:1.0 8:1.0 90:1.0 117:1.0 11:1.0 
0.11035707404986105 87:1.0 52:1.0 66:1.0 10940:1.0 493:1.0 752:1.0 8:1.0 90:1.0 117:1.0 11:1.0 506:1.0 13:1.0 
0.16937883201860576 87:1.0 52:1.0 66:1.0 18882:1.0 493:1.0 752:1.0 8:1.0 90:1.0 117:1.0 11:1.0 224:1.0 13:1.0 
0.193704343316014 84:1.0 52:1.0 4:1.0 153:1.0 54:1.0 1508:1.0 8:1.0 90:1.0 117:1.0 11:1.0 13:1.0 
0.13832145437713061 87:1.0 52:1.0 118:1.0 427:1.0 1347:1.0 6282:1.0 335:1.0 90:1.0 117:1.0 11:1.0 
0.1262291671595282 87:1.0 52:1.0 4:1.0 10679:1.0 493:1.0 6471:1.0 146:1.0 90:1.0 117:1.0 11:1.0 
0.12431787653222608 84:1.0 52:1.0 118:1.0 2985:1.0 493:1.0 2971:1.0 8:1.0 90:1.0 117:1.0 11:1.0 13:1.0 
0.09994793741578721 87:1.0 239:1.0 4:1.0 3642:1.0 571:1.0 23309:1.0 176:1.0 90:1.0 117:1.0 11:1.0 46:1.0 13:1.0 
0.11014118679092029 245:1.0 52:1.0 4:1.0 17164:1.0 586:1.0 23313:1.0 8:1.0 90:1.0 117:1.0 426:1.0 11:1.0 506:1.0 71:1.0 
0.1764992332554007 278:1.0 17:1.0 111:1.0 9389:1.0 11259:1.0 3554:1.0 115:1.0 90:1.0 117:1.0 147:1.0 13:1.0 
0.24929716981206015 84:1.0 52:1.0 118:1.0 7361:1.0 696:1.0 2971:1.0 8:1.0 90:1.0 117:1.0 224:1.0 13:1.0 11:1.0 
0.2979883659850638 2:1.0 52:1.0 4:1.0 307:1.0 3559:1.0 140:1.0 8:1.0 90:1.0 117:1.0 11:1.0 13:1.0 
0.21899037996886983 142:1.0 289:1.0 111:1.0 143:1.0 9107:1.0 9793:1.0 115:1.0 90:1.0 117:1.0 
0.10778954101403722 87:1.0 52:1.0 4:1.0 23350:1.0 586:1.0 845:1.0 8:1.0 90:1.0 117:1.0 11:1.0 13:1.0 
0.1037437066900507 84:1.0 239:1.0 4:1.0 3453:1.0 2255:1.0 923:1.0 8:1.0 90:1.0 117:1.0 11:1.0 13:1.0 
0.1400152296822676 34:1.0 52:1.0 155:1.0 1960:1.0 493:1.0 752:1.0 158:1.0 90:1.0 117:1.0 
0.20424880306246015 87:1.0 52:1.0 4:1.0 16188:1.0 586:1.0 10176:1.0 8:1.0 90:1.0 117:1.0 224:1.0 13:1.0 11:1.0 71:1.0 
0.10780863668031779 87:1.0 52:1.0 4:1.0 4034:1.0 89:1.0 223:1.0 146:1.0 90:1.0 117:1.0 11:1.0 71:1.0 
0.08443045104874472 87:1.0 52:1.0 4:1.0 9318:1.0 586:1.0 680:1.0 8:1.0 90:1.0 117:1.0 71:1.0 13:1.0 11:1.0 224:1.0 
0.19256206071195878 87:1.0 52:1.0 243:1.0 2368:1.0 696:1.0 2054:1.0 28:1.0 90:1.0 117:1.0 
0.09304157739314932 87:1.0 239:1.0 4:1.0 8846:1.0 421:1.0 4030:1.0 8:1.0 90:1.0 117:1.0 11:1.0 13:1.0 
0.18962956471937942 87:1.0 52:1.0 118:1.0 3292:1.0 493:1.0 145:1.0 8:1.0 90:1.0 117:1.0 11:1.0 71:1.0 13:1.0 
0.11335151104322287 154:1.0 110:1.0 66:1.0 749:1.0 113:1.0 114:1.0 8:1.0 90:1.0 117:1.0 426:1.0 11:1.0 
0.11822912749411378 87:1.0 52:1.0 4:1.0 5374:1.0 471:1.0 2259:1.0 8:1.0 90:1.0 117:1.0 11:1.0 197:1.0 13:1.0 
0.18382352989514997 87:1.0 52:1.0 66:1.0 9666:1.0 199:1.0 752:1.0 238:1.0 90:1.0 117:1.0 11:1.0 187:1.0 
0.17869022013560956 297:1.0 239:1.0 4:1.0 661:1.0 6070:1.0 140:1.0 8:1.0 90:1.0 117:1.0 11:1.0 13:1.0 
0.19294144425437512 87:1.0 220:1.0 155:1.0 2124:1.0 2195:1.0 694:1.0 158:1.0 90:1.0 117:1.0 71:1.0 13:1.0 
0.17577630951383272 84:1.0 52:1.0 118:1.0 23577:1.0 493:1.0 1770:1.0 8:1.0 90:1.0 117:1.0 11:1.0 13:1.0 
0.5208333353454502 87:1.0 220:1.0 243:1.0 221:1.0 4927:1.0 2322:1.0 28:1.0 90:1.0 117:1.0 
0.32104137574603797 84:1.0 220:1.0 4:1.0 246:1.0 2195:1.0 1490:1.0 8:1.0 90:1.0 117:1.0 11:1.0 13:1.0 
0.23724815626135143 34:1.0 220:1.0 155:1.0 528:1.0 1153:1.0 10830:1.0 158:1.0 90:1.0 117:1.0 13:1.0 224:1.0 
0.21459227401936326 297:1.0 239:1.0 4:1.0 7529:1.0 6070:1.0 140:1.0 8:1.0 90:1.0 117:1.0 13:1.0 11:1.0 
0.10922334972751788 58:1.0 52:1.0 4:1.0 12228:1.0 89:1.0 1111:1.0 8:1.0 90:1.0 117:1.0 224:1.0 13:1.0 
0.16161380151880128 87:1.0 52:1.0 4:1.0 3318:1.0 493:1.0 3688:1.0 8:1.0 90:1.0 117:1.0 11:1.0 71:1.0 13:1.0 
0.08154954330135264 58:1.0 239:1.0 4:1.0 1488:1.0 11533:1.0 165:1.0 8:1.0 90:1.0 117:1.0 11:1.0 224:1.0 13:1.0 
0.20947340287644872 306:1.0 52:1.0 111:1.0 307:1.0 199:1.0 1151:1.0 115:1.0 90:1.0 117:1.0 
500.0 84:1.0 52:1.0 118:1.0 2959:1.0 493:1.0 1286:1.0 8:1.0 90:1.0 117:1.0 11:1.0 13:1.0 224:1.0 
0.23188265059394184 637:1.0 110:1.0 111:1.0 638:1.0 113:1.0 165:1.0 115:1.0 90:1.0 117:1.0 46:1.0 
0.13160258151698298 84:1.0 52:1.0 4:1.0 793:1.0 199:1.0 6282:1.0 8:1.0 90:1.0 117:1.0 224:1.0 13:1.0 11:1.0 635:1.0 
0.20959326221074218 87:1.0 52:1.0 66:1.0 10770:1.0 586:1.0 4474:1.0 238:1.0 90:1.0 117:1.0 11:1.0 
0.12251637596753613 87:1.0 52:1.0 4:1.0 3810:1.0 586:1.0 4319:1.0 8:1.0 90:1.0 117:1.0 11:1.0 13:1.0 
0.07568688942759785 84:1.0 239:1.0 4:1.0 23907:1.0 22403:1.0 1490:1.0 8:1.0 90:1.0 117:1.0 11:1.0 147:1.0 13:1.0 187:1.0 
0.13416466123876317 87:1.0 52:1.0 118:1.0 4505:1.0 199:1.0 1753:1.0 335:1.0 90:1.0 117:1.0 11:1.0 
0.2065491772577627 87:1.0 52:1.0 118:1.0 6063:1.0 599:1.0 550:1.0 238:1.0 90:1.0 117:1.0 11:1.0 3266:1.0 
0.16124179751081388 437:1.0 52:1.0 111:1.0 1369:1.0 493:1.0 7728:1.0 115:1.0 90:1.0 117:1.0 
0.35829347270786793 87:1.0 220:1.0 66:1.0 9224:1.0 1225:1.0 5437:1.0 8:1.0 90:1.0 117:1.0 11:1.0 13:1.0 
0.13695574870275123 87:1.0 52:1.0 4:1.0 5537:1.0 199:1.0 767:1.0 176:1.0 90:1.0 117:1.0 
0.19242427897551637 637:1.0 52:1.0 4:1.0 638:1.0 493:1.0 887:1.0 8:1.0 90:1.0 117:1.0 11:1.0 13:1.0 187:1.0 
500.0 376:1.0 52:1.0 4:1.0 377:1.0 89:1.0 140:1.0 8:1.0 90:1.0 117:1.0 13:1.0 11:1.0 
0.11499924089931696 87:1.0 52:1.0 4:1.0 5625:1.0 586:1.0 68:1.0 98:1.0 90:1.0 117:1.0 426:1.0 11:1.0 187:1.0 
0.16205164867937544 87:1.0 52:1.0 243:1.0 5310:1.0 54:1.0 380:1.0 446:1.0 90:1.0 117:1.0 
0.10680986188956798 84:1.0 52:1.0 155:1.0 3590:1.0 585:1.0 369:1.0 146:1.0 90:1.0 117:1.0 11:1.0 13:1.0 224:1.0 
0.1513666935161523 87:1.0 52:1.0 243:1.0 628:1.0 586:1.0 5059:1.0 115:1.0 90:1.0 117:1.0 
0.1399743361990908 87:1.0 52:1.0 243:1.0 5199:1.0 493:1.0 2845:1.0 115:1.0 90:1.0 117:1.0 224:1.0 
0.2357278872649429 87:1.0 220:1.0 155:1.0 5406:1.0 668:1.0 3904:1.0 115:1.0 90:1.0 117:1.0 506:1.0 
0.2033949167014739 84:1.0 273:1.0 155:1.0 1663:1.0 611:1.0 612:1.0 158:1.0 90:1.0 117:1.0 13:1.0 
0.20164291741516466 142:1.0 110:1.0 111:1.0 5957:1.0 113:1.0 15244:1.0 115:1.0 90:1.0 117:1.0 3266:1.0 
0.17131674101458108 87:1.0 239:1.0 243:1.0 1663:1.0 1870:1.0 24275:1.0 176:1.0 90:1.0 117:1.0 
0.22594502670930613 84:1.0 52:1.0 118:1.0 18996:1.0 89:1.0 3115:1.0 8:1.0 90:1.0 117:1.0 11:1.0 13:1.0 
0.09776379661574425 58:1.0 52:1.0 118:1.0 21531:1.0 493:1.0 7854:1.0 8:1.0 90:1.0 117:1.0 11:1.0 13:1.0 187:1.0 
0.10868701653398247 58:1.0 239:1.0 4:1.0 8557:1.0 3450:1.0 669:1.0 8:1.0 90:1.0 117:1.0 11:1.0 506:1.0 13:1.0 
0.15785669971403524 87:1.0 52:1.0 66:1.0 5523:1.0 493:1.0 223:1.0 8:1.0 90:1.0 117:1.0 426:1.0 11:1.0 13:1.0 635:1.0 
0.14967116883403614 87:1.0 52:1.0 66:1.0 1086:1.0 586:1.0 16278:1.0 8:1.0 90:1.0 117:1.0 11:1.0 13:1.0 
0.09829391478710027 87:1.0 52:1.0 4:1.0 3608:1.0 734:1.0 24369:1.0 238:1.0 90:1.0 117:1.0 11:1.0 13:1.0 
0.13462733732337442 87:1.0 52:1.0 243:1.0 5233:1.0 586:1.0 5348:1.0 115:1.0 90:1.0 117:1.0 13:1.0 
0.16600329725365978 87:1.0 52:1.0 4:1.0 13448:1.0 199:1.0 1125:1.0 8:1.0 90:1.0 117:1.0 11:1.0 13:1.0 
0.17258013549124457 84:1.0 17:1.0 4:1.0 753:1.0 4152:1.0 3793:1.0 8:1.0 90:1.0 117:1.0 11:1.0 13:1.0 
0.1655776924773376 87:1.0 220:1.0 155:1.0 2124:1.0 2195:1.0 3793:1.0 115:1.0 90:1.0 117:1.0 13:1.0 
0.09058622265802281 87:1.0 52:1.0 4:1.0 5139:1.0 493:1.0 165:1.0 8:1.0 90:1.0 117:1.0 71:1.0 13:1.0 11:1.0 1412:1.0 
0.10792569898910119 22:1.0 52:1.0 4:1.0 24161:1.0 54:1.0 2105:1.0 8:1.0 90:1.0 117:1.0 13:1.0 635:1.0 
0.11205500059345515 87:1.0 239:1.0 4:1.0 9318:1.0 1676:1.0 680:1.0 146:1.0 90:1.0 117:1.0 11:1.0 13:1.0 
0.20449998808440506 84:1.0 52:1.0 118:1.0 322:1.0 493:1.0 4392:1.0 238:1.0 90:1.0 117:1.0 11:1.0 
0.11586892378872196 58:1.0 239:1.0 4:1.0 24585:1.0 421:1.0 6733:1.0 8:1.0 90:1.0 117:1.0 11:1.0 70:1.0 13:1.0 
0.2076221933111505 87:1.0 239:1.0 4:1.0 3869:1.0 920:1.0 1099:1.0 8:1.0 90:1.0 117:1.0 11:1.0 13:1.0 
0.13021567001049156 84:1.0 52:1.0 118:1.0 3240:1.0 493:1.0 12271:1.0 238:1.0 90:1.0 117:1.0 11:1.0 
0.24736353598692937 87:1.0 52:1.0 4:1.0 8665:1.0 89:1.0 14862:1.0 8:1.0 90:1.0 117:1.0 224:1.0 13:1.0 11:1.0 187:1.0 
0.2495683143902834 84:1.0 220:1.0 4:1.0 2900:1.0 1225:1.0 223:1.0 8:1.0 90:1.0 117:1.0 11:1.0 13:1.0 
0.1738267528021757 84:1.0 73:1.0 4:1.0 9837:1.0 1299:1.0 6768:1.0 8:1.0 90:1.0 117:1.0 11:1.0 13:1.0 635:1.0 
0.08301399247177238 84:1.0 52:1.0 4:1.0 6941:1.0 2195:1.0 3793:1.0 335:1.0 90:1.0 117:1.0 71:1.0 11:1.0 13:1.0 
0.15683748833465294 87:1.0 52:1.0 118:1.0 21469:1.0 471:1.0 2880:1.0 8:1.0 90:1.0 117:1.0 11:1.0 13:1.0 224:1.0 635:1.0 
0.09110298473204839 87:1.0 52:1.0 4:1.0 22593:1.0 696:1.0 121:1.0 8:1.0 90:1.0 117:1.0 11:1.0 224:1.0 13:1.0 
0.09951254781796061 87:1.0 52:1.0 66:1.0 246:1.0 599:1.0 648:1.0 146:1.0 90:1.0 117:1.0 11:1.0 13:1.0 
0.23682186120965099 87:1.0 220:1.0 155:1.0 458:1.0 2484:1.0 11186:1.0 158:1.0 90:1.0 117:1.0 506:1.0 
0.20014401262405132 34:1.0 220:1.0 155:1.0 868:1.0 10969:1.0 1770:1.0 115:1.0 90:1.0 117:1.0 
0.19795398121552532 84:1.0 289:1.0 243:1.0 19080:1.0 5333:1.0 13141:1.0 115:1.0 90:1.0 117:1.0 187:1.0 
0.3178667745485722 84:1.0 220:1.0 155:1.0 3240:1.0 4488:1.0 2322:1.0 158:1.0 90:1.0 117:1.0 690:1.0 
0.15301176946901573 87:1.0 52:1.0 118:1.0 13891:1.0 493:1.0 165:1.0 238:1.0 90:1.0 117:1.0 11:1.0 
0.5878548441953062 436:1.0 52:1.0 118:1.0 377:1.0 586:1.0 140:1.0 8:1.0 90:1.0 117:1.0 11:1.0 13:1.0 
0.11516227397439352 87:1.0 52:1.0 118:1.0 349:1.0 89:1.0 18486:1.0 335:1.0 90:1.0 117:1.0 11:1.0 
0.1047032750063317 34:1.0 239:1.0 4:1.0 480:1.0 3877:1.0 165:1.0 176:1.0 90:1.0 117:1.0 71:1.0 13:1.0 187:1.0 
0.24476380949547796 84:1.0 52:1.0 66:1.0 3590:1.0 471:1.0 561:1.0 335:1.0 90:1.0 117:1.0 11:1.0 
0.1980258781688102 84:1.0 52:1.0 66:1.0 3590:1.0 586:1.0 1693:1.0 8:1.0 90:1.0 117:1.0 224:1.0 13:1.0 11:1.0 
0.22590464335174112 450:1.0 239:1.0 118:1.0 9008:1.0 15463:1.0 140:1.0 8:1.0 90:1.0 117:1.0 13:1.0 11:1.0 
0.2154926341040694 109:1.0 52:1.0 66:1.0 749:1.0 493:1.0 3104:1.0 335:1.0 90:1.0 117:1.0 11:1.0 
0.24270372585011107 87:1.0 110:1.0 243:1.0 2426:1.0 113:1.0 2306:1.0 446:1.0 90:1.0 117:1.0 
0.19060960726950685 87:1.0 110:1.0 118:1.0 2426:1.0 113:1.0 3361:1.0 455:1.0 90:1.0 117:1.0 224:1.0 11:1.0 506:1.0 
0.1161004674909133 87:1.0 239:1.0 155:1.0 5625:1.0 3205:1.0 3688:1.0 158:1.0 90:1.0 117:1.0 13:1.0 
0.22846515493798697 84:1.0 52:1.0 4:1.0 18417:1.0 493:1.0 25130:1.0 146:1.0 90:1.0 117:1.0 224:1.0 13:1.0 11:1.0 506:1.0 
0.25691494733449527 87:1.0 52:1.0 118:1.0 2320:1.0 586:1.0 5680:1.0 8:1.0 90:1.0 117:1.0 224:1.0 13:1.0 11:1.0 
0.13759977056564557 245:1.0 52:1.0 4:1.0 25195:1.0 586:1.0 9886:1.0 8:1.0 90:1.0 117:1.0 11:1.0 46:1.0 13:1.0 
0.0922384957410142 84:1.0 239:1.0 4:1.0 1690:1.0 12888:1.0 8996:1.0 335:1.0 90:1.0 117:1.0 11:1.0 13:1.0 
0.13924747000449497 84:1.0 52:1.0 66:1.0 2208:1.0 199:1.0 752:1.0 98:1.0 90:1.0 117:1.0 71:1.0 11:1.0 187:1.0 
0.10031770524360294 87:1.0 52:1.0 4:1.0 25298:1.0 734:1.0 759:1.0 146:1.0 90:1.0 117:1.0 11:1.0 13:1.0 224:1.0 
0.4369495587144923 84:1.0 52:1.0 118:1.0 2314:1.0 586:1.0 5212:1.0 8:1.0 90:1.0 117:1.0 224:1.0 13:1.0 11:1.0 
0.09211748105440916 87:1.0 52:1.0 4:1.0 15249:1.0 695:1.0 3454:1.0 238:1.0 90:1.0 117:1.0 46:1.0 11:1.0 187:1.0 
0.43053110797124267 84:1.0 220:1.0 155:1.0 3868:1.0 5330:1.0 5314:1.0 115:1.0 90:1.0 117:1.0 
0.11026937276979719 87:1.0 110:1.0 118:1.0 3363:1.0 113:1.0 2306:1.0 238:1.0 90:1.0 117:1.0 11:1.0 
0.18258883989282723 142:1.0 52:1.0 243:1.0 143:1.0 734:1.0 5852:1.0 455:1.0 90:1.0 117:1.0 224:1.0 690:1.0 
0.250091677950655 87:1.0 52:1.0 118:1.0 812:1.0 3092:1.0 4592:1.0 238:1.0 90:1.0 117:1.0 11:1.0 
0.2577319587628864 87:1.0 52:1.0 4:1.0 107:1.0 89:1.0 121:1.0 335:1.0 90:1.0 117:1.0 11:1.0 
0.19468296342581096 637:1.0 220:1.0 4:1.0 638:1.0 3325:1.0 452:1.0 8:1.0 90:1.0 117:1.0 11:1.0 71:1.0 13:1.0 
0.09081978978744992 306:1.0 220:1.0 118:1.0 451:1.0 3272:1.0 1286:1.0 238:1.0 90:1.0 117:1.0 11:1.0 147:1.0 
0.30674846760370306 87:1.0 220:1.0 155:1.0 5406:1.0 1050:1.0 5680:1.0 115:1.0 90:1.0 117:1.0 
0.21681029996835538 87:1.0 52:1.0 66:1.0 3820:1.0 1958:1.0 7263:1.0 8:1.0 90:1.0 117:1.0 11:1.0 224:1.0 13:1.0 
0.30476245903061844 142:1.0 52:1.0 155:1.0 1297:1.0 982:1.0 5212:1.0 455:1.0 90:1.0 117:1.0 224:1.0 
0.4371182273600412 87:1.0 220:1.0 243:1.0 2696:1.0 743:1.0 2322:1.0 455:1.0 90:1.0 117:1.0 187:1.0 
0.30674846760370306 87:1.0 220:1.0 155:1.0 24853:1.0 1225:1.0 20601:1.0 158:1.0 90:1.0 117:1.0 
0.15063939547004807 142:1.0 220:1.0 155:1.0 143:1.0 2868:1.0 68:1.0 158:1.0 90:1.0 117:1.0 13:1.0 224:1.0 
0.08862973319993991 87:1.0 239:1.0 66:1.0 25662:1.0 25661:1.0 8014:1.0 8:1.0 90:1.0 117:1.0 426:1.0 11:1.0 224:1.0 13:1.0 
0.12919541216503239 34:1.0 52:1.0 243:1.0 1114:1.0 89:1.0 25664:1.0 589:1.0 90:1.0 117:1.0 635:1.0 
0.16862118364267997 142:1.0 220:1.0 66:1.0 600:1.0 1812:1.0 68:1.0 455:1.0 90:1.0 117:1.0 224:1.0 11:1.0 506:1.0 
0.07849167239056673 87:1.0 52:1.0 4:1.0 2673:1.0 471:1.0 4439:1.0 238:1.0 90:1.0 117:1.0 46:1.0 13:1.0 506:1.0 11:1.0 
0.23519875266135484 22:1.0 239:1.0 4:1.0 7099:1.0 1020:1.0 9057:1.0 176:1.0 90:1.0 117:1.0 
0.14110350659672852 84:1.0 52:1.0 4:1.0 25729:1.0 471:1.0 223:1.0 176:1.0 90:1.0 117:1.0 
0.2855397936311851 142:1.0 52:1.0 155:1.0 1102:1.0 108:1.0 597:1.0 158:1.0 90:1.0 117:1.0 
0.15054055388451254 142:1.0 239:1.0 4:1.0 1102:1.0 571:1.0 371:1.0 98:1.0 90:1.0 117:1.0 11:1.0 13:1.0 
0.2076060323781989 87:1.0 52:1.0 118:1.0 15180:1.0 586:1.0 6323:1.0 238:1.0 90:1.0 117:1.0 11:1.0 
0.25758344008937145 84:1.0 48:1.0 66:1.0 3147:1.0 50:1.0 752:1.0 238:1.0 90:1.0 117:1.0 11:1.0 
0.20128867105452958 87:1.0 52:1.0 66:1.0 9144:1.0 108:1.0 68:1.0 8:1.0 90:1.0 117:1.0 11:1.0 635:1.0 13:1.0 
0.16260276715395858 87:1.0 110:1.0 118:1.0 1601:1.0 113:1.0 648:1.0 335:1.0 90:1.0 117:1.0 11:1.0 
0.09956562866988888 84:1.0 52:1.0 118:1.0 7636:1.0 493:1.0 2284:1.0 455:1.0 90:1.0 117:1.0 13:1.0 187:1.0 
0.12697953336296272 637:1.0 52:1.0 4:1.0 638:1.0 493:1.0 380:1.0 238:1.0 90:1.0 117:1.0 11:1.0 
0.16513378464662848 109:1.0 52:1.0 4:1.0 359:1.0 108:1.0 228:1.0 8:1.0 90:1.0 117:1.0 426:1.0 224:1.0 13:1.0 11:1.0 187:1.0 
0.15116071990583324 637:1.0 239:1.0 111:1.0 638:1.0 785:1.0 9838:1.0 115:1.0 90:1.0 117:1.0 
0.08630514327263822 84:1.0 52:1.0 118:1.0 6210:1.0 199:1.0 15490:1.0 8:1.0 90:1.0 117:1.0 11:1.0 187:1.0 13:1.0 
0.08867324214962448 84:1.0 239:1.0 66:1.0 6843:1.0 908:1.0 8996:1.0 8:1.0 90:1.0 117:1.0 11:1.0 13:1.0 
0.16593475600804775 87:1.0 52:1.0 4:1.0 2453:1.0 199:1.0 1869:1.0 8:1.0 90:1.0 117:1.0 635:1.0 13:1.0 11:1.0 224:1.0 
0.11386292726168394 87:1.0 52:1.0 4:1.0 12480:1.0 696:1.0 2608:1.0 455:1.0 90:1.0 117:1.0 187:1.0 
0.2215402543792414 87:1.0 239:1.0 4:1.0 2500:1.0 2937:1.0 9838:1.0 8:1.0 90:1.0 117:1.0 11:1.0 46:1.0 13:1.0 
0.2289313057477839 142:1.0 52:1.0 4:1.0 5131:1.0 199:1.0 7967:1.0 8:1.0 90:1.0 117:1.0 71:1.0 13:1.0 11:1.0 
0.19869123786001897 450:1.0 239:1.0 118:1.0 2951:1.0 6347:1.0 140:1.0 8:1.0 90:1.0 117:1.0 11:1.0 13:1.0 
0.07883386354077916 58:1.0 239:1.0 4:1.0 16925:1.0 11259:1.0 327:1.0 8:1.0 90:1.0 117:1.0 224:1.0 13:1.0 11:1.0 147:1.0 
0.08887647036157982 87:1.0 52:1.0 4:1.0 3103:1.0 89:1.0 791:1.0 8:1.0 90:1.0 117:1.0 11:1.0 1412:1.0 13:1.0 
0.1365424066977212 87:1.0 52:1.0 4:1.0 789:1.0 585:1.0 223:1.0 335:1.0 90:1.0 117:1.0 11:1.0 
0.09142486062103111 87:1.0 52:1.0 4:1.0 26359:1.0 355:1.0 419:1.0 8:1.0 90:1.0 117:1.0 224:1.0 13:1.0 11:1.0 
0.08748705619721739 58:1.0 239:1.0 4:1.0 16925:1.0 7267:1.0 8703:1.0 8:1.0 90:1.0 117:1.0 71:1.0 13:1.0 11:1.0 46:1.0 
0.3605706039234939 34:1.0 52:1.0 111:1.0 528:1.0 734:1.0 759:1.0 115:1.0 90:1.0 117:1.0 
0.34373136451721575 87:1.0 220:1.0 66:1.0 26389:1.0 1225:1.0 1598:1.0 8:1.0 90:1.0 117:1.0 11:1.0 13:1.0 
0.14987099263597636 87:1.0 239:1.0 4:1.0 3590:1.0 421:1.0 223:1.0 8:1.0 90:1.0 117:1.0 71:1.0 13:1.0 11:1.0 
0.09277173899816046 87:1.0 52:1.0 4:1.0 10705:1.0 734:1.0 1490:1.0 8:1.0 90:1.0 117:1.0 11:1.0 506:1.0 13:1.0 
0.11096118526405697 84:1.0 52:1.0 4:1.0 3464:1.0 3833:1.0 10269:1.0 8:1.0 90:1.0 117:1.0 11:1.0 13:1.0 
0.22895964229729887 154:1.0 52:1.0 4:1.0 2486:1.0 3833:1.0 223:1.0 8:1.0 90:1.0 117:1.0 11:1.0 13:1.0 
0.22003473455723885 84:1.0 239:1.0 4:1.0 322:1.0 3720:1.0 10133:1.0 8:1.0 90:1.0 117:1.0 426:1.0 11:1.0 13:1.0 
0.23921777723585053 87:1.0 52:1.0 118:1.0 6808:1.0 696:1.0 3021:1.0 335:1.0 90:1.0 117:1.0 11:1.0 13:1.0 
0.22357497687701336 376:1.0 52:1.0 118:1.0 2951:1.0 1958:1.0 1358:1.0 8:1.0 90:1.0 117:1.0 13:1.0 11:1.0 
0.18984308380690423 87:1.0 52:1.0 118:1.0 812:1.0 586:1.0 5212:1.0 455:1.0 90:1.0 117:1.0 11:1.0 
0.0724007517467036 84:1.0 52:1.0 4:1.0 5344:1.0 586:1.0 369:1.0 8:1.0 90:1.0 117:1.0 426:1.0 11:1.0 71:1.0 13:1.0 187:1.0 
0.15836090989021953 87:1.0 52:1.0 66:1.0 21740:1.0 4807:1.0 228:1.0 146:1.0 90:1.0 117:1.0 224:1.0 13:1.0 11:1.0 147:1.0 
0.23482821044765573 84:1.0 52:1.0 4:1.0 3136:1.0 493:1.0 2034:1.0 8:1.0 90:1.0 117:1.0 224:1.0 13:1.0 11:1.0 
0.2655888899358893 87:1.0 220:1.0 4:1.0 26597:1.0 856:1.0 6267:1.0 8:1.0 90:1.0 117:1.0 11:1.0 71:1.0 46:1.0 13:1.0 
0.1097771101626255 87:1.0 52:1.0 4:1.0 10763:1.0 471:1.0 26627:1.0 8:1.0 90:1.0 117:1.0 11:1.0 13:1.0 
2.4843872267180664 376:1.0 52:1.0 4:1.0 339:1.0 108:1.0 140:1.0 8:1.0 90:1.0 117:1.0 11:1.0 13:1.0 
0.10669648298315583 637:1.0 52:1.0 4:1.0 638:1.0 199:1.0 228:1.0 146:1.0 90:1.0 117:1.0 11:1.0 71:1.0 13:1.0 
0.17982805084768358 87:1.0 52:1.0 118:1.0 8991:1.0 199:1.0 1546:1.0 238:1.0 90:1.0 117:1.0 11:1.0 224:1.0 
0.08072169897287831 84:1.0 52:1.0 4:1.0 7909:1.0 841:1.0 597:1.0 146:1.0 90:1.0 117:1.0 11:1.0 71:1.0 187:1.0 
0.16722408066758518 87:1.0 52:1.0 118:1.0 2441:1.0 54:1.0 26814:1.0 8:1.0 90:1.0 117:1.0 11:1.0 13:1.0 
0.4628268521559201 84:1.0 220:1.0 66:1.0 1433:1.0 5182:1.0 6129:1.0 238:1.0 90:1.0 117:1.0 11:1.0 
0.12178912831649615 84:1.0 52:1.0 118:1.0 2367:1.0 471:1.0 6280:1.0 8:1.0 90:1.0 117:1.0 224:1.0 13:1.0 11:1.0 
0.29143957204654575 84:1.0 220:1.0 118:1.0 2367:1.0 4708:1.0 6280:1.0 8:1.0 90:1.0 117:1.0 224:1.0 13:1.0 11:1.0 
0.14650348539379127 84:1.0 52:1.0 243:1.0 7680:1.0 89:1.0 1099:1.0 28:1.0 90:1.0 117:1.0 224:1.0 
0.19880178759182174 142:1.0 52:1.0 118:1.0 1297:1.0 108:1.0 21145:1.0 8:1.0 90:1.0 117:1.0 11:1.0 13:1.0 
0.11653618824952697 58:1.0 52:1.0 66:1.0 1488:1.0 586:1.0 1693:1.0 8:1.0 90:1.0 117:1.0 11:1.0 13:1.0 
0.19603715792601753 84:1.0 17:1.0 4:1.0 6941:1.0 4152:1.0 1770:1.0 146:1.0 90:1.0 117:1.0 11:1.0 71:1.0 13:1.0 
0.1726890567445114 87:1.0 239:1.0 4:1.0 3009:1.0 3877:1.0 3661:1.0 8:1.0 90:1.0 117:1.0 11:1.0 13:1.0 
0.2814009503561622 87:1.0 73:1.0 243:1.0 3494:1.0 3941:1.0 6768:1.0 28:1.0 90:1.0 117:1.0 224:1.0 
0.20913408459645616 87:1.0 239:1.0 4:1.0 3494:1.0 4058:1.0 9302:1.0 8:1.0 90:1.0 117:1.0 11:1.0 13:1.0 
0.24071247864349804 84:1.0 52:1.0 118:1.0 3346:1.0 342:1.0 6790:1.0 238:1.0 90:1.0 117:1.0 11:1.0 
0.2010685412275771 306:1.0 110:1.0 66:1.0 307:1.0 113:1.0 3772:1.0 238:1.0 90:1.0 117:1.0 11:1.0 71:1.0 
0.16558045422476508 87:1.0 52:1.0 118:1.0 10965:1.0 599:1.0 15696:1.0 8:1.0 90:1.0 117:1.0 11:1.0 635:1.0 13:1.0 
0.06924465425304092 87:1.0 52:1.0 118:1.0 1637:1.0 586:1.0 228:1.0 8:1.0 90:1.0 117:1.0 426:1.0 11:1.0 224:1.0 147:1.0 13:1.0 
0.09017464124647863 84:1.0 52:1.0 66:1.0 5614:1.0 199:1.0 9882:1.0 8:1.0 90:1.0 117:1.0 11:1.0 224:1.0 13:1.0 
0.2851254662952395 437:1.0 220:1.0 4:1.0 1369:1.0 934:1.0 140:1.0 146:1.0 90:1.0 117:1.0 11:1.0 
0.1863654177663167 87:1.0 52:1.0 4:1.0 2756:1.0 586:1.0 6236:1.0 8:1.0 90:1.0 117:1.0 224:1.0 13:1.0 11:1.0 
0.09609226142583133 87:1.0 52:1.0 118:1.0 13891:1.0 493:1.0 2971:1.0 8:1.0 90:1.0 117:1.0 11:1.0 187:1.0 13:1.0 
0.24154589455443043 84:1.0 220:1.0 243:1.0 3747:1.0 11700:1.0 165:1.0 115:1.0 90:1.0 117:1.0 13:1.0 224:1.0 1412:1.0 
0.07925126127614489 87:1.0 52:1.0 4:1.0 15517:1.0 199:1.0 767:1.0 8:1.0 90:1.0 117:1.0 71:1.0 13:1.0 11:1.0 224:1.0 
0.21170743747727344 87:1.0 14:1.0 66:1.0 16172:1.0 1691:1.0 223:1.0 8:1.0 90:1.0 117:1.0 13:1.0 11:1.0 
0.12011558766790123 87:1.0 52:1.0 4:1.0 427:1.0 493:1.0 259:1.0 8:1.0 90:1.0 117:1.0 71:1.0 13:1.0 11:1.0 
0.13170576377302945 436:1.0 239:1.0 118:1.0 2101:1.0 15309:1.0 140:1.0 8:1.0 90:1.0 117:1.0 13:1.0 11:1.0 
0.17065434410152067 34:1.0 110:1.0 155:1.0 1960:1.0 113:1.0 331:1.0 158:1.0 90:1.0 117:1.0 71:1.0 
0.1601552964544707 87:1.0 52:1.0 118:1.0 6770:1.0 841:1.0 25560:1.0 8:1.0 90:1.0 117:1.0 224:1.0 13:1.0 11:1.0 187:1.0 
0.15144992537029625 87:1.0 52:1.0 4:1.0 270:1.0 696:1.0 5603:1.0 8:1.0 90:1.0 117:1.0 11:1.0 426:1.0 71:1.0 13:1.0 
0.26329192212040264 87:1.0 239:1.0 4:1.0 427:1.0 746:1.0 2341:1.0 8:1.0 90:1.0 117:1.0 224:1.0 13:1.0 11:1.0 
1.1904761904761894 2:1.0 52:1.0 66:1.0 307:1.0 3559:1.0 494:1.0 8:1.0 90:1.0 117:1.0 11:1.0 13:1.0 
0.2612430154736681 87:1.0 328:1.0 118:1.0 27482:1.0 461:1.0 10130:1.0 335:1.0 90:1.0 117:1.0 11:1.0 
0.2921628907436617 87:1.0 220:1.0 4:1.0 840:1.0 323:1.0 8378:1.0 8:1.0 90:1.0 117:1.0 11:1.0 224:1.0 13:1.0 187:1.0 
0.2489807969822448 84:1.0 220:1.0 155:1.0 984:1.0 10142:1.0 3104:1.0 115:1.0 90:1.0 117:1.0 224:1.0 
0.08598065735940134 58:1.0 239:1.0 118:1.0 18048:1.0 11524:1.0 3283:1.0 8:1.0 90:1.0 117:1.0 11:1.0 224:1.0 13:1.0 
0.2142478842588284 637:1.0 52:1.0 4:1.0 638:1.0 199:1.0 1678:1.0 146:1.0 90:1.0 117:1.0 11:1.0 
0.27941504660212146 2:1.0 239:1.0 111:1.0 307:1.0 421:1.0 1519:1.0 115:1.0 90:1.0 117:1.0 13:1.0 
0.17809059205480082 87:1.0 52:1.0 155:1.0 470:1.0 3559:1.0 380:1.0 115:1.0 90:1.0 117:1.0 
0.6691227339752124 637:1.0 52:1.0 4:1.0 638:1.0 89:1.0 732:1.0 8:1.0 90:1.0 117:1.0 71:1.0 13:1.0 11:1.0 
0.09795990621079052 84:1.0 52:1.0 4:1.0 21622:1.0 199:1.0 752:1.0 8:1.0 90:1.0 117:1.0 11:1.0 506:1.0 13:1.0 
0.22252731295204642 2:1.0 52:1.0 4:1.0 307:1.0 1347:1.0 331:1.0 8:1.0 90:1.0 117:1.0 426:1.0 11:1.0 13:1.0 
0.1408044963761957 87:1.0 52:1.0 243:1.0 4725:1.0 493:1.0 10133:1.0 115:1.0 90:1.0 117:1.0 
0.19279800663124294 84:1.0 14:1.0 4:1.0 13926:1.0 27791:1.0 23828:1.0 8:1.0 90:1.0 117:1.0 11:1.0 13:1.0 
0.10201587925670426 84:1.0 52:1.0 66:1.0 8467:1.0 585:1.0 5437:1.0 238:1.0 90:1.0 117:1.0 11:1.0 426:1.0 
0.335570476242113 87:1.0 52:1.0 4:1.0 3318:1.0 493:1.0 223:1.0 146:1.0 90:1.0 117:1.0 11:1.0 
0.10630341610323195 84:1.0 52:1.0 4:1.0 8324:1.0 493:1.0 6568:1.0 8:1.0 90:1.0 117:1.0 11:1.0 32:1.0 13:1.0 
0.10678096524355801 87:1.0 52:1.0 4:1.0 2825:1.0 471:1.0 9838:1.0 146:1.0 90:1.0 117:1.0 11:1.0 13:1.0 224:1.0 
0.14344571371181014 58:1.0 110:1.0 118:1.0 27928:1.0 113:1.0 15499:1.0 8:1.0 90:1.0 117:1.0 71:1.0 11:1.0 506:1.0 
0.07265279383123041 87:1.0 239:1.0 118:1.0 4288:1.0 10774:1.0 20044:1.0 98:1.0 90:1.0 117:1.0 71:1.0 11:1.0 46:1.0 13:1.0 187:1.0 
0.12153946788326919 142:1.0 52:1.0 118:1.0 1102:1.0 696:1.0 20044:1.0 176:1.0 90:1.0 117:1.0 71:1.0 11:1.0 
0.13810039354745637 437:1.0 52:1.0 155:1.0 13732:1.0 695:1.0 1151:1.0 158:1.0 90:1.0 117:1.0 
0.17466228442099943 84:1.0 52:1.0 66:1.0 5230:1.0 108:1.0 3605:1.0 8:1.0 90:1.0 117:1.0 11:1.0 13:1.0 
0.13537450037230633 87:1.0 52:1.0 155:1.0 787:1.0 493:1.0 4256:1.0 115:1.0 90:1.0 117:1.0 71:1.0 
0.1774393502733207 87:1.0 283:1.0 4:1.0 427:1.0 6968:1.0 1678:1.0 8:1.0 90:1.0 117:1.0 11:1.0 197:1.0 13:1.0 
0.13702507755781806 142:1.0 283:1.0 155:1.0 143:1.0 2289:1.0 2869:1.0 158:1.0 90:1.0 117:1.0 46:1.0 
0.10983266146989965 87:1.0 52:1.0 4:1.0 19868:1.0 696:1.0 223:1.0 335:1.0 90:1.0 117:1.0 11:1.0 71:1.0 
0.15920955212673593 84:1.0 52:1.0 118:1.0 28299:1.0 1818:1.0 1869:1.0 146:1.0 90:1.0 117:1.0 71:1.0 13:1.0 11:1.0 
0.12580098843374762 87:1.0 52:1.0 4:1.0 9318:1.0 199:1.0 767:1.0 8:1.0 90:1.0 117:1.0 11:1.0 13:1.0 
0.12777301422251147 58:1.0 52:1.0 66:1.0 3186:1.0 586:1.0 1693:1.0 146:1.0 90:1.0 117:1.0 11:1.0 
0.20017425576415793 87:1.0 52:1.0 66:1.0 11729:1.0 1958:1.0 223:1.0 8:1.0 90:1.0 117:1.0 11:1.0 13:1.0 
0.15369437967991498 87:1.0 52:1.0 243:1.0 7735:1.0 4807:1.0 228:1.0 28:1.0 90:1.0 117:1.0 
0.2747252758049386 87:1.0 220:1.0 155:1.0 26930:1.0 1225:1.0 4036:1.0 158:1.0 90:1.0 117:1.0 224:1.0 
0.11382921423739706 87:1.0 14:1.0 4:1.0 5496:1.0 325:1.0 1678:1.0 8:1.0 90:1.0 117:1.0 11:1.0 224:1.0 197:1.0 13:1.0 
0.5907544668253046 87:1.0 220:1.0 111:1.0 798:1.0 1351:1.0 5314:1.0 115:1.0 90:1.0 117:1.0 
0.21736588477779364 84:1.0 52:1.0 4:1.0 794:1.0 3559:1.0 997:1.0 8:1.0 90:1.0 117:1.0 11:1.0 224:1.0 13:1.0 
0.21379824206283027 87:1.0 52:1.0 118:1.0 427:1.0 3559:1.0 1598:1.0 146:1.0 90:1.0 117:1.0 11:1.0 71:1.0 13:1.0 
0.15510173142232586 87:1.0 110:1.0 243:1.0 291:1.0 113:1.0 612:1.0 115:1.0 90:1.0 117:1.0 
0.154272800243532 154:1.0 52:1.0 243:1.0 4798:1.0 696:1.0 15940:1.0 103:1.0 90:1.0 117:1.0 
0.17097120377624372 84:1.0 52:1.0 155:1.0 4721:1.0 89:1.0 3336:1.0 158:1.0 90:1.0 117:1.0 506:1.0 
0.2768605958258246 437:1.0 220:1.0 118:1.0 1369:1.0 6178:1.0 608:1.0 3500:1.0 90:1.0 117:1.0 13:1.0 11:1.0 
0.1197801419007651 87:1.0 239:1.0 118:1.0 13762:1.0 439:1.0 7230:1.0 8:1.0 90:1.0 117:1.0 426:1.0 11:1.0 13:1.0 
0.07251310875063383 87:1.0 52:1.0 4:1.0 10471:1.0 7088:1.0 1490:1.0 8:1.0 90:1.0 117:1.0 46:1.0 13:1.0 11:1.0 1412:1.0 
0.22938400533274914 87:1.0 52:1.0 4:1.0 685:1.0 89:1.0 68:1.0 238:1.0 90:1.0 117:1.0 11:1.0 
0.30243369530192743 34:1.0 110:1.0 118:1.0 307:1.0 113:1.0 114:1.0 176:1.0 90:1.0 117:1.0 
0.16057315683809273 84:1.0 52:1.0 4:1.0 7434:1.0 493:1.0 369:1.0 146:1.0 90:1.0 117:1.0 11:1.0 224:1.0 13:1.0 
0.09277521546599293 84:1.0 52:1.0 4:1.0 7434:1.0 599:1.0 369:1.0 146:1.0 90:1.0 117:1.0 11:1.0 224:1.0 13:1.0 
0.10040345107286652 58:1.0 52:1.0 118:1.0 8533:1.0 493:1.0 28595:1.0 8:1.0 90:1.0 117:1.0 11:1.0 71:1.0 13:1.0 
0.11032295279602217 87:1.0 17:1.0 4:1.0 2825:1.0 4152:1.0 16960:1.0 8:1.0 90:1.0 117:1.0 11:1.0 13:1.0 
0.12541541138788262 22:1.0 52:1.0 4:1.0 28632:1.0 586:1.0 1286:1.0 8:1.0 90:1.0 117:1.0 11:1.0 13:1.0 
0.2507508524305393 84:1.0 220:1.0 66:1.0 3870:1.0 1044:1.0 1286:1.0 8:1.0 90:1.0 117:1.0 11:1.0 147:1.0 187:1.0 13:1.0 
0.1864891917579 142:1.0 220:1.0 66:1.0 600:1.0 10969:1.0 752:1.0 176:1.0 90:1.0 117:1.0 11:1.0 
0.18849945763685597 2:1.0 239:1.0 111:1.0 307:1.0 3008:1.0 1585:1.0 115:1.0 90:1.0 117:1.0 506:1.0 13:1.0 
0.1381813909322563 84:1.0 52:1.0 4:1.0 2207:1.0 342:1.0 68:1.0 176:1.0 90:1.0 117:1.0 11:1.0 
0.32733561482226997 87:1.0 220:1.0 243:1.0 3820:1.0 4708:1.0 1286:1.0 589:1.0 90:1.0 117:1.0 147:1.0 
1.0869567020178572 87:1.0 52:1.0 66:1.0 6370:1.0 199:1.0 7263:1.0 455:1.0 90:1.0 117:1.0 11:1.0 13:1.0 224:1.0 
0.2702079471754843 87:1.0 220:1.0 155:1.0 3954:1.0 743:1.0 2105:1.0 115:1.0 90:1.0 117:1.0 4496:1.0 
0.437833792267905 87:1.0 220:1.0 243:1.0 14081:1.0 743:1.0 2105:1.0 254:1.0 90:1.0 117:1.0 4496:1.0 
0.1852018837425075 87:1.0 52:1.0 118:1.0 3062:1.0 108:1.0 68:1.0 8:1.0 90:1.0 117:1.0 224:1.0 13:1.0 11:1.0 
0.27828680179731663 84:1.0 220:1.0 243:1.0 9388:1.0 1769:1.0 17511:1.0 254:1.0 90:1.0 117:1.0 224:1.0 187:1.0 
0.19565261813892273 22:1.0 52:1.0 118:1.0 1251:1.0 599:1.0 1598:1.0 8:1.0 90:1.0 117:1.0 11:1.0 506:1.0 13:1.0 
0.14232440824599754 87:1.0 52:1.0 155:1.0 427:1.0 199:1.0 6282:1.0 158:1.0 90:1.0 117:1.0 224:1.0 
0.3211037913955562 87:1.0 52:1.0 155:1.0 2060:1.0 585:1.0 752:1.0 158:1.0 90:1.0 117:1.0 224:1.0 187:1.0 
0.241401951229501 87:1.0 283:1.0 155:1.0 2990:1.0 26678:1.0 165:1.0 115:1.0 90:1.0 117:1.0 
0.24601744021444386 450:1.0 239:1.0 4:1.0 339:1.0 439:1.0 140:1.0 8:1.0 90:1.0 117:1.0 11:1.0 13:1.0 
0.16962575677896405 84:1.0 52:1.0 118:1.0 4486:1.0 599:1.0 223:1.0 8:1.0 90:1.0 117:1.0 11:1.0 13:1.0 
0.08195532147813267 87:1.0 52:1.0 4:1.0 3151:1.0 493:1.0 165:1.0 8:1.0 90:1.0 117:1.0 71:1.0 13:1.0 11:1.0 
0.11248565006015102 84:1.0 52:1.0 4:1.0 15545:1.0 89:1.0 2184:1.0 8:1.0 90:1.0 117:1.0 11:1.0 13:1.0 
0.10983266919340967 87:1.0 52:1.0 4:1.0 11145:1.0 471:1.0 4714:1.0 8:1.0 90:1.0 117:1.0 11:1.0 13:1.0 
0.1947456125817031 87:1.0 220:1.0 4:1.0 8850:1.0 7347:1.0 569:1.0 335:1.0 90:1.0 117:1.0 11:1.0 13:1.0 635:1.0 187:1.0 
0.14723224898586892 34:1.0 52:1.0 4:1.0 528:1.0 89:1.0 5603:1.0 8:1.0 90:1.0 117:1.0 426:1.0 46:1.0 11:1.0 13:1.0 
0.09532199799655548 87:1.0 52:1.0 4:1.0 7493:1.0 355:1.0 1151:1.0 8:1.0 90:1.0 117:1.0 11:1.0 71:1.0 13:1.0 
0.25319521322868754 87:1.0 52:1.0 4:1.0 981:1.0 493:1.0 4441:1.0 238:1.0 90:1.0 117:1.0 11:1.0 
0.11798900287363345 87:1.0 52:1.0 4:1.0 7781:1.0 586:1.0 5348:1.0 8:1.0 90:1.0 117:1.0 11:1.0 13:1.0 
0.11076734277819497 84:1.0 52:1.0 66:1.0 3810:1.0 841:1.0 4418:1.0 8:1.0 90:1.0 117:1.0 11:1.0 13:1.0 
0.11058393057446887 306:1.0 52:1.0 4:1.0 307:1.0 586:1.0 9302:1.0 238:1.0 90:1.0 117:1.0 11:1.0 
0.07841526401254914 87:1.0 52:1.0 4:1.0 265:1.0 586:1.0 9555:1.0 8:1.0 90:1.0 117:1.0 11:1.0 13:1.0 
0.29117942989908047 84:1.0 52:1.0 155:1.0 3686:1.0 5309:1.0 29118:1.0 176:1.0 90:1.0 117:1.0 224:1.0 
0.17837413061418833 87:1.0 52:1.0 155:1.0 3284:1.0 3559:1.0 296:1.0 115:1.0 90:1.0 117:1.0 13:1.0 
0.0816607326731686 87:1.0 52:1.0 118:1.0 3494:1.0 54:1.0 3283:1.0 8:1.0 90:1.0 117:1.0 11:1.0 187:1.0 13:1.0 
0.12377736887752128 87:1.0 52:1.0 118:1.0 794:1.0 54:1.0 3283:1.0 176:1.0 90:1.0 117:1.0 11:1.0 
0.2772347795543428 84:1.0 220:1.0 155:1.0 4192:1.0 1153:1.0 296:1.0 115:1.0 90:1.0 117:1.0 13:1.0 
0.08909672434473911 87:1.0 239:1.0 243:1.0 904:1.0 1870:1.0 3904:1.0 115:1.0 90:1.0 117:1.0 224:1.0 13:1.0 
0.19896199394198183 84:1.0 52:1.0 66:1.0 8135:1.0 199:1.0 29255:1.0 238:1.0 90:1.0 117:1.0 11:1.0 
0.4196394450395272 87:1.0 220:1.0 243:1.0 8989:1.0 1163:1.0 1125:1.0 115:1.0 90:1.0 117:1.0 224:1.0 
0.30705787067319196 87:1.0 220:1.0 4:1.0 2471:1.0 1163:1.0 228:1.0 238:1.0 90:1.0 117:1.0 11:1.0 13:1.0 46:1.0 
0.17261097817029408 84:1.0 52:1.0 66:1.0 8933:1.0 3559:1.0 223:1.0 8:1.0 90:1.0 117:1.0 11:1.0 224:1.0 13:1.0 
0.22560765932506194 87:1.0 52:1.0 155:1.0 1614:1.0 199:1.0 7967:1.0 176:1.0 90:1.0 117:1.0 
0.40082502284439614 2:1.0 52:1.0 66:1.0 307:1.0 599:1.0 333:1.0 8:1.0 90:1.0 117:1.0 11:1.0 13:1.0 
0.22460930069316276 87:1.0 239:1.0 66:1.0 3284:1.0 2204:1.0 223:1.0 146:1.0 90:1.0 117:1.0 11:1.0 13:1.0 
0.22319885606498568 142:1.0 52:1.0 4:1.0 143:1.0 54:1.0 3813:1.0 176:1.0 90:1.0 117:1.0 11:1.0 
0.12243757180456767 58:1.0 52:1.0 66:1.0 27661:1.0 199:1.0 1111:1.0 8:1.0 90:1.0 117:1.0 13:1.0 
0.10769663082856906 87:1.0 52:1.0 155:1.0 13344:1.0 1347:1.0 14524:1.0 115:1.0 90:1.0 117:1.0 690:1.0 
0.15209074115290971 58:1.0 110:1.0 155:1.0 4684:1.0 113:1.0 6189:1.0 115:1.0 90:1.0 117:1.0 
0.1595631573253389 87:1.0 52:1.0 155:1.0 1888:1.0 585:1.0 8640:1.0 158:1.0 90:1.0 117:1.0 
0.10791370997564143 87:1.0 52:1.0 4:1.0 13900:1.0 696:1.0 68:1.0 8:1.0 90:1.0 117:1.0 11:1.0 13:1.0 
0.22119573287219174 87:1.0 52:1.0 4:1.0 13642:1.0 493:1.0 4994:1.0 238:1.0 90:1.0 117:1.0 11:1.0 
0.19876186245690203 87:1.0 110:1.0 118:1.0 11844:1.0 113:1.0 6236:1.0 238:1.0 90:1.0 117:1.0 46:1.0 11:1.0 224:1.0 
0.12199970778780482 58:1.0 52:1.0 118:1.0 29504:1.0 586:1.0 12271:1.0 8:1.0 90:1.0 117:1.0 13:1.0 11:1.0 
0.21617883847577016 450:1.0 52:1.0 118:1.0 5142:1.0 599:1.0 2707:1.0 69:1.0 90:1.0 117:1.0 13:1.0 11:1.0 
0.12265503995521533 58:1.0 239:1.0 4:1.0 5628:1.0 2329:1.0 380:1.0 8:1.0 90:1.0 117:1.0 11:1.0 70:1.0 13:1.0 
0.15972331657570912 87:1.0 52:1.0 155:1.0 427:1.0 585:1.0 380:1.0 115:1.0 90:1.0 117:1.0 
0.12212519654887385 637:1.0 220:1.0 155:1.0 638:1.0 2195:1.0 9838:1.0 158:1.0 90:1.0 117:1.0 224:1.0 71:1.0 13:1.0 
0.27373193064468015 84:1.0 52:1.0 118:1.0 322:1.0 3092:1.0 7196:1.0 8:1.0 90:1.0 117:1.0 11:1.0 13:1.0 
0.21122636087057028 376:1.0 239:1.0 4:1.0 339:1.0 3291:1.0 140:1.0 8:1.0 90:1.0 117:1.0 13:1.0 11:1.0 
0.11239215456124255 58:1.0 239:1.0 4:1.0 22353:1.0 16191:1.0 6818:1.0 8:1.0 90:1.0 117:1.0 426:1.0 71:1.0 13:1.0 11:1.0 147:1.0 
0.18866266298518253 84:1.0 220:1.0 66:1.0 10599:1.0 345:1.0 223:1.0 8:1.0 90:1.0 117:1.0 11:1.0 187:1.0 13:1.0 426:1.0 
0.20470877863004738 87:1.0 328:1.0 66:1.0 10599:1.0 461:1.0 608:1.0 2870:1.0 90:1.0 117:1.0 71:1.0 11:1.0 
0.09654047940989058 87:1.0 110:1.0 4:1.0 7735:1.0 113:1.0 452:1.0 8:1.0 90:1.0 117:1.0 224:1.0 11:1.0 506:1.0 
1.0869567020178572 84:1.0 52:1.0 118:1.0 10228:1.0 696:1.0 3021:1.0 335:1.0 90:1.0 117:1.0 11:1.0 13:1.0 224:1.0 
0.11862061584000506 34:1.0 239:1.0 4:1.0 528:1.0 788:1.0 564:1.0 146:1.0 90:1.0 117:1.0 426:1.0 71:1.0 13:1.0 11:1.0 
0.12320591675034223 437:1.0 220:1.0 4:1.0 1369:1.0 11229:1.0 1519:1.0 28:1.0 90:1.0 117:1.0 11:1.0 147:1.0 
0.1439077340992892 87:1.0 52:1.0 243:1.0 29807:1.0 3092:1.0 28654:1.0 115:1.0 90:1.0 117:1.0 
0.18688539900540263 87:1.0 52:1.0 118:1.0 2466:1.0 696:1.0 17882:1.0 8:1.0 90:1.0 117:1.0 224:1.0 13:1.0 11:1.0 690:1.0 
0.13831429659952016 87:1.0 52:1.0 155:1.0 4347:1.0 687:1.0 228:1.0 115:1.0 90:1.0 117:1.0 
0.3309832581163633 87:1.0 220:1.0 4:1.0 549:1.0 323:1.0 5680:1.0 8:1.0 90:1.0 117:1.0 46:1.0 13:1.0 11:1.0 224:1.0 187:1.0 
0.2513278170794184 84:1.0 220:1.0 243:1.0 2314:1.0 856:1.0 752:1.0 254:1.0 90:1.0 117:1.0 71:1.0 224:1.0 
0.31899302093464316 84:1.0 52:1.0 4:1.0 793:1.0 586:1.0 752:1.0 8:1.0 90:1.0 117:1.0 224:1.0 13:1.0 11:1.0 71:1.0 
0.09476472532214389 84:1.0 52:1.0 4:1.0 793:1.0 3559:1.0 752:1.0 8:1.0 90:1.0 117:1.0 224:1.0 13:1.0 11:1.0 71:1.0 
0.09352883750397631 84:1.0 239:1.0 118:1.0 3351:1.0 4393:1.0 20011:1.0 455:1.0 90:1.0 117:1.0 635:1.0 13:1.0 71:1.0 
0.203895278316122 87:1.0 52:1.0 118:1.0 14340:1.0 585:1.0 2105:1.0 8:1.0 90:1.0 117:1.0 11:1.0 4496:1.0 13:1.0 
0.23293410252659716 142:1.0 283:1.0 111:1.0 143:1.0 4184:1.0 121:1.0 115:1.0 90:1.0 117:1.0 506:1.0 
0.44244180103384 2:1.0 239:1.0 4:1.0 307:1.0 421:1.0 12828:1.0 8:1.0 90:1.0 117:1.0 11:1.0 13:1.0 
0.11515180769121551 84:1.0 52:1.0 118:1.0 3870:1.0 734:1.0 1546:1.0 238:1.0 90:1.0 117:1.0 11:1.0 71:1.0 
0.14558137802095444 84:1.0 137:1.0 243:1.0 10888:1.0 1191:1.0 12006:1.0 115:1.0 90:1.0 117:1.0 13:1.0 
0.3658637942537716 637:1.0 52:1.0 243:1.0 638:1.0 199:1.0 752:1.0 28:1.0 90:1.0 117:1.0 224:1.0 
0.09534421108603729 84:1.0 52:1.0 4:1.0 28624:1.0 586:1.0 68:1.0 8:1.0 90:1.0 117:1.0 11:1.0 71:1.0 13:1.0 
0.11697454849798387 34:1.0 52:1.0 66:1.0 1240:1.0 586:1.0 4474:1.0 8:1.0 90:1.0 117:1.0 11:1.0 13:1.0 
0.2095917502238822 22:1.0 52:1.0 243:1.0 544:1.0 493:1.0 228:1.0 115:1.0 90:1.0 117:1.0 
0.09707171067403834 22:1.0 52:1.0 4:1.0 544:1.0 734:1.0 228:1.0 8:1.0 90:1.0 117:1.0 11:1.0 13:1.0 
0.13485835174566455 34:1.0 52:1.0 4:1.0 2065:1.0 493:1.0 2897:1.0 8:1.0 90:1.0 117:1.0 11:1.0 224:1.0 13:1.0 
0.10060834912493642 84:1.0 239:1.0 111:1.0 10752:1.0 15319:1.0 2430:1.0 115:1.0 90:1.0 117:1.0 690:1.0 13:1.0 
0.11111428276366303 142:1.0 239:1.0 4:1.0 143:1.0 30222:1.0 2300:1.0 8:1.0 90:1.0 117:1.0 11:1.0 70:1.0 13:1.0 
0.08980380702427607 87:1.0 239:1.0 4:1.0 30223:1.0 30222:1.0 2300:1.0 8:1.0 90:1.0 117:1.0 11:1.0 70:1.0 13:1.0 
0.155279503450511 87:1.0 52:1.0 118:1.0 11659:1.0 89:1.0 8892:1.0 8:1.0 90:1.0 117:1.0 11:1.0 13:1.0 70:1.0 
0.16754744607418376 87:1.0 52:1.0 4:1.0 2082:1.0 586:1.0 1688:1.0 8:1.0 90:1.0 117:1.0 224:1.0 13:1.0 71:1.0 11:1.0 187:1.0 
0.1232748891402818 22:1.0 239:1.0 111:1.0 9622:1.0 421:1.0 165:1.0 115:1.0 90:1.0 117:1.0 1412:1.0 13:1.0 
0.11166964031697602 87:1.0 52:1.0 66:1.0 3284:1.0 54:1.0 3813:1.0 8:1.0 90:1.0 117:1.0 11:1.0 
0.27739526231397227 84:1.0 220:1.0 155:1.0 3037:1.0 743:1.0 15289:1.0 115:1.0 90:1.0 117:1.0 224:1.0 
0.3258769354599792 84:1.0 220:1.0 118:1.0 3037:1.0 7860:1.0 2300:1.0 8:1.0 90:1.0 117:1.0 11:1.0 13:1.0 46:1.0 
0.1665185775530571 142:1.0 220:1.0 155:1.0 143:1.0 30336:1.0 68:1.0 158:1.0 90:1.0 117:1.0 71:1.0 13:1.0 
0.48224783467189625 297:1.0 52:1.0 4:1.0 298:1.0 599:1.0 140:1.0 8:1.0 90:1.0 117:1.0 11:1.0 71:1.0 13:1.0 
0.1910292126451712 87:1.0 52:1.0 118:1.0 30349:1.0 586:1.0 11846:1.0 335:1.0 90:1.0 117:1.0 11:1.0 
0.12880225146420574 87:1.0 52:1.0 118:1.0 4121:1.0 585:1.0 2284:1.0 8:1.0 90:1.0 117:1.0 46:1.0 13:1.0 71:1.0 11:1.0 187:1.0 
0.22940629757428677 22:1.0 110:1.0 66:1.0 1120:1.0 113:1.0 1490:1.0 176:1.0 90:1.0 117:1.0 
0.08927954249264422 87:1.0 52:1.0 66:1.0 1157:1.0 585:1.0 1693:1.0 8:1.0 90:1.0 117:1.0 11:1.0 224:1.0 13:1.0 
0.24735518218860672 58:1.0 52:1.0 111:1.0 7945:1.0 493:1.0 791:1.0 335:1.0 90:1.0 117:1.0 224:1.0 
0.1489354142854233 87:1.0 239:1.0 4:1.0 21551:1.0 4387:1.0 2901:1.0 8:1.0 90:1.0 117:1.0 11:1.0 224:1.0 13:1.0 
0.24630541958705107 87:1.0 220:1.0 155:1.0 4505:1.0 856:1.0 3904:1.0 158:1.0 90:1.0 117:1.0 690:1.0 506:1.0 
0.18565299395924426 154:1.0 52:1.0 4:1.0 8382:1.0 3092:1.0 5603:1.0 146:1.0 90:1.0 117:1.0 11:1.0 13:1.0 224:1.0 
0.1762896944241111 87:1.0 52:1.0 118:1.0 8218:1.0 493:1.0 5437:1.0 8:1.0 90:1.0 117:1.0 11:1.0 13:1.0 
0.11312160964488815 87:1.0 52:1.0 4:1.0 30483:1.0 199:1.0 5725:1.0 146:1.0 90:1.0 117:1.0 11:1.0 506:1.0 
0.3238300334312047 84:1.0 220:1.0 155:1.0 30504:1.0 1050:1.0 331:1.0 158:1.0 90:1.0 117:1.0 
0.17298589017141758 142:1.0 52:1.0 155:1.0 143:1.0 585:1.0 2034:1.0 8:1.0 90:1.0 117:1.0 147:1.0 13:1.0 
0.11836634896692139 306:1.0 220:1.0 94:1.0 307:1.0 353:1.0 2269:1.0 238:1.0 90:1.0 117:1.0 11:1.0 46:1.0 
0.1639967333202698 637:1.0 52:1.0 4:1.0 638:1.0 696:1.0 2700:1.0 8:1.0 90:1.0 117:1.0 71:1.0 13:1.0 11:1.0 
0.21542987976570738 142:1.0 52:1.0 155:1.0 143:1.0 585:1.0 10967:1.0 115:1.0 90:1.0 117:1.0 
