svm_type c_svc
kernel_type polynomial
degree 2
gamma 0.2
coef0 0.0
nr_class 2
total_sv 4
rho -0.21201629253109056
label 1 -1
nr_sv 3 1
SV
0.09608235631818801 87:1.0 52:1.0 4:1.0 2500:1.0 493:1.0 7:1.0 146:1.0 357:1.0 5519:1.0 71:1.0 13:1.0 11:1.0 160:1.0 187:1.0 24880:1.0 
0.08510055737781352 87:1.0 14:1.0 4:1.0 427:1.0 418:1.0 472:1.0 8:1.0 357:1.0 5519:1.0 11:1.0 70:1.0 13:1.0 5384:1.0 187:1.0 
0.10077304857014183 87:1.0 14:1.0 118:1.0 896:1.0 9621:1.0 7:1.0 8:1.0 357:1.0 5519:1.0 11:1.0 1636:1.0 13:1.0 33816:1.0 
-0.2819559622661434 109:1.0 52:1.0 1537:1.0 18371:1.0 54:1.0 1539:1.0 455:1.0 357:1.0 5519:1.0 5385:1.0 
