svm_type c_svc
kernel_type polynomial
degree 2
gamma 0.2
coef0 0.0
nr_class 2
total_sv 3
rho -0.08853057666428682
label 1 -1
nr_sv 2 1
SV
0.09126863376335305 109:1.0 23:1.0 66:1.0 6464:1.0 1766:1.0 4418:1.0 8:1.0 357:1.0 8437:1.0 224:1.0 13:1.0 11:1.0 70:1.0 46:1.0 8436:1.0 
0.2890173407417322 87:1.0 283:1.0 1537:1.0 470:1.0 1351:1.0 1539:1.0 455:1.0 357:1.0 8437:1.0 13:1.0 
-0.3802859745050852 2:1.0 14:1.0 1537:1.0 1237:1.0 2987:1.0 1539:1.0 455:1.0 357:1.0 8437:1.0 
