svm_type c_svc
kernel_type polynomial
degree 2
gamma 0.2
coef0 0.0
nr_class 2
total_sv 9451
rho -1.3207780291405211
label 1 -1
nr_sv 4831 4620
SV
0.14701877017223697 1:8.0 2:0.0 3:0.0 87:1.0 44:1.0 7:1.0 351:1.0 45:1.0 349:1.0 11:1.0 
500.0 1:8.0 2:3.0 3:0.0 236:1.0 6:1.0 53:1.0 378:1.0 9:1.0 371:1.0 11:1.0 
0.10175077096182926 1:9.0 2:1.0 3:0.0 5:1.0 6:1.0 94:1.0 149:1.0 9:1.0 442:1.0 11:1.0 
499.2257817548538 1:9.0 2:1.0 3:0.0 5:1.0 6:1.0 94:1.0 149:1.0 9:1.0 442:1.0 11:1.0 
2.2828360781628816 1:5.0 2:3.0 3:0.0 236:1.0 6:1.0 174:1.0 378:1.0 9:1.0 225:1.0 11:1.0 
499.58547749146334 1:3.0 2:1.0 3:0.0 87:1.0 6:1.0 151:1.0 296:1.0 9:1.0 525:1.0 56:1.0 
500.0 1:7.0 2:7.0 3:0.0 5:1.0 6:1.0 7:1.0 629:1.0 9:1.0 626:1.0 197:1.0 
499.7192000178659 1:5.0 2:3.0 3:0.0 5:1.0 6:1.0 174:1.0 629:1.0 9:1.0 177:1.0 119:1.0 
0.7420407010824954 1:7.0 2:5.0 3:0.0 5:1.0 44:1.0 7:1.0 630:1.0 45:1.0 798:1.0 11:1.0 
500.0 1:7.0 2:7.0 3:0.0 5:1.0 6:1.0 7:1.0 235:1.0 9:1.0 584:1.0 11:1.0 
500.0 1:7.0 2:0.0 3:0.0 87:1.0 6:1.0 7:1.0 1077:1.0 9:1.0 1073:1.0 11:1.0 
0.022195346112152167 1:6.0 2:4.0 3:0.0 125:1.0 6:1.0 7:1.0 1099:1.0 9:1.0 1100:1.0 11:1.0 
499.34249550094876 1:7.0 2:1.0 3:0.0 166:1.0 304:1.0 7:1.0 167:1.0 305:1.0 1112:1.0 56:1.0 
0.8641226292923061 1:4.0 2:1.0 3:0.0 5:1.0 6:1.0 89:1.0 630:1.0 9:1.0 321:1.0 93:1.0 
0.14931260544642308 1:6.0 2:1.0 3:0.0 69:1.0 6:1.0 7:1.0 1044:1.0 9:1.0 10:1.0 11:1.0 
0.4819766696421907 1:4.0 2:2.0 3:0.0 5:1.0 6:1.0 7:1.0 815:1.0 9:1.0 10:1.0 145:1.0 
0.012160749409492062 1:4.0 2:0.0 3:0.0 87:1.0 16:1.0 174:1.0 351:1.0 1168:1.0 1273:1.0 145:1.0 
0.029963288764387135 1:3.0 2:2.0 3:0.0 5:1.0 6:1.0 89:1.0 25:1.0 9:1.0 1277:1.0 93:1.0 
500.0 1:8.0 2:0.0 3:0.0 87:1.0 6:1.0 7:1.0 187:1.0 9:1.0 10:1.0 11:1.0 
500.0 1:8.0 2:0.0 3:0.0 87:1.0 6:1.0 7:1.0 187:1.0 9:1.0 10:1.0 11:1.0 
500.0 1:8.0 2:0.0 3:0.0 87:1.0 6:1.0 7:1.0 1288:1.0 9:1.0 10:1.0 11:1.0 
410.5355983216582 1:6.0 2:2.0 3:0.0 5:1.0 6:1.0 94:1.0 434:1.0 9:1.0 185:1.0 11:1.0 
0.02222309736031849 1:7.0 2:6.0 3:0.0 125:1.0 6:1.0 7:1.0 2054:1.0 9:1.0 2055:1.0 11:1.0 
0.016960993395099183 1:6.0 2:4.0 3:0.0 87:1.0 6:1.0 94:1.0 2073:1.0 9:1.0 185:1.0 11:1.0 
483.93156876100653 1:7.0 2:0.0 3:0.0 5:1.0 6:1.0 174:1.0 832:1.0 9:1.0 1486:1.0 11:1.0 
500.0 1:6.0 2:2.0 3:0.0 5:1.0 6:1.0 7:1.0 434:1.0 9:1.0 10:1.0 11:1.0 
499.94671094648487 1:7.0 2:0.0 3:0.0 87:1.0 6:1.0 7:1.0 2607:1.0 9:1.0 2605:1.0 11:1.0 
500.0 1:5.0 2:0.0 3:0.0 87:1.0 6:1.0 94:1.0 187:1.0 9:1.0 349:1.0 119:1.0 
0.006053128590716937 1:8.0 2:0.0 3:0.0 786:1.0 6:1.0 94:1.0 2709:1.0 9:1.0 113:1.0 11:1.0 
0.07991328136947837 1:6.0 2:0.0 3:0.0 87:1.0 6:1.0 174:1.0 2755:1.0 9:1.0 877:1.0 11:1.0 
500.0 1:5.0 2:0.0 3:0.0 87:1.0 6:1.0 174:1.0 187:1.0 9:1.0 2811:1.0 119:1.0 
0.17411104748945638 1:5.0 2:4.0 3:0.0 236:1.0 6:1.0 94:1.0 2823:1.0 9:1.0 1495:1.0 11:1.0 
0.17799293176039718 1:7.0 2:1.0 3:0.0 5:1.0 37:1.0 53:1.0 2845:1.0 39:1.0 1869:1.0 119:1.0 
500.0 1:5.0 2:2.0 3:0.0 125:1.0 6:1.0 89:1.0 520:1.0 9:1.0 2937:1.0 93:1.0 
500.0 1:4.0 2:1.0 3:0.0 125:1.0 6:1.0 89:1.0 520:1.0 9:1.0 834:1.0 93:1.0 
1.4914617247331063 1:6.0 2:0.0 3:0.0 87:1.0 37:1.0 94:1.0 861:1.0 39:1.0 546:1.0 119:1.0 
500.0 1:6.0 2:3.0 3:0.0 5:1.0 6:1.0 94:1.0 235:1.0 9:1.0 185:1.0 291:1.0 
500.0 1:5.0 2:0.0 3:0.0 87:1.0 6:1.0 7:1.0 1142:1.0 9:1.0 10:1.0 119:1.0 
0.0432237240392579 1:3.0 2:4.0 3:0.0 166:1.0 6:1.0 89:1.0 167:1.0 9:1.0 2274:1.0 93:1.0 
500.0 1:8.0 2:3.0 3:0.0 5:1.0 6:1.0 7:1.0 40:1.0 9:1.0 3358:1.0 11:1.0 
2.13627375469007 1:6.0 2:1.0 3:0.0 166:1.0 6:1.0 7:1.0 167:1.0 9:1.0 3713:1.0 11:1.0 
0.24670068396609451 1:6.0 2:0.0 3:0.0 125:1.0 6:1.0 53:1.0 1781:1.0 9:1.0 185:1.0 11:1.0 
3.5527019864052147 1:6.0 2:3.0 3:0.0 5:1.0 6:1.0 7:1.0 149:1.0 9:1.0 3167:1.0 291:1.0 
500.0 1:7.0 2:2.0 3:0.0 5:1.0 6:1.0 7:1.0 40:1.0 9:1.0 3815:1.0 11:1.0 
500.0 1:7.0 2:2.0 3:0.0 5:1.0 6:1.0 7:1.0 614:1.0 9:1.0 3358:1.0 11:1.0 
0.31127516301856595 1:3.0 2:4.0 3:0.0 166:1.0 6:1.0 202:1.0 167:1.0 9:1.0 3866:1.0 93:1.0 
232.0290193096634 1:8.0 2:0.0 3:0.0 786:1.0 6:1.0 7:1.0 2248:1.0 9:1.0 3358:1.0 11:1.0 
494.95283398563333 1:5.0 2:1.0 3:0.0 5:1.0 6:1.0 7:1.0 40:1.0 9:1.0 3358:1.0 11:1.0 
0.07463429294793188 1:4.0 2:0.0 3:0.0 87:1.0 6:1.0 174:1.0 3878:1.0 9:1.0 317:1.0 119:1.0 
500.0 1:6.0 2:0.0 3:0.0 793:1.0 6:1.0 7:1.0 2248:1.0 9:1.0 3358:1.0 11:1.0 
500.0 1:8.0 2:4.0 3:0.0 236:1.0 6:1.0 7:1.0 3986:1.0 9:1.0 3167:1.0 11:1.0 
500.0 1:8.0 2:7.0 3:0.0 236:1.0 6:1.0 7:1.0 378:1.0 9:1.0 3167:1.0 11:1.0 
0.009222949765947914 1:4.0 2:4.0 3:0.0 5:1.0 6:1.0 126:1.0 235:1.0 9:1.0 3631:1.0 129:1.0 
0.033409373822006844 1:7.0 2:0.0 3:0.0 87:1.0 6:1.0 53:1.0 4069:1.0 9:1.0 584:1.0 11:1.0 
0.08853758835125229 1:7.0 2:0.0 3:0.0 87:1.0 304:1.0 53:1.0 4069:1.0 1444:1.0 584:1.0 11:1.0 
500.0 1:5.0 2:3.0 3:0.0 87:1.0 6:1.0 7:1.0 2843:1.0 9:1.0 10:1.0 119:1.0 
44.6863023600988 1:5.0 2:4.0 3:0.0 5:1.0 6:1.0 7:1.0 149:1.0 9:1.0 10:1.0 11:1.0 
0.4359982448824893 1:9.0 2:0.0 3:0.0 87:1.0 6:1.0 53:1.0 502:1.0 9:1.0 185:1.0 11:1.0 
1.1633417314573928 1:9.0 2:2.0 3:0.0 236:1.0 16:1.0 53:1.0 378:1.0 17:1.0 185:1.0 11:1.0 
0.08572876764685286 1:6.0 2:4.0 3:0.0 236:1.0 6:1.0 7:1.0 4269:1.0 9:1.0 615:1.0 11:1.0 
4.571508940578486 1:7.0 2:1.0 3:0.0 166:1.0 6:1.0 7:1.0 167:1.0 9:1.0 604:1.0 11:1.0 
2.296063792686409 1:8.0 2:2.0 3:0.0 5:1.0 6:1.0 7:1.0 165:1.0 9:1.0 1021:1.0 11:1.0 
500.0 1:7.0 2:6.0 3:0.0 5:1.0 6:1.0 94:1.0 630:1.0 9:1.0 10:1.0 11:1.0 
0.3578976601704851 1:8.0 2:0.0 3:0.0 87:1.0 6:1.0 7:1.0 2565:1.0 9:1.0 4428:1.0 11:1.0 
500.0 1:8.0 2:0.0 3:0.0 87:1.0 6:1.0 7:1.0 2565:1.0 9:1.0 4428:1.0 11:1.0 
500.0 1:8.0 2:3.0 3:0.0 236:1.0 6:1.0 7:1.0 4432:1.0 9:1.0 4428:1.0 11:1.0 
0.20381466463128972 1:5.0 2:0.0 3:0.0 87:1.0 6:1.0 7:1.0 2235:1.0 9:1.0 2785:1.0 11:1.0 
0.09698551839044944 1:6.0 2:3.0 3:0.0 5:1.0 6:1.0 7:1.0 630:1.0 9:1.0 3302:1.0 145:1.0 
0.10995490400956692 1:4.0 2:2.0 3:0.0 5:1.0 6:1.0 202:1.0 319:1.0 9:1.0 4486:1.0 405:1.0 
0.2130541302094606 1:5.0 2:5.0 3:0.0 5:1.0 6:1.0 7:1.0 235:1.0 9:1.0 4518:1.0 11:1.0 
0.010909337589159709 1:6.0 2:3.0 3:0.0 236:1.0 44:1.0 7:1.0 4544:1.0 45:1.0 113:1.0 11:1.0 
500.0 1:8.0 2:4.0 3:0.0 236:1.0 6:1.0 7:1.0 4557:1.0 9:1.0 113:1.0 11:1.0 
0.06040081727690284 1:8.0 2:4.0 3:0.0 236:1.0 44:1.0 7:1.0 4557:1.0 45:1.0 113:1.0 11:1.0 
1.1665178917842254 1:8.0 2:0.0 3:0.0 87:1.0 44:1.0 7:1.0 282:1.0 45:1.0 113:1.0 11:1.0 
0.2554456851394457 1:5.0 2:0.0 3:0.0 87:1.0 6:1.0 210:1.0 1084:1.0 9:1.0 212:1.0 2759:1.0 
4.081795109262219 1:6.0 2:3.0 3:0.0 236:1.0 44:1.0 7:1.0 4604:1.0 45:1.0 113:1.0 11:1.0 
0.9364245833727503 1:5.0 2:2.0 3:0.0 5:1.0 6:1.0 53:1.0 149:1.0 9:1.0 4682:1.0 11:1.0 
498.8995154078357 1:6.0 2:4.0 3:0.0 5:1.0 6:1.0 53:1.0 832:1.0 9:1.0 10:1.0 11:1.0 
0.18659578824768902 1:7.0 2:0.0 3:0.0 87:1.0 44:1.0 7:1.0 965:1.0 45:1.0 1270:1.0 11:1.0 
220.13800975694795 1:9.0 2:3.0 3:0.0 236:1.0 6:1.0 94:1.0 378:1.0 9:1.0 10:1.0 11:1.0 
500.0 1:9.0 2:3.0 3:0.0 236:1.0 6:1.0 94:1.0 378:1.0 9:1.0 10:1.0 11:1.0 
57.6066538280086 1:9.0 2:3.0 3:0.0 236:1.0 44:1.0 94:1.0 378:1.0 45:1.0 10:1.0 11:1.0 
500.0 1:6.0 2:1.0 3:0.0 5:1.0 6:1.0 53:1.0 149:1.0 9:1.0 10:1.0 11:1.0 
1.1084252727536785 1:7.0 2:4.0 3:0.0 236:1.0 6:1.0 7:1.0 675:1.0 9:1.0 10:1.0 11:1.0 
500.0 1:6.0 2:6.0 3:0.0 236:1.0 6:1.0 7:1.0 4872:1.0 9:1.0 113:1.0 11:1.0 
2.5077079801678095 1:4.0 2:4.0 3:0.0 5:1.0 6:1.0 126:1.0 149:1.0 9:1.0 2992:1.0 129:1.0 
500.0 1:6.0 2:0.0 3:0.0 87:1.0 6:1.0 7:1.0 187:1.0 9:1.0 10:1.0 11:1.0 
0.384735514638189 1:5.0 2:4.0 3:0.0 5:1.0 6:1.0 7:1.0 434:1.0 9:1.0 3416:1.0 11:1.0 
500.0 1:5.0 2:3.0 3:0.0 5:1.0 6:1.0 89:1.0 534:1.0 9:1.0 626:1.0 93:1.0 
0.03389372301449848 1:5.0 2:0.0 3:0.0 786:1.0 6:1.0 174:1.0 5323:1.0 9:1.0 970:1.0 11:1.0 
500.0 1:11.0 2:1.0 3:0.0 69:1.0 6:1.0 7:1.0 5369:1.0 9:1.0 3358:1.0 11:1.0 
500.0 1:11.0 2:2.0 3:0.0 5:1.0 6:1.0 7:1.0 40:1.0 9:1.0 3358:1.0 11:1.0 
0.7088900093120474 1:5.0 2:5.0 3:0.0 5:1.0 6:1.0 94:1.0 3458:1.0 9:1.0 5434:1.0 11:1.0 
498.84008271197257 1:5.0 2:7.0 3:0.0 5:1.0 6:1.0 7:1.0 3458:1.0 9:1.0 113:1.0 11:1.0 
80.5381918424916 1:6.0 2:2.0 3:0.0 5:1.0 6:1.0 7:1.0 8:1.0 9:1.0 113:1.0 11:1.0 
7.061110926651427 1:6.0 2:2.0 3:0.0 5:1.0 44:1.0 7:1.0 8:1.0 45:1.0 113:1.0 11:1.0 
0.5321000386106874 1:8.0 2:2.0 3:0.0 5:1.0 6:1.0 7:1.0 235:1.0 9:1.0 5550:1.0 11:1.0 
500.0 1:7.0 2:0.0 3:0.0 87:1.0 6:1.0 7:1.0 187:1.0 9:1.0 349:1.0 11:1.0 
0.17398330141983942 1:7.0 2:0.0 3:0.0 87:1.0 6:1.0 7:1.0 418:1.0 9:1.0 349:1.0 11:1.0 
1.707692047289546 1:11.0 2:2.0 3:0.0 166:1.0 6:1.0 7:1.0 167:1.0 9:1.0 4579:1.0 11:1.0 
499.9237632793705 1:11.0 2:2.0 3:0.0 166:1.0 6:1.0 7:1.0 167:1.0 9:1.0 4579:1.0 11:1.0 
500.0 1:11.0 2:2.0 3:0.0 5:1.0 6:1.0 7:1.0 993:1.0 9:1.0 4579:1.0 11:1.0 
500.0 1:7.0 2:0.0 3:0.0 87:1.0 6:1.0 7:1.0 1142:1.0 9:1.0 2226:1.0 11:1.0 
498.07769431470786 1:7.0 2:6.0 3:0.0 5:1.0 6:1.0 174:1.0 693:1.0 9:1.0 225:1.0 11:1.0 
467.11808276623935 1:7.0 2:1.0 3:0.0 5:1.0 6:1.0 7:1.0 149:1.0 9:1.0 3416:1.0 11:1.0 
500.0 1:9.0 2:4.0 3:0.0 5:1.0 37:1.0 174:1.0 693:1.0 39:1.0 1486:1.0 119:1.0 
500.0 1:6.0 2:6.0 3:0.0 5:1.0 6:1.0 7:1.0 434:1.0 9:1.0 5975:1.0 119:1.0 
0.3921083266720635 1:6.0 2:2.0 3:0.0 5:1.0 6:1.0 174:1.0 149:1.0 9:1.0 1273:1.0 11:1.0 
499.94871823748923 1:6.0 2:0.0 3:0.0 87:1.0 304:1.0 94:1.0 6099:1.0 305:1.0 185:1.0 56:1.0 
499.57262126123663 1:6.0 2:0.0 3:0.0 87:1.0 304:1.0 94:1.0 187:1.0 305:1.0 185:1.0 56:1.0 
0.024718587149667313 1:8.0 2:0.0 3:0.0 87:1.0 6:1.0 7:1.0 2247:1.0 9:1.0 5372:1.0 11:1.0 
500.0 1:7.0 2:0.0 3:0.0 87:1.0 6:1.0 7:1.0 187:1.0 9:1.0 10:1.0 11:1.0 
500.0 1:5.0 2:1.0 3:0.0 166:1.0 6:1.0 7:1.0 167:1.0 9:1.0 10:1.0 11:1.0 
500.0 1:6.0 2:5.0 3:0.0 236:1.0 6:1.0 53:1.0 850:1.0 9:1.0 6357:1.0 11:1.0 
0.20381264998956453 1:9.0 2:8.0 3:0.0 236:1.0 6:1.0 7:1.0 378:1.0 9:1.0 6361:1.0 11:1.0 
499.8535026900874 1:9.0 2:1.0 3:0.0 5:1.0 6:1.0 7:1.0 165:1.0 9:1.0 6361:1.0 11:1.0 
32.46106736066189 1:5.0 2:3.0 3:0.0 166:1.0 6:1.0 89:1.0 167:1.0 9:1.0 6421:1.0 93:1.0 
499.9894117986258 1:10.0 2:5.0 3:0.0 276:1.0 6:1.0 94:1.0 6424:1.0 9:1.0 4601:1.0 11:1.0 
0.33592646283457195 1:5.0 2:0.0 3:0.0 87:1.0 6:1.0 126:1.0 319:1.0 9:1.0 4156:1.0 93:1.0 
11.055162683915572 1:7.0 2:5.0 3:0.0 5:1.0 6:1.0 53:1.0 693:1.0 9:1.0 2873:1.0 11:1.0 
497.43239442196744 1:7.0 2:0.0 3:0.0 87:1.0 6:1.0 53:1.0 1077:1.0 9:1.0 2873:1.0 11:1.0 
500.0 1:5.0 2:0.0 3:0.0 87:1.0 6:1.0 126:1.0 1406:1.0 9:1.0 6478:1.0 129:1.0 
0.07806630830234701 1:7.0 2:5.0 3:0.0 69:1.0 6:1.0 7:1.0 6489:1.0 9:1.0 10:1.0 11:1.0 
4.313706830488184 1:5.0 2:0.0 3:0.0 87:1.0 6:1.0 94:1.0 2069:1.0 9:1.0 185:1.0 11:1.0 
3.7944569282451353 1:8.0 2:5.0 3:0.0 5:1.0 6:1.0 174:1.0 693:1.0 9:1.0 225:1.0 11:1.0 
0.1054457680636094 1:5.0 2:4.0 3:0.0 166:1.0 6:1.0 126:1.0 167:1.0 9:1.0 4711:1.0 93:1.0 
500.0 1:5.0 2:0.0 3:0.0 87:1.0 6:1.0 126:1.0 3423:1.0 9:1.0 4711:1.0 93:1.0 
499.93512298063297 1:5.0 2:0.0 3:0.0 87:1.0 6:1.0 53:1.0 187:1.0 9:1.0 349:1.0 119:1.0 
500.0 1:7.0 2:3.0 3:0.0 5:1.0 6:1.0 7:1.0 3732:1.0 9:1.0 185:1.0 119:1.0 
500.0 1:9.0 2:2.0 3:0.0 5:1.0 6:1.0 7:1.0 235:1.0 9:1.0 55:1.0 11:1.0 
0.286554740329629 1:9.0 2:0.0 3:0.0 87:1.0 6:1.0 174:1.0 6730:1.0 9:1.0 1486:1.0 11:1.0 
0.004296667390963878 1:9.0 2:0.0 3:0.0 87:1.0 304:1.0 174:1.0 6730:1.0 6553:1.0 1486:1.0 11:1.0 
0.004123107988594773 1:9.0 2:0.0 3:0.0 87:1.0 44:1.0 174:1.0 6730:1.0 45:1.0 1486:1.0 11:1.0 
500.0 1:5.0 2:0.0 3:0.0 87:1.0 6:1.0 7:1.0 2565:1.0 9:1.0 323:1.0 11:1.0 
500.0 1:5.0 2:6.0 3:0.0 5:1.0 6:1.0 7:1.0 235:1.0 9:1.0 10:1.0 11:1.0 
2.278354109824327 1:8.0 2:1.0 3:0.0 5:1.0 6:1.0 94:1.0 218:1.0 9:1.0 1201:1.0 11:1.0 
500.0 1:8.0 2:1.0 3:0.0 5:1.0 6:1.0 94:1.0 149:1.0 9:1.0 1201:1.0 11:1.0 
500.0 1:7.0 2:4.0 3:0.0 5:1.0 6:1.0 7:1.0 630:1.0 9:1.0 10:1.0 11:1.0 
0.1634468892377631 1:6.0 2:9.0 3:0.0 5:1.0 6:1.0 94:1.0 3458:1.0 9:1.0 1430:1.0 11:1.0 
76.51950963019935 1:5.0 2:5.0 3:0.0 5:1.0 6:1.0 7:1.0 8:1.0 9:1.0 113:1.0 11:1.0 
0.1297026947249952 1:6.0 2:3.0 3:0.0 236:1.0 6:1.0 53:1.0 7078:1.0 9:1.0 185:1.0 11:1.0 
500.0 1:5.0 2:0.0 3:0.0 87:1.0 6:1.0 174:1.0 187:1.0 9:1.0 877:1.0 119:1.0 
500.0 1:4.0 2:3.0 3:0.0 5:1.0 6:1.0 89:1.0 235:1.0 9:1.0 7155:1.0 93:1.0 
0.3122079675614788 1:5.0 2:0.0 3:0.0 125:1.0 6:1.0 53:1.0 1781:1.0 9:1.0 584:1.0 11:1.0 
0.09534969378588101 1:8.0 2:4.0 3:0.0 236:1.0 6:1.0 53:1.0 7186:1.0 9:1.0 332:1.0 11:1.0 
0.32523932784205806 1:5.0 2:2.0 3:0.0 5:1.0 6:1.0 7:1.0 235:1.0 9:1.0 7192:1.0 11:1.0 
0.5325374032824278 1:6.0 2:1.0 3:0.0 5:1.0 6:1.0 126:1.0 8:1.0 9:1.0 185:1.0 11:1.0 
500.0 1:7.0 2:5.0 3:0.0 5:1.0 6:1.0 53:1.0 235:1.0 9:1.0 10:1.0 11:1.0 
0.22864733403941873 1:5.0 2:0.0 3:0.0 87:1.0 6:1.0 174:1.0 7213:1.0 9:1.0 177:1.0 11:1.0 
0.05322321037811061 1:7.0 2:5.0 3:0.0 5:1.0 6:1.0 53:1.0 3458:1.0 9:1.0 718:1.0 11:1.0 
0.3537163351363428 1:6.0 2:0.0 3:0.0 87:1.0 6:1.0 174:1.0 1077:1.0 9:1.0 1486:1.0 11:1.0 
0.2929056151234161 1:3.0 2:3.0 3:0.0 5:1.0 6:1.0 126:1.0 165:1.0 9:1.0 851:1.0 93:1.0 
2.8044512282397434 1:7.0 2:3.0 3:0.0 5:1.0 6:1.0 7:1.0 165:1.0 9:1.0 2284:1.0 11:1.0 
4.010088625350218 1:7.0 2:1.0 3:0.0 5:1.0 6:1.0 53:1.0 434:1.0 9:1.0 2145:1.0 11:1.0 
0.5435985509923195 1:7.0 2:1.0 3:0.0 5:1.0 6:1.0 53:1.0 8:1.0 9:1.0 7395:1.0 11:1.0 
0.010728228027292838 1:6.0 2:0.0 3:0.0 87:1.0 6:1.0 53:1.0 7402:1.0 9:1.0 5087:1.0 119:1.0 
0.19332925753584795 1:6.0 2:0.0 3:0.0 87:1.0 6:1.0 7:1.0 2607:1.0 9:1.0 4911:1.0 11:1.0 
0.06618308923889758 1:6.0 2:0.0 3:0.0 125:1.0 6:1.0 7:1.0 7455:1.0 9:1.0 5475:1.0 11:1.0 
1.6900392639213917 1:5.0 2:0.0 3:0.0 87:1.0 6:1.0 94:1.0 4469:1.0 9:1.0 185:1.0 11:1.0 
2.469184418164099 1:3.0 2:1.0 3:0.0 5:1.0 6:1.0 126:1.0 630:1.0 9:1.0 831:1.0 129:1.0 
0.07874746978192262 1:5.0 2:0.0 3:0.0 87:1.0 6:1.0 174:1.0 2755:1.0 9:1.0 177:1.0 119:1.0 
500.0 1:6.0 2:0.0 3:0.0 87:1.0 6:1.0 94:1.0 187:1.0 9:1.0 185:1.0 11:1.0 
500.0 1:8.0 2:11.0 3:0.0 5:1.0 6:1.0 94:1.0 235:1.0 9:1.0 10:1.0 11:1.0 
500.0 1:6.0 2:1.0 3:0.0 5:1.0 6:1.0 7:1.0 149:1.0 9:1.0 2100:1.0 11:1.0 
0.12219654896560006 1:7.0 2:1.0 3:0.0 5:1.0 6:1.0 53:1.0 40:1.0 9:1.0 185:1.0 11:1.0 
500.0 1:4.0 2:1.0 3:0.0 5:1.0 6:1.0 126:1.0 25:1.0 9:1.0 4817:1.0 93:1.0 
280.52650569964925 1:7.0 2:9.0 3:0.0 5:1.0 6:1.0 7:1.0 3458:1.0 9:1.0 113:1.0 11:1.0 
2.9412454482896218 1:12.0 2:1.0 3:0.0 5:1.0 6:1.0 7:1.0 149:1.0 9:1.0 188:1.0 11:1.0 
492.1322016317659 1:12.0 2:1.0 3:0.0 5:1.0 6:1.0 7:1.0 149:1.0 9:1.0 188:1.0 11:1.0 
500.0 1:12.0 2:0.0 3:0.0 87:1.0 6:1.0 7:1.0 5604:1.0 9:1.0 188:1.0 11:1.0 
500.0 1:12.0 2:4.0 3:0.0 166:1.0 6:1.0 7:1.0 167:1.0 9:1.0 188:1.0 11:1.0 
208.99003199388167 1:7.0 2:0.0 3:0.0 87:1.0 6:1.0 53:1.0 187:1.0 9:1.0 2012:1.0 11:1.0 
0.2133972990224465 1:7.0 2:0.0 3:0.0 87:1.0 6:1.0 7:1.0 1406:1.0 9:1.0 4203:1.0 11:1.0 
19.32368480324165 1:6.0 2:0.0 3:0.0 87:1.0 6:1.0 7:1.0 282:1.0 9:1.0 113:1.0 11:1.0 
500.0 1:6.0 2:0.0 3:0.0 87:1.0 6:1.0 7:1.0 282:1.0 9:1.0 113:1.0 11:1.0 
500.0 1:7.0 2:7.0 3:0.0 236:1.0 6:1.0 7:1.0 8161:1.0 9:1.0 1047:1.0 11:1.0 
499.7957020854214 1:5.0 2:3.0 3:0.0 5:1.0 6:1.0 53:1.0 4443:1.0 9:1.0 185:1.0 119:1.0 
500.0 1:6.0 2:5.0 3:0.0 236:1.0 6:1.0 94:1.0 378:1.0 9:1.0 185:1.0 11:1.0 
0.45073883782073143 1:7.0 2:5.0 3:0.0 5:1.0 304:1.0 7:1.0 434:1.0 1444:1.0 6436:1.0 11:1.0 
0.3612670170727284 1:8.0 2:3.0 3:0.0 5:1.0 37:1.0 7:1.0 434:1.0 39:1.0 323:1.0 11:1.0 
5.133076701766639 1:5.0 2:6.0 3:0.0 5:1.0 6:1.0 7:1.0 832:1.0 9:1.0 3416:1.0 11:1.0 
5.801998804474068 1:6.0 2:8.0 3:0.0 5:1.0 6:1.0 126:1.0 149:1.0 9:1.0 2873:1.0 93:1.0 
0.032574967767293975 1:5.0 2:2.0 3:0.0 472:1.0 6:1.0 7:1.0 5968:1.0 9:1.0 10:1.0 11:1.0 
26.15624024044583 1:6.0 2:8.0 3:0.0 5:1.0 6:1.0 7:1.0 693:1.0 9:1.0 10:1.0 11:1.0 
0.16038558889788687 1:6.0 2:3.0 3:0.0 236:1.0 6:1.0 7:1.0 1511:1.0 9:1.0 689:1.0 11:1.0 
3.166893544439675 1:5.0 2:0.0 3:0.0 87:1.0 6:1.0 94:1.0 965:1.0 9:1.0 10:1.0 11:1.0 
0.2720114176045478 1:7.0 2:2.0 3:0.0 5:1.0 6:1.0 94:1.0 434:1.0 9:1.0 349:1.0 119:1.0 
170.59867859578827 1:6.0 2:2.0 3:0.0 5:1.0 6:1.0 53:1.0 434:1.0 9:1.0 10:1.0 11:1.0 
0.1066083385728373 1:7.0 2:0.0 3:0.0 87:1.0 6:1.0 174:1.0 6730:1.0 9:1.0 177:1.0 11:1.0 
500.0 1:7.0 2:0.0 3:0.0 87:1.0 6:1.0 174:1.0 1077:1.0 9:1.0 177:1.0 11:1.0 
500.0 1:5.0 2:0.0 3:0.0 87:1.0 6:1.0 53:1.0 502:1.0 9:1.0 10:1.0 119:1.0 
500.0 1:6.0 2:0.0 3:0.0 87:1.0 6:1.0 94:1.0 1077:1.0 9:1.0 550:1.0 11:1.0 
500.0 1:6.0 2:0.0 3:0.0 87:1.0 6:1.0 94:1.0 187:1.0 9:1.0 185:1.0 11:1.0 
1.623239787398369 1:6.0 2:7.0 3:0.0 5:1.0 6:1.0 7:1.0 235:1.0 9:1.0 2284:1.0 11:1.0 
0.14979066410600975 1:5.0 2:9.0 3:0.0 5:1.0 6:1.0 7:1.0 235:1.0 9:1.0 5475:1.0 119:1.0 
346.9763859573416 1:7.0 2:3.0 3:0.0 5:1.0 6:1.0 7:1.0 3458:1.0 9:1.0 113:1.0 11:1.0 
0.5828146232036611 1:4.0 2:2.0 3:0.0 5:1.0 6:1.0 126:1.0 630:1.0 9:1.0 615:1.0 129:1.0 
0.40774035135479625 1:7.0 2:0.0 3:0.0 87:1.0 37:1.0 7:1.0 4596:1.0 39:1.0 113:1.0 11:1.0 
0.012872722828665601 1:5.0 2:10.0 3:0.0 87:1.0 6:1.0 94:1.0 2073:1.0 9:1.0 10:1.0 11:1.0 
0.3394454110849994 1:4.0 2:3.0 3:0.0 276:1.0 6:1.0 94:1.0 1442:1.0 9:1.0 10:1.0 291:1.0 
500.0 1:6.0 2:8.0 3:0.0 5:1.0 6:1.0 7:1.0 832:1.0 9:1.0 10:1.0 11:1.0 
500.0 1:6.0 2:0.0 3:0.0 87:1.0 6:1.0 94:1.0 282:1.0 9:1.0 185:1.0 11:1.0 
0.050140675454754445 1:7.0 2:0.0 3:0.0 87:1.0 6:1.0 7:1.0 9229:1.0 9:1.0 349:1.0 11:1.0 
500.0 1:7.0 2:0.0 3:0.0 87:1.0 6:1.0 7:1.0 187:1.0 9:1.0 349:1.0 11:1.0 
499.9908537475167 1:7.0 2:4.0 3:0.0 236:1.0 6:1.0 428:1.0 378:1.0 9:1.0 9244:1.0 11:1.0 
0.1537378131543313 1:7.0 2:4.0 3:0.0 236:1.0 37:1.0 428:1.0 378:1.0 39:1.0 9244:1.0 11:1.0 
0.008518969940824673 1:7.0 2:4.0 3:0.0 236:1.0 44:1.0 428:1.0 378:1.0 45:1.0 9244:1.0 11:1.0 
500.0 1:6.0 2:0.0 3:0.0 87:1.0 6:1.0 53:1.0 187:1.0 9:1.0 10:1.0 11:1.0 
0.5335258565918617 1:5.0 2:6.0 3:0.0 328:1.0 6:1.0 94:1.0 295:1.0 9:1.0 10:1.0 11:1.0 
0.12062941226569723 1:8.0 2:0.0 3:0.0 87:1.0 6:1.0 53:1.0 2843:1.0 9:1.0 2530:1.0 11:1.0 
500.0 1:8.0 2:1.0 3:0.0 236:1.0 6:1.0 53:1.0 2112:1.0 9:1.0 2530:1.0 11:1.0 
0.17019778604710215 1:4.0 2:0.0 3:0.0 87:1.0 6:1.0 89:1.0 1084:1.0 9:1.0 1894:1.0 145:1.0 
0.15156984369397974 1:6.0 2:0.0 3:0.0 87:1.0 6:1.0 94:1.0 1084:1.0 9:1.0 7245:1.0 197:1.0 
0.22545783844468165 1:6.0 2:0.0 3:0.0 786:1.0 6:1.0 7:1.0 2709:1.0 9:1.0 128:1.0 11:1.0 
500.0 1:9.0 2:6.0 3:0.0 236:1.0 44:1.0 7:1.0 1442:1.0 45:1.0 9439:1.0 11:1.0 
1.189968592738561 1:5.0 2:2.0 3:0.0 236:1.0 6:1.0 174:1.0 329:1.0 9:1.0 1273:1.0 11:1.0 
0.025174440380983484 1:5.0 2:0.0 3:0.0 87:1.0 6:1.0 53:1.0 4469:1.0 9:1.0 2145:1.0 11:1.0 
0.15456632030507714 1:5.0 2:4.0 3:0.0 5:1.0 6:1.0 7:1.0 3732:1.0 9:1.0 3587:1.0 11:1.0 
500.0 1:7.0 2:3.0 3:0.0 5:1.0 6:1.0 7:1.0 40:1.0 9:1.0 3358:1.0 11:1.0 
500.0 1:6.0 2:2.0 3:0.0 5:1.0 6:1.0 94:1.0 693:1.0 9:1.0 10:1.0 119:1.0 
500.0 1:6.0 2:1.0 3:0.0 5:1.0 6:1.0 53:1.0 693:1.0 9:1.0 9742:1.0 119:1.0 
500.0 1:6.0 2:3.0 3:0.0 5:1.0 6:1.0 94:1.0 4443:1.0 9:1.0 185:1.0 11:1.0 
500.0 1:6.0 2:0.0 3:0.0 87:1.0 6:1.0 174:1.0 187:1.0 9:1.0 1486:1.0 11:1.0 
0.11061034861762216 1:6.0 2:1.0 3:0.0 69:1.0 6:1.0 7:1.0 9785:1.0 9:1.0 8954:1.0 405:1.0 
500.0 1:5.0 2:1.0 3:0.0 5:1.0 6:1.0 126:1.0 149:1.0 9:1.0 2100:1.0 213:1.0 
0.700304958637802 1:5.0 2:2.0 3:0.0 69:1.0 6:1.0 126:1.0 149:1.0 9:1.0 349:1.0 93:1.0 
500.0 1:6.0 2:0.0 3:0.0 87:1.0 6:1.0 94:1.0 1142:1.0 9:1.0 9841:1.0 11:1.0 
52.21833648988369 1:5.0 2:2.0 3:0.0 5:1.0 6:1.0 94:1.0 630:1.0 9:1.0 185:1.0 11:1.0 
0.04027201183240438 1:6.0 2:2.0 3:0.0 236:1.0 6:1.0 7:1.0 9970:1.0 9:1.0 9548:1.0 11:1.0 
0.3655827069725866 1:8.0 2:3.0 3:0.0 5:1.0 37:1.0 7:1.0 434:1.0 39:1.0 113:1.0 11:1.0 
499.1128874678431 1:6.0 2:7.0 3:0.0 5:1.0 6:1.0 174:1.0 534:1.0 9:1.0 1486:1.0 119:1.0 
0.32512200115761347 1:7.0 2:13.0 3:0.0 5:1.0 304:1.0 174:1.0 693:1.0 305:1.0 225:1.0 2772:1.0 
0.02802996743254119 1:4.0 2:0.0 3:0.0 87:1.0 6:1.0 1448:1.0 1142:1.0 9:1.0 1450:1.0 405:1.0 
0.48482205578373166 1:7.0 2:0.0 3:0.0 87:1.0 6:1.0 174:1.0 965:1.0 9:1.0 225:1.0 2772:1.0 
0.1265812242905839 1:5.0 2:3.0 3:0.0 166:1.0 6:1.0 202:1.0 167:1.0 9:1.0 2188:1.0 24:1.0 
0.05710381113169773 1:6.0 2:9.0 3:0.0 276:1.0 37:1.0 7:1.0 529:1.0 39:1.0 113:1.0 2772:1.0 
56.26015017360028 1:5.0 2:0.0 3:0.0 87:1.0 6:1.0 94:1.0 187:1.0 9:1.0 10:1.0 119:1.0 
0.04416501316688934 1:5.0 2:5.0 3:0.0 386:1.0 44:1.0 94:1.0 4154:1.0 45:1.0 10:1.0 11:1.0 
0.09255903575264378 1:3.0 2:0.0 3:0.0 87:1.0 16:1.0 174:1.0 187:1.0 17:1.0 877:1.0 11:1.0 
0.37580043673030167 1:5.0 2:1.0 3:0.0 236:1.0 6:1.0 94:1.0 10158:1.0 9:1.0 10:1.0 11:1.0 
0.06568750555467401 1:7.0 2:6.0 3:0.0 5:1.0 6:1.0 53:1.0 693:1.0 9:1.0 8970:1.0 11:1.0 
24.495482640213165 1:8.0 2:2.0 3:0.0 5:1.0 6:1.0 174:1.0 149:1.0 9:1.0 225:1.0 119:1.0 
500.0 1:5.0 2:0.0 3:0.0 87:1.0 6:1.0 53:1.0 187:1.0 9:1.0 349:1.0 119:1.0 
0.42832636899335524 1:6.0 2:1.0 3:0.0 5:1.0 6:1.0 53:1.0 149:1.0 9:1.0 185:1.0 11:1.0 
499.89489111788646 1:5.0 2:4.0 3:0.0 5:1.0 6:1.0 53:1.0 693:1.0 9:1.0 10082:1.0 197:1.0 
499.6914278102036 1:6.0 2:0.0 3:0.0 5:1.0 6:1.0 53:1.0 832:1.0 9:1.0 1894:1.0 11:1.0 
0.3105688683844875 1:6.0 2:3.0 3:0.0 236:1.0 6:1.0 7:1.0 10152:1.0 9:1.0 848:1.0 11:1.0 
0.25753904309316794 1:5.0 2:2.0 3:0.0 5:1.0 6:1.0 7:1.0 165:1.0 9:1.0 55:1.0 119:1.0 
500.0 1:9.0 2:3.0 3:0.0 87:1.0 6:1.0 7:1.0 614:1.0 9:1.0 1082:1.0 11:1.0 
0.023841899798943314 1:6.0 2:2.0 3:0.0 236:1.0 6:1.0 7:1.0 10582:1.0 9:1.0 287:1.0 11:1.0 
0.019579313212064887 1:6.0 2:0.0 3:0.0 87:1.0 6:1.0 7:1.0 10602:1.0 9:1.0 666:1.0 11:1.0 
0.12468353331896145 1:7.0 2:0.0 3:0.0 87:1.0 44:1.0 174:1.0 351:1.0 45:1.0 877:1.0 11:1.0 
50.961279558873684 1:7.0 2:4.0 3:0.0 5:1.0 6:1.0 7:1.0 434:1.0 9:1.0 834:1.0 11:1.0 
0.06475098005970209 1:5.0 2:0.0 3:0.0 87:1.0 6:1.0 94:1.0 824:1.0 9:1.0 185:1.0 11:1.0 
0.08600736101033289 1:5.0 2:6.0 3:0.0 236:1.0 6:1.0 7:1.0 378:1.0 9:1.0 10505:1.0 11:1.0 
498.58621208486295 1:5.0 2:1.0 3:0.0 5:1.0 6:1.0 174:1.0 8:1.0 9:1.0 1486:1.0 119:1.0 
0.02269893043767054 1:6.0 2:1.0 3:0.0 87:1.0 6:1.0 7:1.0 10747:1.0 9:1.0 7162:1.0 11:1.0 
500.0 1:5.0 2:4.0 3:0.0 5:1.0 304:1.0 7:1.0 149:1.0 305:1.0 2873:1.0 56:1.0 
2.0420716939085297 1:5.0 2:4.0 3:0.0 5:1.0 6:1.0 89:1.0 948:1.0 9:1.0 10832:1.0 93:1.0 
500.0 1:8.0 2:2.0 3:0.0 5:1.0 6:1.0 7:1.0 310:1.0 9:1.0 371:1.0 11:1.0 
1.5418709247319315 1:6.0 2:0.0 3:0.0 87:1.0 6:1.0 7:1.0 861:1.0 9:1.0 185:1.0 119:1.0 
500.0 1:6.0 2:2.0 3:0.0 5:1.0 6:1.0 7:1.0 2843:1.0 9:1.0 2245:1.0 405:1.0 
500.0 1:6.0 2:2.0 3:0.0 5:1.0 6:1.0 7:1.0 2843:1.0 9:1.0 2245:1.0 145:1.0 
500.0 1:9.0 2:3.0 3:0.0 5:1.0 6:1.0 7:1.0 993:1.0 9:1.0 10970:1.0 11:1.0 
0.1687423978888978 1:5.0 2:2.0 3:0.0 5:1.0 6:1.0 7:1.0 630:1.0 9:1.0 11038:1.0 11:1.0 
1.617585145655025 1:5.0 2:0.0 3:0.0 87:1.0 37:1.0 7:1.0 861:1.0 39:1.0 11040:1.0 197:1.0 
1.572710918174421 1:9.0 2:2.0 3:0.0 5:1.0 6:1.0 94:1.0 693:1.0 9:1.0 349:1.0 11:1.0 
500.0 1:9.0 2:4.0 3:0.0 5:1.0 37:1.0 174:1.0 693:1.0 39:1.0 177:1.0 119:1.0 
9.20091905508966E-4 1:4.0 2:4.0 3:0.0 5:1.0 6:1.0 202:1.0 948:1.0 9:1.0 2603:1.0 213:1.0 
1.076611880140253 1:4.0 2:4.0 3:0.0 5:1.0 6:1.0 53:1.0 630:1.0 9:1.0 2428:1.0 405:1.0 
0.48829951110912007 1:4.0 2:0.0 3:0.0 87:1.0 37:1.0 174:1.0 5749:1.0 39:1.0 970:1.0 119:1.0 
220.1824960072361 1:6.0 2:4.0 3:0.0 5:1.0 6:1.0 53:1.0 40:1.0 9:1.0 10:1.0 11:1.0 
0.011549345366939271 1:9.0 2:1.0 3:0.0 69:1.0 6:1.0 575:1.0 720:1.0 9:1.0 578:1.0 24:1.0 
365.65296120467315 1:10.0 2:2.0 3:0.0 5:1.0 6:1.0 7:1.0 40:1.0 9:1.0 3358:1.0 11:1.0 
500.0 1:10.0 2:2.0 3:0.0 5:1.0 6:1.0 7:1.0 40:1.0 9:1.0 3358:1.0 11:1.0 
500.0 1:10.0 2:2.0 3:0.0 5:1.0 6:1.0 7:1.0 614:1.0 9:1.0 3358:1.0 11:1.0 
500.0 1:6.0 2:2.0 3:0.0 5:1.0 6:1.0 7:1.0 2843:1.0 9:1.0 3358:1.0 11:1.0 
498.5021286670036 1:7.0 2:0.0 3:0.0 125:1.0 6:1.0 7:1.0 1781:1.0 9:1.0 10442:1.0 11:1.0 
0.04618822564276981 1:7.0 2:4.0 3:0.0 236:1.0 6:1.0 174:1.0 7285:1.0 9:1.0 1486:1.0 11:1.0 
0.027589633821036144 1:7.0 2:4.0 3:0.0 236:1.0 44:1.0 174:1.0 7285:1.0 45:1.0 1486:1.0 11:1.0 
0.11574455310965076 1:4.0 2:2.0 3:0.0 5:1.0 6:1.0 126:1.0 8:1.0 9:1.0 7832:1.0 93:1.0 
500.0 1:6.0 2:0.0 3:0.0 87:1.0 6:1.0 174:1.0 187:1.0 9:1.0 970:1.0 11:1.0 
0.05242067724968321 1:4.0 2:1.0 3:0.0 166:1.0 6:1.0 202:1.0 167:1.0 9:1.0 113:1.0 93:1.0 
0.2706302393005619 1:7.0 2:2.0 3:0.0 166:1.0 6:1.0 94:1.0 167:1.0 9:1.0 3488:1.0 11:1.0 
500.0 1:7.0 2:4.0 3:0.0 236:1.0 6:1.0 7:1.0 3986:1.0 9:1.0 3167:1.0 119:1.0 
0.11088869027877674 1:6.0 2:6.0 3:0.0 5:1.0 6:1.0 53:1.0 3732:1.0 9:1.0 3686:1.0 11:1.0 
0.04545761234175198 1:6.0 2:9.0 3:0.0 276:1.0 16:1.0 7:1.0 4044:1.0 17:1.0 3167:1.0 11:1.0 
0.27074813889395627 1:8.0 2:1.0 3:0.0 5:1.0 6:1.0 7:1.0 149:1.0 9:1.0 11522:1.0 11:1.0 
189.539198409855 1:6.0 2:4.0 3:0.0 5:1.0 6:1.0 7:1.0 149:1.0 9:1.0 3167:1.0 11:1.0 
310.4757895526833 1:5.0 2:2.0 3:0.0 5:1.0 6:1.0 7:1.0 149:1.0 9:1.0 3167:1.0 11:1.0 
2.679589008344258 1:8.0 2:7.0 3:0.0 236:1.0 6:1.0 7:1.0 675:1.0 9:1.0 3167:1.0 11:1.0 
1.980789286217717 1:6.0 2:0.0 3:0.0 87:1.0 6:1.0 94:1.0 1077:1.0 9:1.0 10:1.0 11:1.0 
0.14282535066428004 1:6.0 2:4.0 3:0.0 5:1.0 6:1.0 7:1.0 3732:1.0 9:1.0 97:1.0 11:1.0 
0.16414437444862734 1:4.0 2:2.0 3:0.0 5:1.0 6:1.0 202:1.0 165:1.0 9:1.0 7053:1.0 213:1.0 
0.2569086386505468 1:7.0 2:7.0 3:0.0 5:1.0 6:1.0 94:1.0 693:1.0 9:1.0 1021:1.0 11:1.0 
1.1034544544858744 1:7.0 2:7.0 3:0.0 5:1.0 44:1.0 94:1.0 693:1.0 45:1.0 1021:1.0 11:1.0 
0.19559830455979013 1:6.0 2:0.0 3:0.0 87:1.0 6:1.0 94:1.0 351:1.0 9:1.0 113:1.0 197:1.0 
0.25507335955325144 1:6.0 2:0.0 3:0.0 87:1.0 37:1.0 94:1.0 351:1.0 7764:1.0 113:1.0 197:1.0 
500.0 1:5.0 2:0.0 3:0.0 87:1.0 6:1.0 126:1.0 1142:1.0 9:1.0 185:1.0 119:1.0 
85.7920199448013 1:6.0 2:7.0 3:0.0 5:1.0 6:1.0 94:1.0 693:1.0 9:1.0 10:1.0 11:1.0 
500.0 1:5.0 2:5.0 3:0.0 5:1.0 6:1.0 7:1.0 534:1.0 9:1.0 10:1.0 11:1.0 
0.1409292748893218 1:5.0 2:3.0 3:0.0 5:1.0 6:1.0 89:1.0 2155:1.0 9:1.0 6183:1.0 93:1.0 
500.0 1:5.0 2:6.0 3:0.0 5:1.0 6:1.0 89:1.0 630:1.0 9:1.0 6183:1.0 93:1.0 
500.0 1:6.0 2:4.0 3:0.0 5:1.0 6:1.0 94:1.0 630:1.0 9:1.0 185:1.0 11:1.0 
0.8940387223353943 1:5.0 2:3.0 3:0.0 276:1.0 6:1.0 7:1.0 2237:1.0 9:1.0 3193:1.0 11:1.0 
0.056948202358262666 1:5.0 2:2.0 3:0.0 236:1.0 6:1.0 174:1.0 6168:1.0 9:1.0 177:1.0 11:1.0 
500.0 1:7.0 2:0.0 3:0.0 87:1.0 6:1.0 7:1.0 1142:1.0 9:1.0 185:1.0 11:1.0 
0.33645299119666827 1:4.0 2:4.0 3:0.0 166:1.0 6:1.0 89:1.0 167:1.0 9:1.0 5335:1.0 93:1.0 
499.9319001335883 1:5.0 2:2.0 3:0.0 5:1.0 6:1.0 53:1.0 8:1.0 9:1.0 7162:1.0 197:1.0 
1.7176644833717212 1:5.0 2:1.0 3:0.0 5:1.0 6:1.0 174:1.0 149:1.0 9:1.0 1273:1.0 11:1.0 
0.1369621011499654 1:5.0 2:2.0 3:0.0 5:1.0 6:1.0 126:1.0 149:1.0 9:1.0 5059:1.0 93:1.0 
500.0 1:5.0 2:0.0 3:0.0 87:1.0 6:1.0 126:1.0 1077:1.0 9:1.0 9676:1.0 93:1.0 
500.0 1:6.0 2:6.0 3:0.0 5:1.0 6:1.0 7:1.0 630:1.0 9:1.0 10:1.0 11:1.0 
0.31116190737187016 1:6.0 2:6.0 3:0.0 5:1.0 44:1.0 7:1.0 630:1.0 45:1.0 10:1.0 11:1.0 
499.3902233707387 1:6.0 2:0.0 3:0.0 87:1.0 6:1.0 94:1.0 4596:1.0 9:1.0 10:1.0 11:1.0 
499.0347708325133 1:6.0 2:1.0 3:0.0 5:1.0 6:1.0 94:1.0 2845:1.0 9:1.0 12103:1.0 11:1.0 
0.6032679075680243 1:6.0 2:2.0 3:0.0 5:1.0 304:1.0 202:1.0 165:1.0 768:1.0 12124:1.0 11:1.0 
0.9162482132442694 1:6.0 2:2.0 3:0.0 5:1.0 37:1.0 202:1.0 165:1.0 39:1.0 12124:1.0 11:1.0 
0.7533188023663501 1:6.0 2:2.0 3:0.0 5:1.0 44:1.0 202:1.0 165:1.0 45:1.0 12124:1.0 11:1.0 
0.06398526603415434 1:6.0 2:4.0 3:0.0 5:1.0 6:1.0 174:1.0 630:1.0 9:1.0 177:1.0 119:1.0 
500.0 1:7.0 2:0.0 3:0.0 87:1.0 6:1.0 7:1.0 1077:1.0 9:1.0 834:1.0 11:1.0 
2.2233217560682794 1:5.0 2:6.0 3:0.0 5:1.0 6:1.0 7:1.0 8:1.0 9:1.0 5550:1.0 11:1.0 
500.0 1:6.0 2:2.0 3:0.0 236:1.0 6:1.0 126:1.0 378:1.0 9:1.0 1875:1.0 93:1.0 
0.3091119881544078 1:5.0 2:5.0 3:0.0 166:1.0 6:1.0 7:1.0 167:1.0 9:1.0 3758:1.0 119:1.0 
0.1523948266205895 1:7.0 2:0.0 3:0.0 87:1.0 44:1.0 53:1.0 2235:1.0 45:1.0 349:1.0 11:1.0 
500.0 1:6.0 2:0.0 3:0.0 87:1.0 6:1.0 7:1.0 1077:1.0 9:1.0 12136:1.0 291:1.0 
0.06534388110421349 1:6.0 2:0.0 3:0.0 87:1.0 44:1.0 7:1.0 1406:1.0 45:1.0 5606:1.0 119:1.0 
0.19910029722238062 1:4.0 2:3.0 3:0.0 5:1.0 6:1.0 202:1.0 40:1.0 9:1.0 134:1.0 93:1.0 
499.9901017248587 1:5.0 2:0.0 3:0.0 5:1.0 6:1.0 89:1.0 832:1.0 9:1.0 10705:1.0 93:1.0 
53.95991088911967 1:7.0 2:4.0 3:0.0 5:1.0 6:1.0 7:1.0 8:1.0 9:1.0 3676:1.0 11:1.0 
0.5248080004654454 1:5.0 2:0.0 3:0.0 87:1.0 6:1.0 7:1.0 282:1.0 9:1.0 682:1.0 291:1.0 
11.660163991913373 1:5.0 2:3.0 3:0.0 166:1.0 6:1.0 7:1.0 167:1.0 9:1.0 5888:1.0 11:1.0 
500.0 1:8.0 2:5.0 3:0.0 5:1.0 6:1.0 7:1.0 4385:1.0 9:1.0 3991:1.0 11:1.0 
24.79136084289172 1:6.0 2:15.0 3:0.0 5:1.0 6:1.0 7:1.0 630:1.0 9:1.0 4363:1.0 11:1.0 
0.22107495323321066 1:4.0 2:2.0 3:0.0 5:1.0 6:1.0 7:1.0 40:1.0 9:1.0 12699:1.0 93:1.0 
0.08718660251997579 1:3.0 2:1.0 3:0.0 67:1.0 16:1.0 7:1.0 720:1.0 17:1.0 3691:1.0 11:1.0 
0.4108957992500365 1:5.0 2:4.0 3:0.0 5:1.0 6:1.0 7:1.0 993:1.0 9:1.0 5606:1.0 11:1.0 
0.8549565640024691 1:5.0 2:6.0 3:0.0 5:1.0 6:1.0 94:1.0 629:1.0 9:1.0 10:1.0 11:1.0 
0.03537463829492881 1:5.0 2:0.0 3:0.0 87:1.0 6:1.0 202:1.0 12850:1.0 9:1.0 3862:1.0 83:1.0 
500.0 1:5.0 2:3.0 3:0.0 5:1.0 6:1.0 202:1.0 235:1.0 9:1.0 3862:1.0 83:1.0 
500.0 1:6.0 2:0.0 3:0.0 87:1.0 6:1.0 94:1.0 187:1.0 9:1.0 185:1.0 11:1.0 
500.0 1:6.0 2:0.0 3:0.0 87:1.0 6:1.0 7:1.0 282:1.0 9:1.0 113:1.0 11:1.0 
500.0 1:6.0 2:0.0 3:0.0 87:1.0 6:1.0 7:1.0 282:1.0 9:1.0 113:1.0 11:1.0 
1.9029713129430395 1:7.0 2:1.0 3:0.0 5:1.0 6:1.0 7:1.0 149:1.0 9:1.0 4711:1.0 11:1.0 
500.0 1:6.0 2:5.0 3:0.0 5:1.0 6:1.0 94:1.0 534:1.0 9:1.0 10:1.0 11:1.0 
12.475066634759061 1:6.0 2:3.0 3:0.0 5:1.0 6:1.0 94:1.0 3732:1.0 9:1.0 10:1.0 119:1.0 
499.98721553508517 1:9.0 2:0.0 3:0.0 87:1.0 6:1.0 7:1.0 1077:1.0 9:1.0 113:1.0 11:1.0 
0.046521712381988586 1:5.0 2:1.0 3:0.0 69:1.0 6:1.0 575:1.0 720:1.0 9:1.0 578:1.0 24:1.0 
500.0 1:5.0 2:1.0 3:0.0 5:1.0 6:1.0 7:1.0 614:1.0 9:1.0 3815:1.0 11:1.0 
1.5410426827070387 1:6.0 2:2.0 3:0.0 166:1.0 6:1.0 7:1.0 167:1.0 9:1.0 321:1.0 11:1.0 
1.1889802405748393 1:3.0 2:2.0 3:0.0 5:1.0 6:1.0 126:1.0 948:1.0 9:1.0 3802:1.0 93:1.0 
500.0 1:6.0 2:0.0 3:0.0 87:1.0 6:1.0 174:1.0 187:1.0 9:1.0 877:1.0 119:1.0 
500.0 1:6.0 2:5.0 3:0.0 276:1.0 6:1.0 7:1.0 1442:1.0 9:1.0 4330:1.0 119:1.0 
499.1985512181566 1:8.0 2:0.0 3:0.0 87:1.0 6:1.0 7:1.0 1077:1.0 9:1.0 185:1.0 11:1.0 
500.0 1:8.0 2:4.0 3:0.0 5:1.0 6:1.0 7:1.0 6953:1.0 9:1.0 3236:1.0 11:1.0 
500.0 1:5.0 2:3.0 3:0.0 5:1.0 6:1.0 89:1.0 614:1.0 9:1.0 12124:1.0 93:1.0 
0.8485322179491103 1:5.0 2:4.0 3:0.0 5:1.0 6:1.0 7:1.0 149:1.0 9:1.0 2100:1.0 119:1.0 
0.05108447847746053 1:4.0 2:0.0 3:0.0 87:1.0 44:1.0 126:1.0 614:1.0 45:1.0 4441:1.0 129:1.0 
0.11219558800389304 1:4.0 2:1.0 3:0.0 793:1.0 6:1.0 89:1.0 794:1.0 9:1.0 134:1.0 93:1.0 
0.11019245538235015 1:6.0 2:1.0 3:0.0 69:1.0 6:1.0 7:1.0 4149:1.0 9:1.0 2231:1.0 11:1.0 
30.144817888323352 1:8.0 2:1.0 3:0.0 5:1.0 6:1.0 7:1.0 40:1.0 9:1.0 818:1.0 11:1.0 
500.0 1:8.0 2:2.0 3:0.0 5:1.0 6:1.0 7:1.0 2843:1.0 9:1.0 818:1.0 11:1.0 
500.0 1:6.0 2:0.0 3:0.0 87:1.0 6:1.0 7:1.0 187:1.0 9:1.0 10:1.0 11:1.0 
500.0 1:7.0 2:2.0 3:0.0 236:1.0 6:1.0 7:1.0 378:1.0 9:1.0 185:1.0 11:1.0 
500.0 1:7.0 2:2.0 3:0.0 236:1.0 6:1.0 7:1.0 378:1.0 9:1.0 185:1.0 11:1.0 
0.659156709605014 1:7.0 2:3.0 3:0.0 5:1.0 6:1.0 7:1.0 434:1.0 9:1.0 1586:1.0 11:1.0 
500.0 1:7.0 2:0.0 3:0.0 87:1.0 6:1.0 174:1.0 1077:1.0 9:1.0 177:1.0 11:1.0 
0.3737114178358424 1:5.0 2:2.0 3:0.0 5:1.0 6:1.0 126:1.0 149:1.0 9:1.0 332:1.0 129:1.0 
0.4673859885506485 1:7.0 2:7.0 3:0.0 236:1.0 44:1.0 7:1.0 474:1.0 275:1.0 4537:1.0 11:1.0 
0.05961908366010102 1:3.0 2:4.0 3:0.0 5:1.0 6:1.0 202:1.0 149:1.0 9:1.0 2204:1.0 93:1.0 
0.4187921946761133 1:6.0 2:1.0 3:0.0 5:1.0 6:1.0 53:1.0 2845:1.0 9:1.0 8295:1.0 11:1.0 
17.529821846725746 1:8.0 2:2.0 3:0.0 5:1.0 6:1.0 53:1.0 434:1.0 9:1.0 13198:1.0 11:1.0 
499.98145474564075 1:8.0 2:2.0 3:0.0 5:1.0 6:1.0 53:1.0 434:1.0 9:1.0 13198:1.0 11:1.0 
500.0 1:8.0 2:1.0 3:0.0 5:1.0 6:1.0 53:1.0 434:1.0 9:1.0 13198:1.0 11:1.0 
0.13924450720041764 1:3.0 2:0.0 3:0.0 125:1.0 304:1.0 126:1.0 13203:1.0 305:1.0 666:1.0 129:1.0 
500.0 1:8.0 2:2.0 3:0.0 166:1.0 6:1.0 7:1.0 167:1.0 9:1.0 11038:1.0 11:1.0 
0.4882752962023758 1:6.0 2:0.0 3:0.0 87:1.0 6:1.0 7:1.0 1288:1.0 9:1.0 349:1.0 11:1.0 
500.0 1:6.0 2:4.0 3:0.0 5:1.0 6:1.0 94:1.0 630:1.0 9:1.0 10:1.0 11:1.0 
500.0 1:9.0 2:0.0 3:0.0 87:1.0 6:1.0 53:1.0 187:1.0 9:1.0 10:1.0 11:1.0 
500.0 1:9.0 2:0.0 3:0.0 87:1.0 6:1.0 53:1.0 187:1.0 9:1.0 10:1.0 11:1.0 
500.0 1:9.0 2:0.0 3:0.0 87:1.0 6:1.0 53:1.0 3423:1.0 9:1.0 10:1.0 11:1.0 
500.0 1:6.0 2:0.0 3:0.0 87:1.0 6:1.0 53:1.0 187:1.0 9:1.0 10:1.0 11:1.0 
2.8998089021506446 1:6.0 2:3.0 3:0.0 5:1.0 6:1.0 7:1.0 218:1.0 9:1.0 10:1.0 11:1.0 
0.5954721616256837 1:6.0 2:1.0 3:0.0 166:1.0 16:1.0 53:1.0 167:1.0 17:1.0 2603:1.0 11:1.0 
0.10265771615979485 1:6.0 2:0.0 3:0.0 87:1.0 6:1.0 94:1.0 1975:1.0 9:1.0 3435:1.0 11:1.0 
2.801832934878265 1:5.0 2:2.0 3:0.0 5:1.0 6:1.0 126:1.0 693:1.0 9:1.0 3454:1.0 11:1.0 
493.9251479876588 1:6.0 2:1.0 3:0.0 5:1.0 6:1.0 94:1.0 25:1.0 9:1.0 4911:1.0 11:1.0 
6.937191997617727 1:6.0 2:1.0 3:0.0 166:1.0 6:1.0 94:1.0 167:1.0 9:1.0 1941:1.0 11:1.0 
0.08112152912227225 1:6.0 2:1.0 3:0.0 5:1.0 16:1.0 94:1.0 948:1.0 17:1.0 1941:1.0 11:1.0 
499.94342288140746 1:6.0 2:1.0 3:0.0 5:1.0 6:1.0 94:1.0 8:1.0 9:1.0 8634:1.0 11:1.0 
499.94597018036933 1:5.0 2:0.0 3:0.0 87:1.0 6:1.0 7:1.0 9774:1.0 9:1.0 10:1.0 197:1.0 
0.005127256383042327 1:5.0 2:0.0 3:0.0 46:1.0 6:1.0 53:1.0 13358:1.0 9:1.0 185:1.0 11:1.0 
1.8094369381661461 1:8.0 2:0.0 3:0.0 87:1.0 6:1.0 94:1.0 1077:1.0 9:1.0 185:1.0 11:1.0 
500.0 1:8.0 2:0.0 3:0.0 87:1.0 6:1.0 94:1.0 1077:1.0 9:1.0 185:1.0 11:1.0 
500.0 1:8.0 2:8.0 3:0.0 5:1.0 6:1.0 94:1.0 4917:1.0 9:1.0 185:1.0 11:1.0 
500.0 1:7.0 2:9.0 3:0.0 5:1.0 6:1.0 94:1.0 3458:1.0 9:1.0 113:1.0 11:1.0 
0.05019461278082007 1:7.0 2:9.0 3:0.0 5:1.0 304:1.0 94:1.0 3458:1.0 1444:1.0 113:1.0 11:1.0 
74.87768144327744 1:8.0 2:2.0 3:0.0 5:1.0 6:1.0 7:1.0 630:1.0 9:1.0 371:1.0 11:1.0 
500.0 1:8.0 2:2.0 3:0.0 5:1.0 6:1.0 7:1.0 2843:1.0 9:1.0 3358:1.0 11:1.0 
0.8385238926404432 1:3.0 2:5.0 3:0.0 5:1.0 6:1.0 89:1.0 434:1.0 9:1.0 7702:1.0 93:1.0 
0.9609417492609348 1:5.0 2:0.0 3:0.0 87:1.0 304:1.0 94:1.0 187:1.0 305:1.0 349:1.0 24:1.0 
0.24670087952376674 1:7.0 2:0.0 3:0.0 87:1.0 304:1.0 7:1.0 2247:1.0 6553:1.0 13470:1.0 11:1.0 
0.0766040589866438 1:5.0 2:0.0 3:0.0 87:1.0 6:1.0 174:1.0 10290:1.0 9:1.0 177:1.0 11:1.0 
500.0 1:6.0 2:5.0 3:0.0 5:1.0 6:1.0 94:1.0 630:1.0 9:1.0 10:1.0 11:1.0 
0.21012558794275027 1:5.0 2:5.0 3:0.0 5:1.0 72:1.0 53:1.0 149:1.0 73:1.0 3686:1.0 11:1.0 
0.2243226843925452 1:5.0 2:0.0 3:0.0 87:1.0 6:1.0 174:1.0 1667:1.0 9:1.0 609:1.0 11:1.0 
0.35970491002811594 1:4.0 2:1.0 3:0.0 87:1.0 6:1.0 126:1.0 1351:1.0 9:1.0 6279:1.0 93:1.0 
500.0 1:7.0 2:0.0 3:0.0 5:1.0 6:1.0 174:1.0 832:1.0 9:1.0 609:1.0 11:1.0 
0.0024129169428632954 1:5.0 2:1.0 3:0.0 87:1.0 44:1.0 94:1.0 3567:1.0 45:1.0 10:1.0 11:1.0 
0.4287962308568909 1:5.0 2:6.0 3:0.0 236:1.0 6:1.0 94:1.0 1511:1.0 9:1.0 10:1.0 11:1.0 
0.08436715067132186 1:4.0 2:5.0 3:0.0 276:1.0 6:1.0 53:1.0 1726:1.0 9:1.0 10:1.0 119:1.0 
0.0380433514754841 1:8.0 2:1.0 3:0.0 87:1.0 6:1.0 7:1.0 8894:1.0 9:1.0 3358:1.0 11:1.0 
0.32353067304432676 1:3.0 2:6.0 3:0.0 5:1.0 16:1.0 7:1.0 1587:1.0 17:1.0 7969:1.0 11:1.0 
0.07193860441770576 1:4.0 2:1.0 3:0.0 786:1.0 16:1.0 7:1.0 2248:1.0 17:1.0 818:1.0 11:1.0 
0.20980076950032914 1:5.0 2:1.0 3:0.0 5:1.0 6:1.0 7:1.0 40:1.0 9:1.0 3358:1.0 11:1.0 
500.0 1:7.0 2:3.0 3:0.0 276:1.0 6:1.0 7:1.0 5450:1.0 9:1.0 3587:1.0 11:1.0 
275.148752388146 1:6.0 2:0.0 3:0.0 786:1.0 6:1.0 7:1.0 2248:1.0 9:1.0 3358:1.0 11:1.0 
500.0 1:7.0 2:1.0 3:0.0 236:1.0 6:1.0 126:1.0 6428:1.0 9:1.0 5335:1.0 93:1.0 
4.205406487599287 1:6.0 2:0.0 3:0.0 87:1.0 6:1.0 53:1.0 348:1.0 9:1.0 10:1.0 11:1.0 
0.048509630493080214 1:5.0 2:0.0 3:0.0 87:1.0 6:1.0 53:1.0 2247:1.0 9:1.0 185:1.0 405:1.0 
0.13329903857123793 1:5.0 2:6.0 3:0.0 5:1.0 6:1.0 7:1.0 3458:1.0 9:1.0 2211:1.0 11:1.0 
500.0 1:5.0 2:2.0 3:0.0 5:1.0 6:1.0 7:1.0 614:1.0 9:1.0 818:1.0 11:1.0 
0.036479071066401435 1:5.0 2:1.0 3:0.0 87:1.0 6:1.0 7:1.0 13990:1.0 9:1.0 818:1.0 11:1.0 
22.773394932405886 1:6.0 2:2.0 3:0.0 5:1.0 6:1.0 7:1.0 1587:1.0 9:1.0 818:1.0 11:1.0 
500.0 1:8.0 2:4.0 3:0.0 87:1.0 6:1.0 7:1.0 2843:1.0 9:1.0 3691:1.0 11:1.0 
7.23282322247451 1:10.0 2:2.0 3:0.0 5:1.0 6:1.0 53:1.0 832:1.0 9:1.0 2602:1.0 11:1.0 
499.9211723554245 1:10.0 2:2.0 3:0.0 5:1.0 6:1.0 53:1.0 832:1.0 9:1.0 2602:1.0 11:1.0 
500.0 1:10.0 2:1.0 3:0.0 5:1.0 6:1.0 53:1.0 8:1.0 9:1.0 2602:1.0 11:1.0 
3.6738358223921033 1:7.0 2:0.0 3:0.0 87:1.0 6:1.0 94:1.0 348:1.0 9:1.0 185:1.0 11:1.0 
500.0 1:9.0 2:7.0 3:0.0 236:1.0 44:1.0 7:1.0 5941:1.0 45:1.0 113:1.0 11:1.0 
500.0 1:5.0 2:2.0 3:0.0 5:1.0 6:1.0 174:1.0 630:1.0 9:1.0 225:1.0 291:1.0 
500.0 1:7.0 2:4.0 3:0.0 5:1.0 6:1.0 94:1.0 3732:1.0 9:1.0 185:1.0 11:1.0 
0.023736264454099897 1:8.0 2:0.0 3:0.0 46:1.0 44:1.0 174:1.0 12315:1.0 45:1.0 225:1.0 11:1.0 
1.5304381257030784 1:6.0 2:3.0 3:0.0 5:1.0 6:1.0 7:1.0 319:1.0 9:1.0 6367:1.0 11:1.0 
500.0 1:8.0 2:5.0 3:0.0 5:1.0 6:1.0 53:1.0 534:1.0 9:1.0 1510:1.0 11:1.0 
0.005008808438455434 1:5.0 2:10.0 3:0.0 236:1.0 6:1.0 53:1.0 14170:1.0 9:1.0 10:1.0 11:1.0 
0.2913886518573541 1:6.0 2:8.0 3:0.0 5:1.0 6:1.0 7:1.0 3732:1.0 9:1.0 113:1.0 11:1.0 
0.09717076596313369 1:7.0 2:6.0 3:0.0 5:1.0 6:1.0 7:1.0 485:1.0 9:1.0 10:1.0 11:1.0 
500.0 1:7.0 2:0.0 3:0.0 87:1.0 6:1.0 53:1.0 1077:1.0 9:1.0 3686:1.0 11:1.0 
84.2463937547835 1:5.0 2:4.0 3:0.0 5:1.0 6:1.0 94:1.0 3458:1.0 9:1.0 10:1.0 119:1.0 
0.11824031556237262 1:8.0 2:2.0 3:0.0 69:1.0 6:1.0 7:1.0 6461:1.0 9:1.0 938:1.0 11:1.0 
4.546583927773697 1:8.0 2:0.0 3:0.0 87:1.0 6:1.0 53:1.0 1288:1.0 9:1.0 10:1.0 11:1.0 
500.0 1:8.0 2:0.0 3:0.0 87:1.0 6:1.0 53:1.0 187:1.0 9:1.0 10:1.0 11:1.0 
500.0 1:8.0 2:8.0 3:0.0 5:1.0 6:1.0 53:1.0 149:1.0 9:1.0 10:1.0 11:1.0 
0.9206724502558956 1:6.0 2:0.0 3:0.0 87:1.0 6:1.0 7:1.0 502:1.0 9:1.0 3167:1.0 11:1.0 
500.0 1:6.0 2:1.0 3:0.0 5:1.0 6:1.0 94:1.0 149:1.0 9:1.0 14304:1.0 11:1.0 
0.22589768130289214 1:8.0 2:4.0 3:0.0 5:1.0 6:1.0 7:1.0 409:1.0 9:1.0 2992:1.0 11:1.0 
0.6738497742388468 1:7.0 2:1.0 3:0.0 5:1.0 6:1.0 94:1.0 25:1.0 9:1.0 10:1.0 11:1.0 
0.16907962132809412 1:6.0 2:3.0 3:0.0 5:1.0 6:1.0 53:1.0 434:1.0 9:1.0 14352:1.0 11:1.0 
499.89445011844134 1:6.0 2:5.0 3:0.0 5:1.0 6:1.0 53:1.0 815:1.0 9:1.0 2878:1.0 11:1.0 
0.231037759676326 1:10.0 2:2.0 3:0.0 236:1.0 6:1.0 53:1.0 1546:1.0 9:1.0 1869:1.0 119:1.0 
500.0 1:10.0 2:2.0 3:0.0 236:1.0 37:1.0 53:1.0 1546:1.0 39:1.0 1869:1.0 119:1.0 
0.47572670045514415 1:10.0 2:2.0 3:0.0 236:1.0 44:1.0 53:1.0 1546:1.0 45:1.0 1869:1.0 119:1.0 
0.13136658062295492 1:5.0 2:1.0 3:0.0 87:1.0 6:1.0 94:1.0 1406:1.0 9:1.0 113:1.0 11:1.0 
500.0 1:7.0 2:0.0 3:0.0 87:1.0 6:1.0 94:1.0 1077:1.0 9:1.0 550:1.0 11:1.0 
0.5312720428735196 1:7.0 2:0.0 3:0.0 87:1.0 44:1.0 94:1.0 1077:1.0 45:1.0 550:1.0 11:1.0 
500.0 1:8.0 2:0.0 3:0.0 87:1.0 6:1.0 174:1.0 187:1.0 9:1.0 877:1.0 11:1.0 
0.12112817579492469 1:5.0 2:4.0 3:0.0 236:1.0 304:1.0 94:1.0 3570:1.0 768:1.0 10:1.0 11:1.0 
11.393394306825389 1:6.0 2:7.0 3:0.0 5:1.0 6:1.0 94:1.0 4917:1.0 9:1.0 10:1.0 11:1.0 
0.02084782763709927 1:5.0 2:0.0 3:0.0 87:1.0 6:1.0 89:1.0 1790:1.0 9:1.0 10008:1.0 145:1.0 
4.846873116745849 1:5.0 2:1.0 3:0.0 5:1.0 6:1.0 53:1.0 149:1.0 9:1.0 1941:1.0 11:1.0 
3.6188273496849948 1:5.0 2:5.0 3:0.0 5:1.0 6:1.0 174:1.0 693:1.0 9:1.0 1273:1.0 11:1.0 
500.0 1:5.0 2:0.0 3:0.0 87:1.0 6:1.0 53:1.0 187:1.0 9:1.0 349:1.0 291:1.0 
0.03352107263688401 1:5.0 2:2.0 3:0.0 69:1.0 6:1.0 94:1.0 14493:1.0 9:1.0 1529:1.0 11:1.0 
499.44560058416323 1:6.0 2:1.0 3:0.0 5:1.0 6:1.0 174:1.0 25:1.0 9:1.0 970:1.0 11:1.0 
0.030829348096555128 1:8.0 2:3.0 3:0.0 125:1.0 16:1.0 94:1.0 1854:1.0 17:1.0 113:1.0 11:1.0 
499.8978251461024 1:8.0 2:4.0 3:0.0 5:1.0 6:1.0 94:1.0 25:1.0 9:1.0 113:1.0 11:1.0 
6.899706335779737 1:8.0 2:4.0 3:0.0 5:1.0 37:1.0 94:1.0 25:1.0 39:1.0 113:1.0 11:1.0 
9.250241420684363 1:8.0 2:4.0 3:0.0 5:1.0 44:1.0 94:1.0 25:1.0 45:1.0 113:1.0 11:1.0 
0.08207097522846393 1:5.0 2:2.0 3:0.0 5:1.0 6:1.0 53:1.0 607:1.0 9:1.0 5729:1.0 2772:1.0 
0.054254036699915575 1:10.0 2:0.0 3:0.0 87:1.0 6:1.0 53:1.0 14631:1.0 9:1.0 10:1.0 119:1.0 
499.9529781031152 1:10.0 2:0.0 3:0.0 87:1.0 37:1.0 53:1.0 14631:1.0 39:1.0 10:1.0 119:1.0 
0.02153147546302207 1:10.0 2:0.0 3:0.0 87:1.0 44:1.0 53:1.0 14631:1.0 45:1.0 10:1.0 119:1.0 
4.937576935939889 1:6.0 2:3.0 3:0.0 5:1.0 6:1.0 7:1.0 630:1.0 9:1.0 848:1.0 11:1.0 
500.0 1:5.0 2:3.0 3:0.0 236:1.0 6:1.0 94:1.0 1092:1.0 9:1.0 185:1.0 291:1.0 
2.261783004811802 1:11.0 2:0.0 3:0.0 5:1.0 6:1.0 53:1.0 832:1.0 9:1.0 2145:1.0 119:1.0 
497.69169313432275 1:11.0 2:0.0 3:0.0 5:1.0 37:1.0 53:1.0 832:1.0 39:1.0 2145:1.0 119:1.0 
500.0 1:7.0 2:0.0 3:0.0 5:1.0 6:1.0 7:1.0 832:1.0 9:1.0 3991:1.0 11:1.0 
0.2305687095682751 1:9.0 2:0.0 3:0.0 87:1.0 37:1.0 7:1.0 9774:1.0 39:1.0 2616:1.0 11:1.0 
500.0 1:6.0 2:0.0 3:0.0 5:1.0 6:1.0 94:1.0 832:1.0 9:1.0 10:1.0 11:1.0 
87.2993459288297 1:10.0 2:5.0 3:0.0 5:1.0 6:1.0 53:1.0 630:1.0 9:1.0 10:1.0 119:1.0 
10.300054225012618 1:10.0 2:5.0 3:0.0 5:1.0 37:1.0 53:1.0 630:1.0 39:1.0 10:1.0 119:1.0 
500.0 1:10.0 2:5.0 3:0.0 5:1.0 6:1.0 53:1.0 630:1.0 9:1.0 10:1.0 119:1.0 
1.1284034105407499 1:10.0 2:5.0 3:0.0 5:1.0 44:1.0 53:1.0 630:1.0 45:1.0 10:1.0 119:1.0 
500.0 1:10.0 2:0.0 3:0.0 87:1.0 6:1.0 53:1.0 187:1.0 9:1.0 10:1.0 119:1.0 
4.834226393631546 1:10.0 2:0.0 3:0.0 87:1.0 44:1.0 53:1.0 187:1.0 45:1.0 10:1.0 119:1.0 
500.0 1:10.0 2:0.0 3:0.0 5:1.0 6:1.0 94:1.0 832:1.0 9:1.0 113:1.0 11:1.0 
3.7811872305294463 1:10.0 2:0.0 3:0.0 5:1.0 37:1.0 94:1.0 832:1.0 39:1.0 113:1.0 11:1.0 
0.990024879359735 1:10.0 2:0.0 3:0.0 5:1.0 44:1.0 94:1.0 832:1.0 45:1.0 113:1.0 11:1.0 
0.006331606271828098 1:6.0 2:3.0 3:0.0 5:1.0 304:1.0 94:1.0 149:1.0 6553:1.0 5177:1.0 11:1.0 
500.0 1:6.0 2:7.0 3:0.0 236:1.0 6:1.0 53:1.0 2565:1.0 9:1.0 10:1.0 11:1.0 
0.08368457799929607 1:4.0 2:3.0 3:0.0 236:1.0 6:1.0 174:1.0 7285:1.0 9:1.0 970:1.0 119:1.0 
0.14648071395336404 1:7.0 2:4.0 3:0.0 5:1.0 6:1.0 7:1.0 3732:1.0 9:1.0 2100:1.0 11:1.0 
500.0 1:6.0 2:0.0 3:0.0 87:1.0 6:1.0 53:1.0 1077:1.0 9:1.0 113:1.0 11:1.0 
2.006696705962332 1:5.0 2:2.0 3:0.0 5:1.0 6:1.0 126:1.0 165:1.0 9:1.0 14981:1.0 129:1.0 
11.026935527811967 1:5.0 2:5.0 3:0.0 5:1.0 6:1.0 94:1.0 25:1.0 9:1.0 2100:1.0 11:1.0 
0.06550518188578473 1:8.0 2:4.0 3:0.0 5:1.0 6:1.0 53:1.0 3732:1.0 9:1.0 1430:1.0 11:1.0 
500.0 1:8.0 2:3.0 3:0.0 236:1.0 6:1.0 53:1.0 378:1.0 9:1.0 1430:1.0 11:1.0 
0.131900459717993 1:4.0 2:0.0 3:0.0 87:1.0 304:1.0 94:1.0 296:1.0 6553:1.0 113:1.0 11:1.0 
4.942999072891257 1:5.0 2:0.0 3:0.0 87:1.0 6:1.0 53:1.0 1077:1.0 9:1.0 10:1.0 119:1.0 
5.047477450582485 1:5.0 2:4.0 3:0.0 5:1.0 6:1.0 7:1.0 235:1.0 9:1.0 3416:1.0 11:1.0 
0.06002624949135663 1:5.0 2:0.0 3:0.0 125:1.0 6:1.0 7:1.0 7054:1.0 9:1.0 3676:1.0 119:1.0 
0.03202204733275616 1:8.0 2:5.0 3:0.0 276:1.0 6:1.0 7:1.0 11561:1.0 9:1.0 4208:1.0 11:1.0 
500.0 1:5.0 2:0.0 3:0.0 87:1.0 6:1.0 210:1.0 1077:1.0 9:1.0 212:1.0 291:1.0 
499.0019742501765 1:5.0 2:3.0 3:0.0 87:1.0 6:1.0 94:1.0 296:1.0 9:1.0 10:1.0 11:1.0 
500.0 1:6.0 2:0.0 3:0.0 87:1.0 6:1.0 174:1.0 187:1.0 9:1.0 177:1.0 11:1.0 
0.042732545835275026 1:4.0 2:7.0 3:0.0 5:1.0 6:1.0 4372:1.0 693:1.0 9:1.0 15249:1.0 11:1.0 
500.0 1:6.0 2:0.0 3:0.0 87:1.0 6:1.0 53:1.0 187:1.0 9:1.0 349:1.0 11:1.0 
0.4012579457890283 1:4.0 2:0.0 3:0.0 87:1.0 37:1.0 202:1.0 187:1.0 39:1.0 2046:1.0 24:1.0 
0.11924680859797337 1:7.0 2:4.0 3:0.0 236:1.0 6:1.0 7:1.0 10952:1.0 9:1.0 7407:1.0 11:1.0 
0.5629900597931814 1:4.0 2:4.0 3:0.0 5:1.0 6:1.0 89:1.0 165:1.0 9:1.0 2113:1.0 93:1.0 
0.03569012807069811 1:5.0 2:4.0 3:0.0 5:1.0 6:1.0 94:1.0 4470:1.0 9:1.0 1894:1.0 11:1.0 
498.79549930471626 1:5.0 2:4.0 3:0.0 5:1.0 6:1.0 174:1.0 434:1.0 9:1.0 225:1.0 291:1.0 
16.67709078534763 1:6.0 2:2.0 3:0.0 5:1.0 6:1.0 94:1.0 149:1.0 9:1.0 10:1.0 11:1.0 
499.89310505990125 1:5.0 2:1.0 3:0.0 5:1.0 6:1.0 202:1.0 149:1.0 9:1.0 1840:1.0 197:1.0 
0.017472649438430927 1:5.0 2:1.0 3:0.0 5:1.0 6:1.0 174:1.0 8:1.0 9:1.0 225:1.0 11:1.0 
3.078893599757069 1:4.0 2:5.0 3:0.0 5:1.0 6:1.0 89:1.0 693:1.0 9:1.0 10:1.0 93:1.0 
500.0 1:6.0 2:4.0 3:0.0 87:1.0 6:1.0 53:1.0 10001:1.0 9:1.0 10:1.0 119:1.0 
1.6948209818984423 1:3.0 2:4.0 3:0.0 5:1.0 6:1.0 126:1.0 8:1.0 9:1.0 3173:1.0 93:1.0 
500.0 1:6.0 2:3.0 3:0.0 87:1.0 6:1.0 94:1.0 10001:1.0 9:1.0 10:1.0 291:1.0 
493.7778555060229 1:6.0 2:1.0 3:0.0 5:1.0 6:1.0 174:1.0 8:1.0 9:1.0 225:1.0 11:1.0 
492.90031227545575 1:8.0 2:1.0 3:0.0 5:1.0 6:1.0 174:1.0 8:1.0 9:1.0 225:1.0 11:1.0 
0.02476199245247873 1:5.0 2:6.0 3:0.0 5:1.0 44:1.0 7:1.0 25:1.0 45:1.0 3505:1.0 11:1.0 
15.195865018619712 1:5.0 2:2.0 3:0.0 5:1.0 6:1.0 7:1.0 149:1.0 9:1.0 2603:1.0 11:1.0 
500.0 1:4.0 2:0.0 3:0.0 87:1.0 304:1.0 210:1.0 187:1.0 305:1.0 212:1.0 56:1.0 
0.12476605023826828 1:4.0 2:0.0 3:0.0 87:1.0 6:1.0 126:1.0 4715:1.0 9:1.0 3327:1.0 119:1.0 
0.0807838456489535 1:7.0 2:0.0 3:0.0 87:1.0 44:1.0 7:1.0 824:1.0 275:1.0 113:1.0 11:1.0 
500.0 1:5.0 2:3.0 3:0.0 236:1.0 6:1.0 53:1.0 378:1.0 9:1.0 10:1.0 11:1.0 
499.834248324665 1:5.0 2:3.0 3:0.0 5:1.0 6:1.0 174:1.0 4443:1.0 9:1.0 317:1.0 119:1.0 
0.49231668244708143 1:6.0 2:0.0 3:0.0 87:1.0 6:1.0 94:1.0 2235:1.0 9:1.0 10:1.0 291:1.0 
500.0 1:6.0 2:0.0 3:0.0 87:1.0 6:1.0 7:1.0 282:1.0 9:1.0 113:1.0 11:1.0 
500.0 1:6.0 2:0.0 3:0.0 87:1.0 6:1.0 7:1.0 282:1.0 9:1.0 113:1.0 11:1.0 
0.05227947013522041 1:5.0 2:3.0 3:0.0 400:1.0 16:1.0 7:1.0 5941:1.0 17:1.0 3676:1.0 11:1.0 
500.0 1:5.0 2:4.0 3:0.0 236:1.0 6:1.0 94:1.0 378:1.0 9:1.0 10:1.0 11:1.0 
2.0510559579403473 1:6.0 2:3.0 3:0.0 236:1.0 6:1.0 7:1.0 378:1.0 9:1.0 2188:1.0 11:1.0 
7.941693880474879 1:3.0 2:10.0 3:0.0 5:1.0 6:1.0 89:1.0 235:1.0 9:1.0 12124:1.0 93:1.0 
500.0 1:7.0 2:0.0 3:0.0 87:1.0 6:1.0 7:1.0 282:1.0 9:1.0 10:1.0 11:1.0 
0.9641521522982026 1:6.0 2:0.0 3:0.0 87:1.0 6:1.0 7:1.0 3494:1.0 9:1.0 5833:1.0 11:1.0 
266.72984019408966 1:7.0 2:1.0 3:0.0 5:1.0 6:1.0 53:1.0 149:1.0 9:1.0 10:1.0 11:1.0 
500.0 1:7.0 2:1.0 3:0.0 5:1.0 6:1.0 53:1.0 149:1.0 9:1.0 10:1.0 11:1.0 
12.02915470146844 1:7.0 2:8.0 3:0.0 5:1.0 6:1.0 53:1.0 534:1.0 9:1.0 10:1.0 11:1.0 
0.2386218327394025 1:4.0 2:6.0 3:0.0 5:1.0 6:1.0 202:1.0 165:1.0 9:1.0 3862:1.0 396:1.0 
499.3688226997221 1:8.0 2:1.0 3:0.0 328:1.0 6:1.0 94:1.0 295:1.0 9:1.0 10:1.0 11:1.0 
499.90312028746234 1:6.0 2:4.0 3:0.0 5:1.0 6:1.0 53:1.0 263:1.0 9:1.0 10:1.0 11:1.0 
0.06646246352472573 1:5.0 2:8.0 3:0.0 236:1.0 6:1.0 94:1.0 329:1.0 9:1.0 7063:1.0 11:1.0 
500.0 1:6.0 2:0.0 3:0.0 87:1.0 6:1.0 7:1.0 1142:1.0 9:1.0 2750:1.0 11:1.0 
0.24329750975642467 1:5.0 2:1.0 3:0.0 5:1.0 6:1.0 7:1.0 218:1.0 9:1.0 10:1.0 11:1.0 
500.0 1:6.0 2:0.0 3:0.0 87:1.0 6:1.0 174:1.0 187:1.0 9:1.0 225:1.0 11:1.0 
500.0 1:5.0 2:0.0 3:0.0 87:1.0 6:1.0 126:1.0 1077:1.0 9:1.0 1601:1.0 129:1.0 
0.02868844574151647 1:7.0 2:3.0 3:0.0 125:1.0 6:1.0 7:1.0 15827:1.0 9:1.0 511:1.0 11:1.0 
500.0 1:9.0 2:8.0 3:0.0 5:1.0 6:1.0 7:1.0 630:1.0 9:1.0 5408:1.0 11:1.0 
0.14745719398308318 1:5.0 2:0.0 3:0.0 87:1.0 6:1.0 7:1.0 8894:1.0 9:1.0 3167:1.0 11:1.0 
0.1444573511496651 1:6.0 2:7.0 3:0.0 5:1.0 6:1.0 7:1.0 3458:1.0 9:1.0 1508:1.0 11:1.0 
0.43303178333278014 1:4.0 2:1.0 3:0.0 5:1.0 37:1.0 126:1.0 629:1.0 39:1.0 321:1.0 129:1.0 
0.022560895495720417 1:6.0 2:0.0 3:0.0 87:1.0 44:1.0 94:1.0 12287:1.0 45:1.0 185:1.0 119:1.0 
500.0 1:6.0 2:0.0 3:0.0 87:1.0 6:1.0 174:1.0 187:1.0 9:1.0 225:1.0 11:1.0 
500.0 1:6.0 2:6.0 3:0.0 5:1.0 6:1.0 7:1.0 8:1.0 9:1.0 2210:1.0 119:1.0 
0.023095142021881065 1:6.0 2:0.0 3:0.0 87:1.0 6:1.0 94:1.0 4069:1.0 9:1.0 622:1.0 11:1.0 
2.1127698575763385 1:5.0 2:6.0 3:0.0 5:1.0 6:1.0 7:1.0 25:1.0 9:1.0 11045:1.0 405:1.0 
0.03445218268268613 1:7.0 2:3.0 3:0.0 5:1.0 304:1.0 7:1.0 1587:1.0 1444:1.0 321:1.0 11:1.0 
130.16475805045295 1:5.0 2:4.0 3:0.0 5:1.0 6:1.0 7:1.0 3458:1.0 9:1.0 10:1.0 11:1.0 
0.03858944326186484 1:7.0 2:2.0 3:0.0 18:1.0 6:1.0 7:1.0 16010:1.0 9:1.0 3713:1.0 11:1.0 
500.0 1:9.0 2:6.0 3:0.0 276:1.0 6:1.0 7:1.0 3392:1.0 9:1.0 3167:1.0 11:1.0 
0.057184264612641485 1:5.0 2:0.0 3:0.0 125:1.0 6:1.0 7:1.0 7054:1.0 9:1.0 10:1.0 11:1.0 
500.0 1:6.0 2:3.0 3:0.0 236:1.0 6:1.0 126:1.0 378:1.0 9:1.0 7533:1.0 93:1.0 
289.1608634586183 1:6.0 2:6.0 3:0.0 5:1.0 6:1.0 53:1.0 630:1.0 9:1.0 10:1.0 11:1.0 
462.04170226046546 1:8.0 2:1.0 3:0.0 5:1.0 6:1.0 53:1.0 40:1.0 9:1.0 10:1.0 11:1.0 
500.0 1:6.0 2:5.0 3:0.0 5:1.0 6:1.0 7:1.0 534:1.0 9:1.0 10:1.0 11:1.0 
142.2244751583376 1:6.0 2:1.0 3:0.0 5:1.0 6:1.0 94:1.0 149:1.0 9:1.0 185:1.0 11:1.0 
0.012331335863948432 1:4.0 2:0.0 3:0.0 87:1.0 6:1.0 94:1.0 13984:1.0 9:1.0 10:1.0 145:1.0 
495.5937201039524 1:6.0 2:0.0 3:0.0 87:1.0 6:1.0 94:1.0 187:1.0 9:1.0 349:1.0 405:1.0 
1.7211261224905845 1:7.0 2:3.0 3:0.0 5:1.0 6:1.0 53:1.0 534:1.0 9:1.0 2923:1.0 11:1.0 
36.51402571990293 1:5.0 2:2.0 3:0.0 5:1.0 6:1.0 94:1.0 630:1.0 9:1.0 10:1.0 11:1.0 
500.0 1:6.0 2:0.0 3:0.0 87:1.0 6:1.0 94:1.0 1142:1.0 9:1.0 10:1.0 11:1.0 
0.2553513998699156 1:4.0 2:2.0 3:0.0 5:1.0 6:1.0 94:1.0 25:1.0 9:1.0 16149:1.0 405:1.0 
500.0 1:6.0 2:3.0 3:0.0 236:1.0 6:1.0 94:1.0 378:1.0 9:1.0 10:1.0 11:1.0 
500.0 1:6.0 2:0.0 3:0.0 87:1.0 6:1.0 94:1.0 187:1.0 9:1.0 185:1.0 11:1.0 
499.96330561753615 1:6.0 2:2.0 3:0.0 5:1.0 6:1.0 94:1.0 4859:1.0 9:1.0 134:1.0 11:1.0 
0.2840233503027366 1:4.0 2:0.0 3:0.0 87:1.0 37:1.0 202:1.0 1084:1.0 39:1.0 7233:1.0 93:1.0 
500.0 1:7.0 2:0.0 3:0.0 87:1.0 6:1.0 7:1.0 187:1.0 9:1.0 349:1.0 11:1.0 
500.0 1:7.0 2:5.0 3:0.0 236:1.0 6:1.0 7:1.0 2556:1.0 9:1.0 5177:1.0 11:1.0 
0.2254399003773607 1:7.0 2:0.0 3:0.0 87:1.0 6:1.0 94:1.0 2247:1.0 9:1.0 10:1.0 197:1.0 
500.0 1:7.0 2:0.0 3:0.0 87:1.0 6:1.0 94:1.0 187:1.0 9:1.0 10:1.0 197:1.0 
500.0 1:8.0 2:5.0 3:0.0 276:1.0 6:1.0 94:1.0 763:1.0 9:1.0 5117:1.0 56:1.0 
0.027381876866121792 1:8.0 2:5.0 3:0.0 276:1.0 72:1.0 94:1.0 763:1.0 73:1.0 5117:1.0 56:1.0 
0.2414400338647372 1:8.0 2:2.0 3:0.0 166:1.0 72:1.0 94:1.0 167:1.0 73:1.0 5117:1.0 56:1.0 
0.4873951687334456 1:5.0 2:1.0 3:0.0 5:1.0 6:1.0 94:1.0 149:1.0 9:1.0 16252:1.0 291:1.0 
0.0331982139063467 1:7.0 2:0.0 3:0.0 87:1.0 6:1.0 7:1.0 1077:1.0 9:1.0 323:1.0 11:1.0 
0.05886510166351296 1:7.0 2:0.0 3:0.0 87:1.0 6:1.0 94:1.0 4069:1.0 9:1.0 55:1.0 11:1.0 
500.0 1:6.0 2:3.0 3:0.0 87:1.0 6:1.0 126:1.0 3423:1.0 9:1.0 10:1.0 93:1.0 
0.0782955642162015 1:4.0 2:4.0 3:0.0 5:1.0 6:1.0 94:1.0 149:1.0 9:1.0 1430:1.0 119:1.0 
0.23184328460659792 1:5.0 2:0.0 3:0.0 87:1.0 6:1.0 174:1.0 1667:1.0 9:1.0 225:1.0 11:1.0 
0.045161046217928005 1:7.0 2:0.0 3:0.0 87:1.0 6:1.0 174:1.0 16324:1.0 9:1.0 177:1.0 11:1.0 
500.0 1:4.0 2:3.0 3:0.0 5:1.0 6:1.0 126:1.0 6953:1.0 9:1.0 5733:1.0 93:1.0 
0.17529143969111857 1:4.0 2:1.0 3:0.0 87:1.0 6:1.0 151:1.0 187:1.0 9:1.0 935:1.0 119:1.0 
0.4204850252470488 1:7.0 2:6.0 3:0.0 5:1.0 6:1.0 94:1.0 40:1.0 9:1.0 11831:1.0 11:1.0 
0.25038877544299193 1:7.0 2:6.0 3:0.0 5:1.0 44:1.0 94:1.0 40:1.0 45:1.0 11831:1.0 11:1.0 
0.8179963356335077 1:5.0 2:5.0 3:0.0 276:1.0 6:1.0 7:1.0 4936:1.0 9:1.0 10:1.0 11:1.0 
500.0 1:6.0 2:0.0 3:0.0 87:1.0 6:1.0 94:1.0 187:1.0 9:1.0 349:1.0 11:1.0 
30.335600149463815 1:5.0 2:6.0 3:0.0 236:1.0 6:1.0 94:1.0 378:1.0 9:1.0 185:1.0 11:1.0 
0.20954673929523635 1:6.0 2:0.0 3:0.0 87:1.0 6:1.0 94:1.0 1406:1.0 9:1.0 7300:1.0 11:1.0 
77.16810651290562 1:6.0 2:7.0 3:0.0 5:1.0 6:1.0 94:1.0 8:1.0 9:1.0 10:1.0 11:1.0 
0.41135204401607406 1:5.0 2:1.0 3:0.0 69:1.0 6:1.0 75:1.0 2404:1.0 9:1.0 2923:1.0 24:1.0 
500.0 1:8.0 2:0.0 3:0.0 87:1.0 6:1.0 7:1.0 282:1.0 9:1.0 113:1.0 11:1.0 
500.0 1:6.0 2:6.0 3:0.0 236:1.0 6:1.0 7:1.0 3038:1.0 9:1.0 113:1.0 11:1.0 
7.519430217969176 1:5.0 2:5.0 3:0.0 5:1.0 6:1.0 7:1.0 8:1.0 9:1.0 3416:1.0 11:1.0 
500.0 1:6.0 2:8.0 3:0.0 5:1.0 6:1.0 7:1.0 235:1.0 9:1.0 2760:1.0 197:1.0 
499.8605516895093 1:5.0 2:6.0 3:0.0 125:1.0 6:1.0 7:1.0 16512:1.0 9:1.0 3416:1.0 145:1.0 
0.06286156733675531 1:5.0 2:3.0 3:0.0 276:1.0 6:1.0 7:1.0 3184:1.0 9:1.0 10:1.0 11:1.0 
500.0 1:5.0 2:6.0 3:0.0 236:1.0 6:1.0 7:1.0 378:1.0 9:1.0 10:1.0 11:1.0 
0.9055725177362957 1:4.0 2:7.0 3:0.0 5:1.0 6:1.0 174:1.0 235:1.0 9:1.0 1486:1.0 119:1.0 
500.0 1:7.0 2:4.0 3:0.0 5:1.0 6:1.0 7:1.0 629:1.0 9:1.0 3414:1.0 11:1.0 
499.85949204303984 1:5.0 2:1.0 3:0.0 5:1.0 6:1.0 89:1.0 8:1.0 9:1.0 10:1.0 93:1.0 
500.0 1:5.0 2:5.0 3:0.0 236:1.0 6:1.0 7:1.0 13753:1.0 9:1.0 10:1.0 11:1.0 
0.5383100359475642 1:7.0 2:4.0 3:0.0 5:1.0 6:1.0 53:1.0 235:1.0 9:1.0 3496:1.0 11:1.0 
0.9003031453938768 1:3.0 2:1.0 3:0.0 87:1.0 6:1.0 126:1.0 1142:1.0 9:1.0 666:1.0 145:1.0 
0.4624392127297532 1:10.0 2:4.0 3:0.0 5:1.0 6:1.0 174:1.0 534:1.0 9:1.0 2811:1.0 11:1.0 
500.0 1:10.0 2:0.0 3:0.0 87:1.0 6:1.0 174:1.0 1077:1.0 9:1.0 2811:1.0 11:1.0 
0.2405068561375858 1:10.0 2:0.0 3:0.0 87:1.0 304:1.0 174:1.0 1077:1.0 768:1.0 2811:1.0 11:1.0 
0.23342529157547676 1:10.0 2:0.0 3:0.0 87:1.0 304:1.0 174:1.0 187:1.0 768:1.0 2811:1.0 11:1.0 
0.04119897834425018 1:10.0 2:6.0 3:0.0 236:1.0 304:1.0 7:1.0 16826:1.0 768:1.0 188:1.0 11:1.0 
0.09191439497402809 1:10.0 2:6.0 3:0.0 236:1.0 37:1.0 7:1.0 16826:1.0 39:1.0 188:1.0 11:1.0 
500.0 1:6.0 2:0.0 3:0.0 87:1.0 6:1.0 94:1.0 187:1.0 9:1.0 349:1.0 11:1.0 
500.0 1:6.0 2:6.0 3:0.0 236:1.0 6:1.0 94:1.0 6541:1.0 9:1.0 10:1.0 11:1.0 
0.0412378474526545 1:6.0 2:0.0 3:0.0 87:1.0 6:1.0 94:1.0 4706:1.0 9:1.0 185:1.0 119:1.0 
499.9035842395481 1:6.0 2:0.0 3:0.0 87:1.0 304:1.0 7:1.0 4069:1.0 305:1.0 10:1.0 56:1.0 
498.25234495716353 1:6.0 2:0.0 3:0.0 87:1.0 304:1.0 7:1.0 187:1.0 305:1.0 10:1.0 56:1.0 
8.029765479478508 1:7.0 2:2.0 3:0.0 166:1.0 6:1.0 7:1.0 167:1.0 9:1.0 203:1.0 11:1.0 
499.92112183352134 1:7.0 2:4.0 3:0.0 276:1.0 6:1.0 7:1.0 2565:1.0 9:1.0 203:1.0 11:1.0 
12.687949779873184 1:5.0 2:3.0 3:0.0 5:1.0 6:1.0 174:1.0 693:1.0 9:1.0 1486:1.0 11:1.0 
17.2009693906069 1:6.0 2:1.0 3:0.0 87:1.0 6:1.0 94:1.0 187:1.0 9:1.0 10:1.0 11:1.0 
0.024014500026648428 1:5.0 2:0.0 3:0.0 87:1.0 6:1.0 174:1.0 502:1.0 9:1.0 609:1.0 119:1.0 
500.0 1:6.0 2:8.0 3:0.0 236:1.0 6:1.0 7:1.0 11627:1.0 9:1.0 3193:1.0 11:1.0 
0.1643207312161806 1:5.0 2:0.0 3:0.0 793:1.0 6:1.0 7:1.0 6738:1.0 9:1.0 3815:1.0 11:1.0 
500.0 1:6.0 2:4.0 3:0.0 5:1.0 6:1.0 7:1.0 3732:1.0 9:1.0 3676:1.0 11:1.0 
500.0 1:6.0 2:4.0 3:0.0 5:1.0 6:1.0 7:1.0 235:1.0 9:1.0 10585:1.0 11:1.0 
500.0 1:5.0 2:7.0 3:0.0 5:1.0 6:1.0 7:1.0 149:1.0 9:1.0 3686:1.0 11:1.0 
3.487209447653602 1:7.0 2:10.0 3:0.0 5:1.0 6:1.0 53:1.0 693:1.0 9:1.0 831:1.0 11:1.0 
500.0 1:8.0 2:0.0 3:0.0 87:1.0 6:1.0 174:1.0 187:1.0 9:1.0 1486:1.0 11:1.0 
0.24745596953169144 1:5.0 2:0.0 3:0.0 87:1.0 6:1.0 202:1.0 6730:1.0 9:1.0 7125:1.0 527:1.0 
499.7447316610915 1:5.0 2:0.0 3:0.0 87:1.0 6:1.0 202:1.0 4469:1.0 9:1.0 7125:1.0 527:1.0 
0.09796898930994005 1:3.0 2:5.0 3:0.0 5:1.0 6:1.0 126:1.0 165:1.0 9:1.0 17222:1.0 93:1.0 
499.9447503545491 1:4.0 2:2.0 3:0.0 5:1.0 304:1.0 202:1.0 165:1.0 305:1.0 8713:1.0 56:1.0 
499.917067671652 1:4.0 2:1.0 3:0.0 166:1.0 304:1.0 202:1.0 167:1.0 305:1.0 8713:1.0 56:1.0 
1.7199360756733104 1:8.0 2:1.0 3:0.0 5:1.0 6:1.0 7:1.0 3732:1.0 9:1.0 5475:1.0 11:1.0 
56.11157880847453 1:6.0 2:0.0 3:0.0 87:1.0 6:1.0 174:1.0 187:1.0 9:1.0 2811:1.0 11:1.0 
0.28830545398488877 1:7.0 2:1.0 3:0.0 5:1.0 6:1.0 94:1.0 40:1.0 9:1.0 185:1.0 11:1.0 
500.0 1:6.0 2:0.0 3:0.0 87:1.0 6:1.0 94:1.0 187:1.0 9:1.0 10:1.0 11:1.0 
499.79237690160653 1:5.0 2:2.0 3:0.0 5:1.0 6:1.0 94:1.0 8:1.0 9:1.0 10:1.0 119:1.0 
500.0 1:6.0 2:0.0 3:0.0 87:1.0 6:1.0 94:1.0 1077:1.0 9:1.0 886:1.0 11:1.0 
0.042052312968673726 1:5.0 2:0.0 3:0.0 87:1.0 6:1.0 53:1.0 502:1.0 9:1.0 886:1.0 11:1.0 
0.21977934312021064 1:6.0 2:2.0 3:0.0 5:1.0 37:1.0 94:1.0 4443:1.0 39:1.0 185:1.0 119:1.0 
499.7917835245305 1:9.0 2:3.0 3:0.0 125:1.0 6:1.0 94:1.0 2106:1.0 9:1.0 10:1.0 11:1.0 
500.0 1:7.0 2:2.0 3:0.0 5:1.0 6:1.0 94:1.0 630:1.0 9:1.0 4978:1.0 11:1.0 
0.028030965091743007 1:7.0 2:1.0 3:0.0 69:1.0 44:1.0 575:1.0 5224:1.0 45:1.0 578:1.0 119:1.0 
500.0 1:7.0 2:3.0 3:0.0 5:1.0 6:1.0 7:1.0 40:1.0 9:1.0 3358:1.0 11:1.0 
0.09159897346855106 1:6.0 2:3.0 3:0.0 5:1.0 6:1.0 7:1.0 3732:1.0 9:1.0 17560:1.0 11:1.0 
0.36437417659472393 1:6.0 2:11.0 3:0.0 236:1.0 44:1.0 7:1.0 474:1.0 45:1.0 497:1.0 11:1.0 
0.3268642527311929 1:3.0 2:5.0 3:0.0 5:1.0 37:1.0 89:1.0 8:1.0 39:1.0 17568:1.0 396:1.0 
500.0 1:10.0 2:9.0 3:0.0 5:1.0 6:1.0 7:1.0 25:1.0 9:1.0 3505:1.0 11:1.0 
500.0 1:8.0 2:12.0 3:0.0 236:1.0 44:1.0 7:1.0 5941:1.0 45:1.0 113:1.0 11:1.0 
500.0 1:7.0 2:0.0 3:0.0 87:1.0 6:1.0 94:1.0 1077:1.0 9:1.0 886:1.0 11:1.0 
499.7914161358589 1:4.0 2:2.0 3:0.0 5:1.0 6:1.0 7:1.0 40:1.0 9:1.0 1082:1.0 11:1.0 
0.05067135366565433 1:7.0 2:10.0 3:0.0 5:1.0 6:1.0 174:1.0 3458:1.0 9:1.0 225:1.0 11:1.0 
500.0 1:8.0 2:3.0 3:0.0 5:1.0 6:1.0 7:1.0 40:1.0 9:1.0 3358:1.0 11:1.0 
0.13163493895821143 1:6.0 2:0.0 3:0.0 87:1.0 6:1.0 7:1.0 502:1.0 9:1.0 666:1.0 11:1.0 
500.0 1:5.0 2:1.0 3:0.0 5:1.0 6:1.0 7:1.0 149:1.0 9:1.0 3042:1.0 11:1.0 
500.0 1:7.0 2:1.0 3:0.0 5:1.0 6:1.0 94:1.0 25:1.0 9:1.0 10:1.0 11:1.0 
0.07938441346166815 1:5.0 2:0.0 3:0.0 87:1.0 6:1.0 7:1.0 282:1.0 9:1.0 7310:1.0 11:1.0 
500.0 1:7.0 2:0.0 3:0.0 5:1.0 6:1.0 94:1.0 832:1.0 9:1.0 185:1.0 11:1.0 
500.0 1:6.0 2:4.0 3:0.0 87:1.0 6:1.0 94:1.0 6030:1.0 9:1.0 185:1.0 11:1.0 
0.30646922424930406 1:5.0 2:1.0 3:0.0 5:1.0 6:1.0 94:1.0 815:1.0 9:1.0 567:1.0 11:1.0 
0.03813436757652025 1:3.0 2:1.0 3:0.0 69:1.0 6:1.0 202:1.0 3701:1.0 9:1.0 2204:1.0 145:1.0 
0.15891253127302274 1:5.0 2:0.0 3:0.0 87:1.0 6:1.0 174:1.0 994:1.0 9:1.0 177:1.0 11:1.0 
499.87799780823633 1:7.0 2:2.0 3:0.0 5:1.0 6:1.0 53:1.0 8:1.0 9:1.0 626:1.0 291:1.0 
0.8014306413177166 1:7.0 2:4.0 3:0.0 5:1.0 6:1.0 7:1.0 235:1.0 9:1.0 113:1.0 11:1.0 
3.0036279815140223 1:7.0 2:4.0 3:0.0 5:1.0 37:1.0 7:1.0 235:1.0 39:1.0 113:1.0 11:1.0 
2.319918730375783 1:7.0 2:0.0 3:0.0 87:1.0 6:1.0 53:1.0 1077:1.0 9:1.0 185:1.0 11:1.0 
499.8472635656501 1:6.0 2:1.0 3:0.0 5:1.0 6:1.0 174:1.0 693:1.0 9:1.0 225:1.0 11:1.0 
2.8715230778926766 1:5.0 2:9.0 3:0.0 5:1.0 6:1.0 7:1.0 1587:1.0 9:1.0 7155:1.0 11:1.0 
0.3058708599997266 1:7.0 2:0.0 3:0.0 87:1.0 6:1.0 94:1.0 1077:1.0 9:1.0 185:1.0 11:1.0 
500.0 1:7.0 2:4.0 3:0.0 5:1.0 6:1.0 7:1.0 630:1.0 9:1.0 10:1.0 11:1.0 
500.0 1:6.0 2:2.0 3:0.0 5:1.0 6:1.0 7:1.0 993:1.0 9:1.0 10:1.0 11:1.0 
1.7676680503265678 1:7.0 2:0.0 3:0.0 87:1.0 6:1.0 7:1.0 282:1.0 9:1.0 3465:1.0 11:1.0 
500.0 1:5.0 2:1.0 3:0.0 5:1.0 6:1.0 174:1.0 693:1.0 9:1.0 177:1.0 119:1.0 
0.06330942467714229 1:5.0 2:0.0 3:0.0 87:1.0 6:1.0 174:1.0 17905:1.0 9:1.0 225:1.0 11:1.0 
0.8120801900850463 1:6.0 2:0.0 3:0.0 87:1.0 6:1.0 94:1.0 309:1.0 9:1.0 1508:1.0 11:1.0 
4.189049519802669 1:4.0 2:3.0 3:0.0 5:1.0 6:1.0 126:1.0 165:1.0 9:1.0 6152:1.0 129:1.0 
500.0 1:8.0 2:2.0 3:0.0 5:1.0 6:1.0 7:1.0 614:1.0 9:1.0 3358:1.0 11:1.0 
0.9146427356255917 1:5.0 2:12.0 3:0.0 166:1.0 44:1.0 7:1.0 167:1.0 45:1.0 3802:1.0 11:1.0 
500.0 1:6.0 2:1.0 3:0.0 5:1.0 6:1.0 7:1.0 149:1.0 9:1.0 18014:1.0 11:1.0 
499.9062190578051 1:6.0 2:4.0 3:0.0 87:1.0 6:1.0 174:1.0 6030:1.0 9:1.0 177:1.0 11:1.0 
1.9753432505353687 1:6.0 2:0.0 3:0.0 87:1.0 6:1.0 7:1.0 282:1.0 9:1.0 511:1.0 11:1.0 
500.0 1:7.0 2:0.0 3:0.0 87:1.0 6:1.0 7:1.0 1077:1.0 9:1.0 883:1.0 11:1.0 
2.6991268909633943 1:7.0 2:2.0 3:0.0 5:1.0 6:1.0 7:1.0 434:1.0 9:1.0 604:1.0 11:1.0 
307.14890310070695 1:7.0 2:3.0 3:0.0 5:1.0 6:1.0 7:1.0 40:1.0 9:1.0 7969:1.0 11:1.0 
0.22712430292911903 1:6.0 2:8.0 3:0.0 5:1.0 6:1.0 7:1.0 235:1.0 9:1.0 7025:1.0 11:1.0 
0.03856901454099731 1:7.0 2:0.0 3:0.0 87:1.0 6:1.0 7:1.0 1077:1.0 9:1.0 2732:1.0 11:1.0 
1.254063376067302 1:5.0 2:1.0 3:0.0 5:1.0 6:1.0 174:1.0 693:1.0 9:1.0 970:1.0 11:1.0 
0.4722921798684195 1:5.0 2:2.0 3:0.0 5:1.0 6:1.0 202:1.0 1587:1.0 9:1.0 357:1.0 24:1.0 
0.8391481510109385 1:5.0 2:3.0 3:0.0 5:1.0 6:1.0 89:1.0 630:1.0 9:1.0 371:1.0 93:1.0 
500.0 1:6.0 2:2.0 3:0.0 236:1.0 6:1.0 7:1.0 11627:1.0 9:1.0 113:1.0 11:1.0 
500.0 1:8.0 2:8.0 3:0.0 276:1.0 6:1.0 7:1.0 3938:1.0 9:1.0 3167:1.0 11:1.0 
0.9720708180599253 1:5.0 2:5.0 3:0.0 5:1.0 6:1.0 7:1.0 235:1.0 9:1.0 5227:1.0 11:1.0 
0.041478327746792686 1:4.0 2:0.0 3:0.0 87:1.0 6:1.0 174:1.0 17905:1.0 9:1.0 1486:1.0 119:1.0 
0.7059330078437945 1:5.0 2:3.0 3:0.0 5:1.0 6:1.0 7:1.0 149:1.0 9:1.0 695:1.0 11:1.0 
0.3320516269537259 1:5.0 2:4.0 3:0.0 5:1.0 6:1.0 7:1.0 165:1.0 9:1.0 10:1.0 119:1.0 
0.09807426955592217 1:5.0 2:2.0 3:0.0 5:1.0 6:1.0 174:1.0 630:1.0 9:1.0 177:1.0 11:1.0 
500.0 1:6.0 2:0.0 3:0.0 87:1.0 6:1.0 174:1.0 187:1.0 9:1.0 970:1.0 11:1.0 
500.0 1:8.0 2:2.0 3:0.0 5:1.0 6:1.0 7:1.0 614:1.0 9:1.0 3358:1.0 11:1.0 
21.01752363741783 1:6.0 2:2.0 3:0.0 5:1.0 6:1.0 7:1.0 434:1.0 9:1.0 2088:1.0 11:1.0 
81.76641459432284 1:5.0 2:5.0 3:0.0 5:1.0 6:1.0 94:1.0 534:1.0 9:1.0 185:1.0 11:1.0 
500.0 1:8.0 2:3.0 3:0.0 236:1.0 6:1.0 7:1.0 378:1.0 9:1.0 10:1.0 11:1.0 
500.0 1:8.0 2:3.0 3:0.0 236:1.0 6:1.0 7:1.0 378:1.0 9:1.0 10:1.0 11:1.0 
500.0 1:8.0 2:0.0 3:0.0 87:1.0 6:1.0 7:1.0 282:1.0 9:1.0 10:1.0 11:1.0 
145.93137691294004 1:8.0 2:0.0 3:0.0 87:1.0 6:1.0 94:1.0 282:1.0 9:1.0 10:1.0 11:1.0 
499.91103113710375 1:8.0 2:0.0 3:0.0 87:1.0 6:1.0 94:1.0 282:1.0 9:1.0 10:1.0 11:1.0 
500.0 1:8.0 2:0.0 3:0.0 87:1.0 6:1.0 94:1.0 187:1.0 9:1.0 10:1.0 11:1.0 
0.03453172615858072 1:4.0 2:1.0 3:0.0 69:1.0 16:1.0 53:1.0 377:1.0 4188:1.0 3416:1.0 11:1.0 
500.0 1:6.0 2:0.0 3:0.0 87:1.0 6:1.0 53:1.0 187:1.0 9:1.0 349:1.0 11:1.0 
0.5416582124703694 1:3.0 2:3.0 3:0.0 5:1.0 6:1.0 89:1.0 406:1.0 9:1.0 6636:1.0 93:1.0 
500.0 1:6.0 2:4.0 3:0.0 5:1.0 6:1.0 53:1.0 235:1.0 9:1.0 10:1.0 11:1.0 
500.0 1:7.0 2:1.0 3:0.0 5:1.0 6:1.0 20:1.0 40:1.0 9:1.0 14051:1.0 11:1.0 
500.0 1:5.0 2:3.0 3:0.0 236:1.0 6:1.0 174:1.0 378:1.0 9:1.0 1486:1.0 197:1.0 
0.0036327184640879253 1:5.0 2:1.0 3:0.0 67:1.0 6:1.0 53:1.0 18508:1.0 9:1.0 10:1.0 405:1.0 
0.46595167009233174 1:5.0 2:2.0 3:0.0 5:1.0 6:1.0 126:1.0 165:1.0 9:1.0 18524:1.0 93:1.0 
1.239971881239371 1:6.0 2:0.0 3:0.0 87:1.0 6:1.0 53:1.0 1084:1.0 9:1.0 2760:1.0 11:1.0 
0.6780224039481377 1:5.0 2:6.0 3:0.0 5:1.0 6:1.0 53:1.0 630:1.0 9:1.0 2145:1.0 145:1.0 
3.259022991046653 1:5.0 2:4.0 3:0.0 5:1.0 6:1.0 94:1.0 250:1.0 9:1.0 18604:1.0 11:1.0 
0.045212191807670735 1:6.0 2:2.0 3:0.0 5:1.0 304:1.0 53:1.0 8:1.0 305:1.0 10:1.0 11:1.0 
0.1899652368300867 1:6.0 2:0.0 3:0.0 87:1.0 6:1.0 174:1.0 187:1.0 9:1.0 877:1.0 291:1.0 
0.03785116833070591 1:6.0 2:6.0 3:0.0 631:1.0 44:1.0 94:1.0 5615:1.0 45:1.0 188:1.0 11:1.0 
0.11819348256116662 1:4.0 2:2.0 3:0.0 5:1.0 6:1.0 126:1.0 165:1.0 9:1.0 9742:1.0 527:1.0 
1.856801318287197 1:5.0 2:1.0 3:0.0 5:1.0 6:1.0 94:1.0 8:1.0 9:1.0 113:1.0 11:1.0 
0.08480959507655128 1:5.0 2:6.0 3:0.0 166:1.0 6:1.0 94:1.0 167:1.0 9:1.0 18718:1.0 197:1.0 
2.5749415009756116 1:7.0 2:5.0 3:0.0 5:1.0 6:1.0 94:1.0 534:1.0 9:1.0 10:1.0 291:1.0 
500.0 1:7.0 2:5.0 3:0.0 5:1.0 6:1.0 94:1.0 630:1.0 9:1.0 1086:1.0 11:1.0 
0.020370113257536765 1:5.0 2:4.0 3:0.0 5:1.0 6:1.0 53:1.0 235:1.0 9:1.0 11515:1.0 11:1.0 
284.3274897785236 1:7.0 2:2.0 3:0.0 166:1.0 6:1.0 94:1.0 167:1.0 9:1.0 10:1.0 11:1.0 
13.928009358468147 1:6.0 2:6.0 3:0.0 5:1.0 6:1.0 94:1.0 630:1.0 9:1.0 1086:1.0 11:1.0 
0.047496407438265546 1:5.0 2:3.0 3:0.0 276:1.0 6:1.0 174:1.0 1442:1.0 9:1.0 317:1.0 11:1.0 
0.030267556452739888 1:7.0 2:0.0 3:0.0 87:1.0 44:1.0 53:1.0 2069:1.0 45:1.0 2012:1.0 11:1.0 
0.022429306624763626 1:6.0 2:4.0 3:0.0 125:1.0 6:1.0 7:1.0 4561:1.0 9:1.0 185:1.0 11:1.0 
0.16321411919913284 1:6.0 2:3.0 3:0.0 5:1.0 6:1.0 174:1.0 693:1.0 9:1.0 970:1.0 11:1.0 
0.016315431358923965 1:5.0 2:7.0 3:0.0 5:1.0 6:1.0 94:1.0 534:1.0 9:1.0 15256:1.0 11:1.0 
0.06176922624295749 1:6.0 2:3.0 3:0.0 236:1.0 6:1.0 7:1.0 18924:1.0 9:1.0 921:1.0 11:1.0 
0.022266405399335047 1:5.0 2:0.0 3:0.0 87:1.0 6:1.0 53:1.0 18931:1.0 9:1.0 10:1.0 119:1.0 
499.8272743232181 1:7.0 2:4.0 3:0.0 5:1.0 6:1.0 174:1.0 4859:1.0 9:1.0 1486:1.0 11:1.0 
0.0833997149733862 1:7.0 2:4.0 3:0.0 236:1.0 6:1.0 7:1.0 4052:1.0 9:1.0 1345:1.0 11:1.0 
0.11370092868950213 1:6.0 2:10.0 3:0.0 5:1.0 6:1.0 7:1.0 534:1.0 9:1.0 17759:1.0 11:1.0 
193.18269569860234 1:5.0 2:7.0 3:0.0 5:1.0 6:1.0 94:1.0 832:1.0 9:1.0 10:1.0 11:1.0 
0.5021332681606406 1:7.0 2:8.0 3:0.0 236:1.0 6:1.0 7:1.0 8748:1.0 9:1.0 12681:1.0 11:1.0 
7.05692639741011 1:5.0 2:4.0 3:0.0 5:1.0 6:1.0 94:1.0 815:1.0 9:1.0 1086:1.0 11:1.0 
0.20988326092084944 1:5.0 2:0.0 3:0.0 87:1.0 6:1.0 126:1.0 6030:1.0 9:1.0 2010:1.0 11:1.0 
0.008836411085342388 1:5.0 2:0.0 3:0.0 26:1.0 37:1.0 94:1.0 265:1.0 39:1.0 10:1.0 24:1.0 
1.887651956481085 1:5.0 2:5.0 3:0.0 5:1.0 6:1.0 94:1.0 25:1.0 9:1.0 10:1.0 11:1.0 
500.0 1:8.0 2:2.0 3:0.0 5:1.0 6:1.0 7:1.0 7543:1.0 9:1.0 1023:1.0 291:1.0 
12.418846719566707 1:9.0 2:2.0 3:0.0 5:1.0 6:1.0 53:1.0 235:1.0 9:1.0 2735:1.0 11:1.0 
498.1319729865702 1:9.0 2:7.0 3:0.0 5:1.0 6:1.0 53:1.0 693:1.0 9:1.0 2735:1.0 11:1.0 
0.2398088379516477 1:9.0 2:0.0 3:0.0 87:1.0 16:1.0 53:1.0 965:1.0 17:1.0 2735:1.0 11:1.0 
500.0 1:7.0 2:1.0 3:0.0 5:1.0 6:1.0 53:1.0 218:1.0 9:1.0 10:1.0 11:1.0 
0.07256560489837333 1:4.0 2:2.0 3:0.0 166:1.0 37:1.0 202:1.0 167:1.0 39:1.0 19181:1.0 527:1.0 
0.22017042274146773 1:7.0 2:2.0 3:0.0 5:1.0 304:1.0 94:1.0 434:1.0 305:1.0 10100:1.0 145:1.0 
205.6982291743293 1:6.0 2:0.0 3:0.0 87:1.0 6:1.0 7:1.0 1077:1.0 9:1.0 3167:1.0 11:1.0 
0.04517861041605911 1:5.0 2:2.0 3:0.0 5:1.0 6:1.0 53:1.0 165:1.0 9:1.0 19220:1.0 145:1.0 
0.0054904328526752325 1:4.0 2:1.0 3:0.0 125:1.0 304:1.0 94:1.0 776:1.0 768:1.0 10:1.0 145:1.0 
500.0 1:6.0 2:0.0 3:0.0 87:1.0 6:1.0 94:1.0 187:1.0 9:1.0 185:1.0 11:1.0 
500.0 1:5.0 2:0.0 3:0.0 87:1.0 6:1.0 94:1.0 187:1.0 9:1.0 10:1.0 119:1.0 
0.09250954925206463 1:4.0 2:1.0 3:0.0 5:1.0 6:1.0 126:1.0 250:1.0 9:1.0 6611:1.0 129:1.0 
500.0 1:4.0 2:0.0 3:0.0 87:1.0 6:1.0 126:1.0 1142:1.0 9:1.0 6611:1.0 129:1.0 
500.0 1:6.0 2:1.0 3:0.0 5:1.0 6:1.0 94:1.0 8:1.0 9:1.0 55:1.0 11:1.0 
1.7258171247396936 1:6.0 2:2.0 3:0.0 166:1.0 6:1.0 126:1.0 167:1.0 9:1.0 3800:1.0 129:1.0 
0.03883190093469483 1:6.0 2:0.0 3:0.0 87:1.0 6:1.0 7:1.0 296:1.0 9:1.0 321:1.0 11:1.0 
3.2876196205931487 1:6.0 2:4.0 3:0.0 5:1.0 6:1.0 7:1.0 149:1.0 9:1.0 3691:1.0 11:1.0 
0.64964977147409 1:7.0 2:3.0 3:0.0 5:1.0 6:1.0 94:1.0 693:1.0 9:1.0 3496:1.0 11:1.0 
0.9455697229152222 1:6.0 2:0.0 3:0.0 87:1.0 6:1.0 53:1.0 282:1.0 9:1.0 4704:1.0 11:1.0 
500.0 1:8.0 2:2.0 3:0.0 5:1.0 6:1.0 94:1.0 8:1.0 9:1.0 1601:1.0 11:1.0 
0.05924865364233013 1:6.0 2:1.0 3:0.0 5:1.0 6:1.0 89:1.0 434:1.0 9:1.0 5622:1.0 93:1.0 
500.0 1:6.0 2:4.0 3:0.0 5:1.0 6:1.0 89:1.0 25:1.0 9:1.0 5622:1.0 93:1.0 
500.0 1:6.0 2:3.0 3:0.0 236:1.0 6:1.0 94:1.0 378:1.0 9:1.0 10:1.0 11:1.0 
500.0 1:5.0 2:4.0 3:0.0 5:1.0 6:1.0 94:1.0 149:1.0 9:1.0 1941:1.0 11:1.0 
0.2936372019173202 1:5.0 2:5.0 3:0.0 328:1.0 16:1.0 94:1.0 981:1.0 17:1.0 1941:1.0 11:1.0 
0.01312230198481503 1:7.0 2:0.0 3:0.0 87:1.0 44:1.0 53:1.0 19006:1.0 45:1.0 10:1.0 11:1.0 
0.030298062011058464 1:5.0 2:1.0 3:0.0 166:1.0 6:1.0 126:1.0 167:1.0 9:1.0 584:1.0 93:1.0 
0.31095768289363707 1:6.0 2:6.0 3:0.0 5:1.0 6:1.0 7:1.0 534:1.0 9:1.0 535:1.0 11:1.0 
1.4096044122133222 1:10.0 2:5.0 3:0.0 5:1.0 6:1.0 7:1.0 3732:1.0 9:1.0 818:1.0 11:1.0 
0.0010464356118857513 1:3.0 2:6.0 3:0.0 166:1.0 6:1.0 89:1.0 167:1.0 9:1.0 4626:1.0 93:1.0 
0.12128705036907352 1:6.0 2:0.0 3:0.0 87:1.0 6:1.0 53:1.0 19615:1.0 9:1.0 1086:1.0 11:1.0 
0.21714391066288216 1:8.0 2:0.0 3:0.0 87:1.0 6:1.0 53:1.0 502:1.0 9:1.0 349:1.0 11:1.0 
500.0 1:8.0 2:6.0 3:0.0 5:1.0 6:1.0 53:1.0 3732:1.0 9:1.0 349:1.0 11:1.0 
0.04056030956040778 1:5.0 2:1.0 3:0.0 5:1.0 6:1.0 53:1.0 149:1.0 9:1.0 113:1.0 11:1.0 
0.7202528015364287 1:5.0 2:1.0 3:0.0 328:1.0 6:1.0 7:1.0 295:1.0 9:1.0 10:1.0 11:1.0 
106.70586111310831 1:8.0 2:1.0 3:0.0 5:1.0 6:1.0 94:1.0 149:1.0 9:1.0 185:1.0 11:1.0 
500.0 1:8.0 2:0.0 3:0.0 87:1.0 6:1.0 94:1.0 1084:1.0 9:1.0 185:1.0 11:1.0 
0.17502572485810267 1:7.0 2:0.0 3:0.0 87:1.0 6:1.0 94:1.0 1667:1.0 9:1.0 185:1.0 11:1.0 
214.39396366970925 1:7.0 2:7.0 3:0.0 5:1.0 6:1.0 94:1.0 534:1.0 9:1.0 185:1.0 11:1.0 
1.2538375561831723 1:3.0 2:2.0 3:0.0 166:1.0 6:1.0 89:1.0 167:1.0 9:1.0 16332:1.0 93:1.0 
2.9711148030873815 1:6.0 2:5.0 3:0.0 5:1.0 6:1.0 53:1.0 3458:1.0 9:1.0 10:1.0 119:1.0 
500.0 1:7.0 2:1.0 3:0.0 5:1.0 6:1.0 7:1.0 149:1.0 9:1.0 3561:1.0 11:1.0 
0.34510444942223645 1:5.0 2:6.0 3:0.0 5:1.0 6:1.0 7:1.0 149:1.0 9:1.0 9991:1.0 11:1.0 
500.0 1:5.0 2:2.0 3:0.0 236:1.0 6:1.0 7:1.0 19834:1.0 9:1.0 8312:1.0 145:1.0 
2.9562722318150065 1:6.0 2:3.0 3:0.0 5:1.0 6:1.0 7:1.0 235:1.0 9:1.0 1677:1.0 11:1.0 
499.86689395893063 1:6.0 2:3.0 3:0.0 5:1.0 6:1.0 126:1.0 235:1.0 9:1.0 8280:1.0 476:1.0 
500.0 1:6.0 2:5.0 3:0.0 5:1.0 6:1.0 7:1.0 832:1.0 9:1.0 1301:1.0 11:1.0 
0.15826109379902173 1:5.0 2:2.0 3:0.0 166:1.0 6:1.0 174:1.0 167:1.0 9:1.0 545:1.0 11:1.0 
0.11626666039614084 1:6.0 2:6.0 3:0.0 5:1.0 6:1.0 94:1.0 149:1.0 9:1.0 14228:1.0 291:1.0 
0.625816315077963 1:6.0 2:2.0 3:0.0 5:1.0 6:1.0 7:1.0 149:1.0 9:1.0 6411:1.0 11:1.0 
0.5602765881553738 1:4.0 2:2.0 3:0.0 5:1.0 6:1.0 7:1.0 8:1.0 9:1.0 10:1.0 291:1.0 
0.06274181453461553 1:5.0 2:2.0 3:0.0 125:1.0 6:1.0 7:1.0 3241:1.0 9:1.0 10:1.0 11:1.0 
0.05131786527256866 1:6.0 2:10.0 3:0.0 276:1.0 6:1.0 7:1.0 19907:1.0 9:1.0 5622:1.0 11:1.0 
0.1156458294426958 1:5.0 2:2.0 3:0.0 125:1.0 6:1.0 7:1.0 994:1.0 9:1.0 113:1.0 11:1.0 
3.890886872027708 1:3.0 2:2.0 3:0.0 5:1.0 6:1.0 89:1.0 630:1.0 9:1.0 19911:1.0 93:1.0 
8.01728947254676 1:6.0 2:8.0 3:0.0 5:1.0 6:1.0 94:1.0 534:1.0 9:1.0 185:1.0 119:1.0 
498.3390777998295 1:7.0 2:1.0 3:0.0 5:1.0 6:1.0 94:1.0 218:1.0 9:1.0 1086:1.0 11:1.0 
0.04511212180529645 1:4.0 2:0.0 3:0.0 125:1.0 6:1.0 126:1.0 18461:1.0 9:1.0 494:1.0 129:1.0 
0.15268137245813226 1:4.0 2:4.0 3:0.0 5:1.0 6:1.0 89:1.0 8:1.0 9:1.0 19946:1.0 527:1.0 
500.0 1:4.0 2:0.0 3:0.0 87:1.0 6:1.0 89:1.0 1142:1.0 9:1.0 2046:1.0 93:1.0 
0.2894908878634333 1:7.0 2:0.0 3:0.0 87:1.0 37:1.0 7:1.0 2843:1.0 39:1.0 2451:1.0 11:1.0 
499.7793621052734 1:5.0 2:3.0 3:0.0 5:1.0 6:1.0 174:1.0 630:1.0 9:1.0 177:1.0 119:1.0 
500.0 1:7.0 2:3.0 3:0.0 5:1.0 6:1.0 7:1.0 434:1.0 9:1.0 10:1.0 11:1.0 
500.0 1:7.0 2:3.0 3:0.0 5:1.0 6:1.0 7:1.0 434:1.0 9:1.0 10:1.0 11:1.0 
499.9643317356252 1:7.0 2:4.0 3:0.0 236:1.0 6:1.0 7:1.0 675:1.0 9:1.0 10:1.0 11:1.0 
0.004640559990161261 1:7.0 2:0.0 3:0.0 87:1.0 6:1.0 53:1.0 2607:1.0 9:1.0 1596:1.0 11:1.0 
0.08880468028897476 1:7.0 2:5.0 3:0.0 5:1.0 6:1.0 94:1.0 3458:1.0 9:1.0 188:1.0 11:1.0 
0.08382188964722481 1:5.0 2:3.0 3:0.0 236:1.0 6:1.0 53:1.0 8868:1.0 9:1.0 349:1.0 145:1.0 
500.0 1:8.0 2:5.0 3:0.0 5:1.0 6:1.0 94:1.0 40:1.0 9:1.0 2046:1.0 11:1.0 
0.03227915636065899 1:7.0 2:8.0 3:0.0 236:1.0 16:1.0 7:1.0 378:1.0 17:1.0 185:1.0 11:1.0 
500.0 1:7.0 2:0.0 3:0.0 87:1.0 6:1.0 174:1.0 1077:1.0 9:1.0 970:1.0 11:1.0 
0.07744060792142024 1:6.0 2:0.0 3:0.0 87:1.0 6:1.0 94:1.0 1667:1.0 9:1.0 128:1.0 11:1.0 
500.0 1:8.0 2:4.0 3:0.0 5:1.0 6:1.0 7:1.0 434:1.0 9:1.0 185:1.0 11:1.0 
500.0 1:7.0 2:5.0 3:0.0 5:1.0 6:1.0 7:1.0 4443:1.0 9:1.0 1280:1.0 197:1.0 
500.0 1:7.0 2:1.0 3:0.0 236:1.0 6:1.0 53:1.0 20125:1.0 9:1.0 4307:1.0 11:1.0 
500.0 1:5.0 2:1.0 3:0.0 5:1.0 6:1.0 126:1.0 20134:1.0 9:1.0 6636:1.0 93:1.0 
0.45250338193301376 1:9.0 2:1.0 3:0.0 5:1.0 6:1.0 94:1.0 149:1.0 9:1.0 2564:1.0 11:1.0 
499.96751398589413 1:9.0 2:1.0 3:0.0 5:1.0 6:1.0 94:1.0 4859:1.0 9:1.0 2564:1.0 11:1.0 
0.11499218618447635 1:4.0 2:2.0 3:0.0 5:1.0 304:1.0 126:1.0 165:1.0 1444:1.0 7053:1.0 405:1.0 
0.5679093598690008 1:4.0 2:2.0 3:0.0 5:1.0 6:1.0 126:1.0 165:1.0 9:1.0 217:1.0 129:1.0 
0.33066815125718624 1:4.0 2:1.0 3:0.0 5:1.0 6:1.0 126:1.0 630:1.0 9:1.0 2990:1.0 93:1.0 
0.9928428349143813 1:5.0 2:0.0 3:0.0 87:1.0 6:1.0 174:1.0 282:1.0 9:1.0 1273:1.0 405:1.0 
0.6521529061629464 1:3.0 2:4.0 3:0.0 5:1.0 6:1.0 89:1.0 235:1.0 9:1.0 8906:1.0 93:1.0 
500.0 1:7.0 2:1.0 3:0.0 5:1.0 6:1.0 53:1.0 4917:1.0 9:1.0 10:1.0 197:1.0 
0.09703153447426865 1:5.0 2:7.0 3:0.0 5:1.0 6:1.0 94:1.0 3732:1.0 9:1.0 886:1.0 11:1.0 
500.0 1:6.0 2:0.0 3:0.0 87:1.0 6:1.0 174:1.0 187:1.0 9:1.0 317:1.0 11:1.0 
0.018559473298696044 1:6.0 2:6.0 3:0.0 276:1.0 6:1.0 7:1.0 4936:1.0 9:1.0 718:1.0 11:1.0 
500.0 1:7.0 2:2.0 3:0.0 236:1.0 6:1.0 7:1.0 9875:1.0 9:1.0 19034:1.0 79:1.0 
0.1813121749358289 1:5.0 2:3.0 3:0.0 5:1.0 6:1.0 126:1.0 4859:1.0 9:1.0 283:1.0 11:1.0 
500.0 1:7.0 2:0.0 3:0.0 87:1.0 6:1.0 7:1.0 1077:1.0 9:1.0 321:1.0 11:1.0 
500.0 1:7.0 2:2.0 3:0.0 5:1.0 6:1.0 7:1.0 630:1.0 9:1.0 10:1.0 11:1.0 
500.0 1:7.0 2:2.0 3:0.0 5:1.0 6:1.0 7:1.0 630:1.0 9:1.0 10:1.0 11:1.0 
482.3833347451176 1:7.0 2:0.0 3:0.0 5:1.0 6:1.0 7:1.0 832:1.0 9:1.0 10:1.0 11:1.0 
0.18507597929241812 1:8.0 2:2.0 3:0.0 5:1.0 6:1.0 7:1.0 434:1.0 9:1.0 3419:1.0 11:1.0 
4.876092606907034 1:5.0 2:6.0 3:0.0 5:1.0 6:1.0 94:1.0 3732:1.0 9:1.0 185:1.0 291:1.0 
489.76402877652873 1:8.0 2:0.0 3:0.0 87:1.0 6:1.0 94:1.0 1077:1.0 9:1.0 349:1.0 11:1.0 
500.0 1:8.0 2:1.0 3:0.0 5:1.0 6:1.0 94:1.0 149:1.0 9:1.0 349:1.0 11:1.0 
0.39751040929332393 1:7.0 2:7.0 3:0.0 236:1.0 6:1.0 7:1.0 3344:1.0 9:1.0 10133:1.0 11:1.0 
0.32827078440726626 1:7.0 2:6.0 3:0.0 5:1.0 44:1.0 7:1.0 1587:1.0 45:1.0 7840:1.0 11:1.0 
0.24519213227412728 1:9.0 2:3.0 3:0.0 5:1.0 6:1.0 7:1.0 25:1.0 9:1.0 5021:1.0 11:1.0 
0.8704483058083282 1:9.0 2:3.0 3:0.0 5:1.0 44:1.0 7:1.0 25:1.0 45:1.0 5021:1.0 11:1.0 
0.08306431920147916 1:5.0 2:3.0 3:0.0 5:1.0 6:1.0 94:1.0 948:1.0 9:1.0 494:1.0 11:1.0 
7.536949859993665 1:7.0 2:0.0 3:0.0 87:1.0 6:1.0 94:1.0 282:1.0 9:1.0 113:1.0 11:1.0 
9.235016815108228 1:7.0 2:3.0 3:0.0 5:1.0 6:1.0 7:1.0 149:1.0 9:1.0 682:1.0 11:1.0 
0.13389844489088437 1:5.0 2:9.0 3:0.0 236:1.0 6:1.0 7:1.0 6539:1.0 9:1.0 5733:1.0 11:1.0 
0.1084354378970686 1:5.0 2:8.0 3:0.0 236:1.0 6:1.0 7:1.0 9652:1.0 9:1.0 6152:1.0 11:1.0 
0.1609592589855398 1:5.0 2:2.0 3:0.0 5:1.0 44:1.0 7:1.0 165:1.0 45:1.0 682:1.0 11:1.0 
500.0 1:6.0 2:8.0 3:0.0 5:1.0 6:1.0 94:1.0 630:1.0 9:1.0 185:1.0 11:1.0 
0.13883672857283502 1:4.0 2:5.0 3:0.0 5:1.0 6:1.0 202:1.0 149:1.0 9:1.0 4815:1.0 93:1.0 
0.25224934487925516 1:4.0 2:6.0 3:0.0 5:1.0 6:1.0 7:1.0 3732:1.0 9:1.0 3416:1.0 291:1.0 
0.002160806160293177 1:6.0 2:1.0 3:0.0 69:1.0 6:1.0 575:1.0 419:1.0 9:1.0 578:1.0 119:1.0 
0.26215605078507687 1:7.0 2:0.0 3:0.0 87:1.0 6:1.0 7:1.0 282:1.0 9:1.0 55:1.0 11:1.0 
44.32378854222222 1:4.0 2:3.0 3:0.0 5:1.0 6:1.0 126:1.0 693:1.0 9:1.0 10:1.0 93:1.0 
500.0 1:7.0 2:8.0 3:0.0 276:1.0 6:1.0 7:1.0 4044:1.0 9:1.0 185:1.0 291:1.0 
497.2156158463058 1:8.0 2:1.0 3:0.0 5:1.0 6:1.0 7:1.0 149:1.0 9:1.0 921:1.0 11:1.0 
0.22224825622178723 1:5.0 2:6.0 3:0.0 5:1.0 6:1.0 7:1.0 8:1.0 9:1.0 7407:1.0 145:1.0 
499.9561296885494 1:8.0 2:4.0 3:0.0 236:1.0 6:1.0 7:1.0 675:1.0 9:1.0 886:1.0 56:1.0 
500.0 1:8.0 2:4.0 3:0.0 236:1.0 304:1.0 7:1.0 675:1.0 305:1.0 886:1.0 56:1.0 
2.0081438174586363 1:5.0 2:3.0 3:0.0 236:1.0 6:1.0 94:1.0 4732:1.0 9:1.0 6117:1.0 11:1.0 
0.8908451876776813 1:6.0 2:2.0 3:0.0 5:1.0 6:1.0 174:1.0 630:1.0 9:1.0 1273:1.0 11:1.0 
500.0 1:7.0 2:1.0 3:0.0 5:1.0 6:1.0 53:1.0 8:1.0 9:1.0 1086:1.0 11:1.0 
0.028007985521292172 1:7.0 2:0.0 3:0.0 87:1.0 37:1.0 94:1.0 2565:1.0 39:1.0 11058:1.0 11:1.0 
0.08315940920524045 1:7.0 2:1.0 3:0.0 5:1.0 37:1.0 94:1.0 40:1.0 39:1.0 11058:1.0 11:1.0 
0.16013516750206336 1:6.0 2:3.0 3:0.0 236:1.0 6:1.0 94:1.0 20687:1.0 9:1.0 15262:1.0 11:1.0 
499.97205638149995 1:6.0 2:2.0 3:0.0 5:1.0 6:1.0 94:1.0 832:1.0 9:1.0 349:1.0 291:1.0 
495.95540694924273 1:7.0 2:1.0 3:0.0 5:1.0 6:1.0 94:1.0 815:1.0 9:1.0 10:1.0 11:1.0 
0.29037379808500485 1:9.0 2:3.0 3:0.0 236:1.0 6:1.0 94:1.0 10623:1.0 9:1.0 113:1.0 11:1.0 
0.002516429041495653 1:9.0 2:3.0 3:0.0 236:1.0 37:1.0 94:1.0 10623:1.0 39:1.0 113:1.0 11:1.0 
0.3266529316452541 1:9.0 2:3.0 3:0.0 236:1.0 44:1.0 94:1.0 10623:1.0 45:1.0 113:1.0 11:1.0 
0.09603473445937324 1:5.0 2:0.0 3:0.0 87:1.0 304:1.0 53:1.0 4706:1.0 1444:1.0 185:1.0 405:1.0 
0.27285124928784693 1:4.0 2:2.0 3:0.0 5:1.0 44:1.0 94:1.0 149:1.0 45:1.0 1941:1.0 11:1.0 
500.0 1:7.0 2:4.0 3:0.0 236:1.0 6:1.0 7:1.0 1726:1.0 9:1.0 20746:1.0 11:1.0 
0.07322475658351553 1:5.0 2:2.0 3:0.0 5:1.0 6:1.0 7:1.0 235:1.0 9:1.0 20753:1.0 11:1.0 
2.156765952392271 1:5.0 2:2.0 3:0.0 5:1.0 6:1.0 7:1.0 630:1.0 9:1.0 604:1.0 11:1.0 
3.291168407466271 1:5.0 2:10.0 3:0.0 5:1.0 6:1.0 7:1.0 25:1.0 9:1.0 3721:1.0 11:1.0 
0.0753367105442187 1:4.0 2:5.0 3:0.0 166:1.0 6:1.0 53:1.0 167:1.0 9:1.0 203:1.0 197:1.0 
0.1444094719653743 1:5.0 2:3.0 3:0.0 5:1.0 6:1.0 94:1.0 5178:1.0 9:1.0 10:1.0 11:1.0 
500.0 1:5.0 2:4.0 3:0.0 236:1.0 6:1.0 7:1.0 378:1.0 9:1.0 3193:1.0 11:1.0 
0.14908090295267057 1:4.0 2:0.0 3:0.0 87:1.0 6:1.0 174:1.0 14462:1.0 9:1.0 177:1.0 119:1.0 
0.05584239575140949 1:5.0 2:3.0 3:0.0 236:1.0 6:1.0 7:1.0 723:1.0 9:1.0 2803:1.0 11:1.0 
0.06718461064811988 1:6.0 2:0.0 3:0.0 87:1.0 6:1.0 7:1.0 20853:1.0 9:1.0 113:1.0 11:1.0 
0.45347828990628797 1:6.0 2:5.0 3:0.0 236:1.0 6:1.0 53:1.0 329:1.0 9:1.0 4156:1.0 11:1.0 
0.17661241677842354 1:5.0 2:7.0 3:0.0 5:1.0 6:1.0 126:1.0 235:1.0 9:1.0 3327:1.0 11:1.0 
0.2288551987454078 1:5.0 2:5.0 3:0.0 236:1.0 6:1.0 7:1.0 474:1.0 9:1.0 113:1.0 11:1.0 
1.599661697142248 1:13.0 2:8.0 3:0.0 236:1.0 6:1.0 7:1.0 474:1.0 9:1.0 11279:1.0 11:1.0 
0.03002274312211297 1:5.0 2:1.0 3:0.0 69:1.0 6:1.0 75:1.0 720:1.0 9:1.0 170:1.0 24:1.0 
500.0 1:8.0 2:0.0 3:0.0 87:1.0 6:1.0 94:1.0 1077:1.0 9:1.0 185:1.0 11:1.0 
499.2341941982802 1:6.0 2:2.0 3:0.0 5:1.0 6:1.0 174:1.0 149:1.0 9:1.0 970:1.0 11:1.0 
2.0897405104281805 1:5.0 2:0.0 3:0.0 87:1.0 6:1.0 174:1.0 187:1.0 9:1.0 317:1.0 405:1.0 
0.1841133477658788 1:6.0 2:2.0 3:0.0 5:1.0 6:1.0 7:1.0 1156:1.0 9:1.0 10:1.0 119:1.0 
0.23153834381831703 1:7.0 2:2.0 3:0.0 5:1.0 6:1.0 126:1.0 693:1.0 9:1.0 535:1.0 11:1.0 
0.7285728625146586 1:4.0 2:2.0 3:0.0 5:1.0 6:1.0 126:1.0 693:1.0 9:1.0 2530:1.0 119:1.0 
498.10236051022133 1:5.0 2:4.0 3:0.0 5:1.0 6:1.0 53:1.0 235:1.0 9:1.0 185:1.0 119:1.0 
499.74676408349245 1:5.0 2:6.0 3:0.0 5:1.0 6:1.0 174:1.0 3458:1.0 9:1.0 225:1.0 291:1.0 
51.24820473397304 1:5.0 2:3.0 3:0.0 5:1.0 6:1.0 7:1.0 693:1.0 9:1.0 10:1.0 291:1.0 
0.14777495415493033 1:9.0 2:3.0 3:0.0 236:1.0 6:1.0 7:1.0 378:1.0 9:1.0 5087:1.0 11:1.0 
500.0 1:9.0 2:6.0 3:0.0 236:1.0 6:1.0 7:1.0 1511:1.0 9:1.0 5087:1.0 11:1.0 
0.14444593944298365 1:6.0 2:4.0 3:0.0 5:1.0 37:1.0 7:1.0 235:1.0 39:1.0 9470:1.0 119:1.0 
498.0734197714023 1:6.0 2:4.0 3:0.0 5:1.0 6:1.0 7:1.0 3732:1.0 9:1.0 818:1.0 11:1.0 
0.5456982297788479 1:9.0 2:0.0 3:0.0 87:1.0 6:1.0 7:1.0 1975:1.0 9:1.0 7162:1.0 11:1.0 
500.0 1:9.0 2:2.0 3:0.0 5:1.0 6:1.0 7:1.0 218:1.0 9:1.0 7162:1.0 11:1.0 
0.16232488811657395 1:5.0 2:6.0 3:0.0 236:1.0 6:1.0 7:1.0 21086:1.0 9:1.0 848:1.0 11:1.0 
499.8377834221352 1:7.0 2:2.0 3:0.0 166:1.0 6:1.0 7:1.0 167:1.0 9:1.0 5888:1.0 119:1.0 
500.0 1:7.0 2:6.0 3:0.0 125:1.0 6:1.0 7:1.0 14172:1.0 9:1.0 5352:1.0 11:1.0 
1.9103217926574052 1:5.0 2:3.0 3:0.0 5:1.0 6:1.0 53:1.0 693:1.0 9:1.0 10:1.0 119:1.0 
500.0 1:9.0 2:1.0 3:0.0 5:1.0 6:1.0 53:1.0 815:1.0 9:1.0 188:1.0 11:1.0 
0.030956485963091845 1:4.0 2:14.0 3:0.0 328:1.0 6:1.0 174:1.0 2092:1.0 9:1.0 177:1.0 119:1.0 
259.8626833523422 1:6.0 2:6.0 3:0.0 5:1.0 6:1.0 94:1.0 534:1.0 9:1.0 10:1.0 11:1.0 
0.20037277222469368 1:5.0 2:2.0 3:0.0 5:1.0 6:1.0 89:1.0 948:1.0 9:1.0 3721:1.0 93:1.0 
0.5366431885611519 1:5.0 2:1.0 3:0.0 5:1.0 6:1.0 174:1.0 8:1.0 9:1.0 225:1.0 11:1.0 
0.824718080924631 1:5.0 2:12.0 3:0.0 5:1.0 6:1.0 7:1.0 3458:1.0 9:1.0 3711:1.0 11:1.0 
0.3493247670048809 1:5.0 2:5.0 3:0.0 5:1.0 6:1.0 7:1.0 8:1.0 9:1.0 6636:1.0 11:1.0 
499.29280586186803 1:5.0 2:4.0 3:0.0 5:1.0 6:1.0 174:1.0 8:1.0 9:1.0 317:1.0 291:1.0 
0.09423608670984929 1:6.0 2:5.0 3:0.0 236:1.0 6:1.0 7:1.0 9173:1.0 9:1.0 530:1.0 11:1.0 
499.9832188793771 1:8.0 2:0.0 3:0.0 87:1.0 6:1.0 94:1.0 1077:1.0 9:1.0 185:1.0 11:1.0 
500.0 1:7.0 2:0.0 3:0.0 87:1.0 6:1.0 94:1.0 1077:1.0 9:1.0 16429:1.0 11:1.0 
500.0 1:10.0 2:0.0 3:0.0 87:1.0 6:1.0 7:1.0 1142:1.0 9:1.0 10:1.0 11:1.0 
0.09182422356452273 1:8.0 2:4.0 3:0.0 5:1.0 6:1.0 53:1.0 534:1.0 9:1.0 188:1.0 119:1.0 
500.0 1:5.0 2:3.0 3:0.0 236:1.0 6:1.0 89:1.0 378:1.0 9:1.0 1596:1.0 291:1.0 
0.3509396800074095 1:5.0 2:2.0 3:0.0 5:1.0 6:1.0 7:1.0 149:1.0 9:1.0 834:1.0 11:1.0 
0.039462929682334794 1:5.0 2:1.0 3:0.0 5:1.0 6:1.0 126:1.0 8:1.0 9:1.0 12536:1.0 129:1.0 
1.0391840451197216 1:5.0 2:2.0 3:0.0 5:1.0 6:1.0 7:1.0 149:1.0 9:1.0 6436:1.0 11:1.0 
0.4500740702431567 1:5.0 2:1.0 3:0.0 166:1.0 6:1.0 7:1.0 167:1.0 9:1.0 10647:1.0 405:1.0 
3.8674173262452864 1:6.0 2:3.0 3:0.0 5:1.0 6:1.0 94:1.0 693:1.0 9:1.0 2603:1.0 11:1.0 
0.1618538464796579 1:4.0 2:1.0 3:0.0 87:1.0 6:1.0 126:1.0 3567:1.0 9:1.0 55:1.0 129:1.0 
0.012511756330605058 1:6.0 2:11.0 3:0.0 5:1.0 6:1.0 7:1.0 534:1.0 9:1.0 113:1.0 11:1.0 
0.18061338951714254 1:7.0 2:0.0 3:0.0 87:1.0 6:1.0 7:1.0 282:1.0 9:1.0 11003:1.0 11:1.0 
500.0 1:7.0 2:5.0 3:0.0 5:1.0 6:1.0 7:1.0 534:1.0 9:1.0 3193:1.0 11:1.0 
0.29555288132899793 1:7.0 2:1.0 3:0.0 5:1.0 6:1.0 53:1.0 630:1.0 9:1.0 1073:1.0 405:1.0 
0.0652824252251016 1:7.0 2:1.0 3:0.0 5:1.0 304:1.0 53:1.0 630:1.0 1444:1.0 1073:1.0 405:1.0 
0.10054305830007043 1:7.0 2:3.0 3:0.0 236:1.0 304:1.0 53:1.0 19834:1.0 1444:1.0 1073:1.0 405:1.0 
0.43925279615636587 1:5.0 2:0.0 3:0.0 87:1.0 6:1.0 53:1.0 282:1.0 9:1.0 1073:1.0 145:1.0 
500.0 1:5.0 2:11.0 3:0.0 5:1.0 6:1.0 94:1.0 832:1.0 9:1.0 10:1.0 11:1.0 
499.94132211272324 1:10.0 2:1.0 3:0.0 5:1.0 6:1.0 94:1.0 8:1.0 9:1.0 4487:1.0 11:1.0 
0.11513902361419494 1:6.0 2:0.0 3:0.0 87:1.0 6:1.0 7:1.0 282:1.0 9:1.0 20349:1.0 11:1.0 
1.7428353634802454 1:8.0 2:4.0 3:0.0 5:1.0 44:1.0 7:1.0 165:1.0 45:1.0 3800:1.0 11:1.0 
0.12254784641498447 1:6.0 2:0.0 3:0.0 87:1.0 304:1.0 174:1.0 187:1.0 1444:1.0 2811:1.0 11:1.0 
500.0 1:5.0 2:0.0 3:0.0 87:1.0 6:1.0 94:1.0 1077:1.0 9:1.0 4601:1.0 405:1.0 
1.066496139186127 1:6.0 2:0.0 3:0.0 87:1.0 6:1.0 53:1.0 4596:1.0 9:1.0 4899:1.0 11:1.0 
0.3304129316926739 1:9.0 2:1.0 3:0.0 5:1.0 6:1.0 94:1.0 149:1.0 9:1.0 9698:1.0 11:1.0 
498.32066489412074 1:9.0 2:1.0 3:0.0 5:1.0 6:1.0 94:1.0 149:1.0 9:1.0 9698:1.0 11:1.0 
500.0 1:9.0 2:4.0 3:0.0 5:1.0 6:1.0 94:1.0 434:1.0 9:1.0 9698:1.0 11:1.0 
500.0 1:7.0 2:0.0 3:0.0 87:1.0 6:1.0 174:1.0 1077:1.0 9:1.0 177:1.0 11:1.0 
500.0 1:8.0 2:1.0 3:0.0 5:1.0 6:1.0 7:1.0 149:1.0 9:1.0 4487:1.0 11:1.0 
495.37340319959554 1:7.0 2:1.0 3:0.0 5:1.0 6:1.0 7:1.0 149:1.0 9:1.0 8295:1.0 11:1.0 
0.2502513091162517 1:3.0 2:4.0 3:0.0 5:1.0 304:1.0 89:1.0 218:1.0 305:1.0 2622:1.0 93:1.0 
499.330405684995 1:8.0 2:2.0 3:0.0 5:1.0 6:1.0 7:1.0 149:1.0 9:1.0 3505:1.0 11:1.0 
1.1174620114179243 1:6.0 2:5.0 3:0.0 236:1.0 6:1.0 7:1.0 7135:1.0 9:1.0 113:1.0 11:1.0 
0.03795118616283146 1:6.0 2:5.0 3:0.0 236:1.0 44:1.0 7:1.0 7135:1.0 45:1.0 113:1.0 11:1.0 
500.0 1:7.0 2:1.0 3:0.0 5:1.0 6:1.0 7:1.0 149:1.0 9:1.0 113:1.0 11:1.0 
0.2788573467262903 1:6.0 2:2.0 3:0.0 5:1.0 6:1.0 7:1.0 250:1.0 9:1.0 323:1.0 119:1.0 
1.4822335603597072 1:5.0 2:3.0 3:0.0 5:1.0 37:1.0 94:1.0 235:1.0 39:1.0 10:1.0 145:1.0 
500.0 1:5.0 2:3.0 3:0.0 236:1.0 6:1.0 7:1.0 4154:1.0 9:1.0 113:1.0 291:1.0 
0.563857226689607 1:3.0 2:2.0 3:0.0 5:1.0 72:1.0 126:1.0 149:1.0 4611:1.0 6436:1.0 129:1.0 
500.0 1:6.0 2:0.0 3:0.0 87:1.0 6:1.0 174:1.0 187:1.0 9:1.0 877:1.0 11:1.0 
500.0 1:5.0 2:0.0 3:0.0 87:1.0 6:1.0 94:1.0 187:1.0 9:1.0 10:1.0 119:1.0 
0.047843197942501914 1:7.0 2:3.0 3:0.0 5:1.0 6:1.0 7:1.0 149:1.0 9:1.0 9470:1.0 11:1.0 
0.06562611479030978 1:4.0 2:7.0 3:0.0 5:1.0 6:1.0 94:1.0 3732:1.0 9:1.0 886:1.0 291:1.0 
2.6379672926259463 1:6.0 2:0.0 3:0.0 87:1.0 6:1.0 174:1.0 1077:1.0 9:1.0 970:1.0 11:1.0 
2.0733293991908006 1:4.0 2:6.0 3:0.0 5:1.0 6:1.0 89:1.0 630:1.0 9:1.0 21621:1.0 93:1.0 
0.8608132068097665 1:4.0 2:2.0 3:0.0 5:1.0 6:1.0 126:1.0 630:1.0 9:1.0 2100:1.0 129:1.0 
0.2584858935949632 1:5.0 2:4.0 3:0.0 328:1.0 6:1.0 53:1.0 329:1.0 9:1.0 1481:1.0 11:1.0 
24.100915163440447 1:8.0 2:1.0 3:0.0 87:1.0 6:1.0 7:1.0 187:1.0 9:1.0 349:1.0 11:1.0 
500.0 1:8.0 2:5.0 3:0.0 5:1.0 6:1.0 7:1.0 9467:1.0 9:1.0 349:1.0 11:1.0 
0.14617904504202978 1:5.0 2:3.0 3:0.0 5:1.0 6:1.0 53:1.0 319:1.0 9:1.0 332:1.0 11:1.0 
499.973090276517 1:6.0 2:0.0 3:0.0 87:1.0 6:1.0 53:1.0 1077:1.0 9:1.0 9129:1.0 11:1.0 
0.18136006370493257 1:5.0 2:1.0 3:0.0 5:1.0 6:1.0 7:1.0 149:1.0 9:1.0 13267:1.0 11:1.0 
488.5899557084294 1:5.0 2:8.0 3:0.0 5:1.0 6:1.0 7:1.0 149:1.0 9:1.0 10:1.0 11:1.0 
15.669741911407733 1:3.0 2:4.0 3:0.0 166:1.0 6:1.0 89:1.0 167:1.0 9:1.0 6421:1.0 93:1.0 
500.0 1:8.0 2:2.0 3:0.0 5:1.0 6:1.0 7:1.0 235:1.0 9:1.0 10:1.0 11:1.0 
0.050903434862717895 1:6.0 2:9.0 3:0.0 276:1.0 6:1.0 7:1.0 1659:1.0 9:1.0 1082:1.0 11:1.0 
0.053095489851247346 1:7.0 2:5.0 3:0.0 236:1.0 6:1.0 94:1.0 21832:1.0 9:1.0 10:1.0 11:1.0 
0.15780392421071915 1:6.0 2:0.0 3:0.0 87:1.0 6:1.0 7:1.0 282:1.0 9:1.0 6265:1.0 11:1.0 
0.03659539168451863 1:6.0 2:2.0 3:0.0 69:1.0 6:1.0 94:1.0 4144:1.0 9:1.0 10:1.0 11:1.0 
0.5511624756769363 1:8.0 2:2.0 3:0.0 5:1.0 6:1.0 94:1.0 1156:1.0 9:1.0 21870:1.0 11:1.0 
500.0 1:8.0 2:4.0 3:0.0 236:1.0 6:1.0 94:1.0 21873:1.0 9:1.0 21870:1.0 11:1.0 
427.1225318803721 1:7.0 2:3.0 3:0.0 5:1.0 6:1.0 174:1.0 693:1.0 9:1.0 1486:1.0 11:1.0 
0.30433893442683085 1:6.0 2:0.0 3:0.0 87:1.0 6:1.0 151:1.0 1406:1.0 9:1.0 1098:1.0 11:1.0 
500.0 1:5.0 2:2.0 3:0.0 5:1.0 6:1.0 126:1.0 263:1.0 9:1.0 1280:1.0 129:1.0 
2.718609877051285 1:5.0 2:4.0 3:0.0 5:1.0 6:1.0 89:1.0 434:1.0 9:1.0 332:1.0 396:1.0 
500.0 1:8.0 2:4.0 3:0.0 166:1.0 6:1.0 94:1.0 167:1.0 9:1.0 13889:1.0 11:1.0 
500.0 1:10.0 2:8.0 3:0.0 5:1.0 6:1.0 94:1.0 630:1.0 9:1.0 10442:1.0 11:1.0 
499.67487593371 1:7.0 2:2.0 3:0.0 5:1.0 6:1.0 53:1.0 25:1.0 9:1.0 185:1.0 11:1.0 
0.4829247244463886 1:7.0 2:0.0 3:0.0 87:1.0 37:1.0 126:1.0 3460:1.0 39:1.0 6015:1.0 119:1.0 
0.09884293674840405 1:7.0 2:0.0 3:0.0 87:1.0 44:1.0 126:1.0 351:1.0 45:1.0 6015:1.0 119:1.0 
498.79341388343425 1:7.0 2:4.0 3:0.0 5:1.0 6:1.0 94:1.0 4859:1.0 9:1.0 10:1.0 11:1.0 
361.70527674129636 1:9.0 2:5.0 3:0.0 236:1.0 6:1.0 94:1.0 378:1.0 9:1.0 10:1.0 11:1.0 
500.0 1:8.0 2:2.0 3:0.0 5:1.0 6:1.0 7:1.0 8:1.0 9:1.0 3561:1.0 11:1.0 
500.0 1:5.0 2:4.0 3:0.0 5:1.0 6:1.0 94:1.0 235:1.0 9:1.0 10:1.0 11:1.0 
2.144056123127729 1:4.0 2:4.0 3:0.0 5:1.0 6:1.0 202:1.0 993:1.0 9:1.0 2010:1.0 93:1.0 
0.0716975927394776 1:6.0 2:0.0 3:0.0 87:1.0 6:1.0 174:1.0 22040:1.0 9:1.0 177:1.0 11:1.0 
500.0 1:6.0 2:0.0 3:0.0 87:1.0 6:1.0 53:1.0 187:1.0 9:1.0 10:1.0 11:1.0 
472.5949740956771 1:6.0 2:4.0 3:0.0 5:1.0 6:1.0 94:1.0 8:1.0 9:1.0 10:1.0 11:1.0 
0.10609272174249619 1:6.0 2:4.0 3:0.0 236:1.0 6:1.0 94:1.0 14730:1.0 9:1.0 113:1.0 11:1.0 
0.5862899715722868 1:9.0 2:7.0 3:0.0 5:1.0 304:1.0 53:1.0 235:1.0 768:1.0 2012:1.0 11:1.0 
2.9363822202900844 1:9.0 2:7.0 3:0.0 5:1.0 37:1.0 53:1.0 235:1.0 39:1.0 2012:1.0 11:1.0 
500.0 1:5.0 2:5.0 3:0.0 236:1.0 6:1.0 94:1.0 11480:1.0 9:1.0 2010:1.0 291:1.0 
500.0 1:7.0 2:0.0 3:0.0 87:1.0 6:1.0 53:1.0 1077:1.0 9:1.0 185:1.0 11:1.0 
0.5904041372278027 1:9.0 2:0.0 3:0.0 87:1.0 6:1.0 7:1.0 1077:1.0 9:1.0 7155:1.0 11:1.0 
0.2738997466687138 1:4.0 2:5.0 3:0.0 5:1.0 6:1.0 126:1.0 993:1.0 9:1.0 1401:1.0 93:1.0 
500.0 1:5.0 2:0.0 3:0.0 87:1.0 304:1.0 94:1.0 187:1.0 305:1.0 185:1.0 56:1.0 
0.11254580442750037 1:4.0 2:0.0 3:0.0 87:1.0 6:1.0 202:1.0 2235:1.0 9:1.0 6181:1.0 213:1.0 
0.0352964226177639 1:5.0 2:1.0 3:0.0 87:1.0 6:1.0 53:1.0 22142:1.0 9:1.0 185:1.0 11:1.0 
500.0 1:8.0 2:1.0 3:0.0 5:1.0 6:1.0 94:1.0 149:1.0 9:1.0 9162:1.0 11:1.0 
0.056257259348483926 1:5.0 2:5.0 3:0.0 5:1.0 6:1.0 94:1.0 235:1.0 9:1.0 3379:1.0 291:1.0 
0.1765170127559691 1:5.0 2:0.0 3:0.0 87:1.0 6:1.0 126:1.0 502:1.0 9:1.0 233:1.0 11:1.0 
0.014819251137516438 1:4.0 2:4.0 3:0.0 264:1.0 6:1.0 174:1.0 8251:1.0 9:1.0 225:1.0 119:1.0 
43.037409177111684 1:9.0 2:5.0 3:0.0 5:1.0 6:1.0 53:1.0 3458:1.0 9:1.0 10:1.0 11:1.0 
498.8957563411419 1:9.0 2:5.0 3:0.0 5:1.0 6:1.0 53:1.0 3458:1.0 9:1.0 10:1.0 11:1.0 
4.15232200860812 1:9.0 2:8.0 3:0.0 236:1.0 44:1.0 174:1.0 378:1.0 45:1.0 6714:1.0 11:1.0 
500.0 1:7.0 2:0.0 3:0.0 87:1.0 6:1.0 7:1.0 187:1.0 9:1.0 10:1.0 11:1.0 
0.07572907049618358 1:7.0 2:2.0 3:0.0 5:1.0 6:1.0 7:1.0 40:1.0 9:1.0 3358:1.0 197:1.0 
500.0 1:7.0 2:2.0 3:0.0 5:1.0 6:1.0 7:1.0 2843:1.0 9:1.0 3358:1.0 197:1.0 
457.89757337642936 1:8.0 2:3.0 3:0.0 5:1.0 6:1.0 7:1.0 8:1.0 9:1.0 113:1.0 11:1.0 
17.850993659113016 1:8.0 2:3.0 3:0.0 5:1.0 37:1.0 7:1.0 8:1.0 39:1.0 113:1.0 11:1.0 
139.93625568192428 1:5.0 2:1.0 3:0.0 5:1.0 6:1.0 7:1.0 235:1.0 9:1.0 287:1.0 11:1.0 
500.0 1:7.0 2:4.0 3:0.0 5:1.0 6:1.0 7:1.0 630:1.0 9:1.0 10:1.0 11:1.0 
500.0 1:6.0 2:3.0 3:0.0 5:1.0 6:1.0 53:1.0 832:1.0 9:1.0 10:1.0 11:1.0 
0.41025277737905685 1:3.0 2:5.0 3:0.0 5:1.0 6:1.0 89:1.0 434:1.0 9:1.0 13952:1.0 93:1.0 
197.69860097350642 1:5.0 2:7.0 3:0.0 5:1.0 6:1.0 94:1.0 630:1.0 9:1.0 185:1.0 11:1.0 
500.0 1:6.0 2:0.0 3:0.0 87:1.0 6:1.0 53:1.0 1077:1.0 9:1.0 113:1.0 11:1.0 
500.0 1:5.0 2:0.0 3:0.0 87:1.0 6:1.0 89:1.0 1077:1.0 9:1.0 18089:1.0 93:1.0 
0.12203564058157852 1:5.0 2:3.0 3:0.0 328:1.0 6:1.0 53:1.0 329:1.0 9:1.0 113:1.0 11:1.0 
4.48446233756817 1:5.0 2:1.0 3:0.0 5:1.0 6:1.0 94:1.0 149:1.0 9:1.0 530:1.0 11:1.0 
0.18021908831083147 1:3.0 2:2.0 3:0.0 5:1.0 6:1.0 202:1.0 263:1.0 9:1.0 2609:1.0 527:1.0 
0.46515896651318206 1:4.0 2:12.0 3:0.0 5:1.0 6:1.0 7:1.0 8:1.0 9:1.0 12681:1.0 197:1.0 
0.0072809696790687856 1:5.0 2:10.0 3:0.0 236:1.0 6:1.0 53:1.0 22384:1.0 9:1.0 185:1.0 11:1.0 
0.757418827184145 1:6.0 2:3.0 3:0.0 5:1.0 44:1.0 94:1.0 165:1.0 45:1.0 7063:1.0 11:1.0 
0.6864450904203123 1:5.0 2:0.0 3:0.0 87:1.0 37:1.0 7:1.0 3423:1.0 39:1.0 9260:1.0 291:1.0 
48.333877298326264 1:4.0 2:6.0 3:0.0 5:1.0 6:1.0 7:1.0 630:1.0 9:1.0 10:1.0 291:1.0 
0.20910283765326745 1:5.0 2:6.0 3:0.0 166:1.0 6:1.0 126:1.0 167:1.0 9:1.0 7684:1.0 93:1.0 
0.03425520312990998 1:5.0 2:0.0 3:0.0 87:1.0 6:1.0 94:1.0 22413:1.0 9:1.0 185:1.0 11:1.0 
500.0 1:7.0 2:3.0 3:0.0 5:1.0 6:1.0 94:1.0 630:1.0 9:1.0 185:1.0 11:1.0 
499.96667884591835 1:6.0 2:2.0 3:0.0 276:1.0 6:1.0 7:1.0 12591:1.0 9:1.0 113:1.0 11:1.0 
0.07938759983941306 1:3.0 2:3.0 3:0.0 166:1.0 304:1.0 126:1.0 167:1.0 768:1.0 3670:1.0 11:1.0 
0.19631901191057274 1:7.0 2:4.0 3:0.0 5:1.0 6:1.0 7:1.0 149:1.0 9:1.0 7593:1.0 11:1.0 
2.4445090785379695 1:5.0 2:1.0 3:0.0 5:1.0 6:1.0 7:1.0 149:1.0 9:1.0 4579:1.0 11:1.0 
499.90624093200324 1:5.0 2:3.0 3:0.0 125:1.0 6:1.0 174:1.0 489:1.0 9:1.0 177:1.0 119:1.0 
500.0 1:8.0 2:12.0 3:0.0 236:1.0 44:1.0 7:1.0 3038:1.0 45:1.0 1941:1.0 11:1.0 
0.04032774732987826 1:5.0 2:3.0 3:0.0 5:1.0 6:1.0 126:1.0 40:1.0 9:1.0 682:1.0 93:1.0 
500.0 1:7.0 2:5.0 3:0.0 236:1.0 44:1.0 7:1.0 5941:1.0 45:1.0 113:1.0 11:1.0 
0.3258019217404578 1:10.0 2:0.0 3:0.0 87:1.0 52:1.0 94:1.0 187:1.0 458:1.0 10:1.0 119:1.0 
5.94235512055787 1:7.0 2:3.0 3:0.0 5:1.0 6:1.0 53:1.0 534:1.0 9:1.0 185:1.0 11:1.0 
0.0029491292072118228 1:3.0 2:4.0 3:0.0 5:1.0 6:1.0 202:1.0 40:1.0 9:1.0 2204:1.0 93:1.0 
0.2814921666819233 1:4.0 2:2.0 3:0.0 87:1.0 6:1.0 89:1.0 3567:1.0 9:1.0 2204:1.0 93:1.0 
15.877145135414855 1:8.0 2:1.0 3:0.0 5:1.0 6:1.0 53:1.0 8:1.0 9:1.0 185:1.0 11:1.0 
500.0 1:5.0 2:3.0 3:0.0 5:1.0 6:1.0 89:1.0 630:1.0 9:1.0 10:1.0 93:1.0 
0.2143111984483414 1:4.0 2:0.0 3:0.0 87:1.0 6:1.0 174:1.0 6030:1.0 9:1.0 177:1.0 405:1.0 
1.6267023585754952 1:5.0 2:1.0 3:0.0 166:1.0 6:1.0 94:1.0 167:1.0 9:1.0 1495:1.0 11:1.0 
13.773542971440419 1:6.0 2:1.0 3:0.0 5:1.0 6:1.0 53:1.0 630:1.0 9:1.0 2100:1.0 11:1.0 
500.0 1:8.0 2:4.0 3:0.0 5:1.0 6:1.0 94:1.0 630:1.0 9:1.0 185:1.0 11:1.0 
0.056272136195878494 1:7.0 2:5.0 3:0.0 5:1.0 6:1.0 53:1.0 3458:1.0 9:1.0 1586:1.0 11:1.0 
498.60466465430346 1:7.0 2:1.0 3:0.0 5:1.0 6:1.0 94:1.0 149:1.0 9:1.0 113:1.0 11:1.0 
500.0 1:4.0 2:3.0 3:0.0 5:1.0 6:1.0 126:1.0 693:1.0 9:1.0 188:1.0 93:1.0 
500.0 1:6.0 2:0.0 3:0.0 87:1.0 6:1.0 7:1.0 1077:1.0 9:1.0 3541:1.0 11:1.0 
0.6553790900143349 1:5.0 2:4.0 3:0.0 5:1.0 6:1.0 202:1.0 149:1.0 9:1.0 666:1.0 93:1.0 
499.98158286142035 1:6.0 2:2.0 3:0.0 5:1.0 6:1.0 94:1.0 434:1.0 9:1.0 185:1.0 11:1.0 
1.493497605342749 1:8.0 2:2.0 3:0.0 5:1.0 6:1.0 174:1.0 693:1.0 9:1.0 2811:1.0 11:1.0 
0.14490889067496207 1:8.0 2:2.0 3:0.0 5:1.0 52:1.0 174:1.0 693:1.0 458:1.0 2811:1.0 11:1.0 
500.0 1:6.0 2:2.0 3:0.0 793:1.0 6:1.0 7:1.0 794:1.0 9:1.0 22687:1.0 197:1.0 
500.0 1:6.0 2:0.0 3:0.0 87:1.0 6:1.0 94:1.0 1077:1.0 9:1.0 10:1.0 11:1.0 
500.0 1:6.0 2:2.0 3:0.0 5:1.0 6:1.0 94:1.0 693:1.0 9:1.0 185:1.0 11:1.0 
500.0 1:7.0 2:4.0 3:0.0 5:1.0 6:1.0 53:1.0 693:1.0 9:1.0 203:1.0 11:1.0 
0.7990870963234031 1:3.0 2:0.0 3:0.0 5:1.0 6:1.0 126:1.0 630:1.0 9:1.0 233:1.0 129:1.0 
500.0 1:8.0 2:0.0 3:0.0 87:1.0 6:1.0 94:1.0 187:1.0 9:1.0 10:1.0 11:1.0 
2.8915278852341486 1:8.0 2:0.0 3:0.0 87:1.0 6:1.0 94:1.0 3423:1.0 9:1.0 10:1.0 11:1.0 
91.08837607951908 1:14.0 2:2.0 3:0.0 5:1.0 6:1.0 53:1.0 534:1.0 9:1.0 10:1.0 11:1.0 
498.0386176778554 1:14.0 2:2.0 3:0.0 5:1.0 6:1.0 53:1.0 534:1.0 9:1.0 10:1.0 11:1.0 
500.0 1:14.0 2:0.0 3:0.0 87:1.0 6:1.0 53:1.0 187:1.0 9:1.0 10:1.0 11:1.0 
500.0 1:14.0 2:0.0 3:0.0 87:1.0 6:1.0 53:1.0 6058:1.0 9:1.0 10:1.0 11:1.0 
500.0 1:14.0 2:0.0 3:0.0 87:1.0 6:1.0 53:1.0 3423:1.0 9:1.0 10:1.0 11:1.0 
1.9835019524297224 1:5.0 2:3.0 3:0.0 5:1.0 6:1.0 94:1.0 534:1.0 9:1.0 185:1.0 291:1.0 
0.06710967738039046 1:5.0 2:3.0 3:0.0 5:1.0 304:1.0 94:1.0 534:1.0 6553:1.0 185:1.0 291:1.0 
487.0374741712131 1:6.0 2:1.0 3:0.0 5:1.0 6:1.0 94:1.0 8:1.0 9:1.0 185:1.0 11:1.0 
0.1807846119931123 1:5.0 2:0.0 3:0.0 87:1.0 6:1.0 48:1.0 282:1.0 9:1.0 22872:1.0 11:1.0 
0.3129296088645387 1:5.0 2:3.0 3:0.0 5:1.0 304:1.0 174:1.0 693:1.0 6553:1.0 2811:1.0 119:1.0 
500.0 1:7.0 2:4.0 3:0.0 5:1.0 6:1.0 7:1.0 149:1.0 9:1.0 3686:1.0 11:1.0 
0.22386500958967848 1:5.0 2:0.0 3:0.0 87:1.0 6:1.0 174:1.0 1667:1.0 9:1.0 1486:1.0 11:1.0 
0.24701330644977315 1:5.0 2:2.0 3:0.0 5:1.0 44:1.0 126:1.0 948:1.0 45:1.0 1798:1.0 129:1.0 
0.11843341002056781 1:6.0 2:4.0 3:0.0 236:1.0 44:1.0 7:1.0 12791:1.0 45:1.0 19388:1.0 11:1.0 
499.973030398876 1:7.0 2:4.0 3:0.0 69:1.0 6:1.0 174:1.0 8955:1.0 9:1.0 177:1.0 11:1.0 
500.0 1:5.0 2:6.0 3:0.0 236:1.0 6:1.0 7:1.0 7707:1.0 9:1.0 1005:1.0 291:1.0 
499.923990149022 1:8.0 2:0.0 3:0.0 87:1.0 6:1.0 174:1.0 1077:1.0 9:1.0 2811:1.0 11:1.0 
499.82185379551646 1:5.0 2:0.0 3:0.0 87:1.0 6:1.0 53:1.0 3494:1.0 9:1.0 10:1.0 145:1.0 
0.11925195056858512 1:7.0 2:2.0 3:0.0 236:1.0 6:1.0 94:1.0 10474:1.0 9:1.0 4281:1.0 11:1.0 
500.0 1:8.0 2:3.0 3:0.0 236:1.0 6:1.0 94:1.0 378:1.0 9:1.0 10:1.0 11:1.0 
500.0 1:8.0 2:3.0 3:0.0 236:1.0 6:1.0 94:1.0 378:1.0 9:1.0 10:1.0 11:1.0 
92.56582838674905 1:10.0 2:0.0 3:0.0 87:1.0 6:1.0 7:1.0 1077:1.0 9:1.0 3193:1.0 11:1.0 
500.0 1:10.0 2:0.0 3:0.0 87:1.0 6:1.0 7:1.0 1077:1.0 9:1.0 3193:1.0 11:1.0 
1.978209615912545 1:6.0 2:3.0 3:0.0 166:1.0 6:1.0 7:1.0 167:1.0 9:1.0 2100:1.0 11:1.0 
0.12158338618557488 1:3.0 2:6.0 3:0.0 5:1.0 6:1.0 89:1.0 40:1.0 9:1.0 3183:1.0 396:1.0 
160.17316280101767 1:5.0 2:8.0 3:0.0 236:1.0 6:1.0 7:1.0 11627:1.0 9:1.0 113:1.0 11:1.0 
0.8157476597385154 1:5.0 2:2.0 3:0.0 5:1.0 6:1.0 126:1.0 948:1.0 9:1.0 1456:1.0 129:1.0 
499.9294076826532 1:5.0 2:1.0 3:0.0 5:1.0 6:1.0 94:1.0 8:1.0 9:1.0 9162:1.0 197:1.0 
500.0 1:5.0 2:0.0 3:0.0 87:1.0 6:1.0 174:1.0 282:1.0 9:1.0 225:1.0 11:1.0 
500.0 1:7.0 2:0.0 3:0.0 87:1.0 6:1.0 53:1.0 187:1.0 9:1.0 185:1.0 11:1.0 
500.0 1:7.0 2:0.0 3:0.0 87:1.0 6:1.0 7:1.0 187:1.0 9:1.0 349:1.0 11:1.0 
0.28359337306183746 1:6.0 2:7.0 3:0.0 5:1.0 6:1.0 94:1.0 534:1.0 9:1.0 7205:1.0 11:1.0 
14.252473653528684 1:6.0 2:9.0 3:0.0 5:1.0 6:1.0 94:1.0 534:1.0 9:1.0 2873:1.0 11:1.0 
0.002803841373448983 1:8.0 2:7.0 3:0.0 5:1.0 6:1.0 7:1.0 534:1.0 9:1.0 4621:1.0 11:1.0 
0.3229873185956553 1:8.0 2:7.0 3:0.0 5:1.0 37:1.0 7:1.0 534:1.0 39:1.0 4621:1.0 11:1.0 
0.3358746846076695 1:6.0 2:10.0 3:0.0 5:1.0 6:1.0 7:1.0 8:1.0 9:1.0 97:1.0 11:1.0 
0.09708074220699271 1:4.0 2:9.0 3:0.0 5:1.0 6:1.0 94:1.0 3458:1.0 9:1.0 185:1.0 119:1.0 
0.5737840366695501 1:5.0 2:1.0 3:0.0 793:1.0 6:1.0 7:1.0 794:1.0 9:1.0 7137:1.0 119:1.0 
5.006811958439177 1:6.0 2:0.0 3:0.0 87:1.0 6:1.0 7:1.0 282:1.0 9:1.0 349:1.0 11:1.0 
1.5593763350358811 1:7.0 2:1.0 3:0.0 5:1.0 6:1.0 7:1.0 218:1.0 9:1.0 10033:1.0 11:1.0 
500.0 1:6.0 2:0.0 3:0.0 87:1.0 6:1.0 94:1.0 187:1.0 9:1.0 10:1.0 11:1.0 
0.23068055118532954 1:6.0 2:6.0 3:0.0 5:1.0 6:1.0 89:1.0 8:1.0 9:1.0 8554:1.0 93:1.0 
0.08508956826628554 1:3.0 2:0.0 3:0.0 87:1.0 304:1.0 202:1.0 3677:1.0 768:1.0 2603:1.0 11:1.0 
0.057557644907348965 1:4.0 2:1.0 3:0.0 69:1.0 6:1.0 575:1.0 16016:1.0 9:1.0 578:1.0 24:1.0 
0.207922658299572 1:9.0 2:0.0 3:0.0 87:1.0 6:1.0 174:1.0 1077:1.0 9:1.0 225:1.0 11:1.0 
500.0 1:9.0 2:3.0 3:0.0 236:1.0 6:1.0 174:1.0 378:1.0 9:1.0 225:1.0 11:1.0 
0.594165340444647 1:5.0 2:3.0 3:0.0 236:1.0 6:1.0 53:1.0 378:1.0 9:1.0 113:1.0 11:1.0 
0.09223601959871204 1:5.0 2:6.0 3:0.0 236:1.0 6:1.0 94:1.0 446:1.0 9:1.0 10:1.0 291:1.0 
0.1864243426403797 1:5.0 2:0.0 3:0.0 87:1.0 6:1.0 53:1.0 4706:1.0 9:1.0 10:1.0 291:1.0 
0.11531405817600011 1:5.0 2:4.0 3:0.0 236:1.0 37:1.0 174:1.0 6168:1.0 39:1.0 545:1.0 291:1.0 
500.0 1:6.0 2:1.0 3:0.0 5:1.0 6:1.0 53:1.0 149:1.0 9:1.0 10:1.0 11:1.0 
0.008657176488120373 1:8.0 2:0.0 3:0.0 87:1.0 37:1.0 53:1.0 7054:1.0 39:1.0 10:1.0 119:1.0 
0.009570111519916453 1:8.0 2:0.0 3:0.0 87:1.0 44:1.0 53:1.0 7054:1.0 45:1.0 10:1.0 119:1.0 
495.714019640053 1:8.0 2:2.0 3:0.0 5:1.0 6:1.0 7:1.0 40:1.0 9:1.0 818:1.0 11:1.0 
500.0 1:5.0 2:0.0 3:0.0 87:1.0 6:1.0 126:1.0 1077:1.0 9:1.0 10684:1.0 129:1.0 
1.447117309603501 1:5.0 2:8.0 3:0.0 236:1.0 6:1.0 53:1.0 3038:1.0 9:1.0 113:1.0 11:1.0 
500.0 1:6.0 2:0.0 3:0.0 87:1.0 6:1.0 7:1.0 187:1.0 9:1.0 349:1.0 11:1.0 
0.012379527436828222 1:6.0 2:2.0 3:0.0 236:1.0 6:1.0 7:1.0 18924:1.0 9:1.0 1033:1.0 11:1.0 
0.2096732110471435 1:6.0 2:5.0 3:0.0 5:1.0 6:1.0 7:1.0 434:1.0 9:1.0 134:1.0 11:1.0 
0.46933330059467343 1:7.0 2:9.0 3:0.0 5:1.0 44:1.0 7:1.0 630:1.0 45:1.0 185:1.0 11:1.0 
0.07652139643174886 1:7.0 2:9.0 3:0.0 5:1.0 72:1.0 7:1.0 630:1.0 73:1.0 185:1.0 11:1.0 
500.0 1:7.0 2:3.0 3:0.0 5:1.0 6:1.0 126:1.0 832:1.0 9:1.0 185:1.0 11:1.0 
500.0 1:7.0 2:1.0 3:0.0 5:1.0 6:1.0 94:1.0 149:1.0 9:1.0 1201:1.0 11:1.0 
499.45004143552455 1:10.0 2:0.0 3:0.0 87:1.0 6:1.0 53:1.0 1077:1.0 9:1.0 10:1.0 11:1.0 
0.3414893420553602 1:8.0 2:0.0 3:0.0 87:1.0 6:1.0 94:1.0 502:1.0 9:1.0 12113:1.0 11:1.0 
500.0 1:8.0 2:2.0 3:0.0 5:1.0 6:1.0 94:1.0 815:1.0 9:1.0 12113:1.0 11:1.0 
0.13190503816182414 1:8.0 2:0.0 3:0.0 87:1.0 6:1.0 7:1.0 1406:1.0 9:1.0 5755:1.0 11:1.0 
0.7458756072482893 1:4.0 2:2.0 3:0.0 5:1.0 6:1.0 89:1.0 149:1.0 9:1.0 8536:1.0 93:1.0 
500.0 1:6.0 2:1.0 3:0.0 5:1.0 6:1.0 53:1.0 25:1.0 9:1.0 10:1.0 11:1.0 
498.98375980333424 1:6.0 2:1.0 3:0.0 5:1.0 6:1.0 94:1.0 149:1.0 9:1.0 3465:1.0 11:1.0 
0.45836055788817276 1:5.0 2:0.0 3:0.0 87:1.0 6:1.0 174:1.0 187:1.0 9:1.0 1486:1.0 145:1.0 
499.6436026911909 1:6.0 2:1.0 3:0.0 5:1.0 6:1.0 94:1.0 149:1.0 9:1.0 3042:1.0 11:1.0 
129.24384291060912 1:5.0 2:0.0 3:0.0 87:1.0 6:1.0 94:1.0 187:1.0 9:1.0 185:1.0 291:1.0 
500.0 1:6.0 2:0.0 3:0.0 87:1.0 6:1.0 94:1.0 187:1.0 9:1.0 10:1.0 11:1.0 
1.648875275839217 1:5.0 2:4.0 3:0.0 5:1.0 6:1.0 174:1.0 149:1.0 9:1.0 1273:1.0 11:1.0 
500.0 1:6.0 2:0.0 3:0.0 87:1.0 6:1.0 53:1.0 187:1.0 9:1.0 10:1.0 119:1.0 
230.3894285354686 1:8.0 2:0.0 3:0.0 87:1.0 6:1.0 53:1.0 187:1.0 9:1.0 2735:1.0 11:1.0 
7.0955101140227415 1:8.0 2:0.0 3:0.0 87:1.0 44:1.0 53:1.0 187:1.0 45:1.0 2735:1.0 11:1.0 
0.12774833546648437 1:5.0 2:2.0 3:0.0 5:1.0 6:1.0 174:1.0 630:1.0 9:1.0 1273:1.0 11:1.0 
0.07684057714316435 1:5.0 2:0.0 3:0.0 69:1.0 304:1.0 7:1.0 3011:1.0 1444:1.0 5408:1.0 405:1.0 
500.0 1:8.0 2:4.0 3:0.0 236:1.0 6:1.0 7:1.0 23749:1.0 9:1.0 1401:1.0 11:1.0 
0.6588125008084676 1:5.0 2:3.0 3:0.0 236:1.0 6:1.0 174:1.0 378:1.0 9:1.0 177:1.0 11:1.0 
0.015996289586226772 1:5.0 2:0.0 3:0.0 87:1.0 6:1.0 94:1.0 4596:1.0 9:1.0 848:1.0 11:1.0 
2.8004669992699385 1:6.0 2:7.0 3:0.0 5:1.0 6:1.0 94:1.0 434:1.0 9:1.0 1032:1.0 11:1.0 
353.9668982889134 1:6.0 2:1.0 3:0.0 5:1.0 6:1.0 53:1.0 149:1.0 9:1.0 10:1.0 11:1.0 
1.900862394110466 1:4.0 2:6.0 3:0.0 5:1.0 6:1.0 94:1.0 25:1.0 9:1.0 10:1.0 291:1.0 
0.13519272706185442 1:4.0 2:2.0 3:0.0 5:1.0 6:1.0 126:1.0 149:1.0 9:1.0 14194:1.0 213:1.0 
7.4951536329372 1:6.0 2:6.0 3:0.0 5:1.0 6:1.0 7:1.0 832:1.0 9:1.0 10:1.0 11:1.0 
500.0 1:7.0 2:0.0 3:0.0 87:1.0 6:1.0 53:1.0 1142:1.0 9:1.0 5311:1.0 11:1.0 
1.5924150374523354 1:7.0 2:6.0 3:0.0 5:1.0 6:1.0 7:1.0 149:1.0 9:1.0 812:1.0 11:1.0 
0.011476761215928333 1:6.0 2:0.0 3:0.0 87:1.0 6:1.0 7:1.0 23882:1.0 9:1.0 682:1.0 11:1.0 
0.05581407900451982 1:6.0 2:9.0 3:0.0 386:1.0 6:1.0 53:1.0 10498:1.0 9:1.0 6015:1.0 11:1.0 
0.03249076527985991 1:5.0 2:0.0 3:0.0 87:1.0 6:1.0 94:1.0 23896:1.0 9:1.0 1096:1.0 11:1.0 
0.43674280058028 1:4.0 2:2.0 3:0.0 5:1.0 6:1.0 202:1.0 25:1.0 9:1.0 6237:1.0 197:1.0 
0.08143237868391359 1:6.0 2:0.0 3:0.0 87:1.0 6:1.0 126:1.0 2197:1.0 9:1.0 1372:1.0 93:1.0 
0.036414797244967746 1:5.0 2:0.0 3:0.0 276:1.0 304:1.0 20:1.0 7449:1.0 768:1.0 4072:1.0 11:1.0 
0.1473043027009348 1:5.0 2:9.0 3:0.0 5:1.0 6:1.0 53:1.0 693:1.0 9:1.0 2012:1.0 119:1.0 
500.0 1:5.0 2:0.0 3:0.0 87:1.0 6:1.0 53:1.0 1077:1.0 9:1.0 10:1.0 119:1.0 
500.0 1:5.0 2:1.0 3:0.0 5:1.0 6:1.0 126:1.0 149:1.0 9:1.0 3454:1.0 11:1.0 
0.3987457254719593 1:3.0 2:4.0 3:0.0 5:1.0 6:1.0 89:1.0 149:1.0 9:1.0 7205:1.0 93:1.0 
0.6865174023138498 1:7.0 2:1.0 3:0.0 5:1.0 6:1.0 94:1.0 149:1.0 9:1.0 584:1.0 11:1.0 
