svm_type c_svc
kernel_type polynomial
degree 2
gamma 0.2
coef0 0.0
nr_class 2
total_sv 26
rho -0.7871051413288048
label 1 -1
nr_sv 19 7
SV
0.027277263473578544 1:4.0 2:0.0 3:0.0 74:1.0 182:1.0 53:1.0 193:1.0 1127:1.0 2204:1.0 11:1.0 
0.04642403127970078 1:4.0 2:0.0 3:0.0 74:1.0 182:1.0 53:1.0 369:1.0 2067:1.0 848:1.0 11:1.0 
0.032748983401965026 1:3.0 2:0.0 3:0.0 264:1.0 182:1.0 7:1.0 401:1.0 9163:1.0 9162:1.0 197:1.0 
0.013628215516802836 1:7.0 2:4.0 3:0.0 69:1.0 182:1.0 7:1.0 1970:1.0 320:1.0 4798:1.0 11:1.0 
0.017041283348342685 1:2.0 2:0.0 3:1.0 74:1.0 182:1.0 428:1.0 369:1.0 184:1.0 17316:1.0 56:1.0 
0.017233151303571444 1:3.0 2:6.0 3:6.0 125:1.0 41:1.0 94:1.0 3338:1.0 297:1.0 188:1.0 197:1.0 
0.03432405788176245 1:2.0 2:0.0 3:0.0 74:1.0 284:1.0 9561:1.0 193:1.0 30216:1.0 8024:1.0 527:1.0 
0.01762380803866847 1:13.0 2:0.0 3:1.0 400:1.0 41:1.0 20:1.0 18166:1.0 86:1.0 5521:1.0 11:1.0 
0.002903017924621464 1:8.0 2:0.0 3:7.0 18:1.0 41:1.0 126:1.0 5269:1.0 297:1.0 5087:1.0 11:1.0 
0.02118654021995263 1:5.0 2:0.0 3:4.0 69:1.0 41:1.0 7:1.0 18690:1.0 524:1.0 37392:1.0 197:1.0 
0.0048328960487321725 1:9.0 2:1.0 3:4.0 69:1.0 41:1.0 53:1.0 19187:1.0 71:1.0 4130:1.0 11:1.0 
0.018948554953350436 1:4.0 2:1.0 3:0.0 87:1.0 182:1.0 210:1.0 187:1.0 4080:1.0 212:1.0 197:1.0 
0.015864566412055414 1:8.0 2:0.0 3:0.0 74:1.0 182:1.0 53:1.0 369:1.0 5452:1.0 7395:1.0 11:1.0 
0.007274991081194253 1:10.0 2:0.0 3:0.0 74:1.0 182:1.0 94:1.0 193:1.0 40193:1.0 500:1.0 11:1.0 
0.017496332340074403 1:9.0 2:0.0 3:0.0 5:1.0 182:1.0 94:1.0 149:1.0 14774:1.0 1869:1.0 11:1.0 
0.051864403484109645 1:5.0 2:1.0 3:0.0 87:1.0 182:1.0 89:1.0 187:1.0 11535:1.0 11536:1.0 93:1.0 
0.00965896158162307 1:6.0 2:7.0 3:0.0 69:1.0 182:1.0 7:1.0 10463:1.0 2314:1.0 15168:1.0 11:1.0 
0.01942783234354765 1:5.0 2:0.0 3:0.0 74:1.0 182:1.0 53:1.0 193:1.0 17301:1.0 10:1.0 11:1.0 
0.012866374853702282 1:5.0 2:0.0 3:0.0 74:1.0 467:1.0 94:1.0 193:1.0 3442:1.0 831:1.0 11:1.0 
-0.08123715264510663 1:6.0 2:0.0 3:0.0 69:1.0 182:1.0 53:1.0 18690:1.0 2003:1.0 16721:1.0 291:1.0 
-0.0712922358276573 1:6.0 2:0.0 3:0.0 99:1.0 182:1.0 53:1.0 100:1.0 2003:1.0 16721:1.0 291:1.0 
-0.09698069948577245 1:5.0 2:0.0 3:0.0 125:1.0 182:1.0 89:1.0 1406:1.0 4458:1.0 5606:1.0 93:1.0 
-0.0606034625170053 1:4.0 2:3.0 3:4.0 125:1.0 41:1.0 126:1.0 9365:1.0 524:1.0 2603:1.0 129:1.0 
-0.034552254554772795 1:7.0 2:0.0 3:0.0 2219:1.0 182:1.0 7:1.0 11180:1.0 27432:1.0 4626:1.0 11:1.0 
-0.013628215516802836 1:7.0 2:0.0 3:0.0 99:1.0 182:1.0 7:1.0 100:1.0 27432:1.0 4626:1.0 11:1.0 
-0.03033124494023835 1:7.0 2:4.0 3:1.0 236:1.0 12:1.0 174:1.0 7285:1.0 1048:1.0 1273:1.0 11:1.0 
