svm_type c_svc
kernel_type polynomial
degree 2
gamma 0.2
coef0 0.0
nr_class 2
total_sv 298
rho 0.12685057085792842
label 1 -1
nr_sv 182 116
SV
0.05309838807107274 1:7.0 2:1.0 3:0.0 46:1.0 155:1.0 48:1.0 3550:1.0 156:1.0 3549:1.0 83:1.0 
0.18748861029516803 1:5.0 2:1.0 3:2.0 5:1.0 155:1.0 7:1.0 8:1.0 156:1.0 10:1.0 11:1.0 
0.009491282562248913 1:7.0 2:4.0 3:4.0 5:1.0 155:1.0 7:1.0 434:1.0 156:1.0 604:1.0 11:1.0 
0.0039444004615762215 1:8.0 2:2.0 3:12.0 5:1.0 381:1.0 7:1.0 8:1.0 2651:1.0 2622:1.0 11:1.0 
0.02211303940311374 1:5.0 2:1.0 3:3.0 5:1.0 155:1.0 7:1.0 8:1.0 156:1.0 217:1.0 197:1.0 
0.0032268510402625114 1:7.0 2:5.0 3:5.0 5:1.0 155:1.0 53:1.0 8:1.0 156:1.0 185:1.0 11:1.0 
0.00453317644783583 1:15.0 2:1.0 3:2.0 5:1.0 155:1.0 89:1.0 8:1.0 156:1.0 626:1.0 93:1.0 
0.025101256970153113 1:2.0 2:2.0 3:4.0 5:1.0 155:1.0 20:1.0 434:1.0 484:1.0 9370:1.0 119:1.0 
0.07492822008465268 1:3.0 2:1.0 3:3.0 5:1.0 12:1.0 20:1.0 8:1.0 617:1.0 1715:1.0 476:1.0 
0.015106585677253875 1:4.0 2:2.0 3:3.0 5:1.0 155:1.0 53:1.0 434:1.0 484:1.0 848:1.0 291:1.0 
0.016780719188767116 1:4.0 2:1.0 3:6.0 5:1.0 47:1.0 48:1.0 8:1.0 10671:1.0 10021:1.0 83:1.0 
0.03224692675031653 1:4.0 2:1.0 3:5.0 5:1.0 47:1.0 48:1.0 8:1.0 10675:1.0 10674:1.0 405:1.0 
0.3528270624095076 1:3.0 2:1.0 3:1.0 5:1.0 155:1.0 89:1.0 8:1.0 484:1.0 11103:1.0 93:1.0 
0.01605074964735797 1:4.0 2:3.0 3:8.0 69:1.0 155:1.0 94:1.0 11337:1.0 156:1.0 818:1.0 291:1.0 
0.02977630375201501 1:3.0 2:2.0 3:4.0 5:1.0 155:1.0 48:1.0 40:1.0 156:1.0 11359:1.0 24:1.0 
0.05560269928355523 1:7.0 2:4.0 3:1.0 5:1.0 155:1.0 53:1.0 8:1.0 156:1.0 682:1.0 11:1.0 
0.008290541953014239 1:2.0 2:2.0 3:11.0 5:1.0 155:1.0 75:1.0 434:1.0 156:1.0 3354:1.0 405:1.0 
0.11622296820311698 1:6.0 2:2.0 3:2.0 5:1.0 155:1.0 7:1.0 434:1.0 156:1.0 2602:1.0 119:1.0 
0.09224711031039157 1:3.0 2:1.0 3:2.0 5:1.0 182:1.0 202:1.0 434:1.0 2571:1.0 4328:1.0 24:1.0 
0.026553616219558495 1:4.0 2:2.0 3:5.0 5:1.0 173:1.0 126:1.0 8:1.0 4431:1.0 14550:1.0 93:1.0 
0.08919318381547722 1:2.0 2:0.0 3:3.0 1164:1.0 155:1.0 89:1.0 4447:1.0 156:1.0 15495:1.0 93:1.0 
0.006345990640788728 1:7.0 2:1.0 3:8.0 46:1.0 155:1.0 20:1.0 15567:1.0 156:1.0 1655:1.0 405:1.0 
0.24190983184569648 1:3.0 2:2.0 3:2.0 5:1.0 155:1.0 20:1.0 8:1.0 156:1.0 3740:1.0 83:1.0 
0.028935767064416962 1:7.0 2:2.0 3:4.0 5:1.0 155:1.0 53:1.0 8:1.0 156:1.0 5824:1.0 11:1.0 
0.019160860173803355 1:8.0 2:2.0 3:4.0 5:1.0 155:1.0 94:1.0 434:1.0 156:1.0 323:1.0 11:1.0 
0.11085786776231416 1:6.0 2:4.0 3:1.0 5:1.0 155:1.0 53:1.0 8:1.0 156:1.0 682:1.0 11:1.0 
0.041919618557122576 1:6.0 2:2.0 3:4.0 5:1.0 155:1.0 53:1.0 434:1.0 156:1.0 1073:1.0 11:1.0 
0.08857378443955702 1:3.0 2:2.0 3:4.0 5:1.0 155:1.0 75:1.0 8:1.0 156:1.0 4072:1.0 24:1.0 
0.03368921585145949 1:3.0 2:2.0 3:4.0 5:1.0 155:1.0 75:1.0 165:1.0 156:1.0 1655:1.0 119:1.0 
0.033301366313319036 1:4.0 2:0.0 3:1.0 1164:1.0 155:1.0 7:1.0 4447:1.0 156:1.0 1262:1.0 197:1.0 
0.09032114285213125 1:4.0 2:3.0 3:4.0 5:1.0 155:1.0 75:1.0 263:1.0 156:1.0 7679:1.0 119:1.0 
0.028316308992174515 1:7.0 2:2.0 3:1.0 5:1.0 27:1.0 7:1.0 8:1.0 176:1.0 10:1.0 119:1.0 
0.17243828784604182 1:5.0 2:1.0 3:2.0 5:1.0 155:1.0 89:1.0 8:1.0 156:1.0 2622:1.0 93:1.0 
0.17873847076157837 1:3.0 2:1.0 3:3.0 5:1.0 155:1.0 202:1.0 8:1.0 156:1.0 134:1.0 24:1.0 
0.23357370816823908 1:4.0 2:1.0 3:4.0 5:1.0 155:1.0 75:1.0 8:1.0 156:1.0 7098:1.0 24:1.0 
0.011095423950384493 1:8.0 2:0.0 3:5.0 46:1.0 155:1.0 20:1.0 49:1.0 156:1.0 7373:1.0 476:1.0 
0.10421301789254728 1:3.0 2:1.0 3:3.0 5:1.0 155:1.0 94:1.0 8:1.0 156:1.0 10:1.0 405:1.0 
0.05441359404530799 1:4.0 2:2.0 3:5.0 5:1.0 155:1.0 75:1.0 8:1.0 156:1.0 3262:1.0 24:1.0 
0.010852603409893314 1:4.0 2:1.0 3:5.0 5:1.0 208:1.0 1355:1.0 8:1.0 20547:1.0 20155:1.0 405:1.0 
0.09825014459569892 1:2.0 2:2.0 3:4.0 5:1.0 155:1.0 75:1.0 434:1.0 156:1.0 4978:1.0 405:1.0 
0.01756228833899854 1:7.0 2:3.0 3:3.0 5:1.0 155:1.0 20:1.0 8:1.0 156:1.0 4430:1.0 83:1.0 
0.05604870164708894 1:5.0 2:1.0 3:2.0 5:1.0 155:1.0 94:1.0 434:1.0 1141:1.0 2603:1.0 291:1.0 
0.10702816591572048 1:3.0 2:1.0 3:5.0 5:1.0 155:1.0 75:1.0 8:1.0 156:1.0 6982:1.0 24:1.0 
0.2172993302510358 1:5.0 2:1.0 3:1.0 5:1.0 155:1.0 94:1.0 8:1.0 156:1.0 5812:1.0 11:1.0 
0.01655453199378477 1:9.0 2:2.0 3:3.0 5:1.0 381:1.0 7:1.0 434:1.0 3159:1.0 371:1.0 11:1.0 
0.024109024291273467 1:4.0 2:1.0 3:9.0 5:1.0 155:1.0 126:1.0 629:1.0 156:1.0 7684:1.0 93:1.0 
0.02204292396612267 1:7.0 2:1.0 3:5.0 5:1.0 155:1.0 48:1.0 434:1.0 156:1.0 10821:1.0 24:1.0 
0.0699321615997785 1:4.0 2:2.0 3:3.0 5:1.0 155:1.0 7:1.0 434:1.0 156:1.0 10:1.0 119:1.0 
0.019274720510487266 1:6.0 2:7.0 3:4.0 5:1.0 155:1.0 94:1.0 8:1.0 156:1.0 2530:1.0 11:1.0 
0.0416665400472489 1:6.0 2:5.0 3:3.0 5:1.0 155:1.0 94:1.0 8:1.0 156:1.0 97:1.0 11:1.0 
0.006830945195936324 1:7.0 2:8.0 3:4.0 5:1.0 155:1.0 53:1.0 8:1.0 156:1.0 10:1.0 11:1.0 
0.025785883447033277 1:5.0 2:1.0 3:3.0 5:1.0 155:1.0 7:1.0 4096:1.0 156:1.0 4430:1.0 11:1.0 
0.03699630657823801 1:3.0 2:2.0 3:5.0 5:1.0 155:1.0 53:1.0 4443:1.0 156:1.0 24667:1.0 405:1.0 
0.20122473395825027 1:4.0 2:2.0 3:2.0 5:1.0 155:1.0 126:1.0 8:1.0 156:1.0 12994:1.0 129:1.0 
0.07899301749467233 1:3.0 2:2.0 3:4.0 5:1.0 155:1.0 75:1.0 434:1.0 156:1.0 9696:1.0 24:1.0 
0.08248244799344304 1:4.0 2:1.0 3:3.0 5:1.0 155:1.0 48:1.0 8:1.0 156:1.0 25079:1.0 405:1.0 
0.1033941488849194 1:4.0 2:1.0 3:3.0 5:1.0 155:1.0 48:1.0 8:1.0 156:1.0 25041:1.0 83:1.0 
0.3460679469381981 1:2.0 2:2.0 3:2.0 5:1.0 155:1.0 75:1.0 8:1.0 156:1.0 3236:1.0 24:1.0 
0.051204452988280025 1:4.0 2:0.0 3:4.0 87:1.0 155:1.0 151:1.0 25436:1.0 156:1.0 436:1.0 197:1.0 
0.2052430917294457 1:3.0 2:1.0 3:2.0 5:1.0 155:1.0 20:1.0 8:1.0 156:1.0 26171:1.0 24:1.0 
0.05105047162354656 1:4.0 2:4.0 3:3.0 5:1.0 155:1.0 20:1.0 8:1.0 156:1.0 18706:1.0 24:1.0 
0.05189641324424181 1:2.0 2:2.0 3:8.0 5:1.0 155:1.0 89:1.0 40:1.0 484:1.0 16245:1.0 396:1.0 
0.023902417505835247 1:3.0 2:2.0 3:4.0 5:1.0 155:1.0 202:1.0 8:1.0 156:1.0 20393:1.0 396:1.0 
0.025318846594632294 1:6.0 2:2.0 3:2.0 5:1.0 381:1.0 7:1.0 8:1.0 833:1.0 8906:1.0 11:1.0 
0.13309193977558678 1:3.0 2:2.0 3:3.0 5:1.0 155:1.0 202:1.0 8:1.0 156:1.0 4346:1.0 527:1.0 
0.20530128376240084 1:4.0 2:1.0 3:2.0 5:1.0 155:1.0 20:1.0 40:1.0 156:1.0 1542:1.0 24:1.0 
0.001509485326093766 1:7.0 2:2.0 3:11.0 5:1.0 381:1.0 7:1.0 8:1.0 6861:1.0 10698:1.0 11:1.0 
0.12774058379615483 1:3.0 2:2.0 3:4.0 5:1.0 155:1.0 75:1.0 8:1.0 156:1.0 11119:1.0 24:1.0 
0.019575788913880288 1:6.0 2:1.0 3:2.0 46:1.0 155:1.0 48:1.0 5197:1.0 156:1.0 1646:1.0 396:1.0 
0.21624774399160474 1:3.0 2:4.0 3:2.0 5:1.0 155:1.0 20:1.0 8:1.0 156:1.0 161:1.0 83:1.0 
0.028329661674142356 1:3.0 2:2.0 3:4.0 5:1.0 155:1.0 89:1.0 8:1.0 156:1.0 8242:1.0 93:1.0 
0.023363341668409702 1:3.0 2:1.0 3:6.0 5:1.0 173:1.0 126:1.0 40:1.0 1279:1.0 831:1.0 129:1.0 
0.027539709861577152 1:10.0 2:2.0 3:2.0 5:1.0 155:1.0 94:1.0 40:1.0 156:1.0 2188:1.0 11:1.0 
0.019716816136434723 1:8.0 2:2.0 3:16.0 5:1.0 231:1.0 7:1.0 948:1.0 2140:1.0 1785:1.0 11:1.0 
0.044131791267152776 1:3.0 2:2.0 3:3.0 5:1.0 58:1.0 20:1.0 8:1.0 5961:1.0 15821:1.0 119:1.0 
0.08542261946246867 1:6.0 2:6.0 3:2.0 5:1.0 155:1.0 7:1.0 8:1.0 156:1.0 3358:1.0 11:1.0 
0.0389375854309319 1:5.0 2:0.0 3:9.0 46:1.0 110:1.0 3555:1.0 5491:1.0 322:1.0 3556:1.0 83:1.0 
0.027666305260732067 1:4.0 2:0.0 3:9.0 1164:1.0 155:1.0 53:1.0 4447:1.0 156:1.0 10:1.0 197:1.0 
0.023822757245481944 1:4.0 2:2.0 3:13.0 5:1.0 155:1.0 202:1.0 8:1.0 156:1.0 21885:1.0 291:1.0 
0.06221793802964869 1:4.0 2:2.0 3:4.0 5:1.0 155:1.0 75:1.0 40:1.0 156:1.0 27032:1.0 24:1.0 
0.14275007749635332 1:10.0 2:6.0 3:0.0 5:1.0 155:1.0 194:1.0 8:1.0 156:1.0 6504:1.0 56:1.0 
499.89521037032955 1:10.0 2:4.0 3:0.0 5:1.0 155:1.0 194:1.0 8:1.0 156:1.0 6504:1.0 56:1.0 
0.03497224264704453 1:4.0 2:0.0 3:4.0 87:1.0 14:1.0 202:1.0 6304:1.0 11075:1.0 604:1.0 396:1.0 
0.07353011221697411 1:6.0 2:4.0 3:3.0 5:1.0 155:1.0 48:1.0 8:1.0 156:1.0 7483:1.0 396:1.0 
0.411740523689794 1:2.0 2:2.0 3:1.0 5:1.0 155:1.0 202:1.0 629:1.0 156:1.0 10827:1.0 24:1.0 
0.014958440478900058 1:5.0 2:6.0 3:4.0 5:1.0 155:1.0 20:1.0 8:1.0 156:1.0 834:1.0 119:1.0 
0.011157703625978767 1:4.0 2:3.0 3:5.0 5:1.0 155:1.0 20:1.0 40:1.0 156:1.0 9372:1.0 24:1.0 
0.03028175450984808 1:3.0 2:1.0 3:3.0 5:1.0 182:1.0 126:1.0 8:1.0 2571:1.0 9698:1.0 129:1.0 
0.0041870820955273395 1:7.0 2:2.0 3:13.0 5:1.0 110:1.0 94:1.0 40:1.0 176:1.0 10:1.0 11:1.0 
0.17256607767394405 1:5.0 2:1.0 3:1.0 5:1.0 155:1.0 53:1.0 8:1.0 156:1.0 682:1.0 197:1.0 
0.015551323396660216 1:5.0 2:1.0 3:4.0 5:1.0 47:1.0 486:1.0 8:1.0 9496:1.0 7864:1.0 405:1.0 
0.09954741649698784 1:4.0 2:2.0 3:3.0 5:1.0 155:1.0 48:1.0 8:1.0 156:1.0 34883:1.0 405:1.0 
0.058687469183151424 1:5.0 2:0.0 3:3.0 87:1.0 155:1.0 94:1.0 7523:1.0 156:1.0 6193:1.0 11:1.0 
0.013389620151139167 1:6.0 2:3.0 3:3.0 5:1.0 155:1.0 75:1.0 8:1.0 1141:1.0 5939:1.0 83:1.0 
0.10319664643303697 1:3.0 2:3.0 3:3.0 5:1.0 155:1.0 75:1.0 8:1.0 156:1.0 3193:1.0 24:1.0 
0.008524943349032225 1:5.0 2:3.0 3:11.0 5:1.0 381:1.0 7:1.0 2399:1.0 2208:1.0 2188:1.0 11:1.0 
0.20417447076791026 1:3.0 2:2.0 3:2.0 5:1.0 155:1.0 20:1.0 8:1.0 156:1.0 12613:1.0 24:1.0 
0.004837497263973537 1:5.0 2:3.0 3:10.0 5:1.0 381:1.0 7:1.0 629:1.0 2022:1.0 2188:1.0 11:1.0 
0.08980319697185496 1:5.0 2:0.0 3:0.0 46:1.0 155:1.0 3555:1.0 3090:1.0 156:1.0 3556:1.0 3557:1.0 
0.015746735869052775 1:6.0 2:2.0 3:3.0 5:1.0 155:1.0 7:1.0 8:1.0 156:1.0 321:1.0 11:1.0 
0.04959948849064343 1:4.0 2:2.0 3:5.0 5:1.0 155:1.0 75:1.0 8:1.0 156:1.0 4618:1.0 405:1.0 
0.007453715194993014 1:3.0 2:2.0 3:10.0 5:1.0 155:1.0 75:1.0 8:1.0 156:1.0 383:1.0 119:1.0 
0.18370154877167236 1:3.0 2:2.0 3:2.0 5:1.0 155:1.0 89:1.0 7569:1.0 1141:1.0 2760:1.0 2772:1.0 
0.012925932357940918 1:2.0 2:2.0 3:4.0 5:1.0 155:1.0 89:1.0 8:1.0 156:1.0 6383:1.0 396:1.0 
0.06058765502958932 1:3.0 2:1.0 3:3.0 5:1.0 173:1.0 126:1.0 218:1.0 4282:1.0 2622:1.0 93:1.0 
0.07652010041624759 1:2.0 2:4.0 3:3.0 5:1.0 155:1.0 7:1.0 8:1.0 484:1.0 4504:1.0 405:1.0 
0.1447649492780219 1:4.0 2:5.0 3:2.0 5:1.0 155:1.0 20:1.0 434:1.0 6874:1.0 5888:1.0 396:1.0 
0.01852745248933901 1:4.0 2:2.0 3:6.0 5:1.0 58:1.0 75:1.0 40:1.0 169:1.0 2923:1.0 83:1.0 
0.013026861040765933 1:4.0 2:2.0 3:5.0 5:1.0 12:1.0 75:1.0 40:1.0 37204:1.0 2923:1.0 405:1.0 
0.04425422539287789 1:3.0 2:2.0 3:4.0 5:1.0 155:1.0 20:1.0 40:1.0 156:1.0 37205:1.0 405:1.0 
0.012170273926995828 1:9.0 2:2.0 3:3.0 5:1.0 155:1.0 7:1.0 8:1.0 156:1.0 357:1.0 11:1.0 
0.021684128924244657 1:5.0 2:4.0 3:3.0 5:1.0 381:1.0 7:1.0 434:1.0 11571:1.0 6459:1.0 11:1.0 
0.046630845082935614 1:3.0 2:0.0 3:10.0 87:1.0 155:1.0 126:1.0 1146:1.0 156:1.0 1372:1.0 129:1.0 
0.08269909718187532 1:4.0 2:0.0 3:1.0 87:1.0 110:1.0 53:1.0 6304:1.0 176:1.0 6620:1.0 145:1.0 
0.15324071050374527 1:5.0 2:4.0 3:2.0 5:1.0 155:1.0 75:1.0 8:1.0 156:1.0 6201:1.0 119:1.0 
0.06201802358034966 1:3.0 2:1.0 3:4.0 5:1.0 155:1.0 75:1.0 8:1.0 156:1.0 2841:1.0 24:1.0 
0.32140310060769933 1:3.0 2:1.0 3:3.0 5:1.0 155:1.0 75:1.0 8:1.0 156:1.0 2841:1.0 119:1.0 
0.01548372224437437 1:3.0 2:3.0 3:11.0 5:1.0 182:1.0 20:1.0 8:1.0 524:1.0 7130:1.0 24:1.0 
0.02817472151909239 1:6.0 2:2.0 3:3.0 5:1.0 155:1.0 94:1.0 8:1.0 156:1.0 11449:1.0 11:1.0 
0.026083016981695885 1:4.0 2:5.0 3:2.0 5:1.0 182:1.0 20:1.0 8:1.0 524:1.0 3309:1.0 119:1.0 
0.011589711590904562 1:5.0 2:1.0 3:8.0 87:1.0 155:1.0 94:1.0 319:1.0 156:1.0 10:1.0 119:1.0 
0.07096568358135956 1:3.0 2:2.0 3:4.0 5:1.0 155:1.0 89:1.0 434:1.0 156:1.0 321:1.0 93:1.0 
2.692317093878456 1:3.0 2:2.0 3:2.0 5:1.0 155:1.0 20:1.0 40:1.0 156:1.0 3528:1.0 396:1.0 
0.080840253807699 1:6.0 2:1.0 3:2.0 5:1.0 47:1.0 48:1.0 263:1.0 13817:1.0 39627:1.0 2772:1.0 
0.3029315902135797 1:5.0 2:5.0 3:0.0 5:1.0 155:1.0 428:1.0 8:1.0 1141:1.0 431:1.0 476:1.0 
0.013679959256533912 1:6.0 2:9.0 3:5.0 5:1.0 155:1.0 53:1.0 8:1.0 156:1.0 185:1.0 11:1.0 
0.14328068462872834 1:2.0 2:1.0 3:3.0 5:1.0 155:1.0 486:1.0 8:1.0 156:1.0 5351:1.0 396:1.0 
0.1650625024857077 1:5.0 2:2.0 3:2.0 5:1.0 155:1.0 89:1.0 8:1.0 156:1.0 663:1.0 93:1.0 
0.018392959084624357 1:5.0 2:0.0 3:6.0 87:1.0 155:1.0 20:1.0 23951:1.0 156:1.0 376:1.0 3169:1.0 
0.08253678025967713 1:7.0 2:6.0 3:0.0 5:1.0 155:1.0 7:1.0 8:1.0 1141:1.0 113:1.0 11:1.0 
0.1594129672820929 1:4.0 2:2.0 3:2.0 5:1.0 155:1.0 20:1.0 8:1.0 156:1.0 8245:1.0 83:1.0 
0.015645064563469733 1:4.0 2:1.0 3:6.0 5:1.0 58:1.0 48:1.0 8:1.0 1540:1.0 6106:1.0 24:1.0 
0.033766732649873586 1:2.0 2:2.0 3:4.0 5:1.0 155:1.0 89:1.0 8:1.0 156:1.0 5550:1.0 93:1.0 
0.07105905266924774 1:4.0 2:1.0 3:3.0 5:1.0 155:1.0 53:1.0 8:1.0 3464:1.0 321:1.0 197:1.0 
0.02051889909582407 1:4.0 2:0.0 3:5.0 1164:1.0 173:1.0 126:1.0 4447:1.0 1566:1.0 561:1.0 93:1.0 
5.469148296190733 1:2.0 2:1.0 3:5.0 5:1.0 155:1.0 89:1.0 8:1.0 156:1.0 506:1.0 396:1.0 
0.07820571009612026 1:5.0 2:2.0 3:4.0 5:1.0 155:1.0 20:1.0 434:1.0 156:1.0 368:1.0 24:1.0 
0.09762569718178743 1:5.0 2:0.0 3:2.0 5:1.0 155:1.0 126:1.0 8:1.0 484:1.0 321:1.0 119:1.0 
0.05672614069037218 1:4.0 2:1.0 3:3.0 5:1.0 155:1.0 7:1.0 8:1.0 156:1.0 2992:1.0 405:1.0 
0.06117723560004154 1:3.0 2:1.0 3:5.0 46:1.0 155:1.0 20:1.0 19537:1.0 156:1.0 6103:1.0 396:1.0 
0.5153272898069641 1:5.0 2:3.0 3:3.0 5:1.0 155:1.0 20:1.0 8:1.0 156:1.0 3167:1.0 119:1.0 
0.015265332323870775 1:5.0 2:3.0 3:4.0 5:1.0 155:1.0 53:1.0 434:1.0 156:1.0 848:1.0 119:1.0 
0.030252862175858073 1:3.0 2:4.0 3:12.0 5:1.0 58:1.0 75:1.0 8:1.0 5171:1.0 2442:1.0 405:1.0 
0.04366260583920603 1:3.0 2:3.0 3:3.0 87:1.0 58:1.0 75:1.0 3884:1.0 10271:1.0 2442:1.0 83:1.0 
0.11312945307019992 1:4.0 2:4.0 3:2.0 5:1.0 155:1.0 7:1.0 8:1.0 156:1.0 4745:1.0 119:1.0 
0.08209842467688812 1:4.0 2:2.0 3:3.0 5:1.0 155:1.0 94:1.0 8:1.0 156:1.0 16832:1.0 197:1.0 
0.020693315479203587 1:6.0 2:1.0 3:3.0 125:1.0 155:1.0 53:1.0 5737:1.0 484:1.0 15852:1.0 145:1.0 
0.026687536029215024 1:5.0 2:0.0 3:5.0 87:1.0 155:1.0 126:1.0 1635:1.0 156:1.0 349:1.0 93:1.0 
0.14252314029682192 1:2.0 2:1.0 3:3.0 5:1.0 155:1.0 486:1.0 8:1.0 156:1.0 487:1.0 396:1.0 
7.932294789550595 1:3.0 2:3.0 3:4.0 5:1.0 155:1.0 75:1.0 8:1.0 156:1.0 123:1.0 24:1.0 
0.22578555632439043 1:3.0 2:2.0 3:2.0 5:1.0 155:1.0 20:1.0 8:1.0 156:1.0 6230:1.0 405:1.0 
0.012414107347218201 1:4.0 2:2.0 3:5.0 5:1.0 58:1.0 75:1.0 8:1.0 2239:1.0 5363:1.0 24:1.0 
0.12846699857014948 1:4.0 2:4.0 3:2.0 5:1.0 155:1.0 75:1.0 8:1.0 156:1.0 2242:1.0 405:1.0 
0.050475498448952265 1:5.0 2:3.0 3:3.0 5:1.0 155:1.0 53:1.0 40:1.0 156:1.0 5059:1.0 11:1.0 
0.15399012605732454 1:4.0 2:1.0 3:2.0 5:1.0 155:1.0 20:1.0 8:1.0 156:1.0 5290:1.0 24:1.0 
0.08335224887878429 1:3.0 2:5.0 3:3.0 5:1.0 155:1.0 20:1.0 8:1.0 156:1.0 3800:1.0 24:1.0 
0.24262082988975728 1:3.0 2:3.0 3:1.0 5:1.0 155:1.0 126:1.0 2399:1.0 156:1.0 749:1.0 213:1.0 
0.13878088481871537 1:2.0 2:2.0 3:3.0 5:1.0 155:1.0 89:1.0 8:1.0 156:1.0 16751:1.0 527:1.0 
0.17092690890759993 1:5.0 2:4.0 3:3.0 5:1.0 155:1.0 20:1.0 40:1.0 156:1.0 10842:1.0 405:1.0 
0.007150862511524556 1:7.0 2:0.0 3:8.0 87:1.0 231:1.0 7:1.0 1635:1.0 232:1.0 907:1.0 11:1.0 
0.029119655498865225 1:6.0 2:2.0 3:3.0 5:1.0 155:1.0 7:1.0 40:1.0 156:1.0 6117:1.0 405:1.0 
0.0246972927589052 1:4.0 2:2.0 3:3.0 5:1.0 155:1.0 20:1.0 8:1.0 156:1.0 4905:1.0 405:1.0 
0.0263360504061193 1:3.0 2:1.0 3:8.0 5:1.0 155:1.0 75:1.0 31044:1.0 156:1.0 765:1.0 119:1.0 
0.014905348197492396 1:5.0 2:3.0 3:6.0 87:1.0 155:1.0 75:1.0 640:1.0 156:1.0 43684:1.0 405:1.0 
0.03111332987874891 1:6.0 2:1.0 3:15.0 5:1.0 155:1.0 53:1.0 8:1.0 1141:1.0 10:1.0 11:1.0 
0.12529369350894928 1:5.0 2:2.0 3:2.0 5:1.0 155:1.0 20:1.0 8:1.0 156:1.0 161:1.0 119:1.0 
0.038854124334664515 1:4.0 2:2.0 3:3.0 5:1.0 12:1.0 20:1.0 8:1.0 3709:1.0 3193:1.0 24:1.0 
0.04534083404559023 1:3.0 2:2.0 3:3.0 5:1.0 58:1.0 20:1.0 8:1.0 5346:1.0 150:1.0 24:1.0 
0.00557361016977015 1:4.0 2:2.0 3:9.0 87:1.0 155:1.0 7:1.0 2565:1.0 156:1.0 321:1.0 11:1.0 
0.2188322893220108 1:4.0 2:2.0 3:2.0 5:1.0 155:1.0 20:1.0 434:1.0 484:1.0 3104:1.0 24:1.0 
0.013013865677079645 1:8.0 2:0.0 3:7.0 87:1.0 381:1.0 7:1.0 3884:1.0 3900:1.0 3991:1.0 11:1.0 
0.05314966696306916 1:5.0 2:3.0 3:2.0 5:1.0 182:1.0 20:1.0 434:1.0 184:1.0 1473:1.0 405:1.0 
0.4211814100383294 1:2.0 2:2.0 3:2.0 5:1.0 155:1.0 75:1.0 8:1.0 156:1.0 161:1.0 24:1.0 
0.012214451671795582 1:5.0 2:4.0 3:16.0 5:1.0 155:1.0 7:1.0 434:1.0 156:1.0 2100:1.0 11:1.0 
0.04452502881767754 1:4.0 2:1.0 3:5.0 166:1.0 155:1.0 20:1.0 167:1.0 156:1.0 46640:1.0 83:1.0 
0.3187754281587948 1:4.0 2:2.0 3:2.0 5:1.0 155:1.0 75:1.0 40:1.0 156:1.0 1900:1.0 405:1.0 
0.029255339196422505 1:5.0 2:1.0 3:5.0 5:1.0 155:1.0 75:1.0 2399:1.0 156:1.0 5290:1.0 83:1.0 
0.024043148983480454 1:5.0 2:2.0 3:3.0 5:1.0 155:1.0 20:1.0 8:1.0 156:1.0 8723:1.0 405:1.0 
0.022953038556044938 1:5.0 2:1.0 3:6.0 5:1.0 47:1.0 75:1.0 8:1.0 1340:1.0 1482:1.0 405:1.0 
0.01577621822757139 1:2.0 2:5.0 3:1.0 5:1.0 155:1.0 75:1.0 8:1.0 484:1.0 494:1.0 24:1.0 
0.13109975722802283 1:3.0 2:2.0 3:4.0 5:1.0 155:1.0 75:1.0 8:1.0 156:1.0 10539:1.0 24:1.0 
0.005153071931587632 1:7.0 2:2.0 3:9.0 5:1.0 381:1.0 7:1.0 4443:1.0 10097:1.0 15484:1.0 11:1.0 
-0.04580851077980428 1:5.0 2:2.0 3:2.0 5:1.0 155:1.0 75:1.0 263:1.0 156:1.0 3943:1.0 24:1.0 
-0.17367838880871153 1:3.0 2:2.0 3:4.0 5:1.0 155:1.0 210:1.0 8:1.0 484:1.0 212:1.0 213:1.0 
-0.036192521581025885 1:4.0 2:0.0 3:2.0 87:1.0 155:1.0 75:1.0 1635:1.0 156:1.0 1446:1.0 24:1.0 
-0.1054592870900781 1:4.0 2:6.0 3:1.0 5:1.0 155:1.0 75:1.0 8:1.0 156:1.0 7861:1.0 24:1.0 
-0.2588261169340529 1:3.0 2:2.0 3:2.0 5:1.0 155:1.0 126:1.0 8:1.0 156:1.0 1032:1.0 129:1.0 
-0.22317208348374495 1:3.0 2:1.0 3:1.0 5:1.0 155:1.0 7:1.0 8:1.0 156:1.0 3379:1.0 197:1.0 
-0.2185294074227312 1:3.0 2:2.0 3:2.0 5:1.0 155:1.0 48:1.0 8:1.0 156:1.0 10680:1.0 145:1.0 
-0.17607763348591338 1:2.0 2:2.0 3:1.0 5:1.0 155:1.0 75:1.0 8:1.0 156:1.0 11519:1.0 83:1.0 
-0.07353245082748724 1:2.0 2:3.0 3:1.0 5:1.0 155:1.0 202:1.0 8:1.0 484:1.0 604:1.0 396:1.0 
-0.021257734577646226 1:2.0 2:6.0 3:2.0 5:1.0 12:1.0 2167:1.0 8:1.0 13467:1.0 13468:1.0 11:1.0 
-0.0168787340662957 1:3.0 2:7.0 3:2.0 5:1.0 12:1.0 2167:1.0 8:1.0 13479:1.0 13468:1.0 11:1.0 
-0.06043638414033656 1:7.0 2:5.0 3:0.0 5:1.0 155:1.0 94:1.0 8:1.0 1141:1.0 10:1.0 11:1.0 
-0.2020658580227111 1:5.0 2:2.0 3:3.0 5:1.0 155:1.0 94:1.0 434:1.0 156:1.0 2622:1.0 11:1.0 
-1.809236964249105 1:4.0 2:4.0 3:2.0 5:1.0 155:1.0 20:1.0 40:1.0 156:1.0 3528:1.0 396:1.0 
-0.09796986649436122 1:2.0 2:3.0 3:1.0 5:1.0 155:1.0 75:1.0 7569:1.0 156:1.0 4923:1.0 24:1.0 
-0.07105905266924774 1:3.0 2:2.0 3:1.0 5:1.0 155:1.0 202:1.0 614:1.0 156:1.0 16657:1.0 24:1.0 
-0.08091733713099152 1:5.0 2:2.0 3:2.0 5:1.0 155:1.0 7355:1.0 8:1.0 156:1.0 13872:1.0 119:1.0 
-0.017117038013000838 1:2.0 2:2.0 3:1.0 5:1.0 155:1.0 89:1.0 434:1.0 156:1.0 16429:1.0 93:1.0 
-0.07561097505236593 1:3.0 2:2.0 3:1.0 5:1.0 155:1.0 48:1.0 40:1.0 156:1.0 17278:1.0 83:1.0 
-0.07571685672358248 1:3.0 2:1.0 3:0.0 46:1.0 155:1.0 48:1.0 17692:1.0 156:1.0 2778:1.0 197:1.0 
-0.1558949889903314 1:4.0 2:2.0 3:2.0 5:1.0 155:1.0 75:1.0 2399:1.0 156:1.0 10169:1.0 24:1.0 
-0.10673385439008798 1:2.0 2:2.0 3:1.0 5:1.0 155:1.0 202:1.0 40:1.0 156:1.0 2785:1.0 213:1.0 
-0.14961814496482043 1:2.0 2:0.0 3:1.0 87:1.0 155:1.0 20:1.0 2087:1.0 156:1.0 18836:1.0 24:1.0 
-0.05292025833716941 1:7.0 2:0.0 3:1.0 125:1.0 155:1.0 53:1.0 15057:1.0 484:1.0 1596:1.0 11:1.0 
-0.06419049612658013 1:5.0 2:1.0 3:5.0 5:1.0 155:1.0 75:1.0 263:1.0 156:1.0 1423:1.0 119:1.0 
-0.4548332955668333 1:4.0 2:2.0 3:2.0 5:1.0 155:1.0 53:1.0 8:1.0 156:1.0 161:1.0 197:1.0 
-0.23063792939772126 1:2.0 2:3.0 3:1.0 5:1.0 155:1.0 75:1.0 8:1.0 156:1.0 8773:1.0 83:1.0 
-0.043092709989900224 1:2.0 2:1.0 3:1.0 5:1.0 155:1.0 75:1.0 485:1.0 156:1.0 6261:1.0 119:1.0 
-0.07349387072515111 1:5.0 2:0.0 3:3.0 87:1.0 58:1.0 75:1.0 2087:1.0 2856:1.0 1707:1.0 145:1.0 
-0.2446921364432072 1:4.0 2:2.0 3:4.0 5:1.0 155:1.0 20:1.0 40:1.0 156:1.0 741:1.0 396:1.0 
-0.11473805363450418 1:4.0 2:2.0 3:2.0 5:1.0 155:1.0 75:1.0 40:1.0 156:1.0 10637:1.0 119:1.0 
-0.20548805883343668 1:2.0 2:0.0 3:1.0 87:1.0 155:1.0 202:1.0 7523:1.0 484:1.0 654:1.0 396:1.0 
-0.059543226906875996 1:2.0 2:0.0 3:3.0 87:1.0 155:1.0 75:1.0 18589:1.0 156:1.0 23943:1.0 405:1.0 
-0.09238329064658511 1:4.0 2:2.0 3:1.0 5:1.0 155:1.0 94:1.0 8:1.0 156:1.0 4156:1.0 197:1.0 
-0.3472222728125915 1:2.0 2:2.0 3:2.0 5:1.0 155:1.0 75:1.0 8:1.0 156:1.0 3332:1.0 83:1.0 
-0.23397876223683325 1:6.0 2:2.0 3:2.0 5:1.0 155:1.0 7:1.0 8:1.0 156:1.0 10:1.0 291:1.0 
-0.2837342565442417 1:2.0 2:2.0 3:2.0 5:1.0 155:1.0 20:1.0 40:1.0 156:1.0 24911:1.0 476:1.0 
-0.23980293614212322 1:4.0 2:3.0 3:3.0 5:1.0 155:1.0 20:1.0 8:1.0 156:1.0 8105:1.0 24:1.0 
-8.5305292294037E-5 1:4.0 2:2.0 3:3.0 5:1.0 155:1.0 20:1.0 5151:1.0 156:1.0 8105:1.0 24:1.0 
-0.023902417505835247 1:3.0 2:2.0 3:1.0 5:1.0 155:1.0 202:1.0 8:1.0 156:1.0 17981:1.0 24:1.0 
-0.039432584086951404 1:9.0 2:2.0 3:1.0 5:1.0 182:1.0 94:1.0 434:1.0 184:1.0 21311:1.0 11:1.0 
-0.1389961842937434 1:3.0 2:4.0 3:2.0 5:1.0 155:1.0 20:1.0 8:1.0 156:1.0 7130:1.0 213:1.0 
-0.14519757193618105 1:3.0 2:2.0 3:2.0 5:1.0 155:1.0 20:1.0 434:1.0 156:1.0 2293:1.0 24:1.0 
-0.1258797458701501 1:3.0 2:2.0 3:1.0 5:1.0 155:1.0 20:1.0 8:1.0 156:1.0 4205:1.0 119:1.0 
-0.2700596209438105 1:3.0 2:2.0 3:3.0 5:1.0 155:1.0 20:1.0 40:1.0 156:1.0 29583:1.0 396:1.0 
-0.14712783543228494 1:4.0 2:2.0 3:4.0 5:1.0 155:1.0 20:1.0 4443:1.0 156:1.0 30486:1.0 24:1.0 
-0.08601226365510269 1:4.0 2:1.0 3:5.0 46:1.0 155:1.0 48:1.0 1187:1.0 156:1.0 748:1.0 83:1.0 
-0.044776479781035654 1:3.0 2:0.0 3:2.0 87:1.0 155:1.0 75:1.0 6304:1.0 156:1.0 10565:1.0 83:1.0 
-0.03638505356208753 1:13.0 2:2.0 3:2.0 5:1.0 155:1.0 20:1.0 8:1.0 156:1.0 5521:1.0 11:1.0 
-0.07206124370358429 1:11.0 2:2.0 3:3.0 5:1.0 155:1.0 20:1.0 8:1.0 156:1.0 3599:1.0 11:1.0 
-0.10782742401170617 1:2.0 2:2.0 3:1.0 5:1.0 155:1.0 75:1.0 40:1.0 156:1.0 123:1.0 83:1.0 
-500.0 1:10.0 2:4.0 3:0.0 5:1.0 155:1.0 194:1.0 8:1.0 156:1.0 6504:1.0 56:1.0 
-0.06686004389968471 1:4.0 2:2.0 3:1.0 5:1.0 155:1.0 20:1.0 8:1.0 156:1.0 33395:1.0 83:1.0 
-0.5767428854887271 1:4.0 2:2.0 3:1.0 5:1.0 155:1.0 20:1.0 8:1.0 156:1.0 3167:1.0 119:1.0 
-0.06381808596445722 1:3.0 2:6.0 3:2.0 5:1.0 12:1.0 20:1.0 8:1.0 18573:1.0 33611:1.0 24:1.0 
-0.060923951077127496 1:3.0 2:6.0 3:1.0 5:1.0 155:1.0 75:1.0 8:1.0 156:1.0 3852:1.0 24:1.0 
-0.13740517746910905 1:5.0 2:1.0 3:1.0 5:1.0 155:1.0 7:1.0 8:1.0 156:1.0 7233:1.0 197:1.0 
-0.13470186289444594 1:4.0 2:1.0 3:2.0 5:1.0 173:1.0 126:1.0 8:1.0 12007:1.0 27879:1.0 129:1.0 
-0.07384298244227275 1:5.0 2:3.0 3:1.0 87:1.0 155:1.0 53:1.0 1146:1.0 156:1.0 682:1.0 197:1.0 
-0.28927145392802023 1:3.0 2:1.0 3:2.0 5:1.0 155:1.0 486:1.0 8:1.0 156:1.0 13293:1.0 197:1.0 
-0.3382116761207942 1:2.0 2:1.0 3:4.0 5:1.0 155:1.0 20:1.0 629:1.0 156:1.0 34884:1.0 24:1.0 
-0.07015262760365543 1:5.0 2:13.0 3:5.0 5:1.0 155:1.0 7:1.0 8:1.0 156:1.0 7684:1.0 11:1.0 
-0.0231746286185229 1:15.0 2:2.0 3:2.0 5:1.0 155:1.0 2222:1.0 8:1.0 156:1.0 5371:1.0 11:1.0 
-0.1735519660252843 1:5.0 2:2.0 3:2.0 5:1.0 155:1.0 7:1.0 434:1.0 156:1.0 3167:1.0 291:1.0 
-0.24775634180326728 1:2.0 2:2.0 3:3.0 5:1.0 155:1.0 89:1.0 40:1.0 484:1.0 1273:1.0 93:1.0 
-0.17729663878863555 1:2.0 2:2.0 3:1.0 5:1.0 155:1.0 20:1.0 8:1.0 156:1.0 1701:1.0 24:1.0 
-0.03582649430986189 1:3.0 2:2.0 3:1.0 5:1.0 155:1.0 20:1.0 165:1.0 156:1.0 36571:1.0 24:1.0 
-0.1608321163961704 1:2.0 2:2.0 3:1.0 5:1.0 155:1.0 20:1.0 8:1.0 156:1.0 11668:1.0 24:1.0 
-0.08637353587976425 1:4.0 2:2.0 3:2.0 5:1.0 58:1.0 75:1.0 40:1.0 648:1.0 2129:1.0 24:1.0 
-0.0973042372109853 1:2.0 2:2.0 3:1.0 5:1.0 155:1.0 75:1.0 4096:1.0 156:1.0 6011:1.0 24:1.0 
-0.45782447030969026 1:2.0 2:1.0 3:1.0 5:1.0 155:1.0 89:1.0 8:1.0 156:1.0 10570:1.0 93:1.0 
-0.09135552951862311 1:3.0 2:3.0 3:1.0 5:1.0 155:1.0 75:1.0 8:1.0 156:1.0 7679:1.0 24:1.0 
-0.04934704322889809 1:5.0 2:4.0 3:2.0 5:1.0 241:1.0 194:1.0 8:1.0 20514:1.0 16446:1.0 476:1.0 
-0.06972832791709865 1:5.0 2:5.0 3:0.0 5:1.0 182:1.0 428:1.0 8:1.0 859:1.0 431:1.0 476:1.0 
-0.27533998503850327 1:5.0 2:3.0 3:0.0 5:1.0 155:1.0 428:1.0 434:1.0 1141:1.0 431:1.0 476:1.0 
-0.07146766921028898 1:3.0 2:2.0 3:1.0 5:1.0 155:1.0 20:1.0 2399:1.0 156:1.0 40634:1.0 24:1.0 
-0.0966520751985924 1:3.0 2:2.0 3:1.0 5:1.0 155:1.0 75:1.0 434:1.0 484:1.0 40283:1.0 145:1.0 
-0.09224711031039157 1:5.0 2:0.0 3:3.0 46:1.0 47:1.0 48:1.0 19537:1.0 27453:1.0 41845:1.0 119:1.0 
-0.0657091948126827 1:5.0 2:5.0 3:3.0 5:1.0 58:1.0 75:1.0 8:1.0 18720:1.0 399:1.0 24:1.0 
-4.112761133530193 1:3.0 2:2.0 3:7.0 5:1.0 155:1.0 89:1.0 8:1.0 156:1.0 506:1.0 396:1.0 
-0.05575942527577002 1:4.0 2:2.0 3:1.0 5:1.0 155:1.0 20:1.0 8:1.0 156:1.0 230:1.0 476:1.0 
-0.0713849097001824 1:4.0 2:2.0 3:2.0 5:1.0 58:1.0 75:1.0 5151:1.0 42673:1.0 4378:1.0 24:1.0 
-0.08484039251118966 1:3.0 2:2.0 3:2.0 5:1.0 155:1.0 75:1.0 8:1.0 156:1.0 123:1.0 83:1.0 
-0.08283344328753109 1:9.0 2:2.0 3:5.0 5:1.0 381:1.0 7:1.0 434:1.0 7474:1.0 550:1.0 11:1.0 
-0.21474557563208346 1:2.0 2:2.0 3:1.0 5:1.0 155:1.0 89:1.0 8:1.0 484:1.0 43289:1.0 93:1.0 
-0.31116056704960815 1:2.0 2:1.0 3:1.0 5:1.0 155:1.0 20:1.0 8:1.0 156:1.0 43837:1.0 24:1.0 
-0.01923922468317452 1:3.0 2:2.0 3:1.0 5:1.0 155:1.0 202:1.0 8:1.0 156:1.0 4905:1.0 24:1.0 
-0.27230002788178503 1:2.0 2:1.0 3:1.0 5:1.0 155:1.0 20:1.0 8:1.0 156:1.0 2292:1.0 119:1.0 
-0.12042209785068347 1:6.0 2:6.0 3:5.0 5:1.0 155:1.0 53:1.0 8:1.0 156:1.0 2226:1.0 11:1.0 
-0.10602616125792834 1:3.0 2:1.0 3:1.0 5:1.0 155:1.0 126:1.0 8:1.0 156:1.0 1005:1.0 129:1.0 
-0.014772436159054242 1:2.0 2:2.0 3:1.0 5:1.0 155:1.0 20:1.0 263:1.0 156:1.0 7101:1.0 119:1.0 
-0.19695987051952316 1:3.0 2:3.0 3:2.0 5:1.0 155:1.0 75:1.0 8:1.0 156:1.0 9078:1.0 24:1.0 
-0.08248244799344304 1:4.0 2:2.0 3:1.0 5:1.0 155:1.0 89:1.0 8:1.0 156:1.0 1601:1.0 93:1.0 
-0.19060307248078048 1:2.0 2:3.0 3:1.0 5:1.0 155:1.0 75:1.0 8:1.0 156:1.0 10711:1.0 24:1.0 
-0.2452625713309959 1:4.0 2:3.0 3:4.0 5:1.0 155:1.0 94:1.0 8:1.0 156:1.0 6616:1.0 291:1.0 
-0.1563067425709311 1:3.0 2:3.0 3:2.0 5:1.0 155:1.0 75:1.0 40:1.0 156:1.0 45263:1.0 83:1.0 
-0.22312466748872567 1:4.0 2:1.0 3:2.0 5:1.0 155:1.0 48:1.0 8:1.0 156:1.0 5245:1.0 83:1.0 
-8.549543273557841 1:3.0 2:2.0 3:4.0 5:1.0 155:1.0 75:1.0 8:1.0 156:1.0 123:1.0 24:1.0 
-0.14555906649422878 1:3.0 2:2.0 3:1.0 5:1.0 155:1.0 126:1.0 7569:1.0 484:1.0 23001:1.0 129:1.0 
-0.17576480168457348 1:4.0 2:2.0 3:4.0 5:1.0 155:1.0 75:1.0 8:1.0 156:1.0 2886:1.0 24:1.0 
-0.0917953739789385 1:3.0 2:2.0 3:1.0 5:1.0 155:1.0 202:1.0 8:1.0 156:1.0 12788:1.0 24:1.0 
-0.02012844981082152 1:3.0 2:2.0 3:1.0 5:1.0 155:1.0 75:1.0 1156:1.0 156:1.0 6126:1.0 11:1.0 
-0.10976517836808442 1:2.0 2:2.0 3:2.0 5:1.0 155:1.0 75:1.0 434:1.0 156:1.0 5448:1.0 24:1.0 
-0.25857911567247743 1:3.0 2:2.0 3:4.0 5:1.0 155:1.0 20:1.0 434:1.0 156:1.0 3779:1.0 24:1.0 
-0.11338372033591791 1:3.0 2:1.0 3:1.0 5:1.0 155:1.0 126:1.0 8:1.0 156:1.0 5904:1.0 129:1.0 
-0.3212616110584003 1:3.0 2:1.0 3:3.0 5:1.0 155:1.0 202:1.0 8:1.0 156:1.0 4911:1.0 24:1.0 
-0.10838124887589105 1:4.0 2:2.0 3:1.0 5:1.0 155:1.0 20:1.0 8:1.0 484:1.0 3991:1.0 83:1.0 
-0.09134609534766255 1:6.0 2:1.0 3:4.0 5:1.0 47:1.0 48:1.0 263:1.0 19930:1.0 9857:1.0 24:1.0 
-0.029926113553991253 1:3.0 2:5.0 3:2.0 5:1.0 155:1.0 7:1.0 40:1.0 156:1.0 3676:1.0 119:1.0 
-0.11195878725444408 1:2.0 2:2.0 3:1.0 5:1.0 155:1.0 89:1.0 8:1.0 156:1.0 11888:1.0 93:1.0 
-0.1993785066779433 1:2.0 2:3.0 3:1.0 5:1.0 155:1.0 75:1.0 8:1.0 156:1.0 240:1.0 83:1.0 
-0.05249844608545208 1:4.0 2:2.0 3:1.0 5:1.0 155:1.0 20:1.0 8:1.0 156:1.0 14381:1.0 476:1.0 
-0.17607765438668627 1:2.0 2:2.0 3:1.0 5:1.0 155:1.0 75:1.0 8:1.0 156:1.0 24668:1.0 83:1.0 
-0.11306556649383384 1:3.0 2:5.0 3:1.0 5:1.0 155:1.0 75:1.0 8:1.0 156:1.0 3852:1.0 24:1.0 
-0.2365627080965097 1:3.0 2:2.0 3:3.0 5:1.0 155:1.0 75:1.0 8:1.0 156:1.0 652:1.0 83:1.0 
-0.226043204372938 1:3.0 2:2.0 3:4.0 5:1.0 155:1.0 75:1.0 8:1.0 156:1.0 5448:1.0 119:1.0 
