svm_type c_svc
kernel_type polynomial
degree 2
gamma 0.2
coef0 0.0
nr_class 2
total_sv 64
rho 0.4111499329716196
label 1 -1
nr_sv 34 30
SV
0.13505044950259754 1:2.0 2:0.0 3:2.0 87:1.0 41:1.0 89:1.0 3016:1.0 665:1.0 1379:1.0 93:1.0 
0.06658740685780325 1:6.0 2:1.0 3:1.0 5:1.0 88:1.0 7:1.0 6953:1.0 91:1.0 10131:1.0 197:1.0 
0.03365049658481383 1:4.0 2:0.0 3:2.0 87:1.0 88:1.0 7:1.0 3186:1.0 91:1.0 1401:1.0 197:1.0 
0.3441810546206155 1:2.0 2:0.0 3:1.0 87:1.0 41:1.0 126:1.0 4040:1.0 162:1.0 4553:1.0 129:1.0 
0.10069910272423127 1:5.0 2:2.0 3:1.0 5:1.0 88:1.0 89:1.0 218:1.0 91:1.0 2226:1.0 93:1.0 
0.020790883418613102 1:2.0 2:0.0 3:3.0 87:1.0 41:1.0 202:1.0 8239:1.0 665:1.0 2226:1.0 24:1.0 
0.1221199365966188 1:2.0 2:0.0 3:2.0 87:1.0 41:1.0 202:1.0 21629:1.0 5188:1.0 10827:1.0 93:1.0 
0.032184539399152695 1:2.0 2:0.0 3:3.0 87:1.0 41:1.0 202:1.0 4083:1.0 5188:1.0 1798:1.0 93:1.0 
0.06468803272617694 1:5.0 2:0.0 3:1.0 87:1.0 88:1.0 7:1.0 22411:1.0 91:1.0 7192:1.0 197:1.0 
0.009955378745914224 1:8.0 2:5.0 3:5.0 236:1.0 88:1.0 7:1.0 1795:1.0 91:1.0 689:1.0 11:1.0 
0.11992177916016093 1:4.0 2:0.0 3:1.0 87:1.0 41:1.0 7:1.0 4083:1.0 162:1.0 8242:1.0 145:1.0 
0.06981086181858355 1:2.0 2:0.0 3:4.0 793:1.0 41:1.0 126:1.0 13626:1.0 28293:1.0 2226:1.0 129:1.0 
0.07479505590950594 1:5.0 2:5.0 3:2.0 5:1.0 110:1.0 94:1.0 815:1.0 176:1.0 666:1.0 11:1.0 
0.07047244673760249 1:3.0 2:0.0 3:0.0 87:1.0 182:1.0 202:1.0 7888:1.0 20986:1.0 2226:1.0 93:1.0 
0.05857460974797525 1:7.0 2:3.0 3:2.0 5:1.0 88:1.0 7:1.0 218:1.0 91:1.0 161:1.0 11:1.0 
0.06705416738083213 1:7.0 2:3.0 3:2.0 5:1.0 41:1.0 7:1.0 218:1.0 162:1.0 161:1.0 11:1.0 
0.02033117290195577 1:7.0 2:0.0 3:1.0 87:1.0 41:1.0 7:1.0 9865:1.0 162:1.0 3488:1.0 11:1.0 
0.3192729052760053 1:2.0 2:0.0 3:1.0 87:1.0 88:1.0 89:1.0 3016:1.0 91:1.0 1401:1.0 396:1.0 
0.09511739694796569 1:3.0 2:0.0 3:1.0 1164:1.0 41:1.0 126:1.0 5905:1.0 162:1.0 321:1.0 129:1.0 
0.07593021441280813 1:3.0 2:0.0 3:0.0 87:1.0 182:1.0 202:1.0 7888:1.0 20986:1.0 2226:1.0 24:1.0 
0.0514663724809863 1:5.0 2:0.0 3:3.0 87:1.0 41:1.0 7:1.0 8894:1.0 162:1.0 3676:1.0 119:1.0 
0.017052988041299077 1:7.0 2:1.0 3:1.0 166:1.0 41:1.0 7:1.0 167:1.0 665:1.0 24108:1.0 11:1.0 
0.028593291596220923 1:4.0 2:0.0 3:1.0 87:1.0 41:1.0 89:1.0 12072:1.0 162:1.0 8242:1.0 145:1.0 
0.0378930906282529 1:7.0 2:0.0 3:1.0 87:1.0 41:1.0 7:1.0 23692:1.0 665:1.0 5970:1.0 11:1.0 
0.05964807043396382 1:3.0 2:1.0 3:2.0 87:1.0 41:1.0 202:1.0 11974:1.0 5188:1.0 4117:1.0 24:1.0 
0.12368430640611382 1:3.0 2:0.0 3:1.0 1164:1.0 88:1.0 126:1.0 5905:1.0 91:1.0 1401:1.0 129:1.0 
0.02065145636471445 1:2.0 2:0.0 3:5.0 793:1.0 41:1.0 202:1.0 794:1.0 5188:1.0 4117:1.0 93:1.0 
0.016520297216618084 1:6.0 2:0.0 3:1.0 87:1.0 88:1.0 7:1.0 2307:1.0 91:1.0 15168:1.0 11:1.0 
0.02782138185539985 1:2.0 2:0.0 3:3.0 87:1.0 41:1.0 202:1.0 44468:1.0 991:1.0 44469:1.0 396:1.0 
0.013525985476506115 1:6.0 2:0.0 3:2.0 87:1.0 41:1.0 7:1.0 45596:1.0 5188:1.0 5850:1.0 11:1.0 
0.04055086557661206 1:3.0 2:0.0 3:2.0 87:1.0 41:1.0 202:1.0 5766:1.0 2099:1.0 298:1.0 213:1.0 
0.17695785083263182 1:3.0 2:0.0 3:0.0 87:1.0 182:1.0 202:1.0 7888:1.0 20986:1.0 6313:1.0 93:1.0 
0.022432878193578157 1:7.0 2:0.0 3:0.0 87:1.0 182:1.0 7:1.0 19391:1.0 20986:1.0 3802:1.0 11:1.0 
0.1326259953659523 1:3.0 2:0.0 3:3.0 87:1.0 88:1.0 126:1.0 17235:1.0 91:1.0 3193:1.0 93:1.0 
-0.1054647543012463 1:4.0 2:0.0 3:0.0 87:1.0 182:1.0 53:1.0 4083:1.0 2099:1.0 2226:1.0 79:1.0 
-0.07047244673760249 1:2.0 2:2.0 3:0.0 87:1.0 182:1.0 202:1.0 4813:1.0 4814:1.0 4815:1.0 213:1.0 
-0.2182992713501233 1:2.0 2:0.0 3:0.0 87:1.0 182:1.0 89:1.0 8468:1.0 3903:1.0 1073:1.0 93:1.0 
-0.11992177916016093 1:4.0 2:0.0 3:0.0 87:1.0 41:1.0 126:1.0 4813:1.0 71:1.0 321:1.0 129:1.0 
-0.07252686738586155 1:3.0 2:1.0 3:2.0 5:1.0 41:1.0 53:1.0 4859:1.0 991:1.0 2100:1.0 197:1.0 
-0.07365402393771016 1:5.0 2:1.0 3:2.0 5:1.0 41:1.0 94:1.0 218:1.0 162:1.0 4553:1.0 119:1.0 
-0.019601369633063095 1:4.0 2:5.0 3:2.0 276:1.0 41:1.0 94:1.0 14862:1.0 991:1.0 2100:1.0 11:1.0 
-0.07928775433638616 1:5.0 2:0.0 3:0.0 87:1.0 41:1.0 53:1.0 19223:1.0 621:1.0 19220:1.0 145:1.0 
-0.04783596220513422 1:3.0 2:2.0 3:2.0 5:1.0 88:1.0 89:1.0 310:1.0 91:1.0 1073:1.0 93:1.0 
-0.1221199365966188 1:2.0 2:2.0 3:2.0 5:1.0 88:1.0 89:1.0 310:1.0 91:1.0 55:1.0 93:1.0 
-0.03066755938071249 1:5.0 2:2.0 3:1.0 5:1.0 88:1.0 7:1.0 993:1.0 91:1.0 7192:1.0 291:1.0 
-0.02065145636471445 1:5.0 2:2.0 3:1.0 5:1.0 88:1.0 7:1.0 993:1.0 91:1.0 7192:1.0 197:1.0 
-0.13505044950259754 1:2.0 2:0.0 3:0.0 472:1.0 542:1.0 89:1.0 473:1.0 4449:1.0 1869:1.0 93:1.0 
-0.08402823041599507 1:5.0 2:2.0 3:2.0 87:1.0 41:1.0 7:1.0 667:1.0 5188:1.0 25585:1.0 11:1.0 
-0.015462082170160174 1:7.0 2:4.0 3:2.0 5:1.0 41:1.0 7:1.0 993:1.0 665:1.0 14080:1.0 11:1.0 
-0.2813178757813516 1:3.0 2:0.0 3:2.0 87:1.0 88:1.0 126:1.0 3016:1.0 91:1.0 5458:1.0 129:1.0 
-0.1438505064985246 1:6.0 2:1.0 3:2.0 5:1.0 88:1.0 7:1.0 218:1.0 91:1.0 2100:1.0 119:1.0 
-0.03764055725759263 1:3.0 2:1.0 3:4.0 5:1.0 88:1.0 126:1.0 434:1.0 91:1.0 12530:1.0 129:1.0 
-0.04055086557661206 1:4.0 2:1.0 3:0.0 5:1.0 620:1.0 7:1.0 815:1.0 2075:1.0 14713:1.0 145:1.0 
-0.09511739694796569 1:2.0 2:2.0 3:0.0 5:1.0 41:1.0 202:1.0 815:1.0 621:1.0 666:1.0 93:1.0 
-0.20266909278593243 1:3.0 2:0.0 3:2.0 87:1.0 41:1.0 7:1.0 22411:1.0 665:1.0 27612:1.0 197:1.0 
-0.13618112925756248 1:3.0 2:0.0 3:0.0 87:1.0 182:1.0 126:1.0 8894:1.0 2099:1.0 666:1.0 93:1.0 
-0.03846636105680373 1:5.0 2:0.0 3:0.0 87:1.0 182:1.0 7:1.0 8894:1.0 2099:1.0 2622:1.0 197:1.0 
-0.005277883087882618 1:5.0 2:3.0 3:2.0 5:1.0 88:1.0 126:1.0 630:1.0 91:1.0 161:1.0 129:1.0 
-0.05964807043396382 1:4.0 2:2.0 3:0.0 5:1.0 182:1.0 202:1.0 8:1.0 603:1.0 32951:1.0 213:1.0 
-0.07593021441280813 1:3.0 2:2.0 3:2.0 87:1.0 88:1.0 126:1.0 1458:1.0 91:1.0 321:1.0 129:1.0 
-0.051011732586514924 1:7.0 2:0.0 3:0.0 87:1.0 41:1.0 94:1.0 23692:1.0 621:1.0 2204:1.0 11:1.0 
-0.14770248915444867 1:4.0 2:0.0 3:4.0 87:1.0 41:1.0 7:1.0 9599:1.0 162:1.0 6773:1.0 119:1.0 
-0.016520297216618084 1:4.0 2:2.0 3:3.0 5:1.0 41:1.0 53:1.0 8:1.0 665:1.0 321:1.0 291:1.0 
-0.12368430640611382 1:3.0 2:1.0 3:1.0 125:1.0 41:1.0 89:1.0 1617:1.0 162:1.0 6773:1.0 93:1.0 
