svm_type c_svc
kernel_type polynomial
degree 2
gamma 0.2
coef0 0.0
nr_class 2
total_sv 831
rho 0.810640628055732
label 1 -1
nr_sv 195 636
SV
0.29124442099167797 1:3.0 2:0.0 3:1.0 26:1.0 12:1.0 75:1.0 313:1.0 2084:1.0 414:1.0 119:1.0 
0.5531365033182256 1:2.0 2:1.0 3:0.0 46:1.0 12:1.0 20:1.0 2316:1.0 2317:1.0 2318:1.0 396:1.0 
500.0 1:15.0 2:2.0 3:2.0 67:1.0 58:1.0 75:1.0 2670:1.0 2668:1.0 1937:1.0 11:1.0 
0.32364313254817645 1:4.0 2:2.0 3:2.0 276:1.0 12:1.0 20:1.0 2773:1.0 169:1.0 3188:1.0 83:1.0 
0.32919552344614844 1:3.0 2:0.0 3:2.0 87:1.0 41:1.0 20:1.0 679:1.0 420:1.0 5402:1.0 119:1.0 
0.13633653049017647 1:4.0 2:0.0 3:2.0 272:1.0 14:1.0 20:1.0 893:1.0 673:1.0 6630:1.0 24:1.0 
0.15801629460504113 1:7.0 2:3.0 3:2.0 5:1.0 41:1.0 20:1.0 25:1.0 6955:1.0 2032:1.0 11:1.0 
0.44910345817699 1:2.0 2:0.0 3:1.0 272:1.0 47:1.0 20:1.0 2909:1.0 7021:1.0 1707:1.0 24:1.0 
0.17805015630125537 1:3.0 2:0.0 3:2.0 69:1.0 41:1.0 20:1.0 8639:1.0 162:1.0 5308:1.0 119:1.0 
0.22002140771936513 1:4.0 2:0.0 3:2.0 26:1.0 12:1.0 75:1.0 1867:1.0 169:1.0 3213:1.0 119:1.0 
0.09000320676734117 1:3.0 2:0.0 3:3.0 125:1.0 41:1.0 20:1.0 10188:1.0 86:1.0 4197:1.0 119:1.0 
0.14760219471660854 1:4.0 2:0.0 3:0.0 4942:1.0 241:1.0 20:1.0 1867:1.0 10651:1.0 10649:1.0 24:1.0 
0.21544858706930012 1:2.0 2:1.0 3:3.0 46:1.0 58:1.0 20:1.0 1895:1.0 623:1.0 748:1.0 83:1.0 
0.4003026469480025 1:3.0 2:1.0 3:0.0 46:1.0 12:1.0 75:1.0 1895:1.0 623:1.0 2392:1.0 24:1.0 
0.16888924569217806 1:2.0 2:4.0 3:4.0 5:1.0 198:1.0 75:1.0 630:1.0 3858:1.0 3474:1.0 119:1.0 
0.12817464842797577 1:4.0 2:0.0 3:2.0 125:1.0 381:1.0 20:1.0 7288:1.0 2372:1.0 10940:1.0 119:1.0 
500.0 1:2.0 2:0.0 3:2.0 125:1.0 47:1.0 20:1.0 9538:1.0 3804:1.0 2293:1.0 24:1.0 
0.31760005334942204 1:4.0 2:1.0 3:4.0 5:1.0 88:1.0 20:1.0 165:1.0 91:1.0 221:1.0 119:1.0 
0.22289474837012904 1:4.0 2:1.0 3:2.0 573:1.0 41:1.0 20:1.0 574:1.0 628:1.0 2392:1.0 119:1.0 
0.18371150822304955 1:4.0 2:0.0 3:2.0 26:1.0 41:1.0 20:1.0 366:1.0 420:1.0 11924:1.0 119:1.0 
0.12048851209307157 1:5.0 2:0.0 3:2.0 69:1.0 41:1.0 20:1.0 2058:1.0 297:1.0 3852:1.0 83:1.0 
0.36055293960927903 1:3.0 2:0.0 3:1.0 26:1.0 47:1.0 48:1.0 42:1.0 3522:1.0 2245:1.0 83:1.0 
0.08436985644181019 1:8.0 2:1.0 3:0.0 46:1.0 12:1.0 20:1.0 13699:1.0 2265:1.0 741:1.0 119:1.0 
0.10086435939878537 1:8.0 2:0.0 3:0.0 18:1.0 12:1.0 20:1.0 4661:1.0 2265:1.0 741:1.0 119:1.0 
0.12278623025697091 1:2.0 2:0.0 3:4.0 125:1.0 41:1.0 75:1.0 1424:1.0 3282:1.0 8406:1.0 24:1.0 
0.42479766485021675 1:2.0 2:0.0 3:2.0 26:1.0 12:1.0 75:1.0 42:1.0 7535:1.0 10354:1.0 83:1.0 
0.09293570661576439 1:3.0 2:0.0 3:3.0 26:1.0 41:1.0 75:1.0 42:1.0 86:1.0 9744:1.0 119:1.0 
0.1357754396578524 1:3.0 2:0.0 3:2.0 26:1.0 41:1.0 20:1.0 42:1.0 86:1.0 15380:1.0 83:1.0 
0.02438948017159792 1:3.0 2:0.0 3:5.0 26:1.0 41:1.0 75:1.0 42:1.0 43:1.0 2346:1.0 396:1.0 
0.3068206249514125 1:3.0 2:0.0 3:2.0 125:1.0 41:1.0 75:1.0 8783:1.0 86:1.0 357:1.0 119:1.0 
0.08565567194529752 1:3.0 2:1.0 3:3.0 125:1.0 41:1.0 20:1.0 1177:1.0 86:1.0 7492:1.0 119:1.0 
0.24301408612804404 1:5.0 2:0.0 3:0.0 26:1.0 241:1.0 20:1.0 42:1.0 10281:1.0 16228:1.0 24:1.0 
0.15143942759616463 1:3.0 2:0.0 3:2.0 272:1.0 198:1.0 75:1.0 3453:1.0 2187:1.0 383:1.0 24:1.0 
0.11127871276567854 1:5.0 2:0.0 3:2.0 125:1.0 231:1.0 75:1.0 7190:1.0 232:1.0 240:1.0 83:1.0 
0.04217346188430739 1:6.0 2:0.0 3:5.0 69:1.0 41:1.0 20:1.0 581:1.0 441:1.0 1371:1.0 476:1.0 
0.4912002439046805 1:3.0 2:0.0 3:0.0 26:1.0 241:1.0 20:1.0 42:1.0 1427:1.0 16965:1.0 83:1.0 
500.0 1:15.0 2:2.0 3:2.0 67:1.0 58:1.0 75:1.0 2670:1.0 2668:1.0 1937:1.0 11:1.0 
0.34753099797669396 1:3.0 2:0.0 3:1.0 26:1.0 41:1.0 20:1.0 366:1.0 5188:1.0 3904:1.0 24:1.0 
0.11553382216407712 1:2.0 2:0.0 3:3.0 26:1.0 41:1.0 20:1.0 28:1.0 628:1.0 3332:1.0 396:1.0 
0.052657259487875044 1:2.0 2:0.0 3:3.0 26:1.0 41:1.0 20:1.0 42:1.0 297:1.0 15675:1.0 83:1.0 
0.37559293981564346 1:3.0 2:0.0 3:1.0 26:1.0 12:1.0 20:1.0 366:1.0 9568:1.0 748:1.0 396:1.0 
0.16371877514015223 1:5.0 2:0.0 3:0.0 26:1.0 12:1.0 75:1.0 42:1.0 6556:1.0 3830:1.0 24:1.0 
0.0429410677180488 1:13.0 2:0.0 3:3.0 18:1.0 41:1.0 20:1.0 10973:1.0 86:1.0 3594:1.0 11:1.0 
0.16325530651710862 1:4.0 2:0.0 3:2.0 69:1.0 41:1.0 75:1.0 1344:1.0 441:1.0 123:1.0 119:1.0 
0.16211674895749956 1:4.0 2:0.0 3:2.0 18:1.0 41:1.0 20:1.0 488:1.0 524:1.0 1201:1.0 24:1.0 
0.0429897322505529 1:3.0 2:0.0 3:3.0 26:1.0 41:1.0 20:1.0 366:1.0 86:1.0 3309:1.0 119:1.0 
0.07785102341040542 1:5.0 2:0.0 3:3.0 26:1.0 27:1.0 75:1.0 42:1.0 7918:1.0 19036:1.0 24:1.0 
0.09256550634859227 1:5.0 2:0.0 3:3.0 125:1.0 27:1.0 75:1.0 19037:1.0 7918:1.0 19036:1.0 24:1.0 
0.23109641959834798 1:4.0 2:0.0 3:2.0 276:1.0 41:1.0 20:1.0 19869:1.0 628:1.0 2458:1.0 396:1.0 
0.12395370305667582 1:2.0 2:0.0 3:3.0 26:1.0 27:1.0 20:1.0 42:1.0 2004:1.0 3758:1.0 24:1.0 
0.2684289059075955 1:3.0 2:0.0 3:1.0 26:1.0 41:1.0 20:1.0 366:1.0 86:1.0 5457:1.0 24:1.0 
0.989707837553216 1:3.0 2:0.0 3:0.0 26:1.0 19:1.0 75:1.0 42:1.0 858:1.0 2841:1.0 24:1.0 
0.2730073641530804 1:4.0 2:1.0 3:1.0 18:1.0 47:1.0 20:1.0 1169:1.0 5857:1.0 3183:1.0 24:1.0 
0.023474638907851827 1:5.0 2:0.0 3:3.0 26:1.0 41:1.0 20:1.0 42:1.0 3282:1.0 3242:1.0 24:1.0 
0.06479474263265565 1:2.0 2:0.0 3:4.0 272:1.0 41:1.0 20:1.0 2909:1.0 86:1.0 6137:1.0 24:1.0 
500.0 1:15.0 2:2.0 3:2.0 67:1.0 58:1.0 75:1.0 2670:1.0 2668:1.0 1937:1.0 11:1.0 
0.05271643983344851 1:4.0 2:2.0 3:4.0 69:1.0 110:1.0 20:1.0 7473:1.0 322:1.0 230:1.0 396:1.0 
0.036136776166370246 1:6.0 2:0.0 3:4.0 125:1.0 381:1.0 20:1.0 9365:1.0 4551:1.0 8948:1.0 83:1.0 
0.5509740535124337 1:5.0 2:3.0 3:1.0 5:1.0 88:1.0 20:1.0 25:1.0 91:1.0 23118:1.0 119:1.0 
0.20499508713956424 1:3.0 2:0.0 3:2.0 26:1.0 41:1.0 20:1.0 28:1.0 162:1.0 3354:1.0 119:1.0 
0.17361110421242582 1:3.0 2:0.0 3:2.0 125:1.0 41:1.0 20:1.0 8289:1.0 162:1.0 3354:1.0 119:1.0 
0.05476712173806658 1:4.0 2:0.0 3:5.0 521:1.0 41:1.0 20:1.0 5160:1.0 86:1.0 1656:1.0 119:1.0 
0.06480112187471469 1:4.0 2:0.0 3:6.0 18:1.0 198:1.0 575:1.0 23617:1.0 676:1.0 578:1.0 396:1.0 
0.1956447300442429 1:3.0 2:3.0 3:2.0 573:1.0 41:1.0 20:1.0 574:1.0 441:1.0 2990:1.0 119:1.0 
0.7233034646713592 1:3.0 2:0.0 3:1.0 18:1.0 41:1.0 75:1.0 1042:1.0 86:1.0 2841:1.0 24:1.0 
0.26982782283724627 1:4.0 2:0.0 3:2.0 125:1.0 12:1.0 20:1.0 1592:1.0 5809:1.0 271:1.0 197:1.0 
0.08877308852968237 1:6.0 2:1.0 3:2.0 18:1.0 12:1.0 75:1.0 1169:1.0 5809:1.0 10618:1.0 83:1.0 
0.4238786848879576 1:3.0 2:0.0 3:0.0 26:1.0 12:1.0 20:1.0 366:1.0 4124:1.0 5606:1.0 24:1.0 
0.23893530721955014 1:4.0 2:0.0 3:1.0 18:1.0 41:1.0 20:1.0 488:1.0 71:1.0 3426:1.0 396:1.0 
0.056403212604919595 1:5.0 2:2.0 3:4.0 69:1.0 41:1.0 75:1.0 2250:1.0 420:1.0 2242:1.0 119:1.0 
0.16335189722515145 1:5.0 2:0.0 3:0.0 272:1.0 241:1.0 75:1.0 2909:1.0 743:1.0 3042:1.0 119:1.0 
0.12722693128573154 1:5.0 2:0.0 3:0.0 272:1.0 14:1.0 75:1.0 2909:1.0 6867:1.0 3042:1.0 119:1.0 
0.5266610567202848 1:2.0 2:1.0 3:1.0 46:1.0 47:1.0 20:1.0 26410:1.0 180:1.0 2925:1.0 83:1.0 
0.19407065658834358 1:3.0 2:1.0 3:2.0 69:1.0 41:1.0 20:1.0 4077:1.0 71:1.0 1978:1.0 476:1.0 
0.07482038449003432 1:4.0 2:0.0 3:3.0 69:1.0 41:1.0 20:1.0 10886:1.0 3373:1.0 27122:1.0 476:1.0 
0.21946056362381142 1:4.0 2:0.0 3:2.0 125:1.0 41:1.0 20:1.0 3666:1.0 86:1.0 3667:1.0 119:1.0 
0.39467283896605315 1:4.0 2:2.0 3:2.0 5:1.0 41:1.0 75:1.0 25:1.0 3373:1.0 12898:1.0 476:1.0 
0.17042245540408296 1:6.0 2:0.0 3:0.0 125:1.0 198:1.0 20:1.0 1528:1.0 5466:1.0 5290:1.0 119:1.0 
0.10593472904225093 1:3.0 2:0.0 3:2.0 26:1.0 41:1.0 20:1.0 42:1.0 86:1.0 7702:1.0 24:1.0 
0.13829735522172462 1:3.0 2:0.0 3:2.0 26:1.0 110:1.0 20:1.0 366:1.0 176:1.0 11718:1.0 476:1.0 
0.22354923897772255 1:3.0 2:1.0 3:2.0 5:1.0 110:1.0 20:1.0 165:1.0 176:1.0 11718:1.0 476:1.0 
0.5669694489633442 1:2.0 2:1.0 3:0.0 46:1.0 12:1.0 75:1.0 6720:1.0 4106:1.0 652:1.0 24:1.0 
0.025586371785042215 1:3.0 2:0.0 3:4.0 125:1.0 41:1.0 20:1.0 19367:1.0 86:1.0 28560:1.0 83:1.0 
0.3072664021476381 1:2.0 2:0.0 3:2.0 18:1.0 41:1.0 20:1.0 15429:1.0 86:1.0 376:1.0 145:1.0 
0.3141765498261363 1:3.0 2:1.0 3:2.0 793:1.0 41:1.0 75:1.0 794:1.0 86:1.0 5888:1.0 119:1.0 
0.6439868481808265 1:3.0 2:0.0 3:0.0 26:1.0 58:1.0 20:1.0 366:1.0 209:1.0 2442:1.0 396:1.0 
0.18986427087986485 1:3.0 2:0.0 3:3.0 521:1.0 41:1.0 20:1.0 559:1.0 86:1.0 7879:1.0 396:1.0 
0.46395831775001073 1:3.0 2:0.0 3:0.0 26:1.0 12:1.0 20:1.0 42:1.0 114:1.0 131:1.0 119:1.0 
0.18535956570340914 1:3.0 2:1.0 3:2.0 69:1.0 41:1.0 20:1.0 1647:1.0 162:1.0 1423:1.0 119:1.0 
0.2030268376679094 1:3.0 2:0.0 3:2.0 125:1.0 88:1.0 20:1.0 7598:1.0 91:1.0 3963:1.0 119:1.0 
500.0 1:15.0 2:2.0 3:2.0 67:1.0 58:1.0 75:1.0 2670:1.0 2668:1.0 1937:1.0 11:1.0 
0.19996009662773084 1:5.0 2:1.0 3:2.0 573:1.0 12:1.0 20:1.0 574:1.0 30394:1.0 16478:1.0 396:1.0 
0.09760699207586841 1:2.0 2:0.0 3:4.0 26:1.0 231:1.0 20:1.0 366:1.0 2110:1.0 30959:1.0 119:1.0 
0.44226964768670746 1:4.0 2:0.0 3:0.0 69:1.0 241:1.0 20:1.0 5005:1.0 3047:1.0 7548:1.0 396:1.0 
0.44608516447445606 1:2.0 2:0.0 3:2.0 26:1.0 12:1.0 20:1.0 366:1.0 3111:1.0 741:1.0 213:1.0 
0.24736516411435977 1:2.0 2:0.0 3:2.0 26:1.0 41:1.0 20:1.0 366:1.0 86:1.0 3173:1.0 24:1.0 
0.4474334133730211 1:3.0 2:0.0 3:0.0 26:1.0 12:1.0 20:1.0 42:1.0 3910:1.0 1234:1.0 24:1.0 
0.12902684466541564 1:2.0 2:0.0 3:4.0 26:1.0 41:1.0 75:1.0 42:1.0 441:1.0 7933:1.0 119:1.0 
0.2637699959650113 1:2.0 2:0.0 3:2.0 272:1.0 12:1.0 20:1.0 3453:1.0 189:1.0 765:1.0 24:1.0 
0.11871164487069177 1:3.0 2:0.0 3:2.0 26:1.0 41:1.0 20:1.0 42:1.0 86:1.0 2231:1.0 24:1.0 
0.20458641900386268 1:5.0 2:0.0 3:1.0 26:1.0 47:1.0 20:1.0 42:1.0 6516:1.0 1366:1.0 119:1.0 
0.17454852275610108 1:5.0 2:2.0 3:1.0 46:1.0 47:1.0 20:1.0 32491:1.0 6516:1.0 1366:1.0 119:1.0 
0.033951179274881504 1:3.0 2:0.0 3:4.0 125:1.0 41:1.0 20:1.0 2568:1.0 86:1.0 4412:1.0 119:1.0 
0.5564562630253951 1:2.0 2:0.0 3:1.0 26:1.0 241:1.0 20:1.0 42:1.0 4624:1.0 1616:1.0 83:1.0 
500.0 1:15.0 2:2.0 3:2.0 67:1.0 58:1.0 75:1.0 2670:1.0 2668:1.0 1937:1.0 11:1.0 
0.14179263274751014 1:4.0 2:0.0 3:0.0 4942:1.0 241:1.0 20:1.0 1383:1.0 6434:1.0 1864:1.0 83:1.0 
0.08546217509425433 1:6.0 2:4.0 3:0.0 67:1.0 41:1.0 20:1.0 15719:1.0 524:1.0 4702:1.0 83:1.0 
0.33499735045276513 1:3.0 2:0.0 3:0.0 26:1.0 12:1.0 75:1.0 42:1.0 2018:1.0 3213:1.0 83:1.0 
0.3653445827328794 1:3.0 2:0.0 3:2.0 87:1.0 41:1.0 20:1.0 187:1.0 86:1.0 12260:1.0 476:1.0 
0.24829690537269872 1:5.0 2:2.0 3:0.0 69:1.0 19:1.0 20:1.0 33630:1.0 34:1.0 21682:1.0 119:1.0 
0.3383219728246102 1:2.0 2:0.0 3:2.0 26:1.0 14:1.0 20:1.0 366:1.0 33856:1.0 29978:1.0 145:1.0 
0.2830006875279086 1:2.0 2:0.0 3:2.0 26:1.0 381:1.0 20:1.0 366:1.0 942:1.0 1336:1.0 119:1.0 
0.0066306007092139935 1:6.0 2:0.0 3:5.0 125:1.0 41:1.0 20:1.0 650:1.0 162:1.0 161:1.0 83:1.0 
0.13736690224696707 1:6.0 2:2.0 3:5.0 166:1.0 41:1.0 20:1.0 167:1.0 162:1.0 161:1.0 83:1.0 
0.5978906247430603 1:4.0 2:1.0 3:0.0 69:1.0 241:1.0 20:1.0 377:1.0 3159:1.0 1745:1.0 24:1.0 
0.22167473353333597 1:3.0 2:0.0 3:2.0 26:1.0 41:1.0 20:1.0 42:1.0 420:1.0 475:1.0 119:1.0 
0.21048261997338294 1:3.0 2:0.0 3:3.0 26:1.0 12:1.0 20:1.0 42:1.0 680:1.0 567:1.0 24:1.0 
0.2710317077968709 1:3.0 2:0.0 3:3.0 46:1.0 12:1.0 20:1.0 11570:1.0 680:1.0 567:1.0 24:1.0 
0.12149566599049177 1:3.0 2:1.0 3:5.0 26:1.0 58:1.0 20:1.0 2148:1.0 2406:1.0 1230:1.0 119:1.0 
0.10225287351667775 1:3.0 2:1.0 3:3.0 46:1.0 110:1.0 20:1.0 17348:1.0 514:1.0 36518:1.0 396:1.0 
0.06032563238305945 1:4.0 2:0.0 3:3.0 69:1.0 41:1.0 20:1.0 7784:1.0 367:1.0 1616:1.0 396:1.0 
0.17639119883411417 1:4.0 2:0.0 3:2.0 26:1.0 41:1.0 20:1.0 366:1.0 524:1.0 13482:1.0 24:1.0 
0.1101873564625234 1:4.0 2:0.0 3:2.0 125:1.0 41:1.0 20:1.0 17574:1.0 524:1.0 13482:1.0 24:1.0 
0.48151328150596 1:3.0 2:2.0 3:1.0 18:1.0 198:1.0 75:1.0 488:1.0 19264:1.0 6637:1.0 119:1.0 
0.2727837671895632 1:5.0 2:0.0 3:2.0 26:1.0 12:1.0 20:1.0 366:1.0 9704:1.0 1564:1.0 476:1.0 
0.326047080653914 1:2.0 2:0.0 3:2.0 272:1.0 12:1.0 20:1.0 274:1.0 12080:1.0 11635:1.0 119:1.0 
0.5667798566629144 1:3.0 2:3.0 3:4.0 5:1.0 41:1.0 20:1.0 25:1.0 162:1.0 3354:1.0 119:1.0 
0.4840537510828987 1:2.0 2:1.0 3:1.0 46:1.0 12:1.0 20:1.0 1364:1.0 7825:1.0 5198:1.0 24:1.0 
0.5056842570430025 1:2.0 2:1.0 3:1.0 46:1.0 12:1.0 20:1.0 152:1.0 5692:1.0 24466:1.0 83:1.0 
500.0 1:15.0 2:2.0 3:2.0 67:1.0 58:1.0 75:1.0 2670:1.0 2668:1.0 1937:1.0 11:1.0 
0.36128702588813094 1:4.0 2:1.0 3:0.0 46:1.0 12:1.0 20:1.0 1801:1.0 684:1.0 12219:1.0 396:1.0 
0.1758353559635626 1:3.0 2:0.0 3:2.0 69:1.0 41:1.0 20:1.0 22023:1.0 628:1.0 3474:1.0 83:1.0 
0.12658464140002193 1:2.0 2:0.0 3:3.0 26:1.0 88:1.0 20:1.0 42:1.0 91:1.0 3517:1.0 24:1.0 
0.5681818181818177 1:2.0 2:0.0 3:1.0 26:1.0 41:1.0 20:1.0 366:1.0 86:1.0 9167:1.0 24:1.0 
0.23959475588185095 1:2.0 2:0.0 3:2.0 26:1.0 41:1.0 20:1.0 42:1.0 86:1.0 2473:1.0 119:1.0 
0.08220964469267637 1:2.0 2:1.0 3:4.0 46:1.0 88:1.0 20:1.0 23726:1.0 91:1.0 3128:1.0 24:1.0 
0.17118756925102654 1:4.0 2:0.0 3:2.0 69:1.0 41:1.0 20:1.0 142:1.0 86:1.0 741:1.0 396:1.0 
0.24518525544541253 1:5.0 2:0.0 3:2.0 26:1.0 241:1.0 20:1.0 366:1.0 735:1.0 8359:1.0 24:1.0 
0.32921589134001894 1:3.0 2:0.0 3:1.0 272:1.0 41:1.0 75:1.0 2909:1.0 665:1.0 7777:1.0 119:1.0 
500.0 1:15.0 2:2.0 3:2.0 67:1.0 58:1.0 75:1.0 2670:1.0 2668:1.0 1937:1.0 11:1.0 
0.05769282373111202 1:4.0 2:0.0 3:3.0 125:1.0 27:1.0 75:1.0 4463:1.0 2212:1.0 8359:1.0 24:1.0 
0.044256142771010656 1:3.0 2:0.0 3:5.0 69:1.0 41:1.0 75:1.0 4052:1.0 86:1.0 6658:1.0 24:1.0 
0.43485413724396177 1:4.0 2:0.0 3:1.0 18:1.0 41:1.0 75:1.0 11379:1.0 86:1.0 40508:1.0 119:1.0 
0.26825443021144874 1:3.0 2:2.0 3:2.0 69:1.0 47:1.0 20:1.0 6497:1.0 6107:1.0 4903:1.0 24:1.0 
0.03301100702523111 1:3.0 2:0.0 3:4.0 26:1.0 381:1.0 20:1.0 42:1.0 10878:1.0 9483:1.0 24:1.0 
0.5146602500920129 1:4.0 2:0.0 3:1.0 26:1.0 12:1.0 20:1.0 42:1.0 1619:1.0 7955:1.0 24:1.0 
0.498583123929851 1:3.0 2:0.0 3:0.0 26:1.0 517:1.0 20:1.0 42:1.0 2193:1.0 9755:1.0 119:1.0 
0.017068615942534004 1:4.0 2:3.0 3:11.0 5:1.0 41:1.0 194:1.0 2155:1.0 781:1.0 20121:1.0 119:1.0 
0.06863131639801698 1:8.0 2:0.0 3:2.0 125:1.0 41:1.0 20:1.0 164:1.0 420:1.0 6187:1.0 119:1.0 
0.045821509398929254 1:7.0 2:5.0 3:5.0 328:1.0 381:1.0 20:1.0 329:1.0 2022:1.0 23304:1.0 83:1.0 
0.1430271051642282 1:4.0 2:0.0 3:2.0 69:1.0 41:1.0 20:1.0 2051:1.0 86:1.0 4903:1.0 24:1.0 
0.027998320318520488 1:4.0 2:0.0 3:2.0 125:1.0 41:1.0 20:1.0 142:1.0 86:1.0 741:1.0 396:1.0 
0.2943226926130408 1:4.0 2:1.0 3:0.0 46:1.0 241:1.0 20:1.0 12689:1.0 3663:1.0 11484:1.0 119:1.0 
0.25298801567235135 1:2.0 2:2.0 3:3.0 5:1.0 231:1.0 75:1.0 149:1.0 417:1.0 670:1.0 119:1.0 
0.2986644686614701 1:3.0 2:0.0 3:3.0 26:1.0 12:1.0 20:1.0 366:1.0 648:1.0 561:1.0 24:1.0 
0.07410556373980601 1:2.0 2:0.0 3:4.0 125:1.0 381:1.0 75:1.0 13049:1.0 1812:1.0 4072:1.0 24:1.0 
0.39403216300473 1:2.0 2:0.0 3:2.0 26:1.0 12:1.0 20:1.0 42:1.0 12889:1.0 2231:1.0 24:1.0 
0.1073170453405253 1:3.0 2:0.0 3:2.0 26:1.0 41:1.0 20:1.0 42:1.0 86:1.0 995:1.0 24:1.0 
0.09620068141232999 1:5.0 2:0.0 3:3.0 236:1.0 381:1.0 20:1.0 9424:1.0 2282:1.0 8080:1.0 83:1.0 
0.5528461026102734 1:2.0 2:1.0 3:2.0 69:1.0 12:1.0 20:1.0 1358:1.0 700:1.0 4967:1.0 24:1.0 
0.21931016382180168 1:5.0 2:0.0 3:1.0 26:1.0 41:1.0 20:1.0 42:1.0 86:1.0 670:1.0 83:1.0 
0.14117491943796676 1:5.0 2:1.0 3:1.0 69:1.0 41:1.0 20:1.0 6894:1.0 86:1.0 670:1.0 83:1.0 
0.11104588718817218 1:5.0 2:1.0 3:1.0 69:1.0 41:1.0 20:1.0 377:1.0 86:1.0 670:1.0 83:1.0 
0.1806121001303843 1:7.0 2:1.0 3:0.0 46:1.0 19:1.0 20:1.0 1109:1.0 180:1.0 8054:1.0 83:1.0 
0.1459584724325454 1:4.0 2:2.0 3:3.0 5:1.0 110:1.0 20:1.0 25:1.0 322:1.0 957:1.0 476:1.0 
0.26204934684360304 1:3.0 2:2.0 3:2.0 46:1.0 198:1.0 75:1.0 5208:1.0 544:1.0 5198:1.0 24:1.0 
0.037772284570655415 1:3.0 2:0.0 3:4.0 26:1.0 110:1.0 20:1.0 366:1.0 12074:1.0 4607:1.0 476:1.0 
0.16827513788761728 1:3.0 2:0.0 3:2.0 125:1.0 41:1.0 20:1.0 1528:1.0 86:1.0 3594:1.0 396:1.0 
0.25470052242817537 1:3.0 2:0.0 3:2.0 26:1.0 241:1.0 48:1.0 42:1.0 735:1.0 44449:1.0 83:1.0 
0.043793615742937754 1:2.0 2:0.0 3:4.0 26:1.0 381:1.0 75:1.0 42:1.0 322:1.0 3418:1.0 24:1.0 
0.31394100207460596 1:2.0 2:0.0 3:2.0 69:1.0 41:1.0 75:1.0 17606:1.0 297:1.0 3382:1.0 24:1.0 
0.4846843502546654 1:3.0 2:0.0 3:1.0 26:1.0 41:1.0 20:1.0 42:1.0 441:1.0 41916:1.0 24:1.0 
0.26404840744189284 1:3.0 2:0.0 3:0.0 26:1.0 12:1.0 75:1.0 42:1.0 2018:1.0 1474:1.0 119:1.0 
0.02302880867328573 1:4.0 2:0.0 3:3.0 26:1.0 88:1.0 20:1.0 42:1.0 91:1.0 1749:1.0 119:1.0 
0.09679574018016995 1:3.0 2:0.0 3:4.0 125:1.0 27:1.0 75:1.0 5211:1.0 13485:1.0 5123:1.0 24:1.0 
0.6018513468405627 1:5.0 2:0.0 3:0.0 5:1.0 241:1.0 20:1.0 250:1.0 508:1.0 172:1.0 24:1.0 
500.0 1:15.0 2:2.0 3:2.0 67:1.0 58:1.0 75:1.0 2670:1.0 2668:1.0 1937:1.0 11:1.0 
0.04333979161438823 1:15.0 2:2.0 3:0.0 67:1.0 30:1.0 75:1.0 2670:1.0 3036:1.0 1937:1.0 11:1.0 
0.10675975887692786 1:4.0 2:0.0 3:2.0 125:1.0 41:1.0 20:1.0 39760:1.0 86:1.0 5458:1.0 119:1.0 
0.20804471295829072 1:4.0 2:0.0 3:0.0 26:1.0 12:1.0 75:1.0 42:1.0 15568:1.0 6705:1.0 24:1.0 
0.5113678289555018 1:4.0 2:0.0 3:2.0 26:1.0 241:1.0 75:1.0 2207:1.0 3196:1.0 15141:1.0 24:1.0 
0.008793036739621765 1:5.0 2:2.0 3:8.0 125:1.0 198:1.0 75:1.0 10015:1.0 676:1.0 1616:1.0 24:1.0 
0.5599839383529988 1:2.0 2:2.0 3:2.0 69:1.0 12:1.0 75:1.0 419:1.0 178:1.0 3117:1.0 24:1.0 
0.4031287940500808 1:3.0 2:0.0 3:1.0 26:1.0 41:1.0 20:1.0 1159:1.0 86:1.0 1336:1.0 24:1.0 
0.09427191012576837 1:3.0 2:0.0 3:2.0 26:1.0 41:1.0 20:1.0 42:1.0 86:1.0 6986:1.0 83:1.0 
0.15405864488221027 1:6.0 2:0.0 3:2.0 125:1.0 41:1.0 20:1.0 3182:1.0 86:1.0 10842:1.0 119:1.0 
0.13285081672414117 1:3.0 2:0.0 3:2.0 26:1.0 41:1.0 20:1.0 42:1.0 86:1.0 17327:1.0 24:1.0 
0.6709990837923895 1:4.0 2:0.0 3:2.0 125:1.0 241:1.0 20:1.0 5737:1.0 11221:1.0 22596:1.0 396:1.0 
0.13567327809687008 1:2.0 2:5.0 3:4.0 5:1.0 381:1.0 75:1.0 25:1.0 38505:1.0 7521:1.0 83:1.0 
0.1768482499968238 1:3.0 2:0.0 3:2.0 26:1.0 381:1.0 20:1.0 42:1.0 8678:1.0 1230:1.0 119:1.0 
0.09165139484140335 1:4.0 2:1.0 3:4.0 5:1.0 110:1.0 20:1.0 7275:1.0 322:1.0 4794:1.0 119:1.0 
0.06492373277058511 1:4.0 2:0.0 3:1.0 26:1.0 381:1.0 20:1.0 42:1.0 11571:1.0 3710:1.0 24:1.0 
0.18626195257966677 1:4.0 2:2.0 3:1.0 5:1.0 381:1.0 20:1.0 25:1.0 11571:1.0 3710:1.0 24:1.0 
0.2642361184272503 1:10.0 2:3.0 3:1.0 5:1.0 41:1.0 75:1.0 25:1.0 43:1.0 11605:1.0 11:1.0 
0.5201085882434038 1:3.0 2:0.0 3:0.0 125:1.0 12:1.0 75:1.0 171:1.0 5334:1.0 3852:1.0 24:1.0 
-0.08239660154738086 1:7.0 2:0.0 3:5.0 26:1.0 381:1.0 20:1.0 42:1.0 1087:1.0 1088:1.0 119:1.0 
-0.020728980249737895 1:7.0 2:0.0 3:5.0 69:1.0 381:1.0 20:1.0 1089:1.0 1087:1.0 1088:1.0 119:1.0 
-0.021527609424255145 1:7.0 2:3.0 3:5.0 328:1.0 381:1.0 20:1.0 1092:1.0 1087:1.0 1088:1.0 119:1.0 
-0.047213899469333416 1:4.0 2:0.0 3:3.0 125:1.0 30:1.0 75:1.0 1528:1.0 2395:1.0 2338:1.0 83:1.0 
-0.09164533710568135 1:3.0 2:0.0 3:2.0 125:1.0 241:1.0 48:1.0 1528:1.0 735:1.0 2329:1.0 396:1.0 
-0.04125769866585757 1:3.0 2:0.0 3:0.0 46:1.0 241:1.0 20:1.0 2316:1.0 1530:1.0 2795:1.0 396:1.0 
-0.051069681953797436 1:4.0 2:2.0 3:4.0 276:1.0 41:1.0 20:1.0 3237:1.0 441:1.0 3236:1.0 83:1.0 
-0.06005607492839186 1:4.0 2:2.0 3:1.0 276:1.0 12:1.0 20:1.0 1668:1.0 2018:1.0 2923:1.0 119:1.0 
-0.022854485372784915 1:5.0 2:2.0 3:0.0 276:1.0 517:1.0 20:1.0 2773:1.0 564:1.0 745:1.0 476:1.0 
-0.04716038971967521 1:3.0 2:0.0 3:3.0 26:1.0 12:1.0 20:1.0 1159:1.0 3681:1.0 424:1.0 24:1.0 
-0.05196487507677539 1:4.0 2:2.0 3:0.0 276:1.0 19:1.0 20:1.0 2773:1.0 34:1.0 3188:1.0 83:1.0 
-0.09765197870274736 1:4.0 2:2.0 3:0.0 69:1.0 241:1.0 20:1.0 2404:1.0 3159:1.0 1745:1.0 83:1.0 
-0.09055050507837105 1:4.0 2:1.0 3:2.0 5:1.0 231:1.0 20:1.0 250:1.0 417:1.0 860:1.0 83:1.0 
-0.3000224236022348 1:3.0 2:0.0 3:1.0 26:1.0 41:1.0 20:1.0 42:1.0 3373:1.0 2923:1.0 119:1.0 
-0.033408951609697694 1:4.0 2:3.0 3:4.0 5:1.0 41:1.0 20:1.0 25:1.0 297:1.0 217:1.0 24:1.0 
-0.020523304273946386 1:4.0 2:2.0 3:4.0 5:1.0 41:1.0 20:1.0 1156:1.0 3282:1.0 5122:1.0 119:1.0 
-0.07321101370361906 1:3.0 2:1.0 3:4.0 18:1.0 41:1.0 75:1.0 3045:1.0 86:1.0 2563:1.0 83:1.0 
-0.033208492777145285 1:3.0 2:4.0 3:4.0 69:1.0 41:1.0 75:1.0 3771:1.0 86:1.0 2563:1.0 83:1.0 
-0.03883141521908468 1:3.0 2:0.0 3:0.0 69:1.0 241:1.0 20:1.0 1546:1.0 3159:1.0 3104:1.0 24:1.0 
-0.07768009440408302 1:2.0 2:0.0 3:2.0 26:1.0 58:1.0 20:1.0 366:1.0 5989:1.0 4219:1.0 197:1.0 
-0.07202608400272748 1:2.0 2:1.0 3:1.0 46:1.0 12:1.0 20:1.0 6012:1.0 6013:1.0 6014:1.0 24:1.0 
-0.23214925777667833 1:2.0 2:0.0 3:0.0 18:1.0 41:1.0 75:1.0 1042:1.0 767:1.0 2841:1.0 2759:1.0 
-0.02692499001316766 1:4.0 2:0.0 3:2.0 69:1.0 14:1.0 20:1.0 6629:1.0 673:1.0 6630:1.0 24:1.0 
-0.027563618611397927 1:6.0 2:0.0 3:3.0 26:1.0 12:1.0 20:1.0 42:1.0 6668:1.0 4197:1.0 83:1.0 
-0.020962314457052152 1:6.0 2:0.0 3:1.0 26:1.0 12:1.0 20:1.0 42:1.0 6670:1.0 4197:1.0 83:1.0 
-0.02434202748986862 1:5.0 2:7.0 3:7.0 125:1.0 41:1.0 20:1.0 4961:1.0 86:1.0 6187:1.0 119:1.0 
-0.027281343005351406 1:5.0 2:1.0 3:1.0 46:1.0 12:1.0 75:1.0 366:1.0 6750:1.0 670:1.0 24:1.0 
-0.038136669007721634 1:4.0 2:1.0 3:1.0 46:1.0 12:1.0 75:1.0 6851:1.0 6750:1.0 670:1.0 24:1.0 
-0.1423402668773017 1:3.0 2:2.0 3:3.0 5:1.0 88:1.0 20:1.0 25:1.0 91:1.0 1932:1.0 119:1.0 
-0.10345134722747915 1:4.0 2:2.0 3:1.0 5:1.0 88:1.0 20:1.0 25:1.0 91:1.0 6524:1.0 145:1.0 
-0.01694736514752073 1:7.0 2:3.0 3:3.0 125:1.0 41:1.0 20:1.0 6900:1.0 86:1.0 2032:1.0 11:1.0 
-0.06479474263265565 1:2.0 2:1.0 3:3.0 69:1.0 12:1.0 20:1.0 7050:1.0 7051:1.0 904:1.0 24:1.0 
-0.06536914179365017 1:2.0 2:0.0 3:2.0 125:1.0 12:1.0 75:1.0 2038:1.0 3111:1.0 240:1.0 24:1.0 
-0.02590397403292685 1:2.0 2:1.0 3:1.0 5:1.0 30:1.0 75:1.0 25:1.0 2544:1.0 2841:1.0 24:1.0 
-0.020805635166552226 1:4.0 2:0.0 3:9.0 26:1.0 12:1.0 20:1.0 366:1.0 712:1.0 1419:1.0 24:1.0 
-0.04831571153524271 1:3.0 2:1.0 3:2.0 46:1.0 12:1.0 75:1.0 8019:1.0 1229:1.0 1354:1.0 476:1.0 
-0.06323067207206663 1:3.0 2:0.0 3:0.0 272:1.0 241:1.0 75:1.0 893:1.0 1083:1.0 8158:1.0 83:1.0 
-0.10611507798898595 1:4.0 2:0.0 3:0.0 272:1.0 19:1.0 75:1.0 2909:1.0 430:1.0 3213:1.0 119:1.0 
-0.019497876978281026 1:3.0 2:0.0 3:4.0 125:1.0 12:1.0 20:1.0 3306:1.0 1175:1.0 3307:1.0 119:1.0 
-0.024164293756939667 1:3.0 2:1.0 3:0.0 166:1.0 241:1.0 20:1.0 167:1.0 1427:1.0 9119:1.0 119:1.0 
-0.09534121489717393 1:2.0 2:0.0 3:2.0 46:1.0 12:1.0 75:1.0 121:1.0 3111:1.0 2962:1.0 24:1.0 
-0.07168990799358543 1:5.0 2:2.0 3:2.0 5:1.0 41:1.0 75:1.0 25:1.0 162:1.0 5957:1.0 119:1.0 
-0.07563494760276177 1:2.0 2:2.0 3:2.0 5:1.0 41:1.0 20:1.0 25:1.0 162:1.0 10842:1.0 119:1.0 
-0.055362490158182086 1:2.0 2:0.0 3:0.0 125:1.0 120:1.0 20:1.0 171:1.0 214:1.0 2392:1.0 24:1.0 
-0.058938608140217306 1:2.0 2:1.0 3:1.0 46:1.0 12:1.0 75:1.0 205:1.0 11298:1.0 2923:1.0 24:1.0 
-0.043367031593392294 1:4.0 2:1.0 3:2.0 573:1.0 47:1.0 20:1.0 574:1.0 1920:1.0 2990:1.0 83:1.0 
-0.04062153789218486 1:5.0 2:0.0 3:1.0 26:1.0 12:1.0 20:1.0 366:1.0 3447:1.0 456:1.0 119:1.0 
-0.025951056026514308 1:5.0 2:1.0 3:0.0 46:1.0 14:1.0 20:1.0 11570:1.0 11571:1.0 682:1.0 24:1.0 
-0.024664663844353008 1:3.0 2:0.0 3:1.0 276:1.0 58:1.0 20:1.0 11717:1.0 8963:1.0 11718:1.0 83:1.0 
-0.19775798737438938 1:3.0 2:0.0 3:1.0 125:1.0 12:1.0 20:1.0 890:1.0 1619:1.0 7955:1.0 24:1.0 
-0.16590963667290012 1:3.0 2:0.0 3:1.0 272:1.0 19:1.0 75:1.0 2909:1.0 180:1.0 3354:1.0 119:1.0 
-0.0963034688157459 1:2.0 2:0.0 3:3.0 26:1.0 12:1.0 20:1.0 2448:1.0 5854:1.0 368:1.0 24:1.0 
-0.05391498728003359 1:4.0 2:1.0 3:2.0 46:1.0 570:1.0 20:1.0 2057:1.0 571:1.0 2392:1.0 119:1.0 
-0.03430727915984923 1:4.0 2:1.0 3:2.0 46:1.0 570:1.0 20:1.0 346:1.0 571:1.0 2392:1.0 119:1.0 
-0.11499978213040238 1:2.0 2:0.0 3:2.0 26:1.0 12:1.0 20:1.0 265:1.0 3196:1.0 5888:1.0 24:1.0 
-0.033951179274881504 1:3.0 2:0.0 3:2.0 125:1.0 12:1.0 20:1.0 1895:1.0 3968:1.0 748:1.0 396:1.0 
-0.016323104218322327 1:6.0 2:0.0 3:0.0 26:1.0 12:1.0 20:1.0 42:1.0 12406:1.0 10896:1.0 24:1.0 
-0.020764718640546347 1:6.0 2:0.0 3:1.0 26:1.0 12:1.0 20:1.0 42:1.0 12409:1.0 10896:1.0 24:1.0 
-0.039906438666265504 1:3.0 2:1.0 3:0.0 46:1.0 19:1.0 20:1.0 5208:1.0 180:1.0 5198:1.0 24:1.0 
-0.044866808611580884 1:4.0 2:1.0 3:1.0 573:1.0 12:1.0 20:1.0 574:1.0 2018:1.0 2210:1.0 83:1.0 
-0.005941429240269251 1:9.0 2:0.0 3:0.0 26:1.0 12:1.0 20:1.0 366:1.0 12596:1.0 8575:1.0 24:1.0 
-0.03887009453104145 1:5.0 2:4.0 3:4.0 46:1.0 381:1.0 48:1.0 12689:1.0 2159:1.0 12687:1.0 197:1.0 
-0.015512315379256044 1:4.0 2:0.0 3:0.0 276:1.0 14:1.0 75:1.0 6866:1.0 6867:1.0 3042:1.0 24:1.0 
-0.08258918148651209 1:5.0 2:1.0 3:2.0 573:1.0 12:1.0 20:1.0 574:1.0 617:1.0 3852:1.0 83:1.0 
-0.07130630320712983 1:5.0 2:0.0 3:3.0 26:1.0 12:1.0 75:1.0 42:1.0 370:1.0 1292:1.0 24:1.0 
-0.5681818181818177 1:2.0 2:0.0 3:1.0 26:1.0 41:1.0 20:1.0 366:1.0 86:1.0 1715:1.0 476:1.0 
-0.02924096201115334 1:4.0 2:0.0 3:0.0 69:1.0 30:1.0 75:1.0 2102:1.0 2790:1.0 2841:1.0 24:1.0 
-0.007044057536459635 1:8.0 2:0.0 3:1.0 18:1.0 47:1.0 20:1.0 4661:1.0 13698:1.0 741:1.0 119:1.0 
-0.04782109315564497 1:4.0 2:1.0 3:2.0 46:1.0 12:1.0 75:1.0 1187:1.0 3111:1.0 670:1.0 83:1.0 
-0.04809374427305723 1:4.0 2:0.0 3:0.0 69:1.0 241:1.0 20:1.0 3005:1.0 3159:1.0 172:1.0 83:1.0 
-0.03963086016164542 1:2.0 2:0.0 3:5.0 69:1.0 12:1.0 75:1.0 13010:1.0 669:1.0 670:1.0 24:1.0 
-0.004478089548351349 1:6.0 2:0.0 3:8.0 26:1.0 570:1.0 20:1.0 42:1.0 571:1.0 3320:1.0 119:1.0 
-0.0640087685715409 1:3.0 2:0.0 3:0.0 67:1.0 19:1.0 75:1.0 1268:1.0 34:1.0 2392:1.0 24:1.0 
-0.07230165151086065 1:3.0 2:0.0 3:2.0 26:1.0 47:1.0 20:1.0 42:1.0 14208:1.0 424:1.0 145:1.0 
-0.04935177477373428 1:2.0 2:0.0 3:2.0 125:1.0 12:1.0 75:1.0 1424:1.0 2018:1.0 254:1.0 119:1.0 
-0.13448762253097954 1:2.0 2:0.0 3:0.0 46:1.0 19:1.0 20:1.0 1801:1.0 180:1.0 2442:1.0 396:1.0 
-0.03877869589168132 1:5.0 2:0.0 3:1.0 26:1.0 58:1.0 75:1.0 42:1.0 6712:1.0 14519:1.0 2772:1.0 
-0.06317570346771927 1:5.0 2:0.0 3:2.0 26:1.0 110:1.0 75:1.0 366:1.0 389:1.0 14671:1.0 119:1.0 
-0.017841592406068998 1:6.0 2:0.0 3:1.0 26:1.0 12:1.0 20:1.0 42:1.0 1463:1.0 4935:1.0 83:1.0 
-0.12876809884901733 1:2.0 2:0.0 3:1.0 69:1.0 41:1.0 75:1.0 2964:1.0 420:1.0 6228:1.0 119:1.0 
-0.048672036441310865 1:4.0 2:1.0 3:0.0 46:1.0 12:1.0 20:1.0 15081:1.0 3415:1.0 6819:1.0 119:1.0 
-0.03488651060408594 1:4.0 2:4.0 3:1.0 5:1.0 88:1.0 20:1.0 25:1.0 91:1.0 3093:1.0 476:1.0 
-0.1140219851022727 1:3.0 2:0.0 3:0.0 125:1.0 19:1.0 75:1.0 8783:1.0 34:1.0 357:1.0 119:1.0 
-0.09411594625667848 1:5.0 2:0.0 3:2.0 69:1.0 241:1.0 20:1.0 142:1.0 735:1.0 741:1.0 396:1.0 
-0.019969767556937267 1:5.0 2:0.0 3:2.0 26:1.0 58:1.0 20:1.0 366:1.0 16053:1.0 161:1.0 119:1.0 
-0.15678209636280133 1:4.0 2:0.0 3:2.0 26:1.0 12:1.0 75:1.0 42:1.0 16166:1.0 5608:1.0 119:1.0 
-0.03841787363606245 1:4.0 2:0.0 3:0.0 26:1.0 19:1.0 75:1.0 42:1.0 430:1.0 7548:1.0 119:1.0 
-0.036037270453107485 1:5.0 2:0.0 3:2.0 125:1.0 12:1.0 20:1.0 10278:1.0 8186:1.0 16228:1.0 24:1.0 
-0.08050416768526357 1:5.0 2:1.0 3:0.0 5:1.0 241:1.0 20:1.0 434:1.0 10281:1.0 16228:1.0 24:1.0 
-0.10690096491903169 1:3.0 2:0.0 3:0.0 26:1.0 19:1.0 75:1.0 42:1.0 4390:1.0 4304:1.0 83:1.0 
-0.041132407885143676 1:4.0 2:0.0 3:1.0 26:1.0 241:1.0 20:1.0 28:1.0 2193:1.0 16438:1.0 476:1.0 
-0.021440608745952387 1:7.0 2:0.0 3:3.0 87:1.0 88:1.0 20:1.0 187:1.0 91:1.0 478:1.0 119:1.0 
-0.16305668421874323 1:3.0 2:0.0 3:0.0 125:1.0 241:1.0 20:1.0 1424:1.0 8138:1.0 16965:1.0 83:1.0 
-0.016944844235245723 1:5.0 2:2.0 3:2.0 125:1.0 41:1.0 75:1.0 17280:1.0 162:1.0 287:1.0 476:1.0 
-0.025237808758433563 1:3.0 2:1.0 3:2.0 69:1.0 14:1.0 20:1.0 17606:1.0 191:1.0 131:1.0 24:1.0 
-0.04521717757171826 1:2.0 2:0.0 3:2.0 69:1.0 12:1.0 20:1.0 581:1.0 3111:1.0 749:1.0 145:1.0 
-0.09218285933340536 1:4.0 2:0.0 3:2.0 26:1.0 47:1.0 20:1.0 366:1.0 2132:1.0 3052:1.0 17753:1.0 
-0.03487533288577776 1:3.0 2:0.0 3:2.0 272:1.0 58:1.0 20:1.0 2909:1.0 3196:1.0 5225:1.0 24:1.0 
-0.04411117728099516 1:3.0 2:0.0 3:2.0 125:1.0 58:1.0 20:1.0 1528:1.0 3196:1.0 5225:1.0 24:1.0 
-0.03676630061017749 1:6.0 2:4.0 3:1.0 18:1.0 47:1.0 20:1.0 488:1.0 17897:1.0 1707:1.0 24:1.0 
-0.03432306591135484 1:2.0 2:1.0 3:0.0 46:1.0 198:1.0 75:1.0 17896:1.0 3615:1.0 2923:1.0 83:1.0 
-0.09144769492823017 1:4.0 2:0.0 3:0.0 26:1.0 47:1.0 48:1.0 42:1.0 18025:1.0 18026:1.0 197:1.0 
-0.028377621377011407 1:6.0 2:0.0 3:1.0 18:1.0 12:1.0 20:1.0 488:1.0 2983:1.0 2032:1.0 11:1.0 
-0.0765293942531082 1:5.0 2:0.0 3:0.0 26:1.0 41:1.0 20:1.0 366:1.0 524:1.0 1754:1.0 476:1.0 
-0.09153736746193836 1:3.0 2:0.0 3:1.0 272:1.0 182:1.0 20:1.0 2909:1.0 6475:1.0 172:1.0 24:1.0 
-0.0863258420681886 1:3.0 2:0.0 3:0.0 26:1.0 41:1.0 20:1.0 42:1.0 1141:1.0 6042:1.0 476:1.0 
-0.03922567574867822 1:3.0 2:0.0 3:0.0 272:1.0 19:1.0 20:1.0 2909:1.0 2209:1.0 2925:1.0 24:1.0 
-0.048695483543554796 1:5.0 2:0.0 3:1.0 26:1.0 12:1.0 20:1.0 42:1.0 19303:1.0 7101:1.0 119:1.0 
-0.1608863049205899 1:6.0 2:2.0 3:2.0 5:1.0 41:1.0 20:1.0 25:1.0 420:1.0 3354:1.0 119:1.0 
-0.047311953309611215 1:5.0 2:2.0 3:4.0 166:1.0 41:1.0 20:1.0 167:1.0 162:1.0 19638:1.0 24:1.0 
-0.0860491259471347 1:4.0 2:0.0 3:0.0 276:1.0 19:1.0 20:1.0 19869:1.0 180:1.0 2458:1.0 396:1.0 
-0.03734781193286397 1:5.0 2:0.0 3:2.0 18:1.0 198:1.0 75:1.0 678:1.0 1272:1.0 10407:1.0 24:1.0 
-0.1552022907796219 1:4.0 2:0.0 3:1.0 26:1.0 381:1.0 20:1.0 366:1.0 8987:1.0 271:1.0 119:1.0 
-0.016905489439542887 1:5.0 2:0.0 3:6.0 26:1.0 12:1.0 20:1.0 366:1.0 147:1.0 10506:1.0 119:1.0 
-0.0919977681570939 1:4.0 2:0.0 3:1.0 276:1.0 47:1.0 20:1.0 4210:1.0 5857:1.0 3183:1.0 24:1.0 
-0.06176545175074546 1:5.0 2:0.0 3:2.0 26:1.0 12:1.0 194:1.0 42:1.0 11004:1.0 19229:1.0 24:1.0 
-0.02081465032448806 1:3.0 2:4.0 3:3.0 87:1.0 41:1.0 20:1.0 679:1.0 86:1.0 376:1.0 119:1.0 
-0.025438937320477608 1:3.0 2:3.0 3:2.0 573:1.0 41:1.0 20:1.0 574:1.0 86:1.0 2908:1.0 119:1.0 
-0.10098034565502836 1:3.0 2:1.0 3:2.0 5:1.0 41:1.0 20:1.0 25:1.0 86:1.0 2908:1.0 119:1.0 
-0.033094387943479686 1:5.0 2:0.0 3:1.0 18:1.0 47:1.0 20:1.0 10973:1.0 21400:1.0 3594:1.0 83:1.0 
-0.013085579671803084 1:4.0 2:4.0 3:3.0 5:1.0 110:1.0 20:1.0 235:1.0 322:1.0 2692:1.0 476:1.0 
-0.006107204954237202 1:6.0 2:3.0 3:4.0 328:1.0 41:1.0 20:1.0 295:1.0 86:1.0 1336:1.0 83:1.0 
-0.048089392236586634 1:2.0 2:0.0 3:4.0 125:1.0 241:1.0 75:1.0 5611:1.0 7780:1.0 4891:1.0 83:1.0 
-0.14894434258184408 1:3.0 2:1.0 3:1.0 26:1.0 241:1.0 20:1.0 1169:1.0 1294:1.0 7224:1.0 83:1.0 
-0.030057073338527016 1:2.0 2:0.0 3:1.0 18:1.0 41:1.0 75:1.0 21917:1.0 86:1.0 2923:1.0 83:1.0 
-0.04400282711974114 1:3.0 2:0.0 3:0.0 125:1.0 19:1.0 20:1.0 1528:1.0 180:1.0 2442:1.0 396:1.0 
-0.010587796667772802 1:4.0 2:5.0 3:6.0 276:1.0 41:1.0 20:1.0 2773:1.0 86:1.0 2245:1.0 11:1.0 
-0.11929435885223934 1:2.0 2:0.0 3:1.0 125:1.0 41:1.0 20:1.0 422:1.0 43:1.0 424:1.0 24:1.0 
-0.05236015996885186 1:5.0 2:0.0 3:3.0 67:1.0 110:1.0 20:1.0 7961:1.0 176:1.0 7960:1.0 119:1.0 
-0.018178951131516453 1:3.0 2:1.0 3:3.0 166:1.0 41:1.0 75:1.0 167:1.0 162:1.0 22327:1.0 119:1.0 
-0.07744295392946361 1:3.0 2:0.0 3:1.0 26:1.0 19:1.0 20:1.0 42:1.0 1311:1.0 1292:1.0 24:1.0 
-0.07325771183438516 1:3.0 2:0.0 3:2.0 26:1.0 241:1.0 75:1.0 42:1.0 22560:1.0 5166:1.0 83:1.0 
-0.03169022188219394 1:4.0 2:0.0 3:0.0 67:1.0 241:1.0 20:1.0 1895:1.0 2193:1.0 271:1.0 396:1.0 
-0.04883206730577134 1:3.0 2:2.0 3:1.0 276:1.0 12:1.0 20:1.0 2773:1.0 1338:1.0 22952:1.0 5391:1.0 
-0.042922925197624036 1:5.0 2:1.0 3:0.0 166:1.0 19:1.0 20:1.0 167:1.0 34:1.0 23118:1.0 119:1.0 
-0.07932704750315236 1:5.0 2:1.0 3:3.0 5:1.0 41:1.0 20:1.0 165:1.0 86:1.0 23118:1.0 119:1.0 
-0.3316624478967527 1:5.0 2:1.0 3:1.0 5:1.0 88:1.0 20:1.0 165:1.0 91:1.0 23118:1.0 119:1.0 
-0.0015550765360774995 1:4.0 2:3.0 3:8.0 166:1.0 41:1.0 20:1.0 167:1.0 86:1.0 5198:1.0 119:1.0 
-0.08852464080445543 1:3.0 2:0.0 3:0.0 26:1.0 19:1.0 75:1.0 42:1.0 3421:1.0 748:1.0 24:1.0 
-0.03131151575311553 1:5.0 2:1.0 3:0.0 46:1.0 241:1.0 20:1.0 1187:1.0 143:1.0 7548:1.0 24:1.0 
-0.024658618923349276 1:3.0 2:0.0 3:1.0 18:1.0 12:1.0 75:1.0 2959:1.0 504:1.0 3173:1.0 24:1.0 
-0.029523226645498384 1:4.0 2:1.0 3:2.0 69:1.0 241:1.0 20:1.0 1647:1.0 1349:1.0 1423:1.0 24:1.0 
-0.05982313267201218 1:3.0 2:2.0 3:1.0 46:1.0 12:1.0 20:1.0 8134:1.0 1583:1.0 3228:1.0 24:1.0 
-0.01808164850457695 1:5.0 2:1.0 3:1.0 69:1.0 47:1.0 75:1.0 377:1.0 3910:1.0 674:1.0 83:1.0 
-0.03964936200937635 1:5.0 2:1.0 3:0.0 18:1.0 241:1.0 20:1.0 488:1.0 7400:1.0 1564:1.0 24:1.0 
-0.018675023079696186 1:7.0 2:1.0 3:2.0 18:1.0 12:1.0 20:1.0 488:1.0 11498:1.0 1564:1.0 119:1.0 
-0.001431934718276101 1:7.0 2:1.0 3:0.0 18:1.0 241:1.0 20:1.0 488:1.0 6282:1.0 1564:1.0 119:1.0 
-0.08407048049874365 1:2.0 2:0.0 3:0.0 26:1.0 12:1.0 20:1.0 1159:1.0 5326:1.0 3104:1.0 24:1.0 
-0.0784339824402757 1:2.0 2:2.0 3:1.0 18:1.0 47:1.0 20:1.0 488:1.0 23877:1.0 3859:1.0 197:1.0 
-0.03572409487324933 1:3.0 2:0.0 3:0.0 4942:1.0 182:1.0 20:1.0 1383:1.0 859:1.0 4072:1.0 24:1.0 
-0.1126848985175731 1:4.0 2:0.0 3:0.0 125:1.0 517:1.0 20:1.0 5737:1.0 3442:1.0 357:1.0 119:1.0 
-0.09000320676734117 1:3.0 2:0.0 3:2.0 125:1.0 41:1.0 20:1.0 1066:1.0 86:1.0 4618:1.0 83:1.0 
-0.13847503669406697 1:3.0 2:0.0 3:2.0 125:1.0 41:1.0 20:1.0 4616:1.0 86:1.0 4618:1.0 83:1.0 
-0.05996401144378502 1:4.0 2:0.0 3:0.0 67:1.0 241:1.0 20:1.0 1268:1.0 582:1.0 2392:1.0 119:1.0 
-0.12658464140002193 1:2.0 2:0.0 3:2.0 26:1.0 58:1.0 20:1.0 366:1.0 4325:1.0 4219:1.0 119:1.0 
-0.02299666103754093 1:6.0 2:0.0 3:3.0 26:1.0 12:1.0 20:1.0 42:1.0 2241:1.0 4965:1.0 24:1.0 
-0.029549289094374667 1:5.0 2:0.0 3:2.0 125:1.0 12:1.0 20:1.0 1592:1.0 12153:1.0 748:1.0 83:1.0 
-0.11741529429544019 1:2.0 2:0.0 3:4.0 26:1.0 58:1.0 20:1.0 366:1.0 24633:1.0 4219:1.0 24:1.0 
-0.12253500778957362 1:2.0 2:0.0 3:1.0 26:1.0 241:1.0 20:1.0 366:1.0 2982:1.0 1292:1.0 24:1.0 
-0.04362446344566433 1:4.0 2:0.0 3:1.0 26:1.0 41:1.0 20:1.0 366:1.0 43:1.0 17066:1.0 145:1.0 
-0.10675975887692786 1:4.0 2:0.0 3:1.0 125:1.0 41:1.0 20:1.0 24698:1.0 43:1.0 17066:1.0 145:1.0 
-0.15722630792555747 1:3.0 2:0.0 3:1.0 26:1.0 12:1.0 20:1.0 1867:1.0 13514:1.0 424:1.0 24:1.0 
-0.137631841474825 1:2.0 2:0.0 3:0.0 26:1.0 241:1.0 20:1.0 42:1.0 6415:1.0 10842:1.0 145:1.0 
-0.1468048927515446 1:3.0 2:0.0 3:1.0 26:1.0 12:1.0 20:1.0 42:1.0 11168:1.0 424:1.0 24:1.0 
-0.08022306101480288 1:5.0 2:0.0 3:0.0 26:1.0 41:1.0 20:1.0 42:1.0 767:1.0 5888:1.0 119:1.0 
-0.03125743019933744 1:5.0 2:0.0 3:0.0 125:1.0 41:1.0 20:1.0 776:1.0 767:1.0 5888:1.0 119:1.0 
-0.13833111781389434 1:2.0 2:0.0 3:0.0 26:1.0 427:1.0 20:1.0 42:1.0 430:1.0 1336:1.0 24:1.0 
-0.056218685461077056 1:4.0 2:1.0 3:2.0 125:1.0 198:1.0 75:1.0 25369:1.0 11872:1.0 3727:1.0 24:1.0 
-0.05077478628010121 1:2.0 2:2.0 3:4.0 46:1.0 12:1.0 20:1.0 1987:1.0 3858:1.0 1707:1.0 24:1.0 
-0.03813740901391373 1:3.0 2:0.0 3:2.0 69:1.0 198:1.0 75:1.0 1358:1.0 1622:1.0 8039:1.0 83:1.0 
-0.07813300344842636 1:4.0 2:0.0 3:0.0 18:1.0 19:1.0 20:1.0 488:1.0 34:1.0 3426:1.0 396:1.0 
-0.10956728787739062 1:4.0 2:0.0 3:1.0 26:1.0 12:1.0 1355:1.0 42:1.0 6556:1.0 5469:1.0 24:1.0 
-0.04573596913597113 1:3.0 2:0.0 3:1.0 125:1.0 41:1.0 75:1.0 12086:1.0 86:1.0 10695:1.0 24:1.0 
-0.07814015118332356 1:3.0 2:1.0 3:1.0 5:1.0 41:1.0 75:1.0 25:1.0 86:1.0 10695:1.0 24:1.0 
-0.04595641690867566 1:4.0 2:0.0 3:4.0 26:1.0 12:1.0 20:1.0 366:1.0 21290:1.0 10076:1.0 119:1.0 
-0.1230125135744121 1:3.0 2:0.0 3:0.0 26:1.0 120:1.0 75:1.0 288:1.0 891:1.0 2841:1.0 24:1.0 
-0.017533118073878144 1:7.0 2:3.0 3:2.0 69:1.0 41:1.0 20:1.0 26136:1.0 297:1.0 26135:1.0 24:1.0 
-0.019905554105360705 1:7.0 2:3.0 3:2.0 69:1.0 41:1.0 20:1.0 26137:1.0 297:1.0 26135:1.0 24:1.0 
-0.017974193571876955 1:7.0 2:3.0 3:2.0 69:1.0 41:1.0 20:1.0 26138:1.0 297:1.0 26135:1.0 24:1.0 
-0.04823393004118594 1:4.0 2:0.0 3:0.0 125:1.0 517:1.0 75:1.0 5737:1.0 3842:1.0 17719:1.0 119:1.0 
-0.054899560584145045 1:3.0 2:0.0 3:0.0 26:1.0 241:1.0 20:1.0 42:1.0 6415:1.0 1292:1.0 197:1.0 
-0.05791739552826022 1:3.0 2:1.0 3:1.0 46:1.0 12:1.0 20:1.0 20027:1.0 2406:1.0 10199:1.0 119:1.0 
-0.05548286530953029 1:3.0 2:0.0 3:1.0 18:1.0 41:1.0 75:1.0 26288:1.0 86:1.0 2923:1.0 83:1.0 
-0.08689075168860114 1:3.0 2:0.0 3:1.0 125:1.0 41:1.0 75:1.0 2924:1.0 86:1.0 2923:1.0 83:1.0 
-0.05214451942035819 1:2.0 2:0.0 3:1.0 18:1.0 41:1.0 75:1.0 26293:1.0 86:1.0 2923:1.0 83:1.0 
-0.10551374790759944 1:3.0 2:2.0 3:2.0 236:1.0 14:1.0 75:1.0 2932:1.0 5842:1.0 8359:1.0 24:1.0 
-0.10561966142050774 1:3.0 2:0.0 3:1.0 26:1.0 241:1.0 20:1.0 42:1.0 6415:1.0 3919:1.0 24:1.0 
-0.12385497814814872 1:2.0 2:0.0 3:0.0 46:1.0 19:1.0 20:1.0 26410:1.0 180:1.0 4599:1.0 83:1.0 
-0.07632178534628868 1:4.0 2:0.0 3:2.0 69:1.0 47:1.0 75:1.0 302:1.0 1334:1.0 5606:1.0 24:1.0 
-0.06462153250821111 1:5.0 2:0.0 3:2.0 26:1.0 12:1.0 20:1.0 366:1.0 12203:1.0 834:1.0 24:1.0 
-0.06251800791583458 1:2.0 2:0.0 3:1.0 69:1.0 19:1.0 75:1.0 1439:1.0 410:1.0 24466:1.0 83:1.0 
-0.03820192293335004 1:4.0 2:0.0 3:3.0 26:1.0 12:1.0 20:1.0 366:1.0 3054:1.0 863:1.0 24:1.0 
-0.04939964494353705 1:5.0 2:0.0 3:4.0 26:1.0 47:1.0 20:1.0 366:1.0 26645:1.0 5806:1.0 476:1.0 
-0.3426041372857187 1:2.0 2:0.0 3:1.0 26:1.0 41:1.0 75:1.0 1386:1.0 43:1.0 2841:1.0 24:1.0 
-0.04058882510989437 1:3.0 2:1.0 3:0.0 69:1.0 19:1.0 20:1.0 4077:1.0 34:1.0 1978:1.0 476:1.0 
-0.03702863981764466 1:4.0 2:2.0 3:1.0 69:1.0 381:1.0 75:1.0 3113:1.0 7079:1.0 4072:1.0 24:1.0 
-0.0011206461146885966 1:3.0 2:4.0 3:10.0 400:1.0 41:1.0 20:1.0 1726:1.0 86:1.0 19036:1.0 476:1.0 
-0.04628276705299553 1:5.0 2:0.0 3:3.0 26:1.0 12:1.0 4882:1.0 42:1.0 9231:1.0 6535:1.0 83:1.0 
-0.043068377951325745 1:4.0 2:0.0 3:1.0 26:1.0 47:1.0 20:1.0 42:1.0 27003:1.0 2778:1.0 24:1.0 
-0.05275373074789604 1:2.0 2:3.0 3:5.0 125:1.0 41:1.0 75:1.0 520:1.0 86:1.0 161:1.0 24:1.0 
-0.017460568428784396 1:4.0 2:0.0 3:2.0 125:1.0 198:1.0 75:1.0 5160:1.0 1752:1.0 271:1.0 24:1.0 
-0.03574810001687023 1:6.0 2:4.0 3:1.0 18:1.0 47:1.0 20:1.0 488:1.0 27222:1.0 27296:1.0 83:1.0 
-0.0429897322505529 1:3.0 2:0.0 3:2.0 26:1.0 182:1.0 20:1.0 366:1.0 4889:1.0 6187:1.0 119:1.0 
-0.0617091408372255 1:4.0 2:0.0 3:1.0 125:1.0 12:1.0 75:1.0 10604:1.0 5732:1.0 12898:1.0 476:1.0 
-0.18441551818275478 1:4.0 2:2.0 3:1.0 5:1.0 12:1.0 75:1.0 25:1.0 5732:1.0 12898:1.0 476:1.0 
-0.013216926935899886 1:6.0 2:0.0 3:4.0 272:1.0 570:1.0 20:1.0 2909:1.0 571:1.0 3691:1.0 24:1.0 
-0.019070868107060365 1:7.0 2:4.0 3:1.0 328:1.0 12:1.0 20:1.0 329:1.0 12889:1.0 2231:1.0 24:1.0 
-0.14392051181792345 1:3.0 2:4.0 3:5.0 5:1.0 41:1.0 20:1.0 8:1.0 86:1.0 3354:1.0 119:1.0 
-0.05560442655951465 1:4.0 2:0.0 3:0.0 4942:1.0 182:1.0 20:1.0 1867:1.0 184:1.0 27994:1.0 83:1.0 
-0.20405459798331865 1:2.0 2:0.0 3:1.0 26:1.0 41:1.0 20:1.0 366:1.0 441:1.0 6039:1.0 119:1.0 
-0.02716706334688479 1:3.0 2:0.0 3:7.0 793:1.0 12:1.0 20:1.0 3181:1.0 2983:1.0 424:1.0 24:1.0 
-0.22480444246193115 1:2.0 2:0.0 3:1.0 26:1.0 41:1.0 20:1.0 366:1.0 441:1.0 5829:1.0 476:1.0 
-0.09253149651257567 1:3.0 2:0.0 3:0.0 272:1.0 427:1.0 75:1.0 3453:1.0 430:1.0 2164:1.0 119:1.0 
-0.017217947744844874 1:3.0 2:1.0 3:0.0 46:1.0 19:1.0 20:1.0 2051:1.0 180:1.0 2392:1.0 119:1.0 
-0.21736136385577068 1:2.0 2:0.0 3:1.0 26:1.0 12:1.0 20:1.0 1159:1.0 7535:1.0 424:1.0 83:1.0 
-0.04499961814517642 1:4.0 2:0.0 3:2.0 26:1.0 198:1.0 20:1.0 366:1.0 1622:1.0 8260:1.0 24:1.0 
-0.06269259828885247 1:2.0 2:0.0 3:1.0 125:1.0 30:1.0 20:1.0 764:1.0 1319:1.0 9755:1.0 119:1.0 
-0.03563033646343921 1:6.0 2:0.0 3:3.0 87:1.0 41:1.0 20:1.0 26330:1.0 767:1.0 7044:1.0 527:1.0 
-0.035048092500478 1:3.0 2:0.0 3:1.0 69:1.0 241:1.0 75:1.0 1895:1.0 4624:1.0 271:1.0 83:1.0 
-0.08916620901480982 1:2.0 2:1.0 3:4.0 18:1.0 41:1.0 75:1.0 585:1.0 86:1.0 7006:1.0 83:1.0 
-0.06279311676077504 1:7.0 2:0.0 3:2.0 87:1.0 41:1.0 20:1.0 187:1.0 86:1.0 6284:1.0 24:1.0 
-0.05540360577463121 1:4.0 2:0.0 3:8.0 26:1.0 12:1.0 20:1.0 42:1.0 14645:1.0 28765:1.0 24:1.0 
-0.11812525617746643 1:3.0 2:0.0 3:1.0 272:1.0 41:1.0 75:1.0 893:1.0 43:1.0 18575:1.0 145:1.0 
-0.04058981006570556 1:4.0 2:2.0 3:4.0 166:1.0 41:1.0 20:1.0 167:1.0 524:1.0 10645:1.0 24:1.0 
-0.03863537511442068 1:5.0 2:0.0 3:2.0 26:1.0 12:1.0 20:1.0 42:1.0 5301:1.0 7928:1.0 119:1.0 
-0.16630879128577092 1:3.0 2:1.0 3:2.0 69:1.0 41:1.0 20:1.0 3078:1.0 86:1.0 6847:1.0 83:1.0 
-0.163195327419295 1:3.0 2:0.0 3:2.0 67:1.0 241:1.0 20:1.0 205:1.0 735:1.0 2442:1.0 396:1.0 
-0.06843624400714995 1:3.0 2:0.0 3:1.0 521:1.0 12:1.0 20:1.0 559:1.0 1338:1.0 7879:1.0 396:1.0 
-0.03301100702523111 1:3.0 2:1.0 3:3.0 46:1.0 12:1.0 75:1.0 3424:1.0 504:1.0 7861:1.0 83:1.0 
-0.04427469698802541 1:3.0 2:1.0 3:1.0 46:1.0 12:1.0 20:1.0 29521:1.0 29522:1.0 29523:1.0 83:1.0 
-0.026437260305634695 1:6.0 2:0.0 3:2.0 26:1.0 12:1.0 20:1.0 42:1.0 29726:1.0 10070:1.0 11:1.0 
-0.16818367232976902 1:3.0 2:1.0 3:2.0 573:1.0 41:1.0 20:1.0 574:1.0 86:1.0 5925:1.0 83:1.0 
-0.0721383348282893 1:2.0 2:0.0 3:1.0 18:1.0 41:1.0 20:1.0 18359:1.0 86:1.0 376:1.0 83:1.0 
-0.05502947634263253 1:3.0 2:1.0 3:1.0 46:1.0 12:1.0 20:1.0 29826:1.0 504:1.0 11957:1.0 119:1.0 
-0.05221667721860756 1:6.0 2:0.0 3:4.0 26:1.0 12:1.0 20:1.0 42:1.0 370:1.0 5888:1.0 119:1.0 
-0.12659973752713596 1:9.0 2:2.0 3:2.0 67:1.0 58:1.0 75:1.0 2670:1.0 2668:1.0 1937:1.0 11:1.0 
-0.037633289276294106 1:3.0 2:1.0 3:2.0 46:1.0 12:1.0 20:1.0 24442:1.0 5079:1.0 7933:1.0 83:1.0 
-0.12634159091614341 1:4.0 2:2.0 3:4.0 5:1.0 41:1.0 20:1.0 25:1.0 162:1.0 5193:1.0 119:1.0 
-0.10923678279056565 1:3.0 2:1.0 3:1.0 5:1.0 41:1.0 75:1.0 25:1.0 86:1.0 2394:1.0 24:1.0 
-0.05222517559789536 1:3.0 2:2.0 3:1.0 5:1.0 41:1.0 75:1.0 25:1.0 162:1.0 2242:1.0 119:1.0 
-0.038553469573771273 1:3.0 2:2.0 3:1.0 18:1.0 30:1.0 20:1.0 488:1.0 2097:1.0 3859:1.0 197:1.0 
-0.09686216971272728 1:2.0 2:0.0 3:1.0 125:1.0 12:1.0 75:1.0 171:1.0 30422:1.0 5172:1.0 119:1.0 
-0.08783204586924673 1:4.0 2:0.0 3:1.0 26:1.0 12:1.0 48:1.0 366:1.0 3783:1.0 22482:1.0 24:1.0 
-0.04279414243710972 1:5.0 2:0.0 3:2.0 46:1.0 14:1.0 20:1.0 1801:1.0 19264:1.0 6053:1.0 24:1.0 
-0.0737326826537248 1:3.0 2:1.0 3:2.0 69:1.0 47:1.0 20:1.0 2465:1.0 7021:1.0 1464:1.0 24:1.0 
-0.13007263282166187 1:3.0 2:0.0 3:3.0 26:1.0 241:1.0 20:1.0 42:1.0 6415:1.0 2210:1.0 83:1.0 
-0.05556990502205578 1:7.0 2:0.0 3:1.0 26:1.0 12:1.0 75:1.0 42:1.0 691:1.0 4931:1.0 119:1.0 
-0.015126871184143088 1:4.0 2:2.0 3:8.0 5:1.0 41:1.0 20:1.0 6953:1.0 86:1.0 2032:1.0 396:1.0 
-0.27000911242240805 1:7.0 2:0.0 3:1.0 26:1.0 41:1.0 75:1.0 42:1.0 43:1.0 15141:1.0 24:1.0 
-0.050105654195141174 1:7.0 2:0.0 3:1.0 18:1.0 41:1.0 75:1.0 1042:1.0 43:1.0 15141:1.0 24:1.0 
-0.15607487760854769 1:2.0 2:0.0 3:1.0 69:1.0 41:1.0 20:1.0 6711:1.0 43:1.0 3183:1.0 24:1.0 
-0.005007250379151539 1:5.0 2:4.0 3:10.0 328:1.0 41:1.0 20:1.0 329:1.0 86:1.0 10354:1.0 119:1.0 
-0.16101912056561338 1:4.0 2:0.0 3:1.0 26:1.0 41:1.0 75:1.0 42:1.0 43:1.0 368:1.0 24:1.0 
-0.060667033330781855 1:4.0 2:0.0 3:1.0 18:1.0 41:1.0 75:1.0 6027:1.0 43:1.0 368:1.0 24:1.0 
-0.1318456944421288 1:4.0 2:0.0 3:1.0 69:1.0 12:1.0 20:1.0 5005:1.0 504:1.0 7548:1.0 396:1.0 
-0.07427710393119173 1:4.0 2:1.0 3:1.0 276:1.0 12:1.0 20:1.0 3246:1.0 504:1.0 7548:1.0 396:1.0 
-0.024439551272883574 1:4.0 2:1.0 3:0.0 276:1.0 12:1.0 20:1.0 3246:1.0 5010:1.0 7548:1.0 396:1.0 
-0.028475753038153286 1:6.0 2:0.0 3:3.0 26:1.0 58:1.0 75:1.0 42:1.0 24526:1.0 3418:1.0 24:1.0 
-0.1692054162759709 1:2.0 2:0.0 3:1.0 26:1.0 41:1.0 20:1.0 1159:1.0 43:1.0 424:1.0 24:1.0 
-0.014001316478894797 1:8.0 2:0.0 3:1.0 26:1.0 241:1.0 20:1.0 42:1.0 5201:1.0 1354:1.0 83:1.0 
-0.05928645366146766 1:6.0 2:0.0 3:1.0 26:1.0 241:1.0 20:1.0 42:1.0 5201:1.0 4599:1.0 83:1.0 
-0.03476960130961476 1:3.0 2:1.0 3:1.0 46:1.0 12:1.0 20:1.0 8417:1.0 2406:1.0 4430:1.0 24:1.0 
-0.057407470118007495 1:3.0 2:3.0 3:3.0 166:1.0 381:1.0 20:1.0 167:1.0 2851:1.0 580:1.0 24:1.0 
-0.04982346300586141 1:4.0 2:2.0 3:5.0 5:1.0 27:1.0 75:1.0 250:1.0 322:1.0 18744:1.0 24:1.0 
-0.044056902502080865 1:4.0 2:4.0 3:1.0 5:1.0 110:1.0 20:1.0 250:1.0 322:1.0 287:1.0 83:1.0 
-0.06843062588597536 1:3.0 2:3.0 3:2.0 5:1.0 381:1.0 75:1.0 149:1.0 322:1.0 2392:1.0 24:1.0 
-0.07954790148836388 1:2.0 2:1.0 3:1.0 46:1.0 12:1.0 20:1.0 11626:1.0 1792:1.0 26794:1.0 24:1.0 
-0.0847365747234877 1:4.0 2:3.0 3:5.0 69:1.0 41:1.0 20:1.0 739:1.0 86:1.0 741:1.0 476:1.0 
-0.032603074127962525 1:4.0 2:3.0 3:1.0 5:1.0 110:1.0 20:1.0 25:1.0 1812:1.0 376:1.0 119:1.0 
-0.14858925418269697 1:2.0 2:0.0 3:1.0 26:1.0 41:1.0 20:1.0 1972:1.0 43:1.0 424:1.0 24:1.0 
-0.029501708924339037 1:5.0 2:1.0 3:2.0 46:1.0 198:1.0 75:1.0 5269:1.0 31440:1.0 17666:1.0 24:1.0 
-0.17769958598440175 1:6.0 2:1.0 3:0.0 5:1.0 241:1.0 20:1.0 149:1.0 508:1.0 172:1.0 24:1.0 
-0.08502471696142026 1:2.0 2:0.0 3:2.0 69:1.0 12:1.0 75:1.0 3766:1.0 5809:1.0 10618:1.0 83:1.0 
-0.06440939389279439 1:5.0 2:0.0 3:1.0 272:1.0 12:1.0 20:1.0 2909:1.0 1645:1.0 4886:1.0 119:1.0 
-0.023481159202096556 1:6.0 2:0.0 3:2.0 26:1.0 12:1.0 20:1.0 366:1.0 10835:1.0 2383:1.0 83:1.0 
-0.14938959709145155 1:2.0 2:0.0 3:1.0 125:1.0 14:1.0 75:1.0 5737:1.0 2862:1.0 3857:1.0 24:1.0 
-0.03210998677389199 1:2.0 2:0.0 3:2.0 69:1.0 47:1.0 20:1.0 142:1.0 438:1.0 1382:1.0 396:1.0 
-0.049893681037388754 1:3.0 2:0.0 3:1.0 272:1.0 30:1.0 20:1.0 2909:1.0 3840:1.0 3571:1.0 119:1.0 
-0.056946193119946316 1:3.0 2:0.0 3:1.0 26:1.0 41:1.0 20:1.0 1036:1.0 43:1.0 10842:1.0 119:1.0 
-0.1478818720385996 1:3.0 2:0.0 3:1.0 69:1.0 41:1.0 20:1.0 5880:1.0 43:1.0 10842:1.0 119:1.0 
-0.025049740674283973 1:6.0 2:1.0 3:1.0 5:1.0 41:1.0 75:1.0 25:1.0 86:1.0 7145:1.0 24:1.0 
-0.04662701313303988 1:4.0 2:0.0 3:0.0 26:1.0 41:1.0 20:1.0 366:1.0 6874:1.0 22684:1.0 24:1.0 
-0.0779838313762286 1:3.0 2:1.0 3:0.0 573:1.0 19:1.0 20:1.0 574:1.0 180:1.0 2392:1.0 24:1.0 
-0.0421447371591942 1:3.0 2:0.0 3:1.0 26:1.0 41:1.0 20:1.0 1036:1.0 43:1.0 32478:1.0 119:1.0 
-0.03129764355771451 1:4.0 2:1.0 3:1.0 46:1.0 12:1.0 20:1.0 6508:1.0 5068:1.0 1366:1.0 24:1.0 
-0.06458134566816216 1:5.0 2:2.0 3:0.0 46:1.0 12:1.0 20:1.0 32491:1.0 7576:1.0 1366:1.0 119:1.0 
-0.04614799557058867 1:4.0 2:0.0 3:5.0 26:1.0 198:1.0 20:1.0 366:1.0 322:1.0 2226:1.0 24:1.0 
-0.019916658150505948 1:4.0 2:0.0 3:0.0 125:1.0 41:1.0 20:1.0 1084:1.0 767:1.0 4197:1.0 83:1.0 
-0.08151621318349661 1:4.0 2:0.0 3:0.0 46:1.0 241:1.0 20:1.0 12689:1.0 1530:1.0 230:1.0 396:1.0 
-0.09104395139541123 1:2.0 2:2.0 3:1.0 46:1.0 47:1.0 20:1.0 6720:1.0 10376:1.0 1707:1.0 24:1.0 
-0.0884988364051169 1:6.0 2:0.0 3:3.0 272:1.0 12:1.0 20:1.0 274:1.0 3665:1.0 5907:1.0 119:1.0 
-0.07326579423383094 1:5.0 2:0.0 3:1.0 26:1.0 241:1.0 20:1.0 366:1.0 2193:1.0 1473:1.0 119:1.0 
-0.05223705168559871 1:4.0 2:0.0 3:2.0 26:1.0 58:1.0 20:1.0 366:1.0 32829:1.0 4728:1.0 24:1.0 
-0.2474368650482817 1:2.0 2:0.0 3:2.0 272:1.0 12:1.0 20:1.0 2909:1.0 3196:1.0 3183:1.0 24:1.0 
-0.037742523259972946 1:4.0 2:1.0 3:0.0 573:1.0 241:1.0 20:1.0 574:1.0 735:1.0 3117:1.0 119:1.0 
-0.04552053828927854 1:3.0 2:1.0 3:2.0 5:1.0 88:1.0 75:1.0 25:1.0 91:1.0 5363:1.0 83:1.0 
-0.07825651912047911 1:2.0 2:0.0 3:3.0 125:1.0 241:1.0 20:1.0 3666:1.0 12386:1.0 4913:1.0 24:1.0 
-0.03331417141869819 1:4.0 2:1.0 3:0.0 69:1.0 41:1.0 75:1.0 3321:1.0 524:1.0 7483:1.0 119:1.0 
-0.04132228017308882 1:3.0 2:0.0 3:0.0 26:1.0 182:1.0 20:1.0 366:1.0 184:1.0 12260:1.0 476:1.0 
-0.032439270815804264 1:4.0 2:4.0 3:3.0 255:1.0 381:1.0 20:1.0 256:1.0 2918:1.0 567:1.0 119:1.0 
-0.020074435257003698 1:2.0 2:2.0 3:4.0 5:1.0 41:1.0 20:1.0 310:1.0 86:1.0 33755:1.0 145:1.0 
-0.02802756040454402 1:6.0 2:0.0 3:1.0 26:1.0 381:1.0 20:1.0 366:1.0 11070:1.0 33837:1.0 119:1.0 
-0.013783153552614827 1:6.0 2:0.0 3:1.0 125:1.0 381:1.0 20:1.0 311:1.0 11070:1.0 33837:1.0 119:1.0 
-0.07996806971095004 1:3.0 2:0.0 3:0.0 26:1.0 19:1.0 75:1.0 42:1.0 34:1.0 33943:1.0 24:1.0 
-0.23168420146799448 1:2.0 2:0.0 3:1.0 26:1.0 41:1.0 20:1.0 1810:1.0 86:1.0 3042:1.0 119:1.0 
-0.018080437881557703 1:4.0 2:0.0 3:4.0 87:1.0 41:1.0 2182:1.0 21018:1.0 86:1.0 15589:1.0 24:1.0 
-0.05441172996828081 1:5.0 2:0.0 3:0.0 26:1.0 41:1.0 20:1.0 42:1.0 524:1.0 10810:1.0 24:1.0 
-0.006783320109835117 1:9.0 2:0.0 3:6.0 26:1.0 12:1.0 20:1.0 42:1.0 24202:1.0 18706:1.0 119:1.0 
-0.009885299864149747 1:9.0 2:0.0 3:0.0 26:1.0 41:1.0 20:1.0 42:1.0 524:1.0 18706:1.0 119:1.0 
-0.04712212749021441 1:2.0 2:0.0 3:1.0 18:1.0 41:1.0 75:1.0 34124:1.0 86:1.0 2923:1.0 83:1.0 
-0.0567350967139119 1:2.0 2:0.0 3:1.0 18:1.0 41:1.0 75:1.0 34132:1.0 86:1.0 2923:1.0 83:1.0 
-0.19534884000939334 1:2.0 2:0.0 3:2.0 26:1.0 12:1.0 20:1.0 366:1.0 7760:1.0 24616:1.0 197:1.0 
-0.06267138102977846 1:2.0 2:1.0 3:0.0 46:1.0 19:1.0 20:1.0 6720:1.0 180:1.0 748:1.0 24:1.0 
-0.008821706976676346 1:9.0 2:3.0 3:0.0 5:1.0 47:1.0 75:1.0 25:1.0 5387:1.0 11605:1.0 396:1.0 
-0.008801075257526618 1:9.0 2:3.0 3:3.0 125:1.0 41:1.0 75:1.0 6900:1.0 86:1.0 11605:1.0 396:1.0 
-0.026016171503219374 1:2.0 2:0.0 3:3.0 125:1.0 241:1.0 75:1.0 6828:1.0 2977:1.0 1827:1.0 24:1.0 
-0.035080205587752454 1:3.0 2:0.0 3:2.0 125:1.0 790:1.0 20:1.0 3666:1.0 4046:1.0 4913:1.0 24:1.0 
-0.055178832708199246 1:2.0 2:1.0 3:2.0 5:1.0 41:1.0 75:1.0 165:1.0 86:1.0 3354:1.0 119:1.0 
-0.09822195304534706 1:3.0 2:0.0 3:1.0 46:1.0 47:1.0 20:1.0 11570:1.0 3429:1.0 3587:1.0 24:1.0 
-0.08806225643353319 1:2.0 2:0.0 3:2.0 46:1.0 12:1.0 20:1.0 11570:1.0 3783:1.0 2293:1.0 119:1.0 
-0.17918147232102163 1:2.0 2:0.0 3:2.0 18:1.0 41:1.0 20:1.0 11192:1.0 86:1.0 376:1.0 83:1.0 
-0.06144351743772259 1:5.0 2:0.0 3:4.0 87:1.0 41:1.0 20:1.0 7723:1.0 86:1.0 748:1.0 24:1.0 
-0.1691486947512137 1:3.0 2:1.0 3:1.0 69:1.0 41:1.0 20:1.0 377:1.0 43:1.0 3309:1.0 119:1.0 
-0.03933596257173868 1:4.0 2:1.0 3:1.0 46:1.0 12:1.0 20:1.0 2272:1.0 504:1.0 1542:1.0 24:1.0 
-0.04886980703746116 1:2.0 2:0.0 3:5.0 18:1.0 41:1.0 486:1.0 1084:1.0 86:1.0 12038:1.0 83:1.0 
-0.01768702962551907 1:4.0 2:4.0 3:1.0 18:1.0 47:1.0 20:1.0 488:1.0 13469:1.0 1646:1.0 24:1.0 
-0.05751200996870629 1:5.0 2:1.0 3:2.0 573:1.0 12:1.0 20:1.0 574:1.0 2711:1.0 3667:1.0 119:1.0 
-0.049436591052492554 1:5.0 2:1.0 3:0.0 5:1.0 241:1.0 20:1.0 250:1.0 35089:1.0 13306:1.0 119:1.0 
-0.06369737416579206 1:3.0 2:1.0 3:2.0 5:1.0 41:1.0 20:1.0 218:1.0 86:1.0 1201:1.0 24:1.0 
-0.17635552754578604 1:6.0 2:0.0 3:4.0 26:1.0 41:1.0 20:1.0 42:1.0 441:1.0 3667:1.0 24:1.0 
-0.02798244775847128 1:6.0 2:0.0 3:4.0 521:1.0 41:1.0 20:1.0 559:1.0 441:1.0 3667:1.0 24:1.0 
-0.010119170843146452 1:3.0 2:0.0 3:8.0 26:1.0 12:1.0 20:1.0 28:1.0 35186:1.0 161:1.0 119:1.0 
-0.01248866941948352 1:6.0 2:2.0 3:2.0 400:1.0 41:1.0 20:1.0 981:1.0 71:1.0 7955:1.0 24:1.0 
-0.07330845462595419 1:4.0 2:3.0 3:2.0 5:1.0 88:1.0 20:1.0 25:1.0 91:1.0 3228:1.0 83:1.0 
-0.05451125922782574 1:3.0 2:1.0 3:0.0 46:1.0 12:1.0 20:1.0 11742:1.0 35272:1.0 3320:1.0 24:1.0 
-0.02961575882449785 1:5.0 2:3.0 3:6.0 328:1.0 381:1.0 20:1.0 5633:1.0 176:1.0 10942:1.0 24:1.0 
-0.027056989870087284 1:5.0 2:2.0 3:6.0 5:1.0 41:1.0 20:1.0 25:1.0 71:1.0 161:1.0 476:1.0 
-0.04773735509553366 1:2.0 2:0.0 3:5.0 125:1.0 241:1.0 75:1.0 361:1.0 13983:1.0 670:1.0 83:1.0 
-0.08802010362109158 1:3.0 2:2.0 3:0.0 5:1.0 241:1.0 20:1.0 25:1.0 3159:1.0 1745:1.0 24:1.0 
-0.10612702335612531 1:4.0 2:2.0 3:0.0 400:1.0 241:1.0 20:1.0 329:1.0 3159:1.0 1745:1.0 24:1.0 
-0.06120315188084922 1:2.0 2:0.0 3:3.0 276:1.0 12:1.0 20:1.0 4081:1.0 504:1.0 5365:1.0 24:1.0 
-0.05854831596656171 1:2.0 2:2.0 3:1.0 69:1.0 12:1.0 20:1.0 419:1.0 1599:1.0 7472:1.0 24:1.0 
-0.02698292350095519 1:4.0 2:1.0 3:0.0 573:1.0 19:1.0 20:1.0 574:1.0 180:1.0 7955:1.0 24:1.0 
-0.06937434922518175 1:4.0 2:0.0 3:1.0 26:1.0 12:1.0 20:1.0 42:1.0 370:1.0 3104:1.0 24:1.0 
-0.03667430392560819 1:2.0 2:0.0 3:1.0 18:1.0 41:1.0 75:1.0 35827:1.0 86:1.0 2923:1.0 83:1.0 
-0.011183321018675762 1:4.0 2:2.0 3:8.0 5:1.0 41:1.0 20:1.0 6953:1.0 86:1.0 3852:1.0 396:1.0 
-0.06688177794576729 1:2.0 2:0.0 3:1.0 18:1.0 41:1.0 75:1.0 35835:1.0 86:1.0 2923:1.0 83:1.0 
-0.0238029843998269 1:2.0 2:2.0 3:7.0 5:1.0 41:1.0 20:1.0 6953:1.0 86:1.0 3852:1.0 396:1.0 
-0.06606164652993586 1:2.0 2:0.0 3:1.0 18:1.0 41:1.0 75:1.0 24678:1.0 86:1.0 2923:1.0 83:1.0 
-0.14868884037616092 1:3.0 2:0.0 3:3.0 69:1.0 41:1.0 20:1.0 619:1.0 86:1.0 1230:1.0 119:1.0 
-0.013650306828382855 1:7.0 2:2.0 3:2.0 125:1.0 41:1.0 20:1.0 6900:1.0 86:1.0 12348:1.0 119:1.0 
-0.405808889199885 1:3.0 2:0.0 3:1.0 26:1.0 41:1.0 20:1.0 42:1.0 86:1.0 2147:1.0 119:1.0 
-0.037477693664809554 1:2.0 2:2.0 3:1.0 46:1.0 12:1.0 75:1.0 8305:1.0 20588:1.0 1354:1.0 83:1.0 
-0.11281160247153343 1:4.0 2:0.0 3:1.0 26:1.0 12:1.0 20:1.0 42:1.0 3196:1.0 161:1.0 83:1.0 
-0.11976581012487415 1:4.0 2:0.0 3:0.0 26:1.0 41:1.0 20:1.0 42:1.0 86:1.0 161:1.0 83:1.0 
-0.06533533199857333 1:4.0 2:0.0 3:0.0 69:1.0 41:1.0 20:1.0 35949:1.0 86:1.0 161:1.0 83:1.0 
-0.09238568553569709 1:3.0 2:0.0 3:1.0 125:1.0 47:1.0 20:1.0 270:1.0 1990:1.0 10354:1.0 83:1.0 
-0.03241801706395996 1:4.0 2:0.0 3:2.0 69:1.0 517:1.0 20:1.0 1987:1.0 2193:1.0 1606:1.0 476:1.0 
-0.11039832899354725 1:4.0 2:0.0 3:1.0 26:1.0 12:1.0 20:1.0 366:1.0 36313:1.0 10326:1.0 24:1.0 
-0.04779473322342836 1:3.0 2:0.0 3:0.0 46:1.0 19:1.0 20:1.0 49:1.0 180:1.0 2442:1.0 396:1.0 
-0.025281621627169182 1:5.0 2:0.0 3:2.0 26:1.0 208:1.0 20:1.0 366:1.0 22677:1.0 1861:1.0 24:1.0 
-0.09014660983185334 1:4.0 2:0.0 3:4.0 125:1.0 41:1.0 75:1.0 6789:1.0 86:1.0 2089:1.0 476:1.0 
-0.083174341798611 1:2.0 2:1.0 3:1.0 46:1.0 12:1.0 20:1.0 14225:1.0 504:1.0 4953:1.0 83:1.0 
-0.05568933604487882 1:3.0 2:0.0 3:3.0 125:1.0 517:1.0 20:1.0 3513:1.0 564:1.0 652:1.0 396:1.0 
-0.06687438145329584 1:2.0 2:0.0 3:0.0 272:1.0 182:1.0 75:1.0 3453:1.0 1404:1.0 6986:1.0 145:1.0 
-0.3066947137979014 1:3.0 2:2.0 3:1.0 5:1.0 198:1.0 75:1.0 165:1.0 19264:1.0 6637:1.0 119:1.0 
-0.1591964743091046 1:3.0 2:0.0 3:1.0 793:1.0 19:1.0 75:1.0 794:1.0 858:1.0 2089:1.0 119:1.0 
-0.12126508608490323 1:5.0 2:0.0 3:2.0 87:1.0 12:1.0 20:1.0 187:1.0 9704:1.0 1564:1.0 476:1.0 
-0.03378593739967869 1:3.0 2:0.0 3:4.0 125:1.0 241:1.0 75:1.0 4463:1.0 25395:1.0 7759:1.0 24:1.0 
-0.02423963263245283 1:4.0 2:2.0 3:5.0 386:1.0 41:1.0 2182:1.0 3182:1.0 86:1.0 2302:1.0 119:1.0 
-0.02436278051930509 1:6.0 2:0.0 3:3.0 26:1.0 12:1.0 20:1.0 42:1.0 10470:1.0 10471:1.0 24:1.0 
-0.12950466021340928 1:3.0 2:0.0 3:1.0 18:1.0 41:1.0 20:1.0 11379:1.0 43:1.0 376:1.0 24:1.0 
-0.008396114204225315 1:8.0 2:1.0 3:0.0 46:1.0 12:1.0 20:1.0 37061:1.0 37062:1.0 3594:1.0 24:1.0 
-0.006113620493980819 1:8.0 2:0.0 3:1.0 26:1.0 241:1.0 20:1.0 42:1.0 4589:1.0 3594:1.0 24:1.0 
-0.015221012878554669 1:9.0 2:0.0 3:4.0 26:1.0 41:1.0 3370:1.0 42:1.0 71:1.0 3371:1.0 119:1.0 
-0.058424047523104934 1:2.0 2:0.0 3:1.0 26:1.0 12:1.0 75:1.0 855:1.0 13068:1.0 5608:1.0 83:1.0 
-0.022497448538683323 1:3.0 2:0.0 3:0.0 521:1.0 19:1.0 20:1.0 559:1.0 34:1.0 1336:1.0 396:1.0 
-0.019866276511590116 1:4.0 2:1.0 3:4.0 573:1.0 570:1.0 20:1.0 574:1.0 571:1.0 584:1.0 24:1.0 
-0.1881840236676221 1:4.0 2:2.0 3:3.0 5:1.0 41:1.0 20:1.0 149:1.0 162:1.0 221:1.0 119:1.0 
-0.03730792650819803 1:5.0 2:0.0 3:1.0 272:1.0 58:1.0 20:1.0 2909:1.0 3836:1.0 3357:1.0 396:1.0 
-0.17641117648701865 1:3.0 2:0.0 3:1.0 26:1.0 12:1.0 20:1.0 42:1.0 3196:1.0 1875:1.0 476:1.0 
-0.034391473004176006 1:3.0 2:1.0 3:0.0 18:1.0 14:1.0 75:1.0 576:1.0 498:1.0 11605:1.0 24:1.0 
-0.025045493542069846 1:4.0 2:1.0 3:3.0 18:1.0 12:1.0 75:1.0 37612:1.0 4721:1.0 170:1.0 119:1.0 
-0.03197269436533606 1:5.0 2:1.0 3:0.0 46:1.0 19:1.0 20:1.0 6894:1.0 34:1.0 670:1.0 83:1.0 
-0.03885594259420016 1:5.0 2:1.0 3:0.0 46:1.0 12:1.0 20:1.0 6894:1.0 6947:1.0 670:1.0 83:1.0 
-0.09732693924012847 1:4.0 2:0.0 3:5.0 26:1.0 198:1.0 20:1.0 366:1.0 5169:1.0 12260:1.0 24:1.0 
-0.11313814836559709 1:2.0 2:1.0 3:0.0 46:1.0 12:1.0 75:1.0 37979:1.0 7885:1.0 37980:1.0 24:1.0 
-0.0617834607077289 1:4.0 2:1.0 3:0.0 46:1.0 241:1.0 20:1.0 6497:1.0 37993:1.0 1616:1.0 24:1.0 
-0.01889460770370611 1:4.0 2:4.0 3:5.0 5:1.0 41:1.0 20:1.0 165:1.0 86:1.0 3354:1.0 119:1.0 
-0.13663633953864746 1:3.0 2:0.0 3:1.0 69:1.0 41:1.0 20:1.0 3697:1.0 43:1.0 4067:1.0 119:1.0 
-0.006100590362496946 1:8.0 2:1.0 3:10.0 69:1.0 58:1.0 75:1.0 377:1.0 3107:1.0 3104:1.0 11:1.0 
-0.028252914846892536 1:3.0 2:2.0 3:3.0 69:1.0 14:1.0 75:1.0 419:1.0 11922:1.0 3117:1.0 396:1.0 
-0.017140024955876947 1:7.0 2:0.0 3:0.0 125:1.0 241:1.0 20:1.0 1592:1.0 2193:1.0 2231:1.0 24:1.0 
-0.06183262741429188 1:3.0 2:2.0 3:0.0 67:1.0 12:1.0 75:1.0 1895:1.0 5316:1.0 652:1.0 24:1.0 
-0.12567319608849356 1:4.0 2:0.0 3:0.0 69:1.0 241:1.0 20:1.0 1358:1.0 143:1.0 12219:1.0 396:1.0 
-0.08059749786716294 1:4.0 2:0.0 3:0.0 69:1.0 241:1.0 20:1.0 11628:1.0 143:1.0 12219:1.0 396:1.0 
-0.04484142123060584 1:3.0 2:2.0 3:0.0 5:1.0 198:1.0 75:1.0 250:1.0 1752:1.0 1626:1.0 83:1.0 
-0.027179820557530356 1:5.0 2:3.0 3:6.0 69:1.0 41:1.0 2182:1.0 3724:1.0 628:1.0 4200:1.0 83:1.0 
-0.1336354951069396 1:3.0 2:1.0 3:1.0 69:1.0 12:1.0 75:1.0 407:1.0 1619:1.0 2841:1.0 24:1.0 
-0.034280610987176774 1:3.0 2:1.0 3:2.0 46:1.0 12:1.0 20:1.0 6890:1.0 38904:1.0 8848:1.0 119:1.0 
-0.09427191012576837 1:4.0 2:0.0 3:2.0 26:1.0 12:1.0 20:1.0 42:1.0 5301:1.0 904:1.0 24:1.0 
-0.023791324885441438 1:4.0 2:0.0 3:1.0 26:1.0 47:1.0 20:1.0 28:1.0 38950:1.0 6443:1.0 83:1.0 
-0.04762974286033488 1:4.0 2:3.0 3:3.0 69:1.0 41:1.0 20:1.0 334:1.0 86:1.0 2245:1.0 83:1.0 
-0.031097210825620863 1:6.0 2:0.0 3:0.0 26:1.0 12:1.0 20:1.0 366:1.0 6390:1.0 38797:1.0 24:1.0 
-0.048898836346920556 1:7.0 2:0.0 3:1.0 272:1.0 47:1.0 20:1.0 893:1.0 1253:1.0 456:1.0 119:1.0 
-0.012316478448996604 1:6.0 2:0.0 3:2.0 26:1.0 12:1.0 20:1.0 366:1.0 8476:1.0 14828:1.0 83:1.0 
-0.01886411193981773 1:5.0 2:0.0 3:4.0 26:1.0 198:1.0 20:1.0 42:1.0 5127:1.0 3006:1.0 24:1.0 
-0.035565710109394015 1:5.0 2:1.0 3:1.0 18:1.0 41:1.0 20:1.0 2447:1.0 86:1.0 6126:1.0 24:1.0 
-0.06654397021183356 1:3.0 2:0.0 3:0.0 46:1.0 19:1.0 20:1.0 121:1.0 34:1.0 131:1.0 119:1.0 
-0.26404840744189284 1:3.0 2:0.0 3:1.0 26:1.0 12:1.0 75:1.0 42:1.0 3840:1.0 7373:1.0 83:1.0 
-0.029199282869956447 1:4.0 2:1.0 3:1.0 18:1.0 47:1.0 20:1.0 4199:1.0 39846:1.0 3859:1.0 197:1.0 
-0.023404837298449305 1:5.0 2:0.0 3:0.0 125:1.0 41:1.0 20:1.0 11845:1.0 524:1.0 1473:1.0 119:1.0 
-0.02690329460747079 1:5.0 2:2.0 3:0.0 46:1.0 12:1.0 20:1.0 9994:1.0 17755:1.0 4823:1.0 24:1.0 
-0.08601780764849853 1:3.0 2:0.0 3:0.0 125:1.0 120:1.0 75:1.0 5512:1.0 122:1.0 7777:1.0 119:1.0 
-0.01987473608260126 1:6.0 2:0.0 3:5.0 26:1.0 12:1.0 20:1.0 366:1.0 178:1.0 3160:1.0 11:1.0 
-0.043485268069348305 1:4.0 2:0.0 3:1.0 26:1.0 58:1.0 20:1.0 366:1.0 26097:1.0 40250:1.0 197:1.0 
-0.06101084296384789 1:3.0 2:3.0 3:0.0 573:1.0 120:1.0 20:1.0 574:1.0 122:1.0 2990:1.0 119:1.0 
-0.026979488416762502 1:2.0 2:0.0 3:2.0 69:1.0 12:1.0 75:1.0 3063:1.0 2241:1.0 3213:1.0 83:1.0 
-0.06378804786353158 1:3.0 2:0.0 3:1.0 26:1.0 58:1.0 20:1.0 2148:1.0 3836:1.0 40500:1.0 119:1.0 
-0.0500974037810423 1:6.0 2:0.0 3:2.0 26:1.0 47:1.0 75:1.0 42:1.0 14173:1.0 131:1.0 24:1.0 
-0.12261627007048835 1:3.0 2:0.0 3:0.0 26:1.0 41:1.0 20:1.0 366:1.0 781:1.0 424:1.0 24:1.0 
-0.025922554772756637 1:3.0 2:0.0 3:0.0 87:1.0 41:1.0 20:1.0 824:1.0 781:1.0 424:1.0 24:1.0 
-0.10809127197426947 1:4.0 2:0.0 3:0.0 18:1.0 19:1.0 75:1.0 11379:1.0 180:1.0 40508:1.0 119:1.0 
-0.16772204387330983 1:4.0 2:0.0 3:0.0 18:1.0 241:1.0 75:1.0 11379:1.0 9097:1.0 40508:1.0 119:1.0 
-0.06387646435465015 1:3.0 2:2.0 3:3.0 5:1.0 41:1.0 75:1.0 614:1.0 43:1.0 3173:1.0 24:1.0 
-0.030294504070389614 1:4.0 2:0.0 3:1.0 272:1.0 30:1.0 75:1.0 2909:1.0 3840:1.0 5939:1.0 119:1.0 
-0.03432427403316095 1:3.0 2:1.0 3:2.0 46:1.0 12:1.0 20:1.0 40706:1.0 15460:1.0 6014:1.0 24:1.0 
-0.06032563238305945 1:5.0 2:0.0 3:2.0 125:1.0 12:1.0 75:1.0 361:1.0 669:1.0 670:1.0 119:1.0 
-0.029150239059827332 1:6.0 2:0.0 3:1.0 125:1.0 12:1.0 20:1.0 164:1.0 2018:1.0 13921:1.0 24:1.0 
-0.022647354556191608 1:6.0 2:2.0 3:0.0 69:1.0 19:1.0 20:1.0 419:1.0 34:1.0 670:1.0 83:1.0 
-0.10098033427617176 1:3.0 2:0.0 3:0.0 521:1.0 241:1.0 20:1.0 2079:1.0 3514:1.0 9755:1.0 119:1.0 
-0.004096011177721828 1:7.0 2:0.0 3:9.0 125:1.0 12:1.0 151:1.0 973:1.0 34058:1.0 935:1.0 24:1.0 
-0.018408460936288448 1:3.0 2:0.0 3:3.0 125:1.0 790:1.0 75:1.0 1488:1.0 7767:1.0 2147:1.0 24:1.0 
-0.03017194463387076 1:5.0 2:1.0 3:0.0 46:1.0 12:1.0 20:1.0 41280:1.0 2966:1.0 363:1.0 119:1.0 
-0.09323918232728619 1:2.0 2:0.0 3:1.0 26:1.0 58:1.0 20:1.0 366:1.0 7760:1.0 2923:1.0 145:1.0 
-0.05257737368740995 1:4.0 2:3.0 3:2.0 386:1.0 12:1.0 75:1.0 329:1.0 1619:1.0 3354:1.0 119:1.0 
-0.06784255525517544 1:3.0 2:3.0 3:0.0 46:1.0 198:1.0 75:1.0 4532:1.0 3343:1.0 3852:1.0 83:1.0 
-0.05663052482280697 1:4.0 2:0.0 3:0.0 18:1.0 41:1.0 575:1.0 12039:1.0 603:1.0 578:1.0 119:1.0 
-0.04085232932885659 1:2.0 2:4.0 3:6.0 69:1.0 88:1.0 20:1.0 2414:1.0 91:1.0 15296:1.0 119:1.0 
-0.050141047658761546 1:4.0 2:1.0 3:0.0 69:1.0 19:1.0 75:1.0 346:1.0 858:1.0 748:1.0 24:1.0 
-0.07243173610129287 1:4.0 2:0.0 3:1.0 69:1.0 41:1.0 20:1.0 4024:1.0 403:1.0 144:1.0 396:1.0 
-0.10414969986817593 1:4.0 2:0.0 3:1.0 69:1.0 41:1.0 20:1.0 2946:1.0 403:1.0 144:1.0 396:1.0 
-0.05523569612589574 1:4.0 2:0.0 3:1.0 26:1.0 41:1.0 20:1.0 1036:1.0 43:1.0 3694:1.0 24:1.0 
-0.11221778731120598 1:3.0 2:0.0 3:0.0 18:1.0 241:1.0 75:1.0 1042:1.0 1282:1.0 2841:1.0 24:1.0 
-0.027433926051730503 1:5.0 2:0.0 3:2.0 26:1.0 58:1.0 20:1.0 366:1.0 897:1.0 1766:1.0 119:1.0 
-0.14112019394911934 1:3.0 2:0.0 3:2.0 125:1.0 41:1.0 20:1.0 15147:1.0 441:1.0 5434:1.0 145:1.0 
-0.08701596935140896 1:2.0 2:1.0 3:1.0 46:1.0 12:1.0 20:1.0 7501:1.0 504:1.0 1646:1.0 83:1.0 
-0.08725336240167297 1:4.0 2:1.0 3:0.0 46:1.0 12:1.0 20:1.0 207:1.0 2966:1.0 3188:1.0 83:1.0 
-0.03502171128821607 1:3.0 2:4.0 3:2.0 69:1.0 41:1.0 20:1.0 3182:1.0 86:1.0 2923:1.0 119:1.0 
-0.028798540511895815 1:3.0 2:0.0 3:4.0 125:1.0 517:1.0 75:1.0 2198:1.0 2193:1.0 745:1.0 24:1.0 
-0.11638397412295107 1:2.0 2:0.0 3:5.0 18:1.0 41:1.0 20:1.0 3043:1.0 86:1.0 376:1.0 83:1.0 
-0.06812117769809152 1:3.0 2:0.0 3:0.0 18:1.0 241:1.0 75:1.0 2030:1.0 1282:1.0 2841:1.0 24:1.0 
-0.04504790765187011 1:4.0 2:0.0 3:3.0 26:1.0 198:1.0 20:1.0 28:1.0 36765:1.0 383:1.0 24:1.0 
-0.020623780094687613 1:3.0 2:2.0 3:1.0 46:1.0 47:1.0 48:1.0 1358:1.0 6163:1.0 3414:1.0 11:1.0 
-0.07706857000401193 1:3.0 2:2.0 3:0.0 46:1.0 12:1.0 48:1.0 1358:1.0 138:1.0 3414:1.0 11:1.0 
-0.057704120912144254 1:3.0 2:0.0 3:1.0 26:1.0 241:1.0 20:1.0 366:1.0 1028:1.0 8187:1.0 24:1.0 
-0.059971659702095205 1:5.0 2:0.0 3:0.0 125:1.0 41:1.0 20:1.0 127:1.0 628:1.0 15173:1.0 396:1.0 
-0.0444925979534423 1:3.0 2:0.0 3:0.0 18:1.0 88:1.0 20:1.0 1746:1.0 91:1.0 376:1.0 197:1.0 
-0.09293570661576439 1:3.0 2:0.0 3:2.0 26:1.0 58:1.0 20:1.0 794:1.0 40279:1.0 2594:1.0 119:1.0 
-0.06816367536101478 1:2.0 2:0.0 3:3.0 26:1.0 58:1.0 20:1.0 1159:1.0 3238:1.0 424:1.0 83:1.0 
-0.16267717785448005 1:2.0 2:0.0 3:0.0 26:1.0 41:1.0 20:1.0 42:1.0 420:1.0 3358:1.0 83:1.0 
-0.027998320318520488 1:5.0 2:0.0 3:2.0 87:1.0 110:1.0 20:1.0 9229:1.0 942:1.0 3262:1.0 476:1.0 
-0.012875119687874798 1:6.0 2:1.0 3:4.0 573:1.0 30:1.0 20:1.0 574:1.0 2291:1.0 10354:1.0 11:1.0 
-0.105680932595138 1:3.0 2:0.0 3:1.0 87:1.0 41:1.0 20:1.0 7560:1.0 86:1.0 4903:1.0 24:1.0 
-0.11110944846965838 1:3.0 2:0.0 3:1.0 26:1.0 182:1.0 75:1.0 42:1.0 859:1.0 3213:1.0 83:1.0 
-0.1459250608114025 1:3.0 2:0.0 3:2.0 26:1.0 12:1.0 20:1.0 42:1.0 7982:1.0 424:1.0 145:1.0 
-0.08460224035500419 1:4.0 2:1.0 3:2.0 46:1.0 12:1.0 20:1.0 1801:1.0 1476:1.0 357:1.0 119:1.0 
-0.030177731734190753 1:4.0 2:2.0 3:2.0 69:1.0 198:1.0 75:1.0 7040:1.0 4298:1.0 2497:1.0 396:1.0 
-0.037633296832063935 1:3.0 2:1.0 3:2.0 46:1.0 12:1.0 20:1.0 2511:1.0 133:1.0 42612:1.0 83:1.0 
-0.07996965651395203 1:3.0 2:2.0 3:3.0 5:1.0 12:1.0 20:1.0 630:1.0 648:1.0 561:1.0 24:1.0 
-0.08668387983176183 1:2.0 2:1.0 3:1.0 46:1.0 12:1.0 20:1.0 205:1.0 8459:1.0 1656:1.0 119:1.0 
-0.05057537620963803 1:2.0 2:0.0 3:0.0 46:1.0 19:1.0 20:1.0 3628:1.0 180:1.0 8359:1.0 24:1.0 
-0.02612346686591351 1:5.0 2:0.0 3:1.0 125:1.0 27:1.0 75:1.0 42839:1.0 8997:1.0 6169:1.0 24:1.0 
-0.051058371675090475 1:6.0 2:0.0 3:1.0 26:1.0 41:1.0 20:1.0 28:1.0 441:1.0 42841:1.0 24:1.0 
-0.0392126941523545 1:5.0 2:0.0 3:1.0 26:1.0 58:1.0 75:1.0 42:1.0 19013:1.0 938:1.0 24:1.0 
-0.10280884930533613 1:3.0 2:3.0 3:3.0 5:1.0 41:1.0 20:1.0 25:1.0 162:1.0 161:1.0 119:1.0 
-0.08603938787263016 1:3.0 2:0.0 3:1.0 69:1.0 241:1.0 20:1.0 1895:1.0 4624:1.0 745:1.0 83:1.0 
-0.036879118191086434 1:5.0 2:0.0 3:0.0 69:1.0 19:1.0 20:1.0 33630:1.0 34:1.0 1655:1.0 119:1.0 
-0.058798193802875216 1:2.0 2:0.0 3:0.0 69:1.0 19:1.0 20:1.0 33630:1.0 34:1.0 1616:1.0 83:1.0 
-0.12489556442014146 1:2.0 2:0.0 3:1.0 26:1.0 12:1.0 75:1.0 288:1.0 5057:1.0 3300:1.0 24:1.0 
-0.21096369645051993 1:2.0 2:0.0 3:2.0 69:1.0 12:1.0 75:1.0 462:1.0 2781:1.0 4967:1.0 24:1.0 
-0.21923516304059987 1:3.0 2:0.0 3:0.0 26:1.0 241:1.0 20:1.0 42:1.0 13658:1.0 1292:1.0 396:1.0 
-0.09016402696597921 1:2.0 2:0.0 3:0.0 26:1.0 19:1.0 75:1.0 42:1.0 34:1.0 10033:1.0 24:1.0 
-0.04741048006014569 1:3.0 2:0.0 3:0.0 521:1.0 120:1.0 75:1.0 2023:1.0 214:1.0 2841:1.0 24:1.0 
-0.056236779914513486 1:5.0 2:0.0 3:2.0 26:1.0 12:1.0 20:1.0 366:1.0 2406:1.0 1292:1.0 24:1.0 
-0.031753774885009634 1:4.0 2:2.0 3:3.0 166:1.0 41:1.0 20:1.0 167:1.0 162:1.0 2037:1.0 24:1.0 
-0.019607692885416597 1:3.0 2:1.0 3:0.0 46:1.0 198:1.0 75:1.0 32061:1.0 2336:1.0 5144:1.0 24:1.0 
-0.043606811033310676 1:2.0 2:2.0 3:2.0 69:1.0 47:1.0 20:1.0 216:1.0 3133:1.0 3188:1.0 24:1.0 
-0.051124094125358 1:5.0 2:1.0 3:2.0 18:1.0 41:1.0 20:1.0 3209:1.0 86:1.0 376:1.0 119:1.0 
-0.022268749634619 1:6.0 2:0.0 3:2.0 26:1.0 12:1.0 20:1.0 366:1.0 11065:1.0 494:1.0 83:1.0 
-0.13289094224981357 1:3.0 2:0.0 3:1.0 125:1.0 19:1.0 75:1.0 171:1.0 858:1.0 10133:1.0 145:1.0 
-0.020659932544777573 1:5.0 2:0.0 3:0.0 236:1.0 19:1.0 20:1.0 9424:1.0 34:1.0 8080:1.0 83:1.0 
-0.055664359068917764 1:4.0 2:0.0 3:1.0 26:1.0 41:1.0 20:1.0 28:1.0 43:1.0 20604:1.0 145:1.0 
-0.038299538460567224 1:2.0 2:1.0 3:1.0 69:1.0 47:1.0 20:1.0 3142:1.0 3092:1.0 3188:1.0 83:1.0 
-0.10033713519224317 1:2.0 2:2.0 3:1.0 69:1.0 12:1.0 20:1.0 2058:1.0 1990:1.0 10354:1.0 83:1.0 
-0.041952827925353355 1:4.0 2:2.0 3:5.0 5:1.0 41:1.0 20:1.0 409:1.0 628:1.0 9845:1.0 476:1.0 
-0.057538222777962035 1:2.0 2:0.0 3:2.0 26:1.0 12:1.0 20:1.0 265:1.0 4551:1.0 4219:1.0 24:1.0 
-0.08885311800293569 1:3.0 2:0.0 3:0.0 26:1.0 241:1.0 48:1.0 42:1.0 7608:1.0 15189:1.0 79:1.0 
-0.03604340805264082 1:3.0 2:2.0 3:7.0 5:1.0 88:1.0 20:1.0 218:1.0 91:1.0 215:1.0 119:1.0 
-0.07158799486637954 1:3.0 2:0.0 3:0.0 26:1.0 182:1.0 75:1.0 313:1.0 184:1.0 670:1.0 83:1.0 
-0.050142040220687696 1:3.0 2:0.0 3:0.0 272:1.0 261:1.0 20:1.0 274:1.0 6794:1.0 9119:1.0 527:1.0 
-0.12598472795591975 1:5.0 2:1.0 3:0.0 69:1.0 19:1.0 20:1.0 377:1.0 34:1.0 670:1.0 83:1.0 
-0.027819928430066823 1:4.0 2:1.0 3:0.0 5:1.0 19:1.0 75:1.0 250:1.0 858:1.0 7443:1.0 83:1.0 
-0.06859977658157368 1:3.0 2:0.0 3:0.0 125:1.0 517:1.0 20:1.0 5737:1.0 28361:1.0 1230:1.0 24:1.0 
-0.04661581438007834 1:7.0 2:0.0 3:1.0 26:1.0 241:1.0 20:1.0 366:1.0 4589:1.0 8054:1.0 83:1.0 
-0.02541452493965124 1:7.0 2:0.0 3:1.0 26:1.0 241:1.0 20:1.0 42:1.0 5201:1.0 11076:1.0 83:1.0 
-0.10006326309443046 1:5.0 2:1.0 3:0.0 18:1.0 241:1.0 20:1.0 488:1.0 508:1.0 6973:1.0 119:1.0 
-0.11819143834789238 1:3.0 2:0.0 3:0.0 26:1.0 19:1.0 75:1.0 1386:1.0 34:1.0 2841:1.0 24:1.0 
-0.039193651119105964 1:4.0 2:3.0 3:2.0 236:1.0 381:1.0 75:1.0 675:1.0 322:1.0 10346:1.0 24:1.0 
-0.05971770925335788 1:7.0 2:0.0 3:2.0 26:1.0 381:1.0 20:1.0 42:1.0 176:1.0 2450:1.0 24:1.0 
-0.10268511509760207 1:2.0 2:1.0 3:0.0 26:1.0 30:1.0 75:1.0 2148:1.0 2640:1.0 2841:1.0 24:1.0 
-0.048380693405041815 1:3.0 2:0.0 3:0.0 26:1.0 41:1.0 20:1.0 42:1.0 603:1.0 1230:1.0 24:1.0 
-0.04237004185638054 1:2.0 2:0.0 3:1.0 26:1.0 12:1.0 20:1.0 1159:1.0 2159:1.0 424:1.0 83:1.0 
-0.03577477160357782 1:2.0 2:0.0 3:1.0 521:1.0 12:1.0 75:1.0 559:1.0 1619:1.0 10618:1.0 83:1.0 
-0.02672808759756018 1:4.0 2:1.0 3:0.0 46:1.0 12:1.0 75:1.0 2358:1.0 44173:1.0 44172:1.0 119:1.0 
-0.03405870217129728 1:3.0 2:2.0 3:0.0 5:1.0 14:1.0 20:1.0 25:1.0 11571:1.0 3710:1.0 24:1.0 
-0.13999121301882428 1:3.0 2:0.0 3:0.0 26:1.0 12:1.0 20:1.0 42:1.0 44205:1.0 3104:1.0 24:1.0 
-0.056690836022990264 1:2.0 2:2.0 3:0.0 400:1.0 19:1.0 20:1.0 7449:1.0 34:1.0 11718:1.0 476:1.0 
-0.05938152290493207 1:5.0 2:0.0 3:2.0 26:1.0 12:1.0 20:1.0 366:1.0 44249:1.0 9046:1.0 119:1.0 
-0.01981650903598669 1:3.0 2:0.0 3:0.0 69:1.0 241:1.0 75:1.0 5189:1.0 3842:1.0 5606:1.0 24:1.0 
-0.109096485484745 1:3.0 2:0.0 3:0.0 26:1.0 19:1.0 75:1.0 42:1.0 2209:1.0 11426:1.0 24:1.0 
-0.10453824375573342 1:3.0 2:2.0 3:0.0 46:1.0 19:1.0 75:1.0 5208:1.0 34:1.0 5198:1.0 24:1.0 
-0.04791971714318115 1:4.0 2:0.0 3:1.0 69:1.0 241:1.0 20:1.0 4180:1.0 4624:1.0 4823:1.0 83:1.0 
-0.030893831645964785 1:2.0 2:0.0 3:0.0 1238:1.0 19:1.0 20:1.0 1239:1.0 34:1.0 1336:1.0 197:1.0 
-0.03507339974706669 1:3.0 2:0.0 3:3.0 125:1.0 47:1.0 48:1.0 171:1.0 438:1.0 748:1.0 24:1.0 
-0.025305340565007755 1:3.0 2:0.0 3:1.0 26:1.0 241:1.0 20:1.0 366:1.0 1263:1.0 2859:1.0 476:1.0 
-0.03158442427703324 1:4.0 2:1.0 3:2.0 46:1.0 12:1.0 20:1.0 1807:1.0 1873:1.0 2876:1.0 119:1.0 
-0.027478916301340778 1:4.0 2:1.0 3:2.0 276:1.0 790:1.0 20:1.0 2773:1.0 11833:1.0 2048:1.0 24:1.0 
-0.11468743318666684 1:2.0 2:1.0 3:1.0 46:1.0 47:1.0 20:1.0 1344:1.0 31089:1.0 3052:1.0 24:1.0 
-0.07725997200199829 1:4.0 2:0.0 3:2.0 26:1.0 12:1.0 20:1.0 366:1.0 3054:1.0 13689:1.0 24:1.0 
-0.08262373785112546 1:5.0 2:0.0 3:1.0 125:1.0 41:1.0 20:1.0 5160:1.0 43:1.0 3710:1.0 24:1.0 
-0.08485817562963235 1:5.0 2:0.0 3:1.0 69:1.0 41:1.0 20:1.0 8710:1.0 43:1.0 3710:1.0 24:1.0 
-0.07210551100666353 1:4.0 2:1.0 3:0.0 46:1.0 12:1.0 20:1.0 366:1.0 8287:1.0 2925:1.0 24:1.0 
-0.16417463412610367 1:3.0 2:0.0 3:0.0 26:1.0 19:1.0 75:1.0 855:1.0 34:1.0 2841:1.0 24:1.0 
-0.17114243002367635 1:5.0 2:0.0 3:3.0 26:1.0 110:1.0 20:1.0 366:1.0 176:1.0 4203:1.0 476:1.0 
-0.04047487598626715 1:5.0 2:0.0 3:3.0 69:1.0 110:1.0 20:1.0 44767:1.0 176:1.0 4203:1.0 476:1.0 
-0.0625653532893457 1:3.0 2:0.0 3:0.0 26:1.0 182:1.0 20:1.0 366:1.0 1083:1.0 9167:1.0 119:1.0 
-0.11026329095134922 1:2.0 2:0.0 3:0.0 26:1.0 19:1.0 75:1.0 855:1.0 180:1.0 2841:1.0 24:1.0 
-0.03513606751835884 1:3.0 2:1.0 3:0.0 46:1.0 30:1.0 75:1.0 6720:1.0 579:1.0 3052:1.0 24:1.0 
-0.02730132527446703 1:7.0 2:1.0 3:1.0 46:1.0 47:1.0 75:1.0 2157:1.0 10709:1.0 11605:1.0 11:1.0 
-0.009947565762403826 1:7.0 2:5.0 3:1.0 5:1.0 47:1.0 75:1.0 25:1.0 10709:1.0 11605:1.0 11:1.0 
-0.011991490264137926 1:7.0 2:1.0 3:1.0 18:1.0 47:1.0 75:1.0 585:1.0 1999:1.0 11605:1.0 11:1.0 
-0.021642856684302516 1:7.0 2:5.0 3:1.0 5:1.0 47:1.0 75:1.0 25:1.0 1999:1.0 11605:1.0 11:1.0 
-0.025121455151078147 1:7.0 2:1.0 3:1.0 18:1.0 47:1.0 75:1.0 585:1.0 2275:1.0 11605:1.0 11:1.0 
-0.07307501592199936 1:3.0 2:0.0 3:0.0 26:1.0 19:1.0 75:1.0 42:1.0 430:1.0 17918:1.0 24:1.0 
-0.1464240518314564 1:3.0 2:0.0 3:1.0 26:1.0 12:1.0 20:1.0 42:1.0 24747:1.0 4219:1.0 24:1.0 
-0.19121406247680914 1:3.0 2:0.0 3:1.0 26:1.0 41:1.0 20:1.0 42:1.0 43:1.0 818:1.0 24:1.0 
-0.009488718570076209 1:3.0 2:2.0 3:6.0 166:1.0 41:1.0 20:1.0 167:1.0 86:1.0 8090:1.0 83:1.0 
-0.06689713061226256 1:2.0 2:0.0 3:1.0 26:1.0 241:1.0 20:1.0 28:1.0 564:1.0 161:1.0 119:1.0 
-0.10791769848500278 1:4.0 2:0.0 3:2.0 26:1.0 12:1.0 20:1.0 42:1.0 3838:1.0 22478:1.0 24:1.0 
-0.032186420705856894 1:4.0 2:0.0 3:1.0 26:1.0 41:1.0 20:1.0 366:1.0 43:1.0 5574:1.0 119:1.0 
-0.04203324263244415 1:4.0 2:0.0 3:1.0 125:1.0 41:1.0 20:1.0 12075:1.0 43:1.0 5574:1.0 119:1.0 
-0.017208268677147035 1:5.0 2:2.0 3:2.0 125:1.0 41:1.0 75:1.0 10750:1.0 86:1.0 1354:1.0 83:1.0 
-0.05747026533046657 1:4.0 2:0.0 3:1.0 26:1.0 41:1.0 20:1.0 366:1.0 43:1.0 1371:1.0 119:1.0 
-0.09535617415873067 1:4.0 2:0.0 3:1.0 125:1.0 41:1.0 20:1.0 12075:1.0 43:1.0 1371:1.0 119:1.0 
-0.10285881750064266 1:2.0 2:0.0 3:2.0 69:1.0 41:1.0 20:1.0 462:1.0 86:1.0 6498:1.0 24:1.0 
-0.08531036745264352 1:2.0 2:1.0 3:1.0 46:1.0 12:1.0 20:1.0 44792:1.0 6013:1.0 7483:1.0 24:1.0 
-0.023821950403778585 1:7.0 2:2.0 3:5.0 5:1.0 41:1.0 20:1.0 149:1.0 420:1.0 11924:1.0 119:1.0 
-0.125384530738212 1:3.0 2:0.0 3:1.0 26:1.0 41:1.0 20:1.0 366:1.0 43:1.0 21845:1.0 24:1.0 
-0.031967836357108946 1:3.0 2:0.0 3:1.0 125:1.0 41:1.0 20:1.0 311:1.0 43:1.0 21845:1.0 24:1.0 
-0.01649063195146027 1:6.0 2:0.0 3:2.0 26:1.0 12:1.0 20:1.0 366:1.0 2729:1.0 3163:1.0 24:1.0 
-0.030757801193717793 1:3.0 2:1.0 3:0.0 46:1.0 30:1.0 20:1.0 1801:1.0 1319:1.0 2231:1.0 83:1.0 
-0.06766434022940929 1:3.0 2:2.0 3:2.0 5:1.0 41:1.0 20:1.0 434:1.0 86:1.0 3354:1.0 119:1.0 
-0.12395370305667582 1:3.0 2:1.0 3:1.0 46:1.0 47:1.0 20:1.0 207:1.0 2215:1.0 3188:1.0 83:1.0 
-0.08927690344806322 1:4.0 2:0.0 3:1.0 26:1.0 12:1.0 20:1.0 42:1.0 10552:1.0 2032:1.0 24:1.0 
-0.04953876286286514 1:5.0 2:1.0 3:0.0 69:1.0 41:1.0 20:1.0 377:1.0 767:1.0 172:1.0 24:1.0 
-0.13248746459317157 1:2.0 2:1.0 3:1.0 46:1.0 198:1.0 75:1.0 3430:1.0 11907:1.0 10618:1.0 24:1.0 
-0.041567145589748423 1:13.0 2:2.0 3:2.0 67:1.0 58:1.0 75:1.0 2670:1.0 2668:1.0 1937:1.0 11:1.0 
-0.006217575257924997 1:11.0 2:2.0 3:2.0 67:1.0 58:1.0 75:1.0 2670:1.0 2668:1.0 1937:1.0 11:1.0 
-500.0 1:15.0 2:2.0 3:2.0 67:1.0 58:1.0 75:1.0 2670:1.0 2668:1.0 1937:1.0 11:1.0 
-500.0 1:15.0 2:2.0 3:2.0 67:1.0 58:1.0 75:1.0 2670:1.0 2668:1.0 1937:1.0 11:1.0 
-500.0 1:15.0 2:2.0 3:2.0 67:1.0 58:1.0 75:1.0 2670:1.0 2668:1.0 1937:1.0 11:1.0 
-500.0 1:15.0 2:2.0 3:2.0 67:1.0 58:1.0 75:1.0 2670:1.0 2668:1.0 1937:1.0 11:1.0 
-500.0 1:15.0 2:2.0 3:2.0 67:1.0 58:1.0 75:1.0 2670:1.0 2668:1.0 1937:1.0 11:1.0 
-500.0 1:15.0 2:2.0 3:2.0 67:1.0 58:1.0 75:1.0 2670:1.0 2668:1.0 1937:1.0 11:1.0 
-500.0 1:15.0 2:2.0 3:2.0 67:1.0 58:1.0 75:1.0 2670:1.0 2668:1.0 1937:1.0 11:1.0 
-499.86537561541616 1:15.0 2:2.0 3:2.0 67:1.0 58:1.0 75:1.0 2670:1.0 2668:1.0 1937:1.0 11:1.0 
-0.052589175905695576 1:2.0 2:0.0 3:3.0 18:1.0 12:1.0 20:1.0 488:1.0 370:1.0 368:1.0 197:1.0 
-0.036770418620478806 1:2.0 2:0.0 3:3.0 18:1.0 12:1.0 75:1.0 1042:1.0 370:1.0 368:1.0 197:1.0 
-0.01980801265739447 1:2.0 2:0.0 3:2.0 18:1.0 12:1.0 20:1.0 488:1.0 370:1.0 424:1.0 197:1.0 
-0.21973837298166488 1:4.0 2:2.0 3:1.0 69:1.0 12:1.0 75:1.0 419:1.0 178:1.0 3117:1.0 396:1.0 
-0.024408667320247688 1:3.0 2:1.0 3:2.0 166:1.0 41:1.0 20:1.0 167:1.0 162:1.0 5986:1.0 119:1.0 
-0.05010966919978216 1:4.0 2:1.0 3:0.0 69:1.0 241:1.0 20:1.0 377:1.0 4850:1.0 3488:1.0 119:1.0 
-0.04039443855693183 1:3.0 2:0.0 3:2.0 125:1.0 12:1.0 75:1.0 171:1.0 135:1.0 2383:1.0 83:1.0 
-0.08596355853367181 1:3.0 2:1.0 3:0.0 46:1.0 12:1.0 20:1.0 30457:1.0 30497:1.0 3782:1.0 119:1.0 
-0.08512111792785798 1:4.0 2:0.0 3:1.0 18:1.0 12:1.0 75:1.0 1042:1.0 504:1.0 4903:1.0 24:1.0 
-0.03887740529605226 1:4.0 2:0.0 3:0.0 69:1.0 241:1.0 20:1.0 8639:1.0 2567:1.0 5308:1.0 24:1.0 
-0.06258802798874898 1:2.0 2:2.0 3:3.0 5:1.0 41:1.0 20:1.0 25:1.0 86:1.0 10433:1.0 476:1.0 
-0.05515994276214972 1:3.0 2:0.0 3:1.0 46:1.0 30:1.0 75:1.0 1592:1.0 2031:1.0 11605:1.0 24:1.0 
-0.06300980278049127 1:3.0 2:2.0 3:2.0 5:1.0 41:1.0 20:1.0 165:1.0 420:1.0 475:1.0 119:1.0 
-0.19218475272058105 1:4.0 2:1.0 3:0.0 5:1.0 241:1.0 20:1.0 25:1.0 508:1.0 172:1.0 24:1.0 
-0.02180430773909667 1:4.0 2:3.0 3:1.0 69:1.0 41:1.0 20:1.0 829:1.0 86:1.0 172:1.0 24:1.0 
-0.08668295553585953 1:2.0 2:1.0 3:1.0 46:1.0 12:1.0 20:1.0 5491:1.0 504:1.0 1707:1.0 24:1.0 
-0.06382687349302316 1:5.0 2:0.0 3:10.0 26:1.0 381:1.0 20:1.0 366:1.0 176:1.0 1715:1.0 24:1.0 
-0.04785074127431064 1:4.0 2:0.0 3:1.0 26:1.0 241:1.0 20:1.0 366:1.0 1263:1.0 2507:1.0 476:1.0 
-0.10821076954683223 1:5.0 2:0.0 3:1.0 26:1.0 12:1.0 75:1.0 42:1.0 45828:1.0 2841:1.0 119:1.0 
-0.07639850839407988 1:4.0 2:0.0 3:1.0 26:1.0 47:1.0 20:1.0 42:1.0 2477:1.0 2938:1.0 24:1.0 
-0.09390328431387543 1:3.0 2:0.0 3:1.0 26:1.0 241:1.0 20:1.0 366:1.0 2193:1.0 22122:1.0 119:1.0 
-0.004364285091365057 1:7.0 2:0.0 3:7.0 26:1.0 58:1.0 202:1.0 42:1.0 5433:1.0 46547:1.0 119:1.0 
-0.06434064775570396 1:2.0 2:0.0 3:1.0 26:1.0 542:1.0 75:1.0 794:1.0 2775:1.0 5469:1.0 79:1.0 
-0.11027825363466845 1:3.0 2:0.0 3:1.0 46:1.0 12:1.0 75:1.0 3251:1.0 684:1.0 8054:1.0 83:1.0 
-0.11587007797475352 1:4.0 2:1.0 3:0.0 46:1.0 241:1.0 75:1.0 3834:1.0 4062:1.0 7955:1.0 24:1.0 
-0.08317433098208021 1:2.0 2:1.0 3:1.0 46:1.0 12:1.0 20:1.0 46716:1.0 1599:1.0 2938:1.0 24:1.0 
-500.0 1:2.0 2:0.0 3:2.0 125:1.0 47:1.0 20:1.0 9538:1.0 3804:1.0 2293:1.0 24:1.0 
-0.09884997384897398 1:4.0 2:3.0 3:0.0 5:1.0 88:1.0 20:1.0 25:1.0 91:1.0 376:1.0 119:1.0 
-0.08229832037165316 1:3.0 2:0.0 3:1.0 26:1.0 41:1.0 486:1.0 366:1.0 43:1.0 4109:1.0 119:1.0 
-0.05012436262703914 1:4.0 2:0.0 3:0.0 125:1.0 19:1.0 20:1.0 5737:1.0 180:1.0 22596:1.0 396:1.0 
-0.4716983169116535 1:4.0 2:0.0 3:2.0 125:1.0 241:1.0 20:1.0 6791:1.0 11221:1.0 22596:1.0 396:1.0 
-0.19994590811184199 1:3.0 2:0.0 3:0.0 18:1.0 19:1.0 75:1.0 1042:1.0 34:1.0 2841:1.0 24:1.0 
-0.0835087143132643 1:2.0 2:0.0 3:2.0 26:1.0 58:1.0 20:1.0 28:1.0 5623:1.0 3839:1.0 119:1.0 
-0.05565559593829797 1:4.0 2:0.0 3:1.0 26:1.0 19:1.0 20:1.0 366:1.0 410:1.0 1371:1.0 476:1.0 
-0.018119086139291224 1:5.0 2:1.0 3:3.0 5:1.0 231:1.0 20:1.0 149:1.0 1582:1.0 5616:1.0 24:1.0 
-0.054016643149175717 1:4.0 2:0.0 3:0.0 125:1.0 241:1.0 20:1.0 1960:1.0 3159:1.0 1745:1.0 83:1.0 
-0.049715723472266674 1:2.0 2:1.0 3:2.0 46:1.0 12:1.0 48:1.0 47446:1.0 7474:1.0 10770:1.0 24:1.0 
-0.05637721045109645 1:3.0 2:2.0 3:2.0 69:1.0 198:1.0 75:1.0 8670:1.0 1752:1.0 271:1.0 145:1.0 
-0.12084114733865878 1:2.0 2:0.0 3:1.0 46:1.0 47:1.0 20:1.0 2316:1.0 10847:1.0 399:1.0 83:1.0 
-0.022894525859335813 1:2.0 2:0.0 3:3.0 46:1.0 47:1.0 20:1.0 44699:1.0 704:1.0 6982:1.0 24:1.0 
-0.029494736977374973 1:2.0 2:0.0 3:0.0 272:1.0 19:1.0 75:1.0 2909:1.0 430:1.0 3163:1.0 24:1.0 
-0.020567570019243805 1:5.0 2:0.0 3:1.0 87:1.0 41:1.0 20:1.0 5427:1.0 86:1.0 1656:1.0 24:1.0 
-0.13827127731278743 1:3.0 2:2.0 3:2.0 5:1.0 231:1.0 75:1.0 165:1.0 417:1.0 3213:1.0 24:1.0 
-0.015845689810950896 1:7.0 2:1.0 3:0.0 472:1.0 19:1.0 75:1.0 473:1.0 858:1.0 271:1.0 83:1.0 
-0.02814040436940863 1:4.0 2:2.0 3:0.0 69:1.0 19:1.0 20:1.0 111:1.0 34:1.0 131:1.0 119:1.0 
-0.24076014313243768 1:2.0 2:0.0 3:1.0 26:1.0 12:1.0 20:1.0 366:1.0 5174:1.0 424:1.0 24:1.0 
-0.03261814659654636 1:3.0 2:2.0 3:2.0 276:1.0 12:1.0 20:1.0 1074:1.0 2406:1.0 490:1.0 24:1.0 
-0.035699049824078316 1:10.0 2:3.0 3:1.0 5:1.0 30:1.0 75:1.0 25:1.0 2995:1.0 11605:1.0 11:1.0 
-0.014624189713907125 1:10.0 2:3.0 3:3.0 5:1.0 41:1.0 75:1.0 630:1.0 86:1.0 11605:1.0 11:1.0 
-0.037854023191458364 1:10.0 2:1.0 3:3.0 5:1.0 41:1.0 75:1.0 40:1.0 628:1.0 11605:1.0 11:1.0 
-0.09667841652473505 1:3.0 2:2.0 3:1.0 5:1.0 88:1.0 20:1.0 25:1.0 91:1.0 1745:1.0 24:1.0 
-0.03643155170251791 1:5.0 2:0.0 3:2.0 87:1.0 110:1.0 20:1.0 5427:1.0 4153:1.0 3112:1.0 24:1.0 
-0.025599975873175716 1:5.0 2:1.0 3:2.0 69:1.0 110:1.0 20:1.0 2404:1.0 4153:1.0 3112:1.0 24:1.0 
-0.06939371352713243 1:5.0 2:0.0 3:1.0 26:1.0 12:1.0 20:1.0 42:1.0 1319:1.0 33743:1.0 476:1.0 
-0.17216698029783029 1:4.0 2:0.0 3:0.0 125:1.0 41:1.0 20:1.0 679:1.0 524:1.0 5402:1.0 119:1.0 
-0.07428618267629386 1:3.0 2:1.0 3:1.0 69:1.0 47:1.0 75:1.0 377:1.0 3910:1.0 670:1.0 83:1.0 
-0.06624707859867147 1:2.0 2:0.0 3:2.0 125:1.0 12:1.0 75:1.0 361:1.0 669:1.0 670:1.0 83:1.0 
-0.045272348805787004 1:3.0 2:1.0 3:3.0 69:1.0 47:1.0 20:1.0 377:1.0 4206:1.0 414:1.0 83:1.0 
-0.03768162798324277 1:3.0 2:1.0 3:1.0 69:1.0 12:1.0 20:1.0 377:1.0 2018:1.0 414:1.0 83:1.0 
