svm_type c_svc
kernel_type polynomial
degree 2
gamma 0.2
coef0 0.0
nr_class 2
total_sv 110
rho -0.34280695424152324
label 1 -1
nr_sv 72 38
SV
0.08580304546729882 1:3.0 2:2.0 3:1.0 67:1.0 12:1.0 151:1.0 3616:1.0 1583:1.0 440:1.0 119:1.0 
0.1639964869048983 1:3.0 2:0.0 3:0.0 87:1.0 182:1.0 151:1.0 418:1.0 827:1.0 853:1.0 79:1.0 
0.21532696088462594 1:3.0 2:2.0 3:0.0 67:1.0 182:1.0 151:1.0 7301:1.0 827:1.0 853:1.0 79:1.0 
0.021464060422972032 1:2.0 2:0.0 3:2.0 18:1.0 182:1.0 151:1.0 14006:1.0 4046:1.0 853:1.0 2759:1.0 
0.06532239976774004 1:5.0 2:1.0 3:1.0 46:1.0 12:1.0 210:1.0 15920:1.0 133:1.0 212:1.0 24:1.0 
0.05568982164429504 1:3.0 2:1.0 3:1.0 46:1.0 12:1.0 151:1.0 3430:1.0 133:1.0 1098:1.0 476:1.0 
0.058072024151039556 1:3.0 2:1.0 3:1.0 46:1.0 12:1.0 151:1.0 6696:1.0 133:1.0 440:1.0 119:1.0 
0.18815229037939055 1:2.0 2:1.0 3:0.0 69:1.0 47:1.0 151:1.0 5324:1.0 3229:1.0 853:1.0 2759:1.0 
0.045896152669156115 1:2.0 2:4.0 3:1.0 125:1.0 41:1.0 210:1.0 667:1.0 71:1.0 212:1.0 854:1.0 
0.0826377634016579 1:3.0 2:1.0 3:1.0 46:1.0 12:1.0 151:1.0 1344:1.0 133:1.0 2195:1.0 119:1.0 
500.0 1:3.0 2:1.0 3:1.0 573:1.0 12:1.0 151:1.0 574:1.0 133:1.0 440:1.0 24:1.0 
0.10502413923684524 1:3.0 2:3.0 3:1.0 67:1.0 12:1.0 210:1.0 10316:1.0 1583:1.0 212:1.0 24:1.0 
0.08254279042436947 1:2.0 2:4.0 3:1.0 67:1.0 41:1.0 210:1.0 16016:1.0 71:1.0 212:1.0 854:1.0 
0.06864662852499027 1:2.0 2:2.0 3:0.0 67:1.0 47:1.0 151:1.0 720:1.0 16435:1.0 853:1.0 2759:1.0 
0.050382752625320396 1:2.0 2:2.0 3:2.0 69:1.0 182:1.0 151:1.0 2028:1.0 797:1.0 853:1.0 854:1.0 
0.03454919707132943 1:2.0 2:4.0 3:1.0 573:1.0 12:1.0 151:1.0 19284:1.0 133:1.0 853:1.0 2759:1.0 
0.02282620974593695 1:2.0 2:4.0 3:2.0 18:1.0 284:1.0 151:1.0 24200:1.0 4046:1.0 853:1.0 2759:1.0 
0.03247669745858846 1:2.0 2:3.0 3:1.0 69:1.0 41:1.0 151:1.0 17402:1.0 86:1.0 853:1.0 2759:1.0 
0.13097779774205334 1:2.0 2:1.0 3:0.0 69:1.0 182:1.0 151:1.0 377:1.0 356:1.0 853:1.0 2759:1.0 
0.040258309266033666 1:2.0 2:0.0 3:1.0 69:1.0 12:1.0 151:1.0 26833:1.0 1583:1.0 853:1.0 854:1.0 
0.043454710560951085 1:2.0 2:0.0 3:2.0 69:1.0 182:1.0 151:1.0 26836:1.0 4046:1.0 853:1.0 854:1.0 
0.04548077617119295 1:3.0 2:3.0 3:1.0 69:1.0 12:1.0 151:1.0 3184:1.0 133:1.0 153:1.0 83:1.0 
0.1294935092235702 1:2.0 2:2.0 3:1.0 67:1.0 12:1.0 151:1.0 11608:1.0 133:1.0 853:1.0 2759:1.0 
0.012050100219300539 1:4.0 2:0.0 3:1.0 69:1.0 12:1.0 151:1.0 28610:1.0 1583:1.0 440:1.0 24:1.0 
0.05568982081445208 1:3.0 2:1.0 3:1.0 46:1.0 12:1.0 151:1.0 21085:1.0 1583:1.0 440:1.0 24:1.0 
0.33757608280157714 1:2.0 2:1.0 3:0.0 69:1.0 182:1.0 151:1.0 377:1.0 356:1.0 853:1.0 854:1.0 
0.06165058637520218 1:2.0 2:2.0 3:2.0 69:1.0 182:1.0 151:1.0 12202:1.0 797:1.0 853:1.0 854:1.0 
0.0628701493795085 1:2.0 2:3.0 3:2.0 69:1.0 182:1.0 151:1.0 3666:1.0 4046:1.0 1063:1.0 24:1.0 
0.06467526254377504 1:4.0 2:1.0 3:1.0 67:1.0 12:1.0 151:1.0 6461:1.0 2406:1.0 440:1.0 24:1.0 
0.09384798877016086 1:2.0 2:1.0 3:0.0 67:1.0 47:1.0 151:1.0 10556:1.0 2283:1.0 853:1.0 2759:1.0 
0.04345471056095099 1:2.0 2:0.0 3:2.0 69:1.0 182:1.0 151:1.0 32788:1.0 797:1.0 853:1.0 145:1.0 
0.06240643181410007 1:2.0 2:1.0 3:1.0 67:1.0 12:1.0 151:1.0 5663:1.0 133:1.0 853:1.0 2759:1.0 
0.11320301841052915 1:2.0 2:2.0 3:1.0 12196:1.0 12:1.0 151:1.0 12197:1.0 2406:1.0 853:1.0 854:1.0 
0.09826447438731742 1:2.0 2:0.0 3:1.0 69:1.0 12:1.0 151:1.0 35160:1.0 133:1.0 853:1.0 854:1.0 
0.059897428905156355 1:2.0 2:1.0 3:1.0 67:1.0 41:1.0 210:1.0 3053:1.0 71:1.0 212:1.0 854:1.0 
0.11066513590210551 1:2.0 2:2.0 3:1.0 67:1.0 12:1.0 151:1.0 12521:1.0 133:1.0 853:1.0 854:1.0 
0.14084230938183834 1:2.0 2:1.0 3:1.0 67:1.0 12:1.0 151:1.0 6809:1.0 1583:1.0 853:1.0 854:1.0 
0.057866775923574434 1:2.0 2:1.0 3:1.0 69:1.0 12:1.0 151:1.0 11167:1.0 133:1.0 853:1.0 854:1.0 
0.04516531563421776 1:3.0 2:1.0 3:1.0 67:1.0 12:1.0 151:1.0 223:1.0 133:1.0 440:1.0 24:1.0 
0.07722946709473018 1:3.0 2:2.0 3:1.0 67:1.0 12:1.0 151:1.0 12933:1.0 133:1.0 440:1.0 119:1.0 
0.06429426019853221 1:3.0 2:1.0 3:1.0 67:1.0 12:1.0 210:1.0 7686:1.0 2406:1.0 212:1.0 24:1.0 
0.06705748876318632 1:2.0 2:1.0 3:0.0 18:1.0 47:1.0 151:1.0 35428:1.0 8416:1.0 1063:1.0 24:1.0 
0.10332996160208137 1:2.0 2:1.0 3:0.0 67:1.0 47:1.0 151:1.0 9211:1.0 8416:1.0 853:1.0 854:1.0 
0.09595267928876501 1:2.0 2:1.0 3:0.0 67:1.0 47:1.0 151:1.0 5663:1.0 8416:1.0 853:1.0 854:1.0 
0.14416054925041022 1:2.0 2:1.0 3:0.0 573:1.0 47:1.0 151:1.0 24809:1.0 8416:1.0 853:1.0 854:1.0 
0.04618652766528274 1:2.0 2:2.0 3:1.0 69:1.0 12:1.0 151:1.0 11006:1.0 133:1.0 853:1.0 527:1.0 
0.1557857550027604 1:3.0 2:0.0 3:0.0 87:1.0 182:1.0 151:1.0 6304:1.0 827:1.0 153:1.0 119:1.0 
0.12471872417181643 1:2.0 2:4.0 3:0.0 69:1.0 12:1.0 151:1.0 3218:1.0 3249:1.0 1180:1.0 79:1.0 
0.12294051263645937 1:2.0 2:1.0 3:0.0 69:1.0 47:1.0 151:1.0 377:1.0 16435:1.0 1063:1.0 24:1.0 
0.028162390524612224 1:2.0 2:2.0 3:1.0 18:1.0 41:1.0 151:1.0 40462:1.0 71:1.0 853:1.0 2759:1.0 
0.10078663109298935 1:2.0 2:1.0 3:0.0 573:1.0 12:1.0 210:1.0 574:1.0 819:1.0 212:1.0 854:1.0 
0.0674833252237007 1:2.0 2:1.0 3:1.0 69:1.0 12:1.0 151:1.0 377:1.0 1583:1.0 853:1.0 145:1.0 
0.07872265978868766 1:4.0 2:4.0 3:1.0 69:1.0 12:1.0 151:1.0 3508:1.0 133:1.0 10630:1.0 24:1.0 
0.04309426692082215 1:3.0 2:0.0 3:1.0 67:1.0 12:1.0 151:1.0 9214:1.0 2406:1.0 728:1.0 119:1.0 
500.0 1:3.0 2:1.0 3:1.0 573:1.0 12:1.0 151:1.0 574:1.0 133:1.0 440:1.0 24:1.0 
0.04309727461709811 1:2.0 2:0.0 3:1.0 69:1.0 41:1.0 151:1.0 42931:1.0 420:1.0 853:1.0 854:1.0 
0.13209201679456556 1:2.0 2:0.0 3:1.0 69:1.0 41:1.0 210:1.0 42932:1.0 420:1.0 212:1.0 854:1.0 
0.12751507968473816 1:2.0 2:0.0 3:1.0 69:1.0 12:1.0 151:1.0 43174:1.0 1583:1.0 853:1.0 854:1.0 
0.02929625899854775 1:5.0 2:0.0 3:2.0 125:1.0 12:1.0 27171:1.0 4385:1.0 11168:1.0 27172:1.0 3557:1.0 
0.1020459531567505 1:3.0 2:3.0 3:1.0 67:1.0 12:1.0 151:1.0 7895:1.0 133:1.0 436:1.0 119:1.0 
0.044494213150605304 1:4.0 2:1.0 3:0.0 67:1.0 58:1.0 151:1.0 1130:1.0 8416:1.0 440:1.0 145:1.0 
0.017597589932968297 1:3.0 2:0.0 3:1.0 69:1.0 30:1.0 151:1.0 179:1.0 2957:1.0 440:1.0 24:1.0 
0.008266948334240479 1:3.0 2:0.0 3:1.0 67:1.0 12:1.0 151:1.0 3756:1.0 133:1.0 153:1.0 119:1.0 
0.07056271839539978 1:3.0 2:2.0 3:1.0 69:1.0 12:1.0 151:1.0 20140:1.0 133:1.0 440:1.0 24:1.0 
0.052769827988908204 1:2.0 2:1.0 3:0.0 18:1.0 47:1.0 151:1.0 585:1.0 10561:1.0 1063:1.0 24:1.0 
0.013876511627188384 1:2.0 2:5.0 3:2.0 573:1.0 284:1.0 151:1.0 574:1.0 4046:1.0 853:1.0 854:1.0 
0.3691463476573893 1:4.0 2:3.0 3:0.0 67:1.0 182:1.0 151:1.0 407:1.0 3050:1.0 1098:1.0 527:1.0 
0.05601245772544238 1:2.0 2:2.0 3:0.0 69:1.0 182:1.0 151:1.0 377:1.0 356:1.0 853:1.0 2759:1.0 
0.12272963195496647 1:2.0 2:1.0 3:0.0 18:1.0 47:1.0 151:1.0 585:1.0 2125:1.0 853:1.0 854:1.0 
0.15821635099318998 1:4.0 2:2.0 3:1.0 46:1.0 182:1.0 151:1.0 47196:1.0 5341:1.0 1063:1.0 527:1.0 
0.13231726176523276 1:2.0 2:1.0 3:1.0 69:1.0 12:1.0 151:1.0 377:1.0 1583:1.0 1063:1.0 24:1.0 
0.00957164947228986 1:3.0 2:9.0 3:4.0 69:1.0 41:1.0 151:1.0 6672:1.0 367:1.0 1098:1.0 527:1.0 
-0.03454919707132943 1:2.0 2:4.0 3:0.0 67:1.0 182:1.0 151:1.0 2967:1.0 3050:1.0 519:1.0 527:1.0 
-0.09787655877407622 1:5.0 2:2.0 3:1.0 67:1.0 12:1.0 151:1.0 11125:1.0 133:1.0 853:1.0 119:1.0 
-0.29435862845896743 1:3.0 2:1.0 3:1.0 67:1.0 12:1.0 151:1.0 379:1.0 1583:1.0 440:1.0 24:1.0 
-0.05562234250446032 1:4.0 2:1.0 3:0.0 46:1.0 182:1.0 151:1.0 15385:1.0 966:1.0 519:1.0 56:1.0 
-0.06562397952096652 1:3.0 2:2.0 3:0.0 46:1.0 182:1.0 151:1.0 2975:1.0 827:1.0 519:1.0 56:1.0 
-0.10332996160208137 1:2.0 2:3.0 3:0.0 67:1.0 182:1.0 151:1.0 17490:1.0 827:1.0 153:1.0 154:1.0 
-0.37125797033161023 1:2.0 2:1.0 3:0.0 69:1.0 182:1.0 210:1.0 377:1.0 286:1.0 212:1.0 145:1.0 
-0.04516531563421776 1:4.0 2:0.0 3:0.0 69:1.0 182:1.0 151:1.0 6057:1.0 3050:1.0 153:1.0 56:1.0 
-0.18815229037939055 1:2.0 2:0.0 3:0.0 69:1.0 182:1.0 151:1.0 2051:1.0 356:1.0 153:1.0 197:1.0 
-0.22389391581005463 1:2.0 2:0.0 3:0.0 69:1.0 182:1.0 151:1.0 1044:1.0 827:1.0 724:1.0 197:1.0 
-0.16358577103584954 1:2.0 2:1.0 3:0.0 69:1.0 182:1.0 151:1.0 25583:1.0 782:1.0 1098:1.0 154:1.0 
-0.2126065310970961 1:2.0 2:1.0 3:0.0 125:1.0 182:1.0 210:1.0 270:1.0 2162:1.0 212:1.0 145:1.0 
-0.24256073107203374 1:2.0 2:1.0 3:0.0 236:1.0 182:1.0 151:1.0 1880:1.0 5479:1.0 13847:1.0 4418:1.0 
-0.23035649118188298 1:2.0 2:0.0 3:0.0 69:1.0 182:1.0 151:1.0 477:1.0 306:1.0 153:1.0 197:1.0 
-0.13020834368136272 1:3.0 2:3.0 3:1.0 67:1.0 12:1.0 151:1.0 124:1.0 133:1.0 153:1.0 119:1.0 
-0.1294935092235702 1:2.0 2:2.0 3:0.0 46:1.0 542:1.0 151:1.0 3548:1.0 543:1.0 1063:1.0 93:1.0 
-0.2316567965769416 1:3.0 2:2.0 3:1.0 67:1.0 12:1.0 151:1.0 721:1.0 133:1.0 440:1.0 24:1.0 
-0.2598323414499709 1:2.0 2:0.0 3:0.0 69:1.0 182:1.0 151:1.0 8082:1.0 827:1.0 153:1.0 527:1.0 
-0.27521533589771774 1:2.0 2:0.0 3:0.0 46:1.0 542:1.0 151:1.0 2157:1.0 543:1.0 153:1.0 79:1.0 
-0.2545531851519227 1:2.0 2:4.0 3:0.0 67:1.0 182:1.0 151:1.0 3049:1.0 3050:1.0 1098:1.0 527:1.0 
-0.19828906358064918 1:2.0 2:1.0 3:0.0 69:1.0 182:1.0 151:1.0 34261:1.0 356:1.0 1098:1.0 154:1.0 
-0.17600472226383262 1:3.0 2:2.0 3:1.0 166:1.0 41:1.0 151:1.0 167:1.0 71:1.0 853:1.0 527:1.0 
-500.0 1:3.0 2:1.0 3:1.0 573:1.0 12:1.0 151:1.0 574:1.0 133:1.0 440:1.0 24:1.0 
-0.06532239976774004 1:3.0 2:0.0 3:0.0 69:1.0 182:1.0 151:1.0 21981:1.0 20692:1.0 153:1.0 476:1.0 
-0.1776900077980081 1:3.0 2:3.0 3:1.0 69:1.0 12:1.0 151:1.0 4707:1.0 133:1.0 436:1.0 119:1.0 
-0.1049335718098087 1:3.0 2:3.0 3:1.0 125:1.0 12:1.0 151:1.0 679:1.0 1583:1.0 10702:1.0 24:1.0 
-500.0 1:3.0 2:1.0 3:1.0 573:1.0 12:1.0 151:1.0 574:1.0 133:1.0 440:1.0 24:1.0 
-0.13971617257182 1:3.0 2:3.0 3:1.0 46:1.0 12:1.0 151:1.0 11069:1.0 1583:1.0 2195:1.0 24:1.0 
-0.1989143335328779 1:4.0 2:1.0 3:1.0 67:1.0 12:1.0 151:1.0 5495:1.0 1583:1.0 1098:1.0 24:1.0 
-0.27852727243060005 1:3.0 2:2.0 3:1.0 69:1.0 12:1.0 151:1.0 5292:1.0 2406:1.0 519:1.0 24:1.0 
-0.2728009591320626 1:2.0 2:1.0 3:0.0 67:1.0 182:1.0 151:1.0 4383:1.0 839:1.0 153:1.0 154:1.0 
-0.10078663109298935 1:4.0 2:2.0 3:1.0 46:1.0 12:1.0 151:1.0 207:1.0 1583:1.0 1098:1.0 24:1.0 
-0.04837509971389155 1:4.0 2:6.0 3:3.0 67:1.0 284:1.0 151:1.0 581:1.0 410:1.0 969:1.0 56:1.0 
-0.043547579564697056 1:3.0 2:5.0 3:1.0 67:1.0 12:1.0 151:1.0 2246:1.0 1583:1.0 440:1.0 119:1.0 
-0.19591281954267492 1:2.0 2:1.0 3:0.0 5:1.0 182:1.0 151:1.0 25:1.0 22444:1.0 3428:1.0 213:1.0 
-0.04548077617119295 1:3.0 2:5.0 3:1.0 67:1.0 12:1.0 151:1.0 576:1.0 133:1.0 440:1.0 83:1.0 
-0.17523807600200603 1:4.0 2:2.0 3:1.0 69:1.0 12:1.0 151:1.0 3053:1.0 133:1.0 440:1.0 405:1.0 
-0.16667472561204744 1:2.0 2:2.0 3:0.0 67:1.0 182:1.0 151:1.0 3645:1.0 306:1.0 153:1.0 154:1.0 
