svm_type c_svc
kernel_type polynomial
degree 2
gamma 0.2
coef0 0.0
nr_class 2
total_sv 5
rho -1.0111419698469046
label 1 -1
nr_sv 4 1
SV
0.003712979726551924 1:2.0 2:9.0 3:0.0 69:1.0 620:1.0 202:1.0 679:1.0 420:1.0 666:1.0 476:1.0 
0.01103494190723901 1:10.0 2:2.0 3:0.0 69:1.0 620:1.0 94:1.0 8883:1.0 420:1.0 1422:1.0 11:1.0 
0.015382186351447436 1:9.0 2:5.0 3:0.0 46:1.0 620:1.0 7:1.0 11106:1.0 71:1.0 55:1.0 11:1.0 
0.007852991980538153 1:3.0 2:0.0 3:0.0 69:1.0 620:1.0 94:1.0 14614:1.0 2099:1.0 7155:1.0 79:1.0 
-0.03798309996577653 1:8.0 2:4.0 3:0.0 69:1.0 620:1.0 94:1.0 43627:1.0 621:1.0 17319:1.0 11:1.0 
