svm_type c_svc
kernel_type polynomial
degree 2
gamma 0.2
coef0 0.0
nr_class 2
total_sv 321
rho -0.23861918928326994
label 1 -1
nr_sv 226 95
SV
0.024804617258392704 1:3.0 2:0.0 3:3.0 1164:1.0 155:1.0 89:1.0 1384:1.0 156:1.0 1385:1.0 93:1.0 
0.17720183022471486 1:7.0 2:2.0 3:4.0 5:1.0 155:1.0 7:1.0 8:1.0 156:1.0 2355:1.0 197:1.0 
0.048317635232908544 1:2.0 2:1.0 3:4.0 5:1.0 155:1.0 486:1.0 8:1.0 156:1.0 3923:1.0 24:1.0 
0.014634804812809894 1:3.0 2:2.0 3:5.0 5:1.0 14:1.0 89:1.0 8:1.0 4540:1.0 3167:1.0 93:1.0 
0.12672216908760084 1:2.0 2:2.0 3:4.0 5:1.0 155:1.0 89:1.0 8:1.0 156:1.0 4553:1.0 405:1.0 
0.0075515949901839045 1:6.0 2:4.0 3:7.0 5:1.0 155:1.0 7:1.0 3917:1.0 1141:1.0 10:1.0 11:1.0 
0.05067416637134206 1:4.0 2:1.0 3:3.0 87:1.0 155:1.0 126:1.0 716:1.0 156:1.0 332:1.0 129:1.0 
0.01847727697410469 1:5.0 2:2.0 3:5.0 87:1.0 155:1.0 7:1.0 799:1.0 156:1.0 6505:1.0 11:1.0 
0.009480364336782404 1:7.0 2:2.0 3:2.0 5:1.0 381:1.0 7:1.0 2845:1.0 176:1.0 10:1.0 11:1.0 
0.07711313885532939 1:4.0 2:3.0 3:3.0 5:1.0 155:1.0 7:1.0 2845:1.0 156:1.0 2650:1.0 291:1.0 
0.04668920721264564 1:4.0 2:2.0 3:3.0 5:1.0 155:1.0 126:1.0 149:1.0 156:1.0 2010:1.0 129:1.0 
0.02394735381935592 1:6.0 2:0.0 3:1.0 87:1.0 155:1.0 194:1.0 6334:1.0 156:1.0 8665:1.0 56:1.0 
0.005085701256986417 1:8.0 2:2.0 3:4.0 87:1.0 381:1.0 7:1.0 799:1.0 2634:1.0 8815:1.0 11:1.0 
0.00742176983693397 1:6.0 2:2.0 3:4.0 5:1.0 381:1.0 7:1.0 149:1.0 2108:1.0 9676:1.0 11:1.0 
0.1269751599297416 1:3.0 2:3.0 3:3.0 5:1.0 155:1.0 151:1.0 40:1.0 156:1.0 10566:1.0 9770:1.0 
0.08240818192787905 1:3.0 2:2.0 3:3.0 5:1.0 155:1.0 126:1.0 993:1.0 156:1.0 1422:1.0 93:1.0 
0.07634204059689369 1:2.0 2:0.0 3:3.0 46:1.0 155:1.0 89:1.0 8417:1.0 1141:1.0 718:1.0 396:1.0 
0.004455167632241094 1:6.0 2:4.0 3:4.0 400:1.0 381:1.0 151:1.0 2432:1.0 176:1.0 1098:1.0 11:1.0 
0.017278661295672838 1:2.0 2:1.0 3:5.0 46:1.0 155:1.0 89:1.0 13748:1.0 156:1.0 604:1.0 396:1.0 
1.106557887261027 1:7.0 2:2.0 3:3.0 5:1.0 155:1.0 7:1.0 8:1.0 156:1.0 1656:1.0 119:1.0 
0.0099336047269154 1:5.0 2:2.0 3:5.0 87:1.0 155:1.0 7:1.0 799:1.0 156:1.0 682:1.0 11:1.0 
0.009064709612720954 1:6.0 2:0.0 3:7.0 87:1.0 381:1.0 7:1.0 4255:1.0 2324:1.0 3802:1.0 145:1.0 
0.1045073230887862 1:4.0 2:2.0 3:3.0 87:1.0 155:1.0 7:1.0 799:1.0 156:1.0 1032:1.0 119:1.0 
0.1487566429684584 1:4.0 2:0.0 3:6.0 87:1.0 155:1.0 94:1.0 824:1.0 156:1.0 185:1.0 119:1.0 
0.16456723144164434 1:4.0 2:4.0 3:3.0 5:1.0 155:1.0 126:1.0 218:1.0 484:1.0 10:1.0 93:1.0 
0.0024322969128117472 1:4.0 2:0.0 3:13.0 87:1.0 155:1.0 174:1.0 4376:1.0 156:1.0 177:1.0 119:1.0 
0.03426390339362228 1:3.0 2:1.0 3:3.0 69:1.0 155:1.0 89:1.0 419:1.0 156:1.0 10:1.0 93:1.0 
0.21943236934748084 1:2.0 2:0.0 3:2.0 46:1.0 155:1.0 126:1.0 4167:1.0 156:1.0 604:1.0 93:1.0 
0.0164398660017601 1:3.0 2:1.0 3:4.0 69:1.0 155:1.0 7:1.0 1585:1.0 156:1.0 2211:1.0 197:1.0 
0.07026423305896289 1:3.0 2:0.0 3:5.0 87:1.0 155:1.0 202:1.0 824:1.0 156:1.0 332:1.0 396:1.0 
0.009594757580769124 1:5.0 2:1.0 3:4.0 793:1.0 155:1.0 7:1.0 8505:1.0 156:1.0 10:1.0 119:1.0 
0.05790227587623015 1:5.0 2:4.0 3:4.0 5:1.0 155:1.0 7:1.0 8:1.0 156:1.0 3167:1.0 119:1.0 
0.09605697582289757 1:3.0 2:2.0 3:4.0 5:1.0 155:1.0 20:1.0 4118:1.0 156:1.0 18626:1.0 405:1.0 
0.054007617052256277 1:4.0 2:2.0 3:2.0 5:1.0 58:1.0 20:1.0 2845:1.0 18704:1.0 18703:1.0 24:1.0 
0.035327838483178144 1:7.0 2:7.0 3:1.0 5:1.0 27:1.0 7:1.0 1391:1.0 176:1.0 10:1.0 119:1.0 
0.01835089055356391 1:6.0 2:4.0 3:13.0 5:1.0 155:1.0 94:1.0 534:1.0 156:1.0 19076:1.0 197:1.0 
0.00783498815388287 1:10.0 2:7.0 3:5.0 5:1.0 110:1.0 94:1.0 235:1.0 322:1.0 10:1.0 11:1.0 
0.02509952348562347 1:4.0 2:0.0 3:7.0 87:1.0 155:1.0 7:1.0 6032:1.0 156:1.0 3419:1.0 405:1.0 
0.10385660498787962 1:2.0 2:1.0 3:3.0 5:1.0 155:1.0 89:1.0 8:1.0 156:1.0 5021:1.0 93:1.0 
0.03311406453892486 1:2.0 2:1.0 3:4.0 69:1.0 155:1.0 89:1.0 419:1.0 1141:1.0 921:1.0 396:1.0 
0.015386403142644736 1:3.0 2:3.0 3:7.0 69:1.0 155:1.0 89:1.0 679:1.0 156:1.0 3261:1.0 405:1.0 
0.018929872806722377 1:4.0 2:3.0 3:3.0 5:1.0 155:1.0 126:1.0 8:1.0 156:1.0 21240:1.0 93:1.0 
0.015568495994870335 1:6.0 2:2.0 3:3.0 5:1.0 155:1.0 7:1.0 1156:1.0 156:1.0 113:1.0 11:1.0 
0.021286285232364383 1:4.0 2:0.0 3:3.0 87:1.0 155:1.0 7:1.0 7218:1.0 156:1.0 349:1.0 119:1.0 
0.009853327672426578 1:7.0 2:2.0 3:2.0 400:1.0 110:1.0 7:1.0 763:1.0 1272:1.0 134:1.0 11:1.0 
0.015034788331617826 1:2.0 2:4.0 3:4.0 793:1.0 155:1.0 89:1.0 6717:1.0 156:1.0 22481:1.0 291:1.0 
0.042177813294268354 1:4.0 2:1.0 3:3.0 69:1.0 155:1.0 7:1.0 2404:1.0 156:1.0 4430:1.0 197:1.0 
0.008163059427266304 1:6.0 2:1.0 3:3.0 69:1.0 27:1.0 7:1.0 2404:1.0 112:1.0 2211:1.0 11:1.0 
0.060170038737417504 1:5.0 2:0.0 3:3.0 87:1.0 155:1.0 94:1.0 824:1.0 156:1.0 1869:1.0 405:1.0 
0.06902156589202275 1:4.0 2:1.0 3:4.0 5:1.0 155:1.0 7:1.0 40:1.0 1141:1.0 10:1.0 119:1.0 
0.020384392203440137 1:7.0 2:7.0 3:3.0 5:1.0 155:1.0 7:1.0 2845:1.0 1141:1.0 834:1.0 11:1.0 
0.03017806086023694 1:3.0 2:2.0 3:6.0 386:1.0 155:1.0 126:1.0 295:1.0 156:1.0 666:1.0 129:1.0 
0.06964693096876351 1:4.0 2:0.0 3:2.0 793:1.0 155:1.0 94:1.0 10075:1.0 156:1.0 2211:1.0 119:1.0 
0.003511913679852083 1:5.0 2:0.0 3:2.0 87:1.0 155:1.0 7:1.0 3460:1.0 156:1.0 185:1.0 119:1.0 
0.0413574661946459 1:4.0 2:0.0 3:4.0 87:1.0 155:1.0 94:1.0 824:1.0 156:1.0 10:1.0 145:1.0 
0.19611178350547903 1:6.0 2:12.0 3:2.0 5:1.0 155:1.0 7:1.0 534:1.0 156:1.0 10:1.0 11:1.0 
0.018669568006889466 1:3.0 2:2.0 3:4.0 5:1.0 155:1.0 20:1.0 8:1.0 156:1.0 24375:1.0 476:1.0 
0.0247932250647142 1:5.0 2:5.0 3:3.0 5:1.0 155:1.0 7:1.0 434:1.0 156:1.0 4430:1.0 11:1.0 
0.011631523467503473 1:7.0 2:5.0 3:3.0 5:1.0 381:1.0 7:1.0 235:1.0 1072:1.0 4195:1.0 11:1.0 
0.17445417422471252 1:3.0 2:1.0 3:3.0 5:1.0 155:1.0 75:1.0 434:1.0 156:1.0 4351:1.0 527:1.0 
0.11925387702170107 1:4.0 2:3.0 3:1.0 5:1.0 381:1.0 7:1.0 149:1.0 176:1.0 3358:1.0 405:1.0 
0.05485773418905285 1:3.0 2:1.0 3:3.0 67:1.0 155:1.0 126:1.0 2670:1.0 156:1.0 9698:1.0 93:1.0 
0.04082515345089548 1:6.0 2:2.0 3:2.0 87:1.0 155:1.0 7:1.0 799:1.0 156:1.0 2211:1.0 11:1.0 
0.02040690735785558 1:5.0 2:2.0 3:6.0 87:1.0 155:1.0 7:1.0 799:1.0 156:1.0 663:1.0 197:1.0 
0.08725379615032346 1:3.0 2:2.0 3:4.0 5:1.0 155:1.0 126:1.0 1156:1.0 156:1.0 682:1.0 93:1.0 
0.017985646527339093 1:7.0 2:1.0 3:3.0 69:1.0 155:1.0 7:1.0 1585:1.0 1141:1.0 7063:1.0 11:1.0 
0.16600212352637475 1:3.0 2:1.0 3:2.0 5:1.0 155:1.0 89:1.0 8:1.0 156:1.0 921:1.0 396:1.0 
0.015306313369626689 1:5.0 2:0.0 3:9.0 87:1.0 155:1.0 53:1.0 824:1.0 156:1.0 2173:1.0 197:1.0 
0.1489070386946918 1:3.0 2:0.0 3:0.0 87:1.0 14:1.0 89:1.0 7278:1.0 15336:1.0 25802:1.0 93:1.0 
0.022306492067827553 1:5.0 2:0.0 3:7.0 1164:1.0 381:1.0 7:1.0 1384:1.0 15160:1.0 2602:1.0 119:1.0 
0.00662637765231784 1:6.0 2:1.0 3:5.0 46:1.0 381:1.0 7:1.0 15673:1.0 19055:1.0 3488:1.0 11:1.0 
0.039748824855953435 1:6.0 2:2.0 3:3.0 87:1.0 155:1.0 7:1.0 799:1.0 156:1.0 10:1.0 11:1.0 
0.002108720650507427 1:8.0 2:0.0 3:2.0 87:1.0 155:1.0 7:1.0 4469:1.0 1141:1.0 321:1.0 11:1.0 
0.013180590140965393 1:6.0 2:8.0 3:2.0 5:1.0 381:1.0 7:1.0 8:1.0 3754:1.0 23273:1.0 11:1.0 
0.01678727262947942 1:5.0 2:0.0 3:4.0 46:1.0 155:1.0 7:1.0 6968:1.0 156:1.0 535:1.0 119:1.0 
0.0018635743760791234 1:11.0 2:6.0 3:6.0 400:1.0 155:1.0 7:1.0 16985:1.0 1141:1.0 161:1.0 11:1.0 
0.027886162730178677 1:6.0 2:2.0 3:4.0 400:1.0 155:1.0 7:1.0 295:1.0 156:1.0 604:1.0 11:1.0 
0.06075325617160685 1:4.0 2:2.0 3:6.0 5:1.0 155:1.0 75:1.0 8:1.0 156:1.0 161:1.0 24:1.0 
0.006353697150987553 1:3.0 2:5.0 3:8.0 5:1.0 155:1.0 486:1.0 8:1.0 156:1.0 11818:1.0 24:1.0 
0.02724365425145688 1:9.0 2:6.0 3:1.0 328:1.0 182:1.0 94:1.0 4806:1.0 184:1.0 21311:1.0 11:1.0 
0.00981218276473799 1:5.0 2:0.0 3:5.0 87:1.0 155:1.0 94:1.0 824:1.0 156:1.0 28018:1.0 11:1.0 
0.017435529313941732 1:8.0 2:3.0 3:2.0 69:1.0 155:1.0 7:1.0 377:1.0 156:1.0 421:1.0 11:1.0 
0.0707876789541182 1:6.0 2:0.0 3:3.0 87:1.0 155:1.0 126:1.0 824:1.0 156:1.0 6611:1.0 129:1.0 
0.06458789629814543 1:3.0 2:1.0 3:3.0 69:1.0 155:1.0 126:1.0 11095:1.0 156:1.0 55:1.0 129:1.0 
0.04607808004303574 1:6.0 2:2.0 3:2.0 5:1.0 155:1.0 174:1.0 8:1.0 1141:1.0 1486:1.0 11:1.0 
0.004881062859821937 1:4.0 2:1.0 3:7.0 786:1.0 155:1.0 94:1.0 2606:1.0 156:1.0 185:1.0 405:1.0 
0.050484793564441965 1:3.0 2:2.0 3:4.0 5:1.0 155:1.0 202:1.0 485:1.0 156:1.0 12921:1.0 213:1.0 
0.09485318843776805 1:5.0 2:0.0 3:0.0 46:1.0 155:1.0 89:1.0 16527:1.0 1141:1.0 6181:1.0 93:1.0 
0.040882023685115974 1:2.0 2:0.0 3:9.0 87:1.0 155:1.0 126:1.0 824:1.0 156:1.0 5161:1.0 2772:1.0 
0.030928390916285402 1:3.0 2:2.0 3:3.0 5:1.0 155:1.0 126:1.0 8:1.0 156:1.0 1586:1.0 93:1.0 
0.024013453187625978 1:3.0 2:0.0 3:5.0 87:1.0 155:1.0 126:1.0 4489:1.0 156:1.0 10887:1.0 129:1.0 
0.006600158202193099 1:5.0 2:7.0 3:7.0 5:1.0 381:1.0 20:1.0 2845:1.0 1812:1.0 4219:1.0 11:1.0 
8.811880632160298E-4 1:9.0 2:3.0 3:5.0 87:1.0 381:1.0 7:1.0 6717:1.0 7039:1.0 12103:1.0 11:1.0 
0.02218048329672813 1:6.0 2:1.0 3:4.0 46:1.0 155:1.0 7:1.0 6968:1.0 156:1.0 921:1.0 11:1.0 
0.0027197078574438894 1:6.0 2:0.0 3:10.0 87:1.0 231:1.0 7:1.0 2604:1.0 232:1.0 10:1.0 11:1.0 
0.00488713433838064 1:6.0 2:4.0 3:7.0 5:1.0 155:1.0 7:1.0 4118:1.0 156:1.0 10:1.0 11:1.0 
0.11096036608145725 1:3.0 2:3.0 3:3.0 5:1.0 155:1.0 126:1.0 2315:1.0 156:1.0 2284:1.0 93:1.0 
0.10955160136375888 1:7.0 2:2.0 3:0.0 5:1.0 155:1.0 20:1.0 2845:1.0 156:1.0 1941:1.0 11:1.0 
0.008757324321152797 1:5.0 2:3.0 3:5.0 5:1.0 155:1.0 89:1.0 8:1.0 1141:1.0 1875:1.0 11:1.0 
0.010935874184919963 1:7.0 2:0.0 3:10.0 87:1.0 155:1.0 174:1.0 824:1.0 156:1.0 609:1.0 11:1.0 
0.1276510153709762 1:3.0 2:2.0 3:2.0 5:1.0 155:1.0 126:1.0 8:1.0 156:1.0 128:1.0 93:1.0 
0.09488030817013043 1:3.0 2:2.0 3:4.0 5:1.0 155:1.0 126:1.0 40:1.0 156:1.0 2100:1.0 93:1.0 
0.054332887989427286 1:3.0 2:2.0 3:5.0 5:1.0 155:1.0 202:1.0 8:1.0 156:1.0 2873:1.0 396:1.0 
0.101652268818708 1:3.0 2:2.0 3:3.0 5:1.0 155:1.0 202:1.0 149:1.0 156:1.0 3358:1.0 527:1.0 
0.021046013027720543 1:7.0 2:6.0 3:4.0 5:1.0 155:1.0 7:1.0 2845:1.0 156:1.0 25845:1.0 11:1.0 
0.11316792932434994 1:4.0 2:1.0 3:3.0 5:1.0 155:1.0 75:1.0 8:1.0 156:1.0 2430:1.0 24:1.0 
0.007951579038404918 1:5.0 2:0.0 3:3.0 87:1.0 182:1.0 94:1.0 2417:1.0 966:1.0 10:1.0 2772:1.0 
0.007424774067595482 1:7.0 2:2.0 3:5.0 87:1.0 381:1.0 7:1.0 799:1.0 1812:1.0 4307:1.0 291:1.0 
0.019188231543631796 1:5.0 2:3.0 3:6.0 5:1.0 381:1.0 151:1.0 2845:1.0 29:1.0 153:1.0 291:1.0 
0.11374462616263159 1:3.0 2:0.0 3:2.0 87:1.0 155:1.0 202:1.0 4082:1.0 156:1.0 5434:1.0 213:1.0 
0.007637090666825915 1:7.0 2:2.0 3:4.0 400:1.0 155:1.0 7:1.0 295:1.0 156:1.0 32502:1.0 11:1.0 
0.08577326886568967 1:10.0 2:0.0 3:0.0 87:1.0 155:1.0 194:1.0 965:1.0 156:1.0 6504:1.0 56:1.0 
0.032440852741496676 1:5.0 2:3.0 3:3.0 5:1.0 155:1.0 7:1.0 8:1.0 156:1.0 10:1.0 11:1.0 
0.019595019827761406 1:7.0 2:6.0 3:3.0 5:1.0 155:1.0 7:1.0 2845:1.0 1141:1.0 3694:1.0 11:1.0 
0.006950853481129842 1:7.0 2:4.0 3:3.0 400:1.0 110:1.0 7:1.0 6539:1.0 322:1.0 604:1.0 11:1.0 
0.02003610833889318 1:6.0 2:6.0 3:3.0 5:1.0 381:1.0 7:1.0 1391:1.0 176:1.0 188:1.0 11:1.0 
0.07814914996569684 1:3.0 2:2.0 3:3.0 18:1.0 155:1.0 194:1.0 22938:1.0 156:1.0 7559:1.0 405:1.0 
0.08102708334007645 1:5.0 2:2.0 3:3.0 5:1.0 155:1.0 126:1.0 485:1.0 484:1.0 2926:1.0 93:1.0 
0.03520836131731656 1:5.0 2:0.0 3:1.0 87:1.0 155:1.0 7:1.0 5726:1.0 156:1.0 7233:1.0 197:1.0 
0.023084775532061272 1:7.0 2:5.0 3:1.0 276:1.0 155:1.0 94:1.0 34568:1.0 156:1.0 2603:1.0 11:1.0 
0.04101848600030924 1:4.0 2:3.0 3:5.0 5:1.0 155:1.0 202:1.0 534:1.0 484:1.0 33584:1.0 93:1.0 
0.024079764903114885 1:3.0 2:1.0 3:5.0 255:1.0 155:1.0 202:1.0 1581:1.0 156:1.0 34733:1.0 527:1.0 
0.009586557311687482 1:6.0 2:0.0 3:2.0 69:1.0 155:1.0 7:1.0 3674:1.0 156:1.0 2650:1.0 11:1.0 
0.13614722570657367 1:4.0 2:0.0 3:1.0 87:1.0 155:1.0 7:1.0 6032:1.0 156:1.0 188:1.0 197:1.0 
0.3337866337070712 1:2.0 2:0.0 3:2.0 87:1.0 155:1.0 7:1.0 965:1.0 156:1.0 23273:1.0 145:1.0 
0.03259066714579063 1:8.0 2:3.0 3:2.0 87:1.0 155:1.0 7:1.0 2463:1.0 156:1.0 3676:1.0 11:1.0 
0.08637290133068731 1:4.0 2:3.0 3:4.0 5:1.0 155:1.0 7:1.0 8:1.0 1141:1.0 4911:1.0 197:1.0 
0.05331983427492307 1:3.0 2:0.0 3:4.0 87:1.0 155:1.0 151:1.0 20693:1.0 156:1.0 153:1.0 476:1.0 
0.07292701428049742 1:6.0 2:5.0 3:3.0 5:1.0 155:1.0 7:1.0 8:1.0 156:1.0 584:1.0 11:1.0 
0.04660784001607787 1:5.0 2:3.0 3:4.0 400:1.0 155:1.0 7:1.0 295:1.0 156:1.0 185:1.0 291:1.0 
0.02366710836608482 1:3.0 2:1.0 3:4.0 5:1.0 155:1.0 89:1.0 1391:1.0 484:1.0 332:1.0 36541:1.0 
0.011383025893650783 1:6.0 2:1.0 3:3.0 69:1.0 381:1.0 7:1.0 419:1.0 322:1.0 4145:1.0 145:1.0 
0.007532772391305561 1:6.0 2:2.0 3:3.0 5:1.0 155:1.0 7:1.0 165:1.0 156:1.0 5335:1.0 405:1.0 
0.03443221766169701 1:8.0 2:2.0 3:2.0 5:1.0 155:1.0 20:1.0 799:1.0 484:1.0 3919:1.0 476:1.0 
0.009317025018916545 1:7.0 2:3.0 3:5.0 236:1.0 155:1.0 7:1.0 2598:1.0 156:1.0 2211:1.0 11:1.0 
0.0014396853788366556 1:4.0 2:0.0 3:11.0 87:1.0 155:1.0 7:1.0 6717:1.0 156:1.0 28606:1.0 11:1.0 
0.0746876706974102 1:4.0 2:0.0 3:2.0 125:1.0 155:1.0 202:1.0 994:1.0 156:1.0 2622:1.0 145:1.0 
0.16390632094057495 1:2.0 2:0.0 3:2.0 1164:1.0 155:1.0 202:1.0 1384:1.0 156:1.0 3534:1.0 93:1.0 
0.005080861165668821 1:5.0 2:0.0 3:9.0 87:1.0 231:1.0 7:1.0 6717:1.0 232:1.0 217:1.0 145:1.0 
0.015292886661646719 1:7.0 2:12.0 3:6.0 5:1.0 155:1.0 7:1.0 2845:1.0 156:1.0 55:1.0 11:1.0 
0.022324877719933533 1:6.0 2:2.0 3:4.0 87:1.0 155:1.0 7:1.0 799:1.0 156:1.0 38338:1.0 11:1.0 
0.0964359327998883 1:5.0 2:0.0 3:3.0 87:1.0 155:1.0 53:1.0 824:1.0 156:1.0 2760:1.0 11:1.0 
0.05388893107923492 1:7.0 2:7.0 3:4.0 5:1.0 155:1.0 126:1.0 2845:1.0 156:1.0 2010:1.0 119:1.0 
0.01679406930809375 1:6.0 2:0.0 3:10.0 87:1.0 381:1.0 7:1.0 965:1.0 176:1.0 3180:1.0 11:1.0 
0.06748061836389972 1:4.0 2:4.0 3:3.0 5:1.0 182:1.0 7:1.0 4118:1.0 966:1.0 4504:1.0 145:1.0 
0.016090793634110253 1:5.0 2:0.0 3:7.0 87:1.0 27:1.0 53:1.0 824:1.0 906:1.0 7129:1.0 11:1.0 
0.0036930484346829402 1:8.0 2:4.0 3:13.0 236:1.0 155:1.0 7:1.0 3344:1.0 156:1.0 185:1.0 291:1.0 
0.009865354653934549 1:5.0 2:3.0 3:5.0 400:1.0 155:1.0 174:1.0 3490:1.0 156:1.0 970:1.0 11:1.0 
0.014554088731993155 1:6.0 2:1.0 3:5.0 166:1.0 155:1.0 53:1.0 167:1.0 156:1.0 185:1.0 11:1.0 
0.02121756821591668 1:5.0 2:2.0 3:4.0 87:1.0 12:1.0 20:1.0 799:1.0 10553:1.0 834:1.0 119:1.0 
0.10050124774480253 1:5.0 2:2.0 3:2.0 5:1.0 155:1.0 89:1.0 434:1.0 156:1.0 663:1.0 93:1.0 
0.007357368213036765 1:6.0 2:0.0 3:8.0 87:1.0 155:1.0 53:1.0 824:1.0 156:1.0 1270:1.0 11:1.0 
0.11375487686791452 1:4.0 2:2.0 3:2.0 5:1.0 155:1.0 20:1.0 434:1.0 156:1.0 8245:1.0 83:1.0 
0.007096537289787677 1:6.0 2:8.0 3:3.0 5:1.0 27:1.0 53:1.0 8:1.0 176:1.0 10:1.0 11:1.0 
0.06930968800462133 1:4.0 2:2.0 3:2.0 5:1.0 182:1.0 75:1.0 8:1.0 524:1.0 2923:1.0 119:1.0 
0.04285129711965776 1:5.0 2:2.0 3:3.0 5:1.0 155:1.0 20:1.0 165:1.0 156:1.0 161:1.0 119:1.0 
0.043221106337099365 1:5.0 2:1.0 3:2.0 87:1.0 155:1.0 7:1.0 6032:1.0 1141:1.0 39917:1.0 119:1.0 
0.051526771074049516 1:4.0 2:2.0 3:3.0 5:1.0 198:1.0 202:1.0 8:1.0 41658:1.0 550:1.0 527:1.0 
0.09214926835489098 1:3.0 2:3.0 3:3.0 87:1.0 155:1.0 20:1.0 3677:1.0 156:1.0 2147:1.0 24:1.0 
0.05921749259406044 1:3.0 2:0.0 3:3.0 46:1.0 155:1.0 151:1.0 15673:1.0 156:1.0 853:1.0 854:1.0 
4.023760059550647 1:4.0 2:1.0 3:1.0 5:1.0 155:1.0 89:1.0 4118:1.0 156:1.0 682:1.0 93:1.0 
0.22482906792553614 1:2.0 2:1.0 3:2.0 18:1.0 155:1.0 89:1.0 3209:1.0 1141:1.0 55:1.0 396:1.0 
0.007045100794168262 1:4.0 2:2.0 3:5.0 5:1.0 12:1.0 20:1.0 8:1.0 370:1.0 376:1.0 24:1.0 
0.003983179224511149 1:3.0 2:2.0 3:4.0 5:1.0 155:1.0 20:1.0 8:1.0 156:1.0 376:1.0 405:1.0 
0.00492737634390812 1:8.0 2:2.0 3:4.0 400:1.0 155:1.0 7:1.0 295:1.0 156:1.0 55:1.0 119:1.0 
0.0730215986726457 1:6.0 2:4.0 3:4.0 5:1.0 155:1.0 7:1.0 4118:1.0 156:1.0 349:1.0 145:1.0 
0.04596184382907838 1:5.0 2:0.0 3:2.0 87:1.0 155:1.0 126:1.0 824:1.0 484:1.0 321:1.0 119:1.0 
0.09431718489287172 1:3.0 2:2.0 3:3.0 5:1.0 155:1.0 20:1.0 8:1.0 156:1.0 301:1.0 83:1.0 
0.009356066342832581 1:8.0 2:7.0 3:4.0 5:1.0 173:1.0 126:1.0 40:1.0 322:1.0 7310:1.0 11:1.0 
0.0407360708679097 1:4.0 2:2.0 3:3.0 5:1.0 155:1.0 7:1.0 149:1.0 156:1.0 2992:1.0 405:1.0 
0.011737858782581016 1:6.0 2:0.0 3:4.0 87:1.0 155:1.0 53:1.0 824:1.0 156:1.0 10:1.0 11:1.0 
0.014652772146600383 1:4.0 2:0.0 3:6.0 87:1.0 110:1.0 94:1.0 502:1.0 176:1.0 5975:1.0 291:1.0 
0.06048583862033025 1:5.0 2:0.0 3:4.0 87:1.0 155:1.0 53:1.0 824:1.0 156:1.0 2012:1.0 11:1.0 
0.02282520272380364 1:7.0 2:7.0 3:4.0 328:1.0 155:1.0 53:1.0 295:1.0 1141:1.0 10:1.0 11:1.0 
0.027382571682625232 1:6.0 2:1.0 3:1.0 87:1.0 155:1.0 7:1.0 7194:1.0 156:1.0 682:1.0 11:1.0 
0.017488823123509564 1:4.0 2:1.0 3:4.0 87:1.0 155:1.0 89:1.0 296:1.0 156:1.0 9742:1.0 93:1.0 
0.07460990879754564 1:6.0 2:2.0 3:4.0 5:1.0 155:1.0 7:1.0 8:1.0 1141:1.0 10:1.0 11:1.0 
0.013161663939394705 1:3.0 2:1.0 3:4.0 69:1.0 155:1.0 20:1.0 8926:1.0 156:1.0 10940:1.0 83:1.0 
0.03460039428166295 1:7.0 2:3.0 3:3.0 5:1.0 155:1.0 174:1.0 406:1.0 156:1.0 2811:1.0 119:1.0 
0.054042254280953356 1:4.0 2:4.0 3:6.0 5:1.0 155:1.0 7:1.0 235:1.0 484:1.0 16970:1.0 197:1.0 
0.03476448982102703 1:5.0 2:3.0 3:3.0 5:1.0 155:1.0 7:1.0 2845:1.0 156:1.0 1776:1.0 119:1.0 
0.01788759457391969 1:2.0 2:2.0 3:7.0 5:1.0 155:1.0 89:1.0 8:1.0 1141:1.0 188:1.0 197:1.0 
0.01448778792378749 1:6.0 2:0.0 3:7.0 87:1.0 231:1.0 94:1.0 824:1.0 2110:1.0 185:1.0 11:1.0 
0.03781456379830052 1:8.0 2:4.0 3:1.0 87:1.0 155:1.0 7:1.0 6683:1.0 156:1.0 17222:1.0 11:1.0 
0.1853239886981301 1:4.0 2:2.0 3:4.0 793:1.0 155:1.0 575:1.0 3181:1.0 156:1.0 578:1.0 24:1.0 
0.006638525828148244 1:7.0 2:5.0 3:5.0 328:1.0 155:1.0 94:1.0 7877:1.0 484:1.0 4579:1.0 11:1.0 
0.01568370976092536 1:6.0 2:0.0 3:1.0 87:1.0 27:1.0 53:1.0 824:1.0 1812:1.0 1601:1.0 11:1.0 
0.006341279355467359 1:8.0 2:2.0 3:3.0 386:1.0 27:1.0 94:1.0 329:1.0 11387:1.0 188:1.0 11:1.0 
0.0013439653306538853 1:8.0 2:5.0 3:4.0 5:1.0 155:1.0 94:1.0 218:1.0 156:1.0 185:1.0 11:1.0 
0.013333190126238749 1:5.0 2:0.0 3:4.0 87:1.0 27:1.0 94:1.0 824:1.0 176:1.0 10:1.0 119:1.0 
0.050827356505358204 1:4.0 2:0.0 3:2.0 87:1.0 155:1.0 7:1.0 2417:1.0 1141:1.0 3866:1.0 119:1.0 
0.05922227239971638 1:4.0 2:0.0 3:1.0 87:1.0 155:1.0 202:1.0 358:1.0 156:1.0 1677:1.0 396:1.0 
0.06151323872739095 1:5.0 2:2.0 3:3.0 328:1.0 155:1.0 94:1.0 2715:1.0 156:1.0 44226:1.0 119:1.0 
0.028583759712204487 1:4.0 2:1.0 3:3.0 69:1.0 155:1.0 126:1.0 12010:1.0 156:1.0 1372:1.0 93:1.0 
0.014491816541209636 1:4.0 2:1.0 3:4.0 67:1.0 155:1.0 7:1.0 2404:1.0 156:1.0 1213:1.0 11:1.0 
0.019188959359029274 1:9.0 2:6.0 3:2.0 5:1.0 231:1.0 7:1.0 2845:1.0 5505:1.0 22428:1.0 11:1.0 
0.008074958186378196 1:7.0 2:1.0 3:8.0 69:1.0 381:1.0 7:1.0 3674:1.0 11571:1.0 10:1.0 11:1.0 
0.03907902623585014 1:2.0 2:0.0 3:4.0 46:1.0 155:1.0 202:1.0 6968:1.0 156:1.0 604:1.0 396:1.0 
0.052364862269416564 1:4.0 2:2.0 3:5.0 5:1.0 155:1.0 89:1.0 1156:1.0 156:1.0 7155:1.0 93:1.0 
0.0449566576969118 1:5.0 2:2.0 3:4.0 5:1.0 155:1.0 7:1.0 434:1.0 156:1.0 185:1.0 291:1.0 
0.0308260239600006 1:4.0 2:0.0 3:8.0 87:1.0 155:1.0 53:1.0 824:1.0 156:1.0 10:1.0 119:1.0 
0.006249558838681961 1:8.0 2:6.0 3:4.0 5:1.0 381:1.0 7:1.0 2845:1.0 5301:1.0 863:1.0 11:1.0 
0.014261971114673271 1:6.0 2:1.0 3:1.0 69:1.0 155:1.0 7:1.0 419:1.0 156:1.0 682:1.0 11:1.0 
0.05686567174235322 1:4.0 2:5.0 3:5.0 5:1.0 155:1.0 7:1.0 235:1.0 156:1.0 185:1.0 197:1.0 
0.2511365981741389 1:2.0 2:0.0 3:2.0 125:1.0 155:1.0 126:1.0 994:1.0 156:1.0 15312:1.0 129:1.0 
0.002420854355141215 1:7.0 2:5.0 3:5.0 5:1.0 155:1.0 7:1.0 149:1.0 1141:1.0 511:1.0 11:1.0 
0.13291254818899048 1:4.0 2:2.0 3:4.0 5:1.0 155:1.0 575:1.0 8:1.0 156:1.0 578:1.0 24:1.0 
0.07581123916162061 1:4.0 2:1.0 3:2.0 69:1.0 155:1.0 151:1.0 419:1.0 156:1.0 440:1.0 405:1.0 
0.08187354701333505 1:7.0 2:2.0 3:3.0 87:1.0 155:1.0 94:1.0 824:1.0 156:1.0 2204:1.0 11:1.0 
0.03316759767614338 1:4.0 2:5.0 3:4.0 5:1.0 155:1.0 7:1.0 2845:1.0 156:1.0 254:1.0 11:1.0 
0.014759120897163622 1:4.0 2:1.0 3:4.0 276:1.0 155:1.0 126:1.0 2788:1.0 156:1.0 10311:1.0 93:1.0 
0.018318180383784157 1:6.0 2:3.0 3:4.0 5:1.0 155:1.0 7:1.0 534:1.0 1141:1.0 2500:1.0 11:1.0 
0.010440545623333504 1:6.0 2:0.0 3:2.0 87:1.0 155:1.0 53:1.0 824:1.0 1141:1.0 584:1.0 11:1.0 
0.011528244877211968 1:5.0 2:2.0 3:3.0 5:1.0 155:1.0 89:1.0 149:1.0 156:1.0 349:1.0 93:1.0 
0.280902117942101 1:2.0 2:0.0 3:1.0 87:1.0 155:1.0 20:1.0 2264:1.0 156:1.0 741:1.0 527:1.0 
0.03404125967575222 1:6.0 2:2.0 3:3.0 386:1.0 155:1.0 53:1.0 295:1.0 156:1.0 10:1.0 11:1.0 
0.0700145560770918 1:4.0 2:1.0 3:2.0 5:1.0 155:1.0 7:1.0 8:1.0 156:1.0 10:1.0 145:1.0 
0.05467127453113809 1:4.0 2:0.0 3:3.0 46:1.0 155:1.0 20:1.0 8417:1.0 156:1.0 4430:1.0 24:1.0 
0.00939811848628792 1:4.0 2:0.0 3:3.0 87:1.0 155:1.0 53:1.0 7218:1.0 484:1.0 682:1.0 291:1.0 
0.040179871213595036 1:7.0 2:3.0 3:5.0 5:1.0 155:1.0 94:1.0 3917:1.0 156:1.0 185:1.0 11:1.0 
0.025337233762348407 1:6.0 2:3.0 3:3.0 5:1.0 155:1.0 7:1.0 1391:1.0 1141:1.0 1082:1.0 11:1.0 
0.18810528123312162 1:2.0 2:2.0 3:4.0 5:1.0 155:1.0 89:1.0 2845:1.0 156:1.0 3414:1.0 396:1.0 
0.004366779716108234 1:4.0 2:3.0 3:6.0 87:1.0 155:1.0 7:1.0 6717:1.0 1141:1.0 17570:1.0 119:1.0 
0.011906126745688122 1:5.0 2:2.0 3:3.0 18:1.0 155:1.0 202:1.0 24002:1.0 156:1.0 604:1.0 2772:1.0 
0.01862735644412291 1:6.0 2:2.0 3:3.0 400:1.0 155:1.0 7:1.0 2432:1.0 156:1.0 3802:1.0 119:1.0 
0.16472787611330103 1:3.0 2:2.0 3:3.0 5:1.0 155:1.0 89:1.0 149:1.0 156:1.0 4195:1.0 93:1.0 
-0.12433230225577181 1:8.0 2:0.0 3:12.0 87:1.0 155:1.0 94:1.0 824:1.0 156:1.0 185:1.0 11:1.0 
-0.30346318179992465 1:7.0 2:0.0 3:4.0 87:1.0 155:1.0 7:1.0 824:1.0 156:1.0 2355:1.0 197:1.0 
-0.1138680737998708 1:4.0 2:2.0 3:3.0 5:1.0 155:1.0 174:1.0 149:1.0 156:1.0 177:1.0 119:1.0 
-0.06031909641179338 1:3.0 2:2.0 3:1.0 5:1.0 155:1.0 126:1.0 1156:1.0 484:1.0 134:1.0 129:1.0 
-0.0742475998483659 1:9.0 2:3.0 3:4.0 5:1.0 381:1.0 7:1.0 149:1.0 6368:1.0 6361:1.0 11:1.0 
-0.2568597924530631 1:6.0 2:0.0 3:4.0 87:1.0 155:1.0 7:1.0 965:1.0 156:1.0 185:1.0 11:1.0 
-0.003574678568509679 1:10.0 2:2.0 3:3.0 793:1.0 155:1.0 575:1.0 3181:1.0 484:1.0 578:1.0 197:1.0 
-0.18162485708658233 1:8.0 2:9.0 3:6.0 5:1.0 155:1.0 7:1.0 534:1.0 156:1.0 10:1.0 11:1.0 
-0.12139163862764148 1:4.0 2:0.0 3:2.0 87:1.0 241:1.0 194:1.0 4082:1.0 13497:1.0 13496:1.0 476:1.0 
-1.7276846489558388 1:4.0 2:2.0 3:3.0 5:1.0 155:1.0 7:1.0 8:1.0 156:1.0 1656:1.0 119:1.0 
-0.1893971672350611 1:3.0 2:2.0 3:2.0 87:1.0 155:1.0 20:1.0 799:1.0 156:1.0 8575:1.0 24:1.0 
-0.3420238676708244 1:6.0 2:1.0 3:2.0 5:1.0 155:1.0 7:1.0 8:1.0 1141:1.0 10:1.0 197:1.0 
-0.14805772644570528 1:3.0 2:0.0 3:2.0 46:1.0 155:1.0 75:1.0 8417:1.0 156:1.0 7006:1.0 24:1.0 
-0.061072112279636465 1:4.0 2:3.0 3:3.0 5:1.0 155:1.0 53:1.0 3917:1.0 156:1.0 185:1.0 119:1.0 
-0.02366804219448828 1:5.0 2:4.0 3:1.0 5:1.0 155:1.0 202:1.0 2845:1.0 156:1.0 682:1.0 93:1.0 
-0.18917343924278696 1:4.0 2:2.0 3:3.0 5:1.0 155:1.0 202:1.0 8:1.0 156:1.0 2334:1.0 24:1.0 
-0.10625956453098201 1:4.0 2:0.0 3:5.0 1164:1.0 381:1.0 53:1.0 1384:1.0 4153:1.0 1260:1.0 145:1.0 
-0.13438809293621004 1:3.0 2:2.0 3:2.0 5:1.0 155:1.0 126:1.0 235:1.0 484:1.0 55:1.0 129:1.0 
-0.05529942308610509 1:4.0 2:2.0 3:1.0 5:1.0 155:1.0 126:1.0 434:1.0 484:1.0 682:1.0 129:1.0 
-0.03460039428166295 1:6.0 2:4.0 3:3.0 5:1.0 155:1.0 94:1.0 3917:1.0 156:1.0 1073:1.0 11:1.0 
-0.2717117771696519 1:6.0 2:2.0 3:2.0 5:1.0 155:1.0 7:1.0 434:1.0 156:1.0 10:1.0 291:1.0 
-0.12345883513024258 1:3.0 2:2.0 3:4.0 5:1.0 155:1.0 75:1.0 149:1.0 156:1.0 3104:1.0 197:1.0 
-0.22828648387404013 1:3.0 2:0.0 3:4.0 87:1.0 155:1.0 126:1.0 824:1.0 156:1.0 321:1.0 93:1.0 
-0.1502224334396022 1:3.0 2:3.0 3:3.0 5:1.0 155:1.0 20:1.0 149:1.0 156:1.0 244:1.0 197:1.0 
-0.15196192099856426 1:3.0 2:3.0 3:2.0 5:1.0 155:1.0 126:1.0 2845:1.0 156:1.0 5335:1.0 129:1.0 
-0.07216212882336465 1:10.0 2:5.0 3:3.0 5:1.0 155:1.0 7:1.0 2845:1.0 156:1.0 25394:1.0 11:1.0 
-0.1175135980554573 1:3.0 2:0.0 3:2.0 46:1.0 155:1.0 75:1.0 10562:1.0 156:1.0 7006:1.0 24:1.0 
-0.23482093933879575 1:2.0 2:1.0 3:1.0 5:1.0 155:1.0 126:1.0 1391:1.0 156:1.0 16808:1.0 93:1.0 
-0.05825677158447945 1:4.0 2:4.0 3:2.0 5:1.0 155:1.0 7:1.0 8:1.0 484:1.0 10:1.0 291:1.0 
-0.08891400144050748 1:5.0 2:2.0 3:4.0 5:1.0 231:1.0 151:1.0 149:1.0 232:1.0 153:1.0 11:1.0 
-0.1184769637537783 1:5.0 2:0.0 3:1.0 46:1.0 155:1.0 20:1.0 3695:1.0 156:1.0 29298:1.0 24:1.0 
-0.018039768280465145 1:12.0 2:1.0 3:1.0 69:1.0 155:1.0 48:1.0 12376:1.0 156:1.0 22482:1.0 11:1.0 
-0.22689485566589057 1:3.0 2:0.0 3:2.0 87:1.0 155:1.0 53:1.0 3696:1.0 156:1.0 5093:1.0 197:1.0 
-0.06981951374462968 1:7.0 2:0.0 3:0.0 87:1.0 155:1.0 20:1.0 18219:1.0 156:1.0 1941:1.0 11:1.0 
-0.05207732193332471 1:7.0 2:1.0 3:0.0 67:1.0 155:1.0 20:1.0 2404:1.0 156:1.0 1941:1.0 11:1.0 
-0.08249413046722492 1:3.0 2:4.0 3:2.0 236:1.0 155:1.0 20:1.0 3344:1.0 156:1.0 7130:1.0 24:1.0 
-0.12432739007777487 1:3.0 2:2.0 3:6.0 5:1.0 155:1.0 210:1.0 4118:1.0 156:1.0 212:1.0 213:1.0 
-0.1637080105535872 1:4.0 2:2.0 3:2.0 5:1.0 155:1.0 202:1.0 485:1.0 484:1.0 11034:1.0 145:1.0 
-0.0477176813719741 1:7.0 2:3.0 3:3.0 328:1.0 155:1.0 174:1.0 21902:1.0 156:1.0 1273:1.0 11:1.0 
-0.07510487103488428 1:3.0 2:2.0 3:2.0 5:1.0 155:1.0 20:1.0 3917:1.0 156:1.0 741:1.0 396:1.0 
-0.10343720247392843 1:10.0 2:0.0 3:0.0 87:1.0 155:1.0 194:1.0 4469:1.0 156:1.0 6504:1.0 56:1.0 
-0.03042991465656072 1:4.0 2:2.0 3:1.0 5:1.0 155:1.0 89:1.0 218:1.0 484:1.0 3561:1.0 396:1.0 
-0.1519218908689218 1:3.0 2:1.0 3:3.0 87:1.0 155:1.0 89:1.0 187:1.0 156:1.0 8794:1.0 396:1.0 
-0.1716174610012536 1:3.0 2:0.0 3:2.0 46:1.0 155:1.0 75:1.0 6968:1.0 156:1.0 7006:1.0 24:1.0 
-0.16647513564025387 1:4.0 2:1.0 3:3.0 18:1.0 155:1.0 126:1.0 35131:1.0 156:1.0 35129:1.0 93:1.0 
-0.1785341447662577 1:6.0 2:2.0 3:3.0 793:1.0 155:1.0 575:1.0 3181:1.0 484:1.0 578:1.0 24:1.0 
-0.04513429367190713 1:15.0 2:0.0 3:2.0 46:1.0 155:1.0 2222:1.0 4167:1.0 156:1.0 5371:1.0 11:1.0 
-0.19826334635013637 1:4.0 2:2.0 3:7.0 5:1.0 155:1.0 89:1.0 2845:1.0 156:1.0 55:1.0 93:1.0 
-0.2755858595562121 1:4.0 2:0.0 3:1.0 125:1.0 155:1.0 126:1.0 994:1.0 156:1.0 12136:1.0 129:1.0 
-0.0640756513208176 1:4.0 2:8.0 3:3.0 386:1.0 155:1.0 53:1.0 2715:1.0 156:1.0 6193:1.0 119:1.0 
-0.023295128028380924 1:5.0 2:8.0 3:3.0 5:1.0 155:1.0 7:1.0 235:1.0 156:1.0 55:1.0 11:1.0 
-0.00943647457984843 1:3.0 2:3.0 3:1.0 5:1.0 155:1.0 94:1.0 165:1.0 484:1.0 8242:1.0 197:1.0 
-0.09828842386353755 1:7.0 2:0.0 3:5.0 69:1.0 381:1.0 7:1.0 3674:1.0 15160:1.0 24108:1.0 11:1.0 
-0.09492046589783204 1:5.0 2:2.0 3:3.0 5:1.0 155:1.0 575:1.0 799:1.0 484:1.0 578:1.0 24:1.0 
-0.05159505565610707 1:5.0 2:7.0 3:4.0 5:1.0 381:1.0 151:1.0 2845:1.0 176:1.0 153:1.0 11:1.0 
-0.0758251482466119 1:3.0 2:2.0 3:2.0 5:1.0 155:1.0 89:1.0 8:1.0 484:1.0 1601:1.0 93:1.0 
-0.21951956189260916 1:6.0 2:2.0 3:1.0 5:1.0 155:1.0 7:1.0 8:1.0 156:1.0 188:1.0 11:1.0 
-0.07554911093756575 1:8.0 2:2.0 3:3.0 5:1.0 155:1.0 575:1.0 8:1.0 484:1.0 578:1.0 476:1.0 
-0.07985871349579823 1:3.0 2:1.0 3:5.0 69:1.0 41:1.0 3555:1.0 419:1.0 86:1.0 3556:1.0 197:1.0 
-0.1276510153709762 1:3.0 2:2.0 3:3.0 5:1.0 155:1.0 75:1.0 8:1.0 156:1.0 123:1.0 24:1.0 
-0.036142825285992365 1:4.0 2:8.0 3:2.0 5:1.0 155:1.0 7:1.0 235:1.0 156:1.0 3676:1.0 11:1.0 
-0.07366649193947819 1:3.0 2:5.0 3:1.0 166:1.0 155:1.0 126:1.0 167:1.0 156:1.0 10008:1.0 129:1.0 
-0.22880352635070053 1:3.0 2:2.0 3:3.0 5:1.0 155:1.0 126:1.0 40:1.0 156:1.0 19665:1.0 129:1.0 
-0.09117164743109647 1:5.0 2:2.0 3:0.0 5:1.0 155:1.0 151:1.0 2845:1.0 156:1.0 1063:1.0 527:1.0 
-0.07330375318726105 1:3.0 2:2.0 3:8.0 5:1.0 155:1.0 75:1.0 8:1.0 156:1.0 580:1.0 24:1.0 
-0.056089220965719784 1:2.0 2:2.0 3:2.0 5:1.0 155:1.0 89:1.0 4118:1.0 484:1.0 8474:1.0 93:1.0 
-0.1589985118168329 1:3.0 2:1.0 3:1.0 69:1.0 155:1.0 89:1.0 419:1.0 484:1.0 37262:1.0 93:1.0 
-3.7811742536132185 1:4.0 2:2.0 3:1.0 5:1.0 155:1.0 89:1.0 4118:1.0 156:1.0 682:1.0 93:1.0 
-0.05672248897183245 1:3.0 2:2.0 3:1.0 5:1.0 155:1.0 126:1.0 9450:1.0 156:1.0 6459:1.0 93:1.0 
-0.1162500486197641 1:4.0 2:3.0 3:2.0 5:1.0 155:1.0 20:1.0 40:1.0 156:1.0 4219:1.0 24:1.0 
-0.03549845834439937 1:3.0 2:3.0 3:1.0 5:1.0 155:1.0 126:1.0 2315:1.0 484:1.0 682:1.0 129:1.0 
-0.3348328646504157 1:2.0 2:0.0 3:1.0 87:1.0 155:1.0 89:1.0 4489:1.0 484:1.0 682:1.0 93:1.0 
-0.022272684504749354 1:5.0 2:9.0 3:2.0 5:1.0 155:1.0 7:1.0 1391:1.0 484:1.0 9327:1.0 11:1.0 
-0.08222572487286972 1:5.0 2:3.0 3:5.0 5:1.0 155:1.0 126:1.0 534:1.0 156:1.0 349:1.0 93:1.0 
-0.057172519797897454 1:3.0 2:3.0 3:1.0 5:1.0 155:1.0 20:1.0 8:1.0 156:1.0 8972:1.0 24:1.0 
-0.1142750248704103 1:7.0 2:0.0 3:6.0 87:1.0 155:1.0 7:1.0 824:1.0 156:1.0 604:1.0 11:1.0 
-0.07339761804094472 1:8.0 2:4.0 3:3.0 400:1.0 155:1.0 7:1.0 295:1.0 156:1.0 17387:1.0 11:1.0 
-0.12828414066854466 1:4.0 2:3.0 3:5.0 87:1.0 155:1.0 7:1.0 799:1.0 156:1.0 7063:1.0 197:1.0 
-0.03726939842791702 1:4.0 2:3.0 3:5.0 400:1.0 155:1.0 7:1.0 1326:1.0 156:1.0 7063:1.0 197:1.0 
-0.05481659229948975 1:3.0 2:4.0 3:5.0 5:1.0 155:1.0 202:1.0 534:1.0 156:1.0 3800:1.0 93:1.0 
-0.08507856557333372 1:3.0 2:2.0 3:1.0 386:1.0 155:1.0 126:1.0 21896:1.0 156:1.0 682:1.0 129:1.0 
-0.10098941046420574 1:2.0 2:4.0 3:1.0 793:1.0 155:1.0 53:1.0 794:1.0 484:1.0 682:1.0 145:1.0 
-0.008135309616269827 1:4.0 2:3.0 3:1.0 5:1.0 155:1.0 126:1.0 534:1.0 484:1.0 4328:1.0 2772:1.0 
-0.08031371685809598 1:2.0 2:7.0 3:1.0 328:1.0 155:1.0 75:1.0 1092:1.0 156:1.0 44836:1.0 145:1.0 
-0.17212299310000265 1:3.0 2:2.0 3:4.0 5:1.0 155:1.0 89:1.0 1156:1.0 156:1.0 161:1.0 93:1.0 
-0.110697743361718 1:4.0 2:2.0 3:3.0 5:1.0 182:1.0 89:1.0 8:1.0 2571:1.0 2010:1.0 93:1.0 
-0.3799986057038171 1:3.0 2:1.0 3:1.0 5:1.0 155:1.0 89:1.0 8:1.0 156:1.0 12461:1.0 93:1.0 
-0.04115103569923266 1:6.0 2:3.0 3:3.0 5:1.0 155:1.0 575:1.0 165:1.0 484:1.0 578:1.0 24:1.0 
-0.09219124013228257 1:3.0 2:2.0 3:1.0 5:1.0 155:1.0 126:1.0 40:1.0 156:1.0 13234:1.0 93:1.0 
-0.14204722489486743 1:4.0 2:1.0 3:6.0 87:1.0 155:1.0 151:1.0 6032:1.0 156:1.0 1063:1.0 527:1.0 
-0.030616960499994326 1:6.0 2:5.0 3:1.0 328:1.0 155:1.0 53:1.0 4329:1.0 156:1.0 321:1.0 11:1.0 
-0.03775144734421839 1:5.0 2:4.0 3:7.0 5:1.0 381:1.0 151:1.0 149:1.0 3763:1.0 519:1.0 11:1.0 
-0.008264975811635131 1:3.0 2:6.0 3:1.0 46:1.0 155:1.0 202:1.0 6968:1.0 156:1.0 682:1.0 93:1.0 
-0.05525408152389806 1:2.0 2:2.0 3:6.0 5:1.0 155:1.0 48:1.0 8:1.0 6874:1.0 3085:1.0 24:1.0 
-0.19862829204666307 1:2.0 2:0.0 3:2.0 87:1.0 155:1.0 48:1.0 18219:1.0 6874:1.0 3085:1.0 145:1.0 
