svm_type c_svc
kernel_type polynomial
degree 2
gamma 0.2
coef0 0.0
nr_class 2
total_sv 364
rho -0.9447972623413875
label 1 -1
nr_sv 318 46
SV
0.025798204135400796 1:3.0 2:3.0 3:1.0 5:1.0 29:1.0 143:1.0 66:1.0 140:1.0 141:1.0 11:1.0 68:1.0 
0.013028489596024173 1:3.0 2:3.0 3:2.0 5:1.0 29:1.0 713:1.0 179:1.0 715:1.0 160:1.0 535:1.0 178:1.0 
0.021535386574209472 1:4.0 2:4.0 3:2.0 5:1.0 188:1.0 544:1.0 542:1.0 3650:1.0 141:1.0 205:1.0 102:1.0 
0.025360798094204495 1:2.0 2:1.0 3:0.0 71:1.0 639:1.0 2991:1.0 2874:1.0 1094:1.0 160:1.0 76:1.0 178:1.0 
0.051269936278109676 1:2.0 2:1.0 3:0.0 74:1.0 639:1.0 2293:1.0 2874:1.0 5745:1.0 160:1.0 76:1.0 642:1.0 
0.12489409666820621 1:2.0 2:0.0 3:0.0 403:1.0 6125:1.0 908:1.0 6126:1.0 206:1.0 141:1.0 76:1.0 469:1.0 
0.014650930514648556 1:2.0 2:2.0 3:2.0 5:1.0 13:1.0 2696:1.0 147:1.0 1115:1.0 141:1.0 11:1.0 68:1.0 
0.006492595254775015 1:5.0 2:4.0 3:3.0 181:1.0 218:1.0 182:1.0 490:1.0 4715:1.0 100:1.0 205:1.0 102:1.0 
0.021139009706702443 1:4.0 2:2.0 3:0.0 131:1.0 6:1.0 196:1.0 8:1.0 2164:1.0 129:1.0 76:1.0 12:1.0 
0.024008845780103906 1:4.0 2:2.0 3:7.0 131:1.0 79:1.0 196:1.0 1155:1.0 2164:1.0 129:1.0 76:1.0 172:1.0 
0.011016644323383352 1:4.0 2:0.0 3:0.0 77:1.0 43:1.0 78:1.0 44:1.0 336:1.0 100:1.0 42:1.0 12:1.0 
0.004082550263870191 1:4.0 2:3.0 3:0.0 74:1.0 51:1.0 5535:1.0 8390:1.0 1513:1.0 100:1.0 76:1.0 68:1.0 
0.03202124880641048 1:2.0 2:1.0 3:3.0 74:1.0 13:1.0 706:1.0 2290:1.0 2233:1.0 306:1.0 73:1.0 65:1.0 
0.010663461886875 1:5.0 2:0.0 3:6.0 74:1.0 13:1.0 2410:1.0 2560:1.0 744:1.0 10:1.0 76:1.0 65:1.0 
0.010535253350734406 1:5.0 2:2.0 3:0.0 5:1.0 435:1.0 7:1.0 9448:1.0 552:1.0 10:1.0 11:1.0 65:1.0 
0.06244756145719795 1:5.0 2:0.0 3:0.0 77:1.0 6:1.0 78:1.0 8:1.0 2119:1.0 232:1.0 42:1.0 12:1.0 
0.037426755243860035 1:2.0 2:4.0 3:1.0 74:1.0 51:1.0 7810:1.0 3798:1.0 624:1.0 100:1.0 76:1.0 68:1.0 
0.012067817923092859 1:6.0 2:3.0 3:0.0 398:1.0 307:1.0 4396:1.0 6572:1.0 3336:1.0 10:1.0 86:1.0 12:1.0 
0.018027456154549246 1:6.0 2:3.0 3:0.0 398:1.0 19:1.0 4396:1.0 20:1.0 3336:1.0 10:1.0 86:1.0 12:1.0 
0.010029395898686925 1:3.0 2:0.0 3:2.0 48:1.0 29:1.0 49:1.0 66:1.0 10210:1.0 100:1.0 42:1.0 46:1.0 
0.0711245820347046 1:2.0 2:3.0 3:1.0 74:1.0 96:1.0 350:1.0 98:1.0 2899:1.0 141:1.0 76:1.0 102:1.0 
0.05801924456149317 1:4.0 2:5.0 3:0.0 71:1.0 19:1.0 2956:1.0 20:1.0 2348:1.0 129:1.0 76:1.0 12:1.0 
0.01001171875463108 1:3.0 2:8.0 3:5.0 5:1.0 96:1.0 655:1.0 98:1.0 1593:1.0 141:1.0 205:1.0 590:1.0 
0.0620346245812661 1:2.0 2:1.0 3:2.0 5:1.0 96:1.0 808:1.0 98:1.0 685:1.0 100:1.0 183:1.0 590:1.0 
0.010662554987816757 1:4.0 2:0.0 3:2.0 48:1.0 29:1.0 49:1.0 66:1.0 4457:1.0 141:1.0 42:1.0 68:1.0 
0.002662887294369276 1:5.0 2:6.0 3:3.0 181:1.0 218:1.0 182:1.0 389:1.0 345:1.0 141:1.0 5161:1.0 102:1.0 
0.016394958221226687 1:2.0 2:4.0 3:1.0 5:1.0 272:1.0 279:1.0 1791:1.0 7389:1.0 141:1.0 76:1.0 68:1.0 
0.024466510030565013 1:2.0 2:4.0 3:3.0 5:1.0 29:1.0 165:1.0 543:1.0 387:1.0 100:1.0 205:1.0 102:1.0 
0.001785265930931414 1:2.0 2:9.0 3:2.0 74:1.0 29:1.0 13383:1.0 382:1.0 206:1.0 141:1.0 76:1.0 68:1.0 
0.008177595850468547 1:7.0 2:3.0 3:1.0 181:1.0 218:1.0 182:1.0 2390:1.0 5347:1.0 100:1.0 183:1.0 102:1.0 
0.054306135286640037 1:2.0 2:0.0 3:0.0 631:1.0 6125:1.0 334:1.0 12002:1.0 4163:1.0 141:1.0 634:1.0 65:1.0 
0.03251196490289121 1:4.0 2:4.0 3:3.0 5:1.0 79:1.0 312:1.0 499:1.0 9:1.0 100:1.0 86:1.0 172:1.0 
0.011321397242695286 1:3.0 2:4.0 3:2.0 5:1.0 29:1.0 808:1.0 66:1.0 2107:1.0 100:1.0 183:1.0 68:1.0 
0.006491823133447128 1:2.0 2:6.0 3:1.0 74:1.0 96:1.0 9399:1.0 98:1.0 3814:1.0 100:1.0 76:1.0 102:1.0 
0.011192043340244574 1:5.0 2:0.0 3:0.0 37:1.0 435:1.0 39:1.0 895:1.0 363:1.0 10:1.0 42:1.0 15:1.0 
0.06328726070090045 1:2.0 2:0.0 3:0.0 318:1.0 13:1.0 6575:1.0 6008:1.0 15441:1.0 141:1.0 42:1.0 65:1.0 
0.028164505718733312 1:2.0 2:0.0 3:3.0 318:1.0 31:1.0 793:1.0 1583:1.0 552:1.0 100:1.0 42:1.0 65:1.0 
0.015394266280899118 1:3.0 2:4.0 3:2.0 34:1.0 29:1.0 4648:1.0 246:1.0 148:1.0 141:1.0 76:1.0 102:1.0 
0.00731506591153692 1:5.0 2:1.0 3:3.0 5:1.0 62:1.0 713:1.0 16565:1.0 16564:1.0 100:1.0 535:1.0 65:1.0 
0.008747747156772786 1:5.0 2:1.0 3:3.0 5:1.0 29:1.0 713:1.0 45:1.0 16564:1.0 100:1.0 535:1.0 102:1.0 
0.008837087818993476 1:4.0 2:6.0 3:8.0 181:1.0 29:1.0 182:1.0 66:1.0 363:1.0 100:1.0 782:1.0 102:1.0 
0.05099290986066654 1:2.0 2:0.0 3:1.0 74:1.0 13:1.0 1144:1.0 2560:1.0 744:1.0 232:1.0 76:1.0 65:1.0 
0.07999594180920866 1:2.0 2:1.0 3:1.0 5:1.0 62:1.0 1191:1.0 10387:1.0 419:1.0 100:1.0 86:1.0 65:1.0 
0.003486154519328191 1:3.0 2:6.0 3:0.0 92:1.0 6:1.0 8460:1.0 8:1.0 9:1.0 100:1.0 142:1.0 12:1.0 
0.019193252147118013 1:2.0 2:1.0 3:1.0 5:1.0 13:1.0 969:1.0 2420:1.0 685:1.0 141:1.0 205:1.0 68:1.0 
0.012910696946064226 1:4.0 2:9.0 3:5.0 5:1.0 218:1.0 1191:1.0 389:1.0 9:1.0 100:1.0 86:1.0 102:1.0 
0.043811692606015196 1:2.0 2:1.0 3:1.0 5:1.0 13:1.0 7:1.0 2420:1.0 1336:1.0 141:1.0 11:1.0 68:1.0 
0.047149406300794165 1:4.0 2:0.0 3:1.0 48:1.0 29:1.0 49:1.0 66:1.0 6682:1.0 100:1.0 42:1.0 68:1.0 
0.00921602286684852 1:4.0 2:2.0 3:1.0 181:1.0 218:1.0 182:1.0 2390:1.0 11983:1.0 141:1.0 183:1.0 68:1.0 
0.023165880499481584 1:3.0 2:2.0 3:2.0 181:1.0 218:1.0 182:1.0 2620:1.0 9118:1.0 141:1.0 183:1.0 68:1.0 
0.026825854983191146 1:2.0 2:2.0 3:1.0 5:1.0 13:1.0 8916:1.0 1589:1.0 4363:1.0 141:1.0 183:1.0 68:1.0 
0.011700938628010558 1:2.0 2:2.0 3:2.0 5:1.0 29:1.0 808:1.0 647:1.0 3013:1.0 100:1.0 11:1.0 102:1.0 
0.02684403057069977 1:3.0 2:4.0 3:0.0 5:1.0 6:1.0 438:1.0 8:1.0 17470:1.0 141:1.0 205:1.0 12:1.0 
0.00710855668732402 1:3.0 2:4.0 3:5.0 5:1.0 200:1.0 438:1.0 256:1.0 17470:1.0 141:1.0 205:1.0 172:1.0 
0.005003473554754357 1:2.0 2:5.0 3:1.0 74:1.0 29:1.0 394:1.0 238:1.0 4988:1.0 141:1.0 76:1.0 68:1.0 
0.01975165530793918 1:5.0 2:2.0 3:1.0 5:1.0 121:1.0 184:1.0 1549:1.0 18310:1.0 100:1.0 205:1.0 65:1.0 
0.023662757620237992 1:2.0 2:1.0 3:1.0 398:1.0 13:1.0 18884:1.0 7658:1.0 9:1.0 141:1.0 535:1.0 489:1.0 
0.05688713669500593 1:2.0 2:1.0 3:0.0 74:1.0 639:1.0 7037:1.0 451:1.0 3816:1.0 141:1.0 76:1.0 642:1.0 
0.007202845531648555 1:2.0 2:5.0 3:2.0 74:1.0 96:1.0 3010:1.0 98:1.0 6660:1.0 100:1.0 76:1.0 102:1.0 
0.037546875178276554 1:2.0 2:1.0 3:0.0 5:1.0 51:1.0 143:1.0 8390:1.0 7298:1.0 141:1.0 86:1.0 68:1.0 
0.022539120518558723 1:2.0 2:4.0 3:2.0 5:1.0 188:1.0 184:1.0 542:1.0 2300:1.0 100:1.0 205:1.0 102:1.0 
0.03526662712670429 1:2.0 2:0.0 3:2.0 125:1.0 29:1.0 1048:1.0 256:1.0 3650:1.0 100:1.0 76:1.0 102:1.0 
0.013272534694797966 1:2.0 2:4.0 3:0.0 74:1.0 218:1.0 5881:1.0 2235:1.0 336:1.0 141:1.0 76:1.0 130:1.0 
0.032658573787743644 1:2.0 2:1.0 3:0.0 5:1.0 13:1.0 165:1.0 9462:1.0 1101:1.0 100:1.0 205:1.0 68:1.0 
0.04227485339974546 1:2.0 2:2.0 3:3.0 5:1.0 29:1.0 184:1.0 246:1.0 2119:1.0 141:1.0 183:1.0 68:1.0 
0.012758676768285567 1:2.0 2:5.0 3:1.0 34:1.0 29:1.0 504:1.0 383:1.0 702:1.0 100:1.0 76:1.0 68:1.0 
0.016133132173006 1:2.0 2:2.0 3:1.0 5:1.0 13:1.0 655:1.0 9905:1.0 6139:1.0 141:1.0 205:1.0 68:1.0 
0.01469555542717898 1:3.0 2:3.0 3:0.0 221:1.0 6:1.0 20323:1.0 8:1.0 1430:1.0 141:1.0 380:1.0 12:1.0 
0.02318142064933385 1:3.0 2:0.0 3:0.0 318:1.0 57:1.0 793:1.0 59:1.0 552:1.0 141:1.0 42:1.0 12:1.0 
0.035999954709668255 1:3.0 2:0.0 3:2.0 318:1.0 121:1.0 793:1.0 193:1.0 552:1.0 141:1.0 42:1.0 65:1.0 
0.0012695902087125784 1:9.0 2:0.0 3:1.0 77:1.0 13:1.0 78:1.0 1238:1.0 9675:1.0 10:1.0 42:1.0 65:1.0 
0.0330229800271787 1:2.0 2:4.0 3:0.0 74:1.0 51:1.0 9327:1.0 4174:1.0 21078:1.0 141:1.0 76:1.0 68:1.0 
0.04265613399710864 1:2.0 2:1.0 3:1.0 34:1.0 29:1.0 1840:1.0 1177:1.0 203:1.0 100:1.0 76:1.0 68:1.0 
0.007981804966642959 1:2.0 2:6.0 3:1.0 74:1.0 96:1.0 21263:1.0 98:1.0 3814:1.0 141:1.0 76:1.0 102:1.0 
0.03887003190784163 1:2.0 2:4.0 3:3.0 5:1.0 96:1.0 655:1.0 98:1.0 851:1.0 100:1.0 205:1.0 130:1.0 
0.0305693075366902 1:2.0 2:1.0 3:1.0 74:1.0 51:1.0 3819:1.0 7398:1.0 1954:1.0 100:1.0 76:1.0 130:1.0 
0.03674122777466106 1:3.0 2:1.0 3:1.0 5:1.0 62:1.0 143:1.0 7445:1.0 5102:1.0 160:1.0 205:1.0 65:1.0 
0.03165577973626946 1:2.0 2:2.0 3:2.0 5:1.0 29:1.0 334:1.0 648:1.0 9:1.0 100:1.0 142:1.0 102:1.0 
0.07514495487990083 1:3.0 2:0.0 3:0.0 48:1.0 435:1.0 4374:1.0 9290:1.0 1529:1.0 141:1.0 42:1.0 65:1.0 
0.013303142241151708 1:4.0 2:0.0 3:2.0 318:1.0 191:1.0 1450:1.0 1783:1.0 9:1.0 216:1.0 42:1.0 172:1.0 
0.020913974058625547 1:4.0 2:0.0 3:0.0 77:1.0 435:1.0 78:1.0 9290:1.0 3336:1.0 423:1.0 42:1.0 65:1.0 
0.009144124764013214 1:3.0 2:6.0 3:0.0 74:1.0 43:1.0 156:1.0 44:1.0 203:1.0 141:1.0 76:1.0 12:1.0 
0.03016865690819208 1:2.0 2:1.0 3:1.0 221:1.0 29:1.0 8482:1.0 420:1.0 624:1.0 141:1.0 380:1.0 68:1.0 
0.09251769698208237 1:2.0 2:1.0 3:1.0 5:1.0 13:1.0 438:1.0 147:1.0 2119:1.0 141:1.0 205:1.0 68:1.0 
0.011366235079913295 1:4.0 2:3.0 3:3.0 5:1.0 218:1.0 713:1.0 389:1.0 206:1.0 100:1.0 205:1.0 102:1.0 
0.03132461005748538 1:3.0 2:1.0 3:2.0 5:1.0 29:1.0 165:1.0 66:1.0 9788:1.0 100:1.0 205:1.0 46:1.0 
0.029926600910439027 1:5.0 2:0.0 3:0.0 48:1.0 435:1.0 49:1.0 5230:1.0 4545:1.0 100:1.0 42:1.0 65:1.0 
0.01940891880026246 1:3.0 2:4.0 3:0.0 486:1.0 307:1.0 342:1.0 788:1.0 12844:1.0 129:1.0 27:1.0 12:1.0 
0.033455745088878684 1:3.0 2:0.0 3:3.0 318:1.0 13:1.0 793:1.0 22833:1.0 12844:1.0 129:1.0 42:1.0 65:1.0 
0.012782817322685758 1:5.0 2:0.0 3:2.0 77:1.0 62:1.0 78:1.0 5684:1.0 7819:1.0 141:1.0 42:1.0 33:1.0 
0.008518834087414164 1:3.0 2:3.0 3:3.0 5:1.0 96:1.0 3175:1.0 98:1.0 206:1.0 141:1.0 205:1.0 590:1.0 
0.03745907860057425 1:2.0 2:1.0 3:1.0 5:1.0 96:1.0 312:1.0 98:1.0 4914:1.0 100:1.0 3185:1.0 178:1.0 
0.00674104083001197 1:5.0 2:0.0 3:3.0 125:1.0 62:1.0 898:1.0 4505:1.0 336:1.0 129:1.0 73:1.0 65:1.0 
0.13586883970890004 1:5.0 2:0.0 3:1.0 48:1.0 29:1.0 49:1.0 179:1.0 336:1.0 129:1.0 42:1.0 102:1.0 
0.022287248959891006 1:2.0 2:0.0 3:1.0 221:1.0 29:1.0 3255:1.0 238:1.0 624:1.0 100:1.0 380:1.0 68:1.0 
0.012364808954388705 1:3.0 2:3.0 3:2.0 71:1.0 639:1.0 2990:1.0 2234:1.0 2022:1.0 141:1.0 76:1.0 2023:1.0 
0.013645029556626428 1:4.0 2:3.0 3:3.0 5:1.0 29:1.0 1191:1.0 45:1.0 702:1.0 141:1.0 86:1.0 102:1.0 
0.013130556050702118 1:3.0 2:4.0 3:1.0 131:1.0 121:1.0 196:1.0 193:1.0 304:1.0 100:1.0 76:1.0 68:1.0 
0.029608975383292182 1:6.0 2:0.0 3:0.0 48:1.0 57:1.0 49:1.0 59:1.0 206:1.0 100:1.0 42:1.0 12:1.0 
0.03410687748050121 1:2.0 2:1.0 3:2.0 5:1.0 13:1.0 808:1.0 1883:1.0 1593:1.0 160:1.0 205:1.0 65:1.0 
0.02702058948984125 1:3.0 2:3.0 3:0.0 74:1.0 6:1.0 394:1.0 8:1.0 702:1.0 141:1.0 76:1.0 12:1.0 
0.018703886363653898 1:3.0 2:0.0 3:0.0 95:1.0 435:1.0 204:1.0 1220:1.0 5109:1.0 423:1.0 205:1.0 65:1.0 
0.024793131549538154 1:3.0 2:0.0 3:1.0 77:1.0 13:1.0 78:1.0 7473:1.0 1593:1.0 160:1.0 42:1.0 469:1.0 
0.03560142816996287 1:3.0 2:0.0 3:1.0 95:1.0 13:1.0 1411:1.0 10508:1.0 682:1.0 100:1.0 205:1.0 65:1.0 
0.04303145781531331 1:3.0 2:0.0 3:1.0 77:1.0 62:1.0 78:1.0 2495:1.0 60:1.0 129:1.0 42:1.0 21528:1.0 
0.10443867203148721 1:2.0 2:0.0 3:1.0 125:1.0 272:1.0 898:1.0 614:1.0 18310:1.0 100:1.0 76:1.0 65:1.0 
0.01003827859331396 1:4.0 2:0.0 3:1.0 77:1.0 13:1.0 78:1.0 25519:1.0 4878:1.0 141:1.0 42:1.0 469:1.0 
0.01620662870114033 1:4.0 2:0.0 3:1.0 77:1.0 62:1.0 78:1.0 8593:1.0 4878:1.0 141:1.0 42:1.0 65:1.0 
0.00969943408673616 1:4.0 2:3.0 3:0.0 21:1.0 639:1.0 248:1.0 640:1.0 6634:1.0 160:1.0 76:1.0 642:1.0 
0.01771482867490091 1:4.0 2:0.0 3:1.0 631:1.0 13:1.0 438:1.0 2290:1.0 60:1.0 160:1.0 634:1.0 65:1.0 
0.15559711214215438 1:2.0 2:1.0 3:3.0 5:1.0 29:1.0 143:1.0 256:1.0 2626:1.0 100:1.0 205:1.0 102:1.0 
0.009534630850982353 1:4.0 2:11.0 3:3.0 5:1.0 13:1.0 713:1.0 916:1.0 3469:1.0 10:1.0 205:1.0 65:1.0 
0.0066405152302397435 1:4.0 2:6.0 3:4.0 5:1.0 191:1.0 713:1.0 4547:1.0 3336:1.0 306:1.0 205:1.0 18:1.0 
0.015034264115695703 1:5.0 2:4.0 3:4.0 5:1.0 13:1.0 713:1.0 24432:1.0 4138:1.0 10:1.0 205:1.0 65:1.0 
0.018703121600386657 1:4.0 2:0.0 3:1.0 77:1.0 13:1.0 78:1.0 1400:1.0 1954:1.0 10:1.0 42:1.0 65:1.0 
0.04473503631203028 1:4.0 2:4.0 3:0.0 5:1.0 79:1.0 165:1.0 499:1.0 9675:1.0 100:1.0 205:1.0 172:1.0 
0.0022048066031002496 1:3.0 2:13.0 3:0.0 5:1.0 19:1.0 279:1.0 20:1.0 1070:1.0 10:1.0 76:1.0 12:1.0 
0.027663721511638404 1:4.0 2:0.0 3:3.0 318:1.0 188:1.0 793:1.0 9348:1.0 2626:1.0 141:1.0 42:1.0 503:1.0 
0.06389154464134471 1:4.0 2:1.0 3:0.0 34:1.0 6:1.0 2465:1.0 8:1.0 3650:1.0 100:1.0 86:1.0 12:1.0 
0.055411517767107316 1:4.0 2:1.0 3:4.0 34:1.0 29:1.0 2465:1.0 383:1.0 3650:1.0 100:1.0 86:1.0 68:1.0 
0.017520089583792732 1:5.0 2:0.0 3:2.0 48:1.0 29:1.0 49:1.0 66:1.0 3816:1.0 100:1.0 42:1.0 46:1.0 
0.0033998185366386933 1:7.0 2:0.0 3:4.0 211:1.0 29:1.0 212:1.0 543:1.0 457:1.0 10:1.0 388:1.0 102:1.0 
0.13426628551924202 1:4.0 2:2.0 3:3.0 5:1.0 79:1.0 165:1.0 171:1.0 702:1.0 141:1.0 205:1.0 172:1.0 
0.020829730674172882 1:2.0 2:2.0 3:3.0 5:1.0 96:1.0 655:1.0 98:1.0 2246:1.0 141:1.0 101:1.0 590:1.0 
0.005046906650232394 1:3.0 2:7.0 3:3.0 181:1.0 218:1.0 182:1.0 389:1.0 5996:1.0 100:1.0 205:1.0 102:1.0 
0.017016838203396566 1:2.0 2:2.0 3:1.0 181:1.0 188:1.0 182:1.0 1866:1.0 2553:1.0 141:1.0 205:1.0 46:1.0 
0.004260470017876067 1:3.0 2:8.0 3:3.0 181:1.0 218:1.0 182:1.0 389:1.0 1094:1.0 100:1.0 205:1.0 102:1.0 
0.0039194101461671555 1:3.0 2:6.0 3:0.0 5:1.0 57:1.0 7:1.0 59:1.0 907:1.0 100:1.0 205:1.0 12:1.0 
0.036775017934170456 1:3.0 2:1.0 3:2.0 74:1.0 29:1.0 2656:1.0 451:1.0 29812:1.0 100:1.0 86:1.0 46:1.0 
0.035002473308842555 1:3.0 2:2.0 3:0.0 5:1.0 307:1.0 438:1.0 788:1.0 29812:1.0 100:1.0 11:1.0 12:1.0 
0.014646884619988861 1:3.0 2:5.0 3:1.0 5:1.0 96:1.0 312:1.0 98:1.0 177:1.0 100:1.0 3185:1.0 178:1.0 
0.042904026630857205 1:2.0 2:1.0 3:1.0 5:1.0 13:1.0 143:1.0 386:1.0 1750:1.0 141:1.0 86:1.0 65:1.0 
0.008775570266404551 1:4.0 2:2.0 3:2.0 5:1.0 29:1.0 1191:1.0 451:1.0 3013:1.0 141:1.0 86:1.0 46:1.0 
0.015956627494802086 1:3.0 2:1.0 3:0.0 74:1.0 639:1.0 422:1.0 2585:1.0 336:1.0 141:1.0 76:1.0 642:1.0 
0.06668968464460488 1:2.0 2:2.0 3:2.0 5:1.0 29:1.0 7:1.0 45:1.0 8216:1.0 141:1.0 86:1.0 469:1.0 
0.06900440075243865 1:3.0 2:3.0 3:2.0 74:1.0 96:1.0 746:1.0 98:1.0 8216:1.0 141:1.0 76:1.0 178:1.0 
0.016877094510294306 1:2.0 2:3.0 3:0.0 74:1.0 13:1.0 8876:1.0 3378:1.0 968:1.0 141:1.0 76:1.0 68:1.0 
0.028823729708077585 1:2.0 2:0.0 3:0.0 77:1.0 200:1.0 78:1.0 1156:1.0 31316:1.0 100:1.0 42:1.0 102:1.0 
0.03551959335086506 1:4.0 2:0.0 3:0.0 77:1.0 13:1.0 78:1.0 31417:1.0 1392:1.0 141:1.0 42:1.0 65:1.0 
0.02112542651443523 1:4.0 2:4.0 3:3.0 486:1.0 29:1.0 3748:1.0 30:1.0 1379:1.0 232:1.0 86:1.0 102:1.0 
0.05782361180236022 1:2.0 2:2.0 3:2.0 5:1.0 29:1.0 165:1.0 280:1.0 2626:1.0 141:1.0 205:1.0 46:1.0 
4.273725862936621E-4 1:8.0 2:7.0 3:9.0 5:1.0 79:1.0 312:1.0 499:1.0 5102:1.0 10:1.0 101:1.0 172:1.0 
0.027225633896713695 1:6.0 2:3.0 3:0.0 5:1.0 435:1.0 713:1.0 895:1.0 203:1.0 10:1.0 205:1.0 15:1.0 
0.01919610392005985 1:6.0 2:0.0 3:0.0 77:1.0 435:1.0 78:1.0 895:1.0 203:1.0 10:1.0 42:1.0 15:1.0 
0.008396016543982756 1:5.0 2:0.0 3:1.0 77:1.0 13:1.0 78:1.0 10760:1.0 206:1.0 10:1.0 42:1.0 130:1.0 
0.021358384097693292 1:3.0 2:2.0 3:2.0 5:1.0 29:1.0 438:1.0 1977:1.0 2626:1.0 100:1.0 11:1.0 102:1.0 
0.022247697370934363 1:4.0 2:3.0 3:2.0 5:1.0 29:1.0 143:1.0 543:1.0 148:1.0 100:1.0 205:1.0 102:1.0 
0.023882271991613583 1:3.0 2:0.0 3:0.0 95:1.0 435:1.0 25973:1.0 2679:1.0 744:1.0 100:1.0 101:1.0 65:1.0 
0.022969854519150876 1:2.0 2:0.0 3:0.0 95:1.0 639:1.0 4955:1.0 9075:1.0 32909:1.0 100:1.0 101:1.0 642:1.0 
0.03318892183397853 1:3.0 2:0.0 3:0.0 95:1.0 435:1.0 1311:1.0 2679:1.0 8808:1.0 100:1.0 205:1.0 65:1.0 
0.02377871932557409 1:2.0 2:2.0 3:3.0 181:1.0 218:1.0 182:1.0 550:1.0 2119:1.0 100:1.0 183:1.0 102:1.0 
0.025579983422286796 1:2.0 2:2.0 3:1.0 5:1.0 13:1.0 649:1.0 147:1.0 715:1.0 141:1.0 11:1.0 68:1.0 
0.03124486526930627 1:2.0 2:3.0 3:1.0 5:1.0 13:1.0 312:1.0 147:1.0 3205:1.0 141:1.0 3185:1.0 68:1.0 
0.040135662358044936 1:3.0 2:0.0 3:0.0 95:1.0 435:1.0 33172:1.0 25734:1.0 33173:1.0 100:1.0 101:1.0 65:1.0 
0.0499735464374284 1:5.0 2:1.0 3:0.0 5:1.0 307:1.0 1191:1.0 308:1.0 2950:1.0 100:1.0 86:1.0 12:1.0 
0.05666479847797396 1:5.0 2:1.0 3:3.0 5:1.0 79:1.0 1191:1.0 499:1.0 2950:1.0 100:1.0 86:1.0 172:1.0 
0.01876940381281609 1:5.0 2:0.0 3:3.0 318:1.0 79:1.0 319:1.0 499:1.0 2950:1.0 100:1.0 42:1.0 172:1.0 
0.04727211832940488 1:2.0 2:1.0 3:3.0 5:1.0 29:1.0 165:1.0 66:1.0 9:1.0 100:1.0 142:1.0 102:1.0 
0.01208964671716108 1:4.0 2:0.0 3:1.0 631:1.0 62:1.0 334:1.0 2399:1.0 1094:1.0 141:1.0 634:1.0 65:1.0 
0.042960472950243696 1:3.0 2:5.0 3:2.0 74:1.0 29:1.0 422:1.0 66:1.0 682:1.0 141:1.0 76:1.0 102:1.0 
0.04802527066670369 1:2.0 2:2.0 3:0.0 74:1.0 51:1.0 5036:1.0 10517:1.0 685:1.0 100:1.0 76:1.0 68:1.0 
0.014447251131728348 1:3.0 2:2.0 3:3.0 5:1.0 96:1.0 655:1.0 98:1.0 6139:1.0 100:1.0 205:1.0 590:1.0 
0.03989757181731974 1:2.0 2:0.0 3:1.0 48:1.0 62:1.0 49:1.0 620:1.0 148:1.0 100:1.0 42:1.0 65:1.0 
0.02687419777508524 1:4.0 2:0.0 3:1.0 37:1.0 29:1.0 39:1.0 66:1.0 336:1.0 141:1.0 42:1.0 65:1.0 
0.04293892087247712 1:3.0 2:3.0 3:0.0 74:1.0 639:1.0 5821:1.0 2874:1.0 1094:1.0 100:1.0 76:1.0 642:1.0 
0.001291755982661992 1:7.0 2:0.0 3:4.0 318:1.0 13:1.0 319:1.0 5829:1.0 4867:1.0 306:1.0 42:1.0 65:1.0 
0.0020942246412558835 1:2.0 2:4.0 3:4.0 5:1.0 96:1.0 165:1.0 98:1.0 23204:1.0 100:1.0 205:1.0 130:1.0 
0.006171447365874246 1:7.0 2:11.0 3:2.0 5:1.0 13:1.0 143:1.0 6694:1.0 28854:1.0 10:1.0 86:1.0 15:1.0 
0.005601408008579679 1:7.0 2:11.0 3:5.0 5:1.0 13:1.0 143:1.0 11872:1.0 28854:1.0 10:1.0 86:1.0 65:1.0 
0.018572943771687663 1:3.0 2:2.0 3:0.0 221:1.0 6:1.0 5157:1.0 8:1.0 624:1.0 100:1.0 380:1.0 12:1.0 
0.08398842567004235 1:3.0 2:2.0 3:4.0 74:1.0 29:1.0 3199:1.0 246:1.0 3729:1.0 100:1.0 76:1.0 102:1.0 
0.045647108199056874 1:2.0 2:2.0 3:1.0 5:1.0 13:1.0 713:1.0 227:1.0 19163:1.0 100:1.0 205:1.0 65:1.0 
0.027866714124659454 1:2.0 2:0.0 3:1.0 95:1.0 96:1.0 4955:1.0 98:1.0 12847:1.0 100:1.0 101:1.0 102:1.0 
0.04825793552285433 1:2.0 2:1.0 3:1.0 74:1.0 96:1.0 2221:1.0 98:1.0 2899:1.0 141:1.0 76:1.0 603:1.0 
0.04104187515838506 1:2.0 2:1.0 3:0.0 74:1.0 639:1.0 360:1.0 623:1.0 3816:1.0 141:1.0 142:1.0 642:1.0 
9.193829217028857E-4 1:4.0 2:16.0 3:0.0 181:1.0 19:1.0 182:1.0 20:1.0 1106:1.0 129:1.0 380:1.0 12:1.0 
0.035344823606642733 1:2.0 2:4.0 3:1.0 74:1.0 51:1.0 3332:1.0 2143:1.0 3248:1.0 141:1.0 76:1.0 68:1.0 
0.05078059777602626 1:4.0 2:1.0 3:1.0 5:1.0 96:1.0 1191:1.0 98:1.0 5588:1.0 100:1.0 86:1.0 102:1.0 
0.03378474382741553 1:3.0 2:2.0 3:0.0 5:1.0 13:1.0 143:1.0 3378:1.0 25:1.0 141:1.0 11:1.0 68:1.0 
0.03949216876357149 1:2.0 2:2.0 3:1.0 5:1.0 13:1.0 655:1.0 1589:1.0 1430:1.0 141:1.0 101:1.0 68:1.0 
0.03945784538277215 1:2.0 2:0.0 3:1.0 71:1.0 29:1.0 2956:1.0 66:1.0 3535:1.0 141:1.0 76:1.0 68:1.0 
0.01923388129920155 1:3.0 2:3.0 3:0.0 5:1.0 19:1.0 143:1.0 20:1.0 2626:1.0 10:1.0 205:1.0 12:1.0 
0.019720172626645747 1:2.0 2:4.0 3:1.0 221:1.0 29:1.0 5919:1.0 66:1.0 2233:1.0 141:1.0 380:1.0 68:1.0 
0.025716270870316072 1:3.0 2:2.0 3:0.0 74:1.0 639:1.0 13087:1.0 2234:1.0 2022:1.0 141:1.0 76:1.0 642:1.0 
0.005951895046610377 1:5.0 2:7.0 3:3.0 92:1.0 218:1.0 4059:1.0 389:1.0 7370:1.0 100:1.0 205:1.0 102:1.0 
0.0012218468520864985 1:7.0 2:7.0 3:0.0 5:1.0 57:1.0 1191:1.0 59:1.0 2022:1.0 129:1.0 86:1.0 12:1.0 
0.003223019606718046 1:7.0 2:7.0 3:0.0 5:1.0 435:1.0 1191:1.0 2163:1.0 2022:1.0 129:1.0 86:1.0 15:1.0 
0.013691404164746616 1:7.0 2:7.0 3:1.0 5:1.0 13:1.0 1191:1.0 5070:1.0 2022:1.0 129:1.0 86:1.0 65:1.0 
0.003618770838846305 1:7.0 2:7.0 3:2.0 5:1.0 29:1.0 1191:1.0 66:1.0 2022:1.0 129:1.0 86:1.0 2023:1.0 
7.779160993080445E-4 1:7.0 2:7.0 3:4.0 5:1.0 79:1.0 1191:1.0 171:1.0 2022:1.0 129:1.0 86:1.0 172:1.0 
0.017630528941395697 1:7.0 2:0.0 3:1.0 77:1.0 13:1.0 78:1.0 5070:1.0 2022:1.0 129:1.0 42:1.0 65:1.0 
0.030489860120290837 1:3.0 2:0.0 3:2.0 95:1.0 29:1.0 1746:1.0 179:1.0 2119:1.0 100:1.0 86:1.0 178:1.0 
0.022120022159808836 1:3.0 2:2.0 3:2.0 74:1.0 29:1.0 38198:1.0 45:1.0 1094:1.0 141:1.0 76:1.0 68:1.0 
0.0057322311667898015 1:7.0 2:7.0 3:0.0 5:1.0 62:1.0 781:1.0 13041:1.0 336:1.0 129:1.0 782:1.0 15:1.0 
0.0024628027916641154 1:7.0 2:7.0 3:3.0 5:1.0 16:1.0 781:1.0 21863:1.0 336:1.0 129:1.0 782:1.0 18:1.0 
0.017252709604615005 1:7.0 2:7.0 3:3.0 5:1.0 79:1.0 781:1.0 171:1.0 336:1.0 129:1.0 782:1.0 172:1.0 
0.049934590071127785 1:7.0 2:0.0 3:0.0 77:1.0 19:1.0 78:1.0 20:1.0 336:1.0 129:1.0 42:1.0 12:1.0 
0.04696941097970417 1:2.0 2:1.0 3:0.0 74:1.0 639:1.0 6695:1.0 2874:1.0 17411:1.0 141:1.0 76:1.0 642:1.0 
0.03339141291835527 1:2.0 2:1.0 3:0.0 71:1.0 639:1.0 17495:1.0 640:1.0 336:1.0 141:1.0 76:1.0 642:1.0 
0.024658456564672845 1:3.0 2:4.0 3:0.0 71:1.0 639:1.0 10970:1.0 640:1.0 2360:1.0 129:1.0 73:1.0 642:1.0 
0.01605835225044652 1:6.0 2:0.0 3:0.0 131:1.0 435:1.0 1825:1.0 436:1.0 2164:1.0 129:1.0 388:1.0 15:1.0 
0.023783582332017543 1:6.0 2:4.0 3:0.0 131:1.0 43:1.0 196:1.0 44:1.0 2164:1.0 129:1.0 76:1.0 12:1.0 
0.0010721193190804637 1:2.0 2:11.0 3:6.0 92:1.0 96:1.0 3304:1.0 98:1.0 9:1.0 141:1.0 142:1.0 590:1.0 
0.041011815860841405 1:2.0 2:1.0 3:0.0 74:1.0 639:1.0 14360:1.0 1732:1.0 3816:1.0 100:1.0 142:1.0 642:1.0 
0.022426277637652904 1:4.0 2:3.0 3:1.0 5:1.0 29:1.0 713:1.0 246:1.0 7819:1.0 160:1.0 205:1.0 102:1.0 
0.007812713414705387 1:8.0 2:0.0 3:1.0 77:1.0 13:1.0 78:1.0 2479:1.0 7440:1.0 10:1.0 42:1.0 15:1.0 
0.00217457286842753 1:6.0 2:12.0 3:0.0 221:1.0 19:1.0 532:1.0 4196:1.0 2164:1.0 10:1.0 205:1.0 12:1.0 
0.0018804161831819427 1:6.0 2:12.0 3:0.0 221:1.0 69:1.0 532:1.0 70:1.0 2164:1.0 10:1.0 205:1.0 12:1.0 
0.021503480666238393 1:2.0 2:0.0 3:1.0 138:1.0 29:1.0 1290:1.0 66:1.0 2119:1.0 100:1.0 142:1.0 46:1.0 
0.011853782170763476 1:7.0 2:0.0 3:0.0 77:1.0 6:1.0 78:1.0 8:1.0 8216:1.0 100:1.0 42:1.0 12:1.0 
0.035409884806732496 1:3.0 2:6.0 3:3.0 5:1.0 31:1.0 143:1.0 193:1.0 702:1.0 141:1.0 205:1.0 102:1.0 
0.009883653492904775 1:6.0 2:0.0 3:0.0 318:1.0 19:1.0 793:1.0 20:1.0 2246:1.0 10:1.0 42:1.0 12:1.0 
0.022063986804882973 1:2.0 2:7.0 3:9.0 5:1.0 96:1.0 143:1.0 98:1.0 2626:1.0 100:1.0 205:1.0 102:1.0 
0.04423046978642489 1:2.0 2:2.0 3:0.0 71:1.0 639:1.0 12858:1.0 2234:1.0 336:1.0 141:1.0 76:1.0 642:1.0 
0.019813824345252796 1:3.0 2:0.0 3:1.0 77:1.0 13:1.0 78:1.0 6559:1.0 2164:1.0 232:1.0 42:1.0 65:1.0 
0.013201658015632532 1:3.0 2:6.0 3:1.0 74:1.0 96:1.0 1445:1.0 98:1.0 10844:1.0 141:1.0 76:1.0 102:1.0 
0.14970036045867288 1:3.0 2:3.0 3:1.0 5:1.0 29:1.0 165:1.0 66:1.0 702:1.0 141:1.0 205:1.0 68:1.0 
0.005323637724213761 1:8.0 2:0.0 3:0.0 37:1.0 6125:1.0 39:1.0 6126:1.0 206:1.0 10:1.0 42:1.0 503:1.0 
0.013256834190410715 1:3.0 2:3.0 3:1.0 5:1.0 13:1.0 165:1.0 4547:1.0 2119:1.0 141:1.0 205:1.0 68:1.0 
0.002173974479044824 1:5.0 2:9.0 3:1.0 74:1.0 13:1.0 524:1.0 5035:1.0 511:1.0 10:1.0 73:1.0 65:1.0 
0.022551804213941207 1:3.0 2:2.0 3:1.0 592:1.0 13:1.0 593:1.0 147:1.0 2119:1.0 141:1.0 76:1.0 68:1.0 
0.029685062632088206 1:4.0 2:1.0 3:7.0 5:1.0 96:1.0 713:1.0 98:1.0 177:1.0 141:1.0 205:1.0 590:1.0 
0.00191991219806067 1:8.0 2:7.0 3:6.0 5:1.0 96:1.0 7:1.0 98:1.0 14285:1.0 10:1.0 86:1.0 130:1.0 
0.006128803347907925 1:4.0 2:6.0 3:0.0 5:1.0 6:1.0 781:1.0 8:1.0 2119:1.0 100:1.0 782:1.0 12:1.0 
0.04351964026740225 1:2.0 2:4.0 3:3.0 5:1.0 79:1.0 438:1.0 499:1.0 1629:1.0 141:1.0 205:1.0 172:1.0 
0.013667288346966396 1:4.0 2:0.0 3:0.0 77:1.0 62:1.0 78:1.0 41192:1.0 336:1.0 129:1.0 42:1.0 15:1.0 
0.0016758813003233612 1:10.0 2:0.0 3:1.0 77:1.0 62:1.0 78:1.0 35572:1.0 685:1.0 10:1.0 42:1.0 15:1.0 
0.0034811771019325447 1:10.0 2:6.0 3:0.0 5:1.0 639:1.0 7:1.0 4416:1.0 685:1.0 10:1.0 782:1.0 642:1.0 
0.028304870416534338 1:10.0 2:6.0 3:1.0 5:1.0 29:1.0 7:1.0 648:1.0 685:1.0 10:1.0 782:1.0 102:1.0 
0.02261161975318877 1:4.0 2:0.0 3:0.0 77:1.0 62:1.0 78:1.0 3340:1.0 124:1.0 10:1.0 42:1.0 15:1.0 
0.021016914726212994 1:4.0 2:0.0 3:0.0 77:1.0 6:1.0 78:1.0 8:1.0 568:1.0 100:1.0 42:1.0 12:1.0 
0.06025107307048713 1:2.0 2:0.0 3:1.0 48:1.0 79:1.0 49:1.0 499:1.0 702:1.0 129:1.0 42:1.0 172:1.0 
0.009524527836531814 1:4.0 2:6.0 3:3.0 5:1.0 62:1.0 4919:1.0 3083:1.0 7134:1.0 10:1.0 205:1.0 15:1.0 
0.004079871685877034 1:8.0 2:10.0 3:0.0 92:1.0 19:1.0 21653:1.0 20:1.0 9:1.0 10:1.0 104:1.0 12:1.0 
0.01821221445214432 1:8.0 2:0.0 3:0.0 48:1.0 57:1.0 49:1.0 59:1.0 7298:1.0 10:1.0 42:1.0 12:1.0 
0.025645385860665837 1:3.0 2:0.0 3:4.0 95:1.0 29:1.0 880:1.0 45:1.0 2626:1.0 100:1.0 205:1.0 102:1.0 
0.03521886266407184 1:3.0 2:0.0 3:0.0 562:1.0 435:1.0 563:1.0 895:1.0 2164:1.0 83:1.0 86:1.0 15:1.0 
0.014562810781122664 1:5.0 2:0.0 3:1.0 77:1.0 62:1.0 78:1.0 15079:1.0 124:1.0 10:1.0 42:1.0 15:1.0 
0.011961407310389399 1:3.0 2:8.0 3:0.0 74:1.0 19:1.0 3504:1.0 20:1.0 3729:1.0 10:1.0 76:1.0 12:1.0 
0.08996685024563002 1:2.0 2:0.0 3:0.0 77:1.0 6:1.0 78:1.0 8:1.0 124:1.0 61:1.0 42:1.0 12:1.0 
0.05261689739866311 1:2.0 2:4.0 3:2.0 5:1.0 96:1.0 655:1.0 98:1.0 5076:1.0 141:1.0 205:1.0 178:1.0 
0.0010182966671968667 1:2.0 2:12.0 3:0.0 74:1.0 19:1.0 37753:1.0 20:1.0 18256:1.0 10:1.0 76:1.0 12:1.0 
0.005218996879259677 1:5.0 2:3.0 3:3.0 181:1.0 218:1.0 182:1.0 5192:1.0 3180:1.0 100:1.0 782:1.0 102:1.0 
0.034014296091240376 1:2.0 2:1.0 3:0.0 95:1.0 435:1.0 698:1.0 1009:1.0 8711:1.0 423:1.0 205:1.0 65:1.0 
0.04042161372195138 1:4.0 2:2.0 3:4.0 5:1.0 29:1.0 165:1.0 66:1.0 682:1.0 100:1.0 86:1.0 46:1.0 
0.01149292099301504 1:4.0 2:4.0 3:3.0 5:1.0 96:1.0 7:1.0 98:1.0 682:1.0 100:1.0 11:1.0 130:1.0 
0.00410070890557527 1:2.0 2:10.0 3:1.0 74:1.0 29:1.0 747:1.0 66:1.0 203:1.0 141:1.0 76:1.0 102:1.0 
0.024608272326243377 1:4.0 2:0.0 3:0.0 77:1.0 6:1.0 78:1.0 8:1.0 2604:1.0 141:1.0 42:1.0 12:1.0 
0.029902553632760454 1:2.0 2:2.0 3:3.0 5:1.0 96:1.0 165:1.0 98:1.0 12075:1.0 100:1.0 205:1.0 590:1.0 
0.02726183048263369 1:4.0 2:3.0 3:1.0 5:1.0 13:1.0 713:1.0 6410:1.0 552:1.0 10:1.0 205:1.0 65:1.0 
0.006537201656795615 1:4.0 2:2.0 3:4.0 486:1.0 29:1.0 196:1.0 780:1.0 1101:1.0 141:1.0 86:1.0 590:1.0 
0.01728504557903787 1:4.0 2:0.0 3:0.0 318:1.0 13:1.0 319:1.0 42780:1.0 1954:1.0 61:1.0 42:1.0 130:1.0 
0.020467527965193084 1:3.0 2:3.0 3:0.0 221:1.0 6:1.0 12443:1.0 8:1.0 2119:1.0 100:1.0 380:1.0 12:1.0 
0.004793849213655725 1:6.0 2:5.0 3:4.0 5:1.0 79:1.0 655:1.0 171:1.0 2119:1.0 10:1.0 101:1.0 172:1.0 
0.016736306012119076 1:2.0 2:3.0 3:1.0 74:1.0 29:1.0 394:1.0 66:1.0 203:1.0 100:1.0 76:1.0 46:1.0 
0.011679787582100051 1:3.0 2:4.0 3:2.0 5:1.0 96:1.0 334:1.0 98:1.0 336:1.0 10:1.0 183:1.0 178:1.0 
0.03322418429734494 1:2.0 2:0.0 3:1.0 21:1.0 62:1.0 279:1.0 2499:1.0 43136:1.0 141:1.0 101:1.0 65:1.0 
0.009645331233303809 1:6.0 2:0.0 3:1.0 77:1.0 62:1.0 78:1.0 3466:1.0 124:1.0 10:1.0 42:1.0 15:1.0 
0.0186766162539954 1:4.0 2:0.0 3:0.0 77:1.0 6:1.0 78:1.0 8:1.0 12482:1.0 160:1.0 42:1.0 12:1.0 
0.0572224867202679 1:2.0 2:0.0 3:1.0 278:1.0 79:1.0 279:1.0 499:1.0 13784:1.0 100:1.0 76:1.0 172:1.0 
0.03822048785219221 1:2.0 2:0.0 3:2.0 501:1.0 29:1.0 5241:1.0 648:1.0 8804:1.0 141:1.0 101:1.0 102:1.0 
0.044186021981777526 1:3.0 2:1.0 3:2.0 211:1.0 13:1.0 212:1.0 2290:1.0 1026:1.0 141:1.0 213:1.0 65:1.0 
0.015699510495848466 1:2.0 2:2.0 3:0.0 74:1.0 218:1.0 3736:1.0 1783:1.0 18256:1.0 100:1.0 76:1.0 130:1.0 
0.007908126235006413 1:2.0 2:7.0 3:0.0 5:1.0 13:1.0 1012:1.0 3258:1.0 9797:1.0 141:1.0 205:1.0 68:1.0 
0.0036252410873087396 1:5.0 2:19.0 3:2.0 34:1.0 31:1.0 504:1.0 3724:1.0 702:1.0 100:1.0 76:1.0 68:1.0 
0.002003833170193711 1:5.0 2:19.0 3:0.0 34:1.0 307:1.0 504:1.0 308:1.0 702:1.0 100:1.0 76:1.0 12:1.0 
0.023473418469030463 1:4.0 2:0.0 3:0.0 77:1.0 6:1.0 78:1.0 8:1.0 27214:1.0 141:1.0 42:1.0 12:1.0 
0.0039037997894022375 1:3.0 2:13.0 3:0.0 5:1.0 19:1.0 279:1.0 20:1.0 1628:1.0 10:1.0 76:1.0 12:1.0 
0.0037642217486037422 1:7.0 2:9.0 3:0.0 195:1.0 43:1.0 4396:1.0 44:1.0 363:1.0 10:1.0 104:1.0 12:1.0 
0.033086682714469094 1:3.0 2:4.0 3:1.0 5:1.0 13:1.0 143:1.0 2420:1.0 206:1.0 100:1.0 11:1.0 68:1.0 
0.00373841886302675 1:2.0 2:14.0 3:2.0 74:1.0 29:1.0 5924:1.0 66:1.0 624:1.0 141:1.0 76:1.0 68:1.0 
0.0018749857459441546 1:3.0 2:15.0 3:0.0 74:1.0 6:1.0 2904:1.0 8:1.0 203:1.0 100:1.0 76:1.0 12:1.0 
0.07863480937495518 1:2.0 2:1.0 3:0.0 74:1.0 435:1.0 852:1.0 29093:1.0 363:1.0 141:1.0 76:1.0 102:1.0 
3.308059536155238E-4 1:7.0 2:4.0 3:8.0 5:1.0 200:1.0 1191:1.0 1066:1.0 2626:1.0 10:1.0 205:1.0 172:1.0 
0.04152863841877526 1:2.0 2:1.0 3:0.0 131:1.0 19:1.0 342:1.0 20:1.0 8487:1.0 10:1.0 76:1.0 12:1.0 
0.027587959269463155 1:2.0 2:2.0 3:0.0 5:1.0 200:1.0 1191:1.0 13343:1.0 685:1.0 141:1.0 205:1.0 469:1.0 
0.020442662456646395 1:4.0 2:0.0 3:0.0 77:1.0 6:1.0 78:1.0 8:1.0 927:1.0 100:1.0 42:1.0 12:1.0 
0.01596371915173528 1:2.0 2:4.0 3:3.0 74:1.0 29:1.0 156:1.0 2903:1.0 2292:1.0 141:1.0 76:1.0 68:1.0 
0.04257138387129155 1:2.0 2:0.0 3:4.0 562:1.0 96:1.0 2805:1.0 98:1.0 12847:1.0 141:1.0 101:1.0 102:1.0 
0.014429799025148954 1:4.0 2:2.0 3:0.0 5:1.0 19:1.0 143:1.0 20:1.0 29812:1.0 10:1.0 11:1.0 12:1.0 
0.031752148047898984 1:2.0 2:2.0 3:1.0 74:1.0 13:1.0 422:1.0 249:1.0 7819:1.0 100:1.0 76:1.0 65:1.0 
0.052366167989870954 1:3.0 2:2.0 3:0.0 5:1.0 6:1.0 7:1.0 8:1.0 682:1.0 141:1.0 205:1.0 12:1.0 
0.027019852626746443 1:2.0 2:2.0 3:0.0 74:1.0 13:1.0 12025:1.0 3378:1.0 702:1.0 100:1.0 76:1.0 68:1.0 
0.06666363146987027 1:3.0 2:0.0 3:1.0 48:1.0 29:1.0 49:1.0 66:1.0 1608:1.0 100:1.0 42:1.0 46:1.0 
0.008431115290448852 1:3.0 2:5.0 3:2.0 592:1.0 29:1.0 593:1.0 806:1.0 7819:1.0 100:1.0 76:1.0 68:1.0 
0.020053945800104722 1:2.0 2:2.0 3:0.0 5:1.0 13:1.0 8928:1.0 3378:1.0 45600:1.0 100:1.0 11:1.0 68:1.0 
0.017324920555098836 1:3.0 2:1.0 3:0.0 131:1.0 62:1.0 196:1.0 29911:1.0 744:1.0 423:1.0 535:1.0 65:1.0 
0.03329015251445361 1:3.0 2:1.0 3:3.0 131:1.0 13:1.0 196:1.0 5070:1.0 744:1.0 423:1.0 535:1.0 65:1.0 
0.02460826592580514 1:4.0 2:0.0 3:0.0 77:1.0 6:1.0 78:1.0 8:1.0 9:1.0 100:1.0 42:1.0 12:1.0 
0.006582952297670174 1:6.0 2:8.0 3:1.0 5:1.0 13:1.0 713:1.0 4287:1.0 60:1.0 10:1.0 205:1.0 65:1.0 
0.0516857011689827 1:3.0 2:2.0 3:1.0 5:1.0 13:1.0 143:1.0 2420:1.0 439:1.0 100:1.0 86:1.0 68:1.0 
0.012491923099217463 1:6.0 2:5.0 3:0.0 5:1.0 639:1.0 438:1.0 2234:1.0 3009:1.0 10:1.0 205:1.0 642:1.0 
0.010509263041301524 1:3.0 2:5.0 3:1.0 74:1.0 13:1.0 394:1.0 21561:1.0 203:1.0 129:1.0 73:1.0 65:1.0 
0.04317663079654556 1:2.0 2:3.0 3:0.0 74:1.0 639:1.0 8741:1.0 640:1.0 2645:1.0 100:1.0 76:1.0 178:1.0 
0.01378243485998576 1:3.0 2:3.0 3:1.0 74:1.0 31:1.0 1445:1.0 11853:1.0 744:1.0 141:1.0 76:1.0 68:1.0 
0.04994259880617043 1:2.0 2:1.0 3:0.0 74:1.0 188:1.0 1445:1.0 2567:1.0 206:1.0 100:1.0 76:1.0 130:1.0 
0.06789434024006272 1:2.0 2:1.0 3:0.0 5:1.0 435:1.0 7:1.0 8951:1.0 6129:1.0 100:1.0 11:1.0 65:1.0 
0.06653109553651614 1:2.0 2:1.0 3:1.0 5:1.0 62:1.0 143:1.0 186:1.0 148:1.0 141:1.0 205:1.0 65:1.0 
0.025886742309965738 1:3.0 2:0.0 3:1.0 77:1.0 13:1.0 78:1.0 1664:1.0 8884:1.0 100:1.0 42:1.0 65:1.0 
0.0387908588772342 1:3.0 2:2.0 3:1.0 5:1.0 62:1.0 808:1.0 5189:1.0 511:1.0 160:1.0 86:1.0 65:1.0 
0.05688713126982614 1:2.0 2:1.0 3:0.0 74:1.0 639:1.0 10576:1.0 2874:1.0 1070:1.0 141:1.0 76:1.0 642:1.0 
0.014510898226412721 1:3.0 2:3.0 3:1.0 34:1.0 29:1.0 2373:1.0 238:1.0 24079:1.0 141:1.0 76:1.0 68:1.0 
0.004100304566726857 1:3.0 2:5.0 3:4.0 5:1.0 62:1.0 424:1.0 10549:1.0 46939:1.0 100:1.0 86:1.0 503:1.0 
0.013246358140315193 1:6.0 2:0.0 3:2.0 48:1.0 29:1.0 49:1.0 66:1.0 4582:1.0 100:1.0 42:1.0 46:1.0 
0.013508350499884594 1:3.0 2:2.0 3:1.0 34:1.0 29:1.0 2052:1.0 246:1.0 5636:1.0 100:1.0 76:1.0 590:1.0 
0.005165645507833116 1:4.0 2:7.0 3:0.0 5:1.0 19:1.0 165:1.0 20:1.0 744:1.0 10:1.0 782:1.0 12:1.0 
0.02016984383246623 1:3.0 2:1.0 3:0.0 74:1.0 6:1.0 4175:1.0 8:1.0 17413:1.0 141:1.0 86:1.0 12:1.0 
0.02765108747512184 1:3.0 2:2.0 3:1.0 5:1.0 22:1.0 143:1.0 3132:1.0 439:1.0 100:1.0 11:1.0 68:1.0 
0.024804259660242703 1:4.0 2:4.0 3:1.0 5:1.0 62:1.0 713:1.0 214:1.0 3336:1.0 10:1.0 205:1.0 65:1.0 
0.00809383284401133 1:2.0 2:3.0 3:2.0 5:1.0 29:1.0 165:1.0 451:1.0 6642:1.0 100:1.0 86:1.0 102:1.0 
0.011595283791088339 1:9.0 2:0.0 3:0.0 37:1.0 435:1.0 39:1.0 895:1.0 565:1.0 10:1.0 42:1.0 15:1.0 
0.0034318256574158634 1:9.0 2:0.0 3:0.0 371:1.0 43:1.0 372:1.0 44:1.0 565:1.0 10:1.0 42:1.0 12:1.0 
0.019410749404910027 1:3.0 2:2.0 3:1.0 5:1.0 29:1.0 143:1.0 420:1.0 702:1.0 141:1.0 205:1.0 68:1.0 
0.037870662824256794 1:2.0 2:1.0 3:1.0 181:1.0 29:1.0 182:1.0 648:1.0 2119:1.0 141:1.0 205:1.0 102:1.0 
0.018922525677581375 1:3.0 2:0.0 3:1.0 562:1.0 13:1.0 1174:1.0 2290:1.0 744:1.0 100:1.0 782:1.0 65:1.0 
0.0160285541860514 1:4.0 2:3.0 3:3.0 5:1.0 79:1.0 165:1.0 499:1.0 6171:1.0 141:1.0 205:1.0 172:1.0 
0.01985438341997843 1:3.0 2:3.0 3:1.0 5:1.0 13:1.0 165:1.0 2420:1.0 25996:1.0 141:1.0 86:1.0 68:1.0 
0.010838210392564745 1:2.0 2:2.0 3:2.0 74:1.0 29:1.0 10834:1.0 179:1.0 7718:1.0 141:1.0 76:1.0 102:1.0 
-0.137498921390576 1:4.0 2:2.0 3:4.0 131:1.0 38:1.0 196:1.0 446:1.0 2164:1.0 129:1.0 76:1.0 15:1.0 
-0.4627240376925912 1:2.0 2:1.0 3:2.0 5:1.0 29:1.0 165:1.0 66:1.0 682:1.0 141:1.0 782:1.0 102:1.0 
-0.19693247064085959 1:4.0 2:0.0 3:1.0 77:1.0 62:1.0 78:1.0 2399:1.0 568:1.0 141:1.0 42:1.0 65:1.0 
-0.07094028837412587 1:5.0 2:0.0 3:6.0 371:1.0 13:1.0 372:1.0 2560:1.0 744:1.0 10:1.0 42:1.0 65:1.0 
-0.0642382679341122 1:4.0 2:7.0 3:0.0 5:1.0 13:1.0 781:1.0 262:1.0 7819:1.0 100:1.0 782:1.0 65:1.0 
-0.11444232573474414 1:4.0 2:5.0 3:0.0 71:1.0 639:1.0 2956:1.0 66:1.0 2348:1.0 129:1.0 76:1.0 642:1.0 
-0.12877192465071777 1:2.0 2:4.0 3:0.0 74:1.0 639:1.0 5517:1.0 2234:1.0 1513:1.0 141:1.0 76:1.0 642:1.0 
-0.2738256087243405 1:2.0 2:1.0 3:2.0 74:1.0 13:1.0 4175:1.0 14302:1.0 11405:1.0 141:1.0 86:1.0 65:1.0 
-0.13783811340680163 1:5.0 2:1.0 3:0.0 131:1.0 435:1.0 852:1.0 895:1.0 18310:1.0 100:1.0 76:1.0 65:1.0 
-0.39016067318224806 1:3.0 2:0.0 3:0.0 77:1.0 6:1.0 78:1.0 8:1.0 2119:1.0 61:1.0 42:1.0 12:1.0 
-0.2839685685154817 1:2.0 2:2.0 3:1.0 181:1.0 218:1.0 182:1.0 15796:1.0 9:1.0 100:1.0 205:1.0 489:1.0 
-0.2906089793269642 1:2.0 2:2.0 3:0.0 74:1.0 6125:1.0 3495:1.0 6126:1.0 8216:1.0 141:1.0 76:1.0 469:1.0 
-0.2577818102481878 1:2.0 2:2.0 3:0.0 398:1.0 62:1.0 4396:1.0 2239:1.0 148:1.0 141:1.0 86:1.0 65:1.0 
-0.2691736211227942 1:3.0 2:2.0 3:4.0 5:1.0 96:1.0 713:1.0 98:1.0 2626:1.0 100:1.0 205:1.0 102:1.0 
-0.08122028939229052 1:5.0 2:3.0 3:3.0 5:1.0 62:1.0 713:1.0 4505:1.0 336:1.0 129:1.0 205:1.0 65:1.0 
-0.21316538277632818 1:2.0 2:3.0 3:2.0 5:1.0 96:1.0 1191:1.0 98:1.0 2119:1.0 141:1.0 86:1.0 178:1.0 
-0.21785366003256898 1:3.0 2:2.0 3:1.0 5:1.0 62:1.0 143:1.0 10508:1.0 148:1.0 100:1.0 205:1.0 65:1.0 
-0.05518907187711378 1:7.0 2:5.0 3:4.0 5:1.0 29:1.0 279:1.0 543:1.0 457:1.0 10:1.0 76:1.0 102:1.0 
-0.17176032326791957 1:2.0 2:3.0 3:0.0 92:1.0 639:1.0 4288:1.0 806:1.0 4499:1.0 100:1.0 86:1.0 642:1.0 
-0.16740338915706787 1:3.0 2:3.0 3:1.0 5:1.0 13:1.0 438:1.0 2290:1.0 1026:1.0 100:1.0 11:1.0 65:1.0 
-0.10394909319775565 1:2.0 2:6.0 3:1.0 74:1.0 51:1.0 1445:1.0 239:1.0 2899:1.0 141:1.0 76:1.0 65:1.0 
-0.2749607951102186 1:3.0 2:0.0 3:1.0 318:1.0 13:1.0 793:1.0 2420:1.0 29812:1.0 100:1.0 42:1.0 68:1.0 
-0.11684915706772822 1:2.0 2:4.0 3:3.0 5:1.0 188:1.0 312:1.0 1523:1.0 9:1.0 100:1.0 86:1.0 489:1.0 
-0.1885769340615101 1:2.0 2:4.0 3:2.0 5:1.0 96:1.0 655:1.0 98:1.0 12847:1.0 141:1.0 101:1.0 102:1.0 
-0.1838831956670435 1:2.0 2:3.0 3:1.0 74:1.0 51:1.0 156:1.0 4718:1.0 206:1.0 100:1.0 380:1.0 65:1.0 
-0.19800309051855927 1:5.0 2:1.0 3:2.0 5:1.0 29:1.0 1191:1.0 382:1.0 2950:1.0 100:1.0 86:1.0 68:1.0 
-0.20973308047781564 1:3.0 2:2.0 3:2.0 5:1.0 13:1.0 808:1.0 5070:1.0 1593:1.0 100:1.0 86:1.0 65:1.0 
-0.0425175072755381 1:6.0 2:0.0 3:10.0 318:1.0 191:1.0 793:1.0 9988:1.0 3336:1.0 10:1.0 42:1.0 130:1.0 
-0.2656250783736699 1:3.0 2:2.0 3:1.0 74:1.0 29:1.0 3199:1.0 66:1.0 3729:1.0 100:1.0 76:1.0 46:1.0 
-0.19888049812909878 1:3.0 2:2.0 3:0.0 74:1.0 639:1.0 38198:1.0 2874:1.0 1094:1.0 141:1.0 76:1.0 642:1.0 
-0.02614362291556709 1:3.0 2:9.0 3:3.0 5:1.0 62:1.0 6026:1.0 10535:1.0 22776:1.0 100:1.0 205:1.0 65:1.0 
-0.4069174512362362 1:2.0 2:0.0 3:0.0 95:1.0 435:1.0 7:1.0 895:1.0 336:1.0 306:1.0 205:1.0 15:1.0 
-0.17666346817371498 1:3.0 2:2.0 3:0.0 5:1.0 6125:1.0 649:1.0 6126:1.0 322:1.0 100:1.0 11:1.0 469:1.0 
-0.13008757458690512 1:5.0 2:0.0 3:0.0 48:1.0 435:1.0 49:1.0 9290:1.0 336:1.0 129:1.0 42:1.0 65:1.0 
-0.2953003885677618 1:5.0 2:0.0 3:0.0 48:1.0 29:1.0 49:1.0 66:1.0 336:1.0 129:1.0 42:1.0 46:1.0 
-0.450135705576368 1:3.0 2:3.0 3:1.0 5:1.0 79:1.0 143:1.0 499:1.0 702:1.0 141:1.0 205:1.0 172:1.0 
-0.07032894802891382 1:8.0 2:0.0 3:0.0 48:1.0 57:1.0 49:1.0 59:1.0 9:1.0 10:1.0 42:1.0 12:1.0 
-0.07963996114784057 1:7.0 2:0.0 3:0.0 77:1.0 13:1.0 78:1.0 9542:1.0 128:1.0 100:1.0 42:1.0 65:1.0 
-0.1653776548320493 1:2.0 2:3.0 3:2.0 486:1.0 29:1.0 342:1.0 451:1.0 17470:1.0 141:1.0 86:1.0 102:1.0 
-0.06396467799133497 1:8.0 2:0.0 3:0.0 77:1.0 13:1.0 78:1.0 44821:1.0 557:1.0 141:1.0 42:1.0 65:1.0 
-0.21139114923802257 1:3.0 2:3.0 3:2.0 34:1.0 29:1.0 2465:1.0 256:1.0 3650:1.0 100:1.0 86:1.0 102:1.0 
-0.06539724882789322 1:4.0 2:4.0 3:0.0 221:1.0 6:1.0 18508:1.0 8:1.0 9:1.0 100:1.0 104:1.0 12:1.0 
-0.06914481911086529 1:4.0 2:4.0 3:1.0 221:1.0 29:1.0 18508:1.0 66:1.0 9:1.0 100:1.0 104:1.0 102:1.0 
-0.0265398202903089 1:2.0 2:11.0 3:1.0 74:1.0 29:1.0 394:1.0 179:1.0 4853:1.0 100:1.0 76:1.0 102:1.0 
-0.16973448548673015 1:2.0 2:4.0 3:2.0 5:1.0 29:1.0 165:1.0 648:1.0 8804:1.0 141:1.0 782:1.0 102:1.0 
-0.2112535583703898 1:3.0 2:2.0 3:1.0 5:1.0 13:1.0 165:1.0 2290:1.0 237:1.0 100:1.0 205:1.0 65:1.0 
