svm_type c_svc
kernel_type polynomial
degree 2
gamma 0.2
coef0 0.0
nr_class 2
total_sv 44
rho -0.366081387148099
label 1 -1
nr_sv 28 16
SV
0.07632167608652851 208:1.0 56:1.0 4:1.0 209:1.0 312:1.0 4695:1.0 8:1.0 232:1.0 1354:1.0 193:1.0 17:1.0 159:1.0 166:1.0 13:1.0 
0.1058765602483462 871:1.0 114:1.0 4:1.0 2814:1.0 117:1.0 163:1.0 8:1.0 232:1.0 1354:1.0 159:1.0 152:1.0 13:1.0 
0.10336245293779826 2:1.0 56:1.0 122:1.0 776:1.0 312:1.0 7:1.0 8:1.0 232:1.0 1354:1.0 17:1.0 159:1.0 166:1.0 13:1.0 
0.11205469593488666 2:1.0 114:1.0 4:1.0 206:1.0 117:1.0 72:1.0 151:1.0 232:1.0 1354:1.0 159:1.0 11:1.0 
0.17696264480684554 2:1.0 114:1.0 2358:1.0 186:1.0 117:1.0 1363:1.0 261:1.0 232:1.0 1354:1.0 
0.10938505332274952 2:1.0 56:1.0 122:1.0 710:1.0 505:1.0 7:1.0 8:1.0 232:1.0 1354:1.0 17:1.0 159:1.0 166:1.0 13:1.0 
0.09575656469884802 113:1.0 114:1.0 4:1.0 1386:1.0 117:1.0 7:1.0 151:1.0 232:1.0 1354:1.0 159:1.0 166:1.0 
0.0840332551810174 113:1.0 56:1.0 122:1.0 1504:1.0 312:1.0 7:1.0 8:1.0 232:1.0 1354:1.0 193:1.0 159:1.0 229:1.0 166:1.0 
0.14781742292675681 113:1.0 114:1.0 115:1.0 4712:1.0 117:1.0 3522:1.0 119:1.0 232:1.0 1354:1.0 248:1.0 
0.09340965911749916 113:1.0 141:1.0 122:1.0 231:1.0 2534:1.0 7:1.0 151:1.0 232:1.0 1354:1.0 159:1.0 166:1.0 
0.3885846749604842 2:1.0 114:1.0 122:1.0 186:1.0 117:1.0 7:1.0 151:1.0 232:1.0 1354:1.0 55:1.0 159:1.0 166:1.0 13:1.0 
0.16492273840149463 2:1.0 114:1.0 122:1.0 497:1.0 117:1.0 72:1.0 151:1.0 232:1.0 1354:1.0 159:1.0 229:1.0 74:1.0 12:1.0 13:1.0 
0.9663592996126535 2:1.0 114:1.0 122:1.0 776:1.0 117:1.0 7:1.0 8:1.0 232:1.0 1354:1.0 229:1.0 159:1.0 166:1.0 13:1.0 
0.08344149057411995 2:1.0 440:1.0 4:1.0 206:1.0 8914:1.0 7:1.0 8:1.0 232:1.0 1354:1.0 17:1.0 159:1.0 166:1.0 13:1.0 
0.12159085783341117 445:1.0 56:1.0 122:1.0 9004:1.0 312:1.0 7:1.0 8:1.0 232:1.0 1354:1.0 17:1.0 159:1.0 166:1.0 13:1.0 
0.17137027002853966 2:1.0 114:1.0 122:1.0 5:1.0 117:1.0 7:1.0 8:1.0 232:1.0 1354:1.0 159:1.0 229:1.0 166:1.0 13:1.0 
0.1673859015477247 2:1.0 114:1.0 122:1.0 284:1.0 117:1.0 7:1.0 8:1.0 232:1.0 1354:1.0 159:1.0 166:1.0 13:1.0 
0.11514667388974754 2:1.0 114:1.0 122:1.0 776:1.0 117:1.0 7:1.0 243:1.0 232:1.0 1354:1.0 1260:1.0 159:1.0 229:1.0 11:1.0 
0.1291560482543839 92:1.0 56:1.0 70:1.0 23533:1.0 505:1.0 233:1.0 151:1.0 232:1.0 1354:1.0 17:1.0 874:1.0 159:1.0 193:1.0 
0.09123003657547255 2:1.0 141:1.0 122:1.0 919:1.0 380:1.0 7:1.0 8:1.0 232:1.0 1354:1.0 193:1.0 17:1.0 159:1.0 166:1.0 13:1.0 
0.1140823438338758 113:1.0 56:1.0 122:1.0 352:1.0 505:1.0 7:1.0 8:1.0 232:1.0 1354:1.0 55:1.0 146:1.0 17:1.0 159:1.0 166:1.0 49:1.0 
0.06449524941957435 2:1.0 56:1.0 122:1.0 186:1.0 312:1.0 7:1.0 8:1.0 232:1.0 1354:1.0 159:1.0 229:1.0 166:1.0 17:1.0 13:1.0 
0.2804624520803059 2:1.0 56:1.0 161:1.0 284:1.0 312:1.0 2205:1.0 119:1.0 232:1.0 1354:1.0 
0.07596340196590894 2:1.0 114:1.0 122:1.0 4979:1.0 117:1.0 7:1.0 8:1.0 232:1.0 1354:1.0 159:1.0 229:1.0 166:1.0 13:1.0 
2.883324448687252 2:1.0 114:1.0 122:1.0 776:1.0 117:1.0 7:1.0 151:1.0 232:1.0 1354:1.0 159:1.0 166:1.0 
0.12889755354059823 2:1.0 280:1.0 122:1.0 776:1.0 479:1.0 7:1.0 8:1.0 232:1.0 1354:1.0 17:1.0 159:1.0 166:1.0 13:1.0 
0.2439373439001286 330:1.0 56:1.0 4:1.0 1540:1.0 312:1.0 7:1.0 8:1.0 232:1.0 1354:1.0 17:1.0 159:1.0 166:1.0 13:1.0 
0.1288652235921463 113:1.0 114:1.0 122:1.0 231:1.0 117:1.0 7:1.0 151:1.0 232:1.0 1354:1.0 159:1.0 11:1.0 
-2.1739137645932916 2:1.0 114:1.0 122:1.0 776:1.0 117:1.0 7:1.0 151:1.0 232:1.0 1354:1.0 55:1.0 159:1.0 166:1.0 
-0.3278941801502953 2:1.0 114:1.0 122:1.0 710:1.0 117:1.0 7:1.0 8:1.0 232:1.0 1354:1.0 159:1.0 166:1.0 13:1.0 
-0.8124466168365143 2:1.0 114:1.0 122:1.0 776:1.0 117:1.0 7:1.0 8:1.0 232:1.0 1354:1.0 159:1.0 166:1.0 13:1.0 
-0.14781742292675681 2:1.0 141:1.0 122:1.0 267:1.0 1666:1.0 13005:1.0 8:1.0 232:1.0 1354:1.0 159:1.0 229:1.0 152:1.0 88:1.0 146:1.0 75:1.0 13:1.0 
-0.35633264167390366 2:1.0 114:1.0 161:1.0 919:1.0 117:1.0 7:1.0 119:1.0 232:1.0 1354:1.0 166:1.0 
-0.2890173407417322 2:1.0 114:1.0 115:1.0 608:1.0 117:1.0 3560:1.0 119:1.0 232:1.0 1354:1.0 11:1.0 
-0.27198725237094934 92:1.0 114:1.0 122:1.0 11530:1.0 117:1.0 7:1.0 8:1.0 232:1.0 1354:1.0 159:1.0 166:1.0 13:1.0 
-0.2804624520803059 285:1.0 114:1.0 115:1.0 437:1.0 117:1.0 3522:1.0 119:1.0 232:1.0 1354:1.0 229:1.0 
-0.24088614036740358 113:1.0 114:1.0 122:1.0 1504:1.0 117:1.0 7:1.0 8:1.0 232:1.0 1354:1.0 55:1.0 159:1.0 166:1.0 49:1.0 
-0.1673859015477247 330:1.0 114:1.0 122:1.0 4158:1.0 117:1.0 72:1.0 151:1.0 232:1.0 1354:1.0 159:1.0 229:1.0 74:1.0 13:1.0 
-0.2439373439001286 330:1.0 56:1.0 122:1.0 1540:1.0 312:1.0 7:1.0 151:1.0 232:1.0 1354:1.0 159:1.0 229:1.0 166:1.0 17:1.0 
-0.2845664031286541 330:1.0 114:1.0 115:1.0 1540:1.0 117:1.0 7:1.0 119:1.0 232:1.0 1354:1.0 166:1.0 
-0.3434485108139162 2:1.0 56:1.0 161:1.0 919:1.0 505:1.0 72:1.0 119:1.0 232:1.0 1354:1.0 11:1.0 17:1.0 
-0.9663592996126535 2:1.0 114:1.0 122:1.0 776:1.0 117:1.0 7:1.0 8:1.0 232:1.0 1354:1.0 159:1.0 229:1.0 166:1.0 13:1.0 
-0.3885846749604842 2:1.0 114:1.0 122:1.0 186:1.0 117:1.0 72:1.0 8:1.0 232:1.0 1354:1.0 159:1.0 74:1.0 229:1.0 13:1.0 
-0.1291560482543839 330:1.0 114:1.0 122:1.0 1540:1.0 117:1.0 7:1.0 151:1.0 232:1.0 1354:1.0 159:1.0 166:1.0 
