svm_type c_svc
kernel_type polynomial
degree 2
gamma 0.2
coef0 0.0
nr_class 2
total_sv 83
rho 0.34188119593257177
label 1 -1
nr_sv 33 50
SV
0.3468623143482671 98:1.0 56:1.0 122:1.0 238:1.0 356:1.0 253:1.0 466:1.0 239:1.0 647:1.0 159:1.0 74:1.0 17:1.0 
0.18131920995343706 98:1.0 114:1.0 161:1.0 772:1.0 117:1.0 2063:1.0 164:1.0 239:1.0 647:1.0 166:1.0 
0.35066025293379577 98:1.0 56:1.0 188:1.0 238:1.0 505:1.0 2300:1.0 601:1.0 239:1.0 647:1.0 74:1.0 
0.19983055953608228 98:1.0 114:1.0 122:1.0 772:1.0 117:1.0 228:1.0 243:1.0 239:1.0 647:1.0 11:1.0 12:1.0 
0.2479498033666728 98:1.0 114:1.0 4:1.0 238:1.0 117:1.0 7237:1.0 151:1.0 239:1.0 647:1.0 11:1.0 74:1.0 
0.31665830101132786 98:1.0 114:1.0 122:1.0 238:1.0 117:1.0 12265:1.0 8:1.0 239:1.0 647:1.0 127:1.0 13:1.0 
0.36699252324057063 98:1.0 114:1.0 258:1.0 238:1.0 117:1.0 260:1.0 261:1.0 239:1.0 647:1.0 221:1.0 
0.24882429543499232 98:1.0 114:1.0 115:1.0 238:1.0 117:1.0 7237:1.0 261:1.0 239:1.0 647:1.0 
0.6633632707948005 98:1.0 114:1.0 70:1.0 238:1.0 117:1.0 764:1.0 243:1.0 239:1.0 647:1.0 32:1.0 74:1.0 
0.2538282161699394 98:1.0 114:1.0 4:1.0 238:1.0 117:1.0 5703:1.0 8:1.0 239:1.0 647:1.0 32:1.0 127:1.0 254:1.0 13:1.0 
0.18349397368365114 98:1.0 56:1.0 115:1.0 238:1.0 356:1.0 4121:1.0 119:1.0 239:1.0 647:1.0 229:1.0 17:1.0 
0.21350534360930112 98:1.0 56:1.0 4:1.0 238:1.0 840:1.0 4861:1.0 345:1.0 239:1.0 647:1.0 74:1.0 55:1.0 49:1.0 
0.3437610442831709 98:1.0 56:1.0 70:1.0 427:1.0 840:1.0 7:1.0 151:1.0 239:1.0 647:1.0 55:1.0 11:1.0 74:1.0 17:1.0 49:1.0 
0.2001188911400434 98:1.0 56:1.0 188:1.0 238:1.0 597:1.0 1276:1.0 601:1.0 239:1.0 647:1.0 11:1.0 17:1.0 
0.2134762489845084 98:1.0 114:1.0 122:1.0 238:1.0 117:1.0 764:1.0 8:1.0 239:1.0 647:1.0 127:1.0 229:1.0 11:1.0 13:1.0 
0.4132184375214764 98:1.0 56:1.0 115:1.0 238:1.0 505:1.0 27172:1.0 119:1.0 239:1.0 647:1.0 
0.1915698920115779 98:1.0 56:1.0 161:1.0 238:1.0 356:1.0 747:1.0 164:1.0 239:1.0 647:1.0 702:1.0 17:1.0 
0.22745068246222183 98:1.0 225:1.0 651:1.0 772:1.0 4160:1.0 654:1.0 29:1.0 239:1.0 647:1.0 35:1.0 17:1.0 
0.39477457337056665 98:1.0 114:1.0 161:1.0 238:1.0 117:1.0 26844:1.0 164:1.0 239:1.0 647:1.0 74:1.0 
0.3114629569559747 98:1.0 56:1.0 115:1.0 238:1.0 505:1.0 33441:1.0 119:1.0 239:1.0 647:1.0 
0.26041666666666663 98:1.0 114:1.0 161:1.0 238:1.0 117:1.0 35288:1.0 119:1.0 239:1.0 647:1.0 11:1.0 35:1.0 
0.2998807954098471 98:1.0 56:1.0 115:1.0 238:1.0 505:1.0 8217:1.0 119:1.0 239:1.0 647:1.0 152:1.0 
0.29239766081871343 98:1.0 114:1.0 161:1.0 238:1.0 117:1.0 36926:1.0 119:1.0 239:1.0 647:1.0 11:1.0 
0.24227847800712227 98:1.0 114:1.0 161:1.0 772:1.0 117:1.0 3560:1.0 164:1.0 239:1.0 647:1.0 74:1.0 
0.19454732254205026 98:1.0 114:1.0 25:1.0 238:1.0 117:1.0 826:1.0 151:1.0 239:1.0 647:1.0 43:1.0 166:1.0 32:1.0 
0.29388619746468736 98:1.0 114:1.0 161:1.0 238:1.0 117:1.0 10146:1.0 164:1.0 239:1.0 647:1.0 74:1.0 
0.16715275630291557 98:1.0 56:1.0 4:1.0 238:1.0 840:1.0 7726:1.0 345:1.0 239:1.0 647:1.0 127:1.0 55:1.0 11:1.0 49:1.0 32:1.0 
0.3834612057313156 98:1.0 56:1.0 115:1.0 772:1.0 840:1.0 19538:1.0 119:1.0 239:1.0 647:1.0 
0.2305554847894029 98:1.0 114:1.0 161:1.0 238:1.0 117:1.0 624:1.0 8:1.0 239:1.0 647:1.0 229:1.0 74:1.0 13:1.0 
0.3912445578427197 98:1.0 114:1.0 122:1.0 238:1.0 117:1.0 7:1.0 8:1.0 239:1.0 647:1.0 11:1.0 248:1.0 13:1.0 
0.22280733709657102 98:1.0 114:1.0 70:1.0 772:1.0 117:1.0 764:1.0 8:1.0 239:1.0 647:1.0 32:1.0 74:1.0 13:1.0 
0.19840959789421717 98:1.0 56:1.0 4:1.0 238:1.0 840:1.0 4051:1.0 8:1.0 239:1.0 647:1.0 193:1.0 74:1.0 229:1.0 13:1.0 
0.27624309392265195 98:1.0 56:1.0 161:1.0 772:1.0 840:1.0 10982:1.0 119:1.0 239:1.0 647:1.0 229:1.0 
-0.08788036426518395 98:1.0 114:1.0 249:1.0 427:1.0 117:1.0 2043:1.0 601:1.0 239:1.0 647:1.0 702:1.0 74:1.0 
-0.21350534360930112 98:1.0 56:1.0 70:1.0 238:1.0 840:1.0 2840:1.0 151:1.0 239:1.0 647:1.0 159:1.0 12:1.0 
-0.13343951526567202 98:1.0 114:1.0 70:1.0 238:1.0 117:1.0 12098:1.0 345:1.0 239:1.0 647:1.0 74:1.0 152:1.0 
-0.33525786626019916 98:1.0 114:1.0 161:1.0 238:1.0 117:1.0 9184:1.0 164:1.0 239:1.0 647:1.0 74:1.0 
-0.5866366800276342 98:1.0 114:1.0 70:1.0 238:1.0 117:1.0 764:1.0 243:1.0 239:1.0 647:1.0 317:1.0 74:1.0 
-0.2305554847894029 98:1.0 56:1.0 115:1.0 238:1.0 505:1.0 11189:1.0 119:1.0 239:1.0 647:1.0 11:1.0 17:1.0 
-0.1503061859599277 98:1.0 114:1.0 70:1.0 238:1.0 117:1.0 233:1.0 8:1.0 239:1.0 647:1.0 74:1.0 13:1.0 
-0.09729136527833569 98:1.0 56:1.0 122:1.0 238:1.0 840:1.0 228:1.0 8:1.0 239:1.0 647:1.0 17:1.0 127:1.0 11:1.0 32:1.0 13:1.0 
-0.10666539621779957 98:1.0 114:1.0 4:1.0 238:1.0 117:1.0 3026:1.0 8:1.0 239:1.0 647:1.0 127:1.0 74:1.0 32:1.0 13:1.0 
-0.20479756073817512 98:1.0 114:1.0 4:1.0 238:1.0 117:1.0 10269:1.0 466:1.0 239:1.0 647:1.0 229:1.0 
-0.26041666666666663 98:1.0 114:1.0 161:1.0 238:1.0 117:1.0 660:1.0 119:1.0 239:1.0 647:1.0 11:1.0 152:1.0 
-0.29239766081871343 98:1.0 114:1.0 161:1.0 238:1.0 117:1.0 8414:1.0 543:1.0 239:1.0 647:1.0 11:1.0 32:1.0 
-0.12808666046412062 98:1.0 114:1.0 4:1.0 238:1.0 117:1.0 11143:1.0 8:1.0 239:1.0 647:1.0 127:1.0 11:1.0 13:1.0 
-0.12789555344404205 98:1.0 114:1.0 4:1.0 238:1.0 117:1.0 620:1.0 151:1.0 239:1.0 647:1.0 159:1.0 152:1.0 
-0.19454732254205026 98:1.0 56:1.0 115:1.0 238:1.0 840:1.0 22907:1.0 119:1.0 239:1.0 647:1.0 229:1.0 32:1.0 17:1.0 
-0.13272280474368703 98:1.0 56:1.0 122:1.0 427:1.0 840:1.0 7:1.0 345:1.0 239:1.0 647:1.0 159:1.0 248:1.0 17:1.0 
-0.2261798045118874 98:1.0 114:1.0 122:1.0 238:1.0 117:1.0 573:1.0 151:1.0 239:1.0 647:1.0 55:1.0 11:1.0 49:1.0 
-0.16715275630291557 98:1.0 114:1.0 4:1.0 238:1.0 117:1.0 7336:1.0 8:1.0 239:1.0 647:1.0 11:1.0 32:1.0 13:1.0 
-0.2001188911400434 98:1.0 114:1.0 70:1.0 772:1.0 117:1.0 8796:1.0 8:1.0 239:1.0 647:1.0 74:1.0 346:1.0 13:1.0 
-0.0976436174067451 98:1.0 114:1.0 4:1.0 238:1.0 117:1.0 1124:1.0 8:1.0 239:1.0 647:1.0 32:1.0 159:1.0 254:1.0 13:1.0 
-0.19983055953608228 98:1.0 114:1.0 161:1.0 238:1.0 117:1.0 1477:1.0 164:1.0 239:1.0 647:1.0 702:1.0 11:1.0 229:1.0 
-0.18131920995343706 98:1.0 56:1.0 216:1.0 238:1.0 597:1.0 219:1.0 151:1.0 239:1.0 647:1.0 11:1.0 221:1.0 13:1.0 49:1.0 
-0.17558547390566404 98:1.0 56:1.0 70:1.0 238:1.0 840:1.0 3279:1.0 151:1.0 239:1.0 647:1.0 74:1.0 17:1.0 
-0.09047849649944044 461:1.0 114:1.0 4:1.0 3874:1.0 117:1.0 2316:1.0 8:1.0 239:1.0 647:1.0 248:1.0 346:1.0 13:1.0 
-0.12402669411592158 113:1.0 56:1.0 4:1.0 1056:1.0 94:1.0 4103:1.0 8:1.0 239:1.0 647:1.0 74:1.0 17:1.0 
-0.2134762489845084 98:1.0 56:1.0 115:1.0 772:1.0 596:1.0 3594:1.0 182:1.0 239:1.0 647:1.0 17:1.0 
-0.15153293015665664 113:1.0 616:1.0 161:1.0 2051:1.0 1254:1.0 7:1.0 119:1.0 239:1.0 647:1.0 12:1.0 
-0.18349397368365114 98:1.0 24:1.0 4:1.0 238:1.0 312:1.0 36495:1.0 2864:1.0 239:1.0 647:1.0 127:1.0 229:1.0 
-0.22280733709657102 98:1.0 114:1.0 161:1.0 772:1.0 117:1.0 9259:1.0 119:1.0 239:1.0 647:1.0 229:1.0 43:1.0 
-0.11111762565033213 98:1.0 56:1.0 161:1.0 238:1.0 840:1.0 379:1.0 151:1.0 239:1.0 647:1.0 17:1.0 74:1.0 229:1.0 12:1.0 13:1.0 
-0.29388619746468736 98:1.0 56:1.0 4:1.0 238:1.0 505:1.0 2389:1.0 151:1.0 239:1.0 647:1.0 127:1.0 
-0.14206358483911463 285:1.0 114:1.0 249:1.0 13001:1.0 117:1.0 2293:1.0 29:1.0 239:1.0 647:1.0 74:1.0 
-0.2520112494254653 98:1.0 114:1.0 122:1.0 238:1.0 117:1.0 429:1.0 466:1.0 239:1.0 647:1.0 127:1.0 74:1.0 32:1.0 
-0.19840959789421717 98:1.0 114:1.0 249:1.0 238:1.0 117:1.0 4345:1.0 29:1.0 239:1.0 647:1.0 11:1.0 
-0.1334395046608526 98:1.0 114:1.0 70:1.0 238:1.0 117:1.0 16561:1.0 345:1.0 239:1.0 647:1.0 74:1.0 32:1.0 
-0.27624309392265195 711:1.0 114:1.0 161:1.0 5461:1.0 117:1.0 5537:1.0 466:1.0 239:1.0 647:1.0 
-0.2998807954098471 98:1.0 56:1.0 115:1.0 238:1.0 505:1.0 125:1.0 119:1.0 239:1.0 647:1.0 229:1.0 17:1.0 
-0.13962077533729642 98:1.0 56:1.0 249:1.0 238:1.0 505:1.0 5179:1.0 182:1.0 239:1.0 647:1.0 152:1.0 229:1.0 
-0.11360626949989076 98:1.0 56:1.0 122:1.0 238:1.0 840:1.0 1499:1.0 8:1.0 239:1.0 647:1.0 17:1.0 11:1.0 74:1.0 346:1.0 13:1.0 
-0.22745068246222183 98:1.0 616:1.0 115:1.0 238:1.0 1254:1.0 201:1.0 119:1.0 239:1.0 647:1.0 32:1.0 
-0.10742091116873237 98:1.0 56:1.0 4:1.0 238:1.0 840:1.0 26236:1.0 8:1.0 239:1.0 647:1.0 11:1.0 17:1.0 74:1.0 13:1.0 
-0.2631578973785991 98:1.0 114:1.0 122:1.0 238:1.0 117:1.0 228:1.0 151:1.0 239:1.0 647:1.0 159:1.0 74:1.0 32:1.0 
-0.1915698920115779 98:1.0 56:1.0 25:1.0 238:1.0 505:1.0 1297:1.0 29:1.0 239:1.0 647:1.0 43:1.0 32:1.0 17:1.0 
-0.10021489316800763 98:1.0 114:1.0 216:1.0 427:1.0 117:1.0 686:1.0 8:1.0 239:1.0 647:1.0 74:1.0 221:1.0 13:1.0 
-0.2538282161699394 98:1.0 114:1.0 161:1.0 238:1.0 117:1.0 5703:1.0 466:1.0 239:1.0 647:1.0 159:1.0 32:1.0 
-0.09485106492280175 98:1.0 56:1.0 4:1.0 238:1.0 4026:1.0 1444:1.0 8:1.0 239:1.0 647:1.0 17:1.0 127:1.0 74:1.0 13:1.0 
-0.12080996135617277 98:1.0 56:1.0 99:1.0 238:1.0 840:1.0 2347:1.0 466:1.0 239:1.0 647:1.0 874:1.0 11:1.0 32:1.0 17:1.0 
-0.2558806800179869 98:1.0 56:1.0 4:1.0 427:1.0 840:1.0 7:1.0 151:1.0 239:1.0 647:1.0 74:1.0 166:1.0 11:1.0 17:1.0 
-0.12242938040889065 98:1.0 56:1.0 4:1.0 238:1.0 505:1.0 9960:1.0 466:1.0 239:1.0 647:1.0 74:1.0 32:1.0 17:1.0 
-0.10846124774753771 98:1.0 56:1.0 216:1.0 772:1.0 597:1.0 1585:1.0 8:1.0 239:1.0 647:1.0 17:1.0 11:1.0 221:1.0 32:1.0 13:1.0 
