svm_type c_svc
kernel_type polynomial
degree 2
gamma 0.2
coef0 0.0
nr_class 2
total_sv 56
rho -0.33476976170764255
label 1 -1
nr_sv 33 23
SV
0.11226043485230056 113:1.0 63:1.0 115:1.0 7620:1.0 7619:1.0 2043:1.0 457:1.0 120:1.0 153:1.0 229:1.0 
0.14474201657505703 113:1.0 114:1.0 249:1.0 6672:1.0 117:1.0 7540:1.0 119:1.0 120:1.0 153:1.0 127:1.0 
0.12166236318704651 113:1.0 114:1.0 161:1.0 3673:1.0 117:1.0 407:1.0 119:1.0 120:1.0 153:1.0 
0.2440581146413526 2:1.0 114:1.0 122:1.0 267:1.0 117:1.0 641:1.0 8:1.0 120:1.0 153:1.0 11:1.0 13:1.0 
0.13681934350566263 1256:1.0 215:1.0 161:1.0 6033:1.0 920:1.0 233:1.0 164:1.0 120:1.0 153:1.0 127:1.0 
0.26299478324947245 2:1.0 114:1.0 122:1.0 267:1.0 117:1.0 1609:1.0 8:1.0 120:1.0 153:1.0 127:1.0 13:1.0 
0.18643393457875743 2:1.0 114:1.0 249:1.0 5:1.0 117:1.0 3522:1.0 29:1.0 120:1.0 153:1.0 
0.10297699050916094 2:1.0 114:1.0 122:1.0 710:1.0 117:1.0 10483:1.0 8:1.0 120:1.0 153:1.0 11:1.0 13:1.0 
0.21395920404586735 2:1.0 244:1.0 122:1.0 267:1.0 13380:1.0 3602:1.0 466:1.0 120:1.0 153:1.0 17:1.0 49:1.0 159:1.0 
0.2941176458213568 2:1.0 114:1.0 4:1.0 267:1.0 117:1.0 228:1.0 8:1.0 120:1.0 153:1.0 43:1.0 13:1.0 
0.1570879495248933 879:1.0 114:1.0 115:1.0 3499:1.0 117:1.0 22476:1.0 119:1.0 120:1.0 153:1.0 193:1.0 
0.1610317047445609 23:1.0 114:1.0 4:1.0 22610:1.0 117:1.0 483:1.0 8:1.0 120:1.0 153:1.0 127:1.0 13:1.0 
0.1935439797872051 113:1.0 63:1.0 122:1.0 24372:1.0 9740:1.0 13292:1.0 8:1.0 120:1.0 153:1.0 11:1.0 49:1.0 
0.12561382524466008 113:1.0 14:1.0 115:1.0 18036:1.0 7014:1.0 5427:1.0 457:1.0 120:1.0 153:1.0 
0.14242754470241825 113:1.0 244:1.0 70:1.0 24709:1.0 24710:1.0 681:1.0 182:1.0 120:1.0 153:1.0 
0.19181060694453866 113:1.0 14:1.0 4:1.0 25790:1.0 2926:1.0 2043:1.0 182:1.0 120:1.0 153:1.0 127:1.0 
0.23899400660308226 2:1.0 291:1.0 122:1.0 267:1.0 19093:1.0 233:1.0 345:1.0 120:1.0 153:1.0 11:1.0 17:1.0 
0.09652756473397858 2:1.0 114:1.0 4:1.0 902:1.0 117:1.0 8429:1.0 8:1.0 120:1.0 153:1.0 32:1.0 127:1.0 13:1.0 
0.1755905544074844 1256:1.0 291:1.0 161:1.0 6033:1.0 22053:1.0 233:1.0 164:1.0 120:1.0 153:1.0 11:1.0 
0.10199241163487269 113:1.0 114:1.0 122:1.0 4929:1.0 117:1.0 10967:1.0 8:1.0 120:1.0 153:1.0 127:1.0 248:1.0 
0.22496570659001924 2:1.0 244:1.0 122:1.0 710:1.0 4547:1.0 8888:1.0 182:1.0 120:1.0 153:1.0 
0.35969751043881704 113:1.0 114:1.0 249:1.0 849:1.0 117:1.0 2721:1.0 119:1.0 120:1.0 153:1.0 
0.14422078889173856 2:1.0 114:1.0 4:1.0 710:1.0 117:1.0 483:1.0 8:1.0 120:1.0 153:1.0 127:1.0 32:1.0 35:1.0 1000:1.0 13:1.0 
0.08641935292779326 113:1.0 114:1.0 4:1.0 6672:1.0 117:1.0 2043:1.0 8:1.0 120:1.0 153:1.0 11:1.0 127:1.0 32:1.0 
0.22356433208955784 1256:1.0 114:1.0 122:1.0 6033:1.0 117:1.0 1443:1.0 29:1.0 120:1.0 153:1.0 127:1.0 
0.25068083992230406 2:1.0 114:1.0 4:1.0 5:1.0 117:1.0 3522:1.0 151:1.0 120:1.0 153:1.0 159:1.0 
0.1105578329383169 113:1.0 244:1.0 4:1.0 4678:1.0 2213:1.0 3560:1.0 8:1.0 120:1.0 153:1.0 127:1.0 
0.2941176458213568 2:1.0 114:1.0 70:1.0 267:1.0 117:1.0 2257:1.0 8:1.0 120:1.0 153:1.0 74:1.0 13:1.0 
0.16962239727120204 2:1.0 14:1.0 70:1.0 267:1.0 723:1.0 233:1.0 8:1.0 120:1.0 153:1.0 55:1.0 17:1.0 159:1.0 13:1.0 49:1.0 
0.30088547744631866 2:1.0 114:1.0 161:1.0 902:1.0 117:1.0 918:1.0 164:1.0 120:1.0 153:1.0 
0.10445361881547452 113:1.0 244:1.0 4:1.0 4929:1.0 3620:1.0 681:1.0 8:1.0 120:1.0 153:1.0 32:1.0 17:1.0 74:1.0 
0.1269911323010333 879:1.0 114:1.0 161:1.0 849:1.0 117:1.0 3828:1.0 164:1.0 120:1.0 153:1.0 127:1.0 
0.14427532416667516 113:1.0 114:1.0 115:1.0 7034:1.0 117:1.0 3342:1.0 457:1.0 120:1.0 153:1.0 32:1.0 
-0.2941176458213568 2:1.0 114:1.0 161:1.0 267:1.0 117:1.0 1188:1.0 164:1.0 120:1.0 153:1.0 
-0.35077854755153 113:1.0 114:1.0 122:1.0 6672:1.0 117:1.0 2160:1.0 243:1.0 120:1.0 153:1.0 449:1.0 32:1.0 
-0.1570879495248933 2:1.0 291:1.0 161:1.0 267:1.0 6954:1.0 233:1.0 119:1.0 120:1.0 153:1.0 159:1.0 17:1.0 193:1.0 
-0.35969751043881704 2:1.0 244:1.0 161:1.0 267:1.0 380:1.0 12690:1.0 164:1.0 120:1.0 153:1.0 
-0.3546159475796695 113:1.0 291:1.0 115:1.0 4929:1.0 559:1.0 562:1.0 119:1.0 120:1.0 153:1.0 32:1.0 
-0.16962239727120204 2:1.0 114:1.0 70:1.0 267:1.0 117:1.0 14926:1.0 345:1.0 120:1.0 153:1.0 74:1.0 11:1.0 
-0.10297699050916094 2:1.0 114:1.0 4:1.0 267:1.0 117:1.0 14926:1.0 8:1.0 120:1.0 153:1.0 193:1.0 127:1.0 229:1.0 159:1.0 702:1.0 13:1.0 
-0.23925156715333384 2:1.0 215:1.0 249:1.0 267:1.0 3399:1.0 2151:1.0 119:1.0 120:1.0 153:1.0 127:1.0 
-0.24621320052661125 2:1.0 215:1.0 70:1.0 267:1.0 5810:1.0 2151:1.0 8:1.0 120:1.0 153:1.0 74:1.0 13:1.0 
-0.23899400660308226 2:1.0 291:1.0 115:1.0 267:1.0 4871:1.0 233:1.0 119:1.0 120:1.0 153:1.0 159:1.0 
-0.2009811835494531 2:1.0 291:1.0 161:1.0 4979:1.0 4218:1.0 233:1.0 119:1.0 120:1.0 153:1.0 74:1.0 
-0.22356433208955784 2:1.0 440:1.0 4:1.0 267:1.0 2704:1.0 379:1.0 8:1.0 120:1.0 153:1.0 11:1.0 13:1.0 
-0.1935439797872051 2:1.0 291:1.0 161:1.0 267:1.0 7607:1.0 1138:1.0 164:1.0 120:1.0 153:1.0 11:1.0 32:1.0 
-0.22496570659001924 2:1.0 114:1.0 122:1.0 267:1.0 117:1.0 10220:1.0 8:1.0 120:1.0 153:1.0 11:1.0 74:1.0 13:1.0 
-0.4551493505659177 2:1.0 114:1.0 249:1.0 267:1.0 117:1.0 2721:1.0 119:1.0 120:1.0 153:1.0 
-0.30088547744631866 2:1.0 114:1.0 4:1.0 267:1.0 117:1.0 1297:1.0 345:1.0 120:1.0 153:1.0 74:1.0 
-0.18643393457875743 2:1.0 291:1.0 161:1.0 267:1.0 38645:1.0 233:1.0 119:1.0 120:1.0 153:1.0 11:1.0 346:1.0 32:1.0 
-0.38465714643651894 2:1.0 114:1.0 4:1.0 4979:1.0 117:1.0 17908:1.0 345:1.0 120:1.0 153:1.0 127:1.0 
-0.25068083992230406 36:1.0 291:1.0 115:1.0 2312:1.0 24047:1.0 3560:1.0 119:1.0 120:1.0 153:1.0 17:1.0 
-0.3544607228748716 2:1.0 876:1.0 161:1.0 267:1.0 1362:1.0 233:1.0 119:1.0 120:1.0 153:1.0 159:1.0 
-0.1755905544074844 2:1.0 114:1.0 4:1.0 267:1.0 117:1.0 1520:1.0 8:1.0 120:1.0 153:1.0 229:1.0 127:1.0 13:1.0 
-0.2890173407417322 2:1.0 114:1.0 115:1.0 267:1.0 117:1.0 5031:1.0 119:1.0 120:1.0 153:1.0 
-0.19181060694453866 2:1.0 291:1.0 115:1.0 267:1.0 3595:1.0 233:1.0 119:1.0 120:1.0 153:1.0 74:1.0 49:1.0 
