svm_type c_svc
kernel_type polynomial
degree 2
gamma 0.2
coef0 0.0
nr_class 2
total_sv 59
rho 0.25342775788879773
label 1 -1
nr_sv 28 31
SV
500.0 347:1.0 77:1.0 4:1.0 1538:1.0 2189:1.0 7:1.0 8:1.0 48:1.0 5386:1.0 450:1.0 74:1.0 152:1.0 32:1.0 346:1.0 11:1.0 17:1.0 193:1.0 13:1.0 
500.0 347:1.0 14:1.0 4:1.0 1538:1.0 268:1.0 7:1.0 8:1.0 48:1.0 5386:1.0 450:1.0 74:1.0 152:1.0 32:1.0 346:1.0 11:1.0 17:1.0 193:1.0 13:1.0 
500.0 347:1.0 14:1.0 4:1.0 1538:1.0 268:1.0 7:1.0 8:1.0 48:1.0 5386:1.0 450:1.0 74:1.0 152:1.0 32:1.0 346:1.0 11:1.0 17:1.0 193:1.0 13:1.0 
0.05991582097433274 347:1.0 14:1.0 4:1.0 1538:1.0 3799:1.0 7:1.0 8:1.0 48:1.0 5386:1.0 450:1.0 74:1.0 152:1.0 32:1.0 346:1.0 11:1.0 17:1.0 193:1.0 13:1.0 
500.0 347:1.0 14:1.0 4:1.0 1538:1.0 3799:1.0 7:1.0 8:1.0 48:1.0 5386:1.0 450:1.0 74:1.0 152:1.0 32:1.0 346:1.0 11:1.0 17:1.0 193:1.0 13:1.0 
0.39645949031430744 347:1.0 77:1.0 4:1.0 1538:1.0 3799:1.0 7:1.0 8:1.0 48:1.0 5386:1.0 450:1.0 74:1.0 152:1.0 32:1.0 346:1.0 11:1.0 17:1.0 193:1.0 13:1.0 
0.1478307698310816 82:1.0 14:1.0 4:1.0 83:1.0 574:1.0 2114:1.0 8:1.0 48:1.0 5386:1.0 11:1.0 166:1.0 32:1.0 13:1.0 
0.30220931161295084 82:1.0 63:1.0 1546:1.0 83:1.0 5029:1.0 1548:1.0 466:1.0 48:1.0 5386:1.0 229:1.0 
0.15515741824304094 82:1.0 14:1.0 122:1.0 83:1.0 8183:1.0 7:1.0 8:1.0 48:1.0 5386:1.0 229:1.0 11:1.0 166:1.0 17:1.0 13:1.0 
0.06542890341822709 82:1.0 14:1.0 122:1.0 83:1.0 443:1.0 7:1.0 8:1.0 48:1.0 5386:1.0 229:1.0 11:1.0 166:1.0 17:1.0 13:1.0 
500.0 82:1.0 14:1.0 122:1.0 83:1.0 8183:1.0 7:1.0 8:1.0 48:1.0 5386:1.0 229:1.0 17:1.0 11:1.0 166:1.0 13:1.0 
0.10143332353116719 82:1.0 14:1.0 122:1.0 83:1.0 443:1.0 7:1.0 8:1.0 48:1.0 5386:1.0 229:1.0 17:1.0 11:1.0 166:1.0 13:1.0 
0.18058373579423523 82:1.0 14:1.0 4:1.0 83:1.0 27738:1.0 16957:1.0 8:1.0 48:1.0 5386:1.0 127:1.0 648:1.0 193:1.0 13:1.0 
0.13504241707329262 82:1.0 63:1.0 4:1.0 83:1.0 3196:1.0 483:1.0 8:1.0 48:1.0 5386:1.0 127:1.0 166:1.0 11:1.0 193:1.0 13:1.0 
500.0 82:1.0 14:1.0 122:1.0 83:1.0 1760:1.0 7:1.0 8:1.0 48:1.0 5386:1.0 11:1.0 32:1.0 17:1.0 13:1.0 
0.21719454201249938 82:1.0 14:1.0 122:1.0 83:1.0 1949:1.0 7:1.0 8:1.0 48:1.0 5386:1.0 11:1.0 32:1.0 17:1.0 13:1.0 
500.0 82:1.0 77:1.0 70:1.0 83:1.0 33811:1.0 7:1.0 8:1.0 48:1.0 5386:1.0 74:1.0 166:1.0 32:1.0 17:1.0 13:1.0 
0.23602331765199927 82:1.0 77:1.0 70:1.0 83:1.0 15152:1.0 7:1.0 8:1.0 48:1.0 5386:1.0 74:1.0 166:1.0 32:1.0 17:1.0 13:1.0 
0.20701807093041097 82:1.0 77:1.0 70:1.0 83:1.0 574:1.0 4827:1.0 466:1.0 48:1.0 5386:1.0 32:1.0 
0.9259261221552493 82:1.0 77:1.0 4:1.0 83:1.0 257:1.0 7:1.0 2877:1.0 48:1.0 5386:1.0 74:1.0 32:1.0 346:1.0 17:1.0 193:1.0 
500.0 347:1.0 77:1.0 4:1.0 1538:1.0 257:1.0 7:1.0 2877:1.0 48:1.0 5386:1.0 74:1.0 32:1.0 17:1.0 346:1.0 193:1.0 
0.2559254985922491 82:1.0 63:1.0 216:1.0 83:1.0 24160:1.0 274:1.0 8:1.0 48:1.0 5386:1.0 32:1.0 127:1.0 221:1.0 346:1.0 17:1.0 11:1.0 13:1.0 
0.16473544645621932 347:1.0 63:1.0 216:1.0 1538:1.0 24160:1.0 274:1.0 8:1.0 48:1.0 5386:1.0 32:1.0 17:1.0 127:1.0 221:1.0 11:1.0 13:1.0 
0.09444913579175979 347:1.0 14:1.0 4:1.0 348:1.0 3344:1.0 7:1.0 8:1.0 48:1.0 5386:1.0 11:1.0 74:1.0 346:1.0 17:1.0 13:1.0 
0.24490595671561372 347:1.0 14:1.0 4:1.0 1538:1.0 3344:1.0 7:1.0 8:1.0 48:1.0 5386:1.0 346:1.0 11:1.0 74:1.0 17:1.0 13:1.0 
0.26973051462961367 82:1.0 14:1.0 216:1.0 83:1.0 642:1.0 274:1.0 8:1.0 48:1.0 5386:1.0 11:1.0 221:1.0 32:1.0 13:1.0 
0.1487300204378042 82:1.0 63:1.0 70:1.0 83:1.0 39889:1.0 228:1.0 8:1.0 48:1.0 5386:1.0 193:1.0 74:1.0 12:1.0 229:1.0 11:1.0 13:1.0 
0.2840909098605971 82:1.0 63:1.0 122:1.0 83:1.0 6010:1.0 7:1.0 8:1.0 48:1.0 5386:1.0 127:1.0 254:1.0 346:1.0 13:1.0 
-0.2601573569044149 347:1.0 77:1.0 4:1.0 1538:1.0 2189:1.0 7:1.0 8:1.0 48:1.0 5386:1.0 450:1.0 74:1.0 152:1.0 32:1.0 346:1.0 11:1.0 17:1.0 193:1.0 13:1.0 
-500.0 347:1.0 77:1.0 4:1.0 1538:1.0 2189:1.0 7:1.0 8:1.0 48:1.0 5386:1.0 450:1.0 74:1.0 152:1.0 32:1.0 346:1.0 11:1.0 17:1.0 193:1.0 13:1.0 
-500.0 347:1.0 14:1.0 4:1.0 1538:1.0 268:1.0 7:1.0 8:1.0 48:1.0 5386:1.0 450:1.0 74:1.0 152:1.0 32:1.0 346:1.0 11:1.0 17:1.0 193:1.0 13:1.0 
-500.0 347:1.0 14:1.0 4:1.0 1538:1.0 268:1.0 7:1.0 8:1.0 48:1.0 5386:1.0 450:1.0 74:1.0 152:1.0 32:1.0 346:1.0 11:1.0 17:1.0 193:1.0 13:1.0 
-500.0 347:1.0 14:1.0 4:1.0 1538:1.0 3799:1.0 7:1.0 8:1.0 48:1.0 5386:1.0 450:1.0 74:1.0 152:1.0 32:1.0 346:1.0 11:1.0 17:1.0 193:1.0 13:1.0 
-0.1487300204378042 82:1.0 14:1.0 4:1.0 83:1.0 3799:1.0 7:1.0 8:1.0 48:1.0 5386:1.0 450:1.0 74:1.0 152:1.0 32:1.0 346:1.0 11:1.0 193:1.0 13:1.0 
-0.06542890341822709 82:1.0 77:1.0 4:1.0 83:1.0 3799:1.0 7:1.0 8:1.0 48:1.0 5386:1.0 450:1.0 74:1.0 152:1.0 32:1.0 346:1.0 11:1.0 193:1.0 13:1.0 
-0.13630213340991304 105:1.0 77:1.0 4:1.0 106:1.0 3799:1.0 7:1.0 8:1.0 48:1.0 5386:1.0 450:1.0 74:1.0 152:1.0 32:1.0 346:1.0 11:1.0 17:1.0 193:1.0 
-500.0 82:1.0 14:1.0 122:1.0 83:1.0 8183:1.0 7:1.0 8:1.0 48:1.0 5386:1.0 229:1.0 17:1.0 11:1.0 166:1.0 13:1.0 
-0.13504241707329356 105:1.0 14:1.0 122:1.0 106:1.0 8183:1.0 7:1.0 8:1.0 48:1.0 5386:1.0 229:1.0 17:1.0 11:1.0 166:1.0 
-0.0686932531275409 105:1.0 14:1.0 122:1.0 106:1.0 443:1.0 7:1.0 8:1.0 48:1.0 5386:1.0 229:1.0 17:1.0 11:1.0 166:1.0 
-0.18723224546470824 82:1.0 14:1.0 1546:1.0 83:1.0 2339:1.0 1548:1.0 466:1.0 48:1.0 5386:1.0 32:1.0 
-0.18058373579423523 50:1.0 77:1.0 1546:1.0 52:1.0 3816:1.0 1548:1.0 466:1.0 48:1.0 5386:1.0 166:1.0 
-0.14644528493846656 105:1.0 14:1.0 4:1.0 106:1.0 27738:1.0 16957:1.0 8:1.0 48:1.0 5386:1.0 127:1.0 648:1.0 17:1.0 193:1.0 
-0.09444913579175979 105:1.0 63:1.0 4:1.0 106:1.0 3196:1.0 483:1.0 8:1.0 48:1.0 5386:1.0 127:1.0 166:1.0 11:1.0 17:1.0 193:1.0 
-0.30220931161295084 82:1.0 63:1.0 1546:1.0 83:1.0 10813:1.0 1548:1.0 466:1.0 48:1.0 5386:1.0 32:1.0 
-500.0 82:1.0 14:1.0 122:1.0 83:1.0 1760:1.0 7:1.0 8:1.0 48:1.0 5386:1.0 11:1.0 32:1.0 17:1.0 13:1.0 
-0.21719454201249938 105:1.0 14:1.0 122:1.0 106:1.0 1949:1.0 7:1.0 8:1.0 48:1.0 5386:1.0 11:1.0 32:1.0 17:1.0 
-500.0 82:1.0 77:1.0 70:1.0 83:1.0 33811:1.0 7:1.0 8:1.0 48:1.0 5386:1.0 74:1.0 166:1.0 32:1.0 17:1.0 13:1.0 
-0.23602331765199927 105:1.0 77:1.0 70:1.0 106:1.0 15152:1.0 7:1.0 8:1.0 48:1.0 5386:1.0 74:1.0 166:1.0 32:1.0 17:1.0 
-0.9259261221552493 82:1.0 77:1.0 4:1.0 83:1.0 257:1.0 7:1.0 2877:1.0 48:1.0 5386:1.0 74:1.0 32:1.0 17:1.0 346:1.0 193:1.0 
-500.0 347:1.0 77:1.0 4:1.0 1538:1.0 257:1.0 7:1.0 2877:1.0 48:1.0 5386:1.0 74:1.0 32:1.0 17:1.0 346:1.0 193:1.0 
-0.15515741824304996 82:1.0 77:1.0 1546:1.0 83:1.0 257:1.0 1548:1.0 466:1.0 48:1.0 5386:1.0 32:1.0 
-0.2661687699873865 82:1.0 63:1.0 216:1.0 83:1.0 24160:1.0 274:1.0 8:1.0 48:1.0 5386:1.0 32:1.0 17:1.0 127:1.0 221:1.0 346:1.0 11:1.0 13:1.0 
-0.05991582097433274 105:1.0 63:1.0 216:1.0 106:1.0 24160:1.0 274:1.0 8:1.0 48:1.0 5386:1.0 32:1.0 17:1.0 127:1.0 221:1.0 346:1.0 11:1.0 
-0.20701807093041097 82:1.0 14:1.0 4:1.0 83:1.0 3344:1.0 7:1.0 8:1.0 48:1.0 5386:1.0 346:1.0 11:1.0 74:1.0 13:1.0 
-0.09846067177714715 105:1.0 14:1.0 4:1.0 106:1.0 3344:1.0 7:1.0 8:1.0 48:1.0 5386:1.0 346:1.0 11:1.0 74:1.0 17:1.0 
-0.26973051462961367 105:1.0 14:1.0 216:1.0 106:1.0 642:1.0 274:1.0 8:1.0 48:1.0 5386:1.0 11:1.0 221:1.0 17:1.0 32:1.0 
-0.1478307698310816 105:1.0 63:1.0 70:1.0 106:1.0 39889:1.0 228:1.0 8:1.0 48:1.0 5386:1.0 193:1.0 74:1.0 12:1.0 17:1.0 229:1.0 11:1.0 
-0.1301297760037563 347:1.0 63:1.0 122:1.0 348:1.0 6010:1.0 7:1.0 8:1.0 48:1.0 5386:1.0 127:1.0 254:1.0 17:1.0 13:1.0 
-0.1539611338568408 105:1.0 63:1.0 122:1.0 106:1.0 6010:1.0 7:1.0 8:1.0 48:1.0 5386:1.0 127:1.0 254:1.0 17:1.0 346:1.0 
