svm_type c_svc
kernel_type polynomial
degree 2
gamma 0.2
coef0 0.0
nr_class 2
total_sv 216
rho -0.9087770280228362
label 1 -1
nr_sv 192 24
SV
0.017995631776499786 1:2.0 2:2.0 3:4.0 5:1.0 12:1.0 528:1.0 1785:1.0 1192:1.0 195:1.0 62:1.0 
0.021458080013653284 1:3.0 2:2.0 3:1.0 5:1.0 59:1.0 1109:1.0 2426:1.0 2143:1.0 195:1.0 487:1.0 
0.012675187616879306 1:2.0 2:2.0 3:4.0 5:1.0 59:1.0 299:1.0 956:1.0 4000:1.0 195:1.0 62:1.0 
0.05759362029665961 1:2.0 2:1.0 3:1.0 71:1.0 27:1.0 2266:1.0 63:1.0 4134:1.0 73:1.0 44:1.0 
0.053147533996515804 1:3.0 2:2.0 3:0.0 5:1.0 190:1.0 638:1.0 4234:1.0 1970:1.0 195:1.0 65:1.0 
0.058193428493860916 1:3.0 2:2.0 3:0.0 5:1.0 190:1.0 791:1.0 282:1.0 5696:1.0 195:1.0 96:1.0 
0.017106207398219733 1:3.0 2:3.0 3:1.0 5:1.0 402:1.0 2572:1.0 4780:1.0 6584:1.0 195:1.0 65:1.0 
0.034736999237577476 1:3.0 2:1.0 3:0.0 71:1.0 190:1.0 307:1.0 6288:1.0 1038:1.0 73:1.0 44:1.0 
0.028468113295881482 1:3.0 2:4.0 3:0.0 5:1.0 190:1.0 174:1.0 7364:1.0 2203:1.0 173:1.0 168:1.0 
0.06177241635016121 1:2.0 2:0.0 3:0.0 90:1.0 49:1.0 2234:1.0 8928:1.0 6078:1.0 95:1.0 62:1.0 
0.042880474749133674 1:3.0 2:4.0 3:0.0 5:1.0 59:1.0 528:1.0 10016:1.0 58:1.0 195:1.0 62:1.0 
0.005896982565274494 1:2.0 2:4.0 3:5.0 5:1.0 36:1.0 528:1.0 1157:1.0 10430:1.0 195:1.0 62:1.0 
0.04611227288655907 1:3.0 2:4.0 3:1.0 5:1.0 27:1.0 951:1.0 992:1.0 1038:1.0 195:1.0 454:1.0 
0.028652639874460487 1:4.0 2:0.0 3:2.0 74:1.0 76:1.0 75:1.0 161:1.0 2605:1.0 40:1.0 162:1.0 
0.08260276015525793 1:4.0 2:0.0 3:0.0 74:1.0 6:1.0 75:1.0 8:1.0 2605:1.0 40:1.0 11:1.0 
0.011076653256483372 1:2.0 2:3.0 3:3.0 71:1.0 181:1.0 307:1.0 2156:1.0 2044:1.0 73:1.0 123:1.0 
0.04679544863138332 1:2.0 2:0.0 3:0.0 71:1.0 12:1.0 3298:1.0 3353:1.0 3547:1.0 73:1.0 65:1.0 
0.013735253128043998 1:6.0 2:8.0 3:0.0 124:1.0 18:1.0 1717:1.0 19:1.0 12025:1.0 203:1.0 11:1.0 
0.01367547148192616 1:6.0 2:8.0 3:0.0 124:1.0 41:1.0 1717:1.0 42:1.0 12025:1.0 203:1.0 11:1.0 
0.04429656061688134 1:2.0 2:2.0 3:2.0 171:1.0 27:1.0 172:1.0 992:1.0 1411:1.0 367:1.0 65:1.0 
0.014880784097009957 1:3.0 2:4.0 3:0.0 210:1.0 6:1.0 12730:1.0 8:1.0 3443:1.0 367:1.0 11:1.0 
0.05139843819322118 1:2.0 2:1.0 3:1.0 68:1.0 12:1.0 13704:1.0 139:1.0 1494:1.0 73:1.0 65:1.0 
0.01494574641929642 1:2.0 2:0.0 3:3.0 90:1.0 27:1.0 2411:1.0 234:1.0 2605:1.0 82:1.0 96:1.0 
0.0422276422056919 1:2.0 2:0.0 3:1.0 614:1.0 59:1.0 615:1.0 7487:1.0 865:1.0 617:1.0 62:1.0 
0.004355011067799263 1:4.0 2:1.0 3:0.0 71:1.0 622:1.0 182:1.0 2851:1.0 1076:1.0 73:1.0 625:1.0 
0.0030020670707845507 1:6.0 2:6.0 3:6.0 171:1.0 115:1.0 172:1.0 324:1.0 8876:1.0 160:1.0 162:1.0 
0.0038963573232111614 1:6.0 2:6.0 3:0.0 124:1.0 18:1.0 329:1.0 19:1.0 8876:1.0 203:1.0 11:1.0 
0.0014715080601615121 1:6.0 2:6.0 3:0.0 124:1.0 41:1.0 329:1.0 42:1.0 8876:1.0 203:1.0 11:1.0 
0.08309487253580643 1:2.0 2:0.0 3:0.0 90:1.0 622:1.0 4537:1.0 63:1.0 15075:1.0 195:1.0 625:1.0 
0.01926038812742766 1:2.0 2:3.0 3:1.0 71:1.0 12:1.0 15838:1.0 5053:1.0 9121:1.0 73:1.0 65:1.0 
0.05412875097397459 1:2.0 2:1.0 3:1.0 68:1.0 12:1.0 15987:1.0 139:1.0 140:1.0 73:1.0 65:1.0 
0.013923750619369324 1:6.0 2:5.0 3:2.0 124:1.0 178:1.0 2461:1.0 8183:1.0 16056:1.0 519:1.0 162:1.0 
0.004375224228458012 1:6.0 2:9.0 3:3.0 385:1.0 29:1.0 8293:1.0 505:1.0 16056:1.0 519:1.0 31:1.0 
0.011387889237998876 1:4.0 2:6.0 3:4.0 171:1.0 27:1.0 172:1.0 763:1.0 5899:1.0 367:1.0 573:1.0 
0.021332372066562095 1:2.0 2:2.0 3:2.0 68:1.0 91:1.0 2988:1.0 93:1.0 5986:1.0 73:1.0 96:1.0 
0.019456096772989616 1:3.0 2:2.0 3:1.0 5:1.0 12:1.0 638:1.0 3233:1.0 6106:1.0 195:1.0 65:1.0 
0.05042467995214254 1:3.0 2:3.0 3:0.0 71:1.0 190:1.0 4622:1.0 4387:1.0 12836:1.0 70:1.0 96:1.0 
0.043418608397127044 1:3.0 2:2.0 3:0.0 68:1.0 622:1.0 13661:1.0 436:1.0 2001:1.0 70:1.0 625:1.0 
0.012361158988132443 1:2.0 2:6.0 3:0.0 5:1.0 294:1.0 638:1.0 771:1.0 6319:1.0 195:1.0 11:1.0 
0.032912225289417944 1:2.0 2:0.0 3:1.0 90:1.0 49:1.0 3482:1.0 2269:1.0 1039:1.0 195:1.0 62:1.0 
0.07291502163917438 1:2.0 2:0.0 3:1.0 90:1.0 190:1.0 7:1.0 19789:1.0 2098:1.0 195:1.0 454:1.0 
0.021970316609328105 1:3.0 2:2.0 3:1.0 210:1.0 59:1.0 7230:1.0 5796:1.0 15880:1.0 203:1.0 62:1.0 
0.007964999253414037 1:4.0 2:5.0 3:4.0 5:1.0 27:1.0 528:1.0 244:1.0 4790:1.0 82:1.0 62:1.0 
0.02277063309769752 1:2.0 2:2.0 3:0.0 71:1.0 178:1.0 3469:1.0 10788:1.0 1052:1.0 73:1.0 123:1.0 
0.07372073087048811 1:4.0 2:1.0 3:2.0 71:1.0 27:1.0 307:1.0 370:1.0 5632:1.0 73:1.0 65:1.0 
0.10387113404897914 1:2.0 2:2.0 3:2.0 5:1.0 27:1.0 423:1.0 63:1.0 1038:1.0 10:1.0 65:1.0 
0.0378710147487638 1:3.0 2:0.0 3:1.0 74:1.0 27:1.0 75:1.0 268:1.0 852:1.0 40:1.0 44:1.0 
0.0290141296043645 1:3.0 2:2.0 3:1.0 5:1.0 12:1.0 135:1.0 11910:1.0 1270:1.0 82:1.0 65:1.0 
0.0177505943718392 1:2.0 2:3.0 3:0.0 210:1.0 12:1.0 3230:1.0 3353:1.0 607:1.0 367:1.0 65:1.0 
0.0143838167390064 1:2.0 2:4.0 3:0.0 5:1.0 190:1.0 156:1.0 828:1.0 3710:1.0 195:1.0 65:1.0 
0.016029034097509547 1:2.0 2:4.0 3:2.0 5:1.0 27:1.0 638:1.0 234:1.0 1970:1.0 195:1.0 65:1.0 
0.024751715034117244 1:3.0 2:3.0 3:0.0 5:1.0 6:1.0 423:1.0 8:1.0 834:1.0 195:1.0 11:1.0 
0.002376369595267349 1:2.0 2:9.0 3:0.0 71:1.0 622:1.0 681:1.0 436:1.0 668:1.0 70:1.0 625:1.0 
0.015323456544028478 1:2.0 2:4.0 3:3.0 5:1.0 287:1.0 2394:1.0 3171:1.0 2989:1.0 10:1.0 65:1.0 
0.02887174213351225 1:3.0 2:2.0 3:1.0 5:1.0 12:1.0 135:1.0 4517:1.0 685:1.0 195:1.0 65:1.0 
0.01420279790016388 1:4.0 2:2.0 3:1.0 5:1.0 190:1.0 638:1.0 2293:1.0 834:1.0 195:1.0 65:1.0 
0.07398139237767909 1:2.0 2:0.0 3:0.0 119:1.0 178:1.0 120:1.0 876:1.0 4134:1.0 73:1.0 123:1.0 
0.03262670022812643 1:2.0 2:1.0 3:1.0 5:1.0 190:1.0 156:1.0 1253:1.0 10060:1.0 195:1.0 454:1.0 
0.021599005213497405 1:3.0 2:6.0 3:0.0 5:1.0 190:1.0 632:1.0 1561:1.0 1272:1.0 195:1.0 65:1.0 
0.03143865219319639 1:2.0 2:3.0 3:0.0 5:1.0 190:1.0 1109:1.0 6288:1.0 6601:1.0 195:1.0 96:1.0 
0.011761147067384854 1:4.0 2:7.0 3:5.0 5:1.0 76:1.0 638:1.0 161:1.0 3919:1.0 195:1.0 162:1.0 
0.02756839830971145 1:2.0 2:3.0 3:1.0 5:1.0 12:1.0 19212:1.0 3769:1.0 3289:1.0 173:1.0 65:1.0 
0.050602064082691224 1:3.0 2:5.0 3:0.0 5:1.0 6:1.0 321:1.0 8:1.0 15075:1.0 173:1.0 11:1.0 
0.009032949237518096 1:3.0 2:5.0 3:5.0 5:1.0 207:1.0 321:1.0 231:1.0 15075:1.0 173:1.0 96:1.0 
0.014298862249656341 1:4.0 2:4.0 3:1.0 5:1.0 49:1.0 8881:1.0 10481:1.0 4529:1.0 195:1.0 65:1.0 
0.03821919753484888 1:2.0 2:1.0 3:1.0 68:1.0 12:1.0 5798:1.0 1570:1.0 1662:1.0 73:1.0 65:1.0 
0.03635387119241343 1:3.0 2:2.0 3:0.0 5:1.0 190:1.0 7:1.0 9347:1.0 9210:1.0 195:1.0 454:1.0 
0.020679517548589602 1:2.0 2:3.0 3:0.0 5:1.0 190:1.0 632:1.0 6019:1.0 2989:1.0 10:1.0 65:1.0 
0.00890918901630091 1:7.0 2:0.0 3:0.0 20:1.0 6:1.0 187:1.0 8:1.0 19984:1.0 25:1.0 11:1.0 
0.03727108598380029 1:7.0 2:1.0 3:2.0 5:1.0 91:1.0 34:1.0 93:1.0 19984:1.0 25:1.0 168:1.0 
0.042273657828238054 1:7.0 2:1.0 3:0.0 5:1.0 6:1.0 34:1.0 8:1.0 19984:1.0 25:1.0 11:1.0 
0.05776220420214777 1:7.0 2:4.0 3:2.0 5:1.0 27:1.0 423:1.0 789:1.0 19984:1.0 25:1.0 65:1.0 
0.007218045694833459 1:4.0 2:6.0 3:2.0 171:1.0 27:1.0 172:1.0 63:1.0 27137:1.0 5130:1.0 65:1.0 
0.014852669611568713 1:3.0 2:2.0 3:2.0 5:1.0 190:1.0 7:1.0 3668:1.0 5817:1.0 10:1.0 65:1.0 
0.041872785266297854 1:2.0 2:4.0 3:1.0 5:1.0 12:1.0 791:1.0 5053:1.0 2279:1.0 195:1.0 65:1.0 
0.018930474356952477 1:3.0 2:3.0 3:0.0 5:1.0 190:1.0 528:1.0 6288:1.0 6176:1.0 95:1.0 44:1.0 
0.03227038612560021 1:4.0 2:3.0 3:1.0 5:1.0 190:1.0 7:1.0 2293:1.0 4526:1.0 10:1.0 96:1.0 
0.002207234250421101 1:7.0 2:5.0 3:4.0 171:1.0 91:1.0 172:1.0 93:1.0 28460:1.0 173:1.0 168:1.0 
0.0010577017837803484 1:4.0 2:7.0 3:11.0 71:1.0 6092:1.0 25065:1.0 11965:1.0 12239:1.0 73:1.0 487:1.0 
0.06010735720798291 1:2.0 2:2.0 3:2.0 5:1.0 91:1.0 423:1.0 93:1.0 13596:1.0 195:1.0 573:1.0 
0.023054730631153684 1:2.0 2:3.0 3:1.0 71:1.0 12:1.0 5177:1.0 139:1.0 495:1.0 73:1.0 65:1.0 
0.051968260594970825 1:2.0 2:2.0 3:2.0 5:1.0 59:1.0 174:1.0 4381:1.0 29735:1.0 195:1.0 65:1.0 
0.0057680758678124765 1:3.0 2:5.0 3:2.0 5:1.0 91:1.0 951:1.0 93:1.0 15075:1.0 195:1.0 573:1.0 
0.02727818049073399 1:2.0 2:1.0 3:1.0 71:1.0 12:1.0 8136:1.0 1019:1.0 5786:1.0 73:1.0 123:1.0 
0.025496492472938063 1:2.0 2:2.0 3:1.0 5:1.0 12:1.0 135:1.0 139:1.0 4883:1.0 95:1.0 65:1.0 
0.02509221810593331 1:2.0 2:1.0 3:0.0 68:1.0 190:1.0 10662:1.0 790:1.0 8676:1.0 73:1.0 65:1.0 
0.020156647539794875 1:3.0 2:3.0 3:1.0 71:1.0 12:1.0 381:1.0 139:1.0 167:1.0 73:1.0 487:1.0 
0.05245261773634114 1:6.0 2:0.0 3:2.0 74:1.0 27:1.0 75:1.0 43:1.0 685:1.0 40:1.0 96:1.0 
0.007494837570767002 1:6.0 2:8.0 3:0.0 5:1.0 294:1.0 135:1.0 295:1.0 685:1.0 195:1.0 11:1.0 
0.010264791672085528 1:6.0 2:8.0 3:7.0 5:1.0 190:1.0 135:1.0 4569:1.0 685:1.0 195:1.0 162:1.0 
0.028468117713396426 1:3.0 2:4.0 3:0.0 5:1.0 190:1.0 994:1.0 6019:1.0 32483:1.0 173:1.0 65:1.0 
0.022926890136768355 1:2.0 2:3.0 3:1.0 5:1.0 59:1.0 156:1.0 3008:1.0 32512:1.0 195:1.0 65:1.0 
0.0025046417216558633 1:4.0 2:10.0 3:1.0 68:1.0 12:1.0 130:1.0 373:1.0 4529:1.0 70:1.0 496:1.0 
0.09479089625236699 1:2.0 2:1.0 3:0.0 71:1.0 622:1.0 32754:1.0 623:1.0 12016:1.0 73:1.0 625:1.0 
0.002641543340174468 1:2.0 2:1.0 3:1.0 5:1.0 12:1.0 7:1.0 2787:1.0 720:1.0 195:1.0 62:1.0 
0.022210625149125966 1:4.0 2:2.0 3:0.0 71:1.0 622:1.0 1722:1.0 623:1.0 4324:1.0 70:1.0 625:1.0 
0.015563591372287564 1:4.0 2:2.0 3:1.0 5:1.0 12:1.0 423:1.0 11049:1.0 196:1.0 195:1.0 487:1.0 
0.057368049653837364 1:2.0 2:0.0 3:1.0 90:1.0 49:1.0 506:1.0 28553:1.0 10720:1.0 82:1.0 62:1.0 
0.015815106365853305 1:4.0 2:3.0 3:0.0 5:1.0 6:1.0 423:1.0 8:1.0 3346:1.0 10:1.0 11:1.0 
0.037760021167549805 1:4.0 2:2.0 3:0.0 5:1.0 12:1.0 1173:1.0 3233:1.0 13092:1.0 82:1.0 65:1.0 
0.005200307533356645 1:5.0 2:5.0 3:3.0 5:1.0 207:1.0 539:1.0 2849:1.0 34033:1.0 195:1.0 96:1.0 
0.027545632883669402 1:2.0 2:1.0 3:1.0 71:1.0 12:1.0 5618:1.0 3096:1.0 9:1.0 70:1.0 474:1.0 
0.043225077481255925 1:3.0 2:1.0 3:0.0 68:1.0 622:1.0 1257:1.0 2213:1.0 3284:1.0 73:1.0 625:1.0 
0.026264827337932364 1:2.0 2:0.0 3:1.0 68:1.0 12:1.0 9169:1.0 2399:1.0 17904:1.0 73:1.0 65:1.0 
0.026765408672047474 1:3.0 2:2.0 3:0.0 71:1.0 76:1.0 307:1.0 161:1.0 3977:1.0 73:1.0 162:1.0 
0.0393421243519502 1:2.0 2:0.0 3:0.0 71:1.0 12:1.0 35061:1.0 3233:1.0 6766:1.0 73:1.0 65:1.0 
0.03543639756403167 1:2.0 2:0.0 3:1.0 68:1.0 12:1.0 7003:1.0 599:1.0 8773:1.0 70:1.0 62:1.0 
0.045571546311079666 1:3.0 2:0.0 3:1.0 90:1.0 27:1.0 35580:1.0 244:1.0 6212:1.0 95:1.0 96:1.0 
0.03035618828608259 1:2.0 2:3.0 3:1.0 71:1.0 12:1.0 1087:1.0 14014:1.0 12165:1.0 70:1.0 62:1.0 
0.08665468868212325 1:2.0 2:1.0 3:0.0 71:1.0 190:1.0 4910:1.0 7836:1.0 3180:1.0 70:1.0 454:1.0 
0.04481628361971889 1:2.0 2:1.0 3:1.0 68:1.0 12:1.0 6222:1.0 2399:1.0 25490:1.0 73:1.0 65:1.0 
0.02422530047440685 1:2.0 2:0.0 3:2.0 74:1.0 27:1.0 75:1.0 234:1.0 1924:1.0 40:1.0 573:1.0 
0.012003975019644978 1:4.0 2:4.0 3:3.0 68:1.0 12:1.0 14664:1.0 6660:1.0 5722:1.0 70:1.0 62:1.0 
0.04620372480344436 1:2.0 2:3.0 3:1.0 5:1.0 12:1.0 135:1.0 139:1.0 2279:1.0 95:1.0 65:1.0 
0.02578523720002351 1:2.0 2:1.0 3:1.0 71:1.0 12:1.0 7427:1.0 5176:1.0 495:1.0 672:1.0 801:1.0 
0.020290094155390355 1:2.0 2:5.0 3:1.0 5:1.0 27:1.0 528:1.0 234:1.0 7653:1.0 195:1.0 96:1.0 
0.04625451074830502 1:3.0 2:1.0 3:0.0 71:1.0 190:1.0 1586:1.0 2247:1.0 5632:1.0 70:1.0 96:1.0 
0.05257204298137964 1:2.0 2:0.0 3:0.0 68:1.0 190:1.0 2219:1.0 461:1.0 4309:1.0 73:1.0 454:1.0 
0.02677040142960888 1:3.0 2:5.0 3:0.0 5:1.0 190:1.0 267:1.0 7196:1.0 2611:1.0 73:1.0 96:1.0 
0.004278303492828133 1:3.0 2:10.0 3:1.0 171:1.0 27:1.0 172:1.0 63:1.0 2149:1.0 367:1.0 65:1.0 
0.006323416322253691 1:6.0 2:4.0 3:3.0 5:1.0 402:1.0 7:1.0 183:1.0 1887:1.0 82:1.0 65:1.0 
0.021269016411760006 1:2.0 2:2.0 3:1.0 68:1.0 12:1.0 6952:1.0 17880:1.0 11408:1.0 73:1.0 62:1.0 
0.017041967224978655 1:4.0 2:0.0 3:4.0 74:1.0 27:1.0 75:1.0 43:1.0 7199:1.0 40:1.0 44:1.0 
0.05522334357082065 1:5.0 2:0.0 3:2.0 35:1.0 27:1.0 37:1.0 43:1.0 2605:1.0 40:1.0 96:1.0 
0.05069860963968242 1:5.0 2:0.0 3:2.0 46:1.0 27:1.0 47:1.0 43:1.0 2605:1.0 40:1.0 96:1.0 
0.0624682094036022 1:2.0 2:0.0 3:1.0 5:1.0 59:1.0 7:1.0 29310:1.0 1763:1.0 173:1.0 62:1.0 
0.021592506901466184 1:4.0 2:4.0 3:0.0 5:1.0 6:1.0 423:1.0 8:1.0 26572:1.0 195:1.0 11:1.0 
0.019333263135124387 1:4.0 2:3.0 3:0.0 5:1.0 6:1.0 423:1.0 8:1.0 585:1.0 10:1.0 11:1.0 
0.02145359725886066 1:3.0 2:1.0 3:0.0 71:1.0 12:1.0 1222:1.0 23525:1.0 551:1.0 82:1.0 62:1.0 
0.045641618032317394 1:3.0 2:2.0 3:0.0 5:1.0 190:1.0 7:1.0 14019:1.0 1788:1.0 195:1.0 96:1.0 
0.01253822677787668 1:3.0 2:4.0 3:0.0 124:1.0 6:1.0 2423:1.0 8:1.0 323:1.0 73:1.0 11:1.0 
0.01615139778936738 1:3.0 2:4.0 3:2.0 124:1.0 27:1.0 2423:1.0 836:1.0 323:1.0 73:1.0 96:1.0 
0.035354442331478574 1:3.0 2:1.0 3:0.0 68:1.0 622:1.0 2039:1.0 63:1.0 323:1.0 70:1.0 625:1.0 
0.054856070155690606 1:2.0 2:0.0 3:0.0 68:1.0 622:1.0 4584:1.0 623:1.0 58:1.0 73:1.0 625:1.0 
0.055655431526745264 1:2.0 2:1.0 3:1.0 5:1.0 12:1.0 910:1.0 3769:1.0 2605:1.0 134:1.0 65:1.0 
0.007749825129580321 1:5.0 2:4.0 3:2.0 124:1.0 91:1.0 186:1.0 93:1.0 668:1.0 82:1.0 17:1.0 
0.044049411892667145 1:2.0 2:2.0 3:1.0 71:1.0 12:1.0 5851:1.0 1019:1.0 4429:1.0 70:1.0 62:1.0 
0.003244950075378448 1:4.0 2:2.0 3:0.0 48:1.0 622:1.0 9895:1.0 2213:1.0 2001:1.0 70:1.0 625:1.0 
0.006260859565489989 1:2.0 2:6.0 3:3.0 171:1.0 27:1.0 172:1.0 226:1.0 2618:1.0 367:1.0 454:1.0 
0.027974585363240743 1:2.0 2:1.0 3:1.0 71:1.0 12:1.0 1025:1.0 8612:1.0 19237:1.0 672:1.0 801:1.0 
0.017397147902438823 1:6.0 2:4.0 3:0.0 48:1.0 622:1.0 5283:1.0 63:1.0 4486:1.0 70:1.0 625:1.0 
0.012713997656264865 1:4.0 2:0.0 3:0.0 74:1.0 27:1.0 75:1.0 836:1.0 551:1.0 40:1.0 96:1.0 
0.011041983959060959 1:4.0 2:1.0 3:0.0 71:1.0 49:1.0 307:1.0 17358:1.0 5413:1.0 73:1.0 65:1.0 
0.055456358377944104 1:2.0 2:0.0 3:1.0 90:1.0 49:1.0 3010:1.0 128:1.0 1885:1.0 95:1.0 62:1.0 
0.028061179959374644 1:4.0 2:3.0 3:1.0 71:1.0 12:1.0 729:1.0 139:1.0 1574:1.0 73:1.0 65:1.0 
0.06718389429915905 1:2.0 2:2.0 3:1.0 5:1.0 12:1.0 638:1.0 2399:1.0 3305:1.0 195:1.0 65:1.0 
0.022648568901197992 1:2.0 2:1.0 3:2.0 71:1.0 622:1.0 3655:1.0 1713:1.0 15000:1.0 73:1.0 625:1.0 
0.0850642249611292 1:2.0 2:2.0 3:0.0 5:1.0 190:1.0 791:1.0 2778:1.0 20706:1.0 10:1.0 65:1.0 
0.01113265943972612 1:4.0 2:4.0 3:2.0 171:1.0 27:1.0 172:1.0 234:1.0 41137:1.0 173:1.0 96:1.0 
0.04487532726780162 1:2.0 2:0.0 3:0.0 71:1.0 12:1.0 11399:1.0 1870:1.0 11675:1.0 70:1.0 62:1.0 
0.03764527696286025 1:4.0 2:3.0 3:0.0 68:1.0 41:1.0 1427:1.0 42:1.0 5632:1.0 73:1.0 11:1.0 
0.03914116147117181 1:2.0 2:1.0 3:1.0 71:1.0 12:1.0 7440:1.0 11420:1.0 3524:1.0 73:1.0 496:1.0 
0.033737385291144235 1:2.0 2:1.0 3:0.0 68:1.0 190:1.0 11132:1.0 2564:1.0 323:1.0 73:1.0 96:1.0 
0.05181548190864218 1:3.0 2:2.0 3:0.0 5:1.0 6:1.0 423:1.0 8:1.0 10030:1.0 195:1.0 11:1.0 
0.04675566870720346 1:2.0 2:0.0 3:0.0 68:1.0 190:1.0 3137:1.0 2851:1.0 2624:1.0 73:1.0 123:1.0 
0.008262918567120985 1:5.0 2:0.0 3:1.0 74:1.0 27:1.0 75:1.0 992:1.0 495:1.0 40:1.0 96:1.0 
0.034493444182686406 1:2.0 2:2.0 3:1.0 171:1.0 27:1.0 172:1.0 169:1.0 837:1.0 173:1.0 168:1.0 
0.008726578977433497 1:6.0 2:7.0 3:0.0 5:1.0 18:1.0 764:1.0 19:1.0 4719:1.0 765:1.0 11:1.0 
0.03213259383965147 1:2.0 2:3.0 3:1.0 71:1.0 12:1.0 42335:1.0 2399:1.0 4719:1.0 73:1.0 65:1.0 
0.06290708175265679 1:2.0 2:2.0 3:1.0 5:1.0 12:1.0 135:1.0 1570:1.0 2989:1.0 195:1.0 65:1.0 
0.0219865265898315 1:3.0 2:1.0 3:0.0 71:1.0 622:1.0 3307:1.0 992:1.0 668:1.0 70:1.0 625:1.0 
0.019241450974046056 1:3.0 2:2.0 3:0.0 5:1.0 190:1.0 174:1.0 3283:1.0 3946:1.0 195:1.0 65:1.0 
0.07032546603764545 1:2.0 2:1.0 3:1.0 71:1.0 27:1.0 2366:1.0 63:1.0 5632:1.0 73:1.0 454:1.0 
0.03352011806811171 1:2.0 2:2.0 3:1.0 71:1.0 12:1.0 4811:1.0 139:1.0 1192:1.0 73:1.0 65:1.0 
0.03925675412617592 1:2.0 2:3.0 3:1.0 71:1.0 12:1.0 730:1.0 139:1.0 922:1.0 73:1.0 65:1.0 
0.018236296365306978 1:5.0 2:1.0 3:0.0 5:1.0 190:1.0 638:1.0 1048:1.0 43493:1.0 195:1.0 96:1.0 
0.05690612653252101 1:5.0 2:0.0 3:2.0 74:1.0 27:1.0 75:1.0 43:1.0 43538:1.0 40:1.0 65:1.0 
0.015266683734386133 1:3.0 2:2.0 3:0.0 210:1.0 6:1.0 382:1.0 8:1.0 10750:1.0 95:1.0 11:1.0 
0.04045947256577748 1:3.0 2:1.0 3:0.0 71:1.0 207:1.0 307:1.0 4468:1.0 865:1.0 73:1.0 123:1.0 
0.006759663580385632 1:3.0 2:0.0 3:2.0 210:1.0 27:1.0 104:1.0 169:1.0 865:1.0 367:1.0 65:1.0 
0.00108979002210292 1:2.0 2:14.0 3:7.0 5:1.0 76:1.0 638:1.0 161:1.0 3305:1.0 195:1.0 162:1.0 
0.0025405255976585278 1:2.0 2:0.0 3:0.0 20:1.0 622:1.0 263:1.0 63:1.0 2502:1.0 73:1.0 625:1.0 
0.039665874297111894 1:2.0 2:0.0 3:2.0 74:1.0 27:1.0 75:1.0 3843:1.0 4883:1.0 40:1.0 96:1.0 
0.03097564655149124 1:3.0 2:0.0 3:2.0 74:1.0 27:1.0 75:1.0 2213:1.0 3346:1.0 40:1.0 96:1.0 
0.03446660648511925 1:2.0 2:3.0 3:2.0 5:1.0 27:1.0 528:1.0 406:1.0 44928:1.0 95:1.0 65:1.0 
0.0021314325045883706 1:5.0 2:8.0 3:0.0 5:1.0 6:1.0 7:1.0 8:1.0 1494:1.0 195:1.0 11:1.0 
0.015372803569970917 1:4.0 2:3.0 3:0.0 5:1.0 6:1.0 423:1.0 8:1.0 2001:1.0 4364:1.0 11:1.0 
0.012887039890395647 1:7.0 2:3.0 3:0.0 5:1.0 6:1.0 1173:1.0 8:1.0 45235:1.0 82:1.0 11:1.0 
0.029695810423047832 1:2.0 2:0.0 3:0.0 119:1.0 190:1.0 120:1.0 10042:1.0 3443:1.0 73:1.0 454:1.0 
0.033234278056595776 1:2.0 2:3.0 3:2.0 171:1.0 27:1.0 172:1.0 244:1.0 12808:1.0 195:1.0 96:1.0 
0.040116241139356 1:3.0 2:2.0 3:2.0 5:1.0 91:1.0 1173:1.0 93:1.0 3156:1.0 82:1.0 168:1.0 
0.022719203262477117 1:3.0 2:1.0 3:0.0 68:1.0 622:1.0 1129:1.0 63:1.0 3346:1.0 70:1.0 625:1.0 
0.023054734434259417 1:2.0 2:3.0 3:1.0 71:1.0 12:1.0 1910:1.0 139:1.0 193:1.0 73:1.0 65:1.0 
0.05507280700791277 1:2.0 2:1.0 3:3.0 5:1.0 59:1.0 7:1.0 4582:1.0 7217:1.0 195:1.0 62:1.0 
0.009354868913085172 1:3.0 2:5.0 3:3.0 5:1.0 207:1.0 135:1.0 981:1.0 3156:1.0 195:1.0 96:1.0 
0.0122828098791518 1:2.0 2:5.0 3:2.0 5:1.0 190:1.0 156:1.0 2625:1.0 2605:1.0 195:1.0 65:1.0 
0.02902838555130556 1:2.0 2:5.0 3:1.0 5:1.0 59:1.0 156:1.0 3008:1.0 2605:1.0 195:1.0 65:1.0 
0.01139793498558022 1:2.0 2:2.0 3:0.0 71:1.0 49:1.0 3207:1.0 8355:1.0 9950:1.0 73:1.0 65:1.0 
0.02145608257584047 1:3.0 2:3.0 3:1.0 5:1.0 12:1.0 7:1.0 13850:1.0 2496:1.0 10:1.0 65:1.0 
0.01626586860987466 1:5.0 2:0.0 3:0.0 68:1.0 6:1.0 25605:1.0 8:1.0 58:1.0 73:1.0 11:1.0 
0.03226953734579755 1:2.0 2:4.0 3:4.0 5:1.0 91:1.0 135:1.0 93:1.0 2605:1.0 195:1.0 573:1.0 
0.031439724023300274 1:2.0 2:3.0 3:2.0 68:1.0 27:1.0 1840:1.0 2213:1.0 3710:1.0 73:1.0 168:1.0 
-0.15525886851913992 1:3.0 2:5.0 3:0.0 5:1.0 190:1.0 7:1.0 705:1.0 1038:1.0 10:1.0 65:1.0 
-0.20898452471110765 1:3.0 2:2.0 3:3.0 5:1.0 12:1.0 135:1.0 4621:1.0 12836:1.0 95:1.0 14:1.0 
-0.2614475522745333 1:3.0 2:2.0 3:1.0 5:1.0 12:1.0 1173:1.0 9345:1.0 5295:1.0 82:1.0 62:1.0 
-0.1279320041953044 1:2.0 2:4.0 3:2.0 5:1.0 59:1.0 5993:1.0 10796:1.0 4311:1.0 195:1.0 62:1.0 
-0.17055223920086773 1:3.0 2:3.0 3:0.0 5:1.0 6092:1.0 951:1.0 6524:1.0 15075:1.0 173:1.0 65:1.0 
-0.3561157980249733 1:3.0 2:0.0 3:0.0 68:1.0 190:1.0 9321:1.0 19789:1.0 10619:1.0 73:1.0 454:1.0 
-0.13262451462216943 1:7.0 2:4.0 3:0.0 5:1.0 6:1.0 423:1.0 8:1.0 19984:1.0 25:1.0 11:1.0 
-0.09034022128966382 1:7.0 2:4.0 3:2.0 5:1.0 91:1.0 423:1.0 93:1.0 19984:1.0 25:1.0 168:1.0 
-0.17052952819994982 1:2.0 2:4.0 3:1.0 71:1.0 12:1.0 4395:1.0 22478:1.0 727:1.0 73:1.0 62:1.0 
-0.4498547042356443 1:2.0 2:1.0 3:0.0 71:1.0 622:1.0 9561:1.0 1713:1.0 1513:1.0 73:1.0 625:1.0 
-0.133935602911778 1:3.0 2:5.0 3:2.0 171:1.0 27:1.0 172:1.0 992:1.0 30272:1.0 765:1.0 168:1.0 
-0.21377093403668257 1:2.0 2:2.0 3:3.0 5:1.0 59:1.0 7:1.0 7487:1.0 22905:1.0 10:1.0 14:1.0 
-0.08718981376919348 1:2.0 2:5.0 3:3.0 5:1.0 178:1.0 7:1.0 12917:1.0 4552:1.0 195:1.0 474:1.0 
-0.2982784380143971 1:3.0 2:2.0 3:0.0 5:1.0 190:1.0 638:1.0 842:1.0 5986:1.0 195:1.0 65:1.0 
-0.3265643895468115 1:3.0 2:0.0 3:1.0 90:1.0 49:1.0 35580:1.0 35581:1.0 6212:1.0 95:1.0 14:1.0 
-0.3896275903049914 1:2.0 2:1.0 3:0.0 71:1.0 6092:1.0 36062:1.0 6524:1.0 332:1.0 73:1.0 65:1.0 
-0.4187316083877278 1:3.0 2:1.0 3:1.0 71:1.0 12:1.0 307:1.0 4597:1.0 5632:1.0 73:1.0 14:1.0 
-0.3237886554595354 1:5.0 2:0.0 3:2.0 74:1.0 27:1.0 75:1.0 43:1.0 2605:1.0 40:1.0 96:1.0 
-0.4413999976029345 1:2.0 2:1.0 3:1.0 68:1.0 12:1.0 25605:1.0 2435:1.0 140:1.0 73:1.0 14:1.0 
-0.3552632780957286 1:2.0 2:2.0 3:0.0 124:1.0 622:1.0 1717:1.0 623:1.0 4134:1.0 73:1.0 625:1.0 
-0.28941004296283074 1:2.0 2:3.0 3:0.0 5:1.0 190:1.0 791:1.0 7836:1.0 1272:1.0 82:1.0 454:1.0 
-0.1926441437746665 1:2.0 2:4.0 3:2.0 5:1.0 27:1.0 528:1.0 2213:1.0 2789:1.0 95:1.0 168:1.0 
-0.054256063935629054 1:4.0 2:3.0 3:2.0 210:1.0 27:1.0 13318:1.0 436:1.0 1083:1.0 195:1.0 44:1.0 
-0.09249550339961374 1:4.0 2:3.0 3:1.0 210:1.0 27:1.0 13318:1.0 631:1.0 1083:1.0 195:1.0 96:1.0 
