svm_type c_svc
kernel_type polynomial
degree 2
gamma 0.2
coef0 0.0
nr_class 2
total_sv 905
rho -4.196586809104996
label 1 -1
nr_sv 705 200
SV
0.1710899091764304 1:4.0 2:1.0 3:0.0 56:1.0 574:1.0 538:1.0 575:1.0 576:1.0 
0.017617187193828876 1:3.0 2:4.0 3:2.0 58:1.0 162:1.0 573:1.0 1641:1.0 9:1.0 
0.11394372315144637 1:5.0 2:2.0 3:1.0 271:1.0 49:1.0 272:1.0 2096:1.0 2095:1.0 
0.5225771217646912 1:4.0 2:0.0 3:0.0 60:1.0 384:1.0 61:1.0 821:1.0 1524:1.0 
0.14742918306914513 1:4.0 2:0.0 3:0.0 60:1.0 6:1.0 61:1.0 8:1.0 1524:1.0 
0.12367046646055337 1:4.0 2:0.0 3:5.0 60:1.0 93:1.0 61:1.0 155:1.0 1524:1.0 
0.10003078205442623 1:3.0 2:1.0 3:2.0 56:1.0 21:1.0 2365:1.0 203:1.0 2364:1.0 
499.81410726010944 1:7.0 2:0.0 3:3.0 28:1.0 49:1.0 30:1.0 3391:1.0 165:1.0 
0.57036384149579 1:4.0 2:1.0 3:0.0 56:1.0 6:1.0 178:1.0 8:1.0 2353:1.0 
0.03396625624611929 1:4.0 2:4.0 3:0.0 58:1.0 6:1.0 3649:1.0 8:1.0 2353:1.0 
0.015445056487480738 1:3.0 2:3.0 3:2.0 58:1.0 93:1.0 638:1.0 4055:1.0 4054:1.0 
0.28414083109722976 1:7.0 2:2.0 3:0.0 58:1.0 384:1.0 1308:1.0 2074:1.0 2674:1.0 
0.13366615368002172 1:3.0 2:2.0 3:0.0 56:1.0 384:1.0 607:1.0 2038:1.0 165:1.0 
0.3977747510318826 1:4.0 2:3.0 3:0.0 5:1.0 384:1.0 132:1.0 1292:1.0 165:1.0 
0.051515963701037684 1:5.0 2:6.0 3:3.0 5:1.0 49:1.0 3835:1.0 7051:1.0 3430:1.0 
0.024438836452373217 1:5.0 2:6.0 3:4.0 5:1.0 10:1.0 3835:1.0 672:1.0 3430:1.0 
0.3158453325050469 1:6.0 2:1.0 3:0.0 56:1.0 6:1.0 178:1.0 8:1.0 9:1.0 
0.09089436341985323 1:6.0 2:5.0 3:3.0 70:1.0 21:1.0 5526:1.0 276:1.0 9:1.0 
0.11999921328674402 1:4.0 2:0.0 3:0.0 60:1.0 384:1.0 61:1.0 2038:1.0 787:1.0 
0.0668694696442762 1:4.0 2:0.0 3:0.0 60:1.0 162:1.0 61:1.0 7142:1.0 787:1.0 
0.14435503793962004 1:4.0 2:5.0 3:0.0 208:1.0 6:1.0 383:1.0 8:1.0 96:1.0 
13.291086913946813 1:4.0 2:5.0 3:0.0 208:1.0 49:1.0 383:1.0 3246:1.0 96:1.0 
0.025764985783025558 1:4.0 2:4.0 3:0.0 70:1.0 6:1.0 1487:1.0 8:1.0 165:1.0 
0.3332380600493948 1:4.0 2:0.0 3:3.0 60:1.0 93:1.0 61:1.0 290:1.0 96:1.0 
0.007144758840880368 1:6.0 2:3.0 3:0.0 56:1.0 384:1.0 9190:1.0 8817:1.0 1747:1.0 
0.8547168304825538 1:5.0 2:0.0 3:0.0 60:1.0 384:1.0 61:1.0 2074:1.0 2075:1.0 
0.004876028865403656 1:5.0 2:3.0 3:0.0 56:1.0 6:1.0 4950:1.0 8:1.0 9:1.0 
0.11114551391850247 1:7.0 2:0.0 3:0.0 60:1.0 384:1.0 61:1.0 2038:1.0 5095:1.0 
0.2075179116506871 1:5.0 2:0.0 3:0.0 72:1.0 162:1.0 322:1.0 164:1.0 316:1.0 
0.38880970521385505 1:4.0 2:3.0 3:2.0 144:1.0 62:1.0 145:1.0 136:1.0 503:1.0 
0.21817648007787802 1:4.0 2:4.0 3:3.0 70:1.0 62:1.0 158:1.0 136:1.0 165:1.0 
0.104510168010768 1:5.0 2:0.0 3:4.0 60:1.0 21:1.0 61:1.0 482:1.0 9912:1.0 
0.09459312329043898 1:4.0 2:6.0 3:3.0 56:1.0 49:1.0 466:1.0 5033:1.0 116:1.0 
0.1751334020300515 1:5.0 2:3.0 3:0.0 5:1.0 6:1.0 146:1.0 8:1.0 316:1.0 
0.054373431827967986 1:5.0 2:7.0 3:3.0 70:1.0 49:1.0 3457:1.0 3246:1.0 165:1.0 
0.039074122238150294 1:6.0 2:6.0 3:0.0 70:1.0 6:1.0 295:1.0 8:1.0 165:1.0 
0.9402918610431299 1:6.0 2:0.0 3:0.0 60:1.0 162:1.0 61:1.0 274:1.0 9:1.0 
0.08018219740295815 1:4.0 2:6.0 3:0.0 144:1.0 6:1.0 145:1.0 8:1.0 506:1.0 
0.029897098345729466 1:4.0 2:0.0 3:3.0 60:1.0 12:1.0 61:1.0 155:1.0 165:1.0 
0.3382072173415587 1:6.0 2:2.0 3:0.0 5:1.0 162:1.0 132:1.0 164:1.0 165:1.0 
0.6742106193667201 1:6.0 2:0.0 3:0.0 60:1.0 162:1.0 61:1.0 164:1.0 165:1.0 
0.04673304587932352 1:4.0 2:5.0 3:3.0 5:1.0 12:1.0 9317:1.0 2588:1.0 165:1.0 
0.04979446486738591 1:3.0 2:1.0 3:0.0 58:1.0 2636:1.0 11496:1.0 2637:1.0 9:1.0 
0.06851566563869077 1:4.0 2:0.0 3:0.0 60:1.0 384:1.0 61:1.0 2038:1.0 8990:1.0 
0.009069817183998092 1:6.0 2:3.0 3:0.0 108:1.0 6:1.0 1662:1.0 8:1.0 9:1.0 
0.0564742917168599 1:5.0 2:6.0 3:0.0 144:1.0 6:1.0 145:1.0 8:1.0 11757:1.0 
0.38764203289929167 1:4.0 2:2.0 3:0.0 5:1.0 162:1.0 132:1.0 164:1.0 316:1.0 
0.027291762260172905 1:3.0 2:3.0 3:3.0 56:1.0 177:1.0 466:1.0 314:1.0 9:1.0 
0.46304581151599 1:6.0 2:0.0 3:0.0 60:1.0 384:1.0 61:1.0 2074:1.0 2674:1.0 
0.04386706513777827 1:5.0 2:7.0 3:0.0 144:1.0 6:1.0 145:1.0 8:1.0 634:1.0 
0.028649454042863686 1:4.0 2:5.0 3:0.0 144:1.0 6:1.0 145:1.0 8:1.0 524:1.0 
0.03940708138958963 1:5.0 2:2.0 3:1.0 58:1.0 49:1.0 9659:1.0 12961:1.0 1029:1.0 
0.05420331527065227 1:6.0 2:1.0 3:0.0 56:1.0 6:1.0 2151:1.0 8:1.0 9:1.0 
0.08356340205750193 1:5.0 2:0.0 3:0.0 60:1.0 384:1.0 61:1.0 2074:1.0 165:1.0 
0.23631932216040152 1:5.0 2:0.0 3:0.0 60:1.0 384:1.0 61:1.0 2074:1.0 12874:1.0 
0.3993649499554543 1:5.0 2:1.0 3:0.0 56:1.0 6:1.0 466:1.0 8:1.0 9:1.0 
0.11969087290384671 1:5.0 2:2.0 3:2.0 5:1.0 49:1.0 7:1.0 99:1.0 165:1.0 
0.010031142353041995 1:5.0 2:5.0 3:5.0 56:1.0 21:1.0 13337:1.0 203:1.0 3607:1.0 
0.01834348339626857 1:5.0 2:0.0 3:0.0 324:1.0 54:1.0 325:1.0 55:1.0 3607:1.0 
0.15251504561512447 1:4.0 2:5.0 3:0.0 70:1.0 6:1.0 1652:1.0 8:1.0 9:1.0 
0.135286247239228 1:4.0 2:5.0 3:1.0 70:1.0 49:1.0 1652:1.0 13385:1.0 9:1.0 
0.06283144476668441 1:5.0 2:4.0 3:3.0 5:1.0 49:1.0 7:1.0 10192:1.0 9:1.0 
2.8396348977558024 1:6.0 2:0.0 3:0.0 37:1.0 384:1.0 38:1.0 2074:1.0 5911:1.0 
1.5964716396368057 1:8.0 2:0.0 3:0.0 60:1.0 384:1.0 61:1.0 2038:1.0 1433:1.0 
21.839433980588517 1:8.0 2:0.0 3:0.0 60:1.0 384:1.0 61:1.0 2038:1.0 1433:1.0 
0.012502994136478481 1:6.0 2:6.0 3:3.0 58:1.0 21:1.0 2649:1.0 400:1.0 14089:1.0 
0.1275616507583847 1:10.0 2:0.0 3:0.0 97:1.0 384:1.0 2076:1.0 933:1.0 1795:1.0 
4.196449706970143 1:10.0 2:0.0 3:0.0 97:1.0 33:1.0 2076:1.0 34:1.0 1795:1.0 
0.19205362597581718 1:5.0 2:7.0 3:0.0 180:1.0 6:1.0 2414:1.0 8:1.0 9:1.0 
0.006371871853274517 1:5.0 2:3.0 3:0.0 56:1.0 6:1.0 8677:1.0 8:1.0 9:1.0 
0.042225693369360176 1:4.0 2:0.0 3:0.0 60:1.0 384:1.0 61:1.0 2074:1.0 14159:1.0 
0.008412492276098563 1:4.0 2:0.0 3:0.0 60:1.0 162:1.0 61:1.0 3315:1.0 14159:1.0 
0.045156556245178385 1:5.0 2:2.0 3:1.0 58:1.0 49:1.0 12090:1.0 14206:1.0 9:1.0 
0.027193922224854648 1:3.0 2:2.0 3:0.0 56:1.0 384:1.0 14238:1.0 8817:1.0 167:1.0 
0.08446667422370827 1:6.0 2:0.0 3:0.0 28:1.0 384:1.0 30:1.0 2074:1.0 14352:1.0 
0.05446457634019525 1:5.0 2:0.0 3:0.0 60:1.0 384:1.0 61:1.0 821:1.0 490:1.0 
476.7675864266461 1:11.0 2:0.0 3:0.0 97:1.0 33:1.0 2076:1.0 34:1.0 2075:1.0 
0.04049218376007477 1:4.0 2:0.0 3:0.0 60:1.0 384:1.0 61:1.0 821:1.0 778:1.0 
0.018782789057252357 1:3.0 2:3.0 3:0.0 56:1.0 384:1.0 9428:1.0 933:1.0 3176:1.0 
0.04001232698225152 1:4.0 2:6.0 3:0.0 208:1.0 6:1.0 383:1.0 8:1.0 96:1.0 
0.06873512522271474 1:3.0 2:4.0 3:1.0 5:1.0 49:1.0 111:1.0 2082:1.0 1348:1.0 
4.5647995322776955 1:4.0 2:4.0 3:1.0 208:1.0 49:1.0 383:1.0 3246:1.0 96:1.0 
0.186836191703711 1:4.0 2:4.0 3:1.0 208:1.0 49:1.0 383:1.0 8380:1.0 96:1.0 
0.21162691369131667 1:4.0 2:0.0 3:0.0 60:1.0 6:1.0 61:1.0 8:1.0 4032:1.0 
0.13030897635909194 1:4.0 2:4.0 3:3.0 97:1.0 21:1.0 98:1.0 259:1.0 3337:1.0 
0.3310668520716871 1:5.0 2:0.0 3:0.0 60:1.0 384:1.0 61:1.0 821:1.0 4032:1.0 
0.1049822463424809 1:5.0 2:0.0 3:2.0 60:1.0 21:1.0 61:1.0 617:1.0 4032:1.0 
0.1345474666999155 1:5.0 2:0.0 3:2.0 97:1.0 21:1.0 824:1.0 617:1.0 4032:1.0 
0.013524270397587239 1:6.0 2:4.0 3:0.0 144:1.0 49:1.0 145:1.0 15774:1.0 167:1.0 
0.08216183684105412 1:5.0 2:4.0 3:0.0 144:1.0 384:1.0 145:1.0 2038:1.0 1131:1.0 
2.352017470324636 1:6.0 2:0.0 3:0.0 60:1.0 162:1.0 61:1.0 164:1.0 165:1.0 
0.010277089060566815 1:4.0 2:1.0 3:1.0 108:1.0 49:1.0 1970:1.0 2201:1.0 9868:1.0 
0.11464907678226018 1:5.0 2:1.0 3:0.0 56:1.0 6:1.0 114:1.0 8:1.0 165:1.0 
0.0260940292328088 1:3.0 2:1.0 3:1.0 58:1.0 21:1.0 9870:1.0 52:1.0 165:1.0 
0.08905511764413905 1:3.0 2:2.0 3:1.0 58:1.0 49:1.0 15959:1.0 15960:1.0 9:1.0 
0.041052309635744993 1:5.0 2:6.0 3:6.0 5:1.0 12:1.0 7:1.0 155:1.0 165:1.0 
0.034943920164732134 1:5.0 2:4.0 3:2.0 5:1.0 49:1.0 7:1.0 7900:1.0 9:1.0 
0.024620016598402142 1:6.0 2:0.0 3:0.0 60:1.0 1826:1.0 61:1.0 1827:1.0 9:1.0 
0.14998488510757005 1:4.0 2:0.0 3:0.0 60:1.0 384:1.0 61:1.0 2038:1.0 2550:1.0 
0.9489802640675858 1:6.0 2:0.0 3:3.0 60:1.0 21:1.0 61:1.0 52:1.0 165:1.0 
0.03312603258048557 1:5.0 2:3.0 3:3.0 56:1.0 153:1.0 466:1.0 1563:1.0 316:1.0 
0.007871969686289662 1:4.0 2:3.0 3:2.0 56:1.0 21:1.0 5756:1.0 52:1.0 3613:1.0 
0.0141521946335714 1:4.0 2:4.0 3:0.0 56:1.0 384:1.0 3356:1.0 496:1.0 2853:1.0 
0.05278142565154245 1:5.0 2:0.0 3:2.0 60:1.0 21:1.0 61:1.0 934:1.0 100:1.0 
0.046733977326700475 1:5.0 2:0.0 3:3.0 97:1.0 21:1.0 221:1.0 203:1.0 503:1.0 
0.17583739592538616 1:4.0 2:0.0 3:0.0 60:1.0 384:1.0 61:1.0 2038:1.0 4607:1.0 
0.03227087694396291 1:4.0 2:3.0 3:1.0 56:1.0 10:1.0 18362:1.0 14179:1.0 167:1.0 
0.09151806903285369 1:4.0 2:3.0 3:2.0 56:1.0 150:1.0 18362:1.0 1691:1.0 167:1.0 
0.09184490913138345 1:3.0 2:3.0 3:2.0 58:1.0 49:1.0 1695:1.0 371:1.0 9:1.0 
247.06707585117965 1:9.0 2:0.0 3:0.0 60:1.0 384:1.0 61:1.0 2074:1.0 2674:1.0 
0.00454527955404504 1:5.0 2:4.0 3:2.0 56:1.0 21:1.0 14323:1.0 142:1.0 18845:1.0 
0.019862342050525544 1:6.0 2:6.0 3:0.0 172:1.0 14:1.0 337:1.0 15:1.0 503:1.0 
0.0716701767921341 1:6.0 2:6.0 3:0.0 172:1.0 33:1.0 337:1.0 34:1.0 503:1.0 
0.01815456815372215 1:5.0 2:5.0 3:0.0 144:1.0 33:1.0 145:1.0 34:1.0 503:1.0 
0.054450105468328146 1:5.0 2:6.0 3:3.0 5:1.0 49:1.0 7:1.0 14255:1.0 9:1.0 
0.039837729084798004 1:5.0 2:0.0 3:0.0 60:1.0 1826:1.0 61:1.0 1827:1.0 9:1.0 
0.02337205085890019 1:4.0 2:3.0 3:0.0 70:1.0 6:1.0 158:1.0 8:1.0 165:1.0 
0.014318502120263369 1:4.0 2:6.0 3:0.0 144:1.0 6:1.0 145:1.0 8:1.0 165:1.0 
0.046154034531391004 1:4.0 2:1.0 3:0.0 108:1.0 6:1.0 620:1.0 8:1.0 110:1.0 
0.007386351025245409 1:4.0 2:6.0 3:3.0 5:1.0 49:1.0 387:1.0 5304:1.0 11617:1.0 
0.018267458801029694 1:4.0 2:3.0 3:3.0 144:1.0 21:1.0 145:1.0 195:1.0 14510:1.0 
0.06759729193000193 1:5.0 2:3.0 3:0.0 180:1.0 384:1.0 4791:1.0 1292:1.0 316:1.0 
11.151652228895813 1:5.0 2:0.0 3:0.0 60:1.0 384:1.0 61:1.0 1292:1.0 316:1.0 
0.06783376405686499 1:4.0 2:0.0 3:0.0 60:1.0 162:1.0 61:1.0 3996:1.0 165:1.0 
0.13841003607732533 1:3.0 2:5.0 3:2.0 180:1.0 49:1.0 4289:1.0 17343:1.0 9:1.0 
1.4742893224839138 1:7.0 2:0.0 3:0.0 60:1.0 6:1.0 61:1.0 8:1.0 9:1.0 
0.035650712806023596 1:4.0 2:6.0 3:6.0 56:1.0 73:1.0 466:1.0 75:1.0 1134:1.0 
0.21804960974548898 1:6.0 2:3.0 3:0.0 56:1.0 162:1.0 107:1.0 164:1.0 165:1.0 
0.014633382122156778 1:5.0 2:7.0 3:2.0 70:1.0 49:1.0 20258:1.0 5304:1.0 9:1.0 
0.07766121189244622 1:4.0 2:5.0 3:0.0 144:1.0 6:1.0 145:1.0 8:1.0 182:1.0 
0.17968104725263356 1:5.0 2:4.0 3:0.0 180:1.0 6:1.0 476:1.0 8:1.0 2674:1.0 
0.09329258251083329 1:6.0 2:5.0 3:0.0 180:1.0 384:1.0 295:1.0 2074:1.0 4057:1.0 
0.08752675216242017 1:6.0 2:0.0 3:0.0 60:1.0 384:1.0 61:1.0 2074:1.0 4057:1.0 
0.158683646040655 1:3.0 2:2.0 3:2.0 56:1.0 21:1.0 1493:1.0 142:1.0 2030:1.0 
0.01822118645786533 1:5.0 2:0.0 3:0.0 60:1.0 162:1.0 61:1.0 164:1.0 9:1.0 
0.011101927211195715 1:5.0 2:0.0 3:1.0 72:1.0 21:1.0 166:1.0 203:1.0 9:1.0 
0.021615827095096973 1:5.0 2:3.0 3:0.0 56:1.0 6:1.0 7171:1.0 8:1.0 9:1.0 
0.10907604812283525 1:3.0 2:3.0 3:1.0 144:1.0 49:1.0 145:1.0 2940:1.0 1029:1.0 
0.03928124284090035 1:2.0 2:0.0 3:2.0 97:1.0 177:1.0 824:1.0 887:1.0 1937:1.0 
0.16596963700798492 1:5.0 2:0.0 3:3.0 60:1.0 21:1.0 61:1.0 482:1.0 1405:1.0 
0.007013431728933581 1:4.0 2:4.0 3:0.0 433:1.0 262:1.0 158:1.0 1365:1.0 2700:1.0 
0.15240569565361572 1:5.0 2:2.0 3:0.0 433:1.0 6:1.0 717:1.0 8:1.0 10503:1.0 
0.16396400983073237 1:5.0 2:2.0 3:1.0 58:1.0 49:1.0 6820:1.0 21305:1.0 9:1.0 
0.006801761766745989 1:4.0 2:2.0 3:0.0 56:1.0 6:1.0 21309:1.0 8:1.0 9:1.0 
0.12575212255740448 1:4.0 2:0.0 3:0.0 60:1.0 384:1.0 61:1.0 2038:1.0 2967:1.0 
0.19029764744247704 1:5.0 2:3.0 3:2.0 58:1.0 21:1.0 3649:1.0 142:1.0 2353:1.0 
499.658136691471 1:8.0 2:0.0 3:3.0 60:1.0 21:1.0 61:1.0 1892:1.0 9:1.0 
0.044292559522560185 1:7.0 2:1.0 3:2.0 72:1.0 21:1.0 264:1.0 22:1.0 165:1.0 
0.019657085124413696 1:6.0 2:3.0 3:0.0 108:1.0 6:1.0 3390:1.0 8:1.0 9:1.0 
0.030127238771233925 1:4.0 2:3.0 3:0.0 58:1.0 162:1.0 466:1.0 13914:1.0 1430:1.0 
0.017686538953062728 1:4.0 2:0.0 3:0.0 60:1.0 384:1.0 61:1.0 2038:1.0 405:1.0 
0.016493177271285915 1:3.0 2:2.0 3:0.0 56:1.0 162:1.0 114:1.0 274:1.0 9:1.0 
0.0116708853922623 1:5.0 2:3.0 3:0.0 56:1.0 6:1.0 2198:1.0 8:1.0 9:1.0 
0.17098021812195202 1:5.0 2:3.0 3:0.0 433:1.0 384:1.0 4201:1.0 2038:1.0 1937:1.0 
0.8962310642603121 1:5.0 2:0.0 3:1.0 72:1.0 177:1.0 15438:1.0 4200:1.0 1937:1.0 
0.033895902045452994 1:3.0 2:2.0 3:0.0 56:1.0 384:1.0 2044:1.0 933:1.0 100:1.0 
0.02347282026269847 1:5.0 2:6.0 3:4.0 5:1.0 49:1.0 494:1.0 3107:1.0 9:1.0 
0.10574755026211514 1:6.0 2:1.0 3:0.0 5:1.0 6:1.0 588:1.0 8:1.0 2030:1.0 
0.060292940371428044 1:6.0 2:4.0 3:0.0 180:1.0 6:1.0 2141:1.0 8:1.0 1937:1.0 
0.12912443094604809 1:4.0 2:7.0 3:7.0 5:1.0 177:1.0 644:1.0 887:1.0 9:1.0 
0.18129858665334342 1:6.0 2:0.0 3:0.0 97:1.0 162:1.0 824:1.0 1827:1.0 9:1.0 
0.24439093636516154 1:5.0 2:0.0 3:0.0 324:1.0 54:1.0 325:1.0 55:1.0 316:1.0 
499.88359953166645 1:14.0 2:0.0 3:0.0 72:1.0 6:1.0 5951:1.0 8:1.0 9:1.0 
0.151016027367153 1:5.0 2:1.0 3:0.0 56:1.0 6:1.0 313:1.0 8:1.0 316:1.0 
0.3110997667190021 1:6.0 2:0.0 3:0.0 60:1.0 384:1.0 61:1.0 2074:1.0 2075:1.0 
0.054030720667725345 1:4.0 2:4.0 3:2.0 433:1.0 49:1.0 158:1.0 3246:1.0 832:1.0 
0.02248813044930607 1:5.0 2:6.0 3:4.0 56:1.0 21:1.0 17854:1.0 203:1.0 634:1.0 
491.5093970787558 1:7.0 2:0.0 3:0.0 60:1.0 384:1.0 61:1.0 2074:1.0 2075:1.0 
0.14507495720868138 1:5.0 2:0.0 3:0.0 28:1.0 384:1.0 30:1.0 2074:1.0 100:1.0 
0.006923969170954803 1:5.0 2:0.0 3:0.0 56:1.0 162:1.0 178:1.0 164:1.0 316:1.0 
499.7117899815208 1:7.0 2:0.0 3:4.0 28:1.0 21:1.0 30:1.0 195:1.0 503:1.0 
20.474839488406893 1:7.0 2:0.0 3:8.0 28:1.0 73:1.0 30:1.0 75:1.0 503:1.0 
0.07247275207318572 1:7.0 2:4.0 3:8.0 5:1.0 73:1.0 266:1.0 75:1.0 503:1.0 
126.31396653407236 1:7.0 2:0.0 3:8.0 28:1.0 73:1.0 30:1.0 75:1.0 503:1.0 
0.15025370813696537 1:5.0 2:0.0 3:0.0 60:1.0 162:1.0 61:1.0 164:1.0 9:1.0 
0.07642395578927293 1:5.0 2:0.0 3:0.0 60:1.0 49:1.0 61:1.0 3246:1.0 96:1.0 
0.04236468235328744 1:4.0 2:4.0 3:0.0 433:1.0 6:1.0 158:1.0 8:1.0 96:1.0 
0.10527193383973235 1:4.0 2:4.0 3:3.0 433:1.0 49:1.0 158:1.0 659:1.0 96:1.0 
0.07113689110668414 1:4.0 2:1.0 3:0.0 72:1.0 6:1.0 264:1.0 8:1.0 165:1.0 
0.13016962626723444 1:4.0 2:0.0 3:0.0 60:1.0 384:1.0 61:1.0 2038:1.0 3384:1.0 
0.5040250908153041 1:6.0 2:0.0 3:0.0 37:1.0 384:1.0 38:1.0 2074:1.0 9722:1.0 
0.20782769872459336 1:5.0 2:0.0 3:2.0 60:1.0 10:1.0 61:1.0 5629:1.0 165:1.0 
0.14171143866261227 1:5.0 2:0.0 3:0.0 60:1.0 162:1.0 61:1.0 164:1.0 1937:1.0 
0.012985147037353933 1:3.0 2:3.0 3:4.0 70:1.0 49:1.0 4762:1.0 654:1.0 9:1.0 
4.304202330660102 1:6.0 2:0.0 3:6.0 60:1.0 153:1.0 61:1.0 290:1.0 316:1.0 
0.2630326093730125 1:5.0 2:1.0 3:0.0 56:1.0 6:1.0 466:1.0 8:1.0 9:1.0 
0.01736321625482043 1:4.0 2:3.0 3:1.0 56:1.0 10:1.0 3283:1.0 633:1.0 3374:1.0 
0.019767988422891923 1:7.0 2:0.0 3:0.0 324:1.0 54:1.0 325:1.0 420:1.0 9:1.0 
0.030299014899835428 1:7.0 2:4.0 3:0.0 433:1.0 162:1.0 158:1.0 164:1.0 9:1.0 
0.054174182187330666 1:4.0 2:0.0 3:4.0 60:1.0 21:1.0 61:1.0 1892:1.0 539:1.0 
0.004063778032170197 1:5.0 2:3.0 3:0.0 56:1.0 6:1.0 15578:1.0 8:1.0 9:1.0 
0.019921846422189343 1:5.0 2:0.0 3:0.0 324:1.0 54:1.0 325:1.0 55:1.0 9:1.0 
0.036747047024648 1:4.0 2:1.0 3:0.0 108:1.0 6:1.0 13653:1.0 8:1.0 1937:1.0 
0.1390231451054841 1:4.0 2:0.0 3:0.0 60:1.0 33:1.0 61:1.0 34:1.0 1937:1.0 
0.41809382261256467 1:4.0 2:0.0 3:0.0 28:1.0 384:1.0 30:1.0 2074:1.0 2075:1.0 
0.14107114507452911 1:5.0 2:0.0 3:0.0 28:1.0 384:1.0 30:1.0 2074:1.0 503:1.0 
9.118170255946325 1:5.0 2:4.0 3:0.0 144:1.0 6:1.0 145:1.0 8:1.0 503:1.0 
0.03474026472627026 1:8.0 2:0.0 3:0.0 60:1.0 384:1.0 61:1.0 2074:1.0 1524:1.0 
0.11878440394894942 1:8.0 2:0.0 3:0.0 60:1.0 384:1.0 61:1.0 2074:1.0 1524:1.0 
0.03554553943164585 1:3.0 2:2.0 3:1.0 56:1.0 162:1.0 466:1.0 1190:1.0 2932:1.0 
66.55474580093859 1:7.0 2:0.0 3:0.0 60:1.0 6:1.0 61:1.0 8:1.0 9:1.0 
0.016548973916051937 1:5.0 2:6.0 3:3.0 5:1.0 10:1.0 483:1.0 6568:1.0 96:1.0 
0.12293486107269938 1:8.0 2:0.0 3:0.0 72:1.0 10:1.0 1935:1.0 6568:1.0 9:1.0 
305.9660692763137 1:8.0 2:0.0 3:0.0 60:1.0 10:1.0 61:1.0 6568:1.0 9:1.0 
0.011365226495923135 1:5.0 2:0.0 3:5.0 60:1.0 49:1.0 61:1.0 9743:1.0 4451:1.0 
0.14363458342395907 1:7.0 2:0.0 3:0.0 72:1.0 6:1.0 166:1.0 8:1.0 316:1.0 
1.8931089333140403 1:6.0 2:0.0 3:0.0 72:1.0 6:1.0 166:1.0 8:1.0 316:1.0 
0.45501336070180964 1:3.0 2:2.0 3:1.0 56:1.0 21:1.0 6571:1.0 35:1.0 9:1.0 
0.14426937152626293 1:3.0 2:2.0 3:2.0 56:1.0 21:1.0 6571:1.0 582:1.0 9:1.0 
0.1212896391282656 1:8.0 2:2.0 3:0.0 72:1.0 6:1.0 5370:1.0 8:1.0 618:1.0 
0.019535320383829706 1:8.0 2:2.0 3:1.0 72:1.0 21:1.0 5370:1.0 934:1.0 618:1.0 
0.01333378230471747 1:6.0 2:0.0 3:3.0 60:1.0 21:1.0 61:1.0 195:1.0 9:1.0 
0.21054949495849176 1:7.0 2:0.0 3:0.0 60:1.0 384:1.0 61:1.0 2038:1.0 24920:1.0 
0.05717672223336041 1:7.0 2:3.0 3:2.0 58:1.0 21:1.0 7129:1.0 142:1.0 24920:1.0 
0.04796072641767905 1:3.0 2:0.0 3:1.0 97:1.0 21:1.0 824:1.0 52:1.0 165:1.0 
0.31262056715013764 1:5.0 2:0.0 3:1.0 60:1.0 49:1.0 61:1.0 2964:1.0 8597:1.0 
0.07561172770026658 1:5.0 2:0.0 3:1.0 37:1.0 49:1.0 38:1.0 2964:1.0 8597:1.0 
0.31135055765168873 1:5.0 2:1.0 3:0.0 56:1.0 6:1.0 2969:1.0 8:1.0 8597:1.0 
0.17497551738885372 1:5.0 2:3.0 3:1.0 70:1.0 49:1.0 1973:1.0 9743:1.0 9:1.0 
0.03297407779312591 1:5.0 2:0.0 3:0.0 56:1.0 10:1.0 953:1.0 3284:1.0 8597:1.0 
0.052232519881539735 1:7.0 2:6.0 3:1.0 180:1.0 49:1.0 295:1.0 12896:1.0 25437:1.0 
2.0074622846078722 1:6.0 2:0.0 3:0.0 60:1.0 384:1.0 61:1.0 2074:1.0 2075:1.0 
0.11010950745861023 1:4.0 2:0.0 3:0.0 28:1.0 384:1.0 30:1.0 2074:1.0 6134:1.0 
0.478106481510521 1:4.0 2:0.0 3:0.0 72:1.0 6:1.0 322:1.0 8:1.0 316:1.0 
0.10083584095027437 1:5.0 2:0.0 3:0.0 28:1.0 384:1.0 30:1.0 1292:1.0 832:1.0 
0.13238082899922668 1:3.0 2:2.0 3:2.0 5:1.0 49:1.0 7:1.0 2082:1.0 165:1.0 
0.006081111221168362 1:4.0 2:0.0 3:0.0 60:1.0 384:1.0 61:1.0 2038:1.0 165:1.0 
0.21299813468464762 1:5.0 2:0.0 3:0.0 72:1.0 384:1.0 790:1.0 2074:1.0 25771:1.0 
0.07558411636810367 1:5.0 2:0.0 3:0.0 60:1.0 384:1.0 61:1.0 2074:1.0 25771:1.0 
0.03074095818875255 1:6.0 2:0.0 3:0.0 60:1.0 1826:1.0 61:1.0 1827:1.0 9:1.0 
0.24600261654710773 1:6.0 2:0.0 3:0.0 72:1.0 6:1.0 166:1.0 8:1.0 316:1.0 
0.060529107937422985 1:6.0 2:0.0 3:0.0 72:1.0 6:1.0 166:1.0 8:1.0 316:1.0 
0.4928453924377901 1:6.0 2:0.0 3:0.0 72:1.0 6:1.0 166:1.0 8:1.0 316:1.0 
11.061302740746287 1:7.0 2:0.0 3:0.0 60:1.0 6:1.0 61:1.0 8:1.0 9:1.0 
0.01269397001677375 1:5.0 2:4.0 3:4.0 58:1.0 93:1.0 26207:1.0 7147:1.0 1795:1.0 
0.00460392667270961 1:5.0 2:8.0 3:6.0 70:1.0 150:1.0 2168:1.0 508:1.0 9:1.0 
0.18883045931764286 1:5.0 2:0.0 3:0.0 60:1.0 384:1.0 61:1.0 2074:1.0 165:1.0 
0.5581792495888971 1:4.0 2:0.0 3:0.0 72:1.0 384:1.0 264:1.0 2074:1.0 2075:1.0 
0.16399680965801666 1:4.0 2:3.0 3:0.0 56:1.0 384:1.0 466:1.0 8817:1.0 4057:1.0 
0.05936537098033426 1:5.0 2:3.0 3:3.0 58:1.0 49:1.0 1028:1.0 13333:1.0 9:1.0 
0.014320974329177056 1:5.0 2:5.0 3:4.0 56:1.0 21:1.0 6130:1.0 276:1.0 4740:1.0 
0.7857345619677871 1:5.0 2:0.0 3:0.0 60:1.0 1826:1.0 61:1.0 1827:1.0 9:1.0 
0.01161233927296609 1:5.0 2:0.0 3:4.0 60:1.0 153:1.0 61:1.0 1563:1.0 316:1.0 
0.042964089095361126 1:5.0 2:5.0 3:1.0 108:1.0 49:1.0 6371:1.0 2872:1.0 165:1.0 
62.61002967382425 1:4.0 2:0.0 3:0.0 60:1.0 10:1.0 61:1.0 6568:1.0 9:1.0 
0.018094146710718104 1:4.0 2:3.0 3:3.0 108:1.0 162:1.0 5669:1.0 276:1.0 9:1.0 
128.22948288705592 1:6.0 2:0.0 3:0.0 60:1.0 10:1.0 61:1.0 6568:1.0 9:1.0 
0.07905940141858861 1:6.0 2:0.0 3:0.0 60:1.0 384:1.0 61:1.0 2074:1.0 316:1.0 
5.442311738218262 1:5.0 2:0.0 3:0.0 60:1.0 384:1.0 61:1.0 2074:1.0 2075:1.0 
0.048962308721770514 1:4.0 2:0.0 3:0.0 60:1.0 384:1.0 61:1.0 2038:1.0 405:1.0 
0.05397512475123471 1:5.0 2:2.0 3:0.0 70:1.0 6:1.0 717:1.0 8:1.0 165:1.0 
3.4078794492065345 1:5.0 2:0.0 3:0.0 60:1.0 1826:1.0 61:1.0 1827:1.0 9:1.0 
499.9218832833152 1:5.0 2:0.0 3:0.0 60:1.0 162:1.0 61:1.0 786:1.0 9:1.0 
0.009060525042143129 1:5.0 2:3.0 3:0.0 56:1.0 6:1.0 12477:1.0 8:1.0 165:1.0 
0.05186080688067029 1:5.0 2:3.0 3:0.0 70:1.0 6:1.0 158:1.0 8:1.0 165:1.0 
0.07140706980122151 1:6.0 2:5.0 3:6.0 16:1.0 73:1.0 205:1.0 75:1.0 503:1.0 
0.018812160126574967 1:6.0 2:6.0 3:0.0 144:1.0 14:1.0 145:1.0 15:1.0 503:1.0 
0.049823025076467756 1:6.0 2:6.0 3:2.0 433:1.0 49:1.0 158:1.0 25721:1.0 96:1.0 
496.0413195434493 1:6.0 2:0.0 3:0.0 28:1.0 384:1.0 30:1.0 1292:1.0 7105:1.0 
0.6267055136270958 1:6.0 2:0.0 3:0.0 324:1.0 33:1.0 325:1.0 34:1.0 7105:1.0 
0.23748110165579733 1:4.0 2:0.0 3:0.0 72:1.0 384:1.0 1216:1.0 2074:1.0 316:1.0 
0.009040046165856254 1:5.0 2:3.0 3:0.0 56:1.0 6:1.0 1068:1.0 8:1.0 9:1.0 
0.015142618328581454 1:7.0 2:0.0 3:0.0 72:1.0 21:1.0 166:1.0 780:1.0 9:1.0 
0.08613367160396769 1:4.0 2:0.0 3:2.0 60:1.0 162:1.0 61:1.0 276:1.0 13032:1.0 
0.09958538661026586 1:9.0 2:3.0 3:0.0 56:1.0 6:1.0 571:1.0 8:1.0 28345:1.0 
0.05377253745034293 1:9.0 2:3.0 3:3.0 56:1.0 21:1.0 571:1.0 1892:1.0 28345:1.0 
0.029264834331963658 1:9.0 2:4.0 3:0.0 5:1.0 6:1.0 387:1.0 8:1.0 28345:1.0 
0.0835167761104672 1:9.0 2:0.0 3:3.0 60:1.0 21:1.0 61:1.0 1892:1.0 28345:1.0 
0.0990831811152219 1:5.0 2:3.0 3:0.0 70:1.0 262:1.0 717:1.0 716:1.0 165:1.0 
0.09738308437669406 1:5.0 2:3.0 3:4.0 70:1.0 93:1.0 717:1.0 155:1.0 165:1.0 
0.030704511043124057 1:5.0 2:4.0 3:0.0 180:1.0 6:1.0 295:1.0 8:1.0 4234:1.0 
0.013822578560427018 1:5.0 2:0.0 3:0.0 324:1.0 54:1.0 325:1.0 55:1.0 490:1.0 
0.055371373459239655 1:5.0 2:6.0 3:0.0 144:1.0 6:1.0 145:1.0 8:1.0 18701:1.0 
0.03315219500735081 1:5.0 2:0.0 3:1.0 97:1.0 21:1.0 824:1.0 22:1.0 289:1.0 
27.67354541159831 1:6.0 2:0.0 3:0.0 60:1.0 162:1.0 61:1.0 274:1.0 9:1.0 
0.3128325634680683 1:5.0 2:0.0 3:0.0 72:1.0 384:1.0 1340:1.0 2074:1.0 2674:1.0 
0.019260923956965707 1:7.0 2:6.0 3:3.0 5:1.0 49:1.0 7:1.0 3646:1.0 2932:1.0 
0.0049553171648340395 1:4.0 2:3.0 3:2.0 56:1.0 21:1.0 557:1.0 3863:1.0 9:1.0 
0.008895216944246666 1:5.0 2:6.0 3:5.0 56:1.0 21:1.0 19587:1.0 259:1.0 16431:1.0 
0.07548577034754653 1:6.0 2:0.0 3:0.0 72:1.0 6:1.0 166:1.0 8:1.0 316:1.0 
0.26438824300073505 1:4.0 2:0.0 3:3.0 72:1.0 177:1.0 166:1.0 887:1.0 9:1.0 
0.020439711297354803 1:5.0 2:6.0 3:4.0 5:1.0 49:1.0 494:1.0 7315:1.0 96:1.0 
0.07684356980428603 1:6.0 2:3.0 3:2.0 56:1.0 21:1.0 242:1.0 213:1.0 1524:1.0 
0.005446173448765556 1:4.0 2:0.0 3:0.0 60:1.0 384:1.0 61:1.0 2038:1.0 96:1.0 
165.4680192733781 1:8.0 2:0.0 3:0.0 60:1.0 6:1.0 61:1.0 8:1.0 1937:1.0 
3.2794405448257216 1:7.0 2:0.0 3:0.0 60:1.0 6:1.0 61:1.0 8:1.0 9:1.0 
6.933644023601077 1:6.0 2:0.0 3:0.0 60:1.0 162:1.0 61:1.0 164:1.0 165:1.0 
0.017463681281005804 1:4.0 2:2.0 3:0.0 56:1.0 6:1.0 3395:1.0 8:1.0 29857:1.0 
0.15665004659671897 1:6.0 2:0.0 3:0.0 72:1.0 6:1.0 5370:1.0 8:1.0 1297:1.0 
0.06870274744998868 1:3.0 2:1.0 3:1.0 108:1.0 49:1.0 1970:1.0 5253:1.0 503:1.0 
2.826711907307906 1:4.0 2:0.0 3:0.0 28:1.0 384:1.0 30:1.0 1292:1.0 832:1.0 
0.0194368211599344 1:5.0 2:3.0 3:0.0 108:1.0 6:1.0 6136:1.0 8:1.0 9:1.0 
2.1593627799865622 1:7.0 2:6.0 3:0.0 208:1.0 6:1.0 383:1.0 8:1.0 100:1.0 
0.05438899622254183 1:5.0 2:5.0 3:0.0 208:1.0 6:1.0 383:1.0 8:1.0 1433:1.0 
0.027821630273912847 1:3.0 2:0.0 3:1.0 97:1.0 21:1.0 824:1.0 400:1.0 165:1.0 
0.00926430918193222 1:4.0 2:4.0 3:4.0 56:1.0 93:1.0 14892:1.0 155:1.0 3864:1.0 
0.09343288286792281 1:3.0 2:0.0 3:0.0 60:1.0 384:1.0 61:1.0 2038:1.0 4641:1.0 
0.031121454684406236 1:4.0 2:3.0 3:3.0 5:1.0 49:1.0 3835:1.0 5310:1.0 9:1.0 
0.0662809564968627 1:4.0 2:0.0 3:0.0 60:1.0 384:1.0 61:1.0 2038:1.0 210:1.0 
0.2729203039958583 1:7.0 2:4.0 3:0.0 5:1.0 162:1.0 7:1.0 164:1.0 9:1.0 
0.027461931651572034 1:3.0 2:6.0 3:5.0 56:1.0 177:1.0 466:1.0 553:1.0 9:1.0 
0.1838449039977889 1:4.0 2:0.0 3:2.0 60:1.0 21:1.0 61:1.0 575:1.0 9:1.0 
71.86539777778155 1:3.0 2:0.0 3:4.0 28:1.0 73:1.0 30:1.0 75:1.0 503:1.0 
0.05307558388617299 1:4.0 2:0.0 3:1.0 72:1.0 21:1.0 166:1.0 52:1.0 9:1.0 
0.0048249033831332805 1:5.0 2:6.0 3:3.0 5:1.0 49:1.0 3378:1.0 5235:1.0 9:1.0 
0.042833890141372226 1:5.0 2:0.0 3:0.0 72:1.0 6:1.0 1081:1.0 8:1.0 165:1.0 
0.03302239023384385 1:4.0 2:0.0 3:0.0 97:1.0 162:1.0 2076:1.0 786:1.0 2075:1.0 
0.2179030885567658 1:7.0 2:0.0 3:0.0 60:1.0 384:1.0 61:1.0 2074:1.0 832:1.0 
0.24482758964310297 1:5.0 2:0.0 3:0.0 60:1.0 384:1.0 61:1.0 2074:1.0 4601:1.0 
0.12004590677055396 1:5.0 2:0.0 3:0.0 60:1.0 384:1.0 61:1.0 2074:1.0 9:1.0 
0.03449458241514648 1:4.0 2:3.0 3:0.0 56:1.0 384:1.0 1991:1.0 2590:1.0 12134:1.0 
0.7810549574985383 1:4.0 2:0.0 3:0.0 60:1.0 384:1.0 61:1.0 821:1.0 1937:1.0 
0.011914477993486392 1:4.0 2:0.0 3:0.0 60:1.0 384:1.0 61:1.0 821:1.0 9:1.0 
0.1541974375418534 1:5.0 2:0.0 3:0.0 60:1.0 384:1.0 61:1.0 1292:1.0 165:1.0 
0.009474142425395158 1:4.0 2:3.0 3:0.0 180:1.0 6:1.0 1391:1.0 8:1.0 9:1.0 
0.03230919528170027 1:3.0 2:3.0 3:0.0 58:1.0 384:1.0 345:1.0 8817:1.0 3374:1.0 
0.04807547275770865 1:5.0 2:5.0 3:0.0 180:1.0 384:1.0 10976:1.0 2038:1.0 9:1.0 
0.512528087979294 1:5.0 2:2.0 3:0.0 5:1.0 6:1.0 483:1.0 8:1.0 503:1.0 
0.024179569618355 1:5.0 2:2.0 3:6.0 5:1.0 73:1.0 483:1.0 75:1.0 503:1.0 
0.5661403492361079 1:5.0 2:0.0 3:6.0 60:1.0 73:1.0 61:1.0 75:1.0 503:1.0 
0.019338537098163085 1:4.0 2:4.0 3:3.0 56:1.0 21:1.0 9697:1.0 1186:1.0 3024:1.0 
0.1589279312148416 1:7.0 2:0.0 3:0.0 72:1.0 49:1.0 464:1.0 16642:1.0 634:1.0 
0.008535799644467932 1:5.0 2:3.0 3:0.0 56:1.0 6:1.0 728:1.0 8:1.0 9:1.0 
0.01545998788804092 1:5.0 2:5.0 3:3.0 5:1.0 49:1.0 3378:1.0 3136:1.0 9:1.0 
0.04109077735239608 1:6.0 2:6.0 3:3.0 5:1.0 49:1.0 3835:1.0 10633:1.0 9:1.0 
0.1288315037001072 1:5.0 2:5.0 3:3.0 5:1.0 49:1.0 710:1.0 8083:1.0 165:1.0 
0.04188423960494276 1:5.0 2:5.0 3:0.0 144:1.0 6:1.0 145:1.0 8:1.0 165:1.0 
0.10659149339397708 1:5.0 2:5.0 3:1.0 144:1.0 49:1.0 145:1.0 5085:1.0 165:1.0 
0.016021318431698454 1:4.0 2:1.0 3:2.0 56:1.0 21:1.0 6571:1.0 400:1.0 9:1.0 
0.31389976557117416 1:5.0 2:3.0 3:3.0 144:1.0 21:1.0 145:1.0 142:1.0 3088:1.0 
0.006171769541227286 1:8.0 2:5.0 3:2.0 144:1.0 21:1.0 145:1.0 35:1.0 6199:1.0 
0.27622967027279755 1:5.0 2:0.0 3:0.0 60:1.0 384:1.0 61:1.0 2074:1.0 96:1.0 
0.11795657345683008 1:3.0 2:0.0 3:0.0 60:1.0 6:1.0 61:1.0 8:1.0 18731:1.0 
0.20628813197353302 1:4.0 2:3.0 3:0.0 70:1.0 384:1.0 1366:1.0 1292:1.0 832:1.0 
0.08005629340470766 1:6.0 2:0.0 3:0.0 28:1.0 384:1.0 30:1.0 2074:1.0 5080:1.0 
0.239836829727924 1:6.0 2:0.0 3:0.0 60:1.0 384:1.0 61:1.0 2074:1.0 1018:1.0 
0.006985640831038488 1:4.0 2:4.0 3:0.0 144:1.0 14:1.0 145:1.0 15:1.0 503:1.0 
0.11710196774040385 1:7.0 2:0.0 3:0.0 60:1.0 384:1.0 61:1.0 2074:1.0 9:1.0 
0.060393765822280676 1:3.0 2:0.0 3:0.0 60:1.0 6:1.0 61:1.0 8:1.0 96:1.0 
0.2374219467578326 1:5.0 2:0.0 3:2.0 60:1.0 49:1.0 61:1.0 4618:1.0 165:1.0 
0.013850820934205074 1:2.0 2:0.0 3:9.0 28:1.0 73:1.0 30:1.0 75:1.0 19885:1.0 
0.0078001278490192165 1:5.0 2:6.0 3:3.0 5:1.0 49:1.0 3378:1.0 341:1.0 1976:1.0 
0.028383646490147137 1:5.0 2:0.0 3:4.0 60:1.0 153:1.0 61:1.0 5339:1.0 1976:1.0 
0.45287566224017556 1:5.0 2:2.0 3:0.0 56:1.0 6:1.0 178:1.0 8:1.0 7714:1.0 
0.26574983142999975 1:5.0 2:3.0 3:0.0 5:1.0 384:1.0 1112:1.0 1292:1.0 165:1.0 
0.29259949417061143 1:5.0 2:0.0 3:0.0 60:1.0 384:1.0 61:1.0 1292:1.0 165:1.0 
21.086821748953234 1:7.0 2:0.0 3:0.0 60:1.0 6:1.0 61:1.0 8:1.0 9:1.0 
0.03413290412445538 1:4.0 2:3.0 3:2.0 58:1.0 162:1.0 33325:1.0 19680:1.0 673:1.0 
0.04472214394388262 1:4.0 2:0.0 3:1.0 72:1.0 21:1.0 5370:1.0 52:1.0 11046:1.0 
0.07976304324674766 1:4.0 2:0.0 3:5.0 60:1.0 93:1.0 61:1.0 155:1.0 96:1.0 
1.382011768065224 1:6.0 2:1.0 3:0.0 72:1.0 6:1.0 166:1.0 8:1.0 316:1.0 
0.0026420819454683678 1:6.0 2:6.0 3:0.0 144:1.0 6:1.0 145:1.0 8:1.0 100:1.0 
0.09227345544064035 1:6.0 2:6.0 3:4.0 144:1.0 21:1.0 145:1.0 1892:1.0 100:1.0 
0.9420566173280798 1:5.0 2:0.0 3:8.0 28:1.0 73:1.0 30:1.0 75:1.0 165:1.0 
0.05656431753132875 1:6.0 2:0.0 3:0.0 60:1.0 1826:1.0 61:1.0 1827:1.0 9:1.0 
0.01205607077278478 1:7.0 2:7.0 3:5.0 5:1.0 177:1.0 7:1.0 413:1.0 1524:1.0 
0.6791379352679509 1:7.0 2:0.0 3:0.0 172:1.0 384:1.0 337:1.0 2074:1.0 7105:1.0 
0.0396585076025619 1:7.0 2:5.0 3:5.0 433:1.0 93:1.0 158:1.0 155:1.0 7105:1.0 
0.04805399418697807 1:7.0 2:5.0 3:5.0 433:1.0 21:1.0 158:1.0 259:1.0 7105:1.0 
0.021524847926034145 1:7.0 2:5.0 3:0.0 433:1.0 14:1.0 158:1.0 15:1.0 7105:1.0 
0.030134894336001677 1:7.0 2:5.0 3:0.0 433:1.0 33:1.0 158:1.0 34:1.0 7105:1.0 
0.026262224501297303 1:7.0 2:5.0 3:0.0 101:1.0 384:1.0 158:1.0 2074:1.0 7105:1.0 
1.2525312457137396 1:7.0 2:0.0 3:0.0 97:1.0 33:1.0 2076:1.0 34:1.0 7105:1.0 
0.010525469119753847 1:6.0 2:4.0 3:3.0 5:1.0 49:1.0 3835:1.0 8254:1.0 165:1.0 
0.9752763637400041 1:5.0 2:0.0 3:1.0 60:1.0 10:1.0 61:1.0 6568:1.0 9:1.0 
0.09711469619803074 1:4.0 2:6.0 3:0.0 144:1.0 6:1.0 145:1.0 8:1.0 673:1.0 
0.09556178280899817 1:5.0 2:4.0 3:0.0 433:1.0 262:1.0 295:1.0 716:1.0 96:1.0 
0.1532986790155747 1:6.0 2:0.0 3:0.0 72:1.0 6:1.0 5370:1.0 8:1.0 9:1.0 
0.04428188135871816 1:4.0 2:5.0 3:0.0 56:1.0 6:1.0 8555:1.0 8:1.0 3864:1.0 
26.063283585054158 1:6.0 2:0.0 3:6.0 28:1.0 73:1.0 30:1.0 75:1.0 503:1.0 
0.07273910505537462 1:4.0 2:1.0 3:6.0 56:1.0 73:1.0 242:1.0 75:1.0 503:1.0 
0.23285055201973115 1:5.0 2:1.0 3:2.0 56:1.0 10:1.0 1367:1.0 5629:1.0 1524:1.0 
0.08996260852248861 1:5.0 2:0.0 3:2.0 72:1.0 10:1.0 252:1.0 5629:1.0 1524:1.0 
0.0034412385358110037 1:5.0 2:4.0 3:2.0 5:1.0 10:1.0 710:1.0 20163:1.0 165:1.0 
0.027757435822737223 1:5.0 2:0.0 3:0.0 60:1.0 384:1.0 61:1.0 2038:1.0 927:1.0 
0.0031677681509939912 1:7.0 2:7.0 3:0.0 180:1.0 6:1.0 2293:1.0 8:1.0 9:1.0 
0.0706150384893762 1:3.0 2:4.0 3:0.0 144:1.0 6:1.0 145:1.0 8:1.0 3784:1.0 
0.02805181840682379 1:5.0 2:3.0 3:0.0 5:1.0 6:1.0 588:1.0 8:1.0 9:1.0 
3.430969819043215 1:7.0 2:0.0 3:1.0 60:1.0 10:1.0 61:1.0 6568:1.0 9:1.0 
1.395995197423482 1:7.0 2:3.0 3:0.0 5:1.0 384:1.0 483:1.0 1292:1.0 316:1.0 
3.202992511331862 1:7.0 2:0.0 3:0.0 60:1.0 384:1.0 61:1.0 1292:1.0 316:1.0 
0.0731681629213371 1:6.0 2:0.0 3:0.0 28:1.0 384:1.0 30:1.0 2074:1.0 2030:1.0 
0.20666376322031493 1:5.0 2:0.0 3:0.0 60:1.0 1826:1.0 61:1.0 1827:1.0 9:1.0 
0.17299445046845313 1:5.0 2:0.0 3:0.0 60:1.0 6:1.0 61:1.0 8:1.0 9:1.0 
1.1818054651044614 1:5.0 2:1.0 3:0.0 56:1.0 6:1.0 466:1.0 8:1.0 9:1.0 
0.059987777318821954 1:5.0 2:6.0 3:5.0 172:1.0 21:1.0 173:1.0 3771:1.0 9:1.0 
0.09981822326255901 1:4.0 2:0.0 3:0.0 72:1.0 6000:1.0 1329:1.0 6431:1.0 9:1.0 
0.0286545327777488 1:7.0 2:1.0 3:3.0 56:1.0 177:1.0 3400:1.0 4564:1.0 9:1.0 
0.2331360974668739 1:5.0 2:4.0 3:4.0 56:1.0 153:1.0 107:1.0 290:1.0 316:1.0 
0.0232433138184326 1:6.0 2:3.0 3:0.0 108:1.0 6:1.0 11883:1.0 8:1.0 9:1.0 
0.06789571038439221 1:5.0 2:0.0 3:0.0 56:1.0 6:1.0 178:1.0 8:1.0 10868:1.0 
0.22962097602204706 1:5.0 2:0.0 3:0.0 56:1.0 6:1.0 178:1.0 8:1.0 10868:1.0 
0.07134021365186968 1:5.0 2:0.0 3:0.0 60:1.0 1826:1.0 61:1.0 1827:1.0 9:1.0 
0.4988246364382841 1:5.0 2:3.0 3:0.0 5:1.0 6:1.0 588:1.0 8:1.0 9:1.0 
0.03731361160766872 1:4.0 2:5.0 3:0.0 144:1.0 6:1.0 145:1.0 8:1.0 1348:1.0 
0.004922360656371786 1:4.0 2:2.0 3:0.0 56:1.0 6:1.0 2042:1.0 8:1.0 13939:1.0 
0.010587451500330728 1:4.0 2:0.0 3:1.0 60:1.0 49:1.0 61:1.0 3246:1.0 96:1.0 
0.13460465722483933 1:4.0 2:0.0 3:0.0 60:1.0 384:1.0 61:1.0 2038:1.0 9:1.0 
495.86246105968564 1:7.0 2:0.0 3:0.0 60:1.0 1826:1.0 61:1.0 1827:1.0 9:1.0 
0.03501016239062159 1:5.0 2:3.0 3:0.0 56:1.0 384:1.0 15653:1.0 1141:1.0 495:1.0 
0.039908129894948005 1:6.0 2:1.0 3:2.0 72:1.0 21:1.0 264:1.0 52:1.0 316:1.0 
0.045160463923629955 1:5.0 2:0.0 3:0.0 72:1.0 384:1.0 464:1.0 2074:1.0 9828:1.0 
0.22204669699299048 1:5.0 2:0.0 3:0.0 60:1.0 384:1.0 61:1.0 2074:1.0 9828:1.0 
0.410718808791842 1:4.0 2:2.0 3:0.0 58:1.0 384:1.0 154:1.0 2074:1.0 2075:1.0 
0.0673742904891796 1:3.0 2:3.0 3:1.0 58:1.0 49:1.0 3753:1.0 5272:1.0 580:1.0 
0.038944199006692326 1:3.0 2:5.0 3:3.0 58:1.0 49:1.0 1483:1.0 1277:1.0 9:1.0 
0.06946534525311507 1:8.0 2:0.0 3:0.0 72:1.0 574:1.0 464:1.0 575:1.0 36056:1.0 
0.019299093375043562 1:4.0 2:7.0 3:3.0 70:1.0 93:1.0 9721:1.0 155:1.0 165:1.0 
0.003423847584269113 1:6.0 2:4.0 3:0.0 56:1.0 6:1.0 5708:1.0 8:1.0 6354:1.0 
0.030973143814701086 1:6.0 2:6.0 3:1.0 70:1.0 162:1.0 625:1.0 15758:1.0 6354:1.0 
0.06531134460175701 1:5.0 2:4.0 3:2.0 144:1.0 21:1.0 145:1.0 203:1.0 35780:1.0 
0.08727593586539728 1:3.0 2:1.0 3:1.0 56:1.0 21:1.0 399:1.0 734:1.0 165:1.0 
0.060665602815495184 1:6.0 2:3.0 3:0.0 180:1.0 6:1.0 158:1.0 8:1.0 503:1.0 
0.021496417862970286 1:6.0 2:3.0 3:0.0 180:1.0 49:1.0 158:1.0 121:1.0 503:1.0 
0.5385175682515995 1:6.0 2:0.0 3:0.0 60:1.0 162:1.0 61:1.0 274:1.0 9:1.0 
0.11156198483681468 1:4.0 2:0.0 3:0.0 60:1.0 384:1.0 61:1.0 2038:1.0 1297:1.0 
0.07060245210295221 1:4.0 2:0.0 3:0.0 28:1.0 384:1.0 30:1.0 2074:1.0 2075:1.0 
0.10011874174197317 1:6.0 2:0.0 3:0.0 60:1.0 384:1.0 61:1.0 1292:1.0 165:1.0 
0.11609055913376914 1:6.0 2:0.0 3:0.0 60:1.0 162:1.0 61:1.0 164:1.0 165:1.0 
0.0071879692786601624 1:5.0 2:3.0 3:0.0 56:1.0 6:1.0 954:1.0 8:1.0 11609:1.0 
0.005159631326459153 1:6.0 2:8.0 3:7.0 5:1.0 73:1.0 7:1.0 75:1.0 100:1.0 
0.13388135716870236 1:5.0 2:0.0 3:0.0 28:1.0 384:1.0 30:1.0 2074:1.0 289:1.0 
0.010691370320468928 1:4.0 2:3.0 3:2.0 56:1.0 21:1.0 1070:1.0 400:1.0 980:1.0 
0.0351716242616826 1:4.0 2:0.0 3:0.0 72:1.0 6:1.0 3820:1.0 8:1.0 6516:1.0 
0.03716255551862004 1:4.0 2:4.0 3:1.0 58:1.0 49:1.0 36685:1.0 36686:1.0 9:1.0 
0.10651640246586527 1:9.0 2:0.0 3:0.0 60:1.0 384:1.0 61:1.0 2074:1.0 4032:1.0 
0.2502449369910157 1:9.0 2:0.0 3:0.0 37:1.0 384:1.0 38:1.0 2074:1.0 4032:1.0 
0.013454930736403742 1:3.0 2:3.0 3:0.0 72:1.0 384:1.0 3820:1.0 1292:1.0 96:1.0 
0.990209674820167 1:4.0 2:0.0 3:0.0 60:1.0 384:1.0 61:1.0 2038:1.0 165:1.0 
0.1638574830164094 1:4.0 2:0.0 3:3.0 60:1.0 12:1.0 61:1.0 155:1.0 165:1.0 
0.0879495793754149 1:5.0 2:0.0 3:3.0 60:1.0 21:1.0 61:1.0 934:1.0 165:1.0 
0.009187145796768227 1:5.0 2:3.0 3:0.0 56:1.0 6:1.0 16636:1.0 8:1.0 9:1.0 
0.11985032618720025 1:6.0 2:0.0 3:0.0 60:1.0 6:1.0 61:1.0 8:1.0 9:1.0 
0.008691751099649621 1:5.0 2:0.0 3:0.0 72:1.0 6:1.0 3820:1.0 8:1.0 9:1.0 
0.2522005222828565 1:5.0 2:0.0 3:0.0 60:1.0 1826:1.0 61:1.0 1827:1.0 9:1.0 
0.04968557705212794 1:5.0 2:0.0 3:0.0 72:1.0 6:1.0 1081:1.0 8:1.0 9:1.0 
0.10627248187173621 1:5.0 2:0.0 3:0.0 60:1.0 162:1.0 61:1.0 164:1.0 316:1.0 
0.04239890596855169 1:5.0 2:4.0 3:2.0 180:1.0 49:1.0 3436:1.0 206:1.0 9:1.0 
0.008254220462676596 1:6.0 2:5.0 3:2.0 56:1.0 10:1.0 11716:1.0 566:1.0 796:1.0 
0.21671471938032758 1:5.0 2:0.0 3:0.0 60:1.0 162:1.0 61:1.0 772:1.0 165:1.0 
0.027933832360722315 1:5.0 2:5.0 3:1.0 180:1.0 49:1.0 6206:1.0 3683:1.0 9:1.0 
0.041188192712257585 1:3.0 2:1.0 3:2.0 5:1.0 49:1.0 7:1.0 126:1.0 165:1.0 
0.1577244243125172 1:5.0 2:2.0 3:1.0 5:1.0 49:1.0 132:1.0 2331:1.0 165:1.0 
0.10984170415169905 1:5.0 2:0.0 3:4.0 60:1.0 23:1.0 61:1.0 887:1.0 96:1.0 
0.01516221501668742 1:4.0 2:2.0 3:0.0 56:1.0 6:1.0 10735:1.0 8:1.0 9:1.0 
0.008920089009948302 1:4.0 2:3.0 3:0.0 180:1.0 6:1.0 10614:1.0 8:1.0 9:1.0 
0.008028352274384983 1:2.0 2:3.0 3:2.0 58:1.0 49:1.0 1672:1.0 566:1.0 796:1.0 
0.4875445037124815 1:8.0 2:3.0 3:0.0 5:1.0 6:1.0 588:1.0 8:1.0 9:1.0 
1.596651674733589 1:8.0 2:3.0 3:0.0 5:1.0 6:1.0 588:1.0 8:1.0 9:1.0 
499.91534661029414 1:8.0 2:2.0 3:0.0 56:1.0 6:1.0 37595:1.0 8:1.0 9:1.0 
0.06387273752702072 1:5.0 2:0.0 3:0.0 97:1.0 6:1.0 98:1.0 8:1.0 316:1.0 
4.801605283714986 1:8.0 2:0.0 3:0.0 97:1.0 6:1.0 2076:1.0 8:1.0 2075:1.0 
25.149507026923242 1:8.0 2:0.0 3:0.0 97:1.0 33:1.0 2076:1.0 34:1.0 2075:1.0 
0.022311795567164484 1:5.0 2:7.0 3:6.0 5:1.0 73:1.0 7:1.0 75:1.0 6940:1.0 
0.23219922769395887 1:6.0 2:0.0 3:0.0 60:1.0 384:1.0 61:1.0 2074:1.0 2700:1.0 
0.008024620184485413 1:5.0 2:0.0 3:0.0 60:1.0 384:1.0 61:1.0 2038:1.0 11347:1.0 
0.03599978132089218 1:6.0 2:0.0 3:2.0 60:1.0 10:1.0 61:1.0 117:1.0 165:1.0 
0.08695069501021044 1:6.0 2:2.0 3:2.0 58:1.0 49:1.0 345:1.0 5151:1.0 673:1.0 
499.81759359617325 1:7.0 2:4.0 3:0.0 433:1.0 6:1.0 158:1.0 8:1.0 96:1.0 
0.06361343261761558 1:7.0 2:4.0 3:3.0 433:1.0 162:1.0 158:1.0 2783:1.0 96:1.0 
0.12193583602565858 1:4.0 2:0.0 3:2.0 60:1.0 150:1.0 61:1.0 718:1.0 1937:1.0 
1.562650952069763 1:6.0 2:0.0 3:0.0 60:1.0 6:1.0 61:1.0 8:1.0 9:1.0 
0.19027160634857412 1:5.0 2:0.0 3:0.0 60:1.0 6:1.0 61:1.0 8:1.0 9:1.0 
0.0784197269538443 1:3.0 2:3.0 3:0.0 108:1.0 384:1.0 37917:1.0 933:1.0 9022:1.0 
0.06796614126932565 1:10.0 2:0.0 3:0.0 60:1.0 384:1.0 61:1.0 9156:1.0 25017:1.0 
0.05641815610939989 1:4.0 2:4.0 3:0.0 58:1.0 384:1.0 10363:1.0 2590:1.0 167:1.0 
0.2786700586574759 1:7.0 2:3.0 3:0.0 72:1.0 384:1.0 1329:1.0 2074:1.0 2674:1.0 
240.8229478246824 1:7.0 2:0.0 3:0.0 60:1.0 384:1.0 61:1.0 2074:1.0 2674:1.0 
0.00874478204267303 1:4.0 2:3.0 3:2.0 56:1.0 21:1.0 38098:1.0 2896:1.0 110:1.0 
230.7728802561455 1:7.0 2:0.0 3:5.0 60:1.0 153:1.0 61:1.0 290:1.0 316:1.0 
0.009278592063841271 1:4.0 2:2.0 3:0.0 56:1.0 6:1.0 21367:1.0 8:1.0 1348:1.0 
0.017780718338974683 1:5.0 2:4.0 3:1.0 180:1.0 49:1.0 346:1.0 328:1.0 7559:1.0 
0.013873509190084956 1:5.0 2:4.0 3:1.0 180:1.0 49:1.0 346:1.0 14167:1.0 7559:1.0 
0.16255461648647515 1:3.0 2:0.0 3:0.0 60:1.0 6:1.0 61:1.0 8:1.0 5558:1.0 
0.23136631078403846 1:5.0 2:2.0 3:0.0 72:1.0 384:1.0 1473:1.0 1292:1.0 1524:1.0 
0.02984652028532566 1:5.0 2:0.0 3:0.0 97:1.0 384:1.0 2076:1.0 6612:1.0 4057:1.0 
0.8941990909016447 1:6.0 2:0.0 3:0.0 72:1.0 49:1.0 264:1.0 3246:1.0 96:1.0 
0.10278938497296872 1:6.0 2:0.0 3:0.0 60:1.0 49:1.0 61:1.0 3246:1.0 96:1.0 
7.526795112666532E-4 1:5.0 2:0.0 3:0.0 324:1.0 33:1.0 325:1.0 247:1.0 2674:1.0 
0.0171800739579367 1:7.0 2:6.0 3:0.0 433:1.0 262:1.0 295:1.0 263:1.0 9:1.0 
0.010313625185380882 1:5.0 2:3.0 3:1.0 144:1.0 49:1.0 145:1.0 2385:1.0 165:1.0 
2.1565083858541114 1:5.0 2:0.0 3:0.0 72:1.0 6:1.0 166:1.0 8:1.0 316:1.0 
0.04264946750169002 1:5.0 2:5.0 3:1.0 108:1.0 49:1.0 17112:1.0 1986:1.0 9:1.0 
0.003209183555919981 1:5.0 2:5.0 3:3.0 108:1.0 150:1.0 17112:1.0 13918:1.0 9:1.0 
0.18999862778918628 1:6.0 2:0.0 3:0.0 72:1.0 6:1.0 5370:1.0 8:1.0 165:1.0 
461.88315488551797 1:7.0 2:0.0 3:5.0 60:1.0 21:1.0 61:1.0 52:1.0 165:1.0 
0.027065300937628337 1:5.0 2:5.0 3:1.0 180:1.0 49:1.0 4502:1.0 3371:1.0 165:1.0 
0.006713354675492599 1:5.0 2:3.0 3:0.0 56:1.0 6:1.0 5858:1.0 8:1.0 9:1.0 
0.026382625774849733 1:4.0 2:2.0 3:0.0 56:1.0 384:1.0 39151:1.0 933:1.0 673:1.0 
0.07920543085076105 1:3.0 2:0.0 3:0.0 60:1.0 384:1.0 61:1.0 2038:1.0 96:1.0 
0.09905232995076203 1:3.0 2:0.0 3:0.0 60:1.0 6:1.0 61:1.0 8:1.0 96:1.0 
0.10197022001980935 1:4.0 2:0.0 3:0.0 60:1.0 384:1.0 61:1.0 2038:1.0 506:1.0 
0.07762724538971935 1:4.0 2:4.0 3:3.0 5:1.0 384:1.0 7:1.0 385:1.0 9:1.0 
0.05368862430027819 1:6.0 2:1.0 3:0.0 56:1.0 162:1.0 2151:1.0 164:1.0 165:1.0 
0.2133830840771145 1:5.0 2:0.0 3:0.0 60:1.0 162:1.0 61:1.0 772:1.0 1038:1.0 
0.08327557617888497 1:3.0 2:3.0 3:0.0 70:1.0 14:1.0 717:1.0 15:1.0 5911:1.0 
0.0481132360673997 1:5.0 2:5.0 3:2.0 58:1.0 49:1.0 345:1.0 8118:1.0 11682:1.0 
0.06508779209252963 1:6.0 2:0.0 3:0.0 97:1.0 6:1.0 2076:1.0 8:1.0 2075:1.0 
0.05382497219727582 1:4.0 2:0.0 3:0.0 60:1.0 162:1.0 61:1.0 3315:1.0 7557:1.0 
0.10799555702873298 1:5.0 2:0.0 3:0.0 56:1.0 162:1.0 178:1.0 164:1.0 316:1.0 
0.12598631482918127 1:7.0 2:3.0 3:1.0 56:1.0 49:1.0 2016:1.0 36243:1.0 165:1.0 
0.07378330475532455 1:4.0 2:5.0 3:0.0 144:1.0 6:1.0 145:1.0 8:1.0 1795:1.0 
0.005609137338203709 1:4.0 2:3.0 3:2.0 56:1.0 21:1.0 10269:1.0 581:1.0 9:1.0 
0.00705386543706922 1:3.0 2:3.0 3:0.0 56:1.0 384:1.0 1991:1.0 933:1.0 5740:1.0 
0.09762690302424756 1:6.0 2:0.0 3:0.0 60:1.0 162:1.0 61:1.0 164:1.0 165:1.0 
0.029601372880250082 1:4.0 2:2.0 3:2.0 56:1.0 21:1.0 178:1.0 52:1.0 100:1.0 
0.12082610513759215 1:4.0 2:0.0 3:0.0 60:1.0 384:1.0 61:1.0 2038:1.0 3837:1.0 
0.03788086417851642 1:5.0 2:7.0 3:0.0 144:1.0 6:1.0 145:1.0 8:1.0 254:1.0 
0.09326926214639136 1:5.0 2:0.0 3:0.0 60:1.0 1826:1.0 61:1.0 1827:1.0 9:1.0 
0.01886878774297151 1:5.0 2:3.0 3:0.0 56:1.0 6:1.0 11425:1.0 8:1.0 799:1.0 
0.06559245696510037 1:4.0 2:0.0 3:0.0 60:1.0 384:1.0 61:1.0 2038:1.0 1142:1.0 
0.029457161107738106 1:5.0 2:0.0 3:4.0 60:1.0 153:1.0 61:1.0 18389:1.0 316:1.0 
0.03625849450394343 1:5.0 2:0.0 3:0.0 324:1.0 54:1.0 325:1.0 55:1.0 506:1.0 
0.047874560816368004 1:6.0 2:0.0 3:2.0 72:1.0 153:1.0 166:1.0 290:1.0 316:1.0 
0.07775879136599177 1:3.0 2:1.0 3:1.0 108:1.0 49:1.0 630:1.0 148:1.0 34332:1.0 
0.04543948420643152 1:4.0 2:3.0 3:0.0 58:1.0 162:1.0 1493:1.0 250:1.0 9:1.0 
0.02281770115364494 1:3.0 2:0.0 3:1.0 72:1.0 12:1.0 166:1.0 887:1.0 165:1.0 
0.06169578708279876 1:5.0 2:4.0 3:0.0 58:1.0 384:1.0 29853:1.0 1141:1.0 4099:1.0 
0.014645299165618499 1:5.0 2:7.0 3:2.0 70:1.0 49:1.0 3953:1.0 5348:1.0 9:1.0 
0.22052862007875168 1:5.0 2:0.0 3:0.0 60:1.0 162:1.0 61:1.0 772:1.0 9:1.0 
9.507241342597517 1:6.0 2:0.0 3:0.0 60:1.0 162:1.0 61:1.0 164:1.0 165:1.0 
1.4736563975037713 1:5.0 2:1.0 3:0.0 56:1.0 6:1.0 466:1.0 8:1.0 9:1.0 
2.562971406010301 1:5.0 2:1.0 3:0.0 56:1.0 6:1.0 466:1.0 8:1.0 9:1.0 
0.032622977698000585 1:5.0 2:2.0 3:0.0 108:1.0 6:1.0 41074:1.0 8:1.0 2674:1.0 
1.7837501871250758 1:4.0 2:0.0 3:2.0 60:1.0 93:1.0 61:1.0 155:1.0 2075:1.0 
0.23807892793934468 1:6.0 2:0.0 3:0.0 60:1.0 384:1.0 61:1.0 2074:1.0 2537:1.0 
0.03342324191195072 1:6.0 2:3.0 3:0.0 5:1.0 384:1.0 588:1.0 2074:1.0 2674:1.0 
13.992969409423157 1:6.0 2:0.0 3:0.0 60:1.0 384:1.0 61:1.0 2074:1.0 2674:1.0 
0.4069653151983189 1:5.0 2:0.0 3:1.0 97:1.0 21:1.0 824:1.0 764:1.0 1985:1.0 
2.1572362108444865 1:5.0 2:0.0 3:0.0 60:1.0 6:1.0 61:1.0 8:1.0 1985:1.0 
0.08855434467979009 1:6.0 2:4.0 3:0.0 58:1.0 6:1.0 602:1.0 8:1.0 4483:1.0 
0.04516852963051486 1:6.0 2:4.0 3:0.0 172:1.0 14:1.0 337:1.0 15:1.0 4483:1.0 
0.5045751567393097 1:6.0 2:2.0 3:0.0 5:1.0 162:1.0 132:1.0 164:1.0 9:1.0 
0.016789727034291786 1:4.0 2:1.0 3:0.0 5:1.0 10:1.0 7:1.0 6568:1.0 9:1.0 
0.2436186802485542 1:6.0 2:0.0 3:0.0 72:1.0 6:1.0 166:1.0 8:1.0 316:1.0 
0.010609136877815352 1:6.0 2:4.0 3:3.0 56:1.0 21:1.0 21348:1.0 142:1.0 41269:1.0 
0.08249336922323751 1:3.0 2:2.0 3:1.0 58:1.0 49:1.0 372:1.0 2834:1.0 18282:1.0 
0.0260823789310522 1:6.0 2:0.0 3:0.0 60:1.0 6:1.0 61:1.0 8:1.0 9:1.0 
488.2405183173017 1:8.0 2:0.0 3:0.0 60:1.0 384:1.0 61:1.0 1292:1.0 316:1.0 
0.016552891791116114 1:3.0 2:0.0 3:5.0 60:1.0 153:1.0 61:1.0 24:1.0 96:1.0 
0.12507882056373787 1:5.0 2:3.0 3:3.0 108:1.0 49:1.0 14818:1.0 4470:1.0 9:1.0 
0.004946755389583167 1:7.0 2:7.0 3:5.0 58:1.0 162:1.0 6130:1.0 7091:1.0 48:1.0 
0.007319387109029482 1:5.0 2:3.0 3:0.0 56:1.0 6:1.0 41429:1.0 8:1.0 1723:1.0 
0.003125776175362794 1:6.0 2:4.0 3:0.0 108:1.0 6:1.0 2809:1.0 8:1.0 9:1.0 
0.005113392309947585 1:4.0 2:3.0 3:2.0 56:1.0 21:1.0 1280:1.0 582:1.0 16121:1.0 
0.03519636001111189 1:8.0 2:4.0 3:0.0 70:1.0 384:1.0 6469:1.0 2038:1.0 5168:1.0 
2.759610740054984 1:6.0 2:2.0 3:0.0 60:1.0 6:1.0 61:1.0 8:1.0 1937:1.0 
469.91353781177315 1:8.0 2:0.0 3:0.0 60:1.0 6:1.0 61:1.0 8:1.0 9:1.0 
0.0293901924450588 1:4.0 2:3.0 3:2.0 56:1.0 10:1.0 41299:1.0 40685:1.0 576:1.0 
0.025530076599127847 1:4.0 2:1.0 3:0.0 56:1.0 10:1.0 840:1.0 6568:1.0 167:1.0 
0.16562594816487874 1:3.0 2:0.0 3:0.0 60:1.0 6:1.0 61:1.0 8:1.0 1419:1.0 
500.0 1:6.0 2:0.0 3:0.0 60:1.0 384:1.0 61:1.0 1292:1.0 165:1.0 
0.1445582517011949 1:8.0 2:0.0 3:0.0 60:1.0 384:1.0 61:1.0 2074:1.0 761:1.0 
0.036880820513638855 1:5.0 2:0.0 3:1.0 97:1.0 21:1.0 824:1.0 35:1.0 298:1.0 
0.21579692764634156 1:5.0 2:0.0 3:0.0 60:1.0 384:1.0 61:1.0 2074:1.0 5630:1.0 
0.06362396378901812 1:6.0 2:3.0 3:0.0 180:1.0 384:1.0 1347:1.0 2074:1.0 4057:1.0 
0.6531434085751299 1:4.0 2:1.0 3:0.0 108:1.0 384:1.0 509:1.0 2074:1.0 2075:1.0 
0.010227246591842497 1:6.0 2:3.0 3:0.0 108:1.0 6:1.0 6714:1.0 8:1.0 9:1.0 
0.011363187987531644 1:6.0 2:3.0 3:0.0 56:1.0 384:1.0 41643:1.0 496:1.0 1542:1.0 
0.23281634217408298 1:5.0 2:0.0 3:0.0 60:1.0 162:1.0 61:1.0 772:1.0 2271:1.0 
0.21469006363830404 1:5.0 2:0.0 3:0.0 60:1.0 384:1.0 61:1.0 2074:1.0 14088:1.0 
0.016710828387794443 1:4.0 2:4.0 3:3.0 56:1.0 21:1.0 15961:1.0 52:1.0 3093:1.0 
1.4149204384178191 1:4.0 2:0.0 3:0.0 60:1.0 384:1.0 61:1.0 821:1.0 1937:1.0 
0.1855851353182582 1:6.0 2:0.0 3:0.0 60:1.0 6:1.0 61:1.0 8:1.0 9:1.0 
0.04482027382674664 1:6.0 2:0.0 3:0.0 60:1.0 6:1.0 61:1.0 8:1.0 9:1.0 
0.08557347259349536 1:3.0 2:3.0 3:3.0 56:1.0 12:1.0 1195:1.0 9406:1.0 9:1.0 
499.13690521126153 1:5.0 2:0.0 3:0.0 60:1.0 384:1.0 61:1.0 2038:1.0 165:1.0 
0.008855048310495682 1:5.0 2:2.0 3:0.0 56:1.0 384:1.0 1194:1.0 933:1.0 167:1.0 
0.039458992476176256 1:6.0 2:0.0 3:0.0 72:1.0 6:1.0 166:1.0 8:1.0 316:1.0 
0.01213377338896511 1:5.0 2:4.0 3:4.0 5:1.0 384:1.0 7898:1.0 2074:1.0 165:1.0 
0.03033173029472279 1:5.0 2:6.0 3:5.0 58:1.0 93:1.0 11213:1.0 436:1.0 1029:1.0 
0.0373751414271149 1:5.0 2:4.0 3:3.0 5:1.0 49:1.0 3835:1.0 99:1.0 165:1.0 
0.03112583868957062 1:5.0 2:7.0 3:0.0 144:1.0 6:1.0 145:1.0 8:1.0 9:1.0 
0.03097984808821966 1:5.0 2:7.0 3:1.0 144:1.0 49:1.0 145:1.0 29707:1.0 9:1.0 
0.06114679294209553 1:4.0 2:7.0 3:0.0 208:1.0 6:1.0 383:1.0 8:1.0 832:1.0 
0.6132316065175508 1:5.0 2:0.0 3:0.0 60:1.0 162:1.0 61:1.0 164:1.0 316:1.0 
0.051229549978262796 1:6.0 2:0.0 3:0.0 28:1.0 384:1.0 30:1.0 2074:1.0 18731:1.0 
0.051741107235464864 1:8.0 2:3.0 3:0.0 72:1.0 21:1.0 3820:1.0 780:1.0 316:1.0 
15.575289197694998 1:6.0 2:0.0 3:3.0 60:1.0 21:1.0 61:1.0 52:1.0 165:1.0 
0.01387614076673652 1:6.0 2:3.0 3:0.0 108:1.0 6:1.0 15534:1.0 8:1.0 316:1.0 
0.04044814438541538 1:4.0 2:0.0 3:1.0 72:1.0 21:1.0 5370:1.0 195:1.0 48:1.0 
0.03273603340101579 1:4.0 2:0.0 3:1.0 56:1.0 21:1.0 178:1.0 195:1.0 48:1.0 
0.09838406345671324 1:4.0 2:0.0 3:0.0 60:1.0 384:1.0 61:1.0 2038:1.0 2712:1.0 
0.04320725104507253 1:4.0 2:0.0 3:0.0 60:1.0 162:1.0 61:1.0 10168:1.0 2712:1.0 
0.011543246739330635 1:3.0 2:1.0 3:1.0 56:1.0 162:1.0 2899:1.0 4224:1.0 3111:1.0 
0.029964817371496894 1:4.0 2:1.0 3:1.0 72:1.0 21:1.0 3026:1.0 52:1.0 2688:1.0 
0.34613764522706925 1:8.0 2:0.0 3:3.0 60:1.0 177:1.0 61:1.0 887:1.0 316:1.0 
0.005629008627443326 1:4.0 2:3.0 3:2.0 56:1.0 21:1.0 675:1.0 52:1.0 4451:1.0 
0.14119940815134252 1:4.0 2:0.0 3:0.0 72:1.0 6000:1.0 806:1.0 6431:1.0 1029:1.0 
0.004138924484883889 1:6.0 2:5.0 3:5.0 5:1.0 49:1.0 3835:1.0 4633:1.0 165:1.0 
494.7361922911916 1:8.0 2:0.0 3:0.0 72:1.0 6:1.0 166:1.0 8:1.0 316:1.0 
0.6211818632963407 1:5.0 2:0.0 3:0.0 72:1.0 6:1.0 166:1.0 8:1.0 316:1.0 
0.08337214734405539 1:4.0 2:6.0 3:0.0 144:1.0 6:1.0 145:1.0 8:1.0 524:1.0 
18.621171979849834 1:5.0 2:4.0 3:0.0 208:1.0 384:1.0 383:1.0 1292:1.0 2075:1.0 
0.020717856978376 1:6.0 2:5.0 3:0.0 70:1.0 162:1.0 12048:1.0 164:1.0 316:1.0 
0.0022941031626069544 1:4.0 2:5.0 3:5.0 56:1.0 153:1.0 22959:1.0 9036:1.0 316:1.0 
0.1042719623265082 1:8.0 2:1.0 3:0.0 56:1.0 6:1.0 178:1.0 8:1.0 165:1.0 
0.034018911478959565 1:6.0 2:7.0 3:0.0 180:1.0 384:1.0 15398:1.0 2038:1.0 165:1.0 
0.004558765381989385 1:4.0 2:4.0 3:4.0 56:1.0 93:1.0 7454:1.0 155:1.0 9:1.0 
0.054369150711492543 1:4.0 2:0.0 3:1.0 72:1.0 21:1.0 166:1.0 6388:1.0 9:1.0 
0.0475958185822314 1:5.0 2:4.0 3:2.0 433:1.0 10:1.0 1938:1.0 2697:1.0 1795:1.0 
0.15913685989216472 1:6.0 2:4.0 3:3.0 39:1.0 21:1.0 2190:1.0 259:1.0 4500:1.0 
482.03806413540275 1:7.0 2:0.0 3:0.0 60:1.0 162:1.0 61:1.0 164:1.0 165:1.0 
0.0030943231282694245 1:4.0 2:3.0 3:2.0 56:1.0 21:1.0 6791:1.0 142:1.0 3024:1.0 
0.03558398654674193 1:5.0 2:0.0 3:0.0 60:1.0 384:1.0 61:1.0 821:1.0 48:1.0 
0.3273219454124718 1:5.0 2:2.0 3:0.0 56:1.0 6:1.0 2151:1.0 8:1.0 1519:1.0 
4.00844350726888 1:5.0 2:4.0 3:0.0 70:1.0 6:1.0 1652:1.0 8:1.0 165:1.0 
0.020583501262379726 1:5.0 2:4.0 3:3.0 56:1.0 21:1.0 5472:1.0 2480:1.0 9:1.0 
0.19137123538537495 1:4.0 2:0.0 3:0.0 60:1.0 49:1.0 61:1.0 3246:1.0 96:1.0 
418.60659486810533 1:8.0 2:0.0 3:0.0 60:1.0 6:1.0 61:1.0 8:1.0 9:1.0 
0.0069930074236572715 1:6.0 2:2.0 3:0.0 5:1.0 6:1.0 893:1.0 8:1.0 2157:1.0 
0.1276897059057563 1:5.0 2:0.0 3:0.0 60:1.0 1826:1.0 61:1.0 1827:1.0 9:1.0 
0.0035636937041242005 1:4.0 2:4.0 3:3.0 56:1.0 93:1.0 19625:1.0 155:1.0 9:1.0 
0.22101865847334007 1:4.0 2:0.0 3:2.0 60:1.0 21:1.0 61:1.0 482:1.0 14969:1.0 
0.02836494764313576 1:4.0 2:0.0 3:0.0 97:1.0 162:1.0 2076:1.0 276:1.0 2075:1.0 
0.02833110930854147 1:4.0 2:5.0 3:2.0 5:1.0 49:1.0 7:1.0 14345:1.0 1348:1.0 
0.05457014428150793 1:4.0 2:5.0 3:6.0 5:1.0 73:1.0 7:1.0 75:1.0 1348:1.0 
0.1655338346935431 1:5.0 2:5.0 3:0.0 70:1.0 6:1.0 717:1.0 8:1.0 165:1.0 
0.1395720915324193 1:5.0 2:5.0 3:5.0 70:1.0 177:1.0 717:1.0 17512:1.0 165:1.0 
0.009496729103730131 1:3.0 2:0.0 3:2.0 60:1.0 49:1.0 61:1.0 1986:1.0 968:1.0 
0.2543051783188139 1:6.0 2:0.0 3:2.0 28:1.0 49:1.0 30:1.0 17343:1.0 4057:1.0 
0.13722937860721104 1:6.0 2:1.0 3:2.0 56:1.0 49:1.0 3895:1.0 17343:1.0 4057:1.0 
0.02017802320645136 1:5.0 2:0.0 3:0.0 60:1.0 384:1.0 61:1.0 821:1.0 316:1.0 
0.5676204750023093 1:5.0 2:0.0 3:0.0 60:1.0 162:1.0 61:1.0 164:1.0 316:1.0 
270.7779891623303 1:5.0 2:0.0 3:3.0 60:1.0 153:1.0 61:1.0 290:1.0 316:1.0 
0.044360429288914684 1:7.0 2:8.0 3:5.0 70:1.0 162:1.0 14219:1.0 8941:1.0 31686:1.0 
0.028837070550577576 1:4.0 2:7.0 3:3.0 180:1.0 49:1.0 10695:1.0 5065:1.0 9:1.0 
0.2323752517912091 1:6.0 2:0.0 3:0.0 60:1.0 384:1.0 61:1.0 2074:1.0 2556:1.0 
1.9860386321969892 1:6.0 2:0.0 3:0.0 60:1.0 6:1.0 61:1.0 8:1.0 9:1.0 
0.2497507370195843 1:4.0 2:2.0 3:0.0 180:1.0 6:1.0 1930:1.0 8:1.0 165:1.0 
0.1218237811278315 1:4.0 2:2.0 3:0.0 180:1.0 384:1.0 1930:1.0 1292:1.0 165:1.0 
1.1299331594914102 1:4.0 2:0.0 3:0.0 60:1.0 384:1.0 61:1.0 1292:1.0 165:1.0 
0.9537351139660244 1:4.0 2:0.0 3:0.0 60:1.0 6:1.0 61:1.0 8:1.0 165:1.0 
0.09092969654009095 1:4.0 2:0.0 3:4.0 60:1.0 21:1.0 61:1.0 52:1.0 3864:1.0 
0.036309804835871116 1:5.0 2:5.0 3:3.0 172:1.0 150:1.0 173:1.0 8580:1.0 6513:1.0 
0.008025863533860174 1:5.0 2:3.0 3:0.0 56:1.0 6:1.0 3680:1.0 8:1.0 927:1.0 
0.03275177214237349 1:6.0 2:6.0 3:0.0 180:1.0 384:1.0 10601:1.0 1292:1.0 1937:1.0 
0.4085436800458438 1:5.0 2:0.0 3:2.0 72:1.0 21:1.0 322:1.0 213:1.0 289:1.0 
0.08602718398057231 1:6.0 2:0.0 3:0.0 72:1.0 6:1.0 166:1.0 8:1.0 316:1.0 
0.04617679206465279 1:5.0 2:5.0 3:3.0 180:1.0 49:1.0 346:1.0 10203:1.0 9:1.0 
0.9481961261991384 1:5.0 2:2.0 3:0.0 5:1.0 384:1.0 583:1.0 1292:1.0 165:1.0 
0.030278693999315955 1:3.0 2:2.0 3:2.0 56:1.0 21:1.0 2151:1.0 52:1.0 18391:1.0 
1.214347409424625 1:5.0 2:0.0 3:2.0 72:1.0 177:1.0 166:1.0 887:1.0 9:1.0 
0.022498803357110034 1:5.0 2:3.0 3:0.0 108:1.0 6:1.0 18750:1.0 8:1.0 9:1.0 
0.03678166834025402 1:4.0 2:0.0 3:0.0 60:1.0 384:1.0 61:1.0 821:1.0 165:1.0 
0.013551413697957435 1:4.0 2:7.0 3:5.0 5:1.0 49:1.0 3794:1.0 5809:1.0 165:1.0 
0.6946787854185319 1:4.0 2:0.0 3:0.0 60:1.0 384:1.0 61:1.0 1292:1.0 165:1.0 
0.0780740200722226 1:5.0 2:0.0 3:0.0 271:1.0 2636:1.0 272:1.0 2637:1.0 48:1.0 
4.766148211488428 1:9.0 2:0.0 3:0.0 37:1.0 384:1.0 38:1.0 1292:1.0 165:1.0 
0.04400323521937769 1:4.0 2:0.0 3:2.0 60:1.0 153:1.0 61:1.0 21727:1.0 96:1.0 
0.004364078364875045 1:4.0 2:0.0 3:2.0 60:1.0 153:1.0 61:1.0 21727:1.0 96:1.0 
0.2490925792544286 1:3.0 2:0.0 3:0.0 72:1.0 162:1.0 166:1.0 1827:1.0 9:1.0 
0.11861680157474154 1:5.0 2:4.0 3:1.0 172:1.0 49:1.0 173:1.0 2310:1.0 12998:1.0 
0.004617578955858729 1:4.0 2:4.0 3:4.0 56:1.0 93:1.0 3115:1.0 290:1.0 7001:1.0 
0.6393865249458845 1:4.0 2:0.0 3:2.0 60:1.0 21:1.0 61:1.0 482:1.0 2674:1.0 
0.11231322122842483 1:5.0 2:0.0 3:4.0 60:1.0 21:1.0 61:1.0 482:1.0 9020:1.0 
0.0711711691788181 1:4.0 2:1.0 3:0.0 58:1.0 162:1.0 632:1.0 934:1.0 3597:1.0 
0.014110468832796553 1:4.0 2:3.0 3:0.0 72:1.0 384:1.0 6648:1.0 1292:1.0 1937:1.0 
0.004853215865630729 1:4.0 2:3.0 3:2.0 56:1.0 21:1.0 14149:1.0 2145:1.0 9:1.0 
0.06612358929201133 1:4.0 2:0.0 3:0.0 60:1.0 384:1.0 61:1.0 2038:1.0 1173:1.0 
0.011405662100523514 1:4.0 2:0.0 3:2.0 60:1.0 21:1.0 61:1.0 400:1.0 1173:1.0 
0.19589527887999905 1:4.0 2:3.0 3:3.0 58:1.0 49:1.0 7025:1.0 35316:1.0 9:1.0 
0.0456246668909676 1:4.0 2:3.0 3:0.0 58:1.0 6:1.0 7025:1.0 8:1.0 9:1.0 
0.0466299067754386 1:6.0 2:3.0 3:1.0 58:1.0 49:1.0 516:1.0 10011:1.0 165:1.0 
25.843052712141077 1:6.0 2:0.0 3:5.0 60:1.0 21:1.0 61:1.0 52:1.0 165:1.0 
0.008080285594144754 1:4.0 2:3.0 3:2.0 56:1.0 21:1.0 11502:1.0 400:1.0 9:1.0 
0.4119846582317483 1:4.0 2:0.0 3:0.0 60:1.0 384:1.0 61:1.0 2038:1.0 1937:1.0 
0.08703095825979852 1:4.0 2:5.0 3:3.0 56:1.0 150:1.0 466:1.0 508:1.0 9:1.0 
0.32187060067392703 1:6.0 2:1.0 3:0.0 56:1.0 6:1.0 178:1.0 8:1.0 110:1.0 
1.4133416564705266 1:6.0 2:0.0 3:0.0 97:1.0 6:1.0 2076:1.0 8:1.0 2075:1.0 
0.21704517187214176 1:5.0 2:0.0 3:0.0 60:1.0 162:1.0 61:1.0 164:1.0 9:1.0 
0.05780074304048301 1:4.0 2:2.0 3:2.0 58:1.0 49:1.0 11874:1.0 1842:1.0 5207:1.0 
81.4400375386011 1:5.0 2:7.0 3:0.0 208:1.0 384:1.0 383:1.0 2074:1.0 2075:1.0 
29.241974723380075 1:6.0 2:0.0 3:0.0 60:1.0 162:1.0 61:1.0 274:1.0 9:1.0 
0.007761823563126841 1:4.0 2:3.0 3:0.0 180:1.0 6:1.0 16163:1.0 8:1.0 9:1.0 
0.04257015101818874 1:3.0 2:5.0 3:2.0 144:1.0 21:1.0 145:1.0 709:1.0 524:1.0 
0.06929525817781614 1:4.0 2:0.0 3:4.0 60:1.0 21:1.0 61:1.0 52:1.0 6516:1.0 
0.49808272003114107 1:6.0 2:0.0 3:0.0 60:1.0 10:1.0 61:1.0 6568:1.0 316:1.0 
0.016624762530128658 1:5.0 2:2.0 3:0.0 180:1.0 6:1.0 1487:1.0 8:1.0 9:1.0 
500.0 1:6.0 2:0.0 3:0.0 60:1.0 384:1.0 61:1.0 2074:1.0 165:1.0 
0.02563645911476901 1:7.0 2:0.0 3:0.0 324:1.0 14:1.0 325:1.0 15:1.0 5911:1.0 
0.006830307921290898 1:5.0 2:3.0 3:0.0 56:1.0 6:1.0 2971:1.0 8:1.0 9:1.0 
0.008611222025173037 1:5.0 2:0.0 3:0.0 60:1.0 384:1.0 61:1.0 821:1.0 316:1.0 
0.11876110926684436 1:5.0 2:0.0 3:0.0 60:1.0 162:1.0 61:1.0 164:1.0 316:1.0 
0.03343684082614099 1:5.0 2:0.0 3:4.0 60:1.0 153:1.0 61:1.0 2531:1.0 316:1.0 
0.06731832635821407 1:4.0 2:0.0 3:0.0 60:1.0 384:1.0 61:1.0 2038:1.0 1405:1.0 
1.1947265168799879 1:5.0 2:0.0 3:0.0 60:1.0 384:1.0 61:1.0 2074:1.0 2075:1.0 
0.3849423487898875 1:4.0 2:6.0 3:0.0 180:1.0 384:1.0 295:1.0 1292:1.0 2660:1.0 
0.10013673895303717 1:5.0 2:3.0 3:0.0 180:1.0 6:1.0 4201:1.0 8:1.0 9:1.0 
0.04067476895286441 1:6.0 2:2.0 3:0.0 56:1.0 6:1.0 2040:1.0 8:1.0 15949:1.0 
0.03458068904983548 1:5.0 2:0.0 3:2.0 72:1.0 153:1.0 166:1.0 290:1.0 316:1.0 
0.5725908883400482 1:6.0 2:0.0 3:0.0 60:1.0 6:1.0 61:1.0 8:1.0 9:1.0 
0.05656951534393244 1:4.0 2:0.0 3:0.0 60:1.0 162:1.0 61:1.0 1019:1.0 462:1.0 
1.6494262129547759 1:6.0 2:0.0 3:4.0 60:1.0 21:1.0 61:1.0 52:1.0 316:1.0 
490.37209810131833 1:6.0 2:0.0 3:0.0 60:1.0 162:1.0 61:1.0 164:1.0 316:1.0 
0.04467219204376764 1:4.0 2:4.0 3:5.0 56:1.0 153:1.0 1493:1.0 8247:1.0 1976:1.0 
0.04209580664337657 1:5.0 2:1.0 3:2.0 56:1.0 10:1.0 6761:1.0 23807:1.0 1018:1.0 
0.009137527321316294 1:4.0 2:3.0 3:2.0 56:1.0 21:1.0 8612:1.0 35:1.0 9:1.0 
17.821905055400993 1:7.0 2:0.0 3:0.0 60:1.0 6:1.0 61:1.0 8:1.0 9:1.0 
500.0 1:7.0 2:0.0 3:0.0 60:1.0 6:1.0 61:1.0 8:1.0 9:1.0 
499.7226870597882 1:7.0 2:2.0 3:0.0 5:1.0 6:1.0 146:1.0 8:1.0 576:1.0 
0.10760740918288339 1:7.0 2:2.0 3:3.0 5:1.0 49:1.0 146:1.0 46274:1.0 576:1.0 
0.15753458944676077 1:7.0 2:0.0 3:3.0 60:1.0 49:1.0 61:1.0 46274:1.0 576:1.0 
0.3108181681066947 1:4.0 2:0.0 3:0.0 28:1.0 384:1.0 30:1.0 2074:1.0 2075:1.0 
9.943705121559193 1:5.0 2:0.0 3:0.0 60:1.0 162:1.0 61:1.0 164:1.0 316:1.0 
-0.73218452874848 1:3.0 2:1.0 3:3.0 56:1.0 49:1.0 2365:1.0 2366:1.0 2364:1.0 
-0.044600753289252275 1:4.0 2:4.0 3:0.0 172:1.0 384:1.0 173:1.0 2038:1.0 2500:1.0 
-0.14521516554342198 1:4.0 2:0.0 3:0.0 72:1.0 2636:1.0 2611:1.0 2637:1.0 2635:1.0 
-500.0 1:7.0 2:0.0 3:3.0 28:1.0 49:1.0 30:1.0 3391:1.0 165:1.0 
-0.22147070847683104 1:7.0 2:0.0 3:0.0 271:1.0 49:1.0 1368:1.0 1986:1.0 539:1.0 
-0.2917128709127579 1:5.0 2:2.0 3:0.0 70:1.0 417:1.0 4190:1.0 3048:1.0 9:1.0 
-0.2413656871296983 1:5.0 2:2.0 3:0.0 70:1.0 49:1.0 4190:1.0 4216:1.0 9:1.0 
-0.8943688046763024 1:3.0 2:2.0 3:1.0 5:1.0 49:1.0 583:1.0 4618:1.0 165:1.0 
-0.6290095029426623 1:3.0 2:2.0 3:2.0 5:1.0 49:1.0 583:1.0 2331:1.0 165:1.0 
-1.3565337997694074 1:2.0 2:1.0 3:0.0 180:1.0 49:1.0 817:1.0 4806:1.0 9:1.0 
-0.2536603964280642 1:4.0 2:7.0 3:0.0 58:1.0 384:1.0 5030:1.0 1292:1.0 165:1.0 
-0.33565153061327374 1:7.0 2:0.0 3:0.0 72:1.0 49:1.0 6370:1.0 2390:1.0 2075:1.0 
-0.15190221666483444 1:5.0 2:9.0 3:0.0 172:1.0 384:1.0 173:1.0 6612:1.0 4057:1.0 
-0.048192479452684636 1:7.0 2:0.0 3:1.0 324:1.0 21:1.0 325:1.0 400:1.0 2075:1.0 
-0.2526345582895018 1:5.0 2:4.0 3:1.0 56:1.0 183:1.0 8694:1.0 8514:1.0 165:1.0 
-0.3208163020554904 1:6.0 2:0.0 3:0.0 72:1.0 6:1.0 775:1.0 8:1.0 9:1.0 
-0.39248102864023005 1:7.0 2:0.0 3:0.0 72:1.0 62:1.0 1081:1.0 136:1.0 5095:1.0 
-31.058113861497077 1:6.0 2:0.0 3:0.0 60:1.0 384:1.0 61:1.0 2038:1.0 1433:1.0 
-1.764327689662528 1:3.0 2:3.0 3:0.0 5:1.0 384:1.0 483:1.0 1292:1.0 1524:1.0 
-0.32529558311155404 1:5.0 2:3.0 3:0.0 70:1.0 6:1.0 3091:1.0 8:1.0 9:1.0 
-93.94462695233253 1:5.0 2:6.0 3:0.0 208:1.0 384:1.0 383:1.0 2074:1.0 2075:1.0 
-0.005349911840451135 1:8.0 2:0.0 3:0.0 324:1.0 6:1.0 325:1.0 8:1.0 12964:1.0 
-68.93797284080229 1:5.0 2:0.0 3:0.0 60:1.0 162:1.0 61:1.0 274:1.0 9:1.0 
-0.21473818546819434 1:5.0 2:6.0 3:0.0 433:1.0 262:1.0 1487:1.0 716:1.0 9:1.0 
-0.06444767556874711 1:9.0 2:0.0 3:1.0 324:1.0 49:1.0 325:1.0 2150:1.0 9:1.0 
-1.282164265440625 1:3.0 2:0.0 3:0.0 16:1.0 2636:1.0 2140:1.0 2637:1.0 9:1.0 
-0.4496975238385872 1:3.0 2:5.0 3:0.0 56:1.0 2636:1.0 8803:1.0 2637:1.0 9:1.0 
-500.0 1:7.0 2:0.0 3:0.0 60:1.0 1826:1.0 61:1.0 1827:1.0 9:1.0 
-4.931442001528166 1:10.0 2:0.0 3:0.0 97:1.0 6:1.0 2076:1.0 8:1.0 1795:1.0 
-0.3124764590177392 1:10.0 2:0.0 3:0.0 108:1.0 162:1.0 14365:1.0 14360:1.0 9:1.0 
-0.18864574942689763 1:10.0 2:0.0 3:0.0 108:1.0 6:1.0 14365:1.0 8:1.0 9:1.0 
-0.02457534614994801 1:5.0 2:0.0 3:4.0 97:1.0 21:1.0 824:1.0 482:1.0 490:1.0 
-0.08398619938148115 1:11.0 2:0.0 3:0.0 97:1.0 21:1.0 2076:1.0 780:1.0 2075:1.0 
-500.0 1:11.0 2:0.0 3:0.0 97:1.0 33:1.0 2076:1.0 34:1.0 2075:1.0 
-0.5065740070079645 1:2.0 2:3.0 3:0.0 144:1.0 384:1.0 145:1.0 1292:1.0 3374:1.0 
-1.2449533722083967 1:5.0 2:0.0 3:4.0 60:1.0 21:1.0 61:1.0 482:1.0 4032:1.0 
-0.268698950855744 1:7.0 2:5.0 3:5.0 101:1.0 73:1.0 15854:1.0 75:1.0 15851:1.0 
-0.5512084566281141 1:3.0 2:1.0 3:2.0 58:1.0 49:1.0 9870:1.0 2905:1.0 165:1.0 
-0.9390009166216977 1:3.0 2:1.0 3:2.0 5:1.0 49:1.0 7:1.0 2905:1.0 165:1.0 
-0.6838265323209781 1:3.0 2:1.0 3:0.0 58:1.0 6000:1.0 995:1.0 6431:1.0 618:1.0 
-0.28228216547115553 1:4.0 2:0.0 3:7.0 324:1.0 10:1.0 325:1.0 6638:1.0 165:1.0 
-500.0 1:6.0 2:0.0 3:0.0 60:1.0 162:1.0 61:1.0 164:1.0 316:1.0 
-0.05083773109110899 1:6.0 2:6.0 3:1.0 172:1.0 40:1.0 337:1.0 8111:1.0 503:1.0 
-0.10809066070624446 1:4.0 2:5.0 3:4.0 70:1.0 21:1.0 4475:1.0 3834:1.0 165:1.0 
-0.6211963738836944 1:4.0 2:0.0 3:0.0 72:1.0 162:1.0 3820:1.0 1026:1.0 634:1.0 
-0.1324662577366943 1:5.0 2:3.0 3:3.0 70:1.0 49:1.0 3142:1.0 2863:1.0 9:1.0 
-0.2864522632733025 1:5.0 2:7.0 3:0.0 180:1.0 6:1.0 717:1.0 8:1.0 9:1.0 
-0.44307515672544767 1:6.0 2:3.0 3:0.0 208:1.0 6:1.0 7307:1.0 8:1.0 100:1.0 
-0.9220403799096584 1:4.0 2:0.0 3:0.0 567:1.0 6000:1.0 568:1.0 13861:1.0 8577:1.0 
-0.4131239375287147 1:8.0 2:0.0 3:0.0 60:1.0 150:1.0 61:1.0 937:1.0 165:1.0 
-0.6002087019123197 1:6.0 2:1.0 3:3.0 72:1.0 49:1.0 264:1.0 99:1.0 165:1.0 
-0.7791884235786504 1:5.0 2:4.0 3:0.0 172:1.0 384:1.0 337:1.0 2074:1.0 2674:1.0 
-0.19780313467132216 1:3.0 2:5.0 3:2.0 172:1.0 21:1.0 173:1.0 142:1.0 2030:1.0 
-0.2968412596921287 1:4.0 2:3.0 3:0.0 433:1.0 262:1.0 295:1.0 1365:1.0 9:1.0 
-500.0 1:5.0 2:0.0 3:0.0 60:1.0 162:1.0 61:1.0 786:1.0 9:1.0 
-0.43256145494383413 1:9.0 2:0.0 3:2.0 58:1.0 21:1.0 4317:1.0 52:1.0 167:1.0 
-0.37933887442692454 1:8.0 2:2.0 3:5.0 433:1.0 10:1.0 5539:1.0 2815:1.0 9:1.0 
-500.0 1:8.0 2:0.0 3:3.0 60:1.0 21:1.0 61:1.0 1892:1.0 9:1.0 
-0.15195988951030118 1:7.0 2:3.0 3:0.0 56:1.0 6:1.0 8517:1.0 8:1.0 165:1.0 
-0.11490560030636587 1:4.0 2:4.0 3:3.0 108:1.0 49:1.0 509:1.0 4543:1.0 9:1.0 
-0.256630520337193 1:5.0 2:6.0 3:6.0 101:1.0 12:1.0 295:1.0 155:1.0 165:1.0 
-1.0491670158616595 1:5.0 2:0.0 3:3.0 72:1.0 23:1.0 15438:1.0 4200:1.0 1937:1.0 
-0.3452469436015245 1:5.0 2:0.0 3:0.0 72:1.0 6:1.0 15438:1.0 8:1.0 1937:1.0 
-0.593235450393928 1:5.0 2:1.0 3:0.0 180:1.0 384:1.0 4201:1.0 2038:1.0 1937:1.0 
-1.5541398647113926 1:9.0 2:0.0 3:0.0 56:1.0 6:1.0 178:1.0 8:1.0 316:1.0 
-3.698386613267506 1:6.0 2:1.0 3:0.0 5:1.0 6:1.0 588:1.0 8:1.0 9:1.0 
-0.4753925693015733 1:3.0 2:4.0 3:0.0 157:1.0 384:1.0 3649:1.0 1292:1.0 2353:1.0 
-0.24466345026474862 1:14.0 2:0.0 3:1.0 72:1.0 49:1.0 5951:1.0 3028:1.0 9:1.0 
-500.0 1:14.0 2:0.0 3:0.0 72:1.0 6:1.0 5951:1.0 8:1.0 9:1.0 
-0.21833093827859104 1:14.0 2:0.0 3:2.0 72:1.0 21:1.0 5951:1.0 1892:1.0 9:1.0 
-500.0 1:7.0 2:0.0 3:0.0 60:1.0 162:1.0 61:1.0 164:1.0 165:1.0 
-0.14953881860468227 1:4.0 2:8.0 3:5.0 5:1.0 150:1.0 264:1.0 13918:1.0 9:1.0 
-500.0 1:7.0 2:0.0 3:4.0 28:1.0 21:1.0 30:1.0 195:1.0 503:1.0 
-0.3088342448958288 1:3.0 2:3.0 3:1.0 172:1.0 49:1.0 173:1.0 2171:1.0 9:1.0 
-500.0 1:8.0 2:0.0 3:0.0 60:1.0 384:1.0 61:1.0 2074:1.0 2674:1.0 
-0.19690116329892565 1:8.0 2:5.0 3:3.0 172:1.0 177:1.0 337:1.0 436:1.0 2674:1.0 
-500.0 1:8.0 2:0.0 3:0.0 60:1.0 6:1.0 61:1.0 8:1.0 9:1.0 
-500.0 1:5.0 2:0.0 3:0.0 60:1.0 384:1.0 61:1.0 2038:1.0 165:1.0 
-0.531938331534982 1:7.0 2:0.0 3:4.0 56:1.0 21:1.0 24338:1.0 35:1.0 9:1.0 
-0.474190728406491 1:5.0 2:2.0 3:5.0 5:1.0 49:1.0 893:1.0 9743:1.0 4451:1.0 
-0.012747506876135383 1:7.0 2:0.0 3:4.0 324:1.0 49:1.0 325:1.0 4436:1.0 165:1.0 
-0.19131899837330144 1:6.0 2:5.0 3:0.0 433:1.0 262:1.0 476:1.0 263:1.0 9:1.0 
-0.5700293594471424 1:7.0 2:2.0 3:0.0 5:1.0 574:1.0 146:1.0 575:1.0 24920:1.0 
-1.7558772317065756 1:5.0 2:0.0 3:0.0 60:1.0 6:1.0 61:1.0 8:1.0 8597:1.0 
-4.064941240242035 1:5.0 2:0.0 3:0.0 60:1.0 384:1.0 61:1.0 1292:1.0 832:1.0 
-0.5800678458059233 1:3.0 2:2.0 3:0.0 70:1.0 45:1.0 5016:1.0 47:1.0 165:1.0 
-0.5255507635454136 1:9.0 2:0.0 3:4.0 56:1.0 10:1.0 8325:1.0 6568:1.0 9:1.0 
-500.0 1:6.0 2:0.0 3:0.0 60:1.0 384:1.0 61:1.0 1292:1.0 165:1.0 
-0.5576723756793565 1:6.0 2:1.0 3:4.0 56:1.0 21:1.0 6571:1.0 35:1.0 6120:1.0 
-0.07663190636493858 1:6.0 2:1.0 3:0.0 56:1.0 384:1.0 6571:1.0 2074:1.0 6120:1.0 
-0.18659431706376495 1:5.0 2:6.0 3:0.0 180:1.0 6:1.0 9193:1.0 8:1.0 9:1.0 
-0.888811746594348 1:3.0 2:3.0 3:0.0 157:1.0 384:1.0 295:1.0 1292:1.0 316:1.0 
-3.5472120713227446 1:5.0 2:6.0 3:0.0 70:1.0 6:1.0 1652:1.0 8:1.0 165:1.0 
-7.778714844752035 1:6.0 2:6.0 3:0.0 144:1.0 6:1.0 145:1.0 8:1.0 503:1.0 
-500.0 1:6.0 2:0.0 3:0.0 28:1.0 384:1.0 30:1.0 1292:1.0 7105:1.0 
-0.7781237085301349 1:9.0 2:1.0 3:1.0 144:1.0 21:1.0 145:1.0 142:1.0 28345:1.0 
-500.0 1:6.0 2:0.0 3:4.0 60:1.0 153:1.0 61:1.0 290:1.0 316:1.0 
-16.470073962578 1:5.0 2:5.0 3:0.0 208:1.0 49:1.0 383:1.0 3246:1.0 96:1.0 
-0.2570354768312697 1:5.0 2:5.0 3:0.0 58:1.0 6:1.0 12429:1.0 8:1.0 503:1.0 
-0.9341992753680537 1:8.0 2:0.0 3:4.0 97:1.0 21:1.0 824:1.0 482:1.0 5911:1.0 
-0.5689574567292133 1:2.0 2:5.0 3:1.0 58:1.0 49:1.0 1493:1.0 5151:1.0 130:1.0 
-0.0598126050391412 1:4.0 2:4.0 3:0.0 172:1.0 6000:1.0 173:1.0 13861:1.0 165:1.0 
-0.25730449405356554 1:4.0 2:4.0 3:0.0 172:1.0 49:1.0 173:1.0 3370:1.0 165:1.0 
-0.07096356160051076 1:2.0 2:5.0 3:0.0 144:1.0 384:1.0 145:1.0 1292:1.0 100:1.0 
-0.4997299196157497 1:10.0 2:4.0 3:0.0 5:1.0 6:1.0 483:1.0 8:1.0 31166:1.0 
-0.599208325539309 1:4.0 2:0.0 3:3.0 108:1.0 49:1.0 31259:1.0 20018:1.0 9:1.0 
-0.35162973578408663 1:6.0 2:0.0 3:0.0 72:1.0 384:1.0 17507:1.0 1292:1.0 4711:1.0 
-1.707494594250469 1:5.0 2:0.0 3:0.0 324:1.0 384:1.0 325:1.0 1292:1.0 1937:1.0 
-0.6432681376468594 1:2.0 2:1.0 3:5.0 70:1.0 49:1.0 158:1.0 3391:1.0 165:1.0 
-0.26693124832580617 1:4.0 2:9.0 3:3.0 5:1.0 12:1.0 710:1.0 9406:1.0 9:1.0 
-0.13620246186248616 1:7.0 2:3.0 3:1.0 208:1.0 49:1.0 2040:1.0 3165:1.0 16408:1.0 
-0.3895217117790892 1:5.0 2:2.0 3:0.0 58:1.0 6:1.0 6820:1.0 8:1.0 618:1.0 
-0.5318696416691552 1:7.0 2:0.0 3:0.0 271:1.0 49:1.0 272:1.0 16642:1.0 634:1.0 
-0.4353011303897557 1:4.0 2:0.0 3:9.0 324:1.0 93:1.0 325:1.0 155:1.0 96:1.0 
-0.48816651759503354 1:7.0 2:2.0 3:0.0 349:1.0 6:1.0 295:1.0 8:1.0 165:1.0 
-500.0 1:7.0 2:0.0 3:0.0 60:1.0 10:1.0 61:1.0 6568:1.0 9:1.0 
-500.0 1:8.0 2:0.0 3:0.0 60:1.0 384:1.0 61:1.0 1292:1.0 316:1.0 
-1.0223468474770443 1:7.0 2:0.0 3:7.0 37:1.0 177:1.0 38:1.0 887:1.0 9:1.0 
-0.25751774241399217 1:5.0 2:4.0 3:0.0 70:1.0 6:1.0 5089:1.0 8:1.0 9:1.0 
-0.09206221656283817 1:7.0 2:6.0 3:3.0 433:1.0 177:1.0 295:1.0 155:1.0 9:1.0 
-0.4490731423001695 1:8.0 2:0.0 3:2.0 97:1.0 10:1.0 98:1.0 22881:1.0 167:1.0 
-0.5337665576634539 1:7.0 2:0.0 3:3.0 271:1.0 177:1.0 1368:1.0 4564:1.0 9:1.0 
-0.23089747063065919 1:4.0 2:8.0 3:1.0 108:1.0 49:1.0 1458:1.0 3678:1.0 167:1.0 
-0.03539090008408463 1:6.0 2:7.0 3:5.0 144:1.0 21:1.0 145:1.0 482:1.0 165:1.0 
-0.47588459321606036 1:8.0 2:0.0 3:0.0 56:1.0 162:1.0 7025:1.0 786:1.0 36056:1.0 
-0.3950284515630082 1:2.0 2:4.0 3:0.0 180:1.0 384:1.0 2141:1.0 1292:1.0 9:1.0 
-0.2609855384154639 1:7.0 2:1.0 3:1.0 58:1.0 49:1.0 24118:1.0 36101:1.0 1869:1.0 
-2.0652342976876596 1:4.0 2:0.0 3:5.0 60:1.0 93:1.0 61:1.0 155:1.0 2075:1.0 
-5.8631507576646875 1:5.0 2:2.0 3:0.0 56:1.0 6:1.0 466:1.0 8:1.0 9:1.0 
-0.09619307180816034 1:6.0 2:5.0 3:5.0 56:1.0 21:1.0 11716:1.0 1892:1.0 796:1.0 
-0.03154641347472392 1:5.0 2:6.0 3:3.0 172:1.0 153:1.0 173:1.0 290:1.0 316:1.0 
-500.0 1:6.0 2:0.0 3:0.0 60:1.0 384:1.0 61:1.0 2074:1.0 165:1.0 
-500.0 1:8.0 2:2.0 3:0.0 56:1.0 6:1.0 37595:1.0 8:1.0 9:1.0 
-0.19683690498116563 1:7.0 2:4.0 3:0.0 5:1.0 6:1.0 9317:1.0 8:1.0 490:1.0 
-0.1539406215222916 1:7.0 2:4.0 3:0.0 5:1.0 384:1.0 9317:1.0 821:1.0 490:1.0 
-0.3865190019553368 1:2.0 2:5.0 3:1.0 180:1.0 49:1.0 5526:1.0 4947:1.0 9:1.0 
-500.0 1:7.0 2:4.0 3:0.0 433:1.0 6:1.0 158:1.0 8:1.0 96:1.0 
-0.3648940673454758 1:4.0 2:2.0 3:0.0 108:1.0 384:1.0 1458:1.0 2038:1.0 1937:1.0 
-0.581741126055373 1:10.0 2:0.0 3:0.0 72:1.0 6:1.0 5370:1.0 8:1.0 25017:1.0 
-0.20783734475520338 1:4.0 2:4.0 3:5.0 56:1.0 21:1.0 466:1.0 734:1.0 165:1.0 
-2.2015180213398384 1:5.0 2:9.0 3:0.0 208:1.0 6:1.0 383:1.0 8:1.0 100:1.0 
-0.08708048664358702 1:9.0 2:0.0 3:0.0 324:1.0 6:1.0 325:1.0 8:1.0 2808:1.0 
-500.0 1:7.0 2:0.0 3:5.0 60:1.0 21:1.0 61:1.0 52:1.0 165:1.0 
-0.6500686136785916 1:5.0 2:1.0 3:0.0 56:1.0 6:1.0 2151:1.0 8:1.0 165:1.0 
-500.0 1:8.0 2:0.0 3:0.0 60:1.0 6:1.0 61:1.0 8:1.0 9:1.0 
-0.892277413491777 1:3.0 2:1.0 3:2.0 433:1.0 49:1.0 158:1.0 31579:1.0 30159:1.0 
-0.9810777924755085 1:3.0 2:1.0 3:0.0 433:1.0 162:1.0 158:1.0 934:1.0 30159:1.0 
-0.3667904179937253 1:4.0 2:6.0 3:1.0 5:1.0 162:1.0 7:1.0 4224:1.0 615:1.0 
-234.10744485850168 1:6.0 2:0.0 3:7.0 28:1.0 73:1.0 30:1.0 75:1.0 503:1.0 
-0.2297651302746272 1:6.0 2:0.0 3:7.0 37:1.0 73:1.0 38:1.0 75:1.0 503:1.0 
-0.4076640475232137 1:7.0 2:3.0 3:1.0 144:1.0 49:1.0 145:1.0 36243:1.0 165:1.0 
-0.48249765435932523 1:6.0 2:2.0 3:0.0 180:1.0 6:1.0 2414:1.0 8:1.0 9:1.0 
-0.612567233255121 1:2.0 2:1.0 3:4.0 108:1.0 49:1.0 13996:1.0 3641:1.0 2537:1.0 
-190.58915663222655 1:7.0 2:0.0 3:0.0 60:1.0 6:1.0 61:1.0 8:1.0 1937:1.0 
-0.05137523864007512 1:6.0 2:8.0 3:5.0 180:1.0 49:1.0 2536:1.0 1789:1.0 9:1.0 
-0.30456444750559153 1:7.0 2:0.0 3:0.0 108:1.0 6:1.0 19942:1.0 8:1.0 4408:1.0 
-3.035115295184608 1:5.0 2:0.0 3:0.0 60:1.0 384:1.0 61:1.0 821:1.0 1985:1.0 
-0.7647650440939106 1:6.0 2:0.0 3:0.0 60:1.0 162:1.0 61:1.0 772:1.0 4483:1.0 
-0.4509794331649603 1:2.0 2:2.0 3:3.0 70:1.0 29:1.0 158:1.0 2225:1.0 165:1.0 
-500.0 1:7.0 2:0.0 3:0.0 60:1.0 6:1.0 61:1.0 8:1.0 9:1.0 
-0.19492588020177157 1:5.0 2:3.0 3:0.0 56:1.0 6:1.0 41299:1.0 8:1.0 9:1.0 
-0.017300260309288332 1:9.0 2:0.0 3:0.0 324:1.0 162:1.0 325:1.0 4602:1.0 2142:1.0 
-0.1461677194205897 1:9.0 2:0.0 3:5.0 324:1.0 73:1.0 325:1.0 75:1.0 165:1.0 
-0.12232113143202404 1:5.0 2:6.0 3:5.0 5:1.0 10:1.0 7:1.0 7032:1.0 1795:1.0 
-500.0 1:8.0 2:0.0 3:0.0 72:1.0 6:1.0 166:1.0 8:1.0 316:1.0 
-0.3045583870489505 1:7.0 2:0.0 3:0.0 108:1.0 6:1.0 6738:1.0 8:1.0 9:1.0 
-1.023721818903784 1:8.0 2:0.0 3:3.0 72:1.0 177:1.0 166:1.0 887:1.0 316:1.0 
-0.10844728377787738 1:6.0 2:5.0 3:1.0 70:1.0 49:1.0 12048:1.0 9520:1.0 316:1.0 
-0.1298057139558065 1:9.0 2:5.0 3:1.0 180:1.0 49:1.0 15398:1.0 1986:1.0 165:1.0 
-0.02704835827624788 1:9.0 2:5.0 3:1.0 70:1.0 49:1.0 158:1.0 1986:1.0 165:1.0 
-0.6770969001363218 1:9.0 2:0.0 3:2.0 72:1.0 21:1.0 322:1.0 213:1.0 316:1.0 
-0.43329811099835874 1:6.0 2:4.0 3:6.0 39:1.0 21:1.0 2190:1.0 52:1.0 4500:1.0 
-0.2828871776399885 1:2.0 2:5.0 3:3.0 56:1.0 49:1.0 6024:1.0 556:1.0 539:1.0 
-0.17711058828401388 1:8.0 2:0.0 3:6.0 324:1.0 21:1.0 325:1.0 52:1.0 80:1.0 
-13.602819570296981 1:2.0 2:6.0 3:0.0 208:1.0 384:1.0 383:1.0 1292:1.0 2075:1.0 
-0.306425347237339 1:6.0 2:4.0 3:2.0 5:1.0 10:1.0 3835:1.0 23807:1.0 1018:1.0 
-0.9554538640111283 1:6.0 2:0.0 3:2.0 60:1.0 49:1.0 61:1.0 17343:1.0 4057:1.0 
-2.7375732902176613 1:3.0 2:0.0 3:0.0 70:1.0 384:1.0 717:1.0 2038:1.0 5911:1.0 
-0.8851258519045898 1:4.0 2:0.0 3:5.0 60:1.0 10:1.0 61:1.0 5629:1.0 1524:1.0 
-0.3074614549849044 1:5.0 2:3.0 3:0.0 172:1.0 40:1.0 337:1.0 1479:1.0 1430:1.0 
-0.21091157648874537 1:6.0 2:0.0 3:6.0 324:1.0 153:1.0 325:1.0 290:1.0 316:1.0 
-0.3124356985128012 1:7.0 2:0.0 3:0.0 324:1.0 162:1.0 325:1.0 772:1.0 1937:1.0 
-0.08348283799125172 1:8.0 2:6.0 3:3.0 58:1.0 21:1.0 2000:1.0 195:1.0 167:1.0 
-0.4498820812295469 1:8.0 2:1.0 3:0.0 39:1.0 6:1.0 44932:1.0 8:1.0 1934:1.0 
-0.22341945704136937 1:4.0 2:4.0 3:0.0 180:1.0 6:1.0 13213:1.0 8:1.0 1937:1.0 
-0.00403546066638545 1:4.0 2:4.0 3:0.0 180:1.0 384:1.0 13213:1.0 1292:1.0 1937:1.0 
-0.10078748602321475 1:8.0 2:9.0 3:2.0 70:1.0 21:1.0 1652:1.0 213:1.0 165:1.0 
-0.08599639289795906 1:5.0 2:0.0 3:5.0 324:1.0 150:1.0 325:1.0 2601:1.0 1029:1.0 
-0.3322075289043705 1:6.0 2:1.0 3:0.0 56:1.0 6:1.0 8555:1.0 8:1.0 5207:1.0 
-9.611013357501106 1:7.0 2:0.0 3:0.0 37:1.0 384:1.0 38:1.0 1292:1.0 165:1.0 
-0.7002676166590018 1:6.0 2:0.0 3:0.0 72:1.0 10:1.0 166:1.0 6568:1.0 316:1.0 
-0.21060249885318116 1:5.0 2:5.0 3:1.0 144:1.0 49:1.0 145:1.0 2082:1.0 1348:1.0 
-0.021070571914345356 1:6.0 2:0.0 3:4.0 324:1.0 183:1.0 325:1.0 2719:1.0 524:1.0 
-1.0476305603912541 1:7.0 2:5.0 3:0.0 5:1.0 162:1.0 132:1.0 164:1.0 9:1.0 
-0.49712437092023315 1:5.0 2:1.0 3:3.0 58:1.0 93:1.0 18362:1.0 155:1.0 9419:1.0 
-0.3236042171727816 1:6.0 2:3.0 3:0.0 180:1.0 6:1.0 1930:1.0 8:1.0 9:1.0 
-0.3580076197155168 1:2.0 2:6.0 3:0.0 180:1.0 384:1.0 2293:1.0 1292:1.0 9:1.0 
-500.0 1:7.0 2:0.0 3:0.0 60:1.0 384:1.0 61:1.0 2074:1.0 2075:1.0 
-0.6271294179902522 1:7.0 2:0.0 3:3.0 58:1.0 49:1.0 2829:1.0 46274:1.0 576:1.0 
-500.0 1:7.0 2:2.0 3:0.0 5:1.0 6:1.0 146:1.0 8:1.0 576:1.0 
