svm_type c_svc
kernel_type polynomial
degree 2
gamma 0.2
coef0 0.0
nr_class 2
total_sv 19
rho -0.16547124624284457
label 1 -1
nr_sv 11 8
SV
0.10444035123369075 100:1.0 21:1.0 107:1.0 829:1.0 3310:1.0 228:1.0 195:1.0 249:1.0 119:1.0 35:1.0 40:1.0 
0.082929018464228 100:1.0 21:1.0 674:1.0 829:1.0 11577:1.0 677:1.0 195:1.0 249:1.0 119:1.0 35:1.0 40:1.0 
0.0808284727336724 100:1.0 85:1.0 107:1.0 829:1.0 7937:1.0 228:1.0 32:1.0 249:1.0 119:1.0 35:1.0 13:1.0 117:1.0 40:1.0 20:1.0 179:1.0 
0.1029723962036692 100:1.0 261:1.0 674:1.0 829:1.0 3110:1.0 677:1.0 32:1.0 249:1.0 119:1.0 35:1.0 13:1.0 40:1.0 20:1.0 
0.12672935170298888 481:1.0 21:1.0 28:1.0 3493:1.0 10194:1.0 3809:1.0 363:1.0 249:1.0 119:1.0 13:1.0 455:1.0 35:1.0 20:1.0 899:1.0 48:1.0 
0.15974440894568687 672:1.0 17:1.0 9743:1.0 673:1.0 2295:1.0 9744:1.0 32:1.0 249:1.0 119:1.0 35:1.0 13:1.0 37:1.0 20:1.0 
0.07929515492442123 100:1.0 308:1.0 674:1.0 829:1.0 10918:1.0 677:1.0 162:1.0 249:1.0 119:1.0 35:1.0 13:1.0 40:1.0 20:1.0 
0.12514605164802708 100:1.0 308:1.0 107:1.0 829:1.0 7010:1.0 228:1.0 32:1.0 249:1.0 119:1.0 35:1.0 13:1.0 40:1.0 20:1.0 
0.08567371717505917 100:1.0 21:1.0 107:1.0 829:1.0 451:1.0 228:1.0 32:1.0 249:1.0 119:1.0 35:1.0 48:1.0 40:1.0 
0.13619574052577987 100:1.0 17:1.0 674:1.0 829:1.0 285:1.0 677:1.0 162:1.0 249:1.0 119:1.0 35:1.0 40:1.0 37:1.0 
0.06499997554035257 100:1.0 17:1.0 674:1.0 501:1.0 414:1.0 677:1.0 32:1.0 249:1.0 119:1.0 455:1.0 81:1.0 13:1.0 246:1.0 40:1.0 20:1.0 
-0.12672935170298888 100:1.0 17:1.0 107:1.0 804:1.0 16428:1.0 1972:1.0 363:1.0 249:1.0 119:1.0 11:1.0 13:1.0 171:1.0 20:1.0 
-0.0808284727336724 302:1.0 666:1.0 70:1.0 4100:1.0 667:1.0 2124:1.0 8:1.0 249:1.0 119:1.0 141:1.0 13:1.0 538:1.0 136:1.0 16:1.0 96:1.0 83:1.0 364:1.0 20:1.0 37:1.0 
-0.07929515492442123 100:1.0 666:1.0 3510:1.0 829:1.0 667:1.0 3511:1.0 162:1.0 249:1.0 119:1.0 35:1.0 13:1.0 206:1.0 40:1.0 20:1.0 207:1.0 
-0.25090139020824975 100:1.0 17:1.0 257:1.0 2540:1.0 447:1.0 2381:1.0 162:1.0 249:1.0 119:1.0 35:1.0 48:1.0 
-0.12514605164802708 2:1.0 901:1.0 28:1.0 301:1.0 7415:1.0 13389:1.0 477:1.0 249:1.0 119:1.0 13:1.0 35:1.0 61:1.0 246:1.0 20:1.0 55:1.0 
-0.13619574052577987 302:1.0 308:1.0 674:1.0 4100:1.0 3780:1.0 677:1.0 477:1.0 249:1.0 119:1.0 455:1.0 35:1.0 13:1.0 40:1.0 37:1.0 20:1.0 
-0.15974440894568687 100:1.0 17:1.0 28:1.0 501:1.0 447:1.0 454:1.0 3308:1.0 249:1.0 119:1.0 35:1.0 40:1.0 164:1.0 
-0.19011406840874992 100:1.0 666:1.0 3510:1.0 829:1.0 667:1.0 3511:1.0 32:1.0 249:1.0 119:1.0 35:1.0 40:1.0 
