svm_type c_svc
kernel_type polynomial
degree 2
gamma 0.2
coef0 0.0
nr_class 2
total_sv 68
rho -0.34958421826120717
label 1 -1
nr_sv 44 24
SV
0.0772735299130906 100:1.0 85:1.0 4:1.0 4322:1.0 4325:1.0 7:1.0 79:1.0 449:1.0 558:1.0 13:1.0 11:1.0 96:1.0 364:1.0 82:1.0 83:1.0 
0.047092663587627676 172:1.0 17:1.0 131:1.0 10230:1.0 10243:1.0 7:1.0 8:1.0 449:1.0 558:1.0 13:1.0 455:1.0 81:1.0 11:1.0 61:1.0 207:1.0 20:1.0 38:1.0 2032:1.0 16:1.0 
0.0907922986523831 405:1.0 17:1.0 266:1.0 2991:1.0 595:1.0 7:1.0 32:1.0 449:1.0 558:1.0 13:1.0 364:1.0 
0.1450783365818168 100:1.0 1000:1.0 76:1.0 11876:1.0 1214:1.0 7:1.0 2910:1.0 449:1.0 558:1.0 11:1.0 171:1.0 
0.07897330688237836 122:1.0 62:1.0 131:1.0 370:1.0 11223:1.0 7:1.0 8:1.0 449:1.0 558:1.0 11:1.0 13:1.0 136:1.0 16:1.0 
0.11959743743952328 466:1.0 27:1.0 131:1.0 1408:1.0 492:1.0 7:1.0 623:1.0 449:1.0 558:1.0 
0.08014355015760517 106:1.0 241:1.0 131:1.0 446:1.0 6901:1.0 7:1.0 8:1.0 449:1.0 558:1.0 11:1.0 13:1.0 245:1.0 14:1.0 20:1.0 37:1.0 16:1.0 
0.11101481032081015 465:1.0 241:1.0 124:1.0 368:1.0 21714:1.0 2903:1.0 195:1.0 449:1.0 558:1.0 245:1.0 246:1.0 
0.07420516570931865 2:1.0 17:1.0 76:1.0 370:1.0 23030:1.0 7:1.0 8:1.0 449:1.0 558:1.0 11:1.0 13:1.0 245:1.0 10582:1.0 20:1.0 37:1.0 246:1.0 14:1.0 16:1.0 
0.11285790003564106 172:1.0 308:1.0 4:1.0 16021:1.0 6423:1.0 7:1.0 8:1.0 449:1.0 558:1.0 13:1.0 11:1.0 20:1.0 171:1.0 16:1.0 
0.0631099637515289 302:1.0 17:1.0 131:1.0 5851:1.0 2049:1.0 7:1.0 8:1.0 449:1.0 558:1.0 81:1.0 13:1.0 245:1.0 246:1.0 20:1.0 16:1.0 
0.11118456356074427 100:1.0 17:1.0 131:1.0 6662:1.0 26200:1.0 7:1.0 8:1.0 449:1.0 558:1.0 13:1.0 11:1.0 20:1.0 136:1.0 16:1.0 
0.06068649933951377 26665:1.0 901:1.0 131:1.0 18644:1.0 7415:1.0 7:1.0 8:1.0 449:1.0 558:1.0 13:1.0 11:1.0 364:1.0 14:1.0 16:1.0 
0.053601275122323946 481:1.0 308:1.0 4:1.0 406:1.0 9672:1.0 7:1.0 8:1.0 449:1.0 558:1.0 11:1.0 13:1.0 206:1.0 82:1.0 20:1.0 207:1.0 16:1.0 55:1.0 
0.10989659870818573 2:1.0 17:1.0 131:1.0 199:1.0 28209:1.0 7:1.0 8:1.0 449:1.0 558:1.0 11:1.0 13:1.0 2032:1.0 16:1.0 
0.050857029760265085 100:1.0 17:1.0 131:1.0 28802:1.0 17143:1.0 7:1.0 162:1.0 449:1.0 558:1.0 13:1.0 11:1.0 245:1.0 364:1.0 48:1.0 20:1.0 37:1.0 
0.07048211535507025 41:1.0 17:1.0 131:1.0 1999:1.0 718:1.0 7:1.0 8:1.0 449:1.0 558:1.0 11:1.0 13:1.0 171:1.0 16:1.0 55:1.0 
0.08188920375698053 41:1.0 62:1.0 4:1.0 1999:1.0 64:1.0 7:1.0 8:1.0 449:1.0 558:1.0 11:1.0 13:1.0 82:1.0 16:1.0 
0.09153846414131561 4572:1.0 27:1.0 76:1.0 32991:1.0 336:1.0 7:1.0 79:1.0 449:1.0 558:1.0 13:1.0 11:1.0 96:1.0 2032:1.0 20:1.0 83:1.0 
0.29355922690882846 106:1.0 638:1.0 131:1.0 446:1.0 2913:1.0 7:1.0 8:1.0 449:1.0 558:1.0 11:1.0 171:1.0 16:1.0 
0.16736201033172327 2:1.0 241:1.0 131:1.0 370:1.0 3365:1.0 7:1.0 8:1.0 449:1.0 558:1.0 11:1.0 13:1.0 82:1.0 16:1.0 
0.07109685383265361 4572:1.0 308:1.0 76:1.0 7580:1.0 1421:1.0 7:1.0 8:1.0 449:1.0 558:1.0 13:1.0 11:1.0 20:1.0 82:1.0 16:1.0 
0.1071255616753232 68:1.0 901:1.0 131:1.0 944:1.0 2320:1.0 7:1.0 623:1.0 449:1.0 558:1.0 11:1.0 136:1.0 
0.0917806119748155 2:1.0 85:1.0 76:1.0 301:1.0 26744:1.0 7:1.0 260:1.0 449:1.0 558:1.0 11:1.0 13:1.0 334:1.0 20:1.0 
0.1179543458770196 106:1.0 62:1.0 4:1.0 446:1.0 3365:1.0 7:1.0 8:1.0 449:1.0 558:1.0 11:1.0 13:1.0 136:1.0 16:1.0 
0.1048029247197576 2:1.0 308:1.0 76:1.0 927:1.0 38924:1.0 7:1.0 8:1.0 449:1.0 558:1.0 11:1.0 206:1.0 13:1.0 334:1.0 207:1.0 16:1.0 
0.11207407233124886 97:1.0 308:1.0 131:1.0 2808:1.0 12245:1.0 7:1.0 260:1.0 449:1.0 558:1.0 13:1.0 11:1.0 20:1.0 171:1.0 246:1.0 
0.10221203111359349 4572:1.0 17:1.0 4:1.0 3708:1.0 9413:1.0 7:1.0 8:1.0 449:1.0 558:1.0 11:1.0 20:1.0 82:1.0 16:1.0 
0.051679079197055146 172:1.0 62:1.0 76:1.0 8894:1.0 502:1.0 7:1.0 8:1.0 449:1.0 558:1.0 455:1.0 13:1.0 11:1.0 81:1.0 245:1.0 207:1.0 20:1.0 82:1.0 246:1.0 265:1.0 16:1.0 
0.07025600119353033 68:1.0 17:1.0 131:1.0 9649:1.0 712:1.0 7:1.0 116:1.0 449:1.0 558:1.0 11:1.0 245:1.0 14:1.0 246:1.0 
0.08587201555790774 1283:1.0 308:1.0 131:1.0 1512:1.0 1421:1.0 7:1.0 111:1.0 449:1.0 558:1.0 14:1.0 
0.12445348567074109 106:1.0 17:1.0 4:1.0 446:1.0 44362:1.0 7:1.0 162:1.0 449:1.0 558:1.0 11:1.0 455:1.0 12:1.0 13:1.0 2032:1.0 37:1.0 470:1.0 16:1.0 
0.043438828359250226 41:1.0 62:1.0 76:1.0 2343:1.0 502:1.0 7:1.0 8:1.0 449:1.0 558:1.0 13:1.0 54:1.0 11:1.0 245:1.0 96:1.0 37:1.0 20:1.0 136:1.0 16:1.0 83:1.0 
0.06739272207775938 26665:1.0 308:1.0 76:1.0 6360:1.0 5784:1.0 7:1.0 8:1.0 449:1.0 558:1.0 11:1.0 13:1.0 669:1.0 82:1.0 20:1.0 37:1.0 16:1.0 
0.06588724479364123 41:1.0 85:1.0 4:1.0 2343:1.0 16331:1.0 7:1.0 8:1.0 449:1.0 558:1.0 11:1.0 13:1.0 206:1.0 136:1.0 20:1.0 207:1.0 16:1.0 
0.09763283693266545 2:1.0 308:1.0 131:1.0 370:1.0 1901:1.0 7:1.0 8:1.0 449:1.0 558:1.0 11:1.0 1382:1.0 13:1.0 171:1.0 164:1.0 16:1.0 
0.06856560589787483 2:1.0 17:1.0 131:1.0 370:1.0 3861:1.0 7:1.0 8:1.0 449:1.0 558:1.0 11:1.0 13:1.0 136:1.0 16:1.0 
0.07888021275065124 26:1.0 17:1.0 4:1.0 5435:1.0 2985:1.0 1020:1.0 8:1.0 449:1.0 558:1.0 54:1.0 11:1.0 13:1.0 470:1.0 171:1.0 16:1.0 
0.09348819750096704 41:1.0 308:1.0 4:1.0 2343:1.0 22830:1.0 7:1.0 162:1.0 449:1.0 558:1.0 11:1.0 81:1.0 82:1.0 37:1.0 14:1.0 
0.0343316644168804 41:1.0 241:1.0 4:1.0 1999:1.0 2235:1.0 7:1.0 8:1.0 449:1.0 558:1.0 11:1.0 81:1.0 13:1.0 245:1.0 206:1.0 136:1.0 14:1.0 20:1.0 37:1.0 364:1.0 470:1.0 16:1.0 
0.13647224589619025 1283:1.0 123:1.0 131:1.0 4601:1.0 126:1.0 7:1.0 260:1.0 449:1.0 558:1.0 11:1.0 14:1.0 
0.12520432803803258 41:1.0 21:1.0 76:1.0 1999:1.0 9706:1.0 7:1.0 195:1.0 449:1.0 558:1.0 11:1.0 245:1.0 171:1.0 246:1.0 
0.06364263892658897 5102:1.0 308:1.0 76:1.0 1999:1.0 889:1.0 7:1.0 8:1.0 449:1.0 558:1.0 11:1.0 245:1.0 13:1.0 206:1.0 136:1.0 164:1.0 20:1.0 207:1.0 16:1.0 55:1.0 
0.05606397471855387 106:1.0 62:1.0 131:1.0 255:1.0 1019:1.0 2741:1.0 162:1.0 449:1.0 558:1.0 245:1.0 13:1.0 11:1.0 81:1.0 37:1.0 20:1.0 171:1.0 246:1.0 
-0.29355922690882846 41:1.0 638:1.0 4:1.0 1999:1.0 2913:1.0 7:1.0 162:1.0 449:1.0 558:1.0 11:1.0 171:1.0 
-0.1450783365818168 735:1.0 46:1.0 4:1.0 20415:1.0 20416:1.0 7:1.0 79:1.0 449:1.0 558:1.0 13:1.0 11:1.0 96:1.0 82:1.0 20:1.0 83:1.0 
-0.1048029247197576 100:1.0 27:1.0 131:1.0 5581:1.0 326:1.0 7:1.0 162:1.0 449:1.0 558:1.0 455:1.0 13:1.0 11:1.0 246:1.0 20:1.0 469:1.0 364:1.0 
-0.1071255616753232 2:1.0 17:1.0 131:1.0 199:1.0 7332:1.0 7:1.0 162:1.0 449:1.0 558:1.0 11:1.0 54:1.0 13:1.0 8478:1.0 4992:1.0 206:1.0 2032:1.0 37:1.0 20:1.0 207:1.0 
-0.2844427598798094 224:1.0 638:1.0 4:1.0 225:1.0 2913:1.0 7:1.0 32:1.0 449:1.0 558:1.0 11:1.0 14:1.0 
-0.09153846414131561 100:1.0 308:1.0 131:1.0 1472:1.0 706:1.0 7:1.0 8:1.0 449:1.0 558:1.0 11:1.0 81:1.0 206:1.0 13:1.0 14:1.0 246:1.0 207:1.0 20:1.0 16:1.0 
-0.11118456356074427 2:1.0 308:1.0 131:1.0 944:1.0 13496:1.0 7:1.0 8:1.0 449:1.0 558:1.0 11:1.0 13:1.0 1382:1.0 171:1.0 20:1.0 37:1.0 16:1.0 
-0.11101481032081015 100:1.0 62:1.0 4:1.0 21743:1.0 5289:1.0 7:1.0 162:1.0 449:1.0 558:1.0 13:1.0 81:1.0 11:1.0 61:1.0 470:1.0 20:1.0 171:1.0 364:1.0 55:1.0 
-0.38566134545689473 2:1.0 62:1.0 4:1.0 60:1.0 3365:1.0 7:1.0 8:1.0 449:1.0 558:1.0 11:1.0 14:1.0 
-0.09763283693266545 4572:1.0 17:1.0 76:1.0 4295:1.0 22893:1.0 20448:1.0 162:1.0 449:1.0 558:1.0 11:1.0 245:1.0 13:1.0 81:1.0 40:1.0 246:1.0 20:1.0 470:1.0 
-0.10989659870818573 322:1.0 308:1.0 131:1.0 5675:1.0 4342:1.0 7:1.0 486:1.0 449:1.0 558:1.0 11:1.0 245:1.0 13:1.0 206:1.0 171:1.0 246:1.0 20:1.0 207:1.0 
-0.0917806119748155 2:1.0 62:1.0 4:1.0 714:1.0 64:1.0 7:1.0 2910:1.0 449:1.0 558:1.0 11:1.0 13:1.0 5425:1.0 10582:1.0 4992:1.0 206:1.0 20:1.0 364:1.0 37:1.0 207:1.0 
-0.23137315974097783 481:1.0 17:1.0 13608:1.0 10266:1.0 2986:1.0 5142:1.0 8:1.0 449:1.0 558:1.0 455:1.0 11:1.0 207:1.0 171:1.0 
-0.16736201033172327 100:1.0 85:1.0 131:1.0 40220:1.0 24311:1.0 7:1.0 8:1.0 449:1.0 558:1.0 13:1.0 14:1.0 364:1.0 16:1.0 
-0.1881050803501002 348:1.0 308:1.0 4:1.0 2911:1.0 11223:1.0 7:1.0 363:1.0 449:1.0 558:1.0 13:1.0 206:1.0 136:1.0 20:1.0 207:1.0 
-0.11285790003564106 172:1.0 308:1.0 131:1.0 825:1.0 1391:1.0 7:1.0 8:1.0 449:1.0 558:1.0 81:1.0 13:1.0 11:1.0 246:1.0 20:1.0 14:1.0 16:1.0 
-0.22071081084838567 100:1.0 62:1.0 124:1.0 9266:1.0 502:1.0 7:1.0 128:1.0 449:1.0 558:1.0 81:1.0 13:1.0 37:1.0 20:1.0 
-0.313355653131278 224:1.0 308:1.0 4:1.0 225:1.0 6901:1.0 7:1.0 260:1.0 449:1.0 558:1.0 11:1.0 334:1.0 
-0.1820256444548491 100:1.0 85:1.0 131:1.0 5940:1.0 21581:1.0 7:1.0 8:1.0 449:1.0 558:1.0 11:1.0 13:1.0 171:1.0 20:1.0 16:1.0 
-0.1668131522898556 2:1.0 17:1.0 4:1.0 370:1.0 44362:1.0 7:1.0 162:1.0 449:1.0 558:1.0 455:1.0 11:1.0 12:1.0 13:1.0 207:1.0 2032:1.0 470:1.0 16:1.0 
-0.11207407233124886 100:1.0 17:1.0 4:1.0 7499:1.0 8249:1.0 7:1.0 8:1.0 449:1.0 558:1.0 11:1.0 245:1.0 13:1.0 14:1.0 246:1.0 364:1.0 16:1.0 
-0.10221203111359349 465:1.0 308:1.0 4:1.0 20179:1.0 8906:1.0 771:1.0 162:1.0 449:1.0 558:1.0 54:1.0 11:1.0 245:1.0 13:1.0 246:1.0 82:1.0 37:1.0 364:1.0 16:1.0 
-0.26725323905416737 41:1.0 638:1.0 76:1.0 2343:1.0 2913:1.0 7:1.0 2897:1.0 449:1.0 558:1.0 11:1.0 171:1.0 
-0.06364263892658897 2:1.0 901:1.0 76:1.0 370:1.0 1391:1.0 7:1.0 8:1.0 449:1.0 558:1.0 245:1.0 13:1.0 11:1.0 12:1.0 37:1.0 20:1.0 82:1.0 246:1.0 38:1.0 16:1.0 
