svm_type c_svc
kernel_type polynomial
degree 2
gamma 0.2
coef0 0.0
nr_class 2
total_sv 242
rho -0.3757039754923927
label 1 -1
nr_sv 142 100
SV
0.35928766786590105 100:1.0 62:1.0 4:1.0 456:1.0 102:1.0 946:1.0 363:1.0 3311:1.0 93:1.0 13:1.0 245:1.0 14:1.0 20:1.0 
0.06393309696312456 100:1.0 62:1.0 4:1.0 456:1.0 102:1.0 3818:1.0 8:1.0 3311:1.0 93:1.0 217:1.0 206:1.0 13:1.0 82:1.0 37:1.0 207:1.0 16:1.0 
0.2207697636483843 97:1.0 69:1.0 4:1.0 3898:1.0 2419:1.0 3818:1.0 260:1.0 3311:1.0 93:1.0 334:1.0 
0.14634415801436743 100:1.0 62:1.0 4:1.0 456:1.0 102:1.0 3305:1.0 8:1.0 3311:1.0 93:1.0 13:1.0 206:1.0 14:1.0 20:1.0 207:1.0 16:1.0 
0.14252448499801962 100:1.0 62:1.0 4:1.0 456:1.0 102:1.0 4584:1.0 162:1.0 3311:1.0 93:1.0 217:1.0 82:1.0 164:1.0 37:1.0 
0.10377667660927864 100:1.0 62:1.0 266:1.0 456:1.0 102:1.0 583:1.0 623:1.0 3311:1.0 93:1.0 80:1.0 217:1.0 82:1.0 164:1.0 
0.14232240318312575 2:1.0 17:1.0 173:1.0 9119:1.0 2542:1.0 10835:1.0 128:1.0 3311:1.0 93:1.0 245:1.0 206:1.0 164:1.0 207:1.0 
0.08774332749374719 97:1.0 62:1.0 4:1.0 5834:1.0 102:1.0 3818:1.0 8:1.0 3311:1.0 93:1.0 217:1.0 13:1.0 245:1.0 82:1.0 164:1.0 20:1.0 37:1.0 16:1.0 
0.10711992587744769 100:1.0 62:1.0 4:1.0 456:1.0 102:1.0 3305:1.0 8:1.0 3311:1.0 93:1.0 13:1.0 245:1.0 14:1.0 20:1.0 15:1.0 16:1.0 
0.09004286333437823 100:1.0 62:1.0 4:1.0 456:1.0 102:1.0 11710:1.0 8:1.0 3311:1.0 93:1.0 245:1.0 13:1.0 37:1.0 20:1.0 82:1.0 15:1.0 16:1.0 
0.17942374669014668 100:1.0 17:1.0 124:1.0 456:1.0 183:1.0 3305:1.0 128:1.0 3311:1.0 93:1.0 13:1.0 245:1.0 20:1.0 37:1.0 
0.09100119791718464 2:1.0 261:1.0 266:1.0 284:1.0 3483:1.0 5277:1.0 128:1.0 3311:1.0 93:1.0 80:1.0 82:1.0 
0.05984742364365878 26:1.0 62:1.0 4:1.0 3149:1.0 444:1.0 5577:1.0 8:1.0 3311:1.0 93:1.0 217:1.0 13:1.0 136:1.0 164:1.0 16:1.0 
0.1486005310168415 97:1.0 62:1.0 4:1.0 3898:1.0 102:1.0 2362:1.0 111:1.0 3311:1.0 93:1.0 81:1.0 217:1.0 1287:1.0 136:1.0 246:1.0 
0.10195987383933297 100:1.0 62:1.0 4:1.0 456:1.0 619:1.0 946:1.0 8:1.0 3311:1.0 93:1.0 81:1.0 13:1.0 14:1.0 37:1.0 16:1.0 
0.11923039344064214 97:1.0 69:1.0 4:1.0 3898:1.0 8598:1.0 3818:1.0 260:1.0 3311:1.0 93:1.0 334:1.0 
0.09103955483003895 2:1.0 62:1.0 173:1.0 284:1.0 102:1.0 216:1.0 176:1.0 3311:1.0 93:1.0 80:1.0 13:1.0 217:1.0 245:1.0 14:1.0 20:1.0 164:1.0 37:1.0 
0.07614441822079344 100:1.0 62:1.0 4:1.0 456:1.0 102:1.0 3818:1.0 162:1.0 3311:1.0 93:1.0 245:1.0 206:1.0 82:1.0 37:1.0 207:1.0 
0.12876530183676393 100:1.0 17:1.0 4:1.0 3898:1.0 3389:1.0 3305:1.0 8:1.0 3311:1.0 93:1.0 13:1.0 82:1.0 16:1.0 
0.059480062563571946 2:1.0 46:1.0 4:1.0 284:1.0 5122:1.0 1717:1.0 8:1.0 3311:1.0 93:1.0 245:1.0 80:1.0 217:1.0 13:1.0 14:1.0 246:1.0 164:1.0 37:1.0 16:1.0 
0.11367072997678067 100:1.0 17:1.0 76:1.0 456:1.0 183:1.0 2644:1.0 8:1.0 3311:1.0 93:1.0 81:1.0 13:1.0 82:1.0 265:1.0 16:1.0 
0.09739368511022033 97:1.0 17:1.0 4:1.0 6983:1.0 1714:1.0 3818:1.0 8:1.0 3311:1.0 93:1.0 217:1.0 13:1.0 245:1.0 82:1.0 164:1.0 20:1.0 16:1.0 
0.06634069862385232 2:1.0 62:1.0 4:1.0 714:1.0 102:1.0 4227:1.0 8:1.0 3311:1.0 93:1.0 217:1.0 13:1.0 669:1.0 164:1.0 20:1.0 37:1.0 16:1.0 
0.1352380837895221 100:1.0 62:1.0 4:1.0 456:1.0 102:1.0 5071:1.0 8:1.0 3311:1.0 93:1.0 217:1.0 13:1.0 206:1.0 82:1.0 164:1.0 20:1.0 207:1.0 16:1.0 
0.12157425075915834 100:1.0 62:1.0 173:1.0 456:1.0 891:1.0 7710:1.0 128:1.0 3311:1.0 93:1.0 13:1.0 245:1.0 20:1.0 265:1.0 15:1.0 
0.12868302406489185 26:1.0 69:1.0 4:1.0 3216:1.0 8598:1.0 7710:1.0 8:1.0 3311:1.0 93:1.0 13:1.0 14:1.0 
0.10155314049281765 26:1.0 62:1.0 4:1.0 7141:1.0 444:1.0 11987:1.0 8:1.0 3311:1.0 93:1.0 217:1.0 13:1.0 14:1.0 164:1.0 16:1.0 
0.1363807171612249 2:1.0 62:1.0 124:1.0 284:1.0 371:1.0 583:1.0 128:1.0 3311:1.0 93:1.0 13:1.0 217:1.0 20:1.0 164:1.0 
0.15197139323568032 2:1.0 241:1.0 173:1.0 284:1.0 2008:1.0 216:1.0 176:1.0 3311:1.0 93:1.0 
0.05664744918452523 97:1.0 62:1.0 4:1.0 5834:1.0 502:1.0 3818:1.0 8:1.0 3311:1.0 93:1.0 163:1.0 13:1.0 82:1.0 164:1.0 16:1.0 
0.10245901649355788 97:1.0 69:1.0 4:1.0 5834:1.0 8598:1.0 3818:1.0 8:1.0 3311:1.0 93:1.0 245:1.0 13:1.0 217:1.0 54:1.0 265:1.0 20:1.0 14:1.0 164:1.0 37:1.0 16:1.0 
0.1809090283121639 100:1.0 62:1.0 4:1.0 456:1.0 102:1.0 5071:1.0 162:1.0 3311:1.0 93:1.0 217:1.0 14:1.0 164:1.0 
0.07637648756749661 100:1.0 62:1.0 4:1.0 456:1.0 102:1.0 3305:1.0 162:1.0 3311:1.0 93:1.0 217:1.0 206:1.0 14:1.0 164:1.0 207:1.0 
0.26394572003060757 97:1.0 62:1.0 124:1.0 4592:1.0 102:1.0 11987:1.0 128:1.0 3311:1.0 93:1.0 
0.038597918899357944 2:1.0 62:1.0 4:1.0 284:1.0 102:1.0 7281:1.0 8:1.0 3311:1.0 93:1.0 725:1.0 80:1.0 13:1.0 206:1.0 136:1.0 726:1.0 14:1.0 20:1.0 207:1.0 16:1.0 
0.3456472302190911 100:1.0 62:1.0 4:1.0 456:1.0 502:1.0 3818:1.0 260:1.0 3311:1.0 93:1.0 13:1.0 217:1.0 334:1.0 20:1.0 164:1.0 
0.1286173101965659 100:1.0 69:1.0 4:1.0 7146:1.0 16631:1.0 3818:1.0 8:1.0 3311:1.0 93:1.0 54:1.0 13:1.0 14:1.0 37:1.0 16:1.0 
0.12593437728448076 97:1.0 69:1.0 4:1.0 3898:1.0 8598:1.0 946:1.0 8:1.0 3311:1.0 93:1.0 217:1.0 13:1.0 136:1.0 164:1.0 16:1.0 
0.07496945779739198 100:1.0 62:1.0 4:1.0 456:1.0 102:1.0 3333:1.0 8:1.0 3311:1.0 93:1.0 54:1.0 13:1.0 245:1.0 37:1.0 20:1.0 246:1.0 82:1.0 16:1.0 
0.09400956780651203 100:1.0 62:1.0 4:1.0 456:1.0 1107:1.0 3305:1.0 162:1.0 3311:1.0 93:1.0 54:1.0 82:1.0 246:1.0 
0.4209489111038561 100:1.0 62:1.0 4:1.0 456:1.0 102:1.0 3305:1.0 8:1.0 3311:1.0 93:1.0 13:1.0 14:1.0 20:1.0 16:1.0 
0.08962854650596619 2:1.0 62:1.0 131:1.0 284:1.0 525:1.0 5502:1.0 8:1.0 3311:1.0 93:1.0 81:1.0 13:1.0 80:1.0 246:1.0 20:1.0 40:1.0 14:1.0 364:1.0 16:1.0 
0.11864475892392683 97:1.0 69:1.0 4:1.0 5834:1.0 16631:1.0 4584:1.0 8:1.0 3311:1.0 93:1.0 206:1.0 13:1.0 14:1.0 207:1.0 16:1.0 
0.04963138771326347 100:1.0 17:1.0 4:1.0 12391:1.0 3389:1.0 3863:1.0 8:1.0 3311:1.0 93:1.0 13:1.0 245:1.0 217:1.0 80:1.0 54:1.0 82:1.0 20:1.0 265:1.0 726:1.0 14:1.0 164:1.0 37:1.0 16:1.0 
0.29919902140513643 100:1.0 62:1.0 4:1.0 456:1.0 102:1.0 216:1.0 8:1.0 3311:1.0 93:1.0 217:1.0 13:1.0 82:1.0 164:1.0 37:1.0 
0.10028874363507327 224:1.0 17:1.0 28:1.0 225:1.0 3389:1.0 3333:1.0 32:1.0 3311:1.0 93:1.0 35:1.0 54:1.0 13:1.0 48:1.0 37:1.0 20:1.0 
0.08566887157639945 122:1.0 62:1.0 173:1.0 23990:1.0 102:1.0 5893:1.0 176:1.0 3311:1.0 93:1.0 245:1.0 37:1.0 
0.025632510832695368 672:1.0 62:1.0 4:1.0 673:1.0 444:1.0 25600:1.0 8:1.0 3311:1.0 93:1.0 455:1.0 13:1.0 217:1.0 206:1.0 136:1.0 144:1.0 470:1.0 20:1.0 164:1.0 207:1.0 16:1.0 
0.1472287976695715 100:1.0 62:1.0 4:1.0 456:1.0 102:1.0 5071:1.0 162:1.0 3311:1.0 93:1.0 14:1.0 
1.4601380758807678 100:1.0 62:1.0 4:1.0 456:1.0 102:1.0 3818:1.0 8:1.0 3311:1.0 93:1.0 13:1.0 82:1.0 16:1.0 
0.36319720746327294 100:1.0 62:1.0 4:1.0 456:1.0 102:1.0 3818:1.0 162:1.0 3311:1.0 93:1.0 13:1.0 245:1.0 14:1.0 20:1.0 265:1.0 
0.09841342528613328 2:1.0 241:1.0 4:1.0 284:1.0 505:1.0 3818:1.0 8:1.0 3311:1.0 93:1.0 54:1.0 13:1.0 206:1.0 37:1.0 20:1.0 136:1.0 207:1.0 16:1.0 
0.09274886743934173 100:1.0 241:1.0 124:1.0 456:1.0 374:1.0 4584:1.0 128:1.0 3311:1.0 93:1.0 81:1.0 14:1.0 
0.2751005646810986 100:1.0 62:1.0 4:1.0 456:1.0 102:1.0 3818:1.0 162:1.0 3311:1.0 93:1.0 217:1.0 14:1.0 164:1.0 37:1.0 
0.1507564655924526 97:1.0 69:1.0 4:1.0 3898:1.0 2261:1.0 4584:1.0 260:1.0 3311:1.0 93:1.0 54:1.0 206:1.0 245:1.0 334:1.0 37:1.0 207:1.0 246:1.0 
0.18227991587457976 100:1.0 62:1.0 4:1.0 3149:1.0 619:1.0 3818:1.0 8:1.0 3311:1.0 93:1.0 217:1.0 13:1.0 14:1.0 164:1.0 16:1.0 
0.12273491330595884 26:1.0 261:1.0 4:1.0 12864:1.0 3483:1.0 946:1.0 8:1.0 3311:1.0 93:1.0 217:1.0 13:1.0 271:1.0 164:1.0 16:1.0 
0.14007875934871444 26:1.0 62:1.0 4:1.0 3216:1.0 444:1.0 3305:1.0 195:1.0 3311:1.0 93:1.0 217:1.0 271:1.0 164:1.0 
0.12424709740933856 2:1.0 62:1.0 4:1.0 284:1.0 219:1.0 216:1.0 363:1.0 3311:1.0 93:1.0 80:1.0 245:1.0 82:1.0 14:1.0 15:1.0 
0.04995226901161463 672:1.0 17:1.0 4:1.0 673:1.0 3389:1.0 3818:1.0 8:1.0 3311:1.0 93:1.0 163:1.0 54:1.0 13:1.0 14:1.0 164:1.0 37:1.0 16:1.0 
0.5519802134377287 100:1.0 62:1.0 4:1.0 456:1.0 102:1.0 3305:1.0 8:1.0 3311:1.0 93:1.0 13:1.0 217:1.0 81:1.0 82:1.0 20:1.0 164:1.0 37:1.0 16:1.0 
0.20485281092650948 100:1.0 62:1.0 4:1.0 456:1.0 444:1.0 3305:1.0 8:1.0 3311:1.0 93:1.0 81:1.0 13:1.0 217:1.0 82:1.0 37:1.0 20:1.0 164:1.0 16:1.0 
0.12306757738476712 904:1.0 17:1.0 4:1.0 905:1.0 3389:1.0 1340:1.0 8:1.0 3311:1.0 93:1.0 80:1.0 13:1.0 14:1.0 16:1.0 
0.13350709937108246 2:1.0 17:1.0 173:1.0 284:1.0 183:1.0 3333:1.0 176:1.0 3311:1.0 93:1.0 
0.05110367327759449 97:1.0 62:1.0 4:1.0 34903:1.0 102:1.0 2362:1.0 8:1.0 3311:1.0 93:1.0 217:1.0 13:1.0 14:1.0 246:1.0 164:1.0 16:1.0 
0.09915408102407215 672:1.0 62:1.0 4:1.0 673:1.0 102:1.0 7710:1.0 363:1.0 3311:1.0 93:1.0 217:1.0 136:1.0 164:1.0 
0.1752635613755513 97:1.0 62:1.0 4:1.0 3898:1.0 502:1.0 19395:1.0 363:1.0 3311:1.0 93:1.0 14:1.0 
2.7989809225877873 100:1.0 62:1.0 4:1.0 456:1.0 102:1.0 3305:1.0 8:1.0 3311:1.0 93:1.0 13:1.0 217:1.0 14:1.0 20:1.0 164:1.0 37:1.0 16:1.0 
0.7819188254535339 100:1.0 62:1.0 4:1.0 456:1.0 102:1.0 3305:1.0 162:1.0 3311:1.0 93:1.0 217:1.0 13:1.0 14:1.0 164:1.0 20:1.0 37:1.0 
0.07285514825711614 2:1.0 17:1.0 124:1.0 284:1.0 183:1.0 5502:1.0 128:1.0 3311:1.0 93:1.0 
0.5918923329809257 100:1.0 62:1.0 4:1.0 456:1.0 102:1.0 3305:1.0 162:1.0 3311:1.0 93:1.0 82:1.0 
0.14880952718847199 97:1.0 17:1.0 4:1.0 5834:1.0 3389:1.0 3818:1.0 8:1.0 3311:1.0 93:1.0 13:1.0 217:1.0 54:1.0 14:1.0 20:1.0 164:1.0 37:1.0 16:1.0 
0.1656092777817972 97:1.0 62:1.0 4:1.0 3898:1.0 444:1.0 4584:1.0 8:1.0 3311:1.0 93:1.0 81:1.0 13:1.0 136:1.0 37:1.0 16:1.0 
0.048087494754531016 100:1.0 241:1.0 4:1.0 12864:1.0 505:1.0 3818:1.0 8:1.0 3311:1.0 93:1.0 455:1.0 217:1.0 245:1.0 206:1.0 13:1.0 207:1.0 82:1.0 164:1.0 37:1.0 16:1.0 
0.32417434170230874 100:1.0 62:1.0 4:1.0 456:1.0 102:1.0 3305:1.0 162:1.0 3311:1.0 93:1.0 217:1.0 82:1.0 37:1.0 
0.3303706039788499 100:1.0 17:1.0 4:1.0 456:1.0 1714:1.0 391:1.0 162:1.0 3311:1.0 93:1.0 217:1.0 164:1.0 37:1.0 
0.11195229896936465 122:1.0 62:1.0 124:1.0 27101:1.0 4062:1.0 8473:1.0 128:1.0 3311:1.0 93:1.0 13:1.0 217:1.0 20:1.0 164:1.0 
0.1723127637072649 2:1.0 62:1.0 131:1.0 284:1.0 502:1.0 7337:1.0 260:1.0 3311:1.0 93:1.0 80:1.0 14:1.0 671:1.0 
0.17572352657501186 672:1.0 17:1.0 4:1.0 673:1.0 3389:1.0 3818:1.0 8:1.0 3311:1.0 93:1.0 217:1.0 54:1.0 13:1.0 14:1.0 164:1.0 37:1.0 16:1.0 
0.05330341597910897 2:1.0 62:1.0 4:1.0 284:1.0 219:1.0 5502:1.0 486:1.0 3311:1.0 93:1.0 80:1.0 13:1.0 206:1.0 82:1.0 20:1.0 207:1.0 
0.0695322307524237 100:1.0 62:1.0 124:1.0 456:1.0 102:1.0 1717:1.0 128:1.0 3311:1.0 93:1.0 13:1.0 81:1.0 20:1.0 37:1.0 
0.15602018063577838 904:1.0 62:1.0 4:1.0 7877:1.0 619:1.0 3818:1.0 8:1.0 3311:1.0 93:1.0 13:1.0 82:1.0 16:1.0 
0.1104079152709943 2:1.0 62:1.0 4:1.0 284:1.0 102:1.0 3818:1.0 8:1.0 3311:1.0 93:1.0 13:1.0 82:1.0 16:1.0 
0.5013495425516252 100:1.0 62:1.0 4:1.0 456:1.0 102:1.0 3305:1.0 8:1.0 3311:1.0 93:1.0 217:1.0 245:1.0 13:1.0 82:1.0 164:1.0 37:1.0 16:1.0 
0.1676017040199981 100:1.0 62:1.0 4:1.0 3898:1.0 444:1.0 10737:1.0 8:1.0 3311:1.0 93:1.0 163:1.0 13:1.0 14:1.0 164:1.0 16:1.0 
0.12613877314328462 2:1.0 62:1.0 4:1.0 284:1.0 102:1.0 7337:1.0 8:1.0 3311:1.0 93:1.0 245:1.0 13:1.0 80:1.0 246:1.0 20:1.0 82:1.0 16:1.0 
1.6966698638077973 100:1.0 62:1.0 4:1.0 456:1.0 102:1.0 3305:1.0 162:1.0 3311:1.0 93:1.0 217:1.0 82:1.0 164:1.0 
1.4674213667787934 100:1.0 62:1.0 4:1.0 456:1.0 219:1.0 3818:1.0 162:1.0 3311:1.0 93:1.0 81:1.0 265:1.0 37:1.0 
0.09365872925796752 100:1.0 17:1.0 4:1.0 456:1.0 183:1.0 3494:1.0 162:1.0 3311:1.0 93:1.0 14:1.0 
0.0797602287996582 100:1.0 62:1.0 4:1.0 2865:1.0 102:1.0 3818:1.0 8:1.0 3311:1.0 93:1.0 13:1.0 245:1.0 82:1.0 20:1.0 15:1.0 16:1.0 
0.12811294589743372 100:1.0 62:1.0 4:1.0 456:1.0 102:1.0 3333:1.0 8:1.0 3311:1.0 93:1.0 245:1.0 13:1.0 37:1.0 20:1.0 82:1.0 16:1.0 
0.11093849986684388 100:1.0 17:1.0 124:1.0 456:1.0 183:1.0 8473:1.0 128:1.0 3311:1.0 93:1.0 
0.10162984374818204 2:1.0 62:1.0 124:1.0 2291:1.0 102:1.0 5071:1.0 128:1.0 3311:1.0 93:1.0 
0.06992661519107325 100:1.0 241:1.0 124:1.0 456:1.0 374:1.0 3305:1.0 128:1.0 3311:1.0 93:1.0 81:1.0 13:1.0 245:1.0 334:1.0 20:1.0 37:1.0 
0.10787879906996868 97:1.0 62:1.0 4:1.0 3898:1.0 619:1.0 3305:1.0 260:1.0 3311:1.0 93:1.0 81:1.0 1287:1.0 14:1.0 
0.051655577287999854 26:1.0 62:1.0 4:1.0 6360:1.0 444:1.0 3818:1.0 8:1.0 3311:1.0 93:1.0 217:1.0 13:1.0 271:1.0 164:1.0 16:1.0 
0.20869578209043196 2:1.0 17:1.0 4:1.0 284:1.0 2542:1.0 1717:1.0 8:1.0 3311:1.0 93:1.0 80:1.0 13:1.0 82:1.0 16:1.0 
0.0752326136377781 97:1.0 69:1.0 4:1.0 3898:1.0 16631:1.0 6401:1.0 8:1.0 3311:1.0 93:1.0 13:1.0 14:1.0 16:1.0 
0.1776517815829569 97:1.0 69:1.0 4:1.0 3898:1.0 16631:1.0 3305:1.0 260:1.0 3311:1.0 93:1.0 334:1.0 
0.12271853209603675 26:1.0 241:1.0 124:1.0 5435:1.0 444:1.0 5277:1.0 128:1.0 3311:1.0 93:1.0 217:1.0 164:1.0 
0.06953021349666845 97:1.0 69:1.0 4:1.0 41990:1.0 2419:1.0 4584:1.0 8:1.0 3311:1.0 93:1.0 217:1.0 54:1.0 13:1.0 14:1.0 164:1.0 37:1.0 16:1.0 
0.05684043457053628 97:1.0 62:1.0 4:1.0 5834:1.0 502:1.0 3305:1.0 8:1.0 3311:1.0 93:1.0 54:1.0 13:1.0 217:1.0 37:1.0 20:1.0 136:1.0 164:1.0 16:1.0 
0.194420300845251 2:1.0 62:1.0 4:1.0 284:1.0 102:1.0 5071:1.0 8:1.0 3311:1.0 93:1.0 206:1.0 13:1.0 14:1.0 207:1.0 16:1.0 
0.07641357999271729 100:1.0 241:1.0 124:1.0 456:1.0 2008:1.0 5071:1.0 128:1.0 3311:1.0 93:1.0 81:1.0 13:1.0 245:1.0 37:1.0 20:1.0 14:1.0 
0.0967468838945441 100:1.0 62:1.0 266:1.0 4300:1.0 444:1.0 4088:1.0 128:1.0 3311:1.0 93:1.0 
0.07046208495718063 26:1.0 62:1.0 4:1.0 12847:1.0 619:1.0 3305:1.0 8:1.0 3311:1.0 93:1.0 217:1.0 13:1.0 136:1.0 164:1.0 16:1.0 
0.18507226221761827 100:1.0 261:1.0 173:1.0 456:1.0 2737:1.0 3305:1.0 128:1.0 3311:1.0 93:1.0 13:1.0 245:1.0 20:1.0 265:1.0 
0.23124320925879543 672:1.0 17:1.0 173:1.0 673:1.0 183:1.0 3305:1.0 128:1.0 3311:1.0 93:1.0 217:1.0 164:1.0 
0.1361645384052276 2:1.0 17:1.0 4:1.0 284:1.0 2542:1.0 15505:1.0 363:1.0 3311:1.0 93:1.0 217:1.0 82:1.0 246:1.0 
0.15123652532443124 100:1.0 62:1.0 4:1.0 456:1.0 525:1.0 3305:1.0 8:1.0 3311:1.0 93:1.0 13:1.0 538:1.0 82:1.0 20:1.0 246:1.0 16:1.0 
0.06939352975352918 100:1.0 261:1.0 4:1.0 456:1.0 3483:1.0 3305:1.0 363:1.0 3311:1.0 93:1.0 81:1.0 13:1.0 245:1.0 82:1.0 37:1.0 20:1.0 
0.1311759577387036 122:1.0 17:1.0 173:1.0 785:1.0 1353:1.0 4707:1.0 128:1.0 3311:1.0 93:1.0 
0.19155384363536426 100:1.0 62:1.0 4:1.0 456:1.0 102:1.0 3305:1.0 8:1.0 3311:1.0 93:1.0 13:1.0 245:1.0 82:1.0 20:1.0 37:1.0 16:1.0 
0.19317059203156978 904:1.0 62:1.0 173:1.0 7877:1.0 102:1.0 537:1.0 128:1.0 3311:1.0 93:1.0 
0.10499888755659627 100:1.0 62:1.0 4:1.0 456:1.0 444:1.0 10773:1.0 8:1.0 3311:1.0 93:1.0 245:1.0 13:1.0 37:1.0 20:1.0 136:1.0 16:1.0 
0.1452550064973701 100:1.0 62:1.0 4:1.0 456:1.0 525:1.0 5577:1.0 162:1.0 3311:1.0 93:1.0 217:1.0 14:1.0 164:1.0 37:1.0 
0.0969994981398143 100:1.0 17:1.0 4:1.0 12391:1.0 3389:1.0 3305:1.0 8:1.0 3311:1.0 93:1.0 217:1.0 245:1.0 13:1.0 82:1.0 164:1.0 37:1.0 16:1.0 
0.06246772253235498 97:1.0 241:1.0 266:1.0 3898:1.0 45043:1.0 3333:1.0 32:1.0 3311:1.0 93:1.0 35:1.0 13:1.0 217:1.0 40:1.0 20:1.0 164:1.0 
0.17782164613966162 2:1.0 17:1.0 4:1.0 284:1.0 1714:1.0 3305:1.0 260:1.0 3311:1.0 93:1.0 13:1.0 206:1.0 82:1.0 364:1.0 
0.08559284908993198 672:1.0 62:1.0 124:1.0 673:1.0 4062:1.0 216:1.0 128:1.0 3311:1.0 93:1.0 81:1.0 37:1.0 
0.1284376262663204 672:1.0 62:1.0 124:1.0 673:1.0 444:1.0 216:1.0 128:1.0 3311:1.0 93:1.0 81:1.0 37:1.0 
0.11920705575686705 100:1.0 62:1.0 4:1.0 456:1.0 102:1.0 7710:1.0 8:1.0 3311:1.0 93:1.0 13:1.0 14:1.0 16:1.0 
0.17512983539212224 100:1.0 17:1.0 4:1.0 456:1.0 2542:1.0 3818:1.0 195:1.0 3311:1.0 93:1.0 
0.10798264007982154 97:1.0 62:1.0 124:1.0 3898:1.0 102:1.0 4140:1.0 128:1.0 3311:1.0 93:1.0 
0.056828499010301035 672:1.0 17:1.0 4:1.0 673:1.0 3389:1.0 3305:1.0 8:1.0 3311:1.0 93:1.0 54:1.0 13:1.0 163:1.0 37:1.0 20:1.0 14:1.0 164:1.0 16:1.0 
0.08567125256415677 2:1.0 62:1.0 4:1.0 284:1.0 102:1.0 14141:1.0 260:1.0 3311:1.0 93:1.0 217:1.0 334:1.0 37:1.0 
0.12482879132187258 100:1.0 261:1.0 4:1.0 456:1.0 3483:1.0 2644:1.0 8:1.0 3311:1.0 93:1.0 217:1.0 13:1.0 14:1.0 164:1.0 16:1.0 
0.06049087194697753 2:1.0 69:1.0 4:1.0 284:1.0 2261:1.0 602:1.0 8:1.0 3311:1.0 93:1.0 163:1.0 13:1.0 206:1.0 14:1.0 164:1.0 20:1.0 207:1.0 16:1.0 
0.09198102817817091 100:1.0 17:1.0 4:1.0 12391:1.0 3389:1.0 3305:1.0 8:1.0 3311:1.0 93:1.0 217:1.0 54:1.0 81:1.0 13:1.0 136:1.0 164:1.0 37:1.0 16:1.0 
0.08467234624643889 100:1.0 62:1.0 4:1.0 456:1.0 102:1.0 3818:1.0 8:1.0 3311:1.0 93:1.0 13:1.0 669:1.0 245:1.0 14:1.0 20:1.0 37:1.0 265:1.0 16:1.0 
0.06410550826994998 2:1.0 62:1.0 4:1.0 284:1.0 102:1.0 9036:1.0 363:1.0 3311:1.0 93:1.0 80:1.0 13:1.0 206:1.0 136:1.0 14:1.0 20:1.0 207:1.0 
0.12289743671685942 672:1.0 62:1.0 4:1.0 673:1.0 102:1.0 8473:1.0 8:1.0 3311:1.0 93:1.0 13:1.0 217:1.0 245:1.0 82:1.0 20:1.0 164:1.0 265:1.0 16:1.0 
0.06757437252250491 100:1.0 62:1.0 4:1.0 456:1.0 444:1.0 216:1.0 8:1.0 3311:1.0 93:1.0 13:1.0 82:1.0 20:1.0 
0.203762093960584 2:1.0 62:1.0 4:1.0 284:1.0 4272:1.0 5071:1.0 8:1.0 3311:1.0 93:1.0 54:1.0 13:1.0 37:1.0 20:1.0 82:1.0 16:1.0 
0.16481963694494903 100:1.0 241:1.0 266:1.0 3898:1.0 24543:1.0 3333:1.0 195:1.0 3311:1.0 93:1.0 217:1.0 164:1.0 
0.15510980062357402 97:1.0 62:1.0 173:1.0 3898:1.0 484:1.0 3305:1.0 128:1.0 3311:1.0 93:1.0 245:1.0 37:1.0 
0.1877193458020787 100:1.0 62:1.0 4:1.0 3898:1.0 4272:1.0 7710:1.0 260:1.0 3311:1.0 93:1.0 334:1.0 
0.11153575314459516 26:1.0 62:1.0 4:1.0 12900:1.0 444:1.0 6401:1.0 8:1.0 3311:1.0 93:1.0 217:1.0 13:1.0 136:1.0 164:1.0 16:1.0 
0.1042100588704391 100:1.0 62:1.0 4:1.0 456:1.0 502:1.0 2644:1.0 363:1.0 3311:1.0 93:1.0 217:1.0 245:1.0 14:1.0 164:1.0 15:1.0 
0.15779056674698932 26:1.0 69:1.0 4:1.0 49274:1.0 2419:1.0 3818:1.0 260:1.0 3311:1.0 93:1.0 334:1.0 
0.177785803239473 26:1.0 62:1.0 4:1.0 6431:1.0 1285:1.0 7710:1.0 8:1.0 3311:1.0 93:1.0 13:1.0 82:1.0 16:1.0 
0.30864197530864196 100:1.0 62:1.0 4:1.0 456:1.0 4272:1.0 3818:1.0 195:1.0 3311:1.0 93:1.0 
-0.24075928310559847 100:1.0 62:1.0 4:1.0 456:1.0 525:1.0 7710:1.0 8:1.0 3311:1.0 93:1.0 13:1.0 217:1.0 20:1.0 14:1.0 164:1.0 16:1.0 
-0.14634415801436743 2:1.0 62:1.0 4:1.0 284:1.0 102:1.0 1717:1.0 8:1.0 3311:1.0 93:1.0 245:1.0 13:1.0 80:1.0 246:1.0 20:1.0 14:1.0 82:1.0 16:1.0 
-0.09739368511022033 2:1.0 17:1.0 4:1.0 284:1.0 1714:1.0 1717:1.0 8:1.0 3311:1.0 93:1.0 455:1.0 13:1.0 80:1.0 217:1.0 207:1.0 20:1.0 136:1.0 164:1.0 16:1.0 
-0.4664075937433487 100:1.0 62:1.0 4:1.0 456:1.0 102:1.0 3305:1.0 8:1.0 3311:1.0 93:1.0 13:1.0 245:1.0 20:1.0 82:1.0 15:1.0 16:1.0 
-0.10787879906996868 97:1.0 17:1.0 4:1.0 5834:1.0 3389:1.0 3818:1.0 8:1.0 3311:1.0 93:1.0 245:1.0 13:1.0 163:1.0 37:1.0 20:1.0 82:1.0 164:1.0 16:1.0 
-0.1363807171612249 97:1.0 638:1.0 4:1.0 3898:1.0 13045:1.0 2362:1.0 111:1.0 3311:1.0 93:1.0 217:1.0 81:1.0 136:1.0 246:1.0 37:1.0 
-0.13350709937108246 2:1.0 62:1.0 4:1.0 284:1.0 502:1.0 1717:1.0 8:1.0 3311:1.0 93:1.0 13:1.0 80:1.0 217:1.0 20:1.0 136:1.0 82:1.0 164:1.0 16:1.0 
-0.14007875934871444 97:1.0 46:1.0 4:1.0 3898:1.0 4697:1.0 946:1.0 32:1.0 3311:1.0 93:1.0 13:1.0 81:1.0 96:1.0 1287:1.0 136:1.0 83:1.0 
-0.09274886743934173 97:1.0 638:1.0 4:1.0 3898:1.0 639:1.0 946:1.0 32:1.0 3311:1.0 93:1.0 81:1.0 13:1.0 40:1.0 96:1.0 136:1.0 83:1.0 
-0.24175474310278616 100:1.0 62:1.0 4:1.0 3898:1.0 4272:1.0 3818:1.0 8:1.0 3311:1.0 93:1.0 81:1.0 13:1.0 14:1.0 20:1.0 82:1.0 16:1.0 
-0.06953021349666845 100:1.0 17:1.0 4:1.0 3898:1.0 3389:1.0 3818:1.0 8:1.0 3311:1.0 93:1.0 81:1.0 13:1.0 37:1.0 20:1.0 82:1.0 16:1.0 
-0.11923039344064214 97:1.0 17:1.0 4:1.0 3898:1.0 3389:1.0 3818:1.0 8:1.0 3311:1.0 93:1.0 13:1.0 245:1.0 20:1.0 82:1.0 164:1.0 16:1.0 
-0.16481963694494903 100:1.0 460:1.0 4:1.0 456:1.0 15215:1.0 3818:1.0 8:1.0 3311:1.0 93:1.0 13:1.0 20:1.0 14:1.0 16:1.0 
-0.3303706039788499 100:1.0 638:1.0 4:1.0 456:1.0 639:1.0 3305:1.0 260:1.0 3311:1.0 93:1.0 82:1.0 
-0.17942374669014668 100:1.0 460:1.0 4:1.0 456:1.0 3048:1.0 946:1.0 8:1.0 3311:1.0 93:1.0 13:1.0 20:1.0 14:1.0 16:1.0 
-0.2004651044764718 100:1.0 17:1.0 4:1.0 12391:1.0 3389:1.0 3305:1.0 8:1.0 3311:1.0 93:1.0 54:1.0 13:1.0 217:1.0 37:1.0 20:1.0 82:1.0 164:1.0 16:1.0 
-0.0969994981398143 100:1.0 69:1.0 4:1.0 12391:1.0 8598:1.0 3305:1.0 8:1.0 3311:1.0 93:1.0 54:1.0 13:1.0 217:1.0 37:1.0 20:1.0 82:1.0 164:1.0 16:1.0 
-0.08774332749374719 672:1.0 69:1.0 4:1.0 673:1.0 8598:1.0 11710:1.0 8:1.0 3311:1.0 93:1.0 54:1.0 13:1.0 217:1.0 245:1.0 37:1.0 20:1.0 82:1.0 164:1.0 16:1.0 
-0.24157329011139472 2:1.0 17:1.0 4:1.0 284:1.0 183:1.0 216:1.0 8:1.0 3311:1.0 93:1.0 13:1.0 206:1.0 14:1.0 20:1.0 207:1.0 
-0.06410550826994998 97:1.0 69:1.0 4:1.0 5834:1.0 8598:1.0 3818:1.0 8:1.0 3311:1.0 93:1.0 54:1.0 13:1.0 217:1.0 37:1.0 20:1.0 82:1.0 164:1.0 16:1.0 
-0.15779056674698932 97:1.0 69:1.0 4:1.0 3898:1.0 2419:1.0 3818:1.0 8:1.0 3311:1.0 93:1.0 54:1.0 13:1.0 217:1.0 37:1.0 20:1.0 14:1.0 164:1.0 16:1.0 
-0.5013495425516252 100:1.0 62:1.0 4:1.0 456:1.0 102:1.0 3305:1.0 8:1.0 3311:1.0 93:1.0 13:1.0 217:1.0 245:1.0 20:1.0 82:1.0 164:1.0 37:1.0 16:1.0 
-0.3314143141864687 2:1.0 17:1.0 4:1.0 284:1.0 2542:1.0 4584:1.0 260:1.0 3311:1.0 93:1.0 206:1.0 334:1.0 207:1.0 
-0.10245901649355788 97:1.0 69:1.0 4:1.0 5834:1.0 8598:1.0 3818:1.0 8:1.0 3311:1.0 93:1.0 54:1.0 13:1.0 217:1.0 37:1.0 20:1.0 136:1.0 164:1.0 16:1.0 
-3.3806789578461043 100:1.0 62:1.0 4:1.0 456:1.0 102:1.0 3305:1.0 162:1.0 3311:1.0 93:1.0 217:1.0 14:1.0 164:1.0 37:1.0 
-0.13770033617013308 100:1.0 62:1.0 4:1.0 3898:1.0 502:1.0 3818:1.0 8:1.0 3311:1.0 93:1.0 13:1.0 20:1.0 82:1.0 16:1.0 
-0.3221392263254492 97:1.0 62:1.0 4:1.0 3898:1.0 525:1.0 11987:1.0 8:1.0 3311:1.0 93:1.0 13:1.0 136:1.0 16:1.0 
-0.17314389189218943 2:1.0 241:1.0 131:1.0 284:1.0 4621:1.0 5502:1.0 8:1.0 3311:1.0 93:1.0 13:1.0 80:1.0 81:1.0 20:1.0 40:1.0 14:1.0 37:1.0 364:1.0 16:1.0 
-0.1284376262663204 672:1.0 69:1.0 4:1.0 673:1.0 8598:1.0 7710:1.0 8:1.0 3311:1.0 93:1.0 54:1.0 13:1.0 217:1.0 37:1.0 20:1.0 14:1.0 164:1.0 16:1.0 
-0.10155314049281765 100:1.0 62:1.0 4:1.0 456:1.0 102:1.0 3305:1.0 8:1.0 3311:1.0 93:1.0 13:1.0 81:1.0 217:1.0 245:1.0 20:1.0 14:1.0 37:1.0 164:1.0 16:1.0 
-0.15510980062357402 904:1.0 17:1.0 4:1.0 7877:1.0 3389:1.0 4584:1.0 8:1.0 3311:1.0 93:1.0 13:1.0 245:1.0 20:1.0 136:1.0 265:1.0 16:1.0 
-0.12289743671685942 26:1.0 62:1.0 4:1.0 3184:1.0 219:1.0 8473:1.0 8:1.0 3311:1.0 93:1.0 13:1.0 217:1.0 245:1.0 20:1.0 82:1.0 164:1.0 37:1.0 16:1.0 
-0.09365872925796752 100:1.0 638:1.0 4:1.0 456:1.0 639:1.0 4584:1.0 260:1.0 3311:1.0 93:1.0 217:1.0 14:1.0 164:1.0 
-0.2058990019429428 100:1.0 261:1.0 4:1.0 456:1.0 3483:1.0 4584:1.0 8:1.0 3311:1.0 93:1.0 13:1.0 217:1.0 20:1.0 82:1.0 164:1.0 16:1.0 
-0.17512983539212224 100:1.0 17:1.0 4:1.0 2865:1.0 1353:1.0 216:1.0 8:1.0 3311:1.0 93:1.0 13:1.0 81:1.0 20:1.0 37:1.0 82:1.0 
-0.23140770803923538 100:1.0 62:1.0 4:1.0 2865:1.0 102:1.0 216:1.0 8:1.0 3311:1.0 93:1.0 81:1.0 13:1.0 14:1.0 20:1.0 82:1.0 
-0.17572352657501186 672:1.0 17:1.0 4:1.0 673:1.0 3389:1.0 3818:1.0 8:1.0 3311:1.0 93:1.0 54:1.0 13:1.0 217:1.0 37:1.0 20:1.0 82:1.0 164:1.0 16:1.0 
-0.26923154776818015 100:1.0 241:1.0 4:1.0 456:1.0 2315:1.0 3818:1.0 8:1.0 3311:1.0 93:1.0 13:1.0 20:1.0 14:1.0 16:1.0 
-0.1286173101965659 100:1.0 241:1.0 4:1.0 30056:1.0 2315:1.0 946:1.0 8:1.0 3311:1.0 93:1.0 13:1.0 245:1.0 20:1.0 14:1.0 16:1.0 
-0.2614804588264375 97:1.0 638:1.0 131:1.0 5834:1.0 639:1.0 5577:1.0 111:1.0 3311:1.0 93:1.0 14:1.0 
-0.06939352975352918 97:1.0 17:1.0 4:1.0 5834:1.0 3389:1.0 3305:1.0 8:1.0 3311:1.0 93:1.0 54:1.0 13:1.0 217:1.0 37:1.0 20:1.0 136:1.0 164:1.0 16:1.0 
-0.164321256417049 100:1.0 62:1.0 4:1.0 456:1.0 525:1.0 10835:1.0 8:1.0 3311:1.0 93:1.0 13:1.0 245:1.0 20:1.0 14:1.0 265:1.0 16:1.0 
-0.10499888755659627 100:1.0 241:1.0 4:1.0 456:1.0 2315:1.0 3305:1.0 8:1.0 3311:1.0 93:1.0 13:1.0 217:1.0 245:1.0 14:1.0 20:1.0 164:1.0 265:1.0 16:1.0 
-0.3753293291574149 100:1.0 62:1.0 4:1.0 456:1.0 102:1.0 5071:1.0 8:1.0 3311:1.0 93:1.0 13:1.0 82:1.0 16:1.0 
-0.11864475892392683 172:1.0 62:1.0 4:1.0 388:1.0 444:1.0 3836:1.0 8:1.0 3311:1.0 93:1.0 13:1.0 206:1.0 20:1.0 14:1.0 207:1.0 16:1.0 
-0.18046531739779334 904:1.0 62:1.0 4:1.0 905:1.0 64:1.0 3305:1.0 8:1.0 3311:1.0 93:1.0 13:1.0 20:1.0 14:1.0 16:1.0 
-0.18227991587457976 100:1.0 62:1.0 4:1.0 456:1.0 219:1.0 3305:1.0 8:1.0 3311:1.0 93:1.0 13:1.0 54:1.0 217:1.0 20:1.0 82:1.0 37:1.0 164:1.0 16:1.0 
-0.23427178358099826 672:1.0 62:1.0 4:1.0 673:1.0 444:1.0 10773:1.0 8:1.0 3311:1.0 93:1.0 13:1.0 20:1.0 14:1.0 16:1.0 
-0.26337865232940494 97:1.0 62:1.0 4:1.0 3898:1.0 102:1.0 5577:1.0 8:1.0 3311:1.0 93:1.0 13:1.0 20:1.0 82:1.0 16:1.0 
-0.11153575314459516 97:1.0 62:1.0 4:1.0 3898:1.0 64:1.0 3818:1.0 8:1.0 3311:1.0 93:1.0 13:1.0 669:1.0 20:1.0 14:1.0 37:1.0 16:1.0 
-2.0763864336829316 100:1.0 62:1.0 4:1.0 456:1.0 102:1.0 3305:1.0 8:1.0 3311:1.0 93:1.0 13:1.0 217:1.0 20:1.0 82:1.0 164:1.0 37:1.0 16:1.0 
-0.12482879132187258 2:1.0 62:1.0 4:1.0 284:1.0 619:1.0 7337:1.0 8:1.0 3311:1.0 93:1.0 13:1.0 80:1.0 245:1.0 20:1.0 82:1.0 265:1.0 16:1.0 
-0.2216314940648667 2:1.0 62:1.0 4:1.0 284:1.0 525:1.0 7337:1.0 8:1.0 3311:1.0 93:1.0 13:1.0 80:1.0 20:1.0 82:1.0 16:1.0 
-0.12273491330595884 2:1.0 241:1.0 4:1.0 284:1.0 5508:1.0 583:1.0 8:1.0 3311:1.0 93:1.0 13:1.0 80:1.0 96:1.0 171:1.0 14:1.0 16:1.0 
-0.12157425075915834 100:1.0 62:1.0 4:1.0 456:1.0 525:1.0 10773:1.0 8:1.0 3311:1.0 93:1.0 13:1.0 217:1.0 20:1.0 14:1.0 164:1.0 16:1.0 
-0.1877193458020787 2:1.0 62:1.0 4:1.0 284:1.0 219:1.0 18531:1.0 8:1.0 3311:1.0 93:1.0 13:1.0 80:1.0 20:1.0 14:1.0 16:1.0 
-0.12868302406489185 26:1.0 62:1.0 4:1.0 7146:1.0 444:1.0 6401:1.0 8:1.0 3311:1.0 93:1.0 13:1.0 217:1.0 245:1.0 20:1.0 136:1.0 164:1.0 37:1.0 16:1.0 
-0.14232240318312575 26:1.0 17:1.0 4:1.0 301:1.0 1714:1.0 2760:1.0 260:1.0 3311:1.0 93:1.0 54:1.0 80:1.0 217:1.0 1287:1.0 82:1.0 246:1.0 
-0.09841342528613328 97:1.0 69:1.0 4:1.0 3898:1.0 2261:1.0 3305:1.0 8:1.0 3311:1.0 93:1.0 54:1.0 13:1.0 217:1.0 37:1.0 20:1.0 14:1.0 164:1.0 16:1.0 
-0.14880952718847199 97:1.0 17:1.0 4:1.0 5834:1.0 3389:1.0 3818:1.0 8:1.0 3311:1.0 93:1.0 54:1.0 13:1.0 217:1.0 37:1.0 20:1.0 136:1.0 164:1.0 16:1.0 
-0.22090695536592153 100:1.0 62:1.0 4:1.0 456:1.0 102:1.0 3818:1.0 162:1.0 3311:1.0 93:1.0 13:1.0 217:1.0 669:1.0 20:1.0 14:1.0 164:1.0 37:1.0 
-0.27684294961508243 100:1.0 17:1.0 4:1.0 3898:1.0 1714:1.0 7710:1.0 8:1.0 3311:1.0 93:1.0 13:1.0 20:1.0 82:1.0 16:1.0 
-0.11367072997678067 100:1.0 17:1.0 4:1.0 456:1.0 183:1.0 8473:1.0 8:1.0 3311:1.0 93:1.0 13:1.0 245:1.0 217:1.0 96:1.0 20:1.0 37:1.0 14:1.0 164:1.0 16:1.0 
-1.983588544044334 100:1.0 62:1.0 4:1.0 456:1.0 102:1.0 3818:1.0 162:1.0 3311:1.0 93:1.0 81:1.0 265:1.0 37:1.0 
-0.28481633353866426 100:1.0 62:1.0 4:1.0 456:1.0 102:1.0 10737:1.0 8:1.0 3311:1.0 93:1.0 217:1.0 13:1.0 14:1.0 164:1.0 16:1.0 
-0.15528577711355301 100:1.0 261:1.0 4:1.0 3149:1.0 3483:1.0 946:1.0 8:1.0 3311:1.0 93:1.0 13:1.0 217:1.0 245:1.0 20:1.0 136:1.0 164:1.0 37:1.0 16:1.0 
-0.2207697636483843 100:1.0 638:1.0 131:1.0 456:1.0 639:1.0 12016:1.0 111:1.0 3311:1.0 93:1.0 14:1.0 
-0.10377667660927864 97:1.0 69:1.0 4:1.0 5834:1.0 8598:1.0 3305:1.0 8:1.0 3311:1.0 93:1.0 54:1.0 13:1.0 669:1.0 37:1.0 20:1.0 82:1.0 164:1.0 16:1.0 
-0.12811294589743372 100:1.0 62:1.0 4:1.0 456:1.0 102:1.0 5071:1.0 8:1.0 3311:1.0 93:1.0 13:1.0 217:1.0 245:1.0 20:1.0 82:1.0 164:1.0 246:1.0 16:1.0 
-0.26394572003060757 122:1.0 241:1.0 266:1.0 41396:1.0 6052:1.0 216:1.0 623:1.0 3311:1.0 93:1.0 80:1.0 82:1.0 
-0.24175766350963723 100:1.0 328:1.0 124:1.0 456:1.0 329:1.0 3305:1.0 128:1.0 3311:1.0 93:1.0 81:1.0 13:1.0 245:1.0 246:1.0 20:1.0 37:1.0 
-0.19317059203156978 97:1.0 638:1.0 4:1.0 3898:1.0 639:1.0 3305:1.0 260:1.0 3311:1.0 93:1.0 81:1.0 14:1.0 37:1.0 
-0.2175829714669417 97:1.0 638:1.0 4:1.0 3898:1.0 639:1.0 4584:1.0 260:1.0 3311:1.0 93:1.0 136:1.0 
-0.04995226901161463 97:1.0 69:1.0 4:1.0 3898:1.0 2419:1.0 3305:1.0 8:1.0 3311:1.0 93:1.0 54:1.0 13:1.0 217:1.0 37:1.0 20:1.0 14:1.0 164:1.0 16:1.0 
-0.11195229896936465 97:1.0 69:1.0 4:1.0 5834:1.0 8598:1.0 3305:1.0 8:1.0 3311:1.0 93:1.0 54:1.0 13:1.0 217:1.0 37:1.0 20:1.0 82:1.0 164:1.0 16:1.0 
-0.12306757738476712 672:1.0 17:1.0 4:1.0 673:1.0 2542:1.0 3305:1.0 8:1.0 3311:1.0 93:1.0 13:1.0 217:1.0 206:1.0 82:1.0 20:1.0 164:1.0 207:1.0 16:1.0 
-0.059480062563571946 672:1.0 69:1.0 4:1.0 673:1.0 8598:1.0 10773:1.0 8:1.0 3311:1.0 93:1.0 54:1.0 13:1.0 217:1.0 37:1.0 20:1.0 82:1.0 164:1.0 16:1.0 
-0.1042100588704391 2:1.0 17:1.0 4:1.0 284:1.0 183:1.0 7710:1.0 162:1.0 3311:1.0 93:1.0 13:1.0 217:1.0 669:1.0 20:1.0 82:1.0 61:1.0 164:1.0 55:1.0 37:1.0 
-0.08467234624643889 100:1.0 241:1.0 4:1.0 3898:1.0 909:1.0 1717:1.0 8:1.0 3311:1.0 93:1.0 13:1.0 54:1.0 80:1.0 217:1.0 20:1.0 37:1.0 171:1.0 82:1.0 164:1.0 16:1.0 
-0.14252448499801962 100:1.0 62:1.0 4:1.0 456:1.0 525:1.0 3333:1.0 8:1.0 3311:1.0 93:1.0 13:1.0 81:1.0 245:1.0 14:1.0 20:1.0 37:1.0 16:1.0 
-0.12593437728448076 100:1.0 17:1.0 4:1.0 456:1.0 1353:1.0 3333:1.0 8:1.0 3311:1.0 93:1.0 81:1.0 13:1.0 245:1.0 14:1.0 37:1.0 20:1.0 16:1.0 
-0.25460449297004195 100:1.0 17:1.0 4:1.0 456:1.0 183:1.0 216:1.0 162:1.0 3311:1.0 93:1.0 80:1.0 217:1.0 245:1.0 136:1.0 14:1.0 164:1.0 37:1.0 
-0.7684018731339484 100:1.0 62:1.0 4:1.0 456:1.0 102:1.0 3305:1.0 8:1.0 3311:1.0 93:1.0 13:1.0 20:1.0 82:1.0 16:1.0 
-1.5103437141234588 100:1.0 62:1.0 4:1.0 456:1.0 502:1.0 3818:1.0 8:1.0 3311:1.0 93:1.0 13:1.0 82:1.0 16:1.0 
-0.1361645384052276 97:1.0 17:1.0 4:1.0 5834:1.0 3389:1.0 3305:1.0 8:1.0 3311:1.0 93:1.0 13:1.0 163:1.0 20:1.0 82:1.0 164:1.0 16:1.0 
-0.2793059266835236 100:1.0 62:1.0 4:1.0 456:1.0 1285:1.0 3818:1.0 162:1.0 3311:1.0 93:1.0 13:1.0 217:1.0 20:1.0 82:1.0 164:1.0 
-0.1311759577387036 100:1.0 62:1.0 4:1.0 456:1.0 102:1.0 3818:1.0 8:1.0 3311:1.0 93:1.0 13:1.0 217:1.0 20:1.0 179:1.0 164:1.0 37:1.0 16:1.0 
-0.2570137301446395 100:1.0 62:1.0 4:1.0 456:1.0 102:1.0 3305:1.0 8:1.0 3311:1.0 93:1.0 13:1.0 217:1.0 20:1.0 179:1.0 164:1.0 37:1.0 16:1.0 
-0.04809705213020933 97:1.0 69:1.0 4:1.0 3898:1.0 8598:1.0 3305:1.0 8:1.0 3311:1.0 93:1.0 54:1.0 13:1.0 217:1.0 37:1.0 20:1.0 14:1.0 164:1.0 16:1.0 
-0.5805482099886424 100:1.0 62:1.0 4:1.0 456:1.0 102:1.0 3305:1.0 8:1.0 3311:1.0 93:1.0 13:1.0 217:1.0 20:1.0 14:1.0 164:1.0 37:1.0 16:1.0 
-0.15596924512981852 97:1.0 69:1.0 4:1.0 3898:1.0 16631:1.0 3305:1.0 8:1.0 3311:1.0 93:1.0 54:1.0 13:1.0 217:1.0 37:1.0 20:1.0 14:1.0 164:1.0 16:1.0 
-0.2751005646810986 100:1.0 62:1.0 4:1.0 456:1.0 102:1.0 3818:1.0 8:1.0 3311:1.0 93:1.0 13:1.0 217:1.0 20:1.0 14:1.0 164:1.0 37:1.0 16:1.0 
-0.203762093960584 2:1.0 62:1.0 4:1.0 284:1.0 102:1.0 5071:1.0 8:1.0 3311:1.0 93:1.0 13:1.0 20:1.0 82:1.0 16:1.0 
-0.07496945779739198 100:1.0 62:1.0 4:1.0 456:1.0 525:1.0 5071:1.0 8:1.0 3311:1.0 93:1.0 13:1.0 217:1.0 20:1.0 14:1.0 164:1.0 37:1.0 16:1.0 
-0.45587077297821343 2:1.0 638:1.0 266:1.0 284:1.0 639:1.0 3305:1.0 128:1.0 3311:1.0 93:1.0 
-0.817960081472762 100:1.0 62:1.0 4:1.0 456:1.0 102:1.0 946:1.0 363:1.0 3311:1.0 93:1.0 217:1.0 82:1.0 37:1.0 164:1.0 
-0.2541169395755097 2:1.0 62:1.0 4:1.0 284:1.0 102:1.0 5071:1.0 363:1.0 3311:1.0 93:1.0 13:1.0 20:1.0 14:1.0 
-0.1723127637072649 26:1.0 638:1.0 4:1.0 49270:1.0 639:1.0 3818:1.0 260:1.0 3311:1.0 93:1.0 245:1.0 136:1.0 37:1.0 
-0.12876530183676393 97:1.0 69:1.0 4:1.0 3898:1.0 10749:1.0 3305:1.0 8:1.0 3311:1.0 93:1.0 54:1.0 13:1.0 217:1.0 37:1.0 20:1.0 14:1.0 164:1.0 16:1.0 
-0.18089454659386378 26:1.0 62:1.0 4:1.0 46504:1.0 502:1.0 3305:1.0 8:1.0 3311:1.0 93:1.0 13:1.0 217:1.0 20:1.0 136:1.0 164:1.0 16:1.0 
