svm_type c_svc
kernel_type polynomial
degree 2
gamma 0.2
coef0 0.0
nr_class 2
total_sv 449
rho -0.39922228796029413
label 1 -1
nr_sv 299 150
SV
0.08554383199558531 68:1.0 208:1.0 70:1.0 3690:1.0 209:1.0 3689:1.0 116:1.0 9:1.0 210:1.0 141:1.0 142:1.0 13:1.0 136:1.0 20:1.0 
0.13321139331278267 2:1.0 208:1.0 28:1.0 517:1.0 209:1.0 3961:1.0 32:1.0 9:1.0 210:1.0 35:1.0 48:1.0 179:1.0 
1.8518526367693158 2:1.0 208:1.0 28:1.0 5:1.0 209:1.0 3305:1.0 162:1.0 9:1.0 210:1.0 35:1.0 81:1.0 48:1.0 14:1.0 37:1.0 
0.11502699482215074 2:1.0 208:1.0 28:1.0 5:1.0 209:1.0 3449:1.0 32:1.0 9:1.0 210:1.0 35:1.0 136:1.0 14:1.0 
0.12006380093050766 2:1.0 208:1.0 76:1.0 5:1.0 209:1.0 4307:1.0 162:1.0 9:1.0 210:1.0 11:1.0 80:1.0 13:1.0 171:1.0 20:1.0 
0.15751238642612173 2:1.0 208:1.0 107:1.0 60:1.0 209:1.0 3614:1.0 32:1.0 9:1.0 210:1.0 35:1.0 48:1.0 
0.12115584253988146 2:1.0 208:1.0 124:1.0 5:1.0 209:1.0 448:1.0 128:1.0 9:1.0 210:1.0 80:1.0 82:1.0 
0.19406505469736246 2:1.0 208:1.0 124:1.0 5:1.0 209:1.0 6321:1.0 477:1.0 9:1.0 210:1.0 
0.06911399057747984 2:1.0 208:1.0 124:1.0 5:1.0 209:1.0 730:1.0 128:1.0 9:1.0 210:1.0 80:1.0 13:1.0 8477:1.0 8478:1.0 14:1.0 20:1.0 37:1.0 
0.09045090428165557 2:1.0 208:1.0 28:1.0 5:1.0 1260:1.0 339:1.0 477:1.0 9:1.0 210:1.0 35:1.0 48:1.0 179:1.0 14:1.0 
0.2728507465871783 2:1.0 208:1.0 28:1.0 517:1.0 572:1.0 9552:1.0 162:1.0 9:1.0 210:1.0 
0.053262874346909836 2:1.0 208:1.0 76:1.0 5:1.0 209:1.0 2668:1.0 8:1.0 9:1.0 210:1.0 11:1.0 245:1.0 13:1.0 82:1.0 246:1.0 20:1.0 265:1.0 16:1.0 
0.09544445272508192 2:1.0 17:1.0 28:1.0 5:1.0 718:1.0 1847:1.0 564:1.0 9:1.0 210:1.0 13:1.0 20:1.0 
0.07816054363716878 2:1.0 208:1.0 76:1.0 517:1.0 572:1.0 960:1.0 363:1.0 9:1.0 210:1.0 11:1.0 80:1.0 171:1.0 82:1.0 
0.0887583051738051 2:1.0 208:1.0 28:1.0 5:1.0 209:1.0 10777:1.0 32:1.0 9:1.0 210:1.0 35:1.0 36:1.0 48:1.0 179:1.0 364:1.0 
0.05683448179748333 2:1.0 17:1.0 28:1.0 5:1.0 1750:1.0 4050:1.0 116:1.0 9:1.0 210:1.0 35:1.0 13:1.0 48:1.0 265:1.0 179:1.0 20:1.0 55:1.0 
0.07124105781578298 2:1.0 69:1.0 70:1.0 5:1.0 10863:1.0 10862:1.0 486:1.0 9:1.0 210:1.0 141:1.0 13:1.0 136:1.0 20:1.0 
0.13020832815931907 2:1.0 208:1.0 70:1.0 5:1.0 209:1.0 10865:1.0 486:1.0 9:1.0 210:1.0 141:1.0 136:1.0 
0.1850702071997951 2:1.0 208:1.0 107:1.0 5:1.0 209:1.0 5457:1.0 162:1.0 9:1.0 210:1.0 35:1.0 14:1.0 
0.22273769111966352 2:1.0 208:1.0 124:1.0 5:1.0 572:1.0 11291:1.0 128:1.0 9:1.0 210:1.0 80:1.0 82:1.0 
0.16823035249995724 2:1.0 208:1.0 70:1.0 60:1.0 209:1.0 11547:1.0 32:1.0 9:1.0 210:1.0 142:1.0 136:1.0 
0.08140268452448984 2:1.0 208:1.0 28:1.0 5:1.0 209:1.0 4223:1.0 486:1.0 9:1.0 210:1.0 35:1.0 13:1.0 48:1.0 671:1.0 20:1.0 
0.15650359317933996 2:1.0 208:1.0 28:1.0 5:1.0 209:1.0 570:1.0 162:1.0 9:1.0 210:1.0 35:1.0 179:1.0 
0.19748958313961532 2:1.0 208:1.0 107:1.0 517:1.0 209:1.0 3494:1.0 486:1.0 9:1.0 210:1.0 
0.15318988724784674 2:1.0 241:1.0 266:1.0 517:1.0 2709:1.0 4479:1.0 32:1.0 9:1.0 210:1.0 80:1.0 14:1.0 
0.09263855634979401 2:1.0 231:1.0 173:1.0 5:1.0 4585:1.0 14743:1.0 128:1.0 9:1.0 210:1.0 245:1.0 13:1.0 726:1.0 20:1.0 
0.13383982426495902 2:1.0 208:1.0 107:1.0 5:1.0 209:1.0 3583:1.0 486:1.0 9:1.0 210:1.0 35:1.0 13:1.0 179:1.0 20:1.0 
0.04825987613247684 122:1.0 208:1.0 4:1.0 6475:1.0 1260:1.0 1387:1.0 8:1.0 9:1.0 210:1.0 11:1.0 80:1.0 81:1.0 13:1.0 14:1.0 82:1.0 37:1.0 20:1.0 16:1.0 
0.07613398897052279 68:1.0 208:1.0 28:1.0 15760:1.0 209:1.0 1786:1.0 486:1.0 9:1.0 210:1.0 35:1.0 13:1.0 48:1.0 136:1.0 20:1.0 157:1.0 364:1.0 
0.11206277303551622 2:1.0 208:1.0 28:1.0 5:1.0 209:1.0 5065:1.0 32:1.0 9:1.0 210:1.0 35:1.0 48:1.0 136:1.0 
0.10509433380696247 2:1.0 208:1.0 28:1.0 5:1.0 209:1.0 15857:1.0 162:1.0 9:1.0 210:1.0 35:1.0 48:1.0 179:1.0 14:1.0 
0.14821770906098164 2:1.0 208:1.0 28:1.0 5:1.0 209:1.0 3882:1.0 116:1.0 9:1.0 210:1.0 35:1.0 14:1.0 
0.054793998837426014 2:1.0 208:1.0 76:1.0 5:1.0 209:1.0 5995:1.0 8:1.0 9:1.0 210:1.0 13:1.0 11:1.0 245:1.0 80:1.0 20:1.0 82:1.0 246:1.0 16:1.0 
0.11036040061479468 2:1.0 208:1.0 28:1.0 5:1.0 209:1.0 1747:1.0 32:1.0 9:1.0 210:1.0 35:1.0 516:1.0 48:1.0 
0.09885438872944532 2:1.0 208:1.0 76:1.0 5:1.0 209:1.0 1732:1.0 162:1.0 9:1.0 210:1.0 11:1.0 80:1.0 13:1.0 14:1.0 82:1.0 20:1.0 
0.07388476575322173 2:1.0 208:1.0 4:1.0 5:1.0 209:1.0 155:1.0 8:1.0 9:1.0 210:1.0 13:1.0 11:1.0 80:1.0 20:1.0 82:1.0 470:1.0 16:1.0 
0.2995389431186174 2:1.0 208:1.0 107:1.0 5:1.0 209:1.0 2701:1.0 486:1.0 9:1.0 210:1.0 
0.11781822325065987 2:1.0 208:1.0 70:1.0 5:1.0 209:1.0 2826:1.0 116:1.0 9:1.0 210:1.0 141:1.0 136:1.0 
0.24779735648269968 2:1.0 208:1.0 107:1.0 5:1.0 209:1.0 4223:1.0 32:1.0 9:1.0 210:1.0 35:1.0 14:1.0 
0.20674786216995025 2:1.0 208:1.0 107:1.0 5:1.0 209:1.0 17617:1.0 486:1.0 9:1.0 210:1.0 13:1.0 364:1.0 
0.22574779598020667 2:1.0 208:1.0 107:1.0 222:1.0 209:1.0 1786:1.0 162:1.0 9:1.0 210:1.0 35:1.0 40:1.0 
0.056386269724828346 2:1.0 208:1.0 232:1.0 733:1.0 209:1.0 235:1.0 8:1.0 9:1.0 210:1.0 13:1.0 11:1.0 12:1.0 20:1.0 136:1.0 237:1.0 16:1.0 
0.33474457223840404 2:1.0 208:1.0 107:1.0 330:1.0 209:1.0 7856:1.0 162:1.0 9:1.0 210:1.0 35:1.0 48:1.0 179:1.0 
0.10639164858494508 2:1.0 208:1.0 28:1.0 5:1.0 209:1.0 7347:1.0 162:1.0 9:1.0 210:1.0 35:1.0 13:1.0 48:1.0 179:1.0 20:1.0 
0.19762985060090474 2:1.0 208:1.0 266:1.0 5:1.0 209:1.0 184:1.0 32:1.0 9:1.0 210:1.0 80:1.0 82:1.0 
0.2046894353793953 2:1.0 208:1.0 107:1.0 5:1.0 209:1.0 7273:1.0 32:1.0 9:1.0 210:1.0 35:1.0 347:1.0 40:1.0 
0.05551595742356345 68:1.0 208:1.0 28:1.0 71:1.0 209:1.0 7550:1.0 564:1.0 9:1.0 210:1.0 35:1.0 13:1.0 271:1.0 20:1.0 48:1.0 179:1.0 37:1.0 
0.13042216550641 2:1.0 208:1.0 131:1.0 5:1.0 1260:1.0 7:1.0 8:1.0 9:1.0 210:1.0 11:1.0 178:1.0 13:1.0 136:1.0 14:1.0 16:1.0 
0.09621759262729375 2:1.0 208:1.0 266:1.0 5:1.0 572:1.0 788:1.0 477:1.0 9:1.0 210:1.0 13:1.0 80:1.0 455:1.0 364:1.0 14:1.0 48:1.0 20:1.0 
0.2100840336134453 2:1.0 208:1.0 107:1.0 5:1.0 209:1.0 3402:1.0 32:1.0 9:1.0 210:1.0 35:1.0 179:1.0 14:1.0 
0.12612660770867426 2:1.0 208:1.0 1483:1.0 5:1.0 209:1.0 20747:1.0 486:1.0 9:1.0 210:1.0 141:1.0 13:1.0 136:1.0 20:1.0 
0.08985869595163885 2:1.0 208:1.0 232:1.0 733:1.0 209:1.0 291:1.0 8:1.0 9:1.0 210:1.0 13:1.0 11:1.0 12:1.0 20:1.0 136:1.0 237:1.0 16:1.0 
0.26622800594508195 2:1.0 208:1.0 107:1.0 517:1.0 209:1.0 5138:1.0 486:1.0 9:1.0 210:1.0 
0.3154761920283948 2:1.0 208:1.0 28:1.0 5:1.0 209:1.0 454:1.0 32:1.0 9:1.0 210:1.0 35:1.0 40:1.0 37:1.0 
0.08621216813572086 68:1.0 208:1.0 70:1.0 6163:1.0 209:1.0 5155:1.0 116:1.0 9:1.0 210:1.0 141:1.0 13:1.0 36:1.0 136:1.0 20:1.0 
0.18606944112379314 2:1.0 208:1.0 173:1.0 733:1.0 209:1.0 7861:1.0 128:1.0 9:1.0 210:1.0 178:1.0 245:1.0 179:1.0 164:1.0 
0.13225050164245702 2:1.0 208:1.0 28:1.0 5:1.0 209:1.0 17140:1.0 32:1.0 9:1.0 210:1.0 35:1.0 48:1.0 37:1.0 
0.05803625752560398 2:1.0 208:1.0 70:1.0 517:1.0 209:1.0 11009:1.0 32:1.0 9:1.0 210:1.0 35:1.0 13:1.0 141:1.0 14:1.0 61:1.0 136:1.0 37:1.0 55:1.0 
0.12235101099372944 2:1.0 208:1.0 4:1.0 5:1.0 209:1.0 216:1.0 8:1.0 9:1.0 210:1.0 11:1.0 3306:1.0 13:1.0 82:1.0 14:1.0 
0.10172579348551353 2:1.0 208:1.0 124:1.0 5:1.0 209:1.0 283:1.0 128:1.0 9:1.0 210:1.0 80:1.0 245:1.0 82:1.0 37:1.0 
0.10465878000643346 2:1.0 208:1.0 28:1.0 5:1.0 209:1.0 3059:1.0 278:1.0 9:1.0 210:1.0 35:1.0 13:1.0 48:1.0 620:1.0 82:1.0 
0.09116287034762592 2:1.0 208:1.0 76:1.0 5:1.0 209:1.0 7:1.0 8:1.0 9:1.0 210:1.0 13:1.0 11:1.0 12:1.0 20:1.0 82:1.0 15:1.0 16:1.0 83:1.0 
0.09735590034388261 2:1.0 208:1.0 4:1.0 4247:1.0 209:1.0 4584:1.0 8:1.0 9:1.0 210:1.0 81:1.0 11:1.0 13:1.0 37:1.0 82:1.0 16:1.0 
0.05049696239914091 122:1.0 42:1.0 131:1.0 396:1.0 24868:1.0 7:1.0 8:1.0 9:1.0 210:1.0 54:1.0 13:1.0 245:1.0 11:1.0 178:1.0 37:1.0 20:1.0 246:1.0 14:1.0 179:1.0 364:1.0 16:1.0 
0.14595848714106863 2:1.0 208:1.0 76:1.0 4597:1.0 209:1.0 24872:1.0 486:1.0 9:1.0 210:1.0 11:1.0 82:1.0 
0.11094936164785975 2:1.0 208:1.0 173:1.0 5:1.0 209:1.0 13183:1.0 176:1.0 9:1.0 210:1.0 80:1.0 81:1.0 82:1.0 37:1.0 
0.1298959073053749 2:1.0 208:1.0 173:1.0 1519:1.0 209:1.0 1198:1.0 176:1.0 9:1.0 210:1.0 538:1.0 246:1.0 
0.16995556759346428 2:1.0 208:1.0 107:1.0 517:1.0 209:1.0 9878:1.0 32:1.0 9:1.0 210:1.0 35:1.0 40:1.0 
0.08411600566421404 2:1.0 69:1.0 70:1.0 5:1.0 25283:1.0 6661:1.0 32:1.0 9:1.0 210:1.0 35:1.0 13:1.0 141:1.0 142:1.0 82:1.0 364:1.0 136:1.0 20:1.0 
0.1310574201771819 2:1.0 208:1.0 70:1.0 5:1.0 209:1.0 25285:1.0 486:1.0 9:1.0 210:1.0 141:1.0 136:1.0 207:1.0 
0.13939369730997958 2:1.0 208:1.0 70:1.0 5:1.0 209:1.0 25247:1.0 116:1.0 9:1.0 210:1.0 141:1.0 136:1.0 
0.28571428571428564 2:1.0 208:1.0 107:1.0 5:1.0 209:1.0 3376:1.0 32:1.0 9:1.0 210:1.0 
0.09116040356372657 2:1.0 261:1.0 266:1.0 5:1.0 3743:1.0 3863:1.0 32:1.0 9:1.0 210:1.0 80:1.0 13:1.0 14:1.0 20:1.0 
0.14341055810961936 122:1.0 208:1.0 201:1.0 25642:1.0 209:1.0 519:1.0 260:1.0 9:1.0 210:1.0 211:1.0 13:1.0 82:1.0 20:1.0 
0.10040004228754802 2:1.0 208:1.0 107:1.0 5:1.0 1260:1.0 7656:1.0 32:1.0 9:1.0 210:1.0 35:1.0 13:1.0 40:1.0 14:1.0 20:1.0 
0.14559715849285632 2:1.0 208:1.0 28:1.0 5:1.0 209:1.0 26377:1.0 32:1.0 9:1.0 210:1.0 35:1.0 899:1.0 
0.1615126507079738 2:1.0 208:1.0 28:1.0 5:1.0 209:1.0 18903:1.0 32:1.0 9:1.0 210:1.0 35:1.0 48:1.0 179:1.0 
0.37613965379592956 2:1.0 208:1.0 124:1.0 60:1.0 572:1.0 16440:1.0 477:1.0 9:1.0 210:1.0 
0.23144084397642023 2:1.0 208:1.0 28:1.0 517:1.0 209:1.0 26753:1.0 32:1.0 9:1.0 210:1.0 35:1.0 179:1.0 
0.2347951028719977 2:1.0 208:1.0 266:1.0 5:1.0 209:1.0 20592:1.0 477:1.0 9:1.0 210:1.0 80:1.0 14:1.0 
0.26041666666666663 2:1.0 208:1.0 266:1.0 5:1.0 209:1.0 4497:1.0 623:1.0 9:1.0 210:1.0 80:1.0 82:1.0 
0.07809463231777099 2:1.0 208:1.0 28:1.0 5:1.0 1260:1.0 2007:1.0 564:1.0 9:1.0 210:1.0 35:1.0 13:1.0 48:1.0 179:1.0 20:1.0 
0.23541958840023078 2:1.0 208:1.0 28:1.0 60:1.0 209:1.0 1671:1.0 32:1.0 9:1.0 210:1.0 35:1.0 48:1.0 179:1.0 
0.07985156185224794 2:1.0 208:1.0 131:1.0 517:1.0 1260:1.0 21511:1.0 8:1.0 9:1.0 210:1.0 81:1.0 13:1.0 206:1.0 80:1.0 157:1.0 20:1.0 136:1.0 246:1.0 14:1.0 16:1.0 
0.4807692395864859 2:1.0 208:1.0 28:1.0 5:1.0 209:1.0 200:1.0 32:1.0 9:1.0 210:1.0 
0.16236635062825366 2:1.0 208:1.0 266:1.0 517:1.0 209:1.0 1407:1.0 486:1.0 9:1.0 210:1.0 
0.1251311713693991 2:1.0 208:1.0 28:1.0 5:1.0 209:1.0 28447:1.0 32:1.0 9:1.0 210:1.0 35:1.0 13:1.0 48:1.0 20:1.0 
0.2813477489273781 2:1.0 208:1.0 107:1.0 5:1.0 209:1.0 11307:1.0 32:1.0 9:1.0 210:1.0 35:1.0 40:1.0 
0.24020185400537564 2:1.0 208:1.0 107:1.0 7720:1.0 209:1.0 3885:1.0 32:1.0 9:1.0 210:1.0 35:1.0 179:1.0 
0.1188947501181699 68:1.0 208:1.0 70:1.0 5359:1.0 209:1.0 1777:1.0 477:1.0 9:1.0 210:1.0 141:1.0 13:1.0 136:1.0 20:1.0 
0.0675994879450032 122:1.0 208:1.0 131:1.0 6475:1.0 1260:1.0 7:1.0 8:1.0 9:1.0 210:1.0 11:1.0 178:1.0 13:1.0 2032:1.0 14:1.0 20:1.0 16:1.0 
0.13485390690542137 2:1.0 208:1.0 266:1.0 517:1.0 209:1.0 1135:1.0 623:1.0 9:1.0 210:1.0 81:1.0 246:1.0 
0.060089605383320296 2:1.0 208:1.0 76:1.0 5:1.0 209:1.0 771:1.0 8:1.0 9:1.0 210:1.0 11:1.0 178:1.0 36:1.0 13:1.0 82:1.0 179:1.0 157:1.0 20:1.0 16:1.0 
0.1516234036815461 2:1.0 208:1.0 124:1.0 5:1.0 209:1.0 8420:1.0 128:1.0 9:1.0 210:1.0 80:1.0 14:1.0 
0.21432325076003148 2:1.0 208:1.0 28:1.0 5:1.0 209:1.0 2362:1.0 162:1.0 9:1.0 210:1.0 35:1.0 48:1.0 179:1.0 
0.14781629819127534 2:1.0 208:1.0 124:1.0 5:1.0 209:1.0 2347:1.0 623:1.0 9:1.0 210:1.0 81:1.0 14:1.0 
0.09530148937505589 2:1.0 208:1.0 28:1.0 517:1.0 209:1.0 1027:1.0 32:1.0 9:1.0 210:1.0 35:1.0 81:1.0 48:1.0 14:1.0 136:1.0 
0.04092595242169829 2:1.0 208:1.0 76:1.0 60:1.0 374:1.0 7:1.0 8:1.0 9:1.0 210:1.0 13:1.0 245:1.0 11:1.0 178:1.0 81:1.0 20:1.0 37:1.0 82:1.0 14:1.0 364:1.0 16:1.0 
0.07704413910712363 2:1.0 208:1.0 4:1.0 60:1.0 209:1.0 409:1.0 8:1.0 9:1.0 210:1.0 11:1.0 80:1.0 13:1.0 14:1.0 20:1.0 
0.0876520719702013 122:1.0 208:1.0 131:1.0 1766:1.0 209:1.0 7:1.0 162:1.0 9:1.0 210:1.0 11:1.0 178:1.0 13:1.0 2032:1.0 14:1.0 20:1.0 
0.09937701335038897 2:1.0 208:1.0 4:1.0 5:1.0 209:1.0 704:1.0 8:1.0 9:1.0 210:1.0 245:1.0 13:1.0 11:1.0 80:1.0 14:1.0 20:1.0 171:1.0 16:1.0 
0.19581748764181545 2:1.0 208:1.0 28:1.0 60:1.0 209:1.0 8458:1.0 32:1.0 9:1.0 210:1.0 35:1.0 48:1.0 14:1.0 
0.2570059929281891 2:1.0 208:1.0 107:1.0 5:1.0 209:1.0 4831:1.0 486:1.0 9:1.0 210:1.0 13:1.0 364:1.0 
0.05393192932145398 2:1.0 208:1.0 4:1.0 60:1.0 209:1.0 26613:1.0 8:1.0 9:1.0 210:1.0 11:1.0 245:1.0 81:1.0 171:1.0 37:1.0 246:1.0 16:1.0 
0.1942109656329869 2:1.0 208:1.0 266:1.0 5:1.0 209:1.0 22089:1.0 363:1.0 9:1.0 210:1.0 80:1.0 81:1.0 82:1.0 37:1.0 
0.0962981563677273 2:1.0 231:1.0 173:1.0 5:1.0 1525:1.0 4658:1.0 176:1.0 9:1.0 210:1.0 13:1.0 245:1.0 20:1.0 37:1.0 
0.11313694168485763 2:1.0 208:1.0 131:1.0 5313:1.0 209:1.0 2065:1.0 8:1.0 9:1.0 210:1.0 11:1.0 80:1.0 136:1.0 14:1.0 16:1.0 
0.18742008101474222 2:1.0 208:1.0 107:1.0 60:1.0 209:1.0 27239:1.0 32:1.0 9:1.0 210:1.0 35:1.0 48:1.0 899:1.0 
0.10150483332371524 2:1.0 208:1.0 257:1.0 5:1.0 209:1.0 6677:1.0 79:1.0 9:1.0 210:1.0 13:1.0 81:1.0 54:1.0 364:1.0 20:1.0 246:1.0 37:1.0 
500.0 2:1.0 208:1.0 257:1.0 5:1.0 209:1.0 6677:1.0 79:1.0 9:1.0 210:1.0 13:1.0 54:1.0 81:1.0 364:1.0 37:1.0 20:1.0 246:1.0 
0.09808240141774197 122:1.0 21:1.0 266:1.0 6475:1.0 11263:1.0 704:1.0 477:1.0 9:1.0 210:1.0 81:1.0 13:1.0 14:1.0 20:1.0 
0.17994691849407876 2:1.0 208:1.0 28:1.0 5:1.0 209:1.0 3305:1.0 162:1.0 9:1.0 210:1.0 35:1.0 13:1.0 48:1.0 179:1.0 20:1.0 
0.08729304022388218 2:1.0 208:1.0 70:1.0 5:1.0 209:1.0 7660:1.0 477:1.0 9:1.0 210:1.0 35:1.0 141:1.0 13:1.0 136:1.0 20:1.0 37:1.0 
0.29031473322152246 2:1.0 208:1.0 266:1.0 733:1.0 209:1.0 11015:1.0 32:1.0 9:1.0 210:1.0 
0.12575160050624784 2:1.0 208:1.0 28:1.0 5:1.0 209:1.0 946:1.0 162:1.0 9:1.0 210:1.0 35:1.0 48:1.0 14:1.0 164:1.0 
0.17361111111111102 2:1.0 208:1.0 28:1.0 60:1.0 209:1.0 9554:1.0 32:1.0 9:1.0 210:1.0 35:1.0 13:1.0 48:1.0 20:1.0 
0.07154254269596676 2:1.0 208:1.0 131:1.0 325:1.0 209:1.0 12720:1.0 8:1.0 9:1.0 210:1.0 13:1.0 11:1.0 217:1.0 14:1.0 164:1.0 16:1.0 
0.15402947390190488 2:1.0 208:1.0 28:1.0 5:1.0 209:1.0 9505:1.0 32:1.0 9:1.0 210:1.0 35:1.0 48:1.0 179:1.0 
0.11559941415886843 2:1.0 17:1.0 28:1.0 60:1.0 2850:1.0 21857:1.0 623:1.0 9:1.0 210:1.0 35:1.0 13:1.0 14:1.0 20:1.0 
0.056233663492776836 2:1.0 208:1.0 4:1.0 2535:1.0 209:1.0 4642:1.0 8:1.0 9:1.0 210:1.0 11:1.0 81:1.0 13:1.0 245:1.0 82:1.0 553:1.0 20:1.0 246:1.0 16:1.0 
0.08653695338213692 2:1.0 46:1.0 574:1.0 5:1.0 4501:1.0 17292:1.0 32:1.0 9:1.0 210:1.0 35:1.0 13:1.0 136:1.0 364:1.0 40:1.0 
0.09321326669701159 2:1.0 69:1.0 574:1.0 5:1.0 9678:1.0 8041:1.0 486:1.0 9:1.0 210:1.0 35:1.0 13:1.0 136:1.0 364:1.0 
0.16135582929545353 2:1.0 208:1.0 70:1.0 5:1.0 209:1.0 35096:1.0 486:1.0 9:1.0 210:1.0 35:1.0 13:1.0 40:1.0 364:1.0 
0.13649574734853612 2:1.0 208:1.0 131:1.0 5:1.0 209:1.0 244:1.0 363:1.0 9:1.0 210:1.0 11:1.0 80:1.0 136:1.0 14:1.0 
0.1102399736961138 122:1.0 208:1.0 131:1.0 7700:1.0 209:1.0 6364:1.0 8:1.0 9:1.0 210:1.0 11:1.0 80:1.0 13:1.0 14:1.0 16:1.0 
0.08368648356533774 2:1.0 208:1.0 107:1.0 5:1.0 1260:1.0 6110:1.0 116:1.0 9:1.0 210:1.0 35:1.0 13:1.0 14:1.0 179:1.0 20:1.0 
0.17761091060986947 2:1.0 208:1.0 28:1.0 5:1.0 209:1.0 12802:1.0 32:1.0 9:1.0 210:1.0 35:1.0 179:1.0 
0.07590843445850755 68:1.0 208:1.0 3695:1.0 3228:1.0 209:1.0 3696:1.0 3697:1.0 9:1.0 210:1.0 35:1.0 13:1.0 136:1.0 20:1.0 
0.2100840336134453 2:1.0 208:1.0 107:1.0 5:1.0 209:1.0 4772:1.0 486:1.0 9:1.0 210:1.0 35:1.0 179:1.0 14:1.0 
0.26041666666666663 2:1.0 208:1.0 107:1.0 5:1.0 209:1.0 462:1.0 162:1.0 9:1.0 210:1.0 35:1.0 347:1.0 
0.11178331740265005 2:1.0 208:1.0 28:1.0 5:1.0 209:1.0 1917:1.0 486:1.0 9:1.0 210:1.0 35:1.0 13:1.0 48:1.0 179:1.0 265:1.0 20:1.0 
0.21525474625694485 2:1.0 208:1.0 124:1.0 7746:1.0 1260:1.0 2898:1.0 2910:1.0 9:1.0 210:1.0 614:1.0 246:1.0 
0.09018291671150089 2:1.0 152:1.0 131:1.0 330:1.0 1979:1.0 3011:1.0 8:1.0 9:1.0 210:1.0 13:1.0 80:1.0 20:1.0 14:1.0 82:1.0 16:1.0 
0.19963213856022474 2:1.0 208:1.0 124:1.0 5:1.0 209:1.0 6554:1.0 477:1.0 9:1.0 210:1.0 
0.09982646320060683 2:1.0 231:1.0 173:1.0 284:1.0 4433:1.0 2760:1.0 128:1.0 9:1.0 210:1.0 13:1.0 20:1.0 
0.05755206711285801 2:1.0 42:1.0 76:1.0 5:1.0 429:1.0 7:1.0 8:1.0 9:1.0 210:1.0 13:1.0 11:1.0 12:1.0 20:1.0 82:1.0 265:1.0 364:1.0 16:1.0 
0.19798816037060962 2:1.0 208:1.0 28:1.0 517:1.0 7049:1.0 6059:1.0 477:1.0 9:1.0 210:1.0 35:1.0 48:1.0 179:1.0 
0.11576177248619053 2:1.0 208:1.0 28:1.0 5:1.0 209:1.0 36801:1.0 32:1.0 9:1.0 210:1.0 35:1.0 1200:1.0 48:1.0 40:1.0 
0.303571427963218 2:1.0 208:1.0 28:1.0 5:1.0 209:1.0 36762:1.0 32:1.0 9:1.0 210:1.0 
0.11046251903949313 2:1.0 208:1.0 28:1.0 5:1.0 1260:1.0 1747:1.0 162:1.0 9:1.0 210:1.0 35:1.0 48:1.0 179:1.0 
0.15269393256557587 2:1.0 208:1.0 28:1.0 5:1.0 209:1.0 859:1.0 486:1.0 9:1.0 210:1.0 35:1.0 347:1.0 179:1.0 
0.15583018223692496 2:1.0 85:1.0 107:1.0 60:1.0 227:1.0 3061:1.0 116:1.0 9:1.0 210:1.0 35:1.0 13:1.0 40:1.0 20:1.0 
0.16339869242852337 2:1.0 17:1.0 107:1.0 60:1.0 37421:1.0 3061:1.0 486:1.0 9:1.0 210:1.0 35:1.0 13:1.0 40:1.0 20:1.0 
0.24652028513768257 2:1.0 208:1.0 28:1.0 60:1.0 209:1.0 37422:1.0 486:1.0 9:1.0 210:1.0 13:1.0 20:1.0 
0.13602478244262692 2:1.0 208:1.0 4:1.0 330:1.0 209:1.0 788:1.0 8:1.0 9:1.0 210:1.0 13:1.0 11:1.0 80:1.0 20:1.0 171:1.0 136:1.0 16:1.0 
0.07709076480896548 2:1.0 208:1.0 232:1.0 5:1.0 209:1.0 235:1.0 195:1.0 9:1.0 210:1.0 11:1.0 12:1.0 82:1.0 237:1.0 
0.11849217144654108 2:1.0 208:1.0 4:1.0 60:1.0 209:1.0 7:1.0 162:1.0 9:1.0 210:1.0 11:1.0 178:1.0 13:1.0 136:1.0 14:1.0 20:1.0 
0.16573844401371565 122:1.0 208:1.0 173:1.0 1265:1.0 209:1.0 1500:1.0 176:1.0 9:1.0 210:1.0 81:1.0 470:1.0 
0.07800806675834035 122:1.0 152:1.0 76:1.0 6475:1.0 234:1.0 6793:1.0 195:1.0 9:1.0 210:1.0 11:1.0 13:1.0 171:1.0 20:1.0 
0.11963086240685804 2:1.0 208:1.0 4:1.0 733:1.0 209:1.0 3818:1.0 260:1.0 9:1.0 210:1.0 11:1.0 81:1.0 469:1.0 37:1.0 
0.120867958199733 2:1.0 208:1.0 124:1.0 5:1.0 209:1.0 597:1.0 128:1.0 9:1.0 210:1.0 81:1.0 14:1.0 
0.18726591760299618 2:1.0 208:1.0 107:1.0 5:1.0 209:1.0 6372:1.0 162:1.0 9:1.0 210:1.0 35:1.0 13:1.0 40:1.0 179:1.0 20:1.0 
0.11330584916855681 2:1.0 208:1.0 107:1.0 5:1.0 209:1.0 2979:1.0 162:1.0 9:1.0 210:1.0 35:1.0 179:1.0 
0.24779735648269968 2:1.0 208:1.0 28:1.0 5:1.0 209:1.0 506:1.0 5558:1.0 9:1.0 210:1.0 35:1.0 179:1.0 
1.1194394176790432 2:1.0 208:1.0 28:1.0 5:1.0 209:1.0 5372:1.0 162:1.0 9:1.0 210:1.0 35:1.0 15:1.0 
0.10737244737294907 2:1.0 241:1.0 28:1.0 5:1.0 619:1.0 7305:1.0 32:1.0 9:1.0 210:1.0 35:1.0 179:1.0 
0.11649766017064782 2:1.0 208:1.0 4:1.0 5:1.0 572:1.0 4658:1.0 486:1.0 9:1.0 210:1.0 
0.10933515593083615 2:1.0 208:1.0 173:1.0 5:1.0 209:1.0 1189:1.0 128:1.0 9:1.0 210:1.0 725:1.0 80:1.0 726:1.0 82:1.0 
0.0468826438973722 2:1.0 231:1.0 131:1.0 5:1.0 12002:1.0 683:1.0 8:1.0 9:1.0 210:1.0 13:1.0 11:1.0 80:1.0 20:1.0 171:1.0 14:1.0 364:1.0 61:1.0 16:1.0 
0.26041666666666663 2:1.0 208:1.0 28:1.0 60:1.0 209:1.0 2482:1.0 486:1.0 9:1.0 210:1.0 35:1.0 470:1.0 
0.1828883846443198 2:1.0 208:1.0 76:1.0 5:1.0 209:1.0 6793:1.0 260:1.0 9:1.0 210:1.0 11:1.0 469:1.0 
0.11233325029280397 2:1.0 208:1.0 76:1.0 5:1.0 572:1.0 788:1.0 260:1.0 9:1.0 210:1.0 11:1.0 80:1.0 82:1.0 
0.12860429858281913 2:1.0 208:1.0 131:1.0 60:1.0 209:1.0 827:1.0 8:1.0 9:1.0 210:1.0 81:1.0 11:1.0 80:1.0 13:1.0 14:1.0 171:1.0 20:1.0 16:1.0 
0.26041666666666663 2:1.0 208:1.0 107:1.0 5:1.0 209:1.0 6295:1.0 564:1.0 9:1.0 210:1.0 35:1.0 179:1.0 
0.17667941143749505 2:1.0 208:1.0 28:1.0 5:1.0 209:1.0 16015:1.0 116:1.0 9:1.0 210:1.0 35:1.0 48:1.0 179:1.0 
0.09840591594588408 2:1.0 208:1.0 232:1.0 5:1.0 209:1.0 291:1.0 8:1.0 9:1.0 210:1.0 13:1.0 11:1.0 12:1.0 20:1.0 82:1.0 237:1.0 16:1.0 
0.14820976696885108 2:1.0 208:1.0 124:1.0 517:1.0 209:1.0 398:1.0 128:1.0 9:1.0 210:1.0 80:1.0 14:1.0 
1.9811309446490517 2:1.0 208:1.0 28:1.0 60:1.0 209:1.0 3668:1.0 477:1.0 9:1.0 210:1.0 35:1.0 48:1.0 
0.06754651155216587 122:1.0 208:1.0 76:1.0 6475:1.0 209:1.0 2148:1.0 8:1.0 9:1.0 210:1.0 11:1.0 178:1.0 13:1.0 171:1.0 14:1.0 364:1.0 16:1.0 55:1.0 
0.23347896863910714 2:1.0 208:1.0 4:1.0 5:1.0 209:1.0 134:1.0 260:1.0 9:1.0 210:1.0 11:1.0 80:1.0 469:1.0 14:1.0 
0.049220597265540796 2:1.0 460:1.0 76:1.0 5:1.0 2989:1.0 244:1.0 8:1.0 9:1.0 210:1.0 13:1.0 11:1.0 12:1.0 20:1.0 136:1.0 15:1.0 364:1.0 16:1.0 
0.10399480488786096 2:1.0 69:1.0 70:1.0 330:1.0 14007:1.0 39847:1.0 2910:1.0 9:1.0 210:1.0 13:1.0 117:1.0 20:1.0 48:1.0 
0.07048786074732605 2:1.0 208:1.0 4:1.0 60:1.0 209:1.0 943:1.0 8:1.0 9:1.0 210:1.0 81:1.0 13:1.0 11:1.0 37:1.0 20:1.0 171:1.0 16:1.0 
0.411982918417396 2:1.0 208:1.0 510:1.0 5:1.0 1260:1.0 513:1.0 564:1.0 9:1.0 210:1.0 206:1.0 54:1.0 246:1.0 20:1.0 37:1.0 
0.22535789095294528 2:1.0 208:1.0 574:1.0 5:1.0 209:1.0 5518:1.0 477:1.0 9:1.0 210:1.0 
0.22464730510323214 2:1.0 208:1.0 28:1.0 60:1.0 209:1.0 3668:1.0 564:1.0 9:1.0 210:1.0 35:1.0 48:1.0 37:1.0 
0.08841396605573999 2:1.0 208:1.0 124:1.0 5:1.0 209:1.0 768:1.0 128:1.0 9:1.0 210:1.0 455:1.0 81:1.0 13:1.0 40:1.0 37:1.0 20:1.0 
0.09972634578905723 122:1.0 208:1.0 28:1.0 24156:1.0 209:1.0 454:1.0 3308:1.0 9:1.0 210:1.0 35:1.0 81:1.0 13:1.0 40:1.0 37:1.0 20:1.0 
0.15726275275329213 2:1.0 208:1.0 28:1.0 5:1.0 209:1.0 8423:1.0 116:1.0 9:1.0 210:1.0 35:1.0 81:1.0 48:1.0 37:1.0 
0.0731635444985254 2:1.0 208:1.0 674:1.0 733:1.0 209:1.0 677:1.0 486:1.0 9:1.0 210:1.0 455:1.0 13:1.0 40:1.0 164:1.0 671:1.0 20:1.0 
0.08433865094786702 2:1.0 85:1.0 70:1.0 5:1.0 1669:1.0 6277:1.0 32:1.0 9:1.0 210:1.0 141:1.0 13:1.0 136:1.0 20:1.0 
0.31407995629411106 2:1.0 208:1.0 124:1.0 5:1.0 209:1.0 5721:1.0 128:1.0 9:1.0 210:1.0 
0.38010019680518686 2:1.0 208:1.0 107:1.0 517:1.0 209:1.0 3333:1.0 32:1.0 9:1.0 210:1.0 
0.1993291411856717 2:1.0 208:1.0 107:1.0 60:1.0 209:1.0 828:1.0 486:1.0 9:1.0 210:1.0 35:1.0 179:1.0 14:1.0 
0.9596852522626567 2:1.0 208:1.0 124:1.0 5:1.0 209:1.0 597:1.0 477:1.0 9:1.0 210:1.0 
0.19248508934580652 2:1.0 208:1.0 28:1.0 517:1.0 209:1.0 445:1.0 32:1.0 9:1.0 210:1.0 35:1.0 14:1.0 1025:1.0 48:1.0 
0.16759763571809982 2:1.0 208:1.0 28:1.0 5:1.0 209:1.0 3972:1.0 477:1.0 9:1.0 210:1.0 35:1.0 13:1.0 48:1.0 20:1.0 
0.1237457474186178 2:1.0 208:1.0 173:1.0 5:1.0 572:1.0 398:1.0 162:1.0 9:1.0 210:1.0 80:1.0 81:1.0 13:1.0 171:1.0 246:1.0 55:1.0 
0.06588032880386131 2:1.0 208:1.0 131:1.0 5:1.0 1260:1.0 7:1.0 8:1.0 9:1.0 210:1.0 13:1.0 11:1.0 178:1.0 61:1.0 171:1.0 179:1.0 20:1.0 16:1.0 
0.24245668976460882 68:1.0 208:1.0 28:1.0 19735:1.0 209:1.0 6274:1.0 477:1.0 9:1.0 210:1.0 48:1.0 
0.09211400882171167 2:1.0 85:1.0 107:1.0 5:1.0 5333:1.0 2578:1.0 486:1.0 9:1.0 210:1.0 13:1.0 20:1.0 
0.1233934322970583 122:1.0 85:1.0 107:1.0 4029:1.0 10456:1.0 2578:1.0 116:1.0 9:1.0 210:1.0 13:1.0 20:1.0 
0.150759108859624 2:1.0 208:1.0 124:1.0 5:1.0 209:1.0 34025:1.0 128:1.0 9:1.0 210:1.0 455:1.0 37:1.0 
0.09160318972757255 2:1.0 208:1.0 131:1.0 5:1.0 209:1.0 17029:1.0 260:1.0 9:1.0 210:1.0 11:1.0 80:1.0 334:1.0 14:1.0 
0.06530480025909853 172:1.0 208:1.0 76:1.0 5908:1.0 572:1.0 16046:1.0 195:1.0 9:1.0 210:1.0 11:1.0 80:1.0 13:1.0 245:1.0 82:1.0 171:1.0 20:1.0 265:1.0 
0.04013378725255535 2:1.0 42:1.0 131:1.0 5:1.0 234:1.0 7:1.0 8:1.0 9:1.0 210:1.0 455:1.0 13:1.0 11:1.0 245:1.0 12:1.0 207:1.0 20:1.0 14:1.0 37:1.0 265:1.0 364:1.0 16:1.0 
0.06354298909318419 122:1.0 208:1.0 173:1.0 1766:1.0 209:1.0 426:1.0 128:1.0 9:1.0 210:1.0 80:1.0 13:1.0 81:1.0 14:1.0 364:1.0 37:1.0 
0.08468305353580594 2:1.0 208:1.0 131:1.0 5:1.0 209:1.0 6632:1.0 162:1.0 9:1.0 210:1.0 11:1.0 80:1.0 171:1.0 82:1.0 
0.3117996780998609 2:1.0 208:1.0 574:1.0 5:1.0 209:1.0 575:1.0 477:1.0 9:1.0 210:1.0 
0.13576165385067757 2:1.0 17:1.0 28:1.0 5:1.0 43341:1.0 1410:1.0 32:1.0 9:1.0 210:1.0 35:1.0 13:1.0 48:1.0 20:1.0 
0.18330963224230692 2:1.0 208:1.0 28:1.0 5:1.0 209:1.0 26461:1.0 486:1.0 9:1.0 210:1.0 35:1.0 13:1.0 48:1.0 20:1.0 
0.1256771439583801 2:1.0 208:1.0 173:1.0 60:1.0 209:1.0 24253:1.0 176:1.0 9:1.0 210:1.0 80:1.0 14:1.0 
1.1904761904761894 2:1.0 208:1.0 107:1.0 5:1.0 209:1.0 169:1.0 32:1.0 9:1.0 210:1.0 35:1.0 179:1.0 
0.09492192686667948 2:1.0 208:1.0 4:1.0 5:1.0 572:1.0 17167:1.0 260:1.0 9:1.0 210:1.0 11:1.0 81:1.0 14:1.0 37:1.0 
0.08465994342239384 2:1.0 208:1.0 4:1.0 60:1.0 209:1.0 6364:1.0 8:1.0 9:1.0 210:1.0 11:1.0 80:1.0 13:1.0 82:1.0 14:1.0 16:1.0 
0.23255813953488377 2:1.0 208:1.0 28:1.0 5:1.0 209:1.0 6401:1.0 486:1.0 9:1.0 210:1.0 35:1.0 48:1.0 
0.11316846990269659 2:1.0 85:1.0 107:1.0 5:1.0 2375:1.0 5530:1.0 32:1.0 9:1.0 210:1.0 35:1.0 13:1.0 15:1.0 20:1.0 
0.2325581395348837 2:1.0 208:1.0 107:1.0 5:1.0 209:1.0 2378:1.0 486:1.0 9:1.0 210:1.0 35:1.0 899:1.0 14:1.0 
0.19391490965900215 2:1.0 208:1.0 173:1.0 5:1.0 3604:1.0 1407:1.0 128:1.0 9:1.0 210:1.0 81:1.0 37:1.0 
0.2756779932290677 2:1.0 208:1.0 266:1.0 60:1.0 209:1.0 5189:1.0 128:1.0 9:1.0 210:1.0 80:1.0 82:1.0 
0.06412422204368895 2:1.0 460:1.0 124:1.0 5:1.0 3433:1.0 975:1.0 128:1.0 9:1.0 210:1.0 725:1.0 80:1.0 13:1.0 726:1.0 82:1.0 20:1.0 
0.23255813953488377 2:1.0 208:1.0 28:1.0 5:1.0 209:1.0 3942:1.0 32:1.0 9:1.0 210:1.0 35:1.0 48:1.0 
0.2100840336134454 2:1.0 208:1.0 28:1.0 5:1.0 209:1.0 7710:1.0 32:1.0 9:1.0 210:1.0 35:1.0 48:1.0 14:1.0 
0.3289473684210526 2:1.0 208:1.0 124:1.0 5:1.0 209:1.0 1717:1.0 128:1.0 9:1.0 210:1.0 
0.045466483869446114 2:1.0 297:1.0 4:1.0 5:1.0 499:1.0 4097:1.0 8:1.0 9:1.0 210:1.0 13:1.0 11:1.0 80:1.0 20:1.0 136:1.0 157:1.0 364:1.0 61:1.0 16:1.0 
0.18500500239224676 2:1.0 208:1.0 28:1.0 60:1.0 209:1.0 22223:1.0 477:1.0 9:1.0 210:1.0 35:1.0 48:1.0 179:1.0 
0.23115411753127438 2:1.0 208:1.0 173:1.0 2535:1.0 209:1.0 859:1.0 278:1.0 9:1.0 210:1.0 80:1.0 171:1.0 
0.06203193058820677 122:1.0 62:1.0 4:1.0 2703:1.0 374:1.0 7:1.0 8:1.0 9:1.0 210:1.0 11:1.0 178:1.0 13:1.0 14:1.0 246:1.0 20:1.0 16:1.0 
0.10871138391657481 2:1.0 208:1.0 28:1.0 5:1.0 209:1.0 44423:1.0 32:1.0 9:1.0 210:1.0 35:1.0 48:1.0 15:1.0 14:1.0 
0.05651876311447055 2:1.0 208:1.0 131:1.0 5:1.0 209:1.0 7:1.0 8:1.0 9:1.0 210:1.0 81:1.0 13:1.0 11:1.0 1675:1.0 37:1.0 20:1.0 14:1.0 246:1.0 364:1.0 16:1.0 
0.1940650530449084 2:1.0 208:1.0 124:1.0 5:1.0 209:1.0 16948:1.0 623:1.0 9:1.0 210:1.0 
0.13560437375822287 2:1.0 208:1.0 28:1.0 60:1.0 209:1.0 11030:1.0 486:1.0 9:1.0 210:1.0 1200:1.0 35:1.0 1025:1.0 207:1.0 179:1.0 
0.18970612087154257 2:1.0 208:1.0 28:1.0 5:1.0 209:1.0 29332:1.0 116:1.0 9:1.0 210:1.0 35:1.0 48:1.0 15:1.0 
0.06915420268071513 122:1.0 297:1.0 4:1.0 1766:1.0 298:1.0 1020:1.0 8:1.0 9:1.0 210:1.0 13:1.0 11:1.0 12:1.0 136:1.0 15:1.0 364:1.0 16:1.0 
0.26041666666666663 2:1.0 208:1.0 107:1.0 5:1.0 209:1.0 7157:1.0 162:1.0 9:1.0 210:1.0 35:1.0 40:1.0 
0.09333989423292414 2:1.0 208:1.0 4:1.0 60:1.0 209:1.0 6288:1.0 486:1.0 9:1.0 210:1.0 11:1.0 245:1.0 81:1.0 13:1.0 82:1.0 37:1.0 20:1.0 
0.15245204283988373 2:1.0 208:1.0 28:1.0 5:1.0 209:1.0 3305:1.0 32:1.0 9:1.0 210:1.0 35:1.0 48:1.0 14:1.0 
0.10458183277390364 2:1.0 208:1.0 76:1.0 4817:1.0 209:1.0 4658:1.0 260:1.0 9:1.0 210:1.0 11:1.0 334:1.0 
0.05483082624157093 2:1.0 297:1.0 131:1.0 5:1.0 298:1.0 1215:1.0 8:1.0 9:1.0 210:1.0 13:1.0 11:1.0 20:1.0 14:1.0 364:1.0 61:1.0 16:1.0 55:1.0 
0.06840442922252835 2:1.0 17:1.0 28:1.0 5:1.0 5064:1.0 5065:1.0 32:1.0 9:1.0 210:1.0 35:1.0 13:1.0 48:1.0 136:1.0 20:1.0 38:1.0 
0.10007077119993993 2:1.0 208:1.0 28:1.0 5:1.0 209:1.0 5065:1.0 486:1.0 9:1.0 210:1.0 35:1.0 13:1.0 136:1.0 20:1.0 
0.060068562564993905 2:1.0 208:1.0 131:1.0 5:1.0 209:1.0 361:1.0 8:1.0 9:1.0 210:1.0 11:1.0 245:1.0 80:1.0 13:1.0 14:1.0 246:1.0 82:1.0 16:1.0 
0.2488368510037399 2:1.0 208:1.0 107:1.0 31252:1.0 209:1.0 875:1.0 162:1.0 9:1.0 210:1.0 35:1.0 14:1.0 
0.11742561466532717 1283:1.0 208:1.0 76:1.0 4601:1.0 209:1.0 6789:1.0 260:1.0 9:1.0 210:1.0 11:1.0 245:1.0 82:1.0 1025:1.0 179:1.0 
0.06058728751919997 2:1.0 208:1.0 131:1.0 5:1.0 209:1.0 3944:1.0 260:1.0 9:1.0 210:1.0 11:1.0 178:1.0 725:1.0 245:1.0 14:1.0 171:1.0 726:1.0 164:1.0 
0.3026979780221033 2:1.0 208:1.0 266:1.0 5:1.0 209:1.0 398:1.0 32:1.0 9:1.0 210:1.0 80:1.0 14:1.0 
0.08076340625497906 2:1.0 85:1.0 107:1.0 5:1.0 45475:1.0 45474:1.0 162:1.0 9:1.0 210:1.0 35:1.0 13:1.0 305:1.0 20:1.0 
0.1254507056383182 122:1.0 208:1.0 107:1.0 745:1.0 209:1.0 43907:1.0 486:1.0 9:1.0 210:1.0 35:1.0 13:1.0 15:1.0 14:1.0 20:1.0 
0.04457845323632286 68:1.0 62:1.0 4:1.0 17891:1.0 732:1.0 244:1.0 564:1.0 9:1.0 210:1.0 35:1.0 13:1.0 11:1.0 80:1.0 136:1.0 20:1.0 334:1.0 671:1.0 364:1.0 
0.10047051518873377 2:1.0 17:1.0 28:1.0 5:1.0 3851:1.0 3333:1.0 32:1.0 9:1.0 210:1.0 35:1.0 13:1.0 48:1.0 20:1.0 
0.07885170409869866 2:1.0 208:1.0 131:1.0 2981:1.0 209:1.0 1908:1.0 8:1.0 9:1.0 210:1.0 13:1.0 11:1.0 217:1.0 20:1.0 14:1.0 37:1.0 16:1.0 
0.08376902473002495 2:1.0 208:1.0 76:1.0 1275:1.0 209:1.0 18178:1.0 8:1.0 9:1.0 210:1.0 13:1.0 11:1.0 80:1.0 245:1.0 20:1.0 82:1.0 37:1.0 16:1.0 
0.05650667616321448 2:1.0 241:1.0 173:1.0 517:1.0 1082:1.0 2741:1.0 8:1.0 9:1.0 210:1.0 13:1.0 11:1.0 245:1.0 20:1.0 136:1.0 37:1.0 16:1.0 
0.18409136554324734 2:1.0 85:1.0 28:1.0 5:1.0 5513:1.0 200:1.0 32:1.0 9:1.0 210:1.0 20:1.0 
0.07806608004585866 2:1.0 208:1.0 76:1.0 60:1.0 209:1.0 6170:1.0 8:1.0 9:1.0 210:1.0 11:1.0 13:1.0 82:1.0 16:1.0 
0.2443560162139985 2:1.0 208:1.0 510:1.0 5:1.0 572:1.0 33663:1.0 623:1.0 9:1.0 210:1.0 
0.28170206189171404 2:1.0 208:1.0 28:1.0 5:1.0 209:1.0 4831:1.0 116:1.0 9:1.0 210:1.0 35:1.0 48:1.0 
0.11850859655439994 122:1.0 208:1.0 4:1.0 2703:1.0 209:1.0 398:1.0 8:1.0 9:1.0 210:1.0 13:1.0 20:1.0 16:1.0 
0.24657585985405217 2:1.0 208:1.0 28:1.0 517:1.0 572:1.0 3242:1.0 32:1.0 9:1.0 210:1.0 35:1.0 14:1.0 37:1.0 
0.1228889763307862 2:1.0 208:1.0 4:1.0 5:1.0 1260:1.0 3818:1.0 8:1.0 9:1.0 210:1.0 11:1.0 13:1.0 271:1.0 16:1.0 
0.04785504231649215 2:1.0 460:1.0 4:1.0 5:1.0 4046:1.0 4140:1.0 8:1.0 9:1.0 210:1.0 54:1.0 13:1.0 11:1.0 81:1.0 246:1.0 20:1.0 82:1.0 37:1.0 16:1.0 
0.06700529471640791 2:1.0 241:1.0 28:1.0 517:1.0 243:1.0 1602:1.0 486:1.0 9:1.0 210:1.0 35:1.0 13:1.0 48:1.0 179:1.0 20:1.0 
0.10803931787744055 2:1.0 208:1.0 674:1.0 5:1.0 12337:1.0 677:1.0 564:1.0 9:1.0 210:1.0 35:1.0 40:1.0 
0.17973076018997097 2:1.0 208:1.0 107:1.0 5:1.0 209:1.0 216:1.0 32:1.0 9:1.0 210:1.0 
0.08767219940625097 224:1.0 208:1.0 28:1.0 225:1.0 209:1.0 46863:1.0 116:1.0 9:1.0 210:1.0 35:1.0 48:1.0 179:1.0 
0.11652001182961062 2:1.0 208:1.0 107:1.0 60:1.0 209:1.0 2033:1.0 486:1.0 9:1.0 210:1.0 35:1.0 13:1.0 265:1.0 20:1.0 
0.15160695628544796 2:1.0 208:1.0 28:1.0 5:1.0 209:1.0 216:1.0 32:1.0 9:1.0 210:1.0 35:1.0 48:1.0 14:1.0 
0.1633595514668318 2:1.0 208:1.0 107:1.0 5:1.0 209:1.0 321:1.0 162:1.0 9:1.0 210:1.0 13:1.0 35:1.0 20:1.0 265:1.0 
0.07133214843300334 2:1.0 208:1.0 4:1.0 5:1.0 209:1.0 3305:1.0 8:1.0 9:1.0 210:1.0 11:1.0 538:1.0 13:1.0 171:1.0 246:1.0 16:1.0 
0.11957502815952824 2:1.0 208:1.0 173:1.0 5:1.0 209:1.0 975:1.0 176:1.0 9:1.0 210:1.0 725:1.0 80:1.0 726:1.0 14:1.0 
0.14235369754522437 2:1.0 208:1.0 107:1.0 2535:1.0 209:1.0 5457:1.0 116:1.0 9:1.0 210:1.0 13:1.0 40:1.0 136:1.0 20:1.0 
0.13040562122897786 2:1.0 208:1.0 28:1.0 5:1.0 209:1.0 8905:1.0 486:1.0 9:1.0 210:1.0 35:1.0 13:1.0 48:1.0 82:1.0 20:1.0 
0.13372736379847977 2:1.0 208:1.0 107:1.0 5:1.0 209:1.0 1419:1.0 162:1.0 9:1.0 210:1.0 35:1.0 13:1.0 899:1.0 37:1.0 20:1.0 
0.1143543582640068 2:1.0 208:1.0 70:1.0 5:1.0 209:1.0 858:1.0 486:1.0 9:1.0 210:1.0 35:1.0 141:1.0 48:1.0 136:1.0 
0.34126413933475086 2:1.0 208:1.0 107:1.0 5:1.0 572:1.0 583:1.0 32:1.0 9:1.0 210:1.0 
0.21564151925249575 2:1.0 208:1.0 107:1.0 5:1.0 209:1.0 10726:1.0 32:1.0 9:1.0 210:1.0 35:1.0 179:1.0 
0.07203914023750077 2:1.0 208:1.0 4:1.0 4247:1.0 1260:1.0 7:1.0 162:1.0 9:1.0 210:1.0 13:1.0 11:1.0 178:1.0 61:1.0 82:1.0 14:1.0 16:1.0 55:1.0 
0.09271196880864455 2:1.0 208:1.0 28:1.0 5:1.0 209:1.0 4584:1.0 116:1.0 9:1.0 210:1.0 35:1.0 48:1.0 179:1.0 14:1.0 
0.09268145550855356 2:1.0 460:1.0 4:1.0 4597:1.0 10282:1.0 15677:1.0 8:1.0 9:1.0 210:1.0 13:1.0 11:1.0 80:1.0 20:1.0 14:1.0 16:1.0 
0.05087773190895899 2:1.0 152:1.0 4:1.0 4247:1.0 7847:1.0 960:1.0 8:1.0 9:1.0 210:1.0 54:1.0 13:1.0 11:1.0 245:1.0 80:1.0 164:1.0 20:1.0 14:1.0 246:1.0 364:1.0 16:1.0 
0.17114829590130134 2:1.0 208:1.0 107:1.0 5:1.0 209:1.0 47684:1.0 32:1.0 9:1.0 210:1.0 35:1.0 13:1.0 14:1.0 20:1.0 
0.10521121762855155 2:1.0 208:1.0 70:1.0 60:1.0 209:1.0 12355:1.0 162:1.0 9:1.0 210:1.0 35:1.0 13:1.0 136:1.0 48:1.0 20:1.0 
0.3207514274701913 2:1.0 208:1.0 124:1.0 5:1.0 209:1.0 3144:1.0 128:1.0 9:1.0 210:1.0 
0.23439435236716846 2:1.0 208:1.0 107:1.0 60:1.0 209:1.0 2033:1.0 162:1.0 9:1.0 210:1.0 35:1.0 265:1.0 
0.3681709605589325 2:1.0 208:1.0 107:1.0 60:1.0 209:1.0 31043:1.0 32:1.0 9:1.0 210:1.0 
0.07784431047683518 2:1.0 208:1.0 4:1.0 517:1.0 209:1.0 3305:1.0 486:1.0 9:1.0 210:1.0 11:1.0 3306:1.0 217:1.0 136:1.0 14:1.0 164:1.0 
0.06196173208864313 2:1.0 208:1.0 4:1.0 5:1.0 209:1.0 3818:1.0 8:1.0 9:1.0 210:1.0 11:1.0 3306:1.0 217:1.0 13:1.0 136:1.0 14:1.0 164:1.0 16:1.0 
0.08452179462597963 68:1.0 208:1.0 70:1.0 20562:1.0 209:1.0 6387:1.0 116:1.0 9:1.0 210:1.0 141:1.0 142:1.0 13:1.0 271:1.0 136:1.0 20:1.0 
0.17011487155541727 2:1.0 208:1.0 28:1.0 5:1.0 209:1.0 8494:1.0 486:1.0 9:1.0 210:1.0 35:1.0 48:1.0 14:1.0 
0.19573597510826993 2:1.0 208:1.0 28:1.0 5:1.0 209:1.0 2184:1.0 162:1.0 9:1.0 210:1.0 141:1.0 136:1.0 
0.1704569850295376 2:1.0 208:1.0 674:1.0 5:1.0 209:1.0 677:1.0 32:1.0 9:1.0 210:1.0 35:1.0 40:1.0 
0.2511861799808795 2:1.0 208:1.0 28:1.0 60:1.0 1260:1.0 2035:1.0 162:1.0 9:1.0 210:1.0 179:1.0 
0.07538210351720508 68:1.0 208:1.0 107:1.0 4263:1.0 209:1.0 22015:1.0 116:1.0 9:1.0 210:1.0 35:1.0 13:1.0 136:1.0 20:1.0 14:1.0 82:1.0 40:1.0 37:1.0 
0.06600805808964415 68:1.0 208:1.0 28:1.0 4263:1.0 1260:1.0 2035:1.0 260:1.0 9:1.0 210:1.0 13:1.0 136:1.0 20:1.0 14:1.0 82:1.0 48:1.0 164:1.0 
0.07963730565689647 68:1.0 208:1.0 28:1.0 25918:1.0 209:1.0 2035:1.0 8:1.0 9:1.0 210:1.0 13:1.0 136:1.0 20:1.0 14:1.0 82:1.0 48:1.0 179:1.0 16:1.0 
0.09157655738717795 68:1.0 208:1.0 28:1.0 2452:1.0 209:1.0 2035:1.0 260:1.0 9:1.0 210:1.0 13:1.0 82:1.0 20:1.0 14:1.0 48:1.0 179:1.0 164:1.0 
0.08366353207388515 68:1.0 208:1.0 107:1.0 6849:1.0 209:1.0 8756:1.0 8:1.0 9:1.0 210:1.0 35:1.0 13:1.0 136:1.0 20:1.0 14:1.0 82:1.0 48:1.0 179:1.0 16:1.0 
0.13926082412678517 2:1.0 208:1.0 70:1.0 5:1.0 209:1.0 21438:1.0 116:1.0 9:1.0 210:1.0 141:1.0 136:1.0 
0.22471045550245164 2:1.0 208:1.0 173:1.0 517:1.0 209:1.0 2760:1.0 128:1.0 9:1.0 210:1.0 80:1.0 82:1.0 
0.08512284824276041 2:1.0 261:1.0 266:1.0 5:1.0 15199:1.0 930:1.0 477:1.0 9:1.0 210:1.0 538:1.0 80:1.0 13:1.0 246:1.0 14:1.0 20:1.0 
0.14413032821009392 2:1.0 208:1.0 107:1.0 5:1.0 209:1.0 663:1.0 486:1.0 9:1.0 210:1.0 35:1.0 13:1.0 48:1.0 14:1.0 20:1.0 
0.143850881448178 2:1.0 17:1.0 107:1.0 5:1.0 4712:1.0 216:1.0 32:1.0 9:1.0 210:1.0 35:1.0 13:1.0 14:1.0 20:1.0 
0.3289473684210526 2:1.0 208:1.0 173:1.0 5:1.0 209:1.0 4704:1.0 176:1.0 9:1.0 210:1.0 
0.10004137599018384 122:1.0 208:1.0 4:1.0 48987:1.0 209:1.0 22262:1.0 8:1.0 9:1.0 210:1.0 11:1.0 13:1.0 14:1.0 20:1.0 16:1.0 
0.18951011228385395 2:1.0 208:1.0 28:1.0 5:1.0 209:1.0 7417:1.0 32:1.0 9:1.0 210:1.0 35:1.0 347:1.0 
0.04551248308171728 2:1.0 208:1.0 4:1.0 5:1.0 209:1.0 3498:1.0 8:1.0 9:1.0 210:1.0 54:1.0 13:1.0 11:1.0 245:1.0 37:1.0 20:1.0 82:1.0 246:1.0 16:1.0 
0.10689853394426001 2:1.0 208:1.0 28:1.0 60:1.0 209:1.0 1786:1.0 486:1.0 9:1.0 210:1.0 35:1.0 13:1.0 48:1.0 14:1.0 305:1.0 20:1.0 
0.4464285714285714 2:1.0 208:1.0 107:1.0 5:1.0 209:1.0 391:1.0 162:1.0 9:1.0 210:1.0 
0.25190322931392894 2:1.0 208:1.0 107:1.0 5:1.0 209:1.0 2979:1.0 32:1.0 9:1.0 210:1.0 35:1.0 40:1.0 
-0.15318988724784674 2:1.0 208:1.0 28:1.0 330:1.0 209:1.0 1893:1.0 162:1.0 9:1.0 210:1.0 13:1.0 20:1.0 
-0.23255813953488377 2:1.0 208:1.0 28:1.0 5:1.0 209:1.0 2132:1.0 32:1.0 9:1.0 210:1.0 35:1.0 48:1.0 179:1.0 
-0.11742561466532717 2:1.0 208:1.0 107:1.0 330:1.0 209:1.0 4092:1.0 32:1.0 9:1.0 210:1.0 35:1.0 13:1.0 14:1.0 20:1.0 
-0.28170206189171404 2:1.0 208:1.0 107:1.0 5:1.0 209:1.0 4831:1.0 195:1.0 9:1.0 210:1.0 35:1.0 179:1.0 37:1.0 
-0.23439435236716846 2:1.0 208:1.0 275:1.0 5:1.0 572:1.0 277:1.0 278:1.0 9:1.0 210:1.0 2587:1.0 237:1.0 
-0.19391490965900215 122:1.0 208:1.0 107:1.0 1766:1.0 209:1.0 1574:1.0 32:1.0 9:1.0 210:1.0 35:1.0 48:1.0 179:1.0 
-1.261512937465362 2:1.0 208:1.0 28:1.0 5:1.0 209:1.0 5372:1.0 162:1.0 9:1.0 210:1.0 35:1.0 48:1.0 
-0.10004137599018384 2:1.0 208:1.0 107:1.0 5:1.0 209:1.0 8038:1.0 32:1.0 9:1.0 210:1.0 35:1.0 40:1.0 14:1.0 
-0.3087333756208814 2:1.0 208:1.0 173:1.0 5:1.0 209:1.0 1148:1.0 176:1.0 9:1.0 210:1.0 80:1.0 82:1.0 
-0.25429308611654444 2:1.0 208:1.0 70:1.0 5:1.0 209:1.0 5767:1.0 32:1.0 9:1.0 210:1.0 35:1.0 48:1.0 179:1.0 14:1.0 
-0.23144084397642023 2:1.0 208:1.0 28:1.0 5:1.0 572:1.0 7593:1.0 32:1.0 9:1.0 210:1.0 35:1.0 48:1.0 
-0.36035041537066104 2:1.0 208:1.0 4:1.0 5:1.0 209:1.0 3519:1.0 260:1.0 9:1.0 210:1.0 11:1.0 469:1.0 
-0.39062499482598567 2:1.0 208:1.0 70:1.0 5:1.0 209:1.0 10868:1.0 195:1.0 9:1.0 210:1.0 141:1.0 136:1.0 
-0.4680616736633164 2:1.0 208:1.0 107:1.0 5:1.0 209:1.0 11707:1.0 116:1.0 9:1.0 210:1.0 
-0.5385060044241832 2:1.0 208:1.0 266:1.0 5:1.0 572:1.0 704:1.0 477:1.0 9:1.0 210:1.0 
-0.26041666666666663 2:1.0 208:1.0 28:1.0 60:1.0 209:1.0 13155:1.0 477:1.0 9:1.0 210:1.0 35:1.0 14:1.0 
-0.3117996780998609 2:1.0 208:1.0 28:1.0 330:1.0 209:1.0 9294:1.0 32:1.0 9:1.0 210:1.0 
-0.415300486337081 2:1.0 17:1.0 2303:1.0 5:1.0 13656:1.0 13657:1.0 8:1.0 9:1.0 210:1.0 
-0.19948645619466074 2:1.0 17:1.0 2303:1.0 5:1.0 13668:1.0 13657:1.0 8:1.0 9:1.0 210:1.0 13:1.0 20:1.0 
-0.36942859875292644 2:1.0 208:1.0 28:1.0 60:1.0 209:1.0 454:1.0 32:1.0 9:1.0 210:1.0 35:1.0 13:1.0 40:1.0 20:1.0 
-0.17331383959904856 2:1.0 208:1.0 131:1.0 5:1.0 1260:1.0 7:1.0 8:1.0 9:1.0 210:1.0 11:1.0 178:1.0 13:1.0 1675:1.0 171:1.0 14:1.0 20:1.0 37:1.0 16:1.0 
-0.20886859566137822 2:1.0 208:1.0 131:1.0 517:1.0 209:1.0 2760:1.0 8:1.0 9:1.0 210:1.0 11:1.0 80:1.0 13:1.0 136:1.0 40:1.0 16:1.0 
-1.866769303298228 2:1.0 208:1.0 28:1.0 60:1.0 209:1.0 3668:1.0 477:1.0 9:1.0 210:1.0 35:1.0 48:1.0 14:1.0 
-0.383747594543707 2:1.0 208:1.0 107:1.0 7746:1.0 209:1.0 5083:1.0 32:1.0 9:1.0 210:1.0 
-0.2347951028719977 2:1.0 208:1.0 266:1.0 714:1.0 209:1.0 16854:1.0 32:1.0 9:1.0 210:1.0 80:1.0 82:1.0 
-0.192348634552263 2:1.0 208:1.0 7532:1.0 5:1.0 209:1.0 14062:1.0 162:1.0 9:1.0 210:1.0 141:1.0 136:1.0 96:1.0 38:1.0 
-0.6245652668426563 2:1.0 208:1.0 28:1.0 5:1.0 209:1.0 17095:1.0 32:1.0 9:1.0 210:1.0 
-0.6067682147393164 2:1.0 208:1.0 124:1.0 517:1.0 209:1.0 16625:1.0 128:1.0 9:1.0 210:1.0 
-0.3263181269059755 2:1.0 208:1.0 70:1.0 60:1.0 209:1.0 17475:1.0 116:1.0 9:1.0 210:1.0 141:1.0 136:1.0 
-0.32052276981046746 68:1.0 208:1.0 70:1.0 17889:1.0 209:1.0 2916:1.0 260:1.0 9:1.0 210:1.0 141:1.0 136:1.0 
-0.2046894353793953 2:1.0 208:1.0 107:1.0 2535:1.0 209:1.0 10354:1.0 32:1.0 9:1.0 210:1.0 40:1.0 14:1.0 
-0.5003278286230081 2:1.0 208:1.0 266:1.0 60:1.0 209:1.0 2923:1.0 278:1.0 9:1.0 210:1.0 
-0.35649949618659876 122:1.0 208:1.0 28:1.0 2223:1.0 209:1.0 19033:1.0 32:1.0 9:1.0 210:1.0 
-0.17667941143749505 2:1.0 208:1.0 28:1.0 5:1.0 209:1.0 851:1.0 32:1.0 9:1.0 210:1.0 35:1.0 48:1.0 179:1.0 14:1.0 
-0.08411600566421404 172:1.0 208:1.0 76:1.0 15250:1.0 572:1.0 1727:1.0 8:1.0 9:1.0 210:1.0 245:1.0 13:1.0 11:1.0 80:1.0 246:1.0 20:1.0 136:1.0 82:1.0 16:1.0 
-0.16573844401371565 2:1.0 208:1.0 107:1.0 330:1.0 209:1.0 1551:1.0 162:1.0 9:1.0 210:1.0 35:1.0 13:1.0 37:1.0 20:1.0 
-0.356699731178678 2:1.0 208:1.0 76:1.0 5:1.0 209:1.0 216:1.0 260:1.0 9:1.0 210:1.0 11:1.0 80:1.0 334:1.0 14:1.0 
-0.5140175756208476 2:1.0 208:1.0 107:1.0 5:1.0 209:1.0 8955:1.0 116:1.0 9:1.0 210:1.0 
-0.26041666666666663 2:1.0 208:1.0 107:1.0 5:1.0 209:1.0 5270:1.0 32:1.0 9:1.0 210:1.0 35:1.0 246:1.0 
-0.4554087534190387 2:1.0 208:1.0 107:1.0 573:1.0 209:1.0 6432:1.0 162:1.0 9:1.0 210:1.0 
-0.15269393256557587 122:1.0 85:1.0 107:1.0 2223:1.0 2994:1.0 1839:1.0 195:1.0 9:1.0 210:1.0 35:1.0 13:1.0 40:1.0 14:1.0 20:1.0 
-0.2443560162139985 2:1.0 208:1.0 107:1.0 60:1.0 209:1.0 10825:1.0 162:1.0 9:1.0 210:1.0 35:1.0 40:1.0 14:1.0 
-0.4620882858719412 122:1.0 208:1.0 266:1.0 7700:1.0 572:1.0 759:1.0 477:1.0 9:1.0 210:1.0 
-0.3241076137605033 122:1.0 208:1.0 107:1.0 18786:1.0 209:1.0 24148:1.0 486:1.0 9:1.0 210:1.0 
-0.21588891384076725 2:1.0 208:1.0 131:1.0 5:1.0 209:1.0 4307:1.0 260:1.0 9:1.0 210:1.0 11:1.0 80:1.0 334:1.0 82:1.0 
-0.4493018667555658 2:1.0 208:1.0 107:1.0 5:1.0 209:1.0 3472:1.0 116:1.0 9:1.0 210:1.0 
-0.11178331740265005 2:1.0 208:1.0 107:1.0 5:1.0 209:1.0 5530:1.0 162:1.0 9:1.0 210:1.0 35:1.0 265:1.0 14:1.0 
-0.17242410076799505 2:1.0 208:1.0 4:1.0 5:1.0 209:1.0 7:1.0 363:1.0 9:1.0 210:1.0 11:1.0 13:1.0 178:1.0 81:1.0 82:1.0 61:1.0 179:1.0 37:1.0 
-0.2100840336134453 2:1.0 208:1.0 107:1.0 5:1.0 209:1.0 5530:1.0 162:1.0 9:1.0 210:1.0 35:1.0 899:1.0 14:1.0 
-0.47145049716149623 2:1.0 208:1.0 28:1.0 60:1.0 209:1.0 25117:1.0 564:1.0 9:1.0 210:1.0 
-0.16135582929545353 2:1.0 208:1.0 28:1.0 5:1.0 209:1.0 8283:1.0 32:1.0 9:1.0 210:1.0 35:1.0 54:1.0 179:1.0 37:1.0 
-0.18726591760299618 2:1.0 208:1.0 107:1.0 5:1.0 209:1.0 8038:1.0 32:1.0 9:1.0 210:1.0 35:1.0 347:1.0 
-0.26041666666666663 2:1.0 208:1.0 266:1.0 5:1.0 209:1.0 18178:1.0 32:1.0 9:1.0 210:1.0 80:1.0 82:1.0 
-0.12857802439189958 2:1.0 241:1.0 131:1.0 517:1.0 243:1.0 21511:1.0 8:1.0 9:1.0 210:1.0 81:1.0 13:1.0 80:1.0 206:1.0 157:1.0 20:1.0 136:1.0 14:1.0 207:1.0 16:1.0 
-0.35885353543048654 2:1.0 208:1.0 28:1.0 5:1.0 209:1.0 7305:1.0 278:1.0 9:1.0 210:1.0 35:1.0 899:1.0 
-0.16759763571809982 2:1.0 208:1.0 173:1.0 5:1.0 209:1.0 20057:1.0 176:1.0 9:1.0 210:1.0 80:1.0 245:1.0 82:1.0 37:1.0 
-0.319342137002386 2:1.0 208:1.0 28:1.0 517:1.0 209:1.0 2429:1.0 32:1.0 9:1.0 210:1.0 35:1.0 14:1.0 
-0.35689780674568916 2:1.0 208:1.0 28:1.0 5:1.0 209:1.0 4356:1.0 162:1.0 9:1.0 210:1.0 35:1.0 15:1.0 
-0.3071443813594081 2:1.0 208:1.0 28:1.0 60:1.0 209:1.0 29791:1.0 477:1.0 9:1.0 210:1.0 35:1.0 179:1.0 
-0.08366353207388515 2:1.0 208:1.0 70:1.0 517:1.0 209:1.0 22686:1.0 8:1.0 9:1.0 210:1.0 13:1.0 81:1.0 455:1.0 20:1.0 40:1.0 14:1.0 364:1.0 61:1.0 16:1.0 
-0.5892857136775037 2:1.0 208:1.0 28:1.0 5:1.0 209:1.0 30489:1.0 32:1.0 9:1.0 210:1.0 
-0.22535789095294528 2:1.0 208:1.0 28:1.0 4597:1.0 209:1.0 30694:1.0 32:1.0 9:1.0 210:1.0 35:1.0 48:1.0 37:1.0 
-0.31005093340612583 68:1.0 208:1.0 70:1.0 1311:1.0 209:1.0 858:1.0 116:1.0 9:1.0 210:1.0 141:1.0 136:1.0 
-0.39259051683750085 2:1.0 208:1.0 28:1.0 60:1.0 209:1.0 851:1.0 477:1.0 9:1.0 210:1.0 
-0.2835661882753938 122:1.0 208:1.0 107:1.0 6475:1.0 209:1.0 10753:1.0 116:1.0 9:1.0 210:1.0 35:1.0 48:1.0 
-0.07985156185224794 2:1.0 208:1.0 28:1.0 5:1.0 209:1.0 5692:1.0 8:1.0 9:1.0 210:1.0 455:1.0 13:1.0 35:1.0 538:1.0 470:1.0 364:1.0 136:1.0 20:1.0 40:1.0 37:1.0 16:1.0 
-0.12006380093050766 2:1.0 208:1.0 28:1.0 5:1.0 209:1.0 3740:1.0 8:1.0 9:1.0 210:1.0 35:1.0 13:1.0 538:1.0 136:1.0 20:1.0 37:1.0 16:1.0 
-0.3289473684210526 2:1.0 208:1.0 124:1.0 5:1.0 209:1.0 5389:1.0 128:1.0 9:1.0 210:1.0 13:1.0 364:1.0 
-0.5342306430184525 2:1.0 208:1.0 107:1.0 60:1.0 209:1.0 169:1.0 116:1.0 9:1.0 210:1.0 
-0.4807692395864859 2:1.0 208:1.0 28:1.0 5:1.0 209:1.0 200:1.0 116:1.0 9:1.0 210:1.0 35:1.0 82:1.0 
-500.0 2:1.0 208:1.0 257:1.0 5:1.0 209:1.0 6677:1.0 79:1.0 9:1.0 210:1.0 13:1.0 54:1.0 81:1.0 364:1.0 37:1.0 20:1.0 246:1.0 
-0.23255813953488377 2:1.0 208:1.0 28:1.0 5:1.0 209:1.0 33604:1.0 116:1.0 9:1.0 210:1.0 35:1.0 48:1.0 179:1.0 
-2.214804358368413 2:1.0 208:1.0 28:1.0 5:1.0 209:1.0 3305:1.0 162:1.0 9:1.0 210:1.0 35:1.0 81:1.0 48:1.0 37:1.0 
-0.368532641343863 2:1.0 17:1.0 28:1.0 5:1.0 18770:1.0 33820:1.0 32:1.0 9:1.0 210:1.0 13:1.0 
-0.15988976285452616 2:1.0 208:1.0 4:1.0 5:1.0 209:1.0 7408:1.0 260:1.0 9:1.0 210:1.0 11:1.0 81:1.0 36:1.0 469:1.0 246:1.0 96:1.0 
-0.24350238164317595 2:1.0 231:1.0 173:1.0 5:1.0 12196:1.0 28087:1.0 176:1.0 9:1.0 210:1.0 13:1.0 80:1.0 20:1.0 82:1.0 
-0.15751238642612173 122:1.0 208:1.0 76:1.0 1265:1.0 209:1.0 788:1.0 260:1.0 9:1.0 210:1.0 54:1.0 11:1.0 80:1.0 37:1.0 82:1.0 14:1.0 
-0.2855882487357557 2:1.0 208:1.0 574:1.0 5:1.0 209:1.0 13482:1.0 260:1.0 9:1.0 210:1.0 35:1.0 136:1.0 
-0.4241867704639216 2:1.0 208:1.0 28:1.0 733:1.0 209:1.0 35097:1.0 32:1.0 9:1.0 210:1.0 
-0.1841641050259895 2:1.0 208:1.0 4:1.0 5:1.0 209:1.0 7861:1.0 8:1.0 9:1.0 210:1.0 11:1.0 245:1.0 13:1.0 136:1.0 179:1.0 16:1.0 
-0.05087773190895899 2:1.0 208:1.0 2358:1.0 5:1.0 209:1.0 5538:1.0 8:1.0 9:1.0 210:1.0 455:1.0 13:1.0 35:1.0 1203:1.0 1200:1.0 81:1.0 470:1.0 364:1.0 136:1.0 20:1.0 40:1.0 144:1.0 14:1.0 37:1.0 16:1.0 
-0.21542205146291038 2:1.0 208:1.0 4:1.0 517:1.0 209:1.0 3305:1.0 363:1.0 9:1.0 210:1.0 11:1.0 3306:1.0 81:1.0 82:1.0 14:1.0 37:1.0 
-0.4787385081447864 2:1.0 208:1.0 124:1.0 60:1.0 572:1.0 1400:1.0 128:1.0 9:1.0 210:1.0 
-0.42583659264318946 2:1.0 208:1.0 28:1.0 5:1.0 209:1.0 1833:1.0 32:1.0 9:1.0 210:1.0 
-0.2728507465871783 2:1.0 208:1.0 28:1.0 222:1.0 209:1.0 36786:1.0 32:1.0 9:1.0 210:1.0 35:1.0 48:1.0 
-0.3450918178090475 2:1.0 208:1.0 124:1.0 5:1.0 209:1.0 21186:1.0 128:1.0 9:1.0 210:1.0 80:1.0 82:1.0 
-0.5991146776060574 2:1.0 208:1.0 28:1.0 5:1.0 209:1.0 11857:1.0 32:1.0 9:1.0 210:1.0 
-0.22138697479698108 2:1.0 85:1.0 107:1.0 60:1.0 753:1.0 2265:1.0 32:1.0 9:1.0 210:1.0 35:1.0 13:1.0 347:1.0 20:1.0 
-0.38010019680518686 2:1.0 208:1.0 107:1.0 4247:1.0 209:1.0 6182:1.0 32:1.0 9:1.0 210:1.0 
-0.594646280489553 2:1.0 208:1.0 124:1.0 5:1.0 209:1.0 10758:1.0 128:1.0 9:1.0 210:1.0 
-0.33474457223840404 2:1.0 208:1.0 107:1.0 5:1.0 209:1.0 7856:1.0 32:1.0 9:1.0 210:1.0 35:1.0 48:1.0 
-0.21397520032021017 2:1.0 308:1.0 257:1.0 5:1.0 20713:1.0 16642:1.0 564:1.0 9:1.0 210:1.0 35:1.0 48:1.0 553:1.0 20:1.0 
-0.13478404690896717 2:1.0 241:1.0 510:1.0 5:1.0 971:1.0 513:1.0 564:1.0 9:1.0 210:1.0 206:1.0 54:1.0 20:1.0 207:1.0 37:1.0 
-0.07963730565689647 2:1.0 241:1.0 510:1.0 517:1.0 971:1.0 513:1.0 564:1.0 9:1.0 210:1.0 54:1.0 206:1.0 37:1.0 20:1.0 207:1.0 
-0.5405872170002151 2:1.0 208:1.0 510:1.0 517:1.0 1260:1.0 513:1.0 564:1.0 9:1.0 210:1.0 206:1.0 54:1.0 246:1.0 37:1.0 20:1.0 
-0.2488368510037399 2:1.0 208:1.0 28:1.0 2535:1.0 209:1.0 40857:1.0 32:1.0 9:1.0 210:1.0 14:1.0 
-0.2570059929281891 2:1.0 208:1.0 107:1.0 517:1.0 572:1.0 40505:1.0 195:1.0 9:1.0 210:1.0 35:1.0 40:1.0 
-0.1993291411856717 2:1.0 208:1.0 28:1.0 60:1.0 209:1.0 1510:1.0 278:1.0 9:1.0 210:1.0 35:1.0 14:1.0 37:1.0 
-0.29310471017288947 68:1.0 69:1.0 70:1.0 19735:1.0 27661:1.0 42068:1.0 162:1.0 9:1.0 210:1.0 13:1.0 20:1.0 
-0.1916704342420962 2:1.0 85:1.0 107:1.0 5:1.0 18917:1.0 480:1.0 32:1.0 9:1.0 210:1.0 35:1.0 13:1.0 14:1.0 82:1.0 20:1.0 
-0.9049081676751315 2:1.0 208:1.0 124:1.0 5:1.0 209:1.0 597:1.0 477:1.0 9:1.0 210:1.0 245:1.0 246:1.0 
-0.2100840336134454 2:1.0 208:1.0 28:1.0 5:1.0 209:1.0 296:1.0 564:1.0 9:1.0 210:1.0 35:1.0 48:1.0 14:1.0 
-0.17994691849407876 2:1.0 208:1.0 107:1.0 330:1.0 209:1.0 3144:1.0 162:1.0 9:1.0 210:1.0 35:1.0 48:1.0 179:1.0 14:1.0 
-0.2645124155669715 2:1.0 85:1.0 107:1.0 5313:1.0 42896:1.0 4529:1.0 32:1.0 9:1.0 210:1.0 35:1.0 14:1.0 20:1.0 
-0.3051410632632154 2:1.0 208:1.0 28:1.0 5:1.0 209:1.0 12781:1.0 564:1.0 9:1.0 210:1.0 35:1.0 48:1.0 14:1.0 
-0.07538210351720508 2:1.0 460:1.0 4:1.0 517:1.0 7651:1.0 646:1.0 8:1.0 9:1.0 210:1.0 11:1.0 80:1.0 217:1.0 13:1.0 245:1.0 136:1.0 40:1.0 164:1.0 20:1.0 37:1.0 16:1.0 
-0.5050890291082278 2:1.0 208:1.0 124:1.0 5:1.0 572:1.0 43512:1.0 128:1.0 9:1.0 210:1.0 
-0.5972869761609767 2:1.0 208:1.0 28:1.0 5:1.0 209:1.0 44060:1.0 32:1.0 9:1.0 210:1.0 
-0.29398992266952173 2:1.0 208:1.0 266:1.0 5:1.0 209:1.0 5065:1.0 32:1.0 9:1.0 210:1.0 80:1.0 14:1.0 
-0.5496427584502447 2:1.0 208:1.0 28:1.0 5:1.0 209:1.0 2428:1.0 162:1.0 9:1.0 210:1.0 
-0.13649574734853612 2:1.0 208:1.0 76:1.0 5:1.0 209:1.0 2362:1.0 8:1.0 9:1.0 210:1.0 11:1.0 217:1.0 13:1.0 136:1.0 37:1.0 20:1.0 16:1.0 
-0.3289473684210526 2:1.0 208:1.0 173:1.0 5:1.0 209:1.0 1121:1.0 176:1.0 9:1.0 210:1.0 80:1.0 14:1.0 
-0.34126413933475086 2:1.0 208:1.0 28:1.0 330:1.0 209:1.0 7276:1.0 162:1.0 9:1.0 210:1.0 
-0.26041666666666663 2:1.0 208:1.0 107:1.0 5:1.0 209:1.0 9260:1.0 32:1.0 9:1.0 210:1.0 35:1.0 179:1.0 
-0.1953125 2:1.0 208:1.0 28:1.0 60:1.0 209:1.0 1833:1.0 32:1.0 9:1.0 210:1.0 
-0.3169805397424584 2:1.0 208:1.0 124:1.0 5:1.0 209:1.0 1732:1.0 128:1.0 9:1.0 210:1.0 13:1.0 96:1.0 83:1.0 
-0.44497477268306834 2:1.0 208:1.0 107:1.0 5:1.0 209:1.0 10899:1.0 32:1.0 9:1.0 210:1.0 
-0.38616164359725635 2:1.0 208:1.0 28:1.0 4597:1.0 209:1.0 1833:1.0 32:1.0 9:1.0 210:1.0 
-0.24071354234478012 2:1.0 208:1.0 131:1.0 5:1.0 209:1.0 6789:1.0 363:1.0 9:1.0 210:1.0 11:1.0 245:1.0 14:1.0 1025:1.0 
-0.24121001314127957 2:1.0 208:1.0 107:1.0 60:1.0 209:1.0 45486:1.0 116:1.0 9:1.0 210:1.0 35:1.0 14:1.0 
-0.143850881448178 2:1.0 208:1.0 574:1.0 5:1.0 209:1.0 45491:1.0 32:1.0 9:1.0 210:1.0 35:1.0 347:1.0 179:1.0 14:1.0 82:1.0 
-0.3105382212962527 2:1.0 208:1.0 70:1.0 5:1.0 209:1.0 5407:1.0 116:1.0 9:1.0 210:1.0 141:1.0 136:1.0 
-1.1904761904761894 2:1.0 208:1.0 107:1.0 5:1.0 209:1.0 169:1.0 32:1.0 9:1.0 210:1.0 35:1.0 14:1.0 
-0.3119175237862534 2:1.0 208:1.0 173:1.0 7746:1.0 572:1.0 23205:1.0 176:1.0 9:1.0 210:1.0 80:1.0 14:1.0 
-0.28571428571428564 2:1.0 208:1.0 107:1.0 5:1.0 209:1.0 3024:1.0 32:1.0 9:1.0 210:1.0 35:1.0 48:1.0 14:1.0 
-0.2100840336134453 2:1.0 208:1.0 107:1.0 5:1.0 209:1.0 2175:1.0 32:1.0 9:1.0 210:1.0 35:1.0 40:1.0 179:1.0 
-0.2939560706128894 2:1.0 208:1.0 266:1.0 5:1.0 209:1.0 12977:1.0 32:1.0 9:1.0 210:1.0 11:1.0 14:1.0 
-0.18742008101474222 122:1.0 208:1.0 107:1.0 18786:1.0 209:1.0 6297:1.0 8:1.0 9:1.0 210:1.0 13:1.0 16:1.0 
-0.28620066502036456 2:1.0 208:1.0 107:1.0 1275:1.0 209:1.0 6297:1.0 8:1.0 9:1.0 210:1.0 13:1.0 16:1.0 
-0.5621297668138809 2:1.0 208:1.0 107:1.0 517:1.0 209:1.0 5617:1.0 32:1.0 9:1.0 210:1.0 
-0.3287975787944999 2:1.0 208:1.0 28:1.0 517:1.0 209:1.0 3921:1.0 32:1.0 9:1.0 210:1.0 35:1.0 179:1.0 
-0.2717154720792803 2:1.0 208:1.0 173:1.0 5:1.0 209:1.0 6075:1.0 176:1.0 9:1.0 210:1.0 80:1.0 136:1.0 
-0.294337138788431 2:1.0 208:1.0 266:1.0 5:1.0 209:1.0 5071:1.0 32:1.0 9:1.0 210:1.0 80:1.0 82:1.0 
-0.26019398161886864 2:1.0 208:1.0 76:1.0 5:1.0 209:1.0 827:1.0 8:1.0 9:1.0 210:1.0 11:1.0 13:1.0 82:1.0 16:1.0 
-0.18330963224230692 2:1.0 208:1.0 28:1.0 5:1.0 572:1.0 4140:1.0 116:1.0 9:1.0 210:1.0 35:1.0 48:1.0 179:1.0 
-0.1552645140261598 2:1.0 69:1.0 70:1.0 330:1.0 20128:1.0 10041:1.0 32:1.0 9:1.0 210:1.0 141:1.0 13:1.0 136:1.0 20:1.0 
-0.4550500290728633 2:1.0 208:1.0 4:1.0 60:1.0 209:1.0 3818:1.0 162:1.0 9:1.0 210:1.0 11:1.0 14:1.0 
-0.6329313059253363 2:1.0 208:1.0 124:1.0 5:1.0 209:1.0 12077:1.0 128:1.0 9:1.0 210:1.0 
-0.4105467155744331 2:1.0 208:1.0 107:1.0 5:1.0 209:1.0 307:1.0 116:1.0 9:1.0 210:1.0 
-0.20674786216995025 2:1.0 208:1.0 28:1.0 5:1.0 209:1.0 14572:1.0 564:1.0 9:1.0 210:1.0 35:1.0 48:1.0 179:1.0 
-0.4464285714285714 2:1.0 208:1.0 107:1.0 5:1.0 209:1.0 24873:1.0 116:1.0 9:1.0 210:1.0 
-0.2325581395348837 2:1.0 208:1.0 107:1.0 5:1.0 209:1.0 757:1.0 116:1.0 9:1.0 210:1.0 35:1.0 48:1.0 
-0.22574779598020667 2:1.0 208:1.0 107:1.0 5:1.0 209:1.0 5617:1.0 162:1.0 9:1.0 210:1.0 35:1.0 40:1.0 
-0.16339869242852337 2:1.0 17:1.0 107:1.0 60:1.0 48467:1.0 20907:1.0 32:1.0 9:1.0 210:1.0 35:1.0 13:1.0 48:1.0 20:1.0 
-0.20190511124648824 2:1.0 208:1.0 574:1.0 5:1.0 209:1.0 12227:1.0 116:1.0 9:1.0 210:1.0 35:1.0 117:1.0 48:1.0 14:1.0 
-0.48297684232295746 2:1.0 208:1.0 107:1.0 5:1.0 209:1.0 8967:1.0 32:1.0 9:1.0 210:1.0 
-0.14956103071463714 2:1.0 208:1.0 173:1.0 5:1.0 572:1.0 4733:1.0 128:1.0 9:1.0 210:1.0 178:1.0 13:1.0 179:1.0 20:1.0 55:1.0 
-0.24257611728700762 2:1.0 208:1.0 173:1.0 733:1.0 209:1.0 33827:1.0 176:1.0 9:1.0 210:1.0 13:1.0 245:1.0 20:1.0 265:1.0 
-0.24020185400537564 2:1.0 208:1.0 28:1.0 7720:1.0 209:1.0 5883:1.0 32:1.0 9:1.0 210:1.0 35:1.0 136:1.0 
-0.26041666666666663 2:1.0 208:1.0 107:1.0 5:1.0 209:1.0 3997:1.0 32:1.0 9:1.0 210:1.0 35:1.0 14:1.0 
