svm_type c_svc
kernel_type polynomial
degree 2
gamma 0.2
coef0 0.0
nr_class 2
total_sv 118
rho 0.2730305825615723
label 1 -1
nr_sv 58 60
SV
0.21356623708280661 2:1.0 241:1.0 4:1.0 5:1.0 10791:1.0 10926:1.0 260:1.0 9:1.0 584:1.0 11:1.0 80:1.0 136:1.0 14:1.0 
0.11866555753848182 2:1.0 17:1.0 4:1.0 5:1.0 447:1.0 3305:1.0 8:1.0 9:1.0 584:1.0 13:1.0 11:1.0 245:1.0 20:1.0 82:1.0 37:1.0 16:1.0 
0.117687240548916 2:1.0 17:1.0 4:1.0 5:1.0 12392:1.0 216:1.0 8:1.0 9:1.0 584:1.0 13:1.0 11:1.0 217:1.0 81:1.0 20:1.0 136:1.0 164:1.0 37:1.0 
0.0678298724402085 2:1.0 85:1.0 4:1.0 5:1.0 3897:1.0 3305:1.0 8:1.0 9:1.0 584:1.0 13:1.0 11:1.0 217:1.0 20:1.0 14:1.0 164:1.0 16:1.0 
0.07362716471701512 2:1.0 17:1.0 4:1.0 5:1.0 12392:1.0 3305:1.0 8:1.0 9:1.0 584:1.0 81:1.0 13:1.0 11:1.0 217:1.0 14:1.0 20:1.0 82:1.0 164:1.0 16:1.0 
0.1402524541538714 2:1.0 85:1.0 4:1.0 5:1.0 7937:1.0 3305:1.0 8:1.0 9:1.0 584:1.0 81:1.0 13:1.0 11:1.0 217:1.0 14:1.0 20:1.0 82:1.0 164:1.0 16:1.0 
0.09465617797406459 2:1.0 17:1.0 4:1.0 517:1.0 12392:1.0 3305:1.0 8:1.0 9:1.0 584:1.0 54:1.0 81:1.0 13:1.0 11:1.0 217:1.0 37:1.0 136:1.0 20:1.0 82:1.0 164:1.0 16:1.0 
0.07889616098946077 2:1.0 666:1.0 4:1.0 5:1.0 667:1.0 11710:1.0 8:1.0 9:1.0 584:1.0 81:1.0 13:1.0 11:1.0 217:1.0 245:1.0 136:1.0 20:1.0 82:1.0 164:1.0 37:1.0 16:1.0 
0.09441411099036469 2:1.0 85:1.0 4:1.0 5:1.0 7937:1.0 3818:1.0 8:1.0 9:1.0 584:1.0 81:1.0 54:1.0 13:1.0 11:1.0 217:1.0 136:1.0 20:1.0 82:1.0 164:1.0 16:1.0 
0.09050746204716385 2:1.0 666:1.0 4:1.0 5:1.0 667:1.0 8473:1.0 8:1.0 9:1.0 584:1.0 13:1.0 11:1.0 669:1.0 245:1.0 20:1.0 82:1.0 164:1.0 37:1.0 16:1.0 
0.17421603482140868 2:1.0 85:1.0 4:1.0 5:1.0 3897:1.0 3818:1.0 8:1.0 9:1.0 584:1.0 54:1.0 81:1.0 13:1.0 11:1.0 217:1.0 37:1.0 136:1.0 20:1.0 14:1.0 164:1.0 16:1.0 
0.10503573202929566 2:1.0 17:1.0 4:1.0 5:1.0 447:1.0 3333:1.0 8:1.0 9:1.0 584:1.0 13:1.0 245:1.0 11:1.0 81:1.0 20:1.0 246:1.0 82:1.0 37:1.0 16:1.0 
0.14143672000938123 122:1.0 17:1.0 4:1.0 21650:1.0 447:1.0 3305:1.0 162:1.0 9:1.0 584:1.0 11:1.0 81:1.0 82:1.0 37:1.0 
0.2110686534614305 1283:1.0 17:1.0 4:1.0 4601:1.0 447:1.0 5071:1.0 260:1.0 9:1.0 584:1.0 11:1.0 14:1.0 
0.316143115277977 2:1.0 17:1.0 4:1.0 5:1.0 447:1.0 3305:1.0 8:1.0 9:1.0 584:1.0 11:1.0 13:1.0 82:1.0 16:1.0 
0.29110959489228366 2:1.0 62:1.0 173:1.0 5:1.0 371:1.0 5502:1.0 176:1.0 9:1.0 584:1.0 80:1.0 14:1.0 
0.048119889162058345 2:1.0 85:1.0 4:1.0 5:1.0 7937:1.0 3305:1.0 8:1.0 9:1.0 584:1.0 81:1.0 13:1.0 11:1.0 163:1.0 14:1.0 20:1.0 82:1.0 164:1.0 16:1.0 
0.14880952718847196 2:1.0 123:1.0 28:1.0 5:1.0 126:1.0 3333:1.0 32:1.0 9:1.0 584:1.0 35:1.0 81:1.0 54:1.0 13:1.0 48:1.0 37:1.0 14:1.0 20:1.0 
0.12120109598699255 2:1.0 666:1.0 4:1.0 5:1.0 667:1.0 3818:1.0 8:1.0 9:1.0 584:1.0 81:1.0 13:1.0 11:1.0 217:1.0 14:1.0 20:1.0 82:1.0 164:1.0 16:1.0 
0.13160817326632906 2:1.0 17:1.0 4:1.0 60:1.0 447:1.0 946:1.0 8:1.0 9:1.0 584:1.0 13:1.0 11:1.0 217:1.0 20:1.0 14:1.0 164:1.0 37:1.0 16:1.0 
0.06162749388473807 2:1.0 17:1.0 4:1.0 60:1.0 447:1.0 7710:1.0 8:1.0 9:1.0 584:1.0 13:1.0 11:1.0 217:1.0 20:1.0 14:1.0 164:1.0 37:1.0 16:1.0 
0.06785703899753698 2:1.0 62:1.0 4:1.0 5:1.0 371:1.0 3818:1.0 8:1.0 9:1.0 584:1.0 13:1.0 11:1.0 81:1.0 206:1.0 20:1.0 136:1.0 246:1.0 207:1.0 16:1.0 
0.11326569756541355 2:1.0 666:1.0 4:1.0 5:1.0 667:1.0 4584:1.0 8:1.0 9:1.0 584:1.0 13:1.0 11:1.0 163:1.0 20:1.0 82:1.0 164:1.0 16:1.0 
0.05229396770181822 2:1.0 666:1.0 4:1.0 5:1.0 667:1.0 7710:1.0 8:1.0 9:1.0 584:1.0 54:1.0 13:1.0 11:1.0 217:1.0 37:1.0 20:1.0 14:1.0 164:1.0 16:1.0 
0.12003559788164635 122:1.0 62:1.0 4:1.0 24156:1.0 371:1.0 3818:1.0 8:1.0 9:1.0 584:1.0 13:1.0 11:1.0 217:1.0 20:1.0 14:1.0 164:1.0 16:1.0 
0.0888648645413671 2:1.0 46:1.0 4:1.0 60:1.0 2377:1.0 3818:1.0 8:1.0 9:1.0 584:1.0 13:1.0 245:1.0 11:1.0 217:1.0 20:1.0 37:1.0 14:1.0 164:1.0 16:1.0 
0.14730328279913413 2:1.0 17:1.0 4:1.0 60:1.0 447:1.0 3305:1.0 8:1.0 9:1.0 584:1.0 81:1.0 13:1.0 11:1.0 217:1.0 37:1.0 20:1.0 82:1.0 164:1.0 16:1.0 
0.15747175640343605 2:1.0 666:1.0 4:1.0 5:1.0 667:1.0 3818:1.0 8:1.0 9:1.0 584:1.0 13:1.0 11:1.0 163:1.0 20:1.0 136:1.0 164:1.0 16:1.0 
0.1156916893977369 2:1.0 46:1.0 4:1.0 330:1.0 12862:1.0 7710:1.0 8:1.0 9:1.0 584:1.0 13:1.0 11:1.0 217:1.0 81:1.0 20:1.0 136:1.0 164:1.0 37:1.0 16:1.0 
0.08582694218638258 1283:1.0 17:1.0 4:1.0 4601:1.0 447:1.0 3305:1.0 162:1.0 9:1.0 584:1.0 11:1.0 81:1.0 245:1.0 82:1.0 37:1.0 15:1.0 
0.15080265143775867 2:1.0 666:1.0 4:1.0 5:1.0 667:1.0 3818:1.0 8:1.0 9:1.0 584:1.0 13:1.0 11:1.0 217:1.0 20:1.0 82:1.0 164:1.0 16:1.0 
0.0716918496890874 2:1.0 85:1.0 4:1.0 5:1.0 7937:1.0 3818:1.0 8:1.0 9:1.0 584:1.0 13:1.0 11:1.0 217:1.0 245:1.0 20:1.0 14:1.0 164:1.0 16:1.0 
0.1236298280897653 1283:1.0 46:1.0 4:1.0 4601:1.0 619:1.0 2760:1.0 260:1.0 9:1.0 584:1.0 11:1.0 81:1.0 80:1.0 217:1.0 14:1.0 82:1.0 246:1.0 
0.20548173108957168 2:1.0 85:1.0 4:1.0 5:1.0 7937:1.0 3818:1.0 8:1.0 9:1.0 584:1.0 81:1.0 13:1.0 11:1.0 217:1.0 14:1.0 20:1.0 136:1.0 164:1.0 16:1.0 
0.08626254159346888 2:1.0 85:1.0 4:1.0 5:1.0 7937:1.0 3305:1.0 8:1.0 9:1.0 584:1.0 81:1.0 13:1.0 11:1.0 669:1.0 136:1.0 20:1.0 82:1.0 164:1.0 16:1.0 
0.07857232971740535 2:1.0 85:1.0 4:1.0 5:1.0 7937:1.0 3818:1.0 8:1.0 9:1.0 584:1.0 13:1.0 11:1.0 217:1.0 20:1.0 82:1.0 164:1.0 16:1.0 
0.13896880368133183 2:1.0 666:1.0 4:1.0 5:1.0 667:1.0 10773:1.0 8:1.0 9:1.0 584:1.0 81:1.0 13:1.0 11:1.0 217:1.0 136:1.0 20:1.0 82:1.0 164:1.0 16:1.0 
0.09864399621075262 2:1.0 17:1.0 4:1.0 5:1.0 3897:1.0 1717:1.0 8:1.0 9:1.0 584:1.0 81:1.0 13:1.0 11:1.0 80:1.0 217:1.0 246:1.0 20:1.0 171:1.0 82:1.0 164:1.0 16:1.0 
0.1691922852871258 2:1.0 17:1.0 4:1.0 60:1.0 447:1.0 3305:1.0 8:1.0 9:1.0 584:1.0 11:1.0 217:1.0 245:1.0 13:1.0 179:1.0 164:1.0 37:1.0 16:1.0 
0.14254013295215875 2:1.0 17:1.0 4:1.0 5:1.0 3897:1.0 3305:1.0 8:1.0 9:1.0 584:1.0 13:1.0 11:1.0 20:1.0 14:1.0 16:1.0 
0.12439919464004033 2:1.0 17:1.0 4:1.0 60:1.0 447:1.0 18965:1.0 8:1.0 9:1.0 584:1.0 13:1.0 11:1.0 669:1.0 20:1.0 179:1.0 37:1.0 16:1.0 
0.07176979080958587 2:1.0 666:1.0 4:1.0 5:1.0 667:1.0 7710:1.0 8:1.0 9:1.0 584:1.0 13:1.0 11:1.0 217:1.0 20:1.0 136:1.0 164:1.0 16:1.0 
0.14400420406812148 2:1.0 85:1.0 4:1.0 5:1.0 7937:1.0 7710:1.0 8:1.0 9:1.0 584:1.0 13:1.0 11:1.0 163:1.0 20:1.0 14:1.0 164:1.0 16:1.0 
0.06438208534482846 2:1.0 666:1.0 4:1.0 517:1.0 667:1.0 946:1.0 8:1.0 9:1.0 584:1.0 13:1.0 11:1.0 217:1.0 54:1.0 20:1.0 14:1.0 164:1.0 37:1.0 16:1.0 
0.10316999579987327 2:1.0 85:1.0 4:1.0 5:1.0 3897:1.0 7710:1.0 8:1.0 9:1.0 584:1.0 13:1.0 11:1.0 245:1.0 20:1.0 14:1.0 164:1.0 16:1.0 
0.3496503776323846 2:1.0 85:1.0 4:1.0 5:1.0 7937:1.0 3818:1.0 8:1.0 9:1.0 584:1.0 13:1.0 11:1.0 163:1.0 20:1.0 82:1.0 164:1.0 16:1.0 
0.18313826477964507 2:1.0 62:1.0 4:1.0 517:1.0 371:1.0 11955:1.0 8:1.0 9:1.0 584:1.0 11:1.0 80:1.0 13:1.0 82:1.0 16:1.0 
0.12235024055250826 2:1.0 62:1.0 4:1.0 60:1.0 371:1.0 5071:1.0 8:1.0 9:1.0 584:1.0 13:1.0 11:1.0 81:1.0 20:1.0 82:1.0 37:1.0 16:1.0 
0.1856293905561619 2:1.0 666:1.0 4:1.0 5:1.0 667:1.0 3305:1.0 8:1.0 9:1.0 584:1.0 13:1.0 11:1.0 217:1.0 20:1.0 136:1.0 164:1.0 16:1.0 
0.17646849495697303 2:1.0 666:1.0 4:1.0 5:1.0 667:1.0 3305:1.0 8:1.0 9:1.0 584:1.0 13:1.0 11:1.0 163:1.0 20:1.0 14:1.0 164:1.0 16:1.0 
0.7191138901996189 2:1.0 666:1.0 4:1.0 517:1.0 667:1.0 3305:1.0 8:1.0 9:1.0 584:1.0 54:1.0 13:1.0 11:1.0 217:1.0 37:1.0 20:1.0 14:1.0 164:1.0 16:1.0 
500.0 2:1.0 666:1.0 4:1.0 5:1.0 667:1.0 3305:1.0 8:1.0 9:1.0 584:1.0 54:1.0 13:1.0 11:1.0 217:1.0 37:1.0 20:1.0 14:1.0 164:1.0 16:1.0 
0.08665442500591758 2:1.0 85:1.0 4:1.0 60:1.0 7937:1.0 15505:1.0 8:1.0 9:1.0 584:1.0 13:1.0 11:1.0 217:1.0 245:1.0 20:1.0 136:1.0 246:1.0 164:1.0 16:1.0 
0.08221628044281454 2:1.0 17:1.0 4:1.0 330:1.0 447:1.0 3305:1.0 8:1.0 9:1.0 584:1.0 13:1.0 11:1.0 217:1.0 245:1.0 20:1.0 136:1.0 164:1.0 37:1.0 16:1.0 
0.08859530049395978 2:1.0 85:1.0 4:1.0 5:1.0 3897:1.0 3305:1.0 8:1.0 9:1.0 584:1.0 54:1.0 81:1.0 13:1.0 11:1.0 217:1.0 37:1.0 136:1.0 20:1.0 14:1.0 164:1.0 16:1.0 
0.09466428662442483 2:1.0 46:1.0 4:1.0 5:1.0 2585:1.0 3818:1.0 8:1.0 9:1.0 584:1.0 245:1.0 13:1.0 11:1.0 217:1.0 246:1.0 20:1.0 136:1.0 164:1.0 37:1.0 16:1.0 
0.035324697594797574 2:1.0 17:1.0 4:1.0 5:1.0 447:1.0 3305:1.0 8:1.0 9:1.0 584:1.0 13:1.0 11:1.0 217:1.0 20:1.0 14:1.0 164:1.0 37:1.0 16:1.0 
0.24154590707378507 2:1.0 85:1.0 4:1.0 5:1.0 7937:1.0 3305:1.0 8:1.0 9:1.0 584:1.0 13:1.0 11:1.0 217:1.0 20:1.0 136:1.0 164:1.0 16:1.0 
-0.06785703899753698 2:1.0 62:1.0 4:1.0 5:1.0 2235:1.0 1529:1.0 8:1.0 9:1.0 584:1.0 11:1.0 80:1.0 217:1.0 13:1.0 14:1.0 82:1.0 164:1.0 16:1.0 
-0.05195138252631024 2:1.0 46:1.0 4:1.0 517:1.0 3148:1.0 4140:1.0 8:1.0 9:1.0 584:1.0 11:1.0 217:1.0 81:1.0 13:1.0 171:1.0 164:1.0 37:1.0 16:1.0 
-0.0888648645413671 2:1.0 46:1.0 4:1.0 5:1.0 12855:1.0 3818:1.0 8:1.0 9:1.0 584:1.0 11:1.0 217:1.0 13:1.0 136:1.0 164:1.0 16:1.0 
-0.14254013295215875 2:1.0 17:1.0 4:1.0 5:1.0 3897:1.0 3818:1.0 8:1.0 9:1.0 584:1.0 11:1.0 13:1.0 82:1.0 16:1.0 
-0.1356647731114973 2:1.0 241:1.0 4:1.0 5:1.0 4188:1.0 3305:1.0 8:1.0 9:1.0 584:1.0 11:1.0 13:1.0 82:1.0 16:1.0 
-0.06335728754366891 2:1.0 666:1.0 4:1.0 5:1.0 667:1.0 3305:1.0 8:1.0 9:1.0 584:1.0 245:1.0 13:1.0 11:1.0 217:1.0 136:1.0 20:1.0 14:1.0 164:1.0 37:1.0 16:1.0 
-0.14143672000938123 2:1.0 85:1.0 4:1.0 5:1.0 3897:1.0 5577:1.0 8:1.0 9:1.0 584:1.0 11:1.0 13:1.0 136:1.0 16:1.0 
-0.16257160148286126 2:1.0 17:1.0 4:1.0 4624:1.0 447:1.0 3305:1.0 162:1.0 9:1.0 584:1.0 11:1.0 82:1.0 
-0.0716918496890874 2:1.0 85:1.0 4:1.0 5:1.0 7937:1.0 3818:1.0 8:1.0 9:1.0 584:1.0 245:1.0 13:1.0 11:1.0 217:1.0 81:1.0 54:1.0 265:1.0 20:1.0 14:1.0 164:1.0 136:1.0 16:1.0 
-0.0678298724402085 2:1.0 17:1.0 4:1.0 4624:1.0 3127:1.0 3818:1.0 8:1.0 9:1.0 584:1.0 11:1.0 81:1.0 13:1.0 14:1.0 136:1.0 16:1.0 
-0.117687240548916 2:1.0 17:1.0 4:1.0 5:1.0 12855:1.0 3305:1.0 260:1.0 9:1.0 584:1.0 11:1.0 217:1.0 334:1.0 164:1.0 
-0.2110686534614305 2:1.0 62:1.0 173:1.0 5:1.0 371:1.0 583:1.0 176:1.0 9:1.0 584:1.0 80:1.0 14:1.0 
-0.03627517945548539 2:1.0 17:1.0 4:1.0 5:1.0 12392:1.0 3863:1.0 8:1.0 9:1.0 584:1.0 11:1.0 13:1.0 245:1.0 217:1.0 80:1.0 81:1.0 82:1.0 20:1.0 265:1.0 726:1.0 14:1.0 164:1.0 16:1.0 
-0.7728152509062995 2:1.0 666:1.0 4:1.0 5:1.0 667:1.0 3305:1.0 8:1.0 9:1.0 584:1.0 54:1.0 13:1.0 11:1.0 217:1.0 37:1.0 20:1.0 14:1.0 164:1.0 16:1.0 
-0.14880952718847196 2:1.0 123:1.0 28:1.0 5:1.0 126:1.0 3333:1.0 32:1.0 9:1.0 584:1.0 35:1.0 54:1.0 81:1.0 13:1.0 48:1.0 37:1.0 14:1.0 20:1.0 
-0.13896880368133183 2:1.0 85:1.0 4:1.0 5:1.0 3897:1.0 10773:1.0 8:1.0 9:1.0 584:1.0 11:1.0 13:1.0 217:1.0 136:1.0 20:1.0 164:1.0 16:1.0 
-0.06267891911513729 2:1.0 666:1.0 4:1.0 5:1.0 667:1.0 3305:1.0 8:1.0 9:1.0 584:1.0 11:1.0 163:1.0 81:1.0 13:1.0 14:1.0 164:1.0 16:1.0 
-0.07857232971740535 2:1.0 85:1.0 4:1.0 517:1.0 7937:1.0 3818:1.0 8:1.0 9:1.0 584:1.0 11:1.0 217:1.0 13:1.0 136:1.0 164:1.0 16:1.0 
-0.07889616098946077 2:1.0 17:1.0 4:1.0 5:1.0 447:1.0 3305:1.0 162:1.0 9:1.0 584:1.0 11:1.0 13:1.0 669:1.0 14:1.0 20:1.0 37:1.0 
-0.12003559788164635 2:1.0 17:1.0 4:1.0 5:1.0 447:1.0 946:1.0 8:1.0 9:1.0 584:1.0 11:1.0 13:1.0 14:1.0 16:1.0 
-0.1156916893977369 2:1.0 46:1.0 266:1.0 5:1.0 4697:1.0 2920:1.0 623:1.0 9:1.0 584:1.0 245:1.0 164:1.0 
-0.048119889162058345 2:1.0 85:1.0 4:1.0 5:1.0 3897:1.0 4584:1.0 260:1.0 9:1.0 584:1.0 11:1.0 81:1.0 206:1.0 245:1.0 334:1.0 136:1.0 207:1.0 246:1.0 
-0.08582694218638258 2:1.0 62:1.0 4:1.0 517:1.0 371:1.0 4549:1.0 8:1.0 9:1.0 584:1.0 455:1.0 11:1.0 80:1.0 245:1.0 13:1.0 207:1.0 82:1.0 37:1.0 16:1.0 
-0.20548173108957168 2:1.0 85:1.0 4:1.0 5:1.0 7937:1.0 3818:1.0 8:1.0 9:1.0 584:1.0 11:1.0 217:1.0 13:1.0 14:1.0 164:1.0 16:1.0 
-0.30310496023788025 2:1.0 17:1.0 4:1.0 5:1.0 447:1.0 3305:1.0 8:1.0 9:1.0 584:1.0 11:1.0 13:1.0 245:1.0 14:1.0 20:1.0 37:1.0 16:1.0 
-0.10552037387712582 2:1.0 46:1.0 4:1.0 4624:1.0 12862:1.0 1410:1.0 8:1.0 9:1.0 584:1.0 11:1.0 217:1.0 13:1.0 136:1.0 164:1.0 16:1.0 
-0.21356623708280661 2:1.0 241:1.0 124:1.0 5:1.0 4528:1.0 4068:1.0 128:1.0 9:1.0 584:1.0 
-0.10316999579987327 2:1.0 85:1.0 4:1.0 5:1.0 12375:1.0 7710:1.0 260:1.0 9:1.0 584:1.0 11:1.0 217:1.0 245:1.0 334:1.0 164:1.0 37:1.0 
-0.09441411099036469 2:1.0 85:1.0 4:1.0 5:1.0 7937:1.0 3818:1.0 8:1.0 9:1.0 584:1.0 11:1.0 13:1.0 217:1.0 81:1.0 14:1.0 20:1.0 164:1.0 16:1.0 
-0.04747349166814776 2:1.0 46:1.0 4:1.0 517:1.0 11966:1.0 4899:1.0 8:1.0 9:1.0 584:1.0 11:1.0 217:1.0 13:1.0 206:1.0 136:1.0 164:1.0 20:1.0 470:1.0 16:1.0 
-0.13160817326632906 2:1.0 17:1.0 4:1.0 517:1.0 11971:1.0 4899:1.0 260:1.0 9:1.0 584:1.0 11:1.0 217:1.0 334:1.0 164:1.0 
-0.10503573202929566 2:1.0 17:1.0 4:1.0 5:1.0 447:1.0 216:1.0 8:1.0 9:1.0 584:1.0 11:1.0 81:1.0 13:1.0 14:1.0 37:1.0 
-0.24154590707378507 2:1.0 85:1.0 4:1.0 5:1.0 7937:1.0 3305:1.0 8:1.0 9:1.0 584:1.0 54:1.0 13:1.0 11:1.0 217:1.0 20:1.0 82:1.0 164:1.0 16:1.0 
-0.09864399621075262 122:1.0 85:1.0 4:1.0 36123:1.0 3897:1.0 3818:1.0 162:1.0 9:1.0 584:1.0 11:1.0 14:1.0 
-0.10769433301416138 2:1.0 17:1.0 4:1.0 517:1.0 447:1.0 3305:1.0 363:1.0 9:1.0 584:1.0 11:1.0 81:1.0 206:1.0 82:1.0 37:1.0 207:1.0 
-0.12235024055250826 2:1.0 85:1.0 4:1.0 5:1.0 7937:1.0 3305:1.0 8:1.0 9:1.0 584:1.0 11:1.0 669:1.0 163:1.0 13:1.0 14:1.0 164:1.0 16:1.0 
-0.17421603482140868 2:1.0 85:1.0 4:1.0 5:1.0 3897:1.0 3818:1.0 8:1.0 9:1.0 584:1.0 11:1.0 217:1.0 13:1.0 136:1.0 164:1.0 16:1.0 
-0.08221628044281454 2:1.0 17:1.0 4:1.0 60:1.0 447:1.0 2644:1.0 363:1.0 9:1.0 584:1.0 245:1.0 13:1.0 11:1.0 217:1.0 81:1.0 37:1.0 20:1.0 82:1.0 164:1.0 
-0.21518473678258712 2:1.0 666:1.0 4:1.0 5:1.0 667:1.0 3818:1.0 8:1.0 9:1.0 584:1.0 11:1.0 81:1.0 217:1.0 13:1.0 14:1.0 164:1.0 16:1.0 
-0.1856293905561619 2:1.0 666:1.0 124:1.0 5:1.0 667:1.0 3305:1.0 128:1.0 9:1.0 584:1.0 217:1.0 245:1.0 164:1.0 37:1.0 
-0.08735464863427991 2:1.0 666:1.0 4:1.0 5:1.0 667:1.0 3818:1.0 8:1.0 9:1.0 584:1.0 245:1.0 11:1.0 81:1.0 13:1.0 217:1.0 37:1.0 14:1.0 246:1.0 20:1.0 164:1.0 16:1.0 
-0.11326569756541355 2:1.0 666:1.0 4:1.0 5:1.0 667:1.0 3818:1.0 8:1.0 9:1.0 584:1.0 11:1.0 163:1.0 13:1.0 14:1.0 164:1.0 16:1.0 
-0.08626254159346888 2:1.0 666:1.0 4:1.0 5:1.0 667:1.0 11987:1.0 8:1.0 9:1.0 584:1.0 245:1.0 13:1.0 11:1.0 37:1.0 20:1.0 14:1.0 164:1.0 16:1.0 
-0.07362716471701512 2:1.0 85:1.0 266:1.0 5:1.0 7937:1.0 4707:1.0 278:1.0 9:1.0 584:1.0 13:1.0 217:1.0 245:1.0 20:1.0 164:1.0 364:1.0 14:1.0 
-0.05255752376196173 2:1.0 85:1.0 4:1.0 5:1.0 41989:1.0 4584:1.0 8:1.0 9:1.0 584:1.0 11:1.0 217:1.0 54:1.0 81:1.0 13:1.0 14:1.0 164:1.0 37:1.0 136:1.0 16:1.0 
-0.3496503776323846 2:1.0 85:1.0 4:1.0 5:1.0 7937:1.0 3818:1.0 8:1.0 9:1.0 584:1.0 11:1.0 163:1.0 13:1.0 82:1.0 164:1.0 16:1.0 
-0.2115296364916271 2:1.0 17:1.0 4:1.0 60:1.0 447:1.0 3305:1.0 8:1.0 9:1.0 584:1.0 11:1.0 217:1.0 13:1.0 14:1.0 164:1.0 16:1.0 
-0.05213363703676049 2:1.0 666:1.0 4:1.0 5:1.0 667:1.0 946:1.0 8:1.0 9:1.0 584:1.0 11:1.0 81:1.0 217:1.0 245:1.0 13:1.0 14:1.0 164:1.0 37:1.0 16:1.0 
-0.2717024774391745 2:1.0 17:1.0 124:1.0 5:1.0 447:1.0 5071:1.0 128:1.0 9:1.0 584:1.0 
-0.08665442500591758 2:1.0 666:1.0 4:1.0 5:1.0 667:1.0 946:1.0 8:1.0 9:1.0 584:1.0 54:1.0 13:1.0 11:1.0 217:1.0 37:1.0 20:1.0 14:1.0 164:1.0 16:1.0 
-0.11866555753848182 2:1.0 666:1.0 4:1.0 5:1.0 667:1.0 3305:1.0 8:1.0 9:1.0 584:1.0 11:1.0 13:1.0 163:1.0 136:1.0 20:1.0 164:1.0 16:1.0 
-0.09466428662442483 2:1.0 666:1.0 4:1.0 517:1.0 667:1.0 3818:1.0 8:1.0 9:1.0 584:1.0 11:1.0 217:1.0 245:1.0 54:1.0 81:1.0 13:1.0 136:1.0 164:1.0 37:1.0 16:1.0 
-0.08859530049395978 2:1.0 17:1.0 4:1.0 5:1.0 12392:1.0 3305:1.0 8:1.0 9:1.0 584:1.0 11:1.0 217:1.0 81:1.0 13:1.0 136:1.0 164:1.0 14:1.0 37:1.0 16:1.0 
-0.1402524541538714 2:1.0 241:1.0 4:1.0 5:1.0 4188:1.0 3818:1.0 195:1.0 9:1.0 584:1.0 
-0.12120109598699255 2:1.0 62:1.0 4:1.0 330:1.0 371:1.0 3855:1.0 363:1.0 9:1.0 584:1.0 11:1.0 80:1.0 82:1.0 
-0.0658590742942851 2:1.0 17:1.0 4:1.0 5:1.0 11971:1.0 3818:1.0 8:1.0 9:1.0 584:1.0 11:1.0 217:1.0 206:1.0 13:1.0 136:1.0 164:1.0 207:1.0 16:1.0 
-0.14400420406812148 2:1.0 85:1.0 4:1.0 5:1.0 3897:1.0 946:1.0 363:1.0 9:1.0 584:1.0 11:1.0 136:1.0 
-500.0 2:1.0 666:1.0 4:1.0 5:1.0 667:1.0 3305:1.0 8:1.0 9:1.0 584:1.0 54:1.0 13:1.0 11:1.0 217:1.0 37:1.0 20:1.0 14:1.0 164:1.0 16:1.0 
-0.13339728469432394 2:1.0 46:1.0 4:1.0 5:1.0 3215:1.0 3305:1.0 8:1.0 9:1.0 584:1.0 11:1.0 217:1.0 13:1.0 136:1.0 164:1.0 16:1.0 
-0.09050746204716385 2:1.0 85:1.0 4:1.0 5:1.0 7937:1.0 2644:1.0 8:1.0 9:1.0 584:1.0 11:1.0 217:1.0 13:1.0 136:1.0 164:1.0 16:1.0 
