svm_type c_svc
kernel_type polynomial
degree 2
gamma 0.2
coef0 0.0
nr_class 2
total_sv 77
rho -0.31131366378337755
label 1 -1
nr_sv 55 22
SV
0.22882362767100128 2:1.0 241:1.0 173:1.0 284:1.0 1082:1.0 5502:1.0 176:1.0 129:1.0 210:1.0 80:1.0 13:1.0 20:1.0 
0.1289356816224195 2:1.0 208:1.0 173:1.0 284:1.0 209:1.0 250:1.0 128:1.0 129:1.0 210:1.0 80:1.0 163:1.0 13:1.0 171:1.0 179:1.0 20:1.0 
0.07238149843869345 2:1.0 208:1.0 76:1.0 927:1.0 209:1.0 1954:1.0 8:1.0 129:1.0 210:1.0 11:1.0 80:1.0 245:1.0 13:1.0 82:1.0 171:1.0 164:1.0 16:1.0 
0.07262266561706934 2:1.0 208:1.0 4:1.0 7128:1.0 209:1.0 10316:1.0 260:1.0 129:1.0 210:1.0 11:1.0 217:1.0 13:1.0 245:1.0 334:1.0 164:1.0 20:1.0 265:1.0 
0.04284426639272304 2:1.0 208:1.0 131:1.0 734:1.0 209:1.0 400:1.0 8:1.0 129:1.0 210:1.0 81:1.0 13:1.0 11:1.0 80:1.0 54:1.0 246:1.0 20:1.0 14:1.0 37:1.0 16:1.0 
0.09784498213815891 122:1.0 208:1.0 124:1.0 2752:1.0 209:1.0 730:1.0 128:1.0 129:1.0 210:1.0 54:1.0 13:1.0 1287:1.0 20:1.0 
0.11349310537539488 2:1.0 297:1.0 76:1.0 5:1.0 2276:1.0 943:1.0 162:1.0 129:1.0 210:1.0 11:1.0 13:1.0 82:1.0 364:1.0 
0.0420544235340681 2:1.0 460:1.0 4:1.0 1109:1.0 13721:1.0 2288:1.0 8:1.0 129:1.0 210:1.0 81:1.0 13:1.0 11:1.0 163:1.0 37:1.0 20:1.0 136:1.0 164:1.0 16:1.0 
0.05747291033828905 2:1.0 208:1.0 173:1.0 1109:1.0 209:1.0 3628:1.0 260:1.0 129:1.0 210:1.0 81:1.0 80:1.0 245:1.0 13:1.0 246:1.0 82:1.0 164:1.0 20:1.0 
0.12220130468453097 122:1.0 208:1.0 124:1.0 4967:1.0 209:1.0 4158:1.0 128:1.0 129:1.0 210:1.0 13:1.0 669:1.0 20:1.0 37:1.0 
0.07029291570022217 2:1.0 208:1.0 124:1.0 734:1.0 209:1.0 6570:1.0 128:1.0 129:1.0 210:1.0 725:1.0 13:1.0 80:1.0 245:1.0 726:1.0 61:1.0 136:1.0 55:1.0 20:1.0 265:1.0 
0.07211074545305642 2:1.0 208:1.0 173:1.0 284:1.0 209:1.0 827:1.0 128:1.0 129:1.0 210:1.0 81:1.0 80:1.0 1451:1.0 179:1.0 14:1.0 164:1.0 
0.07801613980727175 2:1.0 152:1.0 1576:1.0 301:1.0 2985:1.0 7428:1.0 8:1.0 129:1.0 210:1.0 13:1.0 20:1.0 16:1.0 55:1.0 
0.26738831540472324 122:1.0 208:1.0 173:1.0 2752:1.0 209:1.0 788:1.0 176:1.0 129:1.0 210:1.0 
0.059129855220905636 2:1.0 208:1.0 4:1.0 734:1.0 209:1.0 5818:1.0 363:1.0 129:1.0 210:1.0 11:1.0 80:1.0 13:1.0 82:1.0 14:1.0 20:1.0 
0.2891788888903123 2:1.0 208:1.0 124:1.0 5:1.0 572:1.0 1358:1.0 128:1.0 129:1.0 210:1.0 
0.043328135296099864 2:1.0 208:1.0 76:1.0 927:1.0 209:1.0 4627:1.0 363:1.0 129:1.0 210:1.0 81:1.0 13:1.0 11:1.0 725:1.0 305:1.0 20:1.0 14:1.0 61:1.0 726:1.0 55:1.0 
0.05698451919427128 348:1.0 208:1.0 131:1.0 27986:1.0 209:1.0 1215:1.0 8:1.0 129:1.0 210:1.0 81:1.0 13:1.0 11:1.0 54:1.0 246:1.0 20:1.0 14:1.0 37:1.0 16:1.0 
0.08194814138753287 2:1.0 208:1.0 173:1.0 1109:1.0 209:1.0 3155:1.0 8:1.0 129:1.0 210:1.0 80:1.0 13:1.0 14:1.0 16:1.0 
0.114059437787151 904:1.0 208:1.0 173:1.0 3533:1.0 209:1.0 5138:1.0 176:1.0 129:1.0 210:1.0 80:1.0 14:1.0 
0.07853736908339493 2:1.0 208:1.0 173:1.0 284:1.0 572:1.0 5247:1.0 8:1.0 129:1.0 210:1.0 455:1.0 13:1.0 80:1.0 245:1.0 40:1.0 83:1.0 14:1.0 364:1.0 246:1.0 16:1.0 
0.10475842952589096 2:1.0 152:1.0 76:1.0 927:1.0 33178:1.0 10332:1.0 8:1.0 129:1.0 210:1.0 11:1.0 80:1.0 13:1.0 82:1.0 14:1.0 364:1.0 16:1.0 
0.0759521156073879 2:1.0 208:1.0 266:1.0 284:1.0 572:1.0 409:1.0 623:1.0 129:1.0 210:1.0 725:1.0 80:1.0 13:1.0 726:1.0 82:1.0 20:1.0 
0.09183634900969123 2:1.0 208:1.0 173:1.0 5:1.0 209:1.0 409:1.0 128:1.0 129:1.0 210:1.0 80:1.0 245:1.0 8477:1.0 35479:1.0 14:1.0 37:1.0 
0.08987967705485556 2:1.0 208:1.0 4:1.0 734:1.0 209:1.0 36415:1.0 486:1.0 129:1.0 210:1.0 11:1.0 13:1.0 14:1.0 20:1.0 
0.13604317880971012 122:1.0 231:1.0 173:1.0 36417:1.0 15353:1.0 35424:1.0 128:1.0 129:1.0 210:1.0 80:1.0 13:1.0 14:1.0 20:1.0 
0.0483461279729975 224:1.0 460:1.0 4:1.0 225:1.0 15353:1.0 24313:1.0 8:1.0 129:1.0 210:1.0 11:1.0 217:1.0 81:1.0 82:1.0 37:1.0 20:1.0 14:1.0 16:1.0 
0.06495199528308515 2:1.0 208:1.0 4:1.0 734:1.0 209:1.0 155:1.0 8:1.0 129:1.0 210:1.0 13:1.0 80:1.0 11:1.0 61:1.0 38:1.0 20:1.0 171:1.0 16:1.0 
0.1543833166996189 2:1.0 208:1.0 173:1.0 1109:1.0 209:1.0 39592:1.0 278:1.0 129:1.0 210:1.0 80:1.0 36:1.0 14:1.0 37:1.0 
0.05005337041741911 122:1.0 460:1.0 4:1.0 4967:1.0 18010:1.0 583:1.0 8:1.0 129:1.0 210:1.0 11:1.0 80:1.0 245:1.0 13:1.0 171:1.0 14:1.0 37:1.0 20:1.0 16:1.0 
0.04548858051457794 122:1.0 152:1.0 131:1.0 40416:1.0 234:1.0 591:1.0 8:1.0 129:1.0 210:1.0 455:1.0 11:1.0 725:1.0 80:1.0 13:1.0 207:1.0 136:1.0 726:1.0 14:1.0 364:1.0 61:1.0 
0.1229734876748197 2:1.0 208:1.0 124:1.0 5:1.0 209:1.0 6528:1.0 128:1.0 129:1.0 210:1.0 
0.12321006602145193 2:1.0 208:1.0 266:1.0 5019:1.0 209:1.0 6323:1.0 486:1.0 129:1.0 210:1.0 80:1.0 14:1.0 
0.07925117365227863 2:1.0 208:1.0 76:1.0 284:1.0 209:1.0 1215:1.0 8:1.0 129:1.0 210:1.0 13:1.0 11:1.0 178:1.0 20:1.0 82:1.0 37:1.0 16:1.0 
0.0438475327630774 2:1.0 208:1.0 131:1.0 734:1.0 1260:1.0 723:1.0 8:1.0 129:1.0 210:1.0 11:1.0 245:1.0 80:1.0 13:1.0 14:1.0 246:1.0 171:1.0 20:1.0 16:1.0 
0.04990435558576444 2:1.0 208:1.0 4:1.0 284:1.0 209:1.0 3674:1.0 8:1.0 129:1.0 210:1.0 11:1.0 80:1.0 245:1.0 81:1.0 13:1.0 171:1.0 1025:1.0 14:1.0 364:1.0 16:1.0 
0.054139457361623164 2:1.0 208:1.0 131:1.0 284:1.0 209:1.0 11725:1.0 8:1.0 129:1.0 210:1.0 245:1.0 13:1.0 11:1.0 80:1.0 470:1.0 20:1.0 136:1.0 14:1.0 16:1.0 
0.09784451267347047 2:1.0 152:1.0 131:1.0 301:1.0 8117:1.0 4458:1.0 8:1.0 129:1.0 210:1.0 11:1.0 245:1.0 13:1.0 171:1.0 37:1.0 364:1.0 16:1.0 
0.1793749464365924 2:1.0 208:1.0 131:1.0 927:1.0 209:1.0 2788:1.0 363:1.0 129:1.0 210:1.0 11:1.0 14:1.0 
0.0956627881669308 2:1.0 208:1.0 173:1.0 5:1.0 209:1.0 1139:1.0 486:1.0 129:1.0 210:1.0 80:1.0 725:1.0 13:1.0 171:1.0 726:1.0 20:1.0 
0.07301195854828041 2:1.0 208:1.0 173:1.0 734:1.0 209:1.0 2236:1.0 8:1.0 129:1.0 210:1.0 11:1.0 245:1.0 13:1.0 82:1.0 246:1.0 20:1.0 16:1.0 
0.15208317733097187 2:1.0 208:1.0 76:1.0 5:1.0 209:1.0 788:1.0 260:1.0 129:1.0 210:1.0 11:1.0 80:1.0 469:1.0 82:1.0 
0.1837709969827791 2:1.0 208:1.0 124:1.0 301:1.0 209:1.0 2347:1.0 128:1.0 129:1.0 210:1.0 725:1.0 726:1.0 
0.07666231077549934 2:1.0 208:1.0 76:1.0 734:1.0 209:1.0 44697:1.0 8:1.0 129:1.0 210:1.0 11:1.0 245:1.0 13:1.0 82:1.0 246:1.0 37:1.0 16:1.0 
0.09705251606009149 1283:1.0 208:1.0 4:1.0 6076:1.0 209:1.0 44713:1.0 162:1.0 129:1.0 210:1.0 11:1.0 245:1.0 171:1.0 37:1.0 
0.22683321319414043 26:1.0 208:1.0 124:1.0 44945:1.0 209:1.0 5189:1.0 477:1.0 129:1.0 210:1.0 
0.06906705550945377 2:1.0 152:1.0 4:1.0 5:1.0 234:1.0 5793:1.0 195:1.0 129:1.0 210:1.0 80:1.0 725:1.0 13:1.0 171:1.0 726:1.0 364:1.0 
0.18111801499002325 904:1.0 208:1.0 131:1.0 13815:1.0 209:1.0 5071:1.0 260:1.0 129:1.0 210:1.0 11:1.0 334:1.0 
0.10548579699186861 122:1.0 208:1.0 173:1.0 43018:1.0 572:1.0 15984:1.0 128:1.0 129:1.0 210:1.0 245:1.0 246:1.0 
0.191663890570641 122:1.0 208:1.0 173:1.0 535:1.0 572:1.0 8420:1.0 176:1.0 129:1.0 210:1.0 80:1.0 82:1.0 
0.06313620524843619 2:1.0 208:1.0 131:1.0 284:1.0 209:1.0 2885:1.0 8:1.0 129:1.0 210:1.0 81:1.0 13:1.0 11:1.0 245:1.0 157:1.0 20:1.0 171:1.0 37:1.0 16:1.0 
0.10075277559333466 122:1.0 208:1.0 173:1.0 9000:1.0 572:1.0 20803:1.0 176:1.0 129:1.0 210:1.0 80:1.0 245:1.0 14:1.0 246:1.0 
0.07111195936929113 122:1.0 208:1.0 4:1.0 4967:1.0 209:1.0 4088:1.0 8:1.0 129:1.0 210:1.0 455:1.0 11:1.0 669:1.0 13:1.0 207:1.0 82:1.0 37:1.0 16:1.0 
0.09423676590784313 122:1.0 208:1.0 131:1.0 4967:1.0 209:1.0 244:1.0 486:1.0 129:1.0 210:1.0 11:1.0 12:1.0 14:1.0 15:1.0 
0.06549888127602993 122:1.0 208:1.0 4:1.0 37515:1.0 209:1.0 2410:1.0 162:1.0 129:1.0 210:1.0 11:1.0 80:1.0 245:1.0 13:1.0 171:1.0 14:1.0 164:1.0 20:1.0 
-0.20443668711703802 2:1.0 231:1.0 173:1.0 1109:1.0 11723:1.0 14279:1.0 128:1.0 129:1.0 210:1.0 13:1.0 80:1.0 20:1.0 82:1.0 
-0.336391622577094 122:1.0 208:1.0 173:1.0 2752:1.0 209:1.0 321:1.0 176:1.0 129:1.0 210:1.0 80:1.0 82:1.0 
-0.1793749464365924 2:1.0 208:1.0 173:1.0 927:1.0 209:1.0 1500:1.0 128:1.0 129:1.0 210:1.0 245:1.0 13:1.0 246:1.0 20:1.0 37:1.0 
-0.18111801499002325 2:1.0 208:1.0 124:1.0 734:1.0 209:1.0 24669:1.0 128:1.0 129:1.0 210:1.0 81:1.0 13:1.0 37:1.0 20:1.0 
-0.437161215025865 302:1.0 208:1.0 124:1.0 457:1.0 209:1.0 1717:1.0 128:1.0 129:1.0 210:1.0 
-0.21881535867727506 2:1.0 152:1.0 131:1.0 927:1.0 12455:1.0 2741:1.0 260:1.0 129:1.0 210:1.0 11:1.0 13:1.0 334:1.0 20:1.0 
-0.27751919716097895 2:1.0 208:1.0 201:1.0 7128:1.0 572:1.0 203:1.0 623:1.0 129:1.0 210:1.0 211:1.0 82:1.0 
-0.191663890570641 904:1.0 208:1.0 28:1.0 30425:1.0 209:1.0 2891:1.0 623:1.0 129:1.0 210:1.0 35:1.0 614:1.0 48:1.0 
-0.3343094246628699 2:1.0 241:1.0 173:1.0 284:1.0 2709:1.0 2182:1.0 128:1.0 129:1.0 210:1.0 80:1.0 14:1.0 
-0.2419632342700194 2:1.0 208:1.0 173:1.0 5:1.0 572:1.0 788:1.0 176:1.0 129:1.0 210:1.0 80:1.0 82:1.0 
-0.07666231077549934 2:1.0 208:1.0 28:1.0 39:1.0 209:1.0 5692:1.0 8:1.0 129:1.0 210:1.0 455:1.0 13:1.0 35:1.0 54:1.0 470:1.0 364:1.0 136:1.0 20:1.0 40:1.0 37:1.0 16:1.0 
-0.10475842952589096 2:1.0 208:1.0 28:1.0 39:1.0 209:1.0 3740:1.0 8:1.0 129:1.0 210:1.0 35:1.0 13:1.0 54:1.0 136:1.0 20:1.0 37:1.0 16:1.0 
-0.2939434358046309 2:1.0 208:1.0 124:1.0 284:1.0 572:1.0 5502:1.0 128:1.0 129:1.0 210:1.0 80:1.0 14:1.0 
-0.18723784930754306 2:1.0 208:1.0 131:1.0 733:1.0 209:1.0 9088:1.0 162:1.0 129:1.0 210:1.0 11:1.0 80:1.0 14:1.0 82:1.0 
-0.43512941688913453 2:1.0 208:1.0 124:1.0 734:1.0 209:1.0 788:1.0 128:1.0 129:1.0 210:1.0 
-0.5280532113767462 122:1.0 208:1.0 173:1.0 4967:1.0 209:1.0 788:1.0 176:1.0 129:1.0 210:1.0 
-0.1975717578455498 2:1.0 208:1.0 124:1.0 1109:1.0 209:1.0 1930:1.0 128:1.0 129:1.0 210:1.0 375:1.0 13:1.0 37:1.0 20:1.0 
-0.1837709969827791 2:1.0 208:1.0 124:1.0 284:1.0 209:1.0 5355:1.0 128:1.0 129:1.0 210:1.0 455:1.0 245:1.0 48:1.0 37:1.0 
-0.2558804842761097 224:1.0 208:1.0 275:1.0 225:1.0 209:1.0 277:1.0 32:1.0 129:1.0 210:1.0 2587:1.0 237:1.0 
-0.17229623812426487 2:1.0 208:1.0 76:1.0 927:1.0 209:1.0 13423:1.0 8:1.0 129:1.0 210:1.0 11:1.0 80:1.0 13:1.0 82:1.0 16:1.0 
-0.26738831540472324 2:1.0 208:1.0 201:1.0 284:1.0 209:1.0 1179:1.0 623:1.0 129:1.0 210:1.0 211:1.0 14:1.0 
-0.34358987081594883 2:1.0 208:1.0 173:1.0 5:1.0 572:1.0 11030:1.0 176:1.0 129:1.0 210:1.0 245:1.0 37:1.0 
