svm_type c_svc
kernel_type polynomial
degree 2
gamma 0.2
coef0 0.0
nr_class 2
total_sv 2
rho -0.08679246002773072
label 1 -1
nr_sv 1 1
SV
0.18867924528301885 41:1.0 17:1.0 266:1.0 6720:1.0 20118:1.0 3944:1.0 564:1.0 33:1.0 558:1.0 217:1.0 246:1.0 
-0.18867924528301885 2:1.0 17:1.0 275:1.0 39:1.0 1071:1.0 277:1.0 564:1.0 33:1.0 558:1.0 2587:1.0 81:1.0 237:1.0 
