svm_type c_svc
kernel_type polynomial
degree 2
gamma 0.2
coef0 0.0
nr_class 2
total_sv 30
rho 0.24507472544727815
label 1 -1
nr_sv 15 15
SV
0.056456570915509256 365:1.0 123:1.0 4:1.0 1568:1.0 126:1.0 7:1.0 8:1.0 53:1.0 5429:1.0 12:1.0 11:1.0 217:1.0 5425:1.0 5426:1.0 13:1.0 206:1.0 470:1.0 82:1.0 164:1.0 37:1.0 364:1.0 14:1.0 20:1.0 207:1.0 16:1.0 
0.06973500771553122 365:1.0 62:1.0 4:1.0 1568:1.0 219:1.0 7:1.0 8:1.0 53:1.0 5429:1.0 12:1.0 11:1.0 217:1.0 5425:1.0 5426:1.0 13:1.0 206:1.0 470:1.0 82:1.0 164:1.0 37:1.0 364:1.0 14:1.0 20:1.0 207:1.0 16:1.0 
500.0 365:1.0 123:1.0 4:1.0 1568:1.0 126:1.0 7:1.0 8:1.0 53:1.0 5429:1.0 12:1.0 11:1.0 217:1.0 13:1.0 5425:1.0 5426:1.0 206:1.0 470:1.0 82:1.0 164:1.0 37:1.0 364:1.0 14:1.0 20:1.0 207:1.0 16:1.0 
500.0 365:1.0 62:1.0 4:1.0 1568:1.0 219:1.0 7:1.0 8:1.0 53:1.0 5429:1.0 12:1.0 11:1.0 217:1.0 13:1.0 5425:1.0 5426:1.0 206:1.0 470:1.0 82:1.0 164:1.0 37:1.0 364:1.0 14:1.0 20:1.0 207:1.0 16:1.0 
500.0 365:1.0 123:1.0 4:1.0 1568:1.0 126:1.0 7:1.0 8:1.0 53:1.0 5429:1.0 12:1.0 11:1.0 217:1.0 13:1.0 5425:1.0 5426:1.0 206:1.0 470:1.0 82:1.0 164:1.0 37:1.0 364:1.0 14:1.0 20:1.0 207:1.0 16:1.0 
500.0 365:1.0 62:1.0 4:1.0 1568:1.0 219:1.0 7:1.0 8:1.0 53:1.0 5429:1.0 12:1.0 11:1.0 217:1.0 13:1.0 5425:1.0 5426:1.0 206:1.0 470:1.0 82:1.0 164:1.0 37:1.0 364:1.0 14:1.0 20:1.0 207:1.0 16:1.0 
500.0 365:1.0 123:1.0 4:1.0 1568:1.0 126:1.0 7:1.0 8:1.0 53:1.0 5429:1.0 12:1.0 11:1.0 217:1.0 13:1.0 5425:1.0 5426:1.0 206:1.0 470:1.0 82:1.0 164:1.0 37:1.0 364:1.0 14:1.0 20:1.0 207:1.0 16:1.0 
500.0 365:1.0 62:1.0 4:1.0 1568:1.0 219:1.0 7:1.0 8:1.0 53:1.0 5429:1.0 12:1.0 11:1.0 217:1.0 13:1.0 5425:1.0 5426:1.0 206:1.0 470:1.0 82:1.0 164:1.0 37:1.0 364:1.0 14:1.0 20:1.0 207:1.0 16:1.0 
500.0 365:1.0 123:1.0 4:1.0 1568:1.0 126:1.0 7:1.0 8:1.0 53:1.0 5429:1.0 12:1.0 11:1.0 217:1.0 13:1.0 5425:1.0 5426:1.0 206:1.0 470:1.0 82:1.0 164:1.0 37:1.0 364:1.0 14:1.0 20:1.0 207:1.0 16:1.0 
500.0 365:1.0 62:1.0 4:1.0 1568:1.0 219:1.0 7:1.0 8:1.0 53:1.0 5429:1.0 12:1.0 11:1.0 217:1.0 13:1.0 5425:1.0 5426:1.0 206:1.0 470:1.0 82:1.0 164:1.0 37:1.0 364:1.0 14:1.0 20:1.0 207:1.0 16:1.0 
500.0 365:1.0 123:1.0 4:1.0 1568:1.0 126:1.0 7:1.0 8:1.0 53:1.0 5429:1.0 12:1.0 11:1.0 217:1.0 13:1.0 5425:1.0 5426:1.0 206:1.0 470:1.0 82:1.0 164:1.0 37:1.0 364:1.0 14:1.0 20:1.0 207:1.0 16:1.0 
500.0 365:1.0 62:1.0 4:1.0 1568:1.0 219:1.0 7:1.0 8:1.0 53:1.0 5429:1.0 12:1.0 11:1.0 217:1.0 13:1.0 5425:1.0 5426:1.0 206:1.0 470:1.0 82:1.0 164:1.0 37:1.0 364:1.0 14:1.0 20:1.0 207:1.0 16:1.0 
500.0 365:1.0 123:1.0 4:1.0 1568:1.0 126:1.0 7:1.0 8:1.0 53:1.0 5429:1.0 12:1.0 11:1.0 217:1.0 13:1.0 5425:1.0 5426:1.0 206:1.0 470:1.0 82:1.0 164:1.0 37:1.0 364:1.0 14:1.0 20:1.0 207:1.0 16:1.0 
500.0 365:1.0 62:1.0 4:1.0 1568:1.0 219:1.0 7:1.0 8:1.0 53:1.0 5429:1.0 12:1.0 11:1.0 217:1.0 13:1.0 5425:1.0 5426:1.0 206:1.0 470:1.0 82:1.0 164:1.0 37:1.0 364:1.0 14:1.0 20:1.0 207:1.0 16:1.0 
0.8064516129032245 90:1.0 123:1.0 173:1.0 91:1.0 126:1.0 7710:1.0 128:1.0 53:1.0 5429:1.0 217:1.0 5426:1.0 13:1.0 245:1.0 37:1.0 164:1.0 20:1.0 
-500.0 365:1.0 123:1.0 4:1.0 1568:1.0 126:1.0 7:1.0 8:1.0 53:1.0 5429:1.0 12:1.0 11:1.0 217:1.0 13:1.0 5425:1.0 5426:1.0 206:1.0 470:1.0 82:1.0 164:1.0 37:1.0 364:1.0 14:1.0 20:1.0 207:1.0 16:1.0 
-500.0 365:1.0 123:1.0 4:1.0 1568:1.0 126:1.0 7:1.0 8:1.0 53:1.0 5429:1.0 12:1.0 11:1.0 217:1.0 13:1.0 5425:1.0 5426:1.0 206:1.0 470:1.0 82:1.0 164:1.0 37:1.0 364:1.0 14:1.0 20:1.0 207:1.0 16:1.0 
-500.0 365:1.0 123:1.0 4:1.0 1568:1.0 126:1.0 7:1.0 8:1.0 53:1.0 5429:1.0 12:1.0 11:1.0 217:1.0 13:1.0 5425:1.0 5426:1.0 206:1.0 470:1.0 82:1.0 164:1.0 37:1.0 364:1.0 14:1.0 20:1.0 207:1.0 16:1.0 
-500.0 365:1.0 62:1.0 4:1.0 1568:1.0 219:1.0 7:1.0 8:1.0 53:1.0 5429:1.0 12:1.0 11:1.0 217:1.0 13:1.0 5425:1.0 5426:1.0 206:1.0 470:1.0 82:1.0 164:1.0 37:1.0 364:1.0 14:1.0 20:1.0 207:1.0 16:1.0 
-500.0 365:1.0 62:1.0 4:1.0 1568:1.0 219:1.0 7:1.0 8:1.0 53:1.0 5429:1.0 12:1.0 11:1.0 217:1.0 13:1.0 5425:1.0 5426:1.0 206:1.0 470:1.0 82:1.0 164:1.0 37:1.0 364:1.0 14:1.0 20:1.0 207:1.0 16:1.0 
-500.0 365:1.0 62:1.0 4:1.0 1568:1.0 219:1.0 7:1.0 8:1.0 53:1.0 5429:1.0 12:1.0 11:1.0 217:1.0 13:1.0 5425:1.0 5426:1.0 206:1.0 470:1.0 82:1.0 164:1.0 37:1.0 364:1.0 14:1.0 20:1.0 207:1.0 16:1.0 
-500.0 365:1.0 123:1.0 4:1.0 1568:1.0 126:1.0 7:1.0 8:1.0 53:1.0 5429:1.0 12:1.0 11:1.0 217:1.0 13:1.0 5425:1.0 5426:1.0 206:1.0 470:1.0 82:1.0 164:1.0 37:1.0 364:1.0 14:1.0 20:1.0 207:1.0 16:1.0 
-500.0 365:1.0 123:1.0 4:1.0 1568:1.0 126:1.0 7:1.0 8:1.0 53:1.0 5429:1.0 12:1.0 11:1.0 217:1.0 13:1.0 5425:1.0 5426:1.0 206:1.0 470:1.0 82:1.0 164:1.0 37:1.0 364:1.0 14:1.0 20:1.0 207:1.0 16:1.0 
-500.0 365:1.0 62:1.0 4:1.0 1568:1.0 219:1.0 7:1.0 8:1.0 53:1.0 5429:1.0 12:1.0 11:1.0 217:1.0 13:1.0 5425:1.0 5426:1.0 206:1.0 470:1.0 82:1.0 164:1.0 37:1.0 364:1.0 14:1.0 20:1.0 207:1.0 16:1.0 
-500.0 365:1.0 62:1.0 4:1.0 1568:1.0 219:1.0 7:1.0 8:1.0 53:1.0 5429:1.0 12:1.0 11:1.0 217:1.0 13:1.0 5425:1.0 5426:1.0 206:1.0 470:1.0 82:1.0 164:1.0 37:1.0 364:1.0 14:1.0 20:1.0 207:1.0 16:1.0 
-500.0 365:1.0 123:1.0 4:1.0 1568:1.0 126:1.0 7:1.0 8:1.0 53:1.0 5429:1.0 12:1.0 11:1.0 217:1.0 13:1.0 5425:1.0 5426:1.0 206:1.0 470:1.0 82:1.0 164:1.0 37:1.0 364:1.0 14:1.0 20:1.0 207:1.0 16:1.0 
-500.0 365:1.0 62:1.0 4:1.0 1568:1.0 219:1.0 7:1.0 8:1.0 53:1.0 5429:1.0 12:1.0 11:1.0 217:1.0 13:1.0 5425:1.0 5426:1.0 206:1.0 470:1.0 82:1.0 164:1.0 37:1.0 364:1.0 14:1.0 20:1.0 207:1.0 16:1.0 
-0.056456570915509256 90:1.0 123:1.0 4:1.0 91:1.0 126:1.0 7:1.0 8:1.0 53:1.0 5429:1.0 12:1.0 11:1.0 217:1.0 13:1.0 5425:1.0 5426:1.0 206:1.0 470:1.0 82:1.0 164:1.0 37:1.0 364:1.0 14:1.0 207:1.0 16:1.0 
-0.06973500771553122 113:1.0 62:1.0 4:1.0 114:1.0 219:1.0 7:1.0 8:1.0 53:1.0 5429:1.0 12:1.0 11:1.0 217:1.0 5425:1.0 5426:1.0 206:1.0 470:1.0 82:1.0 164:1.0 37:1.0 364:1.0 20:1.0 207:1.0 
-0.8064516129032245 90:1.0 123:1.0 173:1.0 91:1.0 126:1.0 7710:1.0 128:1.0 53:1.0 5429:1.0 217:1.0 13:1.0 5426:1.0 245:1.0 37:1.0 164:1.0 20:1.0 
