svm_type c_svc
kernel_type polynomial
degree 2
gamma 0.2
coef0 0.0
nr_class 2
total_sv 937
rho -0.09255552611479866
label 1 -1
nr_sv 527 410
SV
0.08638701491334852 68:1.0 3:1.0 201:1.0 202:1.0 6:1.0 203:1.0 204:1.0 205:1.0 10:1.0 206:1.0 207:1.0 
0.2257281720323073 68:1.0 3:1.0 201:1.0 1178:1.0 6:1.0 1179:1.0 486:1.0 205:1.0 10:1.0 206:1.0 470:1.0 
0.20839937343528453 100:1.0 66:1.0 201:1.0 1457:1.0 67:1.0 519:1.0 623:1.0 205:1.0 10:1.0 13:1.0 61:1.0 
0.33227472347830644 100:1.0 66:1.0 275:1.0 1644:1.0 67:1.0 277:1.0 260:1.0 205:1.0 10:1.0 13:1.0 61:1.0 
0.09555965450214711 97:1.0 24:1.0 201:1.0 863:1.0 25:1.0 519:1.0 8:1.0 205:1.0 10:1.0 455:1.0 245:1.0 207:1.0 246:1.0 
500.0 100:1.0 3:1.0 201:1.0 2614:1.0 6:1.0 519:1.0 79:1.0 205:1.0 10:1.0 13:1.0 20:1.0 
0.17187617755616894 100:1.0 3:1.0 201:1.0 3414:1.0 6:1.0 2331:1.0 3632:1.0 205:1.0 10:1.0 669:1.0 37:1.0 
0.10127115212864779 68:1.0 24:1.0 201:1.0 4340:1.0 1289:1.0 203:1.0 8:1.0 205:1.0 10:1.0 13:1.0 16:1.0 55:1.0 
0.12051608732278617 68:1.0 24:1.0 201:1.0 4340:1.0 4339:1.0 203:1.0 8:1.0 205:1.0 10:1.0 13:1.0 16:1.0 55:1.0 
0.0993308577221795 68:1.0 66:1.0 201:1.0 4340:1.0 67:1.0 203:1.0 8:1.0 205:1.0 10:1.0 13:1.0 16:1.0 
0.42135819018633025 302:1.0 104:1.0 201:1.0 4545:1.0 105:1.0 2331:1.0 79:1.0 205:1.0 10:1.0 13:1.0 96:1.0 
0.35661766496638503 100:1.0 380:1.0 201:1.0 1018:1.0 381:1.0 203:1.0 79:1.0 205:1.0 10:1.0 13:1.0 455:1.0 364:1.0 207:1.0 265:1.0 
0.2761498558482989 405:1.0 66:1.0 201:1.0 368:1.0 67:1.0 1085:1.0 260:1.0 205:1.0 10:1.0 13:1.0 61:1.0 
0.44438330427647305 100:1.0 3:1.0 201:1.0 2466:1.0 6:1.0 519:1.0 79:1.0 205:1.0 10:1.0 13:1.0 211:1.0 20:1.0 37:1.0 
0.4928758628631733 2:1.0 3:1.0 201:1.0 60:1.0 6:1.0 519:1.0 79:1.0 205:1.0 10:1.0 13:1.0 211:1.0 20:1.0 14:1.0 
500.0 97:1.0 3:1.0 201:1.0 6634:1.0 6:1.0 1022:1.0 79:1.0 205:1.0 10:1.0 13:1.0 20:1.0 
0.0839817013122982 302:1.0 3:1.0 201:1.0 368:1.0 6:1.0 1179:1.0 623:1.0 205:1.0 10:1.0 13:1.0 206:1.0 20:1.0 207:1.0 
0.11361688086989863 68:1.0 24:1.0 201:1.0 7607:1.0 25:1.0 203:1.0 8:1.0 205:1.0 10:1.0 13:1.0 206:1.0 20:1.0 470:1.0 
0.21609313208253839 68:1.0 104:1.0 201:1.0 8444:1.0 105:1.0 1179:1.0 79:1.0 205:1.0 10:1.0 13:1.0 96:1.0 
500.0 100:1.0 380:1.0 201:1.0 2015:1.0 381:1.0 519:1.0 79:1.0 205:1.0 10:1.0 13:1.0 364:1.0 
500.0 100:1.0 380:1.0 201:1.0 1516:1.0 381:1.0 1217:1.0 79:1.0 205:1.0 10:1.0 13:1.0 364:1.0 
0.14571872557504661 97:1.0 3:1.0 201:1.0 3280:1.0 6:1.0 965:1.0 623:1.0 205:1.0 10:1.0 206:1.0 207:1.0 
500.0 97:1.0 3:1.0 201:1.0 2698:1.0 6:1.0 10055:1.0 79:1.0 205:1.0 10:1.0 13:1.0 20:1.0 
500.0 100:1.0 3:1.0 201:1.0 7470:1.0 6:1.0 519:1.0 79:1.0 205:1.0 10:1.0 13:1.0 20:1.0 
500.0 100:1.0 380:1.0 201:1.0 10156:1.0 381:1.0 1291:1.0 79:1.0 205:1.0 10:1.0 13:1.0 364:1.0 
0.19305019358332143 97:1.0 57:1.0 201:1.0 7634:1.0 59:1.0 1217:1.0 8:1.0 205:1.0 10:1.0 13:1.0 455:1.0 364:1.0 38:1.0 16:1.0 
0.192421192822862 100:1.0 57:1.0 201:1.0 10186:1.0 59:1.0 1217:1.0 8:1.0 205:1.0 10:1.0 13:1.0 455:1.0 364:1.0 305:1.0 16:1.0 
0.08584066522350997 97:1.0 57:1.0 201:1.0 2311:1.0 59:1.0 1217:1.0 8:1.0 205:1.0 10:1.0 13:1.0 455:1.0 364:1.0 38:1.0 16:1.0 
0.10346014496744939 100:1.0 380:1.0 201:1.0 10220:1.0 878:1.0 1217:1.0 8:1.0 205:1.0 10:1.0 455:1.0 13:1.0 470:1.0 16:1.0 
0.19305019358332143 97:1.0 57:1.0 201:1.0 2311:1.0 59:1.0 1217:1.0 8:1.0 205:1.0 10:1.0 13:1.0 455:1.0 364:1.0 157:1.0 16:1.0 
0.08256137423036629 97:1.0 380:1.0 201:1.0 2311:1.0 6726:1.0 1217:1.0 8:1.0 205:1.0 10:1.0 13:1.0 455:1.0 364:1.0 61:1.0 157:1.0 16:1.0 
0.19305019358332143 97:1.0 57:1.0 201:1.0 6095:1.0 59:1.0 1217:1.0 8:1.0 205:1.0 10:1.0 13:1.0 455:1.0 364:1.0 38:1.0 16:1.0 
0.19631594433172275 97:1.0 57:1.0 201:1.0 2152:1.0 59:1.0 1217:1.0 8:1.0 205:1.0 10:1.0 13:1.0 455:1.0 364:1.0 157:1.0 16:1.0 
0.19156803383295598 68:1.0 57:1.0 201:1.0 10271:1.0 59:1.0 1217:1.0 8:1.0 205:1.0 10:1.0 13:1.0 455:1.0 364:1.0 237:1.0 16:1.0 
0.15675071830037757 122:1.0 24:1.0 201:1.0 1081:1.0 25:1.0 6630:1.0 8:1.0 205:1.0 10:1.0 13:1.0 206:1.0 20:1.0 38:1.0 
0.13553230956949786 100:1.0 66:1.0 201:1.0 11141:1.0 67:1.0 1085:1.0 623:1.0 205:1.0 10:1.0 13:1.0 61:1.0 20:1.0 
0.1226886453429659 100:1.0 3:1.0 275:1.0 11294:1.0 6:1.0 277:1.0 260:1.0 205:1.0 10:1.0 206:1.0 164:1.0 
0.1480906028193968 100:1.0 3:1.0 124:1.0 11641:1.0 6:1.0 827:1.0 623:1.0 205:1.0 10:1.0 
500.0 100:1.0 380:1.0 266:1.0 4273:1.0 381:1.0 4633:1.0 79:1.0 205:1.0 10:1.0 13:1.0 364:1.0 
500.0 97:1.0 3:1.0 201:1.0 2698:1.0 6:1.0 10055:1.0 79:1.0 205:1.0 10:1.0 13:1.0 20:1.0 
500.0 100:1.0 380:1.0 201:1.0 12256:1.0 381:1.0 203:1.0 79:1.0 205:1.0 10:1.0 13:1.0 364:1.0 
0.2659636660543762 100:1.0 104:1.0 201:1.0 829:1.0 4765:1.0 9677:1.0 79:1.0 205:1.0 10:1.0 13:1.0 96:1.0 
500.0 100:1.0 380:1.0 201:1.0 12276:1.0 381:1.0 611:1.0 79:1.0 205:1.0 10:1.0 13:1.0 364:1.0 
500.0 100:1.0 380:1.0 266:1.0 5180:1.0 381:1.0 4633:1.0 79:1.0 205:1.0 10:1.0 13:1.0 364:1.0 
500.0 100:1.0 3:1.0 201:1.0 12301:1.0 6:1.0 203:1.0 79:1.0 205:1.0 10:1.0 13:1.0 20:1.0 
0.4438474976877064 122:1.0 380:1.0 201:1.0 1534:1.0 381:1.0 203:1.0 79:1.0 205:1.0 10:1.0 13:1.0 211:1.0 364:1.0 14:1.0 
0.4427083600331509 100:1.0 380:1.0 201:1.0 1486:1.0 381:1.0 203:1.0 79:1.0 205:1.0 10:1.0 13:1.0 211:1.0 364:1.0 246:1.0 
500.0 68:1.0 3:1.0 201:1.0 7607:1.0 6:1.0 524:1.0 79:1.0 205:1.0 10:1.0 13:1.0 20:1.0 
500.0 100:1.0 3:1.0 201:1.0 12643:1.0 6:1.0 519:1.0 79:1.0 205:1.0 10:1.0 13:1.0 20:1.0 
500.0 97:1.0 3:1.0 201:1.0 829:1.0 6:1.0 519:1.0 79:1.0 205:1.0 10:1.0 13:1.0 20:1.0 
500.0 2:1.0 3:1.0 275:1.0 5:1.0 6:1.0 277:1.0 195:1.0 205:1.0 10:1.0 13:1.0 211:1.0 20:1.0 82:1.0 
500.0 97:1.0 3:1.0 201:1.0 3025:1.0 6:1.0 10055:1.0 79:1.0 205:1.0 10:1.0 13:1.0 20:1.0 
0.09590217033509434 26:1.0 3:1.0 201:1.0 13280:1.0 6:1.0 203:1.0 111:1.0 205:1.0 10:1.0 13:1.0 206:1.0 20:1.0 37:1.0 
500.0 100:1.0 3:1.0 201:1.0 12732:1.0 6:1.0 2331:1.0 79:1.0 205:1.0 10:1.0 13:1.0 20:1.0 
0.10219520484280556 68:1.0 24:1.0 201:1.0 8599:1.0 25:1.0 1217:1.0 8:1.0 205:1.0 10:1.0 13:1.0 81:1.0 206:1.0 20:1.0 470:1.0 
500.0 97:1.0 3:1.0 201:1.0 13570:1.0 6:1.0 1022:1.0 79:1.0 205:1.0 10:1.0 13:1.0 20:1.0 
0.36098345737553544 405:1.0 66:1.0 201:1.0 2991:1.0 67:1.0 1217:1.0 260:1.0 205:1.0 10:1.0 13:1.0 61:1.0 
0.41013348609785605 2:1.0 66:1.0 201:1.0 5:1.0 67:1.0 1217:1.0 260:1.0 205:1.0 10:1.0 13:1.0 61:1.0 
0.5208333747254507 122:1.0 3:1.0 201:1.0 4776:1.0 6:1.0 519:1.0 79:1.0 205:1.0 10:1.0 13:1.0 211:1.0 20:1.0 82:1.0 
0.44342371638233663 97:1.0 3:1.0 201:1.0 13752:1.0 6:1.0 519:1.0 79:1.0 205:1.0 10:1.0 13:1.0 211:1.0 20:1.0 246:1.0 
0.13710183924709213 97:1.0 66:1.0 201:1.0 834:1.0 67:1.0 9208:1.0 4571:1.0 205:1.0 10:1.0 206:1.0 246:1.0 
500.0 100:1.0 380:1.0 266:1.0 8514:1.0 381:1.0 4633:1.0 79:1.0 205:1.0 10:1.0 13:1.0 364:1.0 
500.0 100:1.0 3:1.0 201:1.0 720:1.0 6:1.0 203:1.0 79:1.0 205:1.0 10:1.0 13:1.0 
500.0 100:1.0 380:1.0 266:1.0 14550:1.0 381:1.0 4633:1.0 79:1.0 205:1.0 10:1.0 13:1.0 364:1.0 
0.20441861900471026 68:1.0 66:1.0 201:1.0 14722:1.0 67:1.0 965:1.0 260:1.0 205:1.0 10:1.0 13:1.0 61:1.0 
0.4289215988211389 100:1.0 380:1.0 201:1.0 3087:1.0 381:1.0 203:1.0 79:1.0 205:1.0 10:1.0 13:1.0 11:1.0 364:1.0 40:1.0 
500.0 2:1.0 380:1.0 201:1.0 734:1.0 381:1.0 10957:1.0 79:1.0 205:1.0 10:1.0 13:1.0 364:1.0 
0.5675079716268159 100:1.0 380:1.0 201:1.0 3839:1.0 381:1.0 1085:1.0 79:1.0 205:1.0 10:1.0 13:1.0 455:1.0 364:1.0 179:1.0 61:1.0 
0.6850664923980446 100:1.0 57:1.0 201:1.0 3839:1.0 59:1.0 1085:1.0 79:1.0 205:1.0 10:1.0 13:1.0 455:1.0 364:1.0 179:1.0 
0.16904567806612167 302:1.0 3:1.0 201:1.0 350:1.0 6:1.0 2331:1.0 486:1.0 205:1.0 10:1.0 206:1.0 246:1.0 
0.24876522414090674 405:1.0 3:1.0 201:1.0 2991:1.0 6:1.0 1217:1.0 623:1.0 205:1.0 10:1.0 206:1.0 246:1.0 
0.10347824110058998 224:1.0 3:1.0 266:1.0 225:1.0 6:1.0 9112:1.0 8:1.0 205:1.0 10:1.0 13:1.0 206:1.0 61:1.0 157:1.0 16:1.0 55:1.0 
0.21051256850428868 100:1.0 380:1.0 201:1.0 1160:1.0 878:1.0 524:1.0 623:1.0 205:1.0 10:1.0 206:1.0 37:1.0 
0.5208333747254509 735:1.0 3:1.0 201:1.0 11326:1.0 6:1.0 2084:1.0 79:1.0 205:1.0 10:1.0 13:1.0 455:1.0 20:1.0 246:1.0 
0.12936409325711565 302:1.0 3:1.0 201:1.0 4800:1.0 6:1.0 2331:1.0 4571:1.0 205:1.0 10:1.0 206:1.0 207:1.0 
0.2551615656098462 97:1.0 66:1.0 275:1.0 7650:1.0 67:1.0 277:1.0 260:1.0 205:1.0 10:1.0 13:1.0 206:1.0 61:1.0 207:1.0 
500.0 100:1.0 3:1.0 201:1.0 11283:1.0 6:1.0 9194:1.0 79:1.0 205:1.0 10:1.0 13:1.0 20:1.0 
0.13058303408754318 100:1.0 380:1.0 201:1.0 214:1.0 381:1.0 965:1.0 79:1.0 205:1.0 10:1.0 13:1.0 211:1.0 364:1.0 164:1.0 
0.28606386624677604 224:1.0 380:1.0 201:1.0 225:1.0 381:1.0 965:1.0 79:1.0 205:1.0 10:1.0 13:1.0 211:1.0 364:1.0 14:1.0 
0.14760725079492742 100:1.0 3:1.0 201:1.0 10895:1.0 6:1.0 524:1.0 8:1.0 205:1.0 10:1.0 206:1.0 13:1.0 157:1.0 16:1.0 
500.0 100:1.0 380:1.0 266:1.0 16384:1.0 381:1.0 4633:1.0 79:1.0 205:1.0 10:1.0 13:1.0 364:1.0 
1.3451759210985836 100:1.0 3:1.0 201:1.0 13673:1.0 6:1.0 203:1.0 79:1.0 205:1.0 10:1.0 13:1.0 20:1.0 55:1.0 
0.4427083600331509 100:1.0 380:1.0 201:1.0 10708:1.0 381:1.0 1085:1.0 79:1.0 205:1.0 10:1.0 13:1.0 455:1.0 364:1.0 179:1.0 
0.19075068244087215 68:1.0 57:1.0 201:1.0 8837:1.0 59:1.0 611:1.0 162:1.0 205:1.0 10:1.0 13:1.0 206:1.0 20:1.0 470:1.0 55:1.0 
0.06745656352802264 97:1.0 3:1.0 201:1.0 1018:1.0 6:1.0 203:1.0 8:1.0 205:1.0 10:1.0 206:1.0 36:1.0 13:1.0 470:1.0 16:1.0 
500.0 41:1.0 380:1.0 266:1.0 511:1.0 381:1.0 4633:1.0 79:1.0 205:1.0 10:1.0 13:1.0 364:1.0 
0.42851050436266475 68:1.0 3:1.0 201:1.0 15578:1.0 6:1.0 611:1.0 79:1.0 205:1.0 10:1.0 13:1.0 81:1.0 20:1.0 246:1.0 
0.2960332004130181 172:1.0 3:1.0 201:1.0 1202:1.0 6:1.0 7724:1.0 260:1.0 205:1.0 10:1.0 
500.0 68:1.0 380:1.0 266:1.0 11617:1.0 381:1.0 4633:1.0 79:1.0 205:1.0 10:1.0 13:1.0 364:1.0 
0.16198252360172274 100:1.0 66:1.0 201:1.0 17792:1.0 67:1.0 1085:1.0 623:1.0 205:1.0 10:1.0 13:1.0 61:1.0 
0.43364729376769207 100:1.0 3:1.0 201:1.0 3926:1.0 6:1.0 203:1.0 79:1.0 205:1.0 10:1.0 13:1.0 81:1.0 20:1.0 246:1.0 
500.0 97:1.0 3:1.0 201:1.0 17852:1.0 6:1.0 203:1.0 79:1.0 205:1.0 10:1.0 13:1.0 20:1.0 
0.07846325683191793 68:1.0 3:1.0 201:1.0 3226:1.0 6:1.0 524:1.0 32:1.0 205:1.0 10:1.0 35:1.0 117:1.0 136:1.0 14:1.0 
0.1723802777340833 97:1.0 66:1.0 201:1.0 11580:1.0 67:1.0 1179:1.0 623:1.0 205:1.0 10:1.0 13:1.0 61:1.0 
0.17361111111111102 122:1.0 3:1.0 201:1.0 973:1.0 6:1.0 519:1.0 486:1.0 205:1.0 10:1.0 211:1.0 206:1.0 14:1.0 207:1.0 
0.13317112497948796 302:1.0 3:1.0 201:1.0 18535:1.0 6:1.0 1179:1.0 623:1.0 205:1.0 10:1.0 206:1.0 207:1.0 
500.0 41:1.0 3:1.0 201:1.0 390:1.0 6:1.0 621:1.0 79:1.0 205:1.0 10:1.0 13:1.0 20:1.0 
500.0 100:1.0 3:1.0 201:1.0 18672:1.0 6:1.0 203:1.0 79:1.0 205:1.0 10:1.0 13:1.0 20:1.0 
500.0 100:1.0 3:1.0 201:1.0 10895:1.0 6:1.0 524:1.0 79:1.0 205:1.0 10:1.0 13:1.0 20:1.0 
500.0 97:1.0 3:1.0 201:1.0 9775:1.0 6:1.0 203:1.0 79:1.0 205:1.0 10:1.0 13:1.0 20:1.0 
500.0 100:1.0 3:1.0 201:1.0 7470:1.0 6:1.0 519:1.0 79:1.0 205:1.0 10:1.0 13:1.0 20:1.0 
0.1137080299656546 100:1.0 66:1.0 201:1.0 19195:1.0 67:1.0 203:1.0 8:1.0 205:1.0 10:1.0 13:1.0 206:1.0 20:1.0 470:1.0 16:1.0 
0.1501663215050794 100:1.0 66:1.0 201:1.0 1249:1.0 67:1.0 10890:1.0 623:1.0 205:1.0 10:1.0 13:1.0 61:1.0 20:1.0 
500.0 100:1.0 3:1.0 201:1.0 7470:1.0 6:1.0 519:1.0 79:1.0 205:1.0 10:1.0 13:1.0 20:1.0 
0.06676362763965497 100:1.0 3:1.0 201:1.0 1190:1.0 6:1.0 203:1.0 8:1.0 205:1.0 10:1.0 206:1.0 13:1.0 470:1.0 16:1.0 
0.38349319622629524 302:1.0 3:1.0 201:1.0 368:1.0 6:1.0 1085:1.0 623:1.0 205:1.0 10:1.0 206:1.0 37:1.0 
0.12094107648331762 100:1.0 24:1.0 201:1.0 4503:1.0 25:1.0 833:1.0 8:1.0 205:1.0 10:1.0 13:1.0 206:1.0 20:1.0 470:1.0 
0.4443047043658805 122:1.0 3:1.0 201:1.0 5596:1.0 6:1.0 203:1.0 79:1.0 205:1.0 10:1.0 13:1.0 211:1.0 20:1.0 136:1.0 
0.4382276362248112 68:1.0 3:1.0 201:1.0 167:1.0 6:1.0 203:1.0 79:1.0 205:1.0 10:1.0 13:1.0 211:1.0 20:1.0 246:1.0 
500.0 302:1.0 3:1.0 201:1.0 7313:1.0 6:1.0 203:1.0 79:1.0 205:1.0 10:1.0 20:1.0 
0.26387490191615165 2:1.0 104:1.0 201:1.0 5:1.0 105:1.0 1085:1.0 79:1.0 205:1.0 10:1.0 13:1.0 96:1.0 
500.0 100:1.0 3:1.0 201:1.0 2865:1.0 6:1.0 1217:1.0 79:1.0 205:1.0 10:1.0 13:1.0 20:1.0 
0.27167714393393844 100:1.0 380:1.0 201:1.0 2466:1.0 381:1.0 611:1.0 79:1.0 205:1.0 10:1.0 13:1.0 455:1.0 364:1.0 207:1.0 265:1.0 
500.0 100:1.0 380:1.0 201:1.0 6845:1.0 381:1.0 1217:1.0 79:1.0 205:1.0 10:1.0 13:1.0 364:1.0 
500.0 100:1.0 380:1.0 266:1.0 7667:1.0 381:1.0 4633:1.0 79:1.0 205:1.0 10:1.0 13:1.0 364:1.0 
0.18644058445442158 172:1.0 3:1.0 275:1.0 21109:1.0 6:1.0 277:1.0 486:1.0 205:1.0 10:1.0 206:1.0 207:1.0 
0.08671200058621138 97:1.0 3:1.0 275:1.0 5834:1.0 6:1.0 277:1.0 966:1.0 205:1.0 10:1.0 211:1.0 206:1.0 37:1.0 207:1.0 
0.14101348377306178 2:1.0 3:1.0 275:1.0 222:1.0 6:1.0 277:1.0 966:1.0 205:1.0 10:1.0 211:1.0 206:1.0 82:1.0 207:1.0 
500.0 100:1.0 3:1.0 201:1.0 9280:1.0 6:1.0 203:1.0 79:1.0 205:1.0 10:1.0 13:1.0 20:1.0 
500.0 41:1.0 3:1.0 201:1.0 390:1.0 6:1.0 621:1.0 79:1.0 205:1.0 10:1.0 13:1.0 20:1.0 
0.17155425275849467 302:1.0 3:1.0 201:1.0 2965:1.0 6:1.0 2331:1.0 4571:1.0 205:1.0 10:1.0 206:1.0 37:1.0 
500.0 97:1.0 3:1.0 201:1.0 7476:1.0 6:1.0 1304:1.0 79:1.0 205:1.0 10:1.0 13:1.0 20:1.0 
500.0 100:1.0 3:1.0 201:1.0 12643:1.0 6:1.0 519:1.0 79:1.0 205:1.0 10:1.0 13:1.0 20:1.0 
0.1292155564495582 100:1.0 104:1.0 201:1.0 10732:1.0 105:1.0 203:1.0 79:1.0 205:1.0 10:1.0 13:1.0 96:1.0 
0.11214918960790912 122:1.0 3:1.0 201:1.0 936:1.0 6:1.0 519:1.0 79:1.0 205:1.0 10:1.0 13:1.0 455:1.0 364:1.0 37:1.0 
0.31285193015850576 122:1.0 380:1.0 201:1.0 936:1.0 381:1.0 519:1.0 79:1.0 205:1.0 10:1.0 13:1.0 455:1.0 364:1.0 20:1.0 37:1.0 
0.42844844635130513 100:1.0 3:1.0 201:1.0 6228:1.0 6:1.0 203:1.0 79:1.0 205:1.0 10:1.0 13:1.0 81:1.0 20:1.0 246:1.0 
0.14646349646291182 100:1.0 3:1.0 201:1.0 2466:1.0 6:1.0 611:1.0 8:1.0 205:1.0 10:1.0 206:1.0 13:1.0 305:1.0 16:1.0 
0.1913107690735114 68:1.0 3:1.0 275:1.0 8310:1.0 6:1.0 277:1.0 623:1.0 205:1.0 10:1.0 206:1.0 164:1.0 
500.0 100:1.0 380:1.0 266:1.0 21842:1.0 381:1.0 4633:1.0 79:1.0 205:1.0 10:1.0 13:1.0 364:1.0 
0.38752606477813895 348:1.0 66:1.0 201:1.0 21859:1.0 67:1.0 1085:1.0 623:1.0 205:1.0 10:1.0 13:1.0 61:1.0 
0.20189503674379958 97:1.0 104:1.0 201:1.0 6634:1.0 105:1.0 519:1.0 79:1.0 205:1.0 10:1.0 13:1.0 96:1.0 
500.0 41:1.0 380:1.0 266:1.0 511:1.0 381:1.0 4633:1.0 79:1.0 205:1.0 10:1.0 13:1.0 364:1.0 
0.15297374621989382 97:1.0 3:1.0 275:1.0 262:1.0 6:1.0 277:1.0 623:1.0 205:1.0 10:1.0 206:1.0 246:1.0 
0.2629217434311112 100:1.0 104:1.0 275:1.0 22954:1.0 105:1.0 277:1.0 79:1.0 205:1.0 10:1.0 13:1.0 96:1.0 
0.08745409115312908 100:1.0 3:1.0 201:1.0 501:1.0 6:1.0 519:1.0 8:1.0 205:1.0 10:1.0 206:1.0 13:1.0 470:1.0 16:1.0 
0.09073716229817569 26:1.0 24:1.0 201:1.0 376:1.0 25:1.0 203:1.0 8:1.0 205:1.0 10:1.0 13:1.0 206:1.0 245:1.0 20:1.0 470:1.0 265:1.0 
0.4247881890181758 348:1.0 66:1.0 201:1.0 6286:1.0 67:1.0 1217:1.0 204:1.0 205:1.0 10:1.0 13:1.0 61:1.0 
0.07865748724164731 100:1.0 24:1.0 201:1.0 11355:1.0 25:1.0 203:1.0 162:1.0 205:1.0 10:1.0 13:1.0 206:1.0 20:1.0 470:1.0 
0.12331240643521783 68:1.0 3:1.0 201:1.0 7083:1.0 6:1.0 203:1.0 8:1.0 205:1.0 10:1.0 455:1.0 206:1.0 13:1.0 207:1.0 470:1.0 16:1.0 
0.15042063443106757 68:1.0 3:1.0 201:1.0 4161:1.0 6:1.0 524:1.0 260:1.0 205:1.0 10:1.0 
0.43165188051680403 735:1.0 66:1.0 275:1.0 23580:1.0 67:1.0 277:1.0 966:1.0 205:1.0 10:1.0 13:1.0 61:1.0 
0.3035640293233505 97:1.0 380:1.0 201:1.0 378:1.0 878:1.0 203:1.0 8:1.0 205:1.0 10:1.0 
0.19085680369697738 97:1.0 104:1.0 201:1.0 23803:1.0 105:1.0 2331:1.0 79:1.0 205:1.0 10:1.0 13:1.0 96:1.0 
0.17468570634314967 100:1.0 66:1.0 201:1.0 23970:1.0 67:1.0 1085:1.0 623:1.0 205:1.0 10:1.0 13:1.0 61:1.0 
500.0 100:1.0 380:1.0 201:1.0 2466:1.0 381:1.0 611:1.0 79:1.0 205:1.0 10:1.0 13:1.0 364:1.0 
0.11351963437028123 97:1.0 3:1.0 201:1.0 430:1.0 6:1.0 519:1.0 260:1.0 205:1.0 10:1.0 206:1.0 37:1.0 
0.14935431675500194 97:1.0 380:1.0 201:1.0 17917:1.0 381:1.0 1179:1.0 623:1.0 205:1.0 10:1.0 206:1.0 207:1.0 
0.07124743596924389 97:1.0 24:1.0 201:1.0 2540:1.0 25:1.0 24159:1.0 8:1.0 205:1.0 10:1.0 13:1.0 206:1.0 20:1.0 305:1.0 
0.16590268004109557 100:1.0 380:1.0 201:1.0 5351:1.0 381:1.0 965:1.0 2897:1.0 205:1.0 10:1.0 206:1.0 207:1.0 
0.47069287120598546 97:1.0 380:1.0 201:1.0 24336:1.0 381:1.0 1085:1.0 79:1.0 205:1.0 10:1.0 13:1.0 455:1.0 364:1.0 179:1.0 
0.05353847190621236 100:1.0 3:1.0 201:1.0 3839:1.0 6:1.0 24466:1.0 623:1.0 205:1.0 10:1.0 206:1.0 81:1.0 207:1.0 37:1.0 
500.0 41:1.0 380:1.0 201:1.0 511:1.0 381:1.0 2331:1.0 79:1.0 205:1.0 10:1.0 13:1.0 364:1.0 
500.0 97:1.0 380:1.0 266:1.0 7558:1.0 381:1.0 4633:1.0 79:1.0 205:1.0 10:1.0 13:1.0 364:1.0 
0.12254171308472823 68:1.0 24:1.0 201:1.0 7143:1.0 25:1.0 1217:1.0 8:1.0 205:1.0 10:1.0 13:1.0 206:1.0 20:1.0 470:1.0 
500.0 100:1.0 3:1.0 201:1.0 6849:1.0 6:1.0 203:1.0 79:1.0 205:1.0 10:1.0 13:1.0 20:1.0 
0.11126347412102838 100:1.0 3:1.0 201:1.0 2408:1.0 6:1.0 1022:1.0 564:1.0 205:1.0 10:1.0 206:1.0 265:1.0 
0.17086305651520817 100:1.0 380:1.0 201:1.0 6834:1.0 878:1.0 519:1.0 1951:1.0 205:1.0 10:1.0 206:1.0 164:1.0 
0.16601496076191813 268:1.0 3:1.0 201:1.0 25561:1.0 6:1.0 524:1.0 32:1.0 205:1.0 10:1.0 35:1.0 206:1.0 136:1.0 207:1.0 
0.20329113973749255 100:1.0 24:1.0 201:1.0 12643:1.0 1289:1.0 519:1.0 8:1.0 205:1.0 10:1.0 
0.14927979273007558 100:1.0 3:1.0 201:1.0 2573:1.0 6:1.0 11088:1.0 260:1.0 205:1.0 10:1.0 206:1.0 207:1.0 
0.17437214112873728 224:1.0 3:1.0 201:1.0 225:1.0 6:1.0 3366:1.0 260:1.0 205:1.0 10:1.0 206:1.0 246:1.0 
0.11526881532823907 100:1.0 3:1.0 201:1.0 1927:1.0 6:1.0 519:1.0 486:1.0 205:1.0 10:1.0 206:1.0 207:1.0 
0.1207294233437826 100:1.0 104:1.0 201:1.0 13386:1.0 105:1.0 1304:1.0 79:1.0 205:1.0 10:1.0 13:1.0 96:1.0 
0.09516033652181703 68:1.0 3:1.0 201:1.0 4361:1.0 6:1.0 524:1.0 32:1.0 205:1.0 10:1.0 35:1.0 117:1.0 136:1.0 14:1.0 
0.5208333747254507 122:1.0 3:1.0 201:1.0 354:1.0 6:1.0 203:1.0 79:1.0 205:1.0 10:1.0 13:1.0 211:1.0 20:1.0 136:1.0 
0.9914727427438422 68:1.0 3:1.0 201:1.0 26313:1.0 6:1.0 203:1.0 79:1.0 205:1.0 10:1.0 211:1.0 20:1.0 246:1.0 
500.0 122:1.0 3:1.0 201:1.0 714:1.0 6:1.0 611:1.0 623:1.0 205:1.0 10:1.0 211:1.0 13:1.0 206:1.0 82:1.0 20:1.0 207:1.0 
0.11797741199313823 100:1.0 3:1.0 201:1.0 2506:1.0 6:1.0 9208:1.0 3308:1.0 205:1.0 10:1.0 206:1.0 207:1.0 
500.0 100:1.0 380:1.0 201:1.0 26790:1.0 381:1.0 524:1.0 79:1.0 205:1.0 10:1.0 13:1.0 364:1.0 
0.2271790167137481 100:1.0 380:1.0 201:1.0 2692:1.0 381:1.0 524:1.0 260:1.0 205:1.0 10:1.0 206:1.0 37:1.0 
0.2294704322526106 100:1.0 66:1.0 201:1.0 26050:1.0 67:1.0 1179:1.0 623:1.0 205:1.0 10:1.0 13:1.0 61:1.0 
0.14033582079259463 122:1.0 3:1.0 275:1.0 1202:1.0 6:1.0 277:1.0 966:1.0 205:1.0 10:1.0 211:1.0 206:1.0 14:1.0 207:1.0 
0.1006510467245267 100:1.0 3:1.0 275:1.0 15515:1.0 6:1.0 277:1.0 966:1.0 205:1.0 10:1.0 211:1.0 206:1.0 246:1.0 207:1.0 
0.13548429971119633 68:1.0 3:1.0 201:1.0 4511:1.0 6:1.0 203:1.0 260:1.0 205:1.0 10:1.0 206:1.0 37:1.0 
0.10431771903725226 97:1.0 380:1.0 201:1.0 4695:1.0 878:1.0 10055:1.0 8:1.0 205:1.0 10:1.0 455:1.0 13:1.0 265:1.0 16:1.0 
0.1997442818450748 68:1.0 66:1.0 201:1.0 27523:1.0 67:1.0 524:1.0 260:1.0 205:1.0 10:1.0 13:1.0 61:1.0 
0.18535211657775455 122:1.0 57:1.0 201:1.0 1534:1.0 59:1.0 1217:1.0 204:1.0 205:1.0 10:1.0 211:1.0 136:1.0 
500.0 97:1.0 380:1.0 201:1.0 675:1.0 381:1.0 24466:1.0 79:1.0 205:1.0 10:1.0 13:1.0 364:1.0 
500.0 68:1.0 380:1.0 266:1.0 269:1.0 381:1.0 5005:1.0 79:1.0 205:1.0 10:1.0 13:1.0 364:1.0 
500.0 100:1.0 380:1.0 201:1.0 9196:1.0 381:1.0 9153:1.0 79:1.0 205:1.0 10:1.0 13:1.0 364:1.0 
500.0 97:1.0 3:1.0 201:1.0 4475:1.0 6:1.0 203:1.0 79:1.0 205:1.0 10:1.0 13:1.0 20:1.0 
0.2461315671423161 100:1.0 66:1.0 201:1.0 5286:1.0 67:1.0 524:1.0 260:1.0 205:1.0 10:1.0 13:1.0 61:1.0 
500.0 100:1.0 3:1.0 201:1.0 7470:1.0 6:1.0 519:1.0 79:1.0 205:1.0 10:1.0 13:1.0 20:1.0 
0.15171364237996418 97:1.0 380:1.0 201:1.0 319:1.0 878:1.0 10055:1.0 8:1.0 205:1.0 10:1.0 
0.5208333747254509 68:1.0 380:1.0 201:1.0 8278:1.0 381:1.0 1085:1.0 79:1.0 205:1.0 10:1.0 13:1.0 455:1.0 364:1.0 179:1.0 
0.15136928865714647 268:1.0 3:1.0 201:1.0 7932:1.0 6:1.0 1217:1.0 32:1.0 205:1.0 10:1.0 35:1.0 13:1.0 117:1.0 136:1.0 20:1.0 14:1.0 
0.12990408942419127 68:1.0 104:1.0 266:1.0 8487:1.0 4765:1.0 4633:1.0 79:1.0 205:1.0 10:1.0 13:1.0 455:1.0 96:1.0 246:1.0 
0.274292441912112 122:1.0 66:1.0 201:1.0 4776:1.0 67:1.0 7724:1.0 623:1.0 205:1.0 10:1.0 13:1.0 211:1.0 61:1.0 14:1.0 
0.10031352910040588 97:1.0 24:1.0 201:1.0 11313:1.0 25:1.0 1179:1.0 8:1.0 205:1.0 10:1.0 206:1.0 20:1.0 38:1.0 
0.40753753006906157 68:1.0 3:1.0 201:1.0 9251:1.0 6:1.0 7724:1.0 79:1.0 205:1.0 10:1.0 13:1.0 455:1.0 20:1.0 207:1.0 246:1.0 
0.34334474838598555 172:1.0 66:1.0 201:1.0 8467:1.0 67:1.0 1085:1.0 623:1.0 205:1.0 10:1.0 13:1.0 61:1.0 
500.0 224:1.0 3:1.0 266:1.0 225:1.0 6:1.0 9112:1.0 79:1.0 205:1.0 10:1.0 13:1.0 20:1.0 
500.0 100:1.0 3:1.0 201:1.0 6849:1.0 6:1.0 203:1.0 79:1.0 205:1.0 10:1.0 13:1.0 20:1.0 
500.0 97:1.0 3:1.0 201:1.0 17852:1.0 6:1.0 203:1.0 79:1.0 205:1.0 10:1.0 13:1.0 20:1.0 
500.0 100:1.0 3:1.0 201:1.0 1190:1.0 6:1.0 203:1.0 79:1.0 205:1.0 10:1.0 13:1.0 20:1.0 
0.17155566523365914 97:1.0 380:1.0 201:1.0 29070:1.0 381:1.0 519:1.0 260:1.0 205:1.0 10:1.0 206:1.0 207:1.0 
500.0 100:1.0 3:1.0 201:1.0 29324:1.0 6:1.0 833:1.0 79:1.0 205:1.0 10:1.0 13:1.0 20:1.0 
500.0 97:1.0 3:1.0 201:1.0 4762:1.0 6:1.0 10055:1.0 79:1.0 205:1.0 10:1.0 13:1.0 20:1.0 
0.40111538272891345 172:1.0 66:1.0 201:1.0 25515:1.0 67:1.0 203:1.0 204:1.0 205:1.0 10:1.0 13:1.0 61:1.0 
0.16657387226485437 100:1.0 380:1.0 201:1.0 11077:1.0 381:1.0 965:1.0 623:1.0 205:1.0 10:1.0 206:1.0 246:1.0 
0.5208333747254509 68:1.0 380:1.0 201:1.0 29683:1.0 381:1.0 965:1.0 79:1.0 205:1.0 10:1.0 13:1.0 211:1.0 364:1.0 164:1.0 
0.22258936928405712 224:1.0 380:1.0 201:1.0 225:1.0 381:1.0 965:1.0 79:1.0 205:1.0 10:1.0 13:1.0 211:1.0 364:1.0 136:1.0 164:1.0 
0.15894556114486397 302:1.0 3:1.0 201:1.0 28282:1.0 6:1.0 519:1.0 162:1.0 205:1.0 10:1.0 206:1.0 207:1.0 
0.0681401288109836 26:1.0 3:1.0 201:1.0 30348:1.0 6:1.0 965:1.0 363:1.0 205:1.0 10:1.0 211:1.0 13:1.0 81:1.0 206:1.0 164:1.0 20:1.0 470:1.0 
0.07343812759349683 224:1.0 3:1.0 201:1.0 225:1.0 6:1.0 965:1.0 363:1.0 205:1.0 10:1.0 211:1.0 13:1.0 81:1.0 206:1.0 40:1.0 20:1.0 470:1.0 
500.0 97:1.0 380:1.0 275:1.0 548:1.0 381:1.0 277:1.0 79:1.0 205:1.0 10:1.0 13:1.0 364:1.0 
500.0 100:1.0 380:1.0 201:1.0 2494:1.0 381:1.0 16517:1.0 79:1.0 205:1.0 10:1.0 13:1.0 364:1.0 
0.12791689607700488 100:1.0 104:1.0 201:1.0 830:1.0 105:1.0 524:1.0 79:1.0 205:1.0 10:1.0 13:1.0 96:1.0 
0.4289215988211389 100:1.0 380:1.0 201:1.0 30468:1.0 381:1.0 1085:1.0 79:1.0 205:1.0 10:1.0 13:1.0 455:1.0 364:1.0 179:1.0 
0.12543632403386432 100:1.0 24:1.0 275:1.0 2846:1.0 25:1.0 277:1.0 8:1.0 205:1.0 10:1.0 245:1.0 455:1.0 246:1.0 
0.23306886503730373 2:1.0 104:1.0 201:1.0 517:1.0 105:1.0 22356:1.0 79:1.0 205:1.0 10:1.0 13:1.0 96:1.0 
0.17843020177281618 100:1.0 380:1.0 201:1.0 1653:1.0 381:1.0 1179:1.0 623:1.0 205:1.0 10:1.0 206:1.0 207:1.0 
500.0 97:1.0 3:1.0 201:1.0 4762:1.0 6:1.0 10055:1.0 79:1.0 205:1.0 10:1.0 13:1.0 20:1.0 
0.6549280252236983 100:1.0 57:1.0 275:1.0 12040:1.0 59:1.0 277:1.0 2897:1.0 205:1.0 10:1.0 13:1.0 55:1.0 
0.18464571871408547 68:1.0 3:1.0 201:1.0 167:1.0 6:1.0 203:1.0 8:1.0 205:1.0 10:1.0 206:1.0 13:1.0 157:1.0 16:1.0 
500.0 97:1.0 3:1.0 201:1.0 789:1.0 6:1.0 9153:1.0 79:1.0 205:1.0 10:1.0 13:1.0 20:1.0 
0.09742333347841488 122:1.0 3:1.0 201:1.0 14654:1.0 6:1.0 3542:1.0 1951:1.0 205:1.0 10:1.0 455:1.0 211:1.0 37:1.0 14:1.0 
0.12716367304071358 68:1.0 3:1.0 201:1.0 3391:1.0 6:1.0 519:1.0 260:1.0 205:1.0 10:1.0 206:1.0 207:1.0 
0.27394502455076664 672:1.0 3:1.0 201:1.0 673:1.0 6:1.0 611:1.0 204:1.0 205:1.0 10:1.0 
0.09483921141985958 97:1.0 3:1.0 275:1.0 2618:1.0 6:1.0 277:1.0 79:1.0 205:1.0 10:1.0 13:1.0 455:1.0 364:1.0 37:1.0 
0.48076928367276706 97:1.0 380:1.0 275:1.0 2618:1.0 381:1.0 277:1.0 79:1.0 205:1.0 10:1.0 13:1.0 455:1.0 364:1.0 20:1.0 37:1.0 
0.0575506585493461 26:1.0 3:1.0 201:1.0 9332:1.0 6:1.0 203:1.0 363:1.0 205:1.0 10:1.0 13:1.0 81:1.0 206:1.0 20:1.0 37:1.0 470:1.0 
0.23138739340099465 122:1.0 66:1.0 201:1.0 1534:1.0 67:1.0 14037:1.0 623:1.0 205:1.0 10:1.0 211:1.0 82:1.0 
500.0 97:1.0 3:1.0 201:1.0 4762:1.0 6:1.0 10055:1.0 79:1.0 205:1.0 10:1.0 13:1.0 20:1.0 
0.09160766425888478 97:1.0 3:1.0 201:1.0 17893:1.0 6:1.0 32839:1.0 5061:1.0 205:1.0 10:1.0 206:1.0 37:1.0 
0.05168609698221595 100:1.0 24:1.0 201:1.0 2608:1.0 25:1.0 2331:1.0 8:1.0 205:1.0 10:1.0 13:1.0 206:1.0 20:1.0 470:1.0 
0.07354937182255623 122:1.0 3:1.0 201:1.0 14654:1.0 6:1.0 3542:1.0 20805:1.0 205:1.0 10:1.0 455:1.0 211:1.0 206:1.0 37:1.0 14:1.0 207:1.0 
0.1804189643097996 100:1.0 104:1.0 201:1.0 1190:1.0 105:1.0 8132:1.0 79:1.0 205:1.0 10:1.0 13:1.0 96:1.0 
500.0 302:1.0 380:1.0 201:1.0 15150:1.0 381:1.0 1217:1.0 79:1.0 205:1.0 10:1.0 13:1.0 364:1.0 
0.17487086574639585 100:1.0 3:1.0 275:1.0 33363:1.0 6:1.0 277:1.0 32:1.0 205:1.0 10:1.0 
499.91870366138875 100:1.0 3:1.0 201:1.0 1160:1.0 6:1.0 2331:1.0 79:1.0 205:1.0 10:1.0 13:1.0 20:1.0 
500.0 100:1.0 3:1.0 201:1.0 720:1.0 6:1.0 203:1.0 79:1.0 205:1.0 10:1.0 13:1.0 
0.197227328645651 904:1.0 3:1.0 201:1.0 905:1.0 6:1.0 519:1.0 1951:1.0 205:1.0 10:1.0 211:1.0 206:1.0 82:1.0 207:1.0 
0.06621011727494996 97:1.0 3:1.0 201:1.0 9050:1.0 6:1.0 519:1.0 1951:1.0 205:1.0 10:1.0 211:1.0 206:1.0 1025:1.0 207:1.0 
0.06252667402723383 100:1.0 3:1.0 201:1.0 825:1.0 6:1.0 203:1.0 79:1.0 205:1.0 10:1.0 13:1.0 11:1.0 245:1.0 96:1.0 14:1.0 37:1.0 83:1.0 
0.2912963867292831 100:1.0 104:1.0 275:1.0 456:1.0 105:1.0 277:1.0 79:1.0 205:1.0 10:1.0 13:1.0 455:1.0 96:1.0 4573:1.0 20:1.0 
0.205029011610515 97:1.0 104:1.0 201:1.0 2264:1.0 105:1.0 14037:1.0 79:1.0 205:1.0 10:1.0 13:1.0 96:1.0 
0.23846584667139234 97:1.0 66:1.0 275:1.0 3102:1.0 67:1.0 277:1.0 623:1.0 205:1.0 10:1.0 13:1.0 61:1.0 
500.0 616:1.0 3:1.0 201:1.0 2159:1.0 6:1.0 611:1.0 79:1.0 205:1.0 10:1.0 13:1.0 20:1.0 
0.24134576062120452 100:1.0 380:1.0 201:1.0 489:1.0 878:1.0 965:1.0 8:1.0 205:1.0 10:1.0 
0.09533460814127172 68:1.0 24:1.0 201:1.0 33699:1.0 25:1.0 1022:1.0 8:1.0 205:1.0 10:1.0 13:1.0 206:1.0 245:1.0 11:1.0 20:1.0 207:1.0 246:1.0 136:1.0 
0.15063355550909716 100:1.0 3:1.0 275:1.0 3480:1.0 6:1.0 277:1.0 623:1.0 205:1.0 10:1.0 206:1.0 207:1.0 
0.1492716511590633 2:1.0 3:1.0 201:1.0 39:1.0 6:1.0 1085:1.0 8:1.0 205:1.0 10:1.0 206:1.0 13:1.0 470:1.0 16:1.0 
0.1123892832291383 26:1.0 24:1.0 201:1.0 2583:1.0 25:1.0 1217:1.0 8:1.0 205:1.0 10:1.0 13:1.0 206:1.0 20:1.0 470:1.0 
0.16381455315019364 100:1.0 3:1.0 275:1.0 17226:1.0 6:1.0 277:1.0 486:1.0 205:1.0 10:1.0 206:1.0 164:1.0 
0.2606649720941276 100:1.0 66:1.0 201:1.0 5381:1.0 67:1.0 965:1.0 260:1.0 205:1.0 10:1.0 13:1.0 61:1.0 
0.19590291682702946 68:1.0 66:1.0 201:1.0 23865:1.0 67:1.0 519:1.0 623:1.0 205:1.0 10:1.0 13:1.0 61:1.0 
500.0 41:1.0 3:1.0 201:1.0 1999:1.0 6:1.0 1304:1.0 79:1.0 205:1.0 10:1.0 13:1.0 20:1.0 
0.08841552188254875 100:1.0 104:1.0 201:1.0 21744:1.0 105:1.0 524:1.0 79:1.0 205:1.0 10:1.0 13:1.0 96:1.0 
0.23423685034652303 68:1.0 66:1.0 201:1.0 34077:1.0 67:1.0 524:1.0 2897:1.0 205:1.0 10:1.0 13:1.0 61:1.0 
0.09667904047967622 97:1.0 3:1.0 201:1.0 12246:1.0 6:1.0 524:1.0 260:1.0 205:1.0 10:1.0 206:1.0 37:1.0 
0.1186587625055069 68:1.0 24:1.0 201:1.0 3976:1.0 25:1.0 1217:1.0 8:1.0 205:1.0 10:1.0 13:1.0 206:1.0 20:1.0 157:1.0 55:1.0 
0.13139419325098206 97:1.0 3:1.0 124:1.0 11578:1.0 6:1.0 827:1.0 195:1.0 205:1.0 10:1.0 206:1.0 179:1.0 
0.10492698566307565 97:1.0 3:1.0 201:1.0 13311:1.0 6:1.0 1179:1.0 486:1.0 205:1.0 10:1.0 206:1.0 265:1.0 
500.0 122:1.0 3:1.0 275:1.0 3708:1.0 6:1.0 277:1.0 2897:1.0 205:1.0 10:1.0 13:1.0 211:1.0 20:1.0 14:1.0 
0.331125828860219 122:1.0 104:1.0 201:1.0 5596:1.0 105:1.0 2331:1.0 79:1.0 205:1.0 10:1.0 13:1.0 211:1.0 82:1.0 
0.21469288148218557 97:1.0 104:1.0 201:1.0 1478:1.0 105:1.0 2331:1.0 79:1.0 205:1.0 10:1.0 13:1.0 211:1.0 96:1.0 246:1.0 
0.1283899029810887 97:1.0 3:1.0 201:1.0 2808:1.0 6:1.0 1900:1.0 8:1.0 205:1.0 10:1.0 206:1.0 13:1.0 470:1.0 16:1.0 
1.3116048641282743 100:1.0 3:1.0 201:1.0 1160:1.0 6:1.0 2331:1.0 79:1.0 205:1.0 10:1.0 13:1.0 20:1.0 61:1.0 
0.11550986975330864 97:1.0 66:1.0 201:1.0 262:1.0 67:1.0 519:1.0 260:1.0 205:1.0 10:1.0 13:1.0 61:1.0 
0.05752119037073798 100:1.0 24:1.0 201:1.0 2305:1.0 25:1.0 1217:1.0 8:1.0 205:1.0 10:1.0 13:1.0 206:1.0 20:1.0 470:1.0 
0.1516441744212552 68:1.0 3:1.0 201:1.0 6012:1.0 6:1.0 611:1.0 204:1.0 205:1.0 10:1.0 206:1.0 207:1.0 
0.14122058212848412 68:1.0 3:1.0 201:1.0 3570:1.0 6:1.0 965:1.0 260:1.0 205:1.0 10:1.0 206:1.0 207:1.0 
0.1408594449190565 672:1.0 3:1.0 275:1.0 673:1.0 6:1.0 277:1.0 260:1.0 205:1.0 10:1.0 206:1.0 37:1.0 
0.1909678710381558 26:1.0 3:1.0 510:1.0 10813:1.0 6:1.0 22889:1.0 260:1.0 205:1.0 10:1.0 211:1.0 40:1.0 
0.11660871321234664 26:1.0 24:1.0 201:1.0 35538:1.0 25:1.0 611:1.0 8:1.0 205:1.0 10:1.0 13:1.0 81:1.0 206:1.0 20:1.0 470:1.0 
0.10140556318110543 97:1.0 24:1.0 201:1.0 319:1.0 25:1.0 833:1.0 8:1.0 205:1.0 10:1.0 13:1.0 206:1.0 20:1.0 305:1.0 
0.13556666278114762 100:1.0 104:1.0 201:1.0 22185:1.0 105:1.0 1022:1.0 79:1.0 205:1.0 10:1.0 13:1.0 96:1.0 
500.0 481:1.0 380:1.0 201:1.0 562:1.0 381:1.0 1304:1.0 79:1.0 205:1.0 10:1.0 13:1.0 364:1.0 
0.2155172420437498 97:1.0 380:1.0 201:1.0 16080:1.0 381:1.0 519:1.0 260:1.0 205:1.0 10:1.0 
0.18384667886540812 97:1.0 75:1.0 275:1.0 3903:1.0 544:1.0 277:1.0 623:1.0 205:1.0 10:1.0 211:1.0 13:1.0 164:1.0 83:1.0 
0.16244721559707034 224:1.0 104:1.0 275:1.0 225:1.0 4765:1.0 277:1.0 623:1.0 205:1.0 10:1.0 211:1.0 13:1.0 82:1.0 96:1.0 
0.19228226901297027 100:1.0 66:1.0 201:1.0 36171:1.0 345:1.0 524:1.0 260:1.0 205:1.0 10:1.0 13:1.0 61:1.0 
0.10793528436554273 122:1.0 3:1.0 201:1.0 248:1.0 6:1.0 9208:1.0 4571:1.0 205:1.0 10:1.0 211:1.0 206:1.0 82:1.0 207:1.0 
0.08369731511654772 97:1.0 24:1.0 201:1.0 2999:1.0 25:1.0 833:1.0 8:1.0 205:1.0 10:1.0 13:1.0 206:1.0 20:1.0 305:1.0 
0.11378283663246488 97:1.0 24:1.0 201:1.0 2540:1.0 25:1.0 1900:1.0 8:1.0 205:1.0 10:1.0 13:1.0 206:1.0 20:1.0 470:1.0 
500.0 100:1.0 3:1.0 201:1.0 4562:1.0 6:1.0 203:1.0 79:1.0 205:1.0 10:1.0 13:1.0 20:1.0 
500.0 100:1.0 3:1.0 201:1.0 2004:1.0 6:1.0 611:1.0 79:1.0 205:1.0 10:1.0 13:1.0 20:1.0 
0.2840909098605971 268:1.0 104:1.0 201:1.0 3706:1.0 105:1.0 611:1.0 79:1.0 205:1.0 10:1.0 13:1.0 455:1.0 96:1.0 246:1.0 
0.18351123404462305 97:1.0 66:1.0 201:1.0 4764:1.0 67:1.0 36434:1.0 623:1.0 205:1.0 10:1.0 13:1.0 61:1.0 
1.0296172383054634 672:1.0 380:1.0 201:1.0 673:1.0 381:1.0 611:1.0 79:1.0 205:1.0 10:1.0 13:1.0 364:1.0 37:1.0 
500.0 100:1.0 3:1.0 201:1.0 1190:1.0 6:1.0 203:1.0 79:1.0 205:1.0 10:1.0 13:1.0 20:1.0 
500.0 100:1.0 3:1.0 201:1.0 1681:1.0 6:1.0 203:1.0 79:1.0 205:1.0 10:1.0 13:1.0 20:1.0 
500.0 97:1.0 3:1.0 275:1.0 2716:1.0 6:1.0 277:1.0 79:1.0 205:1.0 10:1.0 13:1.0 20:1.0 
0.1141827123027706 100:1.0 24:1.0 201:1.0 36802:1.0 25:1.0 1179:1.0 8:1.0 205:1.0 10:1.0 
0.10029695287611198 100:1.0 3:1.0 201:1.0 4232:1.0 6:1.0 1217:1.0 623:1.0 205:1.0 10:1.0 206:1.0 37:1.0 
0.20115654625433987 97:1.0 66:1.0 201:1.0 29497:1.0 67:1.0 1085:1.0 623:1.0 205:1.0 10:1.0 13:1.0 61:1.0 
0.19796381691253886 100:1.0 66:1.0 201:1.0 27587:1.0 67:1.0 2331:1.0 623:1.0 205:1.0 10:1.0 13:1.0 61:1.0 
0.30780930452780525 100:1.0 66:1.0 201:1.0 1823:1.0 67:1.0 203:1.0 623:1.0 205:1.0 10:1.0 13:1.0 61:1.0 
0.5208333747254509 122:1.0 3:1.0 201:1.0 973:1.0 6:1.0 1085:1.0 79:1.0 205:1.0 10:1.0 13:1.0 211:1.0 20:1.0 179:1.0 
0.5208333747254509 172:1.0 3:1.0 201:1.0 9547:1.0 6:1.0 1085:1.0 79:1.0 205:1.0 10:1.0 13:1.0 211:1.0 20:1.0 246:1.0 
0.21919696901123845 97:1.0 104:1.0 201:1.0 2999:1.0 105:1.0 203:1.0 79:1.0 205:1.0 10:1.0 13:1.0 96:1.0 
0.11015461735532685 97:1.0 24:1.0 266:1.0 11817:1.0 25:1.0 4633:1.0 8:1.0 205:1.0 10:1.0 455:1.0 13:1.0 206:1.0 246:1.0 20:1.0 470:1.0 
0.06614608654681496 97:1.0 24:1.0 201:1.0 11817:1.0 25:1.0 519:1.0 8:1.0 205:1.0 10:1.0 13:1.0 206:1.0 20:1.0 470:1.0 
0.4333692508868846 100:1.0 3:1.0 201:1.0 3325:1.0 6:1.0 2084:1.0 79:1.0 205:1.0 10:1.0 13:1.0 455:1.0 20:1.0 246:1.0 
0.16225575289762942 68:1.0 3:1.0 201:1.0 3041:1.0 6:1.0 611:1.0 204:1.0 205:1.0 10:1.0 206:1.0 207:1.0 
0.1055778632946703 26:1.0 3:1.0 201:1.0 6918:1.0 6:1.0 10818:1.0 111:1.0 205:1.0 10:1.0 13:1.0 211:1.0 20:1.0 14:1.0 
500.0 100:1.0 3:1.0 201:1.0 11355:1.0 6:1.0 10818:1.0 111:1.0 205:1.0 10:1.0 211:1.0 13:1.0 40:1.0 20:1.0 
0.18770346212332167 302:1.0 57:1.0 201:1.0 3630:1.0 59:1.0 30250:1.0 162:1.0 205:1.0 10:1.0 13:1.0 206:1.0 20:1.0 470:1.0 55:1.0 
0.09134618408177779 97:1.0 24:1.0 201:1.0 17852:1.0 25:1.0 203:1.0 8:1.0 205:1.0 10:1.0 13:1.0 206:1.0 20:1.0 305:1.0 
0.26516687975956843 68:1.0 66:1.0 201:1.0 37620:1.0 67:1.0 524:1.0 260:1.0 205:1.0 10:1.0 13:1.0 61:1.0 
0.1326746161749775 100:1.0 66:1.0 201:1.0 37641:1.0 67:1.0 833:1.0 8:1.0 205:1.0 10:1.0 13:1.0 206:1.0 61:1.0 20:1.0 157:1.0 16:1.0 
500.0 97:1.0 3:1.0 201:1.0 4762:1.0 6:1.0 10055:1.0 79:1.0 205:1.0 10:1.0 13:1.0 20:1.0 
0.1762563567221238 97:1.0 3:1.0 275:1.0 23031:1.0 6:1.0 277:1.0 195:1.0 205:1.0 10:1.0 206:1.0 246:1.0 
0.18029368167411727 100:1.0 380:1.0 201:1.0 37777:1.0 381:1.0 36434:1.0 260:1.0 205:1.0 10:1.0 206:1.0 207:1.0 
0.14870926674001905 100:1.0 104:1.0 201:1.0 26274:1.0 105:1.0 1304:1.0 79:1.0 205:1.0 10:1.0 13:1.0 96:1.0 
500.0 224:1.0 3:1.0 266:1.0 225:1.0 6:1.0 9112:1.0 79:1.0 205:1.0 10:1.0 13:1.0 20:1.0 
0.30100653710453884 122:1.0 57:1.0 201:1.0 4249:1.0 59:1.0 4250:1.0 204:1.0 205:1.0 10:1.0 211:1.0 14:1.0 
0.10776636458606463 97:1.0 3:1.0 201:1.0 2619:1.0 6:1.0 524:1.0 260:1.0 205:1.0 10:1.0 206:1.0 207:1.0 
0.30681899241482524 68:1.0 66:1.0 201:1.0 38052:1.0 67:1.0 203:1.0 623:1.0 205:1.0 10:1.0 13:1.0 61:1.0 
0.07492302843461653 26:1.0 3:1.0 201:1.0 9784:1.0 6:1.0 965:1.0 111:1.0 205:1.0 10:1.0 206:1.0 164:1.0 
0.09280263254773317 672:1.0 3:1.0 201:1.0 673:1.0 6:1.0 10818:1.0 260:1.0 205:1.0 10:1.0 13:1.0 206:1.0 20:1.0 207:1.0 
0.19982762162274895 68:1.0 3:1.0 201:1.0 1527:1.0 6:1.0 1900:1.0 204:1.0 205:1.0 10:1.0 211:1.0 246:1.0 37:1.0 
0.31482901917193 481:1.0 24:1.0 201:1.0 7803:1.0 25:1.0 1022:1.0 8:1.0 205:1.0 10:1.0 
0.18900248099164593 122:1.0 3:1.0 201:1.0 4191:1.0 6:1.0 1217:1.0 564:1.0 205:1.0 10:1.0 211:1.0 206:1.0 14:1.0 15:1.0 
0.1436675117695687 302:1.0 3:1.0 201:1.0 1858:1.0 6:1.0 203:1.0 363:1.0 205:1.0 10:1.0 206:1.0 305:1.0 
0.11323668052997318 97:1.0 3:1.0 201:1.0 7951:1.0 6:1.0 1179:1.0 2897:1.0 205:1.0 10:1.0 206:1.0 207:1.0 
0.15253393693608971 26:1.0 24:1.0 201:1.0 577:1.0 25:1.0 203:1.0 8:1.0 205:1.0 10:1.0 13:1.0 206:1.0 20:1.0 38:1.0 
0.16884674510710326 172:1.0 3:1.0 201:1.0 1089:1.0 6:1.0 203:1.0 8:1.0 205:1.0 10:1.0 206:1.0 13:1.0 157:1.0 207:1.0 16:1.0 
500.0 41:1.0 3:1.0 201:1.0 390:1.0 6:1.0 621:1.0 79:1.0 205:1.0 10:1.0 13:1.0 20:1.0 
500.0 100:1.0 3:1.0 201:1.0 39593:1.0 6:1.0 1085:1.0 79:1.0 205:1.0 10:1.0 13:1.0 20:1.0 
0.5208333747254509 97:1.0 3:1.0 201:1.0 4456:1.0 6:1.0 10055:1.0 79:1.0 205:1.0 10:1.0 13:1.0 455:1.0 20:1.0 37:1.0 
0.08411000372618646 68:1.0 104:1.0 201:1.0 19942:1.0 105:1.0 5434:1.0 79:1.0 205:1.0 10:1.0 13:1.0 455:1.0 96:1.0 48:1.0 
0.09137294452292383 68:1.0 104:1.0 201:1.0 39709:1.0 105:1.0 5434:1.0 79:1.0 205:1.0 10:1.0 13:1.0 455:1.0 96:1.0 48:1.0 
0.16209203319750448 68:1.0 104:1.0 201:1.0 39713:1.0 105:1.0 5434:1.0 79:1.0 205:1.0 10:1.0 455:1.0 96:1.0 48:1.0 
0.06989812879028172 100:1.0 24:1.0 201:1.0 1018:1.0 25:1.0 203:1.0 8:1.0 205:1.0 10:1.0 13:1.0 245:1.0 206:1.0 96:1.0 20:1.0 37:1.0 157:1.0 83:1.0 
0.22069397894712747 122:1.0 380:1.0 201:1.0 6475:1.0 381:1.0 203:1.0 162:1.0 205:1.0 10:1.0 246:1.0 
0.09990748103358488 302:1.0 3:1.0 201:1.0 5503:1.0 6:1.0 1304:1.0 2910:1.0 205:1.0 10:1.0 455:1.0 13:1.0 206:1.0 246:1.0 20:1.0 207:1.0 
0.24308838786846773 97:1.0 104:1.0 266:1.0 2808:1.0 105:1.0 5005:1.0 79:1.0 205:1.0 10:1.0 13:1.0 96:1.0 
0.28999820944632165 97:1.0 66:1.0 201:1.0 2808:1.0 67:1.0 524:1.0 260:1.0 205:1.0 10:1.0 13:1.0 61:1.0 
0.05247343149648783 100:1.0 3:1.0 201:1.0 7373:1.0 6:1.0 1179:1.0 623:1.0 205:1.0 10:1.0 13:1.0 206:1.0 81:1.0 20:1.0 207:1.0 37:1.0 
0.07753907597783655 100:1.0 3:1.0 201:1.0 15736:1.0 6:1.0 1179:1.0 486:1.0 205:1.0 10:1.0 206:1.0 207:1.0 
0.08685710779417065 100:1.0 3:1.0 201:1.0 40091:1.0 6:1.0 1217:1.0 564:1.0 205:1.0 10:1.0 206:1.0 207:1.0 
0.173428844552985 2:1.0 3:1.0 201:1.0 39:1.0 6:1.0 3568:1.0 195:1.0 205:1.0 10:1.0 206:1.0 38:1.0 
0.3086419971118972 68:1.0 380:1.0 201:1.0 2187:1.0 381:1.0 965:1.0 477:1.0 205:1.0 10:1.0 13:1.0 614:1.0 206:1.0 364:1.0 48:1.0 207:1.0 
0.2578933688691697 97:1.0 104:1.0 201:1.0 17791:1.0 4765:1.0 7724:1.0 79:1.0 205:1.0 10:1.0 13:1.0 96:1.0 
0.3241165112831436 100:1.0 66:1.0 201:1.0 3532:1.0 67:1.0 833:1.0 564:1.0 205:1.0 10:1.0 13:1.0 61:1.0 
0.11699383753450934 97:1.0 3:1.0 201:1.0 11834:1.0 6:1.0 1591:1.0 486:1.0 205:1.0 10:1.0 206:1.0 207:1.0 
0.0845098591806893 100:1.0 3:1.0 201:1.0 28673:1.0 6:1.0 965:1.0 623:1.0 205:1.0 10:1.0 206:1.0 246:1.0 
0.11947026134286613 68:1.0 3:1.0 201:1.0 22611:1.0 6:1.0 203:1.0 204:1.0 205:1.0 10:1.0 13:1.0 206:1.0 20:1.0 37:1.0 
0.33974883967841124 97:1.0 3:1.0 201:1.0 423:1.0 6:1.0 1179:1.0 623:1.0 205:1.0 10:1.0 206:1.0 207:1.0 
0.06873134450045293 97:1.0 3:1.0 201:1.0 21846:1.0 6:1.0 3542:1.0 1951:1.0 205:1.0 10:1.0 455:1.0 206:1.0 37:1.0 207:1.0 
0.1178552496182631 100:1.0 3:1.0 201:1.0 3907:1.0 6:1.0 203:1.0 623:1.0 205:1.0 10:1.0 
0.22032221450992734 68:1.0 3:1.0 275:1.0 16403:1.0 6:1.0 277:1.0 11518:1.0 205:1.0 10:1.0 206:1.0 207:1.0 
0.18382352989515013 100:1.0 380:1.0 201:1.0 2015:1.0 381:1.0 519:1.0 260:1.0 205:1.0 10:1.0 206:1.0 37:1.0 
0.4445663971656743 100:1.0 380:1.0 201:1.0 40848:1.0 381:1.0 203:1.0 79:1.0 205:1.0 10:1.0 13:1.0 455:1.0 364:1.0 246:1.0 
0.24031869500945316 302:1.0 24:1.0 201:1.0 4800:1.0 25:1.0 519:1.0 8:1.0 205:1.0 10:1.0 
0.2558898193587464 302:1.0 24:1.0 201:1.0 3617:1.0 25:1.0 519:1.0 8:1.0 205:1.0 10:1.0 
0.11309502434208586 97:1.0 3:1.0 275:1.0 5834:1.0 6:1.0 277:1.0 260:1.0 205:1.0 10:1.0 13:1.0 206:1.0 20:1.0 37:1.0 
0.5208333747254508 302:1.0 380:1.0 201:1.0 789:1.0 381:1.0 524:1.0 79:1.0 205:1.0 10:1.0 13:1.0 455:1.0 364:1.0 246:1.0 
0.18382352989515013 100:1.0 380:1.0 201:1.0 2790:1.0 381:1.0 203:1.0 486:1.0 205:1.0 10:1.0 206:1.0 207:1.0 
0.1722074472678447 97:1.0 3:1.0 201:1.0 1681:1.0 6:1.0 3542:1.0 1951:1.0 205:1.0 10:1.0 455:1.0 206:1.0 37:1.0 207:1.0 
0.18431685089453784 122:1.0 3:1.0 201:1.0 1534:1.0 6:1.0 23559:1.0 564:1.0 205:1.0 10:1.0 13:1.0 55:1.0 
0.20591287419725376 2:1.0 24:1.0 32005:1.0 301:1.0 25:1.0 7024:1.0 8:1.0 205:1.0 10:1.0 13:1.0 364:1.0 
0.32362627683040024 2:1.0 24:1.0 32005:1.0 5:1.0 25:1.0 29166:1.0 8:1.0 205:1.0 10:1.0 13:1.0 364:1.0 
0.43823702526261205 2:1.0 24:1.0 32005:1.0 301:1.0 25:1.0 41589:1.0 8:1.0 205:1.0 10:1.0 13:1.0 364:1.0 
0.21897212621350523 41:1.0 3:1.0 201:1.0 511:1.0 6:1.0 1022:1.0 623:1.0 205:1.0 10:1.0 
0.16011428616524143 100:1.0 3:1.0 201:1.0 411:1.0 6:1.0 611:1.0 623:1.0 205:1.0 10:1.0 206:1.0 207:1.0 
500.0 100:1.0 3:1.0 201:1.0 1160:1.0 6:1.0 2331:1.0 623:1.0 205:1.0 10:1.0 13:1.0 20:1.0 
0.07139107629068397 100:1.0 24:1.0 201:1.0 1563:1.0 25:1.0 203:1.0 8:1.0 205:1.0 10:1.0 13:1.0 206:1.0 20:1.0 305:1.0 
0.5208333747254509 2:1.0 3:1.0 201:1.0 199:1.0 6:1.0 1085:1.0 1951:1.0 205:1.0 10:1.0 455:1.0 211:1.0 246:1.0 37:1.0 
0.09104998678453775 100:1.0 3:1.0 201:1.0 2529:1.0 6:1.0 519:1.0 1951:1.0 205:1.0 10:1.0 206:1.0 164:1.0 
0.13855219985242845 68:1.0 3:1.0 201:1.0 3316:1.0 6:1.0 203:1.0 8:1.0 205:1.0 10:1.0 206:1.0 13:1.0 470:1.0 
0.10537550926968504 26:1.0 24:1.0 201:1.0 16788:1.0 25:1.0 10818:1.0 8:1.0 205:1.0 10:1.0 13:1.0 206:1.0 20:1.0 470:1.0 
0.32593172706730694 68:1.0 66:1.0 201:1.0 42166:1.0 67:1.0 524:1.0 260:1.0 205:1.0 10:1.0 13:1.0 61:1.0 
0.092018623715131 100:1.0 3:1.0 201:1.0 12743:1.0 6:1.0 965:1.0 966:1.0 205:1.0 10:1.0 206:1.0 164:1.0 
0.0730275355589658 100:1.0 3:1.0 201:1.0 41548:1.0 6:1.0 203:1.0 8:1.0 205:1.0 10:1.0 206:1.0 13:1.0 305:1.0 16:1.0 
0.20388885766147924 172:1.0 24:1.0 201:1.0 7441:1.0 25:1.0 203:1.0 8:1.0 205:1.0 10:1.0 13:1.0 206:1.0 20:1.0 237:1.0 
500.0 100:1.0 3:1.0 201:1.0 7470:1.0 6:1.0 519:1.0 79:1.0 205:1.0 10:1.0 13:1.0 20:1.0 
0.1850628537768418 100:1.0 3:1.0 201:1.0 7345:1.0 6:1.0 14037:1.0 623:1.0 205:1.0 10:1.0 206:1.0 
0.29539051384433 224:1.0 24:1.0 266:1.0 225:1.0 25:1.0 9112:1.0 8:1.0 205:1.0 10:1.0 245:1.0 13:1.0 37:1.0 20:1.0 
500.0 122:1.0 3:1.0 201:1.0 6904:1.0 6:1.0 22356:1.0 260:1.0 205:1.0 10:1.0 13:1.0 211:1.0 20:1.0 37:1.0 
500.0 100:1.0 380:1.0 124:1.0 1160:1.0 381:1.0 827:1.0 79:1.0 205:1.0 10:1.0 13:1.0 364:1.0 
0.32360111687876025 100:1.0 66:1.0 275:1.0 42692:1.0 67:1.0 277:1.0 623:1.0 205:1.0 10:1.0 13:1.0 61:1.0 
0.09029776391591837 100:1.0 3:1.0 201:1.0 40294:1.0 6:1.0 3320:1.0 966:1.0 205:1.0 10:1.0 206:1.0 37:1.0 
0.18382352989515013 100:1.0 380:1.0 201:1.0 7106:1.0 381:1.0 1217:1.0 260:1.0 205:1.0 10:1.0 206:1.0 246:1.0 
500.0 735:1.0 3:1.0 201:1.0 562:1.0 6:1.0 10055:1.0 204:1.0 205:1.0 10:1.0 13:1.0 211:1.0 20:1.0 82:1.0 
0.13101041157580987 26:1.0 3:1.0 201:1.0 577:1.0 6:1.0 519:1.0 79:1.0 205:1.0 10:1.0 
0.1495445171876587 97:1.0 380:1.0 201:1.0 423:1.0 1572:1.0 965:1.0 623:1.0 205:1.0 10:1.0 206:1.0 37:1.0 
0.09834021088082631 97:1.0 3:1.0 201:1.0 4870:1.0 6:1.0 965:1.0 486:1.0 205:1.0 10:1.0 206:1.0 207:1.0 
0.13234517570239662 100:1.0 24:1.0 201:1.0 37345:1.0 25:1.0 1022:1.0 8:1.0 205:1.0 10:1.0 
0.09231516142709664 97:1.0 24:1.0 201:1.0 3980:1.0 25:1.0 203:1.0 8:1.0 205:1.0 10:1.0 13:1.0 206:1.0 20:1.0 470:1.0 
0.26954696300271974 97:1.0 66:1.0 201:1.0 3280:1.0 67:1.0 519:1.0 623:1.0 205:1.0 10:1.0 13:1.0 61:1.0 
0.331125828860219 122:1.0 66:1.0 201:1.0 7445:1.0 67:1.0 9082:1.0 5061:1.0 205:1.0 10:1.0 13:1.0 211:1.0 14:1.0 
0.2169458479326842 100:1.0 380:1.0 275:1.0 3910:1.0 1572:1.0 277:1.0 623:1.0 205:1.0 10:1.0 206:1.0 164:1.0 
0.17560344389726937 100:1.0 3:1.0 275:1.0 3862:1.0 6:1.0 277:1.0 486:1.0 205:1.0 10:1.0 206:1.0 207:1.0 
0.12404267340563084 97:1.0 24:1.0 201:1.0 11506:1.0 25:1.0 10055:1.0 8:1.0 205:1.0 10:1.0 13:1.0 206:1.0 20:1.0 470:1.0 
0.07500602049286194 100:1.0 24:1.0 201:1.0 5056:1.0 25:1.0 1217:1.0 8:1.0 205:1.0 10:1.0 13:1.0 206:1.0 20:1.0 470:1.0 
0.220498523219211 97:1.0 66:1.0 201:1.0 11364:1.0 67:1.0 203:1.0 2897:1.0 205:1.0 10:1.0 13:1.0 61:1.0 
500.0 100:1.0 3:1.0 201:1.0 13570:1.0 6:1.0 203:1.0 79:1.0 205:1.0 10:1.0 13:1.0 20:1.0 
0.16382763823821722 26:1.0 3:1.0 201:1.0 9784:1.0 6:1.0 1217:1.0 111:1.0 205:1.0 10:1.0 206:1.0 207:1.0 
0.09198044449950418 100:1.0 3:1.0 201:1.0 43530:1.0 6:1.0 524:1.0 260:1.0 205:1.0 10:1.0 206:1.0 207:1.0 
0.1410410103542403 97:1.0 24:1.0 201:1.0 7476:1.0 25:1.0 1304:1.0 8:1.0 205:1.0 10:1.0 13:1.0 206:1.0 20:1.0 470:1.0 
0.3802939922759239 100:1.0 66:1.0 201:1.0 6495:1.0 67:1.0 1085:1.0 623:1.0 205:1.0 10:1.0 13:1.0 61:1.0 
0.3056819018992535 100:1.0 66:1.0 201:1.0 9430:1.0 67:1.0 1217:1.0 623:1.0 205:1.0 10:1.0 13:1.0 61:1.0 
0.1401695672291084 97:1.0 66:1.0 201:1.0 5351:1.0 67:1.0 1217:1.0 486:1.0 205:1.0 10:1.0 13:1.0 206:1.0 61:1.0 207:1.0 
0.09596415805556512 100:1.0 3:1.0 201:1.0 12565:1.0 6:1.0 611:1.0 111:1.0 205:1.0 10:1.0 206:1.0 37:1.0 
0.0684501939527067 100:1.0 3:1.0 201:1.0 5447:1.0 6:1.0 1217:1.0 623:1.0 205:1.0 10:1.0 455:1.0 206:1.0 246:1.0 207:1.0 
0.2749723965474683 68:1.0 104:1.0 201:1.0 272:1.0 105:1.0 1217:1.0 79:1.0 205:1.0 10:1.0 13:1.0 96:1.0 
0.21968765984263494 100:1.0 104:1.0 201:1.0 378:1.0 105:1.0 203:1.0 79:1.0 205:1.0 10:1.0 13:1.0 96:1.0 
0.5208333747254509 122:1.0 380:1.0 201:1.0 785:1.0 381:1.0 1022:1.0 79:1.0 205:1.0 10:1.0 13:1.0 211:1.0 364:1.0 82:1.0 
0.4311143023920898 97:1.0 380:1.0 201:1.0 10317:1.0 381:1.0 1022:1.0 79:1.0 205:1.0 10:1.0 13:1.0 211:1.0 364:1.0 246:1.0 
0.17943812327602948 41:1.0 3:1.0 275:1.0 1999:1.0 6:1.0 277:1.0 2897:1.0 205:1.0 10:1.0 206:1.0 246:1.0 
0.12824318548677227 100:1.0 24:1.0 201:1.0 1905:1.0 25:1.0 203:1.0 8:1.0 205:1.0 10:1.0 13:1.0 455:1.0 20:1.0 4573:1.0 
0.1989979882853887 100:1.0 380:1.0 201:1.0 37104:1.0 1572:1.0 519:1.0 623:1.0 205:1.0 10:1.0 206:1.0 37:1.0 
0.1577312208508525 100:1.0 380:1.0 201:1.0 44059:1.0 1572:1.0 519:1.0 486:1.0 205:1.0 10:1.0 206:1.0 207:1.0 
0.2792170480286609 41:1.0 24:1.0 266:1.0 511:1.0 25:1.0 4633:1.0 8:1.0 205:1.0 10:1.0 
0.0762105230994714 100:1.0 3:1.0 201:1.0 3187:1.0 6:1.0 524:1.0 8:1.0 205:1.0 10:1.0 206:1.0 13:1.0 470:1.0 16:1.0 
0.06031688804469603 122:1.0 66:1.0 27378:1.0 3708:1.0 67:1.0 27379:1.0 3697:1.0 205:1.0 10:1.0 11:1.0 211:1.0 81:1.0 82:1.0 179:1.0 14:1.0 
0.08922974028161869 172:1.0 66:1.0 27378:1.0 4537:1.0 67:1.0 27379:1.0 3697:1.0 205:1.0 10:1.0 11:1.0 211:1.0 81:1.0 82:1.0 246:1.0 14:1.0 
0.10698010559350439 68:1.0 24:1.0 201:1.0 44193:1.0 25:1.0 1179:1.0 8:1.0 205:1.0 10:1.0 13:1.0 245:1.0 206:1.0 20:1.0 55:1.0 37:1.0 470:1.0 
0.22987852388296312 68:1.0 66:1.0 201:1.0 14367:1.0 67:1.0 203:1.0 260:1.0 205:1.0 10:1.0 13:1.0 61:1.0 
0.22017346253822503 97:1.0 66:1.0 201:1.0 44235:1.0 67:1.0 524:1.0 260:1.0 205:1.0 10:1.0 13:1.0 61:1.0 
0.2645769662450819 100:1.0 104:1.0 124:1.0 238:1.0 105:1.0 827:1.0 79:1.0 205:1.0 10:1.0 13:1.0 96:1.0 
500.0 172:1.0 3:1.0 201:1.0 2604:1.0 6:1.0 611:1.0 79:1.0 205:1.0 10:1.0 13:1.0 20:1.0 
500.0 735:1.0 3:1.0 201:1.0 562:1.0 6:1.0 3542:1.0 1951:1.0 205:1.0 10:1.0 455:1.0 13:1.0 211:1.0 37:1.0 20:1.0 82:1.0 
0.0959342424768656 97:1.0 3:1.0 201:1.0 28654:1.0 6:1.0 24466:1.0 623:1.0 205:1.0 10:1.0 206:1.0 37:1.0 
0.10021946179507452 100:1.0 3:1.0 201:1.0 2004:1.0 6:1.0 965:1.0 623:1.0 205:1.0 10:1.0 206:1.0 207:1.0 
0.08395881606412545 97:1.0 24:1.0 201:1.0 489:1.0 25:1.0 524:1.0 8:1.0 205:1.0 10:1.0 13:1.0 206:1.0 20:1.0 470:1.0 
0.11001257779518599 68:1.0 24:1.0 201:1.0 4614:1.0 25:1.0 611:1.0 8:1.0 205:1.0 10:1.0 13:1.0 245:1.0 206:1.0 20:1.0 37:1.0 470:1.0 246:1.0 
0.09551672275093555 100:1.0 3:1.0 201:1.0 7678:1.0 6:1.0 1217:1.0 623:1.0 205:1.0 10:1.0 206:1.0 37:1.0 
0.11018604164484373 97:1.0 24:1.0 201:1.0 40865:1.0 25:1.0 524:1.0 8:1.0 205:1.0 10:1.0 13:1.0 206:1.0 245:1.0 20:1.0 470:1.0 37:1.0 
0.2060206076816264 97:1.0 3:1.0 124:1.0 44674:1.0 6:1.0 827:1.0 79:1.0 205:1.0 10:1.0 
0.17855789959109125 100:1.0 24:1.0 201:1.0 4602:1.0 25:1.0 1179:1.0 8:1.0 205:1.0 10:1.0 13:1.0 61:1.0 
0.16156731117497486 100:1.0 104:1.0 201:1.0 44759:1.0 105:1.0 611:1.0 79:1.0 205:1.0 10:1.0 13:1.0 96:1.0 
500.0 100:1.0 3:1.0 275:1.0 17525:1.0 6:1.0 277:1.0 79:1.0 205:1.0 10:1.0 13:1.0 20:1.0 
0.2997567446764442 100:1.0 66:1.0 201:1.0 29493:1.0 67:1.0 519:1.0 623:1.0 205:1.0 10:1.0 13:1.0 61:1.0 
0.09147399898537534 100:1.0 3:1.0 201:1.0 5274:1.0 6:1.0 36434:1.0 966:1.0 205:1.0 10:1.0 206:1.0 37:1.0 
0.08281652213506643 672:1.0 3:1.0 201:1.0 673:1.0 6:1.0 965:1.0 2897:1.0 205:1.0 10:1.0 81:1.0 1025:1.0 
0.1209927605454454 68:1.0 3:1.0 201:1.0 41594:1.0 6:1.0 965:1.0 111:1.0 205:1.0 10:1.0 206:1.0 164:1.0 
500.0 302:1.0 3:1.0 201:1.0 2703:1.0 6:1.0 519:1.0 79:1.0 205:1.0 10:1.0 13:1.0 20:1.0 
0.2505431834672174 100:1.0 380:1.0 201:1.0 3816:1.0 878:1.0 203:1.0 8:1.0 205:1.0 10:1.0 
0.09869061009732011 97:1.0 3:1.0 201:1.0 7650:1.0 6:1.0 837:1.0 623:1.0 205:1.0 10:1.0 206:1.0 246:1.0 
0.07394600498536553 100:1.0 24:1.0 201:1.0 4113:1.0 1289:1.0 203:1.0 8:1.0 205:1.0 10:1.0 11:1.0 800:1.0 469:1.0 341:1.0 
0.1520912793315754 68:1.0 24:1.0 201:1.0 1311:1.0 25:1.0 203:1.0 8:1.0 205:1.0 10:1.0 13:1.0 206:1.0 20:1.0 470:1.0 
0.10119112980574899 97:1.0 380:1.0 201:1.0 8678:1.0 878:1.0 10055:1.0 8:1.0 205:1.0 10:1.0 455:1.0 13:1.0 305:1.0 16:1.0 
500.0 100:1.0 3:1.0 201:1.0 720:1.0 6:1.0 203:1.0 79:1.0 205:1.0 10:1.0 13:1.0 
0.08864490895765319 100:1.0 24:1.0 201:1.0 10432:1.0 25:1.0 6630:1.0 8:1.0 205:1.0 10:1.0 13:1.0 206:1.0 20:1.0 38:1.0 
0.2419671091987759 97:1.0 66:1.0 201:1.0 45457:1.0 67:1.0 524:1.0 260:1.0 205:1.0 10:1.0 13:1.0 61:1.0 
0.1722024843985713 100:1.0 104:1.0 201:1.0 9775:1.0 105:1.0 203:1.0 79:1.0 205:1.0 10:1.0 13:1.0 96:1.0 
0.0720027760952622 97:1.0 24:1.0 201:1.0 33917:1.0 25:1.0 519:1.0 8:1.0 205:1.0 10:1.0 13:1.0 206:1.0 20:1.0 305:1.0 
0.07302935184887609 97:1.0 24:1.0 201:1.0 7476:1.0 25:1.0 1900:1.0 8:1.0 205:1.0 10:1.0 13:1.0 206:1.0 20:1.0 470:1.0 
500.0 100:1.0 380:1.0 201:1.0 45522:1.0 381:1.0 2331:1.0 79:1.0 205:1.0 10:1.0 13:1.0 364:1.0 
0.0629928019122227 672:1.0 380:1.0 201:1.0 673:1.0 1572:1.0 1179:1.0 486:1.0 205:1.0 10:1.0 141:1.0 35:1.0 13:1.0 54:1.0 206:1.0 136:1.0 37:1.0 20:1.0 207:1.0 
0.11766304802100358 97:1.0 3:1.0 201:1.0 25920:1.0 6:1.0 519:1.0 564:1.0 205:1.0 10:1.0 206:1.0 37:1.0 
0.1211661165530166 97:1.0 3:1.0 201:1.0 45766:1.0 6:1.0 519:1.0 486:1.0 205:1.0 10:1.0 206:1.0 37:1.0 
0.11541529226948166 97:1.0 3:1.0 201:1.0 10743:1.0 6:1.0 611:1.0 623:1.0 205:1.0 10:1.0 206:1.0 207:1.0 
0.19765697091162657 302:1.0 104:1.0 201:1.0 3070:1.0 4765:1.0 524:1.0 79:1.0 205:1.0 10:1.0 13:1.0 96:1.0 
0.24396354126517336 302:1.0 104:1.0 201:1.0 7482:1.0 4765:1.0 203:1.0 79:1.0 205:1.0 10:1.0 13:1.0 96:1.0 
0.1331344645735345 100:1.0 3:1.0 201:1.0 1190:1.0 6:1.0 2331:1.0 8:1.0 205:1.0 10:1.0 206:1.0 13:1.0 470:1.0 16:1.0 
0.11312887024605232 97:1.0 3:1.0 201:1.0 489:1.0 6:1.0 1217:1.0 623:1.0 205:1.0 10:1.0 81:1.0 211:1.0 246:1.0 37:1.0 
0.12631069601983 100:1.0 24:1.0 201:1.0 41257:1.0 25:1.0 203:1.0 8:1.0 205:1.0 10:1.0 455:1.0 246:1.0 
0.10627094162881999 68:1.0 3:1.0 201:1.0 46132:1.0 6:1.0 524:1.0 32:1.0 205:1.0 10:1.0 141:1.0 35:1.0 117:1.0 136:1.0 37:1.0 14:1.0 
0.14030414941973163 97:1.0 3:1.0 201:1.0 262:1.0 6:1.0 1085:1.0 623:1.0 205:1.0 10:1.0 206:1.0 246:1.0 
500.0 172:1.0 3:1.0 201:1.0 11609:1.0 6:1.0 1085:1.0 79:1.0 205:1.0 10:1.0 13:1.0 20:1.0 
0.14252357504154486 100:1.0 66:1.0 201:1.0 19777:1.0 345:1.0 524:1.0 623:1.0 205:1.0 10:1.0 13:1.0 61:1.0 
0.110659548987749 100:1.0 3:1.0 201:1.0 46444:1.0 6:1.0 1217:1.0 204:1.0 205:1.0 10:1.0 206:1.0 207:1.0 
0.07258143573183767 97:1.0 24:1.0 201:1.0 18392:1.0 25:1.0 10055:1.0 8:1.0 205:1.0 10:1.0 13:1.0 206:1.0 20:1.0 470:1.0 
0.10758496832610641 100:1.0 24:1.0 201:1.0 13845:1.0 25:1.0 203:1.0 8:1.0 205:1.0 10:1.0 13:1.0 206:1.0 20:1.0 470:1.0 
0.08582297208614978 97:1.0 3:1.0 201:1.0 26591:1.0 6:1.0 1022:1.0 564:1.0 205:1.0 10:1.0 13:1.0 206:1.0 55:1.0 14:1.0 
500.0 97:1.0 380:1.0 201:1.0 7437:1.0 381:1.0 1022:1.0 79:1.0 205:1.0 10:1.0 13:1.0 364:1.0 
0.10427362906722842 100:1.0 24:1.0 201:1.0 5112:1.0 25:1.0 833:1.0 8:1.0 205:1.0 10:1.0 13:1.0 206:1.0 20:1.0 305:1.0 
0.12734483951006922 100:1.0 3:1.0 275:1.0 3648:1.0 6:1.0 277:1.0 2897:1.0 205:1.0 10:1.0 206:1.0 164:1.0 
500.0 122:1.0 3:1.0 201:1.0 1193:1.0 6:1.0 14037:1.0 623:1.0 205:1.0 10:1.0 13:1.0 211:1.0 20:1.0 14:1.0 
500.0 100:1.0 380:1.0 266:1.0 5491:1.0 381:1.0 4633:1.0 79:1.0 205:1.0 10:1.0 13:1.0 364:1.0 
0.5208333747254509 100:1.0 380:1.0 201:1.0 3280:1.0 381:1.0 203:1.0 79:1.0 205:1.0 10:1.0 13:1.0 455:1.0 364:1.0 207:1.0 
0.10444198365981094 100:1.0 3:1.0 201:1.0 2466:1.0 6:1.0 965:1.0 111:1.0 205:1.0 10:1.0 206:1.0 37:1.0 
0.10640730377558574 100:1.0 3:1.0 201:1.0 4130:1.0 6:1.0 1085:1.0 486:1.0 205:1.0 10:1.0 206:1.0 207:1.0 
0.24229523828381797 100:1.0 380:1.0 201:1.0 4799:1.0 878:1.0 203:1.0 8:1.0 205:1.0 10:1.0 
0.10623716263869788 100:1.0 3:1.0 201:1.0 1190:1.0 6:1.0 611:1.0 8:1.0 205:1.0 10:1.0 206:1.0 13:1.0 305:1.0 16:1.0 
0.3369631625338682 100:1.0 66:1.0 201:1.0 806:1.0 67:1.0 524:1.0 260:1.0 205:1.0 10:1.0 
0.15683540159431464 26:1.0 3:1.0 201:1.0 9332:1.0 6:1.0 965:1.0 111:1.0 205:1.0 10:1.0 211:1.0 37:1.0 305:1.0 
0.19746897210859693 2:1.0 3:1.0 201:1.0 1109:1.0 6:1.0 965:1.0 111:1.0 205:1.0 10:1.0 211:1.0 40:1.0 305:1.0 
0.10213468534575067 100:1.0 24:1.0 201:1.0 11869:1.0 25:1.0 203:1.0 8:1.0 205:1.0 10:1.0 13:1.0 206:1.0 20:1.0 38:1.0 
500.0 97:1.0 3:1.0 201:1.0 1018:1.0 6:1.0 203:1.0 79:1.0 205:1.0 10:1.0 13:1.0 20:1.0 
0.21669511418521453 158:1.0 3:1.0 201:1.0 28286:1.0 6:1.0 519:1.0 2910:1.0 205:1.0 10:1.0 206:1.0 207:1.0 
0.07904870728600981 68:1.0 3:1.0 201:1.0 47419:1.0 6:1.0 1179:1.0 623:1.0 205:1.0 10:1.0 206:1.0 81:1.0 207:1.0 246:1.0 
0.36782244930912145 302:1.0 66:1.0 201:1.0 1858:1.0 67:1.0 524:1.0 260:1.0 205:1.0 10:1.0 13:1.0 61:1.0 
0.5208333747254509 68:1.0 380:1.0 201:1.0 8130:1.0 381:1.0 1085:1.0 79:1.0 205:1.0 10:1.0 13:1.0 455:1.0 364:1.0 179:1.0 
500.0 100:1.0 3:1.0 201:1.0 12643:1.0 6:1.0 519:1.0 79:1.0 205:1.0 10:1.0 13:1.0 20:1.0 
500.0 97:1.0 380:1.0 201:1.0 39065:1.0 381:1.0 203:1.0 79:1.0 205:1.0 10:1.0 13:1.0 364:1.0 
0.24038462420187084 100:1.0 380:1.0 201:1.0 5385:1.0 381:1.0 1217:1.0 79:1.0 205:1.0 10:1.0 13:1.0 11:1.0 669:1.0 364:1.0 48:1.0 37:1.0 
0.25057528206396057 2:1.0 3:1.0 201:1.0 39:1.0 6:1.0 3568:1.0 260:1.0 205:1.0 10:1.0 206:1.0 207:1.0 
500.0 2:1.0 380:1.0 201:1.0 734:1.0 381:1.0 10957:1.0 79:1.0 205:1.0 10:1.0 13:1.0 364:1.0 
0.10320910890530993 100:1.0 3:1.0 201:1.0 7004:1.0 6:1.0 524:1.0 564:1.0 205:1.0 10:1.0 206:1.0 246:1.0 
0.09556727227742844 100:1.0 24:1.0 201:1.0 6834:1.0 25:1.0 1179:1.0 8:1.0 205:1.0 10:1.0 455:1.0 245:1.0 207:1.0 246:1.0 
0.5208333747254509 122:1.0 380:1.0 201:1.0 500:1.0 381:1.0 1217:1.0 79:1.0 205:1.0 10:1.0 13:1.0 211:1.0 364:1.0 14:1.0 
0.5208333747254509 100:1.0 380:1.0 201:1.0 18335:1.0 381:1.0 1217:1.0 79:1.0 205:1.0 10:1.0 13:1.0 211:1.0 364:1.0 246:1.0 
500.0 97:1.0 380:1.0 201:1.0 36625:1.0 381:1.0 9153:1.0 79:1.0 205:1.0 10:1.0 13:1.0 364:1.0 
0.05812093095292545 68:1.0 3:1.0 201:1.0 47838:1.0 6:1.0 611:1.0 8:1.0 205:1.0 10:1.0 206:1.0 81:1.0 13:1.0 470:1.0 37:1.0 16:1.0 
0.14376515362254022 26:1.0 3:1.0 201:1.0 3097:1.0 6:1.0 965:1.0 2897:1.0 205:1.0 10:1.0 206:1.0 164:1.0 
0.12673124145811665 100:1.0 3:1.0 201:1.0 6815:1.0 6:1.0 519:1.0 486:1.0 205:1.0 10:1.0 206:1.0 207:1.0 
0.19297089002609752 97:1.0 66:1.0 201:1.0 1960:1.0 67:1.0 524:1.0 623:1.0 205:1.0 10:1.0 13:1.0 61:1.0 
0.14929123363573898 672:1.0 3:1.0 201:1.0 673:1.0 6:1.0 965:1.0 966:1.0 205:1.0 10:1.0 81:1.0 246:1.0 
0.4431454520501031 100:1.0 3:1.0 201:1.0 12643:1.0 6:1.0 519:1.0 79:1.0 205:1.0 10:1.0 13:1.0 81:1.0 20:1.0 37:1.0 
0.16787276540092466 302:1.0 3:1.0 275:1.0 2350:1.0 6:1.0 277:1.0 623:1.0 205:1.0 10:1.0 206:1.0 207:1.0 
0.1702615158737243 97:1.0 380:1.0 201:1.0 10501:1.0 381:1.0 203:1.0 204:1.0 205:1.0 10:1.0 206:1.0 37:1.0 
0.08683186388360085 122:1.0 3:1.0 201:1.0 4029:1.0 6:1.0 203:1.0 8:1.0 205:1.0 10:1.0 211:1.0 206:1.0 13:1.0 14:1.0 470:1.0 16:1.0 
0.05203404785976636 100:1.0 24:1.0 201:1.0 1472:1.0 25:1.0 203:1.0 8:1.0 205:1.0 10:1.0 211:1.0 13:1.0 206:1.0 246:1.0 20:1.0 470:1.0 
0.0772524275911735 100:1.0 3:1.0 201:1.0 1472:1.0 6:1.0 1900:1.0 8:1.0 205:1.0 10:1.0 206:1.0 13:1.0 470:1.0 16:1.0 
0.12716980246341394 100:1.0 24:1.0 201:1.0 8597:1.0 25:1.0 203:1.0 8:1.0 205:1.0 10:1.0 13:1.0 206:1.0 20:1.0 157:1.0 
500.0 100:1.0 3:1.0 201:1.0 720:1.0 6:1.0 203:1.0 79:1.0 205:1.0 10:1.0 13:1.0 
0.18703754986161428 97:1.0 66:1.0 201:1.0 17227:1.0 67:1.0 203:1.0 623:1.0 205:1.0 10:1.0 13:1.0 61:1.0 
0.11640319974956835 100:1.0 3:1.0 201:1.0 48695:1.0 6:1.0 1179:1.0 623:1.0 205:1.0 10:1.0 206:1.0 207:1.0 
0.24146969663322407 100:1.0 66:1.0 201:1.0 12459:1.0 67:1.0 524:1.0 260:1.0 205:1.0 10:1.0 13:1.0 61:1.0 
0.16439472049358478 100:1.0 3:1.0 201:1.0 8504:1.0 6:1.0 1085:1.0 486:1.0 205:1.0 10:1.0 206:1.0 246:1.0 
0.07835543031449947 122:1.0 3:1.0 201:1.0 1534:1.0 6:1.0 203:1.0 79:1.0 205:1.0 10:1.0 13:1.0 211:1.0 364:1.0 246:1.0 136:1.0 
0.3086419971118972 122:1.0 380:1.0 201:1.0 1534:1.0 381:1.0 203:1.0 79:1.0 205:1.0 10:1.0 13:1.0 211:1.0 364:1.0 20:1.0 246:1.0 136:1.0 
0.24038462420187084 122:1.0 380:1.0 201:1.0 425:1.0 381:1.0 203:1.0 79:1.0 205:1.0 10:1.0 13:1.0 211:1.0 364:1.0 246:1.0 20:1.0 136:1.0 
0.3333333502875441 68:1.0 380:1.0 201:1.0 14297:1.0 381:1.0 203:1.0 79:1.0 205:1.0 10:1.0 13:1.0 211:1.0 364:1.0 246:1.0 20:1.0 
0.24170027314527476 97:1.0 66:1.0 201:1.0 13131:1.0 67:1.0 524:1.0 260:1.0 205:1.0 10:1.0 13:1.0 61:1.0 
500.0 97:1.0 380:1.0 201:1.0 21472:1.0 381:1.0 519:1.0 79:1.0 205:1.0 10:1.0 13:1.0 364:1.0 
0.062182213823528204 100:1.0 3:1.0 201:1.0 3102:1.0 6:1.0 2331:1.0 623:1.0 205:1.0 10:1.0 206:1.0 375:1.0 207:1.0 37:1.0 
0.27173913149110307 68:1.0 3:1.0 201:1.0 7989:1.0 6:1.0 524:1.0 8:1.0 205:1.0 10:1.0 
0.07491369339061885 100:1.0 3:1.0 201:1.0 8313:1.0 6:1.0 203:1.0 8:1.0 205:1.0 10:1.0 206:1.0 470:1.0 16:1.0 
0.12332766989138383 68:1.0 24:1.0 201:1.0 8310:1.0 25:1.0 203:1.0 8:1.0 205:1.0 10:1.0 206:1.0 207:1.0 
0.22321428642703256 41:1.0 3:1.0 201:1.0 1514:1.0 6:1.0 203:1.0 204:1.0 205:1.0 10:1.0 206:1.0 207:1.0 
0.15568342388536616 224:1.0 3:1.0 266:1.0 225:1.0 6:1.0 9112:1.0 8:1.0 205:1.0 10:1.0 206:1.0 13:1.0 470:1.0 16:1.0 
0.007666776994020519 224:1.0 24:1.0 266:1.0 225:1.0 25:1.0 9112:1.0 8:1.0 205:1.0 10:1.0 13:1.0 206:1.0 20:1.0 470:1.0 
0.05083307308959304 68:1.0 380:1.0 201:1.0 17545:1.0 381:1.0 524:1.0 8:1.0 205:1.0 10:1.0 141:1.0 35:1.0 117:1.0 13:1.0 136:1.0 37:1.0 671:1.0 16:1.0 
0.06270073374134401 68:1.0 24:1.0 201:1.0 17545:1.0 25:1.0 524:1.0 8:1.0 205:1.0 10:1.0 141:1.0 35:1.0 13:1.0 117:1.0 136:1.0 37:1.0 364:1.0 671:1.0 
0.18117444632585591 97:1.0 3:1.0 201:1.0 829:1.0 6:1.0 10055:1.0 8:1.0 205:1.0 10:1.0 206:1.0 13:1.0 470:1.0 16:1.0 
0.10427362160899759 100:1.0 24:1.0 201:1.0 3866:1.0 25:1.0 203:1.0 8:1.0 205:1.0 10:1.0 13:1.0 206:1.0 20:1.0 470:1.0 
0.11924456143533502 97:1.0 24:1.0 201:1.0 682:1.0 25:1.0 9153:1.0 8:1.0 205:1.0 10:1.0 13:1.0 206:1.0 20:1.0 38:1.0 
0.19954932352603386 97:1.0 3:1.0 201:1.0 675:1.0 6:1.0 203:1.0 2910:1.0 205:1.0 10:1.0 455:1.0 15:1.0 
0.19346793980649024 97:1.0 3:1.0 201:1.0 489:1.0 6:1.0 1217:1.0 204:1.0 205:1.0 10:1.0 81:1.0 211:1.0 246:1.0 37:1.0 
-0.13931378815728712 97:1.0 57:1.0 201:1.0 1216:1.0 59:1.0 1217:1.0 204:1.0 205:1.0 10:1.0 
-0.20839937343528453 100:1.0 57:1.0 201:1.0 1457:1.0 59:1.0 519:1.0 623:1.0 205:1.0 10:1.0 13:1.0 55:1.0 
-0.33227472347830644 100:1.0 57:1.0 275:1.0 1644:1.0 59:1.0 277:1.0 260:1.0 205:1.0 10:1.0 13:1.0 55:1.0 
-500.0 100:1.0 3:1.0 201:1.0 2614:1.0 6:1.0 519:1.0 79:1.0 205:1.0 10:1.0 13:1.0 20:1.0 
-0.0959342424768656 97:1.0 3:1.0 201:1.0 2618:1.0 6:1.0 519:1.0 564:1.0 205:1.0 10:1.0 35:1.0 13:1.0 48:1.0 246:1.0 20:1.0 
-0.14033582079259463 97:1.0 3:1.0 201:1.0 2618:1.0 6:1.0 519:1.0 564:1.0 205:1.0 10:1.0 35:1.0 13:1.0 48:1.0 20:1.0 246:1.0 
-0.42135819018633025 302:1.0 75:1.0 201:1.0 4545:1.0 77:1.0 2331:1.0 79:1.0 205:1.0 10:1.0 13:1.0 83:1.0 
-0.35661766496638503 100:1.0 380:1.0 201:1.0 1018:1.0 381:1.0 203:1.0 79:1.0 205:1.0 10:1.0 455:1.0 13:1.0 207:1.0 265:1.0 364:1.0 
-0.34676491008872834 405:1.0 57:1.0 201:1.0 368:1.0 59:1.0 1085:1.0 260:1.0 205:1.0 10:1.0 13:1.0 55:1.0 
-0.5972834269473126 100:1.0 3:1.0 201:1.0 2466:1.0 6:1.0 519:1.0 79:1.0 205:1.0 10:1.0 211:1.0 13:1.0 37:1.0 20:1.0 
-0.4928758628631733 2:1.0 3:1.0 201:1.0 60:1.0 6:1.0 519:1.0 79:1.0 205:1.0 10:1.0 211:1.0 13:1.0 14:1.0 20:1.0 
-0.10793528436554273 122:1.0 3:1.0 201:1.0 248:1.0 6:1.0 524:1.0 260:1.0 205:1.0 10:1.0 211:1.0 82:1.0 246:1.0 37:1.0 
-0.17361111111111102 122:1.0 3:1.0 201:1.0 973:1.0 6:1.0 524:1.0 260:1.0 205:1.0 10:1.0 211:1.0 82:1.0 246:1.0 37:1.0 
-0.19085680369697738 2:1.0 3:1.0 201:1.0 39:1.0 6:1.0 524:1.0 260:1.0 205:1.0 10:1.0 211:1.0 82:1.0 246:1.0 
-500.0 97:1.0 3:1.0 201:1.0 6634:1.0 6:1.0 1022:1.0 79:1.0 205:1.0 10:1.0 13:1.0 20:1.0 
-0.2839990746350282 68:1.0 75:1.0 201:1.0 8444:1.0 77:1.0 1179:1.0 79:1.0 205:1.0 10:1.0 13:1.0 83:1.0 
-500.0 100:1.0 380:1.0 201:1.0 2015:1.0 381:1.0 519:1.0 79:1.0 205:1.0 10:1.0 13:1.0 364:1.0 
-0.15297374621989382 172:1.0 57:1.0 201:1.0 9598:1.0 59:1.0 1085:1.0 623:1.0 205:1.0 10:1.0 
-0.1516441744212552 302:1.0 57:1.0 201:1.0 9624:1.0 59:1.0 524:1.0 260:1.0 205:1.0 10:1.0 
-500.0 100:1.0 380:1.0 201:1.0 1516:1.0 381:1.0 1217:1.0 79:1.0 205:1.0 10:1.0 13:1.0 364:1.0 
-500.0 97:1.0 3:1.0 201:1.0 2698:1.0 6:1.0 10055:1.0 79:1.0 205:1.0 10:1.0 13:1.0 20:1.0 
-500.0 100:1.0 3:1.0 201:1.0 7470:1.0 6:1.0 519:1.0 79:1.0 205:1.0 10:1.0 13:1.0 20:1.0 
-500.0 100:1.0 380:1.0 201:1.0 10156:1.0 381:1.0 1291:1.0 79:1.0 205:1.0 10:1.0 13:1.0 364:1.0 
-0.11526881532823907 100:1.0 57:1.0 201:1.0 11141:1.0 59:1.0 1085:1.0 623:1.0 205:1.0 10:1.0 13:1.0 20:1.0 55:1.0 
-500.0 100:1.0 380:1.0 266:1.0 4273:1.0 381:1.0 4633:1.0 79:1.0 205:1.0 10:1.0 13:1.0 364:1.0 
-500.0 97:1.0 3:1.0 201:1.0 2698:1.0 6:1.0 10055:1.0 79:1.0 205:1.0 10:1.0 13:1.0 20:1.0 
-500.0 100:1.0 380:1.0 201:1.0 12256:1.0 381:1.0 203:1.0 79:1.0 205:1.0 10:1.0 13:1.0 364:1.0 
-0.27619589746570566 100:1.0 75:1.0 201:1.0 829:1.0 544:1.0 9677:1.0 79:1.0 205:1.0 10:1.0 13:1.0 83:1.0 
-500.0 100:1.0 380:1.0 201:1.0 12276:1.0 381:1.0 611:1.0 79:1.0 205:1.0 10:1.0 13:1.0 364:1.0 
-500.0 100:1.0 380:1.0 266:1.0 5180:1.0 381:1.0 4633:1.0 79:1.0 205:1.0 10:1.0 13:1.0 364:1.0 
-500.0 100:1.0 3:1.0 201:1.0 12301:1.0 6:1.0 203:1.0 79:1.0 205:1.0 10:1.0 13:1.0 20:1.0 
-0.5292194969316675 122:1.0 380:1.0 201:1.0 1534:1.0 381:1.0 203:1.0 79:1.0 205:1.0 10:1.0 211:1.0 13:1.0 14:1.0 364:1.0 
-0.5234382963703564 100:1.0 380:1.0 201:1.0 1486:1.0 381:1.0 203:1.0 79:1.0 205:1.0 10:1.0 211:1.0 13:1.0 246:1.0 364:1.0 
-0.24063741771751676 302:1.0 57:1.0 275:1.0 12429:1.0 59:1.0 277:1.0 623:1.0 205:1.0 10:1.0 
-0.15063355550909716 100:1.0 57:1.0 275:1.0 4835:1.0 59:1.0 277:1.0 623:1.0 205:1.0 10:1.0 
-500.0 68:1.0 3:1.0 201:1.0 7607:1.0 6:1.0 524:1.0 79:1.0 205:1.0 10:1.0 13:1.0 20:1.0 
-500.0 100:1.0 3:1.0 201:1.0 12643:1.0 6:1.0 519:1.0 79:1.0 205:1.0 10:1.0 13:1.0 20:1.0 
-500.0 97:1.0 3:1.0 201:1.0 829:1.0 6:1.0 519:1.0 79:1.0 205:1.0 10:1.0 13:1.0 20:1.0 
-500.0 2:1.0 3:1.0 275:1.0 5:1.0 6:1.0 277:1.0 195:1.0 205:1.0 10:1.0 13:1.0 211:1.0 20:1.0 82:1.0 
-0.10213468534575067 97:1.0 3:1.0 275:1.0 170:1.0 6:1.0 277:1.0 195:1.0 205:1.0 10:1.0 211:1.0 13:1.0 37:1.0 20:1.0 
-0.14140256851338817 97:1.0 3:1.0 275:1.0 170:1.0 6:1.0 277:1.0 195:1.0 205:1.0 10:1.0 13:1.0 211:1.0 20:1.0 37:1.0 
-0.14870926674001905 302:1.0 57:1.0 201:1.0 873:1.0 59:1.0 1022:1.0 564:1.0 205:1.0 10:1.0 
-500.0 97:1.0 3:1.0 201:1.0 3025:1.0 6:1.0 10055:1.0 79:1.0 205:1.0 10:1.0 13:1.0 20:1.0 
-500.0 100:1.0 3:1.0 201:1.0 12732:1.0 6:1.0 2331:1.0 79:1.0 205:1.0 10:1.0 13:1.0 20:1.0 
-500.0 97:1.0 3:1.0 201:1.0 13570:1.0 6:1.0 1022:1.0 79:1.0 205:1.0 10:1.0 13:1.0 20:1.0 
-0.5030213214456976 405:1.0 57:1.0 201:1.0 2991:1.0 59:1.0 1217:1.0 260:1.0 205:1.0 10:1.0 13:1.0 55:1.0 
-0.41013348609785605 2:1.0 57:1.0 201:1.0 5:1.0 59:1.0 1217:1.0 260:1.0 205:1.0 10:1.0 13:1.0 55:1.0 
-0.35454881836603147 100:1.0 380:1.0 201:1.0 501:1.0 878:1.0 203:1.0 32:1.0 205:1.0 10:1.0 455:1.0 14:1.0 
-0.5208333747254507 122:1.0 3:1.0 201:1.0 4776:1.0 6:1.0 519:1.0 79:1.0 205:1.0 10:1.0 211:1.0 13:1.0 82:1.0 20:1.0 
-0.5982430146126653 97:1.0 3:1.0 201:1.0 13752:1.0 6:1.0 519:1.0 79:1.0 205:1.0 10:1.0 211:1.0 13:1.0 246:1.0 20:1.0 
-500.0 100:1.0 380:1.0 266:1.0 8514:1.0 381:1.0 4633:1.0 79:1.0 205:1.0 10:1.0 13:1.0 364:1.0 
-500.0 100:1.0 3:1.0 201:1.0 720:1.0 6:1.0 203:1.0 79:1.0 205:1.0 10:1.0 13:1.0 
-500.0 100:1.0 380:1.0 266:1.0 14550:1.0 381:1.0 4633:1.0 79:1.0 205:1.0 10:1.0 13:1.0 364:1.0 
-0.20441861900471026 68:1.0 57:1.0 201:1.0 14722:1.0 59:1.0 965:1.0 260:1.0 205:1.0 10:1.0 13:1.0 55:1.0 
-0.4564951179581431 100:1.0 380:1.0 201:1.0 3087:1.0 381:1.0 203:1.0 79:1.0 205:1.0 10:1.0 11:1.0 13:1.0 40:1.0 364:1.0 
-500.0 2:1.0 380:1.0 201:1.0 734:1.0 381:1.0 10957:1.0 79:1.0 205:1.0 10:1.0 13:1.0 364:1.0 
-0.6614224453302491 100:1.0 66:1.0 201:1.0 3839:1.0 67:1.0 1085:1.0 79:1.0 205:1.0 10:1.0 13:1.0 455:1.0 364:1.0 179:1.0 61:1.0 
-0.5675079716268159 100:1.0 380:1.0 201:1.0 3839:1.0 381:1.0 1085:1.0 79:1.0 205:1.0 10:1.0 13:1.0 455:1.0 179:1.0 364:1.0 61:1.0 
-0.1850628537768418 302:1.0 57:1.0 201:1.0 1927:1.0 59:1.0 524:1.0 623:1.0 205:1.0 10:1.0 
-0.10776636458606463 68:1.0 57:1.0 201:1.0 15709:1.0 59:1.0 1085:1.0 623:1.0 205:1.0 10:1.0 
-0.23200751941544695 100:1.0 57:1.0 201:1.0 829:1.0 59:1.0 1591:1.0 623:1.0 205:1.0 10:1.0 
-0.5208333747254509 735:1.0 3:1.0 201:1.0 11326:1.0 6:1.0 2084:1.0 79:1.0 205:1.0 10:1.0 455:1.0 13:1.0 246:1.0 20:1.0 
-0.2551615656098462 97:1.0 57:1.0 275:1.0 7650:1.0 59:1.0 277:1.0 260:1.0 205:1.0 10:1.0 13:1.0 206:1.0 55:1.0 207:1.0 
-0.15059773570607696 68:1.0 3:1.0 275:1.0 16115:1.0 6:1.0 277:1.0 32:1.0 205:1.0 10:1.0 35:1.0 81:1.0 14:1.0 37:1.0 
-500.0 100:1.0 3:1.0 201:1.0 11283:1.0 6:1.0 9194:1.0 79:1.0 205:1.0 10:1.0 13:1.0 20:1.0 
-0.24134576062120452 100:1.0 380:1.0 201:1.0 214:1.0 381:1.0 965:1.0 79:1.0 205:1.0 10:1.0 211:1.0 13:1.0 164:1.0 364:1.0 
-0.4065040902551225 224:1.0 380:1.0 201:1.0 225:1.0 381:1.0 965:1.0 79:1.0 205:1.0 10:1.0 211:1.0 13:1.0 14:1.0 364:1.0 
-0.30349141111707245 100:1.0 3:1.0 201:1.0 1575:1.0 6:1.0 9208:1.0 79:1.0 205:1.0 10:1.0 81:1.0 246:1.0 
-500.0 100:1.0 380:1.0 266:1.0 16384:1.0 381:1.0 4633:1.0 79:1.0 205:1.0 10:1.0 13:1.0 364:1.0 
-1.175774252680165 100:1.0 3:1.0 201:1.0 13673:1.0 6:1.0 203:1.0 79:1.0 205:1.0 10:1.0 13:1.0 55:1.0 20:1.0 
-0.5783307741026302 100:1.0 66:1.0 201:1.0 13673:1.0 67:1.0 203:1.0 79:1.0 205:1.0 10:1.0 13:1.0 20:1.0 
-0.5185037947876807 100:1.0 380:1.0 201:1.0 10708:1.0 381:1.0 1085:1.0 79:1.0 205:1.0 10:1.0 455:1.0 13:1.0 179:1.0 364:1.0 
-0.1014759635998699 68:1.0 57:1.0 201:1.0 458:1.0 59:1.0 203:1.0 204:1.0 205:1.0 10:1.0 
-500.0 41:1.0 380:1.0 266:1.0 511:1.0 381:1.0 4633:1.0 79:1.0 205:1.0 10:1.0 13:1.0 364:1.0 
-0.4602561004059106 68:1.0 3:1.0 201:1.0 15578:1.0 6:1.0 611:1.0 79:1.0 205:1.0 10:1.0 81:1.0 13:1.0 246:1.0 20:1.0 
-0.30968698809643275 68:1.0 3:1.0 201:1.0 3113:1.0 6:1.0 611:1.0 79:1.0 205:1.0 10:1.0 81:1.0 246:1.0 
-500.0 68:1.0 380:1.0 266:1.0 11617:1.0 381:1.0 4633:1.0 79:1.0 205:1.0 10:1.0 13:1.0 364:1.0 
-0.13553230956949786 100:1.0 57:1.0 201:1.0 17792:1.0 59:1.0 1085:1.0 623:1.0 205:1.0 10:1.0 13:1.0 55:1.0 
-0.6080194348964294 100:1.0 3:1.0 201:1.0 3926:1.0 6:1.0 203:1.0 79:1.0 205:1.0 10:1.0 81:1.0 13:1.0 246:1.0 20:1.0 
-500.0 97:1.0 3:1.0 201:1.0 17852:1.0 6:1.0 203:1.0 79:1.0 205:1.0 10:1.0 13:1.0 20:1.0 
-0.132878514417706 97:1.0 57:1.0 201:1.0 7951:1.0 59:1.0 524:1.0 260:1.0 205:1.0 10:1.0 
-0.1723802777340833 97:1.0 57:1.0 201:1.0 11580:1.0 59:1.0 1179:1.0 623:1.0 205:1.0 10:1.0 13:1.0 55:1.0 
-500.0 41:1.0 3:1.0 201:1.0 390:1.0 6:1.0 621:1.0 79:1.0 205:1.0 10:1.0 13:1.0 20:1.0 
-500.0 100:1.0 3:1.0 201:1.0 18672:1.0 6:1.0 203:1.0 79:1.0 205:1.0 10:1.0 13:1.0 20:1.0 
-500.0 100:1.0 3:1.0 201:1.0 10895:1.0 6:1.0 524:1.0 79:1.0 205:1.0 10:1.0 13:1.0 20:1.0 
-500.0 97:1.0 3:1.0 201:1.0 9775:1.0 6:1.0 203:1.0 79:1.0 205:1.0 10:1.0 13:1.0 20:1.0 
-0.18384667886540812 224:1.0 57:1.0 201:1.0 225:1.0 59:1.0 965:1.0 278:1.0 205:1.0 10:1.0 211:1.0 14:1.0 
-500.0 100:1.0 3:1.0 201:1.0 7470:1.0 6:1.0 519:1.0 79:1.0 205:1.0 10:1.0 13:1.0 20:1.0 
-0.2638948012713058 735:1.0 57:1.0 201:1.0 11756:1.0 59:1.0 524:1.0 260:1.0 205:1.0 10:1.0 
-0.20279884274809992 2:1.0 57:1.0 201:1.0 5:1.0 59:1.0 524:1.0 260:1.0 205:1.0 10:1.0 
-0.1006510467245267 100:1.0 57:1.0 201:1.0 1249:1.0 59:1.0 10890:1.0 623:1.0 205:1.0 10:1.0 13:1.0 20:1.0 55:1.0 
-500.0 100:1.0 3:1.0 201:1.0 7470:1.0 6:1.0 519:1.0 79:1.0 205:1.0 10:1.0 13:1.0 20:1.0 
-0.5102262519667062 122:1.0 3:1.0 201:1.0 5596:1.0 6:1.0 203:1.0 79:1.0 205:1.0 10:1.0 211:1.0 13:1.0 136:1.0 20:1.0 
-0.6034390935313484 68:1.0 3:1.0 201:1.0 167:1.0 6:1.0 203:1.0 79:1.0 205:1.0 10:1.0 211:1.0 13:1.0 246:1.0 20:1.0 
-500.0 302:1.0 3:1.0 201:1.0 7313:1.0 6:1.0 203:1.0 79:1.0 205:1.0 10:1.0 20:1.0 
-0.3646059248889153 2:1.0 75:1.0 201:1.0 5:1.0 77:1.0 1085:1.0 79:1.0 205:1.0 10:1.0 13:1.0 83:1.0 
-500.0 100:1.0 3:1.0 201:1.0 2865:1.0 6:1.0 1217:1.0 79:1.0 205:1.0 10:1.0 13:1.0 20:1.0 
-0.3949895503691563 100:1.0 380:1.0 201:1.0 2466:1.0 381:1.0 611:1.0 79:1.0 205:1.0 10:1.0 455:1.0 13:1.0 207:1.0 265:1.0 364:1.0 
-500.0 100:1.0 380:1.0 201:1.0 6845:1.0 381:1.0 1217:1.0 79:1.0 205:1.0 10:1.0 13:1.0 364:1.0 
-500.0 100:1.0 380:1.0 266:1.0 7667:1.0 381:1.0 4633:1.0 79:1.0 205:1.0 10:1.0 13:1.0 364:1.0 
-500.0 100:1.0 3:1.0 201:1.0 9280:1.0 6:1.0 203:1.0 79:1.0 205:1.0 10:1.0 13:1.0 20:1.0 
-500.0 41:1.0 3:1.0 201:1.0 390:1.0 6:1.0 621:1.0 79:1.0 205:1.0 10:1.0 13:1.0 20:1.0 
-0.16590268004109557 302:1.0 57:1.0 201:1.0 5811:1.0 59:1.0 524:1.0 260:1.0 205:1.0 10:1.0 
-0.5770899985015937 97:1.0 66:1.0 201:1.0 350:1.0 67:1.0 1179:1.0 623:1.0 205:1.0 10:1.0 
-500.0 97:1.0 3:1.0 201:1.0 7476:1.0 6:1.0 1304:1.0 79:1.0 205:1.0 10:1.0 13:1.0 20:1.0 
-500.0 100:1.0 3:1.0 201:1.0 12643:1.0 6:1.0 519:1.0 79:1.0 205:1.0 10:1.0 13:1.0 20:1.0 
-0.14233233527896463 100:1.0 75:1.0 201:1.0 10732:1.0 77:1.0 203:1.0 79:1.0 205:1.0 10:1.0 13:1.0 83:1.0 
-0.3886250927947819 122:1.0 380:1.0 201:1.0 936:1.0 381:1.0 519:1.0 79:1.0 205:1.0 10:1.0 13:1.0 455:1.0 20:1.0 37:1.0 364:1.0 
-0.5351669790928918 100:1.0 3:1.0 201:1.0 6228:1.0 6:1.0 203:1.0 79:1.0 205:1.0 10:1.0 81:1.0 13:1.0 246:1.0 20:1.0 
-500.0 100:1.0 380:1.0 266:1.0 21842:1.0 381:1.0 4633:1.0 79:1.0 205:1.0 10:1.0 13:1.0 364:1.0 
-0.38752606477813895 348:1.0 57:1.0 201:1.0 21859:1.0 59:1.0 1085:1.0 623:1.0 205:1.0 10:1.0 13:1.0 55:1.0 
-0.28351222238239165 97:1.0 75:1.0 201:1.0 6634:1.0 77:1.0 519:1.0 79:1.0 205:1.0 10:1.0 13:1.0 83:1.0 
-0.2687164080778408 100:1.0 66:1.0 201:1.0 13711:1.0 67:1.0 203:1.0 22226:1.0 205:1.0 10:1.0 13:1.0 61:1.0 
-500.0 41:1.0 380:1.0 266:1.0 511:1.0 381:1.0 4633:1.0 79:1.0 205:1.0 10:1.0 13:1.0 364:1.0 
-0.36427509389421536 268:1.0 66:1.0 201:1.0 3403:1.0 67:1.0 2331:1.0 3632:1.0 205:1.0 10:1.0 
-0.3102727493919313 100:1.0 75:1.0 275:1.0 22954:1.0 77:1.0 277:1.0 79:1.0 205:1.0 10:1.0 13:1.0 83:1.0 
-0.31482901917193 348:1.0 57:1.0 201:1.0 7421:1.0 59:1.0 1217:1.0 204:1.0 205:1.0 10:1.0 
-0.110659548987749 68:1.0 57:1.0 201:1.0 22921:1.0 59:1.0 524:1.0 260:1.0 205:1.0 10:1.0 
-0.1501663215050794 172:1.0 57:1.0 201:1.0 23174:1.0 59:1.0 1085:1.0 623:1.0 205:1.0 10:1.0 
-0.4247881890181758 348:1.0 57:1.0 201:1.0 6286:1.0 59:1.0 1217:1.0 204:1.0 205:1.0 10:1.0 13:1.0 55:1.0 
-0.43165188051680403 735:1.0 57:1.0 275:1.0 23580:1.0 59:1.0 277:1.0 966:1.0 205:1.0 10:1.0 13:1.0 55:1.0 
-0.26254020549900264 97:1.0 75:1.0 201:1.0 23803:1.0 77:1.0 2331:1.0 79:1.0 205:1.0 10:1.0 13:1.0 83:1.0 
-0.12404267340563084 100:1.0 57:1.0 201:1.0 23970:1.0 59:1.0 1085:1.0 623:1.0 205:1.0 10:1.0 13:1.0 55:1.0 
-500.0 100:1.0 380:1.0 201:1.0 2466:1.0 381:1.0 611:1.0 79:1.0 205:1.0 10:1.0 13:1.0 364:1.0 
-0.19954932352603386 100:1.0 380:1.0 201:1.0 1160:1.0 381:1.0 1085:1.0 2910:1.0 205:1.0 10:1.0 455:1.0 245:1.0 207:1.0 246:1.0 
-0.3535505574346787 97:1.0 380:1.0 266:1.0 18546:1.0 381:1.0 4633:1.0 79:1.0 205:1.0 10:1.0 
-0.5709738082404576 97:1.0 380:1.0 201:1.0 24336:1.0 381:1.0 1085:1.0 79:1.0 205:1.0 10:1.0 455:1.0 13:1.0 179:1.0 364:1.0 
-0.27173913149110307 122:1.0 57:1.0 201:1.0 1261:1.0 59:1.0 1085:1.0 623:1.0 205:1.0 10:1.0 
-500.0 41:1.0 380:1.0 201:1.0 511:1.0 381:1.0 2331:1.0 79:1.0 205:1.0 10:1.0 13:1.0 364:1.0 
-500.0 97:1.0 380:1.0 266:1.0 7558:1.0 381:1.0 4633:1.0 79:1.0 205:1.0 10:1.0 13:1.0 364:1.0 
-0.15719886051765308 97:1.0 75:1.0 201:1.0 2354:1.0 544:1.0 203:1.0 79:1.0 205:1.0 10:1.0 13:1.0 83:1.0 
-0.45534293625397315 100:1.0 104:1.0 275:1.0 13471:1.0 4765:1.0 277:1.0 2897:1.0 205:1.0 10:1.0 
-500.0 100:1.0 3:1.0 201:1.0 6849:1.0 6:1.0 203:1.0 79:1.0 205:1.0 10:1.0 13:1.0 20:1.0 
-0.11378283663246488 97:1.0 75:1.0 201:1.0 7476:1.0 77:1.0 1304:1.0 79:1.0 205:1.0 10:1.0 36:1.0 13:1.0 305:1.0 83:1.0 
-0.1226886453429659 100:1.0 75:1.0 201:1.0 13386:1.0 77:1.0 1304:1.0 79:1.0 205:1.0 10:1.0 13:1.0 83:1.0 
-0.5522352720106066 97:1.0 3:1.0 201:1.0 4762:1.0 6:1.0 10055:1.0 79:1.0 205:1.0 10:1.0 
-0.5208333747254507 122:1.0 3:1.0 201:1.0 354:1.0 6:1.0 203:1.0 79:1.0 205:1.0 10:1.0 211:1.0 13:1.0 136:1.0 20:1.0 
-1.0809646501821282 68:1.0 3:1.0 201:1.0 26313:1.0 6:1.0 203:1.0 79:1.0 205:1.0 10:1.0 211:1.0 246:1.0 20:1.0 
-500.0 122:1.0 3:1.0 201:1.0 714:1.0 6:1.0 611:1.0 623:1.0 205:1.0 10:1.0 211:1.0 13:1.0 206:1.0 82:1.0 20:1.0 207:1.0 
-0.2792170480286609 122:1.0 3:1.0 201:1.0 714:1.0 6:1.0 611:1.0 195:1.0 205:1.0 10:1.0 211:1.0 
-500.0 100:1.0 380:1.0 201:1.0 26790:1.0 381:1.0 524:1.0 79:1.0 205:1.0 10:1.0 13:1.0 364:1.0 
-0.2294704322526106 100:1.0 57:1.0 201:1.0 26050:1.0 59:1.0 1179:1.0 623:1.0 205:1.0 10:1.0 13:1.0 55:1.0 
-0.1495445171876587 97:1.0 57:1.0 275:1.0 12199:1.0 59:1.0 277:1.0 128:1.0 205:1.0 10:1.0 
-0.1997442818450748 68:1.0 57:1.0 201:1.0 27523:1.0 59:1.0 524:1.0 260:1.0 205:1.0 10:1.0 13:1.0 55:1.0 
-0.24090211724980073 68:1.0 57:1.0 266:1.0 27523:1.0 59:1.0 4633:1.0 260:1.0 205:1.0 10:1.0 
-0.0935328070019052 100:1.0 57:1.0 201:1.0 3976:1.0 59:1.0 524:1.0 260:1.0 205:1.0 10:1.0 
-500.0 97:1.0 380:1.0 201:1.0 675:1.0 381:1.0 24466:1.0 79:1.0 205:1.0 10:1.0 13:1.0 364:1.0 
-500.0 68:1.0 380:1.0 266:1.0 269:1.0 381:1.0 5005:1.0 79:1.0 205:1.0 10:1.0 13:1.0 364:1.0 
-500.0 100:1.0 380:1.0 201:1.0 9196:1.0 381:1.0 9153:1.0 79:1.0 205:1.0 10:1.0 13:1.0 364:1.0 
-500.0 97:1.0 3:1.0 201:1.0 4475:1.0 6:1.0 203:1.0 79:1.0 205:1.0 10:1.0 13:1.0 20:1.0 
-0.2461315671423161 100:1.0 57:1.0 201:1.0 5286:1.0 59:1.0 524:1.0 260:1.0 205:1.0 10:1.0 13:1.0 55:1.0 
-500.0 100:1.0 3:1.0 201:1.0 7470:1.0 6:1.0 519:1.0 79:1.0 205:1.0 10:1.0 13:1.0 20:1.0 
-0.5208333747254509 68:1.0 380:1.0 201:1.0 8278:1.0 381:1.0 1085:1.0 79:1.0 205:1.0 10:1.0 455:1.0 13:1.0 179:1.0 364:1.0 
-0.20591287419725376 97:1.0 57:1.0 275:1.0 1478:1.0 59:1.0 277:1.0 623:1.0 205:1.0 10:1.0 
-0.21897212621350523 172:1.0 57:1.0 201:1.0 5322:1.0 59:1.0 1085:1.0 623:1.0 205:1.0 10:1.0 
-0.11660871321234664 68:1.0 75:1.0 266:1.0 8487:1.0 544:1.0 4633:1.0 79:1.0 205:1.0 10:1.0 455:1.0 13:1.0 246:1.0 83:1.0 
-0.13234517570239662 100:1.0 57:1.0 201:1.0 7345:1.0 59:1.0 524:1.0 623:1.0 205:1.0 10:1.0 
-0.274292441912112 122:1.0 57:1.0 201:1.0 4776:1.0 59:1.0 7724:1.0 623:1.0 205:1.0 10:1.0 13:1.0 211:1.0 55:1.0 14:1.0 
-0.2304467096460749 100:1.0 66:1.0 201:1.0 7650:1.0 67:1.0 7724:1.0 623:1.0 205:1.0 10:1.0 13:1.0 211:1.0 61:1.0 246:1.0 
-0.48323529043464564 68:1.0 3:1.0 201:1.0 9251:1.0 6:1.0 7724:1.0 79:1.0 205:1.0 10:1.0 455:1.0 13:1.0 207:1.0 246:1.0 20:1.0 
-0.34334474838598555 172:1.0 57:1.0 201:1.0 8467:1.0 59:1.0 1085:1.0 623:1.0 205:1.0 10:1.0 13:1.0 55:1.0 
-0.18431685089453784 68:1.0 75:1.0 201:1.0 28844:1.0 544:1.0 524:1.0 260:1.0 205:1.0 10:1.0 13:1.0 83:1.0 
-500.0 224:1.0 3:1.0 266:1.0 225:1.0 6:1.0 9112:1.0 79:1.0 205:1.0 10:1.0 13:1.0 20:1.0 
-500.0 100:1.0 3:1.0 201:1.0 6849:1.0 6:1.0 203:1.0 79:1.0 205:1.0 10:1.0 13:1.0 20:1.0 
-500.0 97:1.0 3:1.0 201:1.0 17852:1.0 6:1.0 203:1.0 79:1.0 205:1.0 10:1.0 13:1.0 20:1.0 
-500.0 100:1.0 3:1.0 201:1.0 1190:1.0 6:1.0 203:1.0 79:1.0 205:1.0 10:1.0 13:1.0 20:1.0 
-0.34218294632284535 481:1.0 57:1.0 201:1.0 2991:1.0 59:1.0 524:1.0 260:1.0 205:1.0 10:1.0 
-0.11717337156660398 100:1.0 57:1.0 201:1.0 3480:1.0 59:1.0 1085:1.0 623:1.0 205:1.0 10:1.0 
-500.0 100:1.0 3:1.0 201:1.0 29324:1.0 6:1.0 833:1.0 79:1.0 205:1.0 10:1.0 13:1.0 20:1.0 
-500.0 97:1.0 3:1.0 201:1.0 4762:1.0 6:1.0 10055:1.0 79:1.0 205:1.0 10:1.0 13:1.0 20:1.0 
-0.40111538272891345 172:1.0 57:1.0 201:1.0 25515:1.0 59:1.0 203:1.0 204:1.0 205:1.0 10:1.0 13:1.0 55:1.0 
-0.5208333747254509 68:1.0 380:1.0 201:1.0 29683:1.0 381:1.0 965:1.0 79:1.0 205:1.0 10:1.0 211:1.0 13:1.0 164:1.0 364:1.0 
-0.128865005729123 224:1.0 380:1.0 201:1.0 225:1.0 381:1.0 965:1.0 79:1.0 205:1.0 10:1.0 211:1.0 13:1.0 136:1.0 164:1.0 364:1.0 
-0.3393731573726756 322:1.0 57:1.0 201:1.0 1915:1.0 59:1.0 524:1.0 260:1.0 205:1.0 10:1.0 
-0.3472222239468936 100:1.0 380:1.0 201:1.0 28671:1.0 6726:1.0 524:1.0 260:1.0 205:1.0 10:1.0 
-500.0 97:1.0 380:1.0 275:1.0 548:1.0 381:1.0 277:1.0 79:1.0 205:1.0 10:1.0 13:1.0 364:1.0 
-500.0 100:1.0 380:1.0 201:1.0 2494:1.0 381:1.0 16517:1.0 79:1.0 205:1.0 10:1.0 13:1.0 364:1.0 
-0.13785837140806734 100:1.0 75:1.0 201:1.0 830:1.0 77:1.0 524:1.0 79:1.0 205:1.0 10:1.0 13:1.0 83:1.0 
-0.4564951179581431 100:1.0 380:1.0 201:1.0 30468:1.0 381:1.0 1085:1.0 79:1.0 205:1.0 10:1.0 455:1.0 13:1.0 179:1.0 364:1.0 
-0.2650100798155779 2:1.0 75:1.0 201:1.0 517:1.0 77:1.0 22356:1.0 79:1.0 205:1.0 10:1.0 13:1.0 83:1.0 
-500.0 97:1.0 3:1.0 201:1.0 4762:1.0 6:1.0 10055:1.0 79:1.0 205:1.0 10:1.0 13:1.0 20:1.0 
-0.6549280252236983 100:1.0 66:1.0 275:1.0 12040:1.0 67:1.0 277:1.0 2897:1.0 205:1.0 10:1.0 13:1.0 61:1.0 
-0.15042063443106757 172:1.0 57:1.0 201:1.0 772:1.0 59:1.0 1085:1.0 623:1.0 205:1.0 10:1.0 
-500.0 97:1.0 3:1.0 201:1.0 789:1.0 6:1.0 9153:1.0 79:1.0 205:1.0 10:1.0 13:1.0 20:1.0 
-0.20189503674379958 97:1.0 57:1.0 275:1.0 31404:1.0 59:1.0 277:1.0 966:1.0 205:1.0 10:1.0 
-0.24365651416089612 100:1.0 3:1.0 201:1.0 11379:1.0 6:1.0 3542:1.0 1951:1.0 205:1.0 10:1.0 211:1.0 455:1.0 246:1.0 37:1.0 
-0.48076928367276706 97:1.0 380:1.0 275:1.0 2618:1.0 381:1.0 277:1.0 79:1.0 205:1.0 10:1.0 13:1.0 455:1.0 20:1.0 37:1.0 364:1.0 
-0.18382352989515013 100:1.0 380:1.0 201:1.0 1018:1.0 381:1.0 203:1.0 79:1.0 205:1.0 10:1.0 13:1.0 206:1.0 20:1.0 37:1.0 
-0.42596279865301623 97:1.0 66:1.0 201:1.0 2408:1.0 67:1.0 14037:1.0 623:1.0 205:1.0 10:1.0 211:1.0 246:1.0 
-0.39296158076315224 302:1.0 380:1.0 201:1.0 4232:1.0 6726:1.0 519:1.0 564:1.0 205:1.0 10:1.0 
-500.0 97:1.0 3:1.0 201:1.0 4762:1.0 6:1.0 10055:1.0 79:1.0 205:1.0 10:1.0 13:1.0 20:1.0 
-0.32216413154612467 122:1.0 57:1.0 201:1.0 1718:1.0 59:1.0 519:1.0 623:1.0 205:1.0 10:1.0 
-0.16904567806612167 100:1.0 75:1.0 201:1.0 1190:1.0 77:1.0 8132:1.0 79:1.0 205:1.0 10:1.0 13:1.0 83:1.0 
-0.17040555228762927 302:1.0 57:1.0 201:1.0 5503:1.0 59:1.0 2331:1.0 4571:1.0 205:1.0 10:1.0 
-500.0 302:1.0 380:1.0 201:1.0 15150:1.0 381:1.0 1217:1.0 79:1.0 205:1.0 10:1.0 13:1.0 364:1.0 
-0.15658870818347753 97:1.0 75:1.0 201:1.0 14831:1.0 544:1.0 1179:1.0 79:1.0 205:1.0 10:1.0 13:1.0 83:1.0 
-500.0 100:1.0 3:1.0 201:1.0 1160:1.0 6:1.0 2331:1.0 79:1.0 205:1.0 10:1.0 13:1.0 20:1.0 
-500.0 100:1.0 3:1.0 201:1.0 720:1.0 6:1.0 203:1.0 79:1.0 205:1.0 10:1.0 13:1.0 
-0.05752119037073798 100:1.0 75:1.0 201:1.0 825:1.0 77:1.0 203:1.0 79:1.0 205:1.0 10:1.0 11:1.0 13:1.0 245:1.0 14:1.0 20:1.0 37:1.0 83:1.0 
-0.1186587625055069 100:1.0 75:1.0 275:1.0 456:1.0 77:1.0 277:1.0 79:1.0 205:1.0 10:1.0 455:1.0 13:1.0 4573:1.0 20:1.0 83:1.0 
-0.25653744329087713 100:1.0 3:1.0 275:1.0 456:1.0 6:1.0 277:1.0 79:1.0 205:1.0 10:1.0 13:1.0 455:1.0 96:1.0 4573:1.0 83:1.0 
-0.2060206076816264 97:1.0 75:1.0 201:1.0 2264:1.0 77:1.0 14037:1.0 79:1.0 205:1.0 10:1.0 13:1.0 83:1.0 
-0.23846584667139234 97:1.0 57:1.0 275:1.0 3102:1.0 59:1.0 277:1.0 623:1.0 205:1.0 10:1.0 13:1.0 55:1.0 
-500.0 616:1.0 3:1.0 201:1.0 2159:1.0 6:1.0 611:1.0 79:1.0 205:1.0 10:1.0 13:1.0 20:1.0 
-0.2606649720941276 100:1.0 57:1.0 201:1.0 5381:1.0 59:1.0 965:1.0 260:1.0 205:1.0 10:1.0 13:1.0 55:1.0 
-0.1207294233437826 68:1.0 57:1.0 201:1.0 14751:1.0 59:1.0 2331:1.0 3632:1.0 205:1.0 10:1.0 
-0.19590291682702946 68:1.0 57:1.0 201:1.0 23865:1.0 59:1.0 519:1.0 623:1.0 205:1.0 10:1.0 13:1.0 55:1.0 
-0.12673124145811665 68:1.0 57:1.0 201:1.0 23865:1.0 59:1.0 1217:1.0 260:1.0 205:1.0 10:1.0 
-500.0 41:1.0 3:1.0 201:1.0 1999:1.0 6:1.0 1304:1.0 79:1.0 205:1.0 10:1.0 13:1.0 20:1.0 
-0.10758496832610641 100:1.0 75:1.0 201:1.0 21744:1.0 77:1.0 524:1.0 79:1.0 205:1.0 10:1.0 13:1.0 83:1.0 
-0.23423685034652303 68:1.0 57:1.0 201:1.0 34077:1.0 59:1.0 524:1.0 2897:1.0 205:1.0 10:1.0 13:1.0 55:1.0 
-0.0839817013122982 465:1.0 3:1.0 201:1.0 406:1.0 6:1.0 1022:1.0 260:1.0 205:1.0 10:1.0 13:1.0 61:1.0 
-0.24031869500945316 465:1.0 57:1.0 201:1.0 406:1.0 59:1.0 1022:1.0 260:1.0 205:1.0 10:1.0 13:1.0 20:1.0 
-0.1141827123027706 97:1.0 57:1.0 201:1.0 34512:1.0 59:1.0 1179:1.0 623:1.0 205:1.0 10:1.0 
-500.0 122:1.0 3:1.0 275:1.0 3708:1.0 6:1.0 277:1.0 2897:1.0 205:1.0 10:1.0 13:1.0 211:1.0 20:1.0 14:1.0 
-0.10140556318110543 100:1.0 3:1.0 275:1.0 32014:1.0 6:1.0 277:1.0 2897:1.0 205:1.0 10:1.0 211:1.0 13:1.0 246:1.0 20:1.0 
-0.15486801034111872 100:1.0 3:1.0 275:1.0 32014:1.0 6:1.0 277:1.0 2897:1.0 205:1.0 10:1.0 13:1.0 211:1.0 20:1.0 246:1.0 
-0.331125828860219 122:1.0 75:1.0 201:1.0 5596:1.0 77:1.0 2331:1.0 79:1.0 205:1.0 10:1.0 211:1.0 13:1.0 82:1.0 83:1.0 
-0.20071483654777267 97:1.0 75:1.0 201:1.0 1478:1.0 77:1.0 2331:1.0 79:1.0 205:1.0 10:1.0 211:1.0 13:1.0 246:1.0 83:1.0 
-1.2907707160505986 100:1.0 3:1.0 201:1.0 1160:1.0 6:1.0 2331:1.0 79:1.0 205:1.0 10:1.0 13:1.0 61:1.0 20:1.0 
-0.23344799367394037 100:1.0 57:1.0 201:1.0 1160:1.0 59:1.0 2331:1.0 79:1.0 205:1.0 10:1.0 13:1.0 20:1.0 
-0.11351963437028123 97:1.0 57:1.0 201:1.0 262:1.0 59:1.0 519:1.0 260:1.0 205:1.0 10:1.0 13:1.0 55:1.0 
-0.22321428642703722 68:1.0 3:1.0 70:1.0 12560:1.0 6:1.0 524:1.0 477:1.0 205:1.0 10:1.0 2602:1.0 14:1.0 
-0.12130153969144167 97:1.0 57:1.0 201:1.0 23016:1.0 59:1.0 1085:1.0 623:1.0 205:1.0 10:1.0 
-0.14030414941973163 97:1.0 57:1.0 201:1.0 9710:1.0 59:1.0 2331:1.0 3632:1.0 205:1.0 10:1.0 
-0.12051608732278617 100:1.0 75:1.0 201:1.0 22185:1.0 77:1.0 1022:1.0 79:1.0 205:1.0 10:1.0 13:1.0 83:1.0 
-500.0 481:1.0 380:1.0 201:1.0 562:1.0 381:1.0 1304:1.0 79:1.0 205:1.0 10:1.0 13:1.0 364:1.0 
-0.16244721559707034 224:1.0 75:1.0 275:1.0 225:1.0 544:1.0 277:1.0 623:1.0 205:1.0 10:1.0 211:1.0 13:1.0 82:1.0 83:1.0 
-0.16156731117497486 100:1.0 57:1.0 275:1.0 36172:1.0 7941:1.0 277:1.0 623:1.0 205:1.0 10:1.0 
-500.0 100:1.0 3:1.0 201:1.0 4562:1.0 6:1.0 203:1.0 79:1.0 205:1.0 10:1.0 13:1.0 20:1.0 
-500.0 100:1.0 3:1.0 201:1.0 2004:1.0 6:1.0 611:1.0 79:1.0 205:1.0 10:1.0 13:1.0 20:1.0 
-0.2840909098605971 268:1.0 75:1.0 201:1.0 3706:1.0 77:1.0 611:1.0 79:1.0 205:1.0 10:1.0 455:1.0 13:1.0 246:1.0 83:1.0 
-0.18351123404462305 97:1.0 57:1.0 201:1.0 4764:1.0 59:1.0 36434:1.0 623:1.0 205:1.0 10:1.0 13:1.0 55:1.0 
-1.144296137199902 672:1.0 380:1.0 201:1.0 673:1.0 381:1.0 611:1.0 79:1.0 205:1.0 10:1.0 13:1.0 37:1.0 364:1.0 
-0.205029011610515 302:1.0 57:1.0 201:1.0 36580:1.0 59:1.0 203:1.0 260:1.0 205:1.0 10:1.0 
-0.12936409325711565 97:1.0 57:1.0 201:1.0 11221:1.0 59:1.0 1085:1.0 623:1.0 205:1.0 10:1.0 
-500.0 100:1.0 3:1.0 201:1.0 1190:1.0 6:1.0 203:1.0 79:1.0 205:1.0 10:1.0 13:1.0 20:1.0 
-500.0 100:1.0 3:1.0 201:1.0 1681:1.0 6:1.0 203:1.0 79:1.0 205:1.0 10:1.0 13:1.0 20:1.0 
-500.0 97:1.0 3:1.0 275:1.0 2716:1.0 6:1.0 277:1.0 79:1.0 205:1.0 10:1.0 13:1.0 20:1.0 
-0.20115654625433987 97:1.0 57:1.0 201:1.0 29497:1.0 59:1.0 1085:1.0 623:1.0 205:1.0 10:1.0 13:1.0 55:1.0 
-0.36910200547063854 100:1.0 3:1.0 201:1.0 10895:1.0 6:1.0 524:1.0 564:1.0 205:1.0 10:1.0 455:1.0 4573:1.0 
-0.15568342388536616 100:1.0 57:1.0 201:1.0 27587:1.0 59:1.0 2331:1.0 623:1.0 205:1.0 10:1.0 13:1.0 55:1.0 
-0.30780930452780525 100:1.0 57:1.0 201:1.0 1823:1.0 59:1.0 203:1.0 623:1.0 205:1.0 10:1.0 13:1.0 55:1.0 
-0.5208333747254509 122:1.0 3:1.0 201:1.0 973:1.0 6:1.0 1085:1.0 79:1.0 205:1.0 10:1.0 211:1.0 13:1.0 179:1.0 20:1.0 
-0.5208333747254509 172:1.0 3:1.0 201:1.0 9547:1.0 6:1.0 1085:1.0 79:1.0 205:1.0 10:1.0 211:1.0 13:1.0 246:1.0 20:1.0 
-0.288986129124472 97:1.0 75:1.0 201:1.0 2999:1.0 77:1.0 203:1.0 79:1.0 205:1.0 10:1.0 13:1.0 83:1.0 
-0.608297477710946 100:1.0 3:1.0 201:1.0 3325:1.0 6:1.0 2084:1.0 79:1.0 205:1.0 10:1.0 455:1.0 13:1.0 246:1.0 20:1.0 
-500.0 100:1.0 3:1.0 201:1.0 11355:1.0 6:1.0 10818:1.0 111:1.0 205:1.0 10:1.0 211:1.0 13:1.0 40:1.0 20:1.0 
-0.26516687975956843 68:1.0 57:1.0 201:1.0 37620:1.0 59:1.0 524:1.0 260:1.0 205:1.0 10:1.0 13:1.0 55:1.0 
-0.09990748103358488 100:1.0 57:1.0 201:1.0 37641:1.0 59:1.0 833:1.0 8:1.0 205:1.0 10:1.0 13:1.0 206:1.0 20:1.0 157:1.0 16:1.0 55:1.0 
-500.0 97:1.0 3:1.0 201:1.0 4762:1.0 6:1.0 10055:1.0 79:1.0 205:1.0 10:1.0 13:1.0 20:1.0 
-0.5246990641416737 68:1.0 66:1.0 201:1.0 37730:1.0 67:1.0 1179:1.0 623:1.0 205:1.0 10:1.0 
-0.13317112497948796 100:1.0 75:1.0 201:1.0 26274:1.0 77:1.0 1304:1.0 79:1.0 205:1.0 10:1.0 13:1.0 83:1.0 
-500.0 224:1.0 3:1.0 266:1.0 225:1.0 6:1.0 9112:1.0 79:1.0 205:1.0 10:1.0 13:1.0 20:1.0 
-0.16736013469858993 100:1.0 57:1.0 201:1.0 3570:1.0 59:1.0 4250:1.0 204:1.0 205:1.0 10:1.0 211:1.0 246:1.0 
-0.17487086574639585 68:1.0 57:1.0 201:1.0 38041:1.0 59:1.0 1591:1.0 966:1.0 205:1.0 10:1.0 
-0.30681899241482524 68:1.0 57:1.0 201:1.0 38052:1.0 59:1.0 203:1.0 623:1.0 205:1.0 10:1.0 13:1.0 55:1.0 
-0.40004338333374057 97:1.0 380:1.0 201:1.0 28820:1.0 6726:1.0 524:1.0 260:1.0 205:1.0 10:1.0 
-0.19846385959283452 122:1.0 3:1.0 201:1.0 7737:1.0 6:1.0 1900:1.0 204:1.0 205:1.0 10:1.0 211:1.0 136:1.0 
-0.25783166074510555 2:1.0 3:1.0 201:1.0 573:1.0 6:1.0 1900:1.0 204:1.0 205:1.0 10:1.0 211:1.0 136:1.0 246:1.0 
-0.2645769662450819 172:1.0 57:1.0 201:1.0 38608:1.0 59:1.0 1085:1.0 623:1.0 205:1.0 10:1.0 
-0.3472222239468936 100:1.0 380:1.0 201:1.0 38698:1.0 150:1.0 1085:1.0 79:1.0 205:1.0 10:1.0 
-0.197227328645651 904:1.0 3:1.0 201:1.0 3321:1.0 6:1.0 965:1.0 2897:1.0 205:1.0 10:1.0 211:1.0 671:1.0 
-0.1722024843985713 68:1.0 57:1.0 201:1.0 38993:1.0 59:1.0 203:1.0 204:1.0 205:1.0 10:1.0 
-0.21694584793266358 68:1.0 57:1.0 275:1.0 39051:1.0 7941:1.0 277:1.0 623:1.0 205:1.0 10:1.0 
-0.19765697091162657 302:1.0 57:1.0 201:1.0 4503:1.0 59:1.0 1022:1.0 564:1.0 205:1.0 10:1.0 
-500.0 41:1.0 3:1.0 201:1.0 390:1.0 6:1.0 621:1.0 79:1.0 205:1.0 10:1.0 13:1.0 20:1.0 
-500.0 100:1.0 3:1.0 201:1.0 39593:1.0 6:1.0 1085:1.0 79:1.0 205:1.0 10:1.0 13:1.0 20:1.0 
-0.5208333747254509 97:1.0 3:1.0 201:1.0 4456:1.0 6:1.0 10055:1.0 79:1.0 205:1.0 10:1.0 455:1.0 13:1.0 37:1.0 20:1.0 
-0.09073716229817569 68:1.0 75:1.0 201:1.0 19942:1.0 77:1.0 5434:1.0 79:1.0 205:1.0 10:1.0 455:1.0 13:1.0 48:1.0 83:1.0 
-0.10219520484280556 68:1.0 75:1.0 201:1.0 39709:1.0 77:1.0 5434:1.0 79:1.0 205:1.0 10:1.0 455:1.0 13:1.0 48:1.0 83:1.0 
-0.1436675117695687 68:1.0 75:1.0 201:1.0 39713:1.0 77:1.0 5434:1.0 79:1.0 205:1.0 10:1.0 455:1.0 48:1.0 83:1.0 
-0.06873134450045293 100:1.0 75:1.0 201:1.0 1018:1.0 77:1.0 203:1.0 8:1.0 205:1.0 10:1.0 13:1.0 245:1.0 206:1.0 20:1.0 37:1.0 157:1.0 16:1.0 83:1.0 
-0.16382763823821722 68:1.0 57:1.0 201:1.0 21660:1.0 59:1.0 1085:1.0 623:1.0 205:1.0 10:1.0 
-0.23306886503730373 68:1.0 57:1.0 201:1.0 5894:1.0 59:1.0 524:1.0 260:1.0 205:1.0 10:1.0 
-0.2811076882575077 97:1.0 75:1.0 266:1.0 2808:1.0 77:1.0 5005:1.0 79:1.0 205:1.0 10:1.0 13:1.0 83:1.0 
-0.28999820944632165 97:1.0 57:1.0 201:1.0 2808:1.0 59:1.0 524:1.0 260:1.0 205:1.0 10:1.0 13:1.0 55:1.0 
-0.3086419971118972 68:1.0 380:1.0 201:1.0 2187:1.0 381:1.0 965:1.0 477:1.0 205:1.0 10:1.0 614:1.0 206:1.0 13:1.0 48:1.0 207:1.0 364:1.0 
-0.2938371997052483 97:1.0 75:1.0 201:1.0 17791:1.0 544:1.0 7724:1.0 79:1.0 205:1.0 10:1.0 13:1.0 83:1.0 
-0.23058370428123842 100:1.0 57:1.0 201:1.0 3532:1.0 59:1.0 833:1.0 564:1.0 205:1.0 10:1.0 13:1.0 55:1.0 
-0.5259878819547644 100:1.0 380:1.0 201:1.0 40848:1.0 381:1.0 203:1.0 79:1.0 205:1.0 10:1.0 455:1.0 13:1.0 246:1.0 364:1.0 
-0.5208333747254508 302:1.0 380:1.0 201:1.0 789:1.0 381:1.0 524:1.0 79:1.0 205:1.0 10:1.0 455:1.0 13:1.0 246:1.0 364:1.0 
-0.4990551957313727 26:1.0 104:1.0 201:1.0 41532:1.0 4765:1.0 611:1.0 564:1.0 205:1.0 10:1.0 
-0.5463117142990479 97:1.0 66:1.0 201:1.0 3630:1.0 67:1.0 9082:1.0 564:1.0 205:1.0 10:1.0 
-0.2624760425999487 2:1.0 380:1.0 32005:1.0 301:1.0 150:1.0 7024:1.0 8:1.0 205:1.0 10:1.0 13:1.0 16:1.0 
-0.3205055299972671 2:1.0 380:1.0 32005:1.0 5:1.0 150:1.0 29166:1.0 8:1.0 205:1.0 10:1.0 13:1.0 16:1.0 
-0.43823702526261205 2:1.0 380:1.0 32005:1.0 301:1.0 150:1.0 41589:1.0 8:1.0 205:1.0 10:1.0 13:1.0 16:1.0 
-0.27394502455076664 302:1.0 57:1.0 201:1.0 30451:1.0 59:1.0 519:1.0 623:1.0 205:1.0 10:1.0 
-500.0 100:1.0 3:1.0 201:1.0 1160:1.0 6:1.0 2331:1.0 623:1.0 205:1.0 10:1.0 13:1.0 20:1.0 
-0.5208333747254509 2:1.0 3:1.0 201:1.0 199:1.0 6:1.0 1085:1.0 1951:1.0 205:1.0 10:1.0 211:1.0 455:1.0 37:1.0 246:1.0 
-0.32593172706730694 68:1.0 57:1.0 201:1.0 42166:1.0 59:1.0 524:1.0 260:1.0 205:1.0 10:1.0 13:1.0 55:1.0 
-0.14186268361473703 100:1.0 75:1.0 201:1.0 662:1.0 544:1.0 524:1.0 79:1.0 205:1.0 10:1.0 13:1.0 83:1.0 
-500.0 100:1.0 3:1.0 201:1.0 7470:1.0 6:1.0 519:1.0 79:1.0 205:1.0 10:1.0 13:1.0 20:1.0 
-0.42251490503461314 224:1.0 3:1.0 266:1.0 225:1.0 6:1.0 9112:1.0 8:1.0 205:1.0 10:1.0 245:1.0 13:1.0 37:1.0 16:1.0 
-500.0 122:1.0 3:1.0 201:1.0 6904:1.0 6:1.0 22356:1.0 260:1.0 205:1.0 10:1.0 13:1.0 211:1.0 20:1.0 37:1.0 
-0.11015461735532685 2:1.0 3:1.0 201:1.0 199:1.0 6:1.0 22356:1.0 260:1.0 205:1.0 10:1.0 13:1.0 211:1.0 20:1.0 246:1.0 
-500.0 100:1.0 380:1.0 124:1.0 1160:1.0 381:1.0 827:1.0 79:1.0 205:1.0 10:1.0 13:1.0 364:1.0 
-0.32360111687876025 100:1.0 57:1.0 275:1.0 42692:1.0 59:1.0 277:1.0 623:1.0 205:1.0 10:1.0 13:1.0 55:1.0 
-500.0 735:1.0 3:1.0 201:1.0 562:1.0 6:1.0 10055:1.0 204:1.0 205:1.0 10:1.0 13:1.0 211:1.0 20:1.0 82:1.0 
-0.11541529226948166 97:1.0 3:1.0 201:1.0 5342:1.0 6:1.0 10055:1.0 204:1.0 205:1.0 10:1.0 211:1.0 13:1.0 237:1.0 20:1.0 
-0.151011568183073 97:1.0 3:1.0 201:1.0 5342:1.0 6:1.0 10055:1.0 204:1.0 205:1.0 10:1.0 13:1.0 211:1.0 20:1.0 237:1.0 
-0.16478024025552176 100:1.0 57:1.0 201:1.0 2692:1.0 59:1.0 2331:1.0 3632:1.0 205:1.0 10:1.0 
-0.26954696300271974 97:1.0 57:1.0 201:1.0 3280:1.0 59:1.0 519:1.0 623:1.0 205:1.0 10:1.0 13:1.0 55:1.0 
-0.24033694174507453 122:1.0 57:1.0 201:1.0 7445:1.0 59:1.0 9082:1.0 5061:1.0 205:1.0 10:1.0 13:1.0 211:1.0 55:1.0 14:1.0 
-0.2568038478770626 100:1.0 66:1.0 201:1.0 411:1.0 67:1.0 9082:1.0 5061:1.0 205:1.0 10:1.0 13:1.0 211:1.0 246:1.0 
-0.1804189643097996 68:1.0 75:1.0 201:1.0 167:1.0 544:1.0 203:1.0 79:1.0 205:1.0 10:1.0 13:1.0 83:1.0 
-0.220498523219211 97:1.0 57:1.0 201:1.0 11364:1.0 59:1.0 203:1.0 2897:1.0 205:1.0 10:1.0 13:1.0 55:1.0 
-0.13125296015749635 100:1.0 57:1.0 201:1.0 4232:1.0 59:1.0 2331:1.0 3632:1.0 205:1.0 10:1.0 
-500.0 100:1.0 3:1.0 201:1.0 13570:1.0 6:1.0 203:1.0 79:1.0 205:1.0 10:1.0 13:1.0 20:1.0 
-0.3802939922759239 100:1.0 57:1.0 201:1.0 6495:1.0 59:1.0 1085:1.0 623:1.0 205:1.0 10:1.0 
-0.23138739340099465 100:1.0 380:1.0 201:1.0 2846:1.0 381:1.0 519:1.0 79:1.0 205:1.0 10:1.0 455:1.0 246:1.0 
-0.282068097298884 100:1.0 57:1.0 201:1.0 9430:1.0 59:1.0 1217:1.0 623:1.0 205:1.0 10:1.0 13:1.0 55:1.0 
-0.1401695672291084 97:1.0 57:1.0 201:1.0 5351:1.0 59:1.0 1217:1.0 486:1.0 205:1.0 10:1.0 13:1.0 206:1.0 55:1.0 207:1.0 
-0.35133262608573723 68:1.0 3:1.0 201:1.0 5658:1.0 6:1.0 524:1.0 32:1.0 205:1.0 10:1.0 35:1.0 136:1.0 
-0.38954072405423074 68:1.0 75:1.0 201:1.0 272:1.0 77:1.0 1217:1.0 79:1.0 205:1.0 10:1.0 13:1.0 83:1.0 
-0.29626414494178444 100:1.0 75:1.0 201:1.0 378:1.0 77:1.0 203:1.0 79:1.0 205:1.0 10:1.0 13:1.0 83:1.0 
-0.5208333747254509 122:1.0 380:1.0 201:1.0 785:1.0 381:1.0 1022:1.0 79:1.0 205:1.0 10:1.0 211:1.0 13:1.0 82:1.0 364:1.0 
-0.49849921011951726 97:1.0 380:1.0 201:1.0 10317:1.0 381:1.0 1022:1.0 79:1.0 205:1.0 10:1.0 211:1.0 13:1.0 246:1.0 364:1.0 
-0.33917083802755005 100:1.0 3:1.0 201:1.0 5514:1.0 6:1.0 611:1.0 79:1.0 205:1.0 10:1.0 455:1.0 207:1.0 
-0.41185033333057713 97:1.0 380:1.0 201:1.0 16589:1.0 381:1.0 519:1.0 79:1.0 205:1.0 10:1.0 
-0.21051256850428868 465:1.0 3:1.0 201:1.0 2991:1.0 6:1.0 1085:1.0 260:1.0 205:1.0 10:1.0 455:1.0 179:1.0 
-0.2397932966901533 97:1.0 3:1.0 201:1.0 680:1.0 6:1.0 1085:1.0 79:1.0 205:1.0 10:1.0 455:1.0 81:1.0 207:1.0 1025:1.0 
-0.22987852388296312 68:1.0 57:1.0 201:1.0 14367:1.0 59:1.0 203:1.0 260:1.0 205:1.0 10:1.0 13:1.0 55:1.0 
-0.2055026197261347 68:1.0 57:1.0 201:1.0 44193:1.0 59:1.0 524:1.0 260:1.0 205:1.0 10:1.0 
-0.22017346253822503 97:1.0 57:1.0 201:1.0 44235:1.0 59:1.0 524:1.0 260:1.0 205:1.0 10:1.0 13:1.0 55:1.0 
-0.3042950083634092 100:1.0 75:1.0 124:1.0 238:1.0 77:1.0 827:1.0 79:1.0 205:1.0 10:1.0 13:1.0 83:1.0 
-500.0 172:1.0 3:1.0 201:1.0 2604:1.0 6:1.0 611:1.0 79:1.0 205:1.0 10:1.0 13:1.0 20:1.0 
-0.30356402932335413 100:1.0 57:1.0 275:1.0 7857:1.0 59:1.0 277:1.0 260:1.0 205:1.0 10:1.0 
-500.0 735:1.0 3:1.0 201:1.0 562:1.0 6:1.0 3542:1.0 1951:1.0 205:1.0 10:1.0 455:1.0 13:1.0 211:1.0 37:1.0 20:1.0 82:1.0 
-0.11312887024605232 97:1.0 3:1.0 201:1.0 3256:1.0 6:1.0 3542:1.0 1951:1.0 205:1.0 10:1.0 455:1.0 211:1.0 13:1.0 37:1.0 237:1.0 20:1.0 
-0.10698010559350439 97:1.0 3:1.0 201:1.0 3256:1.0 6:1.0 3542:1.0 1951:1.0 205:1.0 10:1.0 455:1.0 13:1.0 211:1.0 37:1.0 20:1.0 237:1.0 
-0.25036264660826313 172:1.0 57:1.0 201:1.0 3112:1.0 59:1.0 524:1.0 260:1.0 205:1.0 10:1.0 
-0.26387490191615165 172:1.0 57:1.0 201:1.0 24851:1.0 59:1.0 1085:1.0 623:1.0 205:1.0 10:1.0 
-0.17855789959109125 100:1.0 57:1.0 201:1.0 4602:1.0 59:1.0 1179:1.0 8:1.0 205:1.0 10:1.0 13:1.0 16:1.0 
-0.41910913862375493 100:1.0 380:1.0 201:1.0 5666:1.0 878:1.0 524:1.0 623:1.0 205:1.0 10:1.0 
-0.1408594449190565 100:1.0 75:1.0 201:1.0 44759:1.0 77:1.0 611:1.0 79:1.0 205:1.0 10:1.0 13:1.0 83:1.0 
-500.0 100:1.0 3:1.0 275:1.0 17525:1.0 6:1.0 277:1.0 79:1.0 205:1.0 10:1.0 13:1.0 20:1.0 
-0.20466144545488546 68:1.0 75:1.0 201:1.0 3227:1.0 544:1.0 203:1.0 204:1.0 205:1.0 10:1.0 13:1.0 83:1.0 
-0.28928825431268923 100:1.0 57:1.0 201:1.0 29493:1.0 59:1.0 519:1.0 623:1.0 205:1.0 10:1.0 13:1.0 55:1.0 
-0.25588981935874244 68:1.0 57:1.0 201:1.0 13174:1.0 59:1.0 11088:1.0 260:1.0 205:1.0 10:1.0 
-500.0 302:1.0 3:1.0 201:1.0 2703:1.0 6:1.0 519:1.0 79:1.0 205:1.0 10:1.0 13:1.0 20:1.0 
-0.2271790167137624 97:1.0 57:1.0 275:1.0 2117:1.0 59:1.0 277:1.0 623:1.0 205:1.0 10:1.0 
-0.5414375122568753 302:1.0 57:1.0 201:1.0 368:1.0 59:1.0 1085:1.0 623:1.0 205:1.0 10:1.0 
-0.21091763199842717 302:1.0 57:1.0 201:1.0 13943:1.0 59:1.0 203:1.0 623:1.0 205:1.0 10:1.0 
-500.0 100:1.0 3:1.0 201:1.0 720:1.0 6:1.0 203:1.0 79:1.0 205:1.0 10:1.0 13:1.0 
-0.2552617355870741 302:1.0 57:1.0 201:1.0 2965:1.0 59:1.0 965:1.0 623:1.0 205:1.0 10:1.0 
-0.2419671091987759 97:1.0 57:1.0 201:1.0 45457:1.0 59:1.0 524:1.0 260:1.0 205:1.0 10:1.0 13:1.0 55:1.0 
-0.14935431675500194 100:1.0 75:1.0 201:1.0 9775:1.0 77:1.0 203:1.0 79:1.0 205:1.0 10:1.0 13:1.0 83:1.0 
-500.0 100:1.0 380:1.0 201:1.0 45522:1.0 381:1.0 2331:1.0 79:1.0 205:1.0 10:1.0 13:1.0 364:1.0 
-0.12716980246341394 268:1.0 3:1.0 201:1.0 3980:1.0 6:1.0 519:1.0 278:1.0 205:1.0 10:1.0 2602:1.0 13:1.0 54:1.0 14:1.0 20:1.0 136:1.0 
-0.17608102344497623 68:1.0 57:1.0 201:1.0 17686:1.0 59:1.0 1022:1.0 260:1.0 205:1.0 10:1.0 
-0.24308838786846773 100:1.0 66:1.0 201:1.0 1160:1.0 67:1.0 833:1.0 278:1.0 205:1.0 10:1.0 13:1.0 61:1.0 
-0.10627094162881999 672:1.0 3:1.0 201:1.0 673:1.0 6:1.0 1179:1.0 486:1.0 205:1.0 10:1.0 141:1.0 35:1.0 13:1.0 54:1.0 206:1.0 136:1.0 37:1.0 20:1.0 364:1.0 207:1.0 
-0.08864490895765319 672:1.0 3:1.0 201:1.0 673:1.0 6:1.0 1179:1.0 195:1.0 205:1.0 10:1.0 35:1.0 54:1.0 13:1.0 136:1.0 20:1.0 
-0.1326746161749775 672:1.0 3:1.0 201:1.0 673:1.0 6:1.0 1179:1.0 195:1.0 205:1.0 10:1.0 35:1.0 13:1.0 54:1.0 136:1.0 20:1.0 
-0.2434794904960499 302:1.0 75:1.0 201:1.0 3070:1.0 544:1.0 524:1.0 79:1.0 205:1.0 10:1.0 13:1.0 83:1.0 
-0.1490694462435158 302:1.0 75:1.0 201:1.0 7482:1.0 544:1.0 203:1.0 79:1.0 205:1.0 10:1.0 13:1.0 83:1.0 
-0.12094107648331762 2:1.0 3:1.0 201:1.0 517:1.0 6:1.0 1217:1.0 623:1.0 205:1.0 10:1.0 211:1.0 81:1.0 82:1.0 246:1.0 
-0.15367085685602663 97:1.0 57:1.0 275:1.0 2354:1.0 59:1.0 277:1.0 623:1.0 205:1.0 10:1.0 
-500.0 172:1.0 3:1.0 201:1.0 11609:1.0 6:1.0 1085:1.0 79:1.0 205:1.0 10:1.0 13:1.0 20:1.0 
-0.44103715514708897 100:1.0 66:1.0 201:1.0 3414:1.0 67:1.0 1179:1.0 623:1.0 205:1.0 10:1.0 
-500.0 97:1.0 380:1.0 201:1.0 7437:1.0 381:1.0 1022:1.0 79:1.0 205:1.0 10:1.0 13:1.0 364:1.0 
-500.0 122:1.0 3:1.0 201:1.0 1193:1.0 6:1.0 14037:1.0 623:1.0 205:1.0 10:1.0 13:1.0 211:1.0 20:1.0 14:1.0 
-0.09137294452292383 100:1.0 3:1.0 201:1.0 18546:1.0 6:1.0 14037:1.0 623:1.0 205:1.0 10:1.0 211:1.0 13:1.0 246:1.0 20:1.0 
-0.1762563567221238 100:1.0 3:1.0 201:1.0 18546:1.0 6:1.0 14037:1.0 623:1.0 205:1.0 10:1.0 13:1.0 211:1.0 20:1.0 246:1.0 
-0.14101348377306178 100:1.0 66:1.0 201:1.0 16425:1.0 345:1.0 2084:1.0 278:1.0 205:1.0 10:1.0 13:1.0 614:1.0 455:1.0 61:1.0 246:1.0 
-500.0 100:1.0 380:1.0 266:1.0 5491:1.0 381:1.0 4633:1.0 79:1.0 205:1.0 10:1.0 13:1.0 364:1.0 
-0.5208333747254509 100:1.0 380:1.0 201:1.0 3280:1.0 381:1.0 203:1.0 79:1.0 205:1.0 10:1.0 455:1.0 13:1.0 207:1.0 364:1.0 
-0.43613385198468785 100:1.0 66:1.0 201:1.0 548:1.0 67:1.0 611:1.0 260:1.0 205:1.0 10:1.0 
-0.1045074793562542 100:1.0 75:1.0 201:1.0 4048:1.0 544:1.0 524:1.0 79:1.0 205:1.0 10:1.0 13:1.0 83:1.0 
-0.18029368167411727 322:1.0 3:1.0 201:1.0 7083:1.0 6:1.0 965:1.0 111:1.0 205:1.0 10:1.0 211:1.0 40:1.0 37:1.0 
-500.0 97:1.0 3:1.0 201:1.0 1018:1.0 6:1.0 203:1.0 79:1.0 205:1.0 10:1.0 13:1.0 20:1.0 
-0.12501485445146368 97:1.0 57:1.0 201:1.0 3711:1.0 59:1.0 2331:1.0 3632:1.0 205:1.0 10:1.0 
-0.27173913149113105 97:1.0 57:1.0 201:1.0 2500:1.0 59:1.0 11088:1.0 260:1.0 205:1.0 10:1.0 
-0.27104463706225884 100:1.0 3:1.0 201:1.0 1190:1.0 6:1.0 23559:1.0 2910:1.0 205:1.0 10:1.0 455:1.0 245:1.0 207:1.0 246:1.0 
-0.36782244930912145 302:1.0 57:1.0 201:1.0 1858:1.0 59:1.0 524:1.0 260:1.0 205:1.0 10:1.0 13:1.0 55:1.0 
-0.5208333747254509 68:1.0 380:1.0 201:1.0 8130:1.0 381:1.0 1085:1.0 79:1.0 205:1.0 10:1.0 455:1.0 13:1.0 179:1.0 364:1.0 
-500.0 100:1.0 3:1.0 201:1.0 12643:1.0 6:1.0 519:1.0 79:1.0 205:1.0 10:1.0 13:1.0 20:1.0 
-500.0 97:1.0 380:1.0 201:1.0 39065:1.0 381:1.0 203:1.0 79:1.0 205:1.0 10:1.0 13:1.0 364:1.0 
-0.24038462420187084 100:1.0 380:1.0 201:1.0 5385:1.0 381:1.0 1217:1.0 79:1.0 205:1.0 10:1.0 11:1.0 669:1.0 13:1.0 48:1.0 37:1.0 364:1.0 
-500.0 2:1.0 380:1.0 201:1.0 734:1.0 381:1.0 10957:1.0 79:1.0 205:1.0 10:1.0 13:1.0 364:1.0 
-0.5208333747254509 122:1.0 380:1.0 201:1.0 500:1.0 381:1.0 1217:1.0 79:1.0 205:1.0 10:1.0 211:1.0 13:1.0 14:1.0 364:1.0 
-0.5208333747254509 100:1.0 380:1.0 201:1.0 18335:1.0 381:1.0 1217:1.0 79:1.0 205:1.0 10:1.0 211:1.0 13:1.0 246:1.0 364:1.0 
-500.0 97:1.0 380:1.0 201:1.0 36625:1.0 381:1.0 9153:1.0 79:1.0 205:1.0 10:1.0 13:1.0 364:1.0 
-0.1283899029810887 100:1.0 75:1.0 201:1.0 3280:1.0 544:1.0 203:1.0 79:1.0 205:1.0 10:1.0 13:1.0 83:1.0 
-0.15675071830037268 122:1.0 3:1.0 201:1.0 9411:1.0 6:1.0 519:1.0 111:1.0 205:1.0 10:1.0 211:1.0 14:1.0 37:1.0 
-0.17892809013850441 2:1.0 3:1.0 201:1.0 199:1.0 6:1.0 519:1.0 111:1.0 205:1.0 10:1.0 211:1.0 14:1.0 246:1.0 
-0.19305019358332143 97:1.0 57:1.0 201:1.0 6834:1.0 59:1.0 519:1.0 1951:1.0 205:1.0 10:1.0 
-0.19297089002609752 97:1.0 57:1.0 201:1.0 1960:1.0 59:1.0 524:1.0 623:1.0 205:1.0 10:1.0 13:1.0 55:1.0 
-0.14521332711489673 68:1.0 57:1.0 201:1.0 933:1.0 59:1.0 524:1.0 260:1.0 205:1.0 10:1.0 
-0.5985212788785499 100:1.0 3:1.0 201:1.0 12643:1.0 6:1.0 519:1.0 79:1.0 205:1.0 10:1.0 81:1.0 13:1.0 37:1.0 20:1.0 
-0.4192292693575651 100:1.0 66:1.0 201:1.0 4964:1.0 67:1.0 9208:1.0 623:1.0 205:1.0 10:1.0 
-500.0 100:1.0 3:1.0 201:1.0 720:1.0 6:1.0 203:1.0 79:1.0 205:1.0 10:1.0 13:1.0 
-0.24396354126517336 172:1.0 57:1.0 201:1.0 26551:1.0 59:1.0 1085:1.0 623:1.0 205:1.0 10:1.0 
-0.18703754986161428 97:1.0 57:1.0 201:1.0 17227:1.0 59:1.0 203:1.0 623:1.0 205:1.0 10:1.0 13:1.0 55:1.0 
-0.24146969663322407 100:1.0 57:1.0 201:1.0 12459:1.0 59:1.0 524:1.0 260:1.0 205:1.0 10:1.0 13:1.0 55:1.0 
-0.19305019358332143 97:1.0 57:1.0 201:1.0 14789:1.0 59:1.0 1179:1.0 623:1.0 205:1.0 10:1.0 
-0.12990408942419127 100:1.0 75:1.0 201:1.0 7963:1.0 544:1.0 519:1.0 79:1.0 205:1.0 10:1.0 13:1.0 83:1.0 
-0.3086419971118972 122:1.0 380:1.0 201:1.0 1534:1.0 381:1.0 203:1.0 79:1.0 205:1.0 10:1.0 13:1.0 211:1.0 20:1.0 246:1.0 136:1.0 364:1.0 
-0.24038462420187084 122:1.0 380:1.0 201:1.0 425:1.0 381:1.0 203:1.0 79:1.0 205:1.0 10:1.0 211:1.0 13:1.0 246:1.0 20:1.0 136:1.0 364:1.0 
-0.3333333502875441 68:1.0 380:1.0 201:1.0 14297:1.0 381:1.0 203:1.0 79:1.0 205:1.0 10:1.0 211:1.0 13:1.0 246:1.0 20:1.0 364:1.0 
-0.11001257779518599 122:1.0 3:1.0 201:1.0 425:1.0 6:1.0 203:1.0 79:1.0 205:1.0 10:1.0 13:1.0 211:1.0 364:1.0 246:1.0 136:1.0 
-0.19982762162274895 68:1.0 3:1.0 201:1.0 14297:1.0 6:1.0 203:1.0 79:1.0 205:1.0 10:1.0 13:1.0 211:1.0 364:1.0 246:1.0 
-0.24170027314527476 97:1.0 57:1.0 201:1.0 13131:1.0 59:1.0 524:1.0 260:1.0 205:1.0 10:1.0 13:1.0 55:1.0 
-500.0 97:1.0 380:1.0 201:1.0 21472:1.0 381:1.0 519:1.0 79:1.0 205:1.0 10:1.0 13:1.0 364:1.0 
-0.16381455315019364 100:1.0 75:1.0 201:1.0 48884:1.0 544:1.0 524:1.0 79:1.0 205:1.0 10:1.0 13:1.0 83:1.0 
-0.33974883967841124 100:1.0 66:1.0 201:1.0 378:1.0 67:1.0 1179:1.0 623:1.0 205:1.0 10:1.0 
-0.19305019358332143 97:1.0 57:1.0 201:1.0 49020:1.0 59:1.0 1179:1.0 623:1.0 205:1.0 10:1.0 
-0.15136928865714647 2:1.0 3:1.0 201:1.0 517:1.0 6:1.0 1217:1.0 204:1.0 205:1.0 10:1.0 211:1.0 81:1.0 82:1.0 246:1.0 
-0.2535050389966605 172:1.0 57:1.0 201:1.0 16617:1.0 59:1.0 1085:1.0 623:1.0 205:1.0 10:1.0 
