svm_type c_svc
kernel_type polynomial
degree 2
gamma 0.2
coef0 0.0
nr_class 2
total_sv 364
rho -0.6362047198890405
label 1 -1
nr_sv 207 157
SV
0.0927188246672424 713:1.0 3:1.0 4:1.0 5:1.0 6:1.0 1139:1.0 8:1.0 716:1.0 10:1.0 11:1.0 80:1.0 538:1.0 206:1.0 136:1.0 14:1.0 37:1.0 55:1.0 207:1.0 
0.7575756262156804 713:1.0 3:1.0 4:1.0 1718:1.0 6:1.0 583:1.0 8:1.0 716:1.0 10:1.0 54:1.0 11:1.0 80:1.0 245:1.0 37:1.0 20:1.0 82:1.0 265:1.0 
0.1440135710784707 713:1.0 3:1.0 4:1.0 714:1.0 6:1.0 2347:1.0 8:1.0 716:1.0 10:1.0 455:1.0 11:1.0 80:1.0 245:1.0 207:1.0 136:1.0 
0.07383084860608595 713:1.0 24:1.0 131:1.0 714:1.0 25:1.0 2440:1.0 8:1.0 716:1.0 10:1.0 245:1.0 11:1.0 538:1.0 80:1.0 206:1.0 15:1.0 20:1.0 136:1.0 246:1.0 207:1.0 
0.1874308477348831 713:1.0 3:1.0 4:1.0 714:1.0 6:1.0 827:1.0 8:1.0 716:1.0 10:1.0 11:1.0 80:1.0 206:1.0 171:1.0 82:1.0 470:1.0 
0.06397939914511513 713:1.0 3:1.0 173:1.0 2981:1.0 6:1.0 1163:1.0 128:1.0 716:1.0 10:1.0 80:1.0 206:1.0 14:1.0 237:1.0 
0.09709261573181001 122:1.0 24:1.0 4:1.0 714:1.0 25:1.0 715:1.0 8:1.0 716:1.0 10:1.0 245:1.0 13:1.0 11:1.0 538:1.0 265:1.0 20:1.0 171:1.0 246:1.0 
0.7030927840561415 713:1.0 3:1.0 173:1.0 714:1.0 6:1.0 2236:1.0 128:1.0 716:1.0 10:1.0 245:1.0 37:1.0 
0.08375829150308026 713:1.0 66:1.0 4:1.0 714:1.0 67:1.0 9730:1.0 162:1.0 716:1.0 10:1.0 81:1.0 11:1.0 80:1.0 206:1.0 470:1.0 20:1.0 61:1.0 171:1.0 207:1.0 
0.15562761822780039 713:1.0 3:1.0 266:1.0 714:1.0 6:1.0 2324:1.0 32:1.0 716:1.0 10:1.0 245:1.0 1025:1.0 164:1.0 265:1.0 
0.06503459038230884 713:1.0 380:1.0 173:1.0 2981:1.0 6726:1.0 3467:1.0 8:1.0 716:1.0 10:1.0 11:1.0 171:1.0 470:1.0 
0.06488439445700071 713:1.0 3:1.0 173:1.0 2981:1.0 6:1.0 3559:1.0 176:1.0 716:1.0 10:1.0 80:1.0 245:1.0 82:1.0 265:1.0 
0.21173786642903655 713:1.0 3:1.0 173:1.0 714:1.0 6:1.0 930:1.0 176:1.0 716:1.0 10:1.0 163:1.0 245:1.0 265:1.0 
0.21179048720409024 713:1.0 3:1.0 4:1.0 714:1.0 6:1.0 7802:1.0 8:1.0 716:1.0 10:1.0 11:1.0 245:1.0 82:1.0 265:1.0 
0.8010959648140773 713:1.0 3:1.0 131:1.0 396:1.0 6:1.0 3944:1.0 8:1.0 716:1.0 10:1.0 11:1.0 80:1.0 20:1.0 171:1.0 157:1.0 
0.16159537151077186 713:1.0 3:1.0 4:1.0 5:1.0 6:1.0 2236:1.0 162:1.0 716:1.0 10:1.0 11:1.0 245:1.0 82:1.0 37:1.0 38:1.0 
0.06832264804489191 713:1.0 24:1.0 4:1.0 284:1.0 25:1.0 2638:1.0 8:1.0 716:1.0 10:1.0 11:1.0 54:1.0 81:1.0 669:1.0 82:1.0 20:1.0 37:1.0 164:1.0 
0.0926368959650934 713:1.0 24:1.0 4:1.0 1275:1.0 25:1.0 6538:1.0 8:1.0 716:1.0 10:1.0 245:1.0 11:1.0 80:1.0 37:1.0 20:1.0 136:1.0 82:1.0 
0.09683831426437267 122:1.0 380:1.0 4:1.0 714:1.0 878:1.0 3130:1.0 8:1.0 716:1.0 10:1.0 455:1.0 245:1.0 13:1.0 11:1.0 206:1.0 207:1.0 37:1.0 20:1.0 171:1.0 470:1.0 
0.053385713373362086 122:1.0 24:1.0 4:1.0 714:1.0 25:1.0 3130:1.0 8:1.0 716:1.0 10:1.0 455:1.0 245:1.0 13:1.0 11:1.0 206:1.0 207:1.0 37:1.0 20:1.0 171:1.0 364:1.0 470:1.0 
0.10020040080160318 713:1.0 3:1.0 131:1.0 714:1.0 6:1.0 14524:1.0 8:1.0 716:1.0 10:1.0 11:1.0 80:1.0 206:1.0 48:1.0 82:1.0 207:1.0 
0.1779359430604982 713:1.0 3:1.0 4:1.0 714:1.0 6:1.0 827:1.0 8:1.0 716:1.0 10:1.0 11:1.0 163:1.0 669:1.0 245:1.0 136:1.0 265:1.0 164:1.0 
0.22609907392931453 713:1.0 3:1.0 4:1.0 517:1.0 6:1.0 3944:1.0 195:1.0 716:1.0 10:1.0 81:1.0 11:1.0 80:1.0 206:1.0 246:1.0 14:1.0 171:1.0 470:1.0 
0.11736620995644506 713:1.0 3:1.0 131:1.0 396:1.0 6:1.0 1387:1.0 8:1.0 716:1.0 10:1.0 11:1.0 80:1.0 206:1.0 136:1.0 171:1.0 157:1.0 
0.10223496488222114 713:1.0 3:1.0 131:1.0 707:1.0 6:1.0 14792:1.0 486:1.0 716:1.0 10:1.0 80:1.0 206:1.0 14:1.0 157:1.0 
0.24731982794988452 713:1.0 24:1.0 76:1.0 707:1.0 25:1.0 14817:1.0 8:1.0 716:1.0 10:1.0 11:1.0 80:1.0 206:1.0 61:1.0 171:1.0 179:1.0 207:1.0 
0.1609491251307581 713:1.0 3:1.0 4:1.0 714:1.0 6:1.0 960:1.0 8:1.0 716:1.0 10:1.0 11:1.0 245:1.0 206:1.0 171:1.0 37:1.0 15:1.0 
0.11671356127600624 713:1.0 3:1.0 4:1.0 2703:1.0 6:1.0 1908:1.0 8:1.0 716:1.0 10:1.0 11:1.0 217:1.0 81:1.0 245:1.0 82:1.0 37:1.0 246:1.0 
0.07227250417477082 713:1.0 3:1.0 173:1.0 714:1.0 6:1.0 2819:1.0 128:1.0 716:1.0 10:1.0 54:1.0 245:1.0 37:1.0 
0.09580013979342789 713:1.0 3:1.0 266:1.0 396:1.0 6:1.0 723:1.0 486:1.0 716:1.0 10:1.0 80:1.0 206:1.0 14:1.0 207:1.0 
0.094509793468263 713:1.0 3:1.0 173:1.0 1265:1.0 6:1.0 771:1.0 128:1.0 716:1.0 10:1.0 245:1.0 37:1.0 
0.10572089635445156 713:1.0 3:1.0 4:1.0 714:1.0 6:1.0 771:1.0 8:1.0 716:1.0 10:1.0 11:1.0 3306:1.0 81:1.0 245:1.0 82:1.0 37:1.0 265:1.0 
0.16168155303645118 713:1.0 3:1.0 124:1.0 396:1.0 6:1.0 5793:1.0 128:1.0 716:1.0 10:1.0 245:1.0 669:1.0 37:1.0 20:1.0 
0.07829983403503063 713:1.0 3:1.0 124:1.0 396:1.0 6:1.0 20144:1.0 623:1.0 716:1.0 10:1.0 245:1.0 37:1.0 15:1.0 
0.08578715215491863 2:1.0 3:1.0 4:1.0 714:1.0 6:1.0 960:1.0 8:1.0 716:1.0 10:1.0 11:1.0 206:1.0 13:1.0 171:1.0 207:1.0 
0.1231071934556703 713:1.0 3:1.0 4:1.0 396:1.0 6:1.0 3559:1.0 8:1.0 716:1.0 10:1.0 11:1.0 80:1.0 245:1.0 81:1.0 206:1.0 171:1.0 271:1.0 37:1.0 207:1.0 
0.12437810945273628 713:1.0 3:1.0 4:1.0 714:1.0 6:1.0 3380:1.0 162:1.0 716:1.0 10:1.0 11:1.0 538:1.0 669:1.0 171:1.0 82:1.0 246:1.0 37:1.0 
0.9259261221552493 713:1.0 3:1.0 131:1.0 396:1.0 6:1.0 3900:1.0 8:1.0 716:1.0 10:1.0 80:1.0 11:1.0 305:1.0 20:1.0 171:1.0 
0.14120604396060593 713:1.0 24:1.0 131:1.0 714:1.0 25:1.0 2741:1.0 8:1.0 716:1.0 10:1.0 81:1.0 11:1.0 245:1.0 20:1.0 136:1.0 37:1.0 
0.06961974221649282 713:1.0 57:1.0 124:1.0 714:1.0 59:1.0 2362:1.0 128:1.0 716:1.0 10:1.0 538:1.0 217:1.0 37:1.0 55:1.0 164:1.0 
0.04225931033336847 713:1.0 3:1.0 124:1.0 396:1.0 6:1.0 6570:1.0 128:1.0 716:1.0 10:1.0 80:1.0 538:1.0 206:1.0 245:1.0 61:1.0 136:1.0 55:1.0 37:1.0 207:1.0 265:1.0 
0.12437810945273628 713:1.0 3:1.0 4:1.0 714:1.0 6:1.0 7281:1.0 8:1.0 716:1.0 10:1.0 11:1.0 80:1.0 3306:1.0 206:1.0 136:1.0 37:1.0 207:1.0 
0.09551039122064166 713:1.0 3:1.0 173:1.0 396:1.0 6:1.0 12725:1.0 176:1.0 716:1.0 10:1.0 80:1.0 245:1.0 671:1.0 37:1.0 246:1.0 
0.1373453182219664 713:1.0 3:1.0 76:1.0 396:1.0 6:1.0 4641:1.0 8:1.0 716:1.0 10:1.0 11:1.0 80:1.0 81:1.0 206:1.0 82:1.0 207:1.0 
0.04406471360384159 713:1.0 24:1.0 131:1.0 396:1.0 25:1.0 4641:1.0 8:1.0 716:1.0 10:1.0 11:1.0 245:1.0 81:1.0 80:1.0 54:1.0 136:1.0 20:1.0 37:1.0 246:1.0 14:1.0 
0.04442494778401227 2:1.0 380:1.0 4:1.0 714:1.0 878:1.0 9937:1.0 8:1.0 716:1.0 10:1.0 81:1.0 13:1.0 11:1.0 206:1.0 20:1.0 38:1.0 
0.13424227494348845 2:1.0 24:1.0 4:1.0 714:1.0 25:1.0 9937:1.0 8:1.0 716:1.0 10:1.0 81:1.0 13:1.0 11:1.0 206:1.0 20:1.0 364:1.0 38:1.0 
0.20471277406826305 713:1.0 66:1.0 76:1.0 2981:1.0 67:1.0 9880:1.0 195:1.0 716:1.0 10:1.0 245:1.0 61:1.0 164:1.0 37:1.0 
0.7575756262156804 713:1.0 3:1.0 4:1.0 396:1.0 6:1.0 22213:1.0 8:1.0 716:1.0 10:1.0 81:1.0 11:1.0 80:1.0 669:1.0 37:1.0 20:1.0 136:1.0 14:1.0 
0.18393803451889443 713:1.0 66:1.0 131:1.0 714:1.0 67:1.0 4382:1.0 363:1.0 716:1.0 10:1.0 11:1.0 245:1.0 61:1.0 37:1.0 
0.10076669293611396 713:1.0 3:1.0 4:1.0 5:1.0 6:1.0 1908:1.0 128:1.0 716:1.0 10:1.0 669:1.0 245:1.0 37:1.0 55:1.0 14:1.0 
0.2421758964140887 713:1.0 3:1.0 4:1.0 396:1.0 6:1.0 2470:1.0 8:1.0 716:1.0 10:1.0 11:1.0 80:1.0 245:1.0 14:1.0 265:1.0 
0.1461988304093567 713:1.0 3:1.0 4:1.0 714:1.0 6:1.0 2760:1.0 8:1.0 716:1.0 10:1.0 11:1.0 80:1.0 245:1.0 82:1.0 265:1.0 
0.11193541999115728 713:1.0 3:1.0 4:1.0 517:1.0 6:1.0 13051:1.0 8:1.0 716:1.0 10:1.0 11:1.0 80:1.0 217:1.0 206:1.0 136:1.0 40:1.0 164:1.0 207:1.0 
0.15733509751839542 713:1.0 3:1.0 4:1.0 1265:1.0 6:1.0 78:1.0 162:1.0 716:1.0 10:1.0 11:1.0 80:1.0 245:1.0 171:1.0 14:1.0 37:1.0 
0.07796438159520326 713:1.0 3:1.0 124:1.0 396:1.0 6:1.0 14906:1.0 128:1.0 716:1.0 10:1.0 80:1.0 245:1.0 82:1.0 265:1.0 
0.42886434650244165 122:1.0 3:1.0 131:1.0 396:1.0 6:1.0 3944:1.0 79:1.0 716:1.0 10:1.0 13:1.0 11:1.0 20:1.0 171:1.0 
0.7575756262156803 713:1.0 3:1.0 4:1.0 2981:1.0 6:1.0 400:1.0 8:1.0 716:1.0 10:1.0 11:1.0 80:1.0 669:1.0 470:1.0 20:1.0 136:1.0 48:1.0 164:1.0 
0.05885994430717354 713:1.0 3:1.0 266:1.0 714:1.0 6:1.0 4076:1.0 486:1.0 716:1.0 10:1.0 245:1.0 206:1.0 37:1.0 207:1.0 
0.10148694443868252 713:1.0 3:1.0 173:1.0 396:1.0 6:1.0 6784:1.0 195:1.0 716:1.0 10:1.0 80:1.0 206:1.0 48:1.0 207:1.0 
0.1105738596688324 713:1.0 3:1.0 76:1.0 714:1.0 6:1.0 12439:1.0 260:1.0 716:1.0 10:1.0 669:1.0 11:1.0 206:1.0 1287:1.0 171:1.0 207:1.0 
0.12202351481998731 713:1.0 3:1.0 173:1.0 714:1.0 6:1.0 20672:1.0 128:1.0 716:1.0 10:1.0 81:1.0 37:1.0 
0.15940378608707362 713:1.0 66:1.0 76:1.0 517:1.0 67:1.0 4627:1.0 363:1.0 716:1.0 10:1.0 81:1.0 11:1.0 538:1.0 206:1.0 305:1.0 20:1.0 14:1.0 61:1.0 37:1.0 207:1.0 
0.07112578527358356 713:1.0 3:1.0 131:1.0 1275:1.0 6:1.0 3944:1.0 195:1.0 716:1.0 10:1.0 80:1.0 245:1.0 14:1.0 164:1.0 265:1.0 
0.12410074510320038 713:1.0 24:1.0 4:1.0 1718:1.0 25:1.0 2236:1.0 8:1.0 716:1.0 10:1.0 81:1.0 11:1.0 245:1.0 37:1.0 20:1.0 136:1.0 
0.04718667186645899 713:1.0 24:1.0 173:1.0 714:1.0 25:1.0 6021:1.0 8:1.0 716:1.0 10:1.0 80:1.0 364:1.0 
0.7575756262156804 713:1.0 3:1.0 131:1.0 396:1.0 6:1.0 3944:1.0 8:1.0 716:1.0 10:1.0 455:1.0 81:1.0 11:1.0 245:1.0 207:1.0 37:1.0 20:1.0 14:1.0 
0.2465529697052444 713:1.0 24:1.0 131:1.0 1718:1.0 25:1.0 17927:1.0 8:1.0 716:1.0 10:1.0 245:1.0 11:1.0 80:1.0 37:1.0 20:1.0 55:1.0 61:1.0 82:1.0 14:1.0 
0.3906249999999997 713:1.0 3:1.0 131:1.0 517:1.0 6:1.0 1550:1.0 8:1.0 716:1.0 10:1.0 245:1.0 11:1.0 37:1.0 20:1.0 14:1.0 246:1.0 179:1.0 15:1.0 
0.7575756262156804 713:1.0 3:1.0 4:1.0 5:1.0 6:1.0 17927:1.0 8:1.0 716:1.0 10:1.0 81:1.0 11:1.0 54:1.0 245:1.0 37:1.0 20:1.0 82:1.0 265:1.0 
500.0 713:1.0 3:1.0 4:1.0 1265:1.0 6:1.0 78:1.0 8:1.0 716:1.0 10:1.0 11:1.0 245:1.0 80:1.0 14:1.0 20:1.0 55:1.0 15:1.0 
0.11590008956805667 713:1.0 24:1.0 4:1.0 1265:1.0 25:1.0 78:1.0 8:1.0 716:1.0 10:1.0 11:1.0 245:1.0 80:1.0 14:1.0 20:1.0 55:1.0 15:1.0 
0.23602686822263594 713:1.0 24:1.0 76:1.0 517:1.0 25:1.0 1500:1.0 8:1.0 716:1.0 10:1.0 81:1.0 11:1.0 245:1.0 246:1.0 20:1.0 82:1.0 37:1.0 
0.09496655168940189 713:1.0 57:1.0 266:1.0 5:1.0 59:1.0 4178:1.0 32:1.0 716:1.0 10:1.0 80:1.0 14:1.0 
0.04481195748010227 713:1.0 24:1.0 4:1.0 1718:1.0 25:1.0 583:1.0 8:1.0 716:1.0 10:1.0 11:1.0 245:1.0 80:1.0 271:1.0 20:1.0 265:1.0 82:1.0 37:1.0 
0.13834960872518323 713:1.0 66:1.0 173:1.0 2981:1.0 67:1.0 5893:1.0 128:1.0 716:1.0 10:1.0 80:1.0 538:1.0 61:1.0 14:1.0 37:1.0 
0.07213358479929263 713:1.0 3:1.0 173:1.0 1275:1.0 6:1.0 78:1.0 128:1.0 716:1.0 10:1.0 80:1.0 245:1.0 14:1.0 20:1.0 246:1.0 37:1.0 
0.09164582862142612 713:1.0 57:1.0 173:1.0 714:1.0 59:1.0 1163:1.0 176:1.0 716:1.0 10:1.0 245:1.0 538:1.0 37:1.0 
0.1427871366607828 713:1.0 3:1.0 4:1.0 1718:1.0 6:1.0 244:1.0 128:1.0 716:1.0 10:1.0 80:1.0 81:1.0 245:1.0 136:1.0 37:1.0 
0.10330215755898846 713:1.0 380:1.0 76:1.0 714:1.0 1572:1.0 2236:1.0 8:1.0 716:1.0 10:1.0 81:1.0 11:1.0 245:1.0 206:1.0 246:1.0 20:1.0 82:1.0 37:1.0 305:1.0 
0.10870092238773366 713:1.0 3:1.0 4:1.0 396:1.0 6:1.0 4458:1.0 363:1.0 716:1.0 10:1.0 81:1.0 11:1.0 206:1.0 1287:1.0 171:1.0 246:1.0 61:1.0 470:1.0 
0.12020988938984753 713:1.0 3:1.0 173:1.0 396:1.0 6:1.0 6757:1.0 128:1.0 716:1.0 10:1.0 80:1.0 245:1.0 671:1.0 37:1.0 265:1.0 
0.7142859283759306 713:1.0 3:1.0 4:1.0 1275:1.0 6:1.0 78:1.0 8:1.0 716:1.0 10:1.0 81:1.0 11:1.0 245:1.0 206:1.0 246:1.0 20:1.0 136:1.0 37:1.0 207:1.0 
0.14619883040935672 713:1.0 3:1.0 4:1.0 2703:1.0 6:1.0 1521:1.0 8:1.0 716:1.0 10:1.0 11:1.0 245:1.0 136:1.0 37:1.0 265:1.0 
0.13263288212308016 713:1.0 3:1.0 4:1.0 2703:1.0 6:1.0 788:1.0 8:1.0 716:1.0 10:1.0 11:1.0 80:1.0 81:1.0 136:1.0 82:1.0 14:1.0 
0.0926826548154686 713:1.0 3:1.0 173:1.0 396:1.0 6:1.0 6250:1.0 176:1.0 716:1.0 10:1.0 80:1.0 245:1.0 54:1.0 171:1.0 20:1.0 14:1.0 37:1.0 
0.14428320750287146 713:1.0 380:1.0 173:1.0 714:1.0 381:1.0 17765:1.0 176:1.0 716:1.0 10:1.0 206:1.0 82:1.0 207:1.0 
0.11465781230037854 713:1.0 3:1.0 76:1.0 707:1.0 6:1.0 4658:1.0 486:1.0 716:1.0 10:1.0 11:1.0 81:1.0 245:1.0 206:1.0 82:1.0 246:1.0 265:1.0 207:1.0 
0.08354099535014878 713:1.0 3:1.0 173:1.0 396:1.0 6:1.0 8915:1.0 128:1.0 716:1.0 10:1.0 669:1.0 80:1.0 245:1.0 12:1.0 81:1.0 1287:1.0 82:1.0 265:1.0 246:1.0 237:1.0 305:1.0 
0.08640593353345068 713:1.0 380:1.0 131:1.0 396:1.0 878:1.0 1198:1.0 8:1.0 716:1.0 10:1.0 54:1.0 11:1.0 206:1.0 37:1.0 20:1.0 14:1.0 157:1.0 
1.055245418470943 713:1.0 3:1.0 131:1.0 396:1.0 6:1.0 3900:1.0 8:1.0 716:1.0 10:1.0 11:1.0 80:1.0 20:1.0 136:1.0 470:1.0 
0.08734650001232226 713:1.0 3:1.0 76:1.0 1275:1.0 6:1.0 4641:1.0 8:1.0 716:1.0 10:1.0 11:1.0 80:1.0 245:1.0 82:1.0 14:1.0 265:1.0 
0.1461988304093567 713:1.0 3:1.0 4:1.0 714:1.0 6:1.0 20992:1.0 486:1.0 716:1.0 10:1.0 11:1.0 80:1.0 206:1.0 82:1.0 207:1.0 
0.07794093477337351 713:1.0 24:1.0 76:1.0 396:1.0 25:1.0 14565:1.0 8:1.0 716:1.0 10:1.0 81:1.0 11:1.0 80:1.0 37:1.0 20:1.0 82:1.0 48:1.0 
0.1174176761839752 713:1.0 24:1.0 131:1.0 1275:1.0 25:1.0 6538:1.0 8:1.0 716:1.0 10:1.0 81:1.0 11:1.0 80:1.0 245:1.0 20:1.0 171:1.0 246:1.0 37:1.0 
0.174053564958134 713:1.0 3:1.0 131:1.0 714:1.0 6:1.0 9730:1.0 8:1.0 716:1.0 10:1.0 11:1.0 245:1.0 81:1.0 20:1.0 37:1.0 157:1.0 
0.10728403457105112 713:1.0 3:1.0 131:1.0 1109:1.0 6:1.0 2236:1.0 363:1.0 716:1.0 10:1.0 11:1.0 245:1.0 14:1.0 55:1.0 265:1.0 
0.13840736562540068 713:1.0 57:1.0 173:1.0 714:1.0 59:1.0 7475:1.0 176:1.0 716:1.0 10:1.0 80:1.0 82:1.0 
0.0755287833979532 2:1.0 3:1.0 76:1.0 5:1.0 6:1.0 8169:1.0 8:1.0 716:1.0 10:1.0 13:1.0 11:1.0 206:1.0 61:1.0 171:1.0 207:1.0 55:1.0 
0.13119295275974222 2:1.0 24:1.0 76:1.0 5:1.0 25:1.0 8169:1.0 8:1.0 716:1.0 10:1.0 13:1.0 11:1.0 206:1.0 61:1.0 171:1.0 20:1.0 207:1.0 55:1.0 
0.06519675105792017 2:1.0 66:1.0 76:1.0 5:1.0 67:1.0 8169:1.0 8:1.0 716:1.0 10:1.0 13:1.0 11:1.0 206:1.0 61:1.0 171:1.0 20:1.0 207:1.0 
0.08939676240506453 713:1.0 3:1.0 4:1.0 1718:1.0 6:1.0 184:1.0 8:1.0 716:1.0 10:1.0 11:1.0 538:1.0 81:1.0 245:1.0 82:1.0 246:1.0 14:1.0 15:1.0 
0.10366189549278931 713:1.0 3:1.0 4:1.0 714:1.0 6:1.0 15803:1.0 8:1.0 716:1.0 10:1.0 11:1.0 80:1.0 245:1.0 81:1.0 206:1.0 136:1.0 37:1.0 246:1.0 
0.07186972620828086 2:1.0 24:1.0 4:1.0 5:1.0 25:1.0 2236:1.0 8:1.0 716:1.0 10:1.0 455:1.0 245:1.0 13:1.0 11:1.0 206:1.0 207:1.0 37:1.0 20:1.0 82:1.0 
0.0904078737703981 2:1.0 3:1.0 4:1.0 396:1.0 6:1.0 22939:1.0 8:1.0 716:1.0 10:1.0 11:1.0 81:1.0 206:1.0 13:1.0 14:1.0 246:1.0 207:1.0 
0.0537254882797109 713:1.0 24:1.0 131:1.0 517:1.0 25:1.0 10498:1.0 8:1.0 716:1.0 10:1.0 54:1.0 11:1.0 245:1.0 80:1.0 37:1.0 20:1.0 14:1.0 246:1.0 
0.7862612920005797 713:1.0 3:1.0 131:1.0 396:1.0 6:1.0 3900:1.0 8:1.0 716:1.0 10:1.0 11:1.0 80:1.0 20:1.0 14:1.0 470:1.0 
0.19512441107210138 713:1.0 3:1.0 4:1.0 5:1.0 6:1.0 3944:1.0 8:1.0 716:1.0 10:1.0 11:1.0 80:1.0 245:1.0 82:1.0 14:1.0 37:1.0 
0.0862645209855492 713:1.0 24:1.0 4:1.0 1265:1.0 25:1.0 2236:1.0 8:1.0 716:1.0 10:1.0 245:1.0 11:1.0 54:1.0 37:1.0 20:1.0 82:1.0 
0.10593328454978608 713:1.0 3:1.0 173:1.0 1265:1.0 6:1.0 827:1.0 486:1.0 716:1.0 10:1.0 80:1.0 206:1.0 14:1.0 207:1.0 
0.2793296208442227 713:1.0 3:1.0 131:1.0 396:1.0 6:1.0 3900:1.0 8:1.0 716:1.0 10:1.0 11:1.0 80:1.0 206:1.0 14:1.0 82:1.0 207:1.0 
0.1307983420490003 713:1.0 3:1.0 4:1.0 2981:1.0 6:1.0 3498:1.0 486:1.0 716:1.0 10:1.0 11:1.0 80:1.0 206:1.0 136:1.0 20:1.0 157:1.0 
0.11988537476190256 713:1.0 3:1.0 131:1.0 714:1.0 6:1.0 975:1.0 486:1.0 716:1.0 10:1.0 80:1.0 206:1.0 82:1.0 157:1.0 
0.16468560307081226 713:1.0 3:1.0 173:1.0 714:1.0 6:1.0 2741:1.0 486:1.0 716:1.0 10:1.0 80:1.0 206:1.0 82:1.0 207:1.0 
0.11299136121534349 713:1.0 3:1.0 4:1.0 714:1.0 6:1.0 5387:1.0 260:1.0 716:1.0 10:1.0 80:1.0 11:1.0 245:1.0 538:1.0 334:1.0 171:1.0 246:1.0 37:1.0 
0.12312039040395943 713:1.0 3:1.0 131:1.0 714:1.0 6:1.0 250:1.0 8:1.0 716:1.0 10:1.0 11:1.0 80:1.0 206:1.0 245:1.0 207:1.0 265:1.0 
0.1255810541669463 713:1.0 66:1.0 131:1.0 714:1.0 67:1.0 930:1.0 8:1.0 716:1.0 10:1.0 245:1.0 11:1.0 178:1.0 37:1.0 20:1.0 171:1.0 265:1.0 
0.0785354868616141 713:1.0 3:1.0 124:1.0 714:1.0 6:1.0 27465:1.0 128:1.0 716:1.0 10:1.0 80:1.0 81:1.0 245:1.0 671:1.0 164:1.0 265:1.0 
0.10755774206364287 713:1.0 3:1.0 4:1.0 5:1.0 6:1.0 3944:1.0 162:1.0 716:1.0 10:1.0 11:1.0 178:1.0 217:1.0 245:1.0 14:1.0 20:1.0 164:1.0 37:1.0 265:1.0 
0.08381760653280027 713:1.0 3:1.0 28:1.0 1718:1.0 6:1.0 1658:1.0 176:1.0 716:1.0 10:1.0 80:1.0 245:1.0 14:1.0 265:1.0 
0.07274966588583992 713:1.0 24:1.0 76:1.0 396:1.0 25:1.0 37292:1.0 8:1.0 716:1.0 10:1.0 54:1.0 11:1.0 245:1.0 80:1.0 538:1.0 37:1.0 20:1.0 82:1.0 246:1.0 265:1.0 
0.14810090732685183 713:1.0 3:1.0 76:1.0 2981:1.0 6:1.0 11222:1.0 8:1.0 716:1.0 10:1.0 11:1.0 245:1.0 82:1.0 37:1.0 
0.04641301624852866 713:1.0 380:1.0 131:1.0 4247:1.0 1572:1.0 2236:1.0 8:1.0 716:1.0 10:1.0 11:1.0 538:1.0 206:1.0 136:1.0 37:1.0 157:1.0 
0.02845349269454714 713:1.0 3:1.0 173:1.0 517:1.0 6:1.0 78:1.0 128:1.0 716:1.0 10:1.0 80:1.0 206:1.0 245:1.0 14:1.0 207:1.0 37:1.0 
0.09941354964214055 713:1.0 3:1.0 124:1.0 517:1.0 6:1.0 78:1.0 128:1.0 716:1.0 10:1.0 80:1.0 36:1.0 14:1.0 
0.07142283890055057 713:1.0 3:1.0 124:1.0 396:1.0 6:1.0 943:1.0 128:1.0 716:1.0 10:1.0 81:1.0 54:1.0 136:1.0 37:1.0 470:1.0 
0.08843603482086757 713:1.0 57:1.0 4:1.0 1275:1.0 59:1.0 2074:1.0 195:1.0 716:1.0 10:1.0 245:1.0 80:1.0 164:1.0 364:1.0 305:1.0 
0.11906679916215457 713:1.0 3:1.0 173:1.0 396:1.0 6:1.0 2740:1.0 128:1.0 716:1.0 10:1.0 80:1.0 245:1.0 82:1.0 
0.21054732071451457 713:1.0 3:1.0 266:1.0 714:1.0 6:1.0 2732:1.0 128:1.0 716:1.0 10:1.0 245:1.0 246:1.0 
0.13802769386337982 713:1.0 3:1.0 266:1.0 5:1.0 6:1.0 27266:1.0 128:1.0 716:1.0 10:1.0 245:1.0 37:1.0 265:1.0 
0.08362284418480512 713:1.0 3:1.0 173:1.0 1718:1.0 6:1.0 5793:1.0 128:1.0 716:1.0 10:1.0 80:1.0 54:1.0 245:1.0 82:1.0 246:1.0 179:1.0 
0.0672632031645068 713:1.0 3:1.0 266:1.0 714:1.0 6:1.0 31766:1.0 128:1.0 716:1.0 10:1.0 54:1.0 245:1.0 37:1.0 265:1.0 
0.11902752286931388 713:1.0 3:1.0 4:1.0 1718:1.0 6:1.0 34010:1.0 363:1.0 716:1.0 10:1.0 11:1.0 80:1.0 245:1.0 14:1.0 171:1.0 15:1.0 
0.10217728058075821 713:1.0 3:1.0 76:1.0 2981:1.0 6:1.0 5777:1.0 8:1.0 716:1.0 10:1.0 11:1.0 80:1.0 245:1.0 82:1.0 37:1.0 265:1.0 
0.06702074666901606 713:1.0 57:1.0 4:1.0 396:1.0 7941:1.0 4582:1.0 8:1.0 716:1.0 10:1.0 455:1.0 11:1.0 36:1.0 207:1.0 171:1.0 179:1.0 
0.11014921488506961 713:1.0 3:1.0 124:1.0 714:1.0 6:1.0 1637:1.0 128:1.0 716:1.0 10:1.0 538:1.0 245:1.0 246:1.0 15:1.0 
0.15227769968596278 713:1.0 3:1.0 131:1.0 396:1.0 6:1.0 3944:1.0 486:1.0 716:1.0 10:1.0 11:1.0 163:1.0 206:1.0 14:1.0 164:1.0 207:1.0 
0.12362913435688541 713:1.0 57:1.0 131:1.0 2703:1.0 59:1.0 15505:1.0 8:1.0 716:1.0 10:1.0 455:1.0 81:1.0 11:1.0 80:1.0 207:1.0 157:1.0 20:1.0 171:1.0 38:1.0 
0.049539832826517305 713:1.0 24:1.0 131:1.0 2703:1.0 25:1.0 15505:1.0 8:1.0 716:1.0 10:1.0 455:1.0 81:1.0 11:1.0 80:1.0 207:1.0 157:1.0 20:1.0 171:1.0 61:1.0 38:1.0 
500.0 713:1.0 66:1.0 131:1.0 2703:1.0 67:1.0 15505:1.0 8:1.0 716:1.0 10:1.0 455:1.0 81:1.0 11:1.0 80:1.0 207:1.0 157:1.0 20:1.0 171:1.0 61:1.0 38:1.0 
500.0 713:1.0 3:1.0 131:1.0 5:1.0 6:1.0 827:1.0 8:1.0 716:1.0 10:1.0 81:1.0 245:1.0 11:1.0 206:1.0 246:1.0 20:1.0 37:1.0 14:1.0 207:1.0 55:1.0 
0.08836212004804361 713:1.0 66:1.0 131:1.0 5:1.0 67:1.0 827:1.0 8:1.0 716:1.0 10:1.0 81:1.0 245:1.0 11:1.0 206:1.0 246:1.0 20:1.0 37:1.0 14:1.0 207:1.0 
0.12042938316362665 713:1.0 3:1.0 131:1.0 5:1.0 6:1.0 2145:1.0 8:1.0 716:1.0 10:1.0 11:1.0 80:1.0 206:1.0 171:1.0 82:1.0 207:1.0 
0.08906177799732483 713:1.0 24:1.0 131:1.0 5:1.0 25:1.0 5219:1.0 8:1.0 716:1.0 10:1.0 669:1.0 11:1.0 80:1.0 217:1.0 163:1.0 164:1.0 20:1.0 171:1.0 82:1.0 37:1.0 
0.08694501300277323 713:1.0 3:1.0 124:1.0 714:1.0 6:1.0 14563:1.0 128:1.0 716:1.0 10:1.0 81:1.0 206:1.0 37:1.0 15:1.0 
0.10703771868942524 713:1.0 3:1.0 4:1.0 396:1.0 6:1.0 40329:1.0 8:1.0 716:1.0 10:1.0 11:1.0 80:1.0 245:1.0 171:1.0 265:1.0 20:1.0 246:1.0 470:1.0 
0.12250230488918652 713:1.0 24:1.0 76:1.0 517:1.0 25:1.0 2074:1.0 8:1.0 716:1.0 10:1.0 11:1.0 245:1.0 80:1.0 163:1.0 48:1.0 20:1.0 246:1.0 136:1.0 164:1.0 
0.070643586098332 713:1.0 3:1.0 266:1.0 714:1.0 6:1.0 3863:1.0 128:1.0 716:1.0 10:1.0 80:1.0 245:1.0 82:1.0 37:1.0 
0.04921735624584335 713:1.0 57:1.0 131:1.0 396:1.0 59:1.0 591:1.0 8:1.0 716:1.0 10:1.0 455:1.0 11:1.0 538:1.0 80:1.0 206:1.0 207:1.0 136:1.0 246:1.0 14:1.0 364:1.0 157:1.0 
0.125 713:1.0 3:1.0 4:1.0 1718:1.0 6:1.0 3144:1.0 8:1.0 716:1.0 10:1.0 11:1.0 80:1.0 245:1.0 171:1.0 671:1.0 265:1.0 
0.06310105891700131 122:1.0 3:1.0 124:1.0 396:1.0 6:1.0 184:1.0 128:1.0 716:1.0 10:1.0 206:1.0 245:1.0 207:1.0 37:1.0 
0.1215013274297639 713:1.0 3:1.0 4:1.0 1718:1.0 6:1.0 3247:1.0 8:1.0 716:1.0 10:1.0 11:1.0 80:1.0 245:1.0 81:1.0 14:1.0 37:1.0 
0.10375116580123718 122:1.0 3:1.0 173:1.0 714:1.0 6:1.0 6793:1.0 176:1.0 716:1.0 10:1.0 80:1.0 206:1.0 171:1.0 207:1.0 
500.0 713:1.0 3:1.0 4:1.0 714:1.0 6:1.0 2236:1.0 8:1.0 716:1.0 10:1.0 245:1.0 11:1.0 37:1.0 20:1.0 265:1.0 
0.290718255013945 713:1.0 3:1.0 4:1.0 714:1.0 6:1.0 2236:1.0 8:1.0 716:1.0 10:1.0 11:1.0 245:1.0 206:1.0 37:1.0 207:1.0 
0.07023240607735566 122:1.0 3:1.0 4:1.0 714:1.0 6:1.0 3944:1.0 8:1.0 716:1.0 10:1.0 81:1.0 11:1.0 206:1.0 13:1.0 246:1.0 171:1.0 207:1.0 
0.14186125880231332 713:1.0 3:1.0 266:1.0 396:1.0 6:1.0 24375:1.0 128:1.0 716:1.0 10:1.0 206:1.0 265:1.0 
0.12877078219668553 713:1.0 3:1.0 4:1.0 714:1.0 6:1.0 20697:1.0 8:1.0 716:1.0 10:1.0 11:1.0 81:1.0 245:1.0 82:1.0 37:1.0 265:1.0 
0.08207313677525489 713:1.0 3:1.0 173:1.0 714:1.0 6:1.0 5777:1.0 176:1.0 716:1.0 10:1.0 206:1.0 207:1.0 
0.14283976171612595 713:1.0 66:1.0 4:1.0 1718:1.0 67:1.0 78:1.0 162:1.0 716:1.0 10:1.0 81:1.0 11:1.0 245:1.0 206:1.0 470:1.0 20:1.0 14:1.0 61:1.0 246:1.0 207:1.0 
0.21281540901178328 713:1.0 24:1.0 173:1.0 4597:1.0 25:1.0 771:1.0 8:1.0 716:1.0 10:1.0 54:1.0 11:1.0 669:1.0 81:1.0 245:1.0 37:1.0 20:1.0 82:1.0 246:1.0 
0.1013071586996002 713:1.0 3:1.0 4:1.0 707:1.0 6:1.0 2224:1.0 486:1.0 716:1.0 10:1.0 11:1.0 245:1.0 206:1.0 171:1.0 37:1.0 207:1.0 
0.2536407826914114 713:1.0 24:1.0 173:1.0 396:1.0 4339:1.0 4479:1.0 8:1.0 716:1.0 10:1.0 22013:1.0 136:1.0 20:1.0 
0.09264769839050556 713:1.0 3:1.0 28:1.0 5:1.0 6:1.0 5656:1.0 162:1.0 716:1.0 10:1.0 35:1.0 14:1.0 82:1.0 179:1.0 157:1.0 
0.10726304125069329 713:1.0 380:1.0 76:1.0 714:1.0 381:1.0 960:1.0 162:1.0 716:1.0 10:1.0 11:1.0 54:1.0 206:1.0 82:1.0 37:1.0 207:1.0 
0.7575756262156802 713:1.0 3:1.0 76:1.0 396:1.0 6:1.0 5433:1.0 8:1.0 716:1.0 10:1.0 245:1.0 11:1.0 80:1.0 15:1.0 20:1.0 171:1.0 82:1.0 265:1.0 
0.3674431638273123 122:1.0 24:1.0 173:1.0 517:1.0 25:1.0 4281:1.0 8:1.0 716:1.0 10:1.0 245:1.0 13:1.0 37:1.0 20:1.0 
0.7142859283759309 713:1.0 3:1.0 4:1.0 396:1.0 6:1.0 2470:1.0 8:1.0 716:1.0 10:1.0 81:1.0 11:1.0 80:1.0 245:1.0 37:1.0 20:1.0 136:1.0 14:1.0 265:1.0 
0.09366374296618099 713:1.0 380:1.0 266:1.0 2981:1.0 381:1.0 5893:1.0 128:1.0 716:1.0 10:1.0 245:1.0 246:1.0 37:1.0 
0.06410855692671084 713:1.0 3:1.0 173:1.0 2703:1.0 6:1.0 409:1.0 176:1.0 716:1.0 10:1.0 455:1.0 80:1.0 245:1.0 20:1.0 237:1.0 671:1.0 
0.12082308316665039 713:1.0 3:1.0 76:1.0 396:1.0 6:1.0 10758:1.0 8:1.0 716:1.0 10:1.0 11:1.0 80:1.0 206:1.0 82:1.0 14:1.0 207:1.0 
0.15559862090960622 713:1.0 3:1.0 173:1.0 2981:1.0 6:1.0 134:1.0 8:1.0 716:1.0 10:1.0 11:1.0 80:1.0 206:1.0 82:1.0 207:1.0 
0.25083762553126926 713:1.0 24:1.0 131:1.0 396:1.0 25:1.0 17516:1.0 8:1.0 716:1.0 10:1.0 80:1.0 11:1.0 81:1.0 61:1.0 157:1.0 20:1.0 55:1.0 14:1.0 37:1.0 
0.07656902605449682 713:1.0 3:1.0 124:1.0 2703:1.0 6:1.0 1844:1.0 128:1.0 716:1.0 10:1.0 206:1.0 15:1.0 
0.14241575219406807 713:1.0 24:1.0 76:1.0 5:1.0 25:1.0 27266:1.0 8:1.0 716:1.0 10:1.0 54:1.0 11:1.0 81:1.0 245:1.0 37:1.0 20:1.0 82:1.0 246:1.0 
0.12062475118205307 713:1.0 3:1.0 266:1.0 396:1.0 6:1.0 32033:1.0 128:1.0 716:1.0 10:1.0 80:1.0 206:1.0 82:1.0 265:1.0 
0.09763387568018611 713:1.0 57:1.0 131:1.0 5:1.0 59:1.0 44208:1.0 8:1.0 716:1.0 10:1.0 11:1.0 80:1.0 136:1.0 364:1.0 157:1.0 
0.06100998797905033 713:1.0 66:1.0 4:1.0 714:1.0 67:1.0 2496:1.0 8:1.0 716:1.0 10:1.0 81:1.0 11:1.0 245:1.0 54:1.0 37:1.0 20:1.0 171:1.0 
0.04882109727995823 713:1.0 24:1.0 4:1.0 6201:1.0 25:1.0 398:1.0 8:1.0 716:1.0 10:1.0 81:1.0 11:1.0 245:1.0 37:1.0 20:1.0 136:1.0 
0.12600045377869784 713:1.0 3:1.0 124:1.0 714:1.0 6:1.0 2324:1.0 128:1.0 716:1.0 10:1.0 80:1.0 245:1.0 164:1.0 37:1.0 
0.130548303034596 713:1.0 3:1.0 4:1.0 1718:1.0 6:1.0 409:1.0 8:1.0 716:1.0 10:1.0 11:1.0 245:1.0 669:1.0 14:1.0 20:1.0 246:1.0 37:1.0 
0.05929580275184412 713:1.0 66:1.0 4:1.0 714:1.0 67:1.0 12290:1.0 8:1.0 716:1.0 10:1.0 11:1.0 80:1.0 245:1.0 136:1.0 37:1.0 
0.10192197199586607 713:1.0 3:1.0 4:1.0 396:1.0 6:1.0 8842:1.0 260:1.0 716:1.0 10:1.0 11:1.0 80:1.0 163:1.0 245:1.0 469:1.0 82:1.0 265:1.0 20:1.0 
0.1298740919298571 713:1.0 24:1.0 131:1.0 396:1.0 25:1.0 3900:1.0 8:1.0 716:1.0 10:1.0 245:1.0 11:1.0 80:1.0 37:1.0 20:1.0 136:1.0 
0.04735585163502322 713:1.0 3:1.0 266:1.0 1718:1.0 6:1.0 26051:1.0 128:1.0 716:1.0 10:1.0 80:1.0 245:1.0 82:1.0 265:1.0 
0.07021136015740093 713:1.0 3:1.0 124:1.0 714:1.0 6:1.0 975:1.0 128:1.0 716:1.0 10:1.0 80:1.0 54:1.0 245:1.0 82:1.0 37:1.0 265:1.0 
0.06763658747471944 713:1.0 3:1.0 173:1.0 2981:1.0 6:1.0 3974:1.0 128:1.0 716:1.0 10:1.0 80:1.0 54:1.0 82:1.0 37:1.0 
0.18716162533529826 2:1.0 24:1.0 4:1.0 396:1.0 25:1.0 12729:1.0 8:1.0 716:1.0 10:1.0 13:1.0 81:1.0 11:1.0 245:1.0 37:1.0 20:1.0 14:1.0 246:1.0 
500.0 713:1.0 3:1.0 4:1.0 714:1.0 6:1.0 975:1.0 8:1.0 716:1.0 10:1.0 81:1.0 11:1.0 80:1.0 206:1.0 37:1.0 20:1.0 470:1.0 
0.08569582143694177 713:1.0 24:1.0 4:1.0 5:1.0 25:1.0 3944:1.0 8:1.0 716:1.0 10:1.0 245:1.0 11:1.0 178:1.0 37:1.0 20:1.0 136:1.0 14:1.0 
0.12718302713745014 713:1.0 3:1.0 4:1.0 396:1.0 6:1.0 10285:1.0 8:1.0 716:1.0 10:1.0 11:1.0 80:1.0 81:1.0 206:1.0 14:1.0 136:1.0 37:1.0 207:1.0 
500.0 2:1.0 3:1.0 4:1.0 714:1.0 6:1.0 4658:1.0 8:1.0 716:1.0 10:1.0 54:1.0 11:1.0 13:1.0 245:1.0 206:1.0 179:1.0 20:1.0 15:1.0 470:1.0 55:1.0 
0.08855464196500461 2:1.0 66:1.0 4:1.0 714:1.0 67:1.0 4658:1.0 8:1.0 716:1.0 10:1.0 54:1.0 11:1.0 13:1.0 245:1.0 206:1.0 179:1.0 20:1.0 15:1.0 470:1.0 
0.06276117612855586 713:1.0 24:1.0 76:1.0 5:1.0 25:1.0 2145:1.0 8:1.0 716:1.0 10:1.0 245:1.0 11:1.0 80:1.0 54:1.0 81:1.0 265:1.0 20:1.0 136:1.0 82:1.0 37:1.0 
0.0921899218717621 713:1.0 3:1.0 124:1.0 396:1.0 6:1.0 4274:1.0 128:1.0 716:1.0 10:1.0 80:1.0 245:1.0 82:1.0 265:1.0 
0.13055421723508526 713:1.0 24:1.0 131:1.0 2981:1.0 25:1.0 134:1.0 8:1.0 716:1.0 10:1.0 11:1.0 245:1.0 80:1.0 669:1.0 136:1.0 20:1.0 37:1.0 14:1.0 
0.07885960975426413 713:1.0 24:1.0 173:1.0 396:1.0 25:1.0 8169:1.0 8:1.0 716:1.0 10:1.0 245:1.0 80:1.0 246:1.0 20:1.0 14:1.0 
0.13148398409579423 713:1.0 24:1.0 173:1.0 714:1.0 25:1.0 3128:1.0 8:1.0 716:1.0 10:1.0 245:1.0 11:1.0 80:1.0 37:1.0 20:1.0 82:1.0 
0.11888806300517663 713:1.0 3:1.0 76:1.0 396:1.0 6:1.0 591:1.0 128:1.0 716:1.0 10:1.0 80:1.0 245:1.0 82:1.0 246:1.0 
0.14100083934180374 713:1.0 3:1.0 76:1.0 714:1.0 6:1.0 14974:1.0 486:1.0 716:1.0 10:1.0 80:1.0 206:1.0 82:1.0 207:1.0 
0.10096937816924971 713:1.0 3:1.0 266:1.0 714:1.0 6:1.0 1637:1.0 278:1.0 716:1.0 10:1.0 80:1.0 245:1.0 82:1.0 265:1.0 
0.13489491487509647 713:1.0 3:1.0 4:1.0 1718:1.0 6:1.0 48632:1.0 278:1.0 716:1.0 10:1.0 375:1.0 245:1.0 37:1.0 265:1.0 
0.16736793573790726 713:1.0 3:1.0 173:1.0 2703:1.0 6:1.0 788:1.0 176:1.0 716:1.0 10:1.0 80:1.0 245:1.0 671:1.0 14:1.0 
0.09268142989023818 713:1.0 3:1.0 76:1.0 2981:1.0 6:1.0 3498:1.0 2910:1.0 716:1.0 10:1.0 11:1.0 80:1.0 206:1.0 171:1.0 14:1.0 38:1.0 
0.10907991456200525 713:1.0 3:1.0 173:1.0 396:1.0 6:1.0 1908:1.0 176:1.0 716:1.0 10:1.0 80:1.0 669:1.0 82:1.0 164:1.0 
0.19625900800016957 713:1.0 3:1.0 4:1.0 714:1.0 6:1.0 930:1.0 8:1.0 716:1.0 10:1.0 11:1.0 245:1.0 54:1.0 206:1.0 136:1.0 899:1.0 37:1.0 470:1.0 
0.08222566586476703 713:1.0 3:1.0 76:1.0 714:1.0 6:1.0 250:1.0 8:1.0 716:1.0 10:1.0 11:1.0 80:1.0 206:1.0 136:1.0 207:1.0 
-0.7575756262156804 713:1.0 3:1.0 4:1.0 1718:1.0 6:1.0 583:1.0 8:1.0 716:1.0 10:1.0 54:1.0 11:1.0 80:1.0 245:1.0 37:1.0 82:1.0 20:1.0 265:1.0 
-0.14867535665066808 713:1.0 3:1.0 131:1.0 714:1.0 6:1.0 2440:1.0 8:1.0 716:1.0 10:1.0 245:1.0 11:1.0 538:1.0 80:1.0 206:1.0 15:1.0 136:1.0 246:1.0 207:1.0 
-0.1949479861804146 122:1.0 3:1.0 4:1.0 714:1.0 6:1.0 715:1.0 8:1.0 716:1.0 10:1.0 245:1.0 11:1.0 538:1.0 13:1.0 265:1.0 171:1.0 246:1.0 
-0.11465781230037854 713:1.0 3:1.0 4:1.0 714:1.0 6:1.0 5862:1.0 8:1.0 716:1.0 10:1.0 81:1.0 11:1.0 80:1.0 37:1.0 171:1.0 
-0.15227769968596278 713:1.0 3:1.0 4:1.0 2981:1.0 6:1.0 3944:1.0 8:1.0 716:1.0 10:1.0 245:1.0 11:1.0 80:1.0 246:1.0 14:1.0 
-0.7030927840561415 713:1.0 3:1.0 173:1.0 714:1.0 6:1.0 2236:1.0 278:1.0 716:1.0 10:1.0 245:1.0 37:1.0 20:1.0 
-0.20471277406826305 713:1.0 3:1.0 173:1.0 714:1.0 6:1.0 2236:1.0 278:1.0 716:1.0 10:1.0 245:1.0 20:1.0 37:1.0 
-0.15656727241864019 713:1.0 57:1.0 4:1.0 714:1.0 59:1.0 9730:1.0 162:1.0 716:1.0 10:1.0 81:1.0 11:1.0 80:1.0 206:1.0 470:1.0 20:1.0 171:1.0 207:1.0 55:1.0 
-0.1298991985847489 713:1.0 3:1.0 4:1.0 714:1.0 6:1.0 9730:1.0 8:1.0 716:1.0 10:1.0 245:1.0 11:1.0 80:1.0 265:1.0 136:1.0 470:1.0 
-0.8010959648140773 713:1.0 3:1.0 131:1.0 396:1.0 6:1.0 3944:1.0 8:1.0 716:1.0 10:1.0 11:1.0 80:1.0 171:1.0 20:1.0 157:1.0 
-0.0921899218717621 713:1.0 3:1.0 4:1.0 284:1.0 6:1.0 2638:1.0 8:1.0 716:1.0 10:1.0 11:1.0 54:1.0 81:1.0 669:1.0 82:1.0 20:1.0 37:1.0 164:1.0 
-0.1255810541669463 713:1.0 3:1.0 4:1.0 1275:1.0 6:1.0 6538:1.0 8:1.0 716:1.0 10:1.0 245:1.0 11:1.0 80:1.0 37:1.0 136:1.0 82:1.0 
-0.16133428217209567 122:1.0 3:1.0 4:1.0 714:1.0 6:1.0 3130:1.0 8:1.0 716:1.0 10:1.0 455:1.0 245:1.0 11:1.0 13:1.0 206:1.0 207:1.0 37:1.0 171:1.0 364:1.0 470:1.0 
-0.3751868702865722 713:1.0 57:1.0 76:1.0 707:1.0 59:1.0 14817:1.0 8:1.0 716:1.0 10:1.0 11:1.0 80:1.0 206:1.0 171:1.0 179:1.0 207:1.0 
-0.10076669293611396 713:1.0 3:1.0 4:1.0 5:1.0 6:1.0 2074:1.0 8:1.0 716:1.0 10:1.0 669:1.0 11:1.0 81:1.0 80:1.0 164:1.0 82:1.0 246:1.0 14:1.0 
-0.10870092238773366 713:1.0 3:1.0 4:1.0 714:1.0 6:1.0 875:1.0 8:1.0 716:1.0 10:1.0 81:1.0 11:1.0 669:1.0 37:1.0 82:1.0 164:1.0 
-0.13119295275974222 713:1.0 3:1.0 4:1.0 7720:1.0 6:1.0 2740:1.0 162:1.0 716:1.0 10:1.0 11:1.0 81:1.0 80:1.0 82:1.0 37:1.0 
-0.16168155303645118 713:1.0 3:1.0 4:1.0 396:1.0 6:1.0 5793:1.0 8:1.0 716:1.0 10:1.0 245:1.0 11:1.0 80:1.0 15:1.0 136:1.0 82:1.0 
-0.9259261221552493 713:1.0 3:1.0 131:1.0 396:1.0 6:1.0 3900:1.0 8:1.0 716:1.0 10:1.0 80:1.0 11:1.0 305:1.0 171:1.0 20:1.0 
-0.30233342764379245 713:1.0 3:1.0 131:1.0 714:1.0 6:1.0 2741:1.0 8:1.0 716:1.0 10:1.0 81:1.0 11:1.0 245:1.0 136:1.0 37:1.0 
-0.08734650001232226 713:1.0 3:1.0 131:1.0 396:1.0 6:1.0 4641:1.0 8:1.0 716:1.0 10:1.0 11:1.0 245:1.0 81:1.0 80:1.0 54:1.0 136:1.0 20:1.0 37:1.0 246:1.0 14:1.0 
-0.1373453182219664 713:1.0 3:1.0 4:1.0 396:1.0 6:1.0 4641:1.0 8:1.0 716:1.0 10:1.0 81:1.0 245:1.0 11:1.0 80:1.0 14:1.0 20:1.0 37:1.0 136:1.0 
-0.23414974851861112 2:1.0 3:1.0 4:1.0 714:1.0 6:1.0 9937:1.0 8:1.0 716:1.0 10:1.0 81:1.0 11:1.0 13:1.0 206:1.0 364:1.0 38:1.0 
-0.1307983420490003 713:1.0 3:1.0 4:1.0 517:1.0 6:1.0 78:1.0 8:1.0 716:1.0 10:1.0 54:1.0 11:1.0 80:1.0 37:1.0 82:1.0 
-0.3048555454332623 713:1.0 57:1.0 76:1.0 2981:1.0 59:1.0 9880:1.0 195:1.0 716:1.0 10:1.0 245:1.0 55:1.0 164:1.0 37:1.0 
-0.7575756262156804 713:1.0 3:1.0 4:1.0 396:1.0 6:1.0 22213:1.0 8:1.0 716:1.0 10:1.0 81:1.0 11:1.0 80:1.0 669:1.0 37:1.0 136:1.0 14:1.0 20:1.0 
-0.27657982655597346 713:1.0 57:1.0 131:1.0 714:1.0 59:1.0 4382:1.0 363:1.0 716:1.0 10:1.0 11:1.0 245:1.0 55:1.0 37:1.0 
-0.12410074510320038 713:1.0 3:1.0 4:1.0 5:1.0 6:1.0 17339:1.0 8:1.0 716:1.0 10:1.0 81:1.0 11:1.0 80:1.0 470:1.0 171:1.0 82:1.0 
-0.1231071934556703 713:1.0 3:1.0 4:1.0 2981:1.0 6:1.0 3559:1.0 8:1.0 716:1.0 10:1.0 11:1.0 80:1.0 669:1.0 37:1.0 136:1.0 246:1.0 14:1.0 
-0.0926826548154686 713:1.0 3:1.0 76:1.0 396:1.0 6:1.0 25712:1.0 8:1.0 716:1.0 10:1.0 245:1.0 11:1.0 80:1.0 81:1.0 246:1.0 171:1.0 14:1.0 37:1.0 
-0.09551039122064166 713:1.0 3:1.0 4:1.0 2981:1.0 6:1.0 25786:1.0 363:1.0 716:1.0 10:1.0 11:1.0 54:1.0 80:1.0 136:1.0 20:1.0 37:1.0 14:1.0 
-0.5056263207171919 122:1.0 3:1.0 131:1.0 396:1.0 6:1.0 3944:1.0 79:1.0 716:1.0 10:1.0 11:1.0 13:1.0 171:1.0 20:1.0 
-0.7575756262156803 713:1.0 3:1.0 4:1.0 2981:1.0 6:1.0 400:1.0 8:1.0 716:1.0 10:1.0 11:1.0 80:1.0 669:1.0 470:1.0 136:1.0 48:1.0 20:1.0 164:1.0 
-0.11419082806379133 713:1.0 3:1.0 131:1.0 396:1.0 6:1.0 3900:1.0 8:1.0 716:1.0 10:1.0 54:1.0 11:1.0 81:1.0 80:1.0 37:1.0 171:1.0 246:1.0 
-0.08855464196500461 713:1.0 3:1.0 76:1.0 396:1.0 6:1.0 26283:1.0 8:1.0 716:1.0 10:1.0 455:1.0 11:1.0 80:1.0 669:1.0 15:1.0 171:1.0 14:1.0 37:1.0 
-0.10223496488222114 713:1.0 3:1.0 4:1.0 396:1.0 6:1.0 4637:1.0 8:1.0 716:1.0 10:1.0 54:1.0 11:1.0 80:1.0 81:1.0 82:1.0 671:1.0 
-0.12312039040395943 713:1.0 3:1.0 4:1.0 5:1.0 6:1.0 1189:1.0 8:1.0 716:1.0 10:1.0 81:1.0 11:1.0 80:1.0 37:1.0 136:1.0 14:1.0 
-0.15940378608707362 713:1.0 3:1.0 76:1.0 517:1.0 6:1.0 4627:1.0 363:1.0 716:1.0 10:1.0 81:1.0 11:1.0 538:1.0 206:1.0 305:1.0 14:1.0 61:1.0 37:1.0 55:1.0 207:1.0 
-0.08640593353345068 713:1.0 57:1.0 76:1.0 517:1.0 59:1.0 4627:1.0 363:1.0 716:1.0 10:1.0 81:1.0 11:1.0 538:1.0 206:1.0 305:1.0 20:1.0 14:1.0 37:1.0 55:1.0 207:1.0 
-0.053385713373362086 713:1.0 3:1.0 4:1.0 714:1.0 6:1.0 27465:1.0 8:1.0 716:1.0 10:1.0 81:1.0 11:1.0 80:1.0 54:1.0 538:1.0 246:1.0 37:1.0 265:1.0 
-0.1440135710784707 713:1.0 3:1.0 4:1.0 396:1.0 6:1.0 2347:1.0 8:1.0 716:1.0 10:1.0 245:1.0 11:1.0 54:1.0 14:1.0 136:1.0 37:1.0 
-0.13851330567842002 713:1.0 3:1.0 4:1.0 714:1.0 6:1.0 930:1.0 8:1.0 716:1.0 10:1.0 245:1.0 11:1.0 163:1.0 246:1.0 82:1.0 265:1.0 
-0.1894126998350451 713:1.0 3:1.0 4:1.0 714:1.0 6:1.0 2732:1.0 8:1.0 716:1.0 10:1.0 245:1.0 11:1.0 81:1.0 246:1.0 470:1.0 
-0.09264769839050556 2:1.0 3:1.0 131:1.0 1718:1.0 6:1.0 5793:1.0 162:1.0 716:1.0 10:1.0 81:1.0 13:1.0 11:1.0 157:1.0 55:1.0 14:1.0 
-0.13424227494348845 2:1.0 66:1.0 131:1.0 1718:1.0 345:1.0 5793:1.0 162:1.0 716:1.0 10:1.0 81:1.0 13:1.0 11:1.0 157:1.0 20:1.0 14:1.0 
-0.16159537151077186 713:1.0 3:1.0 4:1.0 1718:1.0 6:1.0 2236:1.0 8:1.0 716:1.0 10:1.0 81:1.0 11:1.0 245:1.0 37:1.0 136:1.0 
-0.11193541999115728 713:1.0 3:1.0 4:1.0 2981:1.0 6:1.0 134:1.0 8:1.0 716:1.0 10:1.0 54:1.0 11:1.0 80:1.0 37:1.0 136:1.0 82:1.0 
-0.5204857790690254 713:1.0 380:1.0 173:1.0 714:1.0 381:1.0 6021:1.0 8:1.0 716:1.0 10:1.0 
-0.7575756262156804 713:1.0 3:1.0 131:1.0 396:1.0 6:1.0 3944:1.0 8:1.0 716:1.0 10:1.0 455:1.0 81:1.0 11:1.0 245:1.0 207:1.0 37:1.0 14:1.0 20:1.0 
-0.12687179157925604 713:1.0 3:1.0 131:1.0 1718:1.0 6:1.0 17927:1.0 8:1.0 716:1.0 10:1.0 245:1.0 11:1.0 80:1.0 37:1.0 55:1.0 61:1.0 82:1.0 14:1.0 
-0.0755287833979532 713:1.0 66:1.0 131:1.0 1718:1.0 67:1.0 17927:1.0 8:1.0 716:1.0 10:1.0 245:1.0 11:1.0 80:1.0 37:1.0 20:1.0 61:1.0 82:1.0 55:1.0 14:1.0 
-0.11968117812598837 713:1.0 57:1.0 131:1.0 1718:1.0 59:1.0 17927:1.0 8:1.0 716:1.0 10:1.0 245:1.0 11:1.0 80:1.0 37:1.0 20:1.0 55:1.0 82:1.0 14:1.0 
-0.09709261573181001 713:1.0 66:1.0 131:1.0 1718:1.0 67:1.0 17927:1.0 8:1.0 716:1.0 10:1.0 245:1.0 11:1.0 80:1.0 37:1.0 20:1.0 55:1.0 61:1.0 82:1.0 14:1.0 
-0.17392147610634698 713:1.0 3:1.0 4:1.0 714:1.0 6:1.0 2470:1.0 8:1.0 716:1.0 10:1.0 245:1.0 11:1.0 80:1.0 246:1.0 20:1.0 265:1.0 136:1.0 
-0.3906249999999997 713:1.0 3:1.0 131:1.0 517:1.0 6:1.0 1550:1.0 8:1.0 716:1.0 10:1.0 245:1.0 11:1.0 37:1.0 14:1.0 246:1.0 20:1.0 179:1.0 15:1.0 
-0.7091006703666155 713:1.0 3:1.0 4:1.0 5:1.0 6:1.0 17927:1.0 8:1.0 716:1.0 10:1.0 81:1.0 11:1.0 54:1.0 245:1.0 37:1.0 82:1.0 20:1.0 265:1.0 
-0.07023240607735566 713:1.0 3:1.0 4:1.0 1265:1.0 6:1.0 78:1.0 8:1.0 716:1.0 10:1.0 11:1.0 245:1.0 80:1.0 14:1.0 55:1.0 15:1.0 20:1.0 
-0.25886825624903165 713:1.0 66:1.0 4:1.0 1265:1.0 67:1.0 78:1.0 8:1.0 716:1.0 10:1.0 11:1.0 245:1.0 80:1.0 14:1.0 20:1.0 15:1.0 
-500.0 713:1.0 3:1.0 4:1.0 1265:1.0 6:1.0 78:1.0 8:1.0 716:1.0 10:1.0 11:1.0 245:1.0 80:1.0 14:1.0 20:1.0 55:1.0 15:1.0 
-0.3430645869120612 713:1.0 3:1.0 76:1.0 517:1.0 6:1.0 1500:1.0 8:1.0 716:1.0 10:1.0 81:1.0 11:1.0 245:1.0 246:1.0 82:1.0 37:1.0 
-0.130548303034596 713:1.0 3:1.0 4:1.0 1718:1.0 6:1.0 583:1.0 8:1.0 716:1.0 10:1.0 11:1.0 245:1.0 80:1.0 271:1.0 20:1.0 265:1.0 82:1.0 37:1.0 
-0.26322955878059323 713:1.0 57:1.0 173:1.0 2981:1.0 59:1.0 5893:1.0 128:1.0 716:1.0 10:1.0 80:1.0 538:1.0 14:1.0 55:1.0 37:1.0 
-0.14619883040935672 713:1.0 3:1.0 4:1.0 2703:1.0 6:1.0 8915:1.0 8:1.0 716:1.0 10:1.0 538:1.0 11:1.0 80:1.0 37:1.0 14:1.0 
-0.15733509751839542 713:1.0 3:1.0 4:1.0 714:1.0 6:1.0 975:1.0 8:1.0 716:1.0 10:1.0 245:1.0 11:1.0 80:1.0 37:1.0 
-0.08836212004804361 713:1.0 3:1.0 131:1.0 396:1.0 6:1.0 3944:1.0 8:1.0 716:1.0 10:1.0 455:1.0 11:1.0 81:1.0 80:1.0 4573:1.0 171:1.0 246:1.0 37:1.0 
-0.0924062964388439 713:1.0 3:1.0 4:1.0 1718:1.0 6:1.0 26051:1.0 8:1.0 716:1.0 10:1.0 81:1.0 11:1.0 80:1.0 206:1.0 37:1.0 14:1.0 171:1.0 207:1.0 
-0.17060529081145226 713:1.0 3:1.0 76:1.0 714:1.0 6:1.0 2236:1.0 8:1.0 716:1.0 10:1.0 81:1.0 11:1.0 245:1.0 206:1.0 246:1.0 82:1.0 37:1.0 364:1.0 305:1.0 
-0.7142859283759306 713:1.0 3:1.0 4:1.0 1275:1.0 6:1.0 78:1.0 8:1.0 716:1.0 10:1.0 81:1.0 11:1.0 245:1.0 206:1.0 246:1.0 136:1.0 37:1.0 20:1.0 207:1.0 
-0.12437810945273628 713:1.0 3:1.0 4:1.0 714:1.0 6:1.0 2588:1.0 8:1.0 716:1.0 10:1.0 81:1.0 11:1.0 80:1.0 246:1.0 136:1.0 
-0.1461988304093567 713:1.0 3:1.0 4:1.0 714:1.0 6:1.0 5071:1.0 8:1.0 716:1.0 10:1.0 245:1.0 11:1.0 54:1.0 37:1.0 136:1.0 
-0.07186972620828086 713:1.0 3:1.0 4:1.0 2703:1.0 6:1.0 2920:1.0 8:1.0 716:1.0 10:1.0 81:1.0 11:1.0 54:1.0 206:1.0 470:1.0 14:1.0 37:1.0 207:1.0 
-0.1461988304093567 713:1.0 3:1.0 4:1.0 714:1.0 6:1.0 14114:1.0 8:1.0 716:1.0 10:1.0 245:1.0 11:1.0 80:1.0 37:1.0 171:1.0 
-0.13521983125050038 713:1.0 3:1.0 131:1.0 396:1.0 6:1.0 1198:1.0 8:1.0 716:1.0 10:1.0 54:1.0 11:1.0 206:1.0 37:1.0 14:1.0 364:1.0 157:1.0 
-0.9410545904071517 713:1.0 3:1.0 131:1.0 396:1.0 6:1.0 3900:1.0 8:1.0 716:1.0 10:1.0 11:1.0 80:1.0 136:1.0 20:1.0 470:1.0 
-0.20029664209364786 713:1.0 3:1.0 76:1.0 396:1.0 6:1.0 14565:1.0 8:1.0 716:1.0 10:1.0 81:1.0 11:1.0 80:1.0 37:1.0 82:1.0 48:1.0 
-0.21005457214906859 713:1.0 3:1.0 131:1.0 1275:1.0 6:1.0 6538:1.0 8:1.0 716:1.0 10:1.0 81:1.0 11:1.0 80:1.0 245:1.0 171:1.0 246:1.0 37:1.0 
-0.24619696292895976 713:1.0 3:1.0 266:1.0 396:1.0 6:1.0 4497:1.0 623:1.0 716:1.0 10:1.0 11:1.0 54:1.0 14:1.0 37:1.0 
-0.34666997227338725 713:1.0 3:1.0 173:1.0 714:1.0 6:1.0 34955:1.0 162:1.0 716:1.0 10:1.0 455:1.0 4573:1.0 
-0.28332573316280496 2:1.0 57:1.0 76:1.0 5:1.0 59:1.0 8169:1.0 8:1.0 716:1.0 10:1.0 11:1.0 13:1.0 206:1.0 171:1.0 20:1.0 207:1.0 55:1.0 
-0.07213358479929263 713:1.0 3:1.0 4:1.0 714:1.0 6:1.0 27465:1.0 8:1.0 716:1.0 10:1.0 245:1.0 11:1.0 80:1.0 81:1.0 37:1.0 136:1.0 82:1.0 
-0.14630217147870464 2:1.0 3:1.0 4:1.0 5:1.0 6:1.0 2236:1.0 8:1.0 716:1.0 10:1.0 455:1.0 245:1.0 11:1.0 206:1.0 13:1.0 207:1.0 37:1.0 82:1.0 
-0.1973666331971852 713:1.0 3:1.0 4:1.0 2703:1.0 6:1.0 1637:1.0 195:1.0 716:1.0 10:1.0 245:1.0 81:1.0 265:1.0 
-0.10217728058075821 713:1.0 3:1.0 131:1.0 517:1.0 6:1.0 10498:1.0 8:1.0 716:1.0 10:1.0 54:1.0 11:1.0 245:1.0 80:1.0 37:1.0 14:1.0 246:1.0 
-1.0655909128448025 713:1.0 3:1.0 131:1.0 396:1.0 6:1.0 3900:1.0 8:1.0 716:1.0 10:1.0 11:1.0 80:1.0 14:1.0 20:1.0 470:1.0 
-0.21403403937578655 713:1.0 3:1.0 4:1.0 1265:1.0 6:1.0 2236:1.0 8:1.0 716:1.0 10:1.0 245:1.0 11:1.0 54:1.0 37:1.0 82:1.0 
-0.13563103295259693 713:1.0 57:1.0 4:1.0 284:1.0 59:1.0 398:1.0 162:1.0 716:1.0 10:1.0 245:1.0 11:1.0 538:1.0 37:1.0 20:1.0 14:1.0 246:1.0 
-0.11671356127600624 713:1.0 3:1.0 4:1.0 714:1.0 6:1.0 1137:1.0 8:1.0 716:1.0 10:1.0 245:1.0 11:1.0 538:1.0 136:1.0 246:1.0 
-0.07322456075061654 713:1.0 3:1.0 4:1.0 714:1.0 6:1.0 1456:1.0 8:1.0 716:1.0 10:1.0 455:1.0 81:1.0 11:1.0 80:1.0 206:1.0 207:1.0 470:1.0 136:1.0 
-0.11902752286931388 713:1.0 3:1.0 4:1.0 396:1.0 6:1.0 5644:1.0 8:1.0 716:1.0 10:1.0 81:1.0 11:1.0 80:1.0 246:1.0 14:1.0 37:1.0 
-0.18878904885699563 713:1.0 3:1.0 131:1.0 714:1.0 6:1.0 930:1.0 8:1.0 716:1.0 10:1.0 245:1.0 11:1.0 178:1.0 37:1.0 171:1.0 265:1.0 55:1.0 
-0.14555165804252412 713:1.0 3:1.0 76:1.0 396:1.0 6:1.0 37292:1.0 8:1.0 716:1.0 10:1.0 54:1.0 11:1.0 245:1.0 80:1.0 538:1.0 37:1.0 82:1.0 246:1.0 265:1.0 
-0.11988537476190256 713:1.0 3:1.0 4:1.0 714:1.0 6:1.0 78:1.0 8:1.0 716:1.0 10:1.0 81:1.0 11:1.0 80:1.0 54:1.0 246:1.0 37:1.0 
-0.05885994430717354 713:1.0 3:1.0 4:1.0 714:1.0 6:1.0 9730:1.0 195:1.0 716:1.0 10:1.0 81:1.0 11:1.0 245:1.0 470:1.0 37:1.0 
-0.08367365323251144 713:1.0 3:1.0 4:1.0 714:1.0 6:1.0 827:1.0 8:1.0 716:1.0 10:1.0 11:1.0 245:1.0 80:1.0 82:1.0 246:1.0 20:1.0 
-0.1779359430604982 713:1.0 3:1.0 4:1.0 714:1.0 6:1.0 827:1.0 8:1.0 716:1.0 10:1.0 11:1.0 245:1.0 80:1.0 82:1.0 20:1.0 246:1.0 
-0.11888806300517663 713:1.0 3:1.0 4:1.0 1265:1.0 6:1.0 3130:1.0 8:1.0 716:1.0 10:1.0 245:1.0 11:1.0 80:1.0 246:1.0 136:1.0 14:1.0 
-0.125 713:1.0 3:1.0 4:1.0 1718:1.0 6:1.0 27923:1.0 8:1.0 716:1.0 10:1.0 81:1.0 11:1.0 80:1.0 37:1.0 171:1.0 82:1.0 
-0.21520288895537842 713:1.0 3:1.0 131:1.0 2703:1.0 6:1.0 15505:1.0 8:1.0 716:1.0 10:1.0 455:1.0 81:1.0 11:1.0 80:1.0 207:1.0 157:1.0 171:1.0 61:1.0 38:1.0 
-500.0 713:1.0 66:1.0 131:1.0 2703:1.0 67:1.0 15505:1.0 8:1.0 716:1.0 10:1.0 455:1.0 81:1.0 11:1.0 80:1.0 207:1.0 157:1.0 20:1.0 171:1.0 61:1.0 38:1.0 
-0.08843603482086757 713:1.0 3:1.0 131:1.0 5:1.0 6:1.0 827:1.0 8:1.0 716:1.0 10:1.0 81:1.0 245:1.0 11:1.0 206:1.0 246:1.0 37:1.0 20:1.0 14:1.0 207:1.0 55:1.0 
-500.0 713:1.0 3:1.0 131:1.0 5:1.0 6:1.0 827:1.0 8:1.0 716:1.0 10:1.0 81:1.0 245:1.0 11:1.0 206:1.0 246:1.0 20:1.0 37:1.0 14:1.0 207:1.0 55:1.0 
-0.17781964640247613 713:1.0 3:1.0 4:1.0 714:1.0 6:1.0 930:1.0 8:1.0 716:1.0 10:1.0 81:1.0 11:1.0 80:1.0 671:1.0 
-0.1638747031647805 713:1.0 3:1.0 131:1.0 5:1.0 6:1.0 5219:1.0 8:1.0 716:1.0 10:1.0 669:1.0 11:1.0 80:1.0 217:1.0 163:1.0 164:1.0 171:1.0 82:1.0 37:1.0 
-0.10593328454978608 713:1.0 3:1.0 76:1.0 396:1.0 6:1.0 3900:1.0 8:1.0 716:1.0 10:1.0 245:1.0 11:1.0 80:1.0 246:1.0 82:1.0 37:1.0 
-0.19082495293407842 713:1.0 3:1.0 76:1.0 517:1.0 6:1.0 2074:1.0 8:1.0 716:1.0 10:1.0 11:1.0 245:1.0 80:1.0 163:1.0 48:1.0 20:1.0 246:1.0 136:1.0 164:1.0 
-0.30033422797666304 713:1.0 380:1.0 131:1.0 714:1.0 381:1.0 960:1.0 8:1.0 716:1.0 10:1.0 11:1.0 54:1.0 669:1.0 37:1.0 164:1.0 
-0.2461329366992179 713:1.0 3:1.0 4:1.0 714:1.0 6:1.0 2236:1.0 8:1.0 716:1.0 10:1.0 245:1.0 11:1.0 37:1.0 265:1.0 20:1.0 
-499.82030871329556 713:1.0 3:1.0 4:1.0 714:1.0 6:1.0 2236:1.0 8:1.0 716:1.0 10:1.0 245:1.0 11:1.0 37:1.0 20:1.0 265:1.0 
-0.21370964996056124 713:1.0 57:1.0 131:1.0 714:1.0 59:1.0 2324:1.0 623:1.0 716:1.0 10:1.0 11:1.0 80:1.0 245:1.0 334:1.0 37:1.0 
-0.18758347002826123 713:1.0 3:1.0 266:1.0 5:1.0 6:1.0 4658:1.0 32:1.0 716:1.0 10:1.0 11:1.0 54:1.0 81:1.0 669:1.0 136:1.0 37:1.0 164:1.0 
-0.14283976171612595 713:1.0 3:1.0 4:1.0 1718:1.0 6:1.0 78:1.0 162:1.0 716:1.0 10:1.0 81:1.0 11:1.0 245:1.0 206:1.0 470:1.0 14:1.0 61:1.0 246:1.0 55:1.0 207:1.0 
-0.08939676240506453 713:1.0 57:1.0 4:1.0 1718:1.0 59:1.0 78:1.0 162:1.0 716:1.0 10:1.0 81:1.0 11:1.0 245:1.0 206:1.0 470:1.0 20:1.0 14:1.0 246:1.0 55:1.0 207:1.0 
-0.31412256771138347 713:1.0 3:1.0 173:1.0 4597:1.0 6:1.0 771:1.0 8:1.0 716:1.0 10:1.0 54:1.0 11:1.0 669:1.0 81:1.0 245:1.0 37:1.0 20:1.0 82:1.0 246:1.0 
-0.5564511666244828 713:1.0 3:1.0 173:1.0 396:1.0 6:1.0 4479:1.0 8:1.0 716:1.0 10:1.0 22013:1.0 136:1.0 
-0.14975634758271034 713:1.0 3:1.0 4:1.0 714:1.0 6:1.0 2324:1.0 162:1.0 716:1.0 10:1.0 245:1.0 80:1.0 206:1.0 265:1.0 207:1.0 
-0.7575756262156802 713:1.0 3:1.0 76:1.0 396:1.0 6:1.0 5433:1.0 8:1.0 716:1.0 10:1.0 245:1.0 11:1.0 80:1.0 15:1.0 171:1.0 82:1.0 20:1.0 265:1.0 
-0.5601459225741227 122:1.0 3:1.0 173:1.0 517:1.0 6:1.0 4281:1.0 8:1.0 716:1.0 10:1.0 245:1.0 13:1.0 37:1.0 
-0.12877078219668553 713:1.0 3:1.0 76:1.0 714:1.0 6:1.0 11222:1.0 363:1.0 716:1.0 10:1.0 81:1.0 11:1.0 163:1.0 37:1.0 246:1.0 265:1.0 
-0.7142859283759309 713:1.0 3:1.0 4:1.0 396:1.0 6:1.0 2470:1.0 8:1.0 716:1.0 10:1.0 81:1.0 11:1.0 80:1.0 245:1.0 37:1.0 136:1.0 14:1.0 20:1.0 265:1.0 
-0.12362913435688541 713:1.0 3:1.0 4:1.0 714:1.0 6:1.0 12290:1.0 8:1.0 716:1.0 10:1.0 54:1.0 11:1.0 80:1.0 245:1.0 37:1.0 136:1.0 
-0.25083762553126926 713:1.0 57:1.0 131:1.0 396:1.0 59:1.0 17516:1.0 8:1.0 716:1.0 10:1.0 80:1.0 11:1.0 81:1.0 157:1.0 20:1.0 55:1.0 14:1.0 37:1.0 
-0.1715417142123589 713:1.0 66:1.0 131:1.0 396:1.0 67:1.0 17516:1.0 8:1.0 716:1.0 10:1.0 80:1.0 11:1.0 81:1.0 61:1.0 157:1.0 20:1.0 14:1.0 37:1.0 
-0.04693448483145063 713:1.0 3:1.0 4:1.0 5:1.0 6:1.0 78:1.0 8:1.0 716:1.0 10:1.0 11:1.0 245:1.0 80:1.0 81:1.0 669:1.0 136:1.0 20:1.0 37:1.0 671:1.0 14:1.0 164:1.0 
-0.2348660081277525 713:1.0 3:1.0 76:1.0 5:1.0 6:1.0 27266:1.0 8:1.0 716:1.0 10:1.0 54:1.0 11:1.0 81:1.0 245:1.0 37:1.0 82:1.0 246:1.0 
-0.06825442030774172 713:1.0 3:1.0 4:1.0 396:1.0 6:1.0 8915:1.0 8:1.0 716:1.0 10:1.0 81:1.0 11:1.0 80:1.0 245:1.0 246:1.0 136:1.0 82:1.0 37:1.0 
-0.11498487581031565 713:1.0 3:1.0 4:1.0 714:1.0 6:1.0 2496:1.0 8:1.0 716:1.0 10:1.0 81:1.0 11:1.0 245:1.0 54:1.0 37:1.0 171:1.0 55:1.0 
-0.1298740919298571 713:1.0 3:1.0 4:1.0 6201:1.0 6:1.0 398:1.0 8:1.0 716:1.0 10:1.0 81:1.0 11:1.0 245:1.0 37:1.0 136:1.0 
-0.05327220125039606 713:1.0 3:1.0 4:1.0 7720:1.0 6:1.0 2740:1.0 8:1.0 716:1.0 10:1.0 81:1.0 11:1.0 80:1.0 470:1.0 136:1.0 82:1.0 
-0.094509793468263 713:1.0 3:1.0 4:1.0 714:1.0 6:1.0 14563:1.0 8:1.0 716:1.0 10:1.0 81:1.0 11:1.0 80:1.0 54:1.0 37:1.0 136:1.0 82:1.0 
-0.14810090732685183 713:1.0 3:1.0 131:1.0 396:1.0 6:1.0 3900:1.0 8:1.0 716:1.0 10:1.0 245:1.0 11:1.0 80:1.0 37:1.0 136:1.0 
-0.14874684701901503 713:1.0 3:1.0 76:1.0 5:1.0 6:1.0 1637:1.0 162:1.0 716:1.0 10:1.0 245:1.0 11:1.0 80:1.0 171:1.0 246:1.0 
-0.1215013274297639 713:1.0 3:1.0 131:1.0 396:1.0 6:1.0 3944:1.0 2910:1.0 716:1.0 10:1.0 245:1.0 11:1.0 163:1.0 265:1.0 14:1.0 164:1.0 
-0.13489491487509647 713:1.0 3:1.0 4:1.0 396:1.0 6:1.0 3944:1.0 8:1.0 716:1.0 10:1.0 54:1.0 81:1.0 11:1.0 1382:1.0 37:1.0 470:1.0 171:1.0 
-0.07656902605449682 713:1.0 3:1.0 4:1.0 2703:1.0 6:1.0 788:1.0 195:1.0 716:1.0 10:1.0 11:1.0 54:1.0 80:1.0 245:1.0 136:1.0 37:1.0 20:1.0 14:1.0 
-0.12768714843838258 713:1.0 3:1.0 4:1.0 2703:1.0 6:1.0 788:1.0 195:1.0 716:1.0 10:1.0 11:1.0 54:1.0 80:1.0 245:1.0 136:1.0 20:1.0 37:1.0 14:1.0 
-0.18716162533529826 2:1.0 75:1.0 4:1.0 396:1.0 77:1.0 12729:1.0 8:1.0 716:1.0 10:1.0 81:1.0 13:1.0 11:1.0 245:1.0 37:1.0 20:1.0 14:1.0 246:1.0 
-0.19365527615208655 2:1.0 3:1.0 4:1.0 396:1.0 6:1.0 12729:1.0 8:1.0 716:1.0 10:1.0 13:1.0 81:1.0 11:1.0 245:1.0 37:1.0 14:1.0 246:1.0 
-500.0 713:1.0 3:1.0 4:1.0 714:1.0 6:1.0 975:1.0 8:1.0 716:1.0 10:1.0 81:1.0 11:1.0 80:1.0 206:1.0 37:1.0 20:1.0 470:1.0 
-0.13263288212308016 713:1.0 3:1.0 4:1.0 714:1.0 6:1.0 250:1.0 8:1.0 716:1.0 10:1.0 11:1.0 245:1.0 80:1.0 81:1.0 82:1.0 20:1.0 37:1.0 
-0.12718302713745014 713:1.0 3:1.0 131:1.0 396:1.0 6:1.0 10285:1.0 162:1.0 716:1.0 10:1.0 245:1.0 11:1.0 80:1.0 37:1.0 48:1.0 82:1.0 
-0.19512441107210138 713:1.0 3:1.0 4:1.0 5:1.0 6:1.0 3944:1.0 8:1.0 716:1.0 10:1.0 245:1.0 11:1.0 178:1.0 37:1.0 136:1.0 14:1.0 
-0.1233706814325819 2:1.0 3:1.0 4:1.0 714:1.0 6:1.0 4658:1.0 8:1.0 716:1.0 10:1.0 54:1.0 11:1.0 245:1.0 13:1.0 206:1.0 179:1.0 15:1.0 20:1.0 470:1.0 55:1.0 
-500.0 2:1.0 3:1.0 4:1.0 714:1.0 6:1.0 4658:1.0 8:1.0 716:1.0 10:1.0 54:1.0 11:1.0 13:1.0 245:1.0 206:1.0 179:1.0 20:1.0 15:1.0 470:1.0 55:1.0 
-0.11520620681314434 713:1.0 3:1.0 76:1.0 5:1.0 6:1.0 2145:1.0 8:1.0 716:1.0 10:1.0 245:1.0 11:1.0 80:1.0 54:1.0 81:1.0 265:1.0 136:1.0 82:1.0 37:1.0 
-0.07794093477337351 713:1.0 3:1.0 131:1.0 2981:1.0 6:1.0 134:1.0 8:1.0 716:1.0 10:1.0 11:1.0 245:1.0 80:1.0 669:1.0 136:1.0 37:1.0 20:1.0 14:1.0 
-0.15559862090960622 713:1.0 3:1.0 131:1.0 2981:1.0 6:1.0 134:1.0 8:1.0 716:1.0 10:1.0 11:1.0 245:1.0 80:1.0 669:1.0 136:1.0 20:1.0 37:1.0 14:1.0 
-0.28757782512775476 713:1.0 3:1.0 173:1.0 396:1.0 6:1.0 8169:1.0 8:1.0 716:1.0 10:1.0 245:1.0 80:1.0 246:1.0 14:1.0 
-0.07668421563815846 713:1.0 3:1.0 4:1.0 2981:1.0 6:1.0 3944:1.0 363:1.0 716:1.0 10:1.0 11:1.0 245:1.0 80:1.0 206:1.0 82:1.0 20:1.0 15:1.0 207:1.0 
-0.27525946273964463 713:1.0 3:1.0 173:1.0 714:1.0 6:1.0 3128:1.0 8:1.0 716:1.0 10:1.0 245:1.0 11:1.0 80:1.0 37:1.0 82:1.0 
-0.11299136121534349 713:1.0 3:1.0 4:1.0 714:1.0 6:1.0 1637:1.0 8:1.0 716:1.0 10:1.0 81:1.0 11:1.0 538:1.0 245:1.0 470:1.0 246:1.0 
-0.1791645890978639 713:1.0 3:1.0 4:1.0 517:1.0 6:1.0 3944:1.0 162:1.0 716:1.0 10:1.0 81:1.0 11:1.0 80:1.0 206:1.0 470:1.0 171:1.0 14:1.0 207:1.0 
-0.10755774206364287 713:1.0 3:1.0 4:1.0 5:1.0 6:1.0 2145:1.0 8:1.0 716:1.0 10:1.0 245:1.0 11:1.0 80:1.0 37:1.0 136:1.0 14:1.0 
-0.08375829150308026 713:1.0 3:1.0 4:1.0 1109:1.0 6:1.0 2236:1.0 8:1.0 716:1.0 10:1.0 669:1.0 11:1.0 538:1.0 37:1.0 82:1.0 246:1.0 
-0.12082308316665039 713:1.0 3:1.0 4:1.0 396:1.0 6:1.0 5433:1.0 8:1.0 716:1.0 10:1.0 245:1.0 11:1.0 538:1.0 80:1.0 246:1.0 82:1.0 
-0.09207663595890625 713:1.0 3:1.0 4:1.0 714:1.0 6:1.0 15217:1.0 8:1.0 716:1.0 10:1.0 81:1.0 11:1.0 80:1.0 538:1.0 246:1.0 82:1.0 
-0.09366374296618099 713:1.0 3:1.0 4:1.0 1718:1.0 6:1.0 583:1.0 8:1.0 716:1.0 10:1.0 81:1.0 11:1.0 80:1.0 37:1.0 470:1.0 20:1.0 82:1.0 
-0.12062475118205307 713:1.0 3:1.0 131:1.0 396:1.0 6:1.0 4952:1.0 8:1.0 716:1.0 10:1.0 455:1.0 54:1.0 11:1.0 245:1.0 207:1.0 37:1.0 14:1.0 
