svm_type c_svc
kernel_type polynomial
degree 2
gamma 0.2
coef0 0.0
nr_class 2
total_sv 52
rho -0.3722384633247884
label 1 -1
nr_sv 30 22
SV
0.08551001278678548 2:1.0 24:1.0 131:1.0 707:1.0 25:1.0 2145:1.0 8:1.0 4538:1.0 10:1.0 11:1.0 80:1.0 14:1.0 
0.04029560716632845 224:1.0 3:1.0 4:1.0 225:1.0 6:1.0 2145:1.0 8:1.0 4538:1.0 10:1.0 455:1.0 11:1.0 80:1.0 13:1.0 206:1.0 245:1.0 207:1.0 14:1.0 20:1.0 265:1.0 16:1.0 
0.08839986687899233 122:1.0 24:1.0 4:1.0 5:1.0 25:1.0 2145:1.0 8:1.0 4538:1.0 10:1.0 455:1.0 245:1.0 13:1.0 11:1.0 80:1.0 207:1.0 37:1.0 20:1.0 82:1.0 671:1.0 
0.30570651574027313 2:1.0 3:1.0 173:1.0 1064:1.0 6:1.0 2145:1.0 128:1.0 4538:1.0 10:1.0 80:1.0 245:1.0 14:1.0 305:1.0 
0.06909459924172665 2:1.0 66:1.0 4:1.0 5:1.0 67:1.0 2145:1.0 162:1.0 4538:1.0 10:1.0 11:1.0 13:1.0 80:1.0 206:1.0 14:1.0 61:1.0 82:1.0 20:1.0 207:1.0 
0.13371732955150753 2:1.0 3:1.0 4:1.0 5:1.0 6:1.0 2145:1.0 162:1.0 4538:1.0 10:1.0 11:1.0 13:1.0 80:1.0 206:1.0 14:1.0 61:1.0 55:1.0 82:1.0 207:1.0 
0.08474265406842944 224:1.0 24:1.0 4:1.0 225:1.0 25:1.0 2145:1.0 162:1.0 4538:1.0 10:1.0 455:1.0 81:1.0 11:1.0 80:1.0 206:1.0 207:1.0 246:1.0 171:1.0 82:1.0 
0.14941255592853983 713:1.0 24:1.0 4:1.0 714:1.0 25:1.0 2145:1.0 8:1.0 4538:1.0 10:1.0 81:1.0 11:1.0 80:1.0 20:1.0 171:1.0 
0.11325600378307378 2:1.0 3:1.0 173:1.0 517:1.0 6:1.0 2145:1.0 176:1.0 4538:1.0 10:1.0 80:1.0 81:1.0 245:1.0 82:1.0 37:1.0 
0.10845243039910756 2:1.0 380:1.0 4:1.0 517:1.0 878:1.0 2145:1.0 8:1.0 4538:1.0 10:1.0 81:1.0 13:1.0 11:1.0 14:1.0 20:1.0 136:1.0 82:1.0 16:1.0 
0.10314671643492339 100:1.0 24:1.0 4:1.0 7654:1.0 25:1.0 2145:1.0 8:1.0 4538:1.0 10:1.0 245:1.0 13:1.0 11:1.0 80:1.0 37:1.0 20:1.0 136:1.0 14:1.0 
0.08421495076406234 2:1.0 3:1.0 173:1.0 5:1.0 6:1.0 2145:1.0 176:1.0 4538:1.0 10:1.0 80:1.0 245:1.0 82:1.0 265:1.0 
0.10171318858749379 172:1.0 24:1.0 4:1.0 504:1.0 25:1.0 2145:1.0 8:1.0 4538:1.0 10:1.0 11:1.0 80:1.0 171:1.0 14:1.0 
0.18748526205382454 122:1.0 3:1.0 4:1.0 2703:1.0 6:1.0 2145:1.0 8:1.0 4538:1.0 10:1.0 13:1.0 11:1.0 80:1.0 245:1.0 37:1.0 20:1.0 136:1.0 14:1.0 265:1.0 16:1.0 
0.054801714529180735 122:1.0 24:1.0 4:1.0 2703:1.0 25:1.0 2145:1.0 8:1.0 4538:1.0 10:1.0 11:1.0 80:1.0 206:1.0 82:1.0 14:1.0 207:1.0 
0.16127681258122373 2:1.0 3:1.0 131:1.0 5:1.0 6:1.0 2145:1.0 8:1.0 4538:1.0 10:1.0 11:1.0 80:1.0 245:1.0 13:1.0 14:1.0 171:1.0 246:1.0 16:1.0 
0.36660787497530034 2:1.0 3:1.0 4:1.0 517:1.0 6:1.0 2145:1.0 8:1.0 4538:1.0 10:1.0 245:1.0 13:1.0 11:1.0 80:1.0 206:1.0 37:1.0 20:1.0 14:1.0 61:1.0 82:1.0 470:1.0 55:1.0 
0.07265054916193356 2:1.0 24:1.0 4:1.0 517:1.0 25:1.0 2145:1.0 8:1.0 4538:1.0 10:1.0 81:1.0 13:1.0 11:1.0 80:1.0 246:1.0 20:1.0 14:1.0 82:1.0 
0.058806917359952145 2:1.0 66:1.0 76:1.0 517:1.0 67:1.0 2145:1.0 8:1.0 4538:1.0 10:1.0 13:1.0 11:1.0 80:1.0 61:1.0 171:1.0 14:1.0 16:1.0 
0.0723726578067995 2:1.0 3:1.0 131:1.0 9632:1.0 6:1.0 2145:1.0 8:1.0 4538:1.0 10:1.0 11:1.0 80:1.0 206:1.0 13:1.0 48:1.0 14:1.0 207:1.0 16:1.0 
0.08464736801460465 2:1.0 24:1.0 131:1.0 5:1.0 25:1.0 2145:1.0 8:1.0 4538:1.0 10:1.0 11:1.0 13:1.0 245:1.0 80:1.0 136:1.0 20:1.0 37:1.0 82:1.0 55:1.0 364:1.0 
0.23510570329527347 2:1.0 66:1.0 131:1.0 5:1.0 67:1.0 2145:1.0 8:1.0 4538:1.0 10:1.0 11:1.0 13:1.0 245:1.0 80:1.0 136:1.0 20:1.0 37:1.0 82:1.0 16:1.0 364:1.0 
0.05253484650727794 2:1.0 380:1.0 131:1.0 5:1.0 6726:1.0 2145:1.0 8:1.0 4538:1.0 10:1.0 11:1.0 13:1.0 245:1.0 136:1.0 20:1.0 37:1.0 82:1.0 16:1.0 55:1.0 
0.07206021360424872 2:1.0 3:1.0 124:1.0 517:1.0 6:1.0 2145:1.0 128:1.0 4538:1.0 10:1.0 80:1.0 245:1.0 14:1.0 37:1.0 
0.10633190007076322 2:1.0 24:1.0 131:1.0 517:1.0 25:1.0 2145:1.0 8:1.0 4538:1.0 10:1.0 54:1.0 13:1.0 11:1.0 80:1.0 37:1.0 20:1.0 14:1.0 82:1.0 
0.06787706350331157 2:1.0 3:1.0 266:1.0 517:1.0 6:1.0 2145:1.0 486:1.0 4538:1.0 10:1.0 80:1.0 206:1.0 14:1.0 265:1.0 
0.11829587578773297 2:1.0 3:1.0 173:1.0 1064:1.0 6:1.0 2145:1.0 486:1.0 4538:1.0 10:1.0 80:1.0 206:1.0 82:1.0 237:1.0 
0.3120461308435477 2:1.0 24:1.0 131:1.0 60:1.0 25:1.0 2145:1.0 8:1.0 4538:1.0 10:1.0 11:1.0 13:1.0 245:1.0 80:1.0 14:1.0 20:1.0 37:1.0 
0.058818435930817065 2:1.0 24:1.0 173:1.0 7720:1.0 25:1.0 2145:1.0 8:1.0 4538:1.0 10:1.0 455:1.0 80:1.0 206:1.0 207:1.0 171:1.0 
0.013622712073493248 405:1.0 3:1.0 124:1.0 368:1.0 6:1.0 2145:1.0 128:1.0 4538:1.0 10:1.0 80:1.0 245:1.0 14:1.0 265:1.0 
-0.13954436859761019 122:1.0 3:1.0 4:1.0 5:1.0 6:1.0 2145:1.0 8:1.0 4538:1.0 10:1.0 455:1.0 245:1.0 11:1.0 80:1.0 13:1.0 207:1.0 37:1.0 82:1.0 671:1.0 16:1.0 
-0.10171318858749379 2:1.0 57:1.0 131:1.0 5:1.0 59:1.0 2145:1.0 162:1.0 4538:1.0 10:1.0 11:1.0 80:1.0 14:1.0 246:1.0 
-0.14941255592853983 2:1.0 3:1.0 4:1.0 517:1.0 6:1.0 2145:1.0 162:1.0 4538:1.0 10:1.0 54:1.0 11:1.0 80:1.0 37:1.0 14:1.0 82:1.0 
-0.13371732955150753 2:1.0 57:1.0 4:1.0 5:1.0 59:1.0 2145:1.0 162:1.0 4538:1.0 10:1.0 11:1.0 13:1.0 80:1.0 206:1.0 14:1.0 55:1.0 82:1.0 20:1.0 207:1.0 
-0.18365612234435402 713:1.0 3:1.0 4:1.0 714:1.0 6:1.0 2145:1.0 8:1.0 4538:1.0 10:1.0 81:1.0 11:1.0 80:1.0 171:1.0 16:1.0 
-0.05392390522865731 2:1.0 3:1.0 4:1.0 517:1.0 6:1.0 2145:1.0 8:1.0 4538:1.0 10:1.0 81:1.0 11:1.0 80:1.0 13:1.0 14:1.0 136:1.0 82:1.0 364:1.0 16:1.0 
-0.30570651574027313 2:1.0 3:1.0 173:1.0 1064:1.0 6:1.0 2145:1.0 128:1.0 4538:1.0 10:1.0 245:1.0 13:1.0 179:1.0 20:1.0 
-0.23241802847106321 2:1.0 3:1.0 173:1.0 1064:1.0 6:1.0 2145:1.0 128:1.0 4538:1.0 10:1.0 13:1.0 245:1.0 20:1.0 179:1.0 
-0.1705302497110861 100:1.0 3:1.0 4:1.0 7654:1.0 6:1.0 2145:1.0 8:1.0 4538:1.0 10:1.0 245:1.0 11:1.0 80:1.0 13:1.0 37:1.0 136:1.0 14:1.0 16:1.0 
-0.2537836164483189 122:1.0 3:1.0 4:1.0 2703:1.0 6:1.0 2145:1.0 8:1.0 4538:1.0 10:1.0 11:1.0 80:1.0 13:1.0 245:1.0 37:1.0 136:1.0 14:1.0 20:1.0 265:1.0 16:1.0 
-0.08839986687899233 2:1.0 3:1.0 4:1.0 5:1.0 6:1.0 2145:1.0 8:1.0 4538:1.0 10:1.0 245:1.0 11:1.0 80:1.0 13:1.0 246:1.0 14:1.0 171:1.0 16:1.0 
-0.10314671643492339 2:1.0 3:1.0 173:1.0 5:1.0 6:1.0 2145:1.0 162:1.0 4538:1.0 10:1.0 81:1.0 13:1.0 11:1.0 80:1.0 206:1.0 37:1.0 61:1.0 171:1.0 14:1.0 207:1.0 
-0.2136752154168937 2:1.0 3:1.0 4:1.0 517:1.0 6:1.0 2145:1.0 8:1.0 4538:1.0 10:1.0 245:1.0 11:1.0 13:1.0 80:1.0 206:1.0 37:1.0 14:1.0 61:1.0 82:1.0 20:1.0 470:1.0 55:1.0 
-0.18082508820590704 2:1.0 57:1.0 4:1.0 517:1.0 59:1.0 2145:1.0 8:1.0 4538:1.0 10:1.0 245:1.0 13:1.0 11:1.0 80:1.0 206:1.0 37:1.0 20:1.0 14:1.0 82:1.0 470:1.0 55:1.0 
-0.10633190007076322 2:1.0 3:1.0 4:1.0 517:1.0 6:1.0 2145:1.0 8:1.0 4538:1.0 10:1.0 81:1.0 11:1.0 80:1.0 13:1.0 246:1.0 14:1.0 82:1.0 16:1.0 
-0.07206021360424872 2:1.0 57:1.0 76:1.0 517:1.0 59:1.0 2145:1.0 8:1.0 4538:1.0 10:1.0 11:1.0 80:1.0 13:1.0 171:1.0 14:1.0 16:1.0 55:1.0 
-0.04029560716632845 2:1.0 3:1.0 131:1.0 517:1.0 6:1.0 2145:1.0 8:1.0 4538:1.0 10:1.0 245:1.0 11:1.0 80:1.0 13:1.0 246:1.0 136:1.0 14:1.0 16:1.0 
-0.16127681258122373 2:1.0 57:1.0 131:1.0 5:1.0 59:1.0 2145:1.0 363:1.0 4538:1.0 10:1.0 11:1.0 80:1.0 81:1.0 14:1.0 37:1.0 
-0.2876405498025514 2:1.0 3:1.0 131:1.0 5:1.0 6:1.0 2145:1.0 8:1.0 4538:1.0 10:1.0 11:1.0 13:1.0 245:1.0 80:1.0 136:1.0 20:1.0 37:1.0 82:1.0 16:1.0 55:1.0 364:1.0 
-0.20380588857451845 2:1.0 57:1.0 131:1.0 517:1.0 59:1.0 2145:1.0 162:1.0 4538:1.0 10:1.0 11:1.0 80:1.0 14:1.0 171:1.0 
-0.06909459924172665 2:1.0 3:1.0 131:1.0 517:1.0 6:1.0 2145:1.0 8:1.0 4538:1.0 10:1.0 54:1.0 11:1.0 80:1.0 13:1.0 37:1.0 14:1.0 82:1.0 16:1.0 
-0.3120461308435477 2:1.0 3:1.0 131:1.0 60:1.0 6:1.0 2145:1.0 8:1.0 4538:1.0 10:1.0 11:1.0 13:1.0 245:1.0 80:1.0 14:1.0 20:1.0 37:1.0 16:1.0 
